data1,data2,data3,data4
0,-9.37630384099677e-05,-0.000929777070398553,-0.000941185563521231
0.0250041673612269,-9.37630384129549e-05,-0.000929777188395455,-0.000941185589349622
0.0500083347224537,-9.37628357023473e-05,-0.000929763745295083,-0.000941182671605211
0.0750125020836806,-9.37949623713443e-05,-0.000929278363356677,-0.000941126868627153
0.100016669444907,-9.50052764631483e-05,-0.000930045228903439,-0.000941735822159608
0.125020836806134,-9.49883871826298e-05,-0.000929814667483946,-0.000940896705810889
0.150025004167361,-9.49883871826298e-05,-0.000929814667483946,-0.000940896705810889
0.175029171528588,-9.49883871826298e-05,-0.000929814667483946,-0.000940896705810889
0.200033338889815,-9.49883871826298e-05,-0.000929814667483946,-0.000940896705810889
0.225037506251042,-9.49883871826298e-05,-0.000929814667483946,-0.000940896705810889
0.250041673612269,-9.49883871826298e-05,-0.000929814667483946,-0.000940896705810889
0.275045840973496,-9.49883871826298e-05,-0.000929814667483946,-0.000940896705810889
0.300050008334722,-9.49883871826298e-05,-0.000929814667483946,-0.000940896705810889
0.325054175695949,-9.49883871826298e-05,-0.000929814667483946,-0.000940896705810889
0.350058343057176,-9.49883871826298e-05,-0.000929814667483946,-0.000940896705810889
0.375062510418403,-9.49883871826298e-05,-0.000929814667483946,-0.000940896705810889
0.40006667777963,-9.49883871826298e-05,-0.000929814667483946,-0.000940896705810889
0.425070845140857,-9.49883871826298e-05,-0.000929814667483946,-0.000940896705810889
0.450075012502084,-9.49883871826298e-05,-0.000929814667483946,-0.000940896705810889
0.475079179863311,-9.49883871826298e-05,-0.000929814667483946,-0.000940896705810889
0.500083347224537,-9.49883871826298e-05,-0.000929814667483946,-0.000940896705810889
0.525087514585764,-9.49883871826298e-05,-0.000929814667483946,-0.000940896705810889
0.550091681946991,-9.49883871826298e-05,-0.000929814667483946,-0.000940896705810889
0.575095849308218,-9.49883871826298e-05,-0.000929814667483946,-0.000940896705810889
0.600100016669445,-9.49883871826298e-05,-0.000929814667483946,-0.000940896705810889
0.625104184030672,-9.49883871826298e-05,-0.000929814667483946,-0.000940896705810889
0.650108351391899,-9.49883871826298e-05,-0.000929814667483946,-0.000940896705810889
0.675112518753126,-9.49883871826298e-05,-0.000929814667483946,-0.000940896705810889
0.700116686114352,-9.49883871826298e-05,-0.000929814667483946,-0.000940896705810889
0.725120853475579,-9.49883871826298e-05,-0.000929814667483946,-0.000940896705810889
0.750125020836806,-9.49883871826298e-05,-0.000929814667483946,-0.000940896705810889
0.775129188198033,-9.49883871826298e-05,-0.000929814667483946,-0.000940896705810889
0.80013335555926,-9.49883871826298e-05,-0.000929814667483946,-0.000940896705810889
0.825137522920487,-9.49883871826298e-05,-0.000929814667483946,-0.000940896705810889
0.850141690281714,-9.49883871826298e-05,-0.000929814667483946,-0.000940896705810889
0.875145857642941,-9.49883871826298e-05,-0.000929814667483946,-0.000940896705810889
0.900150025004167,-9.49883871826298e-05,-0.000929814667483946,-0.000940896705810889
0.925154192365394,-9.49883871826298e-05,-0.000929814667483946,-0.000940896705810889
0.950158359726621,-9.49883871826298e-05,-0.000929814667483946,-0.000940896705810889
0.975162527087848,-9.49883871826298e-05,-0.000929814667483946,-0.000940896705810889
1.00016669444907,-9.49883871826298e-05,-0.000929814667483946,-0.000940896705810889
1.0251708618103,-9.49883871826298e-05,-0.000929814667483946,-0.000940896705810889
1.05017502917153,-9.49883871826298e-05,-0.000929814667483946,-0.000940896705810889
1.07517919653276,-9.49883871826298e-05,-0.000929814667483946,-0.000940896705810889
1.10018336389398,-9.49883871826298e-05,-0.000929814667483946,-0.000940896705810889
1.12518753125521,-9.49883871826298e-05,-0.000929814667483946,-0.000940896705810889
1.15019169861644,-9.49883871826298e-05,-0.000929814667483946,-0.000940896705810889
1.17519586597766,-9.49883871826298e-05,-0.000929814667483946,-0.000940896705810889
1.20020003333889,-9.49883871826298e-05,-0.000929814667483946,-0.000940896705810889
1.22520420070012,-9.49883871826298e-05,-0.000929814667483946,-0.000940896705810889
1.25020836806134,-9.49883871826298e-05,-0.000929814667483946,-0.000940896705810889
1.27521253542257,-9.49883871826298e-05,-0.000929814667483946,-0.000940896705810889
1.3002167027838,-9.49883871826298e-05,-0.000929814667483946,-0.000940896705810889
1.32522087014502,-9.49883871826298e-05,-0.000929814667483946,-0.000940896705810889
1.35022503750625,-9.49883871826298e-05,-0.000929814667483946,-0.000940896705810889
1.37522920486748,-9.49883871826298e-05,-0.000929814667483946,-0.000940896705810889
1.4002333722287,-9.49883871826298e-05,-0.000929814667483946,-0.000940896705810889
1.42523753958993,-9.49883871826298e-05,-0.000929814667483946,-0.000940896705810889
1.45024170695116,-9.49883871826298e-05,-0.000929814667483946,-0.000940896705810889
1.47524587431239,-9.49883871826298e-05,-0.000929814667483946,-0.000940896705810889
1.50025004167361,-9.49883871826298e-05,-0.000929814667483946,-0.000940896705810889
1.52525420903484,-9.49883871826298e-05,-0.000929814667483946,-0.000940896705810889
1.55025837639607,-9.49883871826298e-05,-0.000929814667483946,-0.000940896705810889
1.57526254375729,-9.49883871826298e-05,-0.000929814667483946,-0.000940896705810889
1.60026671111852,-9.49883871826298e-05,-0.000929814667483946,-0.000940896705810889
1.62527087847975,-9.49883871826298e-05,-0.000929814667483946,-0.000940896705810889
1.65027504584097,-9.49883871826298e-05,-0.000929814667483946,-0.000940896705810889
1.6752792132022,-9.49883871826298e-05,-0.000929814667483946,-0.000940896705810889
1.70028338056343,-9.49883871826298e-05,-0.000929814667483946,-0.000940896705810889
1.72528754792465,-9.49883871826298e-05,-0.000929814667483946,-0.000940896705810889
1.75029171528588,-9.49883871826298e-05,-0.000929814667483946,-0.000940896705810889
1.77529588264711,-9.49883871826298e-05,-0.000929814667483946,-0.000940896705810889
1.80030005000833,-9.49883871826298e-05,-0.000929814667483946,-0.000940896705810889
1.82530421736956,-9.49883871826298e-05,-0.000929814667483946,-0.000940896705810889
1.85030838473079,-9.49883871826298e-05,-0.000929814667483946,-0.000940896705810889
1.87531255209202,-9.49883871826298e-05,-0.000929814667483946,-0.000940896705810889
1.90031671945324,-9.49883871826298e-05,-0.000929814667483946,-0.000940896705810889
1.92532088681447,-9.49883871826298e-05,-0.000929814667483946,-0.000940896705810889
1.9503250541757,-9.49883871826298e-05,-0.000929814667483946,-0.000940896705810889
1.97532922153692,-9.49883871826298e-05,-0.000929814667483946,-0.000940896705810889
2.00033338889815,-9.49883871826298e-05,-0.000929814667483946,-0.000940896705810889
2.02533755625938,-9.49883871826298e-05,-0.000929814667483946,-0.000940896705810889
2.0503417236206,-9.49883871826298e-05,-0.000929814667483946,-0.000940896705810889
2.07534589098183,-9.49883871826298e-05,-0.000929814667483946,-0.000940896705810889
2.10035005834306,-9.49883871826298e-05,-0.000929814667483946,-0.000940896705810889
2.12535422570428,-9.49883871826298e-05,-0.000929814667483946,-0.000940896705810889
2.15035839306551,-9.49883871826298e-05,-0.000929814667483946,-0.000940896705810889
2.17536256042674,-9.49883871826298e-05,-0.000929814667483946,-0.000940896705810889
2.20036672778796,-9.49883871826298e-05,-0.000929814667483946,-0.000940896705810889
2.22537089514919,-9.49883871826298e-05,-0.000929814667483946,-0.000940896705810889
2.25037506251042,-9.49883871826298e-05,-0.000929814667483946,-0.000940896705810889
2.27537922987165,-9.49883871826298e-05,-0.000929814667483946,-0.000940896705810889
2.30038339723287,-9.49883871826298e-05,-0.000929814667483946,-0.000940896705810889
2.3253875645941,-9.49883871826298e-05,-0.000929814667483946,-0.000940896705810889
2.35039173195533,-9.49883871826298e-05,-0.000929814667483946,-0.000940896705810889
2.37539589931655,-9.49883871826298e-05,-0.000929814667483946,-0.000940896705810889
2.40040006667778,-9.49883871826298e-05,-0.000929814667483946,-0.000940896705810889
2.42540423403901,-9.49883871826298e-05,-0.000929814667483946,-0.000940896705810889
2.45040840140023,-9.49883871826298e-05,-0.000929814667483946,-0.000940896705810889
2.47541256876146,-9.49883871826298e-05,-0.000929814667483946,-0.000940896705810889
2.50041673612269,-9.49883871826298e-05,-0.000929814667483946,-0.000940896705810889
2.52542090348391,-9.49883871826298e-05,-0.000929814667483946,-0.000940896705810889
2.55042507084514,-9.49883871826298e-05,-0.000929814667483946,-0.000940896705810889
2.57542923820637,-9.49883871826298e-05,-0.000929814667483946,-0.000940896705810889
2.60043340556759,-9.49883871826298e-05,-0.000929814667483946,-0.000940896705810889
2.62543757292882,-9.49883871826298e-05,-0.000929814667483946,-0.000940896705810889
2.65044174029005,-9.49883871826298e-05,-0.000929814667483946,-0.000940896705810889
2.67544590765128,-9.49883871826298e-05,-0.000929814667483946,-0.000940896705810889
2.7004500750125,-9.49883871826298e-05,-0.000929814667483946,-0.000940896705810889
2.72545424237373,-9.49883871826298e-05,-0.000929814667483946,-0.000940896705810889
2.75045840973496,-9.49883871826298e-05,-0.000929814667483946,-0.000940896705810889
2.77546257709618,-9.49883871826298e-05,-0.000929814667483946,-0.000940896705810889
2.80046674445741,-9.49883871826298e-05,-0.000929814667483946,-0.000940896705810889
2.82547091181864,-9.49883871826298e-05,-0.000929814667483946,-0.000940896705810889
2.85047507917986,-9.49883871826298e-05,-0.000929814667483946,-0.000940896705810889
2.87547924654109,-9.49883871826298e-05,-0.000929814667483946,-0.000940896705810889
2.90048341390232,-9.49883871826298e-05,-0.000929814667483946,-0.000940896705810889
2.92548758126354,-9.49883871826298e-05,-0.000929814667483946,-0.000940896705810889
2.95049174862477,-9.49883871826298e-05,-0.000929814667483946,-0.000940896705810889
2.975495915986,-9.49883871826298e-05,-0.000929814667483946,-0.000940896705810889
3.00050008334722,-9.49883871826298e-05,-0.000929814667483946,-0.000940896705810889
3.02550425070845,-9.49883871826298e-05,-0.000929814667483946,-0.000940896705810889
3.05050841806968,-9.49883871826298e-05,-0.000929814667483946,-0.000940896705810889
3.07551258543091,-9.49883871826298e-05,-0.000929814667483946,-0.000940896705810889
3.10051675279213,-9.49883871826298e-05,-0.000929814667483946,-0.000940896705810889
3.12552092015336,-9.49883871826298e-05,-0.000929814667483946,-0.000940896705810889
3.15052508751459,-9.49883871826298e-05,-0.000929814667483946,-0.000940896705810889
3.17552925487581,-9.49883871826298e-05,-0.000929814667483946,-0.000940896705810889
3.20053342223704,-9.49883871826298e-05,-0.000929814667483946,-0.000940896705810889
3.22553758959827,-9.49883871826298e-05,-0.000929814667483946,-0.000940896705810889
3.25054175695949,-9.49883871826298e-05,-0.000929814667483946,-0.000940896705810889
3.27554592432072,-9.49883871826298e-05,-0.000929814667483946,-0.000940896705810889
3.30055009168195,-9.49883871826298e-05,-0.000929814667483946,-0.000940896705810889
3.32555425904317,-9.49883871826298e-05,-0.000929814667483946,-0.000940896705810889
3.3505584264044,-9.49883871826298e-05,-0.000929814667483946,-0.000940896705810889
3.37556259376563,-9.49883871826298e-05,-0.000929814667483946,-0.000940896705810889
3.40056676112685,-9.49883871826298e-05,-0.000929814667483946,-0.000940896705810889
3.42557092848808,-9.49883871826298e-05,-0.000929814667483946,-0.000940896705810889
3.45057509584931,-9.49883871826298e-05,-0.000929814667483946,-0.000940896705810889
3.47557926321053,-9.49883871826298e-05,-0.000929814667483946,-0.000940896705810889
3.50058343057176,-9.49883871826298e-05,-0.000929814667483946,-0.000940896705810889
3.52558759793299,-9.49883871826298e-05,-0.000929814667483946,-0.000940896705810889
3.55059176529422,-9.49883871826298e-05,-0.000929814667483946,-0.000940896705810889
3.57559593265544,-9.49883871826298e-05,-0.000929814667483946,-0.000940896705810889
3.60060010001667,-9.49883871826298e-05,-0.000929814667483946,-0.000940896705810889
3.6256042673779,-9.49883871826298e-05,-0.000929814667483946,-0.000940896705810889
3.65060843473912,-9.49883871826298e-05,-0.000929814667483946,-0.000940896705810889
3.67561260210035,-9.49883871826298e-05,-0.000929814667483946,-0.000940896705810889
3.70061676946158,-9.49883871826298e-05,-0.000929814667483946,-0.000940896705810889
3.7256209368228,-9.49883871826298e-05,-0.000929814667483946,-0.000940896705810889
3.75062510418403,-9.49883871826298e-05,-0.000929814667483946,-0.000940896705810889
3.77562927154526,-9.49883871826298e-05,-0.000929814667483946,-0.000940896705810889
3.80063343890648,-9.49883871826298e-05,-0.000929814667483946,-0.000940896705810889
3.82563760626771,-9.49883871826298e-05,-0.000929814667483946,-0.000940896705810889
3.85064177362894,-9.49883871826298e-05,-0.000929814667483946,-0.000940896705810889
3.87564594099016,-9.49883871826298e-05,-0.000929814667483946,-0.000940896705810889
3.90065010835139,-9.49883871826298e-05,-0.000929814667483946,-0.000940896705810889
3.92565427571262,-9.49883871826298e-05,-0.000929814667483946,-0.000940896705810889
3.95065844307385,-9.49883871826298e-05,-0.000929814667483946,-0.000940896705810889
3.97566261043507,-9.49883871826298e-05,-0.000929814667483946,-0.000940896705810889
4.0006667777963,-9.49883871826298e-05,-0.000929814667483946,-0.000940896705810889
4.02567094515753,-9.49883871826298e-05,-0.000929814667483946,-0.000940896705810889
4.05067511251875,-9.49883871826298e-05,-0.000929814667483946,-0.000940896705810889
4.07567927987998,-9.49883871826298e-05,-0.000929814667483946,-0.000940896705810889
4.10068344724121,-9.49883871826298e-05,-0.000929814667483946,-0.000940896705810889
4.12568761460243,-9.49883871826298e-05,-0.000929814667483946,-0.000940896705810889
4.15069178196366,-9.49883871826298e-05,-0.000929814667483946,-0.000940896705810889
4.17569594932489,-9.49883871826298e-05,-0.000929814667483946,-0.000940896705810889
4.20070011668611,-9.49883871826298e-05,-0.000929814667483946,-0.000940896705810889
4.22570428404734,-9.49883871826298e-05,-0.000929814667483946,-0.000940896705810889
4.25070845140857,-9.49883871826298e-05,-0.000929814667483946,-0.000940896705810889
4.27571261876979,-9.49883871826298e-05,-0.000929814667483946,-0.000940896705810889
4.30071678613102,-9.49883871826298e-05,-0.000929814667483946,-0.000940896705810889
4.32572095349225,-9.49883871826298e-05,-0.000929814667483946,-0.000940896705810889
4.35072512085348,-9.49883871826298e-05,-0.000929814667483946,-0.000940896705810889
4.3757292882147,-9.49883871826298e-05,-0.000929814667483946,-0.000940896705810889
4.40073345557593,-9.49883871826298e-05,-0.000929814667483946,-0.000940896705810889
4.42573762293716,-9.49883871826298e-05,-0.000929814667483946,-0.000940896705810889
4.45074179029838,-9.49883871826298e-05,-0.000929814667483946,-0.000940896705810889
4.47574595765961,-9.49883871826298e-05,-0.000929814667483946,-0.000940896705810889
4.50075012502084,-9.49883871826298e-05,-0.000929814667483946,-0.000940896705810889
4.52575429238206,-9.49883871826298e-05,-0.000929814667483946,-0.000940896705810889
4.55075845974329,-9.49883871826298e-05,-0.000929814667483946,-0.000940896705810889
4.57576262710452,-9.49883871826298e-05,-0.000929814667483946,-0.000940896705810889
4.60076679446574,-9.49883871826298e-05,-0.000929814667483946,-0.000940896705810889
4.62577096182697,-9.49883871826298e-05,-0.000929814667483946,-0.000940896705810889
4.6507751291882,-9.49883871826298e-05,-0.000929814667483946,-0.000940896705810889
4.67577929654942,-9.49883871826298e-05,-0.000929814667483946,-0.000940896705810889
4.70078346391065,-9.49883871826298e-05,-0.000929814667483946,-0.000940896705810889
4.72578763127188,-9.49883871826298e-05,-0.000929814667483946,-0.000940896705810889
4.75079179863311,-9.49883871826298e-05,-0.000929814667483946,-0.000940896705810889
4.77579596599433,-9.49883871826298e-05,-0.000929814667483946,-0.000940896705810889
4.80080013335556,-9.49883871826298e-05,-0.000929814667483946,-0.000940896705810889
4.82580430071679,-9.49883871826298e-05,-0.000929814667483946,-0.000940896705810889
4.85080846807801,-9.49883871826298e-05,-0.000929814667483946,-0.000940896705810889
4.87581263543924,-9.49883871826298e-05,-0.000929814667483946,-0.000940896705810889
4.90081680280047,-9.49883871826298e-05,-0.000929814667483946,-0.000940896705810889
4.92582097016169,-9.49883871826298e-05,-0.000929814667483946,-0.000940896705810889
4.95082513752292,-9.49883871826298e-05,-0.000929814667483946,-0.000940896705810889
4.97582930488415,-9.49883871826298e-05,-0.000929814667483946,-0.000940896705810889
5.00083347224537,-9.49883871826298e-05,-0.000929814667483946,-0.000940896705810889
5.0258376396066,-9.49883871826298e-05,-0.000929814667483946,-0.000940896705810889
5.05084180696783,-9.49883871826298e-05,-0.000929814667483946,-0.000940896705810889
5.07584597432905,-9.49883871826298e-05,-0.000929814667483946,-0.000940896705810889
5.10085014169028,-9.49883871826298e-05,-0.000929814667483946,-0.000940896705810889
5.12585430905151,-9.49883871826298e-05,-0.000929814667483946,-0.000940896705810889
5.15085847641274,-9.49883871826298e-05,-0.000929814667483946,-0.000940896705810889
5.17586264377396,-9.49883871826298e-05,-0.000929814667483946,-0.000940896705810889
5.20086681113519,-9.49883871826298e-05,-0.000929814667483946,-0.000940896705810889
5.22587097849642,-9.49883871826298e-05,-0.000929814667483946,-0.000940896705810889
5.25087514585764,-9.49883871826298e-05,-0.000929814667483946,-0.000940896705810889
5.27587931321887,-9.49883871826298e-05,-0.000929814667483946,-0.000940896705810889
5.3008834805801,-9.49883871826298e-05,-0.000929814667483946,-0.000940896705810889
5.32588764794132,-9.49883871826298e-05,-0.000929814667483946,-0.000940896705810889
5.35089181530255,-9.49883871826298e-05,-0.000929814667483946,-0.000940896705810889
5.37589598266378,-9.49883871826298e-05,-0.000929814667483946,-0.000940896705810889
5.400900150025,-9.49883871826298e-05,-0.000929814667483946,-0.000940896705810889
5.42590431738623,-9.49883871826298e-05,-0.000929814667483946,-0.000940896705810889
5.45090848474746,-9.49883871826298e-05,-0.000929814667483946,-0.000940896705810889
5.47591265210868,-9.49883871826298e-05,-0.000929814667483946,-0.000940896705810889
5.50091681946991,-9.49883871826298e-05,-0.000929814667483946,-0.000940896705810889
5.52592098683114,-9.49883871826298e-05,-0.000929814667483946,-0.000940896705810889
5.55092515419236,-9.49883871826298e-05,-0.000929814667483946,-0.000940896705810889
5.57592932155359,-9.49883871826298e-05,-0.000929814667483946,-0.000940896705810889
5.60093348891482,-9.49883871826298e-05,-0.000929814667483946,-0.000940896705810889
5.62593765627605,-9.49883871826298e-05,-0.000929814667483946,-0.000940896705810889
5.65094182363727,-9.49883871826298e-05,-0.000929814667483946,-0.000940896705810889
5.6759459909985,-9.49883871826298e-05,-0.000929814667483946,-0.000940896705810889
5.70095015835973,-9.49883871826298e-05,-0.000929814667483946,-0.000940896705810889
5.72595432572095,-9.49883871826298e-05,-0.000929814667483946,-0.000940896705810889
5.75095849308218,-9.49883871826298e-05,-0.000929814667483946,-0.000940896705810889
5.77596266044341,-9.49883871826298e-05,-0.000929814667483946,-0.000940896705810889
5.80096682780463,-9.49883871826298e-05,-0.000929814667483946,-0.000940896705810889
5.82597099516586,-9.49883871826298e-05,-0.000929814667483946,-0.000940896705810889
5.85097516252709,-9.49883871826298e-05,-0.000929814667483946,-0.000940896705810889
5.87597932988831,-9.49883871826298e-05,-0.000929814667483946,-0.000940896705810889
5.90098349724954,-9.49883871826298e-05,-0.000929814667483946,-0.000940896705810889
5.92598766461077,-9.49883871826298e-05,-0.000929814667483946,-0.000940896705810889
5.950991831972,-9.49883871826298e-05,-0.000929814667483946,-0.000940896705810889
5.97599599933322,-9.49883871826298e-05,-0.000929814667483946,-0.000940896705810889
6.00100016669445,-9.49883871826298e-05,-0.000929814667483946,-0.000940896705810889
6.02600433405568,-9.49883871826298e-05,-0.000929814667483946,-0.000940896705810889
6.0510085014169,-9.49883871826298e-05,-0.000929814667483946,-0.000940896705810889
6.07601266877813,-9.49883871826298e-05,-0.000929814667483946,-0.000940896705810889
6.10101683613936,-9.49883871826298e-05,-0.000929814667483946,-0.000940896705810889
6.12602100350058,-9.49883871826298e-05,-0.000929814667483946,-0.000940896705810889
6.15102517086181,-9.49883871826298e-05,-0.000929814667483946,-0.000940896705810889
6.17602933822304,-9.49883871826298e-05,-0.000929814667483946,-0.000940896705810889
6.20103350558426,-9.49883871826298e-05,-0.000929814667483946,-0.000940896705810889
6.22603767294549,-9.49883871826298e-05,-0.000929814667483946,-0.000940896705810889
6.25104184030672,-9.49883871826298e-05,-0.000929814667483946,-0.000940896705810889
6.27604600766794,-9.49883871826298e-05,-0.000929814667483946,-0.000940896705810889
6.30105017502917,-9.49883871826298e-05,-0.000929814667483946,-0.000940896705810889
6.3260543423904,-9.49883871826298e-05,-0.000929814667483946,-0.000940896705810889
6.35105850975163,-9.49883871826298e-05,-0.000929814667483946,-0.000940896705810889
6.37606267711285,-9.49883871826298e-05,-0.000929814667483946,-0.000940896705810889
6.40106684447408,-9.49883871826298e-05,-0.000929814667483946,-0.000940896705810889
6.42607101183531,-9.49883871826298e-05,-0.000929814667483946,-0.000940896705810889
6.45107517919653,-9.49883871826298e-05,-0.000929814667483946,-0.000940896705810889
6.47607934655776,-9.49883871826298e-05,-0.000929814667483946,-0.000940896705810889
6.50108351391899,-9.49883871826298e-05,-0.000929814667483946,-0.000940896705810889
6.52608768128021,-9.49883871826298e-05,-0.000929814667483946,-0.000940896705810889
6.55109184864144,-9.49883871826298e-05,-0.000929814667483946,-0.000940896705810889
6.57609601600267,-9.49883871826298e-05,-0.000929814667483946,-0.000940896705810889
6.60110018336389,-9.49883871826298e-05,-0.000929814667483946,-0.000940896705810889
6.62610435072512,-9.49883871826298e-05,-0.000929814667483946,-0.000940896705810889
6.65110851808635,-9.49883871826298e-05,-0.000929814667483946,-0.000940896705810889
6.67611268544757,-9.49883871826298e-05,-0.000929814667483946,-0.000940896705810889
6.7011168528088,-9.49883871826298e-05,-0.000929814667483946,-0.000940896705810889
6.72612102017003,-9.49883871826298e-05,-0.000929814667483946,-0.000940896705810889
6.75112518753126,-9.49883871826298e-05,-0.000929814667483946,-0.000940896705810889
6.77612935489248,-9.49883871826298e-05,-0.000929814667483946,-0.000940896705810889
6.80113352225371,-9.49883871826298e-05,-0.000929814667483946,-0.000940896705810889
6.82613768961494,-9.49883871826298e-05,-0.000929814667483946,-0.000940896705810889
6.85114185697616,-9.49883871826298e-05,-0.000929814667483946,-0.000940896705810889
6.87614602433739,-9.49883871826298e-05,-0.000929814667483946,-0.000940896705810889
6.90115019169862,-9.49883871826298e-05,-0.000929814667483946,-0.000940896705810889
6.92615435905984,-9.49883871826298e-05,-0.000929814667483946,-0.000940896705810889
6.95115852642107,-9.49883871826298e-05,-0.000929814667483946,-0.000940896705810889
6.9761626937823,-9.49883871826298e-05,-0.000929814667483946,-0.000940896705810889
7.00116686114352,-9.49883871826298e-05,-0.000929814667483946,-0.000940896705810889
7.02617102850475,-9.49883871826298e-05,-0.000929814667483946,-0.000940896705810889
7.05117519586598,-9.49883871826298e-05,-0.000929814667483946,-0.000940896705810889
7.0761793632272,-9.49883871826298e-05,-0.000929814667483946,-0.000940896705810889
7.10118353058843,-9.49883871826298e-05,-0.000929814667483946,-0.000940896705810889
7.12618769794966,-9.49883871826298e-05,-0.000929814667483946,-0.000940896705810889
7.15119186531089,-9.49883871826298e-05,-0.000929814667483946,-0.000940896705810889
7.17619603267211,-9.49883871826298e-05,-0.000929814667483946,-0.000940896705810889
7.20120020003334,-9.49883871826298e-05,-0.000929814667483946,-0.000940896705810889
7.22620436739457,-9.49883871826298e-05,-0.000929814667483946,-0.000940896705810889
7.25120853475579,-9.49883871826298e-05,-0.000929814667483946,-0.000940896705810889
7.27621270211702,-9.49883871826298e-05,-0.000929814667483946,-0.000940896705810889
7.30121686947825,-9.49883871826298e-05,-0.000929814667483946,-0.000940896705810889
7.32622103683947,-9.49883871826298e-05,-0.000929814667483946,-0.000940896705810889
7.3512252042007,-9.49883871826298e-05,-0.000929814667483946,-0.000940896705810889
7.37622937156193,-9.49883871826298e-05,-0.000929814667483946,-0.000940896705810889
7.40123353892315,-9.49883871826298e-05,-0.000929814667483946,-0.000940896705810889
7.42623770628438,-9.49883871826298e-05,-0.000929814667483946,-0.000940896705810889
7.45124187364561,-9.49883871826298e-05,-0.000929814667483946,-0.000940896705810889
7.47624604100683,-9.49883871826298e-05,-0.000929814667483946,-0.000940896705810889
7.50125020836806,-9.49883871826298e-05,-0.000929814667483946,-0.000940896705810889
7.52625437572929,-9.49883871826298e-05,-0.000929814667483946,-0.000940896705810889
7.55125854309052,-9.49883871826298e-05,-0.000929814667483946,-0.000940896705810889
7.57626271045174,-9.49883871826298e-05,-0.000929814667483946,-0.000940896705810889
7.60126687781297,-9.49883871826298e-05,-0.000929814667483946,-0.000940896705810889
7.6262710451742,-9.49883871826298e-05,-0.000929814667483946,-0.000940896705810889
7.65127521253542,-9.49883871826298e-05,-0.000929814667483946,-0.000940896705810889
7.67627937989665,-9.49883871826298e-05,-0.000929814667483946,-0.000940896705810889
7.70128354725788,-9.49883871826298e-05,-0.000929814667483946,-0.000940896705810889
7.7262877146191,-9.49883871826298e-05,-0.000929814667483946,-0.000940896705810889
7.75129188198033,-9.49883871826298e-05,-0.000929814667483946,-0.000940896705810889
7.77629604934156,-9.49883871826298e-05,-0.000929814667483946,-0.000940896705810889
7.80130021670278,-9.49883871826298e-05,-0.000929814667483946,-0.000940896705810889
7.82630438406401,-9.49883871826298e-05,-0.000929814667483946,-0.000940896705810889
7.85130855142524,-9.49883871826298e-05,-0.000929814667483946,-0.000940896705810889
7.87631271878646,-9.49883871826298e-05,-0.000929814667483946,-0.000940896705810889
7.90131688614769,-9.49883871826298e-05,-0.000929814667483946,-0.000940896705810889
7.92632105350892,-9.49883871826298e-05,-0.000929814667483946,-0.000940896705810889
7.95132522087015,-9.49883871826298e-05,-0.000929814667483946,-0.000940896705810889
7.97632938823137,-9.49883871826298e-05,-0.000929814667483946,-0.000940896705810889
8.0013335555926,-9.49883871826298e-05,-0.000929814667483946,-0.000940896705810889
8.02633772295383,-9.49883871826298e-05,-0.000929814667483946,-0.000940896705810889
8.05134189031505,-9.49883871826298e-05,-0.000929814667483946,-0.000940896705810889
8.07634605767628,-9.49883871826298e-05,-0.000929814667483946,-0.000940896705810889
8.10135022503751,-9.49883871826298e-05,-0.000929814667483946,-0.000940896705810889
8.12635439239873,-9.49883871826298e-05,-0.000929814667483946,-0.000940896705810889
8.15135855975996,-9.49883871826298e-05,-0.000929814667483946,-0.000940896705810889
8.17636272712119,-9.49883871826298e-05,-0.000929814667483946,-0.000940896705810889
8.20136689448241,-9.49883871826298e-05,-0.000929814667483946,-0.000940896705810889
8.22637106184364,-9.49883871826298e-05,-0.000929814667483946,-0.000940896705810889
8.25137522920487,-9.49883871826298e-05,-0.000929814667483946,-0.000940896705810889
8.27637939656609,-9.49883871826298e-05,-0.000929814667483946,-0.000940896705810889
8.30138356392732,-9.49883871826298e-05,-0.000929814667483946,-0.000940896705810889
8.32638773128855,-9.49883871826298e-05,-0.000929814667483946,-0.000940896705810889
8.35139189864977,-9.49883871826298e-05,-0.000929814667483946,-0.000940896705810889
8.376396066011,-9.49883871826298e-05,-0.000929814667483946,-0.000940896705810889
8.40140023337223,-9.49883871826298e-05,-0.000929814667483946,-0.000940896705810889
8.42640440073346,-9.49883871826298e-05,-0.000929814667483946,-0.000940896705810889
8.45140856809468,-9.49883871826298e-05,-0.000929814667483946,-0.000940896705810889
8.47641273545591,-9.49883871826298e-05,-0.000929814667483946,-0.000940896705810889
8.50141690281714,-9.49883871826298e-05,-0.000929814667483946,-0.000940896705810889
8.52642107017836,-9.49883871826298e-05,-0.000929814667483946,-0.000940896705810889
8.55142523753959,-9.49883871826298e-05,-0.000929814667483946,-0.000940896705810889
8.57642940490082,-9.49883871826298e-05,-0.000929814667483946,-0.000940896705810889
8.60143357226204,-9.49883871826298e-05,-0.000929814667483946,-0.000940896705810889
8.62643773962327,-9.49883871826298e-05,-0.000929814667483946,-0.000940896705810889
8.6514419069845,-9.49883871826298e-05,-0.000929814667483946,-0.000940896705810889
8.67644607434572,-9.49883871826298e-05,-0.000929814667483946,-0.000940896705810889
8.70145024170695,-9.49883871826298e-05,-0.000929814667483946,-0.000940896705810889
8.72645440906818,-9.49883871826298e-05,-0.000929814667483946,-0.000940896705810889
8.75145857642941,-9.49883871826298e-05,-0.000929814667483946,-0.000940896705810889
8.77646274379063,-9.49883871826298e-05,-0.000929814667483946,-0.000940896705810889
8.80146691115186,-9.49883871826298e-05,-0.000929814667483946,-0.000940896705810889
8.82647107851309,-9.49883871826298e-05,-0.000929814667483946,-0.000940896705810889
8.85147524587431,-9.49883871826298e-05,-0.000929814667483946,-0.000940896705810889
8.87647941323554,-9.49883871826298e-05,-0.000929814667483946,-0.000940896705810889
8.90148358059677,-9.49883871826298e-05,-0.000929814667483946,-0.000940896705810889
8.92648774795799,-9.49883871826298e-05,-0.000929814667483946,-0.000940896705810889
8.95149191531922,-9.49883871826298e-05,-0.000929814667483946,-0.000940896705810889
8.97649608268045,-9.49883871826298e-05,-0.000929814667483946,-0.000940896705810889
9.00150025004167,-9.49883871826298e-05,-0.000929814667483946,-0.000940896705810889
9.0265044174029,-9.49883871826298e-05,-0.000929814667483946,-0.000940896705810889
9.05150858476413,-9.49883871826298e-05,-0.000929814667483946,-0.000940896705810889
9.07651275212536,-9.49883871826298e-05,-0.000929814667483946,-0.000940896705810889
9.10151691948658,-9.49883871826298e-05,-0.000929814667483946,-0.000940896705810889
9.12652108684781,-9.49883871826298e-05,-0.000929814667483946,-0.000940896705810889
9.15152525420904,-9.49883871826298e-05,-0.000929814667483946,-0.000940896705810889
9.17652942157026,-9.49883871826298e-05,-0.000929814667483946,-0.000940896705810889
9.20153358893149,-9.49883871826298e-05,-0.000929814667483946,-0.000940896705810889
9.22653775629272,-9.49883871826298e-05,-0.000929814667483946,-0.000940896705810889
9.25154192365394,-9.49883871826298e-05,-0.000929814667483946,-0.000940896705810889
9.27654609101517,-9.49883871826298e-05,-0.000929814667483946,-0.000940896705810889
9.3015502583764,-9.49883871826298e-05,-0.000929814667483946,-0.000940896705810889
9.32655442573762,-9.49883871826298e-05,-0.000929814667483946,-0.000940896705810889
9.35155859309885,-9.49883871826298e-05,-0.000929814667483946,-0.000940896705810889
9.37656276046008,-9.49883871826298e-05,-0.000929814667483946,-0.000940896705810889
9.4015669278213,-9.49883871826298e-05,-0.000929814667483946,-0.000940896705810889
9.42657109518253,-9.49883871826298e-05,-0.000929814667483946,-0.000940896705810889
9.45157526254376,-9.49883871826298e-05,-0.000929814667483946,-0.000940896705810889
9.47657942990498,-9.49883871826298e-05,-0.000929814667483946,-0.000940896705810889
9.50158359726621,-9.49883871826298e-05,-0.000929814667483946,-0.000940896705810889
9.52658776462744,-9.49883871826298e-05,-0.000929814667483946,-0.000940896705810889
9.55159193198866,-9.49883871826298e-05,-0.000929814667483946,-0.000940896705810889
9.57659609934989,-9.49883871826298e-05,-0.000929814667483946,-0.000940896705810889
9.60160026671112,-9.49883871826298e-05,-0.000929814667483946,-0.000940896705810889
9.62660443407234,-9.49883871826298e-05,-0.000929814667483946,-0.000940896705810889
9.65160860143357,-9.49883871826298e-05,-0.000929814667483946,-0.000940896705810889
9.6766127687948,-9.49883871826298e-05,-0.000929814667483946,-0.000940896705810889
9.70161693615603,-9.49883871826298e-05,-0.000929814667483946,-0.000940896705810889
9.72662110351725,-9.49883871826298e-05,-0.000929814667483946,-0.000940896705810889
9.75162527087848,-9.49883871826298e-05,-0.000929814667483946,-0.000940896705810889
9.77662943823971,-9.49883871826298e-05,-0.000929814667483946,-0.000940896705810889
9.80163360560093,-9.49883871826298e-05,-0.000929814667483946,-0.000940896705810889
9.82663777296216,-9.49883871826298e-05,-0.000929814667483946,-0.000940896705810889
9.85164194032339,-9.49883871826298e-05,-0.000929814667483946,-0.000940896705810889
9.87664610768461,-9.49883871826298e-05,-0.000929814667483946,-0.000940896705810889
9.90165027504584,-9.49883871826298e-05,-0.000929814667483946,-0.000940896705810889
9.92665444240707,-9.49883871826298e-05,-0.000929814667483946,-0.000940896705810889
9.95165860976829,-9.49883871826298e-05,-0.000929814667483946,-0.000940896705810889
9.97666277712952,-9.49883871826298e-05,-0.000929814667483946,-0.000940896705810889
10.0016669444907,-9.49883871826298e-05,-0.000929814667483946,-0.000940896705810889
10.026671111852,-9.49883871826298e-05,-0.000929814667483946,-0.000940896705810889
10.0516752792132,-9.49883871826298e-05,-0.000929814667483946,-0.000940896705810889
10.0766794465744,-9.49883871826298e-05,-0.000929814667483946,-0.000940896705810889
10.1016836139357,-9.49883871826298e-05,-0.000929814667483946,-0.000940896705810889
10.1266877812969,-9.49883871826298e-05,-0.000929814667483946,-0.000940896705810889
10.1516919486581,-9.49883871826298e-05,-0.000929814667483946,-0.000940896705810889
10.1766961160193,-9.49883871826298e-05,-0.000929814667483946,-0.000940896705810889
10.2017002833806,-9.49883871826298e-05,-0.000929814667483946,-0.000940896705810889
10.2267044507418,-9.49883871826298e-05,-0.000929814667483946,-0.000940896705810889
10.251708618103,-9.49883871826298e-05,-0.000929814667483946,-0.000940896705810889
10.2767127854642,-9.49883871826298e-05,-0.000929814667483946,-0.000940896705810889
10.3017169528255,-9.49883871826298e-05,-0.000929814667483946,-0.000940896705810889
10.3267211201867,-9.49883871826298e-05,-0.000929814667483946,-0.000940896705810889
10.3517252875479,-9.49883871826298e-05,-0.000929814667483946,-0.000940896705810889
10.3767294549092,-9.49883871826298e-05,-0.000929814667483946,-0.000940896705810889
10.4017336222704,-9.49883871826298e-05,-0.000929814667483946,-0.000940896705810889
10.4267377896316,-9.49883871826298e-05,-0.000929814667483946,-0.000940896705810889
10.4517419569928,-9.49883871826298e-05,-0.000929814667483946,-0.000940896705810889
10.4767461243541,-9.49883871826298e-05,-0.000929814667483946,-0.000940896705810889
10.5017502917153,-9.49883871826298e-05,-0.000929814667483946,-0.000940896705810889
10.5267544590765,-9.49883871826298e-05,-0.000929814667483946,-0.000940896705810889
10.5517586264377,-9.49883871826298e-05,-0.000929814667483946,-0.000940896705810889
10.576762793799,-9.49883871826298e-05,-0.000929814667483946,-0.000940896705810889
10.6017669611602,-9.49883871826298e-05,-0.000929814667483946,-0.000940896705810889
10.6267711285214,-9.49883871826298e-05,-0.000929814667483946,-0.000940896705810889
10.6517752958826,-9.49883871826298e-05,-0.000929814667483946,-0.000940896705810889
10.6767794632439,-9.49883871826298e-05,-0.000929814667483946,-0.000940896705810889
10.7017836306051,-9.49883871826298e-05,-0.000929814667483946,-0.000940896705810889
10.7267877979663,-9.49883871826298e-05,-0.000929814667483946,-0.000940896705810889
10.7517919653276,-9.49883871826298e-05,-0.000929814667483946,-0.000940896705810889
10.7767961326888,-9.49883871826298e-05,-0.000929814667483946,-0.000940896705810889
10.80180030005,-9.49883871826298e-05,-0.000929814667483946,-0.000940896705810889
10.8268044674112,-9.49883871826298e-05,-0.000929814667483946,-0.000940896705810889
10.8518086347725,-9.49883871826298e-05,-0.000929814667483946,-0.000940896705810889
10.8768128021337,-9.49883871826298e-05,-0.000929814667483946,-0.000940896705810889
10.9018169694949,-9.49883871826298e-05,-0.000929814667483946,-0.000940896705810889
10.9268211368561,-9.49883871826298e-05,-0.000929814667483946,-0.000940896705810889
10.9518253042174,-9.49883871826298e-05,-0.000929814667483946,-0.000940896705810889
10.9768294715786,-9.49883871826298e-05,-0.000929814667483946,-0.000940896705810889
11.0018336389398,-9.49883871826298e-05,-0.000929814667483946,-0.000940896705810889
11.026837806301,-9.49883871826298e-05,-0.000929814667483946,-0.000940896705810889
11.0518419736623,-9.49883871826298e-05,-0.000929814667483946,-0.000940896705810889
11.0768461410235,-9.49883871826298e-05,-0.000929814667483946,-0.000940896705810889
11.1018503083847,-9.49883871826298e-05,-0.000929814667483946,-0.000940896705810889
11.126854475746,-9.49883871826298e-05,-0.000929814667483946,-0.000940896705810889
11.1518586431072,-9.49883871826298e-05,-0.000929814667483946,-0.000940896705810889
11.1768628104684,-9.49883871826298e-05,-0.000929814667483946,-0.000940896705810889
11.2018669778296,-9.49883871826298e-05,-0.000929814667483946,-0.000940896705810889
11.2268711451909,-9.49883871826298e-05,-0.000929814667483946,-0.000940896705810889
11.2518753125521,-9.49883871826298e-05,-0.000929814667483946,-0.000940896705810889
11.2768794799133,-9.49883871826298e-05,-0.000929814667483946,-0.000940896705810889
11.3018836472745,-9.49883871826298e-05,-0.000929814667483946,-0.000940896705810889
11.3268878146358,-9.49883871826298e-05,-0.000929814667483946,-0.000940896705810889
11.351891981997,-9.49883871826298e-05,-0.000929814667483946,-0.000940896705810889
11.3768961493582,-9.49883871826298e-05,-0.000929814667483946,-0.000940896705810889
11.4019003167195,-9.49883871826298e-05,-0.000929814667483946,-0.000940896705810889
11.4269044840807,-9.49883871826298e-05,-0.000929814667483946,-0.000940896705810889
11.4519086514419,-9.49883871826298e-05,-0.000929814667483946,-0.000940896705810889
11.4769128188031,-9.49883871826298e-05,-0.000929814667483946,-0.000940896705810889
11.5019169861644,-9.49883871826298e-05,-0.000929814667483946,-0.000940896705810889
11.5269211535256,-9.49883871826298e-05,-0.000929814667483946,-0.000940896705810889
11.5519253208868,-9.49883871826298e-05,-0.000929814667483946,-0.000940896705810889
11.576929488248,-9.49883871826298e-05,-0.000929814667483946,-0.000940896705810889
11.6019336556093,-9.49883871826298e-05,-0.000929814667483946,-0.000940896705810889
11.6269378229705,-9.49883871826298e-05,-0.000929814667483946,-0.000940896705810889
11.6519419903317,-9.49883871826298e-05,-0.000929814667483946,-0.000940896705810889
11.6769461576929,-9.49883871826298e-05,-0.000929814667483946,-0.000940896705810889
11.7019503250542,-9.49883871826298e-05,-0.000929814667483946,-0.000940896705810889
11.7269544924154,-9.49883871826298e-05,-0.000929814667483946,-0.000940896705810889
11.7519586597766,-9.49883871826298e-05,-0.000929814667483946,-0.000940896705810889
11.7769628271379,-9.49883871826298e-05,-0.000929814667483946,-0.000940896705810889
11.8019669944991,-9.49883871826298e-05,-0.000929814667483946,-0.000940896705810889
11.8269711618603,-9.49883871826298e-05,-0.000929814667483946,-0.000940896705810889
11.8519753292215,-9.49883871826298e-05,-0.000929814667483946,-0.000940896705810889
11.8769794965828,-9.49883871826298e-05,-0.000929814667483946,-0.000940896705810889
11.901983663944,-9.49883871826298e-05,-0.000929814667483946,-0.000940896705810889
11.9269878313052,-9.49883871826298e-05,-0.000929814667483946,-0.000940896705810889
11.9519919986664,-9.49883871826298e-05,-0.000929814667483946,-0.000940896705810889
11.9769961660277,-9.49883871826298e-05,-0.000929814667483946,-0.000940896705810889
12.0020003333889,-9.49883871826298e-05,-0.000929814667483946,-0.000940896705810889
12.0270045007501,-9.49883871826298e-05,-0.000929814667483946,-0.000940896705810889
12.0520086681114,-9.49883871826298e-05,-0.000929814667483946,-0.000940896705810889
12.0770128354726,-9.49883871826298e-05,-0.000929814667483946,-0.000940896705810889
12.1020170028338,-9.49883871826298e-05,-0.000929814667483946,-0.000940896705810889
12.127021170195,-9.49883871826298e-05,-0.000929814667483946,-0.000940896705810889
12.1520253375563,-9.49883871826298e-05,-0.000929814667483946,-0.000940896705810889
12.1770295049175,-9.49883871826298e-05,-0.000929814667483946,-0.000940896705810889
12.2020336722787,-9.49883871826298e-05,-0.000929814667483946,-0.000940896705810889
12.2270378396399,-9.49883871826298e-05,-0.000929814667483946,-0.000940896705810889
12.2520420070012,-9.49883871826298e-05,-0.000929814667483946,-0.000940896705810889
12.2770461743624,-9.49883871826298e-05,-0.000929814667483946,-0.000940896705810889
12.3020503417236,-9.49883871826298e-05,-0.000929814667483946,-0.000940896705810889
12.3270545090848,-9.49883871826298e-05,-0.000929814667483946,-0.000940896705810889
12.3520586764461,-9.49883871826298e-05,-0.000929814667483946,-0.000940896705810889
12.3770628438073,-9.49883871826298e-05,-0.000929814667483946,-0.000940896705810889
12.4020670111685,-9.49883871826298e-05,-0.000929814667483946,-0.000940896705810889
12.4270711785298,-9.49883871826298e-05,-0.000929814667483946,-0.000940896705810889
12.452075345891,-9.49883871826298e-05,-0.000929814667483946,-0.000940896705810889
12.4770795132522,-9.49883871826298e-05,-0.000929814667483946,-0.000940896705810889
12.5020836806134,-9.49883871826298e-05,-0.000929814667483946,-0.000940896705810889
12.5270878479747,-9.49883871826298e-05,-0.000929814667483946,-0.000940896705810889
12.5520920153359,-9.49883871826298e-05,-0.000929814667483946,-0.000940896705810889
12.5770961826971,-9.49883871826298e-05,-0.000929814667483946,-0.000940896705810889
12.6021003500583,-9.49883871826298e-05,-0.000929814667483946,-0.000940896705810889
12.6271045174196,-9.49883871826298e-05,-0.000929814667483946,-0.000940896705810889
12.6521086847808,-9.49883871826298e-05,-0.000929814667483946,-0.000940896705810889
12.677112852142,-9.49883871826298e-05,-0.000929814667483946,-0.000940896705810889
12.7021170195033,-9.49883871826298e-05,-0.000929814667483946,-0.000940896705810889
12.7271211868645,-9.49883871826298e-05,-0.000929814667483946,-0.000940896705810889
12.7521253542257,-9.49883871826298e-05,-0.000929814667483946,-0.000940896705810889
12.7771295215869,-9.49883871826298e-05,-0.000929814667483946,-0.000940896705810889
12.8021336889482,-9.49883871826298e-05,-0.000929814667483946,-0.000940896705810889
12.8271378563094,-9.49883871826298e-05,-0.000929814667483946,-0.000940896705810889
12.8521420236706,-9.49883871826298e-05,-0.000929814667483946,-0.000940896705810889
12.8771461910318,-9.49883871826298e-05,-0.000929814667483946,-0.000940896705810889
12.9021503583931,-9.49883871826298e-05,-0.000929814667483946,-0.000940896705810889
12.9271545257543,-9.49883871826298e-05,-0.000929814667483946,-0.000940896705810889
12.9521586931155,-9.49883871826298e-05,-0.000929814667483946,-0.000940896705810889
12.9771628604767,-9.49883871826298e-05,-0.000929814667483946,-0.000940896705810889
13.002167027838,-9.49883871826298e-05,-0.000929814667483946,-0.000940896705810889
13.0271711951992,-9.49883871826298e-05,-0.000929814667483946,-0.000940896705810889
13.0521753625604,-9.49883871826298e-05,-0.000929814667483946,-0.000940896705810889
13.0771795299217,-9.49883871826298e-05,-0.000929814667483946,-0.000940896705810889
13.1021836972829,-9.49883871826298e-05,-0.000929814667483946,-0.000940896705810889
13.1271878646441,-9.49883871826298e-05,-0.000929814667483946,-0.000940896705810889
13.1521920320053,-9.49883871826298e-05,-0.000929814667483946,-0.000940896705810889
13.1771961993666,-9.49883871826298e-05,-0.000929814667483946,-0.000940896705810889
13.2022003667278,-9.49883871826298e-05,-0.000929814667483946,-0.000940896705810889
13.227204534089,-9.49883871826298e-05,-0.000929814667483946,-0.000940896705810889
13.2522087014502,-9.49883871826298e-05,-0.000929814667483946,-0.000940896705810889
13.2772128688115,-9.49883871826298e-05,-0.000929814667483946,-0.000940896705810889
13.3022170361727,-9.49883871826298e-05,-0.000929814667483946,-0.000940896705810889
13.3272212035339,-9.49883871826298e-05,-0.000929814667483946,-0.000940896705810889
13.3522253708951,-9.49883871826298e-05,-0.000929814667483946,-0.000940896705810889
13.3772295382564,-9.49883871826298e-05,-0.000929814667483946,-0.000940896705810889
13.4022337056176,-9.49883871826298e-05,-0.000929814667483946,-0.000940896705810889
13.4272378729788,-9.49883871826298e-05,-0.000929814667483946,-0.000940896705810889
13.4522420403401,-9.49883871826298e-05,-0.000929814667483946,-0.000940896705810889
13.4772462077013,-9.49883871826298e-05,-0.000929814667483946,-0.000940896705810889
13.5022503750625,-9.49883871826298e-05,-0.000929814667483946,-0.000940896705810889
13.5272545424237,-9.49883871826298e-05,-0.000929814667483946,-0.000940896705810889
13.552258709785,-9.49883871826298e-05,-0.000929814667483946,-0.000940896705810889
13.5772628771462,-9.49883871826298e-05,-0.000929814667483946,-0.000940896705810889
13.6022670445074,-9.49883871826298e-05,-0.000929814667483946,-0.000940896705810889
13.6272712118686,-9.49883871826298e-05,-0.000929814667483946,-0.000940896705810889
13.6522753792299,-9.49883871826298e-05,-0.000929814667483946,-0.000940896705810889
13.6772795465911,-9.49883871826298e-05,-0.000929814667483946,-0.000940896705810889
13.7022837139523,-9.49883871826298e-05,-0.000929814667483946,-0.000940896705810889
13.7272878813136,-9.49883871826298e-05,-0.000929814667483946,-0.000940896705810889
13.7522920486748,-9.49883871826298e-05,-0.000929814667483946,-0.000940896705810889
13.777296216036,-9.49883871826298e-05,-0.000929814667483946,-0.000940896705810889
13.8023003833972,-9.49883871826298e-05,-0.000929814667483946,-0.000940896705810889
13.8273045507585,-9.49883871826298e-05,-0.000929814667483946,-0.000940896705810889
13.8523087181197,-9.49883871826298e-05,-0.000929814667483946,-0.000940896705810889
13.8773128854809,-9.49883871826298e-05,-0.000929814667483946,-0.000940896705810889
13.9023170528421,-9.49883871826298e-05,-0.000929814667483946,-0.000940896705810889
13.9273212202034,-9.49883871826298e-05,-0.000929814667483946,-0.000940896705810889
13.9523253875646,-9.49883871826298e-05,-0.000929814667483946,-0.000940896705810889
13.9773295549258,-9.49883871826298e-05,-0.000929814667483946,-0.000940896705810889
14.002333722287,-9.49883871826298e-05,-0.000929814667483946,-0.000940896705810889
14.0273378896483,-9.49883871826298e-05,-0.000929814667483946,-0.000940896705810889
14.0523420570095,-9.49883871826298e-05,-0.000929814667483946,-0.000940896705810889
14.0773462243707,-9.49883871826298e-05,-0.000929814667483946,-0.000940896705810889
14.102350391732,-9.49883871826298e-05,-0.000929814667483946,-0.000940896705810889
14.1273545590932,-9.49883871826298e-05,-0.000929814667483946,-0.000940896705810889
14.1523587264544,-9.49883871826298e-05,-0.000929814667483946,-0.000940896705810889
14.1773628938156,-9.49883871826298e-05,-0.000929814667483946,-0.000940896705810889
14.2023670611769,-9.49883871826298e-05,-0.000929814667483946,-0.000940896705810889
14.2273712285381,-9.49883871826298e-05,-0.000929814667483946,-0.000940896705810889
14.2523753958993,-9.49883871826298e-05,-0.000929814667483946,-0.000940896705810889
14.2773795632605,-9.49883871826298e-05,-0.000929814667483946,-0.000940896705810889
14.3023837306218,-9.49883871826298e-05,-0.000929814667483946,-0.000940896705810889
14.327387897983,-9.49883871826298e-05,-0.000929814667483946,-0.000940896705810889
14.3523920653442,-9.49883871826298e-05,-0.000929814667483946,-0.000940896705810889
14.3773962327055,-9.49883871826298e-05,-0.000929814667483946,-0.000940896705810889
14.4024004000667,-9.49883871826298e-05,-0.000929814667483946,-0.000940896705810889
14.4274045674279,-9.49883871826298e-05,-0.000929814667483946,-0.000940896705810889
14.4524087347891,-9.49883871826298e-05,-0.000929814667483946,-0.000940896705810889
14.4774129021504,-9.49883871826298e-05,-0.000929814667483946,-0.000940896705810889
14.5024170695116,-9.49883871826298e-05,-0.000929814667483946,-0.000940896705810889
14.5274212368728,-9.49883871826298e-05,-0.000929814667483946,-0.000940896705810889
14.552425404234,-9.49883871826298e-05,-0.000929814667483946,-0.000940896705810889
14.5774295715953,-9.49883871826298e-05,-0.000929814667483946,-0.000940896705810889
14.6024337389565,-9.49883871826298e-05,-0.000929814667483946,-0.000940896705810889
14.6274379063177,-9.49883871826298e-05,-0.000929814667483946,-0.000940896705810889
14.6524420736789,-9.49883871826298e-05,-0.000929814667483946,-0.000940896705810889
14.6774462410402,-9.49883871826298e-05,-0.000929814667483946,-0.000940896705810889
14.7024504084014,-9.49883871826298e-05,-0.000929814667483946,-0.000940896705810889
14.7274545757626,-9.49883871826298e-05,-0.000929814667483946,-0.000940896705810889
14.7524587431239,-9.49883871826298e-05,-0.000929814667483946,-0.000940896705810889
14.7774629104851,-9.49883871826298e-05,-0.000929814667483946,-0.000940896705810889
14.8024670778463,-9.49883871826298e-05,-0.000929814667483946,-0.000940896705810889
14.8274712452075,-9.49883871826298e-05,-0.000929814667483946,-0.000940896705810889
14.8524754125688,-9.49883871826298e-05,-0.000929814667483946,-0.000940896705810889
14.87747957993,-9.49883871826298e-05,-0.000929814667483946,-0.000940896705810889
14.9024837472912,-9.49883871826298e-05,-0.000929814667483946,-0.000940896705810889
14.9274879146524,-9.49883871826298e-05,-0.000929814667483946,-0.000940896705810889
14.9524920820137,-9.49883871826298e-05,-0.000929814667483946,-0.000940896705810889
14.9774962493749,-9.49883871826298e-05,-0.000929814667483946,-0.000940896705810889
15.0025004167361,-9.49883871826298e-05,-0.000929814667483946,-0.000940896705810889
15.0275045840973,-9.49883871826298e-05,-0.000929814667483946,-0.000940896705810889
15.0525087514586,-9.49883871826298e-05,-0.000929814667483946,-0.000940896705810889
15.0775129188198,-9.49883871826298e-05,-0.000929814667483946,-0.000940896705810889
15.102517086181,-9.49883871826298e-05,-0.000929814667483946,-0.000940896705810889
15.1275212535423,-9.49883871826298e-05,-0.000929814667483946,-0.000940896705810889
15.1525254209035,-9.49883871826298e-05,-0.000929814667483946,-0.000940896705810889
15.1775295882647,-9.49883871826298e-05,-0.000929814667483946,-0.000940896705810889
15.2025337556259,-9.49883871826298e-05,-0.000929814667483946,-0.000940896705810889
15.2275379229872,-9.49883871826298e-05,-0.000929814667483946,-0.000940896705810889
15.2525420903484,-9.49883871826298e-05,-0.000929814667483946,-0.000940896705810889
15.2775462577096,-9.49883871826298e-05,-0.000929814667483946,-0.000940896705810889
15.3025504250708,-9.49883871826298e-05,-0.000929814667483946,-0.000940896705810889
15.3275545924321,-9.49883871826298e-05,-0.000929814667483946,-0.000940896705810889
15.3525587597933,-9.49883871826298e-05,-0.000929814667483946,-0.000940896705810889
15.3775629271545,-9.49883871826298e-05,-0.000929814667483946,-0.000940896705810889
15.4025670945158,-9.49883871826298e-05,-0.000929814667483946,-0.000940896705810889
15.427571261877,-9.49883871826298e-05,-0.000929814667483946,-0.000940896705810889
15.4525754292382,-9.49883871826298e-05,-0.000929814667483946,-0.000940896705810889
15.4775795965994,-9.49883871826298e-05,-0.000929814667483946,-0.000940896705810889
15.5025837639607,-9.49883871826298e-05,-0.000929814667483946,-0.000940896705810889
15.5275879313219,-9.49883871826298e-05,-0.000929814667483946,-0.000940896705810889
15.5525920986831,-9.49883871826298e-05,-0.000929814667483946,-0.000940896705810889
15.5775962660443,-9.49883871826298e-05,-0.000929814667483946,-0.000940896705810889
15.6026004334056,-9.49883871826298e-05,-0.000929814667483946,-0.000940896705810889
15.6276046007668,-9.49883871826298e-05,-0.000929814667483946,-0.000940896705810889
15.652608768128,-9.49883871826298e-05,-0.000929814667483946,-0.000940896705810889
15.6776129354892,-9.49883871826298e-05,-0.000929814667483946,-0.000940896705810889
15.7026171028505,-9.49883871826298e-05,-0.000929814667483946,-0.000940896705810889
15.7276212702117,-9.49883871826298e-05,-0.000929814667483946,-0.000940896705810889
15.7526254375729,-9.49883871826298e-05,-0.000929814667483946,-0.000940896705810889
15.7776296049342,-9.49883871826298e-05,-0.000929814667483946,-0.000940896705810889
15.8026337722954,-9.49883871826298e-05,-0.000929814667483946,-0.000940896705810889
15.8276379396566,-9.49883871826298e-05,-0.000929814667483946,-0.000940896705810889
15.8526421070178,-9.49883871826298e-05,-0.000929814667483946,-0.000940896705810889
15.8776462743791,-9.49883871826298e-05,-0.000929814667483946,-0.000940896705810889
15.9026504417403,-9.49883871826298e-05,-0.000929814667483946,-0.000940896705810889
15.9276546091015,-9.49883871826298e-05,-0.000929814667483946,-0.000940896705810889
15.9526587764627,-9.49883871826298e-05,-0.000929814667483946,-0.000940896705810889
15.977662943824,-9.49883871826298e-05,-0.000929814667483946,-0.000940896705810889
16.0026671111852,-9.49883871826298e-05,-0.000929814667483946,-0.000940896705810889
16.0276712785464,-9.49883871826298e-05,-0.000929814667483946,-0.000940896705810889
16.0526754459077,-9.49883871826298e-05,-0.000929814667483946,-0.000940896705810889
16.0776796132689,-9.49883871826298e-05,-0.000929814667483946,-0.000940896705810889
16.1026837806301,-9.49883871826298e-05,-0.000929814667483946,-0.000940896705810889
16.1276879479913,-9.49883871826298e-05,-0.000929814667483946,-0.000940896705810889
16.1526921153526,-9.49883871826298e-05,-0.000929814667483946,-0.000940896705810889
16.1776962827138,-9.49883871826298e-05,-0.000929814667483946,-0.000940896705810889
16.202700450075,-9.49883871826298e-05,-0.000929814667483946,-0.000940896705810889
16.2277046174362,-9.49883871826298e-05,-0.000929814667483946,-0.000940896705810889
16.2527087847975,-9.49883871826298e-05,-0.000929814667483946,-0.000940896705810889
16.2777129521587,-9.49883871826298e-05,-0.000929814667483946,-0.000940896705810889
16.3027171195199,-9.49883871826298e-05,-0.000929814667483946,-0.000940896705810889
16.3277212868811,-9.49883871826298e-05,-0.000929814667483946,-0.000940896705810889
16.3527254542424,-9.49883871826298e-05,-0.000929814667483946,-0.000940896705810889
16.3777296216036,-9.49883871826298e-05,-0.000929814667483946,-0.000940896705810889
16.4027337889648,-9.49883871826298e-05,-0.000929814667483946,-0.000940896705810889
16.4277379563261,-9.49883871826298e-05,-0.000929814667483946,-0.000940896705810889
16.4527421236873,-9.49883871826298e-05,-0.000929814667483946,-0.000940896705810889
16.4777462910485,-9.49883871826298e-05,-0.000929814667483946,-0.000940896705810889
16.5027504584097,-9.49883871826298e-05,-0.000929814667483946,-0.000940896705810889
16.527754625771,-9.49883871826298e-05,-0.000929814667483946,-0.000940896705810889
16.5527587931322,-9.49883871826298e-05,-0.000929814667483946,-0.000940896705810889
16.5777629604934,-9.49883871826298e-05,-0.000929814667483946,-0.000940896705810889
16.6027671278546,-9.49883871826298e-05,-0.000929814667483946,-0.000940896705810889
16.6277712952159,-9.49883871826298e-05,-0.000929814667483946,-0.000940896705810889
16.6527754625771,-9.49883871826298e-05,-0.000929814667483946,-0.000940896705810889
16.6777796299383,-9.49883871826298e-05,-0.000929814667483946,-0.000940896705810889
16.7027837972995,-9.49883871826298e-05,-0.000929814667483946,-0.000940896705810889
16.7277879646608,-9.49883871826298e-05,-0.000929814667483946,-0.000940896705810889
16.752792132022,-9.49883871826298e-05,-0.000929814667483946,-0.000940896705810889
16.7777962993832,-9.49883871826298e-05,-0.000929814667483946,-0.000940896705810889
16.8028004667445,-9.49883871826298e-05,-0.000929814667483946,-0.000940896705810889
16.8278046341057,-9.49883871826298e-05,-0.000929814667483946,-0.000940896705810889
16.8528088014669,-9.49883871826298e-05,-0.000929814667483946,-0.000940896705810889
16.8778129688281,-9.49883871826298e-05,-0.000929814667483946,-0.000940896705810889
16.9028171361894,-9.49883871826298e-05,-0.000929814667483946,-0.000940896705810889
16.9278213035506,-9.49883871826298e-05,-0.000929814667483946,-0.000940896705810889
16.9528254709118,-9.49883871826298e-05,-0.000929814667483946,-0.000940896705810889
16.977829638273,-9.49883871826298e-05,-0.000929814667483946,-0.000940896705810889
17.0028338056343,-9.49883871826298e-05,-0.000929814667483946,-0.000940896705810889
17.0278379729955,-9.49883871826298e-05,-0.000929814667483946,-0.000940896705810889
17.0528421403567,-9.49883871826298e-05,-0.000929814667483946,-0.000940896705810889
17.077846307718,-9.49883871826298e-05,-0.000929814667483946,-0.000940896705810889
17.1028504750792,-9.49883871826298e-05,-0.000929814667483946,-0.000940896705810889
17.1278546424404,-9.49883871826298e-05,-0.000929814667483946,-0.000940896705810889
17.1528588098016,-9.49883871826298e-05,-0.000929814667483946,-0.000940896705810889
17.1778629771629,-9.49883871826298e-05,-0.000929814667483946,-0.000940896705810889
17.2028671445241,-9.49883871826298e-05,-0.000929814667483946,-0.000940896705810889
17.2278713118853,-9.49883871826298e-05,-0.000929814667483946,-0.000940896705810889
17.2528754792465,-9.49883871826298e-05,-0.000929814667483946,-0.000940896705810889
17.2778796466078,-9.49883871826298e-05,-0.000929814667483946,-0.000940896705810889
17.302883813969,-9.49883871826298e-05,-0.000929814667483946,-0.000940896705810889
17.3278879813302,-9.49883871826298e-05,-0.000929814667483946,-0.000940896705810889
17.3528921486914,-9.49883871826298e-05,-0.000929814667483946,-0.000940896705810889
17.3778963160527,-9.49883871826298e-05,-0.000929814667483946,-0.000940896705810889
17.4029004834139,-9.49883871826298e-05,-0.000929814667483946,-0.000940896705810889
17.4279046507751,-9.49883871826298e-05,-0.000929814667483946,-0.000940896705810889
17.4529088181364,-9.49883871826298e-05,-0.000929814667483946,-0.000940896705810889
17.4779129854976,-9.49883871826298e-05,-0.000929814667483946,-0.000940896705810889
17.5029171528588,-9.49883871826298e-05,-0.000929814667483946,-0.000940896705810889
17.52792132022,-9.49883871826298e-05,-0.000929814667483946,-0.000940896705810889
17.5529254875813,-9.49883871826298e-05,-0.000929814667483946,-0.000940896705810889
17.5779296549425,-9.49883871826298e-05,-0.000929814667483946,-0.000940896705810889
17.6029338223037,-9.49883871826298e-05,-0.000929814667483946,-0.000940896705810889
17.6279379896649,-9.49883871826298e-05,-0.000929814667483946,-0.000940896705810889
17.6529421570262,-9.49883871826298e-05,-0.000929814667483946,-0.000940896705810889
17.6779463243874,-9.49883871826298e-05,-0.000929814667483946,-0.000940896705810889
17.7029504917486,-9.49883871826298e-05,-0.000929814667483946,-0.000940896705810889
17.7279546591099,-9.49883871826298e-05,-0.000929814667483946,-0.000940896705810889
17.7529588264711,-9.49883871826298e-05,-0.000929814667483946,-0.000940896705810889
17.7779629938323,-9.49883871826298e-05,-0.000929814667483946,-0.000940896705810889
17.8029671611935,-9.49883871826298e-05,-0.000929814667483946,-0.000940896705810889
17.8279713285548,-9.49883871826298e-05,-0.000929814667483946,-0.000940896705810889
17.852975495916,-9.49883871826298e-05,-0.000929814667483946,-0.000940896705810889
17.8779796632772,-9.49883871826298e-05,-0.000929814667483946,-0.000940896705810889
17.9029838306384,-9.49883871826298e-05,-0.000929814667483946,-0.000940896705810889
17.9279879979997,-9.49883871826298e-05,-0.000929814667483946,-0.000940896705810889
17.9529921653609,-9.49883871826298e-05,-0.000929814667483946,-0.000940896705810889
17.9779963327221,-9.49883871826298e-05,-0.000929814667483946,-0.000940896705810889
18.0030005000833,-9.49883871826298e-05,-0.000929814667483946,-0.000940896705810889
18.0280046674446,-9.49883871826298e-05,-0.000929814667483946,-0.000940896705810889
18.0530088348058,-9.49883871826298e-05,-0.000929814667483946,-0.000940896705810889
18.078013002167,-9.49883871826298e-05,-0.000929814667483946,-0.000940896705810889
18.1030171695283,-9.49883871826298e-05,-0.000929814667483946,-0.000940896705810889
18.1280213368895,-9.49883871826298e-05,-0.000929814667483946,-0.000940896705810889
18.1530255042507,-9.49883871826298e-05,-0.000929814667483946,-0.000940896705810889
18.1780296716119,-9.49883871826298e-05,-0.000929814667483946,-0.000940896705810889
18.2030338389732,-9.49883871826298e-05,-0.000929814667483946,-0.000940896705810889
18.2280380063344,-9.49883871826298e-05,-0.000929814667483946,-0.000940896705810889
18.2530421736956,-9.49883871826298e-05,-0.000929814667483946,-0.000940896705810889
18.2780463410568,-9.49883871826298e-05,-0.000929814667483946,-0.000940896705810889
18.3030505084181,-9.49883871826298e-05,-0.000929814667483946,-0.000940896705810889
18.3280546757793,-9.49883871826298e-05,-0.000929814667483946,-0.000940896705810889
18.3530588431405,-9.49883871826298e-05,-0.000929814667483946,-0.000940896705810889
18.3780630105018,-9.49883871826298e-05,-0.000929814667483946,-0.000940896705810889
18.403067177863,-9.49883871826298e-05,-0.000929814667483946,-0.000940896705810889
18.4280713452242,-9.49883871826298e-05,-0.000929814667483946,-0.000940896705810889
18.4530755125854,-9.49883871826298e-05,-0.000929814667483946,-0.000940896705810889
18.4780796799467,-9.49883871826298e-05,-0.000929814667483946,-0.000940896705810889
18.5030838473079,-9.49883871826298e-05,-0.000929814667483946,-0.000940896705810889
18.5280880146691,-9.49883871826298e-05,-0.000929814667483946,-0.000940896705810889
18.5530921820303,-9.49883871826298e-05,-0.000929814667483946,-0.000940896705810889
18.5780963493916,-9.49883871826298e-05,-0.000929814667483946,-0.000940896705810889
18.6031005167528,-9.49883871826298e-05,-0.000929814667483946,-0.000940896705810889
18.628104684114,-9.49883871826298e-05,-0.000929814667483946,-0.000940896705810889
18.6531088514752,-9.49883871826298e-05,-0.000929814667483946,-0.000940896705810889
18.6781130188365,-9.49883871826298e-05,-0.000929814667483946,-0.000940896705810889
18.7031171861977,-9.49883871826298e-05,-0.000929814667483946,-0.000940896705810889
18.7281213535589,-9.49883871826298e-05,-0.000929814667483946,-0.000940896705810889
18.7531255209202,-9.49883871826298e-05,-0.000929814667483946,-0.000940896705810889
18.7781296882814,-9.49883871826298e-05,-0.000929814667483946,-0.000940896705810889
18.8031338556426,-9.49883871826298e-05,-0.000929814667483946,-0.000940896705810889
18.8281380230038,-9.49883871826298e-05,-0.000929814667483946,-0.000940896705810889
18.8531421903651,-9.49883871826298e-05,-0.000929814667483946,-0.000940896705810889
18.8781463577263,-9.49883871826298e-05,-0.000929814667483946,-0.000940896705810889
18.9031505250875,-9.49883871826298e-05,-0.000929814667483946,-0.000940896705810889
18.9281546924487,-9.49883871826298e-05,-0.000929814667483946,-0.000940896705810889
18.95315885981,-9.49883871826298e-05,-0.000929814667483946,-0.000940896705810889
18.9781630271712,-9.49883871826298e-05,-0.000929814667483946,-0.000940896705810889
19.0031671945324,-9.49883871826298e-05,-0.000929814667483946,-0.000940896705810889
19.0281713618936,-9.49883871826298e-05,-0.000929814667483946,-0.000940896705810889
19.0531755292549,-9.49883871826298e-05,-0.000929814667483946,-0.000940896705810889
19.0781796966161,-9.49883871826298e-05,-0.000929814667483946,-0.000940896705810889
19.1031838639773,-9.49883871826298e-05,-0.000929814667483946,-0.000940896705810889
19.1281880313386,-9.49883871826298e-05,-0.000929814667483946,-0.000940896705810889
19.1531921986998,-9.49883871826298e-05,-0.000929814667483946,-0.000940896705810889
19.178196366061,-9.49883871826298e-05,-0.000929814667483946,-0.000940896705810889
19.2032005334222,-9.49883871826298e-05,-0.000929814667483946,-0.000940896705810889
19.2282047007835,-9.49883871826298e-05,-0.000929814667483946,-0.000940896705810889
19.2532088681447,-9.49883871826298e-05,-0.000929814667483946,-0.000940896705810889
19.2782130355059,-9.49883871826298e-05,-0.000929814667483946,-0.000940896705810889
19.3032172028671,-9.49883871826298e-05,-0.000929814667483946,-0.000940896705810889
19.3282213702284,-9.49883871826298e-05,-0.000929814667483946,-0.000940896705810889
19.3532255375896,-9.49883871826298e-05,-0.000929814667483946,-0.000940896705810889
19.3782297049508,-9.49883871826298e-05,-0.000929814667483946,-0.000940896705810889
19.4032338723121,-9.49883871826298e-05,-0.000929814667483946,-0.000940896705810889
19.4282380396733,-9.49883871826298e-05,-0.000929814667483946,-0.000940896705810889
19.4532422070345,-9.49883871826298e-05,-0.000929814667483946,-0.000940896705810889
19.4782463743957,-9.49883871826298e-05,-0.000929814667483946,-0.000940896705810889
19.503250541757,-9.49883871826298e-05,-0.000929814667483946,-0.000940896705810889
19.5282547091182,-9.49883871826298e-05,-0.000929814667483946,-0.000940896705810889
19.5532588764794,-9.49883871826298e-05,-0.000929814667483946,-0.000940896705810889
19.5782630438406,-9.49883871826298e-05,-0.000929814667483946,-0.000940896705810889
19.6032672112019,-9.49883871826298e-05,-0.000929814667483946,-0.000940896705810889
19.6282713785631,-9.49883871826298e-05,-0.000929814667483946,-0.000940896705810889
19.6532755459243,-9.49883871826298e-05,-0.000929814667483946,-0.000940896705810889
19.6782797132855,-9.49883871826298e-05,-0.000929814667483946,-0.000940896705810889
19.7032838806468,-9.49883871826298e-05,-0.000929814667483946,-0.000940896705810889
19.728288048008,-9.49883871826298e-05,-0.000929814667483946,-0.000940896705810889
19.7532922153692,-9.49883871826298e-05,-0.000929814667483946,-0.000940896705810889
19.7782963827305,-9.49883871826298e-05,-0.000929814667483946,-0.000940896705810889
19.8033005500917,-9.49883871826298e-05,-0.000929814667483946,-0.000940896705810889
19.8283047174529,-9.49883871826298e-05,-0.000929814667483946,-0.000940896705810889
19.8533088848141,-9.49883871826298e-05,-0.000929814667483946,-0.000940896705810889
19.8783130521754,-9.49883871826298e-05,-0.000929814667483946,-0.000940896705810889
19.9033172195366,-9.49883871826298e-05,-0.000929814667483946,-0.000940896705810889
19.9283213868978,-9.49883871826298e-05,-0.000929814667483946,-0.000940896705810889
19.953325554259,-9.49883871826298e-05,-0.000929814667483946,-0.000940896705810889
19.9783297216203,-9.49883871826298e-05,-0.000929814667483946,-0.000940896705810889
20.0033338889815,-9.49883871826298e-05,-0.000929814667483946,-0.000940896705810889
20.0283380563427,-9.49883871826298e-05,-0.000929814667483946,-0.000940896705810889
20.053342223704,-9.49883871826298e-05,-0.000929814667483946,-0.000940896705810889
20.0783463910652,-9.49883871826298e-05,-0.000929814667483946,-0.000940896705810889
20.1033505584264,-9.49883871826298e-05,-0.000929814667483946,-0.000940896705810889
20.1283547257876,-9.49883871826298e-05,-0.000929814667483946,-0.000940896705810889
20.1533588931489,-9.49883871826298e-05,-0.000929814667483946,-0.000940896705810889
20.1783630605101,-9.49883871826298e-05,-0.000929814667483946,-0.000940896705810889
20.2033672278713,-9.49883871826298e-05,-0.000929814667483946,-0.000940896705810889
20.2283713952325,-9.49883871826298e-05,-0.000929814667483946,-0.000940896705810889
20.2533755625938,-9.49883871826298e-05,-0.000929814667483946,-0.000940896705810889
20.278379729955,-9.49883871826298e-05,-0.000929814667483946,-0.000940896705810889
20.3033838973162,-9.49883871826298e-05,-0.000929814667483946,-0.000940896705810889
20.3283880646774,-9.49883871826298e-05,-0.000929814667483946,-0.000940896705810889
20.3533922320387,-9.49883871826298e-05,-0.000929814667483946,-0.000940896705810889
20.3783963993999,-9.49883871826298e-05,-0.000929814667483946,-0.000940896705810889
20.4034005667611,-9.49883871826298e-05,-0.000929814667483946,-0.000940896705810889
20.4284047341224,-9.49883871826298e-05,-0.000929814667483946,-0.000940896705810889
20.4534089014836,-9.49883871826298e-05,-0.000929814667483946,-0.000940896705810889
20.4784130688448,-9.49883871826298e-05,-0.000929814667483946,-0.000940896705810889
20.503417236206,-9.49883871826298e-05,-0.000929814667483946,-0.000940896705810889
20.5284214035673,-9.49883871826298e-05,-0.000929814667483946,-0.000940896705810889
20.5534255709285,-9.49883871826298e-05,-0.000929814667483946,-0.000940896705810889
20.5784297382897,-9.49883871826298e-05,-0.000929814667483946,-0.000940896705810889
20.6034339056509,-9.49883871826298e-05,-0.000929814667483946,-0.000940896705810889
20.6284380730122,-9.49883871826298e-05,-0.000929814667483946,-0.000940896705810889
20.6534422403734,-9.49883871826298e-05,-0.000929814667483946,-0.000940896705810889
20.6784464077346,-9.49883871826298e-05,-0.000929814667483946,-0.000940896705810889
20.7034505750959,-9.49883871826298e-05,-0.000929814667483946,-0.000940896705810889
20.7284547424571,-9.49883871826298e-05,-0.000929814667483946,-0.000940896705810889
20.7534589098183,-9.49883871826298e-05,-0.000929814667483946,-0.000940896705810889
20.7784630771795,-9.49883871826298e-05,-0.000929814667483946,-0.000940896705810889
20.8034672445408,-9.49883871826298e-05,-0.000929814667483946,-0.000940896705810889
20.828471411902,-9.49883871826298e-05,-0.000929814667483946,-0.000940896705810889
20.8534755792632,-9.49883871826298e-05,-0.000929814667483946,-0.000940896705810889
20.8784797466244,-9.49883871826298e-05,-0.000929814667483946,-0.000940896705810889
20.9034839139857,-9.49883871826298e-05,-0.000929814667483946,-0.000940896705810889
20.9284880813469,-9.49883871826298e-05,-0.000929814667483946,-0.000940896705810889
20.9534922487081,-9.49883871826298e-05,-0.000929814667483946,-0.000940896705810889
20.9784964160693,-9.49883871826298e-05,-0.000929814667483946,-0.000940896705810889
21.0035005834306,-9.49883871826298e-05,-0.000929814667483946,-0.000940896705810889
21.0285047507918,-9.49883871826298e-05,-0.000929814667483946,-0.000940896705810889
21.053508918153,-9.49883871826298e-05,-0.000929814667483946,-0.000940896705810889
21.0785130855143,-9.49883871826298e-05,-0.000929814667483946,-0.000940896705810889
21.1035172528755,-9.49883871826298e-05,-0.000929814667483946,-0.000940896705810889
21.1285214202367,-9.49883871826298e-05,-0.000929814667483946,-0.000940896705810889
21.1535255875979,-9.49883871826298e-05,-0.000929814667483946,-0.000940896705810889
21.1785297549592,-9.49883871826298e-05,-0.000929814667483946,-0.000940896705810889
21.2035339223204,-9.49883871826298e-05,-0.000929814667483946,-0.000940896705810889
21.2285380896816,-9.49883871826298e-05,-0.000929814667483946,-0.000940896705810889
21.2535422570428,-9.49883871826298e-05,-0.000929814667483946,-0.000940896705810889
21.2785464244041,-9.49883871826298e-05,-0.000929814667483946,-0.000940896705810889
21.3035505917653,-9.49883871826298e-05,-0.000929814667483946,-0.000940896705810889
21.3285547591265,-9.49883871826298e-05,-0.000929814667483946,-0.000940896705810889
21.3535589264877,-9.49883871826298e-05,-0.000929814667483946,-0.000940896705810889
21.378563093849,-9.49883871826298e-05,-0.000929814667483946,-0.000940896705810889
21.4035672612102,-9.49883871826298e-05,-0.000929814667483946,-0.000940896705810889
21.4285714285714,-9.49883871826298e-05,-0.000929814667483946,-0.000940896705810889
21.4535755959327,-9.49883871826298e-05,-0.000929814667483946,-0.000940896705810889
21.4785797632939,-9.49883871826298e-05,-0.000929814667483946,-0.000940896705810889
21.5035839306551,-9.49883871826298e-05,-0.000929814667483946,-0.000940896705810889
21.5285880980163,-9.49883871826298e-05,-0.000929814667483946,-0.000940896705810889
21.5535922653776,-9.49883871826298e-05,-0.000929814667483946,-0.000940896705810889
21.5785964327388,-9.49883871826298e-05,-0.000929814667483946,-0.000940896705810889
21.6036006001,-9.49883871826298e-05,-0.000929814667483946,-0.000940896705810889
21.6286047674612,-9.49883871826298e-05,-0.000929814667483946,-0.000940896705810889
21.6536089348225,-9.49883871826298e-05,-0.000929814667483946,-0.000940896705810889
21.6786131021837,-9.49883871826298e-05,-0.000929814667483946,-0.000940896705810889
21.7036172695449,-9.49883871826298e-05,-0.000929814667483946,-0.000940896705810889
21.7286214369062,-9.49883871826298e-05,-0.000929814667483946,-0.000940896705810889
21.7536256042674,-9.49883871826298e-05,-0.000929814667483946,-0.000940896705810889
21.7786297716286,-9.49883871826298e-05,-0.000929814667483946,-0.000940896705810889
21.8036339389898,-9.49883871826298e-05,-0.000929814667483946,-0.000940896705810889
21.8286381063511,-9.49883871826298e-05,-0.000929814667483946,-0.000940896705810889
21.8536422737123,-9.49883871826298e-05,-0.000929814667483946,-0.000940896705810889
21.8786464410735,-9.49883871826298e-05,-0.000929814667483946,-0.000940896705810889
21.9036506084347,-9.49883871826298e-05,-0.000929814667483946,-0.000940896705810889
21.928654775796,-9.49883871826298e-05,-0.000929814667483946,-0.000940896705810889
21.9536589431572,-9.49883871826298e-05,-0.000929814667483946,-0.000940896705810889
21.9786631105184,-9.49883871826298e-05,-0.000929814667483946,-0.000940896705810889
22.0036672778796,-9.49883871826298e-05,-0.000929814667483946,-0.000940896705810889
22.0286714452409,-9.49883871826298e-05,-0.000929814667483946,-0.000940896705810889
22.0536756126021,-9.49883871826298e-05,-0.000929814667483946,-0.000940896705810889
22.0786797799633,-9.49883871826298e-05,-0.000929814667483946,-0.000940896705810889
22.1036839473246,-9.49883871826298e-05,-0.000929814667483946,-0.000940896705810889
22.1286881146858,-9.49883871826298e-05,-0.000929814667483946,-0.000940896705810889
22.153692282047,-9.49883871826298e-05,-0.000929814667483946,-0.000940896705810889
22.1786964494082,-9.49883871826298e-05,-0.000929814667483946,-0.000940896705810889
22.2037006167695,-9.49883871826298e-05,-0.000929814667483946,-0.000940896705810889
22.2287047841307,-9.49883871826298e-05,-0.000929814667483946,-0.000940896705810889
22.2537089514919,-9.49883871826298e-05,-0.000929814667483946,-0.000940896705810889
22.2787131188531,-9.49883871826298e-05,-0.000929814667483946,-0.000940896705810889
22.3037172862144,-9.49883871826298e-05,-0.000929814667483946,-0.000940896705810889
22.3287214535756,-9.49883871826298e-05,-0.000929814667483946,-0.000940896705810889
22.3537256209368,-9.49883871826298e-05,-0.000929814667483946,-0.000940896705810889
22.378729788298,-9.49883871826298e-05,-0.000929814667483946,-0.000940896705810889
22.4037339556593,-9.49883871826298e-05,-0.000929814667483946,-0.000940896705810889
22.4287381230205,-9.49883871826298e-05,-0.000929814667483946,-0.000940896705810889
22.4537422903817,-9.49883871826298e-05,-0.000929814667483946,-0.000940896705810889
22.478746457743,-9.49883871826298e-05,-0.000929814667483946,-0.000940896705810889
22.5037506251042,-9.49883871826298e-05,-0.000929814667483946,-0.000940896705810889
22.5287547924654,-9.49883871826298e-05,-0.000929814667483946,-0.000940896705810889
22.5537589598266,-9.49883871826298e-05,-0.000929814667483946,-0.000940896705810889
22.5787631271879,-9.49883871826298e-05,-0.000929814667483946,-0.000940896705810889
22.6037672945491,-9.49883871826298e-05,-0.000929814667483946,-0.000940896705810889
22.6287714619103,-9.49883871826298e-05,-0.000929814667483946,-0.000940896705810889
22.6537756292715,-9.49883871826298e-05,-0.000929814667483946,-0.000940896705810889
22.6787797966328,-9.49883871826298e-05,-0.000929814667483946,-0.000940896705810889
22.703783963994,-9.49883871826298e-05,-0.000929814667483946,-0.000940896705810889
22.7287881313552,-9.49883871826298e-05,-0.000929814667483946,-0.000940896705810889
22.7537922987165,-9.49883871826298e-05,-0.000929814667483946,-0.000940896705810889
22.7787964660777,-9.49883871826298e-05,-0.000929814667483946,-0.000940896705810889
22.8038006334389,-9.49883871826298e-05,-0.000929814667483946,-0.000940896705810889
22.8288048008001,-9.49883871826298e-05,-0.000929814667483946,-0.000940896705810889
22.8538089681614,-9.49883871826298e-05,-0.000929814667483946,-0.000940896705810889
22.8788131355226,-9.49883871826298e-05,-0.000929814667483946,-0.000940896705810889
22.9038173028838,-9.49883871826298e-05,-0.000929814667483946,-0.000940896705810889
22.928821470245,-9.49883871826298e-05,-0.000929814667483946,-0.000940896705810889
22.9538256376063,-9.49883871826298e-05,-0.000929814667483946,-0.000940896705810889
22.9788298049675,-9.49883871826298e-05,-0.000929814667483946,-0.000940896705810889
23.0038339723287,-9.49883871826298e-05,-0.000929814667483946,-0.000940896705810889
23.0288381396899,-9.49883871826298e-05,-0.000929814667483946,-0.000940896705810889
23.0538423070512,-9.49883871826298e-05,-0.000929814667483946,-0.000940896705810889
23.0788464744124,-9.49883871826298e-05,-0.000929814667483946,-0.000940896705810889
23.1038506417736,-9.49883871826298e-05,-0.000929814667483946,-0.000940896705810889
23.1288548091349,-9.49883871826298e-05,-0.000929814667483946,-0.000940896705810889
23.1538589764961,-9.49883871826298e-05,-0.000929814667483946,-0.000940896705810889
23.1788631438573,-9.49883871826298e-05,-0.000929814667483946,-0.000940896705810889
23.2038673112185,-9.49883871826298e-05,-0.000929814667483946,-0.000940896705810889
23.2288714785798,-9.49883871826298e-05,-0.000929814667483946,-0.000940896705810889
23.253875645941,-9.49883871826298e-05,-0.000929814667483946,-0.000940896705810889
23.2788798133022,-9.49883871826298e-05,-0.000929814667483946,-0.000940896705810889
23.3038839806634,-9.49883871826298e-05,-0.000929814667483946,-0.000940896705810889
23.3288881480247,-9.49883871826298e-05,-0.000929814667483946,-0.000940896705810889
23.3538923153859,-9.49883871826298e-05,-0.000929814667483946,-0.000940896705810889
23.3788964827471,-9.49883871826298e-05,-0.000929814667483946,-0.000940896705810889
23.4039006501084,-9.49883871826298e-05,-0.000929814667483946,-0.000940896705810889
23.4289048174696,-9.49883871826298e-05,-0.000929814667483946,-0.000940896705810889
23.4539089848308,-9.49883871826298e-05,-0.000929814667483946,-0.000940896705810889
23.478913152192,-9.49883871826298e-05,-0.000929814667483946,-0.000940896705810889
23.5039173195533,-9.49883871826298e-05,-0.000929814667483946,-0.000940896705810889
23.5289214869145,-9.49883871826298e-05,-0.000929814667483946,-0.000940896705810889
23.5539256542757,-9.49883871826298e-05,-0.000929814667483946,-0.000940896705810889
23.5789298216369,-9.49883871826298e-05,-0.000929814667483946,-0.000940896705810889
23.6039339889982,-9.49883871826298e-05,-0.000929814667483946,-0.000940896705810889
23.6289381563594,-9.49883871826298e-05,-0.000929814667483946,-0.000940896705810889
23.6539423237206,-9.49883871826298e-05,-0.000929814667483946,-0.000940896705810889
23.6789464910818,-9.49883871826298e-05,-0.000929814667483946,-0.000940896705810889
23.7039506584431,-9.49883871826298e-05,-0.000929814667483946,-0.000940896705810889
23.7289548258043,-9.49883871826298e-05,-0.000929814667483946,-0.000940896705810889
23.7539589931655,-9.49883871826298e-05,-0.000929814667483946,-0.000940896705810889
23.7789631605268,-9.49883871826298e-05,-0.000929814667483946,-0.000940896705810889
23.803967327888,-9.49883871826298e-05,-0.000929814667483946,-0.000940896705810889
23.8289714952492,-9.49883871826298e-05,-0.000929814667483946,-0.000940896705810889
23.8539756626104,-9.49883871826298e-05,-0.000929814667483946,-0.000940896705810889
23.8789798299717,-9.49883871826298e-05,-0.000929814667483946,-0.000940896705810889
23.9039839973329,-9.49883871826298e-05,-0.000929814667483946,-0.000940896705810889
23.9289881646941,-9.49883871826298e-05,-0.000929814667483946,-0.000940896705810889
23.9539923320553,-9.49883871826298e-05,-0.000929814667483946,-0.000940896705810889
23.9789964994166,-9.49883871826298e-05,-0.000929814667483946,-0.000940896705810889
24.0040006667778,-9.49883871826298e-05,-0.000929814667483946,-0.000940896705810889
24.029004834139,-9.49883871826298e-05,-0.000929814667483946,-0.000940896705810889
24.0540090015003,-9.49883871826298e-05,-0.000929814667483946,-0.000940896705810889
24.0790131688615,-9.49883871826298e-05,-0.000929814667483946,-0.000940896705810889
24.1040173362227,-9.49883871826298e-05,-0.000929814667483946,-0.000940896705810889
24.1290215035839,-9.49883871826298e-05,-0.000929814667483946,-0.000940896705810889
24.1540256709452,-9.49883871826298e-05,-0.000929814667483946,-0.000940896705810889
24.1790298383064,-9.49883871826298e-05,-0.000929814667483946,-0.000940896705810889
24.2040340056676,-9.49883871826298e-05,-0.000929814667483946,-0.000940896705810889
24.2290381730288,-9.49883871826298e-05,-0.000929814667483946,-0.000940896705810889
24.2540423403901,-9.49883871826298e-05,-0.000929814667483946,-0.000940896705810889
24.2790465077513,-9.49883871826298e-05,-0.000929814667483946,-0.000940896705810889
24.3040506751125,-9.49883871826298e-05,-0.000929814667483946,-0.000940896705810889
24.3290548424737,-9.49883871826298e-05,-0.000929814667483946,-0.000940896705810889
24.354059009835,-9.49883871826298e-05,-0.000929814667483946,-0.000940896705810889
24.3790631771962,-9.49883871826298e-05,-0.000929814667483946,-0.000940896705810889
24.4040673445574,-9.49883871826298e-05,-0.000929814667483946,-0.000940896705810889
24.4290715119187,-9.49883871826298e-05,-0.000929814667483946,-0.000940896705810889
24.4540756792799,-9.49883871826298e-05,-0.000929814667483946,-0.000940896705810889
24.4790798466411,-9.49883871826298e-05,-0.000929814667483946,-0.000940896705810889
24.5040840140023,-9.49883871826298e-05,-0.000929814667483946,-0.000940896705810889
24.5290881813636,-9.49883871826298e-05,-0.000929814667483946,-0.000940896705810889
24.5540923487248,-9.49883871826298e-05,-0.000929814667483946,-0.000940896705810889
24.579096516086,-9.49883871826298e-05,-0.000929814667483946,-0.000940896705810889
24.6041006834472,-9.49883871826298e-05,-0.000929814667483946,-0.000940896705810889
24.6291048508085,-9.49883871826298e-05,-0.000929814667483946,-0.000940896705810889
24.6541090181697,-9.49883871826298e-05,-0.000929814667483946,-0.000940896705810889
24.6791131855309,-9.49883871826298e-05,-0.000929814667483946,-0.000940896705810889
24.7041173528921,-9.49883871826298e-05,-0.000929814667483946,-0.000940896705810889
24.7291215202534,-9.49883871826298e-05,-0.000929814667483946,-0.000940896705810889
24.7541256876146,-9.49883871826298e-05,-0.000929814667483946,-0.000940896705810889
24.7791298549758,-9.49883871826298e-05,-0.000929814667483946,-0.000940896705810889
24.8041340223371,-9.49883871826298e-05,-0.000929814667483946,-0.000940896705810889
24.8291381896983,-9.49883871826298e-05,-0.000929814667483946,-0.000940896705810889
24.8541423570595,-9.49883871826298e-05,-0.000929814667483946,-0.000940896705810889
24.8791465244207,-9.49883871826298e-05,-0.000929814667483946,-0.000940896705810889
24.904150691782,-9.49883871826298e-05,-0.000929814667483946,-0.000940896705810889
24.9291548591432,-9.49883871826298e-05,-0.000929814667483946,-0.000940896705810889
24.9541590265044,-9.49883871826298e-05,-0.000929814667483946,-0.000940896705810889
24.9791631938656,-9.49883871826298e-05,-0.000929814667483946,-0.000940896705810889
25.0041673612269,-9.49883871826298e-05,-0.000929814667483946,-0.000940896705810889
25.0291715285881,-9.49883871826298e-05,-0.000929814667483946,-0.000940896705810889
25.0541756959493,-9.49883871826298e-05,-0.000929814667483946,-0.000940896705810889
25.0791798633106,-9.49883871826298e-05,-0.000929814667483946,-0.000940896705810889
25.1041840306718,-9.49883871826298e-05,-0.000929814667483946,-0.000940896705810889
25.129188198033,-9.49883871826298e-05,-0.000929814667483946,-0.000940896705810889
25.1541923653942,-9.49883871826298e-05,-0.000929814667483946,-0.000940896705810889
25.1791965327555,-9.49883871826298e-05,-0.000929814667483946,-0.000940896705810889
25.2042007001167,-9.49883871826298e-05,-0.000929814667483946,-0.000940896705810889
25.2292048674779,-9.49883871826298e-05,-0.000929814667483946,-0.000940896705810889
25.2542090348391,-9.49883871826298e-05,-0.000929814667483946,-0.000940896705810889
25.2792132022004,-9.49883871826298e-05,-0.000929814667483946,-0.000940896705810889
25.3042173695616,-9.49883871826298e-05,-0.000929814667483946,-0.000940896705810889
25.3292215369228,-9.49883871826298e-05,-0.000929814667483946,-0.000940896705810889
25.354225704284,-9.49883871826298e-05,-0.000929814667483946,-0.000940896705810889
25.3792298716453,-9.49883871826298e-05,-0.000929814667483946,-0.000940896705810889
25.4042340390065,-9.49883871826298e-05,-0.000929814667483946,-0.000940896705810889
25.4292382063677,-9.49883871826298e-05,-0.000929814667483946,-0.000940896705810889
25.454242373729,-9.49883871826298e-05,-0.000929814667483946,-0.000940896705810889
25.4792465410902,-9.49883871826298e-05,-0.000929814667483946,-0.000940896705810889
25.5042507084514,-9.49883871826298e-05,-0.000929814667483946,-0.000940896705810889
25.5292548758126,-9.49883871826298e-05,-0.000929814667483946,-0.000940896705810889
25.5542590431739,-9.49883871826298e-05,-0.000929814667483946,-0.000940896705810889
25.5792632105351,-9.49883871826298e-05,-0.000929814667483946,-0.000940896705810889
25.6042673778963,-9.49883871826298e-05,-0.000929814667483946,-0.000940896705810889
25.6292715452575,-9.49883871826298e-05,-0.000929814667483946,-0.000940896705810889
25.6542757126188,-9.49883871826298e-05,-0.000929814667483946,-0.000940896705810889
25.67927987998,-9.49883871826298e-05,-0.000929814667483946,-0.000940896705810889
25.7042840473412,-9.49883871826298e-05,-0.000929814667483946,-0.000940896705810889
25.7292882147024,-9.49883871826298e-05,-0.000929814667483946,-0.000940896705810889
25.7542923820637,-9.49883871826298e-05,-0.000929814667483946,-0.000940896705810889
25.7792965494249,-9.49883871826298e-05,-0.000929814667483946,-0.000940896705810889
25.8043007167861,-9.49883871826298e-05,-0.000929814667483946,-0.000940896705810889
25.8293048841474,-9.49883871826298e-05,-0.000929814667483946,-0.000940896705810889
25.8543090515086,-9.49883871826298e-05,-0.000929814667483946,-0.000940896705810889
25.8793132188698,-9.49883871826298e-05,-0.000929814667483946,-0.000940896705810889
25.904317386231,-9.49883871826298e-05,-0.000929814667483946,-0.000940896705810889
25.9293215535923,-9.49883871826298e-05,-0.000929814667483946,-0.000940896705810889
25.9543257209535,-9.49883871826298e-05,-0.000929814667483946,-0.000940896705810889
25.9793298883147,-9.49883871826298e-05,-0.000929814667483946,-0.000940896705810889
26.0043340556759,-9.49883871826298e-05,-0.000929814667483946,-0.000940896705810889
26.0293382230372,-9.49883871826298e-05,-0.000929814667483946,-0.000940896705810889
26.0543423903984,-9.49883871826298e-05,-0.000929814667483946,-0.000940896705810889
26.0793465577596,-9.49883871826298e-05,-0.000929814667483946,-0.000940896705810889
26.1043507251209,-9.49883871826298e-05,-0.000929814667483946,-0.000940896705810889
26.1293548924821,-9.49883871826298e-05,-0.000929814667483946,-0.000940896705810889
26.1543590598433,-9.49883871826298e-05,-0.000929814667483946,-0.000940896705810889
26.1793632272045,-9.49883871826298e-05,-0.000929814667483946,-0.000940896705810889
26.2043673945658,-9.49883871826298e-05,-0.000929814667483946,-0.000940896705810889
26.229371561927,-9.49883871826298e-05,-0.000929814667483946,-0.000940896705810889
26.2543757292882,-9.49883871826298e-05,-0.000929814667483946,-0.000940896705810889
26.2793798966494,-9.49883871826298e-05,-0.000929814667483946,-0.000940896705810889
26.3043840640107,-9.49883871826298e-05,-0.000929814667483946,-0.000940896705810889
26.3293882313719,-9.49883871826298e-05,-0.000929814667483946,-0.000940896705810889
26.3543923987331,-9.49883871826298e-05,-0.000929814667483946,-0.000940896705810889
26.3793965660943,-9.49883871826298e-05,-0.000929814667483946,-0.000940896705810889
26.4044007334556,-9.49883871826298e-05,-0.000929814667483946,-0.000940896705810889
26.4294049008168,-9.49883871826298e-05,-0.000929814667483946,-0.000940896705810889
26.454409068178,-9.49883871826298e-05,-0.000929814667483946,-0.000940896705810889
26.4794132355393,-9.49883871826298e-05,-0.000929814667483946,-0.000940896705810889
26.5044174029005,-9.49883871826298e-05,-0.000929814667483946,-0.000940896705810889
26.5294215702617,-9.49883871826298e-05,-0.000929814667483946,-0.000940896705810889
26.5544257376229,-9.49883871826298e-05,-0.000929814667483946,-0.000940896705810889
26.5794299049842,-9.49883871826298e-05,-0.000929814667483946,-0.000940896705810889
26.6044340723454,-9.49883871826298e-05,-0.000929814667483946,-0.000940896705810889
26.6294382397066,-9.49883871826298e-05,-0.000929814667483946,-0.000940896705810889
26.6544424070678,-9.49883871826298e-05,-0.000929814667483946,-0.000940896705810889
26.6794465744291,-9.49883871826298e-05,-0.000929814667483946,-0.000940896705810889
26.7044507417903,-9.49883871826298e-05,-0.000929814667483946,-0.000940896705810889
26.7294549091515,-9.49883871826298e-05,-0.000929814667483946,-0.000940896705810889
26.7544590765128,-9.49883871826298e-05,-0.000929814667483946,-0.000940896705810889
26.779463243874,-9.49883871826298e-05,-0.000929814667483946,-0.000940896705810889
26.8044674112352,-9.49883871826298e-05,-0.000929814667483946,-0.000940896705810889
26.8294715785964,-9.49883871826298e-05,-0.000929814667483946,-0.000940896705810889
26.8544757459577,-9.49883871826298e-05,-0.000929814667483946,-0.000940896705810889
26.8794799133189,-9.49883871826298e-05,-0.000929814667483946,-0.000940896705810889
26.9044840806801,-9.49883871826298e-05,-0.000929814667483946,-0.000940896705810889
26.9294882480413,-9.49883871826298e-05,-0.000929814667483946,-0.000940896705810889
26.9544924154026,-9.49883871826298e-05,-0.000929814667483946,-0.000940896705810889
26.9794965827638,-9.49883871826298e-05,-0.000929814667483946,-0.000940896705810889
27.004500750125,-9.49883871826298e-05,-0.000929814667483946,-0.000940896705810889
27.0295049174862,-9.49883871826298e-05,-0.000929814667483946,-0.000940896705810889
27.0545090848475,-9.49883871826298e-05,-0.000929814667483946,-0.000940896705810889
27.0795132522087,-9.49883871826298e-05,-0.000929814667483946,-0.000940896705810889
27.1045174195699,-9.49883871826298e-05,-0.000929814667483946,-0.000940896705810889
27.1295215869312,-9.49883871826298e-05,-0.000929814667483946,-0.000940896705810889
27.1545257542924,-9.49883871826298e-05,-0.000929814667483946,-0.000940896705810889
27.1795299216536,-9.49883871826298e-05,-0.000929814667483946,-0.000940896705810889
27.2045340890148,-9.49883871826298e-05,-0.000929814667483946,-0.000940896705810889
27.2295382563761,-9.49883871826298e-05,-0.000929814667483946,-0.000940896705810889
27.2545424237373,-9.49883871826298e-05,-0.000929814667483946,-0.000940896705810889
27.2795465910985,-9.49883871826298e-05,-0.000929814667483946,-0.000940896705810889
27.3045507584597,-9.49883871826298e-05,-0.000929814667483946,-0.000940896705810889
27.329554925821,-9.49883871826298e-05,-0.000929814667483946,-0.000940896705810889
27.3545590931822,-9.49883871826298e-05,-0.000929814667483946,-0.000940896705810889
27.3795632605434,-9.49883871826298e-05,-0.000929814667483946,-0.000940896705810889
27.4045674279047,-9.49883871826298e-05,-0.000929814667483946,-0.000940896705810889
27.4295715952659,-9.49883871826298e-05,-0.000929814667483946,-0.000940896705810889
27.4545757626271,-9.49883871826298e-05,-0.000929814667483946,-0.000940896705810889
27.4795799299883,-9.49883871826298e-05,-0.000929814667483946,-0.000940896705810889
27.5045840973496,-9.49883871826298e-05,-0.000929814667483946,-0.000940896705810889
27.5295882647108,-9.49883871826298e-05,-0.000929814667483946,-0.000940896705810889
27.554592432072,-9.49883871826298e-05,-0.000929814667483946,-0.000940896705810889
27.5795965994332,-9.49883871826298e-05,-0.000929814667483946,-0.000940896705810889
27.6046007667945,-9.49883871826298e-05,-0.000929814667483946,-0.000940896705810889
27.6296049341557,-9.49883871826298e-05,-0.000929814667483946,-0.000940896705810889
27.6546091015169,-9.49883871826298e-05,-0.000929814667483946,-0.000940896705810889
27.6796132688781,-9.49883871826298e-05,-0.000929814667483946,-0.000940896705810889
27.7046174362394,-9.49883871826298e-05,-0.000929814667483946,-0.000940896705810889
27.7296216036006,-9.49883871826298e-05,-0.000929814667483946,-0.000940896705810889
27.7546257709618,-9.49883871826298e-05,-0.000929814667483946,-0.000940896705810889
27.7796299383231,-9.49883871826298e-05,-0.000929814667483946,-0.000940896705810889
27.8046341056843,-9.49883871826298e-05,-0.000929814667483946,-0.000940896705810889
27.8296382730455,-9.49883871826298e-05,-0.000929814667483946,-0.000940896705810889
27.8546424404067,-9.49883871826298e-05,-0.000929814667483946,-0.000940896705810889
27.879646607768,-9.49883871826298e-05,-0.000929814667483946,-0.000940896705810889
27.9046507751292,-9.49883871826298e-05,-0.000929814667483946,-0.000940896705810889
27.9296549424904,-9.49883871826298e-05,-0.000929814667483946,-0.000940896705810889
27.9546591098516,-9.49883871826298e-05,-0.000929814667483946,-0.000940896705810889
27.9796632772129,-9.49883871826298e-05,-0.000929814667483946,-0.000940896705810889
28.0046674445741,-9.49883871826298e-05,-0.000929814667483946,-0.000940896705810889
28.0296716119353,-9.49883871826298e-05,-0.000929814667483946,-0.000940896705810889
28.0546757792965,-9.49883871826298e-05,-0.000929814667483946,-0.000940896705810889
28.0796799466578,-9.49883871826298e-05,-0.000929814667483946,-0.000940896705810889
28.104684114019,-9.49883871826298e-05,-0.000929814667483946,-0.000940896705810889
28.1296882813802,-9.49883871826298e-05,-0.000929814667483946,-0.000940896705810889
28.1546924487415,-9.49883871826298e-05,-0.000929814667483946,-0.000940896705810889
28.1796966161027,-9.49883871826298e-05,-0.000929814667483946,-0.000940896705810889
28.2047007834639,-9.49883871826298e-05,-0.000929814667483946,-0.000940896705810889
28.2297049508251,-9.49883871826298e-05,-0.000929814667483946,-0.000940896705810889
28.2547091181864,-9.49883871826298e-05,-0.000929814667483946,-0.000940896705810889
28.2797132855476,-9.49883871826298e-05,-0.000929814667483946,-0.000940896705810889
28.3047174529088,-9.49883871826298e-05,-0.000929814667483946,-0.000940896705810889
28.32972162027,-9.49883871826298e-05,-0.000929814667483946,-0.000940896705810889
28.3547257876313,-9.49883871826298e-05,-0.000929814667483946,-0.000940896705810889
28.3797299549925,-9.49883871826298e-05,-0.000929814667483946,-0.000940896705810889
28.4047341223537,-9.49883871826298e-05,-0.000929814667483946,-0.000940896705810889
28.429738289715,-9.49883871826298e-05,-0.000929814667483946,-0.000940896705810889
28.4547424570762,-9.49883871826298e-05,-0.000929814667483946,-0.000940896705810889
28.4797466244374,-9.49883871826298e-05,-0.000929814667483946,-0.000940896705810889
28.5047507917986,-9.49883871826298e-05,-0.000929814667483946,-0.000940896705810889
28.5297549591599,-9.49883871826298e-05,-0.000929814667483946,-0.000940896705810889
28.5547591265211,-9.49883871826298e-05,-0.000929814667483946,-0.000940896705810889
28.5797632938823,-9.49883871826298e-05,-0.000929814667483946,-0.000940896705810889
28.6047674612435,-9.49883871826298e-05,-0.000929814667483946,-0.000940896705810889
28.6297716286048,-9.49883871826298e-05,-0.000929814667483946,-0.000940896705810889
28.654775795966,-9.49883871826298e-05,-0.000929814667483946,-0.000940896705810889
28.6797799633272,-9.49883871826298e-05,-0.000929814667483946,-0.000940896705810889
28.7047841306884,-9.49883871826298e-05,-0.000929814667483946,-0.000940896705810889
28.7297882980497,-9.49883871826298e-05,-0.000929814667483946,-0.000940896705810889
28.7547924654109,-9.49883871826298e-05,-0.000929814667483946,-0.000940896705810889
28.7797966327721,-9.49883871826298e-05,-0.000929814667483946,-0.000940896705810889
28.8048008001334,-9.49883871826298e-05,-0.000929814667483946,-0.000940896705810889
28.8298049674946,-9.49883871826298e-05,-0.000929814667483946,-0.000940896705810889
28.8548091348558,-9.49883871826298e-05,-0.000929814667483946,-0.000940896705810889
28.879813302217,-9.49883871826298e-05,-0.000929814667483946,-0.000940896705810889
28.9048174695783,-9.49883871826298e-05,-0.000929814667483946,-0.000940896705810889
28.9298216369395,-9.49883871826298e-05,-0.000929814667483946,-0.000940896705810889
28.9548258043007,-9.49883871826298e-05,-0.000929814667483946,-0.000940896705810889
28.9798299716619,-9.49883871826298e-05,-0.000929814667483946,-0.000940896705810889
29.0048341390232,-9.49883871826298e-05,-0.000929814667483946,-0.000940896705810889
29.0298383063844,-9.49883871826298e-05,-0.000929814667483946,-0.000940896705810889
29.0548424737456,-9.49883871826298e-05,-0.000929814667483946,-0.000940896705810889
29.0798466411069,-9.49883871826298e-05,-0.000929814667483946,-0.000940896705810889
29.1048508084681,-9.49883871826298e-05,-0.000929814667483946,-0.000940896705810889
29.1298549758293,-9.49883871826298e-05,-0.000929814667483946,-0.000940896705810889
29.1548591431905,-9.49883871826298e-05,-0.000929814667483946,-0.000940896705810889
29.1798633105518,-9.49883871826298e-05,-0.000929814667483946,-0.000940896705810889
29.204867477913,-9.49883871826298e-05,-0.000929814667483946,-0.000940896705810889
29.2298716452742,-9.49883871826298e-05,-0.000929814667483946,-0.000940896705810889
29.2548758126354,-9.49883871826298e-05,-0.000929814667483946,-0.000940896705810889
29.2798799799967,-9.49883871826298e-05,-0.000929814667483946,-0.000940896705810889
29.3048841473579,-9.49883871826298e-05,-0.000929814667483946,-0.000940896705810889
29.3298883147191,-9.49883871826298e-05,-0.000929814667483946,-0.000940896705810889
29.3548924820803,-9.49883871826298e-05,-0.000929814667483946,-0.000940896705810889
29.3798966494416,-9.49883871826298e-05,-0.000929814667483946,-0.000940896705810889
29.4049008168028,-9.49883871826298e-05,-0.000929814667483946,-0.000940896705810889
29.429904984164,-9.49883871826298e-05,-0.000929814667483946,-0.000940896705810889
29.4549091515253,-9.49883871826298e-05,-0.000929814667483946,-0.000940896705810889
29.4799133188865,-9.49883871826298e-05,-0.000929814667483946,-0.000940896705810889
29.5049174862477,-9.49883871826298e-05,-0.000929814667483946,-0.000940896705810889
29.5299216536089,-9.49883871826298e-05,-0.000929814667483946,-0.000940896705810889
29.5549258209702,-9.49883871826298e-05,-0.000929814667483946,-0.000940896705810889
29.5799299883314,-9.49883871826298e-05,-0.000929814667483946,-0.000940896705810889
29.6049341556926,-9.49883871826298e-05,-0.000929814667483946,-0.000940896705810889
29.6299383230538,-9.49883871826298e-05,-0.000929814667483946,-0.000940896705810889
29.6549424904151,-9.49883871826298e-05,-0.000929814667483946,-0.000940896705810889
29.6799466577763,-9.49883871826298e-05,-0.000929814667483946,-0.000940896705810889
29.7049508251375,-9.49883871826298e-05,-0.000929814667483946,-0.000940896705810889
29.7299549924988,-9.49883871826298e-05,-0.000929814667483946,-0.000940896705810889
29.75495915986,-9.49883871826298e-05,-0.000929814667483946,-0.000940896705810889
29.7799633272212,-9.49883871826298e-05,-0.000929814667483946,-0.000940896705810889
29.8049674945824,-9.49883871826298e-05,-0.000929814667483946,-0.000940896705810889
29.8299716619437,-9.49883871826298e-05,-0.000929814667483946,-0.000940896705810889
29.8549758293049,-9.49883871826298e-05,-0.000929814667483946,-0.000940896705810889
29.8799799966661,-9.49883871826298e-05,-0.000929814667483946,-0.000940896705810889
29.9049841640273,-9.49883871826298e-05,-0.000929814667483946,-0.000940896705810889
29.9299883313886,-9.49883871826298e-05,-0.000929814667483946,-0.000940896705810889
29.9549924987498,-9.49883871826298e-05,-0.000929814667483946,-0.000940896705810889
29.979996666111,-9.49883871826298e-05,-0.000929814667483946,-0.000940896705810889
