data1,data2,data3,data4
0,0.000443003562265903,-0.000915013670868595,0.000684773836644903
0.0250041673612269,0.000443003562311151,-0.000915013898994624,0.000684773786704462
0.0500083347224537,0.000443001930403291,-0.000914987485637543,0.000684779768021525
0.0750125020836806,0.000442042031752054,-0.000914763242160753,0.000685228791518169
0.100016669444907,0.000442003838052073,-0.000915391455742608,0.000684213237439372
0.125020836806134,0.000442014560798709,-0.000915245717051318,0.000684704066907842
0.150025004167361,0.000442014560798709,-0.000915245717051318,0.000684704066907842
0.175029171528588,0.000442014560798709,-0.000915245717051318,0.000684704066907842
0.200033338889815,0.000442014560798709,-0.000915245717051318,0.000684704066907842
0.225037506251042,0.000442014560798709,-0.000915245717051318,0.000684704066907842
0.250041673612269,0.000442014560798709,-0.000915245717051318,0.000684704066907842
0.275045840973496,0.000442014560798709,-0.000915245717051318,0.000684704066907842
0.300050008334722,0.000442014560798709,-0.000915245717051318,0.000684704066907842
0.325054175695949,0.000442014560798709,-0.000915245717051318,0.000684704066907842
0.350058343057176,0.000442014560798709,-0.000915245717051318,0.000684704066907842
0.375062510418403,0.000442014560798709,-0.000915245717051318,0.000684704066907842
0.40006667777963,0.000442014560798709,-0.000915245717051318,0.000684704066907842
0.425070845140857,0.000442014560798709,-0.000915245717051318,0.000684704066907842
0.450075012502084,0.000442014560798709,-0.000915245717051318,0.000684704066907842
0.475079179863311,0.000442014560798709,-0.000915245717051318,0.000684704066907842
0.500083347224537,0.000442014560798709,-0.000915245717051318,0.000684704066907842
0.525087514585764,0.000442014560798709,-0.000915245717051318,0.000684704066907842
0.550091681946991,0.000442014560798709,-0.000915245717051318,0.000684704066907842
0.575095849308218,0.000442014560798709,-0.000915245717051318,0.000684704066907842
0.600100016669445,0.000442014560798709,-0.000915245717051318,0.000684704066907842
0.625104184030672,0.000442014560798709,-0.000915245717051318,0.000684704066907842
0.650108351391899,0.000442014560798709,-0.000915245717051318,0.000684704066907842
0.675112518753126,0.000442014560798709,-0.000915245717051318,0.000684704066907842
0.700116686114352,0.000442014560798709,-0.000915245717051318,0.000684704066907842
0.725120853475579,0.000442014560798709,-0.000915245717051318,0.000684704066907842
0.750125020836806,0.000442014560798709,-0.000915245717051318,0.000684704066907842
0.775129188198033,0.000442014560798709,-0.000915245717051318,0.000684704066907842
0.80013335555926,0.000442014560798709,-0.000915245717051318,0.000684704066907842
0.825137522920487,0.000442014560798709,-0.000915245717051318,0.000684704066907842
0.850141690281714,0.000442014560798709,-0.000915245717051318,0.000684704066907842
0.875145857642941,0.000442014560798709,-0.000915245717051318,0.000684704066907842
0.900150025004167,0.000442014560798709,-0.000915245717051318,0.000684704066907842
0.925154192365394,0.000442014560798709,-0.000915245717051318,0.000684704066907842
0.950158359726621,0.000442014560798709,-0.000915245717051318,0.000684704066907842
0.975162527087848,0.000442014560798709,-0.000915245717051318,0.000684704066907842
1.00016669444907,0.000442014560798709,-0.000915245717051318,0.000684704066907842
1.0251708618103,0.000442014560798709,-0.000915245717051318,0.000684704066907842
1.05017502917153,0.000442014560798709,-0.000915245717051318,0.000684704066907842
1.07517919653276,0.000442014560798709,-0.000915245717051318,0.000684704066907842
1.10018336389398,0.000442014560798709,-0.000915245717051318,0.000684704066907842
1.12518753125521,0.000442014560798709,-0.000915245717051318,0.000684704066907842
1.15019169861644,0.000442014560798709,-0.000915245717051318,0.000684704066907842
1.17519586597766,0.000442014560798709,-0.000915245717051318,0.000684704066907842
1.20020003333889,0.000442014560798709,-0.000915245717051318,0.000684704066907842
1.22520420070012,0.000442014560798709,-0.000915245717051318,0.000684704066907842
1.25020836806134,0.000442014560798709,-0.000915245717051318,0.000684704066907842
1.27521253542257,0.000442014560798709,-0.000915245717051318,0.000684704066907842
1.3002167027838,0.000442014560798709,-0.000915245717051318,0.000684704066907842
1.32522087014502,0.000442014560798709,-0.000915245717051318,0.000684704066907842
1.35022503750625,0.000442014560798709,-0.000915245717051318,0.000684704066907842
1.37522920486748,0.000442014560798709,-0.000915245717051318,0.000684704066907842
1.4002333722287,0.000442014560798709,-0.000915245717051318,0.000684704066907842
1.42523753958993,0.000442014560798709,-0.000915245717051318,0.000684704066907842
1.45024170695116,0.000442014560798709,-0.000915245717051318,0.000684704066907842
1.47524587431239,0.000442014560798709,-0.000915245717051318,0.000684704066907842
1.50025004167361,0.000442014560798709,-0.000915245717051318,0.000684704066907842
1.52525420903484,0.000442014560798709,-0.000915245717051318,0.000684704066907842
1.55025837639607,0.000442014560798709,-0.000915245717051318,0.000684704066907842
1.57526254375729,0.000442014560798709,-0.000915245717051318,0.000684704066907842
1.60026671111852,0.000442014560798709,-0.000915245717051318,0.000684704066907842
1.62527087847975,0.000442014560798709,-0.000915245717051318,0.000684704066907842
1.65027504584097,0.000442014560798709,-0.000915245717051318,0.000684704066907842
1.6752792132022,0.000442014560798709,-0.000915245717051318,0.000684704066907842
1.70028338056343,0.000442014560798709,-0.000915245717051318,0.000684704066907842
1.72528754792465,0.000442014560798709,-0.000915245717051318,0.000684704066907842
1.75029171528588,0.000442014560798709,-0.000915245717051318,0.000684704066907842
1.77529588264711,0.000442014560798709,-0.000915245717051318,0.000684704066907842
1.80030005000833,0.000442014560798709,-0.000915245717051318,0.000684704066907842
1.82530421736956,0.000442014560798709,-0.000915245717051318,0.000684704066907842
1.85030838473079,0.000442014560798709,-0.000915245717051318,0.000684704066907842
1.87531255209202,0.000442014560798709,-0.000915245717051318,0.000684704066907842
1.90031671945324,0.000442014560798709,-0.000915245717051318,0.000684704066907842
1.92532088681447,0.000442014560798709,-0.000915245717051318,0.000684704066907842
1.9503250541757,0.000442014560798709,-0.000915245717051318,0.000684704066907842
1.97532922153692,0.000442014560798709,-0.000915245717051318,0.000684704066907842
2.00033338889815,0.000442014560798709,-0.000915245717051318,0.000684704066907842
2.02533755625938,0.000442014560798709,-0.000915245717051318,0.000684704066907842
2.0503417236206,0.000442014560798709,-0.000915245717051318,0.000684704066907842
2.07534589098183,0.000442014560798709,-0.000915245717051318,0.000684704066907842
2.10035005834306,0.000442014560798709,-0.000915245717051318,0.000684704066907842
2.12535422570428,0.000442014560798709,-0.000915245717051318,0.000684704066907842
2.15035839306551,0.000442014560798709,-0.000915245717051318,0.000684704066907842
2.17536256042674,0.000442014560798709,-0.000915245717051318,0.000684704066907842
2.20036672778796,0.000442014560798709,-0.000915245717051318,0.000684704066907842
2.22537089514919,0.000442014560798709,-0.000915245717051318,0.000684704066907842
2.25037506251042,0.000442014560798709,-0.000915245717051318,0.000684704066907842
2.27537922987165,0.000442014560798709,-0.000915245717051318,0.000684704066907842
2.30038339723287,0.000442014560798709,-0.000915245717051318,0.000684704066907842
2.3253875645941,0.000442014560798709,-0.000915245717051318,0.000684704066907842
2.35039173195533,0.000442014560798709,-0.000915245717051318,0.000684704066907842
2.37539589931655,0.000442014560798709,-0.000915245717051318,0.000684704066907842
2.40040006667778,0.000442014560798709,-0.000915245717051318,0.000684704066907842
2.42540423403901,0.000442014560798709,-0.000915245717051318,0.000684704066907842
2.45040840140023,0.000442014560798709,-0.000915245717051318,0.000684704066907842
2.47541256876146,0.000442014560798709,-0.000915245717051318,0.000684704066907842
2.50041673612269,0.000442014560798709,-0.000915245717051318,0.000684704066907842
2.52542090348391,0.000442014560798709,-0.000915245717051318,0.000684704066907842
2.55042507084514,0.000442014560798709,-0.000915245717051318,0.000684704066907842
2.57542923820637,0.000442014560798709,-0.000915245717051318,0.000684704066907842
2.60043340556759,0.000442014560798709,-0.000915245717051318,0.000684704066907842
2.62543757292882,0.000442014560798709,-0.000915245717051318,0.000684704066907842
2.65044174029005,0.000442014560798709,-0.000915245717051318,0.000684704066907842
2.67544590765128,0.000442014560798709,-0.000915245717051318,0.000684704066907842
2.7004500750125,0.000442014560798709,-0.000915245717051318,0.000684704066907842
2.72545424237373,0.000442014560798709,-0.000915245717051318,0.000684704066907842
2.75045840973496,0.000442014560798709,-0.000915245717051318,0.000684704066907842
2.77546257709618,0.000442014560798709,-0.000915245717051318,0.000684704066907842
2.80046674445741,0.000442014560798709,-0.000915245717051318,0.000684704066907842
2.82547091181864,0.000442014560798709,-0.000915245717051318,0.000684704066907842
2.85047507917986,0.000442014560798709,-0.000915245717051318,0.000684704066907842
2.87547924654109,0.000442014560798709,-0.000915245717051318,0.000684704066907842
2.90048341390232,0.000442014560798709,-0.000915245717051318,0.000684704066907842
2.92548758126354,0.000442014560798709,-0.000915245717051318,0.000684704066907842
2.95049174862477,0.000442014560798709,-0.000915245717051318,0.000684704066907842
2.975495915986,0.000442014560798709,-0.000915245717051318,0.000684704066907842
3.00050008334722,0.000442014560798709,-0.000915245717051318,0.000684704066907842
3.02550425070845,0.000442014560798709,-0.000915245717051318,0.000684704066907842
3.05050841806968,0.000442014560798709,-0.000915245717051318,0.000684704066907842
3.07551258543091,0.000442014560798709,-0.000915245717051318,0.000684704066907842
3.10051675279213,0.000442014560798709,-0.000915245717051318,0.000684704066907842
3.12552092015336,0.000442014560798709,-0.000915245717051318,0.000684704066907842
3.15052508751459,0.000442014560798709,-0.000915245717051318,0.000684704066907842
3.17552925487581,0.000442014560798709,-0.000915245717051318,0.000684704066907842
3.20053342223704,0.000442014560798709,-0.000915245717051318,0.000684704066907842
3.22553758959827,0.000442014560798709,-0.000915245717051318,0.000684704066907842
3.25054175695949,0.000442014560798709,-0.000915245717051318,0.000684704066907842
3.27554592432072,0.000442014560798709,-0.000915245717051318,0.000684704066907842
3.30055009168195,0.000442014560798709,-0.000915245717051318,0.000684704066907842
3.32555425904317,0.000442014560798709,-0.000915245717051318,0.000684704066907842
3.3505584264044,0.000442014560798709,-0.000915245717051318,0.000684704066907842
3.37556259376563,0.000442014560798709,-0.000915245717051318,0.000684704066907842
3.40056676112685,0.000442014560798709,-0.000915245717051318,0.000684704066907842
3.42557092848808,0.000442014560798709,-0.000915245717051318,0.000684704066907842
3.45057509584931,0.000442014560798709,-0.000915245717051318,0.000684704066907842
3.47557926321053,0.000442014560798709,-0.000915245717051318,0.000684704066907842
3.50058343057176,0.000442014560798709,-0.000915245717051318,0.000684704066907842
3.52558759793299,0.000442014560798709,-0.000915245717051318,0.000684704066907842
3.55059176529422,0.000442014560798709,-0.000915245717051318,0.000684704066907842
3.57559593265544,0.000442014560798709,-0.000915245717051318,0.000684704066907842
3.60060010001667,0.000442014560798709,-0.000915245717051318,0.000684704066907842
3.6256042673779,0.000442014560798709,-0.000915245717051318,0.000684704066907842
3.65060843473912,0.000442014560798709,-0.000915245717051318,0.000684704066907842
3.67561260210035,0.000442014560798709,-0.000915245717051318,0.000684704066907842
3.70061676946158,0.000442014560798709,-0.000915245717051318,0.000684704066907842
3.7256209368228,0.000442014560798709,-0.000915245717051318,0.000684704066907842
3.75062510418403,0.000442014560798709,-0.000915245717051318,0.000684704066907842
3.77562927154526,0.000442014560798709,-0.000915245717051318,0.000684704066907842
3.80063343890648,0.000442014560798709,-0.000915245717051318,0.000684704066907842
3.82563760626771,0.000442014560798709,-0.000915245717051318,0.000684704066907842
3.85064177362894,0.000442014560798709,-0.000915245717051318,0.000684704066907842
3.87564594099016,0.000442014560798709,-0.000915245717051318,0.000684704066907842
3.90065010835139,0.000442014560798709,-0.000915245717051318,0.000684704066907842
3.92565427571262,0.000442014560798709,-0.000915245717051318,0.000684704066907842
3.95065844307385,0.000442014560798709,-0.000915245717051318,0.000684704066907842
3.97566261043507,0.000442014560798709,-0.000915245717051318,0.000684704066907842
4.0006667777963,0.000442014560798709,-0.000915245717051318,0.000684704066907842
4.02567094515753,0.000442014560798709,-0.000915245717051318,0.000684704066907842
4.05067511251875,0.000442014560798709,-0.000915245717051318,0.000684704066907842
4.07567927987998,0.000442014560798709,-0.000915245717051318,0.000684704066907842
4.10068344724121,0.000442014560798709,-0.000915245717051318,0.000684704066907842
4.12568761460243,0.000442014560798709,-0.000915245717051318,0.000684704066907842
4.15069178196366,0.000442014560798709,-0.000915245717051318,0.000684704066907842
4.17569594932489,0.000442014560798709,-0.000915245717051318,0.000684704066907842
4.20070011668611,0.000442014560798709,-0.000915245717051318,0.000684704066907842
4.22570428404734,0.000442014560798709,-0.000915245717051318,0.000684704066907842
4.25070845140857,0.000442014560798709,-0.000915245717051318,0.000684704066907842
4.27571261876979,0.000442014560798709,-0.000915245717051318,0.000684704066907842
4.30071678613102,0.000442014560798709,-0.000915245717051318,0.000684704066907842
4.32572095349225,0.000442014560798709,-0.000915245717051318,0.000684704066907842
4.35072512085348,0.000442014560798709,-0.000915245717051318,0.000684704066907842
4.3757292882147,0.000442014560798709,-0.000915245717051318,0.000684704066907842
4.40073345557593,0.000442014560798709,-0.000915245717051318,0.000684704066907842
4.42573762293716,0.000442014560798709,-0.000915245717051318,0.000684704066907842
4.45074179029838,0.000442014560798709,-0.000915245717051318,0.000684704066907842
4.47574595765961,0.000442014560798709,-0.000915245717051318,0.000684704066907842
4.50075012502084,0.000442014560798709,-0.000915245717051318,0.000684704066907842
4.52575429238206,0.000442014560798709,-0.000915245717051318,0.000684704066907842
4.55075845974329,0.000442014560798709,-0.000915245717051318,0.000684704066907842
4.57576262710452,0.000442014560798709,-0.000915245717051318,0.000684704066907842
4.60076679446574,0.000442014560798709,-0.000915245717051318,0.000684704066907842
4.62577096182697,0.000442014560798709,-0.000915245717051318,0.000684704066907842
4.6507751291882,0.000442014560798709,-0.000915245717051318,0.000684704066907842
4.67577929654942,0.000442014560798709,-0.000915245717051318,0.000684704066907842
4.70078346391065,0.000442014560798709,-0.000915245717051318,0.000684704066907842
4.72578763127188,0.000442014560798709,-0.000915245717051318,0.000684704066907842
4.75079179863311,0.000442014560798709,-0.000915245717051318,0.000684704066907842
4.77579596599433,0.000442014560798709,-0.000915245717051318,0.000684704066907842
4.80080013335556,0.000442014560798709,-0.000915245717051318,0.000684704066907842
4.82580430071679,0.000442014560798709,-0.000915245717051318,0.000684704066907842
4.85080846807801,0.000442014560798709,-0.000915245717051318,0.000684704066907842
4.87581263543924,0.000442014560798709,-0.000915245717051318,0.000684704066907842
4.90081680280047,0.000442014560798709,-0.000915245717051318,0.000684704066907842
4.92582097016169,0.000442014560798709,-0.000915245717051318,0.000684704066907842
4.95082513752292,0.000442014560798709,-0.000915245717051318,0.000684704066907842
4.97582930488415,0.000442014560798709,-0.000915245717051318,0.000684704066907842
5.00083347224537,0.000442014560798709,-0.000915245717051318,0.000684704066907842
5.0258376396066,0.000442014560798709,-0.000915245717051318,0.000684704066907842
5.05084180696783,0.000442014560798709,-0.000915245717051318,0.000684704066907842
5.07584597432905,0.000442014560798709,-0.000915245717051318,0.000684704066907842
5.10085014169028,0.000442014560798709,-0.000915245717051318,0.000684704066907842
5.12585430905151,0.000442014560798709,-0.000915245717051318,0.000684704066907842
5.15085847641274,0.000442014560798709,-0.000915245717051318,0.000684704066907842
5.17586264377396,0.000442014560798709,-0.000915245717051318,0.000684704066907842
5.20086681113519,0.000442014560798709,-0.000915245717051318,0.000684704066907842
5.22587097849642,0.000442014560798709,-0.000915245717051318,0.000684704066907842
5.25087514585764,0.000442014560798709,-0.000915245717051318,0.000684704066907842
5.27587931321887,0.000442014560798709,-0.000915245717051318,0.000684704066907842
5.3008834805801,0.000442014560798709,-0.000915245717051318,0.000684704066907842
5.32588764794132,0.000442014560798709,-0.000915245717051318,0.000684704066907842
5.35089181530255,0.000442014560798709,-0.000915245717051318,0.000684704066907842
5.37589598266378,0.000442014560798709,-0.000915245717051318,0.000684704066907842
5.400900150025,0.000442014560798709,-0.000915245717051318,0.000684704066907842
5.42590431738623,0.000442014560798709,-0.000915245717051318,0.000684704066907842
5.45090848474746,0.000442014560798709,-0.000915245717051318,0.000684704066907842
5.47591265210868,0.000442014560798709,-0.000915245717051318,0.000684704066907842
5.50091681946991,0.000442014560798709,-0.000915245717051318,0.000684704066907842
5.52592098683114,0.000442014560798709,-0.000915245717051318,0.000684704066907842
5.55092515419236,0.000442014560798709,-0.000915245717051318,0.000684704066907842
5.57592932155359,0.000442014560798709,-0.000915245717051318,0.000684704066907842
5.60093348891482,0.000442014560798709,-0.000915245717051318,0.000684704066907842
5.62593765627605,0.000442014560798709,-0.000915245717051318,0.000684704066907842
5.65094182363727,0.000442014560798709,-0.000915245717051318,0.000684704066907842
5.6759459909985,0.000442014560798709,-0.000915245717051318,0.000684704066907842
5.70095015835973,0.000442014560798709,-0.000915245717051318,0.000684704066907842
5.72595432572095,0.000442014560798709,-0.000915245717051318,0.000684704066907842
5.75095849308218,0.000442014560798709,-0.000915245717051318,0.000684704066907842
5.77596266044341,0.000442014560798709,-0.000915245717051318,0.000684704066907842
5.80096682780463,0.000442014560798709,-0.000915245717051318,0.000684704066907842
5.82597099516586,0.000442014560798709,-0.000915245717051318,0.000684704066907842
5.85097516252709,0.000442014560798709,-0.000915245717051318,0.000684704066907842
5.87597932988831,0.000442014560798709,-0.000915245717051318,0.000684704066907842
5.90098349724954,0.000442014560798709,-0.000915245717051318,0.000684704066907842
5.92598766461077,0.000442014560798709,-0.000915245717051318,0.000684704066907842
5.950991831972,0.000442014560798709,-0.000915245717051318,0.000684704066907842
5.97599599933322,0.000442014560798709,-0.000915245717051318,0.000684704066907842
6.00100016669445,0.000442014560798709,-0.000915245717051318,0.000684704066907842
6.02600433405568,0.000442014560798709,-0.000915245717051318,0.000684704066907842
6.0510085014169,0.000442014560798709,-0.000915245717051318,0.000684704066907842
6.07601266877813,0.000442014560798709,-0.000915245717051318,0.000684704066907842
6.10101683613936,0.000442014560798709,-0.000915245717051318,0.000684704066907842
6.12602100350058,0.000442014560798709,-0.000915245717051318,0.000684704066907842
6.15102517086181,0.000442014560798709,-0.000915245717051318,0.000684704066907842
6.17602933822304,0.000442014560798709,-0.000915245717051318,0.000684704066907842
6.20103350558426,0.000442014560798709,-0.000915245717051318,0.000684704066907842
6.22603767294549,0.000442014560798709,-0.000915245717051318,0.000684704066907842
6.25104184030672,0.000442014560798709,-0.000915245717051318,0.000684704066907842
6.27604600766794,0.000442014560798709,-0.000915245717051318,0.000684704066907842
6.30105017502917,0.000442014560798709,-0.000915245717051318,0.000684704066907842
6.3260543423904,0.000442014560798709,-0.000915245717051318,0.000684704066907842
6.35105850975163,0.000442014560798709,-0.000915245717051318,0.000684704066907842
6.37606267711285,0.000442014560798709,-0.000915245717051318,0.000684704066907842
6.40106684447408,0.000442014560798709,-0.000915245717051318,0.000684704066907842
6.42607101183531,0.000442014560798709,-0.000915245717051318,0.000684704066907842
6.45107517919653,0.000442014560798709,-0.000915245717051318,0.000684704066907842
6.47607934655776,0.000442014560798709,-0.000915245717051318,0.000684704066907842
6.50108351391899,0.000442014560798709,-0.000915245717051318,0.000684704066907842
6.52608768128021,0.000442014560798709,-0.000915245717051318,0.000684704066907842
6.55109184864144,0.000442014560798709,-0.000915245717051318,0.000684704066907842
6.57609601600267,0.000442014560798709,-0.000915245717051318,0.000684704066907842
6.60110018336389,0.000442014560798709,-0.000915245717051318,0.000684704066907842
6.62610435072512,0.000442014560798709,-0.000915245717051318,0.000684704066907842
6.65110851808635,0.000442014560798709,-0.000915245717051318,0.000684704066907842
6.67611268544757,0.000442014560798709,-0.000915245717051318,0.000684704066907842
6.7011168528088,0.000442014560798709,-0.000915245717051318,0.000684704066907842
6.72612102017003,0.000442014560798709,-0.000915245717051318,0.000684704066907842
6.75112518753126,0.000442014560798709,-0.000915245717051318,0.000684704066907842
6.77612935489248,0.000442014560798709,-0.000915245717051318,0.000684704066907842
6.80113352225371,0.000442014560798709,-0.000915245717051318,0.000684704066907842
6.82613768961494,0.000442014560798709,-0.000915245717051318,0.000684704066907842
6.85114185697616,0.000442014560798709,-0.000915245717051318,0.000684704066907842
6.87614602433739,0.000442014560798709,-0.000915245717051318,0.000684704066907842
6.90115019169862,0.000442014560798709,-0.000915245717051318,0.000684704066907842
6.92615435905984,0.000442014560798709,-0.000915245717051318,0.000684704066907842
6.95115852642107,0.000442014560798709,-0.000915245717051318,0.000684704066907842
6.9761626937823,0.000442014560798709,-0.000915245717051318,0.000684704066907842
7.00116686114352,0.000442014560798709,-0.000915245717051318,0.000684704066907842
7.02617102850475,0.000442014560798709,-0.000915245717051318,0.000684704066907842
7.05117519586598,0.000442014560798709,-0.000915245717051318,0.000684704066907842
7.0761793632272,0.000442014560798709,-0.000915245717051318,0.000684704066907842
7.10118353058843,0.000442014560798709,-0.000915245717051318,0.000684704066907842
7.12618769794966,0.000442014560798709,-0.000915245717051318,0.000684704066907842
7.15119186531089,0.000442014560798709,-0.000915245717051318,0.000684704066907842
7.17619603267211,0.000442014560798709,-0.000915245717051318,0.000684704066907842
7.20120020003334,0.000442014560798709,-0.000915245717051318,0.000684704066907842
7.22620436739457,0.000442014560798709,-0.000915245717051318,0.000684704066907842
7.25120853475579,0.000442014560798709,-0.000915245717051318,0.000684704066907842
7.27621270211702,0.000442014560798709,-0.000915245717051318,0.000684704066907842
7.30121686947825,0.000442014560798709,-0.000915245717051318,0.000684704066907842
7.32622103683947,0.000442014560798709,-0.000915245717051318,0.000684704066907842
7.3512252042007,0.000442014560798709,-0.000915245717051318,0.000684704066907842
7.37622937156193,0.000442014560798709,-0.000915245717051318,0.000684704066907842
7.40123353892315,0.000442014560798709,-0.000915245717051318,0.000684704066907842
7.42623770628438,0.000442014560798709,-0.000915245717051318,0.000684704066907842
7.45124187364561,0.000442014560798709,-0.000915245717051318,0.000684704066907842
7.47624604100683,0.000442014560798709,-0.000915245717051318,0.000684704066907842
7.50125020836806,0.000442014560798709,-0.000915245717051318,0.000684704066907842
7.52625437572929,0.000442014560798709,-0.000915245717051318,0.000684704066907842
7.55125854309052,0.000442014560798709,-0.000915245717051318,0.000684704066907842
7.57626271045174,0.000442014560798709,-0.000915245717051318,0.000684704066907842
7.60126687781297,0.000442014560798709,-0.000915245717051318,0.000684704066907842
7.6262710451742,0.000442014560798709,-0.000915245717051318,0.000684704066907842
7.65127521253542,0.000442014560798709,-0.000915245717051318,0.000684704066907842
7.67627937989665,0.000442014560798709,-0.000915245717051318,0.000684704066907842
7.70128354725788,0.000442014560798709,-0.000915245717051318,0.000684704066907842
7.7262877146191,0.000442014560798709,-0.000915245717051318,0.000684704066907842
7.75129188198033,0.000442014560798709,-0.000915245717051318,0.000684704066907842
7.77629604934156,0.000442014560798709,-0.000915245717051318,0.000684704066907842
7.80130021670278,0.000442014560798709,-0.000915245717051318,0.000684704066907842
7.82630438406401,0.000442014560798709,-0.000915245717051318,0.000684704066907842
7.85130855142524,0.000442014560798709,-0.000915245717051318,0.000684704066907842
7.87631271878646,0.000442014560798709,-0.000915245717051318,0.000684704066907842
7.90131688614769,0.000442014560798709,-0.000915245717051318,0.000684704066907842
7.92632105350892,0.000442014560798709,-0.000915245717051318,0.000684704066907842
7.95132522087015,0.000442014560798709,-0.000915245717051318,0.000684704066907842
7.97632938823137,0.000442014560798709,-0.000915245717051318,0.000684704066907842
8.0013335555926,0.000442014560798709,-0.000915245717051318,0.000684704066907842
8.02633772295383,0.000442014560798709,-0.000915245717051318,0.000684704066907842
8.05134189031505,0.000442014560798709,-0.000915245717051318,0.000684704066907842
8.07634605767628,0.000442014560798709,-0.000915245717051318,0.000684704066907842
8.10135022503751,0.000442014560798709,-0.000915245717051318,0.000684704066907842
8.12635439239873,0.000442014560798709,-0.000915245717051318,0.000684704066907842
8.15135855975996,0.000442014560798709,-0.000915245717051318,0.000684704066907842
8.17636272712119,0.000442014560798709,-0.000915245717051318,0.000684704066907842
8.20136689448241,0.000442014560798709,-0.000915245717051318,0.000684704066907842
8.22637106184364,0.000442014560798709,-0.000915245717051318,0.000684704066907842
8.25137522920487,0.000442014560798709,-0.000915245717051318,0.000684704066907842
8.27637939656609,0.000442014560798709,-0.000915245717051318,0.000684704066907842
8.30138356392732,0.000442014560798709,-0.000915245717051318,0.000684704066907842
8.32638773128855,0.000442014560798709,-0.000915245717051318,0.000684704066907842
8.35139189864977,0.000442014560798709,-0.000915245717051318,0.000684704066907842
8.376396066011,0.000442014560798709,-0.000915245717051318,0.000684704066907842
8.40140023337223,0.000442014560798709,-0.000915245717051318,0.000684704066907842
8.42640440073346,0.000442014560798709,-0.000915245717051318,0.000684704066907842
8.45140856809468,0.000442014560798709,-0.000915245717051318,0.000684704066907842
8.47641273545591,0.000442014560798709,-0.000915245717051318,0.000684704066907842
8.50141690281714,0.000442014560798709,-0.000915245717051318,0.000684704066907842
8.52642107017836,0.000442014560798709,-0.000915245717051318,0.000684704066907842
8.55142523753959,0.000442014560798709,-0.000915245717051318,0.000684704066907842
8.57642940490082,0.000442014560798709,-0.000915245717051318,0.000684704066907842
8.60143357226204,0.000442014560798709,-0.000915245717051318,0.000684704066907842
8.62643773962327,0.000442014560798709,-0.000915245717051318,0.000684704066907842
8.6514419069845,0.000442014560798709,-0.000915245717051318,0.000684704066907842
8.67644607434572,0.000442014560798709,-0.000915245717051318,0.000684704066907842
8.70145024170695,0.000442014560798709,-0.000915245717051318,0.000684704066907842
8.72645440906818,0.000442014560798709,-0.000915245717051318,0.000684704066907842
8.75145857642941,0.000442014560798709,-0.000915245717051318,0.000684704066907842
8.77646274379063,0.000442014560798709,-0.000915245717051318,0.000684704066907842
8.80146691115186,0.000442014560798709,-0.000915245717051318,0.000684704066907842
8.82647107851309,0.000442014560798709,-0.000915245717051318,0.000684704066907842
8.85147524587431,0.000442014560798709,-0.000915245717051318,0.000684704066907842
8.87647941323554,0.000442014560798709,-0.000915245717051318,0.000684704066907842
8.90148358059677,0.000442014560798709,-0.000915245717051318,0.000684704066907842
8.92648774795799,0.000442014560798709,-0.000915245717051318,0.000684704066907842
8.95149191531922,0.000442014560798709,-0.000915245717051318,0.000684704066907842
8.97649608268045,0.000442014560798709,-0.000915245717051318,0.000684704066907842
9.00150025004167,0.000442014560798709,-0.000915245717051318,0.000684704066907842
9.0265044174029,0.000442014560798709,-0.000915245717051318,0.000684704066907842
9.05150858476413,0.000442014560798709,-0.000915245717051318,0.000684704066907842
9.07651275212536,0.000442014560798709,-0.000915245717051318,0.000684704066907842
9.10151691948658,0.000442014560798709,-0.000915245717051318,0.000684704066907842
9.12652108684781,0.000442014560798709,-0.000915245717051318,0.000684704066907842
9.15152525420904,0.000442014560798709,-0.000915245717051318,0.000684704066907842
9.17652942157026,0.000442014560798709,-0.000915245717051318,0.000684704066907842
9.20153358893149,0.000442014560798709,-0.000915245717051318,0.000684704066907842
9.22653775629272,0.000442014560798709,-0.000915245717051318,0.000684704066907842
9.25154192365394,0.000442014560798709,-0.000915245717051318,0.000684704066907842
9.27654609101517,0.000442014560798709,-0.000915245717051318,0.000684704066907842
9.3015502583764,0.000442014560798709,-0.000915245717051318,0.000684704066907842
9.32655442573762,0.000442014560798709,-0.000915245717051318,0.000684704066907842
9.35155859309885,0.000442014560798709,-0.000915245717051318,0.000684704066907842
9.37656276046008,0.000442014560798709,-0.000915245717051318,0.000684704066907842
9.4015669278213,0.000442014560798709,-0.000915245717051318,0.000684704066907842
9.42657109518253,0.000442014560798709,-0.000915245717051318,0.000684704066907842
9.45157526254376,0.000442014560798709,-0.000915245717051318,0.000684704066907842
9.47657942990498,0.000442014560798709,-0.000915245717051318,0.000684704066907842
9.50158359726621,0.000442014560798709,-0.000915245717051318,0.000684704066907842
9.52658776462744,0.000442014560798709,-0.000915245717051318,0.000684704066907842
9.55159193198866,0.000442014560798709,-0.000915245717051318,0.000684704066907842
9.57659609934989,0.000442014560798709,-0.000915245717051318,0.000684704066907842
9.60160026671112,0.000442014560798709,-0.000915245717051318,0.000684704066907842
9.62660443407234,0.000442014560798709,-0.000915245717051318,0.000684704066907842
9.65160860143357,0.000442014560798709,-0.000915245717051318,0.000684704066907842
9.6766127687948,0.000442014560798709,-0.000915245717051318,0.000684704066907842
9.70161693615603,0.000442014560798709,-0.000915245717051318,0.000684704066907842
9.72662110351725,0.000442014560798709,-0.000915245717051318,0.000684704066907842
9.75162527087848,0.000442014560798709,-0.000915245717051318,0.000684704066907842
9.77662943823971,0.000442014560798709,-0.000915245717051318,0.000684704066907842
9.80163360560093,0.000442014560798709,-0.000915245717051318,0.000684704066907842
9.82663777296216,0.000442014560798709,-0.000915245717051318,0.000684704066907842
9.85164194032339,0.000442014560798709,-0.000915245717051318,0.000684704066907842
9.87664610768461,0.000442014560798709,-0.000915245717051318,0.000684704066907842
9.90165027504584,0.000442014560798709,-0.000915245717051318,0.000684704066907842
9.92665444240707,0.000442014560798709,-0.000915245717051318,0.000684704066907842
9.95165860976829,0.000442014560798709,-0.000915245717051318,0.000684704066907842
9.97666277712952,0.000442014560798709,-0.000915245717051318,0.000684704066907842
10.0016669444907,0.000442014560798709,-0.000915245717051318,0.000684704066907842
10.026671111852,0.000442014560798709,-0.000915245717051318,0.000684704066907842
10.0516752792132,0.000442014560798709,-0.000915245717051318,0.000684704066907842
10.0766794465744,0.000442014560798709,-0.000915245717051318,0.000684704066907842
10.1016836139357,0.000442014560798709,-0.000915245717051318,0.000684704066907842
10.1266877812969,0.000442014560798709,-0.000915245717051318,0.000684704066907842
10.1516919486581,0.000442014560798709,-0.000915245717051318,0.000684704066907842
10.1766961160193,0.000442014560798709,-0.000915245717051318,0.000684704066907842
10.2017002833806,0.000442014560798709,-0.000915245717051318,0.000684704066907842
10.2267044507418,0.000442014560798709,-0.000915245717051318,0.000684704066907842
10.251708618103,0.000442014560798709,-0.000915245717051318,0.000684704066907842
10.2767127854642,0.000442014560798709,-0.000915245717051318,0.000684704066907842
10.3017169528255,0.000442014560798709,-0.000915245717051318,0.000684704066907842
10.3267211201867,0.000442014560798709,-0.000915245717051318,0.000684704066907842
10.3517252875479,0.000442014560798709,-0.000915245717051318,0.000684704066907842
10.3767294549092,0.000442014560798709,-0.000915245717051318,0.000684704066907842
10.4017336222704,0.000442014560798709,-0.000915245717051318,0.000684704066907842
10.4267377896316,0.000442014560798709,-0.000915245717051318,0.000684704066907842
10.4517419569928,0.000442014560798709,-0.000915245717051318,0.000684704066907842
10.4767461243541,0.000442014560798709,-0.000915245717051318,0.000684704066907842
10.5017502917153,0.000442014560798709,-0.000915245717051318,0.000684704066907842
10.5267544590765,0.000442014560798709,-0.000915245717051318,0.000684704066907842
10.5517586264377,0.000442014560798709,-0.000915245717051318,0.000684704066907842
10.576762793799,0.000442014560798709,-0.000915245717051318,0.000684704066907842
10.6017669611602,0.000442014560798709,-0.000915245717051318,0.000684704066907842
10.6267711285214,0.000442014560798709,-0.000915245717051318,0.000684704066907842
10.6517752958826,0.000442014560798709,-0.000915245717051318,0.000684704066907842
10.6767794632439,0.000442014560798709,-0.000915245717051318,0.000684704066907842
10.7017836306051,0.000442014560798709,-0.000915245717051318,0.000684704066907842
10.7267877979663,0.000442014560798709,-0.000915245717051318,0.000684704066907842
10.7517919653276,0.000442014560798709,-0.000915245717051318,0.000684704066907842
10.7767961326888,0.000442014560798709,-0.000915245717051318,0.000684704066907842
10.80180030005,0.000442014560798709,-0.000915245717051318,0.000684704066907842
10.8268044674112,0.000442014560798709,-0.000915245717051318,0.000684704066907842
10.8518086347725,0.000442014560798709,-0.000915245717051318,0.000684704066907842
10.8768128021337,0.000442014560798709,-0.000915245717051318,0.000684704066907842
10.9018169694949,0.000442014560798709,-0.000915245717051318,0.000684704066907842
10.9268211368561,0.000442014560798709,-0.000915245717051318,0.000684704066907842
10.9518253042174,0.000442014560798709,-0.000915245717051318,0.000684704066907842
10.9768294715786,0.000442014560798709,-0.000915245717051318,0.000684704066907842
11.0018336389398,0.000442014560798709,-0.000915245717051318,0.000684704066907842
11.026837806301,0.000442014560798709,-0.000915245717051318,0.000684704066907842
11.0518419736623,0.000442014560798709,-0.000915245717051318,0.000684704066907842
11.0768461410235,0.000442014560798709,-0.000915245717051318,0.000684704066907842
11.1018503083847,0.000442014560798709,-0.000915245717051318,0.000684704066907842
11.126854475746,0.000442014560798709,-0.000915245717051318,0.000684704066907842
11.1518586431072,0.000442014560798709,-0.000915245717051318,0.000684704066907842
11.1768628104684,0.000442014560798709,-0.000915245717051318,0.000684704066907842
11.2018669778296,0.000442014560798709,-0.000915245717051318,0.000684704066907842
11.2268711451909,0.000442014560798709,-0.000915245717051318,0.000684704066907842
11.2518753125521,0.000442014560798709,-0.000915245717051318,0.000684704066907842
11.2768794799133,0.000442014560798709,-0.000915245717051318,0.000684704066907842
11.3018836472745,0.000442014560798709,-0.000915245717051318,0.000684704066907842
11.3268878146358,0.000442014560798709,-0.000915245717051318,0.000684704066907842
11.351891981997,0.000442014560798709,-0.000915245717051318,0.000684704066907842
11.3768961493582,0.000442014560798709,-0.000915245717051318,0.000684704066907842
11.4019003167195,0.000442014560798709,-0.000915245717051318,0.000684704066907842
11.4269044840807,0.000442014560798709,-0.000915245717051318,0.000684704066907842
11.4519086514419,0.000442014560798709,-0.000915245717051318,0.000684704066907842
11.4769128188031,0.000442014560798709,-0.000915245717051318,0.000684704066907842
11.5019169861644,0.000442014560798709,-0.000915245717051318,0.000684704066907842
11.5269211535256,0.000442014560798709,-0.000915245717051318,0.000684704066907842
11.5519253208868,0.000442014560798709,-0.000915245717051318,0.000684704066907842
11.576929488248,0.000442014560798709,-0.000915245717051318,0.000684704066907842
11.6019336556093,0.000442014560798709,-0.000915245717051318,0.000684704066907842
11.6269378229705,0.000442014560798709,-0.000915245717051318,0.000684704066907842
11.6519419903317,0.000442014560798709,-0.000915245717051318,0.000684704066907842
11.6769461576929,0.000442014560798709,-0.000915245717051318,0.000684704066907842
11.7019503250542,0.000442014560798709,-0.000915245717051318,0.000684704066907842
11.7269544924154,0.000442014560798709,-0.000915245717051318,0.000684704066907842
11.7519586597766,0.000442014560798709,-0.000915245717051318,0.000684704066907842
11.7769628271379,0.000442014560798709,-0.000915245717051318,0.000684704066907842
11.8019669944991,0.000442014560798709,-0.000915245717051318,0.000684704066907842
11.8269711618603,0.000442014560798709,-0.000915245717051318,0.000684704066907842
11.8519753292215,0.000442014560798709,-0.000915245717051318,0.000684704066907842
11.8769794965828,0.000442014560798709,-0.000915245717051318,0.000684704066907842
11.901983663944,0.000442014560798709,-0.000915245717051318,0.000684704066907842
11.9269878313052,0.000442014560798709,-0.000915245717051318,0.000684704066907842
11.9519919986664,0.000442014560798709,-0.000915245717051318,0.000684704066907842
11.9769961660277,0.000442014560798709,-0.000915245717051318,0.000684704066907842
12.0020003333889,0.000442014560798709,-0.000915245717051318,0.000684704066907842
12.0270045007501,0.000442014560798709,-0.000915245717051318,0.000684704066907842
12.0520086681114,0.000442014560798709,-0.000915245717051318,0.000684704066907842
12.0770128354726,0.000442014560798709,-0.000915245717051318,0.000684704066907842
12.1020170028338,0.000442014560798709,-0.000915245717051318,0.000684704066907842
12.127021170195,0.000442014560798709,-0.000915245717051318,0.000684704066907842
12.1520253375563,0.000442014560798709,-0.000915245717051318,0.000684704066907842
12.1770295049175,0.000442014560798709,-0.000915245717051318,0.000684704066907842
12.2020336722787,0.000442014560798709,-0.000915245717051318,0.000684704066907842
12.2270378396399,0.000442014560798709,-0.000915245717051318,0.000684704066907842
12.2520420070012,0.000442014560798709,-0.000915245717051318,0.000684704066907842
12.2770461743624,0.000442014560798709,-0.000915245717051318,0.000684704066907842
12.3020503417236,0.000442014560798709,-0.000915245717051318,0.000684704066907842
12.3270545090848,0.000442014560798709,-0.000915245717051318,0.000684704066907842
12.3520586764461,0.000442014560798709,-0.000915245717051318,0.000684704066907842
12.3770628438073,0.000442014560798709,-0.000915245717051318,0.000684704066907842
12.4020670111685,0.000442014560798709,-0.000915245717051318,0.000684704066907842
12.4270711785298,0.000442014560798709,-0.000915245717051318,0.000684704066907842
12.452075345891,0.000442014560798709,-0.000915245717051318,0.000684704066907842
12.4770795132522,0.000442014560798709,-0.000915245717051318,0.000684704066907842
12.5020836806134,0.000442014560798709,-0.000915245717051318,0.000684704066907842
12.5270878479747,0.000442014560798709,-0.000915245717051318,0.000684704066907842
12.5520920153359,0.000442014560798709,-0.000915245717051318,0.000684704066907842
12.5770961826971,0.000442014560798709,-0.000915245717051318,0.000684704066907842
12.6021003500583,0.000442014560798709,-0.000915245717051318,0.000684704066907842
12.6271045174196,0.000442014560798709,-0.000915245717051318,0.000684704066907842
12.6521086847808,0.000442014560798709,-0.000915245717051318,0.000684704066907842
12.677112852142,0.000442014560798709,-0.000915245717051318,0.000684704066907842
12.7021170195033,0.000442014560798709,-0.000915245717051318,0.000684704066907842
12.7271211868645,0.000442014560798709,-0.000915245717051318,0.000684704066907842
12.7521253542257,0.000442014560798709,-0.000915245717051318,0.000684704066907842
12.7771295215869,0.000442014560798709,-0.000915245717051318,0.000684704066907842
12.8021336889482,0.000442014560798709,-0.000915245717051318,0.000684704066907842
12.8271378563094,0.000442014560798709,-0.000915245717051318,0.000684704066907842
12.8521420236706,0.000442014560798709,-0.000915245717051318,0.000684704066907842
12.8771461910318,0.000442014560798709,-0.000915245717051318,0.000684704066907842
12.9021503583931,0.000442014560798709,-0.000915245717051318,0.000684704066907842
12.9271545257543,0.000442014560798709,-0.000915245717051318,0.000684704066907842
12.9521586931155,0.000442014560798709,-0.000915245717051318,0.000684704066907842
12.9771628604767,0.000442014560798709,-0.000915245717051318,0.000684704066907842
13.002167027838,0.000442014560798709,-0.000915245717051318,0.000684704066907842
13.0271711951992,0.000442014560798709,-0.000915245717051318,0.000684704066907842
13.0521753625604,0.000442014560798709,-0.000915245717051318,0.000684704066907842
13.0771795299217,0.000442014560798709,-0.000915245717051318,0.000684704066907842
13.1021836972829,0.000442014560798709,-0.000915245717051318,0.000684704066907842
13.1271878646441,0.000442014560798709,-0.000915245717051318,0.000684704066907842
13.1521920320053,0.000442014560798709,-0.000915245717051318,0.000684704066907842
13.1771961993666,0.000442014560798709,-0.000915245717051318,0.000684704066907842
13.2022003667278,0.000442014560798709,-0.000915245717051318,0.000684704066907842
13.227204534089,0.000442014560798709,-0.000915245717051318,0.000684704066907842
13.2522087014502,0.000442014560798709,-0.000915245717051318,0.000684704066907842
13.2772128688115,0.000442014560798709,-0.000915245717051318,0.000684704066907842
13.3022170361727,0.000442014560798709,-0.000915245717051318,0.000684704066907842
13.3272212035339,0.000442014560798709,-0.000915245717051318,0.000684704066907842
13.3522253708951,0.000442014560798709,-0.000915245717051318,0.000684704066907842
13.3772295382564,0.000442014560798709,-0.000915245717051318,0.000684704066907842
13.4022337056176,0.000442014560798709,-0.000915245717051318,0.000684704066907842
13.4272378729788,0.000442014560798709,-0.000915245717051318,0.000684704066907842
13.4522420403401,0.000442014560798709,-0.000915245717051318,0.000684704066907842
13.4772462077013,0.000442014560798709,-0.000915245717051318,0.000684704066907842
13.5022503750625,0.000442014560798709,-0.000915245717051318,0.000684704066907842
13.5272545424237,0.000442014560798709,-0.000915245717051318,0.000684704066907842
13.552258709785,0.000442014560798709,-0.000915245717051318,0.000684704066907842
13.5772628771462,0.000442014560798709,-0.000915245717051318,0.000684704066907842
13.6022670445074,0.000442014560798709,-0.000915245717051318,0.000684704066907842
13.6272712118686,0.000442014560798709,-0.000915245717051318,0.000684704066907842
13.6522753792299,0.000442014560798709,-0.000915245717051318,0.000684704066907842
13.6772795465911,0.000442014560798709,-0.000915245717051318,0.000684704066907842
13.7022837139523,0.000442014560798709,-0.000915245717051318,0.000684704066907842
13.7272878813136,0.000442014560798709,-0.000915245717051318,0.000684704066907842
13.7522920486748,0.000442014560798709,-0.000915245717051318,0.000684704066907842
13.777296216036,0.000442014560798709,-0.000915245717051318,0.000684704066907842
13.8023003833972,0.000442014560798709,-0.000915245717051318,0.000684704066907842
13.8273045507585,0.000442014560798709,-0.000915245717051318,0.000684704066907842
13.8523087181197,0.000442014560798709,-0.000915245717051318,0.000684704066907842
13.8773128854809,0.000442014560798709,-0.000915245717051318,0.000684704066907842
13.9023170528421,0.000442014560798709,-0.000915245717051318,0.000684704066907842
13.9273212202034,0.000442014560798709,-0.000915245717051318,0.000684704066907842
13.9523253875646,0.000442014560798709,-0.000915245717051318,0.000684704066907842
13.9773295549258,0.000442014560798709,-0.000915245717051318,0.000684704066907842
14.002333722287,0.000442014560798709,-0.000915245717051318,0.000684704066907842
14.0273378896483,0.000442014560798709,-0.000915245717051318,0.000684704066907842
14.0523420570095,0.000442014560798709,-0.000915245717051318,0.000684704066907842
14.0773462243707,0.000442014560798709,-0.000915245717051318,0.000684704066907842
14.102350391732,0.000442014560798709,-0.000915245717051318,0.000684704066907842
14.1273545590932,0.000442014560798709,-0.000915245717051318,0.000684704066907842
14.1523587264544,0.000442014560798709,-0.000915245717051318,0.000684704066907842
14.1773628938156,0.000442014560798709,-0.000915245717051318,0.000684704066907842
14.2023670611769,0.000442014560798709,-0.000915245717051318,0.000684704066907842
14.2273712285381,0.000442014560798709,-0.000915245717051318,0.000684704066907842
14.2523753958993,0.000442014560798709,-0.000915245717051318,0.000684704066907842
14.2773795632605,0.000442014560798709,-0.000915245717051318,0.000684704066907842
14.3023837306218,0.000442014560798709,-0.000915245717051318,0.000684704066907842
14.327387897983,0.000442014560798709,-0.000915245717051318,0.000684704066907842
14.3523920653442,0.000442014560798709,-0.000915245717051318,0.000684704066907842
14.3773962327055,0.000442014560798709,-0.000915245717051318,0.000684704066907842
14.4024004000667,0.000442014560798709,-0.000915245717051318,0.000684704066907842
14.4274045674279,0.000442014560798709,-0.000915245717051318,0.000684704066907842
14.4524087347891,0.000442014560798709,-0.000915245717051318,0.000684704066907842
14.4774129021504,0.000442014560798709,-0.000915245717051318,0.000684704066907842
14.5024170695116,0.000442014560798709,-0.000915245717051318,0.000684704066907842
14.5274212368728,0.000442014560798709,-0.000915245717051318,0.000684704066907842
14.552425404234,0.000442014560798709,-0.000915245717051318,0.000684704066907842
14.5774295715953,0.000442014560798709,-0.000915245717051318,0.000684704066907842
14.6024337389565,0.000442014560798709,-0.000915245717051318,0.000684704066907842
14.6274379063177,0.000442014560798709,-0.000915245717051318,0.000684704066907842
14.6524420736789,0.000442014560798709,-0.000915245717051318,0.000684704066907842
14.6774462410402,0.000442014560798709,-0.000915245717051318,0.000684704066907842
14.7024504084014,0.000442014560798709,-0.000915245717051318,0.000684704066907842
14.7274545757626,0.000442014560798709,-0.000915245717051318,0.000684704066907842
14.7524587431239,0.000442014560798709,-0.000915245717051318,0.000684704066907842
14.7774629104851,0.000442014560798709,-0.000915245717051318,0.000684704066907842
14.8024670778463,0.000442014560798709,-0.000915245717051318,0.000684704066907842
14.8274712452075,0.000442014560798709,-0.000915245717051318,0.000684704066907842
14.8524754125688,0.000442014560798709,-0.000915245717051318,0.000684704066907842
14.87747957993,0.000442014560798709,-0.000915245717051318,0.000684704066907842
14.9024837472912,0.000442014560798709,-0.000915245717051318,0.000684704066907842
14.9274879146524,0.000442014560798709,-0.000915245717051318,0.000684704066907842
14.9524920820137,0.000442014560798709,-0.000915245717051318,0.000684704066907842
14.9774962493749,0.000442014560798709,-0.000915245717051318,0.000684704066907842
15.0025004167361,0.000442014560798709,-0.000915245717051318,0.000684704066907842
15.0275045840973,0.000442014560798709,-0.000915245717051318,0.000684704066907842
15.0525087514586,0.000442014560798709,-0.000915245717051318,0.000684704066907842
15.0775129188198,0.000442014560798709,-0.000915245717051318,0.000684704066907842
15.102517086181,0.000442014560798709,-0.000915245717051318,0.000684704066907842
15.1275212535423,0.000442014560798709,-0.000915245717051318,0.000684704066907842
15.1525254209035,0.000442014560798709,-0.000915245717051318,0.000684704066907842
15.1775295882647,0.000442014560798709,-0.000915245717051318,0.000684704066907842
15.2025337556259,0.000442014560798709,-0.000915245717051318,0.000684704066907842
15.2275379229872,0.000442014560798709,-0.000915245717051318,0.000684704066907842
15.2525420903484,0.000442014560798709,-0.000915245717051318,0.000684704066907842
15.2775462577096,0.000442014560798709,-0.000915245717051318,0.000684704066907842
15.3025504250708,0.000442014560798709,-0.000915245717051318,0.000684704066907842
15.3275545924321,0.000442014560798709,-0.000915245717051318,0.000684704066907842
15.3525587597933,0.000442014560798709,-0.000915245717051318,0.000684704066907842
15.3775629271545,0.000442014560798709,-0.000915245717051318,0.000684704066907842
15.4025670945158,0.000442014560798709,-0.000915245717051318,0.000684704066907842
15.427571261877,0.000442014560798709,-0.000915245717051318,0.000684704066907842
15.4525754292382,0.000442014560798709,-0.000915245717051318,0.000684704066907842
15.4775795965994,0.000442014560798709,-0.000915245717051318,0.000684704066907842
15.5025837639607,0.000442014560798709,-0.000915245717051318,0.000684704066907842
15.5275879313219,0.000442014560798709,-0.000915245717051318,0.000684704066907842
15.5525920986831,0.000442014560798709,-0.000915245717051318,0.000684704066907842
15.5775962660443,0.000442014560798709,-0.000915245717051318,0.000684704066907842
15.6026004334056,0.000442014560798709,-0.000915245717051318,0.000684704066907842
15.6276046007668,0.000442014560798709,-0.000915245717051318,0.000684704066907842
15.652608768128,0.000442014560798709,-0.000915245717051318,0.000684704066907842
15.6776129354892,0.000442014560798709,-0.000915245717051318,0.000684704066907842
15.7026171028505,0.000442014560798709,-0.000915245717051318,0.000684704066907842
15.7276212702117,0.000442014560798709,-0.000915245717051318,0.000684704066907842
15.7526254375729,0.000442014560798709,-0.000915245717051318,0.000684704066907842
15.7776296049342,0.000442014560798709,-0.000915245717051318,0.000684704066907842
15.8026337722954,0.000442014560798709,-0.000915245717051318,0.000684704066907842
15.8276379396566,0.000442014560798709,-0.000915245717051318,0.000684704066907842
15.8526421070178,0.000442014560798709,-0.000915245717051318,0.000684704066907842
15.8776462743791,0.000442014560798709,-0.000915245717051318,0.000684704066907842
15.9026504417403,0.000442014560798709,-0.000915245717051318,0.000684704066907842
15.9276546091015,0.000442014560798709,-0.000915245717051318,0.000684704066907842
15.9526587764627,0.000442014560798709,-0.000915245717051318,0.000684704066907842
15.977662943824,0.000442014560798709,-0.000915245717051318,0.000684704066907842
16.0026671111852,0.000442014560798709,-0.000915245717051318,0.000684704066907842
16.0276712785464,0.000442014560798709,-0.000915245717051318,0.000684704066907842
16.0526754459077,0.000442014560798709,-0.000915245717051318,0.000684704066907842
16.0776796132689,0.000442014560798709,-0.000915245717051318,0.000684704066907842
16.1026837806301,0.000442014560798709,-0.000915245717051318,0.000684704066907842
16.1276879479913,0.000442014560798709,-0.000915245717051318,0.000684704066907842
16.1526921153526,0.000442014560798709,-0.000915245717051318,0.000684704066907842
16.1776962827138,0.000442014560798709,-0.000915245717051318,0.000684704066907842
16.202700450075,0.000442014560798709,-0.000915245717051318,0.000684704066907842
16.2277046174362,0.000442014560798709,-0.000915245717051318,0.000684704066907842
16.2527087847975,0.000442014560798709,-0.000915245717051318,0.000684704066907842
16.2777129521587,0.000442014560798709,-0.000915245717051318,0.000684704066907842
16.3027171195199,0.000442014560798709,-0.000915245717051318,0.000684704066907842
16.3277212868811,0.000442014560798709,-0.000915245717051318,0.000684704066907842
16.3527254542424,0.000442014560798709,-0.000915245717051318,0.000684704066907842
16.3777296216036,0.000442014560798709,-0.000915245717051318,0.000684704066907842
16.4027337889648,0.000442014560798709,-0.000915245717051318,0.000684704066907842
16.4277379563261,0.000442014560798709,-0.000915245717051318,0.000684704066907842
16.4527421236873,0.000442014560798709,-0.000915245717051318,0.000684704066907842
16.4777462910485,0.000442014560798709,-0.000915245717051318,0.000684704066907842
16.5027504584097,0.000442014560798709,-0.000915245717051318,0.000684704066907842
16.527754625771,0.000442014560798709,-0.000915245717051318,0.000684704066907842
16.5527587931322,0.000442014560798709,-0.000915245717051318,0.000684704066907842
16.5777629604934,0.000442014560798709,-0.000915245717051318,0.000684704066907842
16.6027671278546,0.000442014560798709,-0.000915245717051318,0.000684704066907842
16.6277712952159,0.000442014560798709,-0.000915245717051318,0.000684704066907842
16.6527754625771,0.000442014560798709,-0.000915245717051318,0.000684704066907842
16.6777796299383,0.000442014560798709,-0.000915245717051318,0.000684704066907842
16.7027837972995,0.000442014560798709,-0.000915245717051318,0.000684704066907842
16.7277879646608,0.000442014560798709,-0.000915245717051318,0.000684704066907842
16.752792132022,0.000442014560798709,-0.000915245717051318,0.000684704066907842
16.7777962993832,0.000442014560798709,-0.000915245717051318,0.000684704066907842
16.8028004667445,0.000442014560798709,-0.000915245717051318,0.000684704066907842
16.8278046341057,0.000442014560798709,-0.000915245717051318,0.000684704066907842
16.8528088014669,0.000442014560798709,-0.000915245717051318,0.000684704066907842
16.8778129688281,0.000442014560798709,-0.000915245717051318,0.000684704066907842
16.9028171361894,0.000442014560798709,-0.000915245717051318,0.000684704066907842
16.9278213035506,0.000442014560798709,-0.000915245717051318,0.000684704066907842
16.9528254709118,0.000442014560798709,-0.000915245717051318,0.000684704066907842
16.977829638273,0.000442014560798709,-0.000915245717051318,0.000684704066907842
17.0028338056343,0.000442014560798709,-0.000915245717051318,0.000684704066907842
17.0278379729955,0.000442014560798709,-0.000915245717051318,0.000684704066907842
17.0528421403567,0.000442014560798709,-0.000915245717051318,0.000684704066907842
17.077846307718,0.000442014560798709,-0.000915245717051318,0.000684704066907842
17.1028504750792,0.000442014560798709,-0.000915245717051318,0.000684704066907842
17.1278546424404,0.000442014560798709,-0.000915245717051318,0.000684704066907842
17.1528588098016,0.000442014560798709,-0.000915245717051318,0.000684704066907842
17.1778629771629,0.000442014560798709,-0.000915245717051318,0.000684704066907842
17.2028671445241,0.000442014560798709,-0.000915245717051318,0.000684704066907842
17.2278713118853,0.000442014560798709,-0.000915245717051318,0.000684704066907842
17.2528754792465,0.000442014560798709,-0.000915245717051318,0.000684704066907842
17.2778796466078,0.000442014560798709,-0.000915245717051318,0.000684704066907842
17.302883813969,0.000442014560798709,-0.000915245717051318,0.000684704066907842
17.3278879813302,0.000442014560798709,-0.000915245717051318,0.000684704066907842
17.3528921486914,0.000442014560798709,-0.000915245717051318,0.000684704066907842
17.3778963160527,0.000442014560798709,-0.000915245717051318,0.000684704066907842
17.4029004834139,0.000442014560798709,-0.000915245717051318,0.000684704066907842
17.4279046507751,0.000442014560798709,-0.000915245717051318,0.000684704066907842
17.4529088181364,0.000442014560798709,-0.000915245717051318,0.000684704066907842
17.4779129854976,0.000442014560798709,-0.000915245717051318,0.000684704066907842
17.5029171528588,0.000442014560798709,-0.000915245717051318,0.000684704066907842
17.52792132022,0.000442014560798709,-0.000915245717051318,0.000684704066907842
17.5529254875813,0.000442014560798709,-0.000915245717051318,0.000684704066907842
17.5779296549425,0.000442014560798709,-0.000915245717051318,0.000684704066907842
17.6029338223037,0.000442014560798709,-0.000915245717051318,0.000684704066907842
17.6279379896649,0.000442014560798709,-0.000915245717051318,0.000684704066907842
17.6529421570262,0.000442014560798709,-0.000915245717051318,0.000684704066907842
17.6779463243874,0.000442014560798709,-0.000915245717051318,0.000684704066907842
17.7029504917486,0.000442014560798709,-0.000915245717051318,0.000684704066907842
17.7279546591099,0.000442014560798709,-0.000915245717051318,0.000684704066907842
17.7529588264711,0.000442014560798709,-0.000915245717051318,0.000684704066907842
17.7779629938323,0.000442014560798709,-0.000915245717051318,0.000684704066907842
17.8029671611935,0.000442014560798709,-0.000915245717051318,0.000684704066907842
17.8279713285548,0.000442014560798709,-0.000915245717051318,0.000684704066907842
17.852975495916,0.000442014560798709,-0.000915245717051318,0.000684704066907842
17.8779796632772,0.000442014560798709,-0.000915245717051318,0.000684704066907842
17.9029838306384,0.000442014560798709,-0.000915245717051318,0.000684704066907842
17.9279879979997,0.000442014560798709,-0.000915245717051318,0.000684704066907842
17.9529921653609,0.000442014560798709,-0.000915245717051318,0.000684704066907842
17.9779963327221,0.000442014560798709,-0.000915245717051318,0.000684704066907842
18.0030005000833,0.000442014560798709,-0.000915245717051318,0.000684704066907842
18.0280046674446,0.000442014560798709,-0.000915245717051318,0.000684704066907842
18.0530088348058,0.000442014560798709,-0.000915245717051318,0.000684704066907842
18.078013002167,0.000442014560798709,-0.000915245717051318,0.000684704066907842
18.1030171695283,0.000442014560798709,-0.000915245717051318,0.000684704066907842
18.1280213368895,0.000442014560798709,-0.000915245717051318,0.000684704066907842
18.1530255042507,0.000442014560798709,-0.000915245717051318,0.000684704066907842
18.1780296716119,0.000442014560798709,-0.000915245717051318,0.000684704066907842
18.2030338389732,0.000442014560798709,-0.000915245717051318,0.000684704066907842
18.2280380063344,0.000442014560798709,-0.000915245717051318,0.000684704066907842
18.2530421736956,0.000442014560798709,-0.000915245717051318,0.000684704066907842
18.2780463410568,0.000442014560798709,-0.000915245717051318,0.000684704066907842
18.3030505084181,0.000442014560798709,-0.000915245717051318,0.000684704066907842
18.3280546757793,0.000442014560798709,-0.000915245717051318,0.000684704066907842
18.3530588431405,0.000442014560798709,-0.000915245717051318,0.000684704066907842
18.3780630105018,0.000442014560798709,-0.000915245717051318,0.000684704066907842
18.403067177863,0.000442014560798709,-0.000915245717051318,0.000684704066907842
18.4280713452242,0.000442014560798709,-0.000915245717051318,0.000684704066907842
18.4530755125854,0.000442014560798709,-0.000915245717051318,0.000684704066907842
18.4780796799467,0.000442014560798709,-0.000915245717051318,0.000684704066907842
18.5030838473079,0.000442014560798709,-0.000915245717051318,0.000684704066907842
18.5280880146691,0.000442014560798709,-0.000915245717051318,0.000684704066907842
18.5530921820303,0.000442014560798709,-0.000915245717051318,0.000684704066907842
18.5780963493916,0.000442014560798709,-0.000915245717051318,0.000684704066907842
18.6031005167528,0.000442014560798709,-0.000915245717051318,0.000684704066907842
18.628104684114,0.000442014560798709,-0.000915245717051318,0.000684704066907842
18.6531088514752,0.000442014560798709,-0.000915245717051318,0.000684704066907842
18.6781130188365,0.000442014560798709,-0.000915245717051318,0.000684704066907842
18.7031171861977,0.000442014560798709,-0.000915245717051318,0.000684704066907842
18.7281213535589,0.000442014560798709,-0.000915245717051318,0.000684704066907842
18.7531255209202,0.000442014560798709,-0.000915245717051318,0.000684704066907842
18.7781296882814,0.000442014560798709,-0.000915245717051318,0.000684704066907842
18.8031338556426,0.000442014560798709,-0.000915245717051318,0.000684704066907842
18.8281380230038,0.000442014560798709,-0.000915245717051318,0.000684704066907842
18.8531421903651,0.000442014560798709,-0.000915245717051318,0.000684704066907842
18.8781463577263,0.000442014560798709,-0.000915245717051318,0.000684704066907842
18.9031505250875,0.000442014560798709,-0.000915245717051318,0.000684704066907842
18.9281546924487,0.000442014560798709,-0.000915245717051318,0.000684704066907842
18.95315885981,0.000442014560798709,-0.000915245717051318,0.000684704066907842
18.9781630271712,0.000442014560798709,-0.000915245717051318,0.000684704066907842
19.0031671945324,0.000442014560798709,-0.000915245717051318,0.000684704066907842
19.0281713618936,0.000442014560798709,-0.000915245717051318,0.000684704066907842
19.0531755292549,0.000442014560798709,-0.000915245717051318,0.000684704066907842
19.0781796966161,0.000442014560798709,-0.000915245717051318,0.000684704066907842
19.1031838639773,0.000442014560798709,-0.000915245717051318,0.000684704066907842
19.1281880313386,0.000442014560798709,-0.000915245717051318,0.000684704066907842
19.1531921986998,0.000442014560798709,-0.000915245717051318,0.000684704066907842
19.178196366061,0.000442014560798709,-0.000915245717051318,0.000684704066907842
19.2032005334222,0.000442014560798709,-0.000915245717051318,0.000684704066907842
19.2282047007835,0.000442014560798709,-0.000915245717051318,0.000684704066907842
19.2532088681447,0.000442014560798709,-0.000915245717051318,0.000684704066907842
19.2782130355059,0.000442014560798709,-0.000915245717051318,0.000684704066907842
19.3032172028671,0.000442014560798709,-0.000915245717051318,0.000684704066907842
19.3282213702284,0.000442014560798709,-0.000915245717051318,0.000684704066907842
19.3532255375896,0.000442014560798709,-0.000915245717051318,0.000684704066907842
19.3782297049508,0.000442014560798709,-0.000915245717051318,0.000684704066907842
19.4032338723121,0.000442014560798709,-0.000915245717051318,0.000684704066907842
19.4282380396733,0.000442014560798709,-0.000915245717051318,0.000684704066907842
19.4532422070345,0.000442014560798709,-0.000915245717051318,0.000684704066907842
19.4782463743957,0.000442014560798709,-0.000915245717051318,0.000684704066907842
19.503250541757,0.000442014560798709,-0.000915245717051318,0.000684704066907842
19.5282547091182,0.000442014560798709,-0.000915245717051318,0.000684704066907842
19.5532588764794,0.000442014560798709,-0.000915245717051318,0.000684704066907842
19.5782630438406,0.000442014560798709,-0.000915245717051318,0.000684704066907842
19.6032672112019,0.000442014560798709,-0.000915245717051318,0.000684704066907842
19.6282713785631,0.000442014560798709,-0.000915245717051318,0.000684704066907842
19.6532755459243,0.000442014560798709,-0.000915245717051318,0.000684704066907842
19.6782797132855,0.000442014560798709,-0.000915245717051318,0.000684704066907842
19.7032838806468,0.000442014560798709,-0.000915245717051318,0.000684704066907842
19.728288048008,0.000442014560798709,-0.000915245717051318,0.000684704066907842
19.7532922153692,0.000442014560798709,-0.000915245717051318,0.000684704066907842
19.7782963827305,0.000442014560798709,-0.000915245717051318,0.000684704066907842
19.8033005500917,0.000442014560798709,-0.000915245717051318,0.000684704066907842
19.8283047174529,0.000442014560798709,-0.000915245717051318,0.000684704066907842
19.8533088848141,0.000442014560798709,-0.000915245717051318,0.000684704066907842
19.8783130521754,0.000442014560798709,-0.000915245717051318,0.000684704066907842
19.9033172195366,0.000442014560798709,-0.000915245717051318,0.000684704066907842
19.9283213868978,0.000442014560798709,-0.000915245717051318,0.000684704066907842
19.953325554259,0.000442014560798709,-0.000915245717051318,0.000684704066907842
19.9783297216203,0.000442014560798709,-0.000915245717051318,0.000684704066907842
20.0033338889815,0.000442014560798709,-0.000915245717051318,0.000684704066907842
20.0283380563427,0.000442014560798709,-0.000915245717051318,0.000684704066907842
20.053342223704,0.000442014560798709,-0.000915245717051318,0.000684704066907842
20.0783463910652,0.000442014560798709,-0.000915245717051318,0.000684704066907842
20.1033505584264,0.000442014560798709,-0.000915245717051318,0.000684704066907842
20.1283547257876,0.000442014560798709,-0.000915245717051318,0.000684704066907842
20.1533588931489,0.000442014560798709,-0.000915245717051318,0.000684704066907842
20.1783630605101,0.000442014560798709,-0.000915245717051318,0.000684704066907842
20.2033672278713,0.000442014560798709,-0.000915245717051318,0.000684704066907842
20.2283713952325,0.000442014560798709,-0.000915245717051318,0.000684704066907842
20.2533755625938,0.000442014560798709,-0.000915245717051318,0.000684704066907842
20.278379729955,0.000442014560798709,-0.000915245717051318,0.000684704066907842
20.3033838973162,0.000442014560798709,-0.000915245717051318,0.000684704066907842
20.3283880646774,0.000442014560798709,-0.000915245717051318,0.000684704066907842
20.3533922320387,0.000442014560798709,-0.000915245717051318,0.000684704066907842
20.3783963993999,0.000442014560798709,-0.000915245717051318,0.000684704066907842
20.4034005667611,0.000442014560798709,-0.000915245717051318,0.000684704066907842
20.4284047341224,0.000442014560798709,-0.000915245717051318,0.000684704066907842
20.4534089014836,0.000442014560798709,-0.000915245717051318,0.000684704066907842
20.4784130688448,0.000442014560798709,-0.000915245717051318,0.000684704066907842
20.503417236206,0.000442014560798709,-0.000915245717051318,0.000684704066907842
20.5284214035673,0.000442014560798709,-0.000915245717051318,0.000684704066907842
20.5534255709285,0.000442014560798709,-0.000915245717051318,0.000684704066907842
20.5784297382897,0.000442014560798709,-0.000915245717051318,0.000684704066907842
20.6034339056509,0.000442014560798709,-0.000915245717051318,0.000684704066907842
20.6284380730122,0.000442014560798709,-0.000915245717051318,0.000684704066907842
20.6534422403734,0.000442014560798709,-0.000915245717051318,0.000684704066907842
20.6784464077346,0.000442014560798709,-0.000915245717051318,0.000684704066907842
20.7034505750959,0.000442014560798709,-0.000915245717051318,0.000684704066907842
20.7284547424571,0.000442014560798709,-0.000915245717051318,0.000684704066907842
20.7534589098183,0.000442014560798709,-0.000915245717051318,0.000684704066907842
20.7784630771795,0.000442014560798709,-0.000915245717051318,0.000684704066907842
20.8034672445408,0.000442014560798709,-0.000915245717051318,0.000684704066907842
20.828471411902,0.000442014560798709,-0.000915245717051318,0.000684704066907842
20.8534755792632,0.000442014560798709,-0.000915245717051318,0.000684704066907842
20.8784797466244,0.000442014560798709,-0.000915245717051318,0.000684704066907842
20.9034839139857,0.000442014560798709,-0.000915245717051318,0.000684704066907842
20.9284880813469,0.000442014560798709,-0.000915245717051318,0.000684704066907842
20.9534922487081,0.000442014560798709,-0.000915245717051318,0.000684704066907842
20.9784964160693,0.000442014560798709,-0.000915245717051318,0.000684704066907842
21.0035005834306,0.000442014560798709,-0.000915245717051318,0.000684704066907842
21.0285047507918,0.000442014560798709,-0.000915245717051318,0.000684704066907842
21.053508918153,0.000442014560798709,-0.000915245717051318,0.000684704066907842
21.0785130855143,0.000442014560798709,-0.000915245717051318,0.000684704066907842
21.1035172528755,0.000442014560798709,-0.000915245717051318,0.000684704066907842
21.1285214202367,0.000442014560798709,-0.000915245717051318,0.000684704066907842
21.1535255875979,0.000442014560798709,-0.000915245717051318,0.000684704066907842
21.1785297549592,0.000442014560798709,-0.000915245717051318,0.000684704066907842
21.2035339223204,0.000442014560798709,-0.000915245717051318,0.000684704066907842
21.2285380896816,0.000442014560798709,-0.000915245717051318,0.000684704066907842
21.2535422570428,0.000442014560798709,-0.000915245717051318,0.000684704066907842
21.2785464244041,0.000442014560798709,-0.000915245717051318,0.000684704066907842
21.3035505917653,0.000442014560798709,-0.000915245717051318,0.000684704066907842
21.3285547591265,0.000442014560798709,-0.000915245717051318,0.000684704066907842
21.3535589264877,0.000442014560798709,-0.000915245717051318,0.000684704066907842
21.378563093849,0.000442014560798709,-0.000915245717051318,0.000684704066907842
21.4035672612102,0.000442014560798709,-0.000915245717051318,0.000684704066907842
21.4285714285714,0.000442014560798709,-0.000915245717051318,0.000684704066907842
21.4535755959327,0.000442014560798709,-0.000915245717051318,0.000684704066907842
21.4785797632939,0.000442014560798709,-0.000915245717051318,0.000684704066907842
21.5035839306551,0.000442014560798709,-0.000915245717051318,0.000684704066907842
21.5285880980163,0.000442014560798709,-0.000915245717051318,0.000684704066907842
21.5535922653776,0.000442014560798709,-0.000915245717051318,0.000684704066907842
21.5785964327388,0.000442014560798709,-0.000915245717051318,0.000684704066907842
21.6036006001,0.000442014560798709,-0.000915245717051318,0.000684704066907842
21.6286047674612,0.000442014560798709,-0.000915245717051318,0.000684704066907842
21.6536089348225,0.000442014560798709,-0.000915245717051318,0.000684704066907842
21.6786131021837,0.000442014560798709,-0.000915245717051318,0.000684704066907842
21.7036172695449,0.000442014560798709,-0.000915245717051318,0.000684704066907842
21.7286214369062,0.000442014560798709,-0.000915245717051318,0.000684704066907842
21.7536256042674,0.000442014560798709,-0.000915245717051318,0.000684704066907842
21.7786297716286,0.000442014560798709,-0.000915245717051318,0.000684704066907842
21.8036339389898,0.000442014560798709,-0.000915245717051318,0.000684704066907842
21.8286381063511,0.000442014560798709,-0.000915245717051318,0.000684704066907842
21.8536422737123,0.000442014560798709,-0.000915245717051318,0.000684704066907842
21.8786464410735,0.000442014560798709,-0.000915245717051318,0.000684704066907842
21.9036506084347,0.000442014560798709,-0.000915245717051318,0.000684704066907842
21.928654775796,0.000442014560798709,-0.000915245717051318,0.000684704066907842
21.9536589431572,0.000442014560798709,-0.000915245717051318,0.000684704066907842
21.9786631105184,0.000442014560798709,-0.000915245717051318,0.000684704066907842
22.0036672778796,0.000442014560798709,-0.000915245717051318,0.000684704066907842
22.0286714452409,0.000442014560798709,-0.000915245717051318,0.000684704066907842
22.0536756126021,0.000442014560798709,-0.000915245717051318,0.000684704066907842
22.0786797799633,0.000442014560798709,-0.000915245717051318,0.000684704066907842
22.1036839473246,0.000442014560798709,-0.000915245717051318,0.000684704066907842
22.1286881146858,0.000442014560798709,-0.000915245717051318,0.000684704066907842
22.153692282047,0.000442014560798709,-0.000915245717051318,0.000684704066907842
22.1786964494082,0.000442014560798709,-0.000915245717051318,0.000684704066907842
22.2037006167695,0.000442014560798709,-0.000915245717051318,0.000684704066907842
22.2287047841307,0.000442014560798709,-0.000915245717051318,0.000684704066907842
22.2537089514919,0.000442014560798709,-0.000915245717051318,0.000684704066907842
22.2787131188531,0.000442014560798709,-0.000915245717051318,0.000684704066907842
22.3037172862144,0.000442014560798709,-0.000915245717051318,0.000684704066907842
22.3287214535756,0.000442014560798709,-0.000915245717051318,0.000684704066907842
22.3537256209368,0.000442014560798709,-0.000915245717051318,0.000684704066907842
22.378729788298,0.000442014560798709,-0.000915245717051318,0.000684704066907842
22.4037339556593,0.000442014560798709,-0.000915245717051318,0.000684704066907842
22.4287381230205,0.000442014560798709,-0.000915245717051318,0.000684704066907842
22.4537422903817,0.000442014560798709,-0.000915245717051318,0.000684704066907842
22.478746457743,0.000442014560798709,-0.000915245717051318,0.000684704066907842
22.5037506251042,0.000442014560798709,-0.000915245717051318,0.000684704066907842
22.5287547924654,0.000442014560798709,-0.000915245717051318,0.000684704066907842
22.5537589598266,0.000442014560798709,-0.000915245717051318,0.000684704066907842
22.5787631271879,0.000442014560798709,-0.000915245717051318,0.000684704066907842
22.6037672945491,0.000442014560798709,-0.000915245717051318,0.000684704066907842
22.6287714619103,0.000442014560798709,-0.000915245717051318,0.000684704066907842
22.6537756292715,0.000442014560798709,-0.000915245717051318,0.000684704066907842
22.6787797966328,0.000442014560798709,-0.000915245717051318,0.000684704066907842
22.703783963994,0.000442014560798709,-0.000915245717051318,0.000684704066907842
22.7287881313552,0.000442014560798709,-0.000915245717051318,0.000684704066907842
22.7537922987165,0.000442014560798709,-0.000915245717051318,0.000684704066907842
22.7787964660777,0.000442014560798709,-0.000915245717051318,0.000684704066907842
22.8038006334389,0.000442014560798709,-0.000915245717051318,0.000684704066907842
22.8288048008001,0.000442014560798709,-0.000915245717051318,0.000684704066907842
22.8538089681614,0.000442014560798709,-0.000915245717051318,0.000684704066907842
22.8788131355226,0.000442014560798709,-0.000915245717051318,0.000684704066907842
22.9038173028838,0.000442014560798709,-0.000915245717051318,0.000684704066907842
22.928821470245,0.000442014560798709,-0.000915245717051318,0.000684704066907842
22.9538256376063,0.000442014560798709,-0.000915245717051318,0.000684704066907842
22.9788298049675,0.000442014560798709,-0.000915245717051318,0.000684704066907842
23.0038339723287,0.000442014560798709,-0.000915245717051318,0.000684704066907842
23.0288381396899,0.000442014560798709,-0.000915245717051318,0.000684704066907842
23.0538423070512,0.000442014560798709,-0.000915245717051318,0.000684704066907842
23.0788464744124,0.000442014560798709,-0.000915245717051318,0.000684704066907842
23.1038506417736,0.000442014560798709,-0.000915245717051318,0.000684704066907842
23.1288548091349,0.000442014560798709,-0.000915245717051318,0.000684704066907842
23.1538589764961,0.000442014560798709,-0.000915245717051318,0.000684704066907842
23.1788631438573,0.000442014560798709,-0.000915245717051318,0.000684704066907842
23.2038673112185,0.000442014560798709,-0.000915245717051318,0.000684704066907842
23.2288714785798,0.000442014560798709,-0.000915245717051318,0.000684704066907842
23.253875645941,0.000442014560798709,-0.000915245717051318,0.000684704066907842
23.2788798133022,0.000442014560798709,-0.000915245717051318,0.000684704066907842
23.3038839806634,0.000442014560798709,-0.000915245717051318,0.000684704066907842
23.3288881480247,0.000442014560798709,-0.000915245717051318,0.000684704066907842
23.3538923153859,0.000442014560798709,-0.000915245717051318,0.000684704066907842
23.3788964827471,0.000442014560798709,-0.000915245717051318,0.000684704066907842
23.4039006501084,0.000442014560798709,-0.000915245717051318,0.000684704066907842
23.4289048174696,0.000442014560798709,-0.000915245717051318,0.000684704066907842
23.4539089848308,0.000442014560798709,-0.000915245717051318,0.000684704066907842
23.478913152192,0.000442014560798709,-0.000915245717051318,0.000684704066907842
23.5039173195533,0.000442014560798709,-0.000915245717051318,0.000684704066907842
23.5289214869145,0.000442014560798709,-0.000915245717051318,0.000684704066907842
23.5539256542757,0.000442014560798709,-0.000915245717051318,0.000684704066907842
23.5789298216369,0.000442014560798709,-0.000915245717051318,0.000684704066907842
23.6039339889982,0.000442014560798709,-0.000915245717051318,0.000684704066907842
23.6289381563594,0.000442014560798709,-0.000915245717051318,0.000684704066907842
23.6539423237206,0.000442014560798709,-0.000915245717051318,0.000684704066907842
23.6789464910818,0.000442014560798709,-0.000915245717051318,0.000684704066907842
23.7039506584431,0.000442014560798709,-0.000915245717051318,0.000684704066907842
23.7289548258043,0.000442014560798709,-0.000915245717051318,0.000684704066907842
23.7539589931655,0.000442014560798709,-0.000915245717051318,0.000684704066907842
23.7789631605268,0.000442014560798709,-0.000915245717051318,0.000684704066907842
23.803967327888,0.000442014560798709,-0.000915245717051318,0.000684704066907842
23.8289714952492,0.000442014560798709,-0.000915245717051318,0.000684704066907842
23.8539756626104,0.000442014560798709,-0.000915245717051318,0.000684704066907842
23.8789798299717,0.000442014560798709,-0.000915245717051318,0.000684704066907842
23.9039839973329,0.000442014560798709,-0.000915245717051318,0.000684704066907842
23.9289881646941,0.000442014560798709,-0.000915245717051318,0.000684704066907842
23.9539923320553,0.000442014560798709,-0.000915245717051318,0.000684704066907842
23.9789964994166,0.000442014560798709,-0.000915245717051318,0.000684704066907842
24.0040006667778,0.000442014560798709,-0.000915245717051318,0.000684704066907842
24.029004834139,0.000442014560798709,-0.000915245717051318,0.000684704066907842
24.0540090015003,0.000442014560798709,-0.000915245717051318,0.000684704066907842
24.0790131688615,0.000442014560798709,-0.000915245717051318,0.000684704066907842
24.1040173362227,0.000442014560798709,-0.000915245717051318,0.000684704066907842
24.1290215035839,0.000442014560798709,-0.000915245717051318,0.000684704066907842
24.1540256709452,0.000442014560798709,-0.000915245717051318,0.000684704066907842
24.1790298383064,0.000442014560798709,-0.000915245717051318,0.000684704066907842
24.2040340056676,0.000442014560798709,-0.000915245717051318,0.000684704066907842
24.2290381730288,0.000442014560798709,-0.000915245717051318,0.000684704066907842
24.2540423403901,0.000442014560798709,-0.000915245717051318,0.000684704066907842
24.2790465077513,0.000442014560798709,-0.000915245717051318,0.000684704066907842
24.3040506751125,0.000442014560798709,-0.000915245717051318,0.000684704066907842
24.3290548424737,0.000442014560798709,-0.000915245717051318,0.000684704066907842
24.354059009835,0.000442014560798709,-0.000915245717051318,0.000684704066907842
24.3790631771962,0.000442014560798709,-0.000915245717051318,0.000684704066907842
24.4040673445574,0.000442014560798709,-0.000915245717051318,0.000684704066907842
24.4290715119187,0.000442014560798709,-0.000915245717051318,0.000684704066907842
24.4540756792799,0.000442014560798709,-0.000915245717051318,0.000684704066907842
24.4790798466411,0.000442014560798709,-0.000915245717051318,0.000684704066907842
24.5040840140023,0.000442014560798709,-0.000915245717051318,0.000684704066907842
24.5290881813636,0.000442014560798709,-0.000915245717051318,0.000684704066907842
24.5540923487248,0.000442014560798709,-0.000915245717051318,0.000684704066907842
24.579096516086,0.000442014560798709,-0.000915245717051318,0.000684704066907842
24.6041006834472,0.000442014560798709,-0.000915245717051318,0.000684704066907842
24.6291048508085,0.000442014560798709,-0.000915245717051318,0.000684704066907842
24.6541090181697,0.000442014560798709,-0.000915245717051318,0.000684704066907842
24.6791131855309,0.000442014560798709,-0.000915245717051318,0.000684704066907842
24.7041173528921,0.000442014560798709,-0.000915245717051318,0.000684704066907842
24.7291215202534,0.000442014560798709,-0.000915245717051318,0.000684704066907842
24.7541256876146,0.000442014560798709,-0.000915245717051318,0.000684704066907842
24.7791298549758,0.000442014560798709,-0.000915245717051318,0.000684704066907842
24.8041340223371,0.000442014560798709,-0.000915245717051318,0.000684704066907842
24.8291381896983,0.000442014560798709,-0.000915245717051318,0.000684704066907842
24.8541423570595,0.000442014560798709,-0.000915245717051318,0.000684704066907842
24.8791465244207,0.000442014560798709,-0.000915245717051318,0.000684704066907842
24.904150691782,0.000442014560798709,-0.000915245717051318,0.000684704066907842
24.9291548591432,0.000442014560798709,-0.000915245717051318,0.000684704066907842
24.9541590265044,0.000442014560798709,-0.000915245717051318,0.000684704066907842
24.9791631938656,0.000442014560798709,-0.000915245717051318,0.000684704066907842
25.0041673612269,0.000442014560798709,-0.000915245717051318,0.000684704066907842
25.0291715285881,0.000442014560798709,-0.000915245717051318,0.000684704066907842
25.0541756959493,0.000442014560798709,-0.000915245717051318,0.000684704066907842
25.0791798633106,0.000442014560798709,-0.000915245717051318,0.000684704066907842
25.1041840306718,0.000442014560798709,-0.000915245717051318,0.000684704066907842
25.129188198033,0.000442014560798709,-0.000915245717051318,0.000684704066907842
25.1541923653942,0.000442014560798709,-0.000915245717051318,0.000684704066907842
25.1791965327555,0.000442014560798709,-0.000915245717051318,0.000684704066907842
25.2042007001167,0.000442014560798709,-0.000915245717051318,0.000684704066907842
25.2292048674779,0.000442014560798709,-0.000915245717051318,0.000684704066907842
25.2542090348391,0.000442014560798709,-0.000915245717051318,0.000684704066907842
25.2792132022004,0.000442014560798709,-0.000915245717051318,0.000684704066907842
25.3042173695616,0.000442014560798709,-0.000915245717051318,0.000684704066907842
25.3292215369228,0.000442014560798709,-0.000915245717051318,0.000684704066907842
25.354225704284,0.000442014560798709,-0.000915245717051318,0.000684704066907842
25.3792298716453,0.000442014560798709,-0.000915245717051318,0.000684704066907842
25.4042340390065,0.000442014560798709,-0.000915245717051318,0.000684704066907842
25.4292382063677,0.000442014560798709,-0.000915245717051318,0.000684704066907842
25.454242373729,0.000442014560798709,-0.000915245717051318,0.000684704066907842
25.4792465410902,0.000442014560798709,-0.000915245717051318,0.000684704066907842
25.5042507084514,0.000442014560798709,-0.000915245717051318,0.000684704066907842
25.5292548758126,0.000442014560798709,-0.000915245717051318,0.000684704066907842
25.5542590431739,0.000442014560798709,-0.000915245717051318,0.000684704066907842
25.5792632105351,0.000442014560798709,-0.000915245717051318,0.000684704066907842
25.6042673778963,0.000442014560798709,-0.000915245717051318,0.000684704066907842
25.6292715452575,0.000442014560798709,-0.000915245717051318,0.000684704066907842
25.6542757126188,0.000442014560798709,-0.000915245717051318,0.000684704066907842
25.67927987998,0.000442014560798709,-0.000915245717051318,0.000684704066907842
25.7042840473412,0.000442014560798709,-0.000915245717051318,0.000684704066907842
25.7292882147024,0.000442014560798709,-0.000915245717051318,0.000684704066907842
25.7542923820637,0.000442014560798709,-0.000915245717051318,0.000684704066907842
25.7792965494249,0.000442014560798709,-0.000915245717051318,0.000684704066907842
25.8043007167861,0.000442014560798709,-0.000915245717051318,0.000684704066907842
25.8293048841474,0.000442014560798709,-0.000915245717051318,0.000684704066907842
25.8543090515086,0.000442014560798709,-0.000915245717051318,0.000684704066907842
25.8793132188698,0.000442014560798709,-0.000915245717051318,0.000684704066907842
25.904317386231,0.000442014560798709,-0.000915245717051318,0.000684704066907842
25.9293215535923,0.000442014560798709,-0.000915245717051318,0.000684704066907842
25.9543257209535,0.000442014560798709,-0.000915245717051318,0.000684704066907842
25.9793298883147,0.000442014560798709,-0.000915245717051318,0.000684704066907842
26.0043340556759,0.000442014560798709,-0.000915245717051318,0.000684704066907842
26.0293382230372,0.000442014560798709,-0.000915245717051318,0.000684704066907842
26.0543423903984,0.000442014560798709,-0.000915245717051318,0.000684704066907842
26.0793465577596,0.000442014560798709,-0.000915245717051318,0.000684704066907842
26.1043507251209,0.000442014560798709,-0.000915245717051318,0.000684704066907842
26.1293548924821,0.000442014560798709,-0.000915245717051318,0.000684704066907842
26.1543590598433,0.000442014560798709,-0.000915245717051318,0.000684704066907842
26.1793632272045,0.000442014560798709,-0.000915245717051318,0.000684704066907842
26.2043673945658,0.000442014560798709,-0.000915245717051318,0.000684704066907842
26.229371561927,0.000442014560798709,-0.000915245717051318,0.000684704066907842
26.2543757292882,0.000442014560798709,-0.000915245717051318,0.000684704066907842
26.2793798966494,0.000442014560798709,-0.000915245717051318,0.000684704066907842
26.3043840640107,0.000442014560798709,-0.000915245717051318,0.000684704066907842
26.3293882313719,0.000442014560798709,-0.000915245717051318,0.000684704066907842
26.3543923987331,0.000442014560798709,-0.000915245717051318,0.000684704066907842
26.3793965660943,0.000442014560798709,-0.000915245717051318,0.000684704066907842
26.4044007334556,0.000442014560798709,-0.000915245717051318,0.000684704066907842
26.4294049008168,0.000442014560798709,-0.000915245717051318,0.000684704066907842
26.454409068178,0.000442014560798709,-0.000915245717051318,0.000684704066907842
26.4794132355393,0.000442014560798709,-0.000915245717051318,0.000684704066907842
26.5044174029005,0.000442014560798709,-0.000915245717051318,0.000684704066907842
26.5294215702617,0.000442014560798709,-0.000915245717051318,0.000684704066907842
26.5544257376229,0.000442014560798709,-0.000915245717051318,0.000684704066907842
26.5794299049842,0.000442014560798709,-0.000915245717051318,0.000684704066907842
26.6044340723454,0.000442014560798709,-0.000915245717051318,0.000684704066907842
26.6294382397066,0.000442014560798709,-0.000915245717051318,0.000684704066907842
26.6544424070678,0.000442014560798709,-0.000915245717051318,0.000684704066907842
26.6794465744291,0.000442014560798709,-0.000915245717051318,0.000684704066907842
26.7044507417903,0.000442014560798709,-0.000915245717051318,0.000684704066907842
26.7294549091515,0.000442014560798709,-0.000915245717051318,0.000684704066907842
26.7544590765128,0.000442014560798709,-0.000915245717051318,0.000684704066907842
26.779463243874,0.000442014560798709,-0.000915245717051318,0.000684704066907842
26.8044674112352,0.000442014560798709,-0.000915245717051318,0.000684704066907842
26.8294715785964,0.000442014560798709,-0.000915245717051318,0.000684704066907842
26.8544757459577,0.000442014560798709,-0.000915245717051318,0.000684704066907842
26.8794799133189,0.000442014560798709,-0.000915245717051318,0.000684704066907842
26.9044840806801,0.000442014560798709,-0.000915245717051318,0.000684704066907842
26.9294882480413,0.000442014560798709,-0.000915245717051318,0.000684704066907842
26.9544924154026,0.000442014560798709,-0.000915245717051318,0.000684704066907842
26.9794965827638,0.000442014560798709,-0.000915245717051318,0.000684704066907842
27.004500750125,0.000442014560798709,-0.000915245717051318,0.000684704066907842
27.0295049174862,0.000442014560798709,-0.000915245717051318,0.000684704066907842
27.0545090848475,0.000442014560798709,-0.000915245717051318,0.000684704066907842
27.0795132522087,0.000442014560798709,-0.000915245717051318,0.000684704066907842
27.1045174195699,0.000442014560798709,-0.000915245717051318,0.000684704066907842
27.1295215869312,0.000442014560798709,-0.000915245717051318,0.000684704066907842
27.1545257542924,0.000442014560798709,-0.000915245717051318,0.000684704066907842
27.1795299216536,0.000442014560798709,-0.000915245717051318,0.000684704066907842
27.2045340890148,0.000442014560798709,-0.000915245717051318,0.000684704066907842
27.2295382563761,0.000442014560798709,-0.000915245717051318,0.000684704066907842
27.2545424237373,0.000442014560798709,-0.000915245717051318,0.000684704066907842
27.2795465910985,0.000442014560798709,-0.000915245717051318,0.000684704066907842
27.3045507584597,0.000442014560798709,-0.000915245717051318,0.000684704066907842
27.329554925821,0.000442014560798709,-0.000915245717051318,0.000684704066907842
27.3545590931822,0.000442014560798709,-0.000915245717051318,0.000684704066907842
27.3795632605434,0.000442014560798709,-0.000915245717051318,0.000684704066907842
27.4045674279047,0.000442014560798709,-0.000915245717051318,0.000684704066907842
27.4295715952659,0.000442014560798709,-0.000915245717051318,0.000684704066907842
27.4545757626271,0.000442014560798709,-0.000915245717051318,0.000684704066907842
27.4795799299883,0.000442014560798709,-0.000915245717051318,0.000684704066907842
27.5045840973496,0.000442014560798709,-0.000915245717051318,0.000684704066907842
27.5295882647108,0.000442014560798709,-0.000915245717051318,0.000684704066907842
27.554592432072,0.000442014560798709,-0.000915245717051318,0.000684704066907842
27.5795965994332,0.000442014560798709,-0.000915245717051318,0.000684704066907842
27.6046007667945,0.000442014560798709,-0.000915245717051318,0.000684704066907842
27.6296049341557,0.000442014560798709,-0.000915245717051318,0.000684704066907842
27.6546091015169,0.000442014560798709,-0.000915245717051318,0.000684704066907842
27.6796132688781,0.000442014560798709,-0.000915245717051318,0.000684704066907842
27.7046174362394,0.000442014560798709,-0.000915245717051318,0.000684704066907842
27.7296216036006,0.000442014560798709,-0.000915245717051318,0.000684704066907842
27.7546257709618,0.000442014560798709,-0.000915245717051318,0.000684704066907842
27.7796299383231,0.000442014560798709,-0.000915245717051318,0.000684704066907842
27.8046341056843,0.000442014560798709,-0.000915245717051318,0.000684704066907842
27.8296382730455,0.000442014560798709,-0.000915245717051318,0.000684704066907842
27.8546424404067,0.000442014560798709,-0.000915245717051318,0.000684704066907842
27.879646607768,0.000442014560798709,-0.000915245717051318,0.000684704066907842
27.9046507751292,0.000442014560798709,-0.000915245717051318,0.000684704066907842
27.9296549424904,0.000442014560798709,-0.000915245717051318,0.000684704066907842
27.9546591098516,0.000442014560798709,-0.000915245717051318,0.000684704066907842
27.9796632772129,0.000442014560798709,-0.000915245717051318,0.000684704066907842
28.0046674445741,0.000442014560798709,-0.000915245717051318,0.000684704066907842
28.0296716119353,0.000442014560798709,-0.000915245717051318,0.000684704066907842
28.0546757792965,0.000442014560798709,-0.000915245717051318,0.000684704066907842
28.0796799466578,0.000442014560798709,-0.000915245717051318,0.000684704066907842
28.104684114019,0.000442014560798709,-0.000915245717051318,0.000684704066907842
28.1296882813802,0.000442014560798709,-0.000915245717051318,0.000684704066907842
28.1546924487415,0.000442014560798709,-0.000915245717051318,0.000684704066907842
28.1796966161027,0.000442014560798709,-0.000915245717051318,0.000684704066907842
28.2047007834639,0.000442014560798709,-0.000915245717051318,0.000684704066907842
28.2297049508251,0.000442014560798709,-0.000915245717051318,0.000684704066907842
28.2547091181864,0.000442014560798709,-0.000915245717051318,0.000684704066907842
28.2797132855476,0.000442014560798709,-0.000915245717051318,0.000684704066907842
28.3047174529088,0.000442014560798709,-0.000915245717051318,0.000684704066907842
28.32972162027,0.000442014560798709,-0.000915245717051318,0.000684704066907842
28.3547257876313,0.000442014560798709,-0.000915245717051318,0.000684704066907842
28.3797299549925,0.000442014560798709,-0.000915245717051318,0.000684704066907842
28.4047341223537,0.000442014560798709,-0.000915245717051318,0.000684704066907842
28.429738289715,0.000442014560798709,-0.000915245717051318,0.000684704066907842
28.4547424570762,0.000442014560798709,-0.000915245717051318,0.000684704066907842
28.4797466244374,0.000442014560798709,-0.000915245717051318,0.000684704066907842
28.5047507917986,0.000442014560798709,-0.000915245717051318,0.000684704066907842
28.5297549591599,0.000442014560798709,-0.000915245717051318,0.000684704066907842
28.5547591265211,0.000442014560798709,-0.000915245717051318,0.000684704066907842
28.5797632938823,0.000442014560798709,-0.000915245717051318,0.000684704066907842
28.6047674612435,0.000442014560798709,-0.000915245717051318,0.000684704066907842
28.6297716286048,0.000442014560798709,-0.000915245717051318,0.000684704066907842
28.654775795966,0.000442014560798709,-0.000915245717051318,0.000684704066907842
28.6797799633272,0.000442014560798709,-0.000915245717051318,0.000684704066907842
28.7047841306884,0.000442014560798709,-0.000915245717051318,0.000684704066907842
28.7297882980497,0.000442014560798709,-0.000915245717051318,0.000684704066907842
28.7547924654109,0.000442014560798709,-0.000915245717051318,0.000684704066907842
28.7797966327721,0.000442014560798709,-0.000915245717051318,0.000684704066907842
28.8048008001334,0.000442014560798709,-0.000915245717051318,0.000684704066907842
28.8298049674946,0.000442014560798709,-0.000915245717051318,0.000684704066907842
28.8548091348558,0.000442014560798709,-0.000915245717051318,0.000684704066907842
28.879813302217,0.000442014560798709,-0.000915245717051318,0.000684704066907842
28.9048174695783,0.000442014560798709,-0.000915245717051318,0.000684704066907842
28.9298216369395,0.000442014560798709,-0.000915245717051318,0.000684704066907842
28.9548258043007,0.000442014560798709,-0.000915245717051318,0.000684704066907842
28.9798299716619,0.000442014560798709,-0.000915245717051318,0.000684704066907842
29.0048341390232,0.000442014560798709,-0.000915245717051318,0.000684704066907842
29.0298383063844,0.000442014560798709,-0.000915245717051318,0.000684704066907842
29.0548424737456,0.000442014560798709,-0.000915245717051318,0.000684704066907842
29.0798466411069,0.000442014560798709,-0.000915245717051318,0.000684704066907842
29.1048508084681,0.000442014560798709,-0.000915245717051318,0.000684704066907842
29.1298549758293,0.000442014560798709,-0.000915245717051318,0.000684704066907842
29.1548591431905,0.000442014560798709,-0.000915245717051318,0.000684704066907842
29.1798633105518,0.000442014560798709,-0.000915245717051318,0.000684704066907842
29.204867477913,0.000442014560798709,-0.000915245717051318,0.000684704066907842
29.2298716452742,0.000442014560798709,-0.000915245717051318,0.000684704066907842
29.2548758126354,0.000442014560798709,-0.000915245717051318,0.000684704066907842
29.2798799799967,0.000442014560798709,-0.000915245717051318,0.000684704066907842
29.3048841473579,0.000442014560798709,-0.000915245717051318,0.000684704066907842
29.3298883147191,0.000442014560798709,-0.000915245717051318,0.000684704066907842
29.3548924820803,0.000442014560798709,-0.000915245717051318,0.000684704066907842
29.3798966494416,0.000442014560798709,-0.000915245717051318,0.000684704066907842
29.4049008168028,0.000442014560798709,-0.000915245717051318,0.000684704066907842
29.429904984164,0.000442014560798709,-0.000915245717051318,0.000684704066907842
29.4549091515253,0.000442014560798709,-0.000915245717051318,0.000684704066907842
29.4799133188865,0.000442014560798709,-0.000915245717051318,0.000684704066907842
29.5049174862477,0.000442014560798709,-0.000915245717051318,0.000684704066907842
29.5299216536089,0.000442014560798709,-0.000915245717051318,0.000684704066907842
29.5549258209702,0.000442014560798709,-0.000915245717051318,0.000684704066907842
29.5799299883314,0.000442014560798709,-0.000915245717051318,0.000684704066907842
29.6049341556926,0.000442014560798709,-0.000915245717051318,0.000684704066907842
29.6299383230538,0.000442014560798709,-0.000915245717051318,0.000684704066907842
29.6549424904151,0.000442014560798709,-0.000915245717051318,0.000684704066907842
29.6799466577763,0.000442014560798709,-0.000915245717051318,0.000684704066907842
29.7049508251375,0.000442014560798709,-0.000915245717051318,0.000684704066907842
29.7299549924988,0.000442014560798709,-0.000915245717051318,0.000684704066907842
29.75495915986,0.000442014560798709,-0.000915245717051318,0.000684704066907842
29.7799633272212,0.000442014560798709,-0.000915245717051318,0.000684704066907842
29.8049674945824,0.000442014560798709,-0.000915245717051318,0.000684704066907842
29.8299716619437,0.000442014560798709,-0.000915245717051318,0.000684704066907842
29.8549758293049,0.000442014560798709,-0.000915245717051318,0.000684704066907842
29.8799799966661,0.000442014560798709,-0.000915245717051318,0.000684704066907842
29.9049841640273,0.000442014560798709,-0.000915245717051318,0.000684704066907842
29.9299883313886,0.000442014560798709,-0.000915245717051318,0.000684704066907842
29.9549924987498,0.000442014560798709,-0.000915245717051318,0.000684704066907842
29.979996666111,0.000442014560798709,-0.000915245717051318,0.000684704066907842
