data1,data2,data3,data4,data5,data6,data7
0,-0.000725421437399339,-0.000214788970594405,0.000731406614167263,0.00177200786464392,0.000750100228271228,2.08600216453564e-05
0.0250041673612269,-0.000725421437399339,-0.000223015866726035,0.000716925085633562,0.00175752633761862,0.00074187333490323,2.08600216453564e-05
0.0500083347224537,-0.000725421437399339,-0.000225083156361993,0.000713286105225423,0.00175388735758697,0.00073980604595716,2.08600216453564e-05
0.0750125020836806,-0.000725421437399339,-0.000225102198089805,0.000713252586708688,0.00175385383908579,0.00073978700425878,2.08600216453564e-05
0.100016669444907,-0.000725421437399339,-0.000225110593138317,0.000713237809186914,0.00175383906156641,0.000739778609214744,2.08600216453564e-05
0.125020836806134,-0.000725421437399339,-0.000225101814677443,0.000713253261616494,0.00175385451399377,0.000739787387671485,2.08600216453564e-05
0.150025004167361,-0.000725421437399339,-0.000225080961143542,0.000713289969391198,0.00175389122176321,0.00073980824119559,2.08600216453564e-05
0.175029171528588,-0.000725421437399339,-0.000225035583294429,0.000713369846493531,0.0017539710988541,0.000739853619023417,2.08600216453564e-05
0.200033338889815,-0.000725421437399339,-0.0002249446838385,0.000713529853750009,0.00175413110608772,0.000739944518436741,2.08600216453564e-05
0.225037506251042,-0.000725421437399339,-0.000224782596964593,0.00071381516982516,0.00175441642212215,0.00074010660523468,2.08600216453564e-05
0.250041673612269,-0.000725421437399339,-0.000224528064632179,0.000714263214533029,0.00175486446676611,0.000740361137447691,2.08600216453564e-05
0.275045840973496,-0.000725421437399339,-0.000224177398803133,0.000714880479803102,0.00175548173194807,0.000740711803111926,2.08600216453564e-05
0.300050008334722,-0.000725421437399339,-0.000223754726094062,0.00071562449636325,0.00175622574840183,0.000741134475621732,2.08600216453564e-05
0.325054175695949,-0.000725421437399339,-0.000223316405460433,0.000716396057438891,0.0017569973093668,0.0007415727960478,2.08600216453564e-05
0.350058343057176,-0.000725421437399339,-0.000222953664223014,0.000717034578644257,0.00175763583048016,0.000741935537112402,2.08600216453564e-05
0.375062510418403,-0.000725421437399339,-0.000222794423129915,0.000717314885386989,0.00175791613718227,0.000742094778129081,2.08600216453564e-05
0.40006667777963,-0.000725421437399339,-0.000222989489816692,0.000716971516056035,0.00175757276790169,0.000741899711537279,2.08600216453564e-05
0.425070845140857,-0.000725421437399339,-0.000223653389911076,0.000715802875038715,0.00175640412705765,0.000741235811770117,2.08600216453564e-05
0.450075012502084,-0.000725421437399339,-0.000224751544517611,0.000713869830401759,0.00175447108271104,0.000740137657712965,2.08600216453564e-05
0.475079179863311,-0.000725421437399339,-0.000226019123376172,0.000711638553948965,0.00175223980659772,0.000738870079498081,2.08600216453564e-05
0.500083347224537,-0.000725421437399339,-0.00022707073830675,0.000709787431538385,0.00175038868447156,0.000737818465107897,2.08600216453564e-05
0.525087514585764,-0.000725421437399339,-0.000227676818357884,0.000708720569198907,0.00174932182229655,0.000737212385369877,2.08600216453564e-05
0.550091681946991,-0.000725421437399339,-0.000227891007957718,0.000708343538446908,0.00174894479160237,0.000736998195880312,2.08600216453564e-05
0.575095849308218,-0.000725421437399339,-0.000227897637334729,0.000708331868977415,0.00174893312213469,0.000736991566506747,2.08600216453564e-05
0.600100016669445,-0.000725421437399339,-0.000227837741545458,0.000708437301521479,0.00174903855466318,0.000737051462266218,2.08600216453564e-05
0.625104184030672,-0.000725421437399339,-0.000227773802719917,0.000708549850886243,0.00174915110401163,0.000737115401060514,2.08600216453564e-05
0.650108351391899,-0.000725421437399339,-0.000227721784209595,0.000708641417320844,0.00174924267043319,0.000737167419545816,2.08600216453564e-05
0.675112518753126,-0.000725421437399339,-0.000227680070171729,0.00070871484513901,0.00174931609824105,0.000737209133563872,2.08600216453564e-05
0.700116686114352,-0.000725421437399339,-0.00022764305025913,0.000708780010046272,0.00174938126313927,0.000737246153459064,2.08600216453564e-05
0.725120853475579,-0.000725421437399339,-0.000227605374942435,0.000708846328639284,0.00174944758172316,0.000737283828758185,2.08600216453564e-05
0.750125020836806,-0.000725421437399339,-0.00022756260020391,0.000708921623573016,0.00174952287664663,0.000737326603476889,2.08600216453564e-05
0.775129188198033,-0.000725421437399339,-0.000227511024484516,0.000709012410577352,0.00174961366363868,0.000737378179172526,2.08600216453564e-05
0.80013335555926,-0.000725421437399339,-0.00022744769235432,0.000709123891996194,0.00174972514504255,0.000737441511273705,2.08600216453564e-05
0.825137522920487,-0.000725421437399339,-0.000227370773192134,0.000709259290210434,0.00174986054323872,0.000737518430400825,2.08600216453564e-05
0.850141690281714,-0.000725421437399339,-0.000227280237665882,0.000709418656852315,0.00175001990985947,0.000737608965886002,2.08600216453564e-05
0.875145857642941,-0.000725421437399339,-0.000227178618385205,0.000709597533854246,0.00175019878683784,0.000737710585120787,2.08600216453564e-05
0.900150025004167,-0.000725421437399339,-0.000227071569268552,0.000709785968813734,0.00175038722177266,0.000737817634189314,2.08600216453564e-05
0.925154192365394,-0.000725421437399339,-0.000226967939304048,0.00070996838515461,0.0017505696380898,0.000737921264107429,2.08600216453564e-05
0.950158359726621,-0.000725421437399339,-0.000226879144045023,0.000710124688462333,0.00175072594137731,0.000738010059326868,2.08600216453564e-05
0.975162527087848,-0.000725421437399339,-0.000226817720288815,0.000710232810634275,0.00175083406353535,0.000738071483055798,2.08600216453564e-05
1.00016669444907,-0.000725421437399339,-0.000226795086500377,0.000710272652130714,0.00175087390502669,0.000738094116834217,2.08600216453564e-05
1.0251708618103,-0.000725421437399339,-0.000226818769047912,0.000710230964538939,0.00175083221744021,0.000738070434297119,2.08600216453564e-05
1.05017502917153,-0.000725421437399339,-0.000226889743232585,0.000710106031069196,0.00175070728398627,0.000737999460143642,2.08600216453564e-05
1.07517919653276,-0.000725421437399339,-0.000227000946668772,0.000709910283401394,0.00175051153634311,0.000737888256756194,2.08600216453564e-05
1.10018336389398,-0.000725421437399339,-0.000227138053854608,0.000709668938234607,0.00175027019120654,0.000737751149630274,2.08600216453564e-05
1.12518753125521,-0.000725421437399339,-0.000227282842880963,0.000709414070982504,0.00175001532398619,0.000737606360666991,2.08600216453564e-05
1.15019169861644,-0.000725421437399339,-0.000227418081770148,0.000709176014515695,0.00174977726754886,0.000737471121836499,2.08600216453564e-05
1.17519586597766,-0.000725421437399339,-0.00022753178382105,0.000708975868620859,0.00174957712167865,0.000737357419834729,2.08600216453564e-05
1.20020003333889,-0.000725421437399339,-0.000227618978545024,0.000708822382681889,0.00174942363575843,0.000737270225148239,2.08600216453564e-05
1.22520420070012,-0.000725421437399339,-0.000227680707921797,0.000708713722536883,0.00174931497562658,0.00073720849579785,2.08600216453564e-05
1.25020836806134,-0.000725421437399339,-0.000227721464450102,0.000708641980191427,0.00174924323328975,0.000737167739286854,2.08600216453564e-05
1.27521253542257,-0.000725421437399339,-0.000227746638847064,0.000708597666547513,0.00174919891965111,0.000737142564900513,2.08600216453564e-05
1.3002167027838,-0.000725421437399339,-0.000227760889254635,0.000708572582034573,0.00174917383514113,0.000737128314498915,2.08600216453564e-05
1.32522087014502,-0.000725421437399339,-0.000227767524212849,0.000708560902740892,0.00174916215584881,0.000737121679543463,2.08600216453564e-05
1.35022503750625,-0.000725421437399339,-0.00022776855530133,0.000708559087750535,0.00174916034085867,0.00073712064845541,2.08600216453564e-05
1.37522920486748,-0.000725421437399339,-0.000227765032418718,0.000708565288962246,0.00174916654206967,0.000737124171336575,2.08600216453564e-05
1.4002333722287,-0.000725421437399339,-0.000227757411057994,0.000708578704587052,0.00174917995769294,0.000737131792694188,2.08600216453564e-05
1.42523753958993,-0.000725421437399339,-0.000227745845984306,0.000708599062197061,0.00174920031530066,0.000737143357763182,2.08600216453564e-05
1.45024170695116,-0.000725421437399339,-0.000227730394698617,0.000708626260575258,0.00174922751367581,0.000737158809042638,2.08600216453564e-05
1.47524587431239,-0.000725421437399339,-0.000227711149358309,0.000708660137500096,0.00174926139059689,0.00073717805437523,2.08600216453564e-05
1.50025004167361,-0.000725421437399339,-0.000227688320322337,0.000708700322683782,0.00174930157577615,0.000737200883402108,2.08600216453564e-05
1.52525420903484,-0.000725421437399339,-0.000227662287489821,0.000708746147402672,0.00174934740049005,0.000737226916224318,2.08600216453564e-05
1.55025837639607,-0.000725421437399339,-0.000227633627440905,0.00070879659672214,0.00174939784980407,0.000737255576261963,2.08600216453564e-05
1.57526254375729,-0.000725421437399339,-0.000227603118844121,0.000708850299978176,0.00174945155305436,0.00073728608484683,2.08600216453564e-05
1.60026671111852,-0.000725421437399339,-0.000227571726183364,0.000708905559422236,0.00174950681249257,0.000737317477495408,2.08600216453564e-05
1.62527087847975,-0.000725421437399339,-0.000227540561907379,0.000708960416848242,0.00174956166991282,0.000737348641759388,2.08600216453564e-05
1.65027504584097,-0.000725421437399339,-0.000227510828690126,0.000709012755229706,0.00174961400828884,0.000737378374965269,2.08600216453564e-05
1.6752792132022,-0.000725421437399339,-0.000227483745767626,0.000709060428386503,0.00174966168144074,0.000737405457877486,2.08600216453564e-05
1.70028338056343,-0.000725421437399339,-0.000227460465612506,0.000709101407659871,0.00174970266070993,0.00073742873802383,2.08600216453564e-05
1.72528754792465,-0.000725421437399339,-0.000227441989017796,0.000709133931387537,0.00174973518443432,0.000737447214611626,2.08600216453564e-05
1.75029171528588,-0.000725421437399339,-0.000227429087619125,0.000709156641285288,0.00174975789432981,0.000737460116005502,2.08600216453564e-05
1.77529588264711,-0.000725421437399339,-0.00022742224272795,0.000709168690116783,0.00174976994316011,0.000737466960894153,2.08600216453564e-05
1.80030005000833,-0.000725421437399339,-0.00022742160792938,0.000709169807531334,0.00174977106057456,0.000737467595692489,2.08600216453564e-05
1.82530421736956,-0.000725421437399339,-0.000227427000237629,0.000709160315632673,0.00174976156867681,0.000737462203386199,2.08600216453564e-05
1.85030838473079,-0.000725421437399339,-0.000227437920969652,0.000709141092235783,0.00174974234528176,0.000737451282658119,2.08600216453564e-05
1.87531255209202,-0.000725421437399339,-0.000227453603450184,0.00070911348689333,0.00174971473994192,0.000737435600183213,2.08600216453564e-05
1.90031671945324,-0.000725421437399339,-0.000227473080974218,0.000709079201263598,0.00174968045431541,0.00073741612266612,2.08600216453564e-05
1.92532088681447,-0.000725421437399339,-0.000227495265924137,0.000709040149843261,0.0017496414028987,0.000737393937724055,2.08600216453564e-05
1.9503250541757,-0.000725421437399339,-0.000227519030126014,0.000708998318518902,0.00174959957157819,0.000737370173530539,2.08600216453564e-05
1.97532922153692,-0.000725421437399339,-0.000227543277539666,0.000708955636613148,0.00174955688967632,0.000737345926125363,2.08600216453564e-05
2.00033338889815,-0.000725421437399339,-0.00022756700282075,0.000708913873799794,0.00174951512686674,0.000737322200852522,2.08600216453564e-05
2.02533755625938,-0.000725421437399339,-0.000227589332439349,0.000708874567724137,0.00174947582079459,0.000737299871241631,2.08600216453564e-05
2.0503417236206,-0.000725421437399339,-0.000227609548092433,0.000708838982790804,0.0017494402358644,0.00073727965559548,2.08600216453564e-05
2.07534589098183,-0.000725421437399339,-0.000227627094508361,0.000708808096425761,0.00174940934950206,0.00073726210918553,2.08600216453564e-05
2.10035005834306,-0.000725421437399339,-0.000227641575141996,0.000708782606654058,0.00174938385973257,0.000737247628556796,2.08600216453564e-05
2.12535422570428,-0.000725421437399339,-0.000227652739738496,0.000708762953990853,0.00174936420707104,0.000737236463964049,2.08600216453564e-05
2.15035839306551,-0.000725421437399339,-0.000227660467527577,0.000708749351024008,0.00174935060410535,0.000737228736177548,2.08600216453564e-05
2.17536256042674,-0.000725421437399339,-0.00022766474917209,0.000708741814189382,0.00174934306727136,0.000737224454534453,2.08600216453564e-05
2.20036672778796,-0.000725421437399339,-0.000227665669767948,0.0007087401936955,0.00174934144677761,0.000737223533938898,2.08600216453564e-05
2.22537089514919,-0.000725421437399339,-0.000227663394335598,0.000708744199062423,0.0017493454521442,0.000737225809370507,2.08600216453564e-05
2.25037506251042,-0.000725421437399339,-0.000227658156449581,0.000708753419136745,0.00174935467221778,0.000737231047254828,2.08600216453564e-05
2.27537922987165,-0.000725421437399339,-0.00022765024997003,0.00070876733664637,0.0017493685897263,0.000737238953731841,2.08600216453564e-05
2.30038339723287,-0.000725421437399339,-0.000227640023290403,0.000708785338326025,0.00174938659140453,0.000737249180408211,2.08600216453564e-05
2.3253875645941,-0.000725421437399339,-0.000227627875108513,0.000708806722361372,0.00174940797543822,0.000737261328586263,2.08600216453564e-05
2.35039173195533,-0.000725421437399339,-0.000227614250467422,0.000708830705358104,0.00174943195843311,0.000737274953223087,2.08600216453564e-05
2.37539589931655,-0.000725421437399339,-0.000227599635704432,0.000708856431233045,0.0017494576843061,0.000737289567981538,2.08600216453564e-05
2.40040006667778,-0.000725421437399339,-0.000227584550998617,0.000708882984332498,0.00174948423740357,0.000737304652682709,2.08600216453564e-05
2.42540423403901,-0.000725421437399339,-0.000227569539429967,0.000708909408691048,0.00174951066176017,0.000737319664246777,2.08600216453564e-05
2.45040840140023,-0.000725421437399339,-0.000227555151861897,0.000708934734642387,0.00174953598770967,0.000737334051810494,2.08600216453564e-05
2.47541256876146,-0.000725421437399339,-0.000227541927525085,0.000708958012996921,0.00174955926606254,0.000737347276143338,2.08600216453564e-05
2.50041673612269,-0.000725421437399339,-0.00022753037088105,0.000708978355768038,0.00174957960883222,0.000737358832783937,2.08600216453564e-05
2.52542090348391,-0.000725421437399339,-0.000227520926111068,0.000708994981078406,0.00174959623414142,0.000737368277551134,2.08600216453564e-05
2.55042507084514,-0.000725421437399339,-0.000227513951305189,0.000709007258594181,0.00174960851165636,0.000737375252354975,2.08600216453564e-05
2.57542923820637,-0.000725421437399339,-0.000227509694982059,0.000709014750856366,0.00174961600391803,0.000737379508676871,2.08600216453564e-05
2.60043340556759,-0.000725421437399339,-0.000227508277808205,0.000709017245459747,0.00174961849852125,0.000737380925850318,2.08600216453564e-05
2.62543757292882,-0.000725421437399339,-0.00022750968218468,0.000709014773383163,0.00174961602644483,0.000737379521474243,2.08600216453564e-05
2.65044174029005,-0.000725421437399339,-0.000227513751675239,0.000709007609996067,0.00174960886305819,0.000737375451984831,2.08600216453564e-05
2.67544590765128,-0.000725421437399339,-0.00022752020111239,0.000708996257269193,0.00174959751033204,0.000737369002549485,2.08600216453564e-05
2.7004500750125,-0.000725421437399339,-0.000227528636803353,0.000708981408206678,0.00174958266127046,0.000737360566860862,2.08600216453564e-05
2.72545424237373,-0.000725421437399339,-0.000227538584832599,0.000708963897026057,0.00174956515009093,0.000737350618834351,2.08600216453564e-05
2.75045840973496,-0.000725421437399339,-0.000227549524323319,0.000708944640609229,0.00174954589367527,0.000737339679346614,2.08600216453564e-05
2.77546257709618,-0.000725421437399339,-0.000227560921930623,0.000708924577785228,0.00174952583085248,0.000737328281742392,2.08600216453564e-05
2.80046674445741,-0.000725421437399339,-0.000227572263919099,0.000708904612865186,0.00174950586593362,0.000737316939756954,2.08600216453564e-05
2.82547091181864,-0.000725421437399339,-0.000227583082880603,0.000708885568611905,0.00174948682168144,0.000737306120798323,2.08600216453564e-05
2.85047507917986,-0.000725421437399339,-0.000227592977275007,0.000708868151842937,0.00174946940491347,0.000737296226406524,2.08600216453564e-05
2.87547924654109,-0.000725421437399339,-0.000227601623241722,0.000708852932639158,0.00174945418571055,0.000737287580442063,2.08600216453564e-05
2.90048341390232,-0.000725421437399339,-0.000227608779253635,0.000708840336152602,0.00174944158922469,0.000737280424431999,2.08600216453564e-05
2.92548758126354,-0.000725421437399339,-0.000227614284970975,0.00070883064462396,0.00174943189769658,0.000737274918716068,2.08600216453564e-05
2.95049174862477,-0.000725421437399339,-0.00022761805602363,0.000708824006567093,0.00174942525964006,0.000737271147664369,2.08600216453564e-05
2.975495915986,-0.000725421437399339,-0.00022762007644076,0.00070882045009493,0.00174942170316809,0.000737269127247747,2.08600216453564e-05
3.00050008334722,-0.000725421437399339,-0.000227620390162668,0.000708819897860829,0.00174942115093401,0.000737268813525916,2.08600216453564e-05
3.02550425070845,-0.000725421437399339,-0.000227619092642431,0.00070882218184196,0.00174942343491503,0.000737270111045835,2.08600216453564e-05
3.05050841806968,-0.000725421437399339,-0.000227616323090441,0.000708827056990957,0.00174942831006379,0.000737272880597151,2.08600216453564e-05
3.07551258543091,-0.000725421437399339,-0.00022761225751651,0.000708834213483679,0.00174943546655616,0.000737276946170103,2.08600216453564e-05
3.10051675279213,-0.000725421437399339,-0.000227607102426535,0.000708843287814756,0.00174944454088681,0.00073728210125885,2.08600216453564e-05
3.12552092015336,-0.000725421437399339,-0.00022760108884902,0.000708853873312501,0.00174945512638406,0.000737288114834948,2.08600216453564e-05
3.15052508751459,-0.000725421437399339,-0.000227594466296264,0.000708865530768822,0.00174946678383985,0.000737294737386159,2.08600216453564e-05
3.17552925487581,-0.000725421437399339,-0.000227587496291014,0.000708877799834049,0.00174947905290453,0.000737301707389802,2.08600216453564e-05
3.20053342223704,-0.000725421437399339,-0.000227580445192671,0.000708890211644707,0.00174949146471465,0.000737308758486537,2.08600216453564e-05
3.22553758959827,-0.000725421437399339,-0.000227573576216833,0.000708902302871252,0.00174950355594068,0.000737315627460826,2.08600216453564e-05
3.25054175695949,-0.000725421437399339,-0.000227567140735316,0.000708913631032358,0.00174951488410131,0.000737322062940908,2.08600216453564e-05
3.27554592432072,-0.000725421437399339,-0.000227561369146205,0.000708923790566041,0.00174952504363458,0.000737327834528746,2.08600216453564e-05
3.30055009168195,-0.000725421437399339,-0.000227556461788113,0.000708932428823002,0.0017495336818912,0.000737332741885769,2.08600216453564e-05
3.32555425904317,-0.000725421437399339,-0.000227552580512258,0.000708939260901999,0.00174954051396993,0.000737336623160788,2.08600216453564e-05
3.3505584264044,-0.000725421437399339,-0.000227549841595393,0.000708944082124988,0.00174954533519274,0.000737339362077069,2.08600216453564e-05
3.37556259376563,-0.000725421437399339,-0.000227548310657694,0.000708946776982988,0.00174954803005064,0.000737340893014446,2.08600216453564e-05
3.40056676112685,-0.000725421437399339,-0.000227548000135594,0.000708947323584567,0.0017495485766522,0.00073734120353648,2.08600216453564e-05
3.42557092848808,-0.000725421437399339,-0.000227548869657986,0.000708945792993629,0.00174954704606132,0.000737340334014267,2.08600216453564e-05
3.45057509584931,-0.000725421437399339,-0.000227550829408819,0.000708942343310336,0.00174954359637814,0.000737338374263832,2.08600216453564e-05
3.47557926321053,-0.000725421437399339,-0.00022755374626688,0.000708937208863474,0.00174953846193145,0.000737335457406355,2.08600216453564e-05
3.50058343057176,-0.000725421437399339,-0.000227557452238627,0.00070893068536641,0.00174953193843459,0.000737331751435342,2.08600216453564e-05
3.52558759793299,-0.000725421437399339,-0.000227561754485443,0.00070892311226646,0.00174952436533487,0.000737327449189367,2.08600216453564e-05
3.55059176529422,-0.000725421437399339,-0.000227566446124981,0.000708914853731638,0.0017495161068003,0.000737322757550734,2.08600216453564e-05
3.57559593265544,-0.000725421437399339,-0.000227571316972576,0.000708906279742925,0.00174950753281183,0.000737317886704068,2.08600216453564e-05
3.60060010001667,-0.000725421437399339,-0.000227576163477559,0.000708897748603693,0.00174949900167284,0.000737313040199997,2.08600216453564e-05
3.6256042673779,-0.000725421437399339,-0.000227580797277463,0.000708889591882043,0.00174949084495141,0.000737308406400954,2.08600216453564e-05
3.65060843473912,-0.000725421437399339,-0.000227585052005069,0.000708882102428574,0.00174948335549814,0.000737304151674127,2.08600216453564e-05
3.67561260210035,-0.000725421437399339,-0.000227588788201062,0.000708875525728815,0.00174947677879854,0.000737300415478811,2.08600216453564e-05
3.70061676946158,-0.000725421437399339,-0.000227591896375438,0.000708870054514322,0.00174947130758418,0.000737297307304988,2.08600216453564e-05
3.7256209368228,-0.000725421437399339,-0.00022759429840189,0.000708865826308199,0.00174946707937816,0.000737294905278959,2.08600216453564e-05
3.75062510418403,-0.000725421437399339,-0.000227595947511991,0.000708862923435329,0.00174946417650535,0.000737293256169144,2.08600216453564e-05
3.77562927154526,-0.000725421437399339,-0.00022759682718321,0.000708861374979762,0.00174946262804982,0.000737292376498076,2.08600216453564e-05
3.80063343890648,-0.000725421437399339,-0.000227596949197752,0.000708861160201681,0.00174946241327174,0.000737292254483554,2.08600216453564e-05
3.82563760626771,-0.000725421437399339,-0.000227596351103523,0.000708862213006771,0.00174946346607681,0.000737292852577684,2.08600216453564e-05
3.85064177362894,-0.000725421437399339,-0.000227595093250078,0.000708864427163747,0.00174946568023375,0.000737294110430924,2.08600216453564e-05
3.87564594099016,-0.000725421437399339,-0.000227593255514724,0.000708867662067278,0.00174946891513722,0.000737295948165983,2.08600216453564e-05
3.90065010835139,-0.000725421437399339,-0.000227590933786986,0.000708871748926268,0.00174947300199614,0.000737298269893353,2.08600216453564e-05
3.92565427571262,-0.000725421437399339,-0.000227588236249148,0.000708876497311094,0.0017494777503809,0.00073730096743077,2.08600216453564e-05
3.95065844307385,-0.000725421437399339,-0.000227585279478695,0.000708881702014341,0.00174948295508407,0.000737303924200771,2.08600216453564e-05
3.97566261043507,-0.000725421437399339,-0.000227582184404213,0.0007088871501695,0.00174948840323915,0.000737307019274786,2.08600216453564e-05
4.0006667777963,-0.000725421437399339,-0.000227579072166324,0.000708892628536821,0.00174949388160641,0.000737310131512212,2.08600216453564e-05
4.02567094515753,-0.000725421437399339,-0.000227576059964558,0.000708897930813929,0.00174949918388346,0.000737313143713539,2.08600216453564e-05
4.05067511251875,-0.000725421437399339,-0.000227573257003769,0.000708902864771205,0.00174950411784068,0.000737315946673927,2.08600216453564e-05
4.07567927987998,-0.000725421437399339,-0.000227570760683393,0.00070890725895971,0.00174950851202914,0.000737318442993952,2.08600216453564e-05
4.10068344724121,-0.000725421437399339,-0.000227568653193536,0.000708910968702972,0.00174951222177237,0.000737320550483517,2.08600216453564e-05
4.12568761460243,-0.000725421437399339,-0.000227566998688549,0.000708913881072256,0.00174951513414164,0.000737322204988279,2.08600216453564e-05
4.15069178196366,-0.000725421437399339,-0.000227565841198077,0.000708915918563664,0.00174951717163303,0.000737323362478597,2.08600216453564e-05
4.17569594932489,-0.000725421437399339,-0.000227565203406542,0.000708917041246575,0.00174951829431594,0.000737324000270049,2.08600216453564e-05
4.20070011668611,-0.000725421437399339,-0.000227565086386098,0.000708917247233711,0.00174951850030307,0.000737324117290477,2.08600216453564e-05
4.22570428404734,-0.000725421437399339,-0.000227565470309457,0.000708916571426384,0.00174951782449575,0.000737323733367167,2.08600216453564e-05
4.25070845140857,-0.000725421437399339,-0.000227566316103675,0.000708915082603373,0.00174951633567274,0.000737322887573053,2.08600216453564e-05
4.27571261876979,-0.000725421437399339,-0.000227567567941569,0.00070891287903539,0.00174951413210476,0.00073732163573531,2.08600216453564e-05
4.30071678613102,-0.000725421437399339,-0.000227569156411201,0.000708910082905922,0.00174951133597529,0.000737320047265866,2.08600216453564e-05
4.32572095349225,-0.000725421437399339,-0.000227571002162507,0.000708906833892212,0.00174950808696158,0.000737318201514773,2.08600216453564e-05
4.35072512085348,-0.000725421437399339,-0.00022757301980767,0.00070890328229955,0.00174950453536892,0.000737316183869839,2.08600216453564e-05
4.3757292882147,-0.000725421437399339,-0.000227575121850032,0.00070889958214535,0.00174950083521471,0.00073731408182771,2.08600216453564e-05
4.40073345557593,-0.000725421437399339,-0.000227577222433656,0.000708895884558921,0.00174949713762827,0.000737311981244315,2.08600216453564e-05
4.42573762293716,-0.000725421437399339,-0.000227579240738417,0.000708892331805197,0.00174949358487453,0.000737309962939767,2.08600216453564e-05
4.45074179029838,-0.000725421437399339,-0.000227581103888235,0.000708889052165481,0.0017494903052348,0.000737308099790142,2.08600216453564e-05
4.47574595765961,-0.000725421437399339,-0.000227582749286723,0.000708886155826082,0.00174948740889538,0.00073730645439182,2.08600216453564e-05
4.50075012502084,-0.000725421437399339,-0.0002275841263396,0.000708883731846401,0.00174948498491568,0.000737305077339079,2.08600216453564e-05
4.52575429238206,-0.000725421437399339,-0.000227585197562343,0.000708881846209181,0.00174948309927845,0.000737304006116439,2.08600216453564e-05
4.55075845974329,-0.000725421437399339,-0.000227585939101984,0.000708880540901991,0.00174948179397124,0.000737303264576867,2.08600216453564e-05
4.57576262710452,-0.000725421437399339,-0.000227586340722928,0.000708879833942205,0.00174948108701145,0.00073730286295596,2.08600216453564e-05
4.60076679446574,-0.000725421437399339,-0.000227586405318593,0.000708879720236638,0.00174948097330588,0.000737302798360301,2.08600216453564e-05
4.62577096182697,-0.000725421437399339,-0.000227586148015392,0.000708880173158774,0.00174948142622802,0.00073730305566348,2.08600216453564e-05
4.6507751291882,-0.000725421437399339,-0.000227585594935224,0.000708881146727114,0.00174948239979638,0.000737303608743602,2.08600216453564e-05
4.67577929654942,-0.000725421437399339,-0.000227584781679627,0.000708882578273475,0.00174948383134276,0.000737304421999133,2.08600216453564e-05
4.70078346391065,-0.000725421437399339,-0.000227583751595063,0.000708884391496542,0.00174948564456585,0.000737305452083616,2.08600216453564e-05
4.72578763127188,-0.000725421437399339,-0.000227582553876018,0.000708886499800923,0.00174948775287027,0.00073730664980257,2.08600216453564e-05
4.75079179863311,-0.000725421437399339,-0.000227581241561487,0.000708888809823868,0.00174949006289325,0.000737307962117005,2.08600216453564e-05
4.77579596599433,-0.000725421437399339,-0.000227579869481105,0.000708891225050619,0.00174949247812004,0.000737309334197289,2.08600216453564e-05
4.80080013335556,-0.000725421437399339,-0.00022757849220934,0.000708893649415585,0.00174949490248506,0.00073731071146896,2.08600216453564e-05
4.82580430071679,-0.000725421437399339,-0.000227577162088711,0.000708895990781999,0.00174949724385151,0.000737312041589501,2.08600216453564e-05
4.85080846807801,-0.000725421437399339,-0.000227575927384955,0.000708898164189311,0.00174949941725887,0.000737313276293178,2.08600216453564e-05
4.87581263543924,-0.000725421437399339,-0.000227574830637073,0.000708900094757559,0.00174950134782716,0.000737314373040993,2.08600216453564e-05
4.90081680280047,-0.000725421437399339,-0.000227573907262209,0.000708901720143138,0.00174950297321278,0.000737315296415803,2.08600216453564e-05
4.92582097016169,-0.000725421437399339,-0.000227573184468673,0.000708902992452182,0.00174950424552185,0.000737316019209299,2.08600216453564e-05
4.95082513752292,-0.000725421437399339,-0.00022757268051963,0.000708903879536657,0.00174950513260635,0.000737316523158314,2.08600216453564e-05
4.97582930488415,-0.000725421437399339,-0.00022757240437556,0.000708904365623733,0.00174950561869344,0.00073731679930237,2.08600216453564e-05
5.00083347224537,-0.000725421437399339,-0.000227572355726041,0.000708904451259838,0.00174950570432954,0.000737316847951887,2.08600216453564e-05
5.0258376396066,-0.000725421437399339,-0.000227646023923142,0.000708774775621469,0.00174937602868761,0.000737243179758193,2.08600216453564e-05
5.05084180696783,-0.000725421437399339,-0.000227328736809953,0.000709333285406499,0.00174993453848856,0.000737560466857558,2.08600216453564e-05
5.07584597432905,-0.000725421437399339,-0.000227016309417185,0.000709883240789633,0.00175048449388799,0.000737872894237548,2.08600216453564e-05
5.10085014169028,-0.000725421437399339,-0.000226784548881395,0.000710291201029786,0.00175089245414068,0.000738104654764439,2.08600216453564e-05
5.12585430905151,-0.000725421437399339,-0.000226747093715235,0.00071035713209318,0.00175095838520613,0.000738142109929206,2.08600216453564e-05
5.15085847641274,-0.000725421437399339,-0.000227038090975491,0.000709844899449556,0.00175044615254556,0.000737851112678806,2.08600216453564e-05
5.17586264377396,-0.000725421437399339,-0.000227641087474688,0.000708783465090393,0.0017493847181503,0.000737248116199246,2.08600216453564e-05
5.20086681113519,-0.000725421437399339,-0.000228218939446239,0.000707766291795058,0.00174836754481954,0.000736670264245899,2.08600216453564e-05
5.22587097849642,-0.000725421437399339,-0.000228440947944117,0.000707375497740129,0.00174797675075073,0.000736448255754707,2.08600216453564e-05
5.25087514585764,-0.000725421437399339,-0.000228452409882652,0.000707355321677152,0.00174795657468703,0.000736436793816502,2.08600216453564e-05
5.27587931321887,-0.000725421437399339,-0.000228488289426957,0.000707292164128018,0.0017478934171356,0.000736400914273122,2.08600216453564e-05
5.3008834805801,-0.000725421437399339,-0.000228546850794162,0.000707189080532426,0.00174779033353621,0.00073634235290711,2.08600216453564e-05
5.32588764794132,-0.000725421437399339,-0.000228587961815861,0.000707116714190152,0.00174771796719122,0.000736301241886057,2.08600216453564e-05
5.35089181530255,-0.000725421437399339,-0.000228610543734958,0.000707076964001012,0.00174767821700057,0.00073627865996723,2.08600216453564e-05
5.37589598266378,-0.000725421437399339,-0.000228624109029304,0.00070705308547174,0.00174765433847037,0.000736265094673004,2.08600216453564e-05
5.400900150025,-0.000725421437399339,-0.000228634673781115,0.000707034488696109,0.001747635741694,0.000736254529921259,2.08600216453564e-05
5.42590431738623,-0.000725421437399339,-0.000228644597717714,0.000707017019925844,0.00174761827292302,0.000736244605984697,2.08600216453564e-05
5.45090848474746,-0.000725421437399339,-0.000228654393291206,0.000706999777108823,0.00174760103010529,0.000736234810411218,2.08600216453564e-05
5.47591265210868,-0.000725421437399339,-0.000228663594175175,0.00070698358110368,0.00174758483409946,0.000736225609527241,2.08600216453564e-05
5.50091681946991,-0.000725421437399339,-0.000228671080784805,0.000706970402677729,0.00174757165567294,0.000736218122917591,2.08600216453564e-05
5.52592098683114,-0.000725421437399339,-0.000228675392152113,0.000706962813523543,0.00174756406651843,0.000736213811550271,2.08600216453564e-05
5.55092515419236,-0.000725421437399339,-0.000228675220777873,0.000706963115187825,0.00174756436818274,0.000736213982924535,2.08600216453564e-05
5.57592932155359,-0.000725421437399339,-0.000228670016624063,0.000706972275883917,0.00174757352887927,0.000736219187078436,2.08600216453564e-05
5.60093348891482,-0.000725421437399339,-0.000228660475789165,0.000706989070293178,0.00174759032328934,0.000736228727913502,2.08600216453564e-05
5.62593765627605,-0.000725421437399339,-0.000228648709354629,0.000707009782350272,0.00174761103534744,0.000736240494348269,2.08600216453564e-05
5.65094182363727,-0.000725421437399339,-0.000228637998819398,0.000707028635743498,0.00174762988874159,0.000736251204883733,2.08600216453564e-05
5.6759459909985,-0.000725421437399339,-0.000228632096838391,0.000707039024801215,0.00174764027779983,0.000736257106864881,2.08600216453564e-05
5.70095015835973,-0.000725421437399339,-0.00022863404038719,0.000707035603637948,0.00174763685663639,0.00073625516331603,2.08600216453564e-05
5.72595432572095,-0.000725421437399339,-0.000228644645816505,0.000707016935259141,0.00174761818825661,0.000736244557886411,2.08600216453564e-05
5.75095849308218,-0.000725421437399339,-0.000228661415230103,0.000706987416627142,0.00174758866962304,0.000736227788472298,2.08600216453564e-05
5.77596266044341,-0.000725421437399339,-0.000228679057408364,0.000706956361697037,0.00174755761469126,0.000736210146293458,2.08600216453564e-05
5.80096682780463,-0.000725421437399339,-0.000228692107801186,0.000706933389531674,0.00174753464252462,0.000736197095900176,2.08600216453564e-05
5.82597099516586,-0.000725421437399339,-0.000228698007898248,0.000706923003790271,0.00174752425678262,0.000736191195802884,2.08600216453564e-05
5.85097516252709,-0.000725421437399339,-0.000228697913919052,0.000706923169218689,0.00174752442221104,0.000736191289782066,2.08600216453564e-05
5.87597932988831,-0.000725421437399339,-0.000228694758406246,0.000706928723761221,0.00174752997675387,0.000736194445294983,2.08600216453564e-05
5.90098349724954,-0.000725421437399339,-0.000228690968227602,0.00070693539548456,0.0017475366484776,0.000736198235473773,2.08600216453564e-05
5.92598766461077,-0.000725421437399339,-0.0002286877241849,0.000706941105863257,0.00174754235885663,0.00073620147951661,2.08600216453564e-05
5.950991831972,-0.000725421437399339,-0.000228685359085447,0.000706945269067861,0.00174754652206148,0.000736203844616165,2.08600216453564e-05
5.97599599933322,-0.000725421437399339,-0.00022868385267791,0.000706947920746117,0.00174754917373989,0.000736205351023771,2.08600216453564e-05
6.00100016669445,-0.000725421437399339,-0.000228683068076271,0.000706949301853852,0.00174755055484771,0.000736206135625446,2.08600216453564e-05
6.02600433405568,-0.000725421437399339,-0.000228682827061128,0.000706949726104661,0.00174755097909855,0.000736206376640602,2.08600216453564e-05
6.0510085014169,-0.000725421437399339,-0.000228682936627803,0.000706949533238147,0.00174755078623202,0.000736206267073921,2.08600216453564e-05
6.07601266877813,-0.000725421437399339,-0.000228683205372038,0.000706949060176757,0.0017475503131706,0.000736205998329672,2.08600216453564e-05
6.10101683613936,-0.000725421437399339,-0.000228683457251843,0.000706948616801254,0.00174754986979507,0.000736205746449855,2.08600216453564e-05
6.12602100350058,-0.000725421437399339,-0.000228683544907787,0.000706948462503458,0.00174754971549727,0.000736205658793909,2.08600216453564e-05
6.15102517086181,-0.000725421437399339,-0.000228683363088196,0.000706948782554334,0.00174755003554817,0.000736205840613518,2.08600216453564e-05
6.17602933822304,-0.000725421437399339,-0.000228682860334286,0.000706949667535037,0.00174755092052894,0.000736206343367468,2.08600216453564e-05
6.20103350558426,-0.000725421437399339,-0.00022868204532058,0.000706951102176099,0.00174755235517011,0.000736207158381237,2.08600216453564e-05
6.22603767294549,-0.000725421437399339,-0.000228680984313591,0.000706952969830818,0.00174755422282496,0.000736208219388311,2.08600216453564e-05
6.25104184030672,-0.000725421437399339,-0.000228679788157971,0.0007069550753831,0.0017475563283774,0.000736209415544028,2.08600216453564e-05
6.27604600766794,-0.000725421437399339,-0.000228678590208162,0.000706957184093632,0.00174755843708809,0.000736210613493935,2.08600216453564e-05
6.30105017502917,-0.000725421437399339,-0.000228677519488518,0.000706959068845208,0.00174756032183981,0.000736211684213671,2.08600216453564e-05
6.3260543423904,-0.000725421437399339,-0.000228676675015955,0.000706960555341699,0.00174756180833641,0.000736212528686309,2.08600216453564e-05
6.35105850975163,-0.000725421437399339,-0.000228676107112833,0.000706961555002356,0.00174756280799715,0.000736213096589483,2.08600216453564e-05
6.37606267711285,-0.000725421437399339,-0.000228675809770466,0.000706962078404067,0.0017475633313989,0.00073621339393188,2.08600216453564e-05
6.40106684447408,-0.000725421437399339,-0.000228675725310063,0.000706962227076857,0.0017475634800717,0.000736213478392293,2.08600216453564e-05
6.42607101183531,-0.000725421437399339,-0.000228675759616358,0.000706962166688647,0.00174756341968349,0.000736213444085998,2.08600216453564e-05
6.45107517919653,-0.000725421437399339,-0.000228675803942675,0.00070696208866253,0.00174756334165737,0.000736213399759677,2.08600216453564e-05
6.47607934655776,-0.000725421437399339,-0.000228675758209137,0.00070696216916573,0.00174756342216057,0.000736213445493219,2.08600216453564e-05
6.50108351391899,-0.000725421437399339,-0.000228675550845351,0.00070696253418119,0.00174756378717606,0.000736213652857024,2.08600216453564e-05
6.52608768128021,-0.000725421437399339,-0.000228675151251586,0.000706963237572578,0.0017475644905675,0.000736214052450826,2.08600216453564e-05
6.55109184864144,-0.000725421437399339,-0.000228674572594527,0.000706964256163027,0.00174756550915803,0.000736214631107941,2.08600216453564e-05
6.57609601600267,-0.000725421437399339,-0.000228673864803882,0.00070696550206296,0.00174756675505807,0.000736215338898656,2.08600216453564e-05
6.60110018336389,-0.000725421437399339,-0.000228673100043689,0.000706966848244458,0.00174756810123967,0.000736216103658926,2.08600216453564e-05
6.62610435072512,-0.000725421437399339,-0.000228672354904596,0.000706968159887598,0.00174756941288292,0.000736216848798095,2.08600216453564e-05
6.65110851808635,-0.000725421437399339,-0.00022867169421755,0.000706969322872658,0.00174757057586808,0.00073621750948521,2.08600216453564e-05
6.67611268544757,-0.000725421437399339,-0.000228671160340319,0.000706970262638688,0.00174757151563418,0.000736218043362497,2.08600216453564e-05
6.7011168528088,-0.000725421437399339,-0.000228670769528961,0.0007069709505707,0.00174757220356625,0.000736218434173895,2.08600216453564e-05
6.72612102017003,-0.000725421437399339,-0.000228670514659261,0.000706971399209213,0.0017475726522048,0.000736218689043621,2.08600216453564e-05
6.75112518753126,-0.000725421437399339,-0.000228670372041776,0.000706971650253948,0.00174757290324956,0.00073621883166112,2.08600216453564e-05
6.77612935489248,-0.000725421437399339,-0.000228670309693304,0.000706971760003854,0.00174757301299947,0.000736218894009596,2.08600216453564e-05
6.80113352225371,-0.000725421437399339,-0.000228670294924705,0.00070697178600052,0.00174757303899614,0.000736218908778195,2.08600216453564e-05
6.82613768961494,-0.000725421437399339,-0.000228670299981817,0.000706971777098658,0.00174757303009427,0.000736218903721081,2.08600216453564e-05
6.85114185697616,-0.000725421437399339,-0.00022867030531337,0.000706971767713706,0.00174757302070932,0.000736218898389527,2.08600216453564e-05
6.87614602433739,-0.000725421437399339,-0.000228670300626844,0.000706971775963238,0.00174757302895885,0.000736218903076053,2.08600216453564e-05
6.90115019169862,-0.000725421437399339,-0.000228670284202047,0.000706971804875253,0.00174757305787087,0.000736218919500854,2.08600216453564e-05
6.92615435905984,-0.000725421437399339,-0.000228670261030307,0.000706971845663682,0.0017475730986593,0.000736218942672599,2.08600216453564e-05
6.95115852642107,-0.000725421437399339,-0.00022867024032235,0.000706971882115197,0.00174757313511082,0.000736218963380561,2.08600216453564e-05
6.9761626937823,-0.000725421437399339,-0.000228670232848503,0.000706971895271156,0.00174757314826679,0.000736218970854411,2.08600216453564e-05
7.00116686114352,-0.000725421437399339,-0.000228670248480132,0.000706971867755329,0.00174757312075096,0.000736218955222784,2.08600216453564e-05
7.02617102850475,-0.000725421437399339,-0.000228670294207122,0.000706971787263656,0.00174757304025928,0.00073621890949579,2.08600216453564e-05
7.05117519586598,-0.000725421437399339,-0.000228670372815521,0.000706971648891951,0.00174757290188756,0.000736218830887382,2.08600216453564e-05
7.0761793632272,-0.000725421437399339,-0.00022867048232015,0.000706971456134657,0.00174757270913025,0.000736218721382739,2.08600216453564e-05
7.10118353058843,-0.000725421437399339,-0.00022867061615782,0.000706971220544737,0.00174757247354031,0.000736218587545052,2.08600216453564e-05
7.12618769794966,-0.000725421437399339,-0.000228670764059575,0.000706970960198282,0.00174757221319383,0.000736218439643276,2.08600216453564e-05
7.15119186531089,-0.000725421437399339,-0.000228670913441092,0.000706970697247054,0.00174757195024257,0.000736218290261738,2.08600216453564e-05
7.17619603267211,-0.000725421437399339,-0.000228671051087657,0.000706970454952464,0.00174757170794796,0.000736218152615153,2.08600216453564e-05
7.20120020003334,-0.000725421437399339,-0.000228671164874513,0.000706970254657314,0.00174757150765279,0.000736218038828281,2.08600216453564e-05
7.22620436739457,-0.000725421437399339,-0.000228671245263596,0.000706970113151132,0.00174757136614659,0.000736217958439185,2.08600216453564e-05
7.25120853475579,-0.000725421437399339,-0.000228671286358665,0.000706970040812872,0.00174757129380833,0.000736217917344109,2.08600216453564e-05
7.27621270211702,-0.000725421437399339,-0.000228671286379722,0.000706970040775806,0.00174757129377126,0.000736217917323053,2.08600216453564e-05
7.30121686947825,-0.000725421437399339,-0.000228671247522678,0.000706970109174546,0.00174757136217001,0.000736217956180103,2.08600216453564e-05
7.32622103683947,-0.000725421437399339,-0.000228671175281029,0.000706970236339075,0.00174757148933455,0.000736218028421763,2.08600216453564e-05
7.3512252042007,-0.000725421437399339,-0.000228671077398276,0.000706970408638772,0.00174757166163426,0.000736218126304532,2.08600216453564e-05
7.37622937156193,-0.000725421437399339,-0.000228670962671203,0.000706970610588955,0.00174757186358447,0.000736218241031624,2.08600216453564e-05
7.40123353892315,-0.000725421437399339,-0.000228670839823633,0.000706970826833375,0.00174757207982891,0.000736218363879214,2.08600216453564e-05
7.42623770628438,-0.000725421437399339,-0.000228670716621587,0.000706971043701767,0.00174757229669733,0.000736218487081281,2.08600216453564e-05
7.45124187364561,-0.000725421437399339,-0.000228670599321735,0.000706971250180726,0.00174757250317631,0.000736218604381152,2.08600216453564e-05
7.47624604100683,-0.000725421437399339,-0.000228670492460612,0.000706971438284742,0.00174757269128034,0.000736218711242292,2.08600216453564e-05
7.50125020836806,-0.000725421437399339,-0.000228670398925154,0.000706971602932043,0.00174757285592766,0.000736218804777766,2.08600216453564e-05
7.52625437572929,-0.000725421437399339,-0.000228670320208798,0.00070697174149378,0.00174757299448941,0.000736218883494135,2.08600216453564e-05
7.55125854309052,-0.000725421437399339,-0.000228670256752655,0.000706971853193481,0.00174757310618913,0.000736218946950289,2.08600216453564e-05
7.57626271045174,-0.000725421437399339,-0.000228670208289438,0.000706971938501641,0.0017475731914973,0.000736218995413514,2.08600216453564e-05
7.60126687781297,-0.000725421437399339,-0.000228670174136705,0.000706971998619541,0.0017475732516152,0.000736219029566253,2.08600216453564e-05
7.6262710451742,-0.000725421437399339,-0.000228670153414518,0.000706972035096105,0.00174757328809177,0.000736219050288443,2.08600216453564e-05
7.65127521253542,-0.000725421437399339,-0.000228670145184389,0.000706972049583323,0.00174757330257899,0.000736219058518574,2.08600216453564e-05
7.67627937989665,-0.000725421437399339,-0.000228670148519306,0.000706972043712981,0.00174757329670865,0.000736219055183656,2.08600216453564e-05
7.70128354725788,-0.000725421437399339,-0.000228670162520109,0.000706972019067841,0.00174757327206351,0.000736219041182851,2.08600216453564e-05
7.7262877146191,-0.000725421437399339,-0.000228670186293969,0.000706971977219521,0.00174757323021518,0.000736219017408987,2.08600216453564e-05
7.75129188198033,-0.000725421437399339,-0.000228670218909009,0.000706971919808369,0.00174757317280402,0.00073621898479394,2.08600216453564e-05
7.77629604934156,-0.000725421437399339,-0.000228670259336957,0.000706971848644422,0.00174757310164007,0.000736218944365985,2.08600216453564e-05
7.80130021670278,-0.000725421437399339,-0.000228670306394154,0.000706971765811232,0.00174757301880687,0.000736218897308779,2.08600216453564e-05
7.82630438406401,-0.000725421437399339,-0.000228670358690504,0.000706971673755739,0.00174757292675136,0.000736218845012419,2.08600216453564e-05
7.85130855142524,-0.000725421437399339,-0.00022867041459556,0.000706971575347961,0.00174757282834357,0.000736218789107352,2.08600216453564e-05
7.87631271878646,-0.000725421437399339,-0.000228670472230468,0.000706971473895185,0.00174757272689078,0.000736218731472432,2.08600216453564e-05
7.90131688614769,-0.000725421437399339,-0.000228670529493088,0.000706971373097734,0.00174757262609332,0.0007362186742098,2.08600216453564e-05
7.92632105350892,-0.000725421437399339,-0.000228670584120948,0.000706971276938162,0.00174757252993374,0.000736218619581929,2.08600216453564e-05
7.95132522087015,-0.000725421437399339,-0.000228670633792411,0.000706971189503169,0.00174757244249873,0.000736218569910456,2.08600216453564e-05
7.97632938823137,-0.000725421437399339,-0.000228670676260935,0.000706971114747263,0.00174757236774282,0.000736218527441922,2.08600216453564e-05
8.0013335555926,-0.000725421437399339,-0.000228670709511249,0.000706971056217862,0.00174757230921341,0.000736218494191601,2.08600216453564e-05
8.02633772295383,-0.000725421437399339,-0.000228670731920718,0.000706971016771234,0.00174757226976678,0.000736218471782128,2.08600216453564e-05
8.05134189031505,-0.000725421437399339,-0.000228670742405586,0.000706970998315076,0.00174757225131062,0.000736218461297257,2.08600216453564e-05
8.07634605767628,-0.000725421437399339,-0.000228670740531149,0.000706971001614583,0.00174757225461012,0.000736218463171695,2.08600216453564e-05
8.10135022503751,-0.000725421437399339,-0.000228670726568011,0.000706971026193422,0.00174757227918897,0.000736218477134836,2.08600216453564e-05
8.12635439239873,-0.000725421437399339,-0.000228670701483285,0.000706971070349216,0.00174757232334476,0.000736218502219568,2.08600216453564e-05
8.15135855975996,-0.000725421437399339,-0.000228670666864862,0.000706971131286853,0.00174757238428241,0.000736218536837999,2.08600216453564e-05
8.17636272712119,-0.000725421437399339,-0.00022867062478698,0.000706971205355124,0.00174757245835069,0.000736218578915891,2.08600216453564e-05
8.20136689448241,-0.000725421437399339,-0.000228670577634214,0.00070697128835654,0.00174757254135212,0.000736218626068668,2.08600216453564e-05
8.22637106184364,-0.000725421437399339,-0.000228670527906794,0.000706971375890032,0.00174757262888562,0.000736218675796099,2.08600216453564e-05
8.25137522920487,-0.000725421437399339,-0.000228670478031726,0.000706971463683426,0.00174757271667903,0.00073621872567118,2.08600216453564e-05
8.27637939656609,-0.000725421437399339,-0.000228670430201429,0.000706971547877477,0.00174757280087309,0.000736218773501488,2.08600216453564e-05
8.30138356392732,-0.000725421437399339,-0.000228670386255406,0.000706971625234172,0.0017475728782298,0.000736218817447521,2.08600216453564e-05
8.32638773128855,-0.000725421437399339,-0.000228670347612331,0.000706971693256267,0.0017475729462519,0.000736218856090606,2.08600216453564e-05
8.35139189864977,-0.000725421437399339,-0.000228670315251778,0.000706971750219453,0.00174757300321509,0.000736218888451167,2.08600216453564e-05
8.376396066011,-0.000725421437399339,-0.000228670289738005,0.000706971795130484,0.00174757304812613,0.000736218913964947,2.08600216453564e-05
8.40140023337223,-0.000725421437399339,-0.000228670271273815,0.000706971827632371,0.00174757308062802,0.000736218932429141,2.08600216453564e-05
8.42640440073346,-0.000725421437399339,-0.000228670259770799,0.00070697184788074,0.0017475731008764,0.00073621894393216,2.08600216453564e-05
8.45140856809468,-0.000725421437399339,-0.000228670254922932,0.000706971856414277,0.00174757310940993,0.000736218948780029,2.08600216453564e-05
8.47641273545591,-0.000725421437399339,-0.00022867025627301,0.00070697185403778,0.00174757310703344,0.00073621894742995,2.08600216453564e-05
8.50141690281714,-0.000725421437399339,-0.000228670263264899,0.000706971841730195,0.00174757309472585,0.000736218940438059,2.08600216453564e-05
8.52642107017836,-0.000725421437399339,-0.000228670275278382,0.000706971820583267,0.00174757307357892,0.000736218928424573,2.08600216453564e-05
8.55142523753959,-0.000725421437399339,-0.000228670291646964,0.000706971791770208,0.00174757304476585,0.000736218912055987,2.08600216453564e-05
8.57642940490082,-0.000725421437399339,-0.000228670311661819,0.000706971756538736,0.00174757300953438,0.000736218892041126,2.08600216453564e-05
8.60143357226204,-0.000725421437399339,-0.000228670334567083,0.000706971716219376,0.00174757296921501,0.000736218869135856,2.08600216453564e-05
8.62643773962327,-0.000725421437399339,-0.00022867035955257,0.00070697167223827,0.0017475729252339,0.000736218844150363,2.08600216453564e-05
8.6514419069845,-0.000725421437399339,-0.00022867038574998,0.000706971626123857,0.00174757287911948,0.000736218817952945,2.08600216453564e-05
8.67644607434572,-0.000725421437399339,-0.000228670412237627,0.00070697157949855,0.00174757283249417,0.000736218791465291,2.08600216453564e-05
8.70145024170695,-0.000725421437399339,-0.000228670438056989,0.000706971534049603,0.00174757278704521,0.000736218765645922,2.08600216453564e-05
8.72645440906818,-0.000725421437399339,-0.000228670462242165,0.000706971491477256,0.00174757274447286,0.000736218741460738,2.08600216453564e-05
8.75145857642941,-0.000725421437399339,-0.000228670483860889,0.000706971453422551,0.00174757270641815,0.000736218719842009,2.08600216453564e-05
8.77646274379063,-0.000725421437399339,-0.000228670502063519,0.000706971421381077,0.00174757267437667,0.000736218701639373,2.08600216453564e-05
8.80146691115186,-0.000725421437399339,-0.000228670516134733,0.000706971396611997,0.00174757264960758,0.000736218687568156,2.08600216453564e-05
8.82647107851309,-0.000725421437399339,-0.000228670525541667,0.00070697138005329,0.00174757263304887,0.000736218678161219,2.08600216453564e-05
8.85147524587431,-0.000725421437399339,-0.000228670529972343,0.000706971372254121,0.0017475726252497,0.000736218673730541,2.08600216453564e-05
8.87647941323554,-0.000725421437399339,-0.000228670529359172,0.000706971373333465,0.00174757262632905,0.000736218674343713,2.08600216453564e-05
8.90148358059677,-0.000725421437399339,-0.000228670523884181,0.000706971382970905,0.00174757263596649,0.000736218679818705,2.08600216453564e-05
8.92648774795799,-0.000725421437399339,-0.000228670513964946,0.000706971400431399,0.00174757265342699,0.000736218689737943,2.08600216453564e-05
8.95149191531922,-0.000725421437399339,-0.000228670500222661,0.000706971424621477,0.00174757267761707,0.000736218703480232,2.08600216453564e-05
8.97649608268045,-0.000725421437399339,-0.000228670483435986,0.000706971454170491,0.00174757270716609,0.000736218720266912,2.08600216453564e-05
9.00150025004167,-0.000725421437399339,-0.000228670464485849,0.000706971487527776,0.00174757274052338,0.000736218739217055,2.08600216453564e-05
9.0265044174029,-0.000725421437399339,-0.00022867044429709,0.000706971523065364,0.00174757277606097,0.000736218759405821,2.08600216453564e-05
9.05150858476413,-0.000725421437399339,-0.00022867042378267,0.000706971559176202,0.00174757281217182,0.000736218779920247,2.08600216453564e-05
9.07651275212536,-0.000725421437399339,-0.0002286704037952,0.000706971594359467,0.00174757284735509,0.000736218799907723,2.08600216453564e-05
9.10151691948658,-0.000725421437399339,-0.00022867038508906,0.000706971627287252,0.00174757288028288,0.000736218818613869,2.08600216453564e-05
9.12652108684781,-0.000725421437399339,-0.000228670368294666,0.000706971656849854,0.00174757290984548,0.000736218835408268,2.08600216453564e-05
9.15152525420904,-0.000725421437399339,-0.0002286703539048,0.000706971682179847,0.00174757293517548,0.000736218849798139,2.08600216453564e-05
9.17652942157026,-0.000725421437399339,-0.000228670342271566,0.000706971702657434,0.00174757295565307,0.000736218861431377,2.08600216453564e-05
9.20153358893149,-0.000725421437399339,-0.000228670333611668,0.000706971717901159,0.0017475729708968,0.000736218870091278,2.08600216453564e-05
9.22653775629272,-0.000725421437399339,-0.000228670328017317,0.000706971727748705,0.00174757298074435,0.00073621887568563,2.08600216453564e-05
9.25154192365394,-0.000725421437399339,-0.000228670325470167,0.000706971732232367,0.00174757298522801,0.000736218878232781,2.08600216453564e-05
9.27654609101517,-0.000725421437399339,-0.000228670325856083,0.000706971731553053,0.0017475729845487,0.000736218877846865,2.08600216453564e-05
9.3015502583764,-0.000725421437399339,-0.000228670328979228,0.000706971726055487,0.00174757297905113,0.000736218874723719,2.08600216453564e-05
9.32655442573762,-0.000725421437399339,-0.000228670334574654,0.000706971716206048,0.00174757296920169,0.000736218869128291,2.08600216453564e-05
9.35155859309885,-0.000725421437399339,-0.000228670342319262,0.000706971702573478,0.00174757295556912,0.000736218861383681,2.08600216453564e-05
9.37656276046008,-0.000725421437399339,-0.000228670351841547,0.000706971685811722,0.00174757293880736,0.000736218851861392,2.08600216453564e-05
9.4015669278213,-0.000725421437399339,-0.00022867036273087,0.000706971666643615,0.00174757291963925,0.000736218840972065,2.08600216453564e-05
9.42657109518253,-0.000725421437399339,-0.000228670374547127,0.000706971645843859,0.00174757289883949,0.000736218829155804,2.08600216453564e-05
9.45157526254376,-0.000725421437399339,-0.000228670386831589,0.000706971624219938,0.00174757287721556,0.000736218816871338,2.08600216453564e-05
9.47657942990498,-0.000725421437399339,-0.000228670399119422,0.000706971602590082,0.0017475728555857,0.000736218804583501,2.08600216453564e-05
9.50158359726621,-0.000725421437399339,-0.000228670410954014,0.000706971581758051,0.00174757283475367,0.000736218792748904,2.08600216453564e-05
9.52658776462744,-0.000725421437399339,-0.000228670421902787,0.000706971562485297,0.00174757281548091,0.000736218781800128,2.08600216453564e-05
9.55159193198866,-0.000725421437399339,-0.000228670431573753,0.000706971545461823,0.00174757279845743,0.000736218772129158,2.08600216453564e-05
9.57659609934989,-0.000725421437399339,-0.000228670439631751,0.000706971531277604,0.00174757278427321,0.000736218764071157,2.08600216453564e-05
9.60160026671112,-0.000725421437399339,-0.000228670445813085,0.000706971520396811,0.00174757277339242,0.000736218757889821,2.08600216453564e-05
9.62660443407234,-0.000725421437399339,-0.000228670449937289,0.000706971513137114,0.00174757276613272,0.000736218753765615,2.08600216453564e-05
9.65160860143357,-0.000725421437399339,-0.000228670451914869,0.000706971509656047,0.00174757276265165,0.000736218751788034,2.08600216453564e-05
9.6766127687948,-0.000725421437399339,-0.000228670451750217,0.00070697150994588,0.00174757276294148,0.000736218751952687,2.08600216453564e-05
9.70161693615603,-0.000725421437399339,-0.000228670449539301,0.00070697151383768,0.00174757276683328,0.000736218754163604,2.08600216453564e-05
9.72662110351725,-0.000725421437399339,-0.000228670445462253,0.000706971521014369,0.00174757277400997,0.000736218758240653,2.08600216453564e-05
9.75162527087848,-0.000725421437399339,-0.000228670439771409,0.000706971531031769,0.00174757278402738,0.0007362187639315,2.08600216453564e-05
9.77662943823971,-0.000725421437399339,-0.000228670432775795,0.000706971543345911,0.00174757279634152,0.000736218770927116,2.08600216453564e-05
9.80163360560093,-0.000725421437399339,-0.000228670424823308,0.000706971557344404,0.00174757281034002,0.000736218778879606,2.08600216453564e-05
9.82663777296216,-0.000725421437399339,-0.000228670416281958,0.000706971572379452,0.00174757282537507,0.00073621878742096,2.08600216453564e-05
9.85164194032339,-0.000725421437399339,-0.000228670407521512,0.000706971587800168,0.00174757284079579,0.000736218796181409,2.08600216453564e-05
9.87664610768461,-0.000725421437399339,-0.000228670398896694,0.000706971602982143,0.00174757285597776,0.000736218804806231,2.08600216453564e-05
9.90165027504584,-0.000725421437399339,-0.000228670390732831,0.000706971617352713,0.00174757287034834,0.000736218812970096,2.08600216453564e-05
9.92665444240707,-0.000725421437399339,-0.000228670383314503,0.000706971630410944,0.00174757288340657,0.000736218820388427,2.08600216453564e-05
9.95165860976829,-0.000725421437399339,-0.000228670376877411,0.000706971641741938,0.00174757289473757,0.000736218826825522,2.08600216453564e-05
9.97666277712952,-0.000725421437399339,-0.000228670371603417,0.000706971651025572,0.0017475729040212,0.000736218832099519,2.08600216453564e-05
10.0016669444907,-0.000725421437399339,-0.000228670367618438,0.000706971658040195,0.00174757291103583,0.000736218836084499,2.08600216453564e-05
10.026671111852,-0.000725421437399339,-0.000228669837551641,0.000706972591098787,0.00174757384409461,0.000736219366151513,2.08600216453564e-05
10.0516752792132,-0.000725421437399339,-0.000228703382702159,0.000706913542709146,0.00174751479569253,0.000736185820986554,2.08600216453564e-05
10.0766794465744,-0.000725421437399339,-0.000228703968319734,0.00070691251186641,0.00174751376484958,0.000736185235368727,2.08600216453564e-05
10.1016836139357,-0.000725421437399339,-0.000228703723800038,0.000706912942286138,0.0017475141952694,0.000736185479888535,2.08600216453564e-05
10.1266877812969,-0.000725421437399339,-0.000228702928242545,0.000706914342679011,0.00174751559566256,0.000736186275446371,2.08600216453564e-05
10.1516919486581,-0.000725421437399339,-0.000228701054794172,0.000706917640446638,0.00174751889343086,0.000736188148895539,2.08600216453564e-05
10.1766961160193,-0.000725421437399339,-0.000228697294431011,0.000706924259686382,0.00174752551267193,0.00073619190926028,2.08600216453564e-05
10.2017002833806,-0.000725421437399339,-0.000228690558518643,0.000706936116684521,0.00174753736967243,0.000736198645175442,2.08600216453564e-05
10.2267044507418,-0.000725421437399339,-0.000228679521130869,0.000706955545424052,0.00174755679841575,0.000736209682567726,2.08600216453564e-05
10.251708618103,-0.000725421437399339,-0.000228662928249471,0.000706984753310849,0.00174758600630813,0.000736226275455779,2.08600216453564e-05
10.2767127854642,-0.000725421437399339,-0.000228640130624714,0.000707024883197395,0.00174762613620214,0.000736249073089471,2.08600216453564e-05
10.3017169528255,-0.000725421437399339,-0.000228611613654245,0.000707075080654861,0.00174767633366865,0.000736277590070815,2.08600216453564e-05
10.3267211201867,-0.000725421437399339,-0.000228579109658043,0.000707132296339247,0.00174773354936296,0.00073631009407903,2.08600216453564e-05
10.3517252875479,-0.000725421437399339,-0.000228545078544816,0.00070719220015663,0.00174779345319032,0.000736344125204404,2.08600216453564e-05
10.3767294549092,-0.000725421437399339,-0.000228511868664257,0.000707250658386522,0.00174785191142952,0.000736377335096385,2.08600216453564e-05
10.4017336222704,-0.000725421437399339,-0.000228481138816235,0.000707304751099541,0.00174790600415077,0.000736408064954568,2.08600216453564e-05
10.4267377896316,-0.000725421437399339,-0.000228453844885051,0.000707352795684757,0.00174795404874293,0.00073643535889441,2.08600216453564e-05
10.4517419569928,-0.000725421437399339,-0.000228430653898311,0.000707393617995883,0.00174799487105964,0.00073645854988818,2.08600216453564e-05
10.4767461243541,-0.000725421437399339,-0.00022841243138637,0.000707425694468908,0.00174802694753679,0.000736476772405364,2.08600216453564e-05
10.5017502917153,-0.000725421437399339,-0.000228400391737508,0.000707446887456933,0.00174804814052732,0.000736488812057468,2.08600216453564e-05
10.5267544590765,-0.000725421437399339,-0.000228395402875934,0.000707455669181997,0.00174805692225327,0.000736493800920226,2.08600216453564e-05
10.5517586264377,-0.000725421437399339,-0.000228395940114806,0.000707454723498682,0.00174805597656973,0.00073649326368109,2.08600216453564e-05
10.576762793799,-0.000725421437399339,-0.000228395093950082,0.000707456212973924,0.00174805746604514,0.000736494109846039,2.08600216453564e-05
10.6017669611602,-0.000725421437399339,-0.000228379730031884,0.000707483257561205,0.00174808451063562,0.000736509473768358,2.08600216453564e-05
10.6267711285214,-0.000725421437399339,-0.000228337103375693,0.000707558291827091,0.00174815954491041,0.000736552100436058,2.08600216453564e-05
10.6517752958826,-0.000725421437399339,-0.000228268096283642,0.000707679762684072,0.00174828101578248,0.000736621107547472,2.08600216453564e-05
10.6767794632439,-0.000725421437399339,-0.000228192050303604,0.000707813623856749,0.00174841487697293,0.000736697153550102,2.08600216453564e-05
10.7017836306051,-0.000725421437399339,-0.000228131778020499,0.000707919719121698,0.00174852097225296,0.000736757425852186,2.08600216453564e-05
10.7267877979663,-0.000725421437399339,-0.000228096026840566,0.000707982650716051,0.00174858390385672,0.000736793177043876,2.08600216453564e-05
10.7517919653276,-0.000725421437399339,-0.000228079874630414,0.000708011082905846,0.00174861233605083,0.000736809329259412,2.08600216453564e-05
10.7767961326888,-0.000725421437399339,-0.000228074772470968,0.000708020064064841,0.00174862131721109,0.000736814431420439,2.08600216453564e-05
10.80180030005,-0.000725421437399339,-0.000228074340369775,0.000708020824678175,0.00174862207782436,0.000736814863521568,2.08600216453564e-05
10.8268044674112,-0.000725421437399339,-0.000228075152491549,0.000708019395127847,0.00174862064827365,0.000736814051399331,2.08600216453564e-05
10.8518086347725,-0.000725421437399339,-0.000228075728027455,0.000708018382031538,0.0017486196351771,0.000736813475863135,2.08600216453564e-05
10.8768128021337,-0.000725421437399339,-0.000228075477905514,0.000708018822312702,0.00174862007545836,0.000736813725985198,2.08600216453564e-05
10.9018169694949,-0.000725421437399339,-0.000228074125639011,0.000708021202661534,0.00174862245580774,0.000736815078252352,2.08600216453564e-05
10.9268211368561,-0.000725421437399339,-0.000228071501955124,0.000708025821043255,0.00174862707419049,0.000736817701937496,2.08600216453564e-05
10.9518253042174,-0.000725421437399339,-0.000228067507955122,0.000708032851545957,0.00174863410469475,0.000736821695939395,2.08600216453564e-05
10.9768294715786,-0.000725421437399339,-0.000228062136161894,0.000708042307331367,0.00174864356048224,0.000736827067735148,2.08600216453564e-05
11.0018336389398,-0.000725421437399339,-0.00022805550910748,0.00070805397271052,0.00174865522586391,0.000736833694792639,2.08600216453564e-05
11.026837806301,-0.000725421437399339,-0.000228047915910039,0.000708067338758552,0.00174866859191478,0.000736841287993552,2.08600216453564e-05
11.0518419736623,-0.000725421437399339,-0.000228039828976412,0.000708081573913747,0.00174868282707292,0.000736849374930805,2.08600216453564e-05
11.0768461410235,-0.000725421437399339,-0.000228031884821574,0.00070809555774039,0.00174869681090238,0.000736857319089117,2.08600216453564e-05
11.1018503083847,-0.000725421437399339,-0.000228024821771223,0.000708107990588783,0.00174870924375319,0.000736864382142457,2.08600216453564e-05
11.126854475746,-0.000725421437399339,-0.000228019381547771,0.000708117566830071,0.00174871881999623,0.000736869822368099,2.08600216453564e-05
11.1518586431072,-0.000725421437399339,-0.000228016193994616,0.000708123177772215,0.00174872443093927,0.000736873009922407,2.08600216453564e-05
11.1768628104684,-0.000725421437399339,-0.000228015666605448,0.000708124106117802,0.00174872535928482,0.000736873537311566,2.08600216453564e-05
11.2018669778296,-0.000725421437399339,-0.000228017892077274,0.000708120188695356,0.00174872144186143,0.000736871311838594,2.08600216453564e-05
11.2268711451909,-0.000725421437399339,-0.000228022575991078,0.000708111943760632,0.00174871319692499,0.000736866627922686,2.08600216453564e-05
11.2518753125521,-0.000725421437399339,-0.000228028985121087,0.000708100661986094,0.00174870191514826,0.00073686021878996,2.08600216453564e-05
11.2768794799133,-0.000725421437399339,-0.00022803593237763,0.000708088432965502,0.00174868968612539,0.000736853271530578,2.08600216453564e-05
11.3018836472745,-0.000725421437399339,-0.000228041842896746,0.000708078028878637,0.00174867928203665,0.000736847361009112,2.08600216453564e-05
11.3268878146358,-0.000725421437399339,-0.000228044966604485,0.000708072530321541,0.00174867378347858,0.000736844237300155,2.08600216453564e-05
11.351891981997,-0.000725421437399339,-0.000228043778793584,0.000708074621184912,0.00174867587434231,0.000736845425111511,2.08600216453564e-05
11.3768961493582,-0.000725421437399339,-0.000228037508495698,0.000708085658578308,0.00174868691173761,0.000736851695411793,2.08600216453564e-05
11.4019003167195,-0.000725421437399339,-0.000228026576838923,0.000708104901204181,0.00174870615436679,0.000736862627072751,2.08600216453564e-05
11.4269044840807,-0.000725421437399339,-0.000228012639741164,0.000708129434206194,0.00174873068737305,0.000736876564175877,2.08600216453564e-05
11.4519086514419,-0.000725421437399339,-0.000227998076096098,0.000708155070098204,0.00174875632326955,0.000736891127826608,2.08600216453564e-05
11.4769128188031,-0.000725421437399339,-0.000227985130879622,0.000708177857125042,0.00174877911030042,0.000736904073048167,2.08600216453564e-05
11.5019169861644,-0.000725421437399339,-0.000227975200723037,0.000708195336843884,0.00174879659002237,0.000736914003208669,2.08600216453564e-05
11.5269211535256,-0.000725421437399339,-0.000227968626835307,0.000708206908636171,0.0017488081618167,0.000736920577098972,2.08600216453564e-05
11.5519253208868,-0.000725421437399339,-0.000227964957809424,0.000708213367098416,0.00174881462028004,0.00073692424612624,2.08600216453564e-05
11.576929488248,-0.000725421437399339,-0.000227963380928356,0.000708216142828925,0.00174881739601096,0.000736925823007829,2.08600216453564e-05
11.6019336556093,-0.000725421437399339,-0.000227963066658463,0.000708216696027696,0.00174881794920973,0.000736926137277727,2.08600216453564e-05
11.6269378229705,-0.000725421437399339,-0.000227963346069484,0.000708216204190023,0.00174881745737187,0.000736925857866484,2.08600216453564e-05
11.6519419903317,-0.000725421437399339,-0.000227963755862001,0.000708215482846187,0.00174881673602784,0.000736925448073722,2.08600216453564e-05
11.6769461576929,-0.000725421437399339,-0.000227964013734628,0.000708215028921758,0.00174881628210329,0.000736925190200951,2.08600216453564e-05
11.7019503250542,-0.000725421437399339,-0.000227963972711976,0.000708215101132541,0.00174881635431409,0.000736925231223625,2.08600216453564e-05
11.7269544924154,-0.000725421437399339,-0.00022796358021665,0.000708215792028746,0.00174881704521046,0.000736925623719157,2.08600216453564e-05
11.7519586597766,-0.000725421437399339,-0.000227962849863581,0.000708217077644482,0.0017488183308265,0.000736926354072605,2.08600216453564e-05
11.7769628271379,-0.000725421437399339,-0.000227961844360615,0.000708218847597258,0.00174882010077969,0.000736927359576084,2.08600216453564e-05
11.8019669944991,-0.000725421437399339,-0.000227960664682208,0.000708220924145171,0.00174882217732807,0.000736928539255085,2.08600216453564e-05
11.8269711618603,-0.000725421437399339,-0.000227959440816237,0.00070822307847497,0.00174882433165835,0.000736929763121657,2.08600216453564e-05
11.8519753292215,-0.000725421437399339,-0.000227958320754246,0.000708225050082161,0.00174882630326596,0.000736930883184182,2.08600216453564e-05
11.8769794965828,-0.000725421437399339,-0.000227957456057113,0.00070822657217927,0.00174882782536338,0.000736931747881706,2.08600216453564e-05
11.901983663944,-0.000725421437399339,-0.000227956983956797,0.000708227403201526,0.00174882865638577,0.000736932219982205,2.08600216453564e-05
11.9269878313052,-0.000725421437399339,-0.000227957007385208,0.000708227361961368,0.00174882861514554,0.000736932196553722,2.08600216453564e-05
11.9519919986664,-0.000725421437399339,-0.00022795757540489,0.000708226362095654,0.00174882761527955,0.0007369316285337,2.08600216453564e-05
11.9769961660277,-0.000725421437399339,-0.00022795866717179,0.000708224440295451,0.00174882569347887,0.000736930536766208,2.08600216453564e-05
12.0020003333889,-0.000725421437399339,-0.000227960182818149,0.000708221772354583,0.00174882302553737,0.000736929021119064,2.08600216453564e-05
12.0270045007501,-0.000725421437399339,-0.00022796194456274,0.000708218671215313,0.00174881992439739,0.000736927259373586,2.08600216453564e-05
12.0520086681114,-0.000725421437399339,-0.000227963710834879,0.000708215562106329,0.00174881681528771,0.000736925493100574,2.08600216453564e-05
12.0770128354726,-0.000725421437399339,-0.000227965204841967,0.000708212932256274,0.00174881418543708,0.00073692399909276,2.08600216453564e-05
12.1020170028338,-0.000725421437399339,-0.000227966156267819,0.000708211257493577,0.00174881251067402,0.000736923047666452,2.08600216453564e-05
12.127021170195,-0.000725421437399339,-0.000227966350489502,0.000708210915611725,0.0017488121687921,0.000736922853444675,2.08600216453564e-05
12.1520253375563,-0.000725421437399339,-0.000227965674794464,0.000708212105014819,0.00174881335819544,0.000736923529140032,2.08600216453564e-05
12.1770295049175,-0.000725421437399339,-0.000227964147983286,0.000708214792608836,0.00174881604579003,0.00073692505595193,2.08600216453564e-05
12.2020336722787,-0.000725421437399339,-0.000227961921477386,0.000708218711851783,0.0017488199650338,0.000736927282458878,2.08600216453564e-05
12.2270378396399,-0.000725421437399339,-0.000227959248019193,0.000708223417849718,0.00174882467103273,0.000736929955918329,2.08600216453564e-05
12.2520420070012,-0.000725421437399339,-0.000227956425848077,0.000708228385621978,0.00174882963880604,0.000736932778090777,2.08600216453564e-05
12.2770461743624,-0.000725421437399339,-0.000227953735933267,0.000708233120587936,0.001748834373773,0.000736935468006857,2.08600216453564e-05
12.3020503417236,-0.000725421437399339,-0.000227951391737544,0.000708237246996291,0.00174883850018222,0.00073693781220369,2.08600216453564e-05
12.3270545090848,-0.000725421437399339,-0.000227949514065948,0.000708240552198023,0.00174884180538466,0.000736939689876174,2.08600216453564e-05
12.3520586764461,-0.000725421437399339,-0.000227948132388153,0.000708242984318663,0.00174884423750581,0.000736941071554621,2.08600216453564e-05
12.3770628438073,-0.000725421437399339,-0.00022794720498693,0.000708244616791635,0.00174884586997912,0.000736941998956277,2.08600216453564e-05
12.4020670111685,-0.000725421437399339,-0.000227946646957078,0.000708245599072693,0.00174884685226038,0.000736942556986386,2.08600216453564e-05
12.4270711785298,-0.000725421437399339,-0.000227946356870955,0.000708246109701478,0.00174884736288927,0.000736942847072637,2.08600216453564e-05
12.452075345891,-0.000725421437399339,-0.000227946237017102,0.000708246320676162,0.00174884757386399,0.000736942966926539,2.08600216453564e-05
12.4770795132522,-0.000725421437399339,-0.000227946205938612,0.000708246375382577,0.00174884762857042,0.000736942998005038,2.08600216453564e-05
12.5020836806134,-0.000725421437399339,-0.000227946204344086,0.000708246378189368,0.00174884763137721,0.000736942999599563,2.08600216453564e-05
12.5270878479747,-0.000725421437399339,-0.000227946196308786,0.000708246392333635,0.00174884764552148,0.00073694300763487,2.08600216453564e-05
12.5520920153359,-0.000725421437399339,-0.000227946167549962,0.000708246442956816,0.00174884769614467,0.000736943036393711,2.08600216453564e-05
12.5770961826971,-0.000725421437399339,-0.000227946122024427,0.000708246523093874,0.00174884777628175,0.000736943081919273,2.08600216453564e-05
12.6021003500583,-0.000725421437399339,-0.000227946077556518,0.000708246601369232,0.00174884785455713,0.000736943126387207,2.08600216453564e-05
12.6271045174196,-0.000725421437399339,-0.000227946060847379,0.000708246630781774,0.00174884788396967,0.000736943143096352,2.08600216453564e-05
12.6521086847808,-0.000725421437399339,-0.000227946102075514,0.000708246558209301,0.00174884781139717,0.000736943101868188,2.08600216453564e-05
12.677112852142,-0.000725421437399339,-0.000227946229327175,0.000708246334212534,0.00174884758740034,0.000736942974616447,2.08600216453564e-05
12.7021170195033,-0.000725421437399339,-0.000227946463218353,0.000708245922501844,0.00174884717568954,0.000736942740725127,2.08600216453564e-05
12.7271211868645,-0.000725421437399339,-0.000227946812212683,0.000708245308178979,0.00174884656136651,0.000736942391730592,2.08600216453564e-05
12.7521253542257,-0.000725421437399339,-0.000227947269237542,0.000708244503693637,0.00174884575688096,0.000736941934705469,2.08600216453564e-05
12.7771295215869,-0.000725421437399339,-0.000227947810205245,0.000708243551446551,0.00174884480463363,0.000736941393737458,2.08600216453564e-05
12.8021336889482,-0.000725421437399339,-0.0002279483949246,0.000708242522184908,0.00174884377537172,0.000736940809017773,2.08600216453564e-05
12.8271378563094,-0.000725421437399339,-0.000227948970624986,0.000708241508799047,0.00174884276198561,0.000736940233317066,2.08600216453564e-05
12.8521420236706,-0.000725421437399339,-0.000227949477919028,0.000708240615826551,0.00174884186901289,0.000736939726022743,2.08600216453564e-05
12.8771461910318,-0.000725421437399339,-0.00022794985854509,0.0007082399458234,0.00174884119900958,0.000736939345396471,2.08600216453564e-05
12.9021503583931,-0.000725421437399339,-0.000227950063748509,0.00070823958461078,0.00174884083779687,0.00073693914019294,2.08600216453564e-05
12.9271545257543,-0.000725421437399339,-0.000227950061818041,0.000708239588008917,0.00174884084119501,0.000736939142123409,2.08600216453564e-05
12.9521586931155,-0.000725421437399339,-0.000227949843244016,0.000708239972757363,0.00174884122594355,0.000736939360697552,2.08600216453564e-05
12.9771628604767,-0.000725421437399339,-0.000227949422312469,0.000708240713708898,0.00174884196689526,0.000736939781629329,2.08600216453564e-05
13.002167027838,-0.000725421437399339,-0.000227948834679854,0.000708241748098672,0.00174884300128528,0.000736940369262263,2.08600216453564e-05
13.0271711951992,-0.000725421437399339,-0.000227948131411398,0.000708242986038298,0.00174884423922521,0.000736941072531101,2.08600216453564e-05
13.0521753625604,-0.000725421437399339,-0.000227947370818785,0.000708244324883695,0.00174884557807093,0.000736941833124127,2.08600216453564e-05
13.0771795299217,-0.000725421437399339,-0.000227946609904718,0.000708245664294936,0.00174884691748249,0.000736942594038608,2.08600216453564e-05
13.1021836972829,-0.000725421437399339,-0.000227945897157079,0.000708246918920445,0.0017488481721083,0.000736943306786636,2.08600216453564e-05
13.1271878646441,-0.000725421437399339,-0.000227945267893118,0.000708248026592467,0.00174884927978059,0.000736943936050941,2.08600216453564e-05
13.1521920320053,-0.000725421437399339,-0.000227944742570709,0.000708248951299696,0.00174885020448805,0.000736944461373638,2.08600216453564e-05
13.1771961993666,-0.000725421437399339,-0.000227944327747643,0.000708249681498677,0.00174885093468721,0.000736944876196931,2.08600216453564e-05
13.2022003667278,-0.000725421437399339,-0.000227944018890896,0.000708250225168739,0.0017488514783574,0.000736945185053849,2.08600216453564e-05
13.227204534089,-0.000725421437399339,-0.000227943804082061,0.000708250603289448,0.0017488518564782,0.000736945399862803,2.08600216453564e-05
13.2522087014502,-0.000725421437399339,-0.000227943667772873,0.000708250843229891,0.00174885209641871,0.000736945536172067,2.08600216453564e-05
13.2772128688115,-0.000725421437399339,-0.000227943593995291,0.000708250973098065,0.00174885222628691,0.000736945609949689,2.08600216453564e-05
13.3022170361727,-0.000725421437399339,-0.000227943568707902,0.000708251017610599,0.00174885227079946,0.000736945635237093,2.08600216453564e-05
13.3272212035339,-0.000725421437399339,-0.000227943581189452,0.000708250995639749,0.0017488522488286,0.000736945622755535,2.08600216453564e-05
13.3522253708951,-0.000725421437399339,-0.000227943624543626,0.000708250919324869,0.0017488521725137,0.000736945579401337,2.08600216453564e-05
13.3772295382564,-0.000725421437399339,-0.000227943695462486,0.000708250794488805,0.00174885204767761,0.000736945508482435,2.08600216453564e-05
13.4022337056176,-0.000725421437399339,-0.000227943793430993,0.000708250622038168,0.00174885187522692,0.000736945410513869,2.08600216453564e-05
13.4272378729788,-0.000725421437399339,-0.000227943919563786,0.000708250400010896,0.00174885165319959,0.000736945284381001,2.08600216453564e-05
13.4522420403401,-0.000725421437399339,-0.000227944075263723,0.000708250125937583,0.0017488513791262,0.000736945128680968,2.08600216453564e-05
13.4772462077013,-0.000725421437399339,-0.000227944260886191,0.000708249799192654,0.00174885105238118,0.000736944943058387,2.08600216453564e-05
13.5022503750625,-0.000725421437399339,-0.000227944474583644,0.000708249423028283,0.00174885067621671,0.000736944729360803,2.08600216453564e-05
13.5272545424237,-0.000725421437399339,-0.00022794471148684,0.000708249006015629,0.00174885025920394,0.000736944492457461,2.08600216453564e-05
13.552258709785,-0.000725421437399339,-0.000227944963347475,0.000708248562673903,0.0017488498158621,0.000736944240596671,2.08600216453564e-05
13.5772628771462,-0.000725421437399339,-0.000227945218717887,0.000708248113154034,0.0017488493663421,0.000736943985226102,2.08600216453564e-05
13.6022670445074,-0.000725421437399339,-0.000227945463677679,0.000708247681959625,0.00174884893514758,0.00073694374026616,2.08600216453564e-05
13.6272712118686,-0.000725421437399339,-0.000227945683039617,0.00070824729582425,0.0017488485490121,0.000736943520904088,2.08600216453564e-05
13.6522753792299,-0.000725421437399339,-0.000227945861888595,0.000708246981002463,0.00174884823419023,0.000736943342055001,2.08600216453564e-05
13.6772795465911,-0.000725421437399339,-0.000227945987242035,0.000708246760347057,0.00174884801353476,0.000736943216701485,2.08600216453564e-05
13.7022837139523,-0.000725421437399339,-0.000227946049583456,0.000708246650609568,0.00174884790379724,0.000736943154360026,2.08600216453564e-05
13.7272878813136,-0.000725421437399339,-0.000227946044025736,0.000708246660392634,0.00174884791358031,0.000736943159917749,2.08600216453564e-05
13.7522920486748,-0.000725421437399339,-0.000227945970912047,0.000708246789092179,0.00174884804227989,0.000736943233031482,2.08600216453564e-05
13.777296216036,-0.000725421437399339,-0.000227945835754757,0.000708247027004972,0.00174884828019275,0.000736943368188854,2.08600216453564e-05
13.8023003833972,-0.000725421437399339,-0.000227945648528293,0.000708247356573367,0.00174884860976123,0.000736943555415433,2.08600216453564e-05
13.8273045507585,-0.000725421437399339,-0.000227945422445641,0.00070824775453899,0.00174884900772696,0.000736943781498222,2.08600216453564e-05
13.8523087181197,-0.000725421437399339,-0.000227945172433179,0.000708248194627446,0.00174884944781553,0.000736944031510837,2.08600216453564e-05
13.8773128854809,-0.000725421437399339,-0.000227944913555721,0.000708248650320653,0.00174884990350886,0.000736944290388453,2.08600216453564e-05
13.9023170528421,-0.000725421437399339,-0.000227944659627115,0.000708249097302564,0.0017488503504909,0.000736944544317215,2.08600216453564e-05
13.9273212202034,-0.000725421437399339,-0.00022794442218026,0.000708249515272208,0.00174885076846065,0.000736944781764216,2.08600216453564e-05
13.9523253875646,-0.000725421437399339,-0.000227944209883686,0.000708249888970665,0.00174885114215921,0.00073694499406092,2.08600216453564e-05
13.9773295549258,-0.000725421437399339,-0.000227944028403009,0.000708250208424943,0.00174885146161358,0.00073694517554171,2.08600216453564e-05
14.002333722287,-0.000725421437399339,-0.000227943880634084,0.000708250468537567,0.00174885172172627,0.000736945323310726,2.08600216453564e-05
14.0273378896483,-0.000725421437399339,-0.00022794376719152,0.000708250668226664,0.00174885192141542,0.000736945436753361,2.08600216453564e-05
14.0523420570095,-0.000725421437399339,-0.00022794368702308,0.000708250809344448,0.00174885206253324,0.000736945516921851,2.08600216453564e-05
14.0773462243707,-0.000725421437399339,-0.000227943638031996,0.000708250895581792,0.00174885214877061,0.000736945565912966,2.08600216453564e-05
14.102350391732,-0.000725421437399339,-0.000227943617616352,0.000708250931518756,0.00174885218470759,0.000736945586328623,2.08600216453564e-05
14.1273545590932,-0.000725421437399339,-0.000227943623068502,0.000708250921921523,0.00174885217511035,0.00073694558087647,2.08600216453564e-05
14.1523587264544,-0.000725421437399339,-0.00022794365181067,0.000708250871327659,0.00174885212451647,0.000736945552134283,2.08600216453564e-05
14.1773628938156,-0.000725421437399339,-0.000227943701471309,0.000708250783911722,0.00174885203710051,0.000736945502473611,2.08600216453564e-05
14.2023670611769,-0.000725421437399339,-0.000227943769828177,0.000708250663585447,0.0017488519167742,0.000736945434116699,2.08600216453564e-05
14.2273712285381,-0.000725421437399339,-0.000227943854658368,0.000708250514261743,0.00174885176745045,0.000736945349286453,2.08600216453564e-05
14.2523753958993,-0.000725421437399339,-0.000227943953542873,0.000708250340198707,0.00174885159338737,0.000736945250401883,2.08600216453564e-05
14.2773795632605,-0.000725421437399339,-0.000227944063674514,0.000708250146337719,0.00174885139952632,0.000736945140270169,2.08600216453564e-05
14.3023837306218,-0.000725421437399339,-0.000227944181713807,0.000708249938557159,0.0017488511917457,0.000736945022230798,2.08600216453564e-05
14.327387897983,-0.000725421437399339,-0.000227944303728195,0.000708249723779373,0.00174885097696786,0.000736944900216329,2.08600216453564e-05
14.3523920653442,-0.000725421437399339,-0.000227944425236938,0.000708249509891659,0.00174885076308008,0.000736944778707505,2.08600216453564e-05
14.3773962327055,-0.000725421437399339,-0.000227944541367958,0.000708249305470168,0.00174885055865853,0.000736944662576408,2.08600216453564e-05
14.4024004000667,-0.000725421437399339,-0.000227944647115793,0.000708249119325844,0.00174885037251415,0.000736944556828502,2.08600216453564e-05
14.4274045674279,-0.000725421437399339,-0.000227944737673623,0.000708248959919971,0.00174885021310823,0.000736944466270612,2.08600216453564e-05
14.4524087347891,-0.000725421437399339,-0.00022794480879942,0.000708248834719645,0.00174885008790787,0.000736944395144768,2.08600216453564e-05
14.4774129021504,-0.000725421437399339,-0.000227944857168917,0.000708248749576461,0.00174885000276466,0.000736944346775238,2.08600216453564e-05
14.5024170695116,-0.000725421437399339,-0.000227944880667695,0.000708248708212359,0.00174884996140054,0.000736944323276444,2.08600216453564e-05
14.5274212368728,-0.000725421437399339,-0.000227944878581863,0.000708248711883978,0.00174884996507217,0.000736944325362278,2.08600216453564e-05
14.552425404234,-0.000725421437399339,-0.000227944851660588,0.000708248759272586,0.00174885001246079,0.000736944352283571,2.08600216453564e-05
14.5774295715953,-0.000725421437399339,-0.000227944802041926,0.000708248846614631,0.00174885009980286,0.000736944401902266,2.08600216453564e-05
14.6024337389565,-0.000725421437399339,-0.000227944733052837,0.000708248968053783,0.00174885022124204,0.000736944470891401,2.08600216453564e-05
14.6274379063177,-0.000725421437399339,-0.000227944648911385,0.000708249116165125,0.00174885036935343,0.00073694455503291,2.08600216453564e-05
14.6524420736789,-0.000725421437399339,-0.000227944554371031,0.000708249282581301,0.00174885053576966,0.000736944649573328,2.08600216453564e-05
14.6774462410402,-0.000725421437399339,-0.000227944454351616,0.000708249458642082,0.00174885071183049,0.000736944749592811,2.08600216453564e-05
14.7024504084014,-0.000725421437399339,-0.000227944353598934,0.000708249635993608,0.00174885088918207,0.000736944850345561,2.08600216453564e-05
14.7274545757626,-0.000725421437399339,-0.000227944256405874,0.000708249807079252,0.00174885106026776,0.000736944947538687,2.08600216453564e-05
14.7524587431239,-0.000725421437399339,-0.000227944166415261,0.000708249965486673,0.00174885121867523,0.000736945037529361,2.08600216453564e-05
14.7774629104851,-0.000725421437399339,-0.000227944086510573,0.000708250106140182,0.00174885135932878,0.000736945117434103,2.08600216453564e-05
14.8024670778463,-0.000725421437399339,-0.000227944018788128,0.000708250225349703,0.00174885147853834,0.000736945185156595,2.08600216453564e-05
14.8274712452075,-0.000725421437399339,-0.000227943964595037,0.000708250320743962,0.00174885157393262,0.000736945239349724,2.08600216453564e-05
14.8524754125688,-0.000725421437399339,-0.000227943924612026,0.000708250391124697,0.00174885164431338,0.000736945279332761,2.08600216453564e-05
14.87747957993,-0.000725421437399339,-0.000227943898959188,0.000708250436280517,0.00174885168946921,0.000736945304985617,2.08600216453564e-05
14.9024837472912,-0.000725421437399339,-0.000227943887305049,0.000708250456794904,0.00174885170998361,0.000736945316639765,2.08600216453564e-05
14.9274879146524,-0.000725421437399339,-0.00022794388896408,0.000708250453874566,0.00174885170706327,0.000736945314980732,2.08600216453564e-05
14.9524920820137,-0.000725421437399339,-0.000227943902973622,0.000708250429214045,0.00174885168240274,0.000736945300971181,2.08600216453564e-05
14.9774962493749,-0.000725421437399339,-0.000227943928147133,0.000708250384901968,0.00174885163809065,0.000736945275797651,2.08600216453564e-05
15.0025004167361,-0.000725421437399339,-0.000227943963105959,0.000708250323365136,0.0017488515765538,0.000736945240838802,2.08600216453564e-05
15.0275045840973,-0.000725421437399339,-0.000227943677633308,0.00070825082587293,0.00174885207906176,0.00073694552631167,2.08600216453564e-05
15.0525087514586,-0.000725421437399339,-0.000227947642788837,0.000708243846144581,0.001748845099331,0.000736941561153006,2.08600216453564e-05
15.0775129188198,-0.000725421437399339,-0.000227952337191859,0.000708235582746679,0.00174883683593024,0.000736936866746256,2.08600216453564e-05
15.102517086181,-0.000725421437399339,-0.000227960460088036,0.000708221284288484,0.0017488225374675,0.000736928743844118,2.08600216453564e-05
15.1275212535423,-0.000725421437399339,-0.000227969529789441,0.000708205319200931,0.00174880657237513,0.000736919674136366,2.08600216453564e-05
15.1525254209035,-0.000725421437399339,-0.000227955182167521,0.000708230574833176,0.00174883182801467,0.000736934021767917,2.08600216453564e-05
15.1775295882647,-0.000725421437399339,-0.000227857474265238,0.000708402566740343,0.00174900381997077,0.000737031729734792,2.08600216453564e-05
15.2025337556259,-0.000725421437399339,-0.0002276309483099,0.000708801312698479,0.00174940256604154,0.000737258255838861,2.08600216453564e-05
15.2275379229872,-0.000725421437399339,-0.000227331367662068,0.000709328654353089,0.001749929907846,0.000737557836684459,2.08600216453564e-05
15.2525420903484,-0.000725421437399339,-0.00022703991551987,0.00070984168767179,0.00175044294131311,0.000737849289022346,2.08600216453564e-05
15.2775462577096,-0.000725421437399339,-0.00022676567815854,0.000710324418391797,0.00175092567217651,0.000738123526572549,2.08600216453564e-05
15.3025504250708,-0.000725421437399339,-0.000226527631262319,0.000710743444260537,0.00175134469817349,0.000738361573637483,2.08600216453564e-05
15.3275545924321,-0.000725421437399339,-0.000226364853026379,0.000711029977259869,0.00175163123126292,0.000738524351991849,2.08600216453564e-05
15.3525587597933,-0.000725421437399339,-0.000226287209268074,0.000711166650929304,0.00175176790497618,0.000738601995807731,2.08600216453564e-05
15.3775629271545,-0.000725421437399339,-0.000226280204831325,0.000711178980601276,0.00175178023465214,0.000738609000249712,2.08600216453564e-05
15.4025670945158,-0.000725421437399339,-0.000226327414729596,0.000711095878621883,0.00175169713264568,0.000738561790315885,2.08600216453564e-05
15.427571261877,-0.000725421437399339,-0.000226418750958803,0.000710935102561635,0.00175153635653323,0.000738470454018071,2.08600216453564e-05
15.4525754292382,-0.000725421437399339,-0.000226549195893313,0.000710705484775812,0.00175130673867346,0.000738340008986303,2.08600216453564e-05
15.4775795965994,-0.000725421437399339,-0.000226715861574408,0.00071041210883917,0.00175101336264352,0.000738173343182394,2.08600216453564e-05
15.5025837639607,-0.000725421437399339,-0.000226915835971583,0.000710060100699075,0.00175066135439335,0.000737973368640143,2.08600216453564e-05
15.5275879313219,-0.000725421437399339,-0.000227144979215629,0.000709656747625639,0.00175025800119631,0.000737744225233004,2.08600216453564e-05
15.5525920986831,-0.000725421437399339,-0.000227397492170893,0.000709212257639483,0.00174981351107711,0.000737491712101936,2.08600216453564e-05
15.5775962660443,-0.000725421437399339,-0.000227666023027982,0.00070873957188041,0.00174934082518018,0.000737223181062391,2.08600216453564e-05
15.6026004334056,-0.000725421437399339,-0.000227941968218631,0.000708253834917343,0.0017488550880793,0.000736947235689045,2.08600216453564e-05
15.6276046007668,-0.000725421437399339,-0.000228215596423166,0.000707772176462303,0.00174837342949142,0.000736673607308101,2.08600216453564e-05
15.652608768128,-0.000725421437399339,-0.000228475782642836,0.000707314179473954,0.00174791543238024,0.00073641342092503,2.08600216453564e-05
15.6776129354892,-0.000725421437399339,-0.000228709431907069,0.000706902894586228,0.00174750414738508,0.000736179771517632,2.08600216453564e-05
15.7026171028505,-0.000725421437399339,-0.000228900973798336,0.00070656572987909,0.00174716698259187,0.000735988229511497,2.08600216453564e-05
15.7276212702117,-0.000725421437399339,-0.000229032553732984,0.000706334114173219,0.00174693536682791,0.000735856649499231,2.08600216453564e-05
15.7526254375729,-0.000725421437399339,-0.000229085744494591,0.000706240484275431,0.00174684173690688,0.00073580345870654,2.08600216453564e-05
15.7776296049342,-0.000725421437399339,-0.000229045592910678,0.00070631116175,0.00174691241439898,0.000735843610313912,2.08600216453564e-05
15.8026337722954,-0.000725421437399339,-0.000228906914103347,0.000706555273361605,0.00174715652607176,0.000735982289203072,2.08600216453564e-05
15.8276379396566,-0.000725421437399339,-0.000228680329520825,0.000706954122532568,0.00174755537534478,0.00073620887392201,2.08600216453564e-05
15.8526421070178,-0.000725421437399339,-0.000228393324268616,0.000707459328159459,0.00174806058110488,0.000736495879352034,2.08600216453564e-05
15.8776462743791,-0.000725421437399339,-0.000228083535245399,0.000708004639281887,0.00174860589237629,0.000736805668573834,2.08600216453564e-05
15.9026504417403,-0.000725421437399339,-0.000227787474823495,0.000708525784407202,0.00174912703764941,0.000737101729192436,2.08600216453564e-05
15.9276546091015,-0.000725421437399339,-0.000227531371699543,0.000708976594050785,0.00174957784742547,0.000737357832492432,2.08600216453564e-05
15.9526587764627,-0.000725421437399339,-0.000227328121774979,0.000709334367996694,0.00174993562147982,0.000737561082560941,2.08600216453564e-05
15.977662943824,-0.000725421437399339,-0.000227179561959068,0.000709595872798008,0.00175019712636243,0.000737709642484659,2.08600216453564e-05
16.0026671111852,-0.000725421437399339,-0.000227080947197379,0.000709769461014676,0.0017503707146341,0.000737808257319251,2.08600216453564e-05
16.0276712785464,-0.000725421437399339,-0.000227024996166864,0.000709867949713553,0.00175046920336461,0.000737864208391677,2.08600216453564e-05
16.0526754459077,-0.000725421437399339,-0.000227004415669019,0.000709904176864895,0.00175050543052768,0.000737884788905066,2.08600216453564e-05
16.0776796132689,-0.000725421437399339,-0.000227012995066039,0.000709889074843739,0.00175049032850161,0.000737876209501528,2.08600216453564e-05
16.1026837806301,-0.000725421437399339,-0.000227045799056708,0.000709831331093212,0.00175043258473228,0.000737843405485935,2.08600216453564e-05
16.1276879479913,-0.000725421437399339,-0.000227098942811652,0.000709737783946399,0.00175033903755507,0.000737790261690691,2.08600216453564e-05
16.1526921153526,-0.000725421437399339,-0.00022716924551454,0.000709614032486077,0.00175021528605473,0.000737719958934725,2.08600216453564e-05
16.1776962827138,-0.000725421437399339,-0.000227253900712768,0.000709465016815246,0.00175006627033606,0.000737635303672989,2.08600216453564e-05
16.202700450075,-0.000725421437399339,-0.000227350211464507,0.000709295484268814,0.00174989673773566,0.000737538992849577,2.08600216453564e-05
16.2277046174362,-0.000725421437399339,-0.000227455397675882,0.000709110328551459,0.00174971158195996,0.000737433806560651,2.08600216453564e-05
16.2527087847975,-0.000725421437399339,-0.000227566469252065,0.000708914813025463,0.00174951606637302,0.000737322734903411,2.08600216453564e-05
16.2777129521587,-0.000725421437399339,-0.000227680157292762,0.000708714691824992,0.00174931594511089,0.000737209046780635,2.08600216453564e-05
16.3027171195199,-0.000725421437399339,-0.000227792899650852,0.000708516235276747,0.00174911748850221,0.000737096304342023,2.08600216453564e-05
16.3277212868811,-0.000725421437399339,-0.000227900883329037,0.000708326155270591,0.00174892740843881,0.00073698832058752,2.08600216453564e-05
16.3527254542424,-0.000725421437399339,-0.0002280001515045,0.000708151416867657,0.00174875266998379,0.000736889052342571,2.08600216453564e-05
16.3777296216036,-0.000725421437399339,-0.000228086783862917,0.000707998920864503,0.0017486001739356,0.00073680241992402,2.08600216453564e-05
16.4027337889648,-0.000725421437399339,-0.000228157151653619,0.000707875054828114,0.0017484763078629,0.000736732052084801,2.08600216453564e-05
16.4277379563261,-0.000725421437399339,-0.000228208231571674,0.000707785140579883,0.00174838639358844,0.000736680972131693,2.08600216453564e-05
16.4527421236873,-0.000725421437399339,-0.000228237937960041,0.000707732849431372,0.00174833410242472,0.000736651265722989,2.08600216453564e-05
16.4777462910485,-0.000725421437399339,-0.000228245409777136,0.000707719697044998,0.00174832095003453,0.000736643793900781,2.08600216453564e-05
16.5027504584097,-0.000725421437399339,-0.000228231180098845,0.000707744745065368,0.0017483459980622,0.000736658023588842,2.08600216453564e-05
16.527754625771,-0.000725421437399339,-0.000228197171677039,0.000707804608937472,0.00174840586195184,0.000736692032034109,2.08600216453564e-05
16.5527587931322,-0.000725421437399339,-0.000228146501799942,0.000707893801404398,0.00174849505444507,0.000736742701946403,2.08600216453564e-05
16.5777629604934,-0.000725421437399339,-0.000228083129836365,0.000708005352923307,0.00174860660599717,0.000736806073954381,2.08600216453564e-05
16.6027671278546,-0.000725421437399339,-0.000228011420989747,0.00070813157957445,0.00174873283268625,0.000736877782851738,2.08600216453564e-05
16.6277712952159,-0.000725421437399339,-0.000227935714216579,0.000708264843639751,0.00174886609679204,0.000736953489679048,2.08600216453564e-05
16.6527754625771,-0.000725421437399339,-0.000227859968333693,0.000708398176548158,0.00174899942974141,0.000737029235616699,2.08600216453564e-05
16.6777796299383,-0.000725421437399339,-0.000227787528050222,0.000708525690721651,0.00174912694395452,0.000737101675953116,2.08600216453564e-05
16.7027837972995,-0.000725421437399339,-0.000227721016122678,0.000708642769410979,0.00174924402268061,0.000737168187929779,2.08600216453564e-05
16.7277879646608,-0.000725421437399339,-0.000227662331029594,0.00070874607078889,0.00174934732409127,0.000737226873066622,2.08600216453564e-05
16.752792132022,-0.000725421437399339,-0.000227612716372581,0.000708833405785772,0.00174943465911608,0.000737276487760951,2.08600216453564e-05
16.7777962993832,-0.000725421437399339,-0.000227572867207124,0.000708903550919148,0.00174950480427207,0.000737316336956607,2.08600216453564e-05
16.8028004667445,-0.000725421437399339,-0.000227543045115391,0.000708956045734903,0.00174955729910485,0.000737346159071084,2.08600216453564e-05
16.8278046341057,-0.000725421437399339,-0.00022752318329876,0.000708991007816456,0.0017495922611978,0.000737366020902943,2.08600216453564e-05
16.8528088014669,-0.000725421437399339,-0.000227512971947467,0.000709008982511468,0.0017496102358987,0.000737376232262094,2.08600216453564e-05
16.8778129688281,-0.000725421437399339,-0.000227511921010513,0.000709010832440108,0.00174961208582794,0.000737377283199858,2.08600216453564e-05
16.9028171361894,-0.000725421437399339,-0.000227519401912344,0.000708997664062597,0.0017495989174461,0.000737369802292241,2.08600216453564e-05
16.9278213035506,-0.000725421437399339,-0.000227534672124172,0.000708970784427146,0.00174957203780181,0.000737354532068594,2.08600216453564e-05
16.9528254709118,-0.000725421437399339,-0.000227556887412219,0.000708931679609795,0.0017495329329716,0.000737332316763353,2.08600216453564e-05
16.977829638273,-0.000725421437399339,-0.00022758510662653,0.000708882006284838,0.00174948325963032,0.000737304097527221,2.08600216453564e-05
17.0028338056343,-0.000725421437399339,-0.000227618293484238,0.000708823588585796,0.00174942484191213,0.000737270910643889,2.08600216453564e-05
17.0278379729955,-0.000725421437399339,-0.000227655319199649,0.000708758413475784,0.0017493596667808,0.000737233884899947,2.08600216453564e-05
17.0528421403567,-0.000725421437399339,-0.00022769496914955,0.000708688619014791,0.00174928987229704,0.000737194234919563,2.08600216453564e-05
17.077846307718,-0.000725421437399339,-0.000227735956077016,0.000708616471117477,0.00174921772437625,0.000737153247960667,2.08600216453564e-05
17.1028504750792,-0.000725421437399339,-0.000227776941618227,0.000708544325660247,0.00174914557889563,0.000737112262388109,2.08600216453564e-05
17.1278546424404,-0.000725421437399339,-0.000227816567144218,0.000708474574191563,0.00174907582740439,0.000737072636831887,2.08600216453564e-05
17.1528588098016,-0.000725421437399339,-0.000227853493995047,0.000708409573109107,0.00174901082630096,0.000737035709952949,2.08600216453564e-05
17.1778629771629,-0.000725421437399339,-0.00022788645211322,0.000708351558052011,0.0017489528112252,0.000737002751809735,2.08600216453564e-05
17.2028671445241,-0.000725421437399339,-0.000227914294861172,0.000708302547407496,0.00174890380056493,0.000736974909040656,2.08600216453564e-05
17.2278713118853,-0.000725421437399339,-0.000227936056506521,0.000708264241121537,0.00174886549426668,0.000736953147378806,2.08600216453564e-05
17.2528754792465,-0.000725421437399339,-0.000227951007639752,0.000708237923148974,0.00174883917628567,0.000736938196234239,2.08600216453564e-05
17.2778796466078,-0.000725421437399339,-0.000227958702900803,0.000708224377442027,0.00174882563057437,0.000736930500967348,2.08600216453564e-05
17.302883813969,-0.000725421437399339,-0.000227959015130745,0.000708223827834253,0.00174882508096642,0.000736930188737169,2.08600216453564e-05
17.3278879813302,-0.000725421437399339,-0.000227952150695894,0.000708235911066022,0.00174883716420209,0.000736937053177253,2.08600216453564e-05
17.3528921486914,-0.000725421437399339,-0.000227938642374644,0.000708259689305586,0.00174886094244934,0.00073695056150883,2.08600216453564e-05
17.3778963160527,-0.000725421437399339,-0.000227919318732939,0.000708293704056408,0.00174889495721121,0.000736969885165367,2.08600216453564e-05
