data1,data2,data3,data4,data5,data6,data7
0,0.000139861074768333,-0.000401649461542474,-0.000515768301241571,0.000141395030000325,-0.000145942734540968,0.000447309367403553
0.0700035001750088,0.000140304762057639,-0.000401195195966508,-0.000515308656661091,0.000141854674575729,-0.000145488468974922,0.000447753054692859
0.140007000350018,0.000140935278619831,-0.000400549646920535,-0.00051465546353414,0.000142507867844805,-0.000144842919651212,0.000448383571255051
0.210010500525026,0.000141629423236398,-0.000399838952950312,-0.000513936354030812,0.000143226977636825,-0.000144132225116823,0.000449077715871618
0.280014000700035,0.000142235322631373,-0.000399218608202748,-0.000513308663547085,0.000143854668498971,-0.000143511879629744,0.000449683615266593
0.350017500875044,0.000142667432681091,-0.000398776196218346,-0.000512861012759648,0.000144302319640501,-0.000143069466953358,0.000450115725316311
0.420021001050053,0.000142867727807865,-0.000398571125884491,-0.000512653514080573,0.000144509818515524,-0.000142864396236572,0.000450316020443085
0.490024501225061,0.000142697869255963,-0.000398745033976349,-0.000512829481524758,0.000144333850868099,-0.00014303830472561,0.000450146161891183
0.56002800140007,0.000142062202355612,-0.000399395855515749,-0.000513488009878055,0.000143675321665343,-0.00014368912792507,0.000449510494990832
0.630031501575079,0.000141122836923916,-0.000400357615790202,-0.000514461159061766,0.000142702171078179,-0.00014465089094223,0.000448571129559136
0.700035001750087,0.000140255381894318,-0.000401245751173954,-0.000515359811562355,0.000141803517150114,-0.000145539029115636,0.000447703674529538
0.770038501925096,0.000139779227435312,-0.000401733257221637,-0.000515853090583154,0.00014131023727969,-0.000146026536823708,0.000447227520070532
0.840042002100105,0.000139773528892549,-0.000401739091621712,-0.000515858994071848,0.000141304333784649,-0.000146032371236186,0.000447221821527769
0.910045502275114,0.000140118067808972,-0.000401386338931151,-0.000515502064100266,0.000141661264466526,-0.000145679617157518,0.000447566360444192
0.980049002450122,0.000140631907338594,-0.000400860249561513,-0.00051496974478519,0.000142193584894012,-0.000145153525613933,0.000448080199973814
1.05005250262513,0.000141151758023506,-0.000400328005772231,-0.000514431198152284,0.000142732132701674,-0.00014462127952886,0.000448600050658726
1.12005600280014,0.000141537570530441,-0.000399932995622972,-0.000514031510271868,0.000143131821487222,-0.000144226267610727,0.000448985863165661
1.19005950297515,0.000141681589141561,-0.000399785543664443,-0.000513882312175785,0.000143281019931873,-0.000144078814971,0.000449129881776781
1.26006300315016,0.000141548115515564,-0.000399922199238385,-0.000514020586040318,0.000143142745730175,-0.000144215471203857,0.000448996408150784
1.33006650332517,0.000141199792477992,-0.000400278826114055,-0.000514381436138709,0.000142781894728777,-0.000144572099844251,0.000448648085113212
1.40007000350017,0.00014077168752992,-0.000400717136836291,-0.000514824937403777,0.000142338392324031,-0.000145010412793732,0.00044821998016514
1.47007350367518,0.000140408003549084,-0.000401089490814918,-0.000515201700862351,0.000141961627873343,-0.000145382768711227,0.000447856296184304
1.54007700385019,0.000140205438106605,-0.000401296885281656,-0.000515411551333392,0.000141751776837628,-0.000145590164281495,0.000447653730741825
1.6100805040252,0.000140191446922521,-0.000401311210006139,-0.00051542604569398,0.000141737282437992,-0.000145604489082289,0.000447639739557741
1.68008400420021,0.000140334734118074,-0.00040116450695128,-0.000515277605349963,0.000141885723198053,-0.000145457785214362,0.000447783026753294
1.75008750437522,0.000140569665147933,-0.000400923975348225,-0.000515034225317874,0.000142129103922411,-0.000145217252258421,0.000448017957783153
1.82009100455023,0.000140820071828846,-0.000400667599172654,-0.000514774813076578,0.00014238851691164,-0.000144960874621179,0.000448268364464066
1.89009450472524,0.000141017918570426,-0.000400465035927311,-0.000514569851029618,0.000142593479556736,-0.00014475831020691,0.000448466211205646
1.96009800490024,0.000141117387672589,-0.000400363195565138,-0.000514466804649577,0.000142696526240673,-0.000144656469250841,0.000448565680307809
2.03010150507525,0.000141103986813786,-0.000400376915888854,-0.000514480687452678,0.000142682643395918,-0.000144670189655959,0.000448552279449005
2.10010500525026,0.000140996110484953,-0.000400487363895956,-0.000514592443411692,0.000142570887100594,-0.000144780638320302,0.000448444403120173
2.17010850542527,0.000140837184110411,-0.000400650078936423,-0.000514757085362682,0.000142406244650463,-0.00014494335433623,0.00044828547674563
2.24011200560028,0.000140680247810526,-0.000400810756459771,-0.00051491966566738,0.000142243663849589,-0.00014510403282924,0.000448128540445746
2.31011550577529,0.00014057068018006,-0.000400922936085952,-0.000515033173750892,0.000142130155417662,-0.00014521621313632,0.000448018972815279
2.3801190059503,0.000140533633571543,-0.000400960865852934,-0.00051507155269087,0.000142091776359338,-0.000145254143134584,0.000447981926206763
2.45012250612531,0.000140569990291257,-0.000400923642421014,-0.000515033888450834,0.000142129440716203,-0.000145216919474347,0.000448018282926476
2.52012600630031,0.000140660384028362,-0.000400831093776451,-0.000514940243825325,0.000142223085633147,-0.000145124370260243,0.000448108676663582
2.59012950647532,0.000140773944262023,-0.000400714826365765,-0.000514822599551847,0.000142340730273887,-0.000145008102131832,0.000448222236897243
2.66013300665033,0.000140878109983088,-0.000400608177423953,-0.000514714687652042,0.000142448642511447,-0.000144901452529959,0.000448326402618307
2.73013650682534,0.000140947097964723,-0.000400537544827899,-0.000514643218611366,0.000142520111776282,-0.00014483081949584,0.000448395390599942
2.80014000700035,0.000140967719350092,-0.000400516431846182,-0.000514621855605889,0.000142541474848862,-0.000144809706382988,0.000448416011985311
2.87014350717536,0.000140941632219362,-0.000400543140872396,-0.000514648880924855,0.00014251444944487,-0.000144836415575366,0.000448389924854582
2.94014700735037,0.0001408834724553,-0.000400602687117499,-0.000514709132325932,0.000142454197854094,-0.000144895962191185,0.00044833176509052
3.01015050752538,0.000140815320656651,-0.000400672463600005,-0.000514779735111685,0.000142383594845946,-0.000144965739108304,0.000448263613291871
3.08015400770039,0.00014075935010146,-0.000400729768448838,-0.000514837718572183,0.000142325611202758,-0.000145023044314153,0.000448207642736679
3.15015750787539,0.000140731264061551,-0.000400758524038061,-0.000514866814688592,0.00014229651499467,-0.000145051800082538,0.00044817955669677
3.2201610080504,0.000140736636985101,-0.000400753023028063,-0.000514861248535077,0.00014230208116572,-0.000145046299038272,0.000448184929620321
3.29016450822541,0.000140770863567752,-0.000400717980509171,-0.000514825791039387,0.000142337538773099,-0.000145011256301116,0.000448219156202972
3.36016800840042,0.000140822016761646,-0.000400665607860432,-0.000514772798189483,0.000142390531789884,-0.000144958883326258,0.000448270309396865
3.43017150857543,0.000140875200138396,-0.000400611156629902,-0.000514717702143755,0.000142445628009059,-0.000144904431756779,0.000448323492773615
3.50017500875044,0.000140916977370656,-0.000400568383457537,-0.000514674422449108,0.000142488907839905,-0.000144861658318256,0.000448365270005876
3.57017850892545,0.000140938799016205,-0.000400546041598822,-0.000514651816017143,0.000142511514342987,-0.000144839316320568,0.000448387091651424
3.64018200910045,0.000140938732646277,-0.000400546109550993,-0.000514651884773982,0.000142511445585933,-0.000144839384273158,0.000448387025281497
3.71018550927546,0.000140921212995834,-0.000400564046858587,-0.000514670034495436,0.00014249329580742,-0.000144857321692253,0.000448369505631053
3.78018900945047,0.00014089502866183,-0.000400590855410595,-0.000514697160514383,0.000142466169703206,-0.000144884130410884,0.00044834332129705
3.85019250962548,0.000140870272209822,-0.000400616202041169,-0.000514722807299509,0.000142440522837462,-0.000144909477198998,0.000448318564845042
3.92019600980049,0.000140855277684964,-0.000400631554026475,-0.000514738341082694,0.000142424989005439,-0.000144924829279741,0.000448303570320184
3.9901995099755,0.000140854482845875,-0.000400632367814044,-0.000514739164507122,0.000142424165578423,-0.000144925643072367,0.000448302775481095
4.06020301015051,0.000140867727557914,-0.000400618807355652,-0.000514725443466421,0.000142437886662318,-0.00014491208252957,0.000448316020193134
4.13020651032552,0.000140890961632574,-0.00040059501939368,-0.000514701373808778,0.000142461956395805,-0.000144888294419391,0.000448339254267794
4.20021001050053,0.000140917922694591,-0.000400567415594758,-0.000514673443127557,0.000142489887165148,-0.000144860690448274,0.000448366215329811
4.27021351067553,0.000140942166123122,-0.00040054259421596,-0.000514648327815941,0.000142515002556125,-0.000144835868914396,0.000448390458758342
4.34021701085054,0.000140958857190341,-0.000400525505242541,-0.000514631036476407,0.000142532293950401,-0.000144818779834009,0.000448407149825561
4.41022051102555,0.000140965890572298,-0.000400518304188427,-0.00051462375014811,0.000142539580301815,-0.000144811578734726,0.000448414183207518
4.48022401120056,0.000140964123631709,-0.000400520113251976,-0.00051462558063439,0.000142537749809704,-0.000144813387809667,0.000448412416266929
4.55022751137557,0.000140956759177992,-0.000400527653270532,-0.000514633209940976,0.000142530120478764,-0.000144820927875812,0.000448405051813212
4.62023101155058,0.000140948143469985,-0.000400536474372682,-0.000514642135501536,0.000142521194889614,-0.000144829749033825,0.000448396436105204
4.69023451172559,0.000140942390636473,-0.000400542364350866,-0.000514648095228082,0.000142515235143909,-0.000144835639049448,0.000448390683271693
4.7602380119006,0.000140942253832226,-0.000400542504416458,-0.000514648236952314,0.000142515093419227,-0.000144835779115918,0.000448390546467446
4.8302415120756,0.000140948537282735,-0.00040053607117162,-0.000514641727525902,0.000142521602866776,-0.000144829345829778,0.000448396829917955
4.90024501225061,0.000140960140405394,-0.000400524191436313,-0.000514629707112507,0.000142533623319404,-0.000144817466017814,0.000448408433040614
4.97024851242562,0.000140974627468004,-0.000400509359009408,-0.000514614699042229,0.000142548631438943,-0.000144802633494655,0.000448422920103224
5.04025201260063,0.00014098592770305,-0.000400497789382455,-0.000514602992409535,0.000142560338110242,-0.000144791063792273,0.000448434220338269
5.11025551277564,0.000140893307384383,-0.000400592617722467,-0.000514698943691714,0.000142464386509419,-0.000144885892754882,0.000448341600019603
5.18025901295065,0.000140570168432405,-0.000400923460149496,-0.000515033703897923,0.000142129625194987,-0.000145216737347246,0.000448018461067625
5.25026251312566,0.000139860522056776,-0.000401650024171604,-0.00051576887175336,0.000141394454924633,-0.000145943306087772,0.000447308814691996
5.32026601330066,0.000138955181599452,-0.000402576947592849,-0.000516706771596845,0.000140456552063508,-0.000146870235405007,0.000446403474234672
5.39026951347567,0.00013831406848223,-0.000403233344659947,-0.000517370941543998,0.000139792380051263,-0.000147526636506917,0.00044576236111745
5.46027301365068,0.000138229266986061,-0.000403320167804049,-0.000517458792822509,0.000139704528505416,-0.000147613460173341,0.000445677559621281
5.53027651382569,0.000138627618419013,-0.000402912319708847,-0.000517046115135288,0.000140117207384474,-0.000147205609749579,0.000446075911054233
5.6002800140007,0.000139253777454459,-0.000402271233063731,-0.000516397436987665,0.000140765887370197,-0.000146564519513302,0.000446702070089679
5.67028351417571,0.000139896869915761,-0.000401612809270068,-0.000515731216407742,0.000141432109809552,-0.000145906092086849,0.000447345162550981
5.74028701435072,0.000140411791702182,-0.000401085611718875,-0.000515197776010345,0.000141965551675068,-0.000145378891667411,0.000447860084337402
5.81029051452573,0.000140650660012816,-0.000400841048763735,-0.000514950317051599,0.000142213011305286,-0.000145134327400443,0.000448098952648036
5.88029401470073,0.00014050384240938,-0.000400991366524171,-0.000515102414801355,0.000142060913153264,-0.000145284645946755,0.0004479521350446
5.95029751487574,0.000140009346896864,-0.000401497650919448,-0.000515614694356539,0.000141548632268779,-0.000145790932938953,0.000447457639532084
6.02030101505075,0.000139365607284645,-0.000402156737465622,-0.00051628158544856,0.000140881739487938,-0.000146450022784354,0.000446813899919865
6.09030451522576,0.000138817223040316,-0.000402718195377988,-0.000516849691825563,0.000140313631707983,-0.000147011483437436,0.000446265515675536
6.16030801540077,0.000138526556538326,-0.000403015791485038,-0.000517150811888268,0.000140012510918952,-0.000147309080963368,0.000445974849173546
6.23031151557578,0.000138527892811506,-0.000403014423353278,-0.000517149427556557,0.00014001389525268,-0.000147307712827671,0.000445976185446726
6.30031501575079,0.00013875993763631,-0.000402776846460641,-0.000516909037433464,0.000140254285928123,-0.000147070134856055,0.00044620823027153
6.3703185159258,0.000139118502377968,-0.000402409733333688,-0.00051653757720156,0.00014062574699607,-0.00014670302009598,0.000446566795013188
6.44032201610081,0.000139492302884598,-0.000402027021193623,-0.000516150333253291,0.000141012991797219,-0.000146320306289937,0.000446940595519818
6.51032551627581,0.000139783731517762,-0.000401728644708134,-0.00051584842361075,0.000141314902089904,-0.00014602192853451,0.000447232024152982
6.58032901645082,0.00013992698108204,-0.000401581979971898,-0.000515700022181127,0.000141463303831949,-0.000145875263188027,0.00044737527371726
6.65033251662583,0.00013990343112559,-0.000401606091378215,-0.00051572441909552,0.000141438906868309,-0.000145899374690533,0.00044735172376081
6.72033601680084,0.00013974490311513,-0.000401768398827845,-0.000515888648458678,0.000141274677177904,-0.000146061682779337,0.00044719319575035
6.79033951697585,0.00013951973860601,-0.000401998931456799,-0.000516121910862918,0.000141041414320499,-0.00014629221629338,0.00044696803124123
6.86034301715086,0.000139307003384787,-0.000402216738483453,-0.000516342296973535,0.000140821027792816,-0.000146510024134599,0.000446755296020007
6.93034651732587,0.000139170272768448,-0.000402356728891546,-0.000516483945024583,0.000140679379480662,-0.000146650015052639,0.000446618565403668
7.00035001750087,0.000139141066419404,-0.000402386631549654,-0.000516514201763043,0.000140649122687567,-0.000146679917817449,0.000446589359054624
7.07035351767588,0.000139215788547961,-0.00040231012796417,-0.00051643679229369,0.00014072653229121,-0.000146603413969709,0.000446664081183181
7.14035701785089,0.000139363639182578,-0.000402158752402473,-0.000516283624287732,0.000140879700555876,-0.000146452037902795,0.000446811931817798
7.2103605180259,0.000139539805671934,-0.000401978385895262,-0.000516101122057641,0.000141062203085518,-0.000146271670810626,0.000446988098307154
7.28036401820091,0.000139698877020481,-0.000401815522089467,-0.0005159363297827,0.000141226995623086,-0.000146108806491996,0.000447147169655701
7.35036751837592,0.000139805801692139,-0.000401706048196512,-0.000515825559612788,0.000141337765964318,-0.000145999332264514,0.000447254094327359
7.42037101855093,0.000139843309961426,-0.000401667645680321,-0.000515786702374438,0.000141376623261087,-0.000145960929634254,0.000447291602596646
7.49037451872594,0.000139814837096955,-0.000401696797377523,-0.000515816199254402,0.000141347126338667,-0.000145990081414349,0.000447263129732176
7.56037801890094,0.000139741951743938,-0.000401771420421927,-0.000515891705902363,0.000141271619585177,-0.000146064704664788,0.000447190244379158
7.63038151907595,0.000139656545360935,-0.000401858863019645,-0.000515980183896601,0.000141183141471371,-0.000146152147495936,0.000447104837996155
7.70038501925096,0.000139590255272763,-0.000401926733564835,-0.000516048858086612,0.000141114467191719,-0.000146220018216124,0.000447038547907983
7.77038851942597,0.000139565015838302,-0.000401952574747066,-0.000516075005249818,0.000141088319995483,-0.000146245859462833,0.000447013308473523
7.84039201960098,0.000139587976043284,-0.000401929067133265,-0.000516051219287156,0.000141112105986707,-0.000146222351793282,0.000447036268678504
7.91039551977599,0.000139651766354054,-0.000401863755954544,-0.000515985134773428,0.000141178190577084,-0.000146157040464953,0.000447100058989274
7.980399019951,0.000139738877582554,-0.000401774567844294,-0.000515894890608813,0.000141268434842304,-0.000146067852158349,0.000447187170217774
8.05040252012601,0.000139827939030531,-0.000401683383013831,-0.000515802626083408,0.000141360699466385,-0.000145976667135314,0.000447276231665751
8.12040602030102,0.000139899904966367,-0.000401609701279428,-0.000515728071905179,0.000141435253720985,-0.00014590298525188,0.000447348197601588
8.19040952047602,0.000139942787725301,-0.000401565796115714,-0.000515683646874273,0.000141479678795429,-0.000145859080003213,0.000447391080360522
8.26041302065103,0.000139954069990085,-0.000401554244860295,-0.000515671958844307,0.000141491366836398,-0.000145847528726325,0.000447402362625306
8.33041652082604,0.000139940362016883,-0.000401568279658483,-0.000515686159823411,0.000141477165844788,-0.00014586156354891,0.000447388654652104
8.40042002100105,0.00013991451180019,-0.000401594746196152,-0.000515712939741139,0.000141450385904566,-0.000145888030130456,0.00044736280443541
8.47042352117606,0.000139891166081787,-0.000401618648524293,-0.000515737125087011,0.000141426200539417,-0.000145911932496195,0.000447339458717007
8.54042702135107,0.000139882302152589,-0.000401627723788064,-0.000515746307807108,0.000141417017812354,-0.000145921007773551,0.000447330594787809
8.61043052152608,0.000139894150417143,-0.000401615593035436,-0.000515734033419775,0.000141429292208272,-0.000145908877004186,0.000447342443052364
8.68043402170109,0.000139926257933378,-0.000401582720005752,-0.000515700771156206,0.000141462554493781,-0.000145876003931731,0.000447374550568598
8.75043752187609,0.000139972602552088,-0.000401535270427874,-0.000515652759751509,0.000141510565928087,-0.000145828554296145,0.000447420895187309
8.8204410220511,0.000140024063422918,-0.000401482582612722,-0.000515599448087331,0.000141563877622837,-0.000145775866421422,0.000447472356058139
8.89044452222611,0.000140071340405008,-0.000401434178437647,-0.000515550470784643,0.000141612854951496,-0.000145727462195753,0.000447519633040229
8.96044802240112,0.000140107501291269,-0.000401397155390333,-0.000515513009368289,0.000141650316386107,-0.000145690439112887,0.00044755579392649
9.03045152257613,0.000140129567060273,-0.000401374563520246,-0.000515490150001085,0.00014167317576348,-0.000145667847223004,0.000447577859695493
9.10045502275114,0.000140138839146739,-0.000401365070364512,-0.000515480544442645,0.000141682781325795,-0.000145658354059728,0.00044758713178196
9.17045852292615,0.00014014000722922,-0.000401363874432043,-0.000515479334349885,0.000141683991419006,-0.000145657158126385,0.000447588299864441
9.24046202310116,0.000140139405872582,-0.000401364490126548,-0.00051547995733443,0.000141683368434261,-0.00014565777382128,0.000447587698507803
9.31046552327616,0.000140143013492703,-0.000401360796491406,-0.000515476219965451,0.000141687105804226,-0.000145654080184221,0.000447591306127924
9.38046902345117,0.000140154812269684,-0.000401348716400511,-0.000515463996842603,0.00014169932892983,-0.000145642000087983,0.000447603104904905
9.45047252362618,0.000140175942360875,-0.000401327082511414,-0.000515442106802123,0.000141721218974348,-0.000145620366191073,0.000447624234996096
9.52047602380119,0.000140204778747786,-0.000401297558586664,-0.00051541223330635,0.000141751092474396,-0.00014559084225808,0.000447653071383006
9.5904795239762,0.000140237766473622,-0.000401263784342382,-0.000515378059166853,0.000141785266617365,-0.000145557068007136,0.000447686059108843
9.66048302415121,0.000140270666057248,-0.000401230100340465,-0.000515343976338919,0.000141819349447351,-0.000145523384001333,0.000447718958692469
9.73048652432622,0.000140299811532413,-0.000401200259954241,-0.000515313782636561,0.000141849543150281,-0.000145493543614104,0.000447748104167633
9.80049002450123,0.000140323043740835,-0.000401176473822883,-0.000515289714873153,0.000141873610913156,-0.00014546975748388,0.000447771336376055
9.87049352467623,0.000140340111352505,-0.000401158999269344,-0.000515272033418138,0.000141891292367051,-0.000145452282932595,0.000447788403987725
9.94049702485124,0.000140352495253711,-0.000401146320099124,-0.000515259204124804,0.000141904121659043,-0.000145439603765047,0.000447800787888931
10.0105005250263,0.000140363198188644,-0.000401135361973943,-0.000515248116254153,0.000141915209528063,-0.000145428645643095,0.000447811490823865
10.0805040252013,0.0001409208701028,-0.000400564393450351,-0.000514670387411791,0.000142492938255701,-0.000144857677345959,0.000448369162738021
10.1505075253763,0.000143521733713839,-0.000397901517211609,-0.000511975982502577,0.000145187342552245,-0.000142194802315043,0.00045097002634906
10.2205110255513,0.000148227522799632,-0.000393083527362928,-0.000507100947369481,0.000150062376375433,-0.000137376815045462,0.000455675815434853
10.2905145257263,0.000153747298647026,-0.000387432142404092,-0.000501382649876231,0.000155780672034149,-0.000131725433694719,0.000461195591282247
10.3605180259013,0.000158670122248774,-0.000382391942560766,-0.000496282774162714,0.000160880545802679,-0.000126685237673344,0.000466118414883995
10.4305215260763,0.000162724272643507,-0.000378241127618562,-0.000492082813832889,0.000165080504267514,-0.000122534426393456,0.000470172565278728
10.5005250262513,0.000166628451600523,-0.000374243859643689,-0.000488038218620905,0.000169125097437022,-0.000118537162427456,0.000474076744235744
10.5705285264263,0.000171020068091616,-0.000369747531632698,-0.000483488654731825,0.000173674658756433,-0.000114040839458146,0.000478468360726836
10.6405320266013,0.00017577172277205,-0.000364882580503865,-0.00047856610347932,0.000178597206925145,-0.000109175894377779,0.000483220015407271
10.7105355267763,0.000180289638633104,-0.000360256941013326,-0.000473885697466315,0.000183277609707105,-0.000104550261222806,0.000487737931268325
10.7805390269513,0.000184242054568558,-0.000356210284732207,-0.000469791129859352,0.000187372174226273,-0.000100503610994985,0.000491690347203779
10.8505425271264,0.00018788759289148,-0.000352477822907028,-0.000466014476830789,0.000191148824173029,-9.67711552102209e-05,0.000495335885526702
10.9205460273014,0.0001917719915231,-0.000348500805160558,-0.0004619903725629,0.000195172924912353,-9.27941443787083e-05,0.000499220284158321
10.9905495274764,0.000196219016746733,-0.000343947745295349,-0.000457383406215745,0.000199779886929857,-8.8241092997134e-05,0.000503667309381954
11.0605530276514,0.000201129278998102,-0.000338920402604817,-0.000452296541936428,0.000204866746084236,-8.32137603472235e-05,0.000508577571633324
11.1305565278264,0.000206183376833446,-0.0003337457942682,-0.000447060668694705,0.000210102613672596,-7.80391630851656e-05,0.000513631669468668
11.2005600280014,0.00021115549731819,-0.000328655117508496,-0.000441909720991288,0.000215253555429319,-7.29484979733715e-05,0.000518603789953411
11.2705635281764,0.000216029500591992,-0.000323664897042436,-0.000436860419178616,0.000220302851032296,-6.79582896691966e-05,0.000523477793227213
11.3405670283514,0.000220879147183264,-0.000318699613587141,-0.000431836349860758,0.000225326913793669,-6.29930190538969e-05,0.000528327439818486
11.4105705285264,0.000225707097932023,-0.000313756542861986,-0.000426834756499894,0.000230328500251302,-5.80499618467654e-05,0.000533155390567244
11.4805740287014,0.000230422913008482,-0.000308928281201057,-0.000421949331700644,0.000235213917940612,-5.32217141076926e-05,0.000537871205643703
11.5505775288764,0.000234954501472949,-0.000304288638553145,-0.000417254759250457,0.000239908483208824,-4.85820855218308e-05,0.00054240279410817
11.6205810290515,0.000239351197213561,-0.000299787104716415,-0.000412699930925117,0.000244463304231736,-4.40805659822077e-05,0.000546799489848782
11.6905845292265,0.000243768139184641,-0.000295264841503266,-0.000408124128013474,0.00024903909947575,-3.95583177804377e-05,0.000551216431819862
11.7605880294015,0.000248355457960569,-0.000290568138483677,-0.000403371820296214,0.000253791398885199,-3.48616310248226e-05,0.00055580375059579
11.8305915295765,0.000253163322160991,-0.000285645630729486,-0.000398391034754885,0.000258772175353405,-2.99391410321045e-05,0.000560611614796212
11.9005950297515,0.000258139038058228,-0.000280551268405445,-0.000393236360298557,0.000263926840034373,-2.48447978435111e-05,0.000565587330693449
11.9705985299265,0.000263194224906891,-0.00027537553967372,-0.000387999356396129,0.000269163833608839,-1.96690893282607e-05,0.000570642517542113
12.0406020301015,0.000268266116873043,-0.000270182707019383,-0.00038274504633993,0.000274418132903972,-1.44762777375138e-05,0.000575714409508265
12.1106055302765,0.000273326632157569,-0.000265001521860585,-0.000377502521933078,0.000279660646177682,-9.29511436997867e-06,0.000580774924792791
12.1806090304515,0.000278356463709358,-0.000259851751639907,-0.000372291784637781,0.00028487137201732,-4.14536657125271e-06,0.000585804756344579
12.2506125306265,0.000283329601149286,-0.000254760026979503,-0.000367139780343312,0.000290023364604749,9.46335175719034e-07,0.000590777893784507
12.3206160308015,0.000288228622641895,-0.000249744185166869,-0.000362064557497947,0.000295098575548935,5.96215369544884e-06,0.000595676915277117
12.3906195309765,0.000293070749224523,-0.000244786594537131,-0.000357048275690277,0.000300114845236088,1.09197206034595e-05,0.000600519041859745
12.4606230311516,0.000297912548892485,-0.00023982933820148,-0.000352032332367445,0.000305130776088087,1.58769525321896e-05,0.000605360841527706
12.5306265313266,0.000302824286107726,-0.000234800476182989,-0.000346943935885053,0.000310219159568522,2.09057891046962e-05,0.000610272578742947
12.6006300315016,0.000307854678759904,-0.000229650128855945,-0.000341732616123317,0.000315430465658733,2.60561096757371e-05,0.000615302971395126
12.6706335316766,0.000313013041626724,-0.000224368759302288,-0.000336388723273731,0.000320774344128003,3.13374510865995e-05,0.000620461334261946
12.7406370318516,0.000318276716387746,-0.000218979566135569,-0.00033093573059752,0.000326227321766034,3.67266148233913e-05,0.000625725009022967
12.8106405320266,0.000323610381305385,-0.000213518713368787,-0.00032541023024034,0.000331752806521311,4.21874370573279e-05,0.000631058673940607
12.8806440322016,0.000328980147874191,-0.000208020897616541,-0.000319847329571553,0.000337315691123135,4.76852213668722e-05,0.000636428440509412
12.9506475323766,0.00033435751481605,-0.000202515299810468,-0.000314276554975353,0.000342886449277634,5.31907869971164e-05,0.000641805807451271
13.0206510325516,0.000339720082674201,-0.00019702485356228,-0.000308721111553875,0.00034844187596045,5.86812004885314e-05,0.000647168375309422
13.0906545327266,0.000345056080169512,-0.000191561610866751,-0.000303193193970063,0.000353969776557318,6.41444099415769e-05,0.000652504372804733
13.1606580329016,0.00035037130695532,-0.000186119633781399,-0.000297686793980433,0.00035947615930561,6.95863532867471e-05,0.000657819599590541
13.2306615330767,0.000355691024124694,-0.000180673058830826,-0.00029217574192919,0.000364987193789464,7.50328938591886e-05,0.000663139316759915
13.3006650332517,0.000361052087445595,-0.000175184151362553,-0.000286621856455654,0.000370541061254371,8.05217660859303e-05,0.000668500380080815
13.3706685334267,0.000366488712238953,-0.000169617880128783,-0.000280989691612095,0.000376173207535827,8.6088000995114e-05,0.000673937004874174
13.4406720336017,0.00037202026869051,-0.000163954413020339,-0.000275259180521113,0.00038190369944554,9.1751430567322e-05,0.00067946856132573
13.5106755337767,0.000377647159722573,-0.00015819333750025,-0.000269429905767502,0.00038773295439774,9.75124673375765e-05,0.000685095452357793
13.5806790339517,0.000383354467775202,-0.000152349926863307,-0.000263517321454657,0.000393645518343814,0.000103355838118246,0.000690802760410423
13.6506825341267,0.000389118905802569,-0.000146448023482658,-0.000257545552201369,0.000399617266753178,0.000109257700708759,0.000696567198437788
13.7206860343017,0.000394915273238115,-0.000140513428889943,-0.000251540704973626,0.000405622092758961,0.000115192253771396,0.000702363565873335
13.7906895344767,0.000400721616505968,-0.000134568620199838,-0.000245525522963254,0.000411637253260025,0.000121137020368913,0.000708169909141188
13.8606930346517,0.000406523828351183,-0.000128628041096704,-0.000239514620831279,0.000417648133659314,0.000127077556942101,0.000713972120986402
13.9306965348267,0.000412319402404221,-0.000122694257731158,-0.000233510595100621,0.000423652137455351,0.000133011297382276,0.000719767695039441
14.0007000350017,0.000418118492563486,-0.000116756874070954,-0.000227502926669205,0.000429659783723278,0.000138948637668944,0.000725566785198706
14.0707035351768,0.000423940677973721,-0.000110795844066877,-0.000221471332185972,0.00043569135574977,0.000144909623725283,0.000731388970608941
14.1407070353518,0.000429808074058545,-0.000104788524903453,-0.000215392900796402,0.00044176976431352,0.000150916898218342,0.000737256366693765
14.2107105355268,0.000435737675793185,-9.87175163207498e-05,-0.000209250026262969,0.000447912615595011,0.000156987861296366,0.000743185968428404
14.2807140357018,0.000441736134032568,-9.25760088601017e-05,-0.000203035818519979,0.000454126799643232,0.000163129322385281,0.000749184426667787
14.3507175358768,0.000447798510806989,-8.63690582540679e-05,-0.000196755393147589,0.000460407200907752,0.00016933622581064,0.000755246803442209
14.4207210360518,0.000453910509349482,-8.01113022200882e-05,-0.000190423561136513,0.000466739008465918,0.000175593933988154,0.000761358801984701
14.4907245362268,0.000460052669607453,-7.38226648965415e-05,-0.000184060482474497,0.000473102062419817,0.000181882522955199,0.000767500962242672
14.5607280364018,0.000466205172937845,-6.75234375664355e-05,-0.00017768668863805,0.000479475831384942,0.000188181701608786,0.000773653465573064
14.6307315365768,0.00047235235620833,-6.12296569040429e-05,-0.000171318406129794,0.00048584408893408,0.000194475433422184,0.000779800648843549
14.7007350367518,0.000478486130236405,-5.49496050121071e-05,-0.000164964015086051,0.000492198454975286,0.000200755436379479,0.000785934422871624
14.7707385369268,0.000484607383470445,-4.86823722645405e-05,-0.00015862259510843,0.000498539849914209,0.000207022620120935,0.000792055676105664
14.8407420371019,0.000490724717862808,-4.24191515789739e-05,-0.000152285234858073,0.000504877185064898,0.000213285791680335,0.000798173010498027
14.9107455372769,0.000496850739419325,-3.61470363295581e-05,-0.000145938874926135,0.000511223519794691,0.000219557857602261,0.000804299032054544
14.9807490374519,0.000502997159452645,-2.98540359190783e-05,-0.000139571382776744,0.000517590986601694,0.000225850808409973,0.000810445452087864
15.0507525376269,0.00050819492547848,-2.453231293655e-05,-0.000134186665425518,0.000522975682490199,0.000231172489382752,0.000815643218113699
15.1207560378019,0.0005124166439917,-2.02099141750663e-05,-0.000129813101641224,0.000527349228755017,0.00023549485385236,0.000819864936626919
15.1907595379769,0.000517601107131955,-1.49018108984776e-05,-0.000124442165508536,0.000532720143277118,0.000240802914828983,0.000825049399767175
15.2607630381519,0.000522753253542768,-9.62679510783079e-06,-0.000119104708518779,0.000538057578929145,0.000246077888852965,0.000830201546177987
15.3307665383269,0.000526824380270736,-5.45857970500224e-06,-0.000114887153121537,0.000542275117821023,0.000250246071947059,0.000834272672905955
15.4007700385019,0.000530855973388346,-1.33084128476471e-06,-0.000110710553540823,0.000546451701596228,0.000254373779427284,0.000838304266023566
15.4707735386769,0.00053625667018989,4.19865038890241e-06,-0.00010511560737238,0.000552046627336937,0.000259903231110896,0.000843704962825109
15.5407770388519,0.00054287486835192,1.09746774424822e-05,-9.82593697978352e-05,0.000558902840672037,0.000266679210710058,0.000850323160987139
15.610780539027,0.000549853781984836,1.81200216575861e-05,-9.10294430743569e-05,0.000566132742518295,0.000273824506219547,0.000857302074620055
15.680784039202,0.000556826163334585,2.5258677410174e-05,-8.38062838417625e-05,0.000573355877468407,0.000280963114428395,0.000864274455969804
15.750787539377,0.000563729563994338,3.23267070754925e-05,-7.66545865976971e-05,0.000580507551221755,0.000288031098097661,0.000871177856629557
15.820791039552,0.000570210521655479,3.89622190888393e-05,-6.99405267511012e-05,0.000587221589605189,0.000294666568082414,0.000877658814290698
15.890794539727,0.000575735954791242,4.46194192731999e-05,-6.42163592894944e-05,0.000592945739352854,0.000300323733577386,0.000883184247426461
15.960798039902,0.000580222724374832,4.92131860610587e-05,-5.95682134413083e-05,0.000597593871329778,0.000304917473199003,0.000887671017010051
16.030801540077,0.000584249478717074,5.33359670779372e-05,-5.53966284911489e-05,0.000601765444288872,0.000309040230730159,0.000891697771352293
16.100805040252,0.000588577818080072,5.77675246281518e-05,-5.09126116172832e-05,0.000606249448742716,0.000313471763952646,0.000896026110715291
16.170808540427,0.00059363752991414,6.29478952580419e-05,-4.56709172359253e-05,0.000611491129138166,0.000318652107185371,0.000901085822549359
16.240812040602,0.000599443284329675,6.8892098792785e-05,-3.96563476737131e-05,0.000617505683274833,0.000324596280499963,0.000906891576964894
16.310815540777,0.000605779135192832,7.53790393349222e-05,-3.30926160610359e-05,0.000624069398766336,0.000331083189455637,0.000913227427828051
16.380819040952,0.000612359101245584,8.21159157978643e-05,-2.62759895671017e-05,0.000630886009300543,0.000337820034644373,0.000919807393880803
16.4508225411271,0.000618888716661129,8.88012402712258e-05,-1.95115250459241e-05,0.000637650458798194,0.000344505329673654,0.000926337009296348
16.5208260413021,0.000625097596317686,9.51581798846001e-05,-1.30793324847843e-05,0.000644082637868233,0.000350862242841779,0.000932545888952905
16.5908295414771,0.000630794490347382,0.000100990924212527,-7.17754032800496e-06,0.000649984418372793,0.000356694964324717,0.000938242782982601
16.6608330416521,0.000635925367217515,0.000106244153387796,-1.86212336721922e-06,0.000655299825472185,0.000361948174162098,0.000943373659852734
16.7308365418271,0.000640589331896296,0.000111019335786891,2.96958790570641e-06,0.000660131528327849,0.000366723340051626,0.000948037624531516
16.8008400420021,0.000644995476400922,0.00011553054956144,7.53420587302794e-06,0.000664696138834014,0.000371234539188519,0.000952443769036141
16.8708435421771,0.000649382976049332,0.000120022673460832,1.20795081664057e-05,0.000669241434171028,0.00037572664943712,0.000956831268684551
16.9408470423521,0.000653942626103788,0.000124691052436812,1.68031522634241e-05,0.000673965071528401,0.000380395015183759,0.000961390918739008
17.0108505425271,0.000658768456229385,0.00012963195832993,2.1802549707688e-05,0.000678964462367815,0.000385335908107688,0.000966216748864604
17.0808540427021,0.000663848029782219,0.000134832657876543,2.70648165206823e-05,0.000684226722801174,0.000390536595122127,0.000971296322417438
17.1508575428771,0.000669083081254649,0.000140192542311607,3.24881529234658e-05,0.000689650053234303,0.000395896467824363,0.000976531373889868
17.2208610430522,0.000674325168249007,0.000145559629519865,3.79187775968134e-05,0.0006950806725434,0.000401263544482931,0.000981773460884226
17.2908645432272,0.000679414281367896,0.000150770094616976,4.31909262315881e-05,0.000700352816562272,0.000406474000494874,0.000986862574003115
17.3608680434022,0.000684215551189918,0.000155685852218163,4.81648787111187e-05,0.000705326765231057,0.00041138975058815,0.000991663843825137
17.4308715435772,0.000688651736692502,0.00016022781954111,5.27606160041012e-05,0.000709922499484288,0.000415931711914658,0.000996100029327721
17.5008750437522,0.000692724722472592,0.000164397926204394,5.69800905374327e-05,0.000714141971644387,0.000420101813888784,0.00100017301510781
17.5708785439272,0.000696515186929132,0.000168278774466046,6.09068824262622e-05,0.000718068761690606,0.000423982658501959,0.00100396347956435
17.6408820441022,0.00070015511138699,0.000172005492800854,6.4677719849789e-05,0.000721839597677984,0.000427709373984674,0.00100760340402221
17.7108855442772,0.000703781887464005,0.000175718748947389,6.84349358445564e-05,0.000725596812561772,0.000431422627914916,0.00101123018009922
17.7808890444522,0.000707493644984166,0.000179519012624066,7.22801895523899e-05,0.000729442065454161,0.000435222889951966,0.00101494193761938
17.8508925446272,0.000711323503444899,0.000183440193043605,7.62477916310886e-05,0.000733409667021848,0.000439144069325535,0.00101877179608012
17.9208960448022,0.000715238599384253,0.000187448643110051,8.03036966525197e-05,0.000737465571858483,0.000443152518982639,0.00102268689201947
17.9908995449772,0.000719158391930474,0.000191461901478655,8.43644670354802e-05,0.000741526342391949,0.000447165777597285,0.00102660668456569
18.0609030451523,0.000722982499289109,0.000195377192805987,8.83261106975793e-05,0.000745487986520936,0.000451081069790295,0.00103043079192433
18.1309065453273,0.000726619722711649,0.000199101143784261,9.20941488901416e-05,0.00074925602544937,0.000454805022162363,0.00103406801534687
18.2009100455023,0.000730012152462642,0.000202574463895286,9.56085891461037e-05,0.000752770466647216,0.000458278344072928,0.00103746044509786
18.2709135456773,0.000733149144689219,0.00020578625553675,9.88584048274871e-05,0.000756020283417563,0.000461490137804624,0.00104059743732444
18.3409170458523,0.000736067198154377,0.000208773887801894,0.000101881407417212,0.000759043287205397,0.000464477772376099,0.0010435154907896
18.4109205460273,0.000738835493530846,0.000211608190957519,0.000104749265720967,0.000761911146806092,0.000467312078033156,0.00104628378616606
18.4809240462023,0.000741532244210151,0.000214369243351882,0.000107543006120323,0.000764704888612857,0.000470073133145847,0.00104898053684537
18.5509275463773,0.000744220636499674,0.000217121737927147,0.000110328087449921,0.000767489971479996,0.000472825630694009,0.00105166892913489
18.6209310465523,0.000746932505567553,0.000219898268937218,0.000113137489844498,0.000770299375554577,0.000475602164955263,0.00105438079820277
18.6909345467273,0.000749663745224499,0.000222694632287597,0.000115966959435896,0.000773128846962402,0.000478398531823359,0.00105711203785972
18.7609380469023,0.000752380679426919,0.000225476348967879,0.000118781609013253,0.000775943498464527,0.000481180252233406,0.00105982897206214
18.8309415470774,0.000755033581749187,0.000228192506886844,0.000121529923729956,0.0007786918151683,0.000483896414004793,0.0010624818743844
18.9009450472524,0.000757572641174473,0.000230792107352084,0.000124160301109601,0.000781322194543519,0.00048649601834054,0.00106502093380969
18.9709485474274,0.000759962088860291,0.000233238528670974,0.00012663568588357,0.000783797581272994,0.000488942443453504,0.00106741038149551
19.0409520476024,0.000762189142517391,0.000235518683794355,0.000128942836054761,0.000786104733327733,0.000491222602232335,0.00106963743515261
19.1109555477774,0.000764265787681426,0.000237644844056475,0.000131094168230981,0.00078825606730617,0.00049334876599281,0.00107171408031665
19.1809590479524,0.000766223337030973,0.000239649068763474,0.000133122121266121,0.000790284022073534,0.000495352994062855,0.00107367162966619
19.2509625481274,0.000768101874168264,0.000241572397272735,0.00013506822038365,0.000792230122876924,0.000497276325845572,0.00107555016680348
19.3209660483024,0.000769938241287597,0.000243452550242483,0.000136970632819249,0.000794132536976557,0.000499156482046706,0.00107738653392282
19.3909695484774,0.000771756403741414,0.000245314064454338,0.000138854185847211,0.000796016091662097,0.000501017999477651,0.00107920469637663
19.4609730486524,0.000773562785197077,0.000247163516744394,0.000140725534165902,0.000797887441632533,0.000502867454975636,0.0010810110778323
19.5309765488274,0.000775347222314326,0.00024899050144507,0.000142574148910939,0.000799736058009244,0.000504694442845373,0.00108279551494954
19.6009800490025,0.000777088427752338,0.000250773223651298,0.000144377977140638,0.000801539887826034,0.000506477168134115,0.00108453672038756
19.6709835491775,0.000778761807957513,0.000252486503413436,0.000146111540792049,0.00080327345299241,0.00050819045083866,0.00108621010059273
19.7409870493525,0.000780347221285208,0.000254109718840902,0.000147753973824826,0.000804915887444978,0.000509813669023592,0.00108779551392043
19.8109905495275,0.000781834606247377,0.000255632568547448,0.000149294852889667,0.000806456767821396,0.00051133652127728,0.0010892828988826
19.8809940497025,0.00078322617592245,0.00025705731838345,0.000150736470660482,0.000807898386794575,0.000512761273448108,0.00109067446855767
19.9509975498775,0.000784534905553295,0.000258397252972595,0.000152092269038654,0.000809254186275157,0.000514101210177713,0.00109198319818852
20.0210010500525,0.00078534864315923,0.000259230393101087,0.000152935272901716,0.000810097190808254,0.000514934351607001,0.00109279693579445
20.0910045502275,0.000790337223051481,0.000264337919309022,0.000158103268257649,0.000815265190130196,0.000520041885512981,0.0010977855156867
20.1610080504025,0.000795781504741184,0.000269912012810531,0.000163743354744924,0.000820905281147654,0.000525615987810291,0.00110322979737641
20.2310115505775,0.00079693837144115,0.000271096463466969,0.00016494182839522,0.00082210375579879,0.000526800440410435,0.00110438666407637
20.3010150507525,0.000788884357632676,0.000262850412383338,0.000156598150056398,0.000813760071275982,0.000518554377323647,0.0010963326502679
20.3710185509275,0.000776903644882108,0.000250584034206259,0.000144186546925741,0.000801348461867639,0.000506287986995597,0.00108435193751733
20.4410220511026,0.000770259597867028,0.000243781567085572,0.000137303543681214,0.000794465457161961,0.000499485517081573,0.00107770789050225
20.5110255512776,0.000771096606926139,0.000244638533870471,0.000138170656295684,0.000795332569628302,0.000500342483569678,0.00107854489956136
20.5810290514526,0.000776354211270007,0.000250021501072309,0.000143617353713741,0.000800779266012416,0.000505725448705285,0.00108380250390523
20.6510325516276,0.000783037736302766,0.000256864388891337,0.000150541256115901,0.000807703166706671,0.000512568333129537,0.00109048602893799
20.7210360518026,0.00078947953476246,0.000263459786455839,0.000157214738192969,0.000814376646868249,0.000519163726896372,0.00109692782739768
20.7910395519776,0.000794140932881558,0.000268232331681459,0.000162043786743714,0.000819205693754967,0.000523936268831353,0.00110158922551678
20.8610430521526,0.000795455501213473,0.000269578244838644,0.000163405634488069,0.00082056754091793,0.000525282180841619,0.00110290379384869
20.9310465523276,0.000793270678221619,0.000267341326197578,0.000161142232498488,0.000818304140457861,0.000523045265206714,0.00110071897085684
21.0010500525026,0.000789459259241124,0.000263439025964405,0.000157193732243283,0.000814355643761021,0.000519142971956309,0.00109690755187634
21.0710535526776,0.000786444251362883,0.000260352126373495,0.000154070286424961,0.000811232201545475,0.00051605607942806,0.0010938925439981
21.1410570528526,0.000785582909507678,0.000259470246040907,0.000153177965420184,0.000810339881756099,0.00051517420147673,0.0010930312021429
21.2110605530277,0.000786933767213893,0.000260853314852797,0.0001545774084574,0.000811739322470075,0.00051655726573939,0.00109438205984911
21.2810640532027,0.000789848909529255,0.000263837968846204,0.000157597397838452,0.000814759306306781,0.000519541908878848,0.00109729720216447
21.3510675533777,0.000793507539939665,0.000267583839838611,0.000161387616168401,0.000818549517010575,0.000523287764944858,0.00110095583257488
21.4210710535527,0.000797151475495548,0.000271314665979735,0.000165162611412961,0.000822324503994614,0.000527018574920707,0.00110459976813077
21.4910745537277,0.000800172934827061,0.000274408173139316,0.000168292742377807,0.000825454627540576,0.000530112067564194,0.00110762122746228
21.5610780539027,0.000802194300839909,0.000276477739626418,0.000170386810237125,0.000827548690039987,0.00053218162356526,0.00110964259347513
21.6310815540777,0.000803137758485249,0.000277443694603886,0.000171364201014439,0.000828526078128051,0.000533147573282124,0.00111058605112047
21.7010850542527,0.000803220903337112,0.000277528822100826,0.000171450336321972,0.000828612213191283,0.000533232700301195,0.00111066919597233
21.7710885544277,0.000802858027502824,0.000277157293164575,0.000171074408941072,0.000828236287007797,0.000532861173706791,0.00111030632013804
21.8410920546027,0.000802510664668711,0.000276801647109716,0.000170714552488053,0.000827876431764392,0.000532505530017477,0.00110995895730393
21.9110955547777,0.000802550435460129,0.000276842366286711,0.000170755753725095,0.000827917632846444,0.000532546248891411,0.00110999872809535
21.9810990549527,0.000803175935803558,0.00027748278248672,0.000171403751588362,0.000828565628275582,0.000533186660331817,0.00111062422843878
22.0511025551278,0.000804394035724063,0.000278729929693851,0.00017266566329153,0.00082982753502927,0.000534433797861381,0.00111184232835928
22.1211060553028,0.000806052746772519,0.000280428195195984,0.000174384033846739,0.000831545898562306,0.000536132049633868,0.00111350103940774
22.1911095554778,0.000807902630549135,0.000282322192424611,0.000176300453249845,0.000833462309828033,0.000538026030953033,0.00111535092318436
22.2611130556528,0.000809666324024977,0.000284127944188478,0.000178127582430461,0.000835289430969472,0.00053983176699998,0.0011171146166602
22.3311165558278,0.000811105041573554,0.000285600970560412,0.000179618047198289,0.000836779888960804,0.000541304780123992,0.00111855333420877
22.4011200560028,0.000812075781073684,0.000286594859191044,0.000180623701931495,0.000837785538982929,0.000542298659544804,0.0011195240737089
22.4711235561778,0.00081256812543198,0.000287098944479881,0.000181133754795617,0.000838295589392653,0.000542802740035587,0.0011200164180672
22.5411270563528,0.000812704190219796,0.000287238254013549,0.000181274713531151,0.000838436547434093,0.00054294204821241,0.00112015248285502
22.6111305565278,0.000812693914699878,0.000287227733451541,0.000181264068422896,0.000838425902379928,0.000542931527756136,0.0011201422073351
22.6811340567028,0.000812760297237523,0.000287295699029522,0.000181332838600635,0.000838494672201308,0.000542999492637521,0.00112020858987274
22.7511375568778,0.00081306669658949,0.000287609405178237,0.000181650258504086,0.000838812090433007,0.000543313195518407,0.00112051498922471
22.8211410570529,0.000813674999625496,0.000288232214636308,0.000182280440968917,0.000839442269521133,0.000543935998376007,0.00112112329226072
22.8911445572279,0.000814543891481508,0.000289121827323861,0.000183180585142405,0.000840342408790006,0.000544825601476598,0.00112199218411673
22.9611480574029,0.000815557825580226,0.000290159941198992,0.000184230988481701,0.000841392806313719,0.000545863703984249,0.00112300611821545
23.0311515575779,0.000816570318922856,0.000291196580018201,0.00018527989928306,0.000842441711219663,0.000546900331280063,0.00112401861155808
23.1011550577529,0.000817447719129136,0.000292094904109685,0.000186188857937038,0.000843350664693254,0.000547798645245874,0.00112489601176436
23.1711585579279,0.000818104047981551,0.000292766884859997,0.000186868793735187,0.00084403059656713,0.0005484706183258,0.00112555234061677
23.2411620581029,0.000818520064416252,0.000293192822326129,0.000187299773531055,0.00084446157384748,0.000548896550875137,0.00112596835705147
23.3111655582779,0.000818742114526226,0.000293420167827663,0.000187529810389225,0.000844691609349503,0.000549123893725986,0.00112619040716145
23.3811690584529,0.000818861490560013,0.000293542390713733,0.000187653480170022,0.000844815278394478,0.000549246115173845,0.00112630978319523
23.4511725586279,0.000818981948583578,0.000293665721397088,0.000187778270860805,0.000844940068336259,0.000549369444393238,0.0011264302412188
23.5211760588029,0.000819187393446756,0.000293876065676708,0.000187991105225625,0.000845152901413707,0.000549579786156634,0.00112663568608198
23.5911795589779,0.000819520427050161,0.000294217041423054,0.000188336117487098,0.000845497911573095,0.000549920757794385,0.00112696871968538
23.661183059153,0.000819976667057949,0.00029468416179857,0.000188808767689134,0.000845970558874937,0.000550387872501398,0.00112742495969317
23.731186559328,0.00082051338889961,0.000295233683347354,0.000189364794533402,0.000846526582283812,0.00055093738733564,0.00112796168153483
23.801190059503,0.000821067164255761,0.00029580066511813,0.0001899384882897,0.000847100272472004,0.000551504362132516,0.00112851545689098
23.871193559678,0.000821574225345317,0.000296319818596492,0.000190463787552351,0.000847625568447116,0.000552023509185367,0.00112902251798054
23.941197059853,0.000821988086879391,0.000296743549908034,0.000190892535028183,0.000848054313224235,0.000552447235222273,0.00112943637951461
24.011200560028,0.000822290405376225,0.000297053078109275,0.000191205727445638,0.000848367503660066,0.000552756759550441,0.00112973869801144
24.081204060203,0.000822492907687304,0.000297260409708618,0.000191415513449044,0.000848577288329896,0.000552964088543323,0.00112994120032252
24.151207560378,0.000822630594649378,0.000297401380241167,0.000191558152798204,0.000848719926768432,0.000553105057296069,0.0011300788872846
24.221211060553,0.00082274895794272,0.000297522566274822,0.000191680773437601,0.000848842546621859,0.000553226241793554,0.00113019725057794
24.291214560728,0.000822889671980342,0.000297666636078327,0.000191826548744892,0.00084898832099122,0.000553370309763893,0.00113033796461556
24.361218060903,0.000823079292341796,0.000297860778533227,0.000192022989464134,0.000849184760441955,0.000553564449739521,0.00113052758497702
24.4312215610781,0.000823323925168159,0.000298111245402573,0.000192276421366199,0.000849438190701641,0.00055381491339887,0.00113077221780338
24.5012250612531,0.000823610496198777,0.000298404650630377,0.000192573299929957,0.000849735067334626,0.000554108314853023,0.001131058788834
24.5712285614281,0.000823913195472284,0.000298714568735697,0.000192886886848777,0.000850048652206875,0.00055441822895837,0.0011313614881075
24.6412320616031,0.000824202512270017,0.000299010785222383,0.000193186609947027,0.000850348373342404,0.00055471444160897,0.00113165080490524
24.7112355617781,0.000824454051340242,0.000299268323054457,0.000193447196510918,0.000850608958194358,0.000554971976095111,0.00113190234397546
24.7812390619531,0.00082465479889976,0.000299473858091372,0.000193655164669433,0.000850816924982481,0.000555177508453637,0.00113210309153498
24.8512425621281,0.000824805442659027,0.000299628094442531,0.00019381122686792,0.000850972986149704,0.000555331742789218,0.00113225373529425
24.9212460623031,0.000824918541772841,0.000299743890775341,0.000193928393995059,0.000851090152500537,0.000555447537604763,0.00113236683440806
24.9912495624781,0.000825013528605771,0.000299841142881932,0.000194026797369267,0.0008511885552211,0.000555544788433825,0.00113246182124099
25.0612530626531,0.000827058302147324,0.00030193468079037,0.000196145118508405,0.000853306862290364,0.000557638298843038,0.00113450659478254
25.1312565628281,0.000832581200585519,0.000307589291457159,0.000201866668128748,0.000859028373038131,0.000563292833535839,0.00114002949322074
25.2012600630032,0.000835907736917056,0.000310995160771646,0.000205312855807422,0.000862474536521909,0.000566698655564294,0.00114335602955227
25.2712635631782,0.000830412040060791,0.000305368398315293,0.00019961948459095,0.000856781207666339,0.000561071975892907,0.00113786033269601
25.3412670633532,0.000816939148262456,0.000291574193505988,0.000185661986293004,0.000842823815446448,0.000547277978385117,0.00112438744089767
25.4112705635282,0.000805942830762988,0.00028031562618377,0.000174270141904252,0.000831432058401338,0.000536019581750834,0.00111339112339821
25.4812740637032,0.000803179566412688,0.000277486460984017,0.000171407485516529,0.000828569424197784,0.000533190459903063,0.00111062785904791
25.5512775638782,0.000806660998443116,0.0002810509220142,0.00017501414190659,0.000832176051456493,0.000536754864007351,0.00111410929107833
25.6212810640532,0.000812691010217619,0.000287224745179985,0.00018126104925486,0.000838422906453824,0.000542928584876689,0.00112013930285284
25.6912845642282,0.000819028962880772,0.000293713854700042,0.000187826974897062,0.000844988774815951,0.000549417582472036,0.00112647725551599
25.7612880644032,0.000824087071433126,0.000298892597526392,0.000193067021846747,0.000850228774270927,0.000554596232496908,0.00113153536406834
25.8312915645782,0.000826103506059035,0.000300957123807823,0.000195155987171694,0.000852317720081996,0.00055666072065041,0.00113355179869425
25.9012950647532,0.000824290506150168,0.000299100883873139,0.000193277773866988,0.000850439524784376,0.000554804515898829,0.00113173879878539
25.9712985649282,0.00082006079163563,0.000294770290689951,0.000188895916975056,0.000846057710002922,0.00055047400499285,0.00112750908427085
26.0413020651033,0.000816013188289875,0.0002906261521413,0.000184702721836243,0.000841864555024932,0.000546329944912161,0.00112346148092509
26.1113055652783,0.000813970641378287,0.000288534890587519,0.000182586704778374,0.000839748558207532,0.00054423872290506,0.0011214189340135
26.1813090654533,0.000814307368685017,0.000288879648845287,0.000182935544140939,0.000840097394188869,0.000544583474556523,0.00112175566132023
26.2513125656283,0.000816464813186058,0.000291088548541673,0.000185170591845968,0.000842332420024111,0.000546792331523638,0.00112391310582127
26.3213160658033,0.000819596201083392,0.0002942946205788,0.000188414615911472,0.000845576411753418,0.000549998340383085,0.00112704449371861
26.3913195659783,0.000822891628176519,0.000297668644561501,0.000191828579965892,0.000848990341088234,0.000553372296532493,0.00113033992081174
26.4613230661533,0.000825690592115279,0.000300534364907318,0.000194728223253423,0.000851889954339363,0.000556237958195608,0.0011331388847505
26.5313265663283,0.000827559513487015,0.000302447860960606,0.000196664370261957,0.000853826081002703,0.000558151414500518,0.00113500780612223
26.6013300665033,0.000828363684676541,0.00030327121206559,0.000197497467752788,0.000854659169660739,0.000558974748349,0.00113581197731176
26.6713335666783,0.000828272894666017,0.000303178256662097,0.000197403411993606,0.000854565114904207,0.00055888179490436,0.00113572118730123
26.7413370668533,0.00082767214097109,0.000302563174658148,0.000196781048980065,0.000853942758517762,0.000558266725847623,0.00113512043360631
26.8113405670284,0.000827016269151806,0.000301891659942122,0.000196101585229789,0.000853263301990799,0.000557595225243641,0.00113446456178702
26.8813440672034,0.00082669106159001,0.000301558696008815,0.000195764679844386,0.000852926400182307,0.000557262268298478,0.00113413935422523
26.9513475673784,0.000826923268895739,0.000301796441580356,0.000196005239724209,0.000853166957506376,0.000557500008876897,0.00113437156153095
27.0213510675534,0.000827752136168508,0.0003026450777818,0.000196863921638468,0.000854025630273868,0.00055834862720853,0.00113520042880372
27.0913545677284,0.000829053277894798,0.000303977252468847,0.000198211865909627,0.000855373560118054,0.000559680773710065,0.00113650157053001
27.1613580679034,0.000830594793628934,0.000305555534271224,0.000199808830573272,0.000856970507585846,0.000561259021917615,0.00113804308626415
27.2313615680784,0.000832105337409937,0.000307102105474723,0.000201373709254706,0.000858535369311468,0.000562805559995403,0.00113955363004515
27.3013650682534,0.00083334130426791,0.000308367550959435,0.000202654134395776,0.00085981578050469,0.00056407097823102,0.00114078959690313
27.3713685684284,0.000834145927228393,0.000309191364724721,0.000203487700019023,0.000860649337015277,0.000564894774193484,0.00114159421986361
27.4413720686034,0.000834489780854166,0.000309543419495193,0.000203843922222149,0.000861005555318399,0.000565246821344776,0.00114193807348938
27.5113755687784,0.000834476418359859,0.000309529738296644,0.000203830079072824,0.000860991712320197,0.000565233140441465,0.00114192471099507
27.5813790689534,0.000834303336157552,0.000309352527969472,0.000203650771024271,0.000860812406229949,0.000565055933940112,0.00114175162879277
27.6513825691285,0.000834189936816084,0.000309236423980526,0.000203533292657508,0.000860694929143927,0.000564939832453274,0.0011416382294513
27.7213860693035,0.000834303565689249,0.000309352762973724,0.000203651008811261,0.00086081264401656,0.000565056168943621,0.00114175185832446
27.7913895694785,0.000834714050033801,0.000309773037626455,0.000204076258458262,0.000861237889035175,0.000565476434554142,0.00114216234266902
27.8613930696535,0.000835388444703127,0.00031046351703222,0.00020477491140386,0.00086193653436771,0.000566166899086721,0.00114283673733834
27.9313965698285,0.000836217939785477,0.000311312796100494,0.000205634243801063,0.000862795857381478,0.000567016159823171,0.00114366623242069
28.0014000700035,0.000837060488247622,0.000312175439889185,0.000206507099123336,0.000863668703149526,0.000567878784946412,0.00114450878088284
28.0714035701785,0.000837784622819024,0.00031291684554593,0.000207257281159229,0.000864418876956148,0.00056862017452621,0.00114523291545424
28.1414070703535,0.000838304538524552,0.000313449161585201,0.000207795898482921,0.000864957488362826,0.000569152479005841,0.00114575283115977
28.2114105705285,0.000838599417174674,0.000313751073286052,0.000208101384060538,0.000865262970582798,0.000569454384147106,0.00114604770980989
28.2814140707035,0.000838712613466162,0.000313866969383222,0.000208218652077052,0.00086538023731083,0.000569570277727063,0.00114616090610138
28.3514175708785,0.000838731507199974,0.000313886313744786,0.000208238225427463,0.000865399810446361,0.000569589621668832,0.00114617979983519
28.4214210710536,0.000838755681214416,0.000313911064324711,0.00020826326899251,0.00086542485373689,0.000569614371712451,0.00114620397384963
28.4914245712286,0.000838865347013871,0.000314023345721701,0.00020837687952161,0.000865538463021516,0.000569726650678196,0.00114631363964909
28.5614280714036,0.000839100561081137,0.00031426416978942,0.000208620554347461,0.000865782135178857,0.000569967469532629,0.00114654885371635
28.6314315715786,0.000839455983977932,0.000314628069740444,0.000208988761970192,0.000866150338768079,0.000570331361603665,0.00114690427661315
28.7014350717536,0.000839889638333333,0.000315072067018478,0.000209438015074527,0.000866599586947373,0.000570775349259993,0.00114733793096855
28.7714385719286,0.000840340319467411,0.000315533497175038,0.00020990490742049,0.000867066474169895,0.000571236769407253,0.00114778861210262
28.8414420721036,0.000840747426766991,0.000315950314234889,0.000210326658562235,0.000867488220679183,0.000571653577417015,0.00114819571940221
28.9114455722786,0.000841067828057804,0.000316278357294123,0.000210658584839888,0.000867820143308492,0.000571981613348752,0.00114851612069302
28.9814490724536,0.000841285870520443,0.00031650160020347,0.0002108844703938,0.000868046026378817,0.000572204851406103,0.00114873416315566
29.0514525726286,0.000841414571051398,0.000316633370320568,0.000211017800344046,0.0008681793548632,0.000572336618659456,0.00114886286368661
29.1214560728036,0.000841488422623206,0.000316708983296924,0.000211094308391831,0.000868255862070119,0.000572412229993074,0.00114893671525842
29.1914595729786,0.000841550715779627,0.000316772762182256,0.000211158842262375,0.000868320395231721,0.000572476007493399,0.00114899900841484
29.2614630731537,0.00084163983042862,0.000316864002268156,0.00021125116240697,0.000868412714362482,0.000572567245598646,0.00114908812306383
29.3314665733287,0.00084177883881183,0.000317006326082524,0.000211395170986548,0.000868556721360797,0.000572709566323818,0.00114922713144704
29.4014700735037,0.000841971093007457,0.000317203165652345,0.000211594340655223,0.000868755888842236,0.000572906401620599,0.00114941938564267
29.4714735736787,0.000842202157353543,0.000317439741016704,0.000211833716493779,0.000868995262051094,0.000573142971847514,0.00114965044998876
29.5414770738537,0.000842446502386403,0.00031768991381951,0.000212086850732002,0.000869248393507122,0.000573393139214959,0.00114989479502162
29.6114805740287,0.000842676344229377,0.000317925237522652,0.000212324960094186,0.000869486500250925,0.000573628457802772,0.00115012463686459
29.6814840742037,0.000842869896785855,0.000318123406418566,0.000212525474827418,0.000869687012778252,0.000573826622389183,0.00115031818942107
29.7514875743787,0.000843016860480268,0.000318273875280935,0.000212677724875325,0.000869839261150761,0.000573977087978457,0.00115046515311548
29.8214910745537,0.000843119959848944,0.000318379433627988,0.000212784532776963,0.00086994606787692,0.000574082644029071,0.00115056825248416
29.8914945747287,0.00084319254544059,0.000318453750426806,0.000212859729306548,0.000870021263578935,0.000574156959211132,0.0011506408380758
29.9614980749037,0.000843253408065216,0.000318516064658949,0.000212922781188398,0.000870084314766922,0.000574219272087729,0.00115070170070043
30.0315015750788,0.00084236671639095,0.000317608224886724,0.000212004194787868,0.000869165738500884,0.000573311452114407,0.00114981500902616
30.1015050752538,0.000820151055600451,0.000294862714860716,0.000188989432236419,0.00084615121461098,0.000550566408371498,0.00112759934823566
30.1715085754288,0.000809830160044961,0.000284295667870307,0.000178297296292482,0.00083545917902221,0.000539999557470813,0.00111727845268017
30.2415120756038,0.000811895753168824,0.000286410524709317,0.000180437188045892,0.000837599051468961,0.000542114376583514,0.00111934404580404
30.3115155757788,0.000818099413881912,0.000292762140786304,0.0001868639922257,0.000844025797539603,0.000548465879111856,0.00112554770651713
30.3815190759538,0.000824659039176219,0.00029947821130704,0.000193659565061276,0.000850821308577459,0.000555181828876636,0.00113210733181143
30.4515225761288,0.000830008359988583,0.000304955112108625,0.000199201299302208,0.000856362992106162,0.000560658630584251,0.0011374566526238
30.5215260763038,0.000831215487741284,0.000306191029587097,0.00020045184708803,0.000857613528406483,0.000561894525619585,0.0011386637803765
30.5915295764788,0.000826210706833733,0.000301066885859066,0.000195267045815769,0.000852428774361113,0.000556770474176268,0.00113365899946895
30.6615330766538,0.000817834968131278,0.00029249138822059,0.000186590034968367,0.000843751841291246,0.000548195128524149,0.00112528326076649
30.7315365768288,0.000811362628036695,0.000285864685020869,0.000179884887644465,0.000837046753069034,0.000541568540818821,0.00111881092067191
30.8015400770038,0.000809431238900917,0.000283887232962953,0.000177884027354992,0.000835045910247148,0.000539591122895941,0.00111687953153613
30.8715435771789,0.000811471529607747,0.000285976183851354,0.000179997706334676,0.000837159570829196,0.000541680037831554,0.00111891982224296
30.9415470773539,0.000815761328401697,0.000290368292834345,0.00018444180717506,0.000841603632865391,0.000546072070983273,0.00112320962103691
31.0115505775289,0.000820766798257154,0.000295493141504124,0.000189627321533263,0.000846789101694654,0.000551196830680686,0.00112821509089237
31.0815540777039,0.000825282266483661,0.000300116302287147,0.000194305209228002,0.000851466948066898,0.000555819910711993,0.00113273055911887
31.1515575778789,0.000828319432192815,0.000303225903553982,0.000197451620552391,0.000854613331457262,0.000558929457390856,0.00113576772482803
31.2215610780539,0.000829349906394546,0.000304280954294477,0.000198519160503063,0.000855680861905098,0.000559984489561166,0.00113679819902976
31.2915645782289,0.000828615246686278,0.000303528773139173,0.000197758075376064,0.000854919783549779,0.000559232321638955,0.00113606353932149
31.3615680784039,0.000826995730979314,0.000301870632396409,0.000196080306342437,0.000853242029409165,0.000557574209999997,0.00113444402361453
31.4315715785789,0.000825494921396813,0.000300334028892246,0.000194525513258827,0.000851687250086325,0.000556037633387203,0.00113294321403203
31.5015750787539,0.000824799861834483,0.000299622392338695,0.000193805452695567,0.00085096719588234,0.000555326009261044,0.0011322481544697
31.5715785789289,0.000825155161145169,0.000299986165448485,0.000194173531972838,0.000851335271911802,0.000555689776023887,0.00113260345378038
31.641582079104,0.000826457101782399,0.000301319157052081,0.000195522302871672,0.000852684030899177,0.000557022744349802,0.00113390539441761
31.711585579279,0.000828402889374691,0.000303311351226493,0.000197538079647619,0.000854699789837874,0.000559014903666216,0.0011358511820099
31.781589079454,0.000830611786156993,0.000305572929714812,0.000199826429566679,0.000856988119453941,0.000561276442477978,0.00113806007879221
31.851592579629,0.000832708387511851,0.000307719534584727,0.000201998444859726,0.000859160115422135,0.000563423009582898,0.00114015668014707
31.921596079804,0.000834384515223398,0.000309435637623646,0.000203734862252113,0.000860896517327085,0.000565139082356011,0.00114183280785861
31.991599579979,0.000835451998328436,0.000310528580010557,0.000204840742329392,0.000862002387523105,0.000566232005432799,0.00114290029096365
32.061603080154,0.000835882136355858,0.000310968976757333,0.000205286352264457,0.000862447993472674,0.000566672394391046,0.00114333042899107
32.131606580329,0.000835812917881947,0.000310898107433676,0.000205214644027143,0.000862376285876875,0.000566601526321055,0.00114326121051716
32.201610080504,0.000835506644633693,0.000310584529615453,0.000204897354241246,0.000862058998928923,0.000566287954048828,0.00114295493726891
32.271613580679,0.000835263542644108,0.000310335629679364,0.000204645507961247,0.000861807154900925,0.000566039058513674,0.00114271183527932
32.341617080854,0.000835324755874355,0.000310398302836786,0.000204708923009333,0.000861870569381874,0.000566101730562773,0.00114277304850957
32.411620581029,0.000835805434113168,0.000310890445188227,0.000205206891072311,0.000862368532989314,0.000566593864207011,0.00114325372674838
32.4816240812041,0.000836679240175535,0.00031178509141797,0.000206112127630201,0.000863273761438865,0.000567488494591082,0.00114412753281075
32.5516275813791,0.000837808085977621,0.000312940860065653,0.000207281577624498,0.000864443200942288,0.000568644242737036,0.00114525637861284
32.6216310815541,0.000838996089646255,0.000314157197501456,0.000208512313381943,0.000865673925639821,0.000569860558559076,0.00114644438228147
32.6916345817291,0.000840048340752355,0.000315234544701491,0.000209602413610862,0.000866764016055726,0.000570937886582097,0.00114749663338757
32.7616380819041,0.000840822346442939,0.000316027010366124,0.00021040426003408,0.000867565855249933,0.000571730338119482,0.00114827063907816
32.8316415820791,0.0008412631266861,0.00031647830318723,0.000210860895001356,0.000868022486095682,0.000572181622886118,0.00114871141932132
32.9016450822541,0.00084141279548901,0.000316631541581882,0.000211015947343731,0.00086817753703748,0.000572334858543695,0.00114886108812423
32.9716485824291,0.000841389820223626,0.000316608018357543,0.000210992145665216,0.000868153735574139,0.000572311335739862,0.00114883811285884
33.0416520826041,0.000841344570890744,0.000316561689830087,0.000210945268727872,0.000868106859060684,0.000572265008040793,0.00114879286352596
33.1116555827791,0.000841408853947122,0.000316627506035192,0.000211011864026105,0.000868173453756279,0.000572330823068189,0.00114885714658234
33.1816590829541,0.000841658699311532,0.000316883310205005,0.000211270696252632,0.000868432283638954,0.000572586622657505,0.00114910699194675
33.2516625831292,0.000842101001263043,0.000317336161050415,0.000211728907673469,0.000868890490906347,0.000573039465386004,0.00114954929389826
33.3216660833042,0.00084268306261836,0.000317932104564498,0.000212331905605344,0.000869493483365734,0.000573635398205416,0.00115013135525358
33.3916695834792,0.000843316825034986,0.000318580982215992,0.000212988464274296,0.000870150036068084,0.000574284264196608,0.0011507651176702
33.4616730836542,0.000843908141334696,0.000319186401416431,0.000213601050055223,0.000870762616274372,0.00057488967250274,0.00115135643396991
33.5316765838292,0.000844383188878639,0.000319672778854536,0.00021409318492863,0.000871254746663417,0.000575376041177225,0.00115183148151386
33.6016800840042,0.000844706306110802,0.000320003602442718,0.000214427924600455,0.000871589483281494,0.000575706858797578,0.00115215459874602
33.6716835841792,0.000844885635408248,0.000320187208751122,0.000214613704325205,0.000871775261309682,0.00057589046179045,0.00115233392804347
33.7416870843542,0.00084496582718687,0.000320269313107611,0.000214696780581205,0.000871858336806325,0.000575972564662953,0.00115241411982209
33.8116905845292,0.00084501082120117,0.000320315380231799,0.000214743393018679,0.000871904948817344,0.000576018630953733,0.00115245911383639
33.8816940847042,0.000845082908975987,0.000320389187304974,0.00021481807377263,0.000871979628887401,0.000576092436690394,0.00115253120161121
33.9516975848792,0.000845225076606582,0.000320534745644549,0.00021496535513779,0.000872126908902546,0.000576237992391672,0.0011526733692418
34.0217010850543,0.000845451599498245,0.000320766671126733,0.00021520002600302,0.000872361577614491,0.000576469913665749,0.00115289989213346
34.0917045852293,0.000845748313962769,0.000321070462259583,0.000215507413216529,0.000872668962004273,0.000576773699280261,0.00115319660659799
34.1617080854043,0.00084608077448681,0.000321410852001987,0.000215851832268649,0.000873013377888651,0.000577114082832026,0.00115352906712203
34.2317115855793,0.000846406708655776,0.000321744559738128,0.000216189490216019,0.00087335103272661,0.000577447784491519,0.00115385500129099
34.3017150857543,0.000846688822708299,0.00032203340224569,0.000216481751848811,0.000873643291664729,0.000577736621732947,0.00115413711534352
34.3717185859293,0.000846904595199699,0.000322254320939706,0.000216705285630309,0.000873866823382791,0.000577957536394436,0.00115435288783492
34.4417220861043,0.00084705083215884,0.000322404045671125,0.000216856782702166,0.000874018319054605,0.000578107258389783,0.00115449912479406
34.5117255862793,0.000847142277412062,0.00032249767190749,0.000216951517222406,0.000874113052698421,0.00057820088291337,0.00115459057004728
34.5817290864543,0.000847205261055977,0.000322562157721446,0.000217016766375401,0.000874178301247122,0.000578265367546367,0.0011546535536912
34.6517325866293,0.000847268766309759,0.000322627177586352,0.000217082555900789,0.000874244090162552,0.000578330386219242,0.00115471705894498
34.7217360868043,0.000847355870163023,0.000322716358882169,0.000217172792863125,0.000874334326287359,0.000578419565878292,0.00115480416279824
34.7917395869793,0.000847478047376702,0.000322841450045468,0.000217299364768616,0.000874460897016784,0.000578544654743223,0.00115492634001192
34.8617430871544,0.000847633593654538,0.000323000706132831,0.000217460506018153,0.000874622036767335,0.000578703907901142,0.00115508188628976
34.9317465873294,0.000847809998159346,0.00032318131792163,0.000217643255762285,0.000874804784809469,0.000578884516363754,0.00115525829079456
35.0017500875044,0.000847988999268964,0.000323364588246451,0.000217828695511619,0.000874990222829686,0.000579067783309386,0.00115543729190418
35.0717535876794,0.000835035123400556,0.000310101759288517,0.000204408871095242,0.000861570522825316,0.000565805197492885,0.00114248341603577
35.1417570878544,0.000818319845765254,0.000292987817022362,0.000187092349083143,0.000844254157434549,0.000548691561338066,0.00112576813840047
35.2117605880294,0.000816221396502317,0.000290839318959275,0.000184918419160836,0.000842080246996266,0.000546543101357254,0.00112366968913754
35.2817640882044,0.000821287970703214,0.000296026733440169,0.000190167236720697,0.000847329017696493,0.000551730424245527,0.00112873626333843
35.3517675883794,0.000827774498384685,0.000302667968392522,0.00019688708316525,0.000854048804215554,0.000558371542064265,0.0011352227910199
35.4217710885544,0.000833827996568984,0.000308865846218958,0.00020315832419325,0.000860319989376425,0.000564569310687766,0.0011412762892042
35.4917745887294,0.000837365796982326,0.000312488025540055,0.000206823378442616,0.000863985011006178,0.00056819142624653,0.00114481408961754
35.5617780889044,0.000835432761753797,0.000310508885943725,0.000204820812372449,0.000861982462744168,0.000566212321461173,0.00114288105438901
35.6317815890795,0.000828334712339481,0.000303241542170775,0.000197467447626707,0.000854629163438458,0.000558945105610829,0.0011357830049747
35.7017850892545,0.000820694487445058,0.000295419090948911,0.000189552405297017,0.000846714191725507,0.000551122792433256,0.00112814278008028
35.7717885894295,0.000816654781786999,0.000291283034311241,0.000185367392097341,0.000842529215996302,0.000546986809045205,0.00112410307442222
35.8417920896045,0.000817006829618896,0.000291643478883251,0.000185732103046831,0.000842893923659522,0.000547347247192864,0.00112445512225411
35.9117955897795,0.000820414801466806,0.000295132734740456,0.000189262659226176,0.000846424448035394,0.000550836440877117,0.00112786309410202
35.9817990899545,0.000825238673370711,0.000300071661747763,0.000194260045276549,0.000851421789015376,0.000555775279774825,0.00113268696600593
36.0518025901295,0.000830173423829737,0.000305124112151855,0.00019937229822601,0.000856533995825103,0.000560827639977777,0.00113762171646496
36.1218060903045,0.000834140409248729,0.000309185715309521,0.000203481975763031,0.000860643636246365,0.000564889170574973,0.00114158870188395
36.1918095904795,0.000836321070370314,0.000311418388127123,0.000205741075098815,0.000862902715158726,0.000567121803464851,0.00114376936300553
36.2618130906545,0.000836505344780059,0.00031160705773111,0.000205931977845403,0.000863093616179388,0.00056731046969465,0.00114395363741528
36.3318165908295,0.000835258564871813,0.000310330540300484,0.000204640351313788,0.000861802001385362,0.000566033975211382,0.00114270685750703
36.4018200910046,0.000833588025699422,0.000308620156234878,0.000202909722880587,0.000860071388732761,0.000564323621997539,0.00114103631833464
36.4718235911796,0.000832405299303248,0.000307409219952862,0.000201684453814353,0.000858846130880154,0.000563112707638775,0.00113985359193847
36.5418270913546,0.000832209410353682,0.000307208658736658,0.000201481518736417,0.00085864319766373,0.000562912150061943,0.0011396577029889
36.6118305915296,0.000833073468778844,0.000308093326418759,0.000202376657381907,0.000859538328056843,0.000563796801609988,0.00114052176141406
36.6818340917046,0.000834780921806409,0.000309841505172247,0.000204145527597965,0.000861307181926374,0.000565544948404524,0.00114222921444163
36.7518375918796,0.000836971631528678,0.000312084467232205,0.000206415037312413,0.000863576670624328,0.000567787869375068,0.0011444199241639
36.8218410920546,0.00083924856874722,0.000314415713566147,0.0002087738761625,0.000865935487590836,0.000570119072924085,0.00114669686138244
36.8918445922296,0.00084125150658783,0.000316466425220222,0.00021084885987868,0.000868010452022543,0.000572169746874562,0.00114869979922305
36.9618480924046,0.000842715715372931,0.000317965558184694,0.000212365736420536,0.000869527314439608,0.000573668852223116,0.00115016400800815
37.0318515925796,0.000843521243887713,0.00031879030012882,0.000213200239899196,0.000870361810130447,0.000574493578940899,0.00115096953652293
37.1018550927546,0.000843719922580334,0.000318993717704046,0.000213406065092538,0.000870567633398702,0.000574696992752281,0.00115116821521555
37.1718585929296,0.000843519081702995,0.000318788086359622,0.00021319799993575,0.000870359570195721,0.000574491365227873,0.00115096737433821
37.2418620931047,0.000843214444791243,0.000318476183220277,0.00021288240517924,0.000870043978411165,0.000574179467899204,0.00115066273742646
37.3118655932797,0.000843093085076425,0.000318351928818057,0.000212756680131784,0.000869918254550757,0.000574055215817872,0.00115054137771164
37.3818690934547,0.00084334663701672,0.000318611528526124,0.000213019352390767,0.00087018092431942,0.000574314810656907,0.00115079492965194
37.4518725936297,0.000844027748302797,0.000319308885829738,0.000213724963408519,0.000870886528630562,0.000575012154847836,0.00115147604093802
37.5218760938047,0.000845056995898041,0.000320362683306234,0.000214791233294541,0.000871952788357157,0.000576065932460675,0.00115250528853326
37.5918795939797,0.000846265205408326,0.000321599711389109,0.000216042902416713,0.000873204445526234,0.000577302937172849,0.00115371349804355
37.6618830941547,0.000847450086211238,0.000322812854365008,0.000217270403707755,0.00087443193506935,0.00057851605717911,0.00115489837884646
37.7318865943297,0.000848431891937382,0.00032381807848539,0.000218287525268931,0.000875449046874618,0.000579521262224604,0.0011558801845726
37.8018900945047,0.000849098726490308,0.000324500818647569,0.000218978346062186,0.000876139861026445,0.000580203989401329,0.00115654701912553
37.8718935946797,0.000849432736164124,0.000324842795268092,0.000219324370169615,0.000876485881799142,0.000580545959501702,0.00115688102879934
37.9418970948547,0.000849508700283679,0.000324920571319914,0.000219403066743577,0.000876564577612923,0.000580623734067197,0.0011569569929189
38.0119005950298,0.000849463520610826,0.000324874313997877,0.000219356261942087,0.000876517773265211,0.000580577477632402,0.00115691181324605
38.0819040952048,0.000849447525896264,0.000324857937768772,0.00021933969189194,0.000876501203375906,0.000580561101717781,0.00115689581853148
38.1519075953798,0.000849576955870083,0.000324990454983556,0.00021947377751133,0.000876635287687775,0.000580693616376049,0.0011570252485053
38.2219110955548,0.000849904570421933,0.000325325884003901,0.00021981317648827,0.000876974683346792,0.000581029038909052,0.00115735286305715
38.2919145957298,0.000850414781164622,0.000325848264631451,0.000220341739720496,0.000877503241398961,0.000581551409408323,0.00115786307379984
38.3619180959048,0.00085103921124607,0.000326487589053897,0.000220988630816507,0.000878150126140042,0.000582190721405303,0.00115848750388129
38.4319215960798,0.000851683540543994,0.00032714728736397,0.000221656136920943,0.0008788176256717,0.000582850406863937,0.00115913183317921
38.5019250962548,0.000852256553362118,0.000327733968120253,0.000222249761268318,0.000879411244160215,0.000583437076164653,0.00115970484599734
38.5719285964298,0.000852694358765107,0.000328182216405333,0.000222703314734833,0.000879864793139778,0.000583885315676582,0.00116014265140033
38.6419320966048,0.000852974751915514,0.000328469297724819,0.000222993793760831,0.00088015526928516,0.000584172391363711,0.00116042304455073
38.7119355967798,0.000853118824251495,0.000328616806597789,0.000223143048449579,0.000880304522490109,0.000584319897335463,0.00116056711688671
38.7819390969549,0.000853180103153557,0.000328679547178792,0.000223206531584761,0.000880368004992547,0.000584382636679283,0.00116062839578878
38.8519425971299,0.000853225327664049,0.000328725850426179,0.000223253382844503,0.000880414855783971,0.000584428939010986,0.00116067362029927
38.9219460973049,0.000853313631072336,0.000328816260132017,0.000223344862573791,0.000880506334596386,0.000584519346924089,0.00116076192370755
38.9919495974799,0.000853480818564338,0.000328987435545525,0.000223518063891963,0.000880679534174257,0.000584690518934838,0.00116092911119956
39.0619530976549,0.000853732742565734,0.000329245368695205,0.000223779049741892,0.000880940517395412,0.000584948446944551,0.00116118103520095
39.1319565978299,0.000854048143116932,0.000329568292511684,0.000224105795433205,0.000881267259787689,0.00058527136431051,0.00116149643575215
39.2019600980049,0.000854388471799202,0.000329916739081469,0.000224458365939414,0.000881619826725716,0.000585619803903517,0.00116183676443442
39.2719635981799,0.000854710895837224,0.000330246853935746,0.00022479238776501,0.000881953845162941,0.000585949912132589,0.00116215918847244
39.3419670983549,0.000854980654987847,0.000330523047689281,0.000225071850318947,0.000882233304875322,0.00058622610033009,0.00116242894762307
39.4119705985299,0.000855179696344015,0.000330726836812783,0.000225278051318323,0.000882439503773107,0.000586429885344392,0.00116262798897923
39.4819740987049,0.000855309734024028,0.000330859976307552,0.000225412766537509,0.000882574217615994,0.000586563022148108,0.00116275802665925
39.5519775988799,0.000855389447321247,0.000330941591024344,0.000225495347174503,0.000882656797407251,0.000586644635211245,0.00116283773995646
39.621981099055,0.000855447185448942,0.000331000706394609,0.000225555162181474,0.000882716611800088,0.000586703749380702,0.00116289547808416
39.69198459923,0.000855511783692717,0.000331066845519049,0.000225622084068428,0.000882783532998194,0.00058676988715825,0.00116296007632794
39.761988099405,0.000855604423799895,0.000331161695400323,0.000225718056505131,0.000882879504444604,0.00058686473510322,0.00116305271643511
39.83199159958,0.000855733785653047,0.000331294142966841,0.000225852071596455,0.000883013518149793,0.000586997179959447,0.00116318207828826
39.901995099755,0.000855895409986015,0.000331459622585961,0.000226019509674156,0.000883180954491593,0.000587162656184382,0.00116334370262123
39.97199859993,0.000856074813604443,0.000331643305591631,0.000226205366573492,0.000883366809459597,0.000587346335413741,0.00116352310623966
40.042002100105,0.00085435590499234,0.000329883395162561,0.00022442462754225,0.000881586088949702,0.000585586461199108,0.00116180419762756
40.11200560028,0.000832533857234904,0.000307540812882282,0.000201817622682516,0.000858979322477419,0.000563244345038663,0.00113998214987012
40.182009100455,0.000825029970895386,0.000299857930325128,0.000194043814544933,0.000851205597968793,0.000555561626000593,0.0011324782635306
40.25201260063,0.000827973280455631,0.000302871449877993,0.000197092998085082,0.000854254747988374,0.000558575080010274,0.00113542157309085
40.322016100805,0.000834105501596377,0.000309149950937313,0.0002034458022327,0.000860607481525799,0.000564853443002133,0.00114155379423159
40.39201960098,0.000840394714618097,0.000315589190374321,0.000209961245986113,0.000867122852013908,0.0005712925391768,0.00114784300725331
40.4620231011551,0.000845394766902275,0.000320708517915388,0.000215141156727136,0.000872302703850107,0.000576411751533446,0.00115284305953749
40.5320266013301,0.000846344326524442,0.000321680729227759,0.00021612487330499,0.000873286409167616,0.000577383940826706,0.00115379261915966
40.6020301015051,0.000841507865818763,0.000316728893130233,0.00021111443772376,0.000868276032321373,0.000572432219585036,0.00114895615845398
40.6720336016801,0.00083370739120373,0.000308742333973737,0.000203033367335843,0.000860195058223511,0.00056444584872298,0.00114115568383895
40.7420371018551,0.000827823139141639,0.000302717708740104,0.000196937448531,0.000854099213312196,0.000558421367986845,0.00113527143177686
40.8120406020301,0.000826243712767435,0.00030110060371651,0.000195301207314038,0.000852462992210633,0.000556804302298454,0.00113369200540265
40.8820441022051,0.000828430887143488,0.000303339955773538,0.000197567058635905,0.000854728815105891,0.000559043598767618,0.0011358791797787
40.9520476023801,0.000832778413468839,0.000307791198499796,0.000202070974381624,0.000859232673662839,0.000563494729660983,0.00114022670610406
41.0220511025551,0.000837844393349466,0.000312978035653069,0.000207319188382256,0.000864480820241118,0.000568681434967985,0.00114529268598468
41.0920546027301,0.000842486545011264,0.000317730934497382,0.000212128328558959,0.000869289897954242,0.000573434211661545,0.00114993483764648
41.1620581029051,0.000845728245740291,0.000321049972726734,0.000215486640741636,0.000872648166049758,0.000576753163675245,0.00115317653837551
41.2320616030802,0.000846974433799338,0.000322325891425895,0.000216777657158527,0.000873939165343488,0.000578029048888567,0.00115442272643455
41.3020651032552,0.000846372397511106,0.000321709492035941,0.000216153964115654,0.000873315480709379,0.000577412665942773,0.00115382069014632
41.3720686034302,0.000844771591042617,0.000320070494020122,0.00021449557250343,0.000871657111693407,0.000575773712116138,0.00115221988367783
41.4420721036052,0.00084322772824699,0.000318489797942167,0.000212896172835911,0.000870057734093745,0.000574193059193992,0.00115067602088221
41.5120756037802,0.000842505545889082,0.000317750385723952,0.000212148011585538,0.00086930958328989,0.000573453667404918,0.0011499538385243
41.5820791039552,0.000842898128016667,0.000318152334197126,0.000212554716025522,0.00086971628195387,0.000573855604582573,0.00115034642065188
41.6520826041302,0.000844308710028403,0.000319596570532158,0.000214016040847516,0.000871177585824998,0.00057529979994614,0.00115175700266362
41.7220861043052,0.000846414676611423,0.000321752782639146,0.000216197765459141,0.00087335927882527,0.000577455950233836,0.00115386296924664
41.7920896044802,0.000848805958593878,0.000324201117831948,0.000218675069330658,0.000875836546437933,0.000579904214518368,0.00115625425122909
41.8620931046552,0.000851078574758114,0.000326527956395643,0.000221029438786698,0.000878190881096904,0.000582230985032173,0.00115852686739333
41.9320966048302,0.00085290218849721,0.000328395080103806,0.000222918653905578,0.000880080068024839,0.000584098053609297,0.00116035048113243
42.0021001050052,0.000854077217570515,0.000329598144639189,0.000224135952729466,0.000881297348509923,0.000585301082280671,0.00116152551020573
42.0721036051803,0.000854576164441464,0.00033010899615439,0.000224652848437051,0.000881814236357203,0.000585811918423958,0.00116202445707668
42.1421071053553,0.00085454779216742,0.000330079946919845,0.000224623455509307,0.000881784843886821,0.000585782870083847,0.00116199608480264
42.2121106055303,0.000854268056922986,0.000329793537219781,0.000224333657176227,0.000881495050056199,0.000585496469188963,0.0011617163495582
42.2821141057053,0.000854048120313281,0.000329568352911929,0.000224105808635074,0.000881267205086738,0.00058527129186604,0.0011614964129485
42.3521176058803,0.000854136044748189,0.000329658375248548,0.00022419689604652,0.000881358291050217,0.000585361311370967,0.00116158433738341
42.4221211060553,0.000854651667410005,0.000330186300869382,0.000224731067645878,0.000881892454103061,0.000585889220277953,0.00116209996004522
42.4921246062303,0.000855572729293103,0.000331129339791687,0.00022568526374843,0.000882846634806448,0.000586832229085131,0.00116302102192832
42.5621281064053,0.000856764327898848,0.000332349370777163,0.000226919728932292,0.000884081079897494,0.000588052220776378,0.00116421262053406
42.6321316065803,0.000858031129086817,0.000333646398930329,0.000228232102130028,0.000885393431555361,0.000589349206805354,0.00116547942172203
42.7021351067553,0.000859174273647445,0.000334816820080955,0.000229416370350257,0.000886577680178305,0.000590519589630732,0.00116662256628266
42.7721386069303,0.000860042225020523,0.000335705481788,0.000230315545603304,0.000887476840430967,0.000591408222002386,0.00116749051765574
42.8421421071054,0.000860567585112152,0.000336243377663346,0.000230859805155705,0.000888021090831141,0.000591946099979239,0.00116801587774737
42.9121456072804,0.000860780733978097,0.000336461612571981,0.000231080621917248,0.000888241903850693,0.000592164327569876,0.00116822902661331
42.9821491074554,0.000860793815737017,0.000336475006481329,0.000231094174284455,0.000888255455987677,0.000592177721028989,0.00116824210837223
43.0521526076304,0.00086075908502927,0.000336439447038176,0.000231058194156427,0.000888219476479385,0.000592142162797815,0.00116820737766449
43.1221561078054,0.000860817722291757,0.000336499483498702,0.000231118940871117,0.000888280222137238,0.000592202197191552,0.00116826601492697
43.1921596079804,0.00086105896854351,0.000336746486379313,0.000231368865875188,0.000888530142764748,0.000592449191513212,0.00116850726117872
43.2621631081554,0.000861502203198232,0.000337200297578178,0.000231828045776035,0.000888989314566619,0.000592902986873452,0.00116895049583345
43.3321666083304,0.000862102892443608,0.000337815320658387,0.000232450344693594,0.000889611602429356,0.000593517988334493,0.00116955118507882
43.4021701085054,0.000862775033230541,0.000338503500370388,0.000233146665651787,0.000890307910930362,0.000594206143684817,0.00117022332586576
43.4721736086804,0.000863420436195269,0.000339164304317357,0.000233815286940783,0.000890976520174564,0.000594866924076603,0.00117086872883048
43.5421771088554,0.000863956643358344,0.000339713306840148,0.000234370784152091,0.000891532007310429,0.000595415906895537,0.00117140493599356
43.6121806090305,0.000864337398688782,0.000340103148076978,0.000234765237176875,0.000891926453132471,0.000595805734046462,0.001171785691324
43.6821841092055,0.000864561459285163,0.000340332555425796,0.000234997358379989,0.000892158570068859,0.000596035133051143,0.00117200975192038
43.7521876093805,0.000864668066387859,0.000340441706504478,0.000235107800692654,0.000892269010338074,0.000596144280133597,0.00117211635902307
43.8221911095555,0.00086472112482444,0.000340496031086738,0.00023516276791966,0.000892323976541079,0.000596198602713295,0.00117216941745965
43.8921946097305,0.000864787834725751,0.000340564332910656,0.000235231877730747,0.000892393085055645,0.000596266902001708,0.00117223612736097
43.9621981099055,0.00086491909136346,0.000340698721789139,0.000235367856375572,0.00089252906113324,0.000596401285859659,0.00117236738399868
44.0322016100805,0.000865137485123134,0.000340922327210966,0.000235594106946395,0.000892755307406229,0.000596624882876562,0.00117258577775835
44.1022051102555,0.000865435236782383,0.000341227184333279,0.000235902570369827,0.000893063764934558,0.000596929728470308,0.0011728835294176
44.1722086104305,0.000865780872734593,0.000341581068487139,0.000236260640768095,0.000893421828448716,0.000597283599161491,0.00117322916536981
44.2422121106055,0.00086613126335265,0.000341939820812897,0.000236623636904695,0.000893784817565329,0.00059764233775886,0.00117357955598786
44.3122156107805,0.00086644501664285,0.000342261061535857,0.00023694867768138,0.000894109852019481,0.00059796356611739,0.00117389330927806
44.3822191109555,0.00086669363945329,0.00034251561752903,0.000237206244879757,0.000894367414179047,0.000598218112256603,0.0011741419320885
44.4522226111306,0.000866867877829141,0.000342694013982976,0.00023738675161898,0.000894547917367003,0.000598396501765653,0.00117431617046436
44.5222261113056,0.000866978048067367,0.000342806813370003,0.000237500885324955,0.000894662048814923,0.00059850929673681,0.00117442634070258
44.5922296114806,0.000867048840733883,0.000342879295470415,0.000237574224821759,0.000894735386852581,0.000598581775983707,0.0011744971333691
44.6622331116556,0.000867110641719674,0.000342942571314897,0.000237638249157588,0.000894799409907349,0.00059864504932294,0.00117455893435489
44.7322366118306,0.000867190303138299,0.000343024133834003,0.00023772077647708,0.000894881935566427,0.000598726608594937,0.00117463859577351
44.8022401120056,0.000867304146896795,0.000343140694458543,0.000237838715887302,0.000894999872591137,0.00059884316455437,0.00117475243953201
44.8722436121806,0.000867454920932227,0.000343295066712202,0.000237994914189112,0.000895156067717143,0.000598997530597434,0.00117490321356744
44.9422471123556,0.000867632982116879,0.000343477377341019,0.00023817938133578,0.000895340531094018,0.000599179833854057,0.00117508127475209
45.0122506125306,0.000867847091905977,0.000343696596900912,0.000238401193990246,0.000895562339191244,0.000599399044501836,0.00117529538454119
45.0822541127056,0.000869872234800324,0.000345770070421111,0.000240499194014267,0.000897660295912556,0.000601472433339505,0.00117732052743554
45.1522576128806,0.000872698551450195,0.000348663838162537,0.000243427191137621,0.000900588232462329,0.000604366082623175,0.00118014684408541
45.2222611130557,0.000872283084410875,0.000348238455759748,0.000242996777087475,0.000900157827377822,0.000603940717753735,0.00117973137704609
45.2922646132307,0.000857862993443116,0.000333474222358484,0.0002280579034426,0.00088521926454814,0.000589177092181557,0.00116531128607833
45.3622681134057,0.000823799720195772,0.000298598019010959,0.000192769157546599,0.000849931254215482,0.000554302327254348,0.00113124801283099
45.4322716135807,0.00078343991520391,0.000257275033366462,0.000150957357091108,0.000808120323969754,0.00051298104323949,0.00109088820783913
45.5022751137557,0.000752874051776838,0.000225979738945607,0.000119291852686098,0.000776455473259833,0.000481687026992602,0.00106032234441205
45.5722786139307,0.000735487102125492,0.0002081778731426,0.000101279391433033,0.000758443379158111,0.00046388587905097,0.00104293539476071
45.6422821141057,0.000727831115077424,0.000200339189319004,9.33479742626914e-05,0.00075051212191448,0.000456047507911345,0.00103527940771264
45.7122856142807,0.000725775466185048,0.000198234486320729,9.12183719275917e-05,0.000748382562305006,0.00045394288844802,0.00103322375882026
45.7822891144557,0.000726220438003137,0.000198690076529568,9.16793519272374e-05,0.000748843533049173,0.000454398460561096,0.00103366873063835
45.8522926146307,0.00072738675012339,0.000199884220491485,9.28876229952007e-05,0.000750051779800675,0.000455592556980881,0.00103483504275861
45.9222961148057,0.000728308315323921,0.000200827777177549,9.38423422221488e-05,0.000751006479753764,0.000456536075983762,0.00103575660795914
45.9922996149808,0.000728053679712217,0.000200567065121174,9.35785458832411e-05,0.000750742688764638,0.000456275374387001,0.00103550197234743
46.0623031151558,0.000725547476078267,0.000198001055206891,9.09821794878507e-05,0.000748146375046168,0.000453709467463764,0.00103299576871348
46.1323066153308,0.000720268112532035,0.000192595708836029,8.55128864947391e-05,0.000742677192964913,0.000448304337940886,0.00102771640516725
46.2023101155058,0.000713018758865823,0.000185173362787025,7.8002731660248e-05,0.000735167189967186,0.000440882288751487,0.00102046705150104
46.2723136156808,0.000705585429735375,0.000177562652374404,7.03019832078332e-05,0.000727466596358464,0.000433271881074402,0.00101303372237059
46.3423171158558,0.000699530343099715,0.000171363074646081,6.40290609982483e-05,0.000721193799437448,0.000427072548295849,0.00100697863573493
46.4123206160308,0.000695471969902204,0.000167207858182949,5.98246855536343e-05,0.000716989507444507,0.000422917494986504,0.00100292026253742
46.4823241162058,0.000693216124114388,0.000164898182363287,5.74876845634539e-05,0.000714652552643022,0.000420607909468445,0.0010006644167496
46.5523276163808,0.000692190753960231,0.000163848344412758,5.64254262180331e-05,0.000713590315253529,0.000419558112487856,0.000999639046595447
46.6223311165558,0.000691781563810583,0.000163429390005602,5.60015152533153e-05,0.000713166412652858,0.000419139174432827,0.0009992298564458
46.6923346167308,0.00069146829097046,0.000163108641717307,5.56769722657225e-05,0.000712841876077985,0.000418818438681707,0.000998916583605677
46.7623381169058,0.000690825189223529,0.000162450193988177,5.50107346010626e-05,0.000712175651598506,0.000418160016730227,0.000998273481858746
46.8323416170809,0.000689524055197741,0.000161118011701121,5.36627915943939e-05,0.000710827735294743,0.000416827886648563,0.000996972347832958
46.9023451172559,0.000687419381369266,0.000158963115199392,5.14824010231848e-05,0.000708647387915076,0.000414673074588116,0.000994867674004483
46.9723486174309,0.000684646962074948,0.000156124539316045,4.86102425415977e-05,0.00070577528624815,0.000411834609779532,0.000992095254710165
47.0423521176059,0.000681594906567818,0.000152999654662672,4.54483878896058e-05,0.000702613493970444,0.00040870984706978,0.000989043199203035
47.1123556177809,0.000678720221699564,0.000150056373400306,4.2470284986685e-05,0.000699635449604886,0.000405766680249313,0.000986168514334781
47.1823591179559,0.000676347506889688,0.000147627040551319,4.00122108318699e-05,0.000697177423584534,0.000403337441503991,0.000983795799524905
47.2523626181309,0.000674582657709127,0.0001458200784452,3.81838705722849e-05,0.000695349119014824,0.000401530549171965,0.000982030950344344
47.3223661183059,0.000673347005895495,0.000144554941510122,3.69037657728302e-05,0.000694069039150804,0.000400265460985828,0.000980795298530711
47.3923696184809,0.000672461015739501,0.000143647809884738,3.59859018360942e-05,0.000693151193075387,0.00039935836427939,0.000979909308374717
47.4623731186559,0.000671717867235855,0.000142886928402534,3.52160183282209e-05,0.00069238132454671,0.000398597512081538,0.000979166159871071
47.5323766188309,0.000670928845257353,0.000142079078815773,3.43986110316162e-05,0.000691563933157578,0.000397789693593883,0.00097837713789257
47.602380119006,0.000669952137441803,0.000141079064843704,3.3386765839439e-05,0.000690552107659831,0.000396789718124383,0.000977400430077018
47.672383619181,0.000668718481948127,0.000139815971935755,3.2108729199135e-05,0.000689274095887939,0.000395526673834074,0.000976166774583343
47.742387119356,0.000667248518459374,0.000138310932305261,3.05858833249302e-05,0.000687751279617797,0.000394021692079322,0.00097469681109459
47.812390619531,0.00066564383910996,0.000136667962303162,2.89234751747692e-05,0.000686088903732092,0.000392378785153913,0.000973092131745176
47.882394119706,0.000664045747829459,0.000135031737658075,2.72678921385976e-05,0.000684433352758519,0.000390742623190781,0.000971494040464675
47.952397619881,0.000662580773308836,0.000133531806264148,2.57502148103116e-05,0.000682915704752027,0.000389242749120475,0.000970029065944052
48.022401120056,0.000661321307169148,0.000132242287110371,2.44454391063084e-05,0.00068161095419953,0.000387953279137402,0.000968769599804364
48.092404620231,0.00066027541929524,0.000131171442610861,2.33619252127405e-05,0.000680527461153405,0.000386882475394183,0.000967723711930456
48.162408120406,0.000659400307732351,0.000130275449457947,2.24553313538209e-05,0.000679620884714463,0.000385986516296905,0.000966848600367567
48.232411620581,0.000658625598492143,0.000129482254408213,2.16527518165725e-05,0.000678818320585253,0.000385193351369485,0.000966073891127359
48.302415120756,0.000657875965653503,0.000128714734134978,2.0876150813425e-05,0.000678041734483171,0.000384425860227422,0.000965324258288719
48.372418620931,0.000657089096989374,0.000127909089540709,2.00609744240583e-05,0.000677226573727795,0.000383620246197153,0.00096453738962459
48.4424221211061,0.000656228458481362,0.000127027914851128,1.91693743145962e-05,0.000676334990708021,0.000382739104917394,0.000963676751116578
48.5124256212811,0.000655289699071842,0.000126066755193072,1.81968429009949e-05,0.000675362477919383,0.000381777981670545,0.000962737991707058
48.5824291214561,0.000654298414690189,0.000125051817263587,1.71698969343266e-05,0.000674335551596411,0.000380763082143826,0.000961746707325404
48.6524326216311,0.000653298890887764,0.00012402844334178,1.61344151480945e-05,0.000673300089587812,0.000379739746886594,0.00096074718352298
48.7224361218061,0.000652337755140983,0.000123044373506812,1.51387024486964e-05,0.00067230439587494,0.000378755714169583,0.000959786047776199
48.7924396219811,0.000651449196776847,0.000122134612888325,1.4218178125705e-05,0.000671383889075345,0.00037784598780866,0.000958897489412063
48.8624431221561,0.00065064698920539,0.000121313263541087,1.33871110848493e-05,0.000670552837830476,0.000377024669341943,0.000958095281840606
48.9324466223311,0.00064992449612089,0.000120573530798918,1.26386262745821e-05,0.000669804367227752,0.000376284964374932,0.000957372788756106
49.0024501225061,0.000649260442340122,0.000119893631816662,1.19506831323367e-05,0.000669116437129808,0.000375605090893733,0.000956708734975337
