data1,data2,data3,data4,data5,data6,data7
0,-0.000157050122046878,8.23023436401377e-05,-9.3611437477936e-05,0.000536811226582952,-0.000248120176347379,0.000208969568662814
0.0100016669444907,-0.000157730169088318,8.16033944485578e-05,-9.43199900216244e-05,0.000536102674039264,-0.000248819125538959,0.000208289521621374
0.0200033338889815,-0.000163898261296608,7.52638579166752e-05,-0.000100746629882671,0.000529676034178268,-0.000255158662070742,0.000202121429413084
0.0300050008334722,-0.000161663564055461,7.75606693649178e-05,-9.84182609344947e-05,0.000532004403126442,-0.000252861850622504,0.000204356126654231
0.040006667777963,-0.000158547869369444,8.07629658962674e-05,-9.51719658099136e-05,0.000535250698251083,-0.000249659554091039,0.000207471821340248
0.0500083347224537,-0.000153856920922003,8.55843009291882e-05,-9.02843870806111e-05,0.000540138276980613,-0.000244838219057673,0.000212162769787689
0.0600100016669445,-0.000150063146972255,8.94835241791805e-05,-8.63315896733806e-05,0.000544091074388064,-0.000240938995807251,0.000215956543737437
0.0700116686114352,-0.000147054460189617,9.2575838484112e-05,-8.31967878979093e-05,0.0005472258761638,-0.000237846681501802,0.000218965230520075
0.080013335555926,-0.000144656633714304,9.50403134015262e-05,-8.06984518346938e-05,0.000549724212227294,-0.000235382206583844,0.000221363056995388
0.0900150025004167,-0.000142678220156945,9.70737176693029e-05,-7.86371092024628e-05,0.000551785554859798,-0.000233348802315535,0.000223341470552747
0.100016669444907,-0.000140951641143184,9.88482875624967e-05,-7.6838157251436e-05,0.000553584506811095,-0.000231574232421814,0.000225068049566508
0.110018336389398,-0.000139354262499831,0.000100490065914879,-7.51738213571286e-05,0.000555248842705687,-0.000229932454068877,0.000226665428209861
0.120020003333889,-0.000137817980932876,0.000102069048975789,-7.3573143542732e-05,0.000556849520520405,-0.000228353471007339,0.000228201709776815
0.13002167027838,-0.000136335694757066,0.000103592535824339,-7.20287244419692e-05,0.000558393939621545,-0.000226829984158053,0.000229683995952625
0.14002333722287,-0.000134964429802248,0.000105001915577397,-7.05999802339149e-05,0.00055982268383003,-0.000225420604404154,0.000231055260907444
0.150025004167361,-0.000133818743905705,0.000106179446221767,-6.94062706717106e-05,0.00056101639339267,-0.000224243073758934,0.000232200946803986
0.160026671111852,-0.000133050898264299,0.000106968634406399,-6.86062392781285e-05,0.000561816424786587,-0.000223453885573647,0.000232968792445392
0.170028338056343,-0.000132824119456465,0.000107201716612005,-6.83699545929255e-05,0.000562052709471896,-0.000223220803367836,0.000233195571253227
0.180030005000833,-0.000133289099299415,0.000106723812488628,-6.88544249756181e-05,0.000561568239088995,-0.000223698707491619,0.000232730591410277
0.190031671945324,-0.000134563636977576,0.000105413848581449,-7.01823873939394e-05,0.000560240276670186,-0.00022500867139975,0.000231456053732115
0.200033338889815,-0.000136700516868272,0.000103217573352346,-7.24088387857602e-05,0.000558013825277798,-0.000227204946629959,0.00022931917384142
0.210035005834306,-0.0001396242050777,0.000100212620186252,-7.54550791065411e-05,0.000554967584956772,-0.000230209899796532,0.000226395485631991
0.220036672778796,-0.000143033223527719,9.67088468515042e-05,-7.90069932349335e-05,0.000551415670829017,-0.000233713673130037,0.000222986467181973
0.230038339723287,-0.000146317963758984,9.33328060916654e-05,-8.24294197805333e-05,0.000547993244285347,-0.000237089713886111,0.000219701726950707
0.240040006667778,-0.000148657604096035,9.09281346140845e-05,-8.48671307211342e-05,0.0005455555333474,-0.000239494385358513,0.000217362086613656
0.250041673612269,-0.000149567639108019,8.99928048527494e-05,-8.58153116318902e-05,0.000544607352438176,-0.00024042971511686,0.000216452051601673
0.260043340556759,-0.00014959643776898,8.9963205722668e-05,-8.58453174451026e-05,0.000544577346625028,-0.000240459314246815,0.000216423252940712
0.27004500750125,-0.000149580429088586,8.9979659370013e-05,-8.58286377295652e-05,0.000544594026340597,-0.000240442860599409,0.000216439261621105
0.280046674445741,-0.000149535260793437,9.00260831341259e-05,-8.57815761169102e-05,0.000544641087953166,-0.000240396436835462,0.000216484429916255
0.290048341390232,-0.000149394039730016,9.01712294875278e-05,-8.56344354962481e-05,0.000544788228573688,-0.000240251290482335,0.000216625650979675
0.300050008334722,-0.000149227575758858,9.03423203842657e-05,-8.54609938619969e-05,0.000544961670207827,-0.000240080199585815,0.000216792114950834
0.310051675279213,-0.000149091265069414,9.04824198780275e-05,-8.53189694432772e-05,0.000545103694626473,-0.000239940100092197,0.000216928425640278
0.320053342223704,-0.000149018359854881,9.05573515190422e-05,-8.52430082640218e-05,0.000545179655805695,-0.000239865168451247,0.000217001330854811
0.330055009168195,-0.000149003582687118,9.05725394234613e-05,-8.52276116823575e-05,0.000545195052387353,-0.00023984998054684,0.000217016108022574
0.340056676112685,-0.00014902092992361,9.05547100143354e-05,-8.52456860622103e-05,0.000545176978007507,-0.000239867809955954,0.000216998760786081
0.350058343057176,-0.00014904217188056,9.05328776296057e-05,-8.52678184173496e-05,0.000545154845652376,-0.000239889642340668,0.000216977518829131
0.360060010001667,-0.000149045778521145,9.05291707411577e-05,-8.52715762373316e-05,0.000545151087832395,-0.000239893349229114,0.000216973912188546
0.370061676946158,-0.000149017756846759,9.05579712879911e-05,-8.52423799796339e-05,0.000545180284090083,-0.0002398645486823,0.000217001933862933
0.380063343890648,-0.000148949212528348,9.06284208202113e-05,-8.51709624919981e-05,0.000545251701577693,-0.000239794099150128,0.000217070478181344
0.390065010835139,-0.000148833833057803,9.07470073043463e-05,-8.5050746665185e-05,0.000545371917404464,-0.000239675512666077,0.000217185857651889
0.40006667777963,-0.000148666402474588,9.091909168042e-05,-8.48762979014655e-05,0.000545546366168119,-0.000239503428290128,0.000217353288235104
0.410068344724121,-0.000148442454520995,9.1149264347369e-05,-8.46429627312009e-05,0.000545779701338295,-0.000239273255623353,0.000217577236188697
0.420070011668611,-0.000148158898561285,9.14407018462588e-05,-8.43475209686069e-05,0.000546075143100772,-0.000238981818124691,0.000217860792148406
0.430071678613102,-0.000147815362657386,9.17937864533171e-05,-8.39895850850962e-05,0.000546433078984135,-0.000238628733517921,0.000218204328052306
0.440073345557593,-0.000147415840798296,9.22044131651955e-05,-8.35733164855317e-05,0.00054684934758352,-0.000238218106806392,0.000218603849911396
0.450075012502084,-0.000146970041278642,9.26626038417549e-05,-8.31088304067026e-05,0.000547313833662139,-0.000237759916130242,0.00021904964943105
0.460076679446574,-0.000146493813224253,9.31520688250561e-05,-8.26126403215583e-05,0.000547810023747045,-0.000237270451147407,0.000219525877485439
0.470078346391065,-0.000146008329030859,9.36510472250761e-05,-8.21068061082186e-05,0.000548315857960118,-0.000236771472747907,0.000220011361678833
0.480080013335556,-0.000145538185719012,9.4134258338302e-05,-8.16169558194761e-05,0.000548805708248565,-0.000236288261635259,0.000220481504990679
0.490081680280047,-0.000145108886331665,9.45754902556075e-05,-8.11696615082224e-05,0.00054925300255949,-0.000235847029718594,0.000220910804378027
0.500083347224537,-0.000144744077751907,9.49504388203437e-05,-8.07895612629212e-05,0.000549633102804436,-0.00023547208115455,0.000221275612957785
0.510085014169028,-0.000144462720487601,9.52396165105415e-05,-8.04964103582308e-05,0.000549926253708773,-0.000235182903465043,0.000221556970222091
0.520086681113519,-0.000144276469597928,9.5431044310437e-05,-8.03023523979691e-05,0.000550120311668737,-0.000234991475665729,0.000221743221111764
0.53008834805801,-0.00014418792615556,9.55220488495465e-05,-8.02100974838931e-05,0.000550212566582639,-0.000234900471126958,0.000221831764554132
0.5400900150025,-0.000144190529683482,9.55193729556297e-05,-8.02128101437853e-05,0.000550209853922755,-0.00023490314702086,0.00022182916102621
0.550091681946991,-0.000144270339841322,9.54373444457719e-05,-8.0295965700644e-05,0.000550126698366105,-0.00023498517553031,0.00022174935086837
0.560093348891482,-0.00014440915848305,9.52946672899869e-05,-8.04406031975323e-05,0.000549982060869605,-0.000235127852685337,0.000221610532226642
0.570095015835973,-0.00014458800261793,9.51108521180598e-05,-8.0626943934493e-05,0.000549795720133161,-0.000235311667856256,0.000221431688091761
0.580096682780463,-0.000144790027983681,9.49032113846118e-05,-8.0837437589004e-05,0.000549585226479236,-0.00023551930858856,0.000221229662726011
0.590098349724954,-0.000145002355836745,9.46849818025197e-05,-8.10586655797515e-05,0.000549363998489095,-0.000235737538169468,0.000221017334872947
0.600100016669445,-0.000145216627976294,9.446475389182e-05,-8.12819193555491e-05,0.00054914074471389,-0.000235957766079013,0.000220803062733397
0.610101683613936,-0.000145428435448526,9.42470591547783e-05,-8.15026051526597e-05,0.000548920058917338,-0.000236175460814964,0.000220591255261165
0.620103350558426,-0.000145636001160857,9.40337240789082e-05,-8.17188713881833e-05,0.000548703792682332,-0.000236388795889825,0.000220383689548835
0.630105017502917,-0.000145838589536655,9.38255046864604e-05,-8.19299516523524e-05,0.000548492712418635,-0.00023659701528135,0.000220181101173037
0.640106684447408,-0.000146035051277293,9.36235822212302e-05,-8.2134648471438e-05,0.000548288015599974,-0.000236798937745752,0.000219984639432399
0.650108351391899,-0.000146222749978418,9.34306663673765e-05,-8.23302149310374e-05,0.000548092449140745,-0.000236991853598884,0.000219796940731274
0.660110018336389,-0.000146396956057241,9.3251618168138e-05,-8.25117231986408e-05,0.000547910940873448,-0.000237170901797523,0.000219622734652451
0.67011168528088,-0.000146550696608269,9.30936043434118e-05,-8.26719080857754e-05,0.000547750755986549,-0.000237328915621791,0.000219468994101422
0.680113352225371,-0.000146675020759781,9.2965824557598e-05,-8.28014435274162e-05,0.000547621220545065,-0.000237456695407298,0.00021934466994991
0.690115019169862,-0.000146759640523352,9.28788527574265e-05,-8.28896102939769e-05,0.000547533053778588,-0.000237543667207307,0.000219260050186339
0.700116686114352,-0.000146793899845665,9.28436411850031e-05,-8.2925305662825e-05,0.000547497358409764,-0.000237578878779683,0.000219225790864026
0.710118353058843,-0.000146768003015361,9.2870257826953e-05,-8.28983233162076e-05,0.000547524340756373,-0.00023755226213775,0.00021925168769433
0.720120020003334,-0.000146674416410109,9.29664457052947e-05,-8.28008138452907e-05,0.000547621850227283,-0.000237456074259422,0.000219345274299583
0.730121686947825,-0.000146509362887425,9.31360869495004e-05,-8.26288417812919e-05,0.000547793822291308,-0.000237286433015164,0.000219510327822266
0.740123353892315,-0.000146274360980256,9.33776208184394e-05,-8.23839893094461e-05,0.000548038674763237,-0.000237044899146064,0.000219745329729436
0.750125020836806,-0.00014597782240867,9.36824017852833e-05,-8.20750207435255e-05,0.000548347643329295,-0.000236740118178951,0.000220041868301022
0.760126687781297,-0.000145636803726738,9.40328992029819e-05,-8.17197075964233e-05,0.000548702956476562,-0.000236389620760931,0.000220382886982954
0.770128354725788,-0.00014527903003005,9.44006173470782e-05,-8.13469371153259e-05,0.000549075726957795,-0.00023602190261657,0.000220740660679642
0.780130021670278,-0.000144944975201623,9.47439573486029e-05,-8.09988797252103e-05,0.00054942378434795,-0.000235678562614968,0.000221074715508068
0.790131688614769,-0.000144688487243716,9.50075744808908e-05,-8.07316405726889e-05,0.000549691023500387,-0.000235414945482846,0.000221331203465975
0.80013335555926,-0.000144571799890626,9.51275052006992e-05,-8.06100620408408e-05,0.000549812602032125,-0.000235295014763251,0.000221447890819066
0.810135022503751,-0.00014464896656329,9.50481936526916e-05,-8.06904633056395e-05,0.000549732200767475,-0.000235374326310969,0.000221370724146402
0.820136689448241,-0.000144938198384568,9.47509225290346e-05,-8.09918188449513e-05,0.00054943084522889,-0.000235671597433207,0.000221081492325124
0.830138356392732,-0.000145401717117637,9.42745201261105e-05,-8.14747668732487e-05,0.000548947897201912,-0.000236147999833557,0.000220617973592055
0.840140023337223,-0.000145958319775428,9.37024464973797e-05,-8.20547006211867e-05,0.000548367963455483,-0.000236720073459343,0.000220061370934263
0.850141690281714,-0.000146522675608521,9.31224041913339e-05,-8.26427125338052e-05,0.000547779951544111,-0.000237300115762957,0.000219497015101171
0.860143357226204,-0.000147035089691732,9.25957473750718e-05,-8.31766054562525e-05,0.00054724605862247,-0.000237826772577645,0.000218984601017959
0.870145024170695,-0.000147463946357761,9.21549704845894e-05,-8.36234384887053e-05,0.000546799225590443,-0.000238267549467297,0.000218555744351931
0.880146691115186,-0.000147794317398858,9.1815416662367e-05,-8.39676576784457e-05,0.000546455006400878,-0.000238607103289178,0.000218225373310834
0.890148358059677,-0.000148018694422749,9.15848029990066e-05,-8.42014399043049e-05,0.000546221224175059,-0.000238837716952459,0.000218000996286943
0.900150025004167,-0.000148133640582879,9.14666618693557e-05,-8.43212042576231e-05,0.000546101459821732,-0.000238955858082127,0.000217886050126813
0.910151691948658,-0.000148139574490208,9.14605630269558e-05,-8.43273868962874e-05,0.000546095277183068,-0.000238961956924527,0.000217880116219484
0.920153358893149,-0.000148040885329566,9.15619952879827e-05,-8.42245609864153e-05,0.000546198103092984,-0.000238860524663414,0.000217978805380125
0.93015502583764,-0.000147845303673116,9.17630132062421e-05,-8.40207811422367e-05,0.000546401882937273,-0.00023865950674494,0.000218174387036576
0.94015669278213,-0.000147562609050928,9.20535654261262e-05,-8.37262368219636e-05,0.000546696427257731,-0.000238368954524695,0.000218457081658763
0.950158359726621,-0.000147203130331416,9.24230359846371e-05,-8.33516898487385e-05,0.000547070974231219,-0.000237999483965671,0.000218816560378275
0.960160026671112,-0.000146776437734692,9.28615886539823e-05,-8.29071115971723e-05,0.000547515552483123,-0.000237560931295666,0.000219243252975
0.970161693615603,-0.000146290435557688,9.3361099434479e-05,-8.2400737688267e-05,0.000548021926392438,-0.00023706142051437,0.000219729255152003
0.980163360560093,-0.000145750895754797,9.39156359382097e-05,-8.18385820191721e-05,0.00054858408206201,-0.00023650688400971,0.000220268794954895
0.990165027504584,-0.000145161370635996,9.4521547117475e-05,-8.12243458018881e-05,0.000549198318279834,-0.00023590097282939,0.000220858320073696
1.00016669444907,-0.000144523381638223,9.51772692464591e-05,-8.05596142473558e-05,0.000549863049834967,-0.000235245250699235,0.000221496309071469
1.01016836139357,-0.000143836779275952,9.58829559656923e-05,-7.98442316040709e-05,0.000550578432478911,-0.000234539563978715,0.00022218291143374
1.02017002833806,-0.000143100187889939,9.66400211713604e-05,-7.90767645493393e-05,0.000551345899534358,-0.000233782498771651,0.000222919502819753
1.03017169528255,-0.000142311474108407,9.7450657533072e-05,-7.82549902869308e-05,0.000552167673797538,-0.000232971862408435,0.000223708216601285
1.04017336222704,-0.000141468201374831,9.83173693323117e-05,-7.73763701272863e-05,0.000553046293958006,-0.000232105150607588,0.000224551489334861
1.05017502917153,-0.000140568049953922,9.92425407822418e-05,-7.64384870988718e-05,0.000553984176987293,-0.000231179979155955,0.000225451640755769
1.06017669611602,-0.000139609191314657,0.000100228051238564,-7.54394360242049e-05,0.000554983228062876,-0.000230194468697846,0.000226410499395034
1.07017836306051,-0.000138590608896986,0.000101274945516986,-7.43781577321286e-05,0.000556044506355903,-0.000229147574417569,0.000227429081812706
1.080180030005,-0.000137512356497069,0.000102383168326073,-7.32547082737694e-05,0.000557167955815238,-0.000228039351606579,0.000228507334212623
1.09018169694949,-0.000136375743690735,0.000103551373689884,-7.20704521183817e-05,0.000558352211971611,-0.000226871146240845,0.000229643947018957
1.10018336389398,-0.000135183437270501,0.000104776820691467,-7.08281678423009e-05,0.000559594496248672,-0.00022564569923735,0.000230836253439191
1.11018503083847,-0.00013393947008418,0.000106055364388586,-6.95320573380364e-05,0.000560890606753891,-0.000224367155538369,0.000232080220625511
1.12018669778296,-0.000132649154262504,0.000107381544997962,-6.8187655404661e-05,0.000562235008688174,-0.000223040974927223,0.000233370536447188
1.13018836472745,-0.000131318903851566,0.000108748770192821,-6.68016449455497e-05,0.000563621019148124,-0.000221673749730727,0.000234700786858126
1.14019003167195,-0.00012995598081634,0.000110149576159307,-6.53815923251332e-05,0.000565041071769287,-0.000220272943762784,0.000236063709893352
1.15019169861644,-0.000128568186496852,0.000111575944716386,-6.39356258918577e-05,0.000566487038203196,-0.000218846575204471,0.00023745150421284
1.16019336556093,-0.000127163526367185,0.000113019647874986,-6.24720866849041e-05,0.000567950577410648,-0.000217402872044897,0.000238856164342507
1.17019503250542,-0.000125749878446869,0.000114472588643231,-6.09991829463971e-05,0.000569423481149503,-0.000215949931275974,0.000240269812262823
1.18019669944991,-0.000124334694733673,0.00011592710789243,-5.95246790391631e-05,0.000570897985056919,-0.000214495412026421,0.000241684995976019
1.1901983663944,-0.000122924760990075,0.000117376231247426,-5.8055645164186e-05,0.000572367018931901,-0.000213046288671415,0.000243094929719617
1.20020003333889,-0.000121526033984282,0.000118813836369522,-5.65982877792622e-05,0.000573824376316646,-0.000211608683549667,0.00024449365672541
1.21020170028338,-0.000120143567925072,0.000120234728566408,-5.51578729502187e-05,0.000575264791145324,-0.000210187791353496,0.00024587612278462
1.22020336722787,-0.00011878153438957,0.000121634620310484,-5.37387471139959e-05,0.000576683916980993,-0.000208787899610501,0.000247238156320122
1.23020503417236,-0.000117443333389171,0.000123010017085824,-5.23444528001197e-05,0.000578078211294129,-0.000207412502836604,0.000248576357320521
1.24020670111685,-0.000116131787908831,0.000124358017441594,-5.09779313244862e-05,0.000579444732768842,-0.000206064502482632,0.000249887902800861
1.25020836806134,-0.000114849410476171,0.000125676039013563,-4.96418005322313e-05,0.000580780863560001,-0.000204746480912801,0.000251170280233521
1.26021003500583,-0.000113598727885562,0.000126961484774201,-4.83386931332597e-05,0.000582083970957712,-0.000203461035154623,0.00025242096282413
1.27021170195032,-0.000112382648619836,0.000128211365398348,-4.70716395251571e-05,0.0005833510245644,-0.000202211154533237,0.000253637042089856
1.28021336889482,-0.000111204856064999,0.000129421895118952,-4.5844477490269e-05,0.000584578186597735,-0.000201000624815663,0.000254814834644693
1.29021503583931,-0.000110070208498621,0.00013058808062087,-4.46622689503829e-05,0.000585760395135947,-0.000199834439317011,0.000255949482211071
1.3002167027838,-0.000108985123297732,0.00013170332615376,-4.35317002794572e-05,0.000586890963805105,-0.00019871919378757,0.000257034567411959
1.31021836972829,-0.000107957917310783,0.000132759083699372,-4.24614369429317e-05,0.000587961227139799,-0.000197663436245531,0.000258061773398908
1.32022003667278,-0.000106999067727114,0.000133744584851111,-4.14623953020566e-05,0.000588960268778821,-0.000196677935097408,0.000259020622982578
1.33022170361727,-0.000106121348587389,0.000134646700509243,-4.05478848464299e-05,0.000589874779232624,-0.000195775819442835,0.000259898342122302
1.34022337056176,-0.00010533978887855,0.000135449983950713,-3.9733564532414e-05,0.000590689099544907,-0.000194972536004746,0.000260679901831142
1.35022503750625,-0.000104671391966095,0.000136136959195342,-3.90371504548772e-05,0.000591385513620875,-0.00019428556076318,0.000261348298743596
1.36022670445074,-0.000104134557681723,0.000136688714981465,-3.84778137105021e-05,0.000591944850363925,-0.000193733804979642,0.000261885133027968
1.37022837139523,-0.000103748163937066,0.000137085848679077,-3.80752235155649e-05,0.000592347440557868,-0.00019333667128397,0.000262271526772626
1.38023003833972,-0.000103530300648459,0.000137309767556082,-3.78482280606788e-05,0.000592574436012174,-0.000193112752408095,0.000262489390061232
1.39023170528421,-0.000103496708572179,0.000137344293336196,-3.78132279067536e-05,0.000592609436166008,-0.00019307822662816,0.000262522982137512
1.4002333722287,-0.000103659055565769,0.00013717743384956,-3.79823799924353e-05,0.000592440284080778,-0.000193245086113916,0.000262360635143923
1.4102350391732,-0.00010402326725179,0.000136803098768795,-3.83618583243607e-05,0.000592060805749869,-0.000193619421192696,0.000261996423457902
1.42023670611769,-0.00010458818993202,0.000136222473859591,-3.89504608447834e-05,0.000591472203231016,-0.000194200046098837,0.000261431500777672
1.43023837306218,-0.000105344867104045,0.000135444764573595,-3.97388556219396e-05,0.000590683808455929,-0.000194977755380796,0.000260674823605647
1.44024004000667,-0.000106276633397102,0.000134487099501584,-4.07096787234004e-05,0.000589712985356946,-0.000195935420447973,0.00025974305731259
1.45024170695116,-0.000107360076005441,0.000133373542216711,-4.18385359497973e-05,0.000588584128133317,-0.000197048977727444,0.00025865961470425
1.46024337389565,-0.000108566725200713,0.000132133353773713,-4.3095764208349e-05,0.000587326899877693,-0.000198289166164731,0.000257452965508979
1.47024504084014,-0.000109865177195093,0.000130798810840029,-4.44486433599581e-05,0.000585974020729037,-0.000199623709092653,0.000256154513514599
1.48024670778463,-0.000111223281732299,0.000129402957299898,-4.58636755073902e-05,0.000584558988584467,-0.000201019562627198,0.000254796408977393
1.49024837472912,-0.000112610062725748,0.000127977630231376,-4.73085861407395e-05,0.000583114077953794,-0.000202444889690498,0.000253409627983944
1.50025004167361,-0.000113997156759268,0.00012655198142197,-4.87538229357212e-05,0.000581668841161235,-0.000203870538495177,0.000252022533950423
1.5102517086181,-0.000115359698025179,0.000125151567833396,-5.01734777856549e-05,0.000580249186313432,-0.000205270952079595,0.000250659992684513
1.52025337556259,-0.000116676698828287,0.000123797960521336,-5.15456832550337e-05,0.000578876980845875,-0.000206624559388098,0.000249342991881405
1.53025504250708,-0.000117931045151196,0.000122508749193402,-5.2852607958942e-05,0.000577570056143485,-0.00020791377071307,0.000248088645558495
1.54025670945158,-0.000119109246137824,0.000121297799688816,-5.40801955456774e-05,0.000576342468557983,-0.000209124720215249,0.000246910444571868
1.55025837639607,-0.00012020105997855,0.000120175638491924,-5.52177749001467e-05,0.000575204889204489,-0.000210246881410238,0.000245818630731142
1.56026004334056,-0.000121199085521237,0.000119149872472495,-5.6257634636456e-05,0.000574165029468929,-0.000211272647428206,0.000244820605188455
1.57026171028505,-0.000122098373712887,0.000118225588244189,-5.71946182523842e-05,0.000573228045853558,-0.000212196931655424,0.000243921316996805
1.58026337722954,-0.000122896083892951,0.000117405705424694,-5.8025766015556e-05,0.000572396898090785,-0.000213016814474142,0.000243123606816741
1.59026504417403,-0.000123591189824225,0.000116691278775813,-5.87500086720412e-05,0.00057167265543457,-0.000213731241122493,0.000242428500885467
1.60026671111852,-0.000124184228763131,0.000116081756107864,-5.93679059984311e-05,0.000571054758108353,-0.000214340763790107,0.000241835461946561
1.61026837806301,-0.000124677082044476,0.00011557520379364,-5.98814181893745e-05,0.000570541245917508,-0.000214847316104138,0.000241342608665216
1.6202700450075,-0.000125072775482007,0.000115168511915802,-6.02936978915332e-05,0.000570128966215396,-0.000215254007981885,0.000240946915227684
1.63027171195199,-0.000125375290449707,0.00011485758843664,-6.06088933659771e-05,0.000569813770740965,-0.000215564931461022,0.000240644400259985
1.64027337889648,-0.000125589380256213,0.00011463754792759,-6.08319571655842e-05,0.000569590706941353,-0.000215784971970082,0.000240430310453479
1.65027504584097,-0.000125720390203689,0.000114502896511897,-6.09684586513225e-05,0.000569454205455603,-0.000215919623385797,0.000240299300506003
1.66027671278546,-0.000125774082777257,0.000114447711534098,-6.10244018541572e-05,0.000569398262252761,-0.00021597480836361,0.000240245607932435
1.67027837972995,-0.000125756471357527,0.000114465812469519,-6.10060522173143e-05,0.000569416611889607,-0.000215956707428182,0.000240263219352165
1.68028004667445,-0.000125673666621605,0.000114550918792597,-6.09197765588902e-05,0.000569502887548052,-0.000215871601105065,0.000240346024088087
1.69028171361894,-0.000125531739569531,0.000114696790757676,-6.077190035677e-05,0.000569650763750214,-0.000215725729139904,0.000240487951140161
1.70028338056343,-0.000125336604191724,0.00011489734999286,-6.05685854978552e-05,0.000569854078609194,-0.000215525169904594,0.000240683086517968
1.71028504750792,-0.00012509392152288,0.000115146778112973,-6.0315730310186e-05,0.000570106933796953,-0.000215275741784304,0.000240925769186812
1.72028671445241,-0.000124809025509557,0.00011543959291251,-6.0018892323127e-05,0.000570403771784129,-0.00021498292698454,0.000241210665200135
1.7302883813969,-0.000124486869964852,0.00011577070288537,-5.96832329985435e-05,0.000570739431108854,-0.000214651817011402,0.00024153282074484
1.74029004834139,-0.000124131995006863,0.000116135441719253,-5.93134827624669e-05,0.000571109181345099,-0.000214287078177191,0.000241887695702829
1.75029171528588,-0.000123748510806219,0.000116529584999873,-5.89139240713673e-05,0.000571508740036392,-0.000213892934896194,0.000242271179903473
1.76029338223037,-0.000123340096172484,0.000116949351663842,-5.84883899393097e-05,0.000571934274168667,-0.000213473168231801,0.000242679594537208
1.77029504917486,-0.000122910009431694,0.000117391392818791,-5.80402752714404e-05,0.000572382388836777,-0.000213031127076384,0.000243109681277998
1.78029671611935,-0.000122461109123237,0.000117852770471209,-5.75725584284184e-05,0.000572850105680061,-0.000212569749423454,0.000243558581586454
1.79029838306384,-0.000121995882216938,0.000118330928525063,-5.70878306262718e-05,0.00057333483348249,-0.000212091591369049,0.000244023808492754
1.80030005000833,-0.000121516477776752,0.000118823658182396,-5.65883310111778e-05,0.000573834333097885,-0.000211598861711128,0.00024450321293294
1.81030171695283,-0.000121024744245703,0.000119329059622054,-5.60759855072642e-05,0.000574346678602118,-0.000211093460270847,0.000244994946463989
1.82030338389732,-0.000120522268778121,0.000119845501574186,-5.55524477975401e-05,0.000574870216312179,-0.000210577018318059,0.000245497421931571
1.83030505084181,-0.000120010417288331,0.000120371580158392,-5.5019141051301e-05,0.00057540352305877,-0.000210050939733166,0.00024600927342136
1.8403067177863,-0.00011949037411278,0.000120906078119174,-5.44772992487721e-05,0.000575945364861665,-0.000209516441771669,0.000246529316596911
1.85030838473079,-0.000118963180391471,0.000121447925377672,-5.3928007171376e-05,0.000576494656939441,-0.00020897459451243,0.000247056510318221
1.86031005167528,-0.000118429770462513,0.000121996161625515,-5.33722383218323e-05,0.000577050425789377,-0.000208426358263822,0.000247589920247179
1.87031171861977,-0.00011789100572996,0.000122549901515617,-5.28108902116308e-05,0.000577611773899983,-0.000207872618372932,0.000248128684979731
1.88031338556426,-0.000117347705610262,0.000123108302855558,-5.22448166046631e-05,0.000578177847507365,-0.000207314217032183,0.000248671985099429
1.89031505250875,-0.000116800675287789,0.000123670538080582,-5.16748564361776e-05,0.000578747807676274,-0.000206751981806332,0.000249219015421903
1.90031671945324,-0.000116250730116797,0.000124235769173371,-5.11018592375991e-05,0.000579320804875285,-0.000206186750712699,0.000249768960592895
1.91031838639773,-0.000115698716597923,0.000124803126104502,-5.05267069922938e-05,0.00057989595712103,-0.00020561939378071,0.000250320974111769
1.92032005334222,-0.000115145529933984,0.000125371688788676,-4.99503324272575e-05,0.000580472331686513,-0.000205050831095665,0.000250874160775707
1.93032172028671,-0.00011459212823431,0.000125940472485576,-4.93737338128439e-05,0.000581048930301378,-0.000204482047397884,0.000251427562475382
1.94032338723121,-0.000114039543490292,0.00012650841651924,-4.87979863983841e-05,0.000581624677716295,-0.000203914103363329,0.000251980147219399
1.9503250541757,-0.000113488889488075,0.000127074376145445,-4.82242506565464e-05,0.000582198413458592,-0.000203348143736228,0.000252530801221616
1.96032672112019,-0.000112941366857109,0.000127637117362815,-4.7653777543513e-05,0.000582768886572086,-0.000202785402517958,0.000253078323852583
1.97032838806468,-0.00011239826547521,0.000128195314440922,-4.7087911004852e-05,0.000583334753111209,-0.00020222720543895,0.000253621425234482
1.98033005500917,-0.000111860964460634,0.000128747549928428,-4.65280879672582e-05,0.000583894576149265,-0.000201674969950544,0.000254158726249058
1.99033172195366,-0.000111330929978378,0.000129292316907758,-4.59758360529023e-05,0.00058444682806408,-0.000201130202970318,0.000254688760731314
2.00033338889815,-0.000110809711070424,0.000129828023280756,-4.54327692348915e-05,0.000584989894882546,-0.00020059449659643,0.000255209979639268
2.01033505584264,-0.000110298933687388,0.000130352997902931,-4.49005816187425e-05,0.000585522082499146,-0.000200069521973376,0.000255720757022303
2.02033672278713,-0.00010980029305225,0.000130865498431977,-4.43810394860208e-05,0.000586041624632312,-0.000199557021443463,0.000256219397657441
2.03033838973162,-0.000109315544426771,0.000131363720818008,-4.38759716737183e-05,0.000586546692445051,-0.000199058799056582,0.000256704146282921
2.04034005667611,-0.000108846492280319,0.000131845810435787,-4.33872582890662e-05,0.000587035405830129,-0.000198576709437971,0.000257173198429373
2.0503417236206,-0.000108394977782864,0.00013230987493937,-4.29168176782757e-05,0.000587505846441335,-0.000198112644933579,0.000257624712926828
2.06034339056509,-0.000107962864464093,0.000132753999001598,-4.24665914845255e-05,0.000587956072635486,-0.000197668520870567,0.000258056826245599
2.07034505750958,-0.000107552021805349,0.000133176261178231,-4.20385275521254e-05,0.000588384136568273,-0.00019724625869318,0.000258467668904343
2.08034672445408,-0.000107164306468144,0.000133574753201189,-4.16345603681865e-05,0.000588788103752581,-0.000196847766669502,0.000258855384241547
2.09034839139857,-0.000106801540820953,0.000133947602048616,-4.12565886893224e-05,0.000589166075431795,-0.000196474917821391,0.000259218149888738
2.10035005834306,-0.000106465488414168,0.000134292995151612,-4.09064499885898e-05,0.000589516214132857,-0.000196129524717753,0.000259554202295523
2.11035172528755,-0.000106157826080981,0.000134609209068809,-4.05858913869223e-05,0.000589836772734831,-0.000195813310799959,0.000259861864628711
2.12035339223204,-0.00010588011241859,0.000134894641881244,-4.029653681317e-05,0.000590126127308865,-0.000195527877986975,0.000260139578291102
2.13035505917653,-0.000105633752537407,0.000135147849422964,-4.00398502756946e-05,0.000590382813846594,-0.000195274670444759,0.000260385938172285
2.14035672612102,-0.000105419959161421,0.000135367585261887,-3.98170953321821e-05,0.000590605568790331,-0.000195054934605399,0.000260599731548271
2.15035839306551,-0.000105239710422991,0.000135552844078116,-3.96292911153229e-05,0.000590793373007383,-0.000194869675788793,0.000260779980286701
2.16036006001,-0.000105093705017633,0.000135702907755648,-3.94771656078213e-05,0.000590945498515044,-0.00019471961211095,0.000260925985692059
2.17036172695449,-0.000104982315760582,0.000135817393116714,-3.93611072521921e-05,0.000591061556870798,-0.000194605126749641,0.00026103737494911
2.18036339389898,-0.000104905543001594,0.000135896299801841,-3.92811164128498e-05,0.000591141547710228,-0.000194526220064343,0.000261114147708098
2.19036506084347,-0.000104862969784047,0.000135940056357109,-3.92367586556203e-05,0.000591185905467507,-0.000194482463508978,0.000261156720925645
2.20036672778796,-0.000104853721047204,0.000135949562165882,-3.92271222398828e-05,0.000591195541883255,-0.000194472957700184,0.000261165969662488
2.21036839473246,-0.000104876429526878,0.000135926222495941,-3.92507825898969e-05,0.000591171881533213,-0.000194496297370179,0.000261143261182814
2.22037006167695,-0.000104929211264254,0.00013587197367141,-3.93057767770289e-05,0.000591116887346015,-0.00019455054619484,0.000261090479445438
2.23037172862144,-0.000105009653736465,0.000135789295272088,-3.93895911527953e-05,0.000591033072970145,-0.000194633224594365,0.000261010036973227
2.24037339556593,-0.000105114819528104,0.000135681206359888,-3.94991651742772e-05,0.000590923498948524,-0.000194741313506836,0.000260904871181588
2.25037506251042,-0.00010524126812896,0.000135551243075229,-3.96309141155469e-05,0.000590791750007082,-0.00019487127679183,0.000260778422580732
2.26037672945491,-0.000105385097841175,0.000135403415565048,-3.97807727314499e-05,0.000590641891390979,-0.000195019104302401,0.000260634592868517
2.2703783963994,-0.000105542008899296,0.000135242143108307,-3.99442610234548e-05,0.000590478403098751,-0.000195180376759579,0.000260477681810396
2.28038006334389,-0.000105707387764925,0.000135072167478345,-4.01165720676781e-05,0.000590306092054285,-0.000195350352390013,0.000260312302944766
2.29038173028838,-0.000105876411199857,0.000134898445976988,-4.02926804504501e-05,0.00059012998367126,-0.000195524073891864,0.000260143279509835
2.30038339723287,-0.000106044167226522,0.000134726027111966,-4.04674682990571e-05,0.000589955195822396,-0.000195696492757388,0.000259975523483169
2.31038506417736,-0.000106205788563529,0.000134559913452488,-4.06358643104872e-05,0.000589786799810712,-0.000195862606417362,0.000259813902146163
2.32038673112185,-0.000106356592715664,0.000134404917645382,-4.07929897135841e-05,0.000589629674407373,-0.00019601760222494,0.000259663097994028
2.33038839806634,-0.000106492221757875,0.000134265518745774,-4.09343039123451e-05,0.000589488360208389,-0.000196157001124983,0.000259527468951816
2.34039006501084,-0.000106608774138502,0.000134145726750338,-4.10557418139417e-05,0.000589366922306597,-0.0001962767931208,0.000259410916571189
2.35039173195533,-0.000106702920676271,0.000134048963376124,-4.11538346879565e-05,0.000589268829432421,-0.000196373556495329,0.000259316770033421
2.36039339889982,-0.000106771997433166,0.000133977966606245,-4.12258069322044e-05,0.000589196857188052,-0.000196444553265443,0.000259247693276526
2.37039506584431,-0.000106814069340788,0.000133934725295014,-4.12696423661105e-05,0.000589153021754071,-0.000196487794576819,0.000259205621368903
2.3803967327888,-0.000106827960288578,0.0001339204482434,-4.12841155801412e-05,0.000589138548540016,-0.000196502071628482,0.000259191730421114
2.39039839973329,-0.000106813247707976,0.000133935569765402,-4.12687862929524e-05,0.000589153877827232,-0.000196486950106428,0.000259206443001716
2.40040006667778,-0.000106770222288045,0.00013397979109215,-4.12239573784069e-05,0.000589198706741858,-0.000196442728779522,0.000259249468421646
2.41040173362227,-0.00010669981606245,0.000134052154283772,-4.1150599938184e-05,0.000589272064182215,-0.000196370365587638,0.000259319874647242
2.42040340056676,-0.000106603504426704,0.000134151142935611,-4.10502512118865e-05,0.000589372412908699,-0.000196271376935436,0.000259416186282988
2.43040506751125,-0.000106483189418675,0.000134274802141979,-4.09248929650194e-05,0.000589497771155802,-0.000196147717728606,0.000259536501291017
2.44040673445574,-0.000106341072635932,0.000134420869111123,-4.07768190794192e-05,0.000589645845041685,-0.00019600165075891,0.00025967861807376
2.45040840140023,-0.000106179526382573,0.000134586905599908,-4.06085012989503e-05,0.00058981416282248,-0.00019583561426949,0.000259840164327119
2.46041006834472,-0.000106000971059661,0.000134770423931363,-4.04224614805201e-05,0.000590000202641276,-0.000195652095937322,0.000260018719650031
2.47041173528921,-0.000105807765563706,0.000134968999642614,-4.02211573983976e-05,0.000590201506723798,-0.000195453520225291,0.000260211925145986
2.48041340223371,-0.000105602115738403,0.000135180365577756,-4.00068873585318e-05,0.000590415776764094,-0.000195242154289309,0.000260417574971288
2.4904150691782,-0.000105386003974809,0.00013540248424447,-3.97817168477752e-05,0.000590640947275309,-0.000195020035621702,0.000260633686734883
2.50041673612269,-0.000105161141109978,0.00013563359725238,-3.95474284162637e-05,0.000590875235707301,-0.000194788922612853,0.000260858549599714
2.51041840306718,-0.000104928940032876,0.000135872252440767,-3.93054941769681e-05,0.000591117169947099,-0.000194550267423486,0.000261090750676816
2.52042007001167,-0.00010469050900902,0.000136117310739483,-3.90570688505202e-05,0.000591365595274068,-0.000194305209123753,0.000261329181700672
2.53042173695616,-0.000104446661754719,0.000136367935814685,-3.88030002617401e-05,0.000591619663863387,-0.000194054584047501,0.000261573028954973
2.54042340390065,-0.000104197940737776,0.000136623570120484,-3.85438536170296e-05,0.000591878810508651,-0.000193798949740621,0.000261821749971916
2.55042507084514,-0.000103944650013711,0.000136883901150031,-3.82799457169898e-05,0.000592142718409261,-0.000193538618709963,0.000262075040695981
2.56042673778963,-0.000103686894052066,0.000137148821530013,-3.80113854102089e-05,0.000592411278716627,-0.000193273698328839,0.000262332796657626
2.57042840473412,-0.00010342461937806,0.000137418386221564,-3.7738116980405e-05,0.000592684547147031,-0.000193004133636117,0.000262595071331632
2.58043007167861,-0.000103157656362469,0.000137692769568811,-3.74599636880137e-05,0.000592962700440039,-0.000192729750287666,0.000262862034347223
2.5904317386231,-0.000102885759059309,0.000137972224353894,-3.71766692777448e-05,0.000593245994850941,-0.000192450295501348,0.000263133931650383
2.60043340556759,-0.000102608641555055,0.000138257044437405,-3.6887935851449e-05,0.000593534728277888,-0.000192165475416566,0.000263411049154636
2.61043507251209,-0.000102326009811528,0.00013854753203042,-3.6593457045761e-05,0.000593829207084246,-0.000191874987822245,0.000263693680898164
2.62043673945658,-0.000102037588431191,0.000138843970185247,-3.62929459193184e-05,0.000594129718211377,-0.000191578549666074,0.000263982102278501
2.63043840640107,-0.000101743142136917,0.000139146600718622,-3.59861573328943e-05,0.000594436506798511,-0.000191275919131315,0.000264276548572775
2.64044007334556,-0.000101442492037656,0.000139455607493936,-3.56729048968699e-05,0.000594749759235266,-0.000190966912354575,0.000264577198672036
2.65044174029005,-0.000101135526953547,0.000139771104781335,-3.53530727710627e-05,0.000595069591361825,-0.000190651415065708,0.000264884163756145
2.66044340723454,-0.000100822210209722,0.000140093130275076,-3.50266227433069e-05,0.000595396041390355,-0.000190329389570457,0.00026519748049997
2.67044507417903,-0.000100502582389824,0.000140421642263479,-3.46935970983888e-05,0.00059572906703607,-0.0001900008775805,0.000265517108319868
2.68044674112352,-0.000100176760580554,0.000140756520405376,-3.43541178309263e-05,0.000596068546304352,-0.000189665999437004,0.000265842930129138
2.69044840806801,-9.98449346486209e-05,0.000141097569556647,-3.40083827662635e-05,0.000596414281369856,-0.000189324950284092,0.000266174756061071
2.7004500750125,-9.95073610807782e-05,0.000141444526101396,-3.36566591422977e-05,0.000596766004994686,-0.000188977993737658,0.000266512329628913
2.71045174195699,-9.9164354893659e-05,0.000141797066266991,-3.32992751802005e-05,0.000597123388957668,-0.000188625453570335,0.000266855335816033
2.72045340890148,-9.88162800885655e-05,0.000142154815934585,-3.29366101391004e-05,0.000597486053999675,-0.000188267703900973,0.000267203410621126
2.73045507584597,-9.84635390911516e-05,0.00014251736149296,-3.25690833131097e-05,0.000597853580826593,-0.000187905158340789,0.00026755615161854
2.74045674279047,-9.81065615797173e-05,0.000142884261320755,-3.21971423913345e-05,0.000598225521749314,-0.000187538258511148,0.000267913129129974
2.75045840973496,-9.77457930701871e-05,0.000143255057518772,-3.18212515643706e-05,0.000598601412577244,-0.000187167462311247,0.000268273897639505
2.76046007667945,-9.73816835916536e-05,0.0001436292875492,-3.14418797251601e-05,0.000598980784417438,-0.000186793232278901,0.000268638007118038
2.77046174362394,-9.701467675399e-05,0.000144006495471872,-3.10594890783514e-05,0.000599363175065247,-0.000186416024354277,0.000269005013955702
2.78046341056843,-9.66451994785765e-05,0.000144386242498977,-3.06745244405691e-05,0.000599748139704046,-0.000186036277325188,0.000269374491231115
2.79046507751292,-9.62736526345668e-05,0.000144768116619061,-3.02874034841816e-05,0.000600135260661465,-0.000185654403203091,0.000269746038075125
2.80046674445741,-9.59004027962029e-05,0.000145151741068821,-2.98985081491068e-05,0.000600524155997587,-0.000185270778751289,0.000270119287913489
2.8104684114019,-9.55257753112709e-05,0.000145536781457313,-2.95081774207196e-05,0.000600914486727034,-0.000184885738360728,0.000270493915398421
2.82047007834639,-9.51500488466418e-05,0.000145922951372022,-2.91167016467577e-05,0.00060130596250207,-0.000184499568443924,0.00027086964186305
2.83047174529088,-9.47734515536253e-05,0.000146310016320093,-2.87243185419392e-05,0.000601698345607975,-0.000184112503493734,0.000271246239156066
2.84047341223537,-9.43961589731223e-05,0.000146697795881401,-2.8331211005305e-05,0.000602091453145708,-0.000183724723930282,0.000271623531736569
2.85047507917986,-9.40182937776675e-05,0.000147086163973686,-2.79375068514491e-05,0.000602485157300674,-0.00018333635583583,0.000272001396932024
2.86047674612435,-9.363992742356e-05,0.000147475047154496,-2.7543280531901e-05,0.000602879383621346,-0.000182947472652829,0.000272379763286132
2.87047841306884,-9.32610837603341e-05,0.00014786442091139,-2.7148556895895e-05,0.000603274107258487,-0.00018255809889372,0.000272758606949357
2.88048008001334,-9.28817446155685e-05,0.000148254303921899,-2.67533170092771e-05,0.000603669347146252,-0.000182168215880974,0.000273137946094123
2.89048174695783,-9.2501857339086e-05,0.000148644750299628,-2.63575060149353e-05,0.000604065158141753,-0.000181777769500982,0.000273517833370606
2.90048341390232,-9.21213442505507e-05,0.000149035839884068,-2.59610429764105e-05,0.000604461621181451,-0.000181386679914255,0.000273898346459141
2.91048508084681,-9.17401138870453e-05,0.000149427666680378,-2.55638325969383e-05,0.000604858831562108,-0.000180994853115631,0.000274279576822646
2.9204867477913,-9.13580738914695e-05,0.000149820325612758,-2.51657786480902e-05,0.000605256885512155,-0.000180602194180912,0.000274661616818222
2.93048841473579,-9.097514531816e-05,0.000150213897821194,-2.4766798875041e-05,0.000605655865286417,-0.00018020862197011,0.000275044545391532
2.94049008168028,-9.05912780594368e-05,0.000150608434806126,-2.43668410697493e-05,0.000606055823092935,-0.000179814084982785,0.000275428412650255
2.95049174862477,-9.02064670173433e-05,0.000151003941807211,-2.39658999205679e-05,0.000606456764243357,-0.00017941857797928,0.000275813223692348
2.96049341556926,-8.98207685614691e-05,0.000151400360888045,-2.35640341599279e-05,0.000606858630005251,-0.000179022158895999,0.000276198922148222
2.97049508251375,-8.94343167306421e-05,0.000151797554284146,-2.31613834451564e-05,0.000607261280721291,-0.000178624965497425,0.00027658537397905
2.98049674945824,-8.90473385591414e-05,0.000152195288650734,-2.27581843271184e-05,0.000607664479840609,-0.000178227231128339,0.00027697235215055
2.99049841640273,-8.86601678439008e-05,0.000152593220912874,-2.23547845944985e-05,0.00060806787957452,-0.00017782929886368,0.000277359522865791
3.00050008334722,-8.82732566259345e-05,0.00015299088646491,-2.19516552364938e-05,0.000608471008933826,-0.000177431633309105,0.000277746434083757
3.01050175029172,-8.78871836453641e-05,0.000153387690480436,-2.15493992522492e-05,0.000608873264919379,-0.000177034829291026,0.000278132507064327
3.02050341723621,-8.75026590530604e-05,0.000153782903069687,-2.11487565599973e-05,0.000609273907612945,-0.000176639616699212,0.000278517031656631
3.0305050841807,-8.71205247299058e-05,0.000154175658951402,-2.07506043297034e-05,0.000609672059844554,-0.00017624686081493,0.000278899165979786
3.04050675112519,-8.67417496815765e-05,0.000154564962186053,-2.03559521848106e-05,0.000610066711990761,-0.000175857557577716,0.000279277941028115
3.05050841806968,-8.63674201437329e-05,0.000154949696345673,-1.996593189267e-05,0.000610456732284209,-0.000175472823415544,0.000279652270565959
3.06051008501417,-8.59987242465557e-05,0.000155328640275585,-1.95817813862613e-05,0.000610840882791916,-0.000175093879483101,0.000280020966463136
3.07051175195866,-8.56369313407868e-05,0.000155700489342996,-1.92048232236435e-05,0.000611217840955815,-0.000174722030413189,0.000280382759368905
3.08051341890315,-8.52833663670217e-05,0.000156063881780117,-1.8836437882887e-05,0.000611586226297833,-0.000174358637973608,0.00028073632434267
3.09051508584764,-8.49393799386747e-05,0.000156417429432759,-1.8478032591007e-05,0.000611944631590948,-0.000174005090318557,0.000281080310771017
3.10051675279213,-8.46063150861738e-05,0.000156759751940489,-1.81310066741767e-05,0.000612291657508981,-0.00017366276780848,0.000281413375623518
3.11051841973662,-8.42854718532861e-05,0.000157089513124365,-1.77967146700385e-05,0.000612625949514285,-0.00017333300662233,0.000281734218856405
3.12052008668111,-8.39780711243268e-05,0.000157405458165161,-1.74764286386599e-05,0.000612946235546787,-0.000173017061579342,0.000282041619585365
3.1305217536256,-8.3685219174604e-05,0.000157706450038257,-1.71713012270403e-05,0.000613251362959483,-0.000172716069704145,0.000282334471535088
3.1405234205701,-8.34078744622792e-05,0.00015799150364481,-1.68823310689882e-05,0.000613540333118559,-0.000172431016095594,0.000282611816247412
3.15052508751459,-8.3146818111459e-05,0.000158259816149094,-1.66103320309535e-05,0.000613812332157563,-0.000172162703589419,0.000282872872598233
3.16052675445908,-8.29026293755622e-05,0.000158510792197136,-1.63559076468939e-05,0.000614066756542534,-0.0001719117275396,0.000283117061334129
3.17052842140357,-8.26756671269991e-05,0.000158744062941542,-1.61194318320581e-05,0.000614303232358221,-0.000171678456793534,0.000283344023582692
3.18053008834806,-8.24660581116237e-05,0.000158959498113512,-1.59010366450994e-05,0.000614521627545968,-0.000171463021620024,0.000283553632598068
3.19053175529255,-8.22736923576667e-05,0.000159157210741522,-1.5700607504567e-05,0.000614722056687228,-0.000171265308990595,0.000283745998352025
3.20053342223704,-8.20982257655334e-05,0.000159337554489536,-1.55177858872585e-05,0.000614904878305202,-0.000171084965241282,0.000283921464944158
3.21053508918153,-8.19390895539287e-05,0.000159501113948326,-1.53519791702989e-05,0.000615070685022768,-0.000170921405781308,0.000284080601155763
3.22053675612602,-8.17955059238635e-05,0.000159648688536081,-1.52023769517339e-05,0.000615220287241883,-0.000170773831192483,0.000284224184785828
3.23053842307051,-8.16665090450383e-05,0.000159781270928693,-1.50679729165989e-05,0.000615354691277513,-0.000170641248798905,0.000284353181664653
3.240540090015,-8.15509702824024e-05,0.000159900021132024,-1.49475911208989e-05,0.000615475073073658,-0.000170522498594706,0.000284468720427289
3.25054175695949,-8.14476264707493e-05,0.000160006237421403,-1.48399154513887e-05,0.000615582748743567,-0.000170416282304548,0.000284572064238942
3.26054342390398,-8.13551100114741e-05,0.000160101325408321,-1.47435209838946e-05,0.00061567914321142,-0.000170321194316929,0.000284664580698217
3.27054509084847,-8.12719796014928e-05,0.000160186766457392,-1.46569060002966e-05,0.000615765758195341,-0.000170235753267228,0.000284747711108199
3.28054675779297,-8.11967504985964e-05,0.000160264086579757,-1.45785235225138e-05,0.000615844140673418,-0.000170158433144291,0.000284822940211095
3.29054842473746,-8.11279233661149e-05,0.000160334826786679,-1.45068113662493e-05,0.000615915852829951,-0.000170087692936843,0.000284891767343577
3.30055009168195,-8.10640109074888e-05,0.000160400515714651,-1.4440219892001e-05,0.00061598244430445,-0.000170022004008382,0.000284955679802203
3.31055175862644,-8.10035616834141e-05,0.000160462645146243,-1.43772368205497e-05,0.00061604542737614,-0.000169959874576325,0.000285016129026277
3.32055342557093,-8.09451806874986e-05,0.000160522648862545,-1.43164086710837e-05,0.000616106255525836,-0.000169899870859574,0.000285074510022193
3.33055509251542,-8.08875464301367e-05,0.00016058188508443,-1.42563585611777e-05,0.000616166305635971,-0.000169840634637244,0.000285132144279555
3.34055675945991,-8.08294244366975e-05,0.000160641622599188,-1.41958002707837e-05,0.000616226863926596,-0.000169780897122035,0.000285190266272994
3.3505584264044,-8.07696772001043e-05,0.000160703030531307,-1.41335486119926e-05,0.000616289115585625,-0.000169719489189451,0.000285250013509587
3.36056009334889,-8.07072707370479e-05,0.000160767171604026,-1.40685262600642e-05,0.000616354137937803,-0.000169655348116245,0.000285312419972644
3.37056176029338,-8.06412779811834e-05,0.000160834998651827,-1.39997672888556e-05,0.000616422896909276,-0.000169587521067928,0.000285378412728508
3.38056342723787,-8.05708793071393e-05,0.000160907354081856,-1.39264177167961e-05,0.000616496246481619,-0.000169515165637346,0.000285448811402552
3.39056509418236,-8.04953605185831e-05,0.000160984971941787,-1.38477334106181e-05,0.000616574930788102,-0.00016943754777682,0.000285524330191108
3.40056676112685,-8.04141086551304e-05,0.000161068482229452,-1.37630757165047e-05,0.000616659588482545,-0.000169354037488512,0.000285605582054561
3.41056842807135,-8.03266059800008e-05,0.000161158417072309,-1.36719051957267e-05,0.000616750759003679,-0.00016926410264496,0.000285693084729691
3.42057009501584,-8.02324225063538e-05,0.000161255218408834,-1.35737738377048e-05,0.000616848890362085,-0.000169167301307685,0.000285787268203338
3.43057176196033,-8.01312074082232e-05,0.000161359246816325,-1.34683161109168e-05,0.000616954348089288,-0.000169063272899385,0.000285888483301468
3.44057342890482,-8.00226796445113e-05,0.000161470791147514,-1.33552391938784e-05,0.000617067425006773,-0.000168951728567324,0.00028599701106518
3.45057509584931,-7.99066181036971e-05,0.000161590078659797,-1.32343127067471e-05,0.000617188351494384,-0.000168832441054106,0.000286113072605995
3.4605767627938,-7.97828515543388e-05,0.000161717285344052,-1.31053582405808e-05,0.000617317305961064,-0.000168705234368849,0.000286236839155353
3.47057842973829,-7.96512486632319e-05,0.000161852546183936,-1.29682389570871e-05,0.000617454425245107,-0.000168569973527894,0.00028636844204646
3.48058009668278,-7.95117083199063e-05,0.000161995965100321,-1.28228495075533e-05,0.000617599814695224,-0.00016842655461037,0.000286507982389785
3.49058176362727,-7.93641504833781e-05,0.000162147624358957,-1.26691064959211e-05,0.000617753557707477,-0.000168274895350523,0.000286655540226314
3.50058343057176,-7.92085077447937e-05,0.000162307593242351,-1.25069396877635e-05,0.000617915724516292,-0.000168114926465847,0.000286811182964898
3.51058509751625,-7.90447177777296e-05,0.00016247593580931,-1.23362841441232e-05,0.000618086380060627,-0.000167946583897532,0.000286974972931962
3.52058676446074,-7.88727168261988e-05,0.000162652717587942,-1.21570734365566e-05,0.000618265590768927,-0.00016776980211747,0.000287146973883493
3.53058843140523,-7.86924343585807e-05,0.000162838011070317,-1.19692340769726e-05,0.000618453430129283,-0.000167584508633589,0.000287327256351111
3.54059009834973,-7.85037889934104e-05,0.000163031899899928,-1.17726812726433e-05,0.000618649982934424,-0.000167390619802394,0.000287515901716281
3.55059176529422,-7.83066857799208e-05,0.00016323448166673,-1.1567316092755e-05,0.000618855348115164,-0.00016718803803393,0.000287713004929771
3.56059343223871,-7.81010148921739e-05,0.000163445869249312,-1.13530241078008e-05,0.000619069640101012,-0.000166976650449605,0.000287918675817518
3.5705950991832,-7.78866517703154e-05,0.000163666190669713,-1.11296755367572e-05,0.000619292988672991,-0.000166756329027378,0.000288133038939376
3.58059676612769,-7.76634587158322e-05,0.000163895587453824,-1.08971269092088e-05,0.000619525537301518,-0.000166526932241357,0.00028835623199386
3.59059843307218,-7.74312879196227e-05,0.000164134211519153,-1.06552242203469e-05,0.000619767439991404,-0.000166288308174031,0.000288588402790069
3.60060010001667,-7.71899858722805e-05,0.000164382220641954,-1.04038075261186e-05,0.000620018856686701,-0.000166040299049145,0.000288829704837411
3.61060176696116,-7.69393990754139e-05,0.000164639772587159,-1.01427168939473e-05,0.000620279947319988,-0.000165782747101762,0.000289080291634278
3.62060343390565,-7.66793809413755e-05,0.000164907018016872,-9.87179959167809e-06,0.000620550864623421,-0.00016551550166978,0.000289340309768316
3.63060510085014,-7.64097997369049e-05,0.000165184092325924,-9.59091836419384e-06,0.000620831745852117,-0.000165238427358363,0.000289609890972787
3.64060676779463,-7.61305473944796e-05,0.000165471106585612,-9.29996061411088e-06,0.000621122703603462,-0.000164951413096212,0.000289889143315212
3.65060843473912,-7.58415489843753e-05,0.000165768137808359,-8.99884827087915e-06,0.000621423815948007,-0.000164654381870905,0.000290178141725317
3.66061010168361,-7.55427726114642e-05,0.000166075218775828,-8.68754810242466e-06,0.000621735116117825,-0.000164347300900775,0.000290476918098228
3.6706117686281,-7.52342394746955e-05,0.000166392327699837,-8.36608219629213e-06,0.000622056582025373,-0.000164030191974005,0.000290785451234996
3.6806134355726,-7.49160338051938e-05,0.000166719378008027,-8.03453831431859e-06,0.000622388125908813,-0.000163703141662953,0.000291103656904498
3.69061510251709,-7.45883123822908e-05,0.00016705620856333,-7.69307980754803e-06,0.000622729584417102,-0.000163366311104688,0.000291431378327401
3.70061676946158,-7.42513133169085e-05,0.000167402574636445,-7.34195476778727e-06,0.000623080709458432,-0.000163019945028512,0.000291768377392783
3.71061843640607,-7.39053637898755e-05,0.000167758139952439,-6.98150409028885e-06,0.000623441160137549,-0.000162664379709361,0.000292114326919816
3.72062010335056,-7.35508864401986e-05,0.000168122470124903,-6.61216812979968e-06,0.000623810496099704,-0.000162300049533646,0.000292468804269493
3.73062177029505,-7.31884041160449e-05,0.000168495027772921,-6.23449165068963e-06,0.000624188172580526,-0.000161927491882287,0.000292831286593647
3.74062343723954,-7.28185427299017e-05,0.000168875169586548,-5.84912680179121e-06,0.00062457353743118,-0.000161547350065236,0.00029320114797979
3.75062510418403,-7.24420319993393e-05,0.000169262145565456,-5.45683388821292e-06,0.000624965830346553,-0.000161160374082825,0.000293577658710352
3.76062677112852,-7.20597039057203e-05,0.000169655100603067,-5.05847976544178e-06,0.000625364184471156,-0.000160767419041641,0.000293959986803972
3.77062843807301,-7.16724887641898e-05,0.0001700530785258,-4.65503374460039e-06,0.000625767630493861,-0.000160369441115273,0.000294347201945502
3.7806301050175,-7.12814088677917e-05,0.000170455028625614,-4.24756097014332e-06,0.000626175103270208,-0.000159967491011771,0.0002947382818419
3.79063177196199,-7.08875697443472e-05,0.000170859814646154,-3.83721331025069e-06,0.000626585450932013,-0.0001595627049875,0.000295132120965345
3.80063343890648,-7.04921491439791e-05,0.000171266226101317,-3.42521788274302e-06,0.00062699744636145,-0.000159156293528574,0.000295527541565713
3.81063510585098,-7.00963839545136e-05,0.000171672991723545,-3.01286342201678e-06,0.000627409800824114,-0.000158749527902564,0.000295923306755178
3.82063677279547,-6.97015553177602e-05,0.000172078794761241,-2.60148477144365e-06,0.00062782117947663,-0.000158343724861079,0.000296318135391932
3.83063843973996,-6.93089722880542e-05,0.000172482289774443,-2.19244585692934e-06,0.000628230218393083,-0.000157940229844093,0.000296710718421638
3.84064010668445,-6.8919954431786e-05,0.00017288212051895,-1.78712155706772e-06,0.000628635542694875,-0.000157540399095822,0.000297099736277906
3.85064177362894,-6.85358138096591e-05,0.000173276938464869,-1.38687893015051e-06,0.000629035785323705,-0.000157145581146171,0.000297483876900033
3.86064344057343,-6.81578368095313e-05,0.000173665421468738,-9.93058285495839e-07,0.000629429605970249,-0.000156757098138615,0.00029786185390016
3.87064510751792,-6.778726630517e-05,0.000174046292110679,-6.06954594353398e-07,0.000629815709663251,-0.000156376227493046,0.000298232424404522
3.88064677446241,-6.74252846044505e-05,0.000174418335220151,-2.29799723343232e-07,0.000630192864536084,-0.000156004184380017,0.000298594406105241
3.8906484414069,-6.70729976199029e-05,0.000174780414145398,1.37254058520326e-07,0.000630559918319728,-0.000155642105451296,0.000298946693089789
3.90065010835139,-6.67314206466682e-05,0.000175131485370794,4.9314889801673e-07,0.000630915813160957,-0.00015529103422252,0.000299288270063023
3.91065177529588,-6.64014660704759e-05,0.000175470611150526,8.36934164986231e-07,0.000631259598429606,-0.000154951908439512,0.000299618224639216
3.92065344224037,-6.60839332546283e-05,0.00017579696990271,1.16777698925206e-06,0.000631590441255493,-0.000154625549684165,0.000299935757455063
3.93065510918486,-6.57795007741841e-05,0.000176109864191053,1.48497035195623e-06,0.000631907634619757,-0.000154312655392779,0.000300240189935508
3.94065677612935,-6.54887210818332e-05,0.000176408726207251,1.78793864327535e-06,0.00063221060291257,-0.000154013793373667,0.000300530969627859
3.95065844307385,-6.52120176075627e-05,0.000176693120751931,2.07624068432712e-06,0.000632498904955047,-0.000153729398826206,0.000300807673102129
3.96066011001834,-6.49496842170124e-05,0.000176962745791355,2.3495702915197e-06,0.000632772234563595,-0.000153459773784137,0.000301070006492679
3.97066177696283,-6.47018868846771e-05,0.000177217430737709,2.6077545332133e-06,0.000633030418806573,-0.000153205088835278,0.000301317803825015
3.98066344390732,-6.44686673803816e-05,0.000177457132660163,2.85074988871948e-06,0.00063327341416329,-0.000152965386910462,0.00030155102332931
3.99066511085181,-6.42499487223743e-05,0.000177681930680201,3.0786365666306e-06,0.00063350130084234,-0.000152740588888201,0.000301769741987317
4.0006667777963,-6.40455421187557e-05,0.000177892018837264,3.29161127242792e-06,0.000633714275549205,-0.000152530500729057,0.000301974148590936
4.01066844474079,-6.38551551007385e-05,0.000178087697729409,3.48997873429942e-06,0.000633912643012072,-0.000152334821834968,0.000302164535608953
4.02067011168528,-6.36784005456776e-05,0.000178269365239494,3.6741423018925e-06,0.000634096806580592,-0.000152153154323075,0.000302341290164014
4.03067177862977,-6.35148062936032e-05,0.00017843750665134,3.844593926685e-06,0.000634267258206244,-0.000151985012909551,0.000302504884416089
4.04067344557426,-6.33638250764467e-05,0.000178592684444526,4.00190381655585e-06,0.00063442456809691,-0.000151829835114815,0.000302655865633245
4.05067511251875,-6.32248445023572e-05,0.000178735528032549,4.14671003295725e-06,0.000634569374314045,-0.000151686991525361,0.000302794846207335
4.06067677946324,-6.30971968664782e-05,0.000178866723679357,4.2797082688994e-06,0.000634702372550662,-0.000151555795877237,0.000302922493843214
4.07067844640773,-6.29801685923989e-05,0.000178987004795468,4.40164201174273e-06,0.000634824306294125,-0.000151435514759916,0.000303039522117293
4.08068011335223,-6.28730091434422e-05,0.000179097142778991,4.51329325837569e-06,0.000634935957541326,-0.000151325376775284,0.00030314668156625
4.09068178029672,-6.27749392784949e-05,0.000179197938530321,4.61547391332542e-06,0.000635038138196797,-0.000151224581022938,0.000303244751431197
4.10068344724121,-6.26851585619466e-05,0.000179290214733455,4.70901796402492e-06,0.000635131682247974,-0.000151132304818871,0.000303334532147745
4.1106851141857,-6.26028520704868e-05,0.000179374808962786,4.79477449288751e-06,0.000635217438777276,-0.000151047710588683,0.000303416838639205
4.12068678113019,-6.25271962702543e-05,0.000179452567642588,4.87360155380537e-06,0.000635296265838598,-0.000150969951908093,0.000303492494439438
4.13068844807468,-6.24573640656199e-05,0.000179524340857904,4.94636091173705e-06,0.000635369025196903,-0.000150898178692048,0.000303562326644072
4.14069011501917,-6.2392529045372e-05,0.000179590977990336,5.01391361853477e-06,0.000635436577904048,-0.000150831541558938,0.00030362716166432
4.15069178196366,-6.23318689730853e-05,0.00017965332413066,5.07711637627017e-06,0.000635499780662109,-0.00015076919541798,0.000303687821736607
4.16069344890815,-6.22745685859291e-05,0.000179712217202224,5.13681862110836e-06,0.000635559482907255,-0.000150710302345816,0.000303745122123763
4.17069511585264,-6.22198217801492e-05,0.000179768485714718,5.19386024621744e-06,0.000635616524532659,-0.000150654033832746,0.000303799868929543
4.18069678279713,-6.21668332720269e-05,0.000179822947057053,5.249069871187e-06,0.000635671734157914,-0.000150599572489854,0.000303852857437665
4.19069844974162,-6.21148198304353e-05,0.00017987640623054,5.30326355780689e-06,0.000635725927844815,-0.00015054611331582,0.000303904870879256
4.20070011668611,-6.20630111813393e-05,0.000179929654919252,5.35724386765348e-06,0.000635779908154941,-0.000150492864626562,0.000303956679528352
4.21070178363061,-6.20106506859182e-05,0.000179983470793051,5.41179915554188e-06,0.000635834463443113,-0.00015043904875221,0.000304009040023774
4.2207034505751,-6.19569958926339e-05,0.000180038616940177,5.46770299431708e-06,0.000635890367282179,-0.000150383902604517,0.000304062694817058
4.23070511751959,-6.19013190597258e-05,0.000180095841330228,5.52571363045734e-06,0.000635948377918621,-0.000150326678213876,0.000304118371649966
4.24070678446408,-6.18429077385102e-05,0.00018015587621465,5.58657337632482e-06,0.000636009237664806,-0.000150266643328834,0.000304176782971182
4.25070845140857,-6.1781065499711e-05,0.000180219437380216,5.65100785338951e-06,0.000636073672142207,-0.000150203082162612,0.000304238625209981
4.26071011835306,-6.17151128750814e-05,0.000180287223181231,5.71972501113735e-06,0.000636142389300314,-0.000150135296360896,0.00030430457783461
4.27071178529755,-6.16443885750219e-05,0.000180359913288072,5.7934138584132e-06,0.000636216078147976,-0.000150062606253303,0.00030437530213467
4.28071345224204,-6.15682510300087e-05,0.000180438167102912,5.87274285738091e-06,0.000636295407147359,-0.000149984352437652,0.000304451439679683
4.29071511918653,-6.14860802896593e-05,0.000180522621807872,5.95835794485461e-06,0.000636381022235283,-0.000149899897731814,0.000304533610420032
4.30071678613102,-6.13972802984589e-05,0.000180613890026041,6.0508801611805e-06,0.000636473544452095,-0.000149808629512697,0.000304622410411233
4.31071845307551,-6.13012815518228e-05,0.000180712557091582,6.15090288284038e-06,0.000636573567174281,-0.000149709962446128,0.000304718409157869
4.32072012002,-6.1197544120572e-05,0.000180819177941197,6.25898867119984e-06,0.00063668165296321,-0.000149603341595403,0.00030482214658912
4.33072178696449,-6.10855610163586e-05,0.000180934273655151,6.37566576601379e-06,0.00063679833005864,-0.000149488245880247,0.000304934129693333
4.34072345390898,-6.09648618554283e-05,0.000181058327691682,6.50142426809058e-06,0.000636924088561381,-0.00014936419184242,0.000305054828854263
4.35072512085348,-6.0835016763666e-05,0.000181191781873406,6.63671207055859e-06,0.000637059376364565,-0.0001492307376593,0.000305184673946026
4.36072678779797,-6.06956404524987e-05,0.000181335032198127,6.781930612114e-06,0.000637204594906889,-0.000149087487333078,0.000305324050257193
4.37072845474246,-6.05463963832649e-05,0.000181488424558717,6.9374305380939e-06,0.000637360094833694,-0.000148934094970879,0.000305473294326427
4.38073012168695,-6.03870009274525e-05,0.000181652250467243,7.1035073658535e-06,0.000637526171662335,-0.000148770269060633,0.000305632689782239
4.39073178863144,-6.02172274220905e-05,0.000181826742886851,7.28039725938485e-06,0.000637703061556807,-0.00014859577663919,0.000305802463287601
4.40073345557593,-6.00369100138684e-05,0.000182012072280804,7.4682730240641e-06,0.000637890937322487,-0.000148410447243285,0.000305982780695823
4.41073512252042,-5.98459471825276e-05,0.000182208342991151,7.66724043556978e-06,0.000638089904735053,-0.000148214176530869,0.000306173743527164
4.42073678946491,-5.96443048339619e-05,0.000182415590059656,7.87733501712885e-06,0.000638299999317734,-0.000148006929460176,0.00030637538587573
4.4307384564094,-5.94320188564404e-05,0.000182633776600523,8.09851937614549e-06,0.000638521183677932,-0.000147788742917003,0.000306587671853251
4.44074012335389,-5.92091970395258e-05,0.00018286279182814,8.33068120484668e-06,0.000638753345507876,-0.000147559727686962,0.000306810493670166
4.45074179029838,-5.89760202646136e-05,0.000183102449833449,8.57363203983968e-06,0.00063899629634417,-0.000147320069679114,0.000307043670445078
4.46074345724287,-5.87327428884501e-05,0.00018335248918977,8.82710686251842e-06,0.000639249771168209,-0.00014707003032014,0.000307286947821242
4.47074512418736,-5.84796922563033e-05,0.000183612573453156,9.09076460629812e-06,0.000639513428913405,-0.000146809946053991,0.000307539998453388
4.48074679113186,-5.82172672993331e-05,0.000183882292604016,9.36418961803994e-06,0.000639786853926617,-0.000146540226900262,0.000307802423410359
4.49074845807635,-5.7945936190677e-05,0.000184161165456176,9.64689410021466e-06,0.000640069558410314,-0.000146261354045132,0.000308073754519015
4.50075012502084,-5.76662330563116e-05,0.00018444864303744,9.93832153791179e-06,0.000640360985849582,-0.000145973876460802,0.00030835345765338
4.51075179196533,-5.73787537591981e-05,0.000184744112922626,1.02378510914098e-05,0.000640660515404697,-0.000145678406572462,0.000308640936950494
4.52075345890982,-5.7084150797869e-05,0.000185046904476776,1.05448029114254e-05,0.000640967467226372,-0.000145375615015075,0.000308935539911823
4.53075512585431,-5.67831273826912e-05,0.000185356294943543,1.08584443111554e-05,0.000641281108627799,-0.000145066224544997,0.000309236563327
4.5407567927988,-5.64764307737742e-05,0.000185671516292461,1.11779967076228e-05,0.000641600661025998,-0.000144751003192701,0.000309543259935917
4.55075845974329,-5.61648449831263e-05,0.000185991762719631,1.15026432254241e-05,0.000641925307545561,-0.000144430756762094,0.000309854845726565
4.56076012668778,-5.58491829595041e-05,0.000186316198680102,1.18315368394674e-05,0.00064225420116139,-0.000144106320798138,0.000310170507750188
4.57076179363227,-5.55302783868619e-05,0.00018664396731738,1.21638089203068e-05,0.000642586473244037,-0.000143778552157335,0.00031048941232283
4.58076346057676,-5.52089772359247e-05,0.000186974199146686,1.24985780367015e-05,0.000642921242362254,-0.000143448320324473,0.000310810713473767
4.59076512752125,-5.48861292128898e-05,0.000187306020843942,1.28349588653589e-05,0.000643257623192745,-0.00014311649862364,0.000311133561496802
4.60076679446574,-5.45625792494735e-05,0.000187638563992257,1.31720710575991e-05,0.000643594735386825,-0.000142783955471736,0.000311457111460218
4.61076846141023,-5.42391591745377e-05,0.000187970973641793,1.35090479168285e-05,0.000643931712247895,-0.000142451545818607,0.000311780531535154
4.62077012835473,-5.39166796995984e-05,0.000188302416547024,1.38450447489738e-05,0.000644267709081878,-0.000142120102909792,0.000312103011010093
4.63077179529922,-5.35959228390445e-05,0.000188632088957196,1.41792467599855e-05,0.00064460191109472,-0.00014179043049605,0.000312423767870647
4.64077346224371,-5.32776348714413e-05,0.000188959223850668,1.45108763895742e-05,0.000644933540726126,-0.000141463295599032,0.00031274205583825
4.6507751291882,-5.29625199315272e-05,0.000189283097521031,1.48391999878184e-05,0.000645261864326171,-0.000141139421925155,0.000313057170778165
4.66077679613269,-5.2651234304155e-05,0.000189603035441763,1.51635337604034e-05,0.000645586198100537,-0.000140819484000948,0.000313368456405537
4.67077846307718,-5.23443814722627e-05,0.000189918417355906,1.54832489282252e-05,0.000645905913270116,-0.000140504102083377,0.000313675309237429
4.68078013002167,-5.20425079517063e-05,0.000190228681557004,1.57977760671478e-05,0.000646220440410769,-0.000140193837878903,0.000313977182757985
4.69078179696616,-5.17460999271672e-05,0.000190533328346702,1.61066086131094e-05,0.000646529272958431,-0.000139889191085888,0.000314273590782525
4.70078346391065,-5.1455580685948e-05,0.000190831922672278,1.6409305535893e-05,0.000646831969882882,-0.000139590596757057,0.000314564110023744
4.71078513085514,-5.11713088308097e-05,0.000191124095963482,1.67054932012023e-05,0.000647128157549825,-0.000139298423462667,0.000314848381878882
4.72078679779963,-5.08935772394469e-05,0.00019140954720198,1.69948664548023e-05,0.000647417530805022,-0.000139012972221054,0.000315126113470245
4.73078846474412,-5.0622612726999e-05,0.000191688043268227,1.72771889741537e-05,0.000647699853325932,-0.000138734476151765,0.000315397077982693
4.74079013168862,-5.03585763592701e-05,0.000191959418619538,1.75522929420648e-05,0.000647974957295363,-0.000138463100797489,0.000315661114350422
4.75079179863311,-5.010156435808e-05,0.000192223574359575,1.78200781033902e-05,0.000648242742458169,-0.000138198945054564,0.000315918126351612
4.7607934655776,-4.98516095362942e-05,0.000192480476763426,1.80805102698492e-05,0.000648503174626068,-0.000137942042647902,0.000316168081173398
4.77079513252209,-4.96086831983956e-05,0.000192730155324212,1.83336193397874e-05,0.000648756283697407,-0.000137692364084384,0.000316411007511296
4.78079679946658,-4.93726974427232e-05,0.000192972700386849,1.85794968994359e-05,0.000649002161258417,-0.000137449819019091,0.000316646993266969
4.79079846641107,-4.91435078034156e-05,0.000193208260432681,1.88182934702249e-05,0.000649240957830528,-0.00013721425897068,0.000316876182906276
4.80080013335556,-4.89209161733685e-05,0.000193437039075266,1.90502154633051e-05,0.000649472879824894,-0.000136985480325587,0.000317098774536323
4.81080180030005,-4.87046739538141e-05,0.000193659291823264,1.92755218979472e-05,0.000649698186260784,-0.000136763227575154,0.000317315016755878
4.82080346724454,-4.8494485381171e-05,0.000193875322661109,1.94945209352412e-05,0.000649917185299292,-0.000136547196734941,0.000317525205328521
4.83080513418903,-4.82900109872968e-05,0.000194085480492578,1.97075662727997e-05,0.000650130230638031,-0.000136337038901168,0.000317729679722395
4.84080680113352,-4.80908711549708e-05,0.000194290155486488,1.99150534402409e-05,0.000650337717806623,-0.000136132363905014,0.000317928819554721
4.85080846807801,-4.78966497360954e-05,0.000194489775357917,2.01174160293231e-05,0.000650540080396827,-0.000135932744031396,0.000318123040973596
4.8608101350225,-4.77068977055688e-05,0.000194684801612779,2.03151218869123e-05,0.000650737786255513,-0.000135737717774395,0.000318312793004123
4.87081180196699,-4.75211368288818e-05,0.000194875725778278,2.05086692936515e-05,0.000650931333663325,-0.000135546793606802,0.00031849855388081
4.88081346891149,-4.73388633261187e-05,0.00019506306563707,2.06985831463759e-05,0.000651121247517102,-0.000135359453745955,0.000318680827383573
4.89081513585598,-4.71595515191029e-05,0.000195247361478742,2.08854111580898e-05,0.000651308075529852,-0.000135175157902263,0.000318860139190589
4.90081680280047,-4.69826574518714e-05,0.000195429172378703,2.10697200857329e-05,0.000651492384458517,-0.000134993347000308,0.00031903703325782
4.91081846974496,-4.68076224774407e-05,0.000195609072511727,2.12520919930687e-05,0.000651674756366863,-0.000134813446865313,0.000319212068232251
4.92082013668945,-4.66338768059413e-05,0.000195787647505191,2.14331205538223e-05,0.00065185578492862,-0.000134634871869891,0.00031938581390375
4.93082180363394,-4.64608430106413e-05,0.000195965490835607,2.16134073986948e-05,0.000652036071774491,-0.000134457028537526,0.00031955884769905
4.94082347057843,-4.62879394891852e-05,0.000196143200271173,2.17935585090409e-05,0.000652216222885835,-0.000134279319100014,0.000319731751220507
4.95082513752292,-4.61145838775643e-05,0.000196321374362908,2.19741806597943e-05,0.000652396845037589,-0.000134101145006328,0.000319905106832127
4.96082680446741,-4.59401964139744e-05,0.000196500608987301,2.21558779146082e-05,0.000652578542293409,-0.000133921910379973,0.000320079494295717
4.9708284714119,-4.5764203248848e-05,0.000196681493944269,2.23392481770755e-05,0.000652761912556891,-0.000133741025421025,0.000320255487460844
4.98083013835639,-4.55860396960541e-05,0.000196864609615592,2.25248798032497e-05,0.000652947544184092,-0.000133557909747699,0.000320433651013638
4.99083180530088,-4.54051534186005e-05,0.000197050523690664,2.27133482824071e-05,0.000653136012664291,-0.000133371995670594,0.000320614537291091
5.00083347224537,-4.52210075402504e-05,0.000197239787968384,2.29052129950009e-05,0.000653327877377946,-0.000133182731390804,0.000320798683169441
5.01083513918987,-4.5033083672355e-05,0.000197432935246197,2.31010140589527e-05,0.000653523678442979,-0.000132989584110881,0.000320986607037337
5.02083680613436,-4.48410113429288e-05,0.000197630346293486,2.33011374753052e-05,0.000653723801860437,-0.000132792173061435,0.000321178679366763
5.03083847307885,-4.4645040684265e-05,0.000197831764025444,2.35053226269814e-05,0.000653927987013241,-0.000132590755327278,0.000321374650025427
5.04084014002334,-4.44423381615208e-05,0.00019804010073601,2.37165218219728e-05,0.000654139186209398,-0.000132382418614438,0.000321577352548171
5.05084180696783,-4.422738909647e-05,0.000198261024385828,2.39404808970171e-05,0.000654363145285678,-0.00013216149496221,0.000321792301613222
5.06084347391232,-4.39952717844331e-05,0.000198499593480088,2.41823278596605e-05,0.000654604992249655,-0.000131922925865347,0.000322024418925259
5.07084514085681,-4.3742884092417e-05,0.000198758996376659,2.44452948748613e-05,0.000654867959266305,-0.000131663522965947,0.000322276806617275
5.0808468078013,-4.34687337181487e-05,0.000199040766856882,2.47309367976574e-05,0.000655153601190676,-0.000131381752482654,0.000322550956991543
5.09084847474579,-4.31725000133171e-05,0.000199345234481597,2.50395877169603e-05,0.000655462252111679,-0.000131077284854619,0.000322847190696375
5.10085014169028,-4.28546829859146e-05,0.000199671885344917,2.53707266659658e-05,0.00065579339106251,-0.00013075063398774,0.000323165007723777
5.11085180863477,-4.25163701397364e-05,0.000200019601715495,2.57232205560322e-05,0.000656145884954519,-0.000130402917613372,0.000323503320569955
5.12085347557926,-4.21590882828233e-05,0.000200386814347124,2.6095478579977e-05,0.000656518142980515,-0.00013003570497774,0.000323860602426869
5.13085514252375,-4.17847056300723e-05,0.000200771603097218,2.64855542130255e-05,0.000656908218615714,-0.00012965091622345,0.00032423498507962
5.14085680946824,-4.13953603310071e-05,0.000201171770385635,2.68912196809397e-05,0.000657313884085866,-0.000129250748930667,0.000324624330378685
5.15085847641274,-4.09934015597458e-05,0.000201584901742138,2.73100273393786e-05,0.000657732691746617,-0.000128837617569655,0.000325026289149946
5.16086014335723,-4.05813360707818e-05,0.000202008420736111,2.77393653583368e-05,0.000658162029767946,-0.000128414098571056,0.00032543835463891
5.17086181030172,-4.01617771459281e-05,0.000202439641448655,2.81765109151887e-05,0.000658599175327214,-0.000127982877853798,0.000325857913563764
5.18086347724621,-3.97373950643938e-05,0.000202875819379212,2.8618681800755e-05,0.000659041346215226,-0.00012754669991847,0.000326282295645298
5.1908651441907,-3.93108693476855e-05,0.000203314200528034,2.90630861761504e-05,0.000659485750593081,-0.000127108318764848,0.000326708821362006
5.20086681113519,-3.88848435281775e-05,0.000203752067884835,2.95069697001766e-05,0.000659929634119568,-0.000126670451403247,0.000327134847181514
5.21086847807968,-3.84618833362808e-05,0.000204186784403826,2.99476590948199e-05,0.000660370323516656,-0.000126235734879486,0.000327557807373411
5.22087014502417,-3.80444391499957e-05,0.00020461583159789,3.03826012696988e-05,0.00066080526569395,-0.000125806687680709,0.000327975251559696
5.23087181196866,-3.76348133906019e-05,0.000205036843049138,3.08093972930477e-05,0.000661232061719673,-0.000125385676224831,0.00032838487731909
5.24087347891315,-3.72351333330061e-05,0.000205447632354312,3.12258307210764e-05,0.00066164849515002,-0.000124974886915134,0.000328784557376686
5.25087514585764,-3.68473295641762e-05,0.000205846215265099,3.16298900424926e-05,0.000662052554473688,-0.000124576303999953,0.000329172361145516
5.26087681280213,-3.6473120093075e-05,0.000206230826019876,3.20197852346317e-05,0.000662442449668003,-0.000124191693240931,0.000329546570616617
5.27087847974662,-3.61139999084314e-05,0.000206599928076176,3.23939586433915e-05,0.000662816623078854,-0.000123822591180551,0.000329905690801261
5.28088014669112,-3.5771235608712e-05,0.000206952219629985,3.27510905783565e-05,0.000663173755015817,-0.000123470299622845,0.00033024845510098
5.29088181363561,-3.54458645987298e-05,0.000207286634441457,3.30901001498643e-05,0.000663512764589224,-0.000123135884807668,0.000330573826110962
5.3008834805801,-3.51386982617519e-05,0.000207602338574643,3.34101419639334e-05,0.000663832806405088,-0.000122820180670979,0.00033088099244794
5.31088514752459,-3.48503284730262e-05,0.000207898723702916,3.37105993357087e-05,0.00066413326377855,-0.000122523795539415,0.000331169362236666
5.32088681446908,-3.4581136815571e-05,0.000208175397637024,3.39910746873742e-05,0.000664413739131792,-0.000122247121602232,0.000331438553894121
5.33088848141357,-3.43313058850428e-05,0.000208432172705999,3.425137776942e-05,0.000664674042215303,-0.000121990346530399,0.000331688384824649
5.34089014835806,-3.41008321197443e-05,0.000208669052570538,3.44915122928391e-05,0.000664914176740075,-0.000121753466663221,0.000331918858589948
5.35089181530255,-3.38895396565264e-05,0.000208886217981968,3.47116614924282e-05,0.000665134325940905,-0.000121536301249369,0.000332130151053166
5.36089348224704,-3.36970947863061e-05,0.000209084011924934,3.49121730653385e-05,0.000665334837514947,-0.000121338507304195,0.000332322595923386
5.37089514919153,-3.3523020658143e-05,0.000209262924504615,3.50935438506494e-05,0.000665516208301283,-0.000121159594722514,0.000332496670051549
5.38089681613602,-3.33667119536012e-05,0.000209423577864487,3.52564045399016e-05,0.000665679068991455,-0.000120998941360846,0.000332652978756091
5.39089848308051,-3.32274493201769e-05,0.000209566711351708,3.54015046386643e-05,0.000665824169091039,-0.000120855807872023,0.000332792241389515
5.400900150025,-3.31044134118299e-05,0.000209693167086331,3.55296978374681e-05,0.000665952362290569,-0.000120729352135985,0.000332915277297862
5.41090181696949,-3.29966984351143e-05,0.000209803876038647,3.56419278978604e-05,0.000666064592351597,-0.000120618643182429,0.000333022992274578
5.42090348391399,-3.29033251408457e-05,0.000209899844676416,3.57392151161686e-05,0.000666161879570456,-0.000120522674543583,0.000333116365568846
5.43090515085848,-3.28232532340057e-05,0.000209982142210023,3.58226433934089e-05,0.00066624530784817,-0.000120440377009054,0.000333196437475686
5.44090681780297,-3.27553931993917e-05,0.000210051888438127,3.58933479139422e-05,0.000666316012369104,-0.000120370630780168,0.0003332642975103
5.45090848474746,-3.26986175582377e-05,0.000210110242178162,3.59525034170096e-05,0.000666375167872507,-0.000120312277039477,0.000333321073151454
5.46091015169195,-3.2651771582641e-05,0.000210158390254099,3.60013130331897e-05,0.000666423977488964,-0.000120264128962999,0.000333367919127051
5.47091181863644,-3.26136835010578e-05,0.000210197537007284,3.60409976511195e-05,0.00066646366210712,-0.000120224982209375,0.000333406007208634
5.48091348558093,-3.25831742302705e-05,0.000210228894293966,3.60727857775935e-05,0.000666495450233774,-0.000120193624922341,0.000333436516479422
5.49091515252542,-3.25590666678644e-05,0.000210253671934534,3.60979038555733e-05,0.000666520568311897,-0.000120168847281495,0.000333460624041828
5.50091681946991,-3.25401945751054e-05,0.000210273068583737,3.61175670089678e-05,0.000666540231465403,-0.000120149450632073,0.000333479496134587
5.5109184864144,-3.25254110737759e-05,0.000210288262997677,3.6132970189636e-05,0.000666555634646158,-0.000120134256217963,0.000333494279635916
5.52092015335889,-3.25135967725777e-05,0.000210300405681525,3.61452797103488e-05,0.000666567944166941,-0.000120122113533978,0.000333506093937115
5.53092182030338,-3.2503667529628e-05,0.000210310610911269,3.61556251569141e-05,0.000666578289613565,-0.000120111908304119,0.000333516023180064
5.54092348724787,-3.24945818478058e-05,0.000210319949132808,3.61650916828392e-05,0.000666587756139544,-0.000120102570082476,0.000333525108861886
5.55092515419236,-3.24853478896903e-05,0.000210329439752032,3.61747127003481e-05,0.000666597377157108,-0.000120093079463146,0.000333534342820002
5.56092682113686,-3.24750300889653e-05,0.000210340044339651,3.6185462991847e-05,0.000666608127448668,-0.000120082474875407,0.000333544660620727
5.57092848808135,-3.24627553258479e-05,0.000210352660284119,3.61982522756398e-05,0.000666620916732533,-0.000120069858930797,0.000333556935383844
5.58093015502584,-3.2447718625722e-05,0.000210368114934605,3.62139192684265e-05,0.000666636583725409,-0.000120054404280138,0.00033357197208397
5.59093182197033,-3.24291883330832e-05,0.000210387160283234,3.62332262944813e-05,0.000666655890751573,-0.000120035358931295,0.000333590502376609
5.60093348891482,-3.24065107074985e-05,0.000210410468241385,3.62568544970444e-05,0.00066667951895427,-0.000120012050972882,0.000333613180002194
5.61093515585931,-3.23791138848534e-05,0.000210438626568336,3.6285399711032e-05,0.00066670806416842,-0.000119983892645616,0.000333640576824839
5.6209368228038,-3.23465111459918e-05,0.000210472135511772,3.63193690573843e-05,0.000666742033514965,-0.000119950383701803,0.0003336731795637
5.63093848974829,-3.23083034361536e-05,0.000210511405218322,3.63591783180215e-05,0.000666781842775828,-0.000119911113994813,0.000333711387273539
5.64094015669278,-3.22641810825242e-05,0.000210556753968264,3.64051501462988e-05,0.000666827814604366,-0.000119865765244363,0.000333755509627168
5.65094182363727,-3.22139246637787e-05,0.000210608407281815,3.6457513161015e-05,0.000666880177619379,-0.000119814111930232,0.000333805766045913
5.66094349058176,-3.21574049946638e-05,0.00021066649793498,3.65164019624754e-05,0.000666939066421173,-0.000119756021276415,0.000333862285715028
5.67094515752625,-3.20945822002651e-05,0.000210731066911009,3.65818580970295e-05,0.000667004522556099,-0.000119691452299662,0.000333925108509427
5.68094682447075,-3.20255038683493e-05,0.000210802065299417,3.66538319821763e-05,0.000667076496441654,-0.000119620453910458,0.000333994186841343
5.69094849141524,-3.19503022836826e-05,0.000210879357138537,3.67321857881752e-05,0.000667154850248097,-0.000119543162070472,0.000334069388426009
5.70095015835973,-3.18691907649876e-05,0.000210962723180376,3.68166972546325e-05,0.000667239361715033,-0.000119459796027697,0.000334150499944704
5.71095182530422,-3.17824591426517e-05,0.00021105186553861,3.69070644023541e-05,0.000667329728863268,-0.000119370653668463,0.00033423723156704
5.72095349224871,-3.16904684327821e-05,0.000211146413162563,3.70029110825373e-05,0.000667425575543995,-0.00011927610604345,0.00033432922227691
5.7309551591932,-3.15936447800559e-05,0.000211245928062716,3.71037932878183e-05,0.000667526457749848,-0.00011917659114218,0.000334426045929636
5.74095682613769,-3.14924727573537e-05,0.000211349912197316,3.72092061334976e-05,0.000667631870596125,-0.000119072607006413,0.000334527217952338
5.75095849308218,-3.13874881237688e-05,0.000211457814915656,3.73185914030929e-05,0.000667741255866341,-0.000118964704286862,0.000334632202585923
5.76096016002667,-3.12792701536835e-05,0.00021156904084222,3.74313455408045e-05,0.000667854010004693,-0.000118853478359049,0.000334740420556009
5.77096182697116,-3.11684336577442e-05,0.000211682958077484,3.75468279649964e-05,0.000667969492429541,-0.000118739561122506,0.000334851257051948
5.78096349391565,-3.10556208214265e-05,0.0002117989065862,3.76643695717347e-05,0.000668087034036947,-0.000118623612612486,0.000334964069888266
5.79096516086014,-3.09414929882834e-05,0.000211916206642541,3.7783281295959e-05,0.000668205945761847,-0.000118506312554827,0.000335078197721409
5.80096682780463,-3.08267225129097e-05,0.000212034167203578,3.79028626000182e-05,0.000668325527066586,-0.000118388351992464,0.000335192968196782
5.81096849474913,-3.07119848032647e-05,0.000212152094088151,3.80224097649093e-05,0.000668445074232157,-0.000118270425106564,0.000335307705906427
5.82097016169362,-3.05979506635852e-05,0.000212269297846785,3.81412238683251e-05,0.000668563888336249,-0.000118153221346611,0.000335421740046107
5.83097182863811,-3.04852790381013e-05,0.000212385101219662,3.82586183451008e-05,0.000668681282813693,-0.00011803741797243,0.000335534411671591
5.8409734955826,-3.03746102426597e-05,0.000212498846093132,3.83739260393002e-05,0.00066879659050855,-0.000117923673097679,0.000335645080467032
5.85097516252709,-3.02665597567505e-05,0.000212609899880237,3.84865056724081e-05,0.000668909170142299,-0.000117812619309322,0.000335753130952942
5.86097682947158,-3.01617126329368e-05,0.000212717661266672,3.85957476682402e-05,0.000669018412138754,-0.000117704857921672,0.000335857978076755
5.87097849641607,-3.0060618564905e-05,0.000212821565279821,3.87010792916253e-05,0.00066912374376274,-0.00011760095390735,0.000335959072144787
5.88098016336056,-2.99637876398593e-05,0.000212921087654428,3.88019690740577e-05,0.000669224633545749,-0.000117501431531619,0.000336055903069833
5.89098183030505,-2.98716867862765e-05,0.000213015748483574,3.88979305148412e-05,0.00066932059498708,-0.000117406770701403,0.000336148003923416
5.90098349724954,-2.9784736914534e-05,0.000213105115157531,3.89885250603178e-05,0.000669411189533075,-0.000117317404026436,0.000336234953795158
5.91098516419403,-2.97033107359422e-05,0.000213188804605347,3.90733643762545e-05,0.000669496028849497,-0.000117233714577674,0.00033631637997375
5.92098683113852,-2.96277312354634e-05,0.000213266484864579,3.91521119391432e-05,0.000669574776412836,-0.000117156034317563,0.000336391959474229
5.93098849808301,-2.9558270765005e-05,0.000213337876013202,3.92244839809143e-05,0.000669647148455021,-0.000117084643168132,0.000336461419944687
5.9409901650275,-2.94951507176448e-05,0.00021340275050444,3.92902498283668e-05,0.000669712914302851,-0.000117019768676158,0.000336524539992047
5.950991831972,-2.94385417384278e-05,0.00021346093295011,3.93492316835351e-05,0.000669771896158357,-0.000116961586229829,0.000336581148971264
5.96099349891649,-2.93885644243456e-05,0.000213512299401184,3.94013038943693e-05,0.00066982396836949,-0.000116910219778172,0.000336631126285347
5.97099516586098,-2.93452904645855e-05,0.00021355677617585,3.94463917666897e-05,0.000669869056242069,-0.000116865743003002,0.000336674400245107
5.98099683280547,-2.93087441719318e-05,0.000213594338285539,3.94844699685941e-05,0.000669907134444192,-0.000116828180892886,0.00033671094653776
5.99099849974996,-2.92789043570743e-05,0.000213625007508527,3.95155605775843e-05,0.000669938225053361,-0.00011679751166955,0.000336740786352618
6.00100016669445,-2.92557064993225e-05,0.00021364885015888,3.95397308188614e-05,0.000669962395294776,-0.000116773669018926,0.00033676398421037
6.01100183363894,-2.92390451696114e-05,0.0002136659745961,3.95570905407556e-05,0.00066997975501677,-0.000116756544581511,0.000336780645540081
6.02100350058343,-2.92287906004537e-05,0.000213676514194608,3.95677749502122e-05,0.000669990439426289,-0.000116746004982884,0.000336790900109239
6.03100516752792,-2.92248871247997e-05,0.000213680526168738,3.95718420476736e-05,0.000669994506523773,-0.000116741993008708,0.000336794803584893
6.04100683447241,-2.92281701657467e-05,0.000213677151874515,3.95684213916518e-05,0.000669991085867732,-0.000116745367302969,0.000336791520543946
6.0510085014169,-2.92399210833308e-05,0.000213665074336051,3.95561779114016e-05,0.000669978842387411,-0.000116757444841571,0.000336779769626361
6.06101016836139,-2.9260936761347e-05,0.000213643474519886,3.95342813201867e-05,0.00066995694579607,-0.000116779044657982,0.000336758753948345
6.07101183530588,-2.92913321717107e-05,0.00021361223425842,3.95026118268197e-05,0.000669925276302521,-0.000116810284919804,0.000336728358537982
6.08101350225038,-2.93307527390203e-05,0.000213571717982602,3.94615388694224e-05,0.000669884203344887,-0.000116850801196083,0.000336688937970672
6.09101516919487,-2.93786040477423e-05,0.000213522536629954,3.9411681779617e-05,0.000669834346254794,-0.000116899982549291,0.00033664108666195
6.10101683613936,-2.94341932499168e-05,0.000213465402306389,3.93537624474388e-05,0.000669776426922282,-0.000116957116873508,0.000336585497459775
6.11101850308385,-2.94967925294314e-05,0.000213401063057922,3.92885391968345e-05,0.000669711203671302,-0.000117021456122708,0.000336522898180261
6.12102017002834,-2.95656595566638e-05,0.00021333028184749,3.92167854736226e-05,0.000669639449947677,-0.000117092237333947,0.000336454031153028
6.13102183697283,-2.96400412149549e-05,0.000213253832724892,3.91392859628182e-05,0.000669561950436426,-0.000117168686457416,0.000336379649494737
6.14102350391732,-2.97191738532453e-05,0.000213172500567137,3.90568363254067e-05,0.00066947950079854,-0.000117250018616097,0.000336300516856447
6.15102517086181,-2.98022846609884e-05,0.000213087079665314,3.89702417657985e-05,0.000669392906238433,-0.000117335439518894,0.000336217406048704
6.1610268378063,-2.9888594764835e-05,0.000212998370541828,3.88803138053406e-05,0.000669302978277457,-0.00011742414864339,0.000336131095944857
6.17102850475079,-2.99773234393713e-05,0.000212907175622631,3.87878658950777e-05,0.000669210530366662,-0.000117515343563625,0.000336042367270321
6.18103017169528,-3.00676927892984e-05,0.000212814294424894,3.86937085373098e-05,0.000669116373008352,-0.000117608224762419,0.000335951997920394
6.19103183863977,-3.01589325192861e-05,0.000212720518654577,3.85986443158007e-05,0.000669021308786296,-0.000117702000533804,0.000335860758190406
6.20103350558426,-3.0250284627296e-05,0.000212626627382651,3.85034630057249e-05,0.000668926127475673,-0.000117795891806798,0.000335769406082396
6.21103517252875,-3.03410079744482e-05,0.000212533382348211,3.84089368122464e-05,0.000668831601281651,-0.000117889136842297,0.000335678682735244
6.22103683947325,-3.04303827271669e-05,0.00021244152339286,3.83158157421715e-05,0.000668738480211041,-0.000117980995798692,0.000335589307982525
6.23103850641774,-3.05177146729873e-05,0.000212351764024943,3.82248231072366e-05,0.000668647487575583,-0.00011807075516763,0.000335501976036705
6.24104017336223,-3.06023394042624e-05,0.000212264787119549,3.81366511650331e-05,0.000668559315632873,-0.000118157732074011,0.00033541735130543
6.25104184030672,-3.06836263551122e-05,0.000212181240769359,3.80519569128417e-05,0.000668474621380196,-0.000118241278425149,0.00033533606435458
6.26104350725121,-3.07609826696867e-05,0.000212101734308859,3.79713580572238e-05,0.000668394022524116,-0.000118320784886551,0.000335258708040005
6.2710451741957,-3.08338568744533e-05,0.000212026834539983,3.7895429187802e-05,0.000668318093654259,-0.000118395684656276,0.000335185833835239
6.28104684114019,-3.09017423232635e-05,0.000211957062191287,3.78246981877882e-05,0.00066824736265384,-0.000118465457005763,0.000335117948386429
6.29104850808468,-3.09641803809994e-05,0.000211892888645812,3.77596429168872e-05,0.000668182307382566,-0.000118529630551965,0.000335055510328693
6.30105017502917,-3.10207633095129e-05,0.000211834732974933,3.77006882043881e-05,0.000668123352669729,-0.000118587786223503,0.000334998927400179
6.31105184197366,-3.10711368183614e-05,0.000211782959316718,3.76482031915095e-05,0.00066807086765655,-0.000118639559882304,0.000334948553891331
6.32105350891815,-3.11150022426289e-05,0.00021173787463758,3.76024990622908e-05,0.00066802516352707,-0.000118684644561952,0.000334904688467063
6.33105517586264,-3.11521183110071e-05,0.000211699726915048,3.75638272013987e-05,0.000667986491665957,-0.000118722792284915,0.000334867572398685
6.34105684280713,-3.11823024693855e-05,0.000211668703777388,3.75323778150557e-05,0.000667955042279434,-0.000118753815422925,0.000334837388240306
6.35105850975163,-3.12054317285082e-05,0.000211644931632386,3.75082790478528e-05,0.000667930943512094,-0.000118777587568196,0.000334814258981184
6.36106017669612,-3.12214430087992e-05,0.000211628475312937,3.74915966234696e-05,0.000667914261087615,-0.00011879404388783,0.000334798247700893
6.37106184364061,-3.12303329611848e-05,0.000211619338261203,3.74823340313628e-05,0.000667904998495456,-0.000118803180939668,0.000334789357748507
6.3810635105851,-3.12321572495555e-05,0.000211617463266097,3.74804332743813e-05,0.000667903097738463,-0.000118805055934795,0.000334787533460137
6.39106517752959,-3.12270292882601e-05,0.000211622733760877,3.7485776184192e-05,0.000667908440648304,-0.000118799785439956,0.000334792661421432
6.40106684447408,-3.12151184365224e-05,0.000211634975678922,3.74981863025488e-05,0.000667920850766732,-0.000118787543521773,0.00033480457227317
6.41106851141857,-3.11966476606771e-05,0.000211653959856468,3.75174313170473e-05,0.00066794009578134,-0.000118768559344013,0.000334823043049015
6.42107017836306,-3.11718906843799e-05,0.000211679404961615,3.754322603037e-05,0.00066796589049481,-0.000118743114238579,0.000334847800025312
6.43107184530755,-3.11411686561623e-05,0.000211710980919395,3.75752358324176e-05,0.00066799790029704,-0.000118711538280442,0.00033487852205353
6.44107351225204,-3.11048463725802e-05,0.000211748312793605,3.76130806354736e-05,0.000668035745100311,-0.000118674206405812,0.000334914844337112
6.45107517919653,-3.10633281034575e-05,0.000211790985077598,3.76563392239549e-05,0.000668079003689039,-0.000118631534121339,0.000334956362606235
6.46107684614102,-3.101705307306e-05,0.000211838546338716,3.77045539626523e-05,0.000668127218428011,-0.000118583972859685,0.000335002637636632
6.47107851308551,-3.0966490657221e-05,0.000211890514154659,3.77572358009277e-05,0.000668179900266587,-0.000118532005043156,0.000335053200052471
6.48108018003,-3.09121353612501e-05,0.00021194638027517,3.78138695053154e-05,0.000668236533971297,-0.000118476138922016,0.000335107555348442
6.4910818469745,-3.08545016467553e-05,0.000212005615938998,3.78739190495438e-05,0.000668296583515867,-0.00011841690325752,0.000335165189062937
6.50108351391899,-3.07941186771852e-05,0.000212067677274412,3.79368330892451e-05,0.000668359497555927,-0.000118354841921407,0.000335225572032507
6.51108518086348,-3.07315250519235e-05,0.000212132010711469,3.80020504485897e-05,0.000668424714915643,-0.000118290508483625,0.000335288165657768
6.52108684780797,-3.06672635971856e-05,0.000212198058335909,3.80690055477413e-05,0.000668491670015176,-0.000118224460858441,0.000335352427112506
6.53108851475246,-3.0601876278846e-05,0.000212265263117724,3.81371337032669e-05,0.00066855979817109,-0.000118157256075869,0.000335417814430846
6.54109018169695,-3.0535899297844e-05,0.000212333073952082,3.82058762383172e-05,0.000668628540706532,-0.000118089445240746,0.000335483791411848
6.55109184864144,-3.04698584231409e-05,0.000212400950456089,3.82746853452979e-05,0.000668697349813905,-0.000118021568735974,0.000335549832286551
6.56109351558593,-3.04042646105889e-05,0.000212468367471696,3.83430286506441e-05,0.000668765693119641,-0.000117954151719607,0.000335615426099103
6.57109518253042,-3.03396099487521e-05,0.000212534819232563,3.84103934389381e-05,0.000668833057908319,-0.00011788769995799,0.00033568008076094
6.58109684947491,-3.02763639649773e-05,0.000212599823160667,3.84762905016772e-05,0.000668898954971434,-0.000117822696029153,0.000335743326744715
6.5910985164194,-3.02149703170836e-05,0.000212662923266564,3.8540257584258e-05,0.00066896292205438,-0.000117759595922544,0.000335804720392608
6.60110018336389,-3.01558438881924e-05,0.000212723693135309,3.86018624129227e-05,0.000669024526883396,-0.000117698826053112,0.0003358638468215
6.61110185030839,-3.00993682946537e-05,0.000212781738487803,3.86607052912925e-05,0.000669083369762102,-0.000117640780699963,0.000335920322415038
6.62110351725288,-3.00458938099423e-05,0.000212836699314595,3.87164212634957e-05,0.000669139085734623,-0.00011758581987255,0.00033597379689975
6.63110518419737,-2.99957357009441e-05,0.000212888251585847,3.87686818476189e-05,0.000669191346319045,-0.000117534267600716,0.000336023955008748
6.64110685114186,-2.99491729673388e-05,0.000212936108546984,3.88171963491658e-05,0.000669239860820869,-0.000117486410639038,0.000336070517742353
6.65110851808635,-2.99064474698863e-05,0.000212980021614642,3.88617127693103e-05,0.000669284377241268,-0.000117442497570884,0.000336113243239806
6.66111018503084,-2.98677634293714e-05,0.000213019780891647,3.89020183269544e-05,0.000669324682799143,-0.000117402738293429,0.00033615192728032
6.67111185197533,-2.9833287274759e-05,0.000213055215323084,3.89379396169382e-05,0.000669360604089332,-0.000117367303861592,0.000336186403434933
6.68111351891982,-2.98031478167234e-05,0.000213086192517939,3.89693424292362e-05,0.000669392006901809,-0.000117336326666386,0.000336216542892968
6.69111518586431,-2.97774367211003e-05,0.000213112618262494,3.89961312556601e-05,0.000669418795728387,-0.000117309900921532,0.000336242253988592
6.7011168528088,-2.97562092558836e-05,0.00021313443575256,3.90182485115501e-05,0.000669440912984403,-0.000117288083431218,0.000336263481453808
6.71111851975329,-2.97394852850814e-05,0.000213151624572004,3.90356735002595e-05,0.000669458337973212,-0.00011727089461158,0.00033628020542461
6.72112018669778,-2.97272504829587e-05,0.000213164199444748,3.90484211480144e-05,0.00066947108562104,-0.000117258319738694,0.000336292440226733
6.73112185364227,-2.97194577428384e-05,0.000213172208786816,3.90565405360603e-05,0.000669479205009133,-0.000117250310396535,0.000336300232966853
6.74112352058676,-2.97160287556204e-05,0.000213175733083938,3.90601132559762e-05,0.000669482777729069,-0.000117246786099373,0.000336303661954072
6.75112518753126,-2.97168557344172e-05,0.000213174883118975,3.90592516127476e-05,0.000669481916085836,-0.000117247636064345,0.000336302834975275
6.76112685447575,-2.97218032631234e-05,0.000213169798071971,3.90540966987104e-05,0.000669476761171769,-0.000117252721111407,0.000336297887446568
6.77112852142024,-2.97307102482577e-05,0.000213160643514057,3.90448163598941e-05,0.000669467480832899,-0.000117261875669424,0.000336288980461434
6.78113018836473,-2.97433919549788e-05,0.000213147609314845,3.90316030746615e-05,0.000669454267547591,-0.000117274909868785,0.000336276298754713
6.79113185530922,-2.97596421097366e-05,0.000213130907481329,3.90146717629218e-05,0.000669437336235754,-0.00011729161170249,0.000336260048599955
6.80113352225371,-2.97792350535179e-05,0.000213110769944795,3.89942575426263e-05,0.000669416922015342,-0.000117311749239252,0.000336240455656174
6.8111351891982,-2.98019279310672e-05,0.000213087446310746,3.8970613448783e-05,0.000669393277921363,-0.000117335072873566,0.000336217762778625
6.82113685614269,-2.98274629027647e-05,0.000213061201585543,3.89440081288632e-05,0.00066936667260129,-0.000117361317599067,0.000336192227806927
6.83113852308718,-2.98555693670173e-05,0.000213032313892247,3.89147235272544e-05,0.000669337387999514,-0.00011739020529269,0.000336164121342675
6.84114019003167,-2.98859661820529e-05,0.000213001072187063,3.88830525703352e-05,0.000669305717042413,-0.000117421446998228,0.000336133724527639
6.85114185697616,-2.99183638768881e-05,0.000212967773986923,3.88492968628307e-05,0.000669271961334715,-0.000117454745198746,0.000336101326832804
6.86114352392065,-2.99524668419802e-05,0.000212932723117941,3.88137644053352e-05,0.000669236428877016,-0.000117489796068126,0.000336067223867712
6.87114519086514,-2.99879754906635e-05,0.000212896227493898,3.87767673422748e-05,0.000669199431813743,-0.000117526291692582,0.000336031715219028
6.88114685780964,-3.00245883829325e-05,0.000212858596933431,3.87386197491015e-05,0.000669161284220351,-0.000117563922253476,0.000335995102326759
