data1,data2,data3,data4,data5,data6,data7
0,0.000603763194914051,0.000321013173218485,-0.000840664079673128,-0.000475716191033993,0.000154328769982384,-0.000885473968553869
0.045003750312526,0.000591498172900471,0.000329202024092869,-0.000813297120322719,-0.000448341966541791,0.000162526254334312,-0.000897738990567449
0.0900075006250521,0.000591578097970374,0.000329148667632724,-0.000813475507981186,-0.000448520238988644,0.000162473019368949,-0.000897659065497545
0.135011250937578,0.000591564128294741,0.00032915799347961,-0.000813444329338162,-0.000448489078292181,0.000162482326025808,-0.000897673035173178
0.180015001250104,0.000591508350598455,0.000329195227477905,-0.000813319844582418,-0.000448364670264464,0.000162519444188836,-0.000897728812869465
0.22501875156263,0.000591694561601179,0.000329070923954746,-0.000813735422114985,-0.000448779991237074,0.000162395581003684,-0.00089754260186674
0.270022501875156,0.000591750582997029,0.000329033526241839,-0.000813860437269012,-0.000448904942327042,0.000162358345578186,-0.00089748658047089
0.315026252187682,0.00059166518149646,0.000329090531859162,-0.00081366980409874,-0.000448714486052179,0.000162415208567112,-0.00089757198197146
0.360030002500208,0.000591648374425688,0.000329101746764394,-0.000813632271195146,-0.000448677045550857,0.00016242632546597,-0.000897588789042231
0.405033752812734,0.000591635043615674,0.000329110640616336,-0.000813602496465426,-0.000448647365021795,0.000162435110332814,-0.000897602119852246
0.45003750312526,0.000591638108207119,0.000329108598477091,-0.000813609352252901,-0.000448654147981216,0.00016243317710661,-0.000897599055260801
0.495041253437786,0.000591674735394606,0.000329084171476005,-0.000813691204028288,-0.000448735533351001,0.000162409392524936,-0.000897562428073313
0.540045003750313,0.000591625144753455,0.000329117245249493,-0.00081358039029151,-0.000448625320963416,0.000162441637936529,-0.000897612018714465
0.585048754062839,0.000591400216470982,0.000329267266841314,-0.000813077871318679,-0.000448125092594989,0.000162588605335722,-0.000897836946996938
0.630052504375365,0.000591019565679868,0.000329521159682209,-0.00081222762400013,-0.000447277949332542,0.000162838588463786,-0.000898217597788052
0.675056254687891,0.000590735461041587,0.000329710656548907,-0.000811593189838263,-0.000446645123233568,0.000163026347023631,-0.000898501702426333
0.720060005000417,0.000590665429022774,0.000329757365835057,-0.000811436838875813,-0.000446489003993293,0.000163072906785816,-0.000898571734445145
0.765063755312943,0.000590592750613548,0.00032980583544769,-0.000811274586915234,-0.000446326973193999,0.000163121245973555,-0.000898644412854371
0.810067505625469,0.00059004122073177,0.000330173666441699,-0.000810042982244507,-0.000445098615717867,0.000163485296892011,-0.000899195942736149
0.855071255937995,0.000589726361911591,0.000330383670987718,-0.000809339698764229,-0.000444398041587816,0.000163691614089168,-0.000899510801556329
0.900075006250521,0.000590040192584912,0.000330174358127451,-0.00081004063202785,-0.000445096488446263,0.000163485639478768,-0.000899196970883007
0.945078756563047,0.000590142102264368,0.000330106394783228,-0.000810268203427464,-0.000445323429383483,0.000163418460814234,-0.000899095061203551
0.990082506875573,0.000590200877411054,0.000330067199704518,-0.000810399445015346,-0.000445454333302599,0.000163379680108143,-0.000899036286056865
1.0350862571881,0.000590294947404598,0.000330004465435527,-0.000810609511194681,-0.000445663790648708,0.000163317741096264,-0.000898942216063321
1.08009000750063,0.000590396283238194,0.000329936877291213,-0.000810835833474615,-0.000445889310004329,0.00016325128458492,-0.000898840880229725
1.12509375781315,0.000590455499908656,0.000329897372958168,-0.000810968111847818,-0.000446021004816921,0.000163212654921487,-0.000898781663559264
1.17009750812568,0.000590463502438886,0.000329892033293579,-0.000810985990537829,-0.000446038792550167,0.000163207456121425,-0.000898773661029034
1.2151012584382,0.00059044737282859,0.000329902800683571,-0.000810949945743484,-0.00044600297344443,0.000163217858401449,-0.00089878979063933
1.26010500875073,0.000590427027805863,0.000329916385851348,-0.000810904475693755,-0.000445957811728562,0.000163230935911442,-0.000898810135662056
1.30510875906326,0.00059041244548472,0.000329926125860986,-0.000810871881721838,-0.000445925453818063,0.00016324028145934,-0.0008988247179832
1.35011250937578,0.000590424474413014,0.000329918086838864,-0.000810898773546304,-0.000445952127726871,0.000163232614429429,-0.000898812689054906
1.39511625968831,0.000590497829471648,0.00032986904260502,-0.000811062788120127,-0.000446114714048168,0.000163186037639906,-0.000898739333996272
1.44012001000083,0.000590664971174444,0.000329757244543728,-0.00081143654219424,-0.00044648502774904,0.000163080252312412,-0.000898572192293476
1.48512376031336,0.000590938568948649,0.000329574219654558,-0.000812048314157836,-0.000447091313359337,0.000162906880428407,-0.000898298594519271
1.53012751062589,0.000591300999892785,0.000329331841478278,-0.000812858532397942,-0.000447895068106906,0.000162675890455098,-0.000897936163575135
1.57513126093841,0.000591710547506172,0.000329058064245581,-0.000813773842102381,-0.000448804088154817,0.000162413185168736,-0.000897526615961747
1.62013501125094,0.000592128286439035,0.00032877888923172,-0.000814707278549168,-0.000449731865442349,0.000162143978737206,-0.000897108877028884
1.66513876156346,0.000592538703377104,0.000328504641825068,-0.000815624245529965,-0.000450643718013484,0.000161878776386167,-0.000896698460090816
1.71014251187599,0.000592944361727153,0.000328233573752272,-0.000816530525680493,-0.000451545159486389,0.000161616329066561,-0.000896292801740766
1.75514626218852,0.000593350876107131,0.000327961904839988,-0.000817438701560883,-0.000452448540362829,0.000161353290108206,-0.000895886287360789
1.80015001250104,0.000593759903850465,0.00032768850190616,-0.000818352504516469,-0.000453357452345623,0.000161088797116082,-0.000895477259617454
1.84515376281357,0.000594171107903257,0.000327413566252391,-0.000819271203321375,-0.000454271079527359,0.00016082322436682,-0.000895066055564663
1.89015751312609,0.000594587125320522,0.000327135312503204,-0.000820200705317089,-0.000455195235046863,0.000160554978555753,-0.000894650038147398
1.93516126343862,0.000595016913024085,0.000326847728285223,-0.000821161033607731,-0.000456149786842854,0.000160278358067268,-0.000894220250443835
1.98016501375115,0.000595476005253028,0.000326540396070243,-0.000822186905334917,-0.000457169219208788,0.000159983414090731,-0.000893761158214892
2.02516876406367,0.000595984151382389,0.000326200070239596,-0.000823322453968635,-0.000458297384792007,0.000159657477894323,-0.000893253012085531
2.0701725143762,0.000596560850417421,0.000325813672479241,-0.000824611244665394,-0.000459577607119886,0.000159287988332684,-0.000892676313050499
2.11517626468872,0.000597218784787445,0.000325372709694824,-0.000826081587463322,-0.000461038141197674,0.000158866610794369,-0.000892018378680474
2.16018001500125,0.000597955836176904,0.000324878650426149,-0.000827728682800865,-0.000462674480561751,0.000158394270550264,-0.000891281327291015
2.20518376531378,0.000598748808069613,0.000324347137790443,-0.000829500603321011,-0.000464435386856982,0.000157885240340023,-0.000890488355398306
2.2501875156263,0.000599554705456531,0.00032380709035963,-0.000831301198290583,-0.000466225599955084,0.000157366612820996,-0.000889682458011388
2.29519126593883,0.000600324436009833,0.000323291456137445,-0.000833020758677178,-0.000467936125132374,0.000156869827099629,-0.000888912727458087
2.34019501625135,0.000601025494704941,0.000322821992564198,-0.000834586704445788,-0.000469494620128672,0.000156416092298999,-0.000888211668762979
2.38519876656388,0.000601659703162455,0.000322397424932233,-0.000836003166596331,-0.000470904953651592,0.000156004633093015,-0.000887577460305464
2.43020251687641,0.000602263012023518,0.000321993631581892,-0.000837350492286275,-0.000472246916422645,0.000155612478628569,-0.000886974151444402
2.47520626718893,0.00060288896015369,0.000321574738757741,-0.000838748277699391,-0.000473639504364823,0.000155205047054159,-0.000886348203314229
2.52021001750146,0.000603588837831117,0.000321106390168405,-0.000840311071328359,-0.000475196783312238,0.000154749069401436,-0.000885648325636802
2.56521376781398,0.000604399044151297,0.000320564193461954,-0.000842120155528328,-0.000476999724554263,0.000154220904486488,-0.000884838119316622
2.61021751812651,0.000605337482771303,0.000319936125673819,-0.00084421550889823,-0.000479088157031804,0.00015360894625306,-0.000883899680696617
2.65522126843904,0.000606405772747709,0.000319221057627444,-0.000846600746937938,-0.000481465677299291,0.000152912196471767,-0.000882831390720211
2.70022501875156,0.000607593244516679,0.000318426090567527,-0.000849252043661672,-0.000484108545141716,0.000152137642732314,-0.00088164391895124
2.74522876906409,0.000608879521584831,0.000317564841937886,-0.000852123893388592,-0.000486971435961497,0.00015129854958312,-0.000880357641883089
2.79023251937661,0.000610234041196598,0.000316657779306619,-0.000855148038987978,-0.000489986377049407,0.000150414754901286,-0.000879003122271321
2.83523626968914,0.000611613250898395,0.000315734105168753,-0.000858227215070391,-0.000493056500401736,0.00014951450752882,-0.000877623912569524
2.88024002000167,0.000612958975039675,0.000314832846054809,-0.000861231510244158,-0.000496052382271299,0.000148635584089626,-0.000876278188428244
2.92524377031419,0.00061420310255727,0.000313999689650766,-0.00086400884936317,-0.000498822437170613,0.00014782232529817,-0.00087503406091065
2.97024752062672,0.00061528207930419,0.000313277243305924,-0.000866417363793254,-0.00050122514194355,0.000147116272001812,-0.00087395508416373
3.01525127093924,0.000616158443683962,0.000312690588990102,-0.000868373468954563,-0.00050317698169257,0.000146542111865511,-0.000873078719783957
3.06025502125177,0.000616838955896854,0.000312235157856141,-0.000869892311598655,-0.000504692873285077,0.000146095707596539,-0.000872398207571066
3.1052587715643,0.000617377441092334,0.000311874871032853,-0.000871094079996877,-0.000505892583483991,0.000145742040643555,-0.000871859722375586
3.15026252187682,0.000617859353449114,0.000311552512172948,-0.000872169522561386,-0.000506966413831689,0.000145425175899027,-0.000871377810018805
3.19526627218935,0.000618376948730628,0.000311206354239102,-0.000873324528739089,-0.000508119909258429,0.000145084515552395,-0.000870860214737292
3.24027002250188,0.000619007624645476,0.000310784638895749,-0.000874731799846176,-0.000509525576780516,0.000144669082354452,-0.000870229538822443
3.2852737728144,0.00061980218239148,0.000310253409639894,-0.000876504668815548,-0.000511296691579198,0.00014414532285916,-0.00086943498107644
3.33027752312693,0.000620782308576342,0.000309598182034333,-0.000878691494935509,-0.000513481652899846,0.00014349883490364,-0.000868454854891578
3.37528127343945,0.000621943266417476,0.000308822137674759,-0.000881281679069689,-0.000516069959796157,0.000142732639350274,-0.000867293897050443
3.42028502375198,0.000623258287392076,0.000307943186164961,-0.000884215469908891,-0.000519001985682723,0.00014186431033772,-0.000865978876075843
3.46528877406451,0.000624682895040585,0.000306991073913868,-0.000887393616939739,-0.000522178606675355,0.0001409231393377,-0.000864554268427335
3.51029252437703,0.00062615890362884,0.000306004708962589,-0.000890686297041815,-0.000525470107389712,0.000139947510629901,-0.000863078259839079
3.55529627468956,0.000627618874977176,0.000305029176853711,-0.000893943062441707,-0.00052872610985085,0.000138981974209216,-0.000861618288490743
3.60030002500208,0.000628992349142572,0.000304111568801678,-0.000897006744212932,-0.000531789460878573,0.000138073144227194,-0.000860244814325348
3.64530377531461,0.000630214858900663,0.000303294950442914,-0.000899733562180577,-0.000534516334059278,0.000137263746749346,-0.000859022304567257
3.69030752562714,0.000631239269920109,0.000302610782630144,-0.000902018416805163,-0.000536801529310247,0.000136585108102132,-0.00085799789354781
3.73531127593966,0.000632046743643466,0.000302071604964282,-0.00090381933256205,-0.000538602943585912,0.000136049864818171,-0.000857190419824453
3.78031502625219,0.000632653046996338,0.000301666838435241,-0.000905171517372161,-0.000539955671652526,0.000135647731121767,-0.000856584116471581
3.82531877656471,0.00063310671815236,0.000301364031903035,-0.000906183257361733,-0.000540967940558572,0.000135346656125459,-0.000856130445315559
3.87032252687724,0.00063347890893029,0.000301115661931219,-0.000907013252703547,-0.000541798466516281,0.000135099515217607,-0.000855758254537629
3.91532627718977,0.000633848472443103,0.000300869095877827,-0.000907837356901795,-0.000542623189247282,0.000134853986245721,-0.000855388691024817
3.96033002750229,0.000634287419037178,0.000300576297489558,-0.000908816144465321,-0.000543602814525613,0.000134562212519498,-0.000854949744430742
4.00533377781482,0.000634850528275896,0.000300200751006536,-0.000910071751297044,-0.000544859621770405,0.000134187727183655,-0.000854386635192023
4.05033752812734,0.000635570233175791,0.000299720863907403,-0.000911676473990695,-0.000546466033482774,0.00013370888364639,-0.000853666930292128
4.09534127843987,0.00063645583159786,0.00029913048217164,-0.000913651018515225,-0.000548442841768158,0.00013311940968919,-0.000852781331870059
4.1403450287524,0.000637495404987308,0.000298437600005475,-0.000915968785328085,-0.000550763479187357,0.00013242715675778,-0.000851741758480612
4.18534877906492,0.000638659167917321,0.000297662115918259,-0.000918563343991067,-0.000553361485750968,0.000131651891525961,-0.000850577995550598
4.23035252937745,0.00063990363918574,0.00029683304198596,-0.000921337738377072,-0.000556139812643907,0.000130822534458806,-0.00084933352428218
4.27535627968997,0.000641176548799753,0.000295985224625111,-0.000924175430828708,-0.000558981771938046,0.000129973901642358,-0.000848060614668166
4.3203600300025,0.000642422595517033,0.000295155502340194,-0.000926953140133861,-0.000561763888845713,0.000129142872293262,-0.000846814567950887
4.36536378031503,0.000643590020767877,0.000294378325330991,-0.00092955549641597,-0.000564370580664527,0.000128364003474861,-0.000845647142700042
4.41036753062755,0.00064463752144814,0.000293681156516347,-0.000931890448144397,-0.00056670959625678,0.000127664909959947,-0.000844599642019779
4.45537128094008,0.00064554045540098,0.000293080350501612,-0.000933903089598769,-0.000568725879313513,0.000127062108348008,-0.000843696708066939
4.5003750312526,0.000646294912059752,0.000292578458503803,-0.000935584728015711,-0.000570410666165585,0.000126558281380866,-0.000842942251408168
4.54537878156513,0.000646918370086516,0.000292163805814379,-0.000936974343244131,-0.000571802961788721,0.000126141820559731,-0.000842318793381403
4.59038253187766,0.00064744646332358,0.00029181265584518,-0.000938151374738738,-0.000572982323036071,0.000125788971678043,-0.00084179070014434
4.63538628219018,0.000647926534999438,0.000291493505254873,-0.000939221352467346,-0.000574054466321393,0.000125468132596457,-0.000841310628468481
4.68039003250271,0.000648409601544547,0.00029117243073915,-0.00094029798556988,-0.000575133320492128,0.000125145221161056,-0.000840827561923373
4.72539378281523,0.000648942608771667,0.000290818236234386,-0.00094148590443716,-0.000576323730347746,0.000124788854118201,-0.000840294554696253
4.77039753312776,0.000649562416620981,0.000290406447185904,-0.00094286725632741,-0.000577708019404305,0.000124374374906101,-0.000839674746846938
4.81540128344029,0.000650292157250972,0.000289921724731279,-0.000944493590886686,-0.000579337852962573,0.000123886296879087,-0.000838945006216947
4.86040503375281,0.000651139911447723,0.000289358737509972,-0.000946382912513694,-0.000581231279326594,0.000123319196718705,-0.000838097252020196
4.90540878406534,0.000652099275497668,0.000288721776396393,-0.000948520945766119,-0.000583373994039806,0.000122677342637828,-0.000837137887970251
4.95041253437786,0.000653151330181304,0.000288023437711671,-0.000950865525248487,-0.000585723736672769,0.000121973382939978,-0.000836085833286616
4.99541628469039,0.000654267625608733,0.000287282632880246,-0.000953353248866461,-0.000588216957470876,0.000121226352627196,-0.000834969537859186
5.04042003500292,0.000655413906194379,0.00028652210919482,-0.000955907779770445,-0.000590777137974262,0.00012045918213913,-0.000833823257273541
5.08542378531544,0.000656554328363323,0.000285765647398512,-0.000958449245468613,-0.000593324212740037,0.000119695873784951,-0.000832682835104597
5.13042753562797,0.000657655851872814,0.000285035148767593,-0.000960904022995013,-0.000595784378961682,0.000118958559894235,-0.000831581311595105
5.17543128594049,0.00065869235525355,0.000284347909827612,-0.000963213908746797,-0.000598099289473851,0.00011826474443954,-0.000830544808214369
5.22043503625302,0.000659647917224865,0.000283714453645474,-0.000965343429719604,-0.000600233382002031,0.000117625102910623,-0.000829589246243054
5.26543878656555,0.000660518709395427,0.000283137283312624,-0.000967284060648521,-0.000602178105472122,0.000117042212888122,-0.000828718454072493
5.31044253687807,0.000661313119066426,0.000282610807829441,-0.000969054498035186,-0.000603952192104563,0.00011651047122342,-0.000827924044401494
5.3554462871906,0.000662050048848463,0.000282122473728933,-0.00097069687234727,-0.000605597856776634,0.000116017233574295,-0.000827187114619456
5.40045003750313,0.000662755723981557,0.000281654882269767,-0.000972269635353209,-0.000607173663463535,0.00011554495420424,-0.000826481439486362
5.44545378781565,0.000663459640635586,0.000281188472866802,-0.000973838533116129,-0.000608745473966696,0.00011507390112508,-0.000825777522832333
5.49045753812818,0.000664190404521597,0.000280704277357974,-0.000975467333770591,-0.000610377153115764,0.000114584943958178,-0.000825046758946323
5.5354612884407,0.000664972122005296,0.000280186307663832,-0.000977209785256403,-0.000612122509647275,0.000114061970526829,-0.000824265041462624
5.58046503875323,0.000665821784086901,0.000279623286109964,-0.000979103784210235,-0.0006140194561566,0.000113493637130382,-0.000823415379381018
5.62546878906576,0.000666747830491157,0.000279009594946288,-0.000981168173482264,-0.000616086805908188,0.000112874327303419,-0.000822489332976763
5.67047253937828,0.000667749877771188,0.000278345455944472,-0.000983402132839521,-0.000618323669965471,0.000112204330277298,-0.000821487285696732
5.71547628969081,0.000668819472127022,0.000277636432355593,-0.000985786852986726,-0.000620711142841401,0.000111489333017892,-0.000820417691340898
5.76048004000333,0.000669941670691018,0.000276892383103004,-0.000988289056178934,-0.000623215837641834,0.000110739357939288,-0.000819295492776901
5.80548379031586,0.000671097231018252,0.000276126014838133,-0.000990865873195649,-0.000625794778062929,0.000109967294505694,-0.000818139932449667
5.85048754062839,0.000672265168575565,0.000275351190458478,-0.000993470541965803,-0.000628401110177984,0.000109187186228999,-0.000816971994892354
5.89549129094091,0.000673425414882241,0.000274581170371658,-0.000996058332535365,-0.000630990036586747,0.000108412452541052,-0.000815811748585678
5.94049504125344,0.000674561282665931,0.000273826979983191,-0.000998592044245601,-0.000633524317187305,0.000107654242249681,-0.000814675880801989
5.98549879156596,0.000675661439729432,0.000273096100006444,-0.00100104641020916,-0.000635978670908278,0.000106920117899191,-0.000813575723738487
6.03050254187849,0.000676721132212751,0.000272391650780552,-0.0010034108305792,-0.000638342500308519,0.000106213243704259,-0.000812516031255169
6.07550629219102,0.000677742491305011,0.000271712180729945,-0.00100569006371004,-0.000640620569813879,0.000105532186795841,-0.000811494672162909
6.12051004250354,0.000678733895866513,0.00027105207840758,-0.00100790281242734,-0.000642831577510937,0.000104871348728349,-0.000810503267601407
6.16551379281607,0.000679708517453185,0.000270402526382399,-0.00101007848585391,-0.000645004904124399,0.000104221941320894,-0.000809528646014735
6.21051754312859,0.000680682304710044,0.000269752829182593,-0.00101225270830645,-0.000647176113620315,0.000103573334130446,-0.000808554858757875
6.25552129344112,0.000681671738150544,0.000269091898185999,-0.00101446231238815,-0.000649381944554081,0.000102914552025879,-0.000807565425317375
6.30052504375365,0.000682691690634283,0.000268409672650083,-0.00101674056369971,-0.000651655540228577,0.000102235699169871,-0.000806545472833636
6.34552879406617,0.000683753672785281,0.000267698292031104,-0.00101911324033065,-0.00065402254004723,0.000101529123770221,-0.000805483490682638
6.3905325443787,0.000684864650724505,0.000266952894395061,-0.00102159598608892,-0.000656498449060514,0.000100790199709747,-0.000804372512743414
6.43553629469122,0.00068602652298638,0.000266171981324539,-0.00102419313275061,-0.000659087478259845,0.000100017668428676,-0.00080321064048154
6.48054004500375,0.000687236253880219,0.000265357348461617,-0.00102689798697935,-0.000661782848240904,9.92135441924691e-05,-0.0008020009095877
6.52554379531628,0.000688486590119869,0.000264513627241704,-0.00102969442044011,-0.000664568391881162,9.83826326443369e-05,-0.000800750573348051
6.5705475456288,0.000689767235865295,0.000263647517732898,-0.00103255948610774,-0.000667421176710007,9.75317466272797e-05,-0.000799469927602624
6.61555129594133,0.000691066324739035,0.000262766817234196,-0.00103546670169807,-0.000670314786506375,9.66687271444672e-05,-0.000798170838728885
6.66055504625385,0.000692372003802963,0.00026187936582479,-0.00103838958787223,-0.00067322284962151,9.58013924632675e-05,-0.000796865159664957
6.70555879656638,0.000693673935491151,0.000260992037363731,-0.0010413050279666,-0.000676122382048751,9.49365437944048e-05,-0.000795563227976768
6.75056254687891,0.000694964533423088,0.00026010989957532,-0.0010441960372454,-0.000678996535888608,9.40791489384312e-05,-0.000794272630044832
6.79556629719143,0.000696239780875351,0.000259235646935454,-0.00104705360216941,-0.000681836417386163,9.32318032580903e-05,-0.000792997382592569
6.84057004750396,0.000697499536578946,0.000258369374595949,-0.00104987737438303,-0.000684641763286687,9.23945303279042e-05,-0.000791737626888973
6.88557379781648,0.000698747305375901,0.00025750871398088,-0.00105267516673305,-0.000687420426335782,9.15649366457492e-05,-0.000790489858092018
6.93057754812901,0.000699989529217955,0.000256649298289115,-0.00105546137321919,-0.000690186793926372,9.07386836143883e-05,-0.000789247634249965
6.97558129844154,0.000701234522335473,0.000255785478456379,-0.00105825458850069,-0.000692959415631478,8.99101951119248e-05,-0.000788002641132446
7.02058504875406,0.000702491220137624,0.000254911176222473,-0.00106107480612762,-0.000695758216881813,8.90734887722573e-05,-0.000786745943330295
7.06558879906659,0.000703767927068991,0.000254020746878563,-0.00106394061094374,-0.000698601710847307,8.82230084774142e-05,-0.000785469236398929
7.11059254937912,0.00070507123402859,0.000253109731535864,-0.00106686674922007,-0.00070150458814043,8.73543448238486e-05,-0.000784165929439329
7.15559629969164,0.000706405237222543,0.000252175404110277,-0.00106986237360327,-0.000704475977876777,8.64647556341087e-05,-0.000782831926245376
7.20060005000417,0.000707771137336123,0.000251217054971421,-0.00107293014104316,-0.000707518555756911,8.55534335784172e-05,-0.000781466026131797
7.24560380031669,0.000709167240971398,0.000250235993635879,-0.00107606621380188,-0.00071062854807193,8.46215058244051e-05,-0.000780069922496521
7.29060755062922,0.000710589333593877,0.000249235290583743,-0.00107926109503465,-0.000713796563155572,8.36717858111171e-05,-0.000778647829874042
7.33561130094175,0.000712031349912452,0.000248219309256821,-0.00108250113293287,-0.000717009085310203,8.27083262273102e-05,-0.000777205813555467
7.38061505125427,0.000713486236391265,0.000247193101615426,-0.00108577045712855,-0.000720250396674838,8.17358432154514e-05,-0.000775750927076655
7.4256188015668,0.000714946882958566,0.000246161753344471,-0.00108905307131198,-0.000723504653218394,8.07590937153776e-05,-0.000774290280509354
7.47062255187932,0.000716406998025706,0.000245129767224705,-0.00109233481924218,-0.000726757834451972,7.97822899774486e-05,-0.000772830165442214
7.51562630219185,0.000717861813237414,0.000244100564908563,-0.00109560496883591,-0.000729999313848184,7.88086272148041e-05,-0.000771375350230506
7.56063005250438,0.000719308531228198,0.00024307616879257,-0.0010988572192293,-0.000733222856746665,7.78399825780403e-05,-0.000769928632239722
7.6056338028169,0.000720746468210214,0.000242057098773171,-0.00110209002224339,-0.000736426938375647,7.6876817992695e-05,-0.000768490695257705
7.65063755312943,0.000722176888214671,0.000241042487038502,-0.00110530621077442,-0.000739614374842189,7.59182893791739e-05,-0.000767060275253249
7.69564130344195,0.000723602570246379,0.000240030382597773,-0.00110851202653653,-0.000742791358939413,7.4962535041819e-05,-0.00076563459322154
7.74064505375448,0.000725027186183607,0.000239018191162856,-0.0011117157218762,-0.000745966074114317,7.4007091455724e-05,-0.000764209977284313
7.78564880406701,0.000726454590104821,0.000238003179477161,-0.00111492596186663,-0.000749147110879965,7.30493692361949e-05,-0.000762782573363099
7.83065255437953,0.000727888125813323,0.00023698296847092,-0.00111815026671844,-0.000752341923566548,7.20871178141146e-05,-0.000761349037654597
7.87565630469206,0.000729330048949473,0.000235955946595091,-0.00112139371133227,-0.000755555542220337,7.11188141085683e-05,-0.000759907114518447
7.92066005500458,0.000730781136391986,0.000234921551181473,-0.00112465804565865,-0.000758789701716188,7.0143926205345e-05,-0.000758456027075934
7.96566380531711,0.000732240523595765,0.000233880388240002,-0.00112794132751473,-0.000762042478749502,6.9163024433899e-05,-0.000756996639872155
8.01066755562964,0.000733705775568681,0.000232834185871993,-0.00113123808094012,-0.000765308449512497,6.81777356312377e-05,-0.000755531387899238
8.05567130594216,0.000735173164385576,0.000231785599873532,-0.00113453991937268,-0.00076857930774993,6.7190558416184e-05,-0.000754063999082343
8.10067505625469,0.000736638099520264,0.000230737909227192,-0.00113783651299429,-0.000771844823549602,6.62045752476182e-05,-0.000752599063947656
8.14567880656721,0.000738095639715124,0.000229694651952548,-0.00114111674000556,-0.000775093984052909,6.52231089613153e-05,-0.000751141523752795
8.19068255687974,0.000739541008262578,0.000228659256973974,-0.00114436984608611,-0.000778316141975145,6.42493762329475e-05,-0.000749696155205341
8.23568630719227,0.000740970037853492,0.000227634724918257,-0.00114758644582581,-0.000781502007325128,6.32861876961544e-05,-0.000748267125614427
8.28069005750479,0.000742379485632923,0.000226623400674179,-0.00115075923241888,-0.000784644349962487,6.23357348446334e-05,-0.000746857677834996
8.32569380781732,0.000743767181509009,0.000225626864713263,-0.00115388331227244,-0.000787738330543515,6.13994888761803e-05,-0.00074546998195891
8.37069755812984,0.000745131999600975,0.000224645951043409,-0.00115695614156185,-0.00079078143721998,6.0478218620042e-05,-0.000744105163866945
8.41570130844237,0.000746473669754399,0.000223680880263515,-0.00115997710264292,-0.000793773065737629,5.95721164673839e-05,-0.000742763493713521
8.4607050587549,0.000747792469027825,0.000222731479578097,-0.00116294680999484,-0.00079671383181768,5.86810056765373e-05,-0.000741444694440094
8.50570880906742,0.000749088848468807,0.00022179745035793,-0.00116586627013588,-0.000799604739098507,5.78045919216158e-05,-0.000740148314999112
8.55071255937995,0.000750363056295994,0.000220878639418206,-0.00116873603308806,-0.00080244633888123,5.69427179048195e-05,-0.000738874107171926
8.59571630969247,0.00075161484918453,0.00021997524784987,-0.00117155554192997,-0.000805238086168439,5.60955590045156e-05,-0.000737622314283389
8.640720060005,0.000752871042361208,0.000219067929505284,-0.00117438519189571,-0.000808039785351118,5.52449669849863e-05,-0.000736366121106711
8.68572381031753,0.000754247861516743,0.000218072657837997,-0.00117748681232225,-0.000811110671251342,5.43121923871037e-05,-0.000734989301951176
8.73072756063005,0.000755833007203588,0.000216925832451018,-0.0011810580336188,-0.000814646388586662,5.32376973958604e-05,-0.000733404156264332
8.77573131094258,0.000757653895550048,0.000215607333902219,-0.00118516071210871,-0.00081870813739797,5.20027313651763e-05,-0.000731583267917871
8.8207350612551,0.000759688072825819,0.000214133123264625,-0.00118974435151747,-0.00082324587948088,5.06223512142981e-05,-0.0007295490906421
8.86573881156763,0.000761876069745071,0.000212546048008521,-0.00119467502915074,-0.000828126993437368,4.91367683198043e-05,-0.000727361093722849
8.91074256188016,0.000764135895429392,0.000210905422332803,-0.00119976802809999,-0.000833168594564302,4.7601559504812e-05,-0.000725101268038527
8.95574631219268,0.000766378226297567,0.000209276056026816,-0.00120482205062262,-0.000838171412495905,4.60773794337782e-05,-0.000722858937170352
9.00075006250521,0.000768521033677713,0.000207717637722545,-0.00120965218380115,-0.000842952424260472,4.4620025692315e-05,-0.000720716129790206
9.04575381281773,0.000770502084406425,0.000206275613106903,-0.00121411808743831,-0.000847372749168946,4.32719221412594e-05,-0.000718735079061495
9.09075756313026,0.000772287637401596,0.00020497479092358,-0.00121814361947869,-0.000851357062537666,4.20561669428181e-05,-0.000716949526066324
9.13576131344279,0.000773875968442448,0.000203816693706641,-0.00122172480849671,-0.000854901473829053,4.09740863564079e-05,-0.000715361195025471
9.18076506375531,0.000775295172908382,0.000202781078460661,-0.00122492492492723,-0.000858068637769535,4.00066822096396e-05,-0.000713941990559538
9.22576881406784,0.0007765958547487,0.000201831205084862,-0.00122785801598888,-0.000860971451816725,3.91195720099692e-05,-0.00071264130871922
9.27077256438037,0.000777840416199591,0.000200921615315867,-0.00123066476631683,-0.000863749162750284,3.82702634695475e-05,-0.000711396747268328
9.31577631469289,0.000779091298257172,0.00020000671119588,-0.00123348598237833,-0.000866541125056752,3.74161662110549e-05,-0.000710145865210747
9.36078006500542,0.000780400483044769,0.000199048441848183,-0.00123643891357263,-0.000869463369076787,3.65217636592886e-05,-0.000708836680423151
9.40578381531794,0.000781801962582693,0.000198021844837138,-0.00123960025643264,-0.000872591784726184,3.55637769572571e-05,-0.000707435200885226
9.45078756563047,0.000783308012958968,0.000196917818101325,-0.00124299773719848,-0.000875953795881251,3.45337405101875e-05,-0.000705929150508951
9.49579131594299,0.000784909299127557,0.000195743092596908,-0.0012466103330102,-0.000879528584437135,3.34379634882426e-05,-0.000704327864340363
9.54079506625552,0.00078657824665994,0.000194517807131951,-0.00125037586369147,-0.000883254608244315,3.22952545614939e-05,-0.00070265891680798
9.58579881656805,0.000788274773719426,0.00019327133987247,-0.00125420391185027,-0.000887042390695349,3.11330233605212e-05,-0.000700962389748494
9.63080256688057,0.000789953317049519,0.000192037171212316,-0.00125799166830515,-0.000890790202899692,2.99824837365438e-05,-0.000699283846418401
9.6758063171931,0.00079157004371034,0.000190847588277196,-0.00126164020350083,-0.000894400164601979,2.88737157032587e-05,-0.000697667119757579
9.72081006750563,0.000793089189674398,0.00018972901048761,-0.00126506877525909,-0.000897792399358684,2.78313123418901e-05,-0.000696147973793522
9.76581381781815,0.000794487621561118,0.000188698606516607,-0.0012682251317438,-0.000900915225157048,2.68712345634639e-05,-0.000694749541906802
9.81081756813068,0.000795757002531467,0.000187762666844669,-0.00127109041000495,-0.000903749996880327,2.59993035277368e-05,-0.000693480160936453
9.8558213184432,0.000796903350777969,0.000186916897139576,-0.00127367814962021,-0.000906310126515697,2.52114819259724e-05,-0.000692333812689951
9.90082506875573,0.000797944247203043,0.000186148451394876,-0.0012760279980288,-0.000908634852546932,2.44957735187823e-05,-0.000691292916264877
9.94582881906826,0.000798904370576483,0.000185439209859284,-0.00127819563695597,-0.000910779272140138,2.38352790764655e-05,-0.000690332792891437
9.99083256938078,0.000799810303419831,0.000184769607749353,-0.00128024105855475,-0.000912802742098349,2.32117624994019e-05,-0.000689426860048088
10.0358363196933,0.000800686059151362,0.000184121942344375,-0.00128221846633586,-0.000914758888361641,2.26087291746981e-05,-0.000688551104316558
10.0808400700058,0.000801505964991905,0.000183515248575247,-0.00128406987759937,-0.000916590355868709,2.20438927703744e-05,-0.000687731198476014
10.1258438203184,0.000802137372451128,0.000183047790904034,-0.00128549572594332,-0.000918000817246944,2.16087191525248e-05,-0.000687099791016791
10.1708475706309,0.000802487781344756,0.000182788242973038,-0.00128628706342364,-0.000918783601498284,2.13671102286112e-05,-0.000686749382123164
10.2158513209434,0.000802540685821312,0.000182749044773829,-0.00128640654294285,-0.000918901788399832,2.13306223015654e-05,-0.000686696477646608
10.2608550712559,0.000802348404416625,0.000182891604973379,-0.00128597226278767,-0.000918472214754997,2.14633220606478e-05,-0.000686888759051295
10.3058588215685,0.000802009628126107,0.000183142873876337,-0.00128520708243118,-0.000917715333820705,2.169721181383e-05,-0.000687227535341813
10.350862571881,0.000801639432576868,0.000183417552322171,-0.00128437090133818,-0.000916888228924631,2.1952893976391e-05,-0.000687597730891052
10.3958663221935,0.000801340521885369,0.000183639425189885,-0.00128369570661284,-0.000916220368237449,2.21594238970825e-05,-0.000687896641582551
10.440870072506,0.000801182460339599,0.000183756795675472,-0.00128333865397117,-0.000915867196873652,2.22686779414519e-05,-0.00068805470312832
10.4858738228186,0.000801191982445952,0.000183749717064583,-0.00128336016649091,-0.000915888474965581,2.2262089101225e-05,-0.000688045181021967
10.5308775731311,0.000801354029208335,0.000183629272432595,-0.00128372625935374,-0.000916250579584213,2.2149978017702e-05,-0.000687883134259584
10.5758813234436,0.000801621014371587,0.000183430741192294,-0.0012843294563192,-0.00091684719751741,2.19651893826363e-05,-0.000687616149096332
10.6208850737561,0.000801926999709993,0.000183203103078797,-0.00128502080107629,-0.000917530992069251,2.17533171731946e-05,-0.000687310163757927
10.6658888240687,0.000802203446940535,0.000182997343668667,-0.00128564543913741,-0.000918148799406111,2.15618162067374e-05,-0.000687033716527385
10.7108925743812,0.000802393560977415,0.000182855777429602,-0.0012860750270229,-0.000918573683534602,2.14300648905851e-05,-0.000686843602490505
10.7558963246937,0.000802462785053424,0.000182804209445971,-0.00128623145500129,-0.000918728396817481,2.13820735033854e-05,-0.000686774378414496
10.8009000750063,0.000802403809725769,0.000182848168374171,-0.00128609817793755,-0.000918596582824448,2.14229824330768e-05,-0.00068683335374215
10.8459038253188,0.000802235565925178,0.000182973620173662,-0.00128571795198965,-0.000918220534408145,2.15397288746883e-05,-0.000687001597542742
10.8909075756313,0.000801996948953722,0.000183151617821799,-0.00128517866103093,-0.000917687173681243,2.17053740532568e-05,-0.000687240214514197
10.9359113259438,0.000801737129719345,0.00018334550957746,-0.00128459142567726,-0.00091710640094855,2.18858100234535e-05,-0.000687500033748575
10.9809150762564,0.000801504892617367,0.000183518888085193,-0.00128406650752085,-0.000916587264130455,2.20471560598281e-05,-0.000687732270850552
11.0259188265689,0.000801339334838628,0.000183642536937131,-0.00128369228598194,-0.000916217167500798,2.21622231377055e-05,-0.000687897828629291
11.0709225768814,0.000801263593776273,0.000183699127635797,-0.00128352107588705,-0.000916047846151643,2.22148856975654e-05,-0.000687973569691647
11.1159263271939,0.000801282348237673,0.000183685105809266,-0.00128356347274294,-0.000916089774605458,2.22018375214317e-05,-0.000687954815230246
11.1609300775065,0.000801382976401261,0.00018360984853634,-0.00128379096290472,-0.000916314749638704,2.213180717127e-05,-0.000687854187066658
11.205933827819,0.000801539630059736,0.00018349263978383,-0.001284145126863,-0.000916664993655623,2.20227420961742e-05,-0.000687697533408184
11.2509375781315,0.000801719136868653,0.000183358271678703,-0.00128455097738143,-0.00091706634690224,2.18977138242681e-05,-0.000687518026599266
11.295941328444,0.000801887524130681,0.000183232170028606,-0.00128493170630368,-0.000917442851895071,2.17803811705443e-05,-0.000687349639337239
11.3409450787566,0.000802016012050325,0.000183135905203507,-0.00128522223574771,-0.000917730154319982,2.16908132279303e-05,-0.000687221151417594
11.3859488290691,0.00080208551812095,0.000183083807994198,-0.00128537940624539,-0.000917885577125043,2.16423415581643e-05,-0.000687151645346969
11.4309525793816,0.000802089030992791,0.000183081175489955,-0.00128538734955126,-0.000917893432143763,2.16398922382939e-05,-0.000687148132475128
11.4759563296941,0.000802031623850346,0.000183124244607718,-0.0012852575243485,-0.00091776505389173,2.1679962325603e-05,-0.000687205539617573
11.5209600800067,0.000801928322190741,0.000183201776924793,-0.00128502389919341,-0.000917534034986459,2.17520948750751e-05,-0.000687308841277179
11.5659638303192,0.00080180042742573,0.000183297807041129,-0.00128473464165242,-0.000917248007255117,2.18414359286771e-05,-0.00068743673604219
11.6109675806317,0.000801671135870065,0.000183394926119705,-0.00128444221178491,-0.000916958845533289,2.19317891581682e-05,-0.000687566027597855
11.6559713309442,0.000801561332559981,0.000183477440567583,-0.00128419384891335,-0.000916713260788598,2.20085543640562e-05,-0.000687675830907938
11.7009750812568,0.000801486292102512,0.000183533855002248,-0.0012840241080623,-0.000916545420320916,2.20610374332425e-05,-0.000687750871365407
11.7459788315693,0.000801453747114401,0.000183558331697729,-0.00128395048837136,-0.000916472625589408,2.20838080886955e-05,-0.000687783416353519
11.7909825818818,0.000801463472174724,0.00018355101298998,-0.00128397248884431,-0.000916494379177471,2.20769996857864e-05,-0.000687773691293195
11.8359863321944,0.000801508249646155,0.000183517304533453,-0.00128407378996859,-0.000916594542672688,2.20456420890793e-05,-0.000687728913821764
11.8809900825069,0.000801575876660792,0.000183466373228994,-0.001284226791287,-0.000916745823997426,2.19982638689001e-05,-0.000687661286807128
11.9259938328194,0.000801651755055831,0.000183409202752611,-0.0012843984689494,-0.000916915569658763,2.19450830370475e-05,-0.000687585408412089
11.9709975831319,0.000801721574786836,0.000183356574225128,-0.00128455644621009,-0.000917071767188165,2.1896128402714e-05,-0.000687515588681083
12.0160013334445,0.000801773644990196,0.000183317307933598,-0.0012846742681737,-0.00091718826038845,2.1859604083272e-05,-0.000687463518477723
12.061005083757,0.000801800530966632,0.000183297024691357,-0.00128473510725672,-0.000917248412647211,2.18407376345006e-05,-0.000687436632501288
12.1060088340695,0.000801799802098168,0.000183297575551714,-0.00128473345760679,-0.000917246781700522,2.18412499740494e-05,-0.000687437361369751
12.151012584382,0.000801773862024682,0.000183317163420856,-0.0012846747529623,-0.000917188741254899,2.18594688387069e-05,-0.000687463301443237
12.1960163346946,0.00080172899049717,0.000183351060636206,-0.0012845732002406,-0.00091708833861012,2.18909964436993e-05,-0.000687508172970749
12.2410200850071,0.00080167384829969,0.000183392733982398,-0.00128444839734483,-0.000916964950440712,2.19297559675799e-05,-0.00068756331516823
12.2860238353196,0.000801617761688163,0.000183435138813109,-0.00128432145113417,-0.000916839444610583,2.19691952181443e-05,-0.000687619401779756
12.3310275856321,0.000801569103313798,0.000183471942873354,-0.00128421131290447,-0.0009167305572274,2.20034248511099e-05,-0.000687668060154121
12.3760313359447,0.000801534029881655,0.000183498482696412,-0.00128413192055175,-0.000916652067386733,2.20281078238385e-05,-0.000687703133586264
12.4210350862572,0.00080151574164678,0.000183512326953932,-0.00128409052137339,-0.00091661113926095,2.20409832549485e-05,-0.000687721421821139
12.4660388365697,0.000801514318973844,0.0001835134039925,-0.00128408730083778,-0.000916607955374846,2.20419849196408e-05,-0.000687722844494076
12.5110425868822,0.000801527088531685,0.000183503728409994,-0.00128411621030093,-0.000916636535193141,2.20329868154133e-05,-0.000687710074936234
12.5560463371948,0.000801549392175395,0.000183486821857826,-0.00128416670659635,-0.000916686455144114,2.20172643613221e-05,-0.000687687771292524
12.6010500875073,0.000801575583768503,0.000183466959758262,-0.00128422600811584,-0.000916745079144018,2.1998793747126e-05,-0.000687661579699417
12.6460538378198,0.000801600065194453,0.000183448386646467,-0.00128428144016259,-0.000916799877242684,2.19815221833435e-05,-0.000687637098273467
12.6910575881323,0.000801618189763179,0.00018343463043174,-0.00128432248060552,-0.000916840447858272,2.19687302291821e-05,-0.000687618973704741
12.7360613384449,0.000801626902793932,0.000183428014725336,-0.00128434221087115,-0.000916859952038025,2.19625783799011e-05,-0.000687610260673988
12.7810650887574,0.000801625046530884,0.000183429425110771,-0.00128433800713682,-0.000916855796549296,2.19638898358939e-05,-0.000687612116937035
12.8260688390699,0.000801613319393572,0.00018343833763377,-0.00128431144885976,-0.000916829543256977,2.19721771092256e-05,-0.000687623844074347
12.8710725893824,0.000801593937324743,0.00018345307387884,-0.00128426755259019,-0.000916786151551767,2.19858793013015e-05,-0.000687643226143176
12.916076339695,0.000801570088549865,0.000183471213746217,-0.00128421353769809,-0.000916732758126651,2.200274597989e-05,-0.000687667074918054
12.9610800900075,0.000801545296373864,0.000183490079088887,-0.00128415738351478,-0.00091667725064177,2.20202869037159e-05,-0.000687691867094055
13.00608384032,0.000801522805862111,0.000183507200184119,-0.00128410644024102,-0.000916626894615176,2.20362057502949e-05,-0.000687714357605809
13.0510875906326,0.000801505091804123,0.000183520690813288,-0.00128406631426635,-0.000916587231632481,2.20487488382598e-05,-0.000687732071663796
13.0960913409451,0.000801493552981356,0.00018352948218196,-0.00128404017526827,-0.000916561394524495,2.20569225791406e-05,-0.000687743610486564
13.1410950912576,0.000801488418902305,0.00018353339538725,-0.00128402854447716,-0.000916549898186014,2.20605608011837e-05,-0.000687748744565614
13.1860988415701,0.000801488857261107,0.000183533060982468,-0.00128402953763316,-0.000916550879838425,2.20602499074369e-05,-0.000687748306206812
13.2311025918827,0.000801493239482425,0.000183529717776318,-0.00128403946616241,-0.000916560693350798,2.20571417615955e-05,-0.000687743923985494
13.2761063421952,0.000801499501768595,0.000183524938318551,-0.00128405365487554,-0.000916574717540334,2.20526984317052e-05,-0.000687737661699324
13.3211100925077,0.000801505531669576,0.000183520334311513,-0.00128406731768857,-0.000916588221775782,2.20484182971557e-05,-0.000687731631798343
13.3661138428202,0.000801509514827023,0.000183517291811586,-0.00128407634330693,-0.000916597142539235,2.20455898785896e-05,-0.000687727648640896
13.4111175931328,0.000801510190962364,0.000183516775218745,-0.00128407787543631,-0.000916598656858557,2.20451096408856e-05,-0.000687726972505555
13.4561213434453,0.000801506988963354,0.000183519223280798,-0.00128407061914684,-0.000916591485047358,2.2047385351575e-05,-0.000687730174504565
13.5011250937578,0.000801500034064273,0.000183524542708363,-0.0012840548574377,-0.000916575907005044,2.20523301848574e-05,-0.000687737129403646
13.5461288440703,0.000801490041647068,0.000183532188534644,-0.00128403221084459,-0.000916553524556732,2.20594374591973e-05,-0.000687747121820851
13.5911325943829,0.000801478128805314,0.000183541307600306,-0.00128400521060119,-0.000916526839538107,2.20679140439016e-05,-0.000687759034662605
13.6361363446954,0.000801465584349519,0.000183550914168517,-0.00128397677750444,-0.000916498738710635,2.20768436184242e-05,-0.0006877715791184
13.6811400950079,0.000801453639650627,0.000183560065267104,-0.00128394970255912,-0.000916471980464214,2.20853496631216e-05,-0.000687783523817293
13.7261438453204,0.000801443277287842,0.000183568007422881,-0.00128392621319711,-0.000916448766121286,2.20927318448229e-05,-0.000687793886180077
13.771147595633,0.000801435103686678,0.000183574274637222,-0.00128390768445612,-0.000916430454525373,2.20985570701916e-05,-0.000687802059781242
13.8161513459455,0.000801429298270379,0.000183578727874166,-0.00128389452354789,-0.000916417448001148,2.21026961689092e-05,-0.000687807865197541
13.861155096258,0.000801425637714533,0.00018358153699636,-0.00128388622466684,-0.000916409246562585,2.21053070816031e-05,-0.000687811525753386
13.9061588465705,0.000801423581983199,0.000183583115231281,-0.0012838815638833,-0.000916404640556496,2.21067739292927e-05,-0.000687813581484721
13.9511625968831,0.000801422400580365,0.000183584022611696,-0.00128387888526303,-0.000916401993448399,2.21076172527501e-05,-0.000687814762887554
13.9961663471956,0.000801421313707589,0.000183584857758819,-0.00128387642085182,-0.000916399558058729,2.21083934262969e-05,-0.00068781584976033
14.0411700975081,0.000801419623791952,0.000183586156839647,-0.00128387258889901,-0.000916395771276292,2.21096007490036e-05,-0.000687817539675967
14.0861738478207,0.000801416817445703,0.000183588315050611,-0.0012838662251,-0.000916389482564102,2.21116064800783e-05,-0.000687820346022217
14.1311775981332,0.000801412625136973,0.00018359154047187,-0.00128385671799192,-0.000916380087737141,2.21146039645332e-05,-0.000687824538330946
14.1761813484457,0.000801407034220594,0.000183595843723476,-0.0012838440386081,-0.000916367558241356,2.21186030340695e-05,-0.000687830129247325
14.2211850987582,0.000801400259020512,0.000183601060671385,-0.00128382867273412,-0.000916352374185055,2.21234511217671e-05,-0.000687836904447407
14.2661888490708,0.000801392678116138,0.000183606900445641,-0.00128381147876438,-0.000916335383855989,2.21288778965909e-05,-0.000687844485351782
14.3111925993833,0.00080138475301154,0.0001836130079068,-0.00128379350329897,-0.000916317621487659,2.21345533197303e-05,-0.00068785241045638
14.3561963496958,0.000801376943603238,0.000183619028711124,-0.00128377578943625,-0.000916300117818376,2.21401481103602e-05,-0.000687860219864681
14.4012001000083,0.000801369634453404,0.000183624666177233,-0.00128375920953194,-0.000916283734836951,2.21453865874939e-05,-0.000687867529014515
14.4462038503209,0.000801363082380285,0.000183629721822358,-0.00128374434627753,-0.000916269048282465,2.21500843326169e-05,-0.000687874081087635
14.4912076006334,0.000801357391126787,0.000183634115080229,-0.0012837314351804,-0.00091625629082175,2.21541665045525e-05,-0.000687879772341133
14.5362113509459,0.000801352513789351,0.000183637881621736,-0.00128372037001025,-0.000916245357446393,2.21576662708372e-05,-0.000687884649678568
14.5812151012584,0.000801348279142846,0.00018364115321036,-0.00128371076246191,-0.000916235864439524,2.21607060821054e-05,-0.000687888884325073
14.626218851571,0.000801344434645306,0.000183644124623611,-0.00128370203967687,-0.000916227245746196,2.21634669307341e-05,-0.000687892728822614
14.6712226018835,0.000801340697133808,0.000183647014558464,-0.00128369355923846,-0.000916218866603331,2.21661520228165e-05,-0.000687896466334112
14.716226352196,0.000801336802112985,0.000183650027543966,-0.00128368472100021,-0.000916210134034147,2.21689513893979e-05,-0.000687900361354934
14.7612301025085,0.000801332543899223,0.000183653322851098,-0.00128367505818939,-0.000916200586859672,2.21720130021554e-05,-0.000687904619568697
14.8062338528211,0.00080132780131531,0.000183656994524814,-0.00128366429574106,-0.000916189953328003,2.21754242250912e-05,-0.000687909362152609
14.8512376031336,0.000801322546610462,0.000183661064366974,-0.0012836523705766,-0.000916178171141195,2.21792052999964e-05,-0.000687914616857457
14.8962413534461,0.000801316838263931,0.000183665487392548,-0.00128363941531032,-0.000916165371347869,2.21833144205358e-05,-0.000687920325203988
14.9412451037586,0.000801310800837624,0.00018367016733641,-0.00128362571255815,-0.00091615183319206,2.21876621429504e-05,-0.000687926362630295
14.9862488540712,0.000801304596729884,0.000183674978472912,-0.00128361163085368,-0.000916137920793015,2.21921316598935e-05,-0.000687932566738036
15.0312526043837,0.000801298395378915,0.000183679789459245,-0.00128359755476044,-0.000916124014094768,2.21966009524118e-05,-0.000687938768089004
15.0762563546962,0.000801292345181234,0.00018368448512094,-0.00128358382113128,-0.000916110445892501,2.22009630281619e-05,-0.000687944818286686
15.1212601050088,0.000801286552295883,0.00018368898293593,-0.00128357067098403,-0.000916097454290628,2.22051412330051e-05,-0.000687950611172037
15.1662638553213,0.000801281068877154,0.000183693242228879,-0.00128355822277044,-0.000916085156298521,2.22090977895552e-05,-0.000687956094590766
15.2112676056338,0.000801275891446114,0.000183697265505703,-0.00128354646865667,-0.000916073544161386,2.22128350338967e-05,-0.000687961272021806
15.2562713559463,0.000801270968394732,0.000183701092691047,-0.00128353529153726,-0.000916062502174169,2.22163900598037e-05,-0.000687966195073188
15.3012751062589,0.000801266214276764,0.000183704790075558,-0.00128352449746216,-0.000916051838721012,2.22198244495601e-05,-0.000687970949191156
15.3462788565714,0.000801261527744098,0.000183708436403982,-0.00128351385634839,-0.000916041326497271,2.22232113499843e-05,-0.000687975635723822
15.3912826068839,0.000801256809795181,0.000183712108691645,-0.00128350314340979,-0.000916030743438523,2.22266222973989e-05,-0.000687980353672739
15.4362863571964,0.000801251979368508,0.000183715870079082,-0.0012834921745673,-0.000916019907701005,2.22301159369254e-05,-0.000687985184099411
15.481290107509,0.000801246984110525,0.00018371976142088,-0.00128348083090912,-0.000916008701822808,2.22337302111859e-05,-0.000687990179357394
15.5262938578215,0.000801241805192423,0.000183723797495142,-0.00128346906964148,-0.000915997083538659,2.2237478841297e-05,-0.000687995358275496
15.571297608134,0.000801236456145729,0.000183727967868487,-0.00128345692145807,-0.000915985083177946,2.22413521320876e-05,-0.000688000707322191
15.6163013584465,0.000801230976650235,0.000183732241699921,-0.00128344447644461,-0.000915972789737705,2.22453214354432e-05,-0.000688006186817685
15.6613051087591,0.000801225422901504,0.000183736575223545,-0.00128343186221136,-0.000915960329279099,2.22493461011415e-05,-0.000688011740566415
15.7063088590716,0.000801219856531026,0.000183740920376458,-0.00128341921873318,-0.000915947840072771,2.2253381490584e-05,-0.000688017306936894
15.7513126093841,0.000801214334037961,0.000183745233044831,-0.00128340667434591,-0.000915935448887834,2.22573866351666e-05,-0.000688022829429958
15.7963163596966,0.00080120889836453,0.000183749479652136,-0.00128339432660676,-0.00091592325208677,2.22613303543311e-05,-0.00068802826510339
15.8413201100092,0.00080120357369902,0.000183753641238214,-0.0012833822304827,-0.000915911303959635,2.22651950428856e-05,-0.0006880335897689
15.8863238603217,0.00080119836393697,0.000183757714686366,-0.0012833703948467,-0.000915899613265182,2.22689778095068e-05,-0.00068803879953095
15.9313276106342,0.000801193254590264,0.000183761711255917,-0.00128335878680677,-0.000915888147508778,2.22726891129389e-05,-0.000688043908877655
15.9763313609467,0.00080118821740703,0.000183765652990473,-0.00128334734219479,-0.000915876843304508,2.22763494256711e-05,-0.000688048946060889
16.0213351112593,0.000801183216622508,0.000183769567842005,-0.00128333597976372,-0.000915865620399334,2.22799847054713e-05,-0.000688053946845411
16.0663388615718,0.000801178215634402,0.000183773484452536,-0.00128332461635234,-0.000915854396652307,2.22836215494023e-05,-0.000688058947833517
16.1113426118843,0.000801173182978852,0.000183777427473135,-0.00128331318046442,-0.000915843101446682,2.22872828472167e-05,-0.000688063980489068
16.1563463621968,0.000801168096735738,0.000183781414104477,-0.00128330162228156,-0.00091583168557903,2.22909845694307e-05,-0.000688069066732181
16.2013501125094,0.000801162946852802,0.000183785452262302,-0.00128328991894883,-0.000915820126478717,2.2294734064443e-05,-0.000688074216615117
16.2463538628219,0.000801157735275643,0.000183789540460331,-0.00128327807487504,-0.000915808428503348,2.22985299504726e-05,-0.000688079428192277
16.2913576131344,0.000801152474136772,0.000183793669216152,-0.00128326611762194,-0.000915796618877424,2.23023634215592e-05,-0.000688084689331147
16.336361363447,0.000801147182536666,0.000183797823565398,-0.00128325409059214,-0.000915784740469673,2.23062205824415e-05,-0.000688089980931254
16.3813651137595,0.000801141882609075,0.000183801986143181,-0.00128324204408862,-0.000915772842962422,2.23100853098882e-05,-0.000688095280858844
16.426368864072,0.000801136595591228,0.000183806140267953,-0.00128323002638335,-0.00091576097403044,2.23139421160067e-05,-0.000688100567876692
16.4713726143845,0.000801131338528731,0.000183810272532712,-0.00128321807622659,-0.000915749171943188,2.23177785539011e-05,-0.000688105824939188
16.5163763646971,0.00080112612206447,0.000183814374549042,-0.00128320621781877,-0.000915737460599449,2.23215868365972e-05,-0.000688111041403449
16.5613801150096,0.000801120949530765,0.000183818443669431,-0.001283194458744,-0.000915725847487132,2.23253645072724e-05,-0.000688116213937155
16.6063838653221,0.000801115817327585,0.0001838224826989,-0.0012831827908269,-0.00091571432453022,2.23291141711478e-05,-0.000688121346140334
16.6513876156346,0.000801110716365488,0.000183826498767771,-0.00128317119341042,-0.000915702871326486,2.23328424486478e-05,-0.000688126447102432
16.6963913659472,0.00080110563420882,0.000183830501650586,-0.00128315963822652,-0.000915691459958115,2.23365584145139e-05,-0.0006881315292591
16.7413951162597,0.000801100557487939,0.000183834501869644,-0.00128314809487965,-0.000915680060407232,2.23402718371249e-05,-0.00068813660597998
16.7863988665722,0.000801095474159945,0.000183838508914129,-0.00128313653598701,-0.000915668645632145,2.2343991525281e-05,-0.000688141689307974
16.8314026168847,0.000801090375274221,0.000183842529846141,-0.00128312494119391,-0.000915657195532475,2.23477240342986e-05,-0.000688146788193698
16.8764063671973,0.000801085256021458,0.000183846568469193,-0.00128311329956062,-0.000915645699305867,2.2351472894334e-05,-0.000688151907446462
16.9214101175098,0.000801080115987394,0.000183850625122698,-0.0012831016101411,-0.000915634156019094,2.23552384198477e-05,-0.000688157047480525
16.9664138678223,0.000801074958669908,0.000183854697057674,-0.00128308988088652,-0.000915622573524858,2.23590180585804e-05,-0.000688162204798011
17.0114176181348,0.000801069790428931,0.000183858779261202,-0.00128307812625858,-0.000915610966104575,2.23628071570313e-05,-0.000688167373038988
17.0564213684474,0.000801064619108461,0.000183862865541655,-0.00128306636409643,-0.000915599351374302,2.2366599967904e-05,-0.000688172544359459
17.1014251187599,0.000801059452592659,0.000183866949668209,-0.00128305461233296,-0.000915587747042092,2.2370390707847e-05,-0.00068817771087526
17.1464288690724,0.00080105429753587,0.00018387102637512,-0.00128304288610602,-0.000915576168055446,2.23741744895649e-05,-0.000688182865932049
17.1914326193849,0.00080104915844853,0.000183875092086439,-0.00128303119567851,-0.000915564624547691,2.23779479943893e-05,-0.00068818800501939
17.2364363696975,0.000801044037241123,0.000183879145279669,-0.00128301954540006,-0.000915553120812929,2.23817098096673e-05,-0.000688193126226797
17.28144012001,0.000801038933242118,0.00018388318647485,-0.00128300793374679,-0.000915541655345534,2.23854604184958e-05,-0.000688198230225801
17.3264438703225,0.000801033843627791,0.000183887217897378,-0.00128299635429811,-0.000915530221804943,2.23892018866429e-05,-0.000688203319840129
17.3714476206351,0.000801028764143546,0.000183891242909147,-0.00128298479737705,-0.000915518810635478,2.23929373344986e-05,-0.000688208399324373
17.4164513709476,0.000801023689964642,0.000183895265328047,-0.00128297325200805,-0.0009155074109996,2.23966703054646e-05,-0.000688213473503277
17.4614551212601,0.000801018616540838,0.000183899288758855,-0.00128296170783872,-0.000915496012675395,2.24004041449642e-05,-0.000688218546927082
17.5064588715726,0.000801013540291519,0.000183903316041397,-0.00128295015672165,-0.000915484607618425,2.24041414883588e-05,-0.000688223623176401
17.5514626218852,0.000801008459058478,0.000183907348889971,-0.00128293859374522,-0.000915473190979338,2.24078839263817e-05,-0.000688228704409441
17.5964663721977,0.000801003372274005,0.000183911387758085,-0.00128292701761669,-0.000915461761481976,2.24116318797004e-05,-0.000688233791193914
17.6414701225102,0.000800998280852884,0.000183915431922233,-0.00128291543041703,-0.000915450321181186,2.24153846767435e-05,-0.000688238882615036
17.6864738728227,0.000800993186860107,0.000183919479744061,-0.00128290383684531,-0.000915438874716598,2.24191407970578e-05,-0.000688243976607812
17.7314776231353,0.000800988093035622,0.000183923529046719,-0.0012828922431374,-0.000915427428245013,2.24228982205928e-05,-0.000688249070432297
17.7764813734478,0.000800983002270181,0.000183927577530836,-0.0012828806558733,-0.000915415988262737,2.24266548137253e-05,-0.000688254161197739
17.8214851237603,0.000800977917122473,0.000183931623158488,-0.00128286908087801,-0.000915404560520499,2.24304086855426e-05,-0.000688259246345446
17.8664888740728,0.000800972839449841,0.000183935664447528,-0.00128285752238081,-0.000915393149193422,2.24341584609264e-05,-0.000688264324018078
17.9114926243854,0.000800967770197598,0.000183939700640219,-0.00128284598253538,-0.000915381756407331,2.24379034369756e-05,-0.000688269393270321
17.9564963746979,0.000800962709360944,0.000183943731734714,-0.00128283446133269,-0.000915370382152879,2.24416436121703e-05,-0.000688274454106975
18.0015001250104,0.000800957656104024,0.000183947758391392,-0.00128282295687172,-0.000915359024552858,2.24453795994101e-05,-0.000688279507363896
18.0465038753229,0.000800952608997398,0.000183951781744599,-0.00128281146589973,-0.000915347680395695,2.24491124513074e-05,-0.000688284554470521
18.0915076256355,0.000800947566321057,0.000183955803161753,-0.00128279998450198,-0.000915336345816373,2.24528434366554e-05,-0.000688289597146862
18.136511375948,0.000800942526376188,0.000183959823994988,-0.00128278850881148,-0.000915325016997134,2.24565738099944e-05,-0.000688294637091731
18.1815151262605,0.0008009374877546,0.000183963845366094,-0.00128277703562247,-0.000915313690773122,2.24603046120952e-05,-0.00068829967571332
18.226518876573,0.000800932449527888,0.00018396786801512,-0.00128276556282131,-0.000915302365057702,2.24640365295194e-05,-0.000688304713940031
18.2715226268856,0.000800927411336019,0.000183971892229012,-0.00128275408958839,-0.000915291039041744,2.24677698284434e-05,-0.000688309752131901
18.3165263771981,0.000800922373373693,0.000183975917851796,-0.00128274261636735,-0.000915279713163139,2.24715043641337e-05,-0.000688314790094227
18.3615301275106,0.000800917336289444,0.000183979944364535,-0.00128273114463544,-0.000915268388880122,2.24752396551537e-05,-0.000688319827178476
18.4065338778232,0.000800912301024551,0.000183983971013575,-0.00128271967653687,-0.00091525706830924,2.24789750023586e-05,-0.000688324862443368
18.4515376281357,0.000800907268625126,0.000183987996960513,-0.00128270821445488,-0.000915245753802945,2.24827096280242e-05,-0.000688329894842793
18.4965413784482,0.000800902240060854,0.000183992021427126,-0.00128269676059897,-0.000915234447542086,2.24864428102941e-05,-0.000688334923407066
18.5415451287607,0.000800897216078632,0.000183996043812645,-0.00128268531667145,-0.000915223151206799,2.24901739919615e-05,-0.000688339947389288
18.5865488790733,0.00080089219711023,0.000184000063768005,-0.00128267388365701,-0.0009152118657688,2.24939028493247e-05,-0.00068834496635769
18.6315526293858,0.000800887183242014,0.00018400408122049,-0.00128266246175359,-0.000915200591423218,2.24976293150356e-05,-0.000688349980225905
18.6765563796983,0.000800882174243858,0.000184008096350999,-0.00128265105043817,-0.000915189327653499,2.25013535569903e-05,-0.000688354989224062
18.7215601300108,0.000800877169645198,0.000184012109533453,-0.00128263964863987,-0.000915178073402352,2.25050759221093e-05,-0.000688359993822722
18.7665638803234,0.000800872168840155,0.00018401612125077,-0.00128262825497935,-0.00091516682730807,2.25087968583901e-05,-0.000688364994627765
18.8115676306359,0.000800867171201223,0.00018402013200379,-0.00128261686802785,-0.000915155587960176,2.2512516830431e-05,-0.000688369992266697
18.8565713809484,0.000800862176182231,0.00018402414222865,-0.0012826054865417,-0.000915144354130974,2.25162362427898e-05,-0.000688374987285688
18.9015751312609,0.000800857183395398,0.000184028152234788,-0.00128259410963803,-0.000915133124948877,2.25199553824946e-05,-0.000688379980072522
18.9465788815735,0.00080085219265336,0.000184032162170978,-0.00128258273689053,-0.000915121899992982,2.25236743875496e-05,-0.000688384970814559
18.991582631886,0.000800847203973809,0.00018403617202135,-0.00128257136834013,-0.00091511067930356,2.2527393243256e-05,-0.000688389959494111
19.0365863821985,0.000800842217550661,0.000184040181628317,-0.00128256000442937,-0.000915099463317267,2.25311118034853e-05,-0.000688394945917259
19.081590132511,0.000800837233700565,0.000184044190735382,-0.00128254864588058,-0.000915088252746875,2.25348298303885e-05,-0.000688399929767354
19.1265938828236,0.000800832252796409,0.000184048199040495,-0.00128253729354436,-0.000915077048431735,2.2538547043884e-05,-0.00068840491067151
19.1715976331361,0.000800827275200115,0.000184052206250084,-0.00128252594824642,-0.000915065851186606,2.25422631717699e-05,-0.000688409888267804
19.2166013834486,0.000800822301205581,0.000184056212125021,-0.00128251461065752,-0.000915054661673307,2.25459779923468e-05,-0.000688414862262339
19.2616051337611,0.000800817330999666,0.000184060216512142,-0.00128250328120453,-0.000915043480312919,2.25496913636434e-05,-0.000688419832468253
19.3066088840737,0.000800812364645217,0.000184064219358063,-0.00128249196003167,-0.00091503230724756,2.25534032362236e-05,-0.000688424798822703
19.3516126343862,0.000800807402086095,0.000184068220705276,-0.00128248064701195,-0.000915021142351672,2.255711364956e-05,-0.000688429761381825
19.3966163846987,0.00080080244317067,0.000184072220673354,-0.00128246934180063,-0.000915009985284835,2.25608227145976e-05,-0.00068843472029725
19.4416201350113,0.000800797487687688,0.000184076219430126,-0.00128245804391701,-0.000914998835572442,2.25645305870196e-05,-0.000688439675780232
19.4866238853238,0.000800792535407222,0.00018408021715869,-0.00128244675283777,-0.000914987692697829,2.25682374366611e-05,-0.000688444628060697
19.5316276356363,0.00080078758611951,0.000184084214026081,-0.00128243546808546,-0.000914976556189644,2.25719434184516e-05,-0.000688449577348409
19.5766313859488,0.000800782639665696,0.000184088210158401,-0.00128242418929866,-0.000914965425691047,2.25756486493604e-05,-0.000688454523802224
19.6216351362614,0.000800777695956579,0.00018409220562561,-0.00128241291627474,-0.000914954301001901,2.25793531942946e-05,-0.00068845946751134
19.6666388865739,0.000800772754977844,0.000184096200437206,-0.00128240164898181,-0.000914943182090565,2.2583057062101e-05,-0.000688464408490075
19.7116426368864,0.000800767816782629,0.000184100194548146,-0.00128239038754178,-0.000914932069077196,2.25867602110554e-05,-0.00068846934668529
19.7566463871989,0.000800762881474205,0.000184104187872772,-0.00128237913219094,-0.000914920962194785,2.25904625617825e-05,-0.000688474281993715
19.8016501375115,0.000800757949182778,0.000184108180303527,-0.00128236788322702,-0.000914909861736966,2.25941640146083e-05,-0.000688479214285141
19.846653887824,0.000800753020040872,0.00018411217173086,-0.00128235664095307,-0.000914898768002613,2.25978644680139e-05,-0.000688484143427047
19.8916576381365,0.000800748094161408,0.00018411616206097,-0.00128234540562749,-0.000914887681246517,2.26015638350914e-05,-0.000688489069306511
19.936661388449,0.000800743171621675,0.000184120151228834,-0.00128233417742741,-0.000914876601643283,2.26052620556117e-05,-0.000688493991846244
19.9816651387616,0.000800738252455011,0.000184124139204984,-0.00128232295642975,-0.000914865529268614,2.26089591023135e-05,-0.000688498911012908
20.0266688890741,0.000800733336650577,0.00018412812599575,-0.00128231174261064,-0.000914854464098774,2.26126549811233e-05,-0.000688503826817343
20.0716726393866,0.000800728424160238,0.000184132111637732,-0.00128230053586116,-0.000914843406026077,2.26163497260258e-05,-0.000688508739307681
20.1166763896991,0.000800723514910579,0.000184136096188096,-0.00128228933601466,-0.000914832354885909,2.26200433900701e-05,-0.00068851364855734
20.1616801400117,0.000800718608817459,0.000184140079712785,-0.00128227814288003,-0.0009148213104895,2.26237360344373e-05,-0.000688518554650461
20.2066838903242,0.000800713705800478,0.00018414406227478,-0.00128226695627466,-0.000914810272656487,2.26274277175611e-05,-0.000688523457667441
20.2516876406367,0.00080070880579504,0.000184148043924303,-0.00128225577605195,-0.000914799241242056,2.26311184860418e-05,-0.000688528357672879
20.2966913909492,0.000800703908760363,0.00018415202469227,-0.00128224460211967,-0.000914788216155005,2.2634808368587e-05,-0.000688533254707556
20.3416951412618,0.000800699014682683,0.000184156004587673,-0.00128223343444717,-0.000914777197364945,2.26384973735755e-05,-0.000688538148785237
20.3866988915743,0.000800694123573714,0.000184159983598785,-0.00128222227306199,-0.000914766184898852,2.26421854901848e-05,-0.000688543039894205
20.4317026418868,0.000800689235465224,0.000184163961697551,-0.0012822111180374,-0.000914755178828855,2.26458726924591e-05,-0.000688547928002695
20.4767063921994,0.000800684350401064,0.00018416793884605,-0.00128219996947427,-0.000914744179254299,2.26495589452972e-05,-0.000688552813066855
20.5217101425119,0.000800679468428263,0.000184171915003732,-0.00128218882748073,-0.00091473318628169,2.26532442111655e-05,-0.000688557695039656
20.5667138928244,0.000800674589588719,0.000184175890134183,-0.00128217769215322,-0.000914722200005996,2.26569284563657e-05,-0.0006885625738792
20.6117176431369,0.000800669713912757,0.000184179864210388,-0.00128216656356177,-0.000914711220496125,2.26606116559098e-05,-0.000688567449555163
20.6567213934495,0.000800664841415342,0.000184183837217823,-0.00128215544174137,-0.00091470024778641,2.2664293796391e-05,-0.000688572322052577
20.701725143762,0.000800659972095238,0.000184187809155171,-0.00128214432669001,-0.000914689281874693,2.26679748766411e-05,-0.000688577191372681
20.7467288940745,0.000800655105936859,0.000184191780032824,-0.00128213321837293,-0.000914678322726503,2.26716549063442e-05,-0.000688582057531061
20.791732644387,0.0008006502429142,0.000184195749869695,-0.0012821221167316,-0.000914667370283896,2.26753339030806e-05,-0.00068858692055372
20.8367363946996,0.000800645382995943,0.000184199718689061,-0.00128211102169533,-0.000914656424476961,2.26790118884729e-05,-0.000688591780471976
20.8817401450121,0.000800640526150783,0.00018420368651422,-0.00128209993319346,-0.000914645485235804,2.2682688884162e-05,-0.000688596637317136
20.9267438953246,0.000800635672352081,0.000184207653364683,-0.00128208885116597,-0.000914634552501033,2.26863649082805e-05,-0.000688601491115838
20.9717476456371,0.000800630821581192,0.000184211619253454,-0.00128207777557108,-0.000914623626231259,2.26900399729275e-05,-0.000688606341886727
21.0167513959497,0.000800625973829094,0.000184215584185684,-0.00128206670638898,-0.000914612706406763,2.2693714082925e-05,-0.000688611189638826
21.0617551462622,0.00080062112909627,0.000184219548158754,-0.00128205564362157,-0.000914601793029238,2.26973872358961e-05,-0.00068861603437165
21.1067588965747,0.000800616287391084,0.000184223511163598,-0.00128204458728873,-0.000914590886118126,2.27010594234883e-05,-0.000688620876076836
21.1517626468872,0.000800611448727091,0.000184227473186889,-0.00128203353742221,-0.000914579985704569,2.2704730633403e-05,-0.000688625714740828
21.1967663971998,0.000800606613119858,0.000184231434213644,-0.00128202249405836,-0.000914569091824237,2.27084008518064e-05,-0.000688630550348062
21.2417701475123,0.00080060178058385,0.000184235394229765,-0.001282011457231,-0.000914558204510329,2.27120700656869e-05,-0.000688635382884069
21.2867738978248,0.000800596951129893,0.000184239353224128,-0.00128200042696566,-0.000914547323787842,2.27157382647879e-05,-0.000688640212338027
21.3317776481373,0.000800592124763528,0.000184243311189931,-0.00128198940327579,-0.000914536449669871,2.27194054428592e-05,-0.000688645038704391
21.3767813984499,0.000800587301484426,0.000184247268125187,-0.00128197838616145,-0.000914525582156283,2.27230715981091e-05,-0.000688649861983494
21.4217851487624,0.000800582481286814,0.000184251224032373,-0.00128196737561024,-0.00091451472123468,2.27267367328862e-05,-0.000688654682181106
21.4667888990749,0.000800577664160722,0.000184255178917421,-0.00128195637160019,-0.000914503866883205,2.27304008527369e-05,-0.000688659499307197
21.5117926493874,0.00080057285009375,0.00018425913278827,-0.00128194537410376,-0.00091449301907452,2.27340639650668e-05,-0.00068866431337417
21.5567963997,0.000800568039072997,0.000184263085653278,-0.00128193438309228,-0.000914482177780163,2.2737726077671e-05,-0.000688669124394922
21.6018001500125,0.000800563231086844,0.000184267037519767,-0.00128192339853999,-0.000914471342974546,2.27413871973838e-05,-0.000688673932381076
21.646803900325,0.00080055842612629,0.000184270988392916,-0.00128191242042711,-0.000914460514637989,2.27450473290514e-05,-0.000688678737341629
21.6918076506376,0.000800553624185721,0.000184274938275126,-0.0012819014487416,-0.000914449692758433,2.27487064749506e-05,-0.000688683539282199
21.7368114009501,0.000800548825263023,0.000184278887165925,-0.00128189048347941,-0.000914438877331716,2.27523646346927e-05,-0.000688688338204896
21.7818151512626,0.000800544029359137,0.000184282835062331,-0.00128187952464347,-0.000914428068360547,2.27560218055655e-05,-0.000688693134108783
21.8268189015751,0.00080053923647716,0.000184286781959581,-0.00128186857224165,-0.00091441726585251,2.27596779832077e-05,-0.000688697926990759
21.8718226518877,0.000800534446621234,0.000184290727852055,-0.00128185762628419,-0.000914406469817533,2.27633331624624e-05,-0.000688702716846685
21.9168264022002,0.000800529659795391,0.000184294672734218,-0.00128184668678108,-0.000914395680265297,2.27669873382537e-05,-0.000688707503672529
21.9618301525127,0.000800524876002564,0.000184298616601435,-0.00128183575373982,-0.000914384897203015,2.27706405063395e-05,-0.000688712287465355
22.0068339028252,0.000800520095243907,0.000184302559450543,-0.00128182482716383,-0.000914374120633879,2.27742926638392e-05,-0.000688717068224012
22.0518376531378,0.00080051531751847,0.000184306501280108,-0.00128181390705171,-0.000914363350556346,2.27779438094769e-05,-0.000688721845949449
22.0968414034503,0.000800510542823267,0.000184310442090383,-0.00128180299339742,-0.000914352586964279,2.27815939435366e-05,-0.000688726620644653
22.1418451537628,0.000800505771153652,0.00018431438188299,-0.00128179208619112,-0.000914341829847799,2.27852430675734e-05,-0.000688731392314268
22.1868489040753,0.000800501002503922,0.000184318320660434,-0.00128178118542056,-0.000914331079194643,2.27888911839564e-05,-0.000688736160963997
22.2318526543879,0.000800496236868011,0.000184322258425525,-0.00128177029107265,-0.000914320334991724,2.2792538295339e-05,-0.000688740926599909
22.2768564047004,0.000800491474240153,0.000184326195180828,-0.00128175940313498,-0.000914309597226637,2.27961844041483e-05,-0.000688745689227766
22.3218601550129,0.000800486714615424,0.000184330130928221,-0.00128174852159708,-0.000914298865888866,2.27998295121748e-05,-0.000688750448852496
22.3668639053254,0.000800481957990069,0.00018433406566862,-0.00128173764645112,-0.000914288140970535,2.28034736203156e-05,-0.000688755205477851
22.411867655638,0.000800477204361611,0.000184337999401887,-0.00128172677769222,-0.000914277422466648,2.28071167284932e-05,-0.000688759959106308
22.4568714059505,0.000800472453728739,0.000184341932126921,-0.00128171591531815,-0.000914266710374831,2.28107588357405e-05,-0.000688764709739181
22.501875156263,0.000800467706091019,0.000184345863841898,-0.00128170505932869,-0.000914256004694695,2.2814399940417e-05,-0.000688769457376901
22.5468789065755,0.000800462961448509,0.000184349794544588,-0.00128169420972475,-0.000914245305426956,2.28180400405079e-05,-0.00068877420201941
22.5918826568881,0.000800458219801336,0.000184353724232702,-0.00128168336650738,-0.000914234612572484,2.28216791339457e-05,-0.000688778943666584
22.6368864072006,0.000800453481149317,0.000184357652904211,-0.00128167252967693,-0.000914223926131455,2.28253172189004e-05,-0.000688783682318602
22.6818901575131,0.000800448745491684,0.000184361580557573,-0.00128166169923242,-0.000914213246102715,2.28289542939946e-05,-0.000688788417976236
22.7268939078257,0.000800444012826924,0.00018436550719186,-0.00128165087517116,-0.000914202572483444,2.28325903584216e-05,-0.000688793150640995
22.7718976581382,0.000800439283152776,0.000184369432806775,-0.00128164005748874,-0.000914191905269118,2.28362254119551e-05,-0.000688797880315144
22.8169014084507,0.000800434556466331,0.000184373357402556,-0.00128162924617928,-0.000914181244453764,2.28398594548663e-05,-0.000688802607001589
22.8619051587632,0.000800429832764239,0.000184377280979811,-0.00128161844123587,-0.000914170590030406,2.28434924877704e-05,-0.00068880733070368
22.9069089090758,0.000800425112042952,0.00018438120353932,-0.00128160764265118,-0.000914159941991622,2.2847124511439e-05,-0.000688812051424967
22.9519126593883,0.000800420394298971,0.000184385125081823,-0.00128159685041794,-0.000914149300330097,2.28507555266088e-05,-0.000688816769168949
22.9969164097008,0.000800415679529054,0.000184389045607851,-0.00128158606452953,-0.000914138665039104,2.2854385533821e-05,-0.000688821483938865
23.0419201600133,0.000800410967730363,0.000184392965117603,-0.00128157528498019,-0.000914128036112813,2.28580145333117e-05,-0.000688826195737556
23.0869239103259,0.000800406258900519,0.000184396883610901,-0.00128156451176525,-0.000914117413546434,2.28616425249653e-05,-0.000688830904567401
23.1319276606384,0.000800401553037582,0.000184400801087202,-0.00128155374488103,-0.000914106797336172,2.28652695083294e-05,-0.000688835610430338
23.1769314109509,0.000800396850139964,0.000184404717545671,-0.00128154298432466,-0.000914096187479018,2.28688954826837e-05,-0.000688840313327956
23.2219351612634,0.000800392150206295,0.000184408632985299,-0.00128153223009376,-0.000914085583972458,2.28725204471416e-05,-0.000688845013261625
23.266938911576,0.000800387453235272,0.000184412547405017,-0.0012815214821861,-0.000914074986814126,2.28761444007668e-05,-0.000688849710232648
23.3119426618885,0.000800382759225516,0.000184416460803827,-0.00128151074059929,-0.000914064396001485,2.28797673426837e-05,-0.000688854404242404
23.356946412201,0.000800378068175458,0.000184420373180886,-0.00128150000533049,-0.000914053811531569,2.28833892721642e-05,-0.000688859095292462
23.4019501625135,0.000800373380083275,0.000184424284535569,-0.00128148927637629,-0.000914043233400838,2.28870101886798e-05,-0.000688863783384644
23.4469539128261,0.000800368694946869,0.000184428194867483,-0.00128147855373263,-0.000914032661605129,2.2890630091916e-05,-0.00068886846852105
23.4919576631386,0.000800364012763897,0.000184432104176438,-0.00128146783739491,-0.000914022096139728,2.28942489817502e-05,-0.000688873150704022
23.5369614134511,0.000800359333531835,0.000184436012462404,-0.00128145712735811,-0.00091401153699951,2.28978668582024e-05,-0.000688877829936084
23.5819651637636,0.000800354657248066,0.000184439919725427,-0.00128144642361699,-0.000914000984179137,2.29014837213681e-05,-0.000688882506219854
23.6269689140762,0.000800349983909966,0.000184443825965564,-0.00128143572616628,-0.000913990437673262,2.29050995713488e-05,-0.000688887179557953
23.6719726643887,0.000800345313514992,0.000184447731182807,-0.00128142503500093,-0.000913979897476711,2.29087144081893e-05,-0.000688891849952928
23.7169764147012,0.000800340646060732,0.000184451635377041,-0.00128141435011616,-0.000913969363584611,2.2912328231833e-05,-0.000688896517407187
23.7619801650137,0.000800335981544941,0.000184455538548015,-0.00128140367150757,-0.000913958835992461,2.29159410420983e-05,-0.000688901181922978
23.8069839153263,0.00080033131996554,0.000184459440695343,-0.00128139299917115,-0.000913948314696134,2.29195528386779e-05,-0.00068890584350238
23.8519876656388,0.000800326661320586,0.000184463341818524,-0.00128138233310321,-0.000913937799691813,2.29231636211598e-05,-0.000688910502147334
23.8969914159513,0.000800322005608232,0.000184467241916982,-0.00128137167330026,-0.000913927290975894,2.29267733890611e-05,-0.000688915157859687
23.9419951662639,0.000800317352826671,0.000184471140990111,-0.00128136101975891,-0.00091391678854486,2.29303821418705e-05,-0.000688919810641249
23.9869989165764,0.000800312702974082,0.000184475039037316,-0.00128135037247573,-0.000913906292395167,2.29339898790885e-05,-0.000688924460493838
24.0320026668889,0.000800308056048587,0.000184478936058053,-0.00128133973144716,-0.000913895802523139,2.29375966002628e-05,-0.000688929107419332
24.0770064172014,0.000800303412048222,0.000184482832051853,-0.00128132909666946,-0.000913885318924905,2.294120230501e-05,-0.000688933751419697
24.122010167514,0.000800298770970927,0.000184486727018333,-0.00128131846813864,-0.000913874841596374,2.29448069930248e-05,-0.000688938392496993
24.1670139178265,0.000800294132814547,0.000184490620957187,-0.00128130784585051,-0.000913864370533246,2.29484106640753e-05,-0.000688943030653372
24.212017668139,0.00080028949757686,0.000184494513868171,-0.00128129722980072,-0.000913853905731062,2.29520133179876e-05,-0.00068894766589106
24.2570214184515,0.000800284865255598,0.000184498405751082,-0.00128128661998482,-0.000913843447185264,2.29556149546228e-05,-0.000688952298212322
24.3020251687641,0.000800280235848488,0.000184502296605724,-0.00128127601639834,-0.000913832994891278,2.29592155738509e-05,-0.000688956927619431
24.3470289190766,0.000800275609353278,0.000184506186431886,-0.00128126541903686,-0.000913822548844578,2.29628151755272e-05,-0.000688961554114641
24.3920326693891,0.000800270985767761,0.000184510075229323,-0.00128125482789606,-0.000913812109040739,2.29664137594743e-05,-0.000688966177700158
24.4370364197016,0.00080026636508979,0.00018451396299774,-0.00128124424297175,-0.000913801675475469,2.29700113254718e-05,-0.000688970798378129
24.4820401700142,0.000800261747317278,0.000184517849736795,-0.0012812336642599,-0.000913791248144614,2.2973607873253e-05,-0.000688975416150641
24.5270439203267,0.000800257132448195,0.000184521735446102,-0.00128122309175659,-0.000913780827044144,2.29772034025112e-05,-0.000688980031019724
24.5720476706392,0.00080025252048055,0.000184525620125244,-0.00128121252545798,-0.000913770412170119,2.29807979129107e-05,-0.000688984642987369
24.6170514209517,0.000800247911412373,0.000184529503773788,-0.00128120196536031,-0.000913760003518645,2.29843914041015e-05,-0.000688989252055546
24.6620551712643,0.000800243305241697,0.000184533386391301,-0.00128119141145978,-0.000913749601085833,2.29879838757346e-05,-0.000688993858226222
24.7070589215768,0.000800238701966539,0.000184537267977368,-0.0012811808637526,-0.000913739204867757,2.29915753274755e-05,-0.000688998461501381
24.7520626718893,0.000800234101584886,0.000184541148531598,-0.00128117032223488,-0.000913728814860426,2.29951657590139e-05,-0.000689003061883034
24.7970664222019,0.000800229504094694,0.000184545028053633,-0.00128115978690266,-0.000913718431059773,2.29987551700681e-05,-0.000689007659373225
24.8420701725144,0.000800224909493886,0.000184548906543144,-0.00128114925775191,-0.000913708053461659,2.30023435603841e-05,-0.000689012253974033
24.8870739228269,0.000800220317780357,0.000184552783999825,-0.00128113873477855,-0.00091369768206188,2.30059309297315e-05,-0.000689016845687562
24.9320776731394,0.000800215728951987,0.000184556660423391,-0.00128112821797843,-0.000913687316856196,2.3009517277895e-05,-0.000689021434515933
24.977081423452,0.000800211143006649,0.000184560535813561,-0.00128111770734741,-0.000913676957840354,2.30131026046655e-05,-0.00068902602046127
25.0220851737645,0.000800206559942225,0.000184564410170051,-0.00128110720288136,-0.000913666605010116,2.30166869098317e-05,-0.000689030603525694
25.067088924077,0.000800201979756611,0.000184568283492567,-0.00128109670457618,-0.000913656258361278,2.30202701931719e-05,-0.000689035183711308
25.1120926743895,0.000800197402447725,0.000184572155780799,-0.00128108621242783,-0.000913645917889685,2.302385245445e-05,-0.000689039761020194
25.1570964247021,0.000800192828013511,0.00018457602703442,-0.00128107572643231,-0.000913635583591236,2.30274336934133e-05,-0.000689044335454409
25.2021001750146,0.000800188256451931,0.000184579897253086,-0.00128106524658568,-0.000913625255461876,2.30310139097945e-05,-0.000689048907015988
25.2471039253271,0.000800183687760969,0.00018458376643644,-0.00128105477288403,-0.000913614933497594,2.30345931033146e-05,-0.000689053475706951
25.2921076756396,0.000800179121938616,0.000184587634584121,-0.00128104430532348,-0.000913604617694396,2.30381712736891e-05,-0.000689058041529303
25.3371114259522,0.000800174558982869,0.000184591501695765,-0.00128103384390016,-0.0009135943080483,2.30417484206329e-05,-0.00068906260448505
25.3821151762647,0.000800169998891722,0.000184595367771015,-0.00128102338861019,-0.000913584004555315,2.3045324543865e-05,-0.000689067164576198
25.4271189265772,0.000800165441663159,0.000184599232809521,-0.00128101293944967,-0.000913573707211434,2.30488996431131e-05,-0.00068907172180476
25.4721226768897,0.000800160887295157,0.000184603096810944,-0.00128100249641467,-0.000913563416012622,2.3052473718115e-05,-0.000689076276172762
25.5171264272023,0.00080015633578568,0.00018460695977496,-0.00128099205950124,-0.000913553130954823,2.30560467686197e-05,-0.000689080827682239
25.5621301775148,0.000800151787132684,0.000184610821701252,-0.00128098162870541,-0.000913542852033957,2.30596187943854e-05,-0.000689085376335235
25.6071339278273,0.000800147241334119,0.000184614682589511,-0.0012809712040232,-0.000913532579245932,2.30631897951773e-05,-0.000689089922133801
25.6521376781398,0.000800142698387932,0.000184618542439432,-0.00128096078545061,-0.00091352231258665,2.3066759770764e-05,-0.000689094465079987
25.6971414284524,0.000800138158292075,0.000184622401250713,-0.00128095037298366,-0.000913512052052019,2.30703287209148e-05,-0.000689099005175844
25.7421451787649,0.000800133265698613,0.000184626561198259,-0.00128093915160411,-0.000913500994527771,2.30741761150695e-05,-0.000689103897769306
25.7871489290774,0.000800037734083779,0.000184707821104425,-0.00128072003510469,-0.000913285080152637,2.31493291787402e-05,-0.00068919942938414
25.8321526793899,0.000799555933486236,0.000185117757255134,-0.00127961491604175,-0.000912196117103824,2.35284580120858e-05,-0.000689681229981683
25.8771564297025,0.000798487150132443,0.00018602731757057,-0.00127716335934894,-0.000909780395604306,2.43696929385945e-05,-0.000690750013335477
25.922160180015,0.000796791527752342,0.000187470490559471,-0.00127327392759631,-0.000905947762494709,2.57045703645838e-05,-0.000692445635715578
25.9671639303275,0.000794569718764371,0.000189361532421519,-0.00126817753837491,-0.000900925652632401,2.74539561032013e-05,-0.000694667444703548
26.0121676806401,0.000792019680415402,0.000191531834871852,-0.00126232833266645,-0.000895161447087459,2.94620694881844e-05,-0.000697217483052517
26.0571714309526,0.000789379651860355,0.000193778602107187,-0.00125627282109983,-0.000889193596643371,3.15414126008721e-05,-0.000699857511607565
26.1021751812651,0.000786872591551465,0.000195912190042281,-0.00125052240485143,-0.000883526050493538,3.3516507624153e-05,-0.000702364571916454
26.1471789315776,0.000784665164782917,0.000197790937772742,-0.00124545931506749,-0.000878535566853854,3.52561389694406e-05,-0.000704571998685003
26.1921826818902,0.000782846914064752,0.000199338774815992,-0.00124128887321861,-0.000874424624353745,3.66897172166202e-05,-0.000706390249403167
26.2371864322027,0.000781428057967392,0.000200547025135588,-0.00123803447600718,-0.000871216417598355,3.78090344856875e-05,-0.000707809105500528
26.2821901825152,0.000780350694426683,0.000201464899629173,-0.00123556330243997,-0.000868780137300398,3.86595294394273e-05,-0.000708886469041237
26.3271939328277,0.000779507871982865,0.000202183366488367,-0.00123363004391682,-0.00086687403549123,3.93253866748929e-05,-0.000709729291485054
26.3721976831403,0.000778766236347243,0.000202815989540753,-0.0012319288254569,-0.000865196588191944,3.99117981658643e-05,-0.000710470927120676
26.4172014334528,0.000777989191764558,0.000203479275398856,-0.00123014631474565,-0.000863438848229135,4.05267515657052e-05,-0.000711247971703362
26.4622051837653,0.000777058095792273,0.000204274607775027,-0.00122801033717117,-0.00086133238215309,4.12642801990729e-05,-0.000712179067675647
26.5072089340778,0.0007758890745576,0.000205273832476244,-0.00122532846115005,-0.000858687330655844,4.21910898699313e-05,-0.000713348088910319
26.5522126843904,0.000774443148884131,0.00020651050435447,-0.00122201124630664,-0.000855415357528798,4.3338425044058e-05,-0.000714794014583788
26.5972164347029,0.000772728057820375,0.000207978226476829,-0.0012180764414848,-0.000851533822450141,4.47004994374752e-05,-0.000716509105647545
26.6422201850154,0.000770791653446853,0.000209636228862901,-0.00121363383586478,-0.000847150878039475,4.62396322387383e-05,-0.000718445510021066
26.6872239353279,0.000768708647244877,0.000211420677866577,-0.00120885484753289,-0.000842435509104336,4.78967014443928e-05,-0.000720528516223042
26.7322276856405,0.000766564032410877,0.00021325886348872,-0.00120393448199012,-0.000837580031584902,4.96042811945014e-05,-0.000722673131057042
26.777231435953,0.000764436999307561,0.000215082982011693,-0.00119905442440104,-0.000832763688998474,5.12994264714669e-05,-0.000724800164160358
26.8222351862655,0.000762388466094474,0.000216840831288906,-0.0011943544311028,-0.000828124414789288,5.29336162016226e-05,-0.000726848697373445
26.867238936578,0.000760453915775154,0.000218501968930694,-0.00118991589910409,-0.000823742593411753,5.44785014896254e-05,-0.000728783247692765
26.9122426868906,0.000758641738013083,0.000220059164431783,-0.00118575806530187,-0.000819637275823087,5.59272903568196e-05,-0.000730595425454837
26.9572464372031,0.000756936200368935,0.00022152589166016,-0.00118184482465135,-0.00081577287554664,5.72924509355344e-05,-0.000732300963098984
27.0022501875156,0.000755303646539007,0.000222931053381941,-0.00117809894953518,-0.000812073177888041,5.86008324091433e-05,-0.000733933516928912
27.0472539378282,0.000753700410926914,0.000224312219394535,-0.00117442024607186,-0.00080843924792765,5.98873910473431e-05,-0.000735536752541006
27.0922576881407,0.000752081053459237,0.000225708564847243,-0.00117070444639173,-0.000804768079142599,6.11886241162401e-05,-0.000737156110008682
27.1372614384532,0.000750405721397189,0.000227154529703297,-0.00116686010033215,-0.000800969279880818,6.25366629546519e-05,-0.000738831442070731
27.1822651887657,0.000748645695185952,0.000228675015447772,-0.00116282130271579,-0.000796977657906468,6.39547875795263e-05,-0.000740591468281967
27.2272689390783,0.000746786490368938,0.00023028267209126,-0.00115855481388459,-0.000792760273938114,6.54548815335343e-05,-0.000742450673098981
27.2722726893908,0.000744828283615332,0.000231977490390883,-0.00115406103954112,-0.00078831743129708,6.70370316947394e-05,-0.000744408879852587
27.3172764397033,0.000742783878022773,0.000233748526449064,-0.00114936936248931,-0.00078367808283585,6.86911168745674e-05,-0.000746453285445147
27.3622801900158,0.000740674836866733,0.000235577223016334,-0.00114452926988079,-0.000778891076957544,7.03998903701353e-05,-0.000748562326601187
27.4072839403284,0.000738526690701276,0.000237441547641073,-0.00113959935310592,-0.000774014292480514,7.21428324761904e-05,-0.000750710472766643
27.4522876906409,0.000736364187309409,0.000239320107523701,-0.001134636405945,-0.000769103861240851,7.38999904725171e-05,-0.00075287297615851
27.4972914409534,0.000734207404911815,0.000241195527526174,-0.00112968650421461,-0.000764205341266689,7.5655139252168e-05,-0.000755029758556105
27.5422951912659,0.000732069252736404,0.000243056633302986,-0.00112477926974395,-0.000759348032571681,7.7397832225717e-05,-0.000757167910731516
27.5872989415785,0.000729954539087161,0.000244899279008562,-0.00111992573188366,-0.000754542847897857,7.91241887931714e-05,-0.000759282624380758
27.632302691891,0.000727860484047869,0.000246725921397989,-0.00111511950437446,-0.000749783463198228,8.0836509657292e-05,-0.000761376679420051
27.6773064422035,0.000725778342792926,0.0002485442254562,-0.00111034051095977,-0.000745049992829775,8.25419833180647e-05,-0.000763458820674994
27.722310192516,0.000723695697466884,0.000250365081471088,-0.00110556024540614,-0.000740314188151684,8.42508369679989e-05,-0.000765541466001035
27.7673139428286,0.000721598956818105,0.000252200431809416,-0.00110074750853208,-0.000735545114134171,8.59743036079381e-05,-0.000767638206649815
27.8123176931411,0.000719475650789833,0.00025406126659819,-0.00109587367493054,-0.000730714366053541,8.77227420083219e-05,-0.000769761512678087
27.8573214434536,0.000717316201247234,0.000255956068379305,-0.00109091675756616,-0.000725800100420353,8.95041731401732e-05,-0.000771920962220685
27.9023251937661,0.000715114972744249,0.000257889880756824,-0.00108586381995676,-0.000720789432186277,9.13233990164348e-05,-0.000774122190723671
27.9473289440787,0.000712870542490974,0.000259864058724438,-0.00108071159605707,-0.000715679057332859,9.31817602109338e-05,-0.000776366620976946
27.9923326943912,0.000710585258596824,0.000261876644314621,-0.00107546547623002,-0.000710474255542054,9.50774812437492e-05,-0.000778651904871096
28.0373364447037,0.000708264261178298,0.000263923217500429,-0.00107013726001495,-0.000705186668294229,9.70064645955655e-05,-0.000780972902289621
28.0823401950163,0.000705914205669245,0.000265998013826273,-0.00106474222514816,-0.000699831395961361,9.896333848291e-05,-0.000783322957798675
28.1273439453288,0.000703541943050843,0.000268095085143936,-0.00105929609765458,-0.000694423993413813,0.000100942548488088,-0.000785695220417077
28.1723476956413,0.000701153380017686,0.000270209306436934,-0.00105381243505753,-0.000688977872326904,0.000102939307348796,-0.000788083783450233
28.2173514459538,0.000698752675751015,0.000272337089255523,-0.00104830078241481,-0.000683502467921151,0.000104950270716636,-0.000790484487716904
28.2623551962664,0.000696341849268427,0.000274476734687401,-0.0010427657709979,-0.00067800233986553,0.000106973874485474,-0.000792895314199492
28.3073589465789,0.000693920790735676,0.000276628429755863,-0.00103720714441739,-0.00067247719357779,0.00010901033606036,-0.000795316372732244
28.3523626968914,0.000691487605758517,0.000278793948194794,-0.00103162054922488,-0.000666922661317858,0.000111061375899892,-0.000797749557709403
28.3973664472039,0.000689039181166937,0.000280976152878659,-0.00102599883403417,-0.000661331589783775,0.000113129750302964,-0.000800197982300983
28.4423701975165,0.000686571845669984,0.000283178411326162,-0.00102033356645613,-0.000655695545928707,0.000115218700232609,-0.000802665317797935
28.487373947829,0.000684082006043061,0.000285404030078075,-0.0010146164938513,-0.000650006268810293,0.000117331416149787,-0.000805155157424859
28.5323776981415,0.000681566663701709,0.000287655793044152,-0.00100884072943117,-0.000644256850016025,0.000119470599677197,-0.000807670499766211
28.577381448454,0.000679023751036021,0.000289935658777765,-0.0010030015244854,-0.000638442503662361,0.000121638174699648,-0.000810213412431899
28.6223851987666,0.000676452265032152,0.00029224463791557,-0.000997096575112783,-0.000632560873912263,0.000123835168723823,-0.000812784898435767
28.6673889490791,0.000673852211329837,0.000294582840193042,-0.000991125893638409,-0.000626611909329553,0.000126061755152219,-0.000815384952138082
28.7123926993916,0.000671224399907668,0.000296949655100053,-0.000985091339308786,-0.000620597397615406,0.000128317422948841,-0.000818012763560251
28.7573964497041,0.000668570150686351,0.000299344014512408,-0.000978995942133615,-0.000614520293596438,0.000130601225018485,-0.000820667012781568
28.8024002000167,0.000665890972249478,0.000301764680779775,-0.000972843165024011,-0.000608383984833756,0.00013291205174374,-0.000823346191218441
28.8474039503292,0.000663188270571488,0.000304210509014465,-0.000966636234885932,-0.000602191625046934,0.000135248880873255,-0.000826048892896432
28.8924077006417,0.000660463129935645,0.000306680645252438,-0.000960377639547373,-0.000595945632099274,0.00013761096704884,-0.000828774033532275
28.9374114509542,0.00065771618903908,0.000309174639262821,-0.000954068843329347,-0.000589647403505253,0.000139997950416438,-0.00083152097442884
28.9824152012668,0.000654947615703045,0.00031169246839236,-0.000947710229099863,-0.000583297257639185,0.000142409880502316,-0.000834289547764874
29.0274189515793,0.00065215716705854,0.000314234483840693,-0.000941301236642214,-0.000576894570893766,0.000144847165884108,-0.00083707999640938
29.0724227018918,0.000649344310792492,0.000316801301118122,-0.00093484064125028,-0.000570438055093407,0.000147310470164996,-0.000839892852675428
29.1174264522043,0.000646508377893007,0.000319393661297259,-0.000928326904644293,-0.000563926107547902,0.000149800579531254,-0.000842728785574913
29.1624302025169,0.000643648717985243,0.000322012289283064,-0.000921758531802771,-0.000557357167496899,0.000152318266940695,-0.000845588445482676
29.2074339528294,0.000640764833579302,0.000324657770748257,-0.000915134379321572,-0.000550730024574264,0.000154864173729462,-0.000848472329888618
29.2524377031419,0.000637856477644078,0.000327330462130355,-0.000908453879502604,-0.00054404404340683,0.00015743872256546,-0.000851380685823842
29.2974414534545,0.000634923708041193,0.000330030439814211,-0.000901717165327408,-0.000537299289356193,0.000160042067787868,-0.000854313455426726
29.342445203767,0.000631966900846311,0.000332757486841665,-0.00089492510098353,-0.000530496559917023,0.000162674081702869,-0.000857270262621608
29.3874489540795,0.00062898673119359,0.000335511109368796,-0.000888079237794027,-0.000523637341501809,0.000165334369488963,-0.00086025043227433
29.432452704392,0.000625984134266745,0.000338290571336879,-0.00088118172456102,-0.000516723720562116,0.000168022301695347,-0.000863253029201174
29.4774564547046,0.000622960260245743,0.000341094934635629,-0.000874235204055521,-0.000509758280784016,0.000170737052104979,-0.000866276903222177
29.5224602050171,0.000619916435717933,0.000343923093153787,-0.000867242724394976,-0.000502744015161019,0.000173477629744994,-0.000869320727749987
29.5674639553296,0.000616854140959864,0.000346773791921736,-0.000860207686917279,-0.000495684274650551,0.000176242896486361,-0.000872383022508055
29.6124677056421,0.000613775008463032,0.000349645626256613,-0.000853133842890104,-0.000488582765860182,0.000179031565221463,-0.000875462155004888
29.6574714559547,0.000610680843987593,0.00035253701961246,-0.000846025341996002,-0.000481443600798431,0.000181842177263023,-0.000878556319480326
29.7024752062672,0.000607573668000517,0.000355446182042548,-0.000838886827657031,-0.000474271393819266,0.00018467306071614,-0.000881663495467402
29.7474789565797,0.000604455773048983,0.000358371053358091,-0.000831723568965492,-0.000467071395556808,0.000187522273704375,-0.000884781390418936
29.7924827068922,0.000601329791604993,0.000361309236046195,-0.000824541616657372,-0.000459849651284457,0.000190387537306646,-0.000887907371862926
29.8374864572048,0.000598198769097851,0.000364257922866674,-0.000817347970983372,-0.000452613171528928,0.000193266162949314,-0.000891038394370068
29.8824902075173,0.000595066237939343,0.000367213823042776,-0.000810150751836324,-0.000445370105265822,0.000196154978043387,-0.000894170925528576
29.9274939578298,0.000591936289952369,0.000370173089456569,-0.000802959365187508,-0.000438129909722931,0.000199050252206987,-0.000897300873515551
29.9724977081423,0.000588813646336462,0.000373131247633619,-0.000795784663845565,-0.000430903514794748,0.00020194762483514,-0.000900423517131457
30.0175014584549,0.000585703725452062,0.000376083126213066,-0.000788639103192373,-0.000423703482725908,0.000204842033718681,-0.000903533438015857
30.0625052087674,0.00058261313574269,0.000379022382353071,-0.000781537873739231,-0.000416545152901634,0.000207727245519466,-0.000906624027725229
30.1075089590799,0.000579553970875347,0.000381937441071007,-0.000774508766023297,-0.00040945658398086,0.000210591869578195,-0.000909683192592573
30.1525127093925,0.000576539249051214,0.000384815916822828,-0.000767581681078357,-0.000402467963323373,0.000213423710889137,-0.000912697914416705
30.197516459705,0.000573578874521084,0.000387648403909066,-0.000760779357240613,-0.0003956022702982,0.000216213482680697,-0.000915658288946835
30.2425202100175,0.000570680191593146,0.000390427845424741,-0.000754118654958369,-0.000388876594971273,0.00021895416734163,-0.000918556971874773
30.28752396033,0.000567849344769433,0.000393148163562545,-0.000747613690063537,-0.0003823053146913,0.000221639654979785,-0.000921387818698486
30.3325277106426,0.000565092845388026,0.000395802726304279,-0.00074127943699293,-0.000375903738843426,0.000224263224384394,-0.000924144318079893
30.3775314609551,0.000562418951336035,0.000398383023628671,-0.000735134898341459,-0.000369691310818724,0.000226816233556811,-0.000926818212131885
30.4225352112676,0.000559838648046957,0.000400877751252629,-0.000729205355007389,-0.000363693877317574,0.000229287215451635,-0.000929398515420963
30.4675389615801,0.00055736616769024,0.000403272355382148,-0.00072352355316148,-0.000357944880484373,0.000231661431925304,-0.00093187099577768
30.5125427118927,0.000555019087822147,0.000405548988929158,-0.000718129924283971,-0.000352485571520532,0.000233920836258616,-0.000934218075645773
30.5575464622052,0.000552818115681508,0.000407686765571602,-0.000713072083698842,-0.000347364495797079,0.000236044330357979,-0.000936419047786411
30.6025502125177,0.000550786695466085,0.00040966216962197,-0.000708403924324035,-0.000342636571416308,0.000238008174456284,-0.000938450468001834
30.6475539628302,0.000548950576410116,0.000411449484406281,-0.000704184622856232,-0.000338362082628507,0.000239786412631297,-0.000940286587057804
30.6925577131428,0.000547337453577852,0.000413021133956649,-0.000700477815317703,-0.000334605846981903,0.000241351210679839,-0.000941899709890068
30.7375614634553,0.00054597674962929,0.000414347881269484,-0.000697351097920921,-0.000331436711550136,0.000242673052285327,-0.000943260413838629
30.7825652137678,0.000544899556068608,0.000415398877798939,-0.000694875894570808,-0.000328927416856682,0.000243720791227622,-0.000944337607399311
30.8275689640803,0.000544138707015344,0.000416141602592383,-0.000693127627902686,-0.000327154761478445,0.000244461600885445,-0.000945098456452575
30.8725727143929,0.000543728922993343,0.00041654176076409,-0.000692186049456472,-0.000326199918643546,0.000244860892868984,-0.000945508240474577
30.9175764647054,0.000543706937373681,0.000416563230391618,-0.0006921355280163,-0.000326148699779084,0.000244882295063101,-0.000945530226094239
30.9625802150179,0.000544111502102558,0.000416168157364526,-0.000693065058940144,-0.00032709152428247,0.000244487788773446,-0.000945125661365361
31.0075839653304,0.00054498316024927,0.000415317301876949,-0.000695067736886001,-0.000329122835060004,0.000243638107765614,-0.000944254003218649
31.052587715643,0.000546363669800863,0.000413970739399948,-0.000698239427518209,-0.00033233969341117,0.000242293500012001,-0.000942873493667056
