data1,data2,data3,data4,data5,data6,data7
0,0.000255180519888926,2.06247239679523e-05,-0.000903260929555454,0.000894646004638415,0.000461761147202888,-9.57418024296894e-05
0.0100016669444907,0.000254877503209559,2.03201327226132e-05,-0.000903566310303214,0.000894340623890655,0.000461456555957549,-9.60448191090566e-05
0.0200033338889815,0.000255337368537058,2.07823876489278e-05,-0.00090310285720923,0.000894804076984632,0.000461918810883851,-9.55849537815579e-05
0.0300050008334722,0.000254803079613119,2.02453223987228e-05,-0.000903641314535925,0.000894265619657962,0.000461381745633694,-9.61192427054966e-05
0.040006667777963,0.000254423389940118,1.98636597437782e-05,-0.000904023966462871,0.000893882967731009,0.000461000082978737,-9.64989323784972e-05
0.0500083347224537,0.000254333851428543,1.97736559631195e-05,-0.000904114203533896,0.000893792730659982,0.000460910079198073,-9.65884708900723e-05
0.0600100016669445,0.000254359195659065,1.97991318898998e-05,-0.000904088661573353,0.000893818272620525,0.000460935555124854,-9.65631266595503e-05
0.0700116686114352,0.000254354511987066,1.97944238801294e-05,-0.000904093381786315,0.000893813552407563,0.000460930847115083,-9.65678103315499e-05
0.080013335555926,0.000254244202619038,1.96835413113889e-05,-0.000904204551763371,0.000893702382430505,0.000460819964546339,-9.66781196995773e-05
0.0900150025004167,0.000253944305865143,1.93820862035992e-05,-0.000904506788244695,0.000893400145949176,0.00046051850943854,-9.69780164534727e-05
0.100016669444907,0.000253343236633802,1.87778936354257e-05,-0.000905112546883805,0.000892794387310057,0.000459914316870348,-9.75790856848131e-05
0.110018336389398,0.000252310510325515,1.77398009700693e-05,-0.000906153330291876,0.000891753603901972,0.000458876224204964,-9.8611811993101e-05
0.120020003333889,0.000250738630905054,1.61597535905117e-05,-0.000907737473164173,0.000890169461029659,0.000457296176825375,-0.000100183691413562
0.13002167027838,0.000248624252726414,1.40343884657547e-05,-0.000909868347248687,0.000888038586945135,0.000455170811700597,-0.000102298069592202
0.14002333722287,0.000246161818940311,1.15591591317056e-05,-0.000912349992392712,0.000885556941801115,0.000452695582366559,-0.000104760503378304
0.150025004167361,0.000243778444258551,9.16339971690624e-06,-0.000914751961630948,0.000883154972562905,0.000450299822951811,-0.000107143878060065
0.160026671111852,0.000242048243969615,7.42420878588594e-06,-0.000916495660555767,0.00088141127363812,0.000448560632020859,-0.000108874078349
0.170028338056343,0.00024152208990143,6.89532066260659e-06,-0.000917025919560377,0.000880881014633524,0.000448031743897607,-0.000109400232417185
0.180030005000833,0.00024260096184304,7.97979874794723e-06,-0.000915938630501044,0.000881968303692824,0.000449116221982882,-0.000108321360475575
0.190031671945324,0.000245554030009143,1.09482119461498e-05,-0.00091296252315723,0.000884944411036558,0.000452084635180924,-0.000105368292309472
0.200033338889815,0.000250677179592103,1.60979829581566e-05,-0.000907799403906462,0.000890107530287235,0.000457234406192752,-0.000100245142726512
0.210035005834306,0.000258495955474186,2.39573875556997e-05,-0.000899919627682841,0.000897987306510859,0.0004650938107903,-9.2426366844429e-05
0.220036672778796,0.000269792097848671,3.53122280894406e-05,-0.000888535355330968,0.000909371578863045,0.000476448651324664,-8.11302244699443e-05
0.230038339723287,0.000284929468042885,5.05282566194131e-05,-0.000873279886758976,0.000924627047436052,0.000491664679856657,-6.59928542757303e-05
0.240040006667778,0.000301671437523479,6.73572224161697e-05,-0.000856407300176178,0.000941499634020858,0.000508493645657412,-4.92508847951366e-05
0.250041673612269,0.00031269125183087,7.8434298997248e-05,-0.000845301511742041,0.000952605422456981,0.000519570722242444,-3.82310704877451e-05
0.260043340556759,0.000311291792368975,7.70275675226605e-05,-0.000846711889473626,0.000951195044725033,0.000518163990767136,-3.96305299496399e-05
0.27004500750125,0.000303690134743649,6.93864093956876e-05,-0.000854372853531421,0.000943534080665303,0.000510522832636309,-4.72321875749662e-05
0.280046674445741,0.000298418000491925,6.40868795470281e-05,-0.000859686119795359,0.000938220814400109,0.000505223302785148,-5.25043218266901e-05
0.290048341390232,0.000295547298183432,6.1201260204947e-05,-0.000862579218681207,0.000935327715513643,0.000502337683441836,-5.53750241351835e-05
0.300050008334722,0.000293636410281663,5.92804427542286e-05,-0.000864505014903013,0.000933401919291453,0.000500416865990353,-5.72859120369522e-05
0.310051675279213,0.000292341705371887,5.79790101678648e-05,-0.000865809820810938,0.000932097113383279,0.000499115433403494,-5.85806169467284e-05
0.320053342223704,0.000291563514747029,5.71967758301782e-05,-0.000866594082705013,0.000931312851489058,0.000498333199065518,-5.93588075715863e-05
0.330055009168195,0.00029120100691909,5.68323843023991e-05,-0.000866959418737954,0.000930947515456051,0.000497968807537606,-5.97213153995257e-05
0.340056676112685,0.000291198173112735,5.68295357707332e-05,-0.000866962274653032,0.000930944659540972,0.000497965959005939,-5.97241492058804e-05
0.350058343057176,0.000291537661770098,5.7170788513394e-05,-0.000866620137381089,0.000931286796812978,0.000498307211748723,-5.93846605485176e-05
0.360060010001667,0.000292230311693364,5.78670376542469e-05,-0.000865922083558026,0.000931984850636166,0.000499003460889828,-5.86920106252512e-05
0.370061676946158,0.000293312523730146,5.8954873190667e-05,-0.000864831428344963,0.00093307550584943,0.000500091296426649,-5.76097985884693e-05
0.380063343890648,0.000294845926256599,6.04962437384057e-05,-0.000863286062554939,0.000934620871639747,0.000501632666974968,-5.60763960620169e-05
0.390065010835139,0.000296917695393684,6.25787784117931e-05,-0.000861198129938395,0.000936708804256698,0.000503715201649167,-5.40046269249318e-05
0.40006667777963,0.000299640151855706,6.53153815773743e-05,-0.000858454433479943,0.000939452500715709,0.00050645180481586,-5.12821704629097e-05
0.410068344724121,0.000303147602228339,6.88410577182631e-05,-0.000854919618763975,0.000942987315432436,0.000509977480958261,-4.77747200902761e-05
0.420070011668611,0.000307587812641161,7.33043408013037e-05,-0.000850444766822639,0.0009474621673748,0.000514440764043348,-4.33345096774547e-05
0.430071678613102,0.000313105151237388,7.88503491500026e-05,-0.000844884383184779,0.00095302255101404,0.000519986772394797,-3.78171710812271e-05
0.440073345557593,0.000319812698645776,8.55927509940304e-05,-0.000838124504991908,0.000959782429208751,0.000526729174242487,-3.11096236728392e-05
0.450075012502084,0.000327752002044729,9.35733094033363e-05,-0.00083012326092388,0.000967783673279191,0.000534709732656595,-2.3170320273886e-05
0.460076679446574,0.000336842368576758,0.000102710912215927,-0.00082096197338587,0.000976944960820287,0.000543847335475331,-1.40799537418574e-05
0.470078346391065,0.000346827840169118,0.000112748271323738,-0.000810898597378311,0.000987008336831655,0.000553884694590725,-4.09448214949734e-06
0.480080013335556,0.000357240063955897,0.000123214600158308,-0.00080040513975144,0.000997501794462989,0.000564351023434182,6.31774163728204e-06
0.490081680280047,0.000367405969957929,0.00013343333126629,-0.000790159921625814,0.00100774701259349,0.000574569754551868,1.64836476393135e-05
0.500083347224537,0.000376528752800121,0.000142603518832208,-0.000780965964873714,0.00101694096935043,0.000583739942127429,2.56064304815062e-05
0.510085014169028,0.000383843621545015,0.000149956397835014,-0.000773594027160237,0.00102431290706815,0.000591092821138673,3.29212992263997e-05
0.520086681113519,0.000388799257685726,0.000154937784951295,-0.00076859972825573,0.00102930720597573,0.000596074208261076,3.78769353671107e-05
0.53008834805801,0.000391181226349865,0.000157332131040809,-0.00076619917600534,0.00103170775822767,0.000598468554353678,4.02589040312501e-05
0.5400900150025,0.000391118446326322,0.00015726902479339,-0.00076626244582457,0.0010316444884084,0.000598405448106172,4.01961240077071e-05
0.550091681946991,0.000388984953928765,0.000155124446127903,-0.000768412583252148,0.00102949435097938,0.000596260869437812,3.806263161015e-05
0.560093348891482,0.00038526154667177,0.000151381690927336,-0.000772165039698946,0.00102574189453009,0.000592518114232284,3.43392243531545e-05
0.570095015835973,0.000380418015834227,0.000146512991647244,-0.000777046358679727,0.00102086057554615,0.0005876494149459,2.94956935156122e-05
0.580096682780463,0.00037484113160328,0.00014090712824888,-0.000782666752512975,0.00101524018170939,0.000582043551540562,2.39188092846651e-05
0.590098349724954,0.000368805555960588,0.000134840189940088,-0.000788749416365769,0.00100915751785299,0.000575976613224583,1.78832336419727e-05
0.600100016669445,0.000362476274827494,0.000128478019958629,-0.000795128077133561,0.00100277885708163,0.00056961444323601,1.15539525088787e-05
0.610101683613936,0.000355932791327364,0.000121900534549974,-0.000801722611427429,0.000996184322784302,0.000563036957820475,5.01046900874914e-06
0.620103350558426,0.000349207629642203,0.000115140426901536,-0.000808500241318995,0.000989406692889439,0.000556276850165471,-1.71469267641257e-06
0.630105017502917,0.000342331907555308,0.000108228976493957,-0.000815429606250986,0.000982477327954344,0.000549365399751712,-8.59041476330705e-06
0.640106684447408,0.000335379918539181,0.000101240862850961,-0.000822435833129862,0.000975471101072603,0.000542377286103013,-1.55424037794345e-05
0.650108351391899,0.000328504261763704,9.43294780936389e-05,-0.000829365132241161,0.000968541801958741,0.000535465901340587,-2.2418060554911e-05
0.660110018336389,0.000321954031035928,8.77452103954474e-05,-0.000835966466403671,0.00096194046779404,0.000528881633638034,-2.89682912826872e-05
0.67011168528088,0.000316071613447173,8.18322259941391e-05,-0.000841894777298558,0.000956012156897399,0.000522968649233234,-3.48507088714426e-05
0.680113352225371,0.000311268756332058,7.70044117875118e-05,-0.000846735105230566,0.000951171828964117,0.000518140835024068,-3.96535659865575e-05
0.690115019169862,0.000307988186657935,7.3706795285629e-05,-0.000850041269175521,0.00094786566501838,0.00051484321852063,-4.29341356606802e-05
0.700116686114352,0.000306660340130016,7.23720488673294e-05,-0.000851379475265065,0.000946527458928546,0.000513508472101751,-4.42619821885992e-05
0.710118353058843,0.00030766346437964,7.3380385652614e-05,-0.000850368524864397,0.00094753840932942,0.000514516808887446,-4.32588579389751e-05
0.720120020003334,0.000311289946614196,7.70257121808574e-05,-0.000846713749626525,0.000951193184568041,0.000518162135417182,-3.96323757044195e-05
0.730121686947825,0.000317714937703258,8.34840894582161e-05,-0.000840238632194001,0.000957668302001972,0.000524620512697342,-3.32073846153573e-05
0.740123353892315,0.000326957726898586,9.27749069690236e-05,-0.000830923732824731,0.000966983201373498,0.00053391133021264,-2.39645954200293e-05
0.750125020836806,0.000338822227391774,0.000104701058978495,-0.000818966668152684,0.000978940266048887,0.000545837482228765,-1.21000949268411e-05
0.760126687781297,0.000352799958971002,0.000118751423058213,-0.000804879885438721,0.000993027048767477,0.000559887846317696,1.87763665238665e-06
0.770128354725788,0.000367922179474157,0.000133952223169908,-0.00078963968475473,0.00100826724945736,0.000575088646441122,1.69998571555418e-05
0.780130021670278,0.000382579785192026,0.000148685994217144,-0.00077486772367709,0.00102303921054164,0.000589822417501584,3.16574628734111e-05
0.790131688614769,0.000394436937442994,0.000160604759797959,-0.000762918064577989,0.00103498886964685,0.000601741183094555,4.35146151243787e-05
0.80013335555926,0.000400760771865775,0.000166961454766361,-0.000756544893014525,0.00104136204121388,0.000608097878070064,4.98384495471593e-05
0.810135022503751,0.000399531761813506,0.000165726058408266,-0.000757783491528107,0.00104012344269956,0.000606862481710501,4.86094394948904e-05
0.820136689448241,0.000390980597992336,0.000157130460168232,-0.000766401369615274,0.00103150556460736,0.000598266883460448,4.00582756737205e-05
0.830138356392732,0.000377952056964522,0.000144034218922537,-0.000779531556404083,0.00101837537781143,0.000585170642200566,2.70297346459068e-05
0.840140023337223,0.000364127044635145,0.000130137367669892,-0.000793464428385754,0.00100444250582314,0.00057127379093475,1.32047223165301e-05
0.850141690281714,0.000351903615065444,0.000117850421481799,-0.000805783222417964,0.00099212371178606,0.000558986844736955,9.81292746829117e-07
0.860143357226204,0.000341970349374565,0.000107865539552454,-0.000815793985225575,0.000982112948975249,0.000549001962801239,-8.95197294405068e-06
0.870145024170695,0.000334092272723222,9.99465260430014e-05,-0.000823733524868789,0.000974173409330009,0.000541082949287753,-1.68300495953937e-05
0.880146691115186,0.00032783274910233,9.3654476052515e-05,-0.000830041883893008,0.000967865050304507,0.00053479089929471,-2.30895732162852e-05
0.890148358059677,0.000322836170162127,8.86319333833725e-05,-0.000835077445024703,0.000962829489171989,0.000529768356623929,-2.80861521564888e-05
0.900150025004167,0.000318857167565595,8.46322546909128e-05,-0.000839087490909718,0.000958819443286442,0.00052576867793041,-3.20651547530206e-05
0.910151691948658,0.00031572338588474,8.14821889365063e-05,-0.000842245721654515,0.0009556612125413,0.000522618612175317,-3.51989364338755e-05
0.920153358893149,0.000313304033623815,7.90502649924486e-05,-0.000844683949160821,0.000953222985034772,0.000520186688230816,-3.76182886948003e-05
0.93015502583764,0.000311494484676885,7.72313130840729e-05,-0.000846507615804037,0.000951399318391412,0.000518367736322157,-3.94278376417304e-05
0.94015669278213,0.000310210535390832,7.59406920107344e-05,-0.000847801582175348,0.000950105352020014,0.000517077115248642,-4.07117869277828e-05
0.950158359726621,0.000309386112184085,7.51119848526376e-05,-0.000848632437347628,0.000949274496847682,0.000516248408090444,-4.15362101345303e-05
0.960160026671112,0.000308971423141812,7.46951409611693e-05,-0.000849050361701093,0.000948856572494194,0.000515831564198928,-4.1950899176803e-05
0.970161693615603,0.0003089307775423,7.46542841548763e-05,-0.000849091324408486,0.000948815609786799,0.000515790707392631,-4.19915447763157e-05
0.980163360560093,0.000309240214757372,7.49653292989426e-05,-0.000848779473033444,0.000949127461161856,0.00051610175253673,-4.16821075612434e-05
0.990165027504584,0.00030988522713532,7.56136933555293e-05,-0.000848129428413134,0.000949777505782201,0.000516750116593385,-4.10370951832955e-05
1.00016669444907,0.000310858734126673,7.65922589824967e-05,-0.000847148326337889,0.000950758607857499,0.000517728682220458,-4.00635881919423e-05
1.01016836139357,0.000312159328145139,7.78996112793066e-05,-0.000845837585375677,0.000952069348819786,0.000519036034517419,-3.87629941734764e-05
1.02017002833806,0.000313789740311064,7.9538495558025e-05,-0.000844194453098565,0.000953712481097001,0.00052067491879634,-3.71325820075518e-05
1.03017169528255,0.000315755457174904,8.15144268788721e-05,-0.000842213400151258,0.000955693534044443,0.000522650850117455,-3.51668651437115e-05
1.04017336222704,0.000318063432109281,8.3834394746281e-05,-0.000839887418912479,0.000958019515283396,0.000524970817985211,-3.28588902093343e-05
1.05017502917153,0.000320720858750452,8.65056301768009e-05,-0.000837209259622835,0.000960697674573264,0.000527642053416178,-3.02014635681632e-05
1.06017669611602,0.000323733999161822,8.95344277733941e-05,-0.000834172611363708,0.000963734322832676,0.000530670851013338,-2.71883231567931e-05
1.07017836306051,0.000327107082094054,9.29250382605735e-05,-0.000830773212392673,0.000967133721804069,0.000534061461501231,-2.38152402245611e-05
1.080180030005,0.000330841304859505,9.66786651722773e-05,-0.000827009856056217,0.000970897078140971,0.000537815088413823,-2.00810174591103e-05
1.09018169694949,0.000334933984689084,0.000100792611798922,-0.000822885246053805,0.000975021688143934,0.000541929035041564,-1.59883376295316e-05
1.10018336389398,0.000339377911050489,0.000105259630140092,-0.000818406649172706,0.000979500285025704,0.00054639605338407,-1.15444112681258e-05
1.11018503083847,0.000344160948615383,0.000110067521808607,-0.000813586295418386,0.000984320638780833,0.000551203945054197,-6.76137370323192e-06
1.12018669778296,0.000349265931114665,0.000115199031334245,-0.00080844148498735,0.000989465449212834,0.000556335454581755,-1.65639120394976e-06
1.13018836472745,0.000354670869515637,0.000120632055422648,-0.000802994378465821,0.000994912555735501,0.000561768478672424,3.74854719702164e-06
1.14019003167195,0.000360349474803818,0.000126340168453682,-0.0007972714699693,0.00100063546423335,0.000567476591706098,9.42715248520306e-06
1.15019169861644,0.000366271968027659,0.000132293436735377,-0.000791302770778069,0.00100660416342611,0.000573429859990835,1.53496457090433e-05
1.16019336556093,0.000372406120965681,0.000138459464578694,-0.000785120760550989,0.00101278617365493,0.000579595887837618,2.14837986470657e-05
1.17019503250542,0.000378718443389392,0.000144804587729814,-0.000778759190799834,0.00101914774340805,0.000585941010992645,2.77961210707765e-05
1.18019669944991,0.000385175411345241,0.000151295108034616,-0.000772251847024547,0.00102565508718552,0.000592431531301805,3.42530890266258e-05
1.1901983663944,0.000391744618676048,0.000157898450943761,-0.000765631388207905,0.00103227554600458,0.000599034874215765,4.08222963574327e-05
1.20020003333889,0.000398395733372854,0.00016458412683403,-0.00075892838300242,0.00103897855121271,0.000605720550111305,4.74734110542388e-05
1.21020170028338,0.000405101151547862,0.000171324388379511,-0.000752170650655249,0.00104573628356276,0.00061246081166251,5.4178829229247e-05
1.22020336722787,0.000411836262943263,0.000178094497440084,-0.000745382993427929,0.00105252394079318,0.000619230920729249,6.09139406246479e-05
1.23020503417236,0.000418579269335356,0.000184872542521915,-0.000738587379609025,0.00105931955461539,0.000626008965817677,6.76569470167412e-05
1.24020670111685,0.000425310526675233,0.000191638777499707,-0.000731803606505921,0.00106610332772202,0.000632775200802481,7.43882043566179e-05
1.25020836806134,0.000432011409635927,0.000198374480263691,-0.000725050444756215,0.00107285648947544,0.000639510903573871,8.10890873173113e-05
1.26021003500583,0.000438662721454952,0.000205060354299233,-0.000718347240891236,0.00107955969334433,0.00064619677761719,8.77403991363367e-05
1.27021170195032,0.000445242693063438,0.000211674517418838,-0.000711715933817255,0.00108619100042238,0.000652810940744907,9.43203707448231e-05
1.28021336889482,0.000451724636594611,0.000218190143077556,-0.000705183419613805,0.00109272351463005,0.000659326566412028,0.000100802314275996
1.29021503583931,0.000458074344875204,0.000224572846351372,-0.000698784172330857,0.00109912276191734,0.000665709269694474,0.000107152022556588
1.3002167027838,0.000464247367363039,0.000230777945719742,-0.000692562989303758,0.00110534394494884,0.000671914369071616,0.000113325045044424
1.31021836972829,0.000470186351408525,0.000236747790511482,-0.000686577670634623,0.0011113292636224,0.000677884213872154,0.00011926402908991
1.32022003667278,0.00047581872108641,0.000242409427675037,-0.00068090135846981,0.00111700557579157,0.000683545851044385,0.000124896398767795
1.33022170361727,0.000481055074331715,0.000247672990585458,-0.000675624152369176,0.0011222827818964,0.000688809413963166,0.0001301327520131
1.34022337056176,0.000485788802350493,0.000252431316477499,-0.000670853492864584,0.00112705344140491,0.000693567739863016,0.000134866480031878
1.35022503750625,0.000489897545357994,0.000256561409748237,-0.000666712694364403,0.0011311942399086,0.000697697833140731,0.000138975223039379
1.36022670445074,0.000493247143527288,0.000259928413436014,-0.000663336963380462,0.00113456997089547,0.00070106483683434,0.000142324821208673
1.37022837139523,0.000495698644339977,0.00026239265298344,-0.000660866336507562,0.00113704059777056,0.000703529076386124,0.000144776322021362
1.38023003833972,0.000497118598678953,0.000263819985831743,-0.00065943530400291,0.0011384716302765,0.000704956409236993,0.000146196276360338
1.39023170528421,0.000497392256387651,0.000264095065548105,-0.00065915951127807,0.00113874742300159,0.000705231488953854,0.000146469934069035
1.4002333722287,0.000496438387036424,0.000263136239605183,-0.000660120822504296,0.00113778611177448,0.00070427266300918,0.000145516064717809
1.4102350391732,0.000494223490450065,0.000260909833750792,-0.000662352999217661,0.00113555393505908,0.000702046257150728,0.00014330116813145
1.42023670611769,0.000490772484051757,0.000257440894886508,-0.000665830929594838,0.00113207600467875,0.000698577318280168,0.000139850161733141
1.43023837306218,0.0004861729912147,0.000252817501702859,-0.000670466306644719,0.00112744062762473,0.000693953925088275,0.000135250668896085
1.44024004000667,0.000480571378775366,0.000247186781602307,-0.000676111621609593,0.00112179531265492,0.000688323204977898,0.000129649056456751
1.45024170695116,0.000474160566013655,0.000240742656331226,-0.000682572450096584,0.00111533448416244,0.000681879079695884,0.00012323824369504
1.46024337389565,0.00046716173907373,0.000233707461383379,-0.000689625880316805,0.00110828105393642,0.000674843884736505,0.000116239416755115
1.47024504084014,0.000459803616730652,0.000226311104025257,-0.000697041409082566,0.00110086552516481,0.000667447527366736,0.000108881294412037
1.48024670778463,0.000452303223657224,0.000218771736655052,-0.000704600318543184,0.0010933066156985,0.000659908159985181,0.000101380901338609
1.49024837472912,0.000444851212983521,0.00021128100309379,-0.000712110468135567,0.00108579646610072,0.000652417426413186,9.39288906649054e-05
1.50025004167361,0.000437603164726286,0.000203995291798758,-0.00071941506404251,0.0010784918701888,0.000645131715108249,8.6680842407671e-05
1.5102517086181,0.000430676683280213,0.000197032818272461,-0.000726395584346156,0.00107151134988066,0.000638169241572991,7.97543609615976e-05
1.52025337556259,0.000424153038765055,0.000190475274938663,-0.000732970124875454,0.00106493680934736,0.00063161169823122,7.32307164464397e-05
1.53025504250708,0.000418081689375649,0.000184372376991895,-0.000739088841573781,0.00105881809264551,0.000625508800277444,6.71593670570343e-05
1.54025670945158,0.000412486140261722,0.00017874775172175,-0.000744728045909476,0.00105317888830675,0.000619884175001202,6.15638179431064e-05
1.55025837639607,0.000407369984711335,0.00017360501108814,-0.000749884116560424,0.00104802281765316,0.000614741434362326,5.644766239272e-05
1.56026004334056,0.00040272241668724,0.000168933292902432,-0.00075456794387014,0.00104333899034117,0.000610069716172096,5.18000943686253e-05
1.57026171028505,0.000398522873879451,0.000164711928006728,-0.000758800250571133,0.00103910668363823,0.000605848351272523,4.76005515608361e-05
1.58026337722954,0.000394744725205817,0.000160914146935792,-0.000762607875515282,0.00103529905869243,0.000602050570198285,4.38224028872018e-05
1.59026504417403,0.000391358064384811,0.000157509888006087,-0.000766020958306217,0.00103188597590008,0.000598646311265766,4.04357420661955e-05
1.60026671111852,0.000388331739828384,0.000154467837756561,-0.000769070893569695,0.0010288360406354,0.000595604261013844,3.74094175097688e-05
1.61026837806301,0.000385634769895391,0.000151756853556156,-0.000771788904658683,0.00102611802954539,0.0005928932768114,3.47124475767764e-05
1.6202700450075,0.000383237284310056,0.000149346909914168,-0.00077420509489016,0.00102370183931304,0.000590483333167677,3.23149619914409e-05
1.63027171195199,0.000381111112379731,0.000147209689754567,-0.000776347854738207,0.00102155907946425,0.000588346113006598,3.01887900611161e-05
1.64027337889648,0.000379230115341059,0.000145318918489124,-0.00077824352689496,0.00101966340730686,0.000586455341739896,2.83077930224444e-05
1.65027504584097,0.000377570338216445,0.000143650516662977,-0.000779916253229386,0.0010179906809719,0.000584786939912677,2.66480158978305e-05
1.66027671278546,0.000376110037849486,0.000142182628135744,-0.000781387946533129,0.0010165189876677,0.000583319051384532,2.51877155308707e-05
1.67027837972995,0.000374829628749071,0.000140895565644215,-0.000782678345098914,0.00101522858910152,0.000582031988892225,2.39073064304559e-05
1.68028004667445,0.000373711576749511,0.0001397717039099,-0.000783805119890067,0.00101410181431004,0.00058090812715725,2.27892544308958e-05
1.69028171361894,0.000372740261754279,0.000138795341669553,-0.000784784012867613,0.00101312292133221,0.000579931764916344,2.18179394356643e-05
1.70028338056343,0.000371901824386316,0.000137952547528621,-0.00078562899153637,0.00101227794266322,0.00057908897077494,2.0979502067701e-05
1.71028504750792,0.000371184006681975,0.00013723099982739,-0.000786352409493872,0.00101155452470552,0.000578367423073315,2.02616843633599e-05
1.72028671445241,0.000370575993593246,0.000136619827319609,-0.000786965166164714,0.00101094176803451,0.000577756250565204,1.96536712746313e-05
1.7302883813969,0.000370068259654753,0.000136109455042714,-0.000787476861329823,0.00101043007286926,0.00057724587828804,1.91459373361384e-05
1.74029004834139,0.000369652423465284,0.000135691458043212,-0.000787895941780228,0.00101001099241875,0.000576827881288319,1.8730101146669e-05
1.75029171528588,0.000369321111435403,0.000135358424416278,-0.000788229838632458,0.00100967709556643,0.000576494847661214,1.83987891167881e-05
1.76029338223037,0.000369067831423772,0.000135103828285452,-0.000788485094678086,0.00100942183952074,0.000576240251530258,1.8145509105157e-05
1.77029504917486,0.00036888685632528,0.000134921912785862,-0.000788667481703816,0.00100923945249496,0.000576058336030576,1.7964534006665e-05
1.78029671611935,0.000368773117312033,0.000134807582750459,-0.000788782108083404,0.00100912482611535,0.000575944005995116,1.78507949934183e-05
1.79029838306384,0.000368722106211225,0.000134756306580612,-0.000788833517161411,0.00100907341703733,0.000575892729825244,1.77997838926096e-05
1.80030005000833,0.000368729786393021,0.000134764026670945,-0.000788825777060554,0.00100908115713819,0.000575900449915581,1.78074640744057e-05
1.81030171695283,0.000368792511507414,0.000134827077723917,-0.000788762562578849,0.00100914437161991,0.000575963500968584,1.78701891887985e-05
1.82030338389732,0.000368906951428714,0.000134942112309504,-0.00078864722982288,0.0010092597043759,0.000576078535554227,1.7984629110099e-05
1.83030505084181,0.000369070024822133,0.000135106033081373,-0.000788482884167321,0.0010094240500315,0.000576242456326176,1.81477025035178e-05
1.8403067177863,0.000369278837824432,0.000135315931138901,-0.000788272442052684,0.00100963449214619,0.000576452354383806,1.83565155058168e-05
1.85030838473079,0.000369530628418508,0.000135569030112713,-0.000788018687044712,0.00100988824715423,0.000576705453357741,1.86083060998928e-05
1.86031005167528,0.000369822716170808,0.000135862635640916,-0.0007877243204891,0.00101018261370991,0.000576999058886086,1.89003938521933e-05
1.87031171861977,0.000370152457083414,0.000136194089986582,-0.000787392007011648,0.00101051492718744,0.000577330513231913,1.92301347647993e-05
1.88031338556426,0.000370517203383892,0.000136560731618654,-0.000787024415042118,0.00101088251915706,0.000577697154864164,1.95948810652769e-05
1.89031505250875,0.000370914268131632,0.000136959859634371,-0.000786624252484029,0.00101128268171525,0.000578096282880075,1.99919458130168e-05
1.90031671945324,0.000371340894556946,0.000137388702939038,-0.000786194297614771,0.00101171263658461,0.000578525126184952,2.04185722383305e-05
1.91031838639773,0.000371794230067811,0.000137844394117708,-0.000785737425281649,0.00101216950891785,0.000578980817363845,2.08719077491963e-05
1.92032005334222,0.000372271304859576,0.000138323947933726,-0.000785256628459068,0.00101265030574054,0.000579460371180099,2.13489825409607e-05
1.93032172028671,0.00037276901504735,0.000138824244373485,-0.000784755035247734,0.001013151898952,0.000579960667620104,2.1846692728735e-05
1.94032338723121,0.000373284110212976,0.000139342016128674,-0.00078423592142484,0.00101367101277503,0.000580478439375549,2.23617878943611e-05
1.9503250541757,0.000373813185223177,0.000139873840371918,-0.000783702718689751,0.00101420421551025,0.000581010263619057,2.28908629045619e-05
1.96032672112019,0.000374352676138696,0.00014041613464466,-0.000783159018786781,0.00101474791541335,0.000581552557892069,2.34303538200806e-05
1.97032838806468,0.000374898860002233,0.000140965156643993,-0.000782608573718909,0.00101529836048136,0.000582101579891677,2.39765376836179e-05
1.98033005500917,0.000375447858272211,0.000141517007674269,-0.000782055292287228,0.00101585164191318,0.00058265343092223,2.45255359535957e-05
1.99033172195366,0.000375995643665694,0.000142067639525579,-0.000781503233194631,0.00101640370100592,0.000583204062773818,2.50733213470795e-05
2.00033338889815,0.00037653805019193,0.000142612864559427,-0.000780956594934002,0.00101695033926669,0.000583749287807942,2.56157278733153e-05
2.01033505584264,0.000377070786200954,0.000143148368825143,-0.000780419702637798,0.00101748723156303,0.00058428479207393,2.61484638823389e-05
2.02033672278713,0.000377589450340442,0.000143669728099653,-0.000779896991996708,0.00101800994220425,0.000584806151348705,2.66671280218272e-05
2.03033838973162,0.000378089550406608,0.000144172426836327,-0.000779392990261688,0.0010185139439394,0.000585308850085635,2.71672280879931e-05
2.04034005667611,0.000378566525186769,0.000144651880121046,-0.000778912294230982,0.00101899463997023,0.0005857883033706,2.76442028681539e-05
2.0503417236206,0.000379015769514475,0.000145103458857532,-0.000778459544999517,0.00101944738920181,0.000586239882107317,2.80934471958605e-05
2.06034339056509,0.000379432662881974,0.000145522518528481,-0.000778039399123216,0.00101986753507822,0.00058665894177848,2.85103405633591e-05
2.07034505750958,0.000379812602065733,0.000145904431990625,-0.000777656495738931,0.0010202504384626,0.00058704085524082,2.88902797471178e-05
2.08034672445408,0.000380151038302917,0.000146244626844389,-0.000777315419097925,0.0010205915151037,0.000587381050094759,2.92287159843021e-05
2.09034839139857,0.000380443519592605,0.000146538627954915,-0.000777020655934637,0.00102088627826706,0.000587675051205434,2.952119727399e-05
2.10035005834306,0.000380685738667169,0.000146782105672714,-0.000776776547121033,0.00102113038708072,0.000587918528923358,2.97634163485538e-05
2.11035172528755,0.000380873587069417,0.000146970930191816,-0.000776587233167568,0.00102131970103424,0.000588107353442555,2.99512647508024e-05
2.12035339223204,0.000381003215565094,0.000147101232276184,-0.000776456593339363,0.00102145034086248,0.000588237655526989,3.00808932464793e-05
2.13035505917653,0.000381071100808117,0.000147169470271367,-0.000776388178470859,0.001021518755731,0.000588305893522206,3.01487784895015e-05
2.14035672612102,0.000381074117754449,0.000147172502894661,-0.000776385137986986,0.00102152179621487,0.000588308926145501,3.01517954358337e-05
2.15035839306551,0.000381009616796218,0.000147107666770031,-0.000776450142167266,0.00102145679203458,0.00058824409002084,3.00872944776028e-05
2.16036006001,0.000380875503978958,0.000146972857062194,-0.000776585301302729,0.00102132163289908,0.000588109280312937,2.99531816603425e-05
2.17036172695449,0.000380670322003785,0.000146766608899702,-0.000776792084061778,0.00102111485013998,0.000587903032150346,2.97479996851698e-05
2.18036339389898,0.000380393329049322,0.000146488176606449,-0.000777071238053316,0.00102083569614837,0.000587624599856961,2.94710067307073e-05
2.19036506084347,0.00038004457183516,0.000146137607144795,-0.000777422716193258,0.00102048421800835,0.000587274030395143,2.91222495165448e-05
2.20036672778796,0.000379624948859736,0.000145715803682046,-0.00077784561297328,0.00102006132122823,0.000586852226932199,2.87026265411209e-05
2.21036839473246,0.000379136259455426,0.000145224574900448,-0.000778338115023021,0.00101956881917838,0.00058636099815038,2.82139371368107e-05
2.22037006167695,0.000378581234283596,0.000144666665650706,-0.000778897470377103,0.00101900946382417,0.000585803088900392,2.76589119649806e-05
2.23037172862144,0.000377963543200288,0.000144045764858538,-0.000779519980548091,0.00101838695365305,0.000585182188107956,2.70412208816725e-05
2.24037339556593,0.000377287777093023,0.000143366487267099,-0.000780201018831384,0.00101770591536961,0.000584502910516231,2.63654547744077e-05
2.25037506251042,0.000376559401321679,0.000142634326635921,-0.000780935077227592,0.00101697185697326,0.000583770749884752,2.56370790030637e-05
2.26037672945491,0.000375784679752466,0.000141855579380148,-0.00078171584300122,0.00101619109119947,0.000582992002628668,2.48623574338508e-05
2.2703783963994,0.000374970569973443,0.000141037239241562,-0.000782536304282664,0.00101537062991787,0.000582173662489765,2.40482476548283e-05
2.28038006334389,0.000374124592005639,0.000140186865317484,-0.000783388882381374,0.001014518051819,0.000581323288565367,2.32022696870243e-05
2.29038173028838,0.000373254674532369,0.000139312427491055,-0.000784265586756221,0.00101364134744399,0.00058044885073862,2.23323522137536e-05
2.30038339723287,0.000372368984207023,0.000138422134852056,-0.000785158187039409,0.00101274874716065,0.000579558558099308,2.14466618884082e-05
2.31038506417736,0.000371475744820798,0.000137524253924978,-0.000786058395279565,0.00101184853892034,0.000578660677171925,2.05534225021825e-05
2.32038673112185,0.00037058305389738,0.000136626924310681,-0.000786958050777932,0.00101094888342182,0.000577763347557334,1.96607315787649e-05
2.33038839806634,0.000369698704554086,0.000135737979621865,-0.000787849299617035,0.00101005763458258,0.000576874402868237,1.87763822354712e-05
2.34039006501084,0.000368830020201594,0.000134864781323855,-0.000788724761250583,0.0010091821729489,0.000576001204569962,1.79076978829792e-05
2.35039173195533,0.000367983708873777,0.00013401407230749,-0.000789577675310124,0.00100832925888923,0.000575150495553348,1.70613865551622e-05
2.36039339889982,0.000367165742759578,0.000133191855795005,-0.000790402023013031,0.00100750491118621,0.000574328279040631,1.62434204409629e-05
2.37039506584431,0.000366381266962309,0.000132403303625219,-0.000791192619115047,0.00100671431508408,0.000573539726870631,1.54589446436936e-05
2.3803967327888,0.000365634539773177,0.000131652696216704,-0.000791945172102728,0.0010059617620963,0.00057278911946192,1.47122174545616e-05
2.39039839973329,0.000364928904958002,0.000130943394710495,-0.000792656312122941,0.001005250622076,0.000572079817955531,1.40065826393865e-05
2.40040006667778,0.0003642667948551,0.00013027784408407,-0.000793323587860809,0.00100458334633805,0.000571414267328945,1.33444725364848e-05
2.41040173362227,0.000363649761585755,0.000129657604524005,-0.000793945435085747,0.00100396149911304,0.000570794027768733,1.27274392671403e-05
2.42040340056676,0.000363078532477091,0.000129083407136832,-0.000794521120796186,0.00100338581340254,0.00057021983038143,1.21562101584757e-05
2.43040506751125,0.000362553084948951,0.000128555229225064,-0.000795050667748447,0.00100285626645022,0.000569691652469546,1.16307626303358e-05
2.44040673445574,0.000362072735646374,0.000128072383882822,-0.000795534764628874,0.00100237216956974,0.000569208807127201,1.11504133277587e-05
2.45040840140023,0.000361636238499837,0.00012763361856563,-0.000795974667228546,0.00100193226697002,0.000568770041809919,1.07139161812216e-05
2.46041006834472,0.000361241886630836,0.000127237217525531,-0.000796372095742652,0.00100153483845587,0.000568373640769739,1.03195643122207e-05
2.47041173528921,0.000360887613532296,0.000126881103517255,-0.000796729132800691,0.0010011778013978,0.000568017526761394,9.96529121368078e-06
2.48041340223371,0.000360571089668673,0.000126562934900291,-0.000797048126112724,0.00100085880808574,0.000567699358144369,9.64876735005764e-06
2.4904150691782,0.000360289811479589,0.000126280195105007,-0.000797331598771346,0.00100057533542709,0.000567416618349033,9.3674891609737e-06
2.50041673612269,0.000360041180654858,0.000126030272319616,-0.000797582169358178,0.00100032476484023,0.000567166695563596,9.11885833624331e-06
2.51041840306718,0.000359822572407623,0.000125810528118075,-0.000797802483138078,0.00100010445106031,0.000566946951362017,8.90025008900757e-06
2.52042007001167,0.000359631392249472,0.000125618354530232,-0.000797995154841077,0.000999911779357299,0.00056675477777414,8.70906993085656e-06
2.53042173695616,0.00035946512142715,0.00012545121971463,-0.000798162722871177,0.000999744211327184,0.00056658764295851,8.54279910853456e-06
2.54042340390065,0.000359321351692587,0.000125306702909218,-0.000798307614265063,0.000999599319933286,0.000566443126153074,8.39902937397236e-06
2.55042507084514,0.000359197810440812,0.000125182519699883,-0.000798432119358062,0.000999474814840277,0.000566318942943718,8.27548812219689e-06
2.56042673778963,0.00035909237747148,0.000125076538869081,-0.000798538374891847,0.000999368559306483,0.000566212962112899,8.17005515286442e-06
2.57042840473412,0.000359003094726865,0.000124986792184429,-0.000798628354200472,0.000999278579997851,0.000566123215428233,8.08077240824994e-06
2.58043007167861,0.000358928170355411,0.00012491147848337,-0.00079870386311512,0.000999203071083197,0.000566047901727163,8.00584803679583e-06
2.5904317386231,0.000358865978370839,0.000124848963330512,-0.00079876654030765,0.000999140393890663,0.000565985386574295,7.94365605222434e-06
2.60043340556759,0.00035881505504704,0.000124797775393782,-0.000798817860923835,0.000999089073274473,0.000565934198637557,7.89273272842529e-06
2.61043507251209,0.00035877409303032,0.000124756600526083,-0.000798859142517051,0.000999047791681254,0.000565893023769852,7.85177071170506e-06
2.62043673945658,0.00035874193398104,0.000124724274368695,-0.000798891552464044,0.000999015381734259,0.00056586069761246,7.81961166242471e-06
2.63043840640107,0.00035871756038972,0.000124699774124852,-0.000798916116212673,0.000998990817985628,0.000565836197368613,7.79523807110496e-06
2.64044007334556,0.000358700087057714,0.000124682209996149,-0.000798933725867709,0.000998973208330591,0.000565818633239908,7.77776473909891e-06
2.65044174029005,0.000358688752595259,0.000124670816636412,-0.000798945148759106,0.000998961785439194,0.00056580723988017,7.76643027664419e-06
2.66044340723454,0.000358682911172909,0.000124664944860272,-0.000798951035754927,0.000998955898443372,0.000565801368104029,7.76058885429389e-06
2.67044507417903,0.0003586820246666,0.000124664053747409,-0.00079895192917756,0.00099895500502074,0.000565800476991166,7.75970234798513e-06
2.68044674112352,0.00035868565526105,0.000124667703207521,-0.000798948270258025,0.000998958663940275,0.000565804126451278,7.76333294243446e-06
2.69044840806801,0.000358693458518927,0.000124675547013477,-0.000798940406120874,0.000998966528077427,0.000565811970257236,7.77113620031202e-06
2.7004500750125,0.000358705176882034,0.000124687326268729,-0.000798928596333718,0.000998978337864584,0.000565823749512489,7.7828545634189e-06
2.71045174195699,0.000358720633542988,0.000124702863247149,-0.000798913019083351,0.000998993915114951,0.000565839286490912,7.79831122437291e-06
2.72045340890148,0.000358739726609252,0.000124722055526737,-0.000798893777057253,0.00099901315714105,0.000565858478770502,7.81740429063666e-06
2.73045507584597,0.000358762423473415,0.000124744870330645,-0.00079887090311723,0.000999036031081075,0.000565881293574413,7.84010115480019e-06
2.74045674279047,0.000358788755302412,0.000124771338987758,-0.000798844365853191,0.000999062568345116,0.000565907762231528,7.86643298379662e-06
2.75045840973496,0.000358818811562004,0.00012480155142873,-0.000798814075101381,0.000999092859096927,0.000565937974672504,7.89648924338926e-06
2.76046007667945,0.00035885273449992,0.000124835650640451,-0.000798779887504288,0.000999127046694022,0.000565972073884229,7.93041218130514e-06
2.77046174362394,0.000358890713520182,0.000124873827011144,-0.000798741612180202,0.000999165322018111,0.000566010250254926,7.96839120156672e-06
2.78046341056843,0.00035893297939154,0.000124916312508703,-0.000798699016559965,0.00099920791763835,0.000566052735752489,8.01065707292456e-06
2.79046507751292,0.000358979798243738,0.000124963374645763,-0.000798651832437549,0.000999255101760768,0.000566099797889554,8.05747592512319e-06
2.80046674445741,0.000359031465316215,0.000125015310195914,-0.000798599762270124,0.000999307171928195,0.000566151733439711,8.10914299760028e-06
2.8104684114019,0.000359088298434549,0.000125072438636253,-0.000798542485752508,0.000999364448445815,0.000566208861880055,8.16597611593392e-06
2.82047007834639,0.000359150631200564,0.0001251350953021,-0.000798479666680188,0.000999427267518137,0.000566271518545907,8.22830888194898e-06
2.83047174529088,0.000359218805892725,0.000125203624250501,-0.000798410960104321,0.000999495974094007,0.000566340047494314,8.29648357410982e-06
2.84047341223537,0.00035929316608468,0.000125278370840417,-0.000798336019770773,0.000999570914427558,0.000566414794084236,8.37084376606496e-06
2.85047507917986,0.000359374049002105,0.000125359674049849,-0.00079825450582291,0.000999652428375425,0.000566496097293675,8.45172668348979e-06
2.86047674612435,0.000359461777651887,0.000125447858564126,-0.000798166092733816,0.000999740841464522,0.00056658428180796,8.5394553332717e-06
2.87047841306884,0.000359556652773773,0.00012554322668573,-0.00079807047741744,0.000999836456780901,0.00056667964992957,8.63433045515756e-06
2.88048008001334,0.000359658944683313,0.000125646050134851,-0.000797967387449291,0.000999939546749054,0.000566782473378699,8.73662236469755e-06
2.89048174695783,0.000359768885096559,0.000125756561831608,-0.00079785658930552,0.00100005034489283,0.000566892985075464,8.8465627779438e-06
2.90048341390232,0.000359886659051502,0.000125874947775505,-0.000797737896504511,0.00100016903769384,0.000567011371019369,8.96433673288672e-06
2.91048508084681,0.000360012397068265,0.000126001339164888,-0.000797611177507852,0.00100029575669051,0.000567137762408759,9.09007474965033e-06
2.9204867477913,0.000360146167718794,0.00012613580492802,-0.000797476363208615,0.00100043057098975,0.0005672722281719,9.22384540017848e-06
2.93048841473579,0.000360287970805776,0.000126278344866567,-0.00079733345380565,0.00100057348039272,0.000567414768110456,9.36564848716137e-06
2.94049008168028,0.000360437731377975,0.000126428883639821,-0.000797182524834948,0.00100072440936342,0.000567565306883718,9.51540905936031e-06
2.95049174862477,0.000360595294832442,0.00012658726584147,-0.000797023732105635,0.00100088320209274,0.000567723689085376,9.67297251382649e-06
2.96049341556926,0.000360760423370461,0.000126753252437125,-0.000796857315271679,0.0010010496189267,0.00056788967568104,9.83810105184569e-06
2.97049508251375,0.000360932794080126,0.000126926518836932,-0.000796683599764273,0.00100122333443411,0.000568062942080856,1.00104717615108e-05
2.98049674945824,0.00036111199891087,0.000127106654869971,-0.000796502996817503,0.00100140393738089,0.000568243078113904,1.01896765922553e-05
2.99049841640273,0.000361297546780914,0.000127293166902652,-0.000796316001344459,0.00100159093285393,0.000568429590146595,1.03752244622986e-05
3.00050008334722,0.000361488868014772,0.000127485482299287,-0.000796123187465107,0.00100178374673329,0.000568621905543238,1.0566545696157e-05
3.01050175029172,0.000361685321243196,0.000127682956357877,-0.000795925201552514,0.00100198173264589,0.000568819379601838,1.0762998924581e-05
3.02050341723621,0.000361886202811966,0.000127884881767803,-0.000795722752750655,0.00100218418144775,0.000569021305011773,1.09638804933504e-05
3.0305050841807,0.000362090758640657,0.000128090500530213,-0.000795516601023119,0.00100239033317529,0.000569226923774192,1.11684363220416e-05
3.04050675112519,0.000362298198351681,0.000128299018160477,-0.000795307542913845,0.00100259939128457,0.000569435441404466,1.13758760330659e-05
3.05050841806968,0.000362507711359755,0.000128509619861268,-0.000795096395332121,0.0010028105388663,0.000569646043105265,1.15853890411397e-05
3.06051008501417,0.000362718484480808,0.000128721488222964,-0.000794883977806298,0.00100302295639213,0.00056985791146697,1.17961621621927e-05
3.07051175195866,0.000362929720497175,0.000128933821885318,-0.000794671093773755,0.00100323584042467,0.000570070245129333,1.20073981785601e-05
3.08051341890315,0.000363140657013677,0.000129145854491515,-0.000794458511577709,0.00100344842262073,0.000570282277735539,1.22183346950619e-05
3.09051508584764,0.000363350584867709,0.000129356873193928,-0.000794246945913492,0.00100365998828495,0.000570493296437961,1.24282625490937e-05
3.10051675279213,0.000363558865325259,0.000129566235939491,-0.000794037040498375,0.00100386989370007,0.000570702659183533,1.26365430066442e-05
3.11051841973662,0.000363764945310726,0.000129773386778654,-0.000793829352722934,0.00100407758147551,0.000570909810022705,1.28426229921105e-05
3.12052008668111,0.000363968369984703,0.00012997786850853,-0.000793624340975128,0.00100428259322332,0.000571114291752589,1.30460476660877e-05
3.1305217536256,0.000364168792099205,0.000130179332076726,-0.000793422355212096,0.00100448457898636,0.000571315755320793,1.32464697805893e-05
3.1405234205701,0.000364365977717823,0.00013037754233123,-0.000793223631195364,0.0010046833030031,0.000571513965575306,1.34436553992073e-05
3.15052508751459,0.000364559808078416,0.000130572379892779,-0.00079302828861363,0.00100487864558483,0.000571708803136863,1.3637485759801e-05
3.16052675445908,0.000364750277583668,0.000130763839134969,-0.00079283633310788,0.00100507060109059,0.000571900262379061,1.38279552650529e-05
3.17052842140357,0.000364937488113742,0.000130952022467364,-0.000792647662003104,0.00100525927219537,0.000572088445711464,1.40151657951268e-05
3.18053008834806,0.000365121640048453,0.000131137131311012,-0.000792462073356168,0.00100544486084231,0.00057227355455512,1.41993177298372e-05
3.19053175529255,0.00036530302054845,0.000131319454318738,-0.000792279277766059,0.00100562765643242,0.000572455877562853,1.43806982298347e-05
3.20053342223704,0.000365481989763835,0.00013149935351209,-0.000792098912272866,0.00100580802192562,0.000572635776756213,1.45596674452199e-05
3.21053508918153,0.000365658965706708,0.000131677249075284,-0.000791920555603253,0.00100598637859524,0.000572813672319415,1.47366433880923e-05
3.22053675612602,0.000365834408538935,0.000131853603561329,-0.00079174374400527,0.00100616319019322,0.000572990026805468,1.49120862203201e-05
3.23053842307051,0.000366008804990524,0.000132028906229425,-0.000791567986951555,0.00100633894724694,0.000573165329473572,1.50864826719083e-05
3.240540090015,0.000366182653544396,0.000132203658152764,-0.000791392782070131,0.00100651415212837,0.000573340081396919,1.52603312257808e-05
3.25054175695949,0.000366356450910531,0.000132378358622379,-0.0007912176287758,0.0010066893054227,0.000573514781866542,1.54341285919159e-05
3.26054342390398,0.000366530680178379,0.000132553493237998,-0.000791042040210155,0.00100686489398835,0.000573689916482169,1.56083578597639e-05
3.27054509084847,0.000366705800893904,0.000132729523933524,-0.000790865553241958,0.00100704138095655,0.000573865947177704,1.5783478575289e-05
3.28054675779297,0.000366882241168042,0.000132906881044488,-0.000790687736420247,0.00100721919777827,0.000574043304288676,1.59599188494267e-05
3.29054842473746,0.000367060391796508,0.000133085957397296,-0.000790508195900406,0.00100739873829812,0.000574222380641492,1.6138069477893e-05
3.30055009168195,0.00036724060226381,0.000133267104292483,-0.000790326579471326,0.0010075803547272,0.000574403527536689,1.6318279945195e-05
3.31055175862644,0.00036742317842128,0.000133450629170676,-0.000790142578895494,0.00100776435530304,0.000574587052414891,1.65008561026643e-05
3.32055342557093,0.000367608381571592,0.000133636794692359,-0.000789955930831607,0.00100795100336693,0.000574773217936583,1.66860592529769e-05
3.33055509251542,0.000367796428659887,0.000133825818929982,-0.00078976641664197,0.00100814051755657,0.000574962242174216,1.68741063412717e-05
3.34055675945991,0.000367987493261843,0.000134017876361177,-0.000789573861396705,0.00100833307280184,0.000575154299605421,1.70651709432274e-05
3.3505584264044,0.000368181707068385,0.000134213099361174,-0.000789378132377463,0.00100852880182109,0.000575349522605428,1.72593847497698e-05
3.36056009334889,0.000368379161590952,0.000134411579916932,-0.000789179137358855,0.0010087277968397,0.000575548003161197,1.74568392723364e-05
3.37056176029338,0.000368579909846238,0.000134613371320636,-0.000788976822910562,0.001008930111288,0.000575749794564913,1.76575875276224e-05
3.38056342723787,0.000368783967821162,0.00013481848964228,-0.000788771172920937,0.00100913576127763,0.000575954912886569,1.78616455025472e-05
3.39056509418236,0.000368991315564005,0.000135026914826467,-0.00078856220749736,0.00100934472670121,0.000576163338070768,1.80689932453899e-05
3.40056676112685,0.000369201897793497,0.00013523859130467,-0.000788349982352393,0.00100955695184619,0.000576375014548983,1.82795754748814e-05
3.41056842807135,0.000369415623962008,0.000135453428058747,-0.000788134588740097,0.00100977234545849,0.000576589851303073,1.84933016433929e-05
3.42057009501584,0.000369632367750358,0.000135671298113125,-0.000787916153965167,0.00100999078023343,0.000576807721357464,1.87100454317433e-05
3.43057176196033,0.000369851966009248,0.00013589203747073,-0.000787694842449757,0.00101021209174884,0.000577028460715084,1.89296436906323e-05
3.44057342890482,0.000370074217195384,0.000136115443540992,-0.000787470857309554,0.00101043607688905,0.00057725186678536,1.91518948767692e-05
3.45057509584931,0.000370298879378859,0.00013634127313686,-0.000787244442361951,0.00101066249183666,0.000577477696381244,1.93765570602443e-05
3.4605767627938,0.00037052566792223,0.00013656924014183,-0.000787015884465068,0.00101089104973356,0.00057770566338623,1.96033456036146e-05
3.47057842973829,0.000370754252951328,0.00013679901296761,-0.000786785516066677,0.00101112141813195,0.000577935436212026,1.98319306327131e-05
3.48058009668278,0.000370984256753199,0.000137030211938532,-0.000786553717826565,0.00101135321637207,0.000578166635182965,2.00619344345842e-05
3.49058176362727,0.000371215251248036,0.000137262406750359,-0.000786320921164323,0.00101158601303433,0.00057839882999481,2.02929289294208e-05
3.50058343057176,0.000371446755689771,0.000137495114158922,-0.000786087610576691,0.00101181932362197,0.00057863153740339,2.05244333711561e-05
3.51058509751625,0.000371678234754204,0.000137727796058314,-0.000785854325564349,0.00101205260863432,0.000578864219302801,2.07559124355889e-05
3.52058676446074,0.000371909097174324,0.000137959858109124,-0.000785621662007241,0.00101228527219143,0.00057909628135363,2.09867748557091e-05
3.53058843140523,0.00037213869507988,0.00013819064907457,-0.000785390272830158,0.00101251666136853,0.000579327072319095,2.12163727612649e-05
3.54059009834973,0.000372366324192173,0.00013841946101631,-0.000785160867806423,0.00101274606639227,0.000579555884260855,2.14440018735576e-05
3.55059176529422,0.000372591225015512,0.000138645530492085,-0.000784934212357142,0.00101297272184156,0.00057978195373665,2.16689026968969e-05
3.56059343223871,0.000372812585153598,0.000138868040884139,-0.000784711125216749,0.00101319580898197,0.000580004464128724,2.18902628349824e-05
3.5705950991832,0.000373029542862198,0.000139086125970358,-0.000784492474852612,0.00101341445934611,0.000580222549214963,2.21072205435833e-05
3.58059676612769,0.000373241191928745,0.000139298874829219,-0.000784279174547368,0.00101362775965137,0.000580435298073845,2.23188696101302e-05
3.59059843307218,0.000373446587944742,0.000139505338144795,-0.000784072176077576,0.00101383475812117,0.000580641761389441,2.2524265626127e-05
3.60060010001667,0.000373644756008198,0.000139704535949211,-0.000783872461951194,0.00101403447224756,0.000580840959193878,2.27224336895829e-05
3.61060176696116,0.00037383469986062,0.000139895466807114,-0.000783681036199303,0.00101422589799946,0.000581031890051801,2.29123775420049e-05
3.62060343390565,0.000374015412426676,0.000140077118410106,-0.00078349891375421,0.00101440802044457,0.000581213541654813,2.30930901080609e-05
3.63060510085014,0.000374185887684762,0.000140248479508992,-0.000783327108486275,0.00101457982571251,0.000581384902753718,2.32635653661472e-05
3.64060676779463,0.000374345133753949,0.000140408553068729,-0.000783166620014861,0.00101474031418394,0.000581544976313473,2.34228114353335e-05
3.65060843473912,0.00037449218703791,0.000140556370485855,-0.000783018419454056,0.00101488851474475,0.000581692793730617,2.35698647192948e-05
3.66061010168361,0.000374626127220565,0.00014069100666205,-0.000782883434300042,0.00101502349989877,0.000581827429906829,2.37038049019501e-05
3.6706117686281,0.000374746092862573,0.000140811595681675,-0.000782762532712918,0.0010151444014859,0.000581948018926469,2.38237705439583e-05
3.6806134355726,0.000374851297304254,0.000140917346797329,-0.000782656507489705,0.00101525042670912,0.000582053770042136,2.39289749856392e-05
3.69061510251709,0.00037494104454081,0.000141007560387563,-0.000782566060065275,0.00101534087413356,0.000582143983632381,2.40187222221949e-05
3.70061676946158,0.000375014744702065,0.000141081643517058,-0.00078249178491184,0.001015415149287,0.000582218066761887,2.40924223834501e-05
3.71061843640607,0.000375071928743575,0.000141139124704075,-0.000782434154733224,0.00101547277946562,0.000582275547948911,2.41496064249599e-05
3.72062010335056,0.000375112261941137,0.000141179667485082,-0.000782393506865073,0.00101551342733377,0.000582316090729924,2.41899396225218e-05
3.73062177029505,0.000375135555778633,0.000141203082364374,-0.000782370031294265,0.00101553690290458,0.000582339505609219,2.42132334600176e-05
3.74062343723954,0.000375141777831522,0.000141209336748925,-0.000782363760698311,0.00101554317350054,0.000582345759993771,2.42194555129067e-05
3.75062510418403,0.000375131059276549,0.000141198562497111,-0.000782374562877053,0.00101553237132179,0.000582334985741956,2.42087369579337e-05
3.76062677112852,0.000375103699702961,0.000141171060754937,-0.000782402135903916,0.00101550479829493,0.000582307483999777,2.41813773843459e-05
3.77062843807301,0.000375060168961553,0.000141127303814683,-0.000782446006262436,0.0010154609279364,0.000582263727059517,2.41378466429381e-05
3.7806301050175,0.000375001105864023,0.000141067933807506,-0.000782505530157047,0.00101540140404179,0.00058220435705233,2.40787835454077e-05
3.79063177196199,0.000374927313634228,0.000140993758131055,-0.00078257989809732,0.00101532703610151,0.000582130181375868,2.40049913156126e-05
3.80063343890648,0.000374839752111803,0.000140905741612583,-0.000782668142755165,0.00101523879144366,0.000582042164857381,2.39174297931874e-05
3.81063510585098,0.000374739526813082,0.000140804995513018,-0.000782769149989256,0.00101513778420956,0.0005819414187578,2.3817204494467e-05
3.82063677279547,0.000374627875059585,0.000140692763583376,-0.000782881672824769,0.00101502526137403,0.000581829186828139,2.370555274097e-05
3.83063843973996,0.00037450614948514,0.000140570405486178,-0.000783004348074929,0.00101490258612386,0.00058170682873092,2.35838271665247e-05
3.84064010668445,0.000374375799323745,0.000140439377986079,-0.000783135715199137,0.00101477121899965,0.000581575801230798,2.34534770051302e-05
3.85064177362894,0.000374238349956373,0.000140301214390389,-0.000783274236915741,0.00101463269728303,0.000581437637635084,2.33160276377576e-05
3.86064344057343,0.000374095381251779,0.000140157502777339,-0.000783418321030202,0.00101448861316856,0.000581293926022008,2.31730589331634e-05
3.87064510751792,0.0003739485052707,0.000140009863584419,-0.000783566342904843,0.0010143405912939,0.000581146286829062,2.30261829520851e-05
3.88064677446241,0.000373799343912595,0.000139859927138965,-0.000783716667986513,0.00101419026621222,0.00058099635038358,2.28770215939797e-05
3.8906484414069,0.000373649507068935,0.00013970931169793,-0.000783867673823724,0.00101403926037499,0.000580845734942518,2.27271847503195e-05
3.90065010835139,0.00037350057180817,0.000139559602524687,-0.000784017771044092,0.00101388916315461,0.000580696025769246,2.25782494895545e-05
3.91065177529588,0.000373354063057477,0.000139412332470393,-0.000784165422823299,0.00101374151137539,0.000580548755714924,2.24317407388614e-05
3.92065344224037,0.000373211436169314,0.000139268964449957,-0.000784309162454551,0.00101359777174412,0.000580405387694461,2.22891138506993e-05
3.93065510918486,0.000373074061671494,0.000139130876112865,-0.000784447608717486,0.00101345932548117,0.000580267299357342,2.21517393528788e-05
3.94065677612935,0.00037294321240343,0.000138999346912589,-0.000784579478842282,0.00101332745535637,0.000580135770157041,2.20208900848148e-05
3.95065844307385,0.000372820053144026,0.000138875547680576,-0.000784703598962689,0.00101320333523595,0.000580011970925003,2.18977308254112e-05
3.96066011001834,0.000372705632743494,0.000138760532717177,-0.000784818912045601,0.00101308802215302,0.000579896955961581,2.17833104248794e-05
3.97066177696283,0.000372600878686858,0.000138655234326908,-0.000784924483369964,0.00101298245082865,0.00057979165757129,2.16785563682427e-05
3.98066344390732,0.000372506593944518,0.000138560459652646,-0.000785019503700782,0.00101288743049782,0.000579696882897009,2.15842716259026e-05
3.99066511085181,0.00037242345590745,0.000138476889605296,-0.000785103290362224,0.00101280364383637,0.000579613312849641,2.1501133588835e-05
4.0006667777963,0.000372352017162593,0.000138405079643202,-0.000785175286456195,0.00101273164774239,0.000579541502887531,2.14296948439776e-05
4.01066844474079,0.000372292707837834,0.000138345462129327,-0.000785235058499044,0.00101267187569954,0.000579481885373644,2.1370385519219e-05
4.02067011168528,0.000372245839234838,0.000138298349982952,-0.0007852822927604,0.00101262464143817,0.000579434773227258,2.13235169162229e-05
4.03067177862977,0.000372211608470039,0.000138263941344788,-0.000785316790585972,0.0010125901436126,0.000579400364589087,2.12892861514234e-05
4.04067344557426,0.000372190103857343,0.000138242324987648,-0.000785338462972847,0.00101256847122572,0.000579378748231942,2.12677815387281e-05
4.05067511251875,0.000372181310787908,0.000138233486226775,-0.000785347324643844,0.00101255960955472,0.000579369909471067,2.12589884692927e-05
4.06067677946324,0.000372185117890296,0.000138237313112014,-0.000785343487839295,0.00101256344635927,0.000579373736356307,2.12627955716808e-05
4.07067844640773,0.00037220132328604,0.000138253602715875,-0.000785327156012677,0.00101257977818589,0.000579390025960172,2.12790009674248e-05
4.08068011335223,0.000372229640788983,0.000138282067365093,-0.000785298617582907,0.00101260831661567,0.000579418490609397,2.13073184703683e-05
4.09068178029672,0.000372269705930079,0.00013832234069673,-0.00078525823986254,0.00101264869433604,0.000579458763941044,2.13473836114643e-05
4.10068344724121,0.000372321081721193,0.000138373983451929,-0.000785206463248992,0.00101270047094959,0.000579510406696255,2.13987594025782e-05
4.1106851141857,0.000372383264100958,0.000138436488950067,-0.000785143795736205,0.00101276313846239,0.00057957291219441,2.14609417823429e-05
4.12068678113019,0.000372455687032223,0.000138509288212696,-0.000785070807777425,0.00101283612642118,0.000579645711457059,2.15333647136081e-05
4.13068844807468,0.000372537727243809,0.000138591754729931,-0.000784988127506454,0.00101291880669216,0.000579728177974316,2.16154049251944e-05
4.14069011501917,0.00037262870862901,0.000138683208881812,-0.000784896436304831,0.0010130104978938,0.000579819632126222,2.17063863103951e-05
4.15069178196366,0.000372727906329641,0.000138782922043571,-0.000784796464685923,0.00101311046951272,0.000579919345288009,2.18055840110257e-05
4.16069344890815,0.000372834550547573,0.000138890120416978,-0.000784688988453651,0.00101321794574501,0.000580026543661448,2.19122282289578e-05
4.17069511585264,0.000372947830135837,0.0001390039886401,-0.000784574825083371,0.0010133321091153,0.000580140411884603,2.20255078172222e-05
4.18069678279713,0.000373066896028763,0.000139123673235264,-0.000784454830264976,0.00101345210393372,0.000580260096479804,2.21445737101478e-05
4.19069844974162,0.000373190864575483,0.000139248285959888,-0.000784329894543377,0.00101357703965533,0.000580384709204467,2.22685422568682e-05
4.20070011668611,0.000373318820843691,0.000139376907127402,-0.000784200939988979,0.00101370599420975,0.00058051333037202,2.23964985250761e-05
4.21070178363061,0.000373449821960949,0.000139508588965917,-0.000784068916830301,0.00101383801736845,0.000580645012210579,2.2527499642334e-05
4.2207034505751,0.000373582900559309,0.000139642359080752,-0.000783934799982477,0.0010139721342163,0.000580778782325458,2.26605782406943e-05
4.23070511751959,0.000373717068385608,0.00013977722408348,-0.000783799585408803,0.00101410734879,0.000580913647328232,2.27947460669928e-05
4.24070678446408,0.000373851320134659,0.000139912173445049,-0.000783664286257629,0.00101424264794119,0.000581048596689848,2.29289978160442e-05
4.25070845140857,0.000373984637555814,0.000140046183623672,-0.000783529928723769,0.00101437700547508,0.000581182606868519,2.30623152371994e-05
4.26071011835306,0.000374115993875021,0.00014017822250987,-0.000783397547591937,0.00101450938660693,0.000581314645754765,2.31936715564058e-05
4.27071178529755,0.000374244358564774,0.000140307254221206,-0.000783268181429583,0.00101463875276931,0.00058144367746615,2.33220362461591e-05
4.28071345224204,0.000374368702483265,0.000140432244268141,-0.000783142867407649,0.00101476406679127,0.000581568667513132,2.344638016465e-05
4.29071511918653,0.000374488003391772,0.000140552165100093,-0.000783022635740136,0.00101488429845881,0.000581688588345131,2.35656810731569e-05
4.30071678613102,0.000374601251846082,0.000140666002027473,-0.000782908503746714,0.00101499843045225,0.000581802425272557,2.36789295274669e-05
4.31071845307551,0.000374707457443668,0.000140772759501324,-0.000782801469556809,0.00101510546464218,0.000581909182746452,2.37851351250528e-05
4.32072012002,0.000374805655393748,0.000140871467717521,-0.000782702505488285,0.00101520442871072,0.000582007890962691,2.38833330751326e-05
4.33072178696449,0.000374894913362499,0.000140961189497554,-0.000782612551148825,0.0010152943830502,0.000582097612742763,2.39725910438842e-05
4.34072345390898,0.000374974338530942,0.000141041027383087,-0.000782532506322982,0.00101537442787606,0.000582177450628331,2.40520162123272e-05
4.35072512085348,0.000375043084788688,0.000141110130867087,-0.000782463223722309,0.00101544371047675,0.000582246554112363,2.41207624700731e-05
4.36072678779797,0.000375100359973328,0.000141167703670832,-0.000782405501689489,0.00101550143250959,0.000582304126916133,2.41780376547128e-05
4.37072845474246,0.000375145433053088,0.000141213010963885,-0.000782360076959643,0.00101554685723944,0.000582349434209208,2.42231107344726e-05
4.38073012168695,0.000375177641140011,0.000141245386413725,-0.000782327617592429,0.00101557931660666,0.000582381809659064,2.42553188213961e-05
4.39073178863144,0.000375196396212741,0.000141264238943459,-0.000782308716196817,0.00101559821800228,0.000582400662188807,2.42740738941257e-05
4.40073345557593,0.000375201191422433,0.000141269059070504,-0.000782303883575972,0.00101560305062313,0.000582405482315854,2.42788691038174e-05
4.41073512252042,0.000375191606852823,0.000141259424696585,-0.00078231354292225,0.00101559339127685,0.000582395847941931,2.42692845342079e-05
4.42073678946491,0.000375167314606319,0.000141235006220255,-0.000782338024691427,0.00101556890950766,0.000582371429465588,2.42449922877042e-05
4.4307384564094,0.000375128083092447,0.000141195570847626,-0.000782377562280795,0.00101552937191828,0.000582331994092937,2.42057607738318e-05
4.44074012335389,0.000375073780403236,0.000141140985985295,-0.00078243228862744,0.00101547464557162,0.000582277409230576,2.41514580846212e-05
4.45074179029838,0.000375004376672161,0.000141071221611539,-0.000782502233830901,0.00101540470036814,0.000582207644856781,2.40820543535455e-05
4.46074345724287,0.000374919945328951,0.000140986351537653,-0.000782587323888563,0.00101531961031046,0.000582122774782847,2.39976230103356e-05
4.47074512418736,0.000374820663181753,0.000140886553490532,-0.000782687380612864,0.00101521955358613,0.000582022976735668,2.38983408631384e-05
4.48074679113186,0.000374706809280219,0.000140772107969852,-0.000782802122777069,0.00101510481142189,0.000581908531214921,2.37844869616041e-05
4.49074845807635,0.000374578762537655,0.000140643395857869,-0.000782931168511674,0.00101497576568724,0.00058177981910286,2.36564402190399e-05
4.50075012502084,0.00037443699811663,0.00014050089478624,-0.000783074038946998,0.00101483289525188,0.000581637318031143,2.35146757980148e-05
4.51075179196533,0.000374282082609548,0.000140345174291553,-0.00078323016307021,0.00101467677112862,0.000581481597536358,2.33597602909335e-05
4.52075345890982,0.000374114668072802,0.000140176889818481,-0.00078339888373772,0.00101450805046105,0.000581313313063179,2.31923457541868e-05
4.53075512585431,0.000373935484999204,0.000139996775655699,-0.000783579464757572,0.00101432746944114,0.000581133198900281,2.30131626805891e-05
4.5407567927988,0.000373745334337576,0.000139805636914,-0.000783771098932122,0.00101413583526653,0.000580942060158456,2.28230120189611e-05
4.55075845974329,0.000373545078689639,0.000139604340677442,-0.000783972916929823,0.00101393401726876,0.000580740763921763,2.26227563710243e-05
4.56076012668778,0.000373335632832037,0.000139393806476124,-0.000784183996837148,0.00101372293736136,0.000580530229720303,2.24133105134221e-05
4.57076179363227,0.000373117953724647,0.000139174996242576,-0.000784403374228234,0.0010135035599702,0.000580311419486603,2.21956314060316e-05
4.58076346057676,0.000372893030174919,0.000138948903922389,-0.000784630052581175,0.00101327688161718,0.000580085327166258,2.19707078563044e-05
4.59076512752125,0.000372661872331532,0.000138716544913277,-0.000784863013866339,0.00101304392033193,0.00057985296815698,2.17395500129173e-05
4.60076679446574,0.000372425501179114,0.000138478945505214,-0.000785101229133604,0.00101280570506458,0.000579615368748745,2.15031788604995e-05
4.61076846141023,0.000372184938199444,0.000138237132487902,-0.000785343668931819,0.00101256326526628,0.000579373555731256,2.12626158808288e-05
4.62077012835473,0.000371941195353684,0.000137992123080962,-0.000785589313404726,0.00101231762079328,0.000579128546324133,2.10188730350692e-05
4.63077179529922,0.000371695265525569,0.000137744915327449,-0.000785837161922336,0.00101206977227557,0.000578881338570433,2.07729432069536e-05
4.64077346224371,0.000371448113547666,0.000137496479073492,-0.000786086242124672,0.00101182069207314,0.000578632902316286,2.0525791229051e-05
4.6507751291882,0.000371200667912847,0.00013724774763669,-0.000786335618274968,0.00101157131592275,0.00057838417087929,2.0278345594232e-05
4.66077679613269,0.000370953813251677,0.000136999610244416,-0.000786584398840971,0.00101132253535665,0.000578136033486821,2.00314909330624e-05
4.67077846307718,0.000370708383634615,0.000136752905301209,-0.00078683174324499,0.00101107519095253,0.000577889328543416,1.97860613160004e-05
4.68078013002167,0.000370465156736393,0.000136508414522832,-0.000787076867745049,0.00101083006645237,0.000577644837764842,1.95428344177779e-05
4.69078179696616,0.000370224848879585,0.000136266857954089,-0.000787319050429984,0.00101058788376734,0.000577403281195901,1.93025265609704e-05
4.70078346391065,0.000369988110955723,0.00013602888986874,-0.000787557635330155,0.00101034929886707,0.000577165313110354,1.90657886371085e-05
4.71078513085514,0.000369755525205862,0.000135795095533337,-0.000787792035661993,0.00101011489853513,0.000576931518774754,1.88332028872468e-05
4.72078679779963,0.000369527602828613,0.000135565988802835,-0.000788021736238628,0.0010098851979584,0.000576702412044057,1.8605280509998e-05
4.73078846474412,0.000369304782372457,0.000135342010504544,-0.000788246295090123,0.00100966063910681,0.000576478433745573,1.83824600538416e-05
4.74079013168862,0.000369087428860672,0.000135123527558514,-0.000788465344345369,0.00100944158985146,0.000576259950799352,1.8165106542057e-05
4.75079179863311,0.000368875833591433,0.000134910832776592,-0.000788678590433549,0.00100922834376319,0.000576047256017241,1.79535112728181e-05
4.7607934655776,0.000368670214552258,0.000134704145279024,-0.000788885813666456,0.00100902112053019,0.000575840568519488,1.77478922336427e-05
4.77079513252209,0.000368470717386856,0.000134503611466329,-0.000789086867264098,0.00100882006693246,0.000575640034706611,1.75483950682412e-05
4.78079679946658,0.000368277416853163,0.000134309306484906,-0.000789281675885298,0.00100862525831117,0.00057544572972501,1.73550945345477e-05
4.79079846641107,0.000368090318713619,0.000134121236127139,-0.000789470233722657,0.00100843670047372,0.000575257659367068,1.71679963950039e-05
4.80080013335556,0.000367909362002275,0.000133939339110282,-0.000789652602217767,0.00100825433197852,0.00057507576235004,1.69870396836597e-05
4.81080180030005,0.000367734421617628,0.000133763489682767,-0.000789828907448145,0.00100807802674806,0.000574899912922357,1.68120992990129e-05
4.82080346724454,0.000367565311195044,0.000133593500511553,-0.0007899993372324,0.00100790759696372,0.000574729923750979,1.66429888764293e-05
4.83080513418903,0.000367401786217796,0.000133429125809329,-0.000790164137994924,0.00100774279620112,0.000574565549048595,1.64794638991811e-05
4.84080680113352,0.000367243547330988,0.000133270064665662,-0.000790323611426113,0.00100758332276985,0.000574406487904772,1.63212250123731e-05
4.85080846807801,0.000367090243827705,0.000133115964551259,-0.000790478110969019,0.00100742882322687,0.000574252387790215,1.61679215090902e-05
4.8608101350225,0.000366941477281443,0.000132966424969272,-0.00079062803815858,0.00100727889603723,0.000574102848208076,1.6019154962828e-05
4.87081180196699,0.000366796805303151,0.000132821001231862,-0.000790773838835268,0.00100713309536047,0.000573957424470517,1.58744829845358e-05
4.88081346891149,0.000366655745404925,0.000132679208343973,-0.000790915999251249,0.00100699093494441,0.000573815631582482,1.57334230863099e-05
4.89081513585598,0.00036651777895548,0.000132540524979357,-0.000791055042084054,0.00100685189211154,0.000573676948217721,1.55954566368647e-05
4.90081680280047,0.000366382355214955,0.000132404397536342,-0.000791191522370292,0.00100671541182523,0.000573540820774562,1.546003289634e-05
4.91081846974496,0.000366248895438375,0.00013227024426262,-0.000791326023370177,0.00100658091082527,0.000573406667500696,1.532657311976e-05
4.92082013668945,0.000366116797038167,0.000132137459439393,-0.000791459152372536,0.00100644778182284,0.000573273882677325,1.51944747195526e-05
4.93082180363394,0.0003659854377966,0.000132005417615697,-0.000791591536449505,0.0010063153977458,0.000573141840853484,1.50631154779847e-05
4.94082347057843,0.000365854180118831,0.000131873477883556,-0.000791723818170296,0.00100618311602493,0.000573009901121197,1.49318578002158e-05
4.95082513752292,0.000365722375316571,0.000131740988183903,-0.000791856651284121,0.00100605028291103,0.000572877411421395,1.48000529979563e-05
4.96082680446741,0.000365589367911131,0.000131607289631982,-0.000791990696383566,0.00100591623781151,0.000572743712869322,1.46670455925162e-05
4.9708284714119,0.000365454499943014,0.000131471720849342,-0.000792126616561381,0.00100578031763362,0.000572608144086526,1.45321776243995e-05
4.98083013835639,0.000365317115273247,0.000131333622287513,-0.000792265073075589,0.00100564186111933,0.000572470045524537,1.43947929546322e-05
4.99083180530088,0.000365176563859398,0.000131192340526249,-0.000792406721040107,0.00100550021315473,0.000572328763763107,1.42542415407828e-05
5.00083347224537,0.000365032205986862,0.000131047232526795,-0.00079255220516045,0.0010053547290343,0.000572183655763481,1.41098836682474e-05
5.01083513918987,0.00036488341643353,0.0001308976698182,-0.00079270215553657,0.00100520477865809,0.000572034093054707,1.39610941149154e-05
5.02083680613436,0.000364729750229563,0.000130743205118428,-0.00079285702060986,0.0010050499135847,0.000571879628354747,1.38074279109485e-05
5.03083847307885,0.000364571526071992,0.000130584158780555,-0.000793016479196889,0.00100489045499758,0.000571720582016678,1.36492037533769e-05
5.04084014002334,0.000364405279953587,0.000130417048797329,-0.000793184022330293,0.00100472291186407,0.000571553472033245,1.34829576349725e-05
5.05084180696783,0.000364223798385805,0.00013023462419675,-0.00079336691977664,0.00100454001441761,0.000571371047432437,1.33014760671897e-05
5.06084347391232,0.000364020282548354,0.000130030050829813,-0.000793572023399093,0.00100433491079502,0.000571166474065241,1.3097960229739e-05
5.07084514085681,0.000363790786848321,0.000129799362601118,-0.000793803309573199,0.00100410362462077,0.00057093578583625,1.28684645297062e-05
5.0808468078013,0.000363533834253631,0.000129541074803487,-0.000794062266854507,0.00100384466733929,0.000570677498038285,1.26115119350161e-05
5.09084847474579,0.000363249497283584,0.000129255260333054,-0.000794348822157937,0.00100355811203567,0.000570391683567477,1.23271749649695e-05
5.10085014169028,0.000362938709765522,0.000128942857869605,-0.000794662034370635,0.00100324489982277,0.000570079281103617,1.20163874469069e-05
5.11085180863477,0.000362602897903128,0.000128605301027811,-0.000795000466161996,0.00100290646803118,0.000569741724261373,1.16805755845127e-05
5.12085347557926,0.000362243822894013,0.000128244360156994,-0.000795362342593938,0.001002544591599,0.000569380783390071,1.13215005753984e-05
5.13085514252375,0.000361863521765544,0.000127862082869526,-0.000795745610746665,0.00100216132344601,0.000568998506102085,1.09411994469289e-05
5.14085680946824,0.000361464277058042,0.000127460763566496,-0.000796147970271986,0.00100175896392041,0.000568597186798506,1.05419547394272e-05
5.15085847641274,0.000361048585066905,0.000127042911514803,-0.000796566905398965,0.00100134002879315,0.000568179334746238,1.01262627482905e-05
5.16086014335723,0.000360619114885004,0.000126611209676726,-0.000796999726211067,0.00100090720798074,0.000567747632907562,9.69679256638899e-06
5.17086181030172,0.00036017865995463,0.000126168466010123,-0.000797443617472188,0.00100046331671931,0.000567304889240342,9.25633763601509e-06
5.18086347724621,0.000359730086199325,0.000125717561330736,-0.000797895690899494,0.00100001124329169,0.000566853984560321,8.80776388071041e-06
5.1908651441907,0.00035927628033643,0.000125261397356156,-0.000798353037254121,0.000999553896936736,0.000566397820585097,8.35395801781489e-06
5.20086681113519,0.000358820100865335,0.000124802847439398,-0.000798812775735307,0.000999094158455224,0.000565939270667687,7.89777854672033e-06
5.21086847807968,0.000358364333293847,0.000124344711562602,-0.000799272099103336,0.000998634835086865,0.000565481134790236,7.4420109752322e-06
5.22087014502417,0.000357911650543992,0.000123889676537101,-0.000799728313582644,0.00099817862060723,0.000565026099764082,6.98932822537748e-06
5.23087181196866,0.000357464579081363,0.000123440281956763,-0.000800178872996718,0.000997728061192829,0.000564576705183095,6.54225676274856e-06
5.24087347891315,0.000357025471030641,0.000122998892168615,-0.000800621406870129,0.000997285527319097,0.000564135315394307,6.10314871202593e-06
5.25087514585764,0.000356596482308737,0.00012256767429236,-0.000801053742465983,0.000996853191722928,0.000563704097517426,5.67415999012191e-06
5.26087681280213,0.000356179556602603,0.000122148582114934,-0.000801473920933119,0.000996433013255486,0.000563285005339387,5.25723428398834e-06
5.27087847974662,0.000355776414841712,0.000121743345508273,-0.000801880207915757,0.000996026726272549,0.000562879768732133,4.85409252309696e-06
5.28088014669112,0.000355388549673855,0.000121353464876418,-0.000802271099120802,0.000995635835067217,0.000562489888099705,4.46622735524063e-06
5.29088181363561,0.000355017224353928,0.000120980210038514,-0.000802645321437727,0.000995261612750016,0.00056211663326125,4.0949020353134e-06
5.3008834805801,0.000354663475400399,0.000120624622899092,-0.000803001830261378,0.0009949051039261,0.000561761046121303,3.74115308178478e-06
5.31088514752459,0.000354328118360074,0.000120287523242784,-0.000803339803682237,0.00099456713050499,0.000561423946464495,3.40579604145943e-06
5.32088681446908,0.000354011756041842,0.000119969517010854,-0.000803658634188435,0.000994248299998556,0.000561105940232094,3.08943372322733e-06
5.33088848141357,0.000353714788626304,0.000119671006463364,-0.00080395791847725,0.000993949015709518,0.000560807429684159,2.79246630768954e-06
5.34089014835806,0.000353437425122045,0.000119392201694968,-0.00080423744590946,0.000993669488277098,0.000560528624915347,2.51510280343012e-06
5.35089181530255,0.000353179695713282,0.000119133133046731,-0.000804497186065358,0.000993409748121007,0.000560269556266723,2.25737339466758e-06
5.36089348224704,0.000352941464621272,0.000118893664034361,-0.000804737275783001,0.000993169658403183,0.000560030087253995,2.01914230265741e-06
5.37089514919153,0.000352722443178138,0.000118673504489976,-0.00080495800598239,0.000992948928203629,0.00055980992770928,1.8001208595229e-06
5.38089681613602,0.000352522202883144,0.000118472223686224,-0.000805159808507325,0.000992747125678542,0.000559608646905225,1.59988056452947e-06
5.39089848308051,0.000352340188275396,0.000118289263275866,-0.000805343243152283,0.000992563691033445,0.000559425686494593,1.41786595678195e-06
5.400900150025,0.00035217572951215,0.000118123949935455,-0.000805508984985973,0.000992397949199631,0.000559260373153933,1.25340719353583e-06
5.41090181696949,0.000352028054587822,0.000117975507647834,-0.000805657812036992,0.000992249122148499,0.000559111930866087,1.10573226920717e-06
5.42090348391399,0.000351896301165398,0.000117843069595027,-0.000805790593370114,0.000992116340815277,0.00055897949281308,9.73978846783674e-07
5.43090515085848,0.000351779528019762,0.000117725689661028,-0.000805908277553683,0.000991998656631619,0.000558862112878904,8.57205701147592e-07
5.44090681780297,0.000351676726112171,0.000117622353563826,-0.000806011881498736,0.000991895052686487,0.000558758776781546,7.54403793556313e-07
5.45090848474746,0.0003515868293277,0.000117531989648644,-0.000806102479637788,0.000991804454547366,0.000558668412866227,6.64507009085801e-07
5.46091015169195,0.000351508724913798,0.000117453479380732,-0.000806181193404838,0.000991725740780257,0.000558589902598195,5.86402595183371e-07
5.47091181863644,0.00035144126365918,0.000117385667577159,-0.000806249180977057,0.000991657753207985,0.000558522090794519,5.1894134056532e-07
5.48091348558093,0.000351383269849077,0.000117327372413788,-0.00080630762724188,0.000991599306943118,0.000558463795631059,4.60947530462166e-07
5.49091515252542,0.000351333551026149,0.000117277395236913,-0.00080635773395993,0.000991549200225029,0.000558413818454107,4.11228707534455e-07
5.50091681946991,0.000351290907577074,0.00011723453019966,-0.000806400710103645,0.000991506224081281,0.000558370953416789,3.6858525845988e-07
5.5109184864144,0.00035125414215358,0.000117197573731976,-0.00080643776236274,0.000991469171822157,0.000558333996949047,3.31819834965613e-07
5.52092015335889,0.000351222068924235,0.000117165333840491,-0.000806470085820238,0.000991436848364635,0.000558301757057514,2.99746605620736e-07
5.53092182030338,0.000351193522640241,0.000117136639221426,-0.000806498854815947,0.000991408079368903,0.000558273062438404,2.7120032162674e-07
5.54092348724787,0.00035116736748533,0.000117110348156469,-0.00080652521402752,0.00099138172015731,0.000558246771373407,2.45045166715465e-07
5.55092515419236,0.000351142505667218,0.000117085357148878,-0.000806550269811969,0.000991356664372842,0.000558221780365777,2.2018334860398e-07
5.56092682113686,0.000351117885696365,0.000117060609245257,-0.000806575081862322,0.00099133185232247,0.000558197032462117,1.9556337775014e-07
5.57092848808135,0.000351092510287466,0.000117035101978107,-0.000806600655244478,0.000991306278940294,0.000558171525194928,1.70187968851896e-07
5.58093015502584,0.00035106544381066,0.000117007894855753,-0.000806627932887875,0.000991279001296875,0.000558144318072531,1.43121492045276e-07
5.59093182197033,0.000351035819213071,0.000116978116319851,-0.00080665778860994,0.000991249145574787,0.000558114539536583,1.13496894456125e-07
5.60093348891482,0.000351002844327581,0.000116944970086947,-0.000806691020758101,0.000991215913426599,0.000558081393303626,8.05220089669192e-08
5.61093515585931,0.000350965807484648,0.000116907740789446,-0.000806728346554189,0.000991178587630482,0.000558044164006067,4.34851660331613e-08
5.6209368228038,0.000350924082344927,0.00011686579883336,-0.000806770397224105,0.000991136536960533,0.000558002222049915,1.76002631295078e-09
5.63093848974829,0.000350877131875469,0.000116818604395153,-0.000806817713990612,0.000991089220193989,0.000557955027611633,-4.51904431452612e-08
5.64094015669278,0.000350824511400243,0.000116765710488123,-0.000806870744999001,0.000991036189185558,0.00055790213370452,-9.78109183711849e-08
5.65094182363727,0.000350765870666788,0.000116706765039794,-0.000806929843234326,0.000990977090950186,0.000557843188256097,-1.56451651826563e-07
5.66094349058176,0.000350700954884448,0.00011664151193554,-0.000806995265475061,0.000990911668709398,0.00055777793515174,-2.21367434166068e-07
5.67094515752625,0.000350629604705774,0.000116569790999895,-0.000807067172311851,0.000990839761872551,0.00055770621421598,-2.92717612840697e-07
5.68094682447075,0.00035055175514064,0.000116491536905025,-0.000807145629241857,0.000990761304942482,0.000557627960120986,-3.70567177974302e-07
5.69094849141524,0.000350467433412036,0.000116406777015379,-0.000807230608829704,0.000990676325354568,0.000557543200231203,-4.54888906578684e-07
5.70095015835973,0.000350376755782523,0.000116315628197652,-0.000807321993905774,0.000990584940278423,0.000557452051413331,-5.45566536091673e-07
5.71095182530422,0.000350279923400488,0.000116218292645461,-0.000807419581752368,0.000990487352431751,0.000557354715860982,-6.4239891812672e-07
5.72095349224871,0.000350177217234677,0.000116115052787547,-0.000807523089208683,0.000990383844975353,0.000557251476002902,-7.4510508393788e-07
5.7309551591932,0.00035006899218346,0.000116006265366441,-0.000807632158607511,0.000990274775576436,0.000557142688581621,-8.53330135154232e-07
5.74095682613769,0.000349955670461124,0.000115892354790382,-0.000807746364440545,0.00099016056974331,0.000557028778005377,-9.66651857489915e-07
5.75095849308218,0.000349837734376629,0.00011577380587455,-0.000807865220635959,0.000990041713547799,0.000556910229089353,-1.08458794198567e-06
5.76096016002667,0.000349715718630255,0.000115651156097692,-0.000807988188321859,0.000989918745861799,0.000556787579312296,-1.20660368835904e-06
5.77096182697116,0.000349590202260045,0.000115524987506703,-0.000808114683942679,0.000989792250240877,0.000556661410721102,-1.33212005856897e-06
5.78096349391565,0.0003494618003727,0.000115395918404566,-0.000808244087592791,0.000989662846590658,0.000556532341618755,-1.46052194591396e-06
5.79096516086014,0.000349331155792726,0.000115264594956095,-0.000808375751432519,0.000989531182750823,0.00055640101817007,-1.591166525888e-06
5.80096682780463,0.000349198930759151,0.00011513168284151,-0.000808509008056193,0.000989397926127041,0.000556268106055269,-1.72339155946326e-06
5.81096849474913,0.00034906579879147,0.000114997859080118,-0.00080864317868967,0.000989263755493454,0.000556134282293658,-1.8565235271447e-06
5.82097016169362,0.000348932436836,0.000114863804135852,-0.000808777581105248,0.000989129353077766,0.000556000227349173,-1.98988548261448e-06
5.83097182863811,0.000348799517791095,0.000114730194403647,-0.000808911537154772,0.000988995397028132,0.00055586661761675,-2.12280452751898e-06
5.8409734955826,0.000348667703495268,0.000114597695161127,-0.000809044379836214,0.000988862554346582,0.000555734118374014,-2.25461882334658e-06
5.85097516252709,0.00034853763824684,0.000114466954054584,-0.00080917545982458,0.000988731474358108,0.000555603377267257,-2.38468407177416e-06
5.86097682947158,0.000348409942907916,0.000114338595172306,-0.00080930415141394,0.000988602782768644,0.000555475018384768,-2.51237941069843e-06
5.87097849641607,0.000348285209629781,0.000114213213742574,-0.000809429857833175,0.000988477076349305,0.000555349636954832,-2.63711268883378e-06
5.88098016336056,0.000348163997221882,0.00011409137147858,-0.000809552015913133,0.000988354918269247,0.000555227794690638,-2.75832509673209e-06
5.89098183030505,0.000348046827172686,0.000113973592578597,-0.000809670100096812,0.000988236834085472,0.000555110015790464,-2.87549514592849e-06
5.90098349724954,0.000347934180318309,0.000113860360377314,-0.000809783625796718,0.000988123308385473,0.000554996783588995,-2.98814200030534e-06
5.91098516419403,0.000347826494144151,0.000113752114633435,-0.000809892152114289,0.000988014782067813,0.00055488853784494,-3.09582817446323e-06
5.92098683113852,0.000347724160695856,0.000113649249429791,-0.000809995283945229,0.000987911650236789,0.000554785672641127,-3.19816162275874e-06
5.93098849808301,0.000347627525068934,0.000113552111655112,-0.000810092673501669,0.000987814260680269,0.00055468853486629,-3.29479724968041e-06
5.9409901650275,0.000347536884441187,0.000113461000031425,-0.000810184021287294,0.00098772291289457,0.000554597423242454,-3.38543787742767e-06
5.950991831972,0.000347452487608567,0.0001133761646475,-0.000810269076565101,0.000987637857616694,0.000554512587858392,-3.46983471004777e-06
5.96099349891649,0.000347374534983179,0.000113297806956845,-0.000810347637359414,0.000987559296822317,0.00055443423016761,-3.54778733543558e-06
5.97099516586098,0.0003473031790115,0.000113226080198095,-0.000810419550034403,0.000987487384147269,0.000554362503408742,-3.61914330711452e-06
5.98099683280547,0.000347238524971405,0.000113161090196178,-0.000810484708490838,0.00098742222569078,0.00055429751340672,-3.68379734720931e-06
5.99099849974996,0.000347180632107986,0.000113102896504044,-0.000810543053021412,0.00098736388116016,0.000554239319714491,-3.74169021062817e-06
6.00100016669445,0.000347129515070201,0.000113051513846768,-0.000810594568862878,0.000987312365318651,0.000554187937057133,-3.79280724841388e-06
6.01100183363894,0.0003470851456129,0.000113006913832434,-0.000810639284480748,0.000987267649700745,0.000554143337042726,-3.83717670571448e-06
6.02100350058343,0.000347047472899205,0.000112969045359997,-0.000810677251108518,0.000987229683072945,0.000554105468570229,-3.87484941940941e-06
6.03100516752792,0.000347016553138683,0.000112937964931108,-0.000810708412098087,0.00098719852208335,0.000554074388141289,-3.90576917993175e-06
6.04100683447241,0.000346993596050947,0.000112914888551445,-0.00081073154829188,0.000987175385889538,0.000554051311761589,-3.92872626766788e-06
6.0510085014169,0.000346980479542249,0.000112901703885426,-0.000810744767132641,0.000987162167048767,0.000554038127095549,-3.94184277636535e-06
6.06101016836139,0.000346978423926348,0.000112899637587927,-0.000810746838785997,0.000987160095395409,0.000554036060798046,-3.94389839226671e-06
6.07101183530588,0.000346987517688445,0.000112908778603945,-0.000810737674076405,0.000987169260105008,0.000554045201814079,-3.93480463016965e-06
6.08101350225038,0.000347007179008515,0.000112928542090142,-0.000810717859363119,0.00098718907481831,0.000554064965300308,-3.91514331009964e-06
6.09101516919487,0.000347036658621681,0.000112958174888238,-0.000810688149756613,0.00098721878442484,0.000554094598098451,-3.88566369693335e-06
6.10101683613936,0.000347075269816382,0.00011299698671831,-0.000810649237326018,0.000987257696855466,0.000554133409928585,-3.84705250223255e-06
6.11101850308385,0.000347122399531368,0.000113044361333459,-0.000810601739915551,0.000987305194265972,0.00055418078454381,-3.79992278724628e-06
6.12102017002834,0.000347177444661997,0.000113099692495129,-0.00081054626533514,0.000987360668846427,0.000554236115705568,-3.74487765661716e-06
6.13102183697283,0.000347239763637636,0.000113162335298893,-0.00081048346016081,0.000987423474020807,0.000554298758509433,-3.68255868097846e-06
6.14102350391732,0.000347308663664119,0.00011323159335062,-0.00081041402259175,0.000987492911589922,0.00055436801656127,-3.61365865449517e-06
6.15102517086181,0.00034738340968103,0.000113306727770299,-0.000810338693423155,0.000987568240758578,0.000554443150981068,-3.53891263758394e-06
6.1610268378063,0.000347463238066561,0.000113386970968111,-0.000810258242234438,0.00098764869194736,0.000554523394179009,-3.45908425205306e-06
6.17102850475079,0.000347547366958795,0.000113471537019351,-0.000810173456987428,0.000987733477194437,0.000554607960230384,-3.37495535981954e-06
6.18103017169528,0.000347635002590942,0.00011355962803258,-0.000810085137641705,0.000987821796540231,0.000554696051243753,-3.28731972767251e-06
6.19103183863977,0.000347725343788474,0.000113650438670124,-0.000809994091622381,0.000987912842559627,0.000554786861881442,-3.19697853014007e-06
6.20103350558426,0.000347817586407243,0.000113743160609262,-0.000809901129347359,0.000988005804834724,0.000554879583820727,-3.1047359113709e-06
6.21103517252875,0.000347910928339387,0.000113836987574136,-0.000809807059182365,0.000988099874999793,0.000554973410785751,-3.0113939792275e-06
6.22103683947325,0.000348004574973753,0.000113931120824558,-0.00080971268193793,0.000988194252244304,0.000555067544036323,-2.91774734486125e-06
6.23103850641774,0.000348097744810492,0.000114024774799768,-0.00080961878521099,0.000988288148971319,0.000555161198011684,-2.82457750812205e-06
6.24104017336223,0.00034818967502124,0.000114117182707518,-0.000809526137781326,0.000988380796401057,0.000555253605919581,-2.73264729737409e-06
6.25104184030672,0.000348279626870567,0.000114207601973686,-0.000809435484147816,0.000988471450034639,0.000555344025185894,-2.64269544804776e-06
6.26104350725121,0.000348366890975455,0.000114295319529088,-0.000809347539227925,0.000988559394954601,0.000555431742741437,-2.55543134315936e-06
6.2710451741957,0.000348450792384172,0.000114379656914739,-0.000809262983239207,0.000988643950943387,0.000555516080127222,-2.47152993444284e-06
6.28104684114019,0.000348530695438754,0.000114459975169605,-0.000809182456798889,0.00098872447738377,0.000555596398382217,-2.39162687986095e-06
6.29104850808468,0.000348606008370255,0.000114535679449731,-0.000809106556292762,0.000988800377889958,0.000555672102662466,-2.31631394835904e-06
6.30105017502917,0.000348676187569664,0.00011460622332135,-0.000809035829570957,0.000988871104611821,0.000555742646534198,-2.24613474895045e-06
6.31105184197366,0.00034874074147782,0.000114671112671013,-0.000808970772027666,0.000988936162155164,0.000555807535883966,-2.18158084079414e-06
6.32105350891815,0.000348799234041057,0.000114729909179186,-0.000808911823118551,0.000988995111064326,0.000555866332392234,-2.12308827755752e-06
6.33105517586264,0.000348851287683509,0.000114782233308007,-0.000808859363365238,0.000989047570817682,0.00055591865652114,-2.07103463510529e-06
6.34105684280713,0.000348896585751811,0.000114827766758684,-0.000808813711891552,0.000989093222291405,0.000555964189971891,-2.02573656680332e-06
6.35105850975163,0.00034893487439346,0.000114866254359621,-0.000808775124530497,0.000989131809652492,0.00055600267757289,-1.98744792515485e-06
6.36106017669612,0.000348965963836834,0.000114897505353086,-0.000808743792534248,0.000989163141648766,0.000556033928566406,-1.95635848178025e-06
6.37106184364061,0.000348989729048762,0.000114921394056196,-0.00080871984191146,0.000989187092271575,0.000556057817269555,-1.93259326985274e-06
6.3810635105851,0.000349006109754461,0.000114937859880964,-0.000808703333407164,0.000989203600775884,0.00055607428309435,-1.9162125641539e-06
6.39106517752959,0.000349015109814446,0.000114946906707966,-0.000808694263130726,0.000989212671052329,0.000556083329921367,-1.90721250416844e-06
6.40106684447408,0.000349016795963235,0.000114948601618491,-0.000808692563826982,0.000989214370356075,0.000556085024831894,-1.90552635537966e-06
6.41106851141857,0.000349011295925166,0.000114943073000571,-0.000808698106775116,0.000989208827407936,0.000556079496213966,-1.91102639344869e-06
6.42107017836306,0.000348998795933053,0.000114930508054743,-0.000808710704289367,0.000989196229893674,0.000556066931268117,-1.92352638556104e-06
6.43107184530755,0.000348979537685409,0.000114911149735457,-0.000808730112785547,0.000989176821397479,0.000556047572948799,-1.94278463320539e-06
6.44107351225204,0.000348953814787305,0.000114885293173445,-0.00080875603636794,0.000989150897815064,0.000556021716386745,-1.9685075313092e-06
6.45107517919653,0.000348921968728336,0.000114853281632784,-0.000808788130882729,0.000989118803300249,0.000555989704846031,-2.00035359027833e-06
6.46107684614102,0.000348884384458288,0.000114815502063575,-0.000808826008376834,0.000989080925806112,0.000555951925276759,-2.03793786032624e-06
6.47107851308551,0.000348841485626872,0.00011477238031694,-0.000808869241895325,0.000989037692287586,0.000555908803530053,-2.08083669174197e-06
6.48108018003,0.00034879372955802,0.000114724376093203,-0.000808917370546331,0.00098898956363654,0.000555860799306237,-2.12859276059475e-06
6.4910818469745,0.000348741602031713,0.000114671977696606,-0.000808969904759923,0.000988937029422904,0.000555808400909552,-2.18072028690176e-06
6.50108351391899,0.000348685611947084,0.000114615696670673,-0.000809026331666652,0.000988880602516128,0.000555752119883526,-2.23671037153037e-06
6.51108518086348,0.000348626285939581,0.000114556062387407,-0.000809086120522379,0.000988820813660351,0.000555692485600161,-2.29603637903377e-06
6.52108684780797,0.000348564163022476,0.000114493616660959,-0.000809148728108569,0.000988758206074109,0.000555630039873609,-2.35815929613786e-06
6.53108851475246,0.000348499789319054,0.000114428908452429,-0.000809213604041208,0.000988693330141416,0.000555565331664972,-2.42253299956064e-06
6.54109018169695,0.000348433712946556,0.000114362488727245,-0.000809280195926764,0.000988626738255804,0.000555498911939677,-2.48860937205783e-06
6.55109184864144,0.000348366479106793,0.000114294905520247,-0.000809347954309887,0.000988558979872625,0.000555431328732566,-2.55584321182159e-06
6.56109351558593,0.000348298625431253,0.00011422669925662,-0.000809416337364606,0.000988490596817849,0.000555363122468825,-2.62369688736126e-06
6.57109518253042,0.000348230677621111,0.000114158398369239,-0.000809484815288344,0.000988422118894054,0.000555294821581331,-2.69164469750292e-06
6.58109684947491,0.000348163145414716,0.000114090515245207,-0.000809552874365889,0.000988354059816452,0.000555226938457185,-2.75917690389814e-06
6.5910985164194,0.000348096518907428,0.000114023542526566,-0.000809620020678265,0.00098828691350402,0.000555159965738433,-2.82580341118672e-06
6.60110018336389,0.000348031265241128,0.000113957949782608,-0.000809685783439054,0.000988221150743176,0.000555094372994366,-2.89105707748614e-06
6.61110185030839,0.000347967825673621,0.000113894180564045,-0.000809749717947858,0.000988157216234318,0.000555030603775696,-2.95449664499371e-06
6.62110351725288,0.000347906613031591,0.000113832649842733,-0.000809811408157212,0.000988095526024914,0.000554969073054282,-3.01570928702379e-06
6.63110518419737,0.000347848009544968,0.000113773741834784,-0.000809870468855111,0.000988036465326965,0.000554910165046235,-3.07431277364648e-06
6.64110685114186,0.000347792365055451,0.000113717808199779,-0.000809926547470473,0.000987980386711556,0.000554854231411136,-3.12995726316354e-06
6.65110851808635,0.000347739995587704,0.000113665166604541,-0.000809979325513078,0.000987927608668907,0.000554801589815811,-3.18232673091032e-06
6.66111018503084,0.000347691182268314,0.000113616099636475,-0.000810028519663053,0.000987878414518891,0.000554752522847664,-3.23114005030059e-06
6.67111185197533,0.000347646170574959,0.000113570854048836,-0.000810073882527558,0.000987833051654348,0.000554707277259949,-3.27615174365532e-06
6.68111351891982,0.000347605169896389,0.00011352964031842,-0.000810115203084239,0.000987791731097633,0.000554666063529465,-3.31715242222488e-06
6.69111518586431,0.000347568353382623,0.000113492632494985,-0.000810152306832201,0.000987754627349641,0.000554629055705968,-3.3539689359916e-06
6.7011168528088,0.000347535858064207,0.000113459968321131,-0.000810185055671812,0.000987721878510002,0.00055459639153206,-3.38646425440687e-06
6.71111851975329,0.00034750778521935,0.000113431749601335,-0.000810213347534718,0.000987693586647072,0.000554568172812218,-3.41453709926444e-06
6.72112018669778,0.000347484200968085,0.000113408042799214,-0.000810237115785029,0.000987669818396742,0.000554544466010057,-3.43812135052924e-06
6.73112185364227,0.000347465137073388,0.000113388879842791,-0.000810256328411963,0.000987650605769792,0.000554525303053603,-3.45718524522638e-06
6.74112352058676,0.00034745059193008,0.000113374259118549,-0.000810270987033221,0.000987635947148522,0.000554510682329336,-3.47173038853389e-06
6.75112518753126,0.000347440531723514,0.000113364146636126,-0.000810281125727266,0.000987625808454469,0.000554500569846896,-3.48179059510025e-06
6.76112685447575,0.000347434891741214,0.000113358477346783,-0.000810286809711444,0.000987620124470285,0.000554494900557544,-3.48743057739988e-06
6.77112852142024,0.000347433577821904,0.000113357156599953,-0.000810288133881659,0.000987618800300069,0.000554493579810712,-3.48874449671072e-06
6.78113018836473,0.000347436467927509,0.000113360061723416,-0.000810285221228097,0.000987621712953634,0.000554496484934179,-3.48585439110525e-06
6.79113185530922,0.000347443413824881,0.000113367043713758,-0.000810278221140389,0.000987628713041348,0.000554503466924533,-3.47890849373292e-06
6.80113352225371,0.000347454242864938,0.000113377929024761,-0.000810267307614587,0.000987639626567159,0.000554514352235554,-3.46807945367617e-06
6.8111351891982,0.000347468759847809,0.000113392521442237,-0.000810252677373467,0.00098765425680829,0.000554528944653054,-3.45356247080556e-06
6.82113685614269,0.000347486748963253,0.000113410604034531,-0.000810234547910973,0.0009876723862708,0.000554547027245378,-3.43557335536121e-06
6.83113852308718,0.00034750797579616,0.000113431941168441,-0.00081021315547107,0.000987693778710721,0.000554568364379323,-3.41434652245393e-06
6.84114019003167,0.000347532189387303,0.000113456280580679,-0.000810188752970912,0.000987718181210898,0.000554592703791601,-3.39013293131141e-06
6.85114185697616,0.000347559124339728,0.000113483355495211,-0.000810161607878021,0.000987745326303812,0.000554619778706177,-3.36319797888641e-06
6.86114352392065,0.000347588502961231,0.000113512886776859,-0.000810132000051092,0.000987774934130765,0.000554649309987874,-3.33381935738337e-06
6.87114519086514,0.000347620037433282,0.000113544585111503,-0.000810100219554153,0.00098780671462773,0.00055468100832257,-3.30228488533246e-06
6.88114685780964,0.000347653431996589,0.000113578153202997,-0.000810066564453942,0.000987840369727969,0.000554714576414119,-3.26889032202504e-06
6.89114852475413,0.000347688385143215,0.000113613287976676,-0.000810031338610694,0.000987875595571246,0.000554749711187856,-3.23393717539904e-06
6.90115019169862,0.000347724591804811,0.000113649682778966,-0.000809994849472834,0.000987912084709136,0.000554786105990205,-3.1977305138035e-06
6.91115185864311,0.000347761745526163,0.000113687029562219,-0.000809957405886468,0.000987949528295533,0.00055482345277352,-3.16057679245087e-06
6.9211535255876,0.000347799540612858,0.000113725021043542,-0.000809919315930972,0.00098798761825106,0.000554861444254905,-3.12278170575645e-06
6.93115519253209,0.000347837674241474,0.000113763352825951,-0.000809880884792326,0.000988026049389737,0.000554899776037377,-3.08464807714052e-06
6.94115685947658,0.000347875848520413,0.000113801725469915,-0.000809842412686213,0.000988064521495883,0.000554938148681404,-3.04647379820163e-06
6.95115852642107,0.000347913772489181,0.000113839846503021,-0.000809804192843134,0.000988102741338993,0.000554976269714573,-3.00854982943352e-06
6.96116019336556,0.000347951164043785,0.000113877432355379,-0.000809766509567996,0.000988140424614163,0.000555013855566992,-2.97115827482959e-06
6.97116186031005,0.000347987751775842,0.000113914210208286,-0.000809729636386648,0.000988177297795541,0.00055505063341996,-2.93457054277269e-06
