data1,data2,data3,data4,data5,data6,data7
0,0.000617607599537416,-0.00091014734587074,-0.00230117136050551,-0.00122061652555026,-0.000888985106289203,0.000248230684700264
0.01001001001001,0.000617607599535767,-0.000910147345869637,-0.00230117136050183,-0.00122061652554658,-0.000888985106288112,0.000248230684698615
0.02002002002002,0.000617607599529541,-0.000910147345865475,-0.00230117136048795,-0.0012206165255327,-0.000888985106283991,0.000248230684692389
0.03003003003003,0.000617607599535447,-0.000910147345869424,-0.00230117136050112,-0.00122061652554587,-0.0008889851062879,0.000248230684698295
0.04004004004004,0.00061760759955516,-0.000910147345882604,-0.00230117136054508,-0.00122061652558982,-0.000888985106300947,0.000248230684718008
0.0500500500500501,0.00061760759956932,-0.000910147345892072,-0.00230117136057666,-0.00122061652562139,-0.000888985106310319,0.000248230684732168
0.0600600600600601,0.00061760759958372,-0.000910147345901701,-0.00230117136060878,-0.00122061652565349,-0.00088898510631985,0.000248230684746568
0.0700700700700701,0.000617607599597388,-0.00091014734591084,-0.00230117136063926,-0.00122061652568396,-0.000888985106328896,0.000248230684760236
0.0800800800800801,0.000617607599609641,-0.000910147345919033,-0.00230117136066658,-0.00122061652571128,-0.000888985106337006,0.000248230684772489
0.0900900900900901,0.000617607599620018,-0.000910147345925972,-0.00230117136068973,-0.00122061652573441,-0.000888985106343875,0.000248230684782866
0.1001001001001,0.000617607599628282,-0.000910147345931498,-0.00230117136070816,-0.00122061652575284,-0.000888985106349345,0.00024823068479113
0.11011011011011,0.000617607599634421,-0.000910147345935603,-0.00230117136072185,-0.00122061652576652,-0.000888985106353408,0.000248230684797269
0.12012012012012,0.000617607599638622,-0.000910147345938412,-0.00230117136073122,-0.00122061652577589,-0.000888985106356189,0.00024823068480147
0.13013013013013,0.00061760759964122,-0.000910147345940149,-0.00230117136073701,-0.00122061652578168,-0.000888985106357908,0.000248230684804068
0.14014014014014,0.000617607599642626,-0.000910147345941089,-0.00230117136074015,-0.00122061652578482,-0.000888985106358839,0.000248230684805475
0.15015015015015,0.000617607599643262,-0.000910147345941514,-0.00230117136074157,-0.00122061652578623,-0.00088898510635926,0.00024823068480611
0.16016016016016,0.000617607599643483,-0.000910147345941663,-0.00230117136074206,-0.00122061652578673,-0.000888985106359406,0.000248230684806332
0.17017017017017,0.000617607599643536,-0.000910147345941698,-0.00230117136074218,-0.00122061652578684,-0.000888985106359441,0.000248230684806384
0.18018018018018,0.000617607599643516,-0.000910147345941684,-0.00230117136074213,-0.0012206165257868,-0.000888985106359428,0.000248230684806364
0.19019019019019,0.000617607599643365,-0.000910147345941583,-0.00230117136074179,-0.00122061652578646,-0.000888985106359328,0.000248230684806213
0.2002002002002,0.000617607599642881,-0.00091014734594126,-0.00230117136074072,-0.00122061652578538,-0.000888985106359008,0.000248230684805729
0.21021021021021,0.000617607599641753,-0.000910147345940505,-0.0023011713607382,-0.00122061652578287,-0.000888985106358261,0.000248230684804601
0.22022022022022,0.000617607599639603,-0.000910147345939068,-0.00230117136073341,-0.00122061652577808,-0.000888985106356838,0.000248230684802451
0.23023023023023,0.000617607599636037,-0.000910147345936683,-0.00230117136072545,-0.00122061652577013,-0.000888985106354477,0.000248230684798885
0.24024024024024,0.000617607599630698,-0.000910147345933113,-0.00230117136071354,-0.00122061652575822,-0.000888985106350943,0.000248230684793546
0.25025025025025,0.000617607599623309,-0.000910147345928172,-0.00230117136069706,-0.00122061652574175,-0.000888985106346051,0.000248230684786157
0.26026026026026,0.000617607599613706,-0.00091014734592175,-0.00230117136067565,-0.00122061652572034,-0.000888985106339693,0.000248230684776554
0.27027027027027,0.000617607599601865,-0.000910147345913832,-0.00230117136064924,-0.00122061652569394,-0.000888985106331854,0.000248230684764713
0.28028028028028,0.000617607599587904,-0.000910147345904496,-0.0023011713606181,-0.00122061652566282,-0.000888985106322611,0.000248230684750752
0.29029029029029,0.00061760759957208,-0.000910147345893914,-0.00230117136058281,-0.00122061652562754,-0.000888985106312136,0.000248230684734928
0.3003003003003,0.00061760759955477,-0.000910147345882339,-0.0023011713605442,-0.00122061652558895,-0.000888985106300675,0.000248230684717618
0.31031031031031,0.000617607599536441,-0.000910147345870082,-0.00230117136050332,-0.00122061652554808,-0.00088898510628854,0.000248230684699289
0.32032032032032,0.000617607599517616,-0.000910147345857493,-0.00230117136046133,-0.00122061652550611,-0.000888985106276076,0.000248230684680464
0.33033033033033,0.000617607599498834,-0.000910147345844933,-0.00230117136041944,-0.00122061652546424,-0.000888985106263641,0.000248230684661682
0.34034034034034,0.000617607599480617,-0.000910147345832751,-0.0023011713603788,-0.00122061652542363,-0.00088898510625158,0.000248230684643465
0.35035035035035,0.000617607599463431,-0.000910147345821258,-0.00230117136034047,-0.00122061652538531,-0.000888985106240201,0.000248230684626279
0.36036036036036,0.000617607599447662,-0.000910147345810713,-0.0023011713603053,-0.00122061652535016,-0.000888985106229761,0.00024823068461051
0.37037037037037,0.000617607599433597,-0.000910147345801307,-0.00230117136027393,-0.0012206165253188,-0.000888985106220448,0.000248230684596445
0.38038038038038,0.000617607599421412,-0.000910147345793159,-0.00230117136024675,-0.00122061652529163,-0.00088898510621238,0.00024823068458426
0.39039039039039,0.000617607599411174,-0.000910147345786312,-0.00230117136022392,-0.00122061652526881,-0.000888985106205601,0.000248230684574022
0.4004004004004,0.000617607599402846,-0.000910147345780743,-0.00230117136020534,-0.00122061652525024,-0.000888985106200087,0.000248230684565694
0.41041041041041,0.000617607599396306,-0.000910147345776369,-0.00230117136019075,-0.00122061652523566,-0.000888985106195756,0.000248230684559154
0.42042042042042,0.000617607599391362,-0.000910147345773062,-0.00230117136017972,-0.00122061652522464,-0.000888985106192483,0.00024823068455421
0.43043043043043,0.00061760759938778,-0.000910147345770667,-0.00230117136017173,-0.00122061652521665,-0.000888985106190111,0.000248230684550628
0.44044044044044,0.000617607599385305,-0.000910147345769012,-0.00230117136016621,-0.00122061652521113,-0.000888985106188472,0.000248230684548152
0.45045045045045,0.000617607599383683,-0.000910147345767927,-0.0023011713601626,-0.00122061652520752,-0.000888985106187398,0.000248230684546531
0.46046046046046,0.000617607599382682,-0.000910147345767258,-0.00230117136016036,-0.00122061652520529,-0.000888985106186735,0.00024823068454553
0.47047047047047,0.000617607599382104,-0.000910147345766871,-0.00230117136015907,-0.001220616525204,-0.000888985106186352,0.000248230684544952
0.48048048048048,0.000617607599381792,-0.000910147345766663,-0.00230117136015838,-0.0012206165252033,-0.000888985106186146,0.00024823068454464
0.49049049049049,0.000617607599381637,-0.000910147345766559,-0.00230117136015803,-0.00122061652520296,-0.000888985106186043,0.000248230684544485
0.500500500500501,0.00061760759938157,-0.000910147345766515,-0.00230117136015788,-0.00122061652520281,-0.000888985106185999,0.000248230684544418
0.510510510510511,0.000617607599381563,-0.00091014734576651,-0.00230117136015787,-0.00122061652520279,-0.000888985106185994,0.000248230684544411
0.520520520520521,0.000617607599381612,-0.000910147345766542,-0.00230117136015798,-0.0012206165252029,-0.000888985106186027,0.00024823068454446
0.530530530530531,0.000617607599381733,-0.000910147345766623,-0.00230117136015825,-0.00122061652520317,-0.000888985106186107,0.000248230684544581
0.540540540540541,0.00061760759938195,-0.000910147345766769,-0.00230117136015873,-0.00122061652520365,-0.000888985106186251,0.000248230684544798
0.550550550550551,0.000617607599382288,-0.000910147345766994,-0.00230117136015948,-0.00122061652520441,-0.000888985106186474,0.000248230684545136
0.560560560560561,0.000617607599382763,-0.000910147345767312,-0.00230117136016055,-0.00122061652520547,-0.000888985106186789,0.000248230684545611
0.570570570570571,0.000617607599383385,-0.000910147345767728,-0.00230117136016193,-0.00122061652520685,-0.0008889851061872,0.000248230684546233
0.580580580580581,0.000617607599384148,-0.000910147345768238,-0.00230117136016363,-0.00122061652520855,-0.000888985106187706,0.000248230684546996
0.590590590590591,0.000617607599385038,-0.000910147345768833,-0.00230117136016562,-0.00122061652521054,-0.000888985106188295,0.000248230684547885
0.600600600600601,0.000617607599386029,-0.000910147345769496,-0.00230117136016783,-0.00122061652521275,-0.000888985106188951,0.000248230684548877
0.610610610610611,0.00061760759938709,-0.000910147345770206,-0.0023011713601702,-0.00122061652521511,-0.000888985106189654,0.000248230684549938
0.620620620620621,0.000617607599388186,-0.000910147345770939,-0.00230117136017264,-0.00122061652521756,-0.00088898510619038,0.000248230684551034
0.630630630630631,0.000617607599389282,-0.000910147345771672,-0.00230117136017509,-0.00122061652522,-0.000888985106191106,0.00024823068455213
0.640640640640641,0.000617607599390346,-0.000910147345772384,-0.00230117136017746,-0.00122061652522237,-0.000888985106191811,0.000248230684553194
0.650650650650651,0.000617607599391351,-0.000910147345773056,-0.0023011713601797,-0.00122061652522461,-0.000888985106192477,0.000248230684554199
0.660660660660661,0.000617607599392276,-0.000910147345773674,-0.00230117136018176,-0.00122061652522667,-0.000888985106193089,0.000248230684555124
0.670670670670671,0.000617607599393104,-0.000910147345774228,-0.00230117136018361,-0.00122061652522852,-0.000888985106193638,0.000248230684555952
0.680680680680681,0.000617607599393827,-0.000910147345774712,-0.00230117136018523,-0.00122061652523013,-0.000888985106194116,0.000248230684556675
0.690690690690691,0.000617607599394438,-0.000910147345775121,-0.00230117136018659,-0.0012206165252315,-0.000888985106194521,0.000248230684557286
0.700700700700701,0.000617607599394936,-0.000910147345775453,-0.0023011713601877,-0.0012206165252326,-0.000888985106194851,0.000248230684557783
0.710710710710711,0.000617607599395316,-0.000910147345775708,-0.00230117136018855,-0.00122061652523345,-0.000888985106195103,0.000248230684558164
0.720720720720721,0.000617607599395577,-0.000910147345775882,-0.00230117136018913,-0.00122061652523403,-0.000888985106195275,0.000248230684558425
0.730730730730731,0.000617607599395711,-0.000910147345775972,-0.00230117136018943,-0.00122061652523433,-0.000888985106195365,0.000248230684558559
0.740740740740741,0.00061760759939571,-0.000910147345775971,-0.00230117136018943,-0.00122061652523433,-0.000888985106195364,0.000248230684558558
0.750750750750751,0.000617607599395559,-0.00091014734577587,-0.00230117136018909,-0.00122061652523399,-0.000888985106195264,0.000248230684558407
0.760760760760761,0.000617607599395241,-0.000910147345775657,-0.00230117136018838,-0.00122061652523328,-0.000888985106195053,0.000248230684558088
0.770770770770771,0.000617607599394734,-0.000910147345775318,-0.00230117136018725,-0.00122061652523215,-0.000888985106194717,0.000248230684557582
0.780780780780781,0.000617607599394017,-0.000910147345774838,-0.00230117136018565,-0.00122061652523056,-0.000888985106194242,0.000248230684556864
0.790790790790791,0.000617607599393066,-0.000910147345774203,-0.00230117136018353,-0.00122061652522844,-0.000888985106193612,0.000248230684555914
0.800800800800801,0.000617607599391864,-0.000910147345773399,-0.00230117136018085,-0.00122061652522576,-0.000888985106192816,0.000248230684554711
0.810810810810811,0.000617607599390393,-0.000910147345772415,-0.00230117136017756,-0.00122061652522248,-0.000888985106191841,0.00024823068455324
0.820820820820821,0.000617607599388644,-0.000910147345771245,-0.00230117136017366,-0.00122061652521858,-0.000888985106190683,0.000248230684551492
0.830830830830831,0.000617607599386616,-0.000910147345769889,-0.00230117136016914,-0.00122061652521406,-0.000888985106189339,0.000248230684549464
0.840840840840841,0.000617607599384316,-0.000910147345768351,-0.00230117136016401,-0.00122061652520893,-0.000888985106187815,0.000248230684547164
0.850850850850851,0.000617607599381762,-0.000910147345766642,-0.00230117136015831,-0.00122061652520323,-0.000888985106186123,0.000248230684544609
0.860860860860861,0.000617607599378981,-0.000910147345764782,-0.00230117136015211,-0.00122061652519703,-0.000888985106184281,0.000248230684541829
0.870870870870871,0.000617607599376009,-0.000910147345762794,-0.00230117136014548,-0.00122061652519041,-0.000888985106182312,0.000248230684538857
0.880880880880881,0.000617607599372862,-0.000910147345760689,-0.00230117136013846,-0.00122061652518339,-0.000888985106180227,0.000248230684535709
0.890890890890891,0.000617607599369554,-0.000910147345758477,-0.00230117136013108,-0.00122061652517602,-0.000888985106178035,0.000248230684532402
0.900900900900901,0.000617607599366105,-0.000910147345756169,-0.00230117136012338,-0.00122061652516833,-0.00088898510617575,0.000248230684528953
0.910910910910911,0.000617607599362532,-0.000910147345753779,-0.00230117136011541,-0.00122061652516036,-0.000888985106173382,0.000248230684525379
0.920920920920921,0.000617607599358853,-0.000910147345751319,-0.0023011713601072,-0.00122061652515216,-0.000888985106170945,0.000248230684521701
0.930930930930931,0.000617607599355089,-0.000910147345748801,-0.00230117136009881,-0.00122061652514377,-0.000888985106168451,0.000248230684517937
0.940940940940941,0.000617607599351257,-0.000910147345746238,-0.00230117136009026,-0.00122061652513522,-0.000888985106165912,0.000248230684514105
0.950950950950951,0.000617607599347375,-0.000910147345743641,-0.0023011713600816,-0.00122061652512657,-0.00088898510616334,0.000248230684510223
0.960960960960961,0.00061760759934346,-0.000910147345741022,-0.00230117136007286,-0.00122061652511784,-0.000888985106160746,0.000248230684506308
0.970970970970971,0.000617607599339526,-0.000910147345738391,-0.00230117136006409,-0.00122061652510907,-0.000888985106158139,0.000248230684502374
0.980980980980981,0.000617607599335588,-0.000910147345735757,-0.0023011713600553,-0.00122061652510029,-0.00088898510615553,0.000248230684498436
0.990990990990991,0.000617607599331658,-0.000910147345733128,-0.00230117136004653,-0.00122061652509152,-0.000888985106152926,0.000248230684494506
1.001001001001,0.000617607599327746,-0.000910147345730511,-0.0023011713600378,-0.0012206165250828,-0.000888985106150334,0.000248230684490594
1.01101101101101,0.000617607599323862,-0.000910147345727913,-0.00230117136002914,-0.00122061652507414,-0.00088898510614776,0.000248230684486709
1.02102102102102,0.000617607599320012,-0.000910147345725338,-0.00230117136002055,-0.00122061652506556,-0.000888985106145209,0.00024823068448286
1.03103103103103,0.000617607599316205,-0.000910147345722791,-0.00230117136001205,-0.00122061652505707,-0.000888985106142686,0.000248230684479052
1.04104104104104,0.000617607599312454,-0.000910147345720282,-0.00230117136000369,-0.00122061652504871,-0.000888985106140201,0.000248230684475302
1.05105105105105,0.000617607599308783,-0.000910147345717826,-0.0023011713599955,-0.00122061652504052,-0.000888985106137768,0.000248230684471631
1.06106106106106,0.000617607599305209,-0.000910147345715436,-0.00230117135998752,-0.00122061652503255,-0.000888985106135399,0.000248230684468057
1.07107107107107,0.000617607599301748,-0.000910147345713121,-0.0023011713599798,-0.00122061652502484,-0.000888985106133106,0.000248230684464596
1.08108108108108,0.000617607599298415,-0.000910147345710891,-0.00230117135997236,-0.00122061652501741,-0.000888985106130897,0.000248230684461263
1.09109109109109,0.000617607599295221,-0.000910147345708754,-0.00230117135996524,-0.00122061652501029,-0.00088898510612878,0.000248230684458069
1.1011011011011,0.000617607599292175,-0.000910147345706717,-0.00230117135995844,-0.00122061652500349,-0.000888985106126762,0.000248230684455023
1.11111111111111,0.000617607599289284,-0.000910147345704783,-0.00230117135995199,-0.00122061652499705,-0.000888985106124846,0.000248230684452132
1.12112112112112,0.000617607599286553,-0.000910147345702956,-0.0023011713599459,-0.00122061652499096,-0.000888985106123036,0.000248230684449401
1.13113113113113,0.000617607599283984,-0.000910147345701237,-0.00230117135994017,-0.00122061652498523,-0.000888985106121333,0.000248230684446832
1.14114114114114,0.000617607599281577,-0.000910147345699627,-0.0023011713599348,-0.00122061652497987,-0.000888985106119738,0.000248230684444425
1.15115115115115,0.000617607599279331,-0.000910147345698125,-0.00230117135992979,-0.00122061652497486,-0.00088898510611825,0.000248230684442179
1.16116116116116,0.000617607599277243,-0.000910147345696728,-0.00230117135992513,-0.0012206165249702,-0.000888985106116865,0.00024823068444009
1.17117117117117,0.000617607599275307,-0.000910147345695433,-0.00230117135992081,-0.00122061652496589,-0.000888985106115583,0.000248230684438155
1.18118118118118,0.000617607599273519,-0.000910147345694237,-0.00230117135991682,-0.0012206165249619,-0.000888985106114397,0.000248230684436367
1.19119119119119,0.000617607599271871,-0.000910147345693134,-0.00230117135991314,-0.00122061652495823,-0.000888985106113305,0.000248230684434719
1.2012012012012,0.000617607599270357,-0.000910147345692121,-0.00230117135990976,-0.00122061652495485,-0.000888985106112302,0.000248230684433205
1.21121121121121,0.000617607599268968,-0.000910147345691192,-0.00230117135990667,-0.00122061652495175,-0.000888985106111381,0.000248230684431816
1.22122122122122,0.000617607599267697,-0.000910147345690342,-0.00230117135990383,-0.00122061652494892,-0.000888985106110538,0.000248230684430544
1.23123123123123,0.000617607599266534,-0.000910147345689564,-0.00230117135990123,-0.00122061652494633,-0.000888985106109768,0.000248230684429382
1.24124124124124,0.000617607599265472,-0.000910147345688854,-0.00230117135989887,-0.00122061652494396,-0.000888985106109064,0.00024823068442832
1.25125125125125,0.000617607599264503,-0.000910147345688205,-0.0023011713598967,-0.0012206165249418,-0.000888985106108421,0.000248230684427351
1.26126126126126,0.000617607599263618,-0.000910147345687613,-0.00230117135989473,-0.00122061652493982,-0.000888985106107835,0.000248230684426466
1.27127127127127,0.000617607599262809,-0.000910147345687072,-0.00230117135989292,-0.00122061652493802,-0.000888985106107299,0.000248230684425657
1.28128128128128,0.000617607599262069,-0.000910147345686577,-0.00230117135989127,-0.00122061652493637,-0.000888985106106808,0.000248230684424917
1.29129129129129,0.00061760759926139,-0.000910147345686123,-0.00230117135988976,-0.00122061652493486,-0.000888985106106358,0.000248230684424238
1.3013013013013,0.000617607599260765,-0.000910147345685705,-0.00230117135988836,-0.00122061652493346,-0.000888985106105944,0.000248230684423613
1.31131131131131,0.000617607599260187,-0.000910147345685318,-0.00230117135988707,-0.00122061652493217,-0.000888985106105561,0.000248230684423035
1.32132132132132,0.000617607599259649,-0.000910147345684958,-0.00230117135988587,-0.00122061652493097,-0.000888985106105204,0.000248230684422497
1.33133133133133,0.000617607599259144,-0.00091014734568462,-0.00230117135988475,-0.00122061652492985,-0.000888985106104869,0.000248230684421992
1.34134134134134,0.000617607599258667,-0.0009101473456843,-0.00230117135988368,-0.00122061652492878,-0.000888985106104553,0.000248230684421514
1.35135135135135,0.000617607599258209,-0.000910147345683995,-0.00230117135988266,-0.00122061652492776,-0.00088898510610425,0.000248230684421057
1.36136136136136,0.000617607599257767,-0.000910147345683698,-0.00230117135988167,-0.00122061652492678,-0.000888985106103956,0.000248230684420614
1.37137137137137,0.000617607599257332,-0.000910147345683408,-0.0023011713598807,-0.00122061652492581,-0.000888985106103668,0.00024823068442018
1.38138138138138,0.0006176075992569,-0.000910147345683119,-0.00230117135987974,-0.00122061652492485,-0.000888985106103382,0.000248230684419748
1.39139139139139,0.000617607599256465,-0.000910147345682828,-0.00230117135987877,-0.00122061652492388,-0.000888985106103093,0.000248230684419313
1.4014014014014,0.000617607599256021,-0.000910147345682531,-0.00230117135987778,-0.00122061652492289,-0.000888985106102799,0.000248230684418869
1.41141141141141,0.000617607599255563,-0.000910147345682224,-0.00230117135987675,-0.00122061652492186,-0.000888985106102495,0.00024823068441841
1.42142142142142,0.000617607599255084,-0.000910147345681903,-0.00230117135987569,-0.00122061652492079,-0.000888985106102177,0.000248230684417931
1.43143143143143,0.000617607599254579,-0.000910147345681566,-0.00230117135987456,-0.00122061652491967,-0.000888985106101843,0.000248230684417427
1.44144144144144,0.000617607599254044,-0.000910147345681208,-0.00230117135987337,-0.00122061652491848,-0.000888985106101488,0.000248230684416892
1.45145145145145,0.000617607599253473,-0.000910147345680826,-0.00230117135987209,-0.0012206165249172,-0.000888985106101109,0.00024823068441632
1.46146146146146,0.000617607599252861,-0.000910147345680416,-0.00230117135987073,-0.00122061652491584,-0.000888985106100703,0.000248230684415708
1.47147147147147,0.000617607599252202,-0.000910147345679976,-0.00230117135986926,-0.00122061652491437,-0.000888985106100267,0.00024823068441505
1.48148148148148,0.000617607599251493,-0.000910147345679501,-0.00230117135986767,-0.00122061652491279,-0.000888985106099796,0.00024823068441434
1.49149149149149,0.000617607599250728,-0.000910147345678989,-0.00230117135986597,-0.00122061652491108,-0.000888985106099289,0.000248230684413576
1.5015015015015,0.000617607599249903,-0.000910147345678437,-0.00230117135986413,-0.00122061652490924,-0.000888985106098742,0.000248230684412751
1.51151151151151,0.000617607599249014,-0.000910147345677843,-0.00230117135986214,-0.00122061652490726,-0.000888985106098153,0.000248230684411862
1.52152152152152,0.000617607599248057,-0.000910147345677202,-0.00230117135986001,-0.00122061652490513,-0.000888985106097518,0.000248230684410904
1.53153153153153,0.000617607599247027,-0.000910147345676513,-0.00230117135985771,-0.00122061652490283,-0.000888985106096836,0.000248230684409875
1.54154154154154,0.000617607599245923,-0.000910147345675775,-0.00230117135985525,-0.00122061652490037,-0.000888985106096103,0.000248230684408771
1.55155155155155,0.000617607599244741,-0.000910147345674984,-0.00230117135985261,-0.00122061652489773,-0.00088898510609532,0.000248230684407589
1.56156156156156,0.000617607599243479,-0.000910147345674139,-0.00230117135984979,-0.00122061652489492,-0.000888985106094483,0.000248230684406326
1.57157157157157,0.000617607599242135,-0.00091014734567324,-0.00230117135984679,-0.00122061652489192,-0.000888985106093591,0.000248230684404982
1.58158158158158,0.000617607599240708,-0.000910147345672285,-0.00230117135984361,-0.00122061652488874,-0.000888985106092645,0.000248230684403556
1.59159159159159,0.000617607599239198,-0.000910147345671275,-0.00230117135984024,-0.00122061652488538,-0.000888985106091644,0.000248230684402046
1.6016016016016,0.000617607599237605,-0.00091014734567021,-0.00230117135983668,-0.00122061652488182,-0.000888985106090588,0.000248230684400453
1.61161161161161,0.000617607599235931,-0.000910147345669089,-0.00230117135983295,-0.00122061652487809,-0.000888985106089477,0.000248230684398778
1.62162162162162,0.000617607599234177,-0.000910147345667916,-0.00230117135982903,-0.00122061652487418,-0.000888985106088314,0.000248230684397025
1.63163163163163,0.000617607599232347,-0.000910147345666691,-0.00230117135982495,-0.0012206165248701,-0.000888985106087101,0.000248230684395194
1.64164164164164,0.000617607599230443,-0.000910147345665418,-0.0023011713598207,-0.00122061652486586,-0.000888985106085838,0.000248230684393291
1.65165165165165,0.000617607599228472,-0.000910147345664099,-0.0023011713598163,-0.00122061652486146,-0.000888985106084531,0.000248230684391319
1.66166166166166,0.000617607599226437,-0.000910147345662737,-0.00230117135981176,-0.00122061652485692,-0.000888985106083182,0.000248230684389285
1.67167167167167,0.000617607599224346,-0.000910147345661338,-0.0023011713598071,-0.00122061652485226,-0.000888985106081795,0.000248230684387193
1.68168168168168,0.000617607599222204,-0.000910147345659905,-0.00230117135980232,-0.00122061652484748,-0.000888985106080375,0.000248230684385052
1.69169169169169,0.00061760759922002,-0.000910147345658443,-0.00230117135979744,-0.00122061652484261,-0.000888985106078926,0.000248230684382867
1.7017017017017,0.0006176075992178,-0.000910147345656958,-0.00230117135979249,-0.00122061652483766,-0.000888985106077454,0.000248230684380647
1.71171171171171,0.000617607599215553,-0.000910147345655455,-0.00230117135978747,-0.00122061652483265,-0.000888985106075963,0.0002482306843784
1.72172172172172,0.000617607599213287,-0.000910147345653939,-0.00230117135978242,-0.0012206165248276,-0.000888985106074461,0.000248230684376135
1.73173173173173,0.000617607599211011,-0.000910147345652416,-0.00230117135977734,-0.00122061652482253,-0.000888985106072951,0.000248230684373858
1.74174174174174,0.000617607599208732,-0.000910147345650891,-0.00230117135977225,-0.00122061652481745,-0.00088898510607144,0.00024823068437158
1.75175175175175,0.00061760759920646,-0.00091014734564937,-0.00230117135976718,-0.00122061652481238,-0.000888985106069932,0.000248230684369307
1.76176176176176,0.000617607599204201,-0.000910147345647859,-0.00230117135976214,-0.00122061652480734,-0.000888985106068434,0.000248230684367048
1.77177177177177,0.000617607599201963,-0.000910147345646362,-0.00230117135975715,-0.00122061652480235,-0.00088898510606695,0.000248230684364811
1.78178178178178,0.000617607599199754,-0.000910147345644883,-0.00230117135975221,-0.00122061652479743,-0.000888985106065485,0.000248230684362601
1.79179179179179,0.00061760759919758,-0.000910147345643428,-0.00230117135974736,-0.00122061652479258,-0.000888985106064043,0.000248230684360427
1.8018018018018,0.000617607599195446,-0.000910147345642,-0.0023011713597426,-0.00122061652478782,-0.000888985106062627,0.000248230684358293
1.81181181181181,0.000617607599193358,-0.000910147345640603,-0.00230117135973794,-0.00122061652478317,-0.000888985106061242,0.000248230684356205
1.82182182182182,0.00061760759919132,-0.000910147345639239,-0.00230117135973339,-0.00122061652477862,-0.00088898510605989,0.000248230684354167
1.83183183183183,0.000617607599189336,-0.000910147345637912,-0.00230117135972896,-0.0012206165247742,-0.000888985106058574,0.000248230684352183
1.84184184184184,0.000617607599187409,-0.000910147345636622,-0.00230117135972466,-0.0012206165247699,-0.000888985106057296,0.000248230684350256
1.85185185185185,0.00061760759918554,-0.000910147345635372,-0.00230117135972049,-0.00122061652476573,-0.000888985106056057,0.000248230684348387
1.86186186186186,0.000617607599183733,-0.000910147345634162,-0.00230117135971646,-0.0012206165247617,-0.000888985106054858,0.00024823068434658
1.87187187187187,0.000617607599181986,-0.000910147345632994,-0.00230117135971256,-0.00122061652475781,-0.000888985106053699,0.000248230684344833
1.88188188188188,0.000617607599180301,-0.000910147345631866,-0.0023011713597088,-0.00122061652475405,-0.000888985106052582,0.000248230684343149
1.89189189189189,0.000617607599178678,-0.00091014734563078,-0.00230117135970518,-0.00122061652475043,-0.000888985106051505,0.000248230684341525
1.9019019019019,0.000617607599177115,-0.000910147345629734,-0.00230117135970169,-0.00122061652474695,-0.000888985106050468,0.000248230684339962
1.91191191191191,0.00061760759917561,-0.000910147345628727,-0.00230117135969833,-0.00122061652474359,-0.00088898510604947,0.000248230684338457
1.92192192192192,0.000617607599174163,-0.000910147345627759,-0.0023011713596951,-0.00122061652474037,-0.00088898510604851,0.00024823068433701
1.93193193193193,0.000617607599172771,-0.000910147345626827,-0.00230117135969199,-0.00122061652473726,-0.000888985106047586,0.000248230684335618
1.94194194194194,0.000617607599171431,-0.000910147345625931,-0.002301171359689,-0.00122061652473427,-0.000888985106046697,0.000248230684334278
1.95195195195195,0.000617607599170141,-0.000910147345625067,-0.00230117135968612,-0.0012206165247314,-0.000888985106045841,0.000248230684332988
1.96196196196196,0.000617607599168897,-0.000910147345624235,-0.00230117135968335,-0.00122061652472862,-0.000888985106045016,0.000248230684331744
1.97197197197197,0.000617607599167697,-0.000910147345623432,-0.00230117135968067,-0.00122061652472595,-0.00088898510604422,0.000248230684330544
1.98198198198198,0.000617607599166537,-0.000910147345622656,-0.00230117135967808,-0.00122061652472336,-0.000888985106043451,0.000248230684329384
1.99199199199199,0.000617607599165414,-0.000910147345621904,-0.00230117135967557,-0.00122061652472086,-0.000888985106042705,0.000248230684328261
2.002002002002,0.000617607599164323,-0.000910147345621174,-0.00230117135967314,-0.00122061652471843,-0.000888985106041982,0.00024823068432717
2.01201201201201,0.000617607599163262,-0.000910147345620464,-0.00230117135967077,-0.00122061652471606,-0.000888985106041278,0.00024823068432611
2.02202202202202,0.000617607599162227,-0.000910147345619772,-0.00230117135966846,-0.00122061652471375,-0.000888985106040591,0.000248230684325075
2.03203203203203,0.000617607599161213,-0.000910147345619093,-0.0023011713596662,-0.00122061652471149,-0.000888985106039918,0.00024823068432406
2.04204204204204,0.000617607599160205,-0.000910147345618419,-0.00230117135966395,-0.00122061652470924,-0.00088898510603925,0.000248230684323052
2.05205205205205,0.000617607599159183,-0.000910147345617735,-0.00230117135966167,-0.00122061652470697,-0.000888985106038572,0.000248230684322031
2.06206206206206,0.000617607599158128,-0.000910147345617029,-0.00230117135965931,-0.00122061652470461,-0.000888985106037872,0.000248230684320976
2.07207207207207,0.00061760759915702,-0.000910147345616287,-0.00230117135965684,-0.00122061652470214,-0.000888985106037136,0.000248230684319867
2.08208208208208,0.000617607599155838,-0.000910147345615496,-0.0023011713596542,-0.00122061652469951,-0.000888985106036352,0.000248230684318685
2.09209209209209,0.00061760759915456,-0.000910147345614641,-0.00230117135965135,-0.00122061652469666,-0.000888985106035504,0.000248230684317407
2.1021021021021,0.000617607599153165,-0.000910147345613707,-0.00230117135964824,-0.00122061652469355,-0.000888985106034578,0.000248230684316012
2.11211211211211,0.000617607599151627,-0.000910147345612678,-0.0023011713596448,-0.00122061652469012,-0.000888985106033558,0.000248230684314474
2.12212212212212,0.00061760759914992,-0.000910147345611536,-0.00230117135964099,-0.00122061652468631,-0.000888985106032426,0.000248230684312768
2.13213213213213,0.000617607599148017,-0.000910147345610262,-0.00230117135963675,-0.00122061652468207,-0.000888985106031163,0.000248230684310865
2.14214214214214,0.000617607599145887,-0.000910147345608836,-0.00230117135963199,-0.00122061652467732,-0.000888985106029749,0.000248230684308734
2.15215215215215,0.000617607599143495,-0.000910147345607236,-0.00230117135962665,-0.00122061652467199,-0.000888985106028162,0.000248230684306342
2.16216216216216,0.000617607599140807,-0.000910147345605437,-0.00230117135962065,-0.00122061652466599,-0.000888985106026378,0.000248230684303655
2.17217217217217,0.000617607599137785,-0.000910147345603414,-0.00230117135961391,-0.00122061652465925,-0.000888985106024373,0.000248230684300632
2.18218218218218,0.000617607599134388,-0.000910147345601141,-0.00230117135960633,-0.00122061652465168,-0.000888985106022119,0.000248230684297236
2.19219219219219,0.000617607599130577,-0.00091014734559859,-0.00230117135959782,-0.00122061652464318,-0.000888985106019589,0.000248230684293424
2.2022022022022,0.000617607599126308,-0.000910147345595734,-0.00230117135958829,-0.00122061652463366,-0.000888985106016757,0.000248230684289156
2.21221221221221,0.000617607599121542,-0.000910147345592544,-0.00230117135957765,-0.00122061652462304,-0.000888985106013594,0.00024823068428439
2.22222222222222,0.00061760759911624,-0.000910147345588996,-0.00230117135956582,-0.00122061652461121,-0.000888985106010076,0.000248230684279088
2.23223223223223,0.000617607599110366,-0.000910147345585064,-0.00230117135955271,-0.00122061652459812,-0.000888985106006177,0.000248230684273213
2.24224224224224,0.000617607599103888,-0.000910147345580729,-0.00230117135953825,-0.00122061652458367,-0.000888985106001878,0.000248230684266736
2.25225225225225,0.000617607599096782,-0.000910147345575973,-0.00230117135952239,-0.00122061652456783,-0.000888985105997163,0.00024823068425963
2.26226226226226,0.00061760759908903,-0.000910147345570785,-0.00230117135950508,-0.00122061652455054,-0.000888985105992018,0.000248230684251878
2.27227227227227,0.000617607599080623,-0.000910147345565159,-0.00230117135948632,-0.0012206165245318,-0.000888985105986438,0.000248230684243471
2.28228228228228,0.000617607599071562,-0.000910147345559095,-0.00230117135946609,-0.00122061652451159,-0.000888985105980425,0.00024823068423441
2.29229229229229,0.000617607599061859,-0.0009101473455526,-0.00230117135944443,-0.00122061652448996,-0.000888985105973985,0.000248230684224706
2.3023023023023,0.000617607599051536,-0.000910147345545691,-0.00230117135942139,-0.00122061652446694,-0.000888985105967134,0.000248230684214384
2.31231231231231,0.000617607599040628,-0.000910147345538391,-0.00230117135939704,-0.00122061652444262,-0.000888985105959894,0.000248230684203476
2.32232232232232,0.000617607599029181,-0.00091014734553073,-0.00230117135937149,-0.00122061652441709,-0.000888985105952297,0.000248230684192028
2.33233233233233,0.000617607599017252,-0.000910147345522745,-0.00230117135934486,-0.00122061652439049,-0.000888985105944379,0.000248230684180099
2.34234234234234,0.000617607599004906,-0.000910147345514483,-0.0023011713593173,-0.00122061652436296,-0.000888985105936185,0.000248230684167754
2.35235235235235,0.000617607598992221,-0.000910147345505993,-0.00230117135928899,-0.00122061652433468,-0.000888985105927765,0.000248230684155068
2.36236236236236,0.000617607598979278,-0.00091014734549733,-0.00230117135926009,-0.00122061652430582,-0.000888985105919175,0.000248230684142125
2.37237237237237,0.000617607598966167,-0.000910147345488555,-0.00230117135923083,-0.00122061652427658,-0.000888985105910472,0.000248230684129014
2.38238238238238,0.000617607598952979,-0.000910147345479729,-0.00230117135920139,-0.00122061652424718,-0.000888985105901719,0.000248230684115826
2.39239239239239,0.00061760759893981,-0.000910147345470914,-0.00230117135917199,-0.00122061652421781,-0.000888985105892977,0.000248230684102657
2.4024024024024,0.000617607598926752,-0.000910147345462175,-0.00230117135914284,-0.00122061652418869,-0.00088898510588431,0.000248230684089599
2.41241241241241,0.000617607598913897,-0.000910147345453571,-0.00230117135911415,-0.00122061652416003,-0.000888985105875777,0.000248230684076744
2.42242242242242,0.000617607598901333,-0.000910147345445161,-0.0023011713590861,-0.00122061652413201,-0.000888985105867437,0.00024823068406418
2.43243243243243,0.00061760759888914,-0.000910147345437001,-0.00230117135905888,-0.00122061652410483,-0.000888985105859344,0.000248230684051987
2.44244244244244,0.000617607598877393,-0.000910147345429138,-0.00230117135903266,-0.00122061652407863,-0.000888985105851546,0.00024823068404024
2.45245245245245,0.000617607598866157,-0.000910147345421618,-0.00230117135900758,-0.00122061652405358,-0.000888985105844087,0.000248230684029004
2.46246246246246,0.000617607598855488,-0.000910147345414477,-0.00230117135898376,-0.00122061652402979,-0.000888985105837005,0.000248230684018335
2.47247247247247,0.00061760759884543,-0.000910147345407745,-0.00230117135896131,-0.00122061652400736,-0.000888985105830328,0.000248230684008277
2.48248248248248,0.000617607598836019,-0.000910147345401446,-0.0023011713589403,-0.00122061652398638,-0.000888985105824081,0.000248230683998866
2.49249249249249,0.000617607598827279,-0.000910147345395596,-0.00230117135892079,-0.00122061652396689,-0.000888985105818279,0.000248230683990126
2.5025025025025,0.000617607598819223,-0.000910147345390204,-0.00230117135890281,-0.00122061652394893,-0.000888985105812931,0.000248230683982071
2.51251251251251,0.000617607598811856,-0.000910147345385273,-0.00230117135888636,-0.0012206165239325,-0.000888985105808041,0.000248230683974704
2.52252252252252,0.000617607598805172,-0.000910147345380799,-0.00230117135887144,-0.00122061652391759,-0.000888985105803603,0.000248230683968019
2.53253253253253,0.000617607598799151,-0.000910147345376769,-0.002301171358858,-0.00122061652390417,-0.000888985105799606,0.000248230683961998
2.54254254254254,0.000617607598793787,-0.000910147345373179,-0.00230117135884602,-0.00122061652389221,-0.000888985105796045,0.000248230683956634
2.55255255255255,0.000617607598789093,-0.000910147345370037,-0.00230117135883554,-0.00122061652388174,-0.000888985105792928,0.00024823068395194
2.56256256256256,0.000617607598785058,-0.000910147345367336,-0.00230117135882654,-0.00122061652387274,-0.00088898510579025,0.000248230683947906
2.57257257257257,0.000617607598781662,-0.000910147345365063,-0.00230117135881896,-0.00122061652386517,-0.000888985105787995,0.000248230683944509
2.58258258258258,0.00061760759877887,-0.000910147345363194,-0.00230117135881272,-0.00122061652385894,-0.000888985105786141,0.000248230683941717
2.59259259259259,0.00061760759877664,-0.000910147345361701,-0.00230117135880774,-0.00122061652385397,-0.000888985105784661,0.000248230683939487
2.6026026026026,0.000617607598774921,-0.000910147345360551,-0.00230117135880391,-0.00122061652385014,-0.000888985105783519,0.000248230683937768
2.61261261261261,0.000617607598773657,-0.000910147345359705,-0.00230117135880109,-0.00122061652384732,-0.00088898510578268,0.000248230683936504
2.62262262262262,0.00061760759877279,-0.000910147345359124,-0.00230117135879915,-0.00122061652384539,-0.000888985105782104,0.000248230683935637
2.63263263263263,0.000617607598772257,-0.000910147345358767,-0.00230117135879796,-0.0012206165238442,-0.000888985105781751,0.000248230683935104
2.64264264264264,0.000617607598771999,-0.000910147345358595,-0.00230117135879739,-0.00122061652384362,-0.00088898510578158,0.000248230683934847
2.65265265265265,0.000617607598771959,-0.000910147345358568,-0.0023011713587973,-0.00122061652384354,-0.000888985105781553,0.000248230683934807
2.66266266266266,0.000617607598772083,-0.000910147345358651,-0.00230117135879757,-0.00122061652384381,-0.000888985105781636,0.000248230683934931
2.67267267267267,0.000617607598772322,-0.000910147345358811,-0.00230117135879811,-0.00122061652384434,-0.000888985105781794,0.000248230683935169
2.68268268268268,0.000617607598772632,-0.000910147345359019,-0.0023011713587988,-0.00122061652384504,-0.000888985105782,0.00024823068393548
2.69269269269269,0.000617607598772977,-0.00091014734535925,-0.00230117135879957,-0.0012206165238458,-0.000888985105782229,0.000248230683935824
2.7027027027027,0.000617607598773325,-0.000910147345359482,-0.00230117135880035,-0.00122061652384658,-0.00088898510578246,0.000248230683936172
2.71271271271271,0.000617607598773651,-0.000910147345359701,-0.00230117135880107,-0.00122061652384731,-0.000888985105782677,0.000248230683936499
2.72272272272272,0.000617607598773937,-0.000910147345359892,-0.00230117135880171,-0.00122061652384794,-0.000888985105782867,0.000248230683936784
2.73273273273273,0.000617607598774167,-0.000910147345360046,-0.00230117135880223,-0.00122061652384846,-0.00088898510578302,0.000248230683937015
2.74274274274274,0.000617607598774333,-0.000910147345360157,-0.0023011713588026,-0.00122061652384883,-0.00088898510578313,0.00024823068393718
2.75275275275275,0.000617607598774429,-0.000910147345360221,-0.00230117135880281,-0.00122061652384904,-0.000888985105783193,0.000248230683937276
2.76276276276276,0.000617607598774452,-0.000910147345360236,-0.00230117135880286,-0.00122061652384909,-0.000888985105783208,0.000248230683937299
2.77277277277277,0.000617607598774402,-0.000910147345360203,-0.00230117135880275,-0.00122061652384898,-0.000888985105783176,0.00024823068393725
2.78278278278278,0.000617607598774283,-0.000910147345360123,-0.00230117135880248,-0.00122061652384872,-0.000888985105783096,0.00024823068393713
2.79279279279279,0.000617607598774097,-0.000910147345359999,-0.00230117135880207,-0.0012206165238483,-0.000888985105782973,0.000248230683936944
2.8028028028028,0.00061760759877385,-0.000910147345359833,-0.00230117135880152,-0.00122061652384775,-0.000888985105782809,0.000248230683936697
2.81281281281281,0.000617607598773546,-0.00091014734535963,-0.00230117135880084,-0.00122061652384707,-0.000888985105782607,0.000248230683936393
2.82282282282282,0.000617607598773193,-0.000910147345359394,-0.00230117135880005,-0.00122061652384629,-0.000888985105782372,0.00024823068393604
2.83283283283283,0.000617607598772795,-0.000910147345359128,-0.00230117135879916,-0.0012206165238454,-0.000888985105782108,0.000248230683935643
2.84284284284284,0.00061760759877236,-0.000910147345358837,-0.00230117135879819,-0.00122061652384443,-0.00088898510578182,0.000248230683935208
2.85285285285285,0.000617607598771894,-0.000910147345358524,-0.00230117135879715,-0.00122061652384339,-0.00088898510578151,0.000248230683934742
2.86286286286286,0.000617607598771403,-0.000910147345358196,-0.00230117135879605,-0.00122061652384229,-0.000888985105781184,0.00024823068393425
2.87287287287287,0.000617607598770893,-0.000910147345357854,-0.00230117135879491,-0.00122061652384116,-0.000888985105780845,0.000248230683933741
2.88288288288288,0.00061760759877037,-0.000910147345357504,-0.00230117135879375,-0.00122061652383999,-0.000888985105780498,0.000248230683933218
2.89289289289289,0.00061760759876984,-0.000910147345357149,-0.00230117135879256,-0.00122061652383881,-0.000888985105780146,0.000248230683932688
2.9029029029029,0.000617607598769308,-0.000910147345356793,-0.00230117135879138,-0.00122061652383762,-0.000888985105779792,0.000248230683932156
2.91291291291291,0.00061760759876878,-0.000910147345356439,-0.0023011713587902,-0.00122061652383645,-0.000888985105779441,0.000248230683931627
2.92292292292292,0.000617607598768259,-0.000910147345356091,-0.00230117135878903,-0.00122061652383528,-0.000888985105779095,0.000248230683931106
2.93293293293293,0.00061760759876775,-0.00091014734535575,-0.0023011713587879,-0.00122061652383415,-0.000888985105778758,0.000248230683930598
2.94294294294294,0.000617607598767257,-0.00091014734535542,-0.0023011713587868,-0.00122061652383305,-0.00088898510577843,0.000248230683930105
2.95295295295295,0.000617607598766782,-0.000910147345355102,-0.00230117135878574,-0.00122061652383199,-0.000888985105778115,0.00024823068392963
2.96296296296296,0.000617607598766328,-0.000910147345354798,-0.00230117135878472,-0.00122061652383098,-0.000888985105777813,0.000248230683929176
2.97297297297297,0.000617607598765895,-0.000910147345354509,-0.00230117135878376,-0.00122061652383001,-0.000888985105777526,0.000248230683928743
2.98298298298298,0.000617607598765484,-0.000910147345354233,-0.00230117135878284,-0.0012206165238291,-0.000888985105777252,0.000248230683928332
2.99299299299299,0.000617607598765094,-0.000910147345353972,-0.00230117135878197,-0.00122061652382823,-0.000888985105776993,0.000248230683927941
3.003003003003,0.000617607598764723,-0.000910147345353724,-0.00230117135878114,-0.0012206165238274,-0.000888985105776747,0.00024823068392757
3.01301301301301,0.000617607598764368,-0.000910147345353486,-0.00230117135878035,-0.00122061652382661,-0.000888985105776511,0.000248230683927216
3.02302302302302,0.000617607598764026,-0.000910147345353257,-0.00230117135877958,-0.00122061652382585,-0.000888985105776284,0.000248230683926874
3.03303303303303,0.000617607598763697,-0.000910147345353037,-0.00230117135877885,-0.00122061652382511,-0.000888985105776065,0.000248230683926545
3.04304304304304,0.000617607598763387,-0.000910147345352829,-0.00230117135877816,-0.00122061652382442,-0.000888985105775859,0.000248230683926234
3.05305305305305,0.000617607598763103,-0.000910147345352639,-0.00230117135877752,-0.00122061652382379,-0.000888985105775671,0.000248230683925951
3.06306306306306,0.000617607598762853,-0.000910147345352472,-0.00230117135877697,-0.00122061652382323,-0.000888985105775505,0.000248230683925701
3.07307307307307,0.000617607598762644,-0.000910147345352332,-0.0023011713587765,-0.00122061652382276,-0.000888985105775366,0.000248230683925492
3.08308308308308,0.000617607598762481,-0.000910147345352223,-0.00230117135877614,-0.0012206165238224,-0.000888985105775258,0.000248230683925329
3.09309309309309,0.000617607598762372,-0.00091014734535215,-0.00230117135877589,-0.00122061652382216,-0.000888985105775185,0.000248230683925219
3.1031031031031,0.00061760759876232,-0.000910147345352115,-0.00230117135877577,-0.00122061652382204,-0.00088898510577515,0.000248230683925167
3.11311311311311,0.00061760759876233,-0.000910147345352122,-0.0023011713587758,-0.00122061652382206,-0.000888985105775157,0.000248230683925178
3.12312312312312,0.000617607598762408,-0.000910147345352174,-0.00230117135877597,-0.00122061652382224,-0.000888985105775209,0.000248230683925256
3.13313313313313,0.000617607598762555,-0.000910147345352273,-0.0023011713587763,-0.00122061652382257,-0.000888985105775307,0.000248230683925403
3.14314314314314,0.000617607598762775,-0.00091014734535242,-0.00230117135877679,-0.00122061652382306,-0.000888985105775453,0.000248230683925623
3.15315315315315,0.000617607598763069,-0.000910147345352617,-0.00230117135877745,-0.00122061652382371,-0.000888985105775648,0.000248230683925917
3.16316316316316,0.000617607598763438,-0.000910147345352864,-0.00230117135877827,-0.00122061652382454,-0.000888985105775894,0.000248230683926286
3.17317317317317,0.000617607598763883,-0.000910147345353162,-0.00230117135877926,-0.00122061652382553,-0.000888985105776189,0.000248230683926731
3.18318318318318,0.000617607598764403,-0.00091014734535351,-0.00230117135878042,-0.00122061652382669,-0.000888985105776534,0.00024823068392725
3.19319319319319,0.000617607598764996,-0.000910147345353907,-0.00230117135878175,-0.00122061652382801,-0.000888985105776928,0.000248230683927843
3.2032032032032,0.00061760759876566,-0.000910147345354351,-0.00230117135878323,-0.00122061652382949,-0.00088898510577737,0.000248230683928508
3.21321321321321,0.000617607598766393,-0.000910147345354842,-0.00230117135878487,-0.00122061652383112,-0.000888985105777856,0.00024823068392924
3.22322322322322,0.00061760759876719,-0.000910147345355376,-0.00230117135878665,-0.0012206165238329,-0.000888985105778386,0.000248230683930038
3.23323323323323,0.000617607598768049,-0.000910147345355951,-0.00230117135878857,-0.00122061652383482,-0.000888985105778957,0.000248230683930896
3.24324324324324,0.000617607598768963,-0.000910147345356563,-0.00230117135879061,-0.00122061652383686,-0.000888985105779564,0.000248230683931811
3.25325325325325,0.000617607598769928,-0.000910147345357209,-0.00230117135879276,-0.00122061652383901,-0.000888985105780206,0.000248230683932776
3.26326326326326,0.000617607598770938,-0.000910147345357885,-0.00230117135879502,-0.00122061652384126,-0.000888985105780877,0.000248230683933786
3.27327327327327,0.000617607598771987,-0.000910147345358587,-0.00230117135879736,-0.0012206165238436,-0.000888985105781573,0.000248230683934834
3.28328328328328,0.000617607598773067,-0.00091014734535931,-0.00230117135879977,-0.00122061652384601,-0.000888985105782291,0.000248230683935914
3.29329329329329,0.000617607598774171,-0.00091014734536005,-0.00230117135880224,-0.00122061652384847,-0.000888985105783025,0.000248230683937019
3.3033033033033,0.000617607598775293,-0.000910147345360801,-0.00230117135880474,-0.00122061652385097,-0.00088898510578377,0.00024823068393814
3.31331331331331,0.000617607598776423,-0.000910147345361558,-0.00230117135880727,-0.00122061652385349,-0.000888985105784522,0.000248230683939271
3.32332332332332,0.000617607598777555,-0.000910147345362315,-0.00230117135880979,-0.00122061652385601,-0.000888985105785273,0.000248230683940402
3.33333333333333,0.000617607598778678,-0.000910147345363067,-0.0023011713588123,-0.00122061652385852,-0.00088898510578602,0.000248230683941525
3.34334334334334,0.000617607598779784,-0.000910147345363808,-0.00230117135881477,-0.00122061652386099,-0.000888985105786755,0.000248230683942632
3.35335335335335,0.000617607598780865,-0.000910147345364532,-0.00230117135881719,-0.0012206165238634,-0.000888985105787473,0.000248230683943712
3.36336336336336,0.00061760759878191,-0.000910147345365231,-0.00230117135881952,-0.00122061652386573,-0.000888985105788168,0.000248230683944757
3.37337337337337,0.00061760759878291,-0.000910147345365901,-0.00230117135882175,-0.00122061652386796,-0.000888985105788832,0.000248230683945757
3.38338338338338,0.000617607598783863,-0.000910147345366539,-0.00230117135882388,-0.00122061652387008,-0.000888985105789466,0.000248230683946711
3.39339339339339,0.000617607598784769,-0.000910147345367146,-0.0023011713588259,-0.0012206165238721,-0.000888985105790068,0.000248230683947617
3.4034034034034,0.000617607598785631,-0.000910147345367723,-0.00230117135882783,-0.00122061652387402,-0.000888985105790641,0.000248230683948479
3.41341341341341,0.000617607598786454,-0.000910147345368274,-0.00230117135882967,-0.00122061652387586,-0.000888985105791187,0.000248230683949301
3.42342342342342,0.000617607598787244,-0.000910147345368803,-0.00230117135883143,-0.00122061652387762,-0.000888985105791712,0.000248230683950091
3.43343343343343,0.000617607598788009,-0.000910147345369316,-0.00230117135883314,-0.00122061652387933,-0.000888985105792221,0.000248230683950857
3.44344344344344,0.000617607598788761,-0.000910147345369819,-0.00230117135883482,-0.001220616523881,-0.000888985105792721,0.000248230683951609
3.45345345345345,0.000617607598789508,-0.000910147345370319,-0.00230117135883649,-0.00122061652388267,-0.000888985105793218,0.000248230683952356
3.46346346346346,0.000617607598790261,-0.000910147345370823,-0.00230117135883817,-0.00122061652388435,-0.000888985105793718,0.000248230683953108
3.47347347347347,0.000617607598791028,-0.000910147345371337,-0.00230117135883988,-0.00122061652388606,-0.000888985105794228,0.000248230683953876
3.48348348348348,0.000617607598791818,-0.000910147345371866,-0.00230117135884165,-0.00122061652388782,-0.000888985105794753,0.000248230683954666
3.49349349349349,0.000617607598792638,-0.000910147345372415,-0.00230117135884348,-0.00122061652388965,-0.000888985105795298,0.000248230683955486
3.5035035035035,0.000617607598793493,-0.000910147345372987,-0.00230117135884539,-0.00122061652389156,-0.000888985105795866,0.000248230683956341
3.51351351351351,0.000617607598794386,-0.000910147345373585,-0.00230117135884738,-0.00122061652389355,-0.00088898510579646,0.000248230683957234
3.52352352352352,0.000617607598795319,-0.00091014734537421,-0.00230117135884946,-0.00122061652389563,-0.00088898510579708,0.000248230683958166
3.53353353353353,0.000617607598796291,-0.000910147345374861,-0.00230117135885163,-0.0012206165238978,-0.000888985105797726,0.000248230683959139
3.54354354354354,0.000617607598797301,-0.000910147345375537,-0.00230117135885389,-0.00122061652390005,-0.000888985105798398,0.000248230683960149
3.55355355355355,0.000617607598798346,-0.000910147345376237,-0.00230117135885622,-0.00122061652390238,-0.000888985105799092,0.000248230683961194
3.56356356356356,0.000617607598799422,-0.000910147345376958,-0.00230117135885863,-0.00122061652390478,-0.000888985105799807,0.00024823068396227
3.57357357357357,0.000617607598800524,-0.000910147345377695,-0.00230117135886109,-0.00122061652390723,-0.00088898510580054,0.000248230683963371
3.58358358358358,0.000617607598801645,-0.000910147345378446,-0.00230117135886359,-0.00122061652390974,-0.000888985105801285,0.000248230683964493
3.59359359359359,0.000617607598802782,-0.000910147345379207,-0.00230117135886613,-0.00122061652391227,-0.000888985105802041,0.00024823068396563
3.6036036036036,0.000617607598803927,-0.000910147345379974,-0.00230117135886869,-0.00122061652391482,-0.000888985105802802,0.000248230683966775
3.61361361361361,0.000617607598805075,-0.000910147345380743,-0.00230117135887125,-0.00122061652391739,-0.000888985105803566,0.000248230683967923
3.62362362362362,0.000617607598806222,-0.000910147345381511,-0.00230117135887382,-0.00122061652391994,-0.000888985105804328,0.00024823068396907
3.63363363363363,0.000617607598807363,-0.000910147345382275,-0.00230117135887636,-0.00122061652392249,-0.000888985105805086,0.000248230683970211
3.64364364364364,0.000617607598808494,-0.000910147345383033,-0.00230117135887889,-0.00122061652392501,-0.000888985105805838,0.000248230683971342
3.65365365365365,0.000617607598809612,-0.000910147345383781,-0.00230117135888139,-0.0012206165239275,-0.000888985105806581,0.00024823068397246
3.66366366366366,0.000617607598810715,-0.00091014734538452,-0.00230117135888385,-0.00122061652392996,-0.000888985105807315,0.000248230683973563
3.67367367367367,0.000617607598811802,-0.000910147345385247,-0.00230117135888628,-0.00122061652393238,-0.000888985105808037,0.000248230683974649
3.68368368368368,0.000617607598812871,-0.000910147345385963,-0.00230117135888866,-0.00122061652393477,-0.000888985105808748,0.000248230683975719
3.69369369369369,0.000617607598813923,-0.000910147345386668,-0.00230117135889101,-0.00122061652393711,-0.000888985105809447,0.000248230683976771
3.7037037037037,0.000617607598814958,-0.000910147345387362,-0.00230117135889333,-0.00122061652393942,-0.000888985105810136,0.000248230683977806
3.71371371371371,0.000617607598815979,-0.000910147345388045,-0.0023011713588956,-0.0012206165239417,-0.000888985105810814,0.000248230683978827
3.72372372372372,0.000617607598816986,-0.000910147345388719,-0.00230117135889785,-0.00122061652394395,-0.000888985105811484,0.000248230683979834
3.73373373373373,0.000617607598817981,-0.000910147345389386,-0.00230117135890008,-0.00122061652394616,-0.000888985105812145,0.000248230683980829
3.74374374374374,0.000617607598818967,-0.000910147345390046,-0.00230117135890228,-0.00122061652394836,-0.000888985105812801,0.000248230683981815
3.75375375375375,0.000617607598819946,-0.000910147345390702,-0.00230117135890447,-0.00122061652395055,-0.000888985105813452,0.000248230683982795
3.76376376376376,0.000617607598820922,-0.000910147345391355,-0.00230117135890664,-0.00122061652395272,-0.000888985105814101,0.00024823068398377
3.77377377377377,0.000617607598821895,-0.000910147345392007,-0.00230117135890882,-0.00122061652395489,-0.000888985105814748,0.000248230683984743
3.78378378378378,0.00061760759882287,-0.00091014734539266,-0.00230117135891099,-0.00122061652395707,-0.000888985105815396,0.000248230683985718
3.79379379379379,0.000617607598823848,-0.000910147345393314,-0.00230117135891318,-0.00122061652395925,-0.000888985105816046,0.000248230683986696
3.8038038038038,0.000617607598824831,-0.000910147345393973,-0.00230117135891537,-0.00122061652396144,-0.0008889851058167,0.000248230683987679
3.81381381381381,0.000617607598825822,-0.000910147345394636,-0.00230117135891759,-0.00122061652396365,-0.000888985105817358,0.000248230683988669
3.82382382382382,0.000617607598826821,-0.000910147345395306,-0.00230117135891982,-0.00122061652396588,-0.000888985105818023,0.000248230683989669
3.83383383383383,0.000617607598827831,-0.000910147345395982,-0.00230117135892208,-0.00122061652396813,-0.000888985105818695,0.000248230683990679
3.84384384384384,0.000617607598828852,-0.000910147345396666,-0.00230117135892436,-0.00122061652397041,-0.000888985105819374,0.0002482306839917
3.85385385385385,0.000617607598829886,-0.000910147345397358,-0.00230117135892666,-0.00122061652397271,-0.000888985105820061,0.000248230683992734
3.86386386386386,0.000617607598830932,-0.000910147345398059,-0.002301171358929,-0.00122061652397505,-0.000888985105820757,0.00024823068399378
3.87387387387387,0.000617607598831991,-0.000910147345398768,-0.00230117135893137,-0.00122061652397741,-0.000888985105821461,0.000248230683994838
3.88388388388388,0.000617607598833062,-0.000910147345399485,-0.00230117135893376,-0.0012206165239798,-0.000888985105822173,0.00024823068399591
3.89389389389389,0.000617607598834146,-0.000910147345400211,-0.00230117135893618,-0.00122061652398221,-0.000888985105822894,0.000248230683996993
3.9039039039039,0.00061760759883524,-0.000910147345400944,-0.00230117135893862,-0.00122061652398465,-0.000888985105823622,0.000248230683998088
3.91391391391391,0.000617607598836346,-0.000910147345401684,-0.00230117135894109,-0.00122061652398712,-0.000888985105824357,0.000248230683999193
3.92392392392392,0.00061760759883746,-0.000910147345402431,-0.00230117135894358,-0.0012206165239896,-0.000888985105825098,0.000248230684000308
3.93393393393393,0.000617607598838584,-0.000910147345403183,-0.00230117135894609,-0.00122061652399211,-0.000888985105825845,0.000248230684001431
3.94394394394394,0.000617607598839714,-0.00091014734540394,-0.00230117135894862,-0.00122061652399463,-0.000888985105826597,0.000248230684002562
3.95395395395395,0.000617607598840851,-0.000910147345404702,-0.00230117135895116,-0.00122061652399716,-0.000888985105827353,0.000248230684003698
3.96396396396396,0.000617607598841992,-0.000910147345405466,-0.00230117135895371,-0.00122061652399971,-0.000888985105828112,0.00024823068400484
3.97397397397397,0.000617607598843137,-0.000910147345406233,-0.00230117135895626,-0.00122061652400226,-0.000888985105828873,0.000248230684005985
3.98398398398398,0.000617607598844285,-0.000910147345407001,-0.00230117135895883,-0.00122061652400482,-0.000888985105829637,0.000248230684007133
3.99399399399399,0.000617607598845434,-0.000910147345407771,-0.00230117135896139,-0.00122061652400739,-0.000888985105830401,0.000248230684008282
4.004004004004,0.000617607598846584,-0.000910147345408541,-0.00230117135896396,-0.00122061652400995,-0.000888985105831166,0.000248230684009432
4.01401401401401,0.000617607598847734,-0.000910147345409312,-0.00230117135896653,-0.00122061652401252,-0.000888985105831931,0.000248230684010582
4.02402402402402,0.000617607598848883,-0.000910147345410081,-0.0023011713589691,-0.00122061652401508,-0.000888985105832695,0.000248230684011731
4.03403403403403,0.00061760759885003,-0.000910147345410849,-0.00230117135897166,-0.00122061652401764,-0.000888985105833458,0.000248230684012878
4.04404404404404,0.000617607598851175,-0.000910147345411616,-0.00230117135897422,-0.00122061652402019,-0.00088898510583422,0.000248230684014023
4.05405405405405,0.000617607598852318,-0.000910147345412381,-0.00230117135897677,-0.00122061652402274,-0.000888985105834979,0.000248230684015166
4.06406406406406,0.000617607598853458,-0.000910147345413145,-0.00230117135897932,-0.00122061652402528,-0.000888985105835738,0.000248230684016305
4.07407407407407,0.000617607598854594,-0.000910147345413906,-0.00230117135898185,-0.00122061652402781,-0.000888985105836493,0.000248230684017442
4.08408408408408,0.000617607598855726,-0.000910147345414664,-0.00230117135898438,-0.00122061652403034,-0.000888985105837247,0.000248230684018574
4.09409409409409,0.000617607598856853,-0.000910147345415419,-0.0023011713589869,-0.00122061652403285,-0.000888985105837996,0.000248230684019701
4.1041041041041,0.000617607598857973,-0.000910147345416169,-0.0023011713589894,-0.00122061652403535,-0.000888985105838741,0.000248230684020821
4.11411411411411,0.000617607598859082,-0.000910147345416912,-0.00230117135899188,-0.00122061652403782,-0.000888985105839479,0.00024823068402193
4.12412412412412,0.000617607598860178,-0.000910147345417646,-0.00230117135899433,-0.00122061652404027,-0.000888985105840208,0.000248230684023026
4.13413413413413,0.000617607598861257,-0.000910147345418368,-0.00230117135899674,-0.00122061652404267,-0.000888985105840925,0.000248230684024105
4.14414414414414,0.000617607598862313,-0.000910147345419076,-0.0023011713589991,-0.00122061652404503,-0.000888985105841628,0.000248230684025161
4.15415415415415,0.000617607598863343,-0.000910147345419765,-0.0023011713590014,-0.00122061652404732,-0.000888985105842313,0.00024823068402619
4.16416416416416,0.000617607598864339,-0.000910147345420433,-0.00230117135900362,-0.00122061652404955,-0.000888985105842975,0.000248230684027187
4.17417417417417,0.000617607598865297,-0.000910147345421075,-0.00230117135900576,-0.00122061652405168,-0.000888985105843613,0.000248230684028145
4.18418418418418,0.000617607598866211,-0.000910147345421687,-0.00230117135900781,-0.00122061652405372,-0.000888985105844221,0.000248230684029059
4.19419419419419,0.000617607598867076,-0.000910147345422266,-0.00230117135900974,-0.00122061652405565,-0.000888985105844796,0.000248230684029924
4.2042042042042,0.000617607598867887,-0.000910147345422809,-0.00230117135901155,-0.00122061652405746,-0.000888985105845335,0.000248230684030734
4.21421421421421,0.000617607598868636,-0.000910147345423311,-0.00230117135901322,-0.00122061652405913,-0.000888985105845834,0.000248230684031484
4.22422422422422,0.000617607598869318,-0.000910147345423768,-0.00230117135901474,-0.00122061652406065,-0.000888985105846287,0.000248230684032166
4.23423423423423,0.000617607598869927,-0.000910147345424176,-0.0023011713590161,-0.00122061652406201,-0.000888985105846693,0.000248230684032774
4.24424424424424,0.000617607598870458,-0.000910147345424531,-0.00230117135901729,-0.00122061652406319,-0.000888985105847046,0.000248230684033305
4.25425425425425,0.000617607598870906,-0.000910147345424832,-0.00230117135901829,-0.00122061652406419,-0.000888985105847344,0.000248230684033754
4.26426426426426,0.00061760759887127,-0.000910147345425075,-0.00230117135901911,-0.001220616524065,-0.000888985105847586,0.000248230684034118
4.27427427427427,0.000617607598871547,-0.000910147345425261,-0.00230117135901972,-0.00122061652406562,-0.000888985105847771,0.000248230684034395
4.28428428428428,0.000617607598871737,-0.000910147345425388,-0.00230117135902015,-0.00122061652406604,-0.000888985105847897,0.000248230684034585
4.29429429429429,0.000617607598871841,-0.000910147345425457,-0.00230117135902038,-0.00122061652406627,-0.000888985105847966,0.000248230684034688
4.3043043043043,0.00061760759887186,-0.00091014734542547,-0.00230117135902042,-0.00122061652406632,-0.000888985105847979,0.000248230684034708
4.31431431431431,0.000617607598871799,-0.000910147345425429,-0.00230117135902029,-0.00122061652406618,-0.000888985105847938,0.000248230684034646
4.32432432432432,0.000617607598871661,-0.000910147345425337,-0.00230117135901998,-0.00122061652406588,-0.000888985105847846,0.000248230684034509
4.33433433433433,0.000617607598871453,-0.000910147345425198,-0.00230117135901952,-0.00122061652406541,-0.000888985105847708,0.000248230684034301
4.34434434434434,0.000617607598871181,-0.000910147345425016,-0.00230117135901891,-0.0012206165240648,-0.000888985105847527,0.000248230684034029
4.35435435435435,0.000617607598870852,-0.000910147345424795,-0.00230117135901817,-0.00122061652406407,-0.000888985105847308,0.000248230684033699
4.36436436436436,0.000617607598870472,-0.000910147345424541,-0.00230117135901732,-0.00122061652406322,-0.000888985105847055,0.000248230684033319
4.37437437437437,0.00061760759887005,-0.000910147345424258,-0.00230117135901638,-0.00122061652406228,-0.000888985105846774,0.000248230684032897
4.38438438438438,0.000617607598869592,-0.000910147345423951,-0.00230117135901536,-0.00122061652406126,-0.00088898510584647,0.00024823068403244
4.39439439439439,0.000617607598869107,-0.000910147345423626,-0.00230117135901427,-0.00122061652406018,-0.000888985105846147,0.000248230684031955
4.4044044044044,0.000617607598868602,-0.000910147345423288,-0.00230117135901315,-0.00122061652405905,-0.000888985105845811,0.000248230684031449
4.41441441441441,0.000617607598868083,-0.000910147345422941,-0.00230117135901199,-0.0012206165240579,-0.000888985105845466,0.000248230684030931
4.42442442442442,0.000617607598867558,-0.000910147345422588,-0.00230117135901081,-0.00122061652405672,-0.000888985105845116,0.000248230684030405
4.43443443443443,0.000617607598867031,-0.000910147345422236,-0.00230117135900964,-0.00122061652405555,-0.000888985105844765,0.000248230684029878
4.44444444444444,0.000617607598866509,-0.000910147345421886,-0.00230117135900847,-0.00122061652405438,-0.000888985105844418,0.000248230684029356
4.45445445445445,0.000617607598865996,-0.000910147345421543,-0.00230117135900732,-0.00122061652405324,-0.000888985105844077,0.000248230684028844
4.46446446446446,0.000617607598865498,-0.000910147345421209,-0.00230117135900621,-0.00122061652405213,-0.000888985105843745,0.000248230684028346
4.47447447447447,0.000617607598865018,-0.000910147345420887,-0.00230117135900514,-0.00122061652405106,-0.000888985105843426,0.000248230684027866
4.48448448448448,0.00061760759886456,-0.000910147345420581,-0.00230117135900412,-0.00122061652405004,-0.000888985105843121,0.000248230684027408
4.49449449449449,0.000617607598864128,-0.000910147345420291,-0.00230117135900315,-0.00122061652404907,-0.000888985105842834,0.000248230684026976
4.5045045045045,0.000617607598863724,-0.00091014734542002,-0.00230117135900225,-0.00122061652404817,-0.000888985105842565,0.000248230684026572
4.51451451451451,0.000617607598863351,-0.000910147345419771,-0.00230117135900141,-0.00122061652404734,-0.000888985105842316,0.000248230684026199
4.52452452452452,0.000617607598863012,-0.000910147345419543,-0.00230117135900066,-0.00122061652404658,-0.000888985105842091,0.000248230684025859
4.53453453453453,0.000617607598862707,-0.000910147345419339,-0.00230117135899998,-0.00122061652404591,-0.000888985105841888,0.000248230684025555
4.54454454454454,0.00061760759886244,-0.00091014734541916,-0.00230117135899938,-0.00122061652404531,-0.00088898510584171,0.000248230684025287
4.55455455455455,0.00061760759886221,-0.000910147345419006,-0.00230117135899887,-0.0012206165240448,-0.000888985105841557,0.000248230684025058
4.56456456456456,0.000617607598862019,-0.000910147345418878,-0.00230117135899844,-0.00122061652404437,-0.00088898510584143,0.000248230684024867
4.57457457457457,0.000617607598861867,-0.000910147345418777,-0.0023011713589981,-0.00122061652404403,-0.000888985105841329,0.000248230684024715
4.58458458458458,0.000617607598861753,-0.0009101473454187,-0.00230117135899784,-0.00122061652404378,-0.000888985105841253,0.000248230684024601
4.59459459459459,0.000617607598861677,-0.000910147345418649,-0.00230117135899767,-0.00122061652404361,-0.000888985105841202,0.000248230684024524
4.6046046046046,0.000617607598861637,-0.000910147345418622,-0.00230117135899758,-0.00122061652404352,-0.000888985105841175,0.000248230684024484
4.61461461461461,0.00061760759886163,-0.000910147345418618,-0.00230117135899757,-0.0012206165240435,-0.000888985105841171,0.000248230684024478
4.62462462462462,0.000617607598861655,-0.000910147345418634,-0.00230117135899762,-0.00122061652404356,-0.000888985105841187,0.000248230684024502
4.63463463463463,0.000617607598861707,-0.000910147345418669,-0.00230117135899774,-0.00122061652404368,-0.000888985105841222,0.000248230684024555
4.64464464464464,0.000617607598861784,-0.000910147345418721,-0.00230117135899791,-0.00122061652404385,-0.000888985105841273,0.000248230684024631
4.65465465465465,0.00061760759886188,-0.000910147345418785,-0.00230117135899813,-0.00122061652404406,-0.000888985105841338,0.000248230684024728
4.66466466466466,0.000617607598861992,-0.00091014734541886,-0.00230117135899838,-0.00122061652404431,-0.000888985105841412,0.000248230684024839
4.67467467467467,0.000617607598862114,-0.000910147345418942,-0.00230117135899865,-0.00122061652404458,-0.000888985105841493,0.000248230684024961
4.68468468468468,0.000617607598862241,-0.000910147345419027,-0.00230117135899893,-0.00122061652404487,-0.000888985105841578,0.000248230684025089
4.69469469469469,0.000617607598862368,-0.000910147345419112,-0.00230117135899922,-0.00122061652404515,-0.000888985105841662,0.000248230684025216
4.7047047047047,0.00061760759886249,-0.000910147345419194,-0.00230117135899949,-0.00122061652404542,-0.000888985105841743,0.000248230684025337
4.71471471471471,0.000617607598862601,-0.000910147345419268,-0.00230117135899974,-0.00122061652404567,-0.000888985105841818,0.000248230684025449
4.72472472472472,0.000617607598862698,-0.000910147345419333,-0.00230117135899995,-0.00122061652404588,-0.000888985105841882,0.000248230684025545
4.73473473473473,0.000617607598862774,-0.000910147345419384,-0.00230117135900012,-0.00122061652404605,-0.000888985105841932,0.000248230684025621
4.74474474474474,0.000617607598862826,-0.000910147345419419,-0.00230117135900024,-0.00122061652404617,-0.000888985105841967,0.000248230684025674
4.75475475475475,0.000617607598862851,-0.000910147345419436,-0.0023011713590003,-0.00122061652404623,-0.000888985105841984,0.000248230684025698
4.76476476476476,0.000617607598862844,-0.000910147345419431,-0.00230117135900028,-0.00122061652404621,-0.000888985105841979,0.000248230684025692
4.77477477477477,0.000617607598862804,-0.000910147345419404,-0.00230117135900019,-0.00122061652404612,-0.000888985105841953,0.000248230684025652
4.78478478478478,0.000617607598862728,-0.000910147345419354,-0.00230117135900002,-0.00122061652404595,-0.000888985105841902,0.000248230684025576
4.79479479479479,0.000617607598862615,-0.000910147345419278,-0.00230117135899977,-0.0012206165240457,-0.000888985105841827,0.000248230684025462
4.8048048048048,0.000617607598862463,-0.000910147345419176,-0.00230117135899943,-0.00122061652404536,-0.000888985105841726,0.000248230684025311
4.81481481481481,0.000617607598862272,-0.000910147345419048,-0.002301171358999,-0.00122061652404494,-0.000888985105841598,0.000248230684025119
4.82482482482482,0.000617607598862041,-0.000910147345418894,-0.00230117135899849,-0.00122061652404442,-0.000888985105841445,0.000248230684024889
4.83483483483483,0.000617607598861772,-0.000910147345418713,-0.00230117135899789,-0.00122061652404382,-0.000888985105841266,0.00024823068402462
4.84484484484484,0.000617607598861464,-0.000910147345418507,-0.0023011713589972,-0.00122061652404313,-0.000888985105841061,0.000248230684024312
4.85485485485485,0.000617607598861119,-0.000910147345418275,-0.00230117135899642,-0.00122061652404236,-0.000888985105840831,0.000248230684023966
4.86486486486486,0.000617607598860736,-0.000910147345418019,-0.00230117135899557,-0.00122061652404151,-0.000888985105840576,0.000248230684023583
4.87487487487487,0.000617607598860318,-0.000910147345417739,-0.00230117135899464,-0.00122061652404058,-0.000888985105840298,0.000248230684023165
4.88488488488488,0.000617607598859866,-0.000910147345417435,-0.00230117135899363,-0.00122061652403957,-0.000888985105839997,0.000248230684022713
4.89489489489489,0.00061760759885938,-0.00091014734541711,-0.00230117135899254,-0.00122061652403849,-0.000888985105839673,0.000248230684022227
4.9049049049049,0.000617607598858863,-0.000910147345416763,-0.00230117135899138,-0.00122061652403733,-0.000888985105839329,0.00024823068402171
4.91491491491491,0.000617607598858314,-0.000910147345416396,-0.00230117135899016,-0.00122061652403611,-0.000888985105838963,0.000248230684021161
4.92492492492492,0.000617607598857735,-0.000910147345416008,-0.00230117135898886,-0.00122061652403482,-0.000888985105838578,0.000248230684020582
4.93493493493493,0.000617607598857126,-0.0009101473454156,-0.0023011713589875,-0.00122061652403346,-0.000888985105838173,0.000248230684019974
4.94494494494494,0.000617607598856488,-0.000910147345415173,-0.00230117135898608,-0.00122061652403204,-0.000888985105837748,0.000248230684019336
4.95495495495495,0.000617607598855821,-0.000910147345414726,-0.00230117135898459,-0.00122061652403055,-0.000888985105837304,0.000248230684018668
4.96496496496496,0.000617607598855124,-0.000910147345414259,-0.00230117135898303,-0.00122061652402899,-0.00088898510583684,0.000248230684017971
4.97497497497497,0.000617607598854397,-0.000910147345413771,-0.00230117135898141,-0.00122061652402737,-0.000888985105836356,0.000248230684017244
4.98498498498498,0.000617607598853638,-0.000910147345413263,-0.00230117135897971,-0.00122061652402568,-0.00088898510583585,0.000248230684016486
4.99499499499499,0.000617607598852847,-0.000910147345412733,-0.00230117135897794,-0.00122061652402392,-0.000888985105835323,0.000248230684015694
