data1,data2,data3,data4,data5,data6,data7
0,-0.000963275901941499,-0.000711045611691823,0.000247455579442337,0.000143494014041228,0.000758776773405675,0.000547624640494649
0.0100008334027836,-0.000963275889566356,-0.000711045619953859,0.000247455551827506,0.000143493986426398,0.00075877676514364,0.000547624652869792
0.0200016668055671,-0.000963275801898222,-0.000711045678483866,0.000247455356198217,0.000143493790797095,0.000758776706613614,0.000547624740537925
0.0300025002083507,-0.000963275111949928,-0.000711046139113368,0.000247453816597506,0.000143492251191025,0.000758776245976568,0.00054762543048622
0.0400033336111343,-0.000963279129436738,-0.000711043457015048,0.000247462781402333,0.000143501216312138,0.000758778928527578,0.00054762141299941
0.0500041670139178,-0.000963323598477549,-0.000711013764959411,0.000247562016645105,0.000143600442374023,0.00075880860878577,0.000547576943958598
0.0600050004167014,-0.000963679724388018,-0.000710775699842893,0.000248357057140756,0.000144394576363399,0.000759045468985446,0.00054722081804813
0.070005833819485,-0.000966277402080851,-0.000709023544702927,0.000254174172338029,0.000150158007235713,0.000760726802263004,0.000544623140355297
0.0800066672222685,-0.000975651299754474,-0.000702385391742579,0.000275492508921625,0.000170284179215639,0.000765880040398321,0.000535249242681674
0.0900075006250521,-0.00097973176309946,-0.000699219741703999,0.00028500884159514,0.000178352458189171,0.000767365077045671,0.000531168779336688
0.100008334027836,-0.000979729942700279,-0.000699221383689483,0.000285004433620384,0.000178349497791293,0.000767365011897767,0.000531170599735869
0.110009167430619,-0.000979730493223061,-0.000699220824699234,0.000285005793560722,0.00017835019576814,0.000767364891269895,0.000531170049213086
0.120010000833403,-0.000979730779280946,-0.000699220533718978,0.000285006500249844,0.000178350557804645,0.000767364828373468,0.000531169763155202
0.130010834236186,-0.000979730979972279,-0.000699220329431531,0.000285006996044651,0.000178350812080157,0.000767364784472362,0.000531169562463869
0.14001166763897,-0.000979731147080537,-0.000699220159212318,0.000285007408873374,0.000178351024042357,0.000767364748106761,0.000531169395355611
0.150012501041753,-0.000979731292952892,-0.000699220010523876,0.000285007769239084,0.000178351209277348,0.000767364716528613,0.000531169249483256
0.160013334444537,-0.000979731412615893,-0.000699219888469381,0.00028500806485558,0.00017835136140368,0.000767364690761338,0.000531169129820255
0.170014167847321,-0.000979731492300173,-0.000699219807139382,0.00028500826170748,0.000178351462820841,0.000767364673693785,0.000531169050135974
0.180015001250104,-0.000979731515326913,-0.000699219783623522,0.000285008318592482,0.000178351492157313,0.000767364668784947,0.000531169027109235
0.190015834652888,-0.000979731467412046,-0.000699219832598306,0.00028500820022472,0.000178351431023639,0.000767364678928518,0.000531169075024102
0.200016668055671,-0.000979731341989452,-0.00069921996087804,0.000285007890384573,0.000178351270833285,0.000767364705346793,0.000531169200446696
0.210017501458455,-0.000979731147483343,-0.000699220159950846,0.000285007409883628,0.000178351022151474,0.000767364746105895,0.000531169394952805
0.220018334861238,-0.000979730917626208,-0.000699220395366717,0.000285006842053437,0.00017835072798251,0.000767364794032304,0.00053116962480994
0.230019168264022,-0.000979730715728106,-0.000699220602286271,0.000285006343292298,0.000178350469361089,0.000767364835931526,0.000531169826708043
0.240020001666806,-0.000979730607692545,-0.000699220713072347,0.000285006076405321,0.000178350330873512,0.00076736485826605,0.000531169934743603
0.250020835069589,-0.000979730596542689,-0.000699220724493812,0.000285006048860978,0.000178350316606373,0.00076736486059156,0.000531169945893459
0.260021668472373,-0.000979730597658445,-0.000699220723347537,0.000285006051617288,0.000178350318040487,0.00076736486036409,0.000531169944777703
0.270022501875156,-0.000979730539226937,-0.000699220783434595,0.000285005907270907,0.000178350242840501,0.000767364872195044,0.000531170003209211
0.28002333527794,-0.000979730447372862,-0.000699220877944614,0.000285005680359879,0.000178350124510262,0.000767364890701089,0.000531170095063286
0.290024168680723,-0.000979730368983175,-0.000699220958650378,0.000285005486711443,0.000178350023413133,0.000767364906406206,0.000531170173452974
0.300025002083507,-0.000979730309707883,-0.000699221019716442,0.000285005340282572,0.000178349946879843,0.000767364918212658,0.000531170232728265
0.310025835486291,-0.000979730264704302,-0.000699221066110381,0.000285005229109831,0.000178349888708028,0.000767364927124219,0.000531170277731846
0.320026668889074,-0.000979730233402703,-0.000699221098400694,0.000285005151785497,0.000178349848202602,0.000767364933286463,0.000531170309033445
0.330027502291858,-0.000979730215082949,-0.000699221117311838,0.000285005106530364,0.000178349824470214,0.000767364936872062,0.0005311703273532
0.340028335694641,-0.000979730208045181,-0.000699221124581535,0.000285005089145081,0.000178349815343544,0.000767364938241767,0.000531170334390967
0.350029169097425,-0.000979730210610485,-0.000699221121929301,0.000285005095482082,0.000178349818675053,0.00076736493774639,0.000531170331825664
0.360030002500208,-0.000979730221664372,-0.000699221110494282,0.000285005122788137,0.000178349833043524,0.000767364935622397,0.000531170320771777
0.370030835902992,-0.000979730240696259,-0.000699221090792809,0.000285005169801847,0.000178349857808655,0.000767364931986969,0.00053117030173989
0.380031669305775,-0.000979730267621191,-0.000699221062901319,0.000285005236313246,0.000178349892882267,0.000767364926874656,0.000531170274814957
0.390032502708559,-0.00097973030250982,-0.00069922102673498,0.000285005322496764,0.000178349938378585,0.000767364920290323,0.000531170239926329
0.400033336111343,-0.000979730345236044,-0.00069922098241267,0.000285005428040826,0.000178349994155109,0.000767364912275983,0.000531170197200104
0.410034169514126,-0.000979730395043167,-0.000699220930707792,0.000285005551076158,0.000178350059244523,0.000767364902990799,0.000531170147392982
0.42003500291691,-0.00097973045011229,-0.000699220873498404,0.000285005687109653,0.000178350131286571,0.0007673648927882,0.000531170092323859
0.430035836319693,-0.000979730507352001,-0.000699220813989084,0.00028500582850486,0.000178350206246881,0.000767364882249776,0.000531170035084148
0.440036669722477,-0.000979730562696153,-0.000699220756405388,0.000285005965217548,0.000178350278800633,0.000767364872124968,0.000531169979739995
0.45003750312526,-0.00097973061201382,-0.00069922070505024,0.000285006087043473,0.000178350343521735,0.000767364863161036,0.000531169930422329
0.460038336528044,-0.000979730652277616,-0.00069922066308769,0.000285006186504326,0.000178350396417266,0.000767364855891324,0.000531169890158533
0.470039169930828,-0.000979730682273585,-0.00069922063179948,0.000285006260601318,0.00017835043586642,0.000767364850512428,0.000531169860162564
0.480040003333611,-0.000979730702372831,-0.000699220610816875,0.000285006310251099,0.000178350462329048,0.000767364846933141,0.000531169840063318
0.490040836736395,-0.000979730713646,-0.000699220599039134,0.000285006338098392,0.000178350477187518,0.000767364844939265,0.000531169828790148
0.500041670139178,-0.000979730717116812,-0.000699220595410578,0.000285006346672067,0.000178350481766761,0.000767364844329173,0.000531169825319336
0.510042503541962,-0.000979730713688841,-0.000699220598997319,0.000285006338204256,0.000178350477237921,0.000767364844926758,0.000531169828747308
0.520043336944745,-0.000979730704603604,-0.000699220608508902,0.000285006315761909,0.00017835046522286,0.000767364846500786,0.000531169837832544
0.530044170347529,-0.000979730691886588,-0.000699220621831113,0.000285006284348513,0.000178350448385587,0.000767364848688702,0.000531169850549561
0.540045003750313,-0.00097973067833399,-0.000699220636038324,0.000285006250871299,0.000178350430419125,0.000767364851002281,0.000531169864102158
0.550045837153096,-0.000979730666952444,-0.000699220647979136,0.00028500622275719,0.000178350415307684,0.000767364852927036,0.000531169875483704
0.56004667055588,-0.000979730660113702,-0.000699220655162577,0.000285006205864707,0.000178350406206553,0.00076736485406684,0.000531169882322446
0.570047503958663,-0.000979730658880143,-0.000699220656467556,0.000285006202817912,0.000178350404542271,0.000767364854254606,0.000531169883556006
0.580048337361447,-0.000979730662912767,-0.000699220652242708,0.000285006212779244,0.000178350409882031,0.000767364853561253,0.000531169879523381
0.59004917076423,-0.00097973067107772,-0.000699220643672669,0.000285006232947789,0.000178350420732347,0.000767364852187969,0.000531169871358428
0.600050004167014,-0.000979730682462424,-0.000699220631711869,0.000285006261069277,0.000178350435888511,0.00076736485029462,0.000531169859973725
0.610050837569797,-0.000979730697260722,-0.000699220616152903,0.000285006297622444,0.000178350455617188,0.000767364847855853,0.000531169845175426
0.620051670972581,-0.000979730717061494,-0.000699220595319863,0.000285006346531853,0.00017835048204894,0.000767364844619676,0.000531169825374655
0.630052504375365,-0.000979730744402256,-0.00069922056653476,0.000285006414065184,0.000178350518590071,0.000767364840186548,0.000531169798033892
0.640053337778148,-0.000979730781791089,-0.000699220527145662,0.000285006506417277,0.000178350568619413,0.000767364834171135,0.00053116976064506
0.650054171180932,-0.000979730830576066,-0.000699220475718797,0.000285006626917593,0.000178350633973494,0.000767364826382512,0.000531169711860082
0.660055004583715,-0.000979730890034004,-0.000699220413002875,0.000285006773779472,0.000178350713717295,0.000767364816962852,0.000531169652402145
0.670055837986499,-0.000979730956938858,-0.000699220342389843,0.00028500693903421,0.000178350803551979,0.000767364806445169,0.00053116958549729
0.680056671389282,-0.000979731025722902,-0.000699220269750716,0.000285007108929355,0.000178350896015899,0.000767364795715897,0.000531169516713247
0.690057504792066,-0.000979731089186554,-0.000699220202691026,0.000285007265682147,0.00017835098142514,0.000767364785893509,0.000531169453249595
0.70005833819485,-0.000979731139565645,-0.000699220149426287,0.000285007390115731,0.000178351049301485,0.000767364778156744,0.000531169402870504
0.710059171597633,-0.000979731169674821,-0.000699220117574029,0.000285007464483279,0.000178351089912088,0.000767364773568084,0.000531169372761327
0.720060005000417,-0.000979731173865276,-0.000699220113139294,0.000285007474833369,0.000178351095568003,0.000767364772932604,0.000531169368570872
0.7300608384032,-0.000979731148668308,-0.000699220139830107,0.000285007412599293,0.000178351061505541,0.000767364776709832,0.00053116939376784
0.740061671805984,-0.000979731093173409,-0.000699220198651954,0.000285007275532667,0.000178350986412446,0.000767364784968641,0.000531169449262739
0.750062505208767,-0.000979731009303865,-0.000699220287608915,0.000285007068383985,0.000178350872816287,0.000767364797358708,0.000531169533132284
0.760063338611551,-0.000979730902126494,-0.000699220401366509,0.000285006803667624,0.00017835072751872,0.000767364813077468,0.000531169640309654
0.770064172014335,-0.000979730780153116,-0.000699220530921119,0.000285006502406535,0.000178350562018107,0.000767364830838821,0.000531169762283032
0.780065005417118,-0.000979730655312003,-0.000699220663618298,0.000285006194061961,0.0001783503924839,0.000767364848890173,0.000531169887124145
0.790065838819902,-0.000979730542008899,-0.000699220784139549,0.000285005914214482,0.00017835023849257,0.00076736486515952,0.000531170000427249
0.800066672222685,-0.000979730454674569,-0.000699220877104737,0.000285005698506851,0.000178350119700366,0.000767364877613711,0.000531170087761579
0.810067505625469,-0.000979730403688582,-0.000699220931415599,0.000285005572576026,0.000178350050294258,0.000767364884835148,0.000531170138747566
0.820068339028252,-0.000979730390695537,-0.000699220945264118,0.000285005540484346,0.000178350032594458,0.000767364886664232,0.000531170151740611
0.830069172431036,-0.00097973040564484,-0.000699220929318783,0.00028500557740779,0.000178350052978943,0.000767364884576886,0.000531170136791308
0.84007000583382,-0.000979730428223251,-0.000699220905227514,0.000285005633174477,0.000178350083779373,0.000767364881435884,0.000531170114212896
0.850070839236603,-0.000979730434578448,-0.00069922089845815,0.00028500564887198,0.000178350092408109,0.00076736488052084,0.0005311701078577
0.860071672639387,-0.000979730406787051,-0.000699220928182442,0.000285005580232886,0.000178350054285258,0.000767364884223164,0.000531170135649096
0.87007250604217,-0.000979730339990245,-0.000699220999630052,0.000285005415258365,0.00017834996264863,0.000767364893114568,0.000531170202445902
0.880073339444954,-0.000979730243172915,-0.000699221103228204,0.000285005176141082,0.000178349829708559,0.000767364905909382,0.000531170299263233
0.890074172847737,-0.000979730133779968,-0.000699221220336585,0.000285004905967152,0.000178349679344278,0.000767364920243661,0.00053117040865618
0.900075006250521,-0.000979730030138238,-0.00069922133134394,0.000285004649999407,0.000178349536732927,0.000767364933703907,0.000531170512297909
0.910075839653304,-0.000979729945969744,-0.000699221421542423,0.000285004442126915,0.000178349420794257,0.000767364944536943,0.000531170596466404
0.920076673056088,-0.000979729888715466,-0.000699221482932842,0.000285004300725837,0.000178349341847336,0.000767364951839843,0.000531170653720682
0.930077506458872,-0.000979729860738218,-0.000699221512948234,0.000285004231630697,0.000178349303231768,0.000767364955377048,0.00053117068169793
0.940078339861655,-0.000979729861540951,-0.000699221512085318,0.000285004233613171,0.000178349304343349,0.000767364955278552,0.000531170680895196
0.950079173264439,-0.000979729889660739,-0.000699221481877918,0.000285004303059688,0.000178349343238068,0.000767364951791793,0.000531170652775408
0.960080006667222,-0.000979729943781192,-0.000699221423704332,0.000285004436718714,0.000178349418167432,0.000767364945140647,0.000531170598654955
0.970080840070006,-0.000979730023163845,-0.000699221338323313,0.000285004632766086,0.000178349528177464,0.000767364935473687,0.000531170519272302
0.980081673472789,-0.000979730127661578,-0.000699221225858231,0.000285004890838127,0.000178349673130628,0.000767364922865242,0.000531170414774569
0.990082506875573,-0.000979730257531279,-0.000699221085997281,0.000285005211568957,0.000178349853448928,0.000767364907340471,0.000531170284904868
1.00008334027836,-0.000979730413171511,-0.00069922091827506,0.000285005595942631,0.000178350069751436,0.000767364888908221,0.000531170129264636
1.01008417368114,-0.000979730594844264,-0.000699220722372192,0.000285006044605955,0.000178350322467896,0.000767364867594262,0.000531169947591884
1.02008500708392,-0.000979730802408037,-0.000699220498403662,0.000285006557209334,0.000178350611466301,0.000767364843471661,0.00053116974002811
1.03008584048671,-0.000979731035081533,-0.000699220247175087,0.000285007131823172,0.000178350935721435,0.00076736481668617,0.000531169507354614
1.04008667388949,-0.000979731291259713,-0.000699219970383274,0.000285007764483632,0.00017835129305506,0.000767364787474399,0.000531169251176434
1.05008750729227,-0.000979731568407203,-0.00069921967073389,0.000285008448929382,0.000178351679983068,0.000767364756172311,0.000531168974028944
1.06008834069506,-0.000979731863051689,-0.00069921935195142,0.000285009176585291,0.000178352091701875,0.000767364723212046,0.000531168679384458
1.07008917409784,-0.00097973217088978,-0.000699219018667482,0.000285009936823843,0.000178352522232249,0.000767364689106342,0.000531168371546367
1.08009000750063,-0.000979732487000901,-0.000699218676191794,0.000285010717493347,0.000178352964715144,0.000767364654421731,0.000531168055435246
1.09009084090341,-0.000979732806145518,-0.000699218330190946,0.000285011505654401,0.00017835341182705,0.00076736461974376,0.000531167736290628
1.10009167430619,-0.000979733123108084,-0.000699217986317538,0.000285012288426807,0.000178353856259807,0.000767364585638964,0.000531167419328063
1.11009250770898,-0.000979733433037553,-0.000699217649840604,0.000285013053830486,0.000178354291198922,0.000767364552618857,0.000531167109398594
1.12009334111176,-0.000979733731741225,-0.000699217325325366,0.000285013791511147,0.000178354710738183,0.000767364521110547,0.000531166810694922
1.13009417451454,-0.000979734015899649,-0.000699217016397601,0.000285014493271018,0.000178355110184828,0.000767364491437058,0.000531166526536498
1.14009500791733,-0.000979734283187221,-0.000699216725609704,0.000285015153366696,0.000178355486233178,0.00076736446380846,0.000531166259248926
1.15009584132011,-0.00097973453230008,-0.000699216454407186,0.000285015768578051,0.000178355837008354,0.000767364438323073,0.000531166010136067
1.16009667472289,-0.000979734762905934,-0.000699216203180109,0.000285016338084346,0.000178356162000148,0.000767364414976745,0.000531165779530213
1.17009750812568,-0.000979734975537742,-0.000699215971375954,0.000285016863201682,0.000178356461917474,0.000767364393677505,0.000531165566898405
1.18009834152846,-0.000979735171454735,-0.000699215757648568,0.000285017347039786,0.000178356738496168,0.000767364374262959,0.000531165370981412
1.19009917493124,-0.000979735352491554,-0.000699215560020658,0.000285017794129439,0.000178356994289274,0.000767364356518155,0.000531165189944593
1.20010000833403,-0.000979735520911181,-0.000699215376042751,0.000285018210059275,0.000178357232461878,0.000767364340192319,0.000531165021524967
1.21010084173681,-0.000979735679271561,-0.00069921520293776,0.000285018601146388,0.000178357456604489,0.000767364325013533,0.000531164863164586
1.22010167513959,-0.00097973583031052,-0.000699215037726061,0.000285018974152104,0.00017835767057154,0.000767364310700961,0.000531164712125627
1.23010250854238,-0.00097973597684942,-0.000699214877330463,0.000285019336044049,0.000178357878345767,0.000767364296974711,0.000531164565586727
1.24010334194516,-0.000979736121713247,-0.000699214718663546,0.00028501969379879,0.000178358083925294,0.00076736428356364,0.0005311644207229
1.25010417534795,-0.000979736267663304,-0.000699214558701438,0.000285020054235616,0.000178358291228094,0.000767364270211553,0.000531164274772843
1.26010500875073,-0.000979736417338313,-0.000699214394548613,0.000285020423871073,0.000178358504007948,0.00076736425668226,0.000531164125097834
1.27010584215351,-0.000979736573200103,-0.000699214223497834,0.000285020808784854,0.000178358725776542,0.000767364242763883,0.000531163969236044
1.2801066755563,-0.000979736737481075,-0.000699214043088342,0.000285021214490043,0.000178358959727709,0.000767364228272693,0.000531163804955072
1.29010750895908,-0.000979736912131807,-0.00069921385116405,0.000285021645803752,0.000178359208661551,0.000767364213056644,0.000531163630304341
1.30010834236186,-0.000979737098768518,-0.000699213645932097,0.000285022106717375,0.000178359474908011,0.000767364196998621,0.000531163443667629
1.31010917576465,-0.000979737298621241,-0.000699213426020804,0.000285022600268599,0.000178359760251151,0.000767364180019355,0.000531163243814907
1.32011000916743,-0.000979737512484475,-0.000699213190535108,0.00028502312841956,0.000178360065856694,0.000767364162079861,0.000531163029951672
1.33011084257021,-0.000979737740672733,-0.0006992129391068,0.000285023691947051,0.000178360392206292,0.000767364143183224,0.000531162801763415
1.340111675973,-0.000979737982983646,-0.000699212671936629,0.000285024290351426,0.000178360739042418,0.000767364123375555,0.000531162559452501
1.35011250937578,-0.000979738238671388,-0.000699212389825194,0.000285024921790947,0.000178361105327872,0.000767364102745959,0.00053116230376476
1.36011334277856,-0.000979738506432981,-0.000699212094189744,0.000285025583047979,0.000178361489223692,0.000767364081425369,0.000531162036003167
1.37011417618135,-0.00097973878440987,-0.000699211787064211,0.000285026269532846,0.000178361888088945,0.000767364059584141,0.000531161758026278
1.38011500958413,-0.000979739070206815,-0.000699211471080123,0.000285026975330485,0.000178362298505479,0.000767364037428354,0.000531161472229332
1.39011584298692,-0.00097973936092988,-0.000699211149426337,0.000285027693294236,0.000178362716330267,0.000767364015194771,0.000531161181506267
1.4001166763897,-0.000979739653244889,-0.000699210825785986,0.000285028415190189,0.00017836313677743,0.000767363993144463,0.000531160889191258
1.41011750979248,-0.000979739943457178,-0.000699210504249597,0.000285029131894119,0.000178363554531249,0.000767363971555152,0.00053116059897897
1.42011834319527,-0.000979740227612664,-0.000699210189204238,0.000285029833641074,0.000178363963890278,0.000767363950712369,0.000531160314823483
1.43011917659805,-0.000979740501619115,-0.000699209885199817,0.00028503051032484,0.000178364358941068,0.000767363930899648,0.000531160040817033
1.44012001000083,-0.000979740761384944,-0.000699209596795372,0.000285031151840735,0.000178364733757765,0.000767363912388015,0.000531159781051203
1.45012084340362,-0.000979741002971085,-0.000699209328390225,0.000285031748460668,0.000178365082621214,0.000767363895425226,0.000531159539465062
1.4601216768064,-0.000979741222749459,-0.000699209084047129,0.000285032291224526,0.000178365400248348,0.000767363880225258,0.000531159319686688
1.47012251020918,-0.000979741417559743,-0.00069920886731664,0.000285032772327361,0.000178365682019908,0.000767363866958692,0.000531159124876404
1.48012334361197,-0.000979741584854718,-0.000699208681073565,0.000285033185478375,0.000178365924192484,0.000767363855744656,0.000531158957581429
1.49012417701475,-0.000979741722823887,-0.000699208527377095,0.000285033526206244,0.000178366124079961,0.000767363846644992,0.000531158819612261
1.50012501041753,-0.000979741830485525,-0.000699208407365719,0.000285033792086479,0.000178366280190042,0.000767363839661186,0.000531158711950622
1.51012584382032,-0.000979741907739062,-0.000699208321196179,0.000285033982870791,0.000178366392303938,0.000767363834734433,0.000531158634697086
1.5201266772231,-0.000979741955372544,-0.000699208268032517,0.000285034100505535,0.000178366461491428,0.000767363831748946,0.000531158587063603
1.53012751062589,-0.000979741975023758,-0.000699208246087026,0.000285034149035667,0.000178366490058849,0.000767363830538304,0.00053115856741239
1.54012834402867,-0.000979741969097729,-0.000699208252710246,0.000285034134400967,0.000178366481433654,0.000767363830894372,0.000531158573338419
1.55012917743145,-0.000979741940647342,-0.000699208284522621,0.000285034064141173,0.000178366439994938,0.00076736383257806,0.000531158601788805
1.56013001083424,-0.000979741893227023,-0.000699208337576773,0.000285033947034585,0.000178366370864041,0.000767363835331042,0.000531158649209124
1.57013084423702,-0.000979741830731363,-0.000699208407537155,0.000285033792699485,0.00017836627967227,0.000767363838887526,0.000531158711704785
1.5801316776398,-0.000979741757231045,-0.00069920848986324,0.000285033611188908,0.000178366172323555,0.000767363842985236,0.000531158785205103
1.59013251104259,-0.000979741676817418,-0.000699208579983492,0.000285033412606785,0.000178366054768556,0.000767363847374911,0.000531158865618729
1.60013334444537,-0.00097974159346491,-0.000699208673449757,0.000285033206768145,0.000178365932803687,0.000767363851827898,0.000531158948971237
1.61013417784815,-0.000979741510917577,-0.000699208766064938,0.000285033002918955,0.000178365811904426,0.000767363856141603,0.00053115903151857
1.62013501125094,-0.000979741432602981,-0.00069920885398028,0.00028503280952345,0.000178365697097809,0.000767363860142824,0.000531159109833167
1.63013584465372,-0.000979741361573707,-0.000699208933761821,0.000285032634119739,0.000178365592874807,0.000767363863689161,0.00053115918086244
1.6401366780565,-0.000979741300474526,-0.000699209002428188,0.000285032483238727,0.000178365503139913,0.000767363866668805,0.000531159241961621
1.65013751145929,-0.000979741251531587,-0.000699209057463696,0.000285032362377469,0.000178365431192895,0.000767363868999068,0.00053115929090456
1.66013834486207,-0.000979741216559219,-0.000699209096811678,0.000285032276015995,0.000178365379736383,0.000767363870624054,0.000531159325876928
1.67013917826486,-0.000979741196979701,-0.000699209118853199,0.000285032227666152,0.00017836535090263,0.000767363871511774,0.000531159345456447
1.68014001166764,-0.00097974119385168,-0.000699209122375993,0.000285032219941813,0.00017836534629319,0.000767363871651027,0.000531159348584468
1.69014084507042,-0.000979741207903536,-0.000699209106537747,0.000285032254641282,0.000178365367026128,0.000767363871048243,0.000531159334532611
1.70014167847321,-0.000979741239568772,-0.000699209070827017,0.000285032332834707,0.000178365413786482,0.000767363869724462,0.000531159302867375
1.71014251187599,-0.000979741289021294,-0.000699209015024171,0.000285032454951213,0.000178365486876826,0.000767363867712532,0.000531159253414853
1.72014334527877,-0.000979741356209184,-0.000699208939163937,0.00028503262086231,0.000178365586265877,0.000767363865054589,0.000531159186226963
1.73014417868156,-0.000979741440886161,-0.000699208843500469,0.000285032829959587,0.000178365711633917,0.000767363861799825,0.000531159101549986
1.74014501208434,-0.000979741542640385,-0.000699208728475318,0.000285033081225844,0.000178365862414504,0.000767363858002553,0.000531158999795762
1.75014584548712,-0.000979741660920581,-0.00069920859468835,0.00028503337329961,0.000178366037832415,0.000767363853720538,0.000531158881515566
1.76014667888991,-0.000979741795059655,-0.000699208442871426,0.000285033704533447,0.000178366236938039,0.000767363849013564,0.000531158747376492
1.77014751229269,-0.00097974194429606,-0.000699208273864548,0.000285034073046724,0.000178366458638588,0.000767363843942218,0.000531158598140087
1.78014834569547,-0.000979742107793204,-0.000699208088594158,0.000285034476773524,0.000178366701726541,0.000767363838566867,0.000531158434642943
1.79014917909826,-0.000979742284657145,-0.000699207888053318,0.000285034913506353,0.000178366964905663,0.000767363832946787,0.000531158257779002
1.80015001250104,-0.000979742473952778,-0.000699207673283534,0.000285035380936101,0.000178367246814887,0.000767363827139449,0.000531158068483369
1.81015084590383,-0.000979742674718637,-0.000699207445358105,0.000285035876688583,0.000178367546050231,0.000767363821199929,0.00053115786771751
1.82015167930661,-0.000979742885980361,-0.000699207205366927,0.0002850363983578,0.000178367861184819,0.000767363815180435,0.000531157656455786
1.83015251270939,-0.000979743106762835,-0.000699206954402768,0.000285036943535903,0.000178368190786991,0.000767363809129951,0.000531157435673312
1.84015334611218,-0.000979743336100942,-0.000699206693549058,0.000285037509839752,0.000178368533436423,0.000767363803093972,0.000531157206335205
1.85015417951496,-0.00097974357304887,-0.000699206423869307,0.000285038094933885,0.00017836888773813,0.000767363797114339,0.000531156969387277
1.86015501291774,-0.000979743816687873,-0.000699206146398225,0.000285038696549684,0.00017836925233422,0.000767363791229157,0.000531156725748274
1.87015584632053,-0.00097974406613242,-0.000699205862134666,0.000285039312500552,0.000178369625913264,0.000767363785472786,0.000531156476303726
1.88015667972331,-0.000979744320534665,-0.000699205572036449,0.00028503994069295,0.000178370007217186,0.000767363779875904,0.000531156221901482
1.89015751312609,-0.000979744579087201,-0.000699205277017121,0.000285040579133204,0.00017837039504561,0.000767363774465629,0.000531155963348946
1.90015834652888,-0.000979744841024113,-0.000699204977944656,0.000285041225930089,0.00017837078825764,0.000767363769265678,0.000531155701412034
1.91015917993166,-0.000979745105620348,-0.000699204675642061,0.000285041879293281,0.000178371185771135,0.000767363764296568,0.000531155436815798
1.92016001333444,-0.000979745372189483,-0.000699204370889819,0.000285042537527839,0.000178371586559556,0.000767363759575843,0.000531155170246663
1.93016084673723,-0.000979745640079992,-0.000699204064430049,0.000285043199024991,0.000178371989646548,0.0007673637551183,0.000531154902356155
1.94016168014001,-0.00097974590867015,-0.000699203756972248,0.000285043862249553,0.000178372394098434,0.000767363750936226,0.000531154633765997
1.9501625135428,-0.000979746177361739,-0.000699203449200412,0.000285044525724375,0.000178372799014877,0.000767363747039621,0.000531154365074407
1.96016334694558,-0.000979746445572734,-0.000699203141781361,0.00028504518801229,0.000178373203517961,0.000767363743436395,0.000531154096863412
1.97016418034836,-0.000979746712729176,-0.000699202835374003,0.000285045847696042,0.000178373606740009,0.000767363740132544,0.00053115382970697
1.98016501375115,-0.000979746978256454,-0.000699202530639326,0.000285046503356764,0.000178374007810454,0.000767363737132279,0.000531153564179692
1.99016584715393,-0.000979747241570234,-0.000699202228250814,0.00028504715355157,0.000178374405842125,0.000767363734438119,0.000531153300865912
2.00016668055671,-0.000979747502067269,-0.000699201928905035,0.000285047796790871,0.000178374799917298,0.000767363732050934,0.000531153040368877
2.0101675139595,-0.000979747759116367,-0.000699201633332089,0.000285048431516065,0.000178375189073939,0.000767363729969934,0.00053115278331978
2.02016834736228,-0.000979748012049768,-0.000699201342305597,0.000285049056078255,0.000178375572292507,0.000767363728192608,0.000531152530386379
2.03016918076506,-0.000979748260155233,-0.000699201056651926,0.000285049668718706,0.000178375948483785,0.000767363726714617,0.000531152282280914
2.04017001416785,-0.000979748502669118,-0.000699200777258287,0.000285050267551746,0.00017837631647816,0.000767363725529627,0.000531152039767028
2.05017084757063,-0.000979748738770751,-0.000699200505079364,0.000285050850550878,0.00017837667501683,0.000767363724629105,0.000531151803665395
2.06017168097341,-0.000979748967578401,-0.000699200241142117,0.000285051415538845,0.000178377022745414,0.000767363724002082,0.000531151574857745
2.0701725143762,-0.000979749188147177,-0.000699199986548373,0.000285051960182419,0.000178377358210437,0.000767363723634874,0.000531151354288969
2.08017334777898,-0.000979749399469135,-0.000699199742474864,0.000285052481992686,0.000178377679859185,0.000767363723510803,0.000531151142967012
2.09017418118177,-0.000979749600475904,-0.00069919951017035,0.000285052978331533,0.000178377986043379,0.000767363723609901,0.000531150941960242
2.10017501458455,-0.000979749790044101,-0.000699199290949508,0.000285053446425005,0.000178378275027089,0.000767363723908632,0.000531150752392045
2.11017584798733,-0.000979749967003744,-0.000699199086183298,0.000285053883384106,0.000178378544999283,0.00076736372437965,0.000531150575432402
2.12017668139012,-0.000979750130149866,-0.000699198897285622,0.000285054286233467,0.000178378794091259,0.0007673637249916,0.00053115041228628
2.1301775147929,-0.000979750278257397,-0.000699198725696108,0.00028505465194811,0.000178379020399161,0.000767363725708996,0.000531150264178749
2.14017834819568,-0.000979750410099338,-0.000699198572859053,0.000285054977498322,0.000178379222011588,0.000767363726492192,0.000531150132336808
2.15017918159847,-0.00097975052446809,-0.000699198440198606,0.000285055259902328,0.00017837939704214,0.000767363727297472,0.000531150017968057
2.16018001500125,-0.000979750620199681,-0.000699198329090522,0.000285055496286137,0.000178379543666527,0.000767363728077275,0.000531149922236465
2.17018084840403,-0.000979750696200494,-0.000699198240830934,0.000285055683949517,0.000178379660163649,0.000767363728780577,0.000531149846235652
2.18018168180682,-0.00097975075147588,-0.000699198176602822,0.000285055820436682,0.000178379744959741,0.000767363729353442,0.000531149790960266
2.1901825152096,-0.000979750785159935,-0.00069919813744106,0.000285055903609806,0.000178379796674493,0.000767363729739753,0.000531149757276211
2.20018334861238,-0.000979750796545507,-0.000699198124197093,0.000285055931723123,0.000178379814167707,0.000767363729882116,0.000531149745890639
2.21018418201517,-0.000979750785113377,-0.000699198137504501,0.000285055903494981,0.000178379796584913,0.000767363729722944,0.00053114975732277
2.22018501541795,-0.000979750750559457,-0.000699198177746792,0.000285055818174997,0.000178379743400132,0.000767363729205684,0.000531149791876689
2.23018584882074,-0.000979750692818783,-0.000699198245028871,0.000285055675603288,0.000178379654453911,0.000767363728276175,0.000531149849617363
2.24018668222352,-0.000979750612085087,-0.000699198339153622,0.000285055476258791,0.000178379529984735,0.000767363726884084,0.00053114993035106
2.2501875156263,-0.000979750508824818,-0.000699198459604919,0.000285055221293871,0.000178379370652044,0.000767363724984382,0.000531150033611329
2.26018834902909,-0.000979750383784648,-0.000699198605538248,0.00028505491255283,0.000178379177549303,0.000767363722538792,0.000531150158651498
2.27018918243187,-0.000979750237991709,-0.000699198775779817,0.000285054552572466,0.000178378952205937,0.000767363719517158,0.000531150304444438
2.28019001583465,-0.000979750072746129,-0.000699198968834682,0.000285054144563631,0.000178378696577383,0.000767363715898661,0.000531150469690018
2.29019084923744,-0.000979749889605791,-0.000699199182904018,0.000285053692373562,0.000178378413023061,0.00076736371167283,0.000531150652830356
2.30019168264022,-0.000979749690363598,-0.000699199415911204,0.000285053200429728,0.000178378104272657,0.000767363706840283,0.000531150852072548
2.310192516043,-0.000979749477017932,-0.000699199665535947,0.000285052673666853,0.000178377773381688,0.000767363701413176,0.000531151065418215
2.32019334944579,-0.000979749251737321,-0.000699199929255272,0.000285052117439672,0.000178377423677883,0.000767363695415303,0.000531151290698826
2.33019418284857,-0.000979749016820651,-0.000699200204389821,0.000285051537424656,0.000178377058700371,0.000767363688881869,0.000531151525615496
2.34019501625135,-0.000979748774654436,-0.000699200488153699,0.0002850509395145,0.000178376682134013,0.000767363681858914,0.000531151767781711
2.35019584965414,-0.000979748527668788,-0.000699200777705939,0.00028505032970941,0.000178376297741398,0.000767363674402439,0.000531152014767359
2.36019668305692,-0.000979748278293753,-0.000699201070201661,0.000285049714009276,0.000178375909295064,0.000767363666577258,0.000531152264142395
2.3701975164597,-0.000979748028917528,-0.000699201362841104,0.000285049098310529,0.000178375520512351,0.000767363658455631,0.000531152513518619
2.38019834986249,-0.000979747781847959,-0.000699201652914917,0.000285048488311071,0.000178375134995045,0.000767363650115754,0.000531152760588188
2.39019918326527,-0.000979747539278393,-0.000699201937844428,0.000285047889425984,0.000178374756175559,0.000767363641640145,0.000531153003157754
2.40020001666806,-0.000979747303258709,-0.000699202215215907,0.000285047306716014,0.000178374387270956,0.00076736363311402,0.000531153239177439
2.41020085007084,-0.000979747075671997,-0.00069920248280826,0.000285046744830023,0.000178374031245618,0.00076736362462369,0.00053115346676415
2.42020168347362,-0.000979746858217072,-0.000699202738613939,0.000285046207961811,0.000178373690782872,0.000767363616255053,0.000531153684219076
2.43020251687641,-0.000979746652396682,-0.000699202980853176,0.000285045699821052,0.000178373368265467,0.000767363608092207,0.000531153890039466
2.44020335027919,-0.000979746459511097,-0.000699203207981945,0.000285045223617456,0.000178373065764377,0.000767363600216214,0.000531154082925051
2.45020418368197,-0.000979746280656512,-0.000699203418694257,0.00028504478205687,0.000178372785035172,0.000767363592704041,0.000531154261779635
2.46020501708476,-0.000979746116727643,-0.000699203611919549,0.000285044377347679,0.000178372527520956,0.000767363585627682,0.000531154425708504
2.47020585048754,-0.00097974596842377,-0.000699203786815986,0.000285044011215759,0.00017837229436077,0.000767363579053456,0.000531154574012378
2.48020668389032,-0.000979745836257518,-0.000699203942760546,0.00028504368492617,0.000178372086402368,0.000767363573041472,0.00053115470617863
2.49020751729311,-0.000979745720565669,-0.000699204079336687,0.000285043399309848,0.000178371904218245,0.000767363567645252,0.000531154821870479
2.50020835069589,-0.000979745621521356,-0.000699204196320353,0.000285043154793727,0.000178371748123946,0.000767363562911493,0.000531154920914792
2.51020918409868,-0.000979745539147082,-0.000699204293664984,0.000285042951432893,0.000178371618197768,0.000767363558879946,0.000531155003289066
2.52021001750146,-0.000979745473328095,-0.000699204371486073,0.000285042788943603,0.000178371514301109,0.000767363555583396,0.000531155069108053
2.53021085090424,-0.00097974542382573,-0.000699204430045729,0.000285042666736233,0.00017837143609887,0.000767363553047722,0.000531155118610418
2.54021168430703,-0.000979745390290429,-0.000699204469737581,0.000285042583947424,0.000178371383079439,0.000767363551292021,0.000531155152145718
2.55021251770981,-0.000979745372274224,-0.000699204491072291,0.000285042539470903,0.00017837135457391,0.000767363550328785,0.000531155170161923
2.56021335111259,-0.000979745369242527,-0.000699204494663843,0.000285042531986591,0.000178371349774296,0.000767363550164113,0.000531155173193621
2.57021418451538,-0.000979745380585138,-0.000699204481216732,0.000285042559987781,0.000178371367750572,0.000767363550797945,0.00053115516185101
2.58021501791816,-0.00097974540562641,-0.000699204451514121,0.000285042621806231,0.000178371407466454,0.000767363552224317,0.000531155136809738
2.59021585132094,-0.000979745443634546,-0.00069920440640699,0.000285042715635118,0.000178371467793873,0.000767363554431625,0.000531155098801603
2.60021668472373,-0.000979745493830026,-0.000699204346804294,0.000285042839549841,0.000178371547526111,0.000767363557402882,0.000531155048606122
2.61021751812651,-0.000979745555393173,-0.00069920427366412,0.000285042991526689,0.00017837164538963,0.00076736356111598,0.000531154987042975
2.62021835152929,-0.000979745627470867,-0.000699204187985826,0.000285043169459433,0.000178371760054589,0.000767363565543938,0.000531154914965281
2.63021918493208,-0.000979745709182444,-0.000699204090803127,0.000285043371173872,0.000178371890144106,0.000767363570655135,0.000531154833253704
2.64022001833486,-0.000979745799624799,-0.000699203983178114,0.000285043594440439,0.000178372034242276,0.000767363576413529,0.000531154742811349
2.65022085173764,-0.000979745897876728,-0.000699203866196159,0.00028504383698491,0.000178372190901018,0.000767363582778848,0.00053115464455942
2.66022168514043,-0.000979746003002544,-0.000699203740961664,0.00028504409649734,0.000178372358645782,0.000767363589706759,0.000531154539433604
2.67022251854321,-0.000979746114055023,-0.000699203608594606,0.000285044370639323,0.000178372535980198,0.000767363597149017,0.000531154428381125
2.680223351946,-0.000979746230077718,-0.000699203470227812,0.000285044657049715,0.000178372721389749,0.000767363605053574,0.00053115431235843
2.69022418534878,-0.000979746350106726,-0.000699203327004885,0.000285044953348985,0.000178372913344562,0.000767363613364674,0.000531154192329422
2.70022501875156,-0.000979746473171972,-0.000699203180078703,0.00028504525714239,0.000178373110301446,0.000767363622022915,0.000531154069264176
2.71022585215435,-0.00097974659829811,-0.000699203030610356,0.0002850455660222,0.000178373310705318,0.000767363630965289,0.000531153944138039
2.72022668555713,-0.000979746724505145,-0.000699202879768427,0.000285045877569229,0.000178373512990188,0.000767363640125211,0.000531153817931003
2.73022751895991,-0.000979746850808899,-0.000699202728728446,0.000285046189353982,0.000178373715579884,0.000767363649432536,0.00053115369162725
2.7402283523627,-0.000979746976221441,-0.000699202578672384,0.00028504649893773,0.000178373916888739,0.000767363658813571,0.000531153566214707
2.75022918576548,-0.000979747099751641,-0.000699202430788,0.000285046803873862,0.000178374115322462,0.000767363668191101,0.000531153442684507
2.76023001916826,-0.000979747220405979,-0.000699202286267878,0.000285047101709892,0.000178374309279421,0.000767363677484438,0.000531153322030169
2.77023085257105,-0.00097974733718977,-0.000699202146307955,0.000285047389990477,0.00017837449715261,0.000767363686609502,0.000531153205246379
2.78023168597383,-0.000979747449108948,-0.000699202012105375,0.000285047666261838,0.000178374677332511,0.000767363695478952,0.0005311530933272
2.79023251937661,-0.000979747555172569,-0.000699201884855485,0.00028504792807791,0.000178374848211114,0.000767363704002385,0.00053115298726358
2.8002333527794,-0.000979747654396132,-0.000699201765747816,0.000285048173008571,0.000178375008187298,0.000767363712086617,0.000531152888040017
2.81023418618218,-0.000979747745805866,-0.000699201655960912,0.000285048398650205,0.000178375155673751,0.000767363719636053,0.000531152796630283
2.82023501958497,-0.000979747828444044,-0.0006992015566559,0.00028504860263883,0.000178375289105605,0.000767363726553174,0.000531152713992105
2.83023585298775,-0.000979747901375387,-0.000699201468968727,0.000285048782665905,0.000178375406950839,0.000767363732739142,0.000531152641060762
2.84023668639053,-0.000979747963694579,-0.00069920139400105,0.000285048936496879,0.000178375507722529,0.000767363738094534,0.00053115257874157
2.85023751979332,-0.000979748014534857,-0.000699201332809801,0.000285049061992397,0.000178375589992875,0.000767363742520214,0.000531152527901292
2.8602383531961,-0.0009797480530776,-0.000699201286395518,0.000285049157131973,0.000178375652408902,0.00076736374591834,0.000531152489358549
2.87023918659888,-0.000979748078562794,-0.000699201255689597,0.000285049220039819,0.000178375693709631,0.000767363748193502,0.000531152463873355
2.88024002000167,-0.000979748090300181,-0.000699201241540687,0.000285049249012357,0.000178375712744423,0.000767363749253983,0.000531152452135968
2.89024085340445,-0.000979748087680851,-0.000699201244700513,0.000285049242546848,0.000178375708492125,0.000767363749013125,0.000531152454755298
2.90024168680723,-0.000979748070188996,-0.00069920126580947,0.000285049199370391,0.000178375680080531,0.000767363747390775,0.000531152472247153
2.91024252021002,-0.00097974803741349,-0.000699201305382403,0.000285049118468503,0.000178375626805641,0.000767363744314784,0.000531152505022659
2.9202433536128,-0.000979747989058911,-0.000699201363795018,0.000285048999112333,0.000178375548150096,0.000767363739722522,0.000531152553377238
2.93024418701558,-0.000979747924955636,-0.000699201441271387,0.000285048840883563,0.000178375443800158,0.000767363733562367,0.000531152617480513
2.94024502041837,-0.00097974784506859,-0.000699201537873066,0.000285048643696001,0.000178375313660568,0.000767363725795127,0.000531152697367559
2.95024585382115,-0.000979747749504257,-0.000699201653490275,0.000285048407812885,0.000178375157866645,0.000767363716395343,0.000531152792931892
2.96024668722394,-0.000979747638515609,-0.000699201787835604,0.000285048133859035,0.000178374976793002,0.000767363705352424,0.00053115290392054
2.97024752062672,-0.000979747512504613,-0.000699201940440626,0.000285047822827037,0.000178374771058375,0.000767363692671578,0.000531153029931536
2.9802483540295,-0.000979747372022088,-0.000699202110655731,0.000285047476076878,0.000178374541526124,0.000767363678374484,0.000531153170414061
2.99024918743229,-0.000979747217764733,-0.000699202297653386,0.000285047095328606,0.000178374289300112,0.000767363662499676,0.000531153324671416
3.00025002083507,-0.000979747050569266,-0.000699202500434921,0.00028504668264784,0.000178374015715838,0.000767363645102616,0.000531153491866883
3.01025085423785,-0.000979746871403694,-0.000699202717840805,0.000285046240424234,0.000178373722326855,0.000767363626255424,0.000531153671032455
3.02025168764064,-0.000979746681355875,-0.000699202948564248,0.000285045771343221,0.000178373410886673,0.000767363606046282,0.000531153861080274
3.03025252104342,-0.000979746481619605,-0.000699203191167841,0.000285045278351662,0.000178373083326541,0.000767363584578495,0.000531154060816544
3.0402533544462,-0.000979746273478567,-0.000699203444102828,0.000285044764618234,0.000178372741729642,0.000767363561969247,0.000531154268957582
3.05025418784899,-0.000979746058288581,-0.000699203705730497,0.000285044233489601,0.00017837238830238,0.000767363538348072,0.000531154484147568
3.06025502125177,-0.000979745837458618,-0.00069920397434512,0.000285043688443554,0.000178372025343536,0.000767363513855088,0.000531154704977531
3.07025585465455,-0.000979745612431114,-0.000699204248197798,0.000285043133040418,0.000178371655212144,0.000767363488639036,0.000531154930005036
3.08025668805734,-0.000979745384662109,-0.000699204525520571,0.00028504257087403,0.00017837128029496,0.000767363462855188,0.00053115515777404
3.09025752146012,-0.000979745155601743,-0.000699204804550155,0.000285042005523591,0.000178370902974385,0.000767363436663178,0.000531155386834406
3.10025835486291,-0.000979744926675583,-0.000699205083550704,0.000285041440507595,0.000178370525597649,0.000767363410224811,0.000531155615760567
3.11025918826569,-0.000979744699267232,-0.000699205360835073,0.000285040879240899,0.000178370150447981,0.00076736338370192,0.000531155843168917
3.12026002166847,-0.000979744474702575,-0.000699205634784132,0.000285040324995843,0.000178369779718377,0.000767363357254306,0.000531156067733574
3.13026085507126,-0.000979744254235937,-0.000699205903863782,0.000285039780868093,0.000178369415488433,0.00076736333103782,0.000531156288200212
3.14026168847404,-0.000979744039038357,-0.000699206166639428,0.000285039249747711,0.00017836905970459,0.000767363305202617,0.000531156503397791
3.15026252187682,-0.000979743830188082,-0.000699206421787787,0.000285038734295685,0.000178368714163975,0.000767363279891611,0.000531156712248067
3.16026335527961,-0.00097974362866329,-0.000699206668105973,0.000285038236925994,0.000178368380501896,0.000767363255239153,0.000531156913772859
3.17026418868239,-0.000979743435337009,-0.000699206904517943,0.000285037759793069,0.000178368060182916,0.000767363231369934,0.00053115710709914
3.18026502208517,-0.000979743250974106,-0.000699207130078419,0.000285037304784358,0.000178367754495332,0.000767363208398122,0.000531157291462043
3.19026585548796,-0.000979743076230171,-0.000699207343974499,0.000285036873517588,0.000178367464548793,0.000767363186426723,0.000531157466205978
3.20026668889074,-0.000979742911652098,-0.000699207545525187,0.000285036467342213,0.000178367191274739,0.000767363165547148,0.000531157630784051
3.21026752229352,-0.000979742757680146,-0.000699207734179134,0.000285036087344487,0.000178366935429276,0.00076736314583898,0.000531157784756003
3.22026835569631,-0.000979742614651211,-0.00069920790951086,0.000285035734355565,0.000178366697598122,0.000767363127369906,0.000531157927784938
3.23026918909909,-0.000979742482803104,-0.000699208071215763,0.000285035408962055,0.000178366478203214,0.000767363110195805,0.000531158059633046
3.24027002250188,-0.00097974236227958,-0.000699208219104172,0.00028503511151844,0.000178366277510622,0.000767363094360959,0.000531158180156569
3.25027085590466,-0.000979742253135923,-0.000699208353094726,0.00028503484216086,0.000178366095639401,0.000767363079898368,0.000531158289300226
3.26027168930744,-0.000979742155344879,-0.000699208473207292,0.000285034600821767,0.000178365932571074,0.00076736306683014,0.00053115838709127
3.27027252271023,-0.000979742068802786,-0.000699208579555636,0.000285034387245048,0.000178365788159476,0.000767363055167954,0.000531158473633363
3.28027335611301,-0.000979741993335749,-0.000699208672340016,0.000285034201001277,0.000178365662140708,0.00076736304491355,0.0005311585491004
3.29027418951579,-0.000979741928705751,-0.000699208751839843,0.000285034041502791,0.000178365554143031,0.000767363036059258,0.000531158613730398
3.30027502291858,-0.000979741874616606,-0.000699208818406508,0.000285033908018384,0.000178365463696519,0.000767363028588534,0.000531158667819543
3.31027585632136,-0.000979741830719683,-0.000699208872456485,0.000285033799687448,0.000178365390242388,0.000767363022476501,0.000531158711716465
3.32027668972414,-0.000979741796619366,-0.000699208914464734,0.000285033715533426,0.000178365333141883,0.000767363017690481,0.000531158745816783
3.33027752312693,-0.000979741771878198,-0.000699208944958485,0.00028503365447653,0.000178365291684707,0.00076736301419052,0.000531158770557951
3.34027835652971,-0.000979741756021712,-0.000699208964511377,0.000285033615345657,0.000178365265096927,0.000767363011929896,0.000531158786414437
3.35027918993249,-0.00097974174854294,-0.000699208973738005,0.000285033596889511,0.000178365252548376,0.000767363010855597,0.000531158793893209
3.36028002333528,-0.000979741748906598,-0.000699208973288828,0.000285033597786938,0.000178365253159544,0.000767363010908795,0.000531158793529551
3.37028085673806,-0.00097974175655297,-0.00069920896384545,0.000285033616656513,0.000178365266007978,0.000767363012025289,0.000531158785883179
3.38028169014085,-0.000979741770901507,-0.000699208946116233,0.00028503365206542,0.000178365290134235,0.000767363014135923,0.000531158771534641
3.39028252354363,-0.000979741791354167,-0.000699208920832233,0.000285033702537687,0.000178365324547403,0.000767363017167,0.000531158751081981
3.40028335694641,-0.000979741817298514,-0.000699208888743403,0.000285033766561849,0.000178365368230259,0.000767363021040665,0.000531158725137634
3.4102841903492,-0.000979741848110618,-0.000699208850615046,0.000285033842598095,0.00017836542014409,0.000767363025675282,0.000531158694325531
3.42028502375198,-0.000979741883157777,-0.000699208807224477,0.000285033929084988,0.000178365479233239,0.000767363030985796,0.000531158659278371
3.43028585715476,-0.000979741921801098,-0.000699208759357851,0.000285034024445831,0.00017836554442942,0.000767363036884094,0.00053115862063505
3.44028669055755,-0.00097974196339796,-0.000699208707807124,0.000285034127094748,0.000178365614655862,0.000767363043279358,0.000531158579038188
3.45028752396033,-0.0009797420073044,-0.000699208653367108,0.000285034235442572,0.000178365688831325,0.000767363050078415,0.000531158535131749
3.46028835736311,-0.000979742052877443,-0.000699208596832581,0.000285034347902596,0.000178365765874037,0.000767363057186104,0.000531158489558706
3.4702891907659,-0.000979742099477414,-0.000699208538995419,0.000285034462896275,0.000178365844705617,0.000767363064505637,0.000531158442958735
3.48029002416868,-0.00097974214647025,-0.000699208480641716,0.00028503457885893,0.000178365924255006,0.000767363071938989,0.000531158395965899
3.49029085757146,-0.000979742193229842,-0.000699208422548857,0.000285034694245532,0.000178366003462464,0.000767363079387287,0.000531158349206306
3.50029169097425,-0.000979742239140429,-0.000699208365482529,0.000285034807536604,0.000178366081283667,0.000767363086751241,0.000531158303295719
3.51029252437703,-0.000979742283599057,-0.000699208310193625,0.000285034917244293,0.00017836615669393,0.000767363093931578,0.000531158258837091
3.52029335777981,-0.000979742326018126,-0.000699208257415053,0.000285035021918652,0.000178366228692591,0.00076736310082952,0.000531158216418022
3.5302941911826,-0.000979742365828023,-0.000699208207858414,0.000285035120154138,0.00017836629630755,0.000767363107347278,0.000531158176608125
3.54029502458538,-0.000979742402479854,-0.000699208162210551,0.000285035210596349,0.000178366358600002,0.000767363113388588,0.000531158139956294
3.55029585798817,-0.000979742435448261,-0.000699208121129988,0.000285035291948983,0.00017836641466932,0.000767363118859264,0.000531158106987887
3.56029669139095,-0.00097974246423433,-0.000699208085243248,0.000285035362981002,0.000178366463658111,0.000767363123667791,0.000531158078201819
3.57029752479373,-0.000979742488368551,-0.000699208055141088,0.000285035422533945,0.000178366504757378,0.000767363127725943,0.000531158054067598
3.58029835819652,-0.000979742507413826,-0.000699208031374672,0.000285035469529344,0.000178366537211784,0.000767363130949414,0.000531158035022322
3.5902991915993,-0.000979742520968483,-0.000699208014451732,0.000285035502976158,0.00017836656032493,0.000767363133258483,0.000531158021467665
3.60030002500208,-0.000979742528669253,-0.000699208004832752,0.000285035521978122,0.000178366573464599,0.000767363134578675,0.000531158013766896
3.61030085840487,-0.00097974253019417,-0.000699208002927253,0.000285035525740905,0.000178366576067889,0.000767363134841437,0.000531158012241979
3.62030169180765,-0.000979742525265349,-0.000699208009090219,0.00028503551357895,0.00017836656764613,0.0007673631339848,0.0005311580171708
3.63030252521043,-0.000979742513651563,-0.000699208023618756,0.000285035484921845,0.000178366547789504,0.000767363131954023,0.000531158028784586
3.64030335861322,-0.000979742495170589,-0.000699208046749051,0.0002850354393201,0.000178366516171259,0.000767363128702218,0.00053115804726556
3.650304192016,-0.000979742469691234,-0.000699208078653708,0.000285035376450148,0.000178366472551402,0.000767363124190922,0.000531158072744915
3.66030502541878,-0.000979742437134999,-0.000699208119439543,0.000285035296118452,0.000178366416779778,0.000767363118390622,0.00053115810530115
3.67030585882157,-0.000979742397477313,-0.000699208169145905,0.000285035198264543,0.000178366348798426,0.000767363111281208,0.000531158144958836
3.68030669222435,-0.000979742350748292,-0.000699208227743599,0.000285035082962886,0.000178366268643115,0.000767363102852352,0.000531158191687857
3.69030752562714,-0.000979742297032958,-0.000699208295134476,0.000285034950423432,0.000178366176443975,0.000767363093103789,0.000531158245403191
3.70030835902992,-0.000979742236470904,-0.000699208371151722,0.000285034800990774,0.000178366072425161,0.000767363082045501,0.000531158305965245
3.7103091924327,-0.000979742169255357,-0.000699208455560906,0.000285034635141841,0.000178365956903491,0.000767363069697789,0.000531158373180791
3.72031002583549,-0.000979742095631636,-0.00069920854806179,0.000285034453482088,0.00017836583028603,0.000767363056091222,0.000531158446804512
3.73031085923827,-0.000979742015894997,-0.000699208648290911,0.000285034256740175,0.000178365693066619,0.000767363041266475,0.000531158526541151
3.74031169264105,-0.000979741930387882,-0.000699208755824923,0.00028503404576118,0.000178365545821361,0.00076736302527403,0.000531158612048267
3.75031252604384,-0.000979741839496596,-0.00069920887018467,0.000285033821498397,0.000178365389203098,0.000767363008173766,0.000531158702939553
3.76031335944662,-0.000979741743647457,-0.000699208990839925,0.000285033585003835,0.000178365223934979,0.000767362990034423,0.000531158798788691
3.7703141928494,-0.000979741643302474,-0.000699209117214745,0.000285033337417543,0.000178365050803164,0.000767362970932956,0.000531158899133674
3.78031502625219,-0.00097974153895461,-0.000699209248693346,0.000285033079955936,0.000178364870648823,0.000767362950953792,0.000531159003481538
3.79031585965497,-0.000979741431122727,-0.000699209384626417,0.000285032813899307,0.00017836468435952,0.000767362930187985,0.000531159111313422
3.80031669305775,-0.000979741320346272,-0.000699209524337746,0.000285032540578728,0.000178364492860155,0.000767362908732313,0.000531159222089877
3.81031752646054,-0.00097974120717982,-0.000699209667131069,0.000285032261362571,0.000178364297103603,0.000767362886688293,0.000531159335256329
3.82031835986332,-0.000979741092187543,-0.000699209812297015,0.000285031977642869,0.000178364098061211,0.000767362864161177,0.000531159450248606
3.83031919326611,-0.000979740975937711,-0.000699209959120025,0.000285031690821749,0.000178363896713308,0.0007673628412589,0.000531159566498438
3.84032002666889,-0.000979740858997308,-0.000699210106885152,0.000285031402298139,0.000178363694039891,0.000767362818091036,0.00053115968343884
3.85032086007167,-0.000979740741926844,-0.000699210254884619,0.000285031113454977,0.000178363491011618,0.000767362794767758,0.000531159800509304
3.86032169347446,-0.000979740625275439,-0.000699210402424052,0.000285030825647081,0.000178363288581243,0.00076736277139882,0.00053115991716071
3.87032252687724,-0.000979740509576245,-0.000699210548828304,0.000285030540189851,0.000178363087675619,0.000767362748092587,0.000531160032859904
3.88032336028002,-0.00097974039534226,-0.000699210693446788,0.000285030258348946,0.000178362889188339,0.000767362724955112,0.000531160147093888
3.89032419368281,-0.000979740283062571,-0.000699210835658286,0.000285029981331009,0.00017836269397312,0.000767362702089282,0.000531160259373578
3.90032502708559,-0.000979740173199059,-0.00069921097487518,0.00028502971027555,0.000178362502837956,0.000767362679594035,0.00053116036923709
3.91032586048837,-0.000979740066183587,-0.000699211110547081,0.000285029446247996,0.000178362316540103,0.000767362657563661,0.000531160476252562
3.92032669389116,-0.000979739962415668,-0.000699211242163859,0.000285029190233954,0.000178362135781879,0.000767362636087185,0.00053116058002048
3.93032752729394,-0.00097973986226062,-0.000699211369258062,0.000285028943134644,0.000178361961207302,0.000767362615247835,0.000531160680175528
3.94032836069672,-0.00097973976604818,-0.000699211491406753,0.000285028705763497,0.000178361793399521,0.000767362595122608,0.000531160776387968
3.95032919409951,-0.000979739674071571,-0.000699211608232782,0.00028502847884384,0.000178361632879027,0.000767362575781905,0.000531160868364578
3.96033002750229,-0.000979739586586975,-0.000699211719405542,0.000285028263007618,0.000178361480102578,0.000767362557289269,0.000531160955849173
3.97033086090508,-0.000979739503813403,-0.000699211824641225,0.000285028058795049,0.000178361335462792,0.000767362539701181,0.000531161038622745
3.98033169430786,-0.000979739425932896,-0.00069921192370265,0.000285027866655143,0.000178361199288352,0.00076736252306695,0.000531161116503252
3.99033252771064,-0.000979739353091046,-0.000699212016398692,0.000285027686946975,0.000178361071844741,0.000767362507428651,0.000531161189345102
4.00033336111343,-0.000979739285397775,-0.000699212102583375,0.000285027519941621,0.000178360953335455,0.000767362492821139,0.000531161257038374
4.01033419451621,-0.000979739222928351,-0.000699212182154663,0.00028502736582466,0.000178360843903624,0.000767362479272109,0.000531161319507797
4.02033502791899,-0.000979739165724597,-0.000699212255053008,0.000285027224699149,0.000178360743633972,0.000767362466802206,0.000531161376711551
4.03033586132178,-0.000979739113796247,-0.000699212321259692,0.000285027096588986,0.000178360652555065,0.000767362455425177,0.0005311614286399
4.04033669472456,-0.000979739067122439,-0.000699212380795008,0.000285026981442585,0.000178360570641778,0.000767362445148056,0.000531161475313709
4.05033752812734,-0.000979739025653293,-0.000699212433716312,0.000285026879136778,0.000178360497817948,0.000767362435971383,0.000531161516782854
4.06033836153013,-0.00097973898931157,-0.000699212480115981,0.000285026789480895,0.000178360433959145,0.000767362427889437,0.000531161553124577
4.07033919493291,-0.000979738957994367,-0.000699212520119312,0.000285026712220961,0.000178360378895555,0.000767362420890506,0.000531161584441781
4.08034002833569,-0.000979738931574845,-0.000699212553882373,0.000285026647043955,0.000178360332414897,0.000767362414957154,0.000531161610861303
4.09034086173848,-0.000979738909903972,-0.000699212581589836,0.00028502659358211,0.000178360294265394,0.000767362410066513,0.000531161632532176
4.10034169514126,-0.000979738892812261,-0.000699212603452805,0.0002850265514172,0.00017836026415874,0.00076736240619058,0.000531161649623887
4.11034252854405,-0.000979738880111498,-0.000699212619706652,0.000285026520084808,0.000178360241773059,0.00076736240329652,0.000531161662324649
4.12034336194683,-0.000979738871596454,-0.000699212630608877,0.000285026499078548,0.000178360226755842,0.000767362401346979,0.000531161670839693
4.13034419534961,-0.000979738867046572,-0.000699212636436982,0.000285026487854223,0.000178360218726856,0.000767362400300396,0.000531161675389576
4.1403450287524,-0.000979738866227621,-0.000699212637486387,0.000285026485833921,0.000178360217281007,0.000767362400111319,0.000531161676208527
4.15034586215518,-0.000979738868893333,-0.000699212634068372,0.000285026492410033,0.000178360221991158,0.000767362400730727,0.000531161673542815
4.16034669555796,-0.000979738874786996,-0.000699212626508055,0.000285026506949198,0.000178360232410914,0.000767362402106347,0.000531161667649152
4.17034752896075,-0.000979738883643024,-0.000699212615142406,0.000285026528796172,0.000178360248077345,0.00076736240418298,0.000531161658793124
4.18034836236353,-0.000979738895188494,-0.000699212600318295,0.000285026557277621,0.000178360268513675,0.000767362406902823,0.000531161647247653
4.19034919576631,-0.000979738909144658,-0.000699212582390566,0.000285026591705845,0.000178360293231928,0.000767362410205795,0.000531161633291489
4.2003500291691,-0.000979738925228421,-0.000699212561720152,0.000285026631382436,0.000178360321735528,0.000767362414029864,0.000531161617207726
4.21035086257188,-0.000979738943153802,-0.000699212538672208,0.000285026675601871,0.00017836035352187,0.000767362418311377,0.000531161599282345
4.22035169597466,-0.000979738962633361,-0.000699212513614278,0.000285026723655043,0.000178360388084843,0.000767362422985394,0.000531161579802786
4.23035252937745,-0.000979738983379614,-0.000699212486914485,0.000285026774832736,0.000178360424917335,0.000767362427986014,0.000531161559056534
4.24035336278023,-0.000979739005106413,-0.000699212458939746,0.000285026828429052,0.000178360463513693,0.000767362433246722,0.000531161537329734
4.25035419618302,-0.000979739027530318,-0.000699212430054008,0.000285026883744768,0.000178360503372158,0.000767362438700717,0.00053116151490583
4.2603550295858,-0.000979739050371932,-0.000699212400616515,0.000285026940090656,0.000178360543997265,0.000767362444281258,0.000531161492064215
4.27035586298858,-0.000979739073357227,-0.000699212370980094,0.00028502699679073,0.00017836058490221,0.000767362449922005,0.000531161469078921
4.28035669639137,-0.00097973909621883,-0.000699212341489476,0.000285027053185439,0.000178360625611176,0.000767362455557361,0.000531161446217317
4.29035752979415,-0.000979739118697296,-0.000699212312479644,0.000285027108634791,0.000178360665661617,0.000767362461122814,0.000531161423738851
4.30035836319693,-0.000979739140542339,-0.000699212284274221,0.000285027162521396,0.0001783607046065,0.00076736246655528,0.000531161401893808
4.31035919659972,-0.000979739161514029,-0.000699212257183901,0.00028502721425342,0.000178360742016474,0.000767362471793444,0.000531161380922118
4.3203600300025,-0.000979739181383954,-0.000699212231504921,0.000285027263267448,0.000178360777481992,0.000767362476778093,0.000531161361052193
4.33036086340528,-0.000979739199936329,-0.000699212207517604,0.000285027309031219,0.000178360810615336,0.00076736248145245,0.000531161342499818
4.34036169680807,-0.000979739216969053,-0.000699212185484956,0.000285027351046232,0.000178360841052567,0.000767362485762492,0.000531161325467095
4.35036253021085,-0.000979739232294704,-0.000699212165651348,0.000285027388850208,0.000178360868455359,0.00076736248965727,0.000531161310141443
4.36036336361363,-0.00097973924574147,-0.000699212148241275,0.000285027422019371,0.000178360892512727,0.000767362493089204,0.000531161296694677
4.37036419701642,-0.000979739257153994,-0.000699212133458225,0.000285027450170542,0.000178360912942606,0.00076736249601437,0.000531161285282153
4.3803650304192,-0.000979739266394138,-0.000699212121483645,0.000285027472963022,0.000178360929493292,0.000767362498392771,0.00053116127604201
4.39036586382199,-0.000979739273341649,-0.000699212112476038,0.00028502749010024,0.000178360941944709,0.000767362500188583,0.000531161269094498
4.40036669722477,-0.000979739277894729,-0.000699212106570186,0.000285027501331136,0.000178360950109499,0.000767362501370378,0.000531161264541418
4.41036753062755,-0.00097973927997048,-0.000699212103876521,0.000285027506451285,0.000178360953833908,0.000767362501911327,0.000531161262465667
4.42036836403034,-0.000979739279505241,-0.000699212104480647,0.00028502750530371,0.000178360952998464,0.000767362501789363,0.000531161262930906
4.43036919743312,-0.000979739276454794,-0.000699212108443023,0.000285027497779398,0.000178360947518432,0.000767362500987328,0.000531161265981353
4.4403700308359,-0.000979739270794439,-0.000699212115798821,0.00028502748381748,0.000178360937344028,0.000767362499493068,0.000531161271641708
4.45037086423869,-0.000979739262518936,-0.000699212126557958,0.000285027463405085,0.000178360922460393,0.00076736249729951,0.000531161279917211
4.46037169764147,-0.000979739251642303,-0.000699212140705306,0.000285027436576846,0.000178360902887318,0.00076736249440469,0.000531161290793844
4.47037253104425,-0.000979739238197477,-0.000699212158201089,0.000285027403414064,0.000178360878678709,0.000767362490811748,0.00053116130423867
4.48037336444704,-0.000979739222235842,-0.000699212178981461,0.000285027364043534,0.000178360849921814,0.00076736248652888,0.000531161320200305
4.49037419784982,-0.000979739203826608,-0.000699212202959259,0.000285027318636023,0.000178360816736183,0.000767362481569257,0.000531161338609539
4.5003750312526,-0.00097973918305607,-0.000699212230024934,0.000285027267404434,0.000178360779272406,0.000767362475950895,0.000531161359380078
4.51037586465539,-0.000979739160026733,-0.000699212260047647,0.000285027210601653,0.000178360737710601,0.000767362469696498,0.000531161382409414
4.52037669805817,-0.000979739134856328,-0.000699212292876518,0.000285027148518115,0.000178360692258703,0.000767362462833257,0.000531161407579819
4.53037753146095,-0.000979739107676712,-0.000699212328342027,0.000285027081479091,0.000178360643150543,0.000767362455392616,0.000531161434759435
4.54037836486374,-0.000979739078632674,-0.00069921236625753,0.000285027009841754,0.000178360590643748,0.000767362447410003,0.000531161463803473
4.55037919826652,-0.000979739047880666,-0.000699212406420897,0.000285026933992027,0.00017836053501749,0.000767362438924539,0.000531161494555481
4.56038003166931,-0.000979739015587449,-0.000699212448616244,0.000285026854341267,0.000178360476570097,0.000767362429978713,0.000531161526848698
4.57038086507209,-0.000979738981928702,-0.000699212492615741,0.00028502677132281,0.000178360415616557,0.000767362420618038,0.000531161560507445
4.58038169847487,-0.000979738947087575,-0.000699212538181466,0.000285026685388421,0.000178360352485949,0.000767362410890686,0.000531161595348572
4.59038253187766,-0.000979738911253229,-0.000699212585067311,0.000285026597004683,0.000178360287518817,0.000767362400847113,0.000531161631182919
4.60038336528044,-0.000979738874619361,-0.000699212633020892,0.000285026506649363,0.000178360221064522,0.000767362390539667,0.000531161667816786
4.61038419868322,-0.000979738837382742,-0.000699212681785461,0.000285026414807793,0.000178360153478598,0.000767362380022199,0.000531161705053405
4.62038503208601,-0.000979738799741764,-0.000699212731101794,0.00028502632196931,0.000178360085120138,0.000767362369349657,0.000531161742694384
4.63038586548879,-0.000979738761895031,-0.000699212780710033,0.000285026228623762,0.000178360016349229,0.000767362358577699,0.000531161780541116
4.64038669889157,-0.000979738724039997,-0.000699212830351486,0.000285026135258151,0.000178359947524477,0.000767362347762302,0.00053116181839615
4.65038753229436,-0.000979738686371652,-0.000699212879770338,0.000285026042353399,0.000178359879000614,0.000767362336959375,0.000531161856064496
4.66038836569714,-0.000979738649081284,-0.000699212928715288,0.000285025950381294,0.000178359811126234,0.000767362326224402,0.000531161893354863
4.67038919909993,-0.000979738612355319,-0.000699212976941085,0.000285025859801618,0.000178359744241658,0.00076736231561208,0.000531161930080828
4.68039003250271,-0.000979738576374235,-0.000699213024209962,0.00028502577105948,0.000178359678676939,0.000767362305175989,0.000531161966061913
4.69039086590549,-0.000979738541311568,-0.000699213070292952,0.000285025684582871,0.000178359614750029,0.000767362294968273,0.000531162001124579
4.70039169930828,-0.000979738507333022,-0.000699213114971089,0.000285025600780443,0.00017835955276511,0.000767362285039354,0.000531162035103125
4.71039253271106,-0.000979738474595652,-0.000699213158036485,0.000285025520039529,0.000178359493011094,0.000767362275437654,0.000531162067840495
4.72039336611384,-0.000979738443247168,-0.00069921319929328,0.000285025442724393,0.000178359435760288,0.000767362266209351,0.000531162099188979
4.73039419951663,-0.000979738413425313,-0.000699213238558469,0.000285025369174727,0.000178359381267246,0.000767362257398163,0.000531162129010834
4.74039503291941,-0.000979738385257357,-0.000699213275662607,0.000285025299704381,0.000178359329767783,0.000767362249045143,0.000531162157178789
4.75039586632219,-0.000979738358859672,-0.000699213310450386,0.000285025234600322,0.000178359281478159,0.000767362241188517,0.000531162183576474
4.76039669972498,-0.000979738334337402,-0.000699213342781096,0.000285025174121825,0.000178359236594434,0.000767362233863532,0.000531162208098745
4.77039753312776,-0.000979738311784221,-0.000699213372528968,0.000285025118499875,0.00017835919529198,0.000767362227102335,0.000531162230651926
4.78039836653054,-0.000979738291282178,-0.000699213399583414,0.000285025067936782,0.00017835915772514,0.00076736222093388,0.000531162251153969
4.79039919993333,-0.000979738272901616,-0.000699213423849153,0.000285025022605983,0.000178359124027045,0.000767362215383852,0.000531162269534531
4.80040003333611,-0.000979738256701172,-0.000699213445246243,0.000285024982652047,0.000178359094309556,0.000767362210474612,0.000531162285734975
4.8104008667389,-0.000979738242727846,-0.000699213463710016,0.000285024948190835,0.000178359068663347,0.000767362206225172,0.000531162299708301
4.82040170014168,-0.000979738231017132,-0.000699213479190933,0.000285024919309834,0.000178359047158097,0.000767362202651184,0.000531162311419015
4.83040253354446,-0.000979738221593214,-0.00069921349165435,0.000285024896068639,0.000178359029842809,0.000767362199764949,0.000531162320842933
4.84040336694725,-0.000979738214469217,-0.000699213501080214,0.000285024878499569,0.000178359016746219,0.000767362197575445,0.000531162327966929
4.85040420035003,-0.00097973820964751,-0.00069921350746269,0.000285024866608414,0.000178359007877308,0.000767362196088372,0.000531162332788637
4.86040503375281,-0.000979738207120049,-0.000699213510809723,0.000285024860375291,0.000178359003225903,0.000767362195306216,0.000531162335316098
4.8704058671556,-0.000979738206868775,-0.00069921351114255,0.000285024859755611,0.000178359002763348,0.000767362195228323,0.000531162335567371
4.88040670055838,-0.000979738208866036,-0.000699213508495151,0.00028502486468113,0.000178359006443255,0.000767362195850986,0.000531162333570111
4.89040753396116,-0.000979738213075049,-0.000699213502913663,0.00028502487506109,0.000178359014202318,0.000767362197167555,0.000531162329361098
4.90040836736395,-0.000979738219450393,-0.000699213494455751,0.00028502489078343,0.000178359025961181,0.000767362199168548,0.000531162322985753
4.91040920076673,-0.000979738227938526,-0.000699213483189938,0.000285024911716062,0.000178359041625354,0.000767362201841773,0.000531162314497621
4.92041003416951,-0.000979738238478321,-0.000699213469194913,0.000285024937708195,0.000178359061086183,0.00076736220517247,0.000531162303957826
4.9304108675723,-0.000979738251001627,-0.000699213452558804,0.000285024968591719,0.000178359084221844,0.000767362209143451,0.00053116229143452
4.94041170097508,-0.000979738265433841,-0.000699213433378434,0.000285025004182617,0.000178359110898381,0.000767362213735256,0.000531162277002305
4.95041253437786,-0.000979738281694497,-0.000699213411758556,0.000285025044282408,0.000178359140970762,0.000767362218926305,0.00053116226074165
4.96041336778065,-0.000979738299697856,-0.000699213387811072,0.000285025088679623,0.000178359174283962,0.000767362224693075,0.000531162242738291
4.97041420118343,-0.000979738319353518,-0.000699213361654248,0.00028502513715129,0.000178359210674055,0.000767362231010259,0.000531162223082628
4.98041503458622,-0.000979738340567023,-0.000699213333411907,0.000285025189464432,0.000178359249969328,0.000767362237850954,0.000531162201869124
4.990415867989,-0.000979738363240462,-0.000699213303212634,0.000285025245377571,0.000178359291991389,0.00076736224518683,0.000531162179195685
5.00041670139178,-0.000979738387273087,-0.000699213271188971,0.000285025304642232,0.000178359336556286,0.000767362252988322,0.00053116215516306
5.01041753479457,-0.000979738412561918,-0.000699213237476613,0.000285025367004434,0.000178359383475622,0.000767362261224809,0.000531162129874229
5.02041836819735,-0.000979738439002342,-0.000699213202213612,0.000285025432206177,0.000178359432557661,0.000767362269864804,0.000531162103433806
5.03041920160013,-0.000979738466488707,-0.000699213165539592,0.000285025499986905,0.000178359483608427,0.000767362278876142,0.00053116207594744
5.04042003500292,-0.000979738494914912,-0.000699213127594964,0.000285025570084946,0.000178359536432784,0.000767362288226166,0.000531162047521235
5.0504208684057,-0.000979738524174971,-0.000699213088520167,0.000285025642238931,0.000178359590835507,0.000767362297881917,0.000531162018261176
5.06042170180848,-0.000979738554163583,-0.000699213048454917,0.000285025716189169,0.000178359646622319,0.000767362307810318,0.000531161988272564
5.07042253521127,-0.000979738584776668,-0.000699213007537478,0.000285025791678997,0.000178359703600909,0.00076736231797836,0.000531161957659478
5.08042336861405,-0.000979738615911903,-0.000699212965903952,0.000285025868456075,0.000178359761581926,0.000767362328353281,0.000531161926524243
5.09042420201683,-0.000979738647469224,-0.000699212923687595,0.000285025946273644,0.000178359820379926,0.000767362338902745,0.000531161894966923
5.10042503541962,-0.000979738679351317,-0.00069921288101816,0.000285026024891731,0.000178359879814297,0.000767362349595016,0.00053116186308483
5.1104258688224,-0.000979738711464084,-0.000699212838021263,0.00028502610407829,0.000178359939710138,0.000767362360399126,0.000531161830972063
5.12042670222519,-0.000979738743717082,-0.000699212794817791,0.000285026183610297,0.00017835999989909,0.000767362371285037,0.000531161798719065
5.13042753562797,-0.000979738776023941,-0.000699212751523329,0.000285026263274772,0.000178360060220136,0.000767362382223799,0.000531161766412206
5.14042836903075,-0.000979738808302752,-0.000699212708247636,0.000285026342869735,0.000178360120520336,0.0007673623931877,0.000531161734133396
5.15042920243354,-0.000979738840476423,-0.000699212665094149,0.000285026422205095,0.000178360180655517,0.000767362404150404,0.000531161701959724
5.16043003583632,-0.000979738872473014,-0.00069921262215953,0.000285026501103457,0.000178360240490912,0.00076736241508709,0.000531161669963133
5.1704308692391,-0.000979738904226031,-0.000699212579533255,0.000285026579400863,0.000178360299901734,0.000767362425974571,0.000531161638210116
5.18043170264189,-0.000979738935674692,-0.000699212537297244,0.000285026656947441,0.000178360358773698,0.000767362436791412,0.000531161606761455
5.19043253604467,-0.00097973896676416,-0.000699212495525537,0.000285026733607982,0.000178360417003475,0.000767362447518033,0.000531161575671987
5.20043336944745,-0.000979738997445741,-0.000699212454284011,0.000285026809262421,0.000178360474499089,0.000767362458136806,0.000531161544990407
5.21043420285024,-0.000979739027677043,-0.000699212413630151,0.000285026883806243,0.000178360531180242,0.000767362468632133,0.000531161514759104
5.22043503625302,-0.00097973905742211,-0.000699212373612863,0.000285026957150792,0.00017836058697858,0.00076736247899052,0.000531161485014037
5.23043586965581,-0.000979739086651506,-0.000699212334272336,0.000285027029223498,0.000178360641837889,0.000767362489200638,0.000531161455784641
5.24043670305859,-0.000979739115342372,-0.000699212295639954,0.000285027099968012,0.000178360695714223,0.000767362499253368,0.000531161427093775
5.25043753646137,-0.000979739143478449,-0.000699212257738252,0.000285027169344249,0.000178360748575963,0.000767362509141835,0.000531161398957698
5.26043836986416,-0.000979739171050055,-0.000699212220580928,0.000285027237328349,0.000178360800403814,0.000767362518861433,0.000531161371386092
5.27043920326694,-0.000979739198054035,-0.000699212184172896,0.000285027303912548,0.000178360851190728,0.000767362528409833,0.000531161344382112
5.28044003666972,-0.000979739224493676,-0.000699212148510388,0.000285027369104959,0.000178360900941771,0.000767362537786979,0.000531161317942471
5.29044087007251,-0.000979739250378582,-0.000699212113581103,0.000285027432929276,0.000178360949673914,0.000767362546995075,0.000531161292057565
5.30044170347529,-0.000979739275724523,-0.000699212079364402,0.000285027495424395,0.000178360997415769,0.000767362556038557,0.000531161266711625
5.31044253687807,-0.000979739300553247,-0.000699212045831541,0.000285027556643953,0.000178361044207266,0.000767362564924048,0.0005311612418829
5.32044337028086,-0.000979739324892268,-0.000699212012945951,0.000285027616655798,0.000178361090099264,0.000767362573660315,0.000531161217543879
5.33044420368364,-0.000979739348774617,-0.000699211980663554,0.000285027675541386,0.000178361135153116,0.000767362582258196,0.00053116119366153
5.34044503708642,-0.000979739372238575,-0.000699211948933118,0.000285027733395112,0.000178361179440178,0.000767362590730533,0.000531161170197572
5.35044587048921,-0.000979739395327375,-0.000699211917696642,0.000285027790323582,0.000178361223041268,0.000767362599092083,0.000531161147108772
5.36044670389199,-0.000979739418088883,-0.000699211886889779,0.000285027846444826,0.000178361266046086,0.000767362607359426,0.000531161124347264
5.37044753729477,-0.000979739440575263,-0.000699211856442283,0.000285027901887463,0.000178361308552589,0.000767362615550861,0.000531161101860884
5.38044837069756,-0.000979739462842614,-0.000699211826278481,0.000285027956789818,0.000178361350666333,0.00076736262368629,0.000531161079593534
5.39044920410034,-0.000979739484950601,-0.000699211796317773,0.000285028011299009,0.000178361392499782,0.000767362631787105,0.000531161057485546
5.40045003750313,-0.000979739506962072,-0.000699211766475141,0.00028502806556999,0.00017836143417159,0.000767362639876056,0.000531161035474075
5.41045087090591,-0.000979739528942654,-0.000699211736661688,0.000285028119764573,0.000178361475805865,0.00076736264797712,0.000531161013493493
5.42045170430869,-0.000979739550960355,-0.000699211706785169,0.000285028174050437,0.000178361517531407,0.000767362656115362,0.000531160991475793
5.43045253771148,-0.000979739573085151,-0.000699211676750555,0.000285028228600109,0.000178361559480946,0.000767362664316798,0.000531160969350997
5.44045337111426,-0.000979739595388574,-0.000699211646460577,0.000285028283589955,0.000178361601790364,0.000767362672608244,0.000531160947047573
5.45045420451704,-0.000979739617943303,-0.000699211615816291,0.000285028339199155,0.000178361644597913,0.00076736268101717,0.000531160924492845
5.46045503791983,-0.000979739640822745,-0.00069921158471763,0.000285028395608695,0.000178361688043449,0.000767362689571555,0.000531160901613403
5.47045587132261,-0.000979739664100637,-0.000699211553063955,0.000285028453000368,0.000178361732267654,0.000767362698299734,0.00053116087833551
5.48045670472539,-0.000979739687850647,-0.000699211520754595,0.000285028511555788,0.000178361777411285,0.000767362707230251,0.0005311608545855
5.49045753812818,-0.000979739712145982,-0.000699211487689377,0.000285028571455437,0.000178361823614435,0.000767362716391713,0.000531160830290165
5.50045837153096,-0.000979739737059012,-0.000699211453769142,0.000285028632877731,0.000178361871015811,0.000767362725812642,0.000531160805377135
5.51045920493374,-0.00097973976266091,-0.000699211418896235,0.000285028695998129,0.000178361919752041,0.000767362735521339,0.000531160779775237
5.52046003833653,-0.000979739789021302,-0.000699211382974991,0.000285028760988273,0.000178361969957007,0.000767362745545742,0.000531160753414846
5.53046087173931,-0.000979739816207936,-0.000699211345912178,0.000285028828015179,0.000178362021761213,0.000767362755913296,0.000531160726228212
5.5404617051421,-0.000979739844286377,-0.000699211307617432,0.000285028897240472,0.000178362075291181,0.000767362766650824,0.000531160698149771
5.55046253854488,-0.000979739873319711,-0.000699211268003652,0.000285028968819669,0.000178362130668896,0.000767362777784412,0.000531160669116437
5.56046337194766,-0.000979739903368282,-0.000699211226987377,0.000285029042901518,0.00017836218801128,0.000767362789339289,0.000531160639067865
5.57046420535045,-0.000979739934489445,-0.000699211184489122,0.0002850291196274,0.000178362247429716,0.000767362801339722,0.000531160607946703
5.58046503875323,-0.000979739966737343,-0.000699211140433688,0.000285029199130777,0.000178362309029614,0.000767362813808921,0.000531160575698805
5.59046587215601,-0.000979740000162714,-0.000699211094750441,0.000285029281536711,0.000178362372910021,0.000767362826768948,0.000531160542273433
5.6004667055588,-0.000979740034812719,-0.000699211047373551,0.000285029366961444,0.000178362439163283,0.000767362840240631,0.000531160507623429
5.61046753896158,-0.000979740070730791,-0.000699210998242202,0.000285029455512031,0.000178362507874752,0.000767362854243501,0.000531160471705356
5.62046837236436,-0.000979740107956521,-0.000699210947300765,0.000285029547286046,0.000178362579122534,0.000767362868795717,0.000531160434479626
5.63046920576715,-0.000979740146525558,-0.000699210894498941,0.000285029642371347,0.0001783626529773,0.000767362883914024,0.00053116039591059
5.64047003916993,-0.000979740186469537,-0.00069921083979186,0.000285029740845899,0.000178362729502129,0.000767362899613699,0.00053116035596661
5.65047087257271,-0.00097974022781604,-0.000699210783140161,0.000285029842777667,0.000178362808752409,0.000767362915908522,0.000531160314620108
5.6604717059755,-0.000979740270588567,-0.000699210724510026,0.000285029948224555,0.000178362890775777,0.000767362932810746,0.000531160271847581
5.67047253937828,-0.000979740314806539,-0.000699210663873188,0.000285030057234414,0.000178362975612111,0.000767362950331085,0.000531160227629609
5.68047337278106,-0.000979740360485327,-0.00069921060120691,0.000285030169845103,0.000178363063293555,0.0007673629684787,0.000531160181950821
5.69047420618385,-0.000979740407636291,-0.000699210536493929,0.000285030286084598,0.000178363153844597,0.000767362987261206,0.000531160134799856
5.70047503958663,-0.000979740456266851,-0.000699210469722374,0.000285030405971157,0.000178363247282177,0.000767363006684676,0.000531160086169297
5.71047587298942,-0.000979740506380569,-0.000699210400885661,0.000285030529513531,0.00017836334361584,0.000767363026753664,0.000531160036055579
5.7204767063922,-0.000979740557977254,-0.000699210329982355,0.000285030656711218,0.000178363442847916,0.000767363047471224,0.000531159984458894
5.73047753979498,-0.000979740611053085,-0.000699210257016019,0.000285030787554764,0.000178363544973746,0.00076736306883895,0.000531159931383063
5.74047837319777,-0.000979740665600741,-0.000699210181995027,0.000285030922026094,0.000178363649981921,0.000767363090857009,0.000531159876835407
5.75047920660055,-0.000979740721609559,-0.000699210104932374,0.000285031060098884,0.000178363757854567,0.000767363113524189,0.000531159820826589
5.76048004000333,-0.000979740779065689,-0.000699210025845452,0.000285031201738965,0.000178363868567641,0.000767363136837954,0.000531159763370458
5.77048087340612,-0.000979740837952277,-0.000699209944755822,0.000285031346904754,0.000178363982091258,0.000767363160794496,0.000531159704483871
5.7804817068089,-0.000979740898249642,-0.000699209861688961,0.000285031495547705,0.000178364098390041,0.000767363185388803,0.000531159644186506
5.79048254021168,-0.000979740959935474,-0.000699209776674008,0.000285031647612792,0.000178364217423475,0.000767363210614725,0.000531159582500673
5.80048337361447,-0.000979741022985038,-0.000699209689743487,0.000285031803039005,0.000178364339146296,0.000767363236465042,0.00053115951945111
5.81048420701725,-0.000979741087371373,-0.000699209600933028,0.000285031961759857,0.000178364463508876,0.000767363262931543,0.000531159455064775
5.82048504042004,-0.000979741153065513,-0.00069920951028108,0.000285032123703913,0.00017836459045763,0.000767363290005104,0.000531159389370635
5.83048587382282,-0.000979741220036699,-0.000699209417828615,0.000285032288795322,0.000178364719935427,0.000767363317675765,0.000531159322399448
5.8404867072256,-0.000979741288252602,-0.000699209323618829,0.00028503245695436,0.000178364851882004,0.00076736334593282,0.000531159254183546
5.85048754062839,-0.000979741357679539,-0.000699209227696841,0.000285032628097971,0.000178364986234396,0.000767363374764895,0.000531159184756608
5.86048837403117,-0.000979741428282701,-0.000699209130109388,0.000285032802140321,0.000178365122927355,0.000767363404160042,0.000531159114153446
5.87048920743395,-0.000979741500026371,-0.000699209030904522,0.000285032978993338,0.000178365261893778,0.00076736343410582,0.000531159042409777
5.88049004083674,-0.000979741572874144,-0.000699208930131306,0.000285033158567262,0.00017836540306513,0.000767363464589389,0.000531158969562003
5.89049087423952,-0.00097974164678915,-0.000699208827839513,0.000285033340771179,0.000178365546371872,0.000767363495597597,0.000531158895646997
5.9004917076423,-0.000979741721734267,-0.000699208724079326,0.000285033525513562,0.000178365691743869,0.000767363527117068,0.00053115882070188
5.91049254104509,-0.000979741797672335,-0.000699208618901047,0.000285033712702786,0.000178365839110813,0.000767363559134292,0.000531158744763812
5.92049337444787,-0.000979741874566365,-0.000699208512354804,0.000285033902247652,0.000178365988402621,0.000767363591635712,0.000531158667869783
5.93049420785065,-0.000979741952379741,-0.00069920840449027,0.000285034094057885,0.000178366139549837,0.000767363624607814,0.000531158590056406
5.94049504125344,-0.000979742031076424,-0.000699208295356386,0.000285034288044623,0.000178366292484016,0.00076736365803721,0.000531158511359724
5.95049587465622,-0.000979742110621138,-0.000699208185001091,0.000285034484120897,0.000178366447138103,0.000767363691910723,0.000531158431815009
5.96049670805901,-0.000979742190979563,-0.000699208073471063,0.000285034682202088,0.000178366603446801,0.000767363726215473,0.000531158351456585
5.97049754146179,-0.000979742272118508,-0.000699207960811468,0.000285034882206366,0.000178366761346919,0.000767363760938954,0.00053115827031764
5.98049837486457,-0.000979742354006088,-0.000699207847065717,0.000285035084055121,0.000178366920777714,0.000767363796069114,0.00053115818843006
5.99049920826736,-0.000979742436611886,-0.000699207732275235,0.000285035287673358,0.000178367081681215,0.00076736383159443,0.000531158105824262
6.00050004167014,-0.000979742519907107,-0.000699207616479245,0.000285035492990086,0.000178367244002528,0.000767363867503985,0.00053115802252904
6.01050087507292,-0.000979742603864727,-0.000699207499714559,0.000285035699938675,0.000178367407690131,0.000767363903787533,0.000531157938571421
6.02050170847571,-0.000979742688459627,-0.000699207382015382,0.000285035908457196,0.000178367572696145,0.000767363940435569,0.000531157853976521
6.03050254187849,-0.000979742773668719,-0.000699207263413134,0.00028503611848873,0.000178367738976587,0.000767363977439389,0.000531157768767429
6.04050337528127,-0.000979742859471067,-0.000699207143936284,0.000285036329981654,0.000178367906491607,0.000767364014791155,0.000531157682965081
6.05050420868406,-0.000979742945847988,-0.000699207023610194,0.000285036542889906,0.000178368075205702,0.000767364052483942,0.000531157596588159
6.06050504208684,-0.000979743032783147,-0.000699206902456987,0.00028503675717321,0.000178368245087904,0.000767364090511796,0.000531157509653
6.07050587548962,-0.000979743120262642,-0.000699206780495424,0.000285036972797285,0.000178368416111952,0.000767364128869775,0.000531157422173506
6.08050670889241,-0.000979743208275068,-0.000699206657740804,0.000285037189734012,0.000178368588256442,0.000767364167553995,0.00053115733416108
6.09050754229519,-0.000979743296811582,-0.000699206534204872,0.000285037407961581,0.00017836876150494,0.000767364206561659,0.000531157245624566
6.10050837569797,-0.000979743385865944,-0.000699206409895758,0.0002850376274646,0.000178368935846088,0.000767364245891095,0.000531157156570204
6.11050920910076,-0.00097974347543455,-0.000699206284817918,0.000285037848234174,0.00017836911127367,0.000767364285541775,0.000531157067001598
6.12051004250354,-0.00097974356551645,-0.000699206158972109,0.00028503807026795,0.000178369287786663,0.000767364325514341,0.000531156976919698
6.13051087590633,-0.000979743656113352,-0.000699206032355372,0.000285038293570131,0.000178369465389252,0.00076736436581061,0.000531156886322796
6.14051170930911,-0.00097974374722962,-0.000699205904961037,0.000285038518151456,0.000178369644090825,0.00076736440643359,0.000531156795206528
6.15051254271189,-0.000979743838872242,-0.00069920577677875,0.000285038744029144,0.000178369823905941,0.000767364447387476,0.000531156703563905
6.16051337611468,-0.000979743931050806,-0.000699205647794513,0.00028503897122681,0.000178370004854271,0.000767364488677646,0.000531156611385342
6.17051420951746,-0.000979744023777443,-0.000699205517990747,0.000285039199774344,0.000178370186960509,0.000767364530310653,0.000531156518658705
6.18051504292024,-0.000979744117066768,-0.000699205387346376,0.00028503942970776,0.00017837037025426,0.000767364572294204,0.000531156425369379
6.19051587632303,-0.00097974421093581,-0.00069920525583692,0.000285039661069013,0.000178370554769908,0.000767364614637141,0.000531156331500337
6.20051670972581,-0.000979744305403919,-0.000699205123434611,0.000285039893905783,0.000178370740546448,0.000767364657349408,0.000531156237032229
6.21051754312859,-0.000979744400492671,-0.000699204990108532,0.000285040128271238,0.000178370927627304,0.000767364700442019,0.000531156141943477
6.22051837653138,-0.000979744496225759,-0.000699204855824756,0.000285040364223759,0.000178371116060121,0.000767364743927017,0.000531156046210389
6.23051920993416,-0.000979744592628871,-0.000699204720546519,0.000285040601826648,0.000178371305896536,0.000767364787817427,0.000531155949807276
6.24052004333694,-0.000979744689729564,-0.000699204584234388,0.000285040841147806,0.00017837149719193,0.000767364832127207,0.000531155852706583
6.25052087673973,-0.000979744787557122,-0.00069920444684646,0.000285041082259393,0.00017837169000516,0.000767364876871191,0.000531155754879025
6.26052171014251,-0.00097974488614241,-0.000699204308338557,0.000285041325237468,0.000178371884398278,0.00076736492206503,0.000531155656293737
6.2705225435453,-0.000979744985517724,-0.00069920416866444,0.000285041570161609,0.000178372080436234,0.000767364967725129,0.000531155556918423
6.28052337694808,-0.000979745085716628,-0.000699204027776033,0.000285041817114525,0.000178372278186568,0.000767365013868576,0.00053115545671952
6.29052421035086,-0.000979745186773792,-0.000699203885623642,0.000285042066181647,0.000178372477719087,0.000767365060513077,0.000531155355662356
6.30052504375365,-0.000979745288724826,-0.000699203742156198,0.00028504231745072,0.000178372679105542,0.000767365107676879,0.000531155253711321
6.31052587715643,-0.000979745391606108,-0.000699203597321485,0.000285042571011382,0.000178372882419295,0.000767365155378697,0.00053115515083004
6.32052671055921,-0.000979745495454612,-0.000699203451066388,0.000285042826954741,0.00017837308773498,0.000767365203637638,0.000531155046981535
6.330527543962,-0.000979745600307741,-0.000699203303337126,0.000285043085372955,0.000178373295128167,0.000767365252473121,0.000531154942128406
6.34052837736478,-0.00097974570620315,-0.000699203154079496,0.000285043346358808,0.000178373504675028,0.000767365301904801,0.000531154836232998
6.35052921076756,-0.000979745813178581,-0.000699203003239109,0.000285043610005298,0.000178373716452,0.000767365351952492,0.000531154729257567
6.36053004417035,-0.000979745921271699,-0.000699202850761623,0.000285043876405226,0.00017837393053546,0.000767365402636088,0.000531154621164449
6.37053087757313,-0.000979746030519926,-0.000699202696592972,0.000285044145650797,0.000178374147001401,0.000767365453975488,0.000531154511916222
6.38053171097591,-0.000979746140960288,-0.000699202540679585,0.00028504441783324,0.000178374365925127,0.000767365505990518,0.000531154401475859
6.3905325443787,-0.000979746252629264,-0.000699202382968606,0.000285044693042427,0.000178374587380943,0.000767365558700863,0.000531154289806884
6.40053337778148,-0.000979746365562638,-0.000699202223408091,0.000285044971366529,0.000178374811441877,0.000767365612125994,0.00053115417687351
6.41053421118426,-0.000979746479795367,-0.000699202061947208,0.000285045252891668,0.000178375038179399,0.000767365666285098,0.00053115406264078
6.42053504458705,-0.000979746595361452,-0.000699201898536421,0.000285045537701609,0.000178375267663166,0.000767365721197018,0.000531153947074695
6.43053587798983,-0.000979746712293813,-0.000699201733127659,0.000285045825877459,0.000178375499960776,0.000767365776880189,0.000531153830142334
6.44053671139262,-0.000979746830624184,-0.000699201565674476,0.000285046117497393,0.000178375735137549,0.00076736583335258,0.000531153711811964
6.4505375447954,-0.000979746950383007,-0.000699201396132201,0.000285046412636406,0.000178375973256315,0.000767365890631641,0.000531153592053141
6.46053837819818,-0.000979747071599342,-0.00069920122445807,0.000285046711366085,0.000178376214377231,0.000767365948734255,0.000531153470836805
6.47053921160097,-0.000979747194300785,-0.000699201050611342,0.000285047013754408,0.00017837645855761,0.00076736600767669,0.000531153348135362
6.48054004500375,-0.000979747318513396,-0.000699200874553407,0.000285047319865564,0.000178376705851773,0.000767366067474562,0.000531153223922752
6.49054087840653,-0.000979747444261634,-0.000699200696247879,0.000285047629759805,0.000178376956310921,0.000767366128142793,0.000531153098174513
6.50054171180932,-0.000979747571568313,-0.000699200515660669,0.000285047943493314,0.000178377209983026,0.000767366189695586,0.000531152970867835
6.5105425452121,-0.00097974770045455,-0.00069920033276005,0.000285048261118107,0.000178377466912744,0.000767366252146392,0.000531152841981597
6.52054337861488,-0.000979747830939744,-0.000699200147516706,0.000285048582681952,0.000178377727141343,0.000767366315507893,0.000531152711496404
6.53054421201767,-0.000979747963041545,-0.000699199959903767,0.000285048908228313,0.000178377990706654,0.00076736637979198,0.000531152579394603
6.54054504542045,-0.000979748096775846,-0.000699199769896828,0.000285049237796327,0.000178378257643043,0.000767366445009739,0.000531152445660301
6.55054587882324,-0.000979748232156782,-0.000699199577473963,0.000285049571420786,0.000178378527981395,0.000767366511171448,0.000531152310279365
6.56054671222602,-0.000979748369196729,-0.000699199382615716,0.000285049909132162,0.000178378801749119,0.000767366578286565,0.000531152173239418
6.5705475456288,-0.000979748507906325,-0.000699199185305086,0.000285050250956632,0.000178379078970176,0.000767366646363734,0.000531152034529822
6.58054837903159,-0.000979748648294488,-0.0006991989855275,0.000285050596916142,0.000178379359665112,0.000767366715410785,0.000531151894141659
6.59054921243437,-0.000979748790368452,-0.00069919878327077,0.000285050947028478,0.000178379643851117,0.000767366785434742,0.000531151752067696
6.60055004583715,-0.000979748934133796,-0.000699198578525048,0.000285051301307363,0.000178379931542094,0.000767366856441838,0.000531151608302351
6.61055087923994,-0.000979749079594502,-0.000699198371282759,0.000285051659762565,0.000178380222748746,0.000767366928437527,0.000531151462841646
6.62055171264272,-0.000979749226752993,-0.000699198161538535,0.000285052022400029,0.000178380517478672,0.000767367001426505,0.000531151315683154
6.6305525460455,-0.000979749375610204,-0.000699197949289134,0.000285052389222019,0.000178380815736482,0.000767367075412733,0.000531151166825943
6.64055337944829,-0.000979749526165638,-0.000699197734533349,0.000285052760227277,0.000178381117523919,0.000767367150399461,0.000531151016270509
6.65055421285107,-0.00097974967841744,-0.000699197517271917,0.000285053135411198,0.000178381422839994,0.000767367226389259,0.000531150864018707
6.66055504625385,-0.000979749832362471,-0.000699197297507407,0.000285053514766012,0.000178381731681135,0.000767367303384047,0.000531150710073676
6.67055587965664,-0.000979749987996389,-0.000699197075244114,0.000285053898280984,0.000178382044041343,0.000767367381385133,0.000531150554439758
6.68055671305942,-0.000979750145313733,-0.00069919685048794,0.000285054285942623,0.000178382359912356,0.000767367460393247,0.000531150397122415
6.69055754646221,-0.000979750304308011,-0.000699196623246267,0.000285054677734898,0.000178382679283825,0.000767367540408583,0.000531150238128136
6.70055837986499,-0.000979750464971795,-0.000699196393527831,0.00028505507363947,0.000178383002143498,0.000767367621430841,0.000531150077464353
6.71055921326777,-0.000979750627296813,-0.000699196161342583,0.000285055473635924,0.000178383328477406,0.000767367703459272,0.000531149915139334
6.72056004667056,-0.000979750791274053,-0.000699195926701552,0.000285055877702015,0.00017838365827006,0.000767367786492724,0.000531149751162094
6.73056088007334,-0.000979750956893858,-0.000699195689616703,0.000285056285813916,0.000178383991504655,0.000767367870529689,0.000531149585542289
6.74056171347612,-0.000979751124146035,-0.000699195450100788,0.000285056697946476,0.000178384328163273,0.000767367955568355,0.000531149418290112
6.75056254687891,-0.000979751293019957,-0.000699195208167195,0.000285057114073474,0.000178384668227095,0.000767368041606659,0.00053114924941619
6.76056338028169,-0.00097975146350467,-0.0006991949638298,0.000285057534167889,0.000178385011676613,0.000767368128642334,0.000531149078931477
6.77056421368447,-0.000979751635589002,-0.000699194717102811,0.000285057958202158,0.000178385358491847,0.000767368216672967,0.000531148906847144
6.78056504708726,-0.000979751809261671,-0.000699194468000616,0.000285058386148446,0.000178385708652563,0.000767368305696054,0.000531148733174476
6.79056588049004,-0.00097975198451139,-0.000699194216537622,0.00028505881797891,0.000178386062138486,0.000767368395709053,0.000531148557924757
6.80056671389282,-0.000979752161326978,-0.000699193962728111,0.000285059253665969,0.000178386418929522,0.000767368486709439,0.000531148381109169
6.81056754729561,-0.000979752339697465,-0.000699193706586076,0.000285059693182559,0.000178386779005973,0.00076736857869476,0.000531148202738682
6.82056838069839,-0.000979752519612198,-0.000699193448125076,0.0002850601365024,0.000178387142348748,0.000767368671662695,0.000531148022823949
6.83056921410117,-0.000979752701060943,-0.000699193187358084,0.000285060583600245,0.000178387508939574,0.000767368765611105,0.000531147841375204
6.84057004750396,-0.000979752884033989,-0.000699192924297341,0.000285061034452132,0.000178387878761203,0.000767368860538088,0.000531147658402158
6.85057088090674,-0.000979753068522242,-0.000699192658954214,0.000285061489035624,0.00017838825179761,0.000767368956442034,0.000531147473913905
6.86057171430953,-0.000979753254517323,-0.000699192391339061,0.000285061947330045,0.000178388628034189,0.000767369053321676,0.000531147287918824
6.87057254771231,-0.000979753442011657,-0.000699192121461093,0.000285062409316698,0.000178389007457934,0.000767369151176138,0.00053114710042449
6.88057338111509,-0.000979753630998559,-0.000699191849328254,0.000285062874979085,0.000178389390057624,0.000767369250004988,0.000531146911437588
6.89057421451788,-0.000979753821472318,-0.000699191574947095,0.000285063344303099,0.000178389775823983,0.000767369349808279,0.000531146720963829
6.90057504792066,-0.000979754013428268,-0.000699191298322671,0.000285063817277219,0.000178390164749843,0.000767369450586599,0.000531146529007879
6.91057588132344,-0.000979754206862866,-0.000699191019458428,0.00028506429389268,0.000178390556830287,0.000767369552341107,0.000531146335573281
