data1,data2,data3,data4
0,-0.000359760469115815,-0.000716804377157373,-0.000214679843528424
0.0100050025012506,-0.000357440959747498,-0.00071307763717131,-0.000212360334160108
0.0200100050025013,-0.00035722948756433,-0.000712737293048707,-0.000212148861976939
0.0300150075037519,-0.000362674920735351,-0.000721485743724199,-0.00021759429514796
0.0400200100050025,-0.000363127451082374,-0.000722212102201865,-0.000218046825494983
0.0500250125062531,-0.00035682182216017,-0.000712061567050109,-0.00021174119657278
0.0600300150075038,-0.000354172190400938,-0.000707793266601393,-0.000209091564813548
0.0700350175087544,-0.000353498702135494,-0.000706708093813454,-0.000208418076548103
0.080040020010005,-0.000353845346996551,-0.00070726662518722,-0.000208764721409161
0.0900450225112556,-0.000354847608304764,-0.000708881543355773,-0.000209766982717374
0.100050025012506,-0.000356443154401995,-0.000711452534967515,-0.000211362528814605
0.110055027513757,-0.000358675177351255,-0.000715049417557812,-0.000213594551763864
0.120060030015008,-0.000361622524666395,-0.000719799605135581,-0.000216541899079005
0.130065032516258,-0.000365371811757641,-0.00072584323074347,-0.00022029118617025
0.140070035017509,-0.000369995498796939,-0.000733297867114822,-0.000224914873209548
0.150075037518759,-0.00037552577229207,-0.000742216442260973,-0.00023044514670468
0.16008004002001,-0.00038192505781662,-0.000752539633909492,-0.000236844432229229
0.170085042521261,-0.000389059616683049,-0.000764053095028075,-0.000243978991095659
0.180090045022511,-0.000396685970377373,-0.000776365206479553,-0.000251605344789983
0.190095047523762,-0.000404459678918557,-0.000788920785971281,-0.000259379053331166
0.200100050025012,-0.000411970827843208,-0.000801057942397105,-0.000266890202255818
0.210105052526263,-0.000418801229341056,-0.000812100229437646,-0.000273720603753665
0.220110055027514,-0.000424588716894611,-0.000821460645129471,-0.00027950809130722
0.230115057528764,-0.000429079511278292,-0.000828726732888454,-0.000283998885690902
0.240120060030015,-0.000432153843344898,-0.000833702641751609,-0.000287073217757508
0.250125062531266,-0.000433820929363996,-0.000836401559249911,-0.000288740303776606
0.260130065032516,-0.000434190703268411,-0.000837000295682753,-0.000289110077681021
0.270135067533767,-0.000433435536014237,-0.000835777383809635,-0.000288354910426847
0.280140070035018,-0.000431754170518393,-0.000833054566811057,-0.000286673544931003
0.290145072536268,-0.000429345144527159,-0.000829153567704368,-0.000284264518939768
0.300150075037519,-0.000426391804124376,-0.000824371636544211,-0.000281311178536985
0.310155077538769,-0.000423057652097789,-0.000818973883181025,-0.000277977026510398
0.32016008004002,-0.000419489320923067,-0.000813198008330952,-0.000274408695335677
0.330165082541271,-0.000415824152754569,-0.000807266529395014,-0.000270743527167179
0.340170085042521,-0.000412199531660793,-0.000801401859945096,-0.000267118906073403
0.350175087543772,-0.000408761446089614,-0.000795840148965244,-0.000263680820502224
0.360180090045022,-0.000405670233129777,-0.000790840564112121,-0.000260589607542386
0.370185092546273,-0.000403102123739835,-0.00078668779391667,-0.000258021498152444
0.380190095047524,-0.000401246074725949,-0.000783686951821607,-0.000256165449138559
0.390195097548774,-0.00040029633712819,-0.000782151623508074,-0.000255215711540799
0.400200100050025,-0.000400442066158702,-0.000782387174964811,-0.000255361440571312
0.410205102551276,-0.000401855778530528,-0.000784672235665111,-0.000256775152943137
0.420210105052526,-0.000404682427043044,-0.000789241199188067,-0.000259601801455654
0.430215107553777,-0.000409030265395754,-0.000796269608294365,-0.000263949639808364
0.440220110055028,-0.000414963674874831,-0.000805862668704463,-0.00026988304928744
0.450225112556278,-0.000422497001132822,-0.00081804532114382,-0.000277416375545432
0.460230115057529,-0.000431587533862362,-0.000832750824082552,-0.000286506908274972
0.470235117558779,-0.000442125402424602,-0.00084980421776571,-0.000297044776837212
0.48024012006003,-0.00045391876195522,-0.000868898009710158,-0.00030883813636783
0.490245122561281,-0.000466674714368796,-0.000889560773540664,-0.000321594088781406
0.500250125062531,-0.000479980429354728,-0.000911125890413504,-0.000334899803767338
0.510255127563782,-0.000493294795973082,-0.000932717244281181,-0.000348214170385692
0.520260130065032,-0.000505966775469047,-0.000953278292761172,-0.000360886149881656
0.530265132566283,-0.000517297542185932,-0.000971672584032518,-0.000372216916598542
0.540270135067534,-0.000526652353343428,-0.000986865744267691,-0.000381571727756037
0.550275137568784,-0.000533601525953924,-0.000998155579967347,-0.000388520900366534
0.560280140070035,-0.000538038598367967,-0.00100536555617763,-0.000392957972780577
0.570285142571286,-0.000540214470151526,-0.00100890137958395,-0.000395133844564136
0.580290145072536,-0.000540660285242315,-0.00100962578390154,-0.000395579659654925
0.590295147573787,-0.000540032997194421,-0.00100860678475135,-0.000394952371607031
0.600300150075038,-0.000538957115858881,-0.00100685957311306,-0.000393876490271491
0.610305152576288,-0.000537923305458864,-0.00100518125940895,-0.000392842679871474
0.620310155077539,-0.000537259127387677,-0.00100410339373268,-0.000392178501800287
0.630315157578789,-0.000537150518981117,-0.00100392718096553,-0.000392069893393727
0.64032016008004,-0.000537683302253413,-0.00100479121251311,-0.000392602676666023
0.650325162581291,-0.000538883262713552,-0.00100673673562021,-0.000393802637126162
0.660330165082541,-0.000540745880371151,-0.00100975598991008,-0.000395665254783761
0.670335167583792,-0.000543254927035537,-0.00101382239221133,-0.000398174301448147
0.680340170085043,-0.000546392407307722,-0.00101890664067691,-0.000401311781720331
0.690345172586293,-0.000550142769034909,-0.00102498351509168,-0.000405062143447518
0.700350175087544,-0.000554493708452937,-0.00103203315822545,-0.000409413082865547
0.710355177588794,-0.000559435147604483,-0.00104003940015569,-0.000414354522017092
0.720360180090045,-0.000564957376771982,-0.00104898673434049,-0.000419876751184591
0.730365182591296,-0.000571048972314386,-0.00105885693269149,-0.000425968346726996
0.740370185092546,-0.000577694872638238,-0.00106962591772449,-0.000432614247050848
0.750375187593797,-0.00058487486261026,-0.00108126129574925,-0.00043979423702287
0.760380190095048,-0.000592562632338152,-0.00109372081907514,-0.000447482006750762
0.770385192596298,-0.000600725509171713,-0.00110695193733704,-0.000455644883584323
0.780390195097549,-0.000609324895948839,-0.00112089249213514,-0.000464244270361449
0.790395197598799,-0.000618317379399327,-0.00113547249778098,-0.000473236753811937
0.80040020010005,-0.000627656403784525,-0.00115061683972316,-0.000482575778197135
0.810405202601301,-0.00063729434436378,-0.00116624862420517,-0.00049221371877639
0.820410205102551,-0.000647184772153965,-0.00118229284248402,-0.000502104146566575
0.830415207603802,-0.00065728468250416,-0.00119867998162393,-0.00051220405691677
0.840420210105053,-0.000667556467693854,-0.00121534922556693,-0.000522475842106464
0.850425212606303,-0.000677969445392822,-0.00123225094066836,-0.000532888819805432
0.860430215107554,-0.000688500803300015,-0.001249348217815,-0.000543420177712625
0.870435217608804,-0.000699135876008136,-0.00126661733315289,-0.000554055250420746
0.880440220110055,-0.000709867723433533,-0.00128404707567137,-0.000564787097846143
0.890445222611306,-0.000720696023421753,-0.00130163696009022,-0.000575615397834363
0.900450225112556,-0.00073162532029827,-0.00131939439097899,-0.00058654469471088
0.910455227613807,-0.000742662685986985,-0.00133733086840468,-0.000597582060399595
0.920460230115058,-0.000753814854130173,-0.00135545733188998,-0.000608734228542783
0.930465232616308,-0.000765084886260696,-0.00137377873753514,-0.000620004260673306
0.940470235117559,-0.000776468430046804,-0.0013922879650881,-0.000631387804459414
0.950475237618809,-0.000787949641575896,-0.0014109591716245,-0.000642869015988506
0.96048024012006,-0.00079949687592179,-0.00142974076164088,-0.0006544162503344
0.970485242621311,-0.000811058312546122,-0.00144854824567059,-0.000665977686958732
0.980490245122561,-0.000822557783377786,-0.00146725742563872,-0.000677477157790396
0.990495247623812,-0.000833891217353369,-0.00148569858384971,-0.000688810591765979
1.00050025012506,-0.00084492430656464,-0.00150365265738502,-0.00069984368097725
1.01050525262631,-0.000855491913561897,-0.0015208508226818,-0.000710411287974507
1.02051025512756,-0.000865400801012962,-0.00153697845542834,-0.000720320175425572
1.03051525762881,-0.000874435850779844,-0.00155168609727407,-0.000729355225192453
1.04052026013006,-0.000882371621029293,-0.00156460711874563,-0.000737290995441903
1.05052526263132,-0.000888989113643636,-0.00157538498218747,-0.000743908488056246
1.06053026513257,-0.000894097083032683,-0.00158370742858832,-0.000749016457445293
1.07053526763382,-0.000897555455235899,-0.00158934471903852,-0.000752474829648508
1.08054027013507,-0.00089929761036815,-0.00159218597021211,-0.00075421698478076
1.09054527263632,-0.000899346778513936,-0.00159226610104009,-0.000754266152926546
1.10055027513757,-0.000897822023830792,-0.00158977601814836,-0.000752741398243402
1.11055527763882,-0.000894930963457692,-0.00158505131193023,-0.000749850337870302
1.12056028014007,-0.000890949371959888,-0.00157853956355361,-0.000745868746372497
1.13056528264132,-0.000886191213164558,-0.00157075187268069,-0.000741110587577168
1.14057028514257,-0.00088097511067782,-0.00156220829156843,-0.00073589448509043
1.15057528764382,-0.000875593830866225,-0.00155338786802343,-0.000730513205278834
1.16058029014507,-0.000870291895375364,-0.00154469172592479,-0.000725211269787974
1.17058529264632,-0.000865253736324978,-0.00153642325955106,-0.000720173110737588
1.18059029514757,-0.000860602007685854,-0.0015287849471379,-0.000715521382098464
1.19059529764882,-0.000856403684955706,-0.00152188800699326,-0.000711323059368316
1.20060030015008,-0.000852680768903559,-0.0015157697246689,-0.000707600143316169
1.21060530265133,-0.000849422591084797,-0.00151041352776597,-0.000704341965497407
1.22061030515258,-0.000846597481382111,-0.00150576810599132,-0.000701516855794721
1.23061530765383,-0.000844162484848276,-0.00150176338604269,-0.000699081859260885
1.24062031015508,-0.000842070625398756,-0.00149832250519126,-0.000696989999811366
1.25062531265633,-0.000840275781669224,-0.00149536986939907,-0.000695195156081834
1.26063031515758,-0.000838735555683871,-0.00149283590939166,-0.000693654930096481
1.27063531765883,-0.00083741263016096,-0.00149065934449556,-0.00069233200457357
1.28064032016008,-0.000836275096309405,-0.00148878774538822,-0.000691194470722014
1.29064532266133,-0.000835296154235006,-0.00148717705792207,-0.000690215528647616
1.30065032516258,-0.00083445348753458,-0.00148579058557811,-0.00068937286194719
1.31065532766383,-0.000833728518399572,-0.00148459777144867,-0.000688647892812182
1.32066033016508,-0.00083310567133002,-0.00148357299171191,-0.00068802504574263
1.33066533266633,-0.000832571715260376,-0.00148269447632944,-0.000687491089672986
1.34067033516758,-0.000832115213881786,-0.00148194340658412,-0.000687034588294396
1.35067533766883,-0.000831726088781571,-0.00148130319746708,-0.000686645463194181
1.36068034017009,-0.000831395285945759,-0.00148075894962476,-0.000686314660358369
1.37068534267134,-0.000831114529765201,-0.00148029704494746,-0.000686033904177811
1.38069034517259,-0.000830876147148107,-0.00147990485729369,-0.000685795521560716
1.39069534767384,-0.000830672945555133,-0.00147957055180475,-0.000685592319967743
1.40070035017509,-0.000830498131262135,-0.00147928295033558,-0.000685417505674744
1.41070535267634,-0.000830345256983359,-0.00147903144516358,-0.000685264631395968
1.42071035517759,-0.000830208190626786,-0.00147880594746707,-0.000685127565039396
1.43071535767884,-0.000830081099160241,-0.00147859686068639,-0.000685000473572851
1.44072036018009,-0.000829958443276239,-0.00147839507168596,-0.000684877817688849
1.45072536268134,-0.00082983562290593,-0.00147819301270701,-0.00068475499731854
1.46073036518259,-0.00082971189135149,-0.001477989455559,-0.0006846312657641
1.47073536768384,-0.000829590913035591,-0.00147779042908377,-0.000684510287448201
1.48074037018509,-0.000829477785618488,-0.00147760431987787,-0.000684397160031098
1.49074537268634,-0.000829376913390099,-0.00147743837355777,-0.000684296287802709
1.50075037518759,-0.000829291236838455,-0.00147729742728331,-0.000684210611251065
1.51075537768884,-0.000829222594823266,-0.00147718450566815,-0.000684141969235876
1.5207603801901,-0.000829172184559202,-0.00147710157761061,-0.000684091558971812
1.53076538269135,-0.000829140902687904,-0.00147705011747534,-0.000684060277100513
1.5407703851926,-0.00082912956393414,-0.00147703146486044,-0.00068404893834675
1.55077538769385,-0.000829139031482364,-0.00147704703911905,-0.000684058405894974
1.5607803901951,-0.000829170288463796,-0.00147709845699689,-0.000684089662876406
1.57078539269635,-0.000829224470037168,-0.00147718758544578,-0.000684143844449777
1.5807903951976,-0.000829302868828379,-0.00147731655061926,-0.000684222243240989
1.59079539769885,-0.000829406922154574,-0.00147748771691451,-0.000684326296567184
1.6008004002001,-0.000829538186671666,-0.00147770364533901,-0.000684457561084276
1.61080540270135,-0.000829698304279125,-0.00147796703750872,-0.000684617678691734
1.6208104052026,-0.000829888961924822,-0.00147828066962403,-0.000684808336337432
1.63081540770385,-0.000830111847149664,-0.00147864731944668,-0.000685031221562274
1.6408204102051,-0.000830368600660047,-0.00147906968839226,-0.000685287975072657
1.65082541270635,-0.000830660766835065,-0.00147955032022442,-0.000685580141247675
1.6608304152076,-0.000830989742817206,-0.00148009151741094,-0.000685909117229816
1.67083541770885,-0.000831356726672214,-0.00148069525593259,-0.000686276101084824
1.68084042021011,-0.000831762665018298,-0.00148136309919416,-0.000686682039430908
1.69084542271136,-0.000832208200504998,-0.00148209611165365,-0.000687127574917607
1.70085042521261,-0.000832693619557635,-0.00148289477284408,-0.000687612993970245
1.71085542771386,-0.000833218800884605,-0.00148375889259623,-0.000688138175297215
1.72086043021511,-0.000833783165361497,-0.00148468752846307,-0.000688702539774107
1.73086543271636,-0.000834385628047063,-0.00148567890658003,-0.000689305002459673
1.74087043521761,-0.00083502455323986,-0.0014867303474499,-0.00068994392765247
1.75087543771886,-0.000835697713639561,-0.00148783819839854,-0.000690617088052171
1.76088044022011,-0.000836402254822879,-0.00148899777469133,-0.000691321629235489
1.77088544272136,-0.000837134666371956,-0.00149020331151388,-0.000692054040784566
1.78089044522261,-0.00083789076109624,-0.00149144792919503,-0.00069281013550885
1.79089544772386,-0.00083866566386367,-0.00149272361417828,-0.00069358503827628
1.80090045022511,-0.000839453811602183,-0.00149402121832729,-0.000694373186014793
1.81090545272636,-0.000840248966049216,-0.00149533047918469,-0.000695168340461826
1.82091045522761,-0.000841044240816761,-0.00149664006379251,-0.000695963615229371
1.83091545772886,-0.000841832144303073,-0.0014979376386281,-0.000696751518715682
1.84092046023012,-0.000842604639916111,-0.00149920996810649,-0.000697524014328721
1.85092546273137,-0.000843353224968108,-0.00150044304393022,-0.000698272599380717
1.86093046523262,-0.000844069029436038,-0.00150162224730013,-0.000698988403848648
1.87093546773387,-0.000844742935528936,-0.00150273254558413,-0.000699662309941546
1.88094047023512,-0.000845365718618272,-0.00150375872440653,-0.000700285093030882
1.89094547273637,-0.000845928209521729,-0.00150468565518461,-0.000700847583934339
1.90095047523762,-0.000846421477329818,-0.00150549859681246,-0.000701340851742428
1.91095547773887,-0.000846837030881263,-0.00150618352839502,-0.000701756405293873
1.92096048024012,-0.000847167035598223,-0.00150672750762045,-0.000702086410010833
1.93096548274137,-0.000847404540692935,-0.00150711904653703,-0.000702323915105545
1.94097048524262,-0.000847543709812341,-0.00150734849326913,-0.000702463084224951
1.95097548774387,-0.000847580046124212,-0.00150740840477768,-0.000702499420536822
1.96098049024512,-0.00084751060087167,-0.00150729389248246,-0.00070242997528428
1.97098549274637,-0.000847334152812357,-0.00150700291988105,-0.000702253527224966
1.98099049524762,-0.000847051345048584,-0.00150653652977867,-0.000701970719461194
1.99099549774887,-0.000846664765895963,-0.00150589897896616,-0.000701584140308572
2.00100050025013,-0.000846178961935944,-0.00150509776065962,-0.000701098336348553
2.01100550275138,-0.000845600374439046,-0.0015041435000538,-0.000700519748851656
2.02101050525263,-0.00084493719492196,-0.00150304971593013,-0.00069985656933457
2.03101550775388,-0.000844199141451725,-0.00150183245096498,-0.000699118515864335
2.04102051025513,-0.000843397163899943,-0.0015005097843162,-0.000698316538312552
2.05102551275638,-0.000842543092911005,-0.00149910125095175,-0.000697462467323615
2.06103051525763,-0.00084164925297892,-0.00149762720152283,-0.000696568627391529
2.07103551775888,-0.000840728063847574,-0.00149610814291651,-0.000695647438260183
2.08104052026013,-0.00083979165577968,-0.00149456410182166,-0.00069471103019229
2.09104552276138,-0.000838851522761192,-0.00149301405117902,-0.000693770897173801
2.10105052526263,-0.000837918233557049,-0.00149147543249235,-0.000692837607969659
2.11105552776388,-0.000837001214300529,-0.0014899637966334,-0.000691920588713139
2.12106053026513,-0.000836108608918261,-0.00148849257353552,-0.000691027983330871
2.13106553276638,-0.000835247216260217,-0.0014870729688543,-0.000690166590672826
2.14107053526763,-0.000834422496349295,-0.00148571397498682,-0.000689341870761905
2.15107553776888,-0.000833638633459051,-0.00148442247605922,-0.000688558007871661
2.16108054027013,-0.000832898641158337,-0.00148320342225294,-0.000687818015570947
2.17108554277139,-0.000832204494008355,-0.00148206004810719,-0.000687123868420965
2.18109054527264,-0.000831557271901708,-0.00148099411160936,-0.000686476646314318
2.19109554777389,-0.000830957305526137,-0.00148000613502335,-0.000685876679938747
2.20110055027514,-0.000830404314490474,-0.00147909563346881,-0.000685323688903084
2.21110555277639,-0.000829897532709999,-0.00147826132233001,-0.000684816907122609
2.22111055527764,-0.000829435818310691,-0.00147750129897801,-0.000684355192723301
2.23111555777889,-0.00082901774735804,-0.00147681319767372,-0.00068393712177065
2.24112056028014,-0.000828641692094997,-0.00147619431879777,-0.000683561066507606
2.25112556278139,-0.000828305885155226,-0.00147564173484463,-0.000683225259567836
2.26113056528264,-0.000828008471538743,-0.00147515237614754,-0.000682927845951353
2.27113556778389,-0.000827747550150856,-0.00147472309932284,-0.000682666924563466
2.28114057028514,-0.000827521206548838,-0.00147435074116293,-0.000682440580961448
2.29114557278639,-0.000827327538316234,-0.00147403216033465,-0.000682246912728844
2.30115057528764,-0.000827164674256987,-0.0014737642688628,-0.000682084048669597
2.31115557778889,-0.000827030788403632,-0.00147354405504938,-0.000681950162816242
2.32116058029015,-0.000826924109676133,-0.00147336859921729,-0.000681843484088743
2.3311655827914,-0.000826842927908069,-0.00147323508346726,-0.000681762302320679
2.34117058529265,-0.000826785596866713,-0.00147314079648586,-0.000681704971279323
2.3511755877939,-0.000826750534823969,-0.00147308313432634,-0.000681669909236579
2.36118059029515,-0.000826736223178478,-0.00147305959798857,-0.000681655597591088
2.3711855927964,-0.000826741203580124,-0.00147306778854254,-0.000681660577992733
2.38119059529765,-0.000826764073963288,-0.0014731054004649,-0.000681683448375898
2.3911955977989,-0.000826803483852817,-0.00147317021378709,-0.000681722858265426
2.40120060030015,-0.000826858129266009,-0.0014732600855868,-0.000681777503678619
2.4112056028014,-0.000826926747494868,-0.00147337294128927,-0.000681846121907478
2.42121060530265,-0.00082700811201532,-0.00147350676618351,-0.00068192748642793
2.4312156078039,-0.000827101027734176,-0.00147365959749907,-0.000682020402146786
2.44122061030515,-0.000827204326750245,-0.001473829517333,-0.000682123701162855
2.4512256128064,-0.000827316864773145,-0.00147401464666239,-0.000682236239185755
2.46123061530765,-0.000827437518311837,-0.00147421314062662,-0.000682356892724447
2.4712356178089,-0.000827565182714677,-0.00147442318521392,-0.000682484557127287
2.48124062031015,-0.000827698771113761,-0.00147464299543951,-0.000682618145526371
2.49124562281141,-0.000827837214298553,-0.00147487081505722,-0.000682756588711163
2.50125062531266,-0.000827979461517371,-0.00147510491780317,-0.000682898835929981
2.51125562781391,-0.000828124482180462,-0.00147534361012986,-0.000683043856593072
2.52126063031516,-0.00082827126841535,-0.00147558523535077,-0.00068319064282796
2.53126563281641,-0.000828418838404239,-0.00147582817908175,-0.000683338212816849
2.54127063531766,-0.000828566240414714,-0.00147607087583474,-0.000683485614827324
2.55127563781891,-0.000828712557419005,-0.00147631181659307,-0.000683631931831615
2.56128064032016,-0.000828856912183844,-0.00147654955717553,-0.000683776286596454
2.57128564282141,-0.000828998472702323,-0.00147678272717893,-0.000683917847114933
2.58129064532266,-0.000829136457831177,-0.00147701003927497,-0.000684055832243786
2.59129564782391,-0.000829270142991162,-0.00147723029862771,-0.000684189517403772
2.60130065032516,-0.000829398865784544,-0.00147744241219114,-0.000684318240197154
2.61130565282641,-0.000829522031381651,-0.00147764539764257,-0.00068444140579426
2.62131065532766,-0.000829639117527903,-0.00147783839170603,-0.000684558491940513
2.63131565782891,-0.000829749679023384,-0.00147802065762034,-0.000684669053435994
2.64132066033017,-0.000829853351529017,-0.00147819159150922,-0.000684772725941627
2.65132566283142,-0.000829949854557003,-0.00147835072741623,-0.000684869228969613
2.66133066533267,-0.000830038993508877,-0.00147849774077623,-0.000684958367921487
2.67133566783392,-0.000830120660633158,-0.00147863245010876,-0.000685040035045768
2.68134067033517,-0.000830194834787039,-0.00147875481673919,-0.000685114209199649
2.69134567283642,-0.000830261579903985,-0.00147886494238187,-0.000685180954316595
2.70135067533767,-0.000830321042092397,-0.00147896306445804,-0.000685240416505007
2.71135567783892,-0.000830373445320508,-0.001479049549071,-0.000685292819733118
2.72136068034017,-0.000830419085679663,-0.0014791248816221,-0.000685338460092273
2.73136568284142,-0.000830458324261898,-0.00147918965512429,-0.000685377698674508
2.74137068534267,-0.0008304915787372,-0.00147924455635191,-0.000685410953149809
2.75137568784392,-0.000830519313769239,-0.00147929035005458,-0.000685438688181848
2.76138069034517,-0.000830542030462971,-0.00147932786155402,-0.000685461404875581
2.77138569284642,-0.000830560255090008,-0.00147935795813029,-0.000685479629502618
2.78139069534767,-0.000830574527384185,-0.00147938152968163,-0.000685493901796795
2.79139569784892,-0.000830585388736369,-0.00147939946920341,-0.000685504763148979
2.80140070035018,-0.000830593370640538,-0.00147941265367039,-0.000685512745053148
2.81140570285143,-0.000830598983749567,-0.00147942192591727,-0.000685518358162177
2.82141070535268,-0.000830602707887155,-0.00147942807809335,-0.000685522082299764
2.83141570785393,-0.000830604983331472,-0.00147943183721573,-0.000685524357744082
2.84142071035518,-0.000830606203637672,-0.00147943385326539,-0.000685525578050282
2.85142571285643,-0.000830606710203111,-0.00147943469016556,-0.000685526084615721
2.86143071535768,-0.000830606788705203,-0.00147943481985881,-0.000685526163117812
2.87143571785893,-0.000830606667517135,-0.0014794346196581,-0.000685526041929744
2.88144072036018,-0.00083060651954157,-0.00147943437525055,-0.00068552589395418
2.89144572286143,-0.000830606453331866,-0.00147943426603197,-0.000685525827744476
2.90145072536268,-0.000830606609753242,-0.00147943452483176,-0.000685525984165852
2.91145572786393,-0.000830607322511906,-0.00147943570295514,-0.000685526696924516
2.92146073036518,-0.000830609108566352,-0.00147943865389708,-0.000685528482978962
2.93146573286643,-0.000830612573418585,-0.00147944437637782,-0.000685531947831195
2.94147073536768,-0.000830618310765139,-0.00147945384819413,-0.000685537685177749
2.95147573786893,-0.000830626812700177,-0.00147946787769025,-0.000685546187112787
2.96148074037019,-0.000830638393243123,-0.00147948697746596,-0.000685557767655732
2.97148574287144,-0.000830653130819333,-0.00147951126969558,-0.000685572505231943
2.98149074537269,-0.000830670836624919,-0.00147954043453868,-0.000685590211037528
2.99149574787394,-0.000830691054692868,-0.00147957371121218,-0.000685610429105478
3.00150075037519,-0.000830713095996177,-0.0014796099554566,-0.000685632470408787
3.01150575287644,-0.000830736103655724,-0.00147964774835218,-0.000685655478068333
3.02151075537769,-0.000830759140501467,-0.0014796855417953,-0.000685678514914077
3.03151575787894,-0.000830781285535361,-0.00147972181821316,-0.000685700659947971
3.04152076038019,-0.000830801723848562,-0.00147975523889305,-0.000685721098261171
3.05152576288144,-0.000830819816119709,-0.00147978475803604,-0.000685739190532319
3.06153076538269,-0.000830835138669807,-0.00147980968778152,-0.000685754513082417
3.07153576788394,-0.000830847491735286,-0.00147982971057282,-0.000685766866147896
3.08154077038519,-0.000830856880102415,-0.00147984484594968,-0.000685776254515025
3.09154577288644,-0.000830863474699001,-0.00147985538615371,-0.00068578284911161
3.10155077538769,-0.000830867565255772,-0.0014798618173478,-0.000685786939668382
3.11155577788894,-0.000830869512968389,-0.0014798647412072,-0.000685788887380998
3.1215607803902,-0.00083086970928353,-0.001479864806936,-0.000685789083696139
3.13156578289145,-0.000830868543787805,-0.00147986265853543,-0.000685787918200415
3.1415707853927,-0.000830866381648322,-0.00147985889796826,-0.000685785756060932
3.15157578789395,-0.000830863549519726,-0.00147985406234499,-0.000685782923932336
3.1615807903952,-0.000830860328200096,-0.00147984861223559,-0.000685779702612706
3.17158579289645,-0.000830856950272694,-0.00147984292815842,-0.000685776324685304
3.1815907953977,-0.000830853601202264,-0.00147983731269965,-0.000685772975614874
3.19159579789895,-0.000830850422661522,-0.00147983199623732,-0.000685769797074132
3.2016008004002,-0.000830847517152711,-0.00147982714473127,-0.000685766891565321
3.21160580290145,-0.000830844953233543,-0.00147982286844887,-0.000685764327646153
3.2216108054027,-0.000830842770856486,-0.00147981923082828,-0.000685762145269096
3.23161580790395,-0.000830840986491008,-0.00147981625694634,-0.000685760360903618
3.2416208104052,-0.000830839597825306,-0.00147981394126633,-0.000685758972237915
3.25162581290645,-0.000830838587941184,-0.00147981225449948,-0.000685757962353794
3.2616308154077,-0.000830837928926937,-0.00147981114952935,-0.000685757303339546
3.27163581790895,-0.000830837584942035,-0.00147981056642746,-0.000685756959354645
3.2816408204102,-0.000830837514778317,-0.00147981043663734,-0.000685756889190926
3.29164582291146,-0.000830837673978974,-0.00147981068643074,-0.000685757048391583
3.30165082541271,-0.000830838016582842,-0.00147981123974866,-0.000685757390995452
3.31165582791396,-0.000830838496560285,-0.00147981202053722,-0.000685757870972895
3.32166083041521,-0.000830839069001095,-0.00147981295467829,-0.000685758443413705
3.33166583291646,-0.000830839691106187,-0.00147981397160015,-0.000685759065518797
3.34167083541771,-0.000830840323025009,-0.00147981500563716,-0.000685759697437619
3.35167583791896,-0.000830840928570395,-0.00147981599719031,-0.000685760302983005
3.36168084042021,-0.000830841475832854,-0.00147981689372476,-0.000685760850245463
3.37168584292146,-0.000830841937707341,-0.0014798176506254,-0.00068576131211995
3.38169084542271,-0.000830842292337686,-0.00147981823191901,-0.000685761666750296
3.39169584792396,-0.000830842523477275,-0.00147981861086014,-0.000685761897889885
3.40170085042521,-0.000830842620759345,-0.00147981877036992,-0.000685761995171955
3.41170585292646,-0.00083084257986657,-0.00147981870331056,-0.000685761954279179
3.42171085542771,-0.000830842402587388,-0.00147981841257474,-0.000685761776999997
3.43171585792896,-0.000830842096745986,-0.00147981791096829,-0.000685761471158596
3.44172086043022,-0.000830841675993825,-0.00147981722086616,-0.000685761050406435
3.45172586293147,-0.000830841159453117,-0.00147981637362573,-0.000685760533865727
3.46173086543272,-0.000830840571206567,-0.00147981540874805,-0.000685759945619177
3.47173586793397,-0.000830839939632759,-0.00147981437278591,-0.000685759314045369
3.48174087043522,-0.000830839296592538,-0.00147981331800734,-0.000685758671005148
3.49174587293647,-0.000830838676478278,-0.0014798123008341,-0.000685758050890887
3.50175087543772,-0.000830838115144661,-0.00147981138008554,-0.000685757489557271
3.51175587793897,-0.000830837648746122,-0.00147981061506926,-0.000685757023158731
3.52176088044022,-0.000830837312512088,-0.00147981006356952,-0.000685756686924698
3.53176588294147,-0.000830837139496225,-0.00147980977979296,-0.000685756513908835
3.54177088544272,-0.000830837159339784,-0.00147980981233753,-0.000685756533752394
3.55177588794397,-0.000830837397091661,-0.00147981020225451,-0.000685756771504271
3.56178089044522,-0.000830837872128766,-0.00147981098127552,-0.000685757246541376
3.57178589294647,-0.000830838597219641,-0.00147981217027492,-0.000685757971632251
3.58179089544772,-0.00083083957777203,-0.00147981377803465,-0.00068575895218464
3.59179589794897,-0.000830840811301157,-0.00147981580037191,-0.000685760185713767
3.60180090045022,-0.00083084228714998,-0.00147981821968113,-0.000685761661562589
3.61180590295148,-0.000830843986485568,-0.0014798210049299,-0.000685763360898177
3.62181090545273,-0.00083084588258716,-0.00147982411213442,-0.00068576525699977
3.63181590795398,-0.000830847941431451,-0.00147982748532354,-0.000685767315844061
3.64182091045523,-0.000830850122569389,-0.00147983105798198,-0.000685769496981998
3.65182591295648,-0.000830852380276562,-0.00147983475494299,-0.000685771754689172
3.66183091545773,-0.000830854664946452,-0.00147983849468003,-0.000685774039359061
3.67183591795898,-0.000830856924683015,-0.00147984219192555,-0.000685776299095625
3.68184092046023,-0.000830859107037002,-0.00147984576052546,-0.000685778481449612
3.69184592296148,-0.000830861160819862,-0.00147984911642034,-0.000685780535232471
3.70185092546273,-0.000830863037921118,-0.00147985218063148,-0.000685782412333728
3.71185592796398,-0.000830864695050516,-0.00147985488212225,-0.000685784069463126
3.72186093046523,-0.00083086609532591,-0.00147985716040498,-0.00068578546973852
3.73186593296648,-0.000830867209632353,-0.00147985896777082,-0.000685786584044963
3.74187093546773,-0.000830868017687241,-0.0014798602710356,-0.000685787392099851
3.75187593796898,-0.000830868508760503,-0.00147986105271821,-0.000685787883173113
3.76188094047024,-0.000830868682016785,-0.00147986131159727,-0.000685788056429395
3.77188594297149,-0.000830868546467285,-0.0014798610626262,-0.000685787920879895
3.78189094547274,-0.000830868120540638,-0.00147986033622249,-0.000685787494953248
3.79189594797399,-0.000830867431303324,-0.00147985917698151,-0.000685786805715934
3.80190095047524,-0.00083086651337879,-0.00147985764189603,-0.000685785887791399
3.81190595297649,-0.000830865407629223,-0.00147985579818678,-0.000685784782041833
3.82191095547774,-0.000830864159673765,-0.00147985372086537,-0.000685783534086374
3.83191595797899,-0.000830862818321174,-0.00147985149015798,-0.000685782192733784
3.84192096048024,-0.000830861433993764,-0.00147984918891595,-0.000685780808406374
3.85192596298149,-0.000830860057213206,-0.00147984690012912,-0.000685779431625815
3.86193096548274,-0.000830858737208652,-0.00147984470464134,-0.000685778111621262
3.87193596798399,-0.000830857520694689,-0.00147984267914569,-0.000685776895107299
3.88194097048524,-0.00083085645085229,-0.00147984089451391,-0.0006857758252649
3.89194597298649,-0.000830855566531438,-0.00147983941449042,-0.000685774940944047
3.90195097548774,-0.000830854901680497,-0.0014798382947589,-0.000685774276093106
3.91195597798899,-0.000830854484995539,-0.00147983758237028,-0.000685773859408149
3.92196098049025,-0.000830854339773214,-0.00147983731550476,-0.000685773714185824
3.9319659829915,-0.000830854483943622,-0.00147983752352926,-0.000685773858356232
3.94197098549275,-0.000830854930254976,-0.00147983822730366,-0.000685774304667586
3.951975987994,-0.000830855686579512,-0.0014798394396857,-0.000685775060992122
3.96198099049525,-0.000830856756309699,-0.00147984116618365,-0.000685776130722309
3.9719859929965,-0.00083085813881509,-0.00147984340570813,-0.0006857775132277
3.98199099549775,-0.000830859829932554,-0.0014798461513781,-0.000685779204345163
3.991995997999,-0.000830861822465972,-0.00147984939134214,-0.000685781196878582
4.00200100050025,-0.000830864106675209,-0.00147985310958161,-0.000685783481087818
4.0120060030015,-0.000830866670738148,-0.00147985728666933,-0.000685786045150758
4.02201100550275,-0.000830869501173534,-0.00147986190046373,-0.000685788875586144
4.032016008004,-0.000830872583216026,-0.00147986692672428,-0.000685791957628636
4.04202101050525,-0.000830875901138316,-0.00147987233964001,-0.000685795275550925
4.0520260130065,-0.000830879438518086,-0.00147987811226733,-0.000685798812930696
4.06203101550775,-0.000830883178450174,-0.00147988421687801,-0.000685802552862784
4.072036018009,-0.000830887103706376,-0.00147989062522117,-0.000685806478118986
4.08204102051026,-0.000830891196847032,-0.00147989730870616,-0.000685810571259642
4.09204602301151,-0.000830895440289809,-0.00147990423851529,-0.000685814814702419
4.10205102551276,-0.000830899816342054,-0.00147991138565682,-0.000685819190754664
4.11205602801401,-0.000830904307203713,-0.00147991872096968,-0.000685823681616322
4.12206103051526,-0.000830908894948187,-0.00147992621509202,-0.000685828269360797
4.13206603301651,-0.000830913561488634,-0.00147993383840591,-0.000685832935901243
4.14207103551776,-0.000830918288537113,-0.00147994156097031,-0.000685837662949723
4.15207603801901,-0.000830923057563774,-0.001479949352454,-0.000685842431976384
4.16208104052026,-0.000830927849762785,-0.00147995718207962,-0.000685847224175395
4.17208604302151,-0.000830932646031175,-0.00147996501858869,-0.000685852020443785
4.18209104552276,-0.000830937426965985,-0.00147997283023672,-0.000685856801378595
4.19209604802401,-0.000830942172884282,-0.00147998058482549,-0.000685861547296891
4.20210105052526,-0.000830946863869572,-0.00147998824977869,-0.000685866238282182
4.21210605302651,-0.000830951479847084,-0.00147999579226462,-0.000685870854259694
4.22211105552776,-0.000830956000689179,-0.00148000317936818,-0.000685875375101788
4.23211605802901,-0.000830960406350946,-0.00148001037831225,-0.000685879780763556
4.24212106053027,-0.000830964677034789,-0.00148001735672644,-0.000685884051447399
4.25212606303152,-0.000830968793381596,-0.00148002408295923,-0.000685888167794206
4.26213106553277,-0.000830972736684951,-0.00148003052642791,-0.000685892111097561
4.27213606803402,-0.000830976489123841,-0.00148003665799865,-0.000685895863536451
4.28214107053527,-0.00083098003400844,-0.00148004245038801,-0.00068589940842105
4.29214607303652,-0.000830983356032944,-0.00148004787857599,-0.000685902730445554
4.30215107553777,-0.000830986441527128,-0.00148005292021692,-0.000685905815939738
4.31215607803902,-0.0008309892786571,-0.00148005755596755,-0.000685908653069709
4.32216108054027,-0.000830991858827082,-0.00148006177177683,-0.000685911233239692
4.33216608304152,-0.000830994167774681,-0.00148006554432042,-0.000685913542187291
4.34217108554277,-0.000830996182053708,-0.00148006883525492,-0.000685915556466318
4.35217608804402,-0.000830997874558129,-0.00148007160025297,-0.000685917248970739
4.36218109054527,-0.0008309992213173,-0.00148007380011723,-0.000685918595729909
4.37218609304652,-0.00083100020155237,-0.00148007540087251,-0.000685919575964979
4.38219109554777,-0.000831000797803,-0.00148007637397188,-0.000685920172215609
4.39219609804902,-0.000831000996539956,-0.00148007669729745,-0.000685920370952566
4.40220110055028,-0.000831000789191762,-0.00148007635683819,-0.000685920163604371
4.41220610305153,-0.000831000173574714,-0.00148007534902722,-0.000685919547987323
4.42221110555278,-0.000830999155717493,-0.00148007368372417,-0.000685918530130103
4.43221610805403,-0.000830997752054808,-0.00148007138780079,-0.000685917126467418
4.44222111055528,-0.000830995991929392,-0.00148006850923062,-0.000685915366342002
4.45222611305653,-0.000830993920285618,-0.00148006512149182,-0.000685913294698228
4.46223111555778,-0.000830991600358068,-0.00148006132796171,-0.000685910974770678
4.47223611805903,-0.000830989116053731,-0.00148005726581048,-0.00068590849046634
4.48224112056028,-0.000830986573602122,-0.00148005310869802,-0.000685905948014731
4.49224612306153,-0.000830984101920031,-0.00148004906736962,-0.000685903476332641
4.50225112556278,-0.000830981851040562,-0.00148004538708738,-0.000685901225453172
4.51225612806403,-0.000830979987942935,-0.00148004234081274,-0.000685899362355545
4.52226113056528,-0.000830978689256945,-0.00148004021728018,-0.000685898063669555
4.53226613306653,-0.000830978130664514,-0.00148003930367186,-0.000685897505077124
4.54227113556778,-0.000830978473400719,-0.00148003986355109,-0.000685897847813329
4.55227613806903,-0.000830979849008757,-0.00148004211194174,-0.000685899223421367
4.56228114057028,-0.000830982344265056,-0.00148004619068608,-0.000685901718677665
4.57228614307154,-0.000830985988715464,-0.00148005214807103,-0.000685905363128074
4.58229114557279,-0.000830990747295651,-0.00148005992676561,-0.000685910121708261
4.59229614807404,-0.0008309965199011,-0.00148006936311874,-0.00068591589431371
4.60230115057529,-0.000831003148588581,-0.00148008019893198,-0.000685922523001191
4.61230615307654,-0.000831010431629651,-0.00148009210443306,-0.000685929806042261
4.62231115557779,-0.000831018142334351,-0.00148010470904693,-0.000685937516746961
4.63231615807904,-0.000831026049815017,-0.00148011763533814,-0.000685945424227627
4.64232116058029,-0.000831033938848895,-0.00148013053147994,-0.000685953313261505
4.65232616308154,-0.00083104162662961,-0.00148014309863751,-0.00068596100104222
4.66233116558279,-0.000831048975171813,-0.00148015511124554,-0.000685968349584422
4.67233616808404,-0.000831055899103181,-0.00148016642974546,-0.000685975273515791
4.68234117058529,-0.000831062369294171,-0.00148017700651881,-0.000685981743706781
4.69234617308654,-0.000831068413152231,-0.00148018688636798,-0.00068598778756484
4.70235117558779,-0.0008310741124945,-0.00148019620303861,-0.000685993486907109
4.71235617808904,-0.000831079599826368,-0.00148020517313606,-0.000685998974238978
4.72236118059029,-0.00083108505370188,-0.00148021408854093,-0.00068600442811449
4.73236618309155,-0.000831090693693862,-0.00148022330818673,-0.000686010068106472
4.7423711855928,-0.000831096775381147,-0.00148023324986526,-0.000686016149793757
4.75237618809405,-0.000831103585664773,-0.00148024438256998,-0.000686022960077382
4.7623811905953,-0.000831111438643106,-0.0014802572197528,-0.000686030813055716
4.77238619309655,-0.00083112067219876,-0.00148027231374449,-0.00068604004661137
4.7823911955978,-0.00083113164537501,-0.00148029025146559,-0.00068605101978762
4.79239619809905,-0.000831144736548294,-0.00148031165143861,-0.000686064110960904
4.8024012006003,-0.000831160342340124,-0.00148033716200885,-0.000686079716752734
4.81240620310155,-0.000831178877159717,-0.00148036746059614,-0.000686098251572326
4.8224112056028,-0.000831200773229891,-0.00148040325373648,-0.0006861201476425
4.83241620810405,-0.000831226480923221,-0.0014804452776308,-0.00068614585533583
4.8424212106053,-0.000831256469221937,-0.00148049429889573,-0.000686175843634547
4.85242621310655,-0.00083129122611158,-0.00148055111520612,-0.00068621060052419
4.8624312156078,-0.000831331258722691,-0.00148061655552535,-0.000686250633135301
4.87243621810905,-0.000831377093044859,-0.00148069147963654,-0.000686296467457469
4.88244122061031,-0.000831429273051586,-0.0014807767767104,-0.000686348647464196
4.89244622311156,-0.000831488359091586,-0.00148087336267373,-0.000686407733504195
4.90245122561281,-0.00083155492542167,-0.0014809821761746,-0.00068647429983428
4.91245622811406,-0.000831629556777995,-0.00148110417297534,-0.000686548931190605
4.92246123061531,-0.000831712843906099,-0.00148124031864335,-0.000686632218318709
4.93246623311656,-0.000831805377995973,-0.00148139157945196,-0.000686724752408582
4.94247123561781,-0.000831907743996269,-0.00148155891144895,-0.000686827118408879
4.95247623811906,-0.000832020512811701,-0.00148174324769955,-0.000686939887224311
4.96248124062031,-0.000832144232419365,-0.00148194548376238,-0.000687063606831975
4.97248624312156,-0.000832279417972722,-0.00148216646151079,-0.000687198792385331
4.98249124562281,-0.000832426540995706,-0.00148240695146732,-0.000687345915408316
4.99249624812406,-0.000832586017803223,-0.00148266763387418,-0.000687505392215832
5.00250125062531,-0.000832758197317353,-0.00148294907877665,-0.000687677571729962
5.01250625312656,-0.000832943348480416,-0.00148325172544857,-0.000687862722893025
5.02251125562781,-0.000833141647495902,-0.00148357586153759,-0.000688061021908512
5.03251625812906,-0.00083335316515598,-0.00148392160235352,-0.00068827253956859
5.04252126063032,-0.000833577854539475,-0.00148428887076375,-0.000688497228952085
5.05252626313157,-0.000833815539386847,-0.00148467737819734,-0.000688734913799457
5.06253126563282,-0.000834065903478627,-0.00148508660729122,-0.000688985277891236
5.07253626813407,-0.000834328481360844,-0.00148551579674039,-0.000689247855773454
5.08254127063532,-0.000834602650774592,-0.0014859639289357,-0.000689522025187202
5.09254627313657,-0.000834887627156155,-0.00148642972098813,-0.000689807001568765
5.10255127563782,-0.000835182460577454,-0.00148691161974373,-0.000690101834990064
5.11255627813907,-0.000835486035491713,-0.00148740780138531,-0.000690405409904323
5.12256128064032,-0.000835797073633337,-0.00148791617619071,-0.000690716448045947
5.13256628314157,-0.000836114140390522,-0.00148843439896767,-0.000691033514803131
5.14257128564282,-0.000836435654920456,-0.00148895988560567,-0.000691355029333066
5.15257628814407,-0.000836759904206531,-0.0014894898360696,-0.000691679278619141
5.16258129064532,-0.00083708506116194,-0.00149002126400503,-0.00069200443557455
5.17258629314657,-0.000837409206763047,-0.0014905510329268,-0.000692328581175657
5.18259129564782,-0.000837730356049518,-0.0014910758987236,-0.000692649730462128
5.19259629814907,-0.000838046487659882,-0.0014915925579361,-0.000692965862072492
5.20260130065033,-0.000838355576387424,-0.00149209770096607,-0.000693274950800034
5.21260630315158,-0.000838655628052004,-0.00149258806906481,-0.000693575002464614
5.22261130565283,-0.000838944715801585,-0.00149306051365224,-0.000693864090214195
5.23261630815408,-0.000839221016798134,-0.00149351205625863,-0.000694140391210744
5.24262131065533,-0.000839482848122604,-0.00149393994718484,-0.000694402222535214
5.25262631315658,-0.000839728700668531,-0.00149434172087115,-0.000694648075081141
5.26263131565783,-0.000839957269796379,-0.00149471524596916,-0.000694876644208989
5.27263631815908,-0.000840167481599304,-0.0014950587682397,-0.000695086856011914
5.28264132066033,-0.000840358513787293,-0.00149537094465548,-0.000695277888199903
5.29264632316158,-0.000840529810424494,-0.00149565086745929,-0.000695449184837103
5.30265132566283,-0.000840681090040514,-0.00149589807739598,-0.000695600464453124
5.31265632816408,-0.000840812346959649,-0.00149611256586418,-0.000695731721372259
5.32266133066533,-0.000840923846027087,-0.00149629476628122,-0.000695843220439697
5.33266633316658,-0.000841016111230612,-0.00149644553547626,-0.000695935485643222
5.34267133566783,-0.000841089908993952,-0.00149656612638004,-0.000696009283406562
5.35267633816908,-0.000841146227132173,-0.00149665815362964,-0.000696065601544783
5.36268134067033,-0.000841186250595731,-0.00149672355392863,-0.00069610562500834
5.37268634317159,-0.000841211335182104,-0.00149676454308867,-0.000696130709594714
5.38269134567284,-0.000841222980365278,-0.00149678357163149,-0.000696142354777888
5.39269634817409,-0.000841222802294435,-0.00149678328066855,-0.000696142176707044
5.40270135067534,-0.000841212507860672,-0.00149676645952657,-0.000696131882273282
5.41270635317659,-0.00084119387054393,-0.00149673600628203,-0.00069611324495654
5.42271135567784,-0.000841168708551754,-0.00149669489204035,-0.000696088082964364
5.43271635817909,-0.000841138865564913,-0.00149664612947402,-0.000696058239977523
5.44272136068034,-0.000841106194226492,-0.00149659274584296,-0.000696025568639102
5.45272636318159,-0.000841072542360409,-0.00149653776047362,-0.000695991916773019
5.46273136568284,-0.000841039741787026,-0.00149648416648095,-0.000695959116199636
5.47273636818409,-0.000841009599518161,-0.00149643491637715,-0.000695928973930771
5.48274137068534,-0.000840983891058576,-0.00149639291112137,-0.000695903265471186
5.49274637318659,-0.000840964355511089,-0.00149636099211554,-0.000695883729923699
5.50275137568784,-0.000840952692172018,-0.0014963419356344,-0.000695872066584628
5.51275637818909,-0.000840950558307041,-0.00149633844918325,-0.000695869932719651
5.52276138069035,-0.000840959567809534,-0.00149635316929678,-0.000695878942222144
5.5327663831916,-0.000840981290460045,-0.00149638866031918,-0.000695900664872655
5.54277138569285,-0.000841017251523984,-0.00149644741373602,-0.000695936625936594
5.5527763881941,-0.000841068931443007,-0.00149653184765835,-0.000695988305855617
5.56278139069535,-0.000841137765393325,-0.0014966443060886,-0.000696057139805935
5.5727863931966,-0.000841225142501158,-0.00149678705762572,-0.000696144516913767
5.58279139569785,-0.000841332404522234,-0.00149696229329399,-0.000696251778934844
5.5927963981991,-0.000841460843809419,-0.00149717212320855,-0.000696380218222029
5.60280140070035,-0.000841611700410896,-0.00149741857182026,-0.000696531074823505
5.6128064032016,-0.000841786158161799,-0.00149770357151639,-0.000696705532574409
5.62281140570285,-0.000841985339655355,-0.00149802895439139,-0.000696904714067965
5.6328164082041,-0.000842210300005924,-0.00149839644204512,-0.000697129674418533
5.64282141070535,-0.000842462019346224,-0.00149880763331501,-0.000697381393758833
5.6528264132066,-0.000842741394034382,-0.00149926398990304,-0.000697660768446992
5.66283141570785,-0.000843049226583172,-0.00149976681991855,-0.000697968600995782
5.6728364182091,-0.00084338621436338,-0.00150031725942295,-0.00069830558877599
5.68284142071036,-0.000843752937175021,-0.00150091625213018,-0.000698672311587631
5.69284642321161,-0.000844149843823124,-0.00150156452748768,-0.000699069218235733
5.70285142571286,-0.000844577237877961,-0.00150226257743268,-0.000699496612290571
5.71285642821411,-0.000845035262841535,-0.00150301063218738,-0.000699954637254145
5.72286143071536,-0.000845523886981477,-0.00150380863552077,-0.000700443261394087
5.73286643321661,-0.00084604302051323,-0.00150465643615864,-0.00070096239492584
5.74287143571786,-0.000846592472625089,-0.00150555371762922,-0.000701511847037698
5.75287643821911,-0.000847157335140932,-0.00150647613014096,-0.000702076709553542
5.76288144072036,-0.000847711430616842,-0.00150738092513012,-0.000702630805029452
5.77288644322161,-0.000848225250526423,-0.00150821992085806,-0.000703144624939033
5.78289144572286,-0.000848669943072414,-0.00150894601465243,-0.000703589317485024
5.79289644822411,-0.000849018564115076,-0.00150951522415905,-0.000703937938527686
5.80290145072536,-0.000849246607271319,-0.00150988755043291,-0.000704165981683929
5.81290645322661,-0.000849332979758277,-0.00151002856810396,-0.000704252354170887
5.82291145572786,-0.000849261279496145,-0.0015099115070441,-0.000704180653908755
5.83291645822911,-0.000849021223439415,-0.00150951958110831,-0.000703940597852025
5.84292146073037,-0.000848610030323596,-0.00150884824334018,-0.000703529404736206
5.85292646323162,-0.000848033510608342,-0.00150790696479053,-0.000702952885020952
5.86293146573287,-0.000847306590743107,-0.00150672009202426,-0.000702225965155717
5.87293646823412,-0.000846453022710469,-0.00150532637681802,-0.000701372397123079
5.88294147073537,-0.000845504121414066,-0.00150377692042821,-0.000700423495826676
5.89294647323662,-0.000844496532675486,-0.00150213153565988,-0.000699415907088096
5.90295147573787,-0.000843469237948788,-0.00150045386156625,-0.000698388612361397
5.91295647823912,-0.000842460196712612,-0.00149880588390038,-0.000697379571125221
5.92296148074037,-0.000841503149529932,-0.00149724271443824,-0.000696422523942542
5.93296648324162,-0.000840625102076432,-0.00149580847900175,-0.000695544476489042
5.94297148574287,-0.000839844869803341,-0.00149453393537477,-0.000694764244215951
5.95297648824412,-0.000839172822079091,-0.00149343604955226,-0.000694092196491701
5.96298149074537,-0.000838611700626958,-0.00149251932743814,-0.000693531075039567
5.97298649324662,-0.000838158183649784,-0.00149177836624165,-0.000693077558062393
5.98299149574787,-0.000837804778909603,-0.00149120094511896,-0.000692724153322213
5.99299649824912,-0.000837541662288964,-0.00149077102833503,-0.000692461036701574
6.00300150075037,-0.000837358196250699,-0.00149047124651453,-0.000692277570663309
6.01300650325163,-0.00083724400928942,-0.00149028466116065,-0.00069216338370203
6.02301150575288,-0.000837189643690857,-0.0014901958239823,-0.000692109018103467
6.03301650825413,-0.000837186857367358,-0.00149019127092856,-0.000692106231779968
6.04302151075538,-0.000837228692886232,-0.00149025963565771,-0.000692148067298842
6.05302651325663,-0.000837309416451749,-0.00149039155033607,-0.000692228790864359
6.06303151575788,-0.000837424400990409,-0.001490579454953,-0.000692343775403019
6.07303651825913,-0.000837569997075269,-0.00149081738665277,-0.000692489371487879
6.08304152076038,-0.000837743412264107,-0.00149110078273572,-0.000692662786676717
6.09304652326163,-0.000837942605564222,-0.00149142630832279,-0.000692861979976832
6.10305152576288,-0.000838166197201883,-0.00149179170899225,-0.000693085571614493
6.11305652826413,-0.000838413391674268,-0.00149219568509674,-0.000693332766086878
6.12306153076538,-0.000838683911838569,-0.00149263778410023,-0.000693603286251179
6.13306653326663,-0.00083897794219688,-0.00149311830793231,-0.00069389731660949
6.14307153576788,-0.000839296079973272,-0.00149363823307028,-0.000694215454385882
6.15307653826913,-0.000839639292867346,-0.00149419914152945,-0.000694558667279956
6.16308154077038,-0.000840008882495815,-0.00149480316114871,-0.000694928256908425
6.17308654327164,-0.000840406452545465,-0.00149545291357751,-0.000695325826958075
6.18309154577289,-0.000840833880609278,-0.00149615146828546,-0.000695753255021888
6.19309654827414,-0.000841293292605933,-0.00149690230079893,-0.000696212667018543
6.20310155077539,-0.000841787038621434,-0.00149770925326805,-0.000696706413034044
6.21310655327664,-0.000842317668978829,-0.00149857649541402,-0.000697237043391439
6.22311155577789,-0.0008428879093474,-0.0014995084839151,-0.000697807283760009
6.23311655827914,-0.000843500633750263,-0.00150050991836741,-0.000698420008162872
6.24312156078039,-0.00084415883441977,-0.00150158569210401,-0.00069907820883238
6.25312656328164,-0.000844865587582848,-0.0015027408363723,-0.000699784961995458
6.26313156578289,-0.000845624014432302,-0.00150398045665359,-0.000700543388844912
6.27313656828414,-0.0008464372367535,-0.00150530966025653,-0.000701356611166109
6.28314157078539,-0.000847308326926109,-0.00150673347472461,-0.000702227701338719
6.29314657328664,-0.000848240252303536,-0.00150825675705902,-0.000703159626716146
6.30315157578789,-0.000849235814282037,-0.00150988409426308,-0.000704155188694647
6.31315657828914,-0.000850297582698165,-0.00151161969624681,-0.000705216957110775
6.3231615807904,-0.000851427826525734,-0.0015134672826727,-0.000706347200938344
6.33316658329165,-0.000852628442168076,-0.00151542996585286,-0.000707547816580685
6.3431715857929,-0.000853900880942784,-0.0015175101322995,-0.000708820255355394
6.35317658829415,-0.000855246077618923,-0.00151970932595929,-0.000710165452031533
6.3631815907954,-0.000856664382076072,-0.00152202813650363,-0.000711583756488681
6.37318659329665,-0.000858155496298114,-0.00152446609628193,-0.000713074870710724
6.3831915957979,-0.00085971841898284,-0.00152702158965642,-0.00071463779339545
6.39319659829915,-0.000861351400035294,-0.00152969177841707,-0.000716270774447903
6.4032016008004,-0.000863051907116412,-0.0015324725468193,-0.000717971281529022
6.41320660330165,-0.000864816606239908,-0.00153535846949829,-0.000719735980652518
6.4232116058029,-0.000866641358153541,-0.00153834280509707,-0.000721560732566151
6.43321660830415,-0.000868521231911235,-0.0015414175179112,-0.000723440606323844
6.4432216108054,-0.000870450536646241,-0.0015445733292101,-0.000725369911058851
6.45322661330665,-0.000872422872099249,-0.00154779979915441,-0.000727342246511859
6.4632316158079,-0.000874431197945811,-0.00155108543940194,-0.000729350572358421
6.47323661830915,-0.000876467921412639,-0.00155441785559332,-0.000731387295825249
6.48324162081041,-0.000878525002082386,-0.00155778391794933,-0.000733444376494996
6.49324662331166,-0.000880594072175477,-0.00156116995721752,-0.000735513446588087
6.50325162581291,-0.000882666569984869,-0.00156456198220675,-0.000737585944397479
6.51325662831416,-0.000884733883550983,-0.00156794591418716,-0.000739653257963593
6.52326163081541,-0.000886787501131339,-0.00157130783256049,-0.000741706875543949
6.53326663331666,-0.000888819164579257,-0.00157463422548189,-0.000743738538991867
6.54327163581791,-0.000890821021436478,-0.00157791223860108,-0.000745740395849087
6.55327663831916,-0.000892785771401256,-0.00158112991484664,-0.000747705145813866
6.56328164082041,-0.000894706802884292,-0.00158427641824784,-0.000749626177296902
6.57328664332166,-0.000896578315624924,-0.00158734223519998,-0.000751497690037534
6.58329164582291,-0.000898395425808415,-0.00159031934733063,-0.000753314800221025
6.59329664832416,-0.000900154250782466,-0.0015932013711854,-0.000755073625195076
6.60330165082541,-0.000901851971280807,-0.001595983661264,-0.000756771345693417
6.61330665332666,-0.000903486869972977,-0.001598663374419,-0.000758406244385587
6.62331165582791,-0.000905058346112992,-0.00160123949518413,-0.000759977720525602
6.63331665832916,-0.00090656690699421,-0.00160371282312734,-0.00076148628140682
6.64332166083042,-0.000908014137776886,-0.00160608592473327,-0.000762933512189496
6.65332666333167,-0.000909402651992066,-0.00160836305353351,-0.000764322026404676
6.66333166583292,-0.000910736025607871,-0.0016105500431678,-0.00076565540002048
6.67333666833417,-0.000912018717953264,-0.00161265417874192,-0.000766938092365874
6.68334167083542,-0.000913255983025682,-0.00161468405224146,-0.000768175357438292
6.69334667333667,-0.00091445377476879,-0.0016166494078731,-0.0007693731491814
6.70335167583792,-0.000915618649810384,-0.00161856098306048,-0.000770538024222994
6.71335667833917,-0.000916757670918561,-0.00162043035045299,-0.000771677045331171
6.72336168084042,-0.000917878314090801,-0.0016222697657514,-0.000772797688503411
6.73336668334167,-0.000918988381761544,-0.00162409202545635,-0.000773907756174154
6.74337168584292,-0.000920095924125783,-0.00162591033784836,-0.000775015298538393
6.75337668834417,-0.000921209170056024,-0.00162773820965507,-0.000776128544468634
6.76338169084542,-0.000922336468563597,-0.00162958934999638,-0.000777255842976206
6.77338669334667,-0.00092348624124671,-0.00163147759236007,-0.00077840561565932
6.78339169584792,-0.000924666945698013,-0.00163341683458615,-0.000779586320110623
6.79339669834917,-0.000925887049430464,-0.00163542099615384,-0.000780806423843074
6.80340170085042,-0.000927155013534018,-0.00163750399149222,-0.000782074387946628
6.81340670335168,-0.000928479285003368,-0.00163967971758448,-0.000783398659415977
6.82341170585293,-0.000929868296479926,-0.0016419620538081,-0.000784787670892536
6.83341670835418,-0.0009313304720258,-0.0016443648717442,-0.00078624984643841
6.84342171085543,-0.000932874237486618,-0.00164690205258651,-0.000787793611899228
6.85342671335668,-0.000934508033994013,-0.00164958750976797,-0.000789427408406623
6.86343171585793,-0.000936240333196673,-0.0016524352144834,-0.000791159707609283
6.87343671835918,-0.000938079652880372,-0.00165545922190233,-0.000792999027292982
6.88344172086043,-0.000940034571732475,-0.00165867369602018,-0.000794953946145085
6.89344672336168,-0.000942113742116809,-0.00166209293127559,-0.000797033116529419
6.90345172586293,-0.000944325899844172,-0.00166573136925571,-0.000799245274256782
6.91345672836418,-0.00094667987004781,-0.00166960360901294,-0.00080159924446042
6.92346173086543,-0.000949184568399517,-0.00167372440972205,-0.000804103942812127
6.93346673336668,-0.000951848997029832,-0.00167810868461429,-0.000806768371442442
6.94347173586793,-0.000954682234645739,-0.0016827714853362,-0.000809601609058349
6.95347673836918,-0.000957693420472581,-0.00168772797609799,-0.000812612794885191
6.96348174087044,-0.000960891731785514,-0.00169299339720193,-0.000815811106198124
6.97348674337169,-0.00096428635494137,-0.00169858301777914,-0.00081920572935398
6.98349174587294,-0.000967886449975661,-0.00170451207781487,-0.000822805824388271
6.99349674837419,-0.000971701108991934,-0.00171079571980937,-0.000826620483404544
7.00350175087544,-0.000975739308741128,-0.00171744891070213,-0.000830658683153738
7.01350675337669,-0.00098000985796478,-0.00172448635497874,-0.00083492923237739
7.02351175587794,-0.000984521340254183,-0.00173192240017539,-0.000839440714666792
7.03351675837919,-0.00098928205335283,-0.00173977093628847,-0.00084420142776544
7.04352176088044,-0.000994299945995036,-0.00174804529087373,-0.000849219320407646
7.05352676338169,-0.000999582553521955,-0.00175675812187037,-0.000854501927934564
7.06353176588294,-0.00100513693363914,-0.00176592131039448,-0.000860056308051747
7.07353676838419,-0.00101096960376885,-0.00177554585590109,-0.000865888978181456
7.08354177088544,-0.0010170864814979,-0.0017856417762008,-0.000872005855910505
7.09354677338669,-0.00102349282962112,-0.00179621801482458,-0.000878412204033729
7.10355177588794,-0.00103019320722688,-0.00180728235814995,-0.000885112581639491
7.11355677838919,-0.0010371914281617,-0.00181884136452961,-0.00089211080257431
7.12356178089045,-0.00104449052804618,-0.00183090030739828,-0.000899409902458794
7.1335667833917,-0.00105209274079671,-0.00184346313397971,-0.000907012115209318
7.14357178589295,-0.00105999948534226,-0.00185653244078231,-0.000914918859754871
7.1535767883942,-0.00106821136292124,-0.00187010946657103,-0.00092313073733385
7.16358179089545,-0.00107672802543794,-0.00188419387212716,-0.000931647399850549
7.1735867933967,-0.00108554626683494,-0.00189878058018309,-0.000940465641247551
7.18359179589795,-0.00109462614636259,-0.00191380371862906,-0.000949545520775203
7.1935967983992,-0.00110389051499384,-0.00192913578108172,-0.000958809889406451
7.20360180090045,-0.0011132400355081,-0.00194461243346452,-0.000968159409920712
7.2136068034017,-0.00112256559380486,-0.00196005303151275,-0.000977484968217467
7.22361180590295,-0.00113175131694906,-0.00197526560617415,-0.000986670691361667
7.2336168084042,-0.00114067297145759,-0.00199004420387624,-0.000995592345870195
7.24362181090545,-0.00114919681378688,-0.00200416697447246,-0.00100411618819949
7.2536268134067,-0.00115717919053626,-0.00201739550033585,-0.00101209856494887
7.26363181590795,-0.00116446724468846,-0.00202947595895613,-0.00101938661910107
7.2736368184092,-0.00117090112537357,-0.00204014278094907,-0.00102582049978618
7.28364182091046,-0.00117631808670311,-0.00204912544674874,-0.00103123746111572
7.29364682341171,-0.00118055875895619,-0.00205615889663611,-0.0010354781333688
7.30365182591296,-0.00118347565290692,-0.00206099766015492,-0.00103839502731953
7.31365682841421,-0.00118494360079657,-0.00206343321766665,-0.00103986297520917
7.32366183091546,-0.0011848713645035,-0.00206331331995629,-0.00103979073891611
7.33366683341671,-0.00118321312433624,-0.00206056112968158,-0.00103813249874885
7.34367183591796,-0.0011799781313354,-0.0020551913282889,-0.00103489750574801
7.35367683841921,-0.00117523663269706,-0.00204732003819997,-0.00103015600710967
7.36368184092046,-0.00116912042056914,-0.00203716580470183,-0.00102403979498174
7.37368684342171,-0.00116181707334678,-0.00202504007433562,-0.00101673644775939
7.38369184592296,-0.00115355805995808,-0.00201132743954215,-0.00100847743437069
7.39369684842421,-0.00114460209602336,-0.00199645795198537,-0.000999521470435969
7.40370185092546,-0.00113521611806814,-0.00198087544201714,-0.000990135492480747
7.41370685342671,-0.00112565666960145,-0.00196500650237479,-0.000980576044014062
7.42371185592796,-0.0011161542477475,-0.00194923439190727,-0.000971073622160113
7.43371685842921,-0.0011069023549302,-0.00193388077700187,-0.000961821729342805
7.44372186093047,-0.00109805192508538,-0.00191919643459102,-0.000952971299497988
7.45372686343172,-0.0010897107764307,-0.00190536034028493,-0.000944630150843313
7.46373186593297,-0.00108194702384866,-0.00189248536228007,-0.000936866398261264
7.47373686843422,-0.00107479505562618,-0.00188062823173395,-0.000929714430038788
7.48374187093547,-0.00106826269967657,-0.00186980149385125,-0.000923182074089175
7.49374687343672,-0.00106233845598575,-0.00185998556462882,-0.000917257830398358
7.50375187593797,-0.00105699802416489,-0.00185113960712536,-0.000911917398577499
7.51375687843922,-0.00105220970439278,-0.00184321052521606,-0.000907129078805386
7.52376188094047,-0.00104793853539126,-0.00183613984939541,-0.000902857909803867
7.53376688344172,-0.00104414923114372,-0.00182986861950437,-0.000899068605556331
7.54377188594297,-0.0010408080917255,-0.00182434055831872,-0.000895727466138108
7.55377688844422,-0.00103788410946473,-0.0018195039057212,-0.000892803483877336
7.56378189094547,-0.0010353494906037,-0.00181531228080565,-0.00089026886501631
7.57378689344672,-0.00103317978420508,-0.00181172489141605,-0.000888099158617691
7.58379189594797,-0.00103135376968036,-0.00180870634308128,-0.000886273144092974
7.59379689844922,-0.00102985321264767,-0.00180622622977256,-0.000884772587060283
7.60380190095047,-0.00102866256209793,-0.00180425862773435,-0.000883581936510544
7.61380690345173,-0.00102776863284713,-0.00180278156539963,-0.000882688007259741
7.62381190595298,-0.00102716029638214,-0.00180177650772179,-0.000882079670794749
7.63381690845423,-0.00102682818949391,-0.00180122787048605,-0.000881747563906517
7.64382191095548,-0.00102676444197058,-0.0018011225666851,-0.000881683816383194
7.65382691345673,-0.00102696242047251,-0.00180144958015409,-0.000881881794885115
7.66383191595798,-0.00102741648414126,-0.00180219955904891,-0.000882335858553868
7.67383691845923,-0.001028121747456,-0.00180336442167758,-0.000883041121868608
7.68384192096048,-0.00102907384662259,-0.00180493696846406,-0.000883993221035197
7.69384692346173,-0.00103026870691341,-0.00180691049569153,-0.000885188081326024
7.70385192596298,-0.00103170230960663,-0.0018092784087047,-0.000886621684019242
7.71385692846423,-0.00103337045836279,-0.00181203383421766,-0.000888289832775404
7.72386193096548,-0.00103526854595352,-0.00181516923315771,-0.000890187920366132
7.73386693346673,-0.00103739132318566,-0.00181867601701827,-0.000892310697598268
7.74387193596798,-0.00103973267262568,-0.0018225441719634,-0.00089465204703829
7.75387693846923,-0.00104228539031147,-0.00182676189590298,-0.000897204764724081
7.76388194097049,-0.00104504097903556,-0.00183131525443036,-0.000899960353448171
7.77388694347174,-0.00104798945699746,-0.00183618786188581,-0.000902908831410066
7.78389194597299,-0.00105111918566534,-0.00184136059389918,-0.000906038560077944
7.79389694847424,-0.00105441672058595,-0.00184681133761718,-0.000909336094998556
7.80390195097549,-0.00105786668867757,-0.00185251478550252,-0.000912786063090181
7.81390695347674,-0.00106145169528958,-0.00185844227819393,-0.000916371069702189
7.82391195597799,-0.0010651522640769,-0.00186456170154245,-0.000920071638489507
7.83391695847924,-0.00106894681258325,-0.00187083744269695,-0.000923866186995859
7.84392196098049,-0.00107281166640811,-0.00187723041009085,-0.000927731040820723
7.85392696348174,-0.00107672111498294,-0.00188369812243978,-0.000931640489395552
7.86393196598299,-0.00108064751230301,-0.00189019487239748,-0.000935566886715619
7.87393696848424,-0.00108456142640951,-0.00189667197126473,-0.000939480800822115
7.88394197098549,-0.00108843184189908,-0.00190307808194984,-0.000943351216311688
7.89394697348674,-0.00109222642010843,-0.00190935964799669,-0.000947145794521038
7.90395197598799,-0.00109591182168535,-0.00191546142660513,-0.000950831196097963
7.91395697848924,-0.00109945409578422,-0.00192132713278541,-0.00095437347019683
7.9239619809905,-0.0011028191388695,-0.00192690019970772,-0.000957738513282104
7.93396698349175,-0.00110597322385094,-0.0019321246565541,-0.000960892598263549
7.943971985993,-0.0011088835968448,-0.00193694611947946,-0.000963802971257409
7.95397698849425,-0.00111151913420335,-0.00194131288354792,-0.000966438508615956
7.9639819909955,-0.00111385104668742,-0.00194517709390583,-0.000968770421100027
7.97398699349675,-0.00111585361108381,-0.00194849596349613,-0.000970772985496415
7.983991995998,-0.00111750490273,-0.00195123299320415,-0.000972424277142614
7.99399699849925,-0.00111878749606085,-0.00195335913971345,-0.000973706870473461
8.0040020010005,-0.00111968909536018,-0.00195485386808268,-0.000974608469772784
8.01400700350175,-0.00112020305537319,-0.00195570602178009,-0.000975122429785795
8.024012006003,-0.00112032875221172,-0.00195591444413573,-0.000975248126624332
8.03401700850425,-0.00112007176969444,-0.00195548829295242,-0.000974991144107049
8.0440220110055,-0.00111944387509105,-0.00195444700466954,-0.000974363249503661
8.05402701350675,-0.00111846277078879,-0.00195281988535162,-0.000973382145201397
8.064032016008,-0.00111715162365522,-0.00195064533119147,-0.000972070998067828
8.07403701850926,-0.00111553839027864,-0.00194796970858417,-0.000970457764691245
8.08404202101051,-0.00111365497193112,-0.00194484594998421,-0.000968574346343728
8.09404702351176,-0.00111153624608739,-0.00194133194347358,-0.000966455620500002
8.10405202601301,-0.00110921903000775,-0.00193748880850295,-0.00096413840442036
8.11405702851426,-0.00110674103520949,-0.00193337915586557,-0.0009616604096221
8.12406203101551,-0.00110413986933746,-0.00192906542616061,-0.000959059243750067
8.13406703351676,-0.00110145213453352,-0.00192460838868253,-0.00095637150894613
8.14407203601801,-0.00109871266010649,-0.00192006586384919,-0.000953632034519102
8.15407703851926,-0.0010959538937538,-0.00191549170968454,-0.000950873268166405
8.16408204102051,-0.00109320546154089,-0.00191093508943683,-0.000948124835953503
8.17408704352176,-0.00109049389389151,-0.00190644001579434,-0.000945413268304115
8.18409204602301,-0.001087842504182,-0.00190204514936675,-0.000942761878594612
8.19409704852426,-0.00108527139887008,-0.00189778381630806,-0.000940190773282689
8.20410205102551,-0.00108279759361972,-0.00189368420249956,-0.000937716968032326
8.21410705352676,-0.0010804352083862,-0.00188976967921323,-0.000935354582798809
8.22411205602801,-0.00107819571537509,-0.00188605921676446,-0.000933115089787696
8.23411705852926,-0.00107608821651352,-0.00188256784721335,-0.00093100759092613
8.24412206103051,-0.00107411973087227,-0.00187930714351659,-0.000929039105284882
8.25412706353177,-0.00107229547672474,-0.00187628568962031,-0.000927214851137349
8.26413206603302,-0.00107061913712602,-0.00187350952298503,-0.000925538511538628
8.27413706853427,-0.00106909310169351,-0.00187098253736699,-0.000924012476106118
8.28414207103552,-0.00106771868046824,-0.00186870683901039,-0.000922638054880851
8.29414707353677,-0.00106649628825468,-0.00186668305360062,-0.000921415662667284
8.30415207603802,-0.0010654255996888,-0.0018649105844124,-0.000920344974101409
8.31415707853927,-0.00106450567654302,-0.00186338782418124,-0.000919425050955632
8.32416208104052,-0.0010637350695453,-0.00186211232450428,-0.000918654443957913
8.33416708354177,-0.00106311189738287,-0.0018610809272282,-0.000918031271795474
8.34417208604302,-0.00106263390568469,-0.00186028986248533,-0.000917553280097303
8.35417708854427,-0.00106229850872437,-0.00185973481794842,-0.000917217883136977
8.36418209104552,-0.00106210281642907,-0.00185941098361324,-0.000917022190841675
8.37418709354677,-0.00106204364907641,-0.00185931307607532,-0.000916963023489022
8.38419209604802,-0.00106211754184532,-0.00185943534590677,-0.00091703691625793
8.39419709854927,-0.00106232074118338,-0.00185977157139797,-0.000917240115595988
8.40420210105053,-0.00106264919477384,-0.00186031504162864,-0.000917568569186447
8.41420710355178,-0.00106309853673445,-0.00186105853158048,-0.000918017911147061
8.42421210605303,-0.00106366406955766,-0.00186199427179842,-0.000918583443970273
8.43421710855428,-0.00106434074420327,-0.00186311391494291,-0.000919260118615879
8.44422211105553,-0.00106512313967553,-0.00186440850144428,-0.000920042514088135
8.45422711355678,-0.00106600544335084,-0.00186586842636036,-0.000920924817763451
8.46423211605803,-0.00106698143326418,-0.00186748340944323,-0.000921900807676786
8.47423711855928,-0.00106804446350682,-0.00186924247032909,-0.000922963837919425
8.48424212106053,-0.00106918745383094,-0.0018711339106721,-0.00092410682824355
8.49424712356178,-0.00107040288449353,-0.00187314530493924,-0.000925322258906139
8.50425212606303,-0.00107168279730064,-0.0018752635014669,-0.000926602171713252
8.51425712856428,-0.00107301880373036,-0.0018774746352436,-0.000927938178142968
8.52426213106553,-0.00107440210091662,-0.00187976415372573,-0.000929321475329225
8.53426713356678,-0.0010758234961649,-0.00188211685681002,-0.000930742870577507
8.54427213606803,-0.0010772734405425,-0.00188451695187495,-0.000932192814955105
8.55427713856928,-0.00107874207193929,-0.0018869481245607,-0.0009336614463519
8.56428214107054,-0.00108021926782802,-0.00188939362568097,-0.000935138642240627
8.57428714357179,-0.00108169470776444,-0.00189183637434743,-0.000936614082177047
8.58429214607304,-0.00108315785936802,-0.00189425893449632,-0.000938077233780633
8.59429714857429,-0.00108459527401031,-0.00189663903678617,-0.000939514648422916
8.60430215107554,-0.00108601836375748,-0.00189899557459047,-0.000940937738170084
8.61430715357679,-0.00108751787636551,-0.00190147882708852,-0.000942437250778116
8.62431215607804,-0.00108920796390363,-0.00190427786473187,-0.000944127338316234
8.63431715857929,-0.00109120092545748,-0.00190757873051299,-0.000946120299870092
8.64432216108054,-0.00109359057797643,-0.00191153690142992,-0.000948509952389037
8.65432716358179,-0.00109645454954918,-0.00191628108691078,-0.000951373923961793
8.66433216608304,-0.00109985780499605,-0.00192191907008419,-0.000954777179408659
8.67433716858429,-0.00110385541680368,-0.00192854229956327,-0.00095877479121629
8.68434217108554,-0.00110849438034065,-0.00193622889730445,-0.000963413754753262
8.69434717358679,-0.00111381452009555,-0.00194504515862739,-0.000968733894508157
8.70435217608804,-0.00111984861529931,-0.00195504575594288,-0.000974767989711919
8.71435717858929,-0.0011266219051893,-0.00196627291086386,-0.000981541279601911
8.72436218109054,-0.00113415114877564,-0.00197875482392021,-0.000989070523188244
8.7343671835918,-0.00114244342416749,-0.0019925036684394,-0.000997362798580096
8.74437218609305,-0.00115149486122062,-0.00200751347012394,-0.00100641423563323
8.7543771885943,-0.00116128950619503,-0.00202375820263112,-0.00101620888060764
8.76438219109555,-0.0011717985134528,-0.00204119042399193,-0.00102671788786541
8.7743871935968,-0.00118297984177677,-0.00205974075026006,-0.00103789921618938
8.78439219609805,-0.00119477859785339,-0.00207931840495403,-0.001049697972266
8.7943971985993,-0.00120712811587988,-0.00209981299396716,-0.00106204749029248
8.80440220110055,-0.00121995179288696,-0.00212109754021403,-0.00107487116729957
8.8144072036018,-0.0012331656208005,-0.00214303268131196,-0.00108808499521311
8.82441220610305,-0.00124668127810402,-0.00216547180309556,-0.00110160065251663
8.8344172086043,-0.00126040957718067,-0.00218826677007716,-0.00111532895159328
8.84442221110555,-0.00127426401813874,-0.00221127383806314,-0.00112918339255135
8.8544272136068,-0.00128816418322388,-0.00223435930587064,-0.00114308355763649
8.86443221610805,-0.00130203872013239,-0.00225740448641751,-0.001156958094545
8.87443721860931,-0.00131582770467835,-0.00228030964743827,-0.00117074707909096
8.88444222111056,-0.0013294842356903,-0.00230299667597436,-0.00118440361010291
8.89444722361181,-0.00134297518716559,-0.00232541034098962,-0.0011978945615782
8.90445222611306,-0.00135628111344207,-0.0023475181463653,-0.00121120048785468
8.91445722861431,-0.0013693953629623,-0.00236930886628114,-0.0012243147373749
8.92446223111556,-0.00138232249885284,-0.00239078992615388,-0.00123724187326545
8.93446723361681,-0.00139507614766332,-0.00241198383093904,-0.00124999552207593
8.94447223611806,-0.00140767640245,-0.00243292385077034,-0.00126259577686261
8.95447723861931,-0.00142014689684556,-0.00245364915810357,-0.00127506627125817
8.96448224112056,-0.00143251164816622,-0.00247419957963754,-0.00128743102257883
8.97448724362181,-0.0014447917456297,-0.00249461008972847,-0.00129971112004231
8.98449224612306,-0.00145700193958071,-0.00251490513844086,-0.00131192131399332
8.99449724862431,-0.00146914717360002,-0.00253509288403717,-0.00132406654801263
9.00450225112556,-0.00148121909701447,-0.0025551593924399,-0.00133613847142708
9.01450725362681,-0.00149319260350978,-0.00257506287979618,-0.00134811197792238
9.02451225612806,-0.00150502246478171,-0.00259472811290166,-0.00135994183919432
9.03451725862931,-0.00151664016864097,-0.00261404114954572,-0.00137155954305358
9.04452226113056,-0.00152795113025432,-0.0026328446993745,-0.00138287050466693
9.05452726363182,-0.00153883252315059,-0.00265093451543749,-0.00139375189756319
9.06453226613307,-0.00154913206968747,-0.00266805738125845,-0.00140405144410008
9.07453726863432,-0.00155866822924877,-0.00268391142205729,-0.00141358760366138
9.08454227113557,-0.00156723230781082,-0.00269814961054976,-0.00142215168222343
9.09454727363682,-0.001574593054413,-0.00271038740728353,-0.0014295124288256
9.10455227613807,-0.00158050426666422,-0.00272021540328425,-0.00143542364107683
9.11455727863932,-0.00158471575049267,-0.00272721753882951,-0.00143963512490528
9.12456228114057,-0.00158698762734396,-0.00273099488747682,-0.00144190700175657
9.13456728364182,-0.00158710744199475,-0.00273119409751705,-0.00144202681640736
9.14457228614307,-0.00158490883876787,-0.00272753844460116,-0.00143982821318048
9.15457728864432,-0.00158028986288963,-0.00271985826787494,-0.00143520923730224
9.16458229114557,-0.00157322840195713,-0.00270811666093949,-0.00142814777636974
9.17458729364682,-0.00156379213892279,-0.0026924260483329,-0.0014187115133354
9.18459229614807,-0.00155214082277789,-0.00267305199743374,-0.0014070601971905
9.19459729864932,-0.00153851970852894,-0.00265040234939329,-0.00139343908294155
9.20460230115058,-0.00152324449461146,-0.00262500220435199,-0.00137816386902407
9.21460730365183,-0.00150667962503667,-0.0025974578550456,-0.00136159899944928
9.22461230615308,-0.00148921299010215,-0.00256841470626356,-0.00134413236451476
9.23461730865433,-0.00147123052443485,-0.00253851499753507,-0.00132614989884746
9.24462231115558,-0.00145309387539809,-0.00250836061220734,-0.00130801324981069
9.25462731365683,-0.00143512337104706,-0.00247848469177085,-0.00129004274545967
9.26463231615808,-0.00141758729342875,-0.00244933374108865,-0.00127250666784136
9.27463731865933,-0.00140069731378784,-0.00242125999634759,-0.00125561668820045
9.28464232116058,-0.00138460911591159,-0.00239452244167136,-0.0012395284903242
9.29464732366183,-0.00136942681001191,-0.00236929415016784,-0.00122434618442452
9.30465232616308,-0.00135520967741304,-0.00234567351785142,-0.00121012905182564
9.31465732866433,-0.00134197997031802,-0.00232369726287796,-0.00119689934473063
9.32466233116558,-0.00132973079475999,-0.00230335356765169,-0.0011846501691726
9.33466733366683,-0.00131843342879682,-0.00228459428118425,-0.00117335280320943
9.34467233616808,-0.00130804371138311,-0.00226734557197129,-0.00116296308579571
9.35467733866933,-0.00129850735417495,-0.00225151678386316,-0.00115342672858756
9.36468234117059,-0.00128976417642727,-0.00223700749469787,-0.00114468355083988
9.37468734367184,-0.00128175135223826,-0.00222371292653887,-0.00113667072665087
9.38469234617309,-0.00127440580413231,-0.00221152793126587,-0.00112932517854492
9.39469734867434,-0.00126766589140091,-0.00220034979945819,-0.00112258526581352
9.40470235117559,-0.00126147253727924,-0.00219008013327424,-0.00111639191169185
9.41470735367684,-0.00125576992443784,-0.0021806259996182,-0.00111068929885044
9.42471235617809,-0.00125050586919872,-0.00217190054798349,-0.00110542524361133
9.43471735867934,-0.00124563196497502,-0.00216382324405673,-0.00110055133938763
9.44472236118059,-0.00124110356676392,-0.002156319838943,-0.00109602294117653
9.45472736368184,-0.0012368796721264,-0.00214932216646062,-0.001091799046539
9.46473236618309,-0.00123292274033336,-0.00214276783796895,-0.00108784211474597
9.47473736868434,-0.00122919848022263,-0.00213659988559307,-0.00108411785463524
9.48474237118559,-0.00122567562855991,-0.0021307663900997,-0.00108059500297251
9.49474737368684,-0.00122232573400032,-0.002125220118506,-0.00107724510841293
9.50475237618809,-0.00121912295674961,-0.00211991818816967,-0.00107404233116222
9.51475737868934,-0.00121604389038309,-0.00211482176804258,-0.0010709632647957
9.52476238119059,-0.00121306740968524,-0.00210989582344828,-0.00106798678409784
9.53476738369185,-0.00121017454655002,-0.00210510890771197,-0.00106509392096263
9.5447723861931,-0.00120734839469736,-0.00210043300183585,-0.00106226776910997
9.55477738869435,-0.00120457404301429,-0.00209584340184211,-0.0010594934174269
9.5647823911956,-0.0012018385365529,-0.00209131865211851,-0.00105675791096551
9.57478739369685,-0.00119913086346945,-0.00208684052186443,-0.00105405023788206
9.5847923961981,-0.00119644196535684,-0.00208239402035931,-0.00105136133976945
9.59479739869935,-0.00119376476741793,-0.00207796744511527,-0.00104868414183054
9.6048024012006,-0.00119109422369301,-0.00207355245493704,-0.00104601359810562
9.61480740370185,-0.00118842737106948,-0.00206914415746083,-0.00104334674548209
9.6248124062031,-0.00118576338408881,-0.00206474119791786,-0.00104068275850142
9.63481740870435,-0.00118310362070305,-0.00206034583279897,-0.00103802299511566
9.6448224112056,-0.00118045164726382,-0.00205596396902163,-0.00103537102167642
9.65482741370685,-0.00117781322936904,-0.00205160514648194,-0.00103273260378165
9.6648324162081,-0.00117519627403921,-0.00204728243999635,-0.00103011564845182
9.67483741870936,-0.00117261070840789,-0.00204301225620056,-0.0010275300828205
9.68484242121061,-0.00117006828109449,-0.00203881400264189,-0.0010249876555071
9.69484742371186,-0.00116758227508208,-0.00203470961073769,-0.00102250164949469
9.70485242621311,-0.00116516712557559,-0.00203072290201027,-0.0010200864999882
9.71485742871436,-0.00116283794312565,-0.00202687879830348,-0.00101775731753826
9.72486243121561,-0.00116060995115297,-0.00202320239133467,-0.00101552932556558
9.73486743371686,-0.00115849785739981,-0.00201971790410266,-0.00101341723181242
9.74487243621811,-0.00115651518981893,-0.0020164475947783,-0.00101143456423154
9.75487743871936,-0.00115467363757836,-0.00201341067041507,-0.00100959301199097
9.76488244122061,-0.00115298244545391,-0.00201062229022674,-0.00100790181986652
9.77488744372186,-0.00115144791302282,-0.00200809274319758,-0.00100636728743543
9.78489244622311,-0.00115007304714009,-0.00200582687975975,-0.0010049924215527
9.79489744872436,-0.00114885740625777,-0.00200382386071623,-0.00100377678067038
9.80490245122561,-0.0011477971584706,-0.00200207725892846,-0.00100271653288321
9.81490745372686,-0.00114688535339377,-0.00200057551329603,-0.00100180472780638
9.82491245622811,-0.0011461123841363,-0.00199930269526536,-0.00100103175854891
9.83491745872936,-0.00114546659368806,-0.00199823951205081,-0.00100038596810066
9.84492246123061,-0.00114493496403392,-0.0019973644445835,-0.00099985433844653
9.85492746373187,-0.00114450381935478,-0.00199665490699898,-0.000999423193767385
9.86493246623312,-0.00114415947806323,-0.00199608832030735,-0.000999078852475836
9.87493746873437,-0.00114388880122941,-0.00199564301418366,-0.000998808175642019
9.88494247123562,-0.00114367960428786,-0.00199529890277436,-0.000998598978700473
9.89494747373687,-0.0011435209207384,-0.00199503791637129,-0.000998440295151013
9.90495247623812,-0.00114340312672901,-0.00199484420396635,-0.000998322501141623
9.91495747873937,-0.00114331795065107,-0.00199470414669027,-0.000998237325063677
9.92496248124062,-0.00114325840032155,-0.00199460623592298,-0.000998177774734156
9.93496748374187,-0.00114321864169836,-0.0019945408720186,-0.000998138016110966
9.94497248624312,-0.00114319385853299,-0.00199450013204009,-0.0009981132329456
9.95497748874437,-0.00114318011409912,-0.0019944775412546,-0.000998099488511727
9.96498249124562,-0.0011431742267614,-0.00199446786769661,-0.000998093601174004
9.97498749374687,-0.00114317366300564,-0.00199446694570384,-0.000998093037418248
9.98499249624812,-0.0011431764461111,-0.00199447152538145,-0.000998095820523713
9.99499749874937,-0.00114318107625946,-0.00199447914102838,-0.000998100450672067
