data1,data2,data3,data4
0,0.000164511791366676,0.000397090102575869,-0.000332677703168851
0.0100008334027836,0.000164925498871582,0.000396620642964221,-0.000332263995663945
0.0200016668055671,0.000165531747310681,0.000395930969259678,-0.000331657747224846
0.0300025002083507,0.000161896657978518,0.00040004821291023,-0.000335292836557008
0.0400033336111343,0.000145945761950239,0.000418146327117863,-0.000351243732585288
0.0500041670139178,0.000128969017161083,0.000437445664195035,-0.000368220477374444
0.0600050004167014,0.000121742716409488,0.000445682949220947,-0.000375446778126039
0.070005833819485,0.000120898482336654,0.000446647185195606,-0.000376291012198873
0.0800066672222685,0.000120689971074441,0.000446885643054787,-0.000376499523461086
0.0900075006250521,0.000119222882279663,0.000448563675672674,-0.000377966612255863
0.100008334027836,0.000116541277275071,0.000451631489711371,-0.000380648217260456
0.110009167430619,0.000112810667747076,0.000455900910961218,-0.000384378826788451
0.120010000833403,0.000108016957978635,0.000461389799862081,-0.000389172536556892
0.130010834236186,0.000102062041734169,0.000468212843645399,-0.000395127452801358
0.14001166763897,9.48363219448566e-05,0.000476498811535642,-0.00040235317259067
0.150012501041753,8.62527164291109e-05,0.000486351781045951,-0.000410936778106416
0.160013334444537,7.62720514117374e-05,0.000497822026331181,-0.000420917443123789
0.170014167847321,6.49298297390802e-05,0.000510875018277727,-0.000432259664796447
0.180015001250104,5.23624353680408e-05,0.000525360633736412,-0.000444827059167486
0.190015834652888,3.88261000709831e-05,0.000540990178743493,-0.000458363394464544
0.200016668055671,2.46999011693215e-05,0.000557331382578346,-0.000472489593366205
0.210017501458455,1.04647132222823e-05,0.000573831039994323,-0.000486724781313245
0.220018334861238,-3.34505788510996e-06,0.000589869565307563,-0.000500534552420637
0.230019168264022,-1.62109706652231e-05,0.000604841166842997,-0.00051340046520075
0.240020001666806,-2.77053142983782e-05,0.000618241484354767,-0.000524894808833905
0.250020835069589,-3.75503974546434e-05,0.000629738387786463,-0.00053473989199017
0.260021668472373,-4.56462747031845e-05,0.000639206517596119,-0.000542835769238711
0.270022501875156,-5.20631887012875e-05,0.000646720386884641,-0.000549252683236814
0.28002333527794,-5.70079152408374e-05,0.000652516207465295,-0.000554197409776364
0.290024168680723,-6.07797342585938e-05,0.000656940716773639,-0.000557969228794121
0.300025002083507,-6.3730180283152e-05,0.000660403812822446,-0.000560919674818679
0.310025835486291,-6.62342795333301e-05,0.000663344375957905,-0.000563423774068857
0.320026668889074,-6.86741060219989e-05,0.000666210533266577,-0.000565863600557526
0.330027502291858,-7.1430891795223e-05,0.000669450104900176,-0.00056862038633075
0.340028335694641,-7.48801345856714e-05,0.000673504767841913,-0.000572069629121198
0.350029169097425,-7.9384466369354e-05,0.00067880178861438,-0.000576573960904881
0.360030002500208,-8.52804517762491e-05,0.000685738787622156,-0.000582469946311776
0.370030835902992,-9.2856977551367e-05,0.000694658704942346,-0.000590046472086894
0.380031669305775,-0.000102323576730334,0.000705812869048608,-0.00059951307126586
0.390032502708559,-0.00011376621637874,0.000719309009947021,-0.000610955710914267
0.400033336111343,-0.000127085644103492,0.00073503806015326,-0.000624275138639019
0.410034169514126,-0.000141910663427637,0.00075257022164362,-0.000639100157963164
0.42003500291691,-0.000157480408739009,0.000771012682028581,-0.000654669903274536
0.430035836319693,-0.000172507186747266,0.000788842269724688,-0.000669696681282793
0.440036669722477,-0.000185084056203816,0.000803789851273649,-0.000682273550739343
0.45003750312526,-0.000192799948642255,0.000812973312818924,-0.000689989443177782
0.460038336528044,-0.000193307162978938,0.00081357723019695,-0.000690496657514465
0.470039169930828,-0.000185426008673998,0.000804184759495873,-0.000682615503209525
0.480040003333611,-0.000170247606216193,0.00078610849824799,-0.00066743710075172
0.490040836736395,-0.00015110605685239,0.000763350242744965,-0.000648295551387917
0.500041670139178,-0.000131998470406489,0.000740687202934253,-0.000629187964942016
0.510042503541962,-0.000115736656363588,0.000721453081094954,-0.000612926150899115
0.520043336944745,-0.000103327793871794,0.000706816155197946,-0.000600517288407321
0.530044170347529,-9.45217739428596e-05,0.000696453695718759,-0.000591711268478387
0.540045003750313,-8.85791154575111e-05,0.000689474119930073,-0.000585768609993038
0.550045837153096,-8.4732394653874e-05,0.000684962877134364,-0.000581921889189401
0.56004667055588,-8.23530561313632e-05,0.000682175605242864,-0.00057954255066689
0.570047503958663,-8.09753050813897e-05,0.000680562968569638,-0.000578164799616917
0.580048337361447,-8.02736932133707e-05,0.000679742237518478,-0.000577463187748898
0.59004917076423,-8.00318637207899e-05,0.000679459471457186,-0.000577221358256317
0.600050004167014,-8.01136119295263e-05,0.000679555018909656,-0.000577303106465054
0.610050837569797,-8.04392359615665e-05,0.0006799355431332,-0.000577628730497094
0.620051670972581,-8.09676893590876e-05,0.000680553007261479,-0.000578157183894615
0.630052504375365,-8.16839825651128e-05,0.000681389882401705,-0.00057887347710064
0.640053337778148,-8.25907811892853e-05,0.000682449302858516,-0.000579780275724813
0.650054171180932,-8.37030627901054e-05,0.000683748815876836,-0.000580892557325633
0.660055004583715,-8.5044842389755e-05,0.000685316559099575,-0.000582234336925282
0.670055837986499,-8.66471924923223e-05,0.000687188956818775,-0.00058383668702785
0.680056671389282,-8.8546976940416e-05,0.000689409255049922,-0.000585736471475943
0.690057504792066,-9.07858661746578e-05,0.000692026389774021,-0.000587975360710185
0.70005833819485,-9.34093120887466e-05,0.000695093812144981,-0.000590598806624274
0.710059171597633,-9.6465250692088e-05,0.000698667999225171,-0.000593654745227615
0.720060005000417,-0.000100002387080924,0.000702806478760121,-0.000597191881616451
0.7300608384032,-0.000104068011959397,0.000707565306001577,-0.000601257506494924
0.740061671805984,-0.000108705406098679,0.000712996054477302,-0.000605894900634207
0.750062505208767,-0.00011395100194037,0.000719142513371765,-0.000611140496475897
0.760063338611551,-0.00011983157280059,0.00072603740214293,-0.000617021067336117
0.770064172014335,-0.000126361786206708,0.000733699491022881,-0.000623551280742236
0.780065005417118,-0.000133542466560866,0.000742131528392765,-0.000630731961096393
0.790065838819902,-0.000141359851534549,0.000751319308459068,-0.000638549346070077
0.800066672222685,-0.000149786000704761,0.000761232069611564,-0.000646975495240288
0.810067505625469,-0.000158780345250294,0.000771824219146756,-0.000655969839785821
0.820068339028252,-0.000168292186797735,0.000783038170806091,-0.000665481681333263
0.830069172431036,-0.000178263796690254,0.000794807897767852,-0.000675453291225781
0.84007000583382,-0.000188633661814638,0.000807062677548696,-0.000685823156350165
0.850070839236603,-0.000199339383925907,0.000819730453893962,-0.000696528878461435
0.860071672639387,-0.000210319765154891,0.00083274026410753,-0.000707509259690419
0.87007250604217,-0.000221515689477554,0.000846023263848762,-0.000718705184013082
0.880073339444954,-0.000232869518032255,0.000859512002621913,-0.000730059012567783
0.890074172847737,-0.000244322835545563,0.000873137739690388,-0.00074151233008109
0.900075006250521,-0.000255812503639619,0.000886825728163182,-0.000753001998175147
0.910075839653304,-0.000267265095260595,0.000900488535751117,-0.000764454589796123
0.920076673056088,-0.000278589919418256,0.00091401763412767,-0.000775779413953783
0.930077506458872,-0.00028967102879496,0.000927273713726028,-0.000786860523330488
0.940078339861655,-0.000300358877490997,0.000940076519820476,-0.000797548372026524
0.950079173264439,-0.000310462704795271,0.000952195511820336,-0.000807652199330798
0.960080006667222,-0.000319745281738319,0.000963343344676223,-0.000816934776273846
0.970080840070006,-0.000327922320091106,0.000973174998776493,-0.000825111814626634
0.980081673472789,-0.000334669417243998,0.000981296107806777,-0.000831858911779525
0.990082506875573,-0.000339639429293454,0.000987284080321986,-0.000836828923828981
1.00008334027836,-0.00034249061236435,0.000990722589674022,-0.000839680106899877
1.01008417368114,-0.000343371241880187,0.000991762476835326,-0.000840560736415715
1.02008500708392,-0.000341567750580631,0.000989632396792367,-0.000838757245116158
1.03008584048671,-0.000336864093892197,0.000983989834863503,-0.000834053588427725
1.04008667388949,-0.000329531500098537,0.000975151486868608,-0.000826720994634065
1.05008750729227,-0.000320071149952573,0.000963753901681482,-0.0008172606444881
1.06008834069506,-0.000308996045262472,0.000950421827081296,-0.000806185539798
1.07008917409784,-0.000296898460325041,0.000935874425885124,-0.000794087954860568
1.08009000750063,-0.000284382577978422,0.000920842784354414,-0.00078157207251395
1.09009084090341,-0.000271995588535899,0.000905986209106478,-0.000769185083071426
1.10009167430619,-0.000260179669973182,0.000891834604769078,-0.00075736916450871
1.11009250770898,-0.000249251275528649,0.000878764428955895,-0.000746440770064176
1.12009334111176,-0.000239404163247757,0.000867003485982493,-0.000736593657783284
1.13009417451454,-0.000230727594148065,0.000856653850499942,-0.000727917088683592
1.14009500791733,-0.000223230870437497,0.00084772209269938,-0.000720420364973024
1.15009584132011,-0.000216867804379016,0.000840149065721149,-0.000714057298914543
1.16009667472289,-0.000211557665410881,0.000833835176326579,-0.000708747159946408
1.17009750812568,-0.000207201437817409,0.000828659838232809,-0.000704390932352936
1.18009834152846,-0.000203693548313046,0.000824495391040311,-0.000700883042848573
1.19009917493124,-0.000200929793945894,0.000821216426984592,-0.000698119288481421
1.20010000833403,-0.00019881232622191,0.000818705592168148,-0.000696001820757437
1.21010084173681,-0.000197252469034991,0.000816856814986594,-0.000694441963570518
1.22010167513959,-0.000196172005622618,0.000815576730613528,-0.000693361500158146
1.23010250854238,-0.000195503426961181,0.000814784891591259,-0.000692692921496708
1.24010334194516,-0.000195189512026797,0.000814413204558565,-0.000692379006562324
1.25010417534795,-0.000195182511940054,0.000814404913805104,-0.000692372006475581
1.26010500875073,-0.0001954431321328,0.000814713358977429,-0.000692632626668327
1.27010584215351,-0.000195939445658685,0.000815300661794497,-0.000693128940194212
1.2801066755563,-0.000196645823734778,0.000816136441178262,-0.000693835318270305
1.29010750895908,-0.00019754193436567,0.000817196614902908,-0.000694731428901197
1.30010834236186,-0.000198611834597481,0.000818462316352449,-0.000695801329133008
1.31010917576465,-0.000199843164788038,0.000819918935058903,-0.000697032659323565
1.32011000916743,-0.000201226442509635,0.000821555277270793,-0.000698415937045162
1.33011084257021,-0.000202754447685476,0.000823362835933867,-0.000699943942221003
1.340111675973,-0.000204421687876258,0.000825335156475427,-0.000701611182411785
1.35011250937578,-0.000206223932129352,0.000827467284321759,-0.000703413426664879
1.36011334277856,-0.000208157802612788,0.000829755281131365,-0.000705347297148315
1.37011417618135,-0.000210220414765536,0.000832195798578927,-0.000707409909301063
1.38011500958413,-0.000212409058491942,0.000834785700697081,-0.000709598553027469
1.39011584298692,-0.000214720914748097,0.00083752172797013,-0.000711910409283624
1.4001166763897,-0.000217152803551134,0.00084040019839128,-0.000714342298086661
1.41011750979248,-0.00021970096089825,0.000843416742439393,-0.000716890455433777
1.42011834319527,-0.000222360843266811,0.000846566070353331,-0.000719550337802338
1.43011917659805,-0.000225126959269093,0.000849841771170157,-0.00072231645380462
1.44012001000083,-0.00022799272866807,0.000853236143764336,-0.000725182223203597
1.45012084340362,-0.000230950369355412,0.000856740060615615,-0.000728139863890939
1.4601216768064,-0.000233990813094023,0.000860342865296129,-0.00073118030762955
1.47012251020918,-0.000237103650887025,0.000864032304763278,-0.000734293145422552
1.48012334361197,-0.000240277108806664,0.000867794497536614,-0.000737466603342192
1.49012417701475,-0.000243498055048138,0.000871613938780039,-0.000740687549583665
1.50012501041753,-0.000246752038900782,0.000875473543246395,-0.000743941533436309
1.51012584382032,-0.000250023362270347,0.000879354726990077,-0.000747212856805874
1.5201266772231,-0.000253295184337487,0.000883237528708782,-0.000750484678873014
1.53012751062589,-0.000256549659872173,0.000887100771504749,-0.0007537391544077
1.54012834402867,-0.000259768111593113,0.000890922265700108,-0.00075695760612864
1.55012917743145,-0.000262931236700833,0.000894679053022158,-0.00076012073123636
1.56013001083424,-0.000266019347249613,0.000898347691904476,-0.00076320884178514
1.57013084423702,-0.000269012643286787,0.000901904582744112,-0.000766202137822314
1.5801316776398,-0.000271891516622996,0.000905326330647894,-0.000769081011158523
1.59013251104259,-0.000274636881678521,0.000908590141461873,-0.000771826376214049
1.60013334444537,-0.000277230528095857,0.000911674244728712,-0.000774420022631384
1.61013417784815,-0.000279655487787752,0.000914558334744613,-0.000776844982323279
1.62013501125094,-0.000281896406932462,0.00091722401824834,-0.000779085901467989
1.63013584465372,-0.000283939911321112,0.000919655254698569,-0.000781129405856639
1.6401366780565,-0.000285774951640277,0.000921838772868096,-0.000782964446175804
1.65013751145929,-0.000287393113996934,0.00092376444592279,-0.000784582608532461
1.66013834486207,-0.000288788880520019,0.000925425606573047,-0.000785978375055546
1.67013917826486,-0.000289959825419139,0.000926819284549273,-0.000787149319954666
1.68014001166764,-0.000290906733582925,0.00092794635072584,-0.000788096228118452
1.69014084507042,-0.000291633631679139,0.000928811555725345,-0.000788823126214667
1.70014167847321,-0.00029214772566193,0.000929423455635236,-0.000789337220197457
1.71014251187599,-0.000292459243344567,0.000929794223249745,-0.000789648737880094
1.72014334527877,-0.000292581185884178,0.000929939349552201,-0.000789770680419705
1.73014417868156,-0.000292528997193591,0.000929877246420221,-0.000789718491729119
1.74014501208434,-0.000292320164967078,0.000929628767186576,-0.000789509659502605
1.75014584548712,-0.000291973770745027,0.000929216666191633,-0.000789163265280555
1.76014667888991,-0.000291510008912072,0.000928665021414122,-0.000788699503447599
1.77014751229269,-0.000290949695532614,0.000927998645438264,-0.000788139190068142
1.78014834569547,-0.000290313787451154,0.000927242509381887,-0.000787503281986682
1.79014917909826,-0.000289622930254821,0.000926421202140309,-0.000786812424790348
1.80015001250104,-0.00028889705077449,0.000925558443719547,-0.000786086545310018
1.81015084590383,-0.000288155006134987,0.000924676666965076,-0.000785344500670514
1.82015167930661,-0.000287414297332226,0.000923796677100399,-0.000784603791867753
1.83015251270939,-0.000286690851276784,0.000922937393611072,-0.000783880345812311
1.84015334611218,-0.00028599887150462,0.000922115674512736,-0.000783188366040147
1.85015417951496,-0.000285350754542658,0.000921346219195812,-0.000782540249078186
1.86015501291774,-0.000284757066367817,0.00092064154300715,-0.000781946560903344
1.87015584632053,-0.000284226571567504,0.000920012014570479,-0.000781416066103031
1.88015667972331,-0.000283766306682537,0.000919465945539436,-0.000780955801218064
1.89015751312609,-0.00028338168872293,0.000919009721933738,-0.000780571183258457
1.90015834652888,-0.000283076649893795,0.000918647966307427,-0.000780266144429323
1.91015917993166,-0.000282853790038132,0.000918383720597225,-0.000780043284573659
1.92016001333444,-0.000282714539079261,0.000918218640457832,-0.000779904033614788
1.93016084673723,-0.00028265932272004,0.000918153193078837,-0.000779848817255567
1.94016168014001,-0.000282687725734535,0.000918186851782182,-0.000779877220270062
1.9501625135428,-0.000282798648293118,0.000918318282027762,-0.000779988142828646
1.96016334694558,-0.000282990451833817,0.000918545514737033,-0.000780179946369344
1.97016418034836,-0.000283261091987419,0.000918866104029392,-0.000780450586522946
1.98016501375115,-0.000283608236952118,0.000919277267520247,-0.000780797731487645
1.99016584715393,-0.000284029370478556,0.000919776008234307,-0.000781218865014083
2.00016668055671,-0.000284521879261582,0.00092035921793616,-0.000781711373797109
2.0101675139595,-0.000285083125042119,0.000921023762275335,-0.000782272619577646
2.02016834736228,-0.000285710502108914,0.000921766548594324,-0.000782899996644441
2.03016918076506,-0.000286401481167084,0.000922584577569943,-0.000783590975702611
2.04017001416785,-0.000287153640722627,0.00092347498006825,-0.000784343135258154
2.05017084757063,-0.00028796468723489,0.000924435040709493,-0.000785154181770417
2.06017168097341,-0.000288832465328062,0.000925462209681169,-0.000786021959863589
2.0701725143762,-0.000289754959343053,0.000926554104321808,-0.00078694445387858
2.08017334777898,-0.000290730287466353,0.000927708501941918,-0.00078791978200188
2.09017418118177,-0.000291756689604519,0.000928923325265604,-0.000788946184140046
2.10017501458455,-0.000292832510092064,0.000930196621778762,-0.000790022004627592
2.11017584798733,-0.000293956176234598,0.000931526538166734,-0.000791145670770125
2.12017668139012,-0.000295126173604559,0.00093291129092339,-0.000792315668140086
2.1301775147929,-0.000296341018928056,0.000934349134119819,-0.000793530513463583
2.14017834819568,-0.00029759923133118,0.00093583832523763,-0.000794788725866708
2.15017918159847,-0.000298899302654258,0.00093737708990103,-0.000796088797189785
2.16018001500125,-0.000300239667493237,0.000938963586283863,-0.000797429162028765
2.17018084840403,-0.000301618673588392,0.00094059586992213,-0.000798808168123919
2.18018168180682,-0.000303034553150506,0.000942271859627618,-0.000800224047686033
2.1901825152096,-0.000304485395692111,0.000943989305172371,-0.000801674890227638
2.20018334861238,-0.00030596912291397,0.000945745757394078,-0.000803158617449498
2.21018418201517,-0.000307483466182696,0.000947538541356538,-0.000804672960718223
2.22018501541795,-0.00030902594712155,0.000949364733184153,-0.000806215441657077
2.23018584882074,-0.00031059386182082,0.000951221141171957,-0.000807783356356347
2.24018668222352,-0.000312184269154106,0.000953104291750202,-0.000809373763689633
2.2501875156263,-0.000313793983660207,0.000955010420852092,-0.000810983478195734
2.26018834902909,-0.000315419573414872,0.000956935471192437,-0.0008126090679504
2.27018918243187,-0.000317057363270511,0.000958875095911281,-0.000814246857806038
2.28019001583465,-0.000318703443783376,0.000960824668968007,-0.000815892938318903
2.29019084923744,-0.000320353686075309,0.00096277930258616,-0.000817543180610836
2.30019168264022,-0.000322003762789737,0.000964733871945998,-0.000819193257325264
2.310192516043,-0.000323649175198609,0.000966683047199649,-0.000820838669734136
2.32019334944579,-0.000325285286398072,0.000968621332742397,-0.000822474780933599
2.33019418284857,-0.000326907360396371,0.000970543113513588,-0.000824096854931898
2.34019501625135,-0.000328510606748813,0.000972442707923126,-0.000825700101284341
2.35019584965414,-0.000330090230233768,0.000974314426807128,-0.000827279724769295
2.36019668305692,-0.000331641484893679,0.000976152637612701,-0.000828830979429206
2.3701975164597,-0.000333159731590415,0.000977951832802338,-0.000830349226125942
2.38019834986249,-0.000334640498050633,0.000979706701259983,-0.00083182999258616
2.39019918326527,-0.000336079540211413,0.000981412201282033,-0.00083326903474694
2.40020001666806,-0.000337472903527593,0.000983063633557578,-0.000834662398063121
2.41020085007084,-0.000338816982779533,0.000984656712394389,-0.00083600647731506
2.42020168347362,-0.000340108578833475,0.000986187633342805,-0.000837298073369002
2.43020251687641,-0.000341344950766441,0.00098765313532074,-0.000838534445301968
2.44020335027919,-0.000342523861782878,0.00098905055536081,-0.000839713356318405
2.45020418368197,-0.000343643617428646,0.000990377874193964,-0.000840833111964173
2.46020501708476,-0.000344703094754251,0.000991633751058904,-0.000841892589289778
2.47020585048754,-0.000345701761294604,0.00099281754638414,-0.000842891255830131
2.48020668389032,-0.000346639683013766,0.000993929331325961,-0.000843829177549293
2.49020751729311,-0.000347517520702006,0.000994969883550906,-0.000844707015237533
2.50020835069589,-0.000348336514695909,0.000995940669109702,-0.000845526009231435
2.51020918409868,-0.000349098458202585,0.000996843810740039,-0.000846287952738112
2.52021001750146,-0.000349805659925114,0.000997682043432285,-0.00084699515446064
2.53021085090424,-0.000350460897084782,0.000998458658567649,-0.000847650391620309
2.54021168430703,-0.000351067360292849,0.000999177438363742,-0.000848256854828376
2.55021251770981,-0.000351628592018318,0.000999842582711958,-0.000848818086553845
2.56021335111259,-0.000352148420610164,0.00100045863074232,-0.00084933791514569
2.57021418451538,-0.000352630891949374,0.00100103037958919,-0.0008498203864849
2.58021501791816,-0.000353080200821532,0.00100156280284747,-0.000850269695357059
2.59021585132094,-0.000353500624014958,0.00100206097110502,-0.000850690118550485
2.60021668472373,-0.000353896456970442,0.00100252997672165,-0.000851085951505969
2.61021751812651,-0.000354271955550391,0.00100297486471618,-0.000851461450085918
2.62021835152929,-0.000354631284176826,0.00100340057124266,-0.000851820778712353
2.63021918493208,-0.00035497847123142,0.00100381187071193,-0.000852167965766947
2.64022001833486,-0.000355317372240189,0.00100421333217371,-0.000852506866775716
2.65022085173764,-0.000355651641003198,0.00100460928514333,-0.000852841135538725
2.66022168514043,-0.000355984708495984,0.00100500379466134,-0.00085317420303151
2.67022251854321,-0.000356319769080507,0.00100540064503131,-0.000853509263616034
2.680223351946,-0.000356659773330918,0.00100580333140626,-0.000853849267866445
2.69022418534878,-0.000357007426609486,0.00100621505819318,-0.000854196921145013
2.70022501875156,-0.000357365192422191,0.00100663874312074,-0.000854554686957718
2.71022585215435,-0.000357735299538651,0.00100707702576331,-0.000854924794074178
2.72022668555713,-0.000358119751870708,0.0010075322793268,-0.000855309246406235
2.73022751895991,-0.000358520340159184,0.00100800662456831,-0.00085570983469471
2.7402283523627,-0.000358938654608604,0.00100850194482938,-0.000856128149144131
2.75022918576548,-0.000359376097724321,0.00100901990129922,-0.000856565592259848
2.76023001916826,-0.000359833896735131,0.00100956194777714,-0.000857023391270658
2.77023085257105,-0.000360313115118064,0.00101012934436217,-0.00085750260965359
2.78023168597383,-0.000360814662872805,0.00101072316965276,-0.000858004157408331
2.79023251937661,-0.000361339305315447,0.00101134433118462,-0.000858528799850973
2.8002333527794,-0.000361887670270799,0.00101199357396421,-0.000859077164806325
2.81023418618218,-0.000362460253636952,0.00101267148706743,-0.000859649748172478
2.82023501958497,-0.000363057423374202,0.00101337850836559,-0.000860246917909729
2.83023585298775,-0.000363679422032969,0.00101411492751502,-0.000860868916568495
2.84023668639053,-0.000364326367982969,0.0010148808874026,-0.000861515862518495
2.85023751979332,-0.000364998255540271,0.00101567638428034,-0.000862187750075798
2.8602383531961,-0.000365694954211741,0.00101650126684901,-0.000862884448747268
2.87023918659888,-0.000366416207289739,0.00101735523456685,-0.000863605701825265
2.88024002000167,-0.000367161630035663,0.0010182378354658,-0.00086435112457119
2.89024085340445,-0.000367930707690608,0.00101914846375768,-0.000865120202226135
2.90024168680723,-0.000368722793546459,0.00102008635750683,-0.000865912288081986
2.91024252021002,-0.000369537107302286,0.00102105059663569,-0.000866726601837813
2.9202433536128,-0.000370372733919709,0.00102204010151692,-0.000867562228455235
2.93024418701558,-0.000371228623177505,0.00102305363238967,-0.000868418117713031
2.94024502041837,-0.000372103590110497,0.00102408978981997,-0.000869293084646024
2.95024585382115,-0.000372996316500724,0.00102514701640493,-0.000870185811036251
2.96024668722394,-0.000373905353570139,0.00102622359989875,-0.000871094848105666
2.97024752062672,-0.000374829126003464,0.0010273176779138,-0.000872018620538991
2.9802483540295,-0.000375765937407231,0.00102842724432391,-0.000872955431942757
2.99024918743229,-0.00037671397728634,0.00102955015746744,-0.000873903471821867
3.00025002083507,-0.000377671329592639,0.00103068415021629,-0.000874860824128166
3.01025085423785,-0.000378635982870947,0.00103182684194247,-0.000875825477406473
3.02025168764064,-0.00037960584199689,0.00103297575237697,-0.000876795336532417
3.03025252104342,-0.000380578741467955,0.00103412831731685,-0.000877768236003482
3.0402533544462,-0.0003815524601747,0.00103528190609513,-0.000878741954710227
3.05025418784899,-0.000382524737543698,0.00103643384068633,-0.000879714232079224
3.06025502125177,-0.00038349329090797,0.00103758141627762,-0.000880682785443496
3.07025585465455,-0.000384455833925388,0.00103872192309366,-0.000881645328460914
3.08025668805734,-0.000385410095831552,0.00103985266922229,-0.000882599590367078
3.09025752146012,-0.000386353841282062,0.00104097100415101,-0.000883543335817589
3.10025835486291,-0.000387284890511,0.00104207434268985,-0.000884474385046527
3.11025918826569,-0.000388201139508876,0.00104316018892851,-0.000885390634044402
3.12026002166847,-0.000389100579905497,0.00104422615985383,-0.000886290074441024
3.13026085507126,-0.000389981318232096,0.00104527000824025,-0.000887170812767623
3.14026168847404,-0.000390841594233658,0.00104628964442161,-0.000888031088769184
3.15026252187682,-0.000391679797907347,0.00104728315655826,-0.000888869292442873
3.16026335527961,-0.000392494484956786,0.00104824882902969,-0.000889683979492312
3.17026418868239,-0.000393284390374814,0.00104918515860989,-0.00089047388491034
3.18026502208517,-0.000394048439899101,0.00105009086812039,-0.000891237934434627
3.19026585548796,-0.00039478575912502,0.00105096491730326,-0.000891975253660546
3.20026668889074,-0.000395495680107562,0.00105180651071294,-0.000892685174643088
3.21026752229352,-0.000396177745337409,0.00105261510248896,-0.000893367239872935
3.22026835569631,-0.000396831709034003,0.00105339039794051,-0.00089402120356953
3.23026918909909,-0.00039745753575844,0.00105413235194524,-0.000894647030293966
3.24027002250188,-0.000398055396409346,0.00105484116423655,-0.000895244890944872
3.25027085590466,-0.000398625661723147,0.00105551727172305,-0.000895815156258674
3.26027168930744,-0.00039916889345429,0.00105616133804841,-0.000896358387989816
3.27027252271023,-0.000399685833458897,0.00105677424065708,-0.000896875327994423
3.28027335611301,-0.000400177390945409,0.00105735705567895,-0.000897366885480936
3.29027418951579,-0.000400644628186482,0.00105791104098291,-0.000897834122722009
3.30027502291858,-0.000401088745007006,0.00105843761777367,-0.000898278239542532
3.31027585632136,-0.000401511062373084,0.0010589383511181,-0.00089870055690861
3.32027668972414,-0.000401913005406311,0.00105941492978703,-0.000899102499941837
3.33027752312693,-0.000402296086137301,0.00105986914578589,-0.000899485580672827
3.34027835652971,-0.000402661886293185,0.00106030287392466,-0.000899851380828712
3.35027918993249,-0.000403012040387101,0.00106071805174604,-0.000900201534922627
3.36028002333528,-0.000403348219345197,0.00106111666009193,-0.000900537713880723
3.37028085673806,-0.000403672114870171,0.00106150070454484,-0.000900861609405697
3.38028169014085,-0.000403985424701616,0.00106187219793476,-0.000901174919237142
3.39028252354363,-0.000404289838894323,0.00106223314405556,-0.00090147933342985
3.40028335694641,-0.000404587027197657,0.00106258552268963,-0.000901776521733183
3.4102841903492,-0.000404878627583567,0.00106293127599708,-0.000902068122119093
3.42028502375198,-0.000405166235938846,0.0010632722962881,-0.000902355730474372
3.43028585715476,-0.000405451396909536,0.0010636104151638,-0.000902640891445062
3.44028669055755,-0.000405735595862489,0.00106394739398386,-0.000902925090398015
3.45028752396033,-0.000406020251911084,0.00106428491559775,-0.00090320974644661
3.46028835736311,-0.000406306711938962,0.00106462457726081,-0.000903496206474488
3.4702891907659,-0.000406596245547046,0.0010649678846461,-0.000903785740082573
3.48029002416868,-0.000406890040844617,0.00106531624685782,-0.000904079535380144
3.49029085757146,-0.000407189201004273,0.00106567097235069,-0.000904378695539799
3.50029169097425,-0.000407494741502631,0.00106603326566248,-0.000904684236038157
3.51029252437703,-0.000407807587972956,0.00106640422487162,-0.000904997082508482
3.52029335777981,-0.00040812857460199,0.00106678483969949,-0.000905318069137517
3.5302941911826,-0.000408458443010518,0.00106717599018518,-0.000905647937546044
3.54029502458538,-0.000408797841565152,0.00106757844587054,-0.000905987336100678
3.55029585798817,-0.000409147325077092,0.00106799286544256,-0.000906336819612619
3.56029669139095,-0.000409507354851772,0.00106841979679031,-0.000906696849387299
3.57029752479373,-0.000409878299061181,0.00106885967744289,-0.000907067793596707
3.58029835819652,-0.000410260433418016,0.0010693128353635,-0.000907449927953542
3.5902991915993,-0.000410653942137462,0.00106977949008284,-0.000907843436672989
3.60030002500208,-0.000411058919178336,0.00107025975416207,-0.000908248413713863
3.61030085840487,-0.0004114753697604,0.00107075363498151,-0.000908664864295927
3.62030169180765,-0.000411903212158901,0.00107126103685654,-0.000909092706694427
3.63030252521043,-0.000412342279780717,0.00107178176348587,-0.000909531774316243
3.64030335861322,-0.000412792323529009,0.00107231552074074,-0.000909981818064535
3.650304192016,-0.000413253014464865,0.00107286191980505,-0.000910442509000392
3.66030502541878,-0.000413723946775225,0.00107342048067794,-0.000910913441310751
3.67030585882157,-0.000414204641056295,0.00107399063604974,-0.000911394135591822
3.68030669222435,-0.000414694547920831,0.0010745717355617,-0.000911884042456358
3.69030752562714,-0.000415193051935998,0.00107516305045772,-0.000912382546471524
3.70030835902992,-0.000415699475896185,0.00107576377863344,-0.000912888970431712
3.7103091924327,-0.000416213085432046,0.00107637305008481,-0.000913402579967573
3.72031002583549,-0.000416733093953333,0.00107698993275333,-0.000913922588488859
3.73031085923827,-0.000417258667918781,0.00107761343876041,-0.000914448162454308
3.74031169264105,-0.000417788932421504,0.00107824253101751,-0.00091497842695703
3.75031252604384,-0.000418322977073066,0.0010788761301924,-0.000915512471608592
3.76031335944662,-0.000418859862163908,0.00107951312200519,-0.000916049356699435
3.7703141928494,-0.000419398625071956,0.00108015236482128,-0.000916588119607482
3.78031502625219,-0.000419938286885415,0.00108079269750082,-0.000917127781420942
3.79031585965497,-0.000420477859199952,0.00108143294745779,-0.000917667353735479
3.80031669305775,-0.000421016351044827,0.00108207193887493,-0.000918205845580353
3.81031752646054,-0.000421552775887303,0.00108270850101448,-0.000918742270422829
3.82031835986332,-0.000422086158659909,0.00108334147655889,-0.000919275653195435
3.83031919326611,-0.000422615542751006,0.00108396972991097,-0.000919805037286533
3.84032002666889,-0.000423139996895846,0.00108459215537871,-0.000920329491431373
3.85032086007167,-0.000423658621902925,0.00108520768516743,-0.000920848116438452
3.86032169347446,-0.000424170557149144,0.0010858152970999,-0.00092136005168467
3.87032252687724,-0.00042467498677712,0.0010864140219854,-0.000921864481312647
3.88032336028002,-0.00042517114552907,0.00108700295055931,-0.000922360640064597
3.89032419368281,-0.000425658324153986,0.00108758123991793,-0.000922847818689512
3.90032502708559,-0.000426135874328435,0.00108814811937743,-0.000923325368863961
3.91032586048837,-0.000426603213036141,0.00108870289569121,-0.000923792707571667
3.92032669389116,-0.000427059826357487,0.00108924495756762,-0.000924249320893014
3.93032752729394,-0.000427505272627184,0.00108977377943773,-0.000924694767162711
3.94032836069672,-0.000427939184926323,0.001090288924433,-0.00092512867946185
3.95032919409951,-0.00042836127288385,0.0010907900465426,-0.000925550767419376
3.96033002750229,-0.000428771323771823,0.00109127689193168,-0.00092596081830735
3.97033086090508,-0.000429169202888556,0.00109174929941312,-0.000926358697424083
3.98033169430786,-0.000429554853233592,0.00109220720007731,-0.000926744347769118
3.99033252771064,-0.000429928294488213,0.00109265061609601,-0.000927117789023739
4.00033336111343,-0.000430289621324633,0.00109307965872752,-0.00092747911586016
4.01033419451621,-0.000430639001075877,0.00109349452556111,-0.000927828495611404
4.02033502791899,-0.000430976670806495,0.00109389549704836,-0.000928166165342021
4.03033586132178,-0.00043130293383147,0.00109428293237751,-0.000928492428366997
4.04033669472456,-0.000431618155736799,0.00109465726475437,-0.000928807650272325
4.05033752812734,-0.00043192275996017,0.00109501899615936,-0.000929112254495696
4.06033836153013,-0.000432217222993895,0.00109536869165436,-0.000929406717529421
4.07033919493291,-0.000432502069274636,0.00109570697331625,-0.000929691563810162
4.08034002833569,-0.000432777865825632,0.00109603451387536,-0.000929967360361159
4.09034086173848,-0.00043304521671706,0.00109635203013682,-0.000930234711252586
4.10034169514126,-0.000433304757408911,0.00109666027626136,-0.000930494251944438
4.11034252854405,-0.000433557149038526,0.00109696003697978,-0.000930746643574053
4.12034336194683,-0.000433803072711723,0.0010972521208109,-0.00093099256724725
4.13034419534961,-0.000434043223852537,0.00109753735334873,-0.000931232718388063
4.1403450287524,-0.000434278306662007,0.0010978165706788,-0.000931467801197534
4.15034586215518,-0.000434509028731493,0.00109809061297768,-0.00093169852326702
4.16034669555796,-0.000434736095850652,0.00109836031834366,-0.000931925590386179
4.17034752896075,-0.000434960207044837,0.00109862651689978,-0.000932149701580363
4.18034836236353,-0.000435182049871195,0.00109889002520411,-0.000932371544406722
4.19034919576631,-0.000435402295997473,0.00109915164099584,-0.000932591790533
4.2003500291691,-0.000435621597082395,0.00109941213829957,-0.000932811091617922
4.21035086257188,-0.000435840580971765,0.00109967226290469,-0.000933030075507292
4.22035169597466,-0.000436059848219989,0.0010999327282313,-0.000933249342755516
4.23035252937745,-0.000436279968942769,0.00110019421158947,-0.000933469463478296
4.24035336278023,-0.000436501480003197,0.00110045735083452,-0.000933690974538723
4.25035419618302,-0.000436724882530408,0.00110072274141726,-0.000933914377065934
4.2603550295858,-0.000436950639767389,0.00110099093382511,-0.000934140134302915
4.27035586298858,-0.000437179175242376,0.00110126243140742,-0.000934368669777902
4.28035669639137,-0.000437410871256572,0.00110153768857639,-0.000934600365792098
4.29035752979415,-0.00043764606767959,0.00110181710937327,-0.000934835562215116
4.30035836319693,-0.000437885061043051,0.00110210104638845,-0.000935074555578577
4.31035919659972,-0.000438128103922111,0.00110238980002336,-0.000935317598457637
4.3203600300025,-0.000438375404594256,0.0011026836180814,-0.000935564899129782
4.33036086340528,-0.000438627126964541,0.001102982695675,-0.000935816621500067
4.34036169680807,-0.000438883390746395,0.00110328717543604,-0.000936072885281921
4.35036253021085,-0.000439144271887221,0.00110359714801675,-0.000936333766422747
4.36036336361363,-0.000439409803228166,0.00110391265286844,-0.000936599297763692
4.37036419701642,-0.000439679975387641,0.00110423367928585,-0.000936869469923167
4.3803650304192,-0.000439954737858403,0.00110456016770491,-0.000937144232393929
4.39036586382199,-0.000440234000308122,0.00110489201124212,-0.000937423494843648
4.40036669722477,-0.00044051763407353,0.00110522905746378,-0.000937707128609056
4.41036753062755,-0.000440805473838227,0.00110557111037335,-0.000937994968373752
4.42036836403034,-0.000441097319484195,0.00110591793260515,-0.000938286814019721
4.43036919743312,-0.000441392938106865,0.00110626924781258,-0.000938582432642391
4.4403700308359,-0.000441692066183292,0.00110662474323832,-0.000938881560718818
4.45037086423869,-0.000441994411882608,0.00110698407245386,-0.000939183906418134
4.46037169764147,-0.000442299657507352,0.0011073468582549,-0.000939489152042878
4.47037253104425,-0.000442607462053694,0.0011077126956984,-0.00093979695658922
4.48037336444704,-0.0004429174638778,0.00110808115526624,-0.000940106958413326
4.49037419784982,-0.000443229283454805,0.00110845178613956,-0.000940418777990331
4.5003750312526,-0.000443542526216006,0.0011088241195666,-0.000940732020751532
4.51037586465539,-0.000443856785448976,0.00110919767230607,-0.000941046279984502
4.52037669805817,-0.000444171645244412,0.0011095719501268,-0.000941361139779938
4.53037753146095,-0.00044448668347267,0.00110994645134348,-0.000941676178008196
4.54037836486374,-0.00044480147477209,0.0011103206703672,-0.000941990969307616
4.55037919826652,-0.000445115593530508,0.00111069410124881,-0.000942305088066034
4.56038003166931,-0.000445428616840703,0.00111106624119206,-0.000942618111376229
4.57038086507209,-0.000445740127410076,0.00111143659401333,-0.000942929621945602
4.58038169847487,-0.000446049716404528,0.00111180467352385,-0.000943239210940054
4.59038253187766,-0.000446356986206417,0.00111217000681065,-0.000943546480741943
4.60038336528044,-0.000446661553066571,0.0011125321373924,-0.000943851047602097
4.61038419868322,-0.000446963049630685,0.00111289062822649,-0.000944152544166211
4.62038503208601,-0.000447261127321032,0.00111324506454492,-0.000944450621856558
4.63038586548879,-0.000447555458555257,0.00111359505649697,-0.000944744953090783
4.64038669889157,-0.000447845738785154,0.00111394024157839,-0.00094503523332068
4.65038753229436,-0.000448131688339657,0.00111428028682828,-0.000945321182875183
4.66038836569714,-0.000448413054057908,0.00111461489077658,-0.000945602548593434
4.67038919909993,-0.000448689610700074,0.0011149437851277,-0.000945879105235601
4.68039003250271,-0.000448961162125631,0.00111526673616768,-0.000946150656661158
4.69039086590549,-0.000449227542231009,0.00111558354588531,-0.000946417036766535
4.70039169930828,-0.000449488615640868,0.00111589405280031,-0.000946678110176395
4.71039253271106,-0.000449744278149708,0.00111619813249437,-0.000946933772685234
4.72039336611384,-0.000449994456913006,0.00111649569784431,-0.000947183951448532
4.73039419951663,-0.000450239110389657,0.00111678669895909,-0.000947428604925183
4.74039503291941,-0.000450478228039951,0.00111707112282586,-0.000947667722575478
4.75039586632219,-0.000450711829785817,0.00111734899267286,-0.000947901324321343
4.76039669972498,-0.00045093996524237,0.00111762036705992,-0.000948129459777896
4.77039753312776,-0.000451162712732037,0.00111788533870994,-0.000948352207267563
4.78039836653054,-0.000451380178094526,0.00111814403309709,-0.000948569672630052
4.79039919993333,-0.000451592493307744,0.00111839660680966,-0.00094878198784327
4.80040003333611,-0.000451799814936336,0.00111864324570735,-0.000948989309471862
4.8104008667389,-0.000452002322425846,0.00111888416289455,-0.000949191816961372
4.82040170014168,-0.000452200216261555,0.00111911959653208,-0.000949389710797081
4.83040253354446,-0.000452393716011828,0.00111934980751116,-0.000949583210547354
4.84040336694725,-0.000452583058276303,0.00111957507701375,-0.000949772552811829
4.85040420035003,-0.000452768494559469,0.00111979570398371,-0.000949957989094995
4.86040503375281,-0.000452950289090153,0.00112001200253323,-0.000950139783625679
4.8704058671556,-0.000453128716607122,0.00112022429930866,-0.000950318211142648
4.88040670055838,-0.00045330406013049,0.00112043293083908,-0.000950493554666016
4.89040753396116,-0.000453476608737887,0.00112063824089028,-0.000950666103273413
4.90040836736395,-0.000453646655363413,0.00112084057784562,-0.00095083614989894
4.91040920076673,-0.000453814494636334,0.00112104029213388,-0.00095100398917186
4.92041003416951,-0.000453980420775256,0.00112123773372301,-0.000951169915310782
4.9304108675723,-0.000454144725552229,0.00112143324969685,-0.000951334220087755
4.94041170097508,-0.000454307696339828,0.00112162718193044,-0.000951497190875354
4.95041253437786,-0.000454469614252841,0.00112181986487775,-0.000951659108788367
4.96041336778065,-0.000454630752394775,0.00112201162348405,-0.000951820246930301
4.97041420118343,-0.000454791374217909,0.00112220277123325,-0.000951980868753435
4.98041503458622,-0.000454951732004255,0.00112239360833896,-0.000952141226539782
4.990415867989,-0.000455112065473378,0.00112258442008653,-0.000952301560008904
5.00041670139178,-0.000455272600521729,0.00112277547533139,-0.000952462095057255
5.01041753479457,-0.000455433548096915,0.00112296702515792,-0.000952623042632442
5.02041836819735,-0.000455595103209125,0.00112315930170145,-0.000952784597744651
5.03041920160013,-0.000455757444080887,0.0011233525171348,-0.000952946938616413
5.04042003500292,-0.000455920731435311,0.00112354686281953,-0.000953110225970837
5.0504208684057,-0.000456085107922089,0.00112374250862107,-0.000953274602457615
5.06042170180848,-0.000456250697679669,0.00112393960238581,-0.000953440192215195
5.07042253521127,-0.000456417606031335,0.00112413826957752,-0.000953607100566861
5.08042336861405,-0.000456585919312223,0.0011243386130695,-0.000953775413847749
5.09042420201683,-0.00045675570482375,0.00112454071308832,-0.000953945199359276
5.10042503541962,-0.000456927010911423,0.00112474462730439,-0.000954116505446949
5.1104258688224,-0.000457099867161514,0.00112495039106389,-0.00095428936169704
5.12042670222519,-0.000457274284711723,0.00112515801775639,-0.000954463779247249
5.13042753562797,-0.000457450256670581,0.00112536749931193,-0.000954639751206107
5.14042836903075,-0.000457627758640021,0.00112557880682077,-0.000954817253175547
5.15042920243354,-0.00045780674933529,0.00112579189126916,-0.000954996243870816
5.16043003583632,-0.000457987171296093,0.00112600668438366,-0.000955176665831619
5.1704308692391,-0.000458168951682642,0.00112622309957659,-0.000955358446218168
5.18043170264189,-0.000458352003150077,0.00112644103298489,-0.000955541497685603
5.19043253604467,-0.00045853622479449,0.00112666036459427,-0.000955725719330016
5.20043336944745,-0.000458721503163643,0.00112688095944053,-0.000955910997699169
5.21043420285024,-0.000458907713325253,0.0011271026688795,-0.000956097207860779
5.22043503625302,-0.000459094719985576,0.00112732533191708,-0.000956284214521102
5.23043586965581,-0.000459282378650877,0.00112754877659044,-0.000956471873186403
5.24043670305859,-0.000459470536824195,0.00112777282139156,-0.000956660031359721
5.25043753646137,-0.000459659035229755,0.00112799727672372,-0.000956848529765281
5.26043836986416,-0.000459847709057225,0.00112822194638203,-0.000957037203592751
5.27043920326694,-0.000460036389217978,0.00112844662904834,-0.000957225883753504
5.28044003666972,-0.000460224903605449,0.00112867111979138,-0.000957414398140974
5.29044087007251,-0.000460413078351698,0.00112889521156254,-0.000957602572887224
5.30044170347529,-0.000460600739072285,0.00112911869667807,-0.000957790233607811
5.31044253687807,-0.000460787712091647,0.0011293413682783,-0.000957977206627173
5.32044337028086,-0.000460973825641291,0.00112956302175468,-0.000958163320176817
5.33044420368364,-0.00046115891102328,0.00112978345613583,-0.000958348405558805
5.34044503708642,-0.000461342803731689,0.00113000247542368,-0.000958532298267215
5.35044587048921,-0.000461525344525032,0.00113021988987155,-0.000958714839060558
5.36044670389199,-0.000461706380442931,0.00113043551719596,-0.000958895874978457
5.37044753729477,-0.000461885765760752,0.00113064918371478,-0.000959075260296278
5.38044837069756,-0.000462063362876336,0.0011308607254047,-0.000959252857411862
5.39044920410034,-0.000462239043123479,0.00113106998887161,-0.000959428537659005
5.40045003750313,-0.000462412687507361,0.00113127683222812,-0.000959602182042887
5.41045087090591,-0.000462584187357733,0.00113148112587327,-0.000959773681893258
5.42045170430869,-0.000462753444896316,0.00113168275317016,-0.000959942939431841
5.43045253771148,-0.000462920373715556,0.00113188161101801,-0.000960109868251082
5.44045337111426,-0.00046308489916659,0.00113207761031614,-0.000960274393702115
5.45045420451704,-0.000463246958655008,0.00113227067631816,-0.000960436453190534
5.46045503791983,-0.000463406501843785,0.00113246074887556,-0.00096059599637931
5.47045587132261,-0.000463563490763459,0.00113264778257074,-0.000960752985298984
5.48045670472539,-0.000463717899830453,0.00113283174674065,-0.000960907394365978
5.49045753812818,-0.000463869715775129,0.00113301262539277,-0.000961059210310655
5.50045837153096,-0.000464018937481922,0.00113319041701628,-0.000961208432017447
5.51045920493374,-0.000464165575744568,0.00113336513429201,-0.000961355070280094
5.52046003833653,-0.000464309652940137,0.00113353680370553,-0.000961499147475663
5.53046087173931,-0.000464451202626135,0.00113370546506848,-0.000961640697161661
5.5404617051421,-0.00046459026906555,0.00113387117095388,-0.000961779763601076
5.55046253854488,-0.00046472690668519,0.00113403398605192,-0.000961916401220715
5.56046337194766,-0.000464861179473092,0.00113419398645297,-0.000962050674008618
5.57046420535045,-0.000464993160321178,0.00113435125886519,-0.000962182654856704
5.58046503875323,-0.000465122930319595,0.00113450589977446,-0.000962312424855121
5.59046587215601,-0.000465250578009432,0.00113465801455465,-0.000962440072544957
5.6004667055588,-0.000465376198600653,0.00113480771653616,-0.000962565693136179
5.61046753896158,-0.000465499893162168,0.00113495512604126,-0.000962689387697694
5.62046837236436,-0.00046562176779097,0.00113510036939434,-0.000962811262326496
5.63046920576715,-0.000465741932767235,0.00113524357791523,-0.00096293142730276
5.64047003916993,-0.000465860501702141,0.00113538488690388,-0.000963049996237666
5.65047087257271,-0.000465977590685014,0.00113552443462395,-0.000963167085220539
5.6604717059755,-0.000466093317436148,0.00113566236129326,-0.000963282811971673
5.67047253937828,-0.000466207800471405,0.00113579880808798,-0.00096339729500693
5.68047337278106,-0.000466321158284353,0.00113593391616786,-0.000963510652819878
5.69047420618385,-0.000466433508551365,0.00113606782572851,-0.00096362300308689
5.70047503958663,-0.000466544967364694,0.00113620067508714,-0.000963734461900219
5.71047587298942,-0.000466655648498156,0.001136332599807,-0.000963845143033681
5.7204767063922,-0.000466765662709605,0.0011364637318656,-0.00096395515724513
5.73047753979498,-0.00046687511708394,0.00113659419887124,-0.000964064611619465
5.74047837319777,-0.000466984114419956,0.00113672412333169,-0.000964173608955481
5.75047920660055,-0.000467092752663892,0.0011368536219785,-0.000964282247199417
5.76048004000333,-0.000467201124392056,0.0011369828051498,-0.000964390618927581
5.77048087340612,-0.000467309316344523,0.00113711177623382,-0.000964498810880048
5.7804817068089,-0.000467417409011398,0.0011372406311752,-0.000964606903546923
5.79048254021168,-0.000467525476272787,0.00113736945804511,-0.000964714970808312
5.80048337361447,-0.000467633585093164,0.00113749833667632,-0.000964823079628689
5.81048420701725,-0.000467741795270465,0.00113762733836341,-0.00096493128980599
5.82048504042004,-0.000467850159239854,0.00113775652562814,-0.000965039653775379
5.83048587382282,-0.000467958721931781,0.00113788595204952,-0.000965148216467306
5.8404867072256,-0.000468067520683601,0.00113801566215775,-0.000965257015219126
5.85048754062839,-0.000468176585203736,0.00113814569139071,-0.000965366079739261
5.86048837403117,-0.000468285937587066,0.00113827606611162,-0.000965475432122591
5.87048920743395,-0.000468395592379969,0.00113840680368581,-0.000965585086915494
5.88049004083674,-0.000468505556693204,0.00113853791261454,-0.000965695051228729
5.89049087423952,-0.000468615830360585,0.00113866939272345,-0.00096580532489611
5.9004917076423,-0.000468726406141202,0.00113880123540294,-0.000965915900676727
5.91049254104509,-0.000468837269962757,0.00113893342389756,-0.000966026764498282
5.92049337444787,-0.000468948401203419,0.00113906593364137,-0.000966137895738944
5.93049420785065,-0.000469059773009438,0.00113919873263593,-0.000966249267544963
5.94049504125344,-0.000469171352645654,0.00113933178186765,-0.000966360847181179
5.95049587465622,-0.000469283101875886,0.00113946503576067,-0.000966472596411411
5.96049670805901,-0.000469394977370118,0.0011395984426618,-0.000966584471905643
5.97049754146179,-0.000469506931135291,0.00113973194535372,-0.000966696425670816
5.98049837486457,-0.000469618910966468,0.00113986548159241,-0.000966808405501993
5.99049920826736,-0.00046973086091506,0.00113999898466505,-0.000966920355450585
6.00050004167014,-0.000469842721770793,0.00114013238396439,-0.000967032216306318
6.01050087507292,-0.000469954431554063,0.00114026560557552,-0.000967143926089587
6.02050170847571,-0.000470065926015319,0.00114039857287111,-0.000967255420550843
6.03050254187849,-0.000470177139138156,0.00114053120711116,-0.000967366633673681
6.04050337528127,-0.000470288003642794,0.00114066342804327,-0.000967477498178319
6.05050420868406,-0.000470398451486704,0.00114079515449956,-0.000967587946022229
6.06050504208684,-0.000470508414359179,0.00114092630498649,-0.000967697908894704
6.07050587548962,-0.000470617824166766,0.00114105679826383,-0.000967807318702291
6.08050670889241,-0.00047072661350654,0.00114118655390914,-0.000967916108042065
6.09050754229519,-0.000470834716124347,0.00114131549286452,-0.000968024210659872
6.10050837569797,-0.000470942067355279,0.00114144353796209,-0.000968131561890804
6.11050920910076,-0.000471048604543773,0.00114157061442534,-0.000968238099079298
6.12051004250354,-0.000471154267440932,0.00114169665034334,-0.000968343761976457
6.13051087590633,-0.000471258998576819,0.00114182157711509,-0.000968448493112344
6.14051170930911,-0.000471362743605698,0.00114194532986174,-0.000968552238141223
6.15051254271189,-0.000471465451622388,0.00114206784780434,-0.000968654946157913
6.16051337611468,-0.00047156707544815,0.00114218907460531,-0.000968756569983675
6.17051420951746,-0.000471667571884716,0.00114230895867192,-0.000968857066420241
6.18051504292024,-0.00047176690193537,0.00114242745342051,-0.000968956396470895
6.19051587632303,-0.000471865030992186,0.00114254451750036,-0.00096905452552771
6.20051670972581,-0.000471961928988818,0.00114266011497647,-0.000969151423524343
6.21051754312859,-0.000472057570518488,0.00114277421547081,-0.000969247065054013
6.22051837653138,-0.000472151934917056,0.00114288679426198,-0.000969341429452581
6.23051920993416,-0.000472245006311331,0.00114299783234334,-0.000969434500846855
6.24052004333694,-0.000472336773633033,0.00114310731644017,-0.000969526268168558
6.25052087673973,-0.000472427230599047,0.00114321523898659,-0.000969616725134572
6.26052171014251,-0.000472516375658847,0.00114332159806336,-0.000969705870194372
6.2705225435453,-0.000472604211910208,0.00114342639729773,-0.000969793706445733
6.28052337694808,-0.000472690746984524,0.00114352964572706,-0.000969880241520049
6.29052421035086,-0.000472775992903243,0.00114363135762796,-0.000969965487438768
6.30052504375365,-0.000472859965907122,0.00114373155231289,-0.000970049460442647
6.31052587715643,-0.000472942686260168,0.00114383025389666,-0.000970132180795693
6.32052671055921,-0.000473024178030266,0.00114392749103495,-0.000970213672565791
6.330527543962,-0.000473104468848631,0.00114402329663759,-0.000970293963384156
6.34052837736478,-0.000473183589650324,0.0011441177075592,-0.000970373084185849
6.35052921076756,-0.000473261574398148,0.00114421076426998,-0.000970451068933672
6.36053004417035,-0.000473338459792315,0.00114430251050944,-0.00097052795432784
6.37053087757313,-0.000473414284968313,0.00114439299292604,-0.000970603779503838
6.38053171097591,-0.000473489091185415,0.00114448226070565,-0.00097067858572094
6.3905325443787,-0.00047356292150828,0.00114457036519167,-0.000970752416043804
6.40053337778148,-0.000473635820484088,0.00114465735949986,-0.000970825315019613
6.41053421118426,-0.000473707833817591,0.0011447432981306,-0.000970897328353116
6.42053504458705,-0.000473779008046421,0.00114482823658141,-0.000970968502581945
6.43053587798983,-0.000473849390218924,0.00114491223096255,-0.000971038884754449
6.44053671139262,-0.000473919027576707,0.00114499533761807,-0.000971108522112232
6.4505375447954,-0.000473987967243964,0.00114507761275505,-0.000971177461779488
6.46053837819818,-0.000474056255925562,0.00114515911208323,-0.000971245750461087
6.47053921160097,-0.000474123939615729,0.0011452398904672,-0.000971313434151254
6.48054004500375,-0.000474191063319046,0.00114532000159337,-0.000971380557854571
6.49054087840653,-0.000474257670785333,0.00114539949765341,-0.000971447165320858
6.50054171180932,-0.000474323804259838,0.001145478429046,-0.000971513298795363
6.5105425452121,-0.000474389504250012,0.00114555684409826,-0.000971578998785537
6.52054337861488,-0.000474454809309993,0.00114563478880843,-0.000971644303845518
6.53054421201767,-0.000474519755843749,0.00114571230661073,-0.000971709250379274
6.54054504542045,-0.00047458437792771,0.00114578943816342,-0.000971773872463235
6.55054587882324,-0.000474648707153514,0.00114586622116099,-0.000971838201689039
6.56054671222602,-0.00047471277249138,0.00114594269017085,-0.000971902267026905
6.5705475456288,-0.000474776600174454,0.00114601887649507,-0.000971966094709979
6.58054837903159,-0.000474840213604303,0.00114609480805738,-0.000972029708139828
6.59054921243437,-0.000474903633277627,0.00114617050931547,-0.000972093127813152
6.60055004583715,-0.000474966876734096,0.00114624600119851,-0.000972156371269621
6.61055087923994,-0.000475029958525077,0.00114632130106959,-0.000972219453060602
6.62055171264272,-0.000475092890202915,0.00114639642271273,-0.00097228238473844
6.6305525460455,-0.000475155680330284,0.00114647137634379,-0.000972345174865809
6.64055337944829,-0.000475218334509035,0.00114654616864471,-0.00097240782904456
6.65055421285107,-0.000475280855427825,0.00114662080282013,-0.00097247034996335
6.66055504625385,-0.000475343242927762,0.00114669527867559,-0.000972532737463287
6.67055587965664,-0.000475405494085156,0.00114676959271604,-0.000972594988620681
6.68055671305942,-0.00047546760331042,0.00114684373826375,-0.000972657097845945
6.69055754646221,-0.000475529562462077,0.00114691770559422,-0.000972719056997602
6.70055837986499,-0.000475591360974753,0.00114699148208878,-0.000972780855510278
6.71055921326777,-0.00047565298599999,0.00114706505240255,-0.000972842480535515
6.72056004667056,-0.000475714422558656,0.00114713839864617,-0.000972903917094181
6.73056088007334,-0.000475775653703681,0.00114721150058001,-0.000972965148239206
6.74056171347612,-0.000475836660691822,0.00114728433581906,-0.000973026155227347
6.75056254687891,-0.000475897423163136,0.00114735688004706,-0.000973086917698661
6.76056338028169,-0.000475957919326796,0.00114742910723829,-0.000973147413862322
6.77056421368447,-0.000476018126151925,0.00114750098988525,-0.00097320762068745
6.78056504708726,-0.000476078019562059,0.00114757249923081,-0.000973267514097584
6.79056588049004,-0.000476137574631916,0.00114764360550306,-0.000973327069167442
6.80056671389282,-0.000476196765785115,0.00114771427815131,-0.00097338626032064
6.81056754729561,-0.000476255566991538,0.00114778448608176,-0.000973445061527063
6.82056838069839,-0.000476313951963054,0.0011478541978911,-0.000973503446498579
6.83056921410117,-0.000476371894346346,0.00114792338209683,-0.000973561388881872
6.84057004750396,-0.000476429367911645,0.00114799200736255,-0.00097361886244717
6.85057088090674,-0.000476486346736209,0.00114806004271713,-0.000973675841271734
6.86057171430953,-0.000476542805381459,0.00114812745776624,-0.000973732299916984
6.87057254771231,-0.00047659871906273,0.00114819422289508,-0.000973788213598255
6.88057338111509,-0.000476654063810673,0.00114826030946121,-0.000973843558346198
6.89057421451788,-0.000476708816623424,0.00114832568997632,-0.000973898311158949
6.90057504792066,-0.000476762955608713,0.00114839033827601,-0.000973952450144238
6.91057588132344,-0.000476816460115197,0.00114845422967673,-0.000974005954650722
6.92057671472623,-0.00047686931085237,0.00114851734111905,-0.000974058805387895
6.93057754812901,-0.000476921489998489,0.00114857965129668,-0.000974110984534014
6.94057838153179,-0.000476972981296066,0.00114864114077062,-0.000974162475831591
6.95057921493458,-0.000477023770134543,0.001148701792068,-0.000974213264670068
6.96058004833736,-0.000477073843619896,0.00114876158976533,-0.000974263338155421
6.97058088174014,-0.000477123190630965,0.00114882052055592,-0.00097431268516649
6.98058171514293,-0.000477171801862447,0.0011488785733013,-0.000974361296397972
6.99058254854571,-0.000477219669854548,0.00114893573906683,-0.000974409164390073
7.0005833819485,-0.0004772667890094,0.00114899201114137,-0.000974456283544925
7.01058421535128,-0.000477313155594429,0.00114904738504146,-0.000974502650129954
7.02058504875406,-0.000477358767732956,0.00114910185850019,-0.000974548262268481
7.03058588215685,-0.000477403625382385,0.00114915543144132,-0.00097459311991791
7.04058671555963,-0.000477447730300417,0.00114920810593897,-0.000974637224835942
7.05058754896241,-0.000477491085999802,0.00114925988616372,-0.000974680580535327
7.0605883823652,-0.000477533697692203,0.00114931077831566,-0.000974723192227728
7.07058921576798,-0.00047757557222182,0.00114936079054523,-0.000974765066757344
7.08059004917076,-0.000477616717989468,0.00114940993286256,-0.000974806212524992
7.09059088257355,-0.00047765714486786,0.00114945821703644,-0.000974846639403385
7.10059171597633,-0.000477696864108883,0.0011495056564836,-0.000974886358644408
7.11059254937912,-0.000477735888243699,0.00114955226614946,-0.000974925382779224
7.1205933827819,-0.000477774230976524,0.00114959806238131,-0.000974963725512049
7.13059421618468,-0.000477811907072978,0.001149643062795,-0.000975001401608503
7.14059504958747,-0.000477848932243881,0.00114968728613621,-0.000975038426779406
7.15059588299025,-0.000477885323025429,0.00114973075213731,-0.000975074817560953
7.16059671639303,-0.000477921096656626,0.00114977348137102,-0.00097511059119215
7.17059754979582,-0.000477956270954904,0.00114981549510184,-0.000975145765490428
7.1805983831986,-0.000477990864190802,0.00114985681513638,-0.000975180358726327
7.19059921660138,-0.000478024894962589,0.00114989746367359,-0.000975214389498114
7.20060005000417,-0.000478058382071681,0.00114993746315597,-0.000975247876607206
7.21060088340695,-0.000478091344399675,0.00114997683612263,-0.000975280838935199
7.22060171680973,-0.00047812380078779,0.00115001560506533,-0.000975313295323314
7.23060255021252,-0.000478155769919474,0.0011500537922882,-0.000975345264454999
7.2406033836153,-0.000478187270206881,0.00115009141977207,-0.000975376764742406
7.25060421701808,-0.000478218319681881,0.00115012850904435,-0.000975407814217406
7.26060505042087,-0.000478248935892233,0.00115016508105486,-0.000975438430427758
7.27060588382365,-0.000478279135803471,0.00115020115605869,-0.000975468630338996
7.28060671722644,-0.000478308935707024,0.00115023675350632,-0.000975498430242548
7.29060755062922,-0.000478338351135016,0.00115027189194187,-0.000975527845670541
7.300608384032,-0.000478367396782157,0.00115030658890971,-0.000975556891317682
7.31060921743479,-0.000478396086435053,0.00115034086086998,-0.000975585580970578
7.32061005083757,-0.000478424432909218,0.00115037472312329,-0.000975613927444742
7.33061088424035,-0.000478452447994017,0.00115040818974494,-0.000975641942529542
7.34061171764314,-0.000478480142405703,0.00115044127352869,-0.000975669636941228
7.35061255104592,-0.000478507525748647,0.00115047398594047,-0.000975697020284171
7.3606133844487,-0.000478534606484813,0.00115050633708184,-0.000975724101020338
7.37061421785149,-0.000478561391911487,0.0011505383356633,-0.000975750886447012
7.38061505125427,-0.000478587888147174,0.00115056998898744,-0.000975777382682699
7.39061588465705,-0.000478614100125578,0.00115060130294168,-0.000975803594661102
7.40061671805984,-0.000478640031597483,0.00115063228200046,-0.000975829526133007
7.41061755146262,-0.000478665685140345,0.00115066292923667,-0.00097585517967587
7.42061838486541,-0.00047869106217533,0.00115069324634192,-0.000975880556710854
7.43061921826819,-0.000478716162991503,0.00115072323365547,-0.000975905657527028
7.44062005167097,-0.000478740986776847,0.00115075289020115,-0.000975930481312372
7.45062088507376,-0.00047876553165573,0.00115078221373216,-0.000975955026191254
7.46062171847654,-0.000478789794732423,0.00115081120078299,-0.000975979289267948
7.47062255187932,-0.000478813772140244,0.00115083984672809,-0.000976003266675769
7.48062338528211,-0.000478837459095859,0.00115086814584673,-0.000976026953631384
7.49062421868489,-0.000478860849958276,0.00115089609139345,-0.0009760503444938
7.50062505208767,-0.00047888393829202,0.00115092367567348,-0.000976073432827545
7.51062588549046,-0.000478906716933996,0.00115095089012266,-0.000976096211469521
7.52062671889324,-0.000478929178063487,0.001150977725391,-0.000976118672599011
7.53062755229602,-0.000478951313274785,0.00115100417142944,-0.00097614080781031
7.54062838569881,-0.000478973113651903,0.00115103021757914,-0.000976162608187428
7.55062921910159,-0.000478994569844819,0.00115105585266252,-0.000976184064380344
7.56063005250438,-0.000479015672146746,0.00115108106507559,-0.000976205166682271
7.57063088590716,-0.000479036410571868,0.00115110584288083,-0.000976225905107393
7.58063171930994,-0.000479056774933036,0.00115113017390001,-0.000976246269468561
7.59063255271273,-0.000479076754918911,0.00115115404580635,-0.000976266249454436
7.60063338611551,-0.000479096340170063,0.0011511774462155,-0.000976285834705588
7.61063421951829,-0.00047911552035354,0.00115120036277456,-0.000976305014889065
7.62063505292108,-0.000479134285235457,0.00115122278324891,-0.000976323779770982
7.63063588632386,-0.000479152624751176,0.00115124469560599,-0.000976342119286701
7.64063671972664,-0.000479170529072657,0.00115126608809585,-0.000976360023608182
7.65063755312943,-0.00047918798867261,0.00115128694932781,-0.000976377483208134
7.66063838653221,-0.000479204994385087,0.00115130726834284,-0.000976394488920612
7.67063921993499,-0.000479221537462208,0.00115132703468139,-0.000976411031997733
7.68064005333778,-0.000479237609626715,0.0011513462384462,-0.00097642710416224
7.69064088674056,-0.000479253203120114,0.00115136487035984,-0.000976442697655639
7.70064172014335,-0.000479268310746183,0.0011513829218167,-0.000976457805281708
7.71064255354613,-0.000479282925909653,0.00115140038492929,-0.000976472420445178
7.72064338694891,-0.000479297042649935,0.0011514172525685,-0.00097648653718546
7.7306442203517,-0.000479310655669758,0.00115143351839786,-0.000976500150205283
7.74064505375448,-0.000479323760358658,0.00115144917690165,-0.000976513254894183
7.75064588715726,-0.000479336352811278,0.00115146422340677,-0.000976525847346803
7.76064672056005,-0.000479348429840475,0.00115147865409842,-0.000976537924376
7.77064755396283,-0.000479359988985256,0.00115149246602962,-0.000976549483520781
7.78064838736561,-0.000479371028513631,0.00115150565712463,-0.000976560523049156
7.7906492207684,-0.000479381547420454,0.00115151822617637,-0.000976571041955979
7.80065005417118,-0.000479391545420409,0.0011515301728381,-0.000976581039955934
7.81065088757396,-0.000479401022936278,0.00115154149760935,-0.000976590517471803
7.82065172097675,-0.00047940998108269,0.00115155220181661,-0.000976599475618215
7.83065255437953,-0.000479418421645573,0.00115156228758867,-0.000976607916181097
7.84065338778232,-0.000479426347057519,0.00115157175782732,-0.000976615841593044
7.8506542211851,-0.000479433760369362,0.00115158061617329,-0.000976623254904887
7.86065505458788,-0.000479440665218209,0.00115158886696811,-0.000976630159753734
7.87065588799067,-0.000479447065792249,0.00115159651521207,-0.000976636560327773
7.88065672139345,-0.000479452966792633,0.00115160356651865,-0.000976642461328158
7.89065755479623,-0.000479458373392769,0.00115161002706588,-0.000976647867928294
7.90065838819902,-0.000479463291195341,0.00115161590354501,-0.000976652785730866
7.9106592216018,-0.000479467726187408,0.00115162120310684,-0.000976657220722933
7.92066005500458,-0.000479471684693933,0.00115162593330617,-0.000976661179229458
7.93066088840737,-0.000479475173330077,0.00115163010204481,-0.000976664667865601
7.94066172181015,-0.000479478198952605,0.00115163371751351,-0.00097666769348813
7.95066255521293,-0.000479480768610769,0.00115163678813327,-0.000976670263146294
7.96066338861572,-0.000479482889496983,0.00115163932249636,-0.000976672384032508
7.9706642220185,-0.000479484568897636,0.00115164132930757,-0.000976674063433161
7.98066505542129,-0.00047948581414437,0.00115164281732598,-0.000976675308679895
7.99066588882407,-0.000479486632566126,0.00115164379530762,-0.000976676127101651
8.00066672222685,-0.000479487031442266,0.00115164427194948,-0.000976676525977791
8.01066755562964,-0.00047948701795705,0.0011516442558351,-0.000976676512492575
8.02066838903242,-0.000479486599155743,0.00115164375538208,-0.000976676093691268
8.0306692224352,-0.000479485781902602,0.0011516427787919,-0.000976675276438127
8.04067005583799,-0.000479484572840972,0.00115164133400221,-0.000976674067376497
8.05067088924077,-0.000479482978355709,0.00115163942864195,-0.000976672472891235
8.06067172264355,-0.000479481004538123,0.0011516370699894,-0.000976670499073649
8.07067255604634,-0.000479478657153602,0.00115163426493352,-0.000976668151689127
8.08067338944912,-0.000479475941612081,0.00115163101993864,-0.000976665436147606
8.0906742228519,-0.000479472862941472,0.00115162734101274,-0.000976662357476998
8.10067505625469,-0.000479469425764164,0.00115162323367929,-0.000976658920299689
8.11067588965747,-0.000479465634276666,0.00115161870295299,-0.000976655128812191
8.12067672306025,-0.000479461492232463,0.00115161375331923,-0.000976650986767989
8.13067755646304,-0.000479457002928118,0.00115160838871753,-0.000976646497463643
8.14067838986582,-0.00047945216919262,0.00115160261252874,-0.000976641663728146
8.15067922326861,-0.000479446993379995,0.00115159642756626,-0.00097663648791552
8.16068005667139,-0.000479441477365125,0.00115158983607104,-0.000976630971900651
8.17068089007417,-0.000479435622542749,0.00115158283971034,-0.000976625117078275
8.18068172347696,-0.000479429429829559,0.0011515754395803,-0.000976618924365084
8.19068255687974,-0.000479422899669311,0.00115156763621198,-0.000976612394204836
8.20068339028252,-0.000479416032040854,0.00115155942958102,-0.000976605526576379
8.21068422368531,-0.00047940882646894,0.00115155081912051,-0.000976598321004465
8.22068505708809,-0.000479401282037689,0.00115154180373709,-0.000976590776573214
8.23068589049088,-0.000479393397406554,0.00115153238183007,-0.000976582891942079
8.24068672389366,-0.000479385170828629,0.00115152255131324,-0.000976574665364154
8.25068755729644,-0.000479376600171118,0.00115151230963942,-0.000976566094706642
8.26068839069922,-0.000479367682937779,0.00115150165382721,-0.000976557177473304
8.27068922410201,-0.000479358416293165,0.00115149058048998,-0.000976547910828689
8.28069005750479,-0.000479348797088434,0.00115147908586676,-0.000976538291623959
8.29069089090757,-0.000479338821888557,0.00115146716585469,-0.000976528316424081
8.30069172431036,-0.000479328487000679,0.00115145481604298,-0.000976517981536204
8.31069255771314,-0.00047931778850345,0.00115144203174791,-0.000976507283038975
8.32069339111593,-0.000479306722277086,0.00115142880804879,-0.000976496216812611
8.33069422451871,-0.000479295284033963,0.00115141513982453,-0.000976484778569488
8.34069505792149,-0.00047928346934953,0.00115140102179057,-0.000976472963885055
8.35069589132428,-0.000479271273693316,0.00115138644853592,-0.000976460768228841
8.36069672472706,-0.000479258692459844,0.00115137141456014,-0.000976448186995369
8.37069755812984,-0.000479245720999239,0.00115135591430991,-0.000976435215534764
8.38069839153263,-0.000479232354647339,0.00115133994221502,-0.000976421849182864
8.39069922493541,-0.000479218588755123,0.00115132349272352,-0.000976408083290649
8.4007000583382,-0.000479204418717279,0.00115130656033589,-0.000976393913252805
8.41070089174098,-0.000479189839999737,0.00115128913963791,-0.000976379334535262
8.42070172514376,-0.000479174848166017,0.00115127122533219,-0.000976364342701542
8.43070255854655,-0.000479159438902244,0.00115125281226803,-0.000976348933437769
8.44070339194933,-0.00047914360804069,0.00115123389546959,-0.000976333102576216
8.45070422535211,-0.000479127351581726,0.00115121447016207,-0.000976316846117251
8.4607050587549,-0.000479110665714068,0.00115119453179597,-0.000976300160249593
8.47070589215768,-0.000479093546833238,0.00115117407606908,-0.000976283041368764
8.48070672556046,-0.000479075991558138,0.00115115309894637,-0.000976265486093664
8.49070755896325,-0.000479057996745682,0.00115113159667737,-0.000976247491281208
8.50070839236603,-0.000479039559503432,0.00115110956581137,-0.000976229054038958
8.51070922576881,-0.000479020677200197,0.00115108700321003,-0.000976210171735722
8.5207100591716,-0.000479001347474568,0.00115106390605757,-0.000976190842010094
8.53071089257438,-0.000478981568241392,0.00115104027186853,-0.000976171062776918
8.54071172597716,-0.000478961337696167,0.00115101609849301,-0.000976150832231692
8.55071255937995,-0.000478940654317394,0.00115099138411946,-0.00097613014885292
8.56071339278273,-0.000478919516866912,0.00115096612727511,-0.000976109011402437
8.57071422618552,-0.000478897924388249,0.00115094032682396,-0.000976087418923774
8.5807150595883,-0.00047887587620306,0.00115091398196254,-0.000976065370738586
8.59071589299108,-0.000478853408425755,0.00115088713585015,-0.00097604290296128
8.60071672639387,-0.000478830761291241,0.00115086007554234,-0.000976020255826766
8.61071755979665,-0.000478808393572898,0.00115083334921357,-0.000975997888108424
8.62071839319943,-0.000478786763315998,0.00115080750415958,-0.000975976257851524
8.63071922660222,-0.000478766212192029,0.00115078294861758,-0.000975955706727554
8.640720060005,-0.000478746961449581,0.00115075994693134,-0.000975936455985107
8.65072089340778,-0.000478729150554552,0.00115073866572356,-0.000975918645090077
8.66072172681057,-0.000478712869422048,0.00115071921241024,-0.000975902363957574
8.67072256021335,-0.000478698179273355,0.00115070166012278,-0.000975887673808881
8.68072339361613,-0.000478685124819495,0.00115068606226619,-0.000975874619355021
8.69072422701892,-0.000478673741107055,0.00115067246069917,-0.000975863235642581
8.7007250604217,-0.000478664057171132,0.00115066089009906,-0.000975853551706658
8.71072589382448,-0.00047865609774764,0.00115065138000801,-0.000975845592283165
8.72072672722727,-0.000478649883776479,0.00115064395543433,-0.000975839378312005
8.73072756063005,-0.000478645432137662,0.00115063863653736,-0.000975834926673188
8.74072839403284,-0.000478642754900955,0.00115063543773104,-0.00097583224943648
8.75072922743562,-0.000478641858276969,0.0011506343664308,-0.000975831352812495
8.7607300608384,-0.000478642741402111,0.00115063542160184,-0.000975832235937637
8.77073089424119,-0.000478645395054798,0.00115063859222531,-0.000975834889590323
8.78073172764397,-0.00047864980037704,0.00115064385577086,-0.000975839294912566
8.79073256104675,-0.000478655927659047,0.00115065117674436,-0.000975845422194573
8.80073339444954,-0.000478663735232291,0.00115066050536523,-0.000975853229767817
8.81073422785232,-0.000478673168507007,0.00115067177641624,-0.000975862663042533
8.8207350612551,-0.000478684159182363,0.00115068490829948,-0.000975873653717889
8.83073589465789,-0.000478696624651081,0.0011506998023247,-0.000975886119186606
8.84073672806067,-0.000478710467614683,0.00115071634224911,-0.000975899962150209
8.85073756146346,-0.000478725575920577,0.00115073439408228,-0.000975915070456103
8.86073839486624,-0.000478741822627701,0.00115075380616395,-0.000975931317163227
8.87073922826902,-0.000478759066303385,0.00115077440951817,-0.000975948560838911
8.88074006167181,-0.000478777151550263,0.00115079601848224,-0.000975966646085789
8.89074089507459,-0.000478795909758566,0.00115081843160494,-0.000975985404294092
8.90074172847737,-0.000478815160075848,0.00115084143280459,-0.000976004654611374
8.91074256188016,-0.000478834710583132,0.00115086479277381,-0.000976024205118658
8.92074339528294,-0.000478854359663604,0.00115088827061441,-0.00097604385419913
8.93074422868572,-0.000478873897547392,0.00115091161568276,-0.000976063392082918
8.94074506208851,-0.000478893108013532,0.00115093456962319,-0.000976082602549058
8.95074589549129,-0.000478911770228101,0.0011509568685641,-0.000976101264763627
8.96074672889407,-0.000478929660695584,0.00115097824544966,-0.00097611915523111
8.97074756229686,-0.000478946555298918,0.00115099843247753,-0.000976136049834444
8.98074839569964,-0.000478962231402366,0.00115101716361195,-0.000976151725937893
8.99074922910243,-0.000478976469990342,0.00115103417713979,-0.000976165964525869
9.00075006250521,-0.000478989057814688,0.00115104921823705,-0.000976178552350214
9.01075089590799,-0.000478999789522599,0.00115106204151222,-0.000976189284058125
9.02075172931078,-0.000479008469737488,0.00115107241349362,-0.000976197964273014
9.03075256271356,-0.000479014915065551,0.00115108011502801,-0.000976204409601077
9.04075339611634,-0.000479018956001671,0.00115108494355898,-0.000976208450537197
9.05075422951913,-0.000479020438709567,0.00115108671525509,-0.000976209933245094
9.06075506292191,-0.000479019226652735,0.00115108526695971,-0.000976208721188261
9.07075589632469,-0.000479015202054724,0.00115108045793686,-0.00097620469659025
9.08075672972748,-0.000479008267169678,0.00115107217139021,-0.000976197761705204
9.09075756313026,-0.000478998345346685,0.00115106031573558,-0.000976187839882211
9.10075839653304,-0.000478985381874413,0.00115104482561073,-0.00097617487640994
9.11075922993583,-0.000478969344595644,0.00115102566260995,-0.000976158839131171
9.12076006333861,-0.000478950224284573,0.00115100281573504,-0.0009761397188201
9.13076089674139,-0.00047892803478315,0.00115097630155802,-0.000976117529318677
9.14076173014418,-0.000478902812896128,0.00115094616409538,-0.000976092307431655
9.15076256354696,-0.000478874618047863,0.00115091247439732,-0.000976064112583389
9.16076339694975,-0.000478843531707186,0.00115087532985972,-0.000976033026242712
9.17076423035253,-0.000478809656589798,0.00115083485326999,-0.000975999151125324
9.18076506375531,-0.000478773115650504,0.00115079119160168,-0.00097596261018603
9.1907658971581,-0.00047873405088026,0.00115074451457567,-0.000975923545415787
9.20076673056088,-0.00047869262192531,0.00115069501300877,-0.000975882116460837
9.21076756396366,-0.000478649004547631,0.00115064289697254,-0.000975838499083157
9.22076839736645,-0.000478603388947521,0.00115058839378745,-0.000975792883483048
9.23076923076923,-0.000478555977970332,0.00115053174587861,-0.000975745472505859
9.24077006417201,-0.000478506985220143,0.00115047320852042,-0.00097569647975567
9.2507708975748,-0.000478456633103584,0.00115041304749788,-0.000975646127639111
9.26077173097758,-0.000478405150827017,0.00115035153671232,-0.000975594645362543
9.27077256438037,-0.000478352772369938,0.0011502889557589,-0.000975542266905464
9.28077339778315,-0.000478299734456818,0.00115022558750256,-0.000975489228992344
9.29077423118593,-0.000478246274548585,0.00115016171567757,-0.000975435769084111
9.30077506458872,-0.000478192628873765,0.00115009762253479,-0.000975382123409291
9.3107758979915,-0.000478139030517847,0.0011500335865588,-0.000975328525053373
9.32077673139428,-0.000478085707587824,0.00114996988027501,-0.00097527520212335
9.33077756479707,-0.000478032881467144,0.00114990676816514,-0.00097522237600267
9.34077839819985,-0.000477980765174487,0.00114984450470691,-0.000975170259710014
9.35077923160263,-0.00047792956183793,0.00114978333255192,-0.000975119056373457
9.36078006500542,-0.000477879463294201,0.00114972348085304,-0.000975068957829728
9.3707808984082,-0.000477830648820905,0.00114966516375091,-0.000975020143356431
9.38078173181098,-0.000477783284007818,0.00114960857902667,-0.000974972778543345
9.39078256521377,-0.000477737519771669,0.00114955390692629,-0.000974927014307195
9.40078339861655,-0.000477693491517215,0.0011495013091596,-0.000974882986052741
9.41078423201933,-0.000477651318445965,0.00114945092807587,-0.000974840812981491
9.42078506542212,-0.000477611103012511,0.00114940288601564,-0.000974800597548038
9.4307858988249,-0.000477572930527228,0.00114935728483738,-0.000974762425062754
9.44078673222769,-0.00047753686890295,0.0011493142056161,-0.000974726363438476
9.45078756563047,-0.000477502968542299,0.0011492737085099,-0.000974692463077825
9.46078839903325,-0.000477471262361411,0.00114923583278931,-0.000974660756896937
9.47078923243604,-0.000477441765945105,0.00114920059702358,-0.000974631260480631
9.48079006583882,-0.000477414477827827,0.00114916799941699,-0.000974603972363353
9.4907908992416,-0.000477389379894173,0.00114913801828799,-0.000974578874429699
9.50079173264439,-0.000477366437892294,0.00114911061268287,-0.000974555932427821
9.51079256604717,-0.000477345602053052,0.00114908572311579,-0.000974535096588579
9.52079339944995,-0.000477326807807468,0.00114906327242594,-0.000974516302342994
9.53079423285274,-0.000477309976594673,0.00114904316674273,-0.000974499471130199
9.54079506625552,-0.000477295016752325,0.0011490252965494,-0.000974484511287851
9.5507958996583,-0.000477281824481227,0.0011490095378351,-0.000974471319016753
9.56079673306109,-0.000477270284875679,0.00114899575332547,-0.000974459779411205
9.57079756646387,-0.000477260273010956,0.00114898379378133,-0.000974449767546482
9.58079839986666,-0.000477251655079153,0.00114897349935512,-0.000974441149614679
9.59079923326944,-0.000477244289564524,0.00114896470099448,-0.00097443378410005
9.60080006667222,-0.000477238028449394,0.00114895722188236,-0.00097442752298492
9.61080090007501,-0.000477232718441629,0.00114895087890284,-0.000974422212977155
9.62080173347779,-0.000477228202214669,0.00114894548412201,-0.000974417696750196
9.63080256688057,-0.000477224319651144,0.00114894084627314,-0.00097441381418667
9.64080340028336,-0.000477220909081123,0.00114893677223552,-0.00097441040361665
9.65080423368614,-0.000477217808506223,0.0011489330684964,-0.000974407303041749
9.66080506708892,-0.000477214856800881,0.00114892954258577,-0.000974404351336408
9.67080590049171,-0.000477211894882393,0.00114892600447388,-0.000974401389417919
9.68080673389449,-0.00047720876684152,0.0011489222679217,-0.000974398261377047
9.69080756729728,-0.000477205321025875,0.00114891815177502,-0.000974394815561401
9.70080840070006,-0.000477201411068627,0.00114891348119341,-0.000974390905604154
9.71080923410284,-0.000477196896855601,0.00114890808880545,-0.000974386391391128
9.72081006750563,-0.000477191645424318,0.0011489018157829,-0.000974381139959845
9.73081090090841,-0.000477185531789156,0.00114889451282651,-0.000974375026324683
9.74081173431119,-0.000477178439687443,0.00114888604105751,-0.000974367934222969
9.75081256771398,-0.000477170262241999,0.00114887627280923,-0.000974359756777525
9.76081340111676,-0.000477160902536409,0.00114886509231453,-0.000974350397071935
9.77081423451954,-0.000477150274100089,0.00114885239628545,-0.000974339768635615
9.78081506792233,-0.000477138301301037,0.00114883809438256,-0.000974327795836564
9.79081590132511,-0.000477124919645012,0.00114882210957252,-0.000974314414180539
9.80081673472789,-0.000477110075980733,0.00114880437837333,-0.00097429957051626
9.81081756813068,-0.000477093728611553,0.00114878485098781,-0.000974283223147079
9.82081840153346,-0.00047707584731491,0.0011487634913269,-0.000974265341850436
9.83081923493624,-0.000477056413271678,0.00114874027692521,-0.000974245907807205
9.84082006833903,-0.000477035418908335,0.00114871519875244,-0.000974224913443861
9.85082090174181,-0.0004770128676556,0.00114868826092493,-0.000974202362191126
9.8608217351446,-0.000476988773627904,0.00114865948032258,-0.000974178268163431
9.87082256854738,-0.000476963161228667,0.0011486288861171,-0.000974152655764193
9.88082340195016,-0.000476936064686919,0.00114859651921822,-0.000974125559222445
9.89082423535295,-0.000476907527531298,0.00114856243164502,-0.000974097022066824
9.90082506875573,-0.000476877602007835,0.00114852668583012,-0.000974067096543361
9.91082590215851,-0.000476846348448262,0.00114848935386467,-0.000974035842983788
9.9208267355613,-0.000476813834595825,0.0011484505166927,-0.000974003329131352
9.93082756896408,-0.000476780134895691,0.00114841026326299,-0.000973969629431218
9.94082840236686,-0.000476745329757129,0.00114836868964743,-0.000973934824292655
9.95082923576965,-0.000476709504794602,0.001148325898134,-0.000973898999330129
9.96083006917243,-0.000476672750054817,0.00114828199630317,-0.000973862244590343
9.97083090257521,-0.000476635159236584,0.00114823709609564,-0.00097382465377211
9.980831735978,-0.000476596828910125,0.00114819131287952,-0.000973786323445651
9.99083256938078,-0.000476557857742146,0.00114814476452437,-0.000973747352277673
