data1,data2,data3,data4
0,-0.000966104932939712,-0.000402197511801853,-7.82529300857133e-05
0.0100008334027836,-0.000966207758228601,-0.000402079789649955,-7.8355755374602e-05
0.0200016668055671,-0.000970801728901682,-0.000396859670706484,-8.29497260476826e-05
0.0300025002083507,-0.000979034298252292,-0.000387520753629107,-9.11822953982932e-05
0.0400033336111343,-0.000983220196561528,-0.000382779231024128,-9.53681937075292e-05
0.0500041670139178,-0.000984318113929908,-0.000381532352400906,-9.64661110759094e-05
0.0600050004167014,-0.000984504998917755,-0.000381317008401014,-9.66529960637566e-05
0.070005833819485,-0.000984515587470939,-0.000381304645628781,-9.66635846169407e-05
0.0800066672222685,-0.000984516239716274,-0.000381303885991158,-9.66642368622756e-05
0.0900075006250521,-0.00098451716840625,-0.000381302808049634,-9.66651655522515e-05
0.100008334027836,-0.000984512341646006,-0.000381308321248357,-9.66603387920077e-05
0.110009167430619,-0.000984497814999711,-0.000381324883727781,-9.66458121457125e-05
0.120010000833403,-0.000984469640408599,-0.000381357007464376,-9.66176375546005e-05
0.130010834236186,-0.000984422862280191,-0.000381410378638717,-9.65708594261928e-05
0.14001166763897,-0.000984351736409027,-0.000381491600107708,-9.64997335550287e-05
0.150012501041753,-0.000984250379878197,-0.000381607459290661,-9.63983770241982e-05
0.160013334444537,-0.000984113714272128,-0.000381763859284374,-9.62617114181294e-05
0.170014167847321,-0.000983938638212099,-0.000381964479196363,-9.60866353581006e-05
0.180015001250104,-0.000983725228341616,-0.000382209389186405,-9.58732254876172e-05
0.190015834652888,-0.000983477637271291,-0.000382493996779157,-9.56256344172926e-05
0.200016668055671,-0.000983204322312206,-0.000382808745779149,-9.53523194582078e-05
0.210017501458455,-0.000982917353782921,-0.000383139865166713,-9.50653509289223e-05
0.220018334861238,-0.000982630815829418,-0.000383471168943454,-9.47788129754193e-05
0.230019168264022,-0.000982358640092296,-0.000383786532483141,-9.45066372382971e-05
0.240020001666806,-0.000982112449463153,-0.000384072390601643,-9.42604466091544e-05
0.250020835069589,-0.000981899997344078,-0.000384319579318569,-9.40479944900791e-05
0.260021668472373,-0.000981724546486769,-0.000384524108731252,-9.38725436327708e-05
0.270022501875156,-0.000981585168318051,-0.000384686868743816,-9.37331654640524e-05
0.28002333527794,-0.000981477650298254,-0.000384812613367241,-9.36256474442559e-05
0.290024168680723,-0.00098139559835706,-0.000384908696317033,-9.35435955030621e-05
0.300025002083507,-0.000981331404714465,-0.000384983944148326,-9.34794018604662e-05
0.310025835486291,-0.000981276921526923,-0.000385047860707866,-9.34249186729248e-05
0.320026668889074,-0.000981223839429419,-0.000385110172073658,-9.33718365754208e-05
0.330027502291858,-0.000981163867693206,-0.00038518060449748,-9.3311864839207e-05
0.340028335694641,-0.000981088847136056,-0.000385268744567144,-9.32368442820572e-05
0.350029169097425,-0.000980990919067056,-0.00038538383783827,-9.31389162130572e-05
0.360030002500208,-0.000980862848284385,-0.000385534410564907,-9.30108454303866e-05
0.370030835902992,-0.000980698575347096,-0.000385727625015546,-9.2846572493098e-05
0.380031669305775,-0.000980494063434033,-0.000385968289270765,-9.26420605800342e-05
0.390032502708559,-0.000980248503699373,-0.000386257442007781,-9.23965008453747e-05
0.400033336111343,-0.000979965923254545,-0.000386590453164605,-9.21139204005465e-05
0.410034169514126,-0.000979657142345962,-0.000386954693526813,-9.18051394919629e-05
0.42003500291691,-0.000979341750285226,-0.000387327153285591,-9.14897474312274e-05
0.430035836319693,-0.000979049182093603,-0.000387673092778061,-9.11971792396043e-05
0.440036669722477,-0.000978817038651064,-0.000387947944216974,-9.09650357970657e-05
0.45003750312526,-0.000978683950990742,-0.000388105717164968,-9.08319481367434e-05
0.460038336528044,-0.000978675177292386,-0.000388116120141874,-9.08231744383867e-05
0.470039169930828,-0.000978784369621514,-0.000387986317079836,-9.0932366767515e-05
0.480040003333611,-0.000978964013227373,-0.000387772382942973,-9.1112010373374e-05
0.490040836736395,-0.000979139301838831,-0.000387562901578333,-9.12872989848319e-05
0.500041670139178,-0.000979242793833451,-0.000387437918144723,-9.13907909794524e-05
0.510042503541962,-0.000979243929351523,-0.000387433897861897,-9.13919264975245e-05
0.520043336944745,-0.000979152100428217,-0.000387539910961659,-9.1300097574218e-05
0.530044170347529,-0.0009789995951146,-0.000387717788443908,-9.11475922606016e-05
0.540045003750313,-0.000978823112490198,-0.000387924133760311,-9.09711096361988e-05
0.550045837153096,-0.000978653060174818,-0.000388123071638743,-9.08010573208187e-05
0.56004667055588,-0.000978509796795456,-0.000388290660373638,-9.06577939414574e-05
0.570047503958663,-0.000978403895726078,-0.000388414511935075,-9.05518928720789e-05
0.580048337361447,-0.0009783384936807,-0.000388490978426477,-9.04864908267013e-05
0.59004917076423,-0.000978312365849389,-0.000388521519042211,-9.04603629953902e-05
0.600050004167014,-0.00097832266296847,-0.000388509485973862,-9.04706601144712e-05
0.610050837569797,-0.000978366743046968,-0.000388457980738414,-9.05147401929692e-05
0.620051670972581,-0.000978443062249359,-0.000388368814345841,-9.05910593953601e-05
0.630052504375365,-0.000978551388200164,-0.000388242259760791,-9.0699385346165e-05
0.640053337778148,-0.000978692645322667,-0.000388077233575774,-9.08406424686688e-05
0.650054171180932,-0.000978868620311789,-0.000387871640227611,-9.10166174577906e-05
0.660055004583715,-0.000979081653735932,-0.000387622731742748,-9.12296508819329e-05
0.670055837986499,-0.000979334367141415,-0.000387327425542344,-9.14823642874164e-05
0.680056671389282,-0.000979629431050532,-0.000386982574171466,-9.1777428196533e-05
0.690057504792066,-0.00097996936084999,-0.000386585202275596,-9.21173579959913e-05
0.70005833819485,-0.000980356325430796,-0.000386132728655421,-9.25043225767973e-05
0.710059171597633,-0.000980791959905562,-0.000385623183725794,-9.29399570515638e-05
0.720060005000417,-0.000981277183464984,-0.000385055421392987,-9.34251806109856e-05
0.7300608384032,-0.000981812032922279,-0.000384429313331074,-9.39600300682805e-05
0.740061671805984,-0.000982395529343096,-0.000383745905646081,-9.45435264890973e-05
0.750062505208767,-0.000983025597755057,-0.000383007514824043,-9.51735949010584e-05
0.760063338611551,-0.00098369905748832,-0.000382217742571434,-9.58470546343219e-05
0.770064172014335,-0.000984411693489797,-0.000381381397361163,-9.6559690635799e-05
0.780065005417118,-0.000985158408404747,-0.000380504322564102,-9.73064055507489e-05
0.790065838819902,-0.000985933443628569,-0.000379593144350095,-9.80814407745707e-05
0.800066672222685,-0.000986730647432102,-0.000378654964193608,-9.88786445781033e-05
0.810067505625469,-0.000987543761677924,-0.0003776970285118,-9.96917588239253e-05
0.820068339028252,-0.000988366696553826,-0.000376726410573105,-0.000100514693699828
0.830069172431036,-0.00098919376497783,-0.000375749737524234,-0.000101341762123831
0.84007000583382,-0.000990019853823083,-0.000374772989361507,-0.000102167850969084
0.850070839236603,-0.000990840516411431,-0.000373801388541025,-0.000102988513557432
0.860071672639387,-0.000991651978416205,-0.000372839390256579,-0.000103799975562206
0.87007250604217,-0.000992451056323567,-0.000371890775416658,-0.000104599053469568
0.880073339444954,-0.000993234993325071,-0.000370958841707172,-0.000105382990471072
0.890074172847737,-0.000994001221837787,-0.000370046682977869,-0.000106149218983788
0.900075006250521,-0.000994747065105622,-0.000369157543170606,-0.000106895062251623
0.910075839653304,-0.000995469393237387,-0.000368295227299966,-0.000107617390383389
0.920076673056088,-0.00099616425257545,-0.000367464547429265,-0.000108312249721451
0.930077506458872,-0.000996826492594411,-0.00036667177478737,-0.000108974489740412
0.940078339861655,-0.000997449422649172,-0.0003659250588418,-0.000109597419795174
0.950079173264439,-0.000998024542417005,-0.000365234759513015,-0.000110172539563006
0.960080006667222,-0.000998541404315506,-0.000364613620351841,-0.000110689401461508
0.970080840070006,-0.000998987680931038,-0.000364076691630516,-0.000111135678077039
0.980081673472789,-0.000999349519217469,-0.000363640900958263,-0.00011149751636347
0.990082506875573,-0.000999612251394478,-0.000363324184105468,-0.000111760248540479
1.00008334027836,-0.000999761411967065,-0.00036314425004859,-0.000111909409113067
1.01008417368114,-0.000999807221826718,-0.000363087321684254,-0.000111955218972719
1.02008500708392,-0.000999713544744647,-0.000363197033818253,-0.000111861541890649
1.03008584048671,-0.000999467739177614,-0.000363499465308415,-0.000111615736323615
1.04008667388949,-0.000999079183355871,-0.000363967901435398,-0.000111227180501873
1.05008750729227,-0.000998566759506721,-0.000364585174220762,-0.000110714756652722
1.06008834069506,-0.000997948597655496,-0.000365329067205785,-0.000110096594801498
1.07008917409784,-0.000997247248189183,-0.000366172043795441,-0.000109395245335185
1.08009000750063,-0.000996487904139614,-0.000367083488482768,-0.000108635901285615
1.09009084090341,-0.000995696066494663,-0.000368032574896318,-0.000107844063640665
1.10009167430619,-0.000994895518245631,-0.000368990716182093,-0.000107043515391632
1.11009250770898,-0.000994106959300264,-0.000369933182117182,-0.000106254956446266
1.12009334111176,-0.000993347363772453,-0.000370839826156265,-0.000105495360918454
1.13009417451454,-0.000992629922997237,-0.00037169510416453,-0.000104777920143238
1.14009500791733,-0.000991964358658301,-0.000372487655629794,-0.000104112355804302
1.15009584132011,-0.00099135740648072,-0.000373209691880855,-0.000103505403626722
1.16009667472289,-0.000990813333149229,-0.000373856356222348,-0.000102961330295231
1.17009750812568,-0.000990334414960737,-0.000374425139548382,-0.000102482412106738
1.18009834152846,-0.000989921354373592,-0.000374915377324036,-0.000102069351519593
1.19009917493124,-0.00098957363605626,-0.000375327823660485,-0.000101721633202261
1.20010000833403,-0.000989289832506908,-0.000375664288619299,-0.000101437829652909
1.21010084173681,-0.00098906786834068,-0.000375927326552176,-0.000101215865486682
1.22010167513959,-0.000988905248122382,-0.000376119968717141,-0.000101053245268384
1.23010250854238,-0.000988799248916713,-0.000376245498130469,-0.000100947246062714
1.24010334194516,-0.000988747077042332,-0.000376307266847013,-0.000100895074188333
1.25010417534795,-0.000988745988810874,-0.000376308555680458,-0.000100893985956875
1.26010500875073,-0.000988793376513384,-0.000376252474738651,-0.000100941373659385
1.27010584215351,-0.000988886822672917,-0.000376141901150169,-0.000101034819818919
1.2801066755563,-0.000989024126957208,-0.000375979448782373,-0.00010117212410321
1.29010750895908,-0.000989203310851877,-0.000375767463945582,-0.000101351307997879
1.30010834236186,-0.000989422605247731,-0.000375508041030902,-0.000101570602393732
1.31010917576465,-0.000989680425676062,-0.000375203052531273,-0.000101828422822063
1.32011000916743,-0.000989975339254139,-0.000374854188689633,-0.00010212333640014
1.33011084257021,-0.000990306026662168,-0.000374463002890803,-0.00010245402380817
1.340111675973,-0.000990671241780175,-0.000374030959728186,-0.000102819238926177
1.35011250937578,-0.000991069771024295,-0.000373559483367524,-0.000103217768170297
1.36011334277856,-0.000991500393949221,-0.000373050004383815,-0.000103648391095223
1.37011417618135,-0.000991961846314754,-0.00037250400367875,-0.000104109843460756
1.38011500958413,-0.000992452786527213,-0.000371923052421036,-0.000104600783673215
1.39011584298692,-0.000992971766137418,-0.000371308847218483,-0.00010511976328342
1.4001166763897,-0.000993517204886049,-0.000370663239952227,-0.000105665202032051
1.41011750979248,-0.00099408737061996,-0.000369988261896995,-0.000106235367765962
1.42011834319527,-0.000994680364250736,-0.000369286141927247,-0.000106828361396738
1.43011917659805,-0.000995294109785992,-0.000368559318771328,-0.000107442106931994
1.44012001000083,-0.000995926349335498,-0.000367810447423608,-0.0001080743464815
1.45012084340362,-0.00099657464288193,-0.000367042399953523,-0.000108722640027931
1.4601216768064,-0.000997236372515299,-0.000366258261054279,-0.000109384369661301
1.47012251020918,-0.000997908750766234,-0.000365461318746458,-0.000110056747912236
1.48012334361197,-0.000998588832640346,-0.000364655050688239,-0.000110736829786348
1.49012417701475,-0.000999273530955707,-0.000363843106542351,-0.000111421528101708
1.50012501041753,-0.00099995963461653,-0.000363029286811928,-0.000112107631762532
1.51012584382032,-0.00100064382951393,-0.000362217518488685,-0.000112791826659927
1.5201266772231,-0.00100132272182119,-0.000361411827766463,-0.000113470718967191
1.53012751062589,-0.00100199286353617,-0.000360616309973704,-0.000114140860682171
1.54012834402867,-0.00100265078020461,-0.000359835096784004,-0.000114798777350615
1.55012917743145,-0.00100329300082329,-0.000359072320690028,-0.000115440997969288
1.56013001083424,-0.0010039160899578,-0.000358332076687128,-0.000116064087103799
1.57013084423702,-0.0010045166821069,-0.000357618381121846,-0.000116664679252903
1.5801316776398,-0.00100509151829497,-0.000356935127725967,-0.000117239515440972
1.59013251104259,-0.00100563748477368,-0.000356286040983468,-0.000117785481919677
1.60013334444537,-0.00100615165356391,-0.000355674627163921,-0.000118299650709909
1.61013417784815,-0.0010066313243763,-0.00035510412359353,-0.000118779321522298
1.62013501125094,-0.00100707406722566,-0.000354577447008895,-0.000119222064371662
1.63013584465372,-0.00100747776481905,-0.000354097142127183,-0.000119625761965047
1.6401366780565,-0.00100784065357084,-0.000353665331842486,-0.000119988650716844
1.65013751145929,-0.00100816136190654,-0.000353283670691433,-0.00012030935905254
1.66013834486207,-0.00100843894438438,-0.000352953303390551,-0.000120586941530378
1.67013917826486,-0.00100867291011427,-0.000352674830305507,-0.000120820907260269
1.68014001166764,-0.00100886324400318,-0.000352448281647249,-0.000121011241149181
1.69014084507042,-0.0010090104195148,-0.000352273101991279,-0.000121158416660806
1.70014167847321,-0.00100911540189713,-0.000352148146386292,-0.000121263399043132
1.71014251187599,-0.00100917964119157,-0.000352071688873583,-0.000121327638337577
1.72014334527877,-0.00100920505476784,-0.000352041443708715,-0.000121353051913844
1.73014417868156,-0.00100919399959709,-0.00035205459900236,-0.000121341996743094
1.74014501208434,-0.00100914923494507,-0.000352107861924163,-0.000121297232091073
1.75014584548712,-0.00100907387659858,-0.000352197514088679,-0.00012122187374458
1.76014667888991,-0.00100897134409947,-0.00035231947530686,-0.000121119341245476
1.77014751229269,-0.00100884530272494,-0.0003524693735711,-0.000120993299870948
1.78014834569547,-0.00100869960210642,-0.000352642618963512,-0.00012084759925242
1.79014917909826,-0.00100853821341974,-0.000352834479138319,-0.000120686210565742
1.80015001250104,-0.00100836516701428,-0.000353040154118949,-0.000120513164160284
1.81015084590383,-0.00100818449219535,-0.000353254848347014,-0.000120332489341352
1.82015167930661,-0.00100800016065505,-0.000353473838195833,-0.000120148157801054
1.83015251270939,-0.0010078160347856,-0.00035369253348556,-0.000119964031931599
1.84015334611218,-0.00100763582182864,-0.000353906531882046,-0.000119783818974646
1.85015417951496,-0.00100746303453411,-0.000354111665403895,-0.000119611031680118
1.86015501291774,-0.001007300958736,-0.000354304038584267,-0.000119448955882001
1.87015584632053,-0.00100715262801043,-0.000354480058125039,-0.00011930062515643
1.88015667972331,-0.00100702080536747,-0.000354636454135477,-0.000119168802513468
1.89015751312609,-0.00100690797174375,-0.000354770293264631,-0.000119055968889755
1.90015834652888,-0.0010068163209078,-0.000354878984217671,-0.000118964318053802
1.91015917993166,-0.00100674776026142,-0.000354960276294056,-0.000118895757407425
1.92016001333444,-0.00100670391691775,-0.000355012251702387,-0.000118851914063756
1.93016084673723,-0.00100668614835731,-0.000355033312495189,-0.000118834145503318
1.94016168014001,-0.00100669555690778,-0.000355022163027732,-0.000118843554053787
1.9501625135428,-0.00100673300726039,-0.000354977788879201,-0.000118881004406396
1.96016334694558,-0.00100679914622594,-0.000354899433182173,-0.000118947143371942
1.97016418034836,-0.00100689442394586,-0.000354786571288327,-0.000119042421091866
1.98016501375115,-0.00100701911580766,-0.000354638884655743,-0.000119167112953658
1.99016584715393,-0.00100717334436703,-0.000354456234778367,-0.000119321341513034
2.00016668055671,-0.00100735710064917,-0.000354238637894423,-0.000119505097795177
2.0101675139595,-0.00100757026428432,-0.000353986241111793,-0.000119718261430318
2.02016834736228,-0.00100781262202498,-0.000353699300479371,-0.000119960619170985
2.03016918076506,-0.00100808388428919,-0.000353378161418963,-0.000120231881435191
2.04017001416785,-0.00100838369947158,-0.000353023241817239,-0.000120531696617586
2.05017084757063,-0.00100871166585932,-0.000352635017965849,-0.000120859663005323
2.06017168097341,-0.00100906734107817,-0.000352214013433632,-0.000121215338224169
2.0701725143762,-0.0010094502490747,-0.000351760790860682,-0.000121598246220699
2.08017334777898,-0.00100985988471074,-0.000351275946581653,-0.000122007881856748
2.09017418118177,-0.0010102957161057,-0.000350760107916127,-0.000122443713251706
2.10017501458455,-0.00101075718491068,-0.000350213932907314,-0.00012290518205668
2.11017584798733,-0.0010112437047361,-0.000349638112246404,-0.0001233917018821
2.12017668139012,-0.00101175465798198,-0.000349033373087729,-0.000123902655127981
2.1301775147929,-0.00101228939133862,-0.000348400484438224,-0.000124437388484624
2.14017834819568,-0.00101284721023617,-0.000347740263792312,-0.000124995207382177
2.15017918159847,-0.00101342737252552,-0.000347053584678696,-0.000125575369671524
2.16018001500125,-0.00101402908167136,-0.000346341384787422,-0.000126177078817367
2.17018084840403,-0.00101465147973241,-0.000345604674352545,-0.000126799476878418
2.18018168180682,-0.0010152936403941,-0.000344844544476837,-0.0001274416375401
2.1901825152096,-0.001015954562307,-0.000344062175099107,-0.000128102559453
2.20018334861238,-0.00101663316297012,-0.000343258842321213,-0.000128781160116122
2.21018418201517,-0.00101732827338232,-0.000342435924830032,-0.000129476270528319
2.22018501541795,-0.0010180386336685,-0.000341594909169135,-0.000130186630814499
2.23018584882074,-0.00101876288986959,-0.000340737393635331,-0.00013091088701559
2.24018668222352,-0.00101949959206697,-0.000339865090596492,-0.000131647589212973
2.2501875156263,-0.0010202471939932,-0.000338979827049001,-0.000132395191139199
2.26018834902909,-0.00102100405426127,-0.000338083543255926,-0.000133152051407269
2.27018918243187,-0.00102176843932451,-0.000337178289330687,-0.000133916436470508
2.28019001583465,-0.00102253852825782,-0.000336266219655884,-0.00013468652540382
2.29019084923744,-0.00102331241942868,-0.000335349585053314,-0.000135460416574685
2.30019168264022,-0.00102408813910225,-0.000334430722649641,-0.000136236136248249
2.310192516043,-0.00102486365199889,-0.000333512043412979,-0.000137011649144891
2.32019334944579,-0.00102563687379424,-0.000332596017369525,-0.000137784870940241
2.33019418284857,-0.00102640568552037,-0.000331685156546778,-0.000138553682666376
2.34019501625135,-0.00102716794979238,-0.000330781995731293,-0.000139315946938379
2.35019584965414,-0.0010279215287464,-0.000329889071174709,-0.000140069525892402
2.36019668305692,-0.00102866430353359,-0.000329008897432035,-0.000140812300679595
2.3701975164597,-0.00102939419516912,-0.000328143942570666,-0.00014154219231512
2.38019834986249,-0.00103010918648726,-0.000327296602046651,-0.000142257183633258
2.39019918326527,-0.00103080734490354,-0.00032646917160515,-0.000142955342049546
2.40020001666806,-0.00103148684563421,-0.00032566381962307,-0.000143634842780216
2.41020085007084,-0.00103214599497412,-0.00032488255937096,-0.000144293992120118
2.42020168347362,-0.00103278325318915,-0.000324127221725583,-0.000144931250335152
2.43020251687641,-0.00103339725654108,-0.00032339942891037,-0.000145545253687082
2.44020335027919,-0.00103398683793458,-0.000322700569874502,-0.000146134835080587
2.45020418368197,-0.00103455104566197,-0.000322031777938461,-0.000146699042807976
2.46020501708476,-0.00103508915972326,-0.000321393911330863,-0.000147237156869267
2.47020585048754,-0.00103560070522111,-0.000320787537214899,-0.000147748702367113
2.48020668389032,-0.00103608546237331,-0.00032021291975038,-0.00014823345951931
2.49020751729311,-0.00103654347275127,-0.000319670012658309,-0.000148691469897273
2.50020835069589,-0.00103697504144045,-0.00031915845664951,-0.000149123038586455
2.51020918409868,-0.00103738073492634,-0.000318677581949657,-0.000149528732072346
2.52021001750146,-0.0010377613746338,-0.000318226416004259,-0.000149909371779798
2.53021085090424,-0.00103811802618305,-0.0003178036962849,-0.000150266023329052
2.54021168430703,-0.0010384519845666,-0.000317407887949923,-0.000150599981712601
2.55021251770981,-0.0010387647555897,-0.000317037205947405,-0.0001509127527357
2.56021335111259,-0.00103905803404626,-0.000316689640994947,-0.000151206031192263
2.57021418451538,-0.00103933367921349,-0.00031636298873836,-0.000151481676359488
2.58021501791816,-0.00103959368833612,-0.000316054881287919,-0.000151741685482121
2.59021585132094,-0.00103984016882924,-0.000315762820262837,-0.000151988165975245
2.60021668472373,-0.00104007530995321,-0.000315484210446296,-0.000152223307099213
2.61021751812651,-0.0010403013547044,-0.000315216393166464,-0.000152449351850398
2.62021835152929,-0.00104052057262145,-0.000314956678572348,-0.000152668569767453
2.63021918493208,-0.00104073523413195,-0.000314702376063376,-0.000152883231277955
2.64022001833486,-0.00104094758696366,-0.000314450822252086,-0.000153095584109662
2.65022085173764,-0.00104115983502491,-0.000314199405982208,-0.00015330783217091
2.66022168514043,-0.00104137412002759,-0.00031394559008055,-0.000153522117173589
2.67022251854321,-0.00104159250599196,-0.000313686929680637,-0.000153740503137967
2.680223351946,-0.00104181696664314,-0.000313421087109702,-0.000153964963789144
2.69022418534878,-0.00104204937559144,-0.000313145843469914,-0.000154197372737437
2.70022501875156,-0.00104229149908902,-0.000312859107162928,-0.000154439496235018
2.71022585215435,-0.00104254499107701,-0.00031255891969912,-0.000154692988223012
2.72022668555713,-0.00104281139018307,-0.000312243459196648,-0.000154959387329076
2.73022751895991,-0.00104309211829963,-0.000311911042010285,-0.000155240115445636
2.7402283523627,-0.00104338848036638,-0.000311560122937449,-0.00015553647751238
2.75022918576548,-0.00104370166499438,-0.000311189294431969,-0.000155849662140384
2.76023001916826,-0.0010440327456,-0.0003107972852194,-0.000156180742746007
2.77023085257105,-0.00104438268176013,-0.000310382958655942,-0.000156530678906129
2.78023168597383,-0.00104475232055203,-0.000309945311111521,-0.000156900317698035
2.79023251937661,-0.00104514239769714,-0.000309483470591202,-0.000157290394843146
2.8002333527794,-0.00104555353838411,-0.000308996695742363,-0.000157701535530117
2.81023418618218,-0.00104598625770046,-0.000308484375331412,-0.000158134254846466
2.82023501958497,-0.00104644096065057,-0.000307946028216208,-0.000158588957796574
2.83023585298775,-0.00104691794178003,-0.000307381303790426,-0.000159065938926034
2.84023668639053,-0.00104741738446105,-0.000306789982834974,-0.000159565381607049
2.85023751979332,-0.00104793935992072,-0.00030617197867948,-0.000160087357066719
2.8602383531961,-0.00104848382611379,-0.000305527338553446,-0.000160631823259794
2.87023918659888,-0.00104905062655442,-0.000304856244991324,-0.000161198623700426
2.88024002000167,-0.00104963948922851,-0.000304159017147349,-0.000161787486374516
2.89024085340445,-0.00105025002571027,-0.000303436111873578,-0.000162398022856269
2.90024168680723,-0.00105088173060448,-0.000302688124416887,-0.00016302972775048
2.91024252021002,-0.00105153398143087,-0.000301915788596854,-0.000163681978576875
2.9202433536128,-0.00105220603905911,-0.00030111997633542,-0.000164354036205113
2.93024418701558,-0.00105289704879362,-0.000300301696420323,-0.000165045045939623
2.94024502041837,-0.00105360604219668,-0.000299462092396905,-0.000165754039342686
2.95024585382115,-0.00105433193972654,-0.000298602439496574,-0.000166479936872542
2.96024668722394,-0.00105507355425495,-0.000297724140524726,-0.000167221551400952
2.97024752062672,-0.00105582959551579,-0.000296828720646015,-0.000167977592661794
2.9802483540295,-0.00105659867552298,-0.000295917821020564,-0.000168746672668986
2.99024918743229,-0.00105737931498225,-0.000294993191260943,-0.000169527312128248
3.00025002083507,-0.00105816995070705,-0.000294056680696473,-0.000170317947853047
3.01025085423785,-0.00105896894403437,-0.000293110228448869,-0.000171116941180368
3.02025168764064,-0.00105977459022077,-0.000292155852341187,-0.000171922587366767
3.03025252104342,-0.00106058512878351,-0.000291195636680703,-0.000172733125929511
3.0402533544462,-0.00106139875473543,-0.000290231718975563,-0.000173546751881435
3.05025418784899,-0.00106221363064569,-0.000289266275664704,-0.000174361627791695
3.06025502125177,-0.00106302789944182,-0.000288301506960565,-0.000175175896587821
3.07025585465455,-0.00106383969785177,-0.00028733962092411,-0.000175987694997776
3.08025668805734,-0.00106464717036819,-0.000286382816911492,-0.000176795167514192
3.09025752146012,-0.00106544848360109,-0.000285433268550758,-0.000177596480747088
3.10025835486291,-0.00106624184087042,-0.000284493106424953,-0.000178389838016422
3.11025918826569,-0.00106702549687637,-0.000283564400654221,-0.000179173494022377
3.12026002166847,-0.0010677977722737,-0.000282649143583441,-0.000179945769419703
3.13026085507126,-0.00106855706796738,-0.000281749232792982,-0.000180705065113386
3.14026168847404,-0.00106930187894076,-0.000280866454657578,-0.000181449876086758
3.15026252187682,-0.00107003080742456,-0.000280002468681687,-0.000182178804570561
3.16026335527961,-0.00107074257521675,-0.000279158792838271,-0.000182890572362754
3.17026418868239,-0.00107143603496842,-0.000278336790131428,-0.000183584032114418
3.18026502208517,-0.0010721101802612,-0.000277537656591388,-0.000184258177407205
3.19026585548796,-0.00107276415431647,-0.000276762410892924,-0.000184912151462476
3.20026668889074,-0.00107339725719546,-0.000276011885765402,-0.000185545254341458
3.21026752229352,-0.00107400895137322,-0.000275286721334714,-0.000186156948519223
3.22026835569631,-0.00107459886559645,-0.000274587360504976,-0.000186746862742456
3.23026918909909,-0.00107516679696524,-0.000273914046451731,-0.000187314794111239
3.24027002250188,-0.00107571271121155,-0.000273266822259666,-0.000187860708357549
3.25027085590466,-0.00107623674118086,-0.000272645532697673,-0.00018838473832686
3.26027168930744,-0.00107673918355697,-0.000272049828083732,-0.000188887180702975
3.27027252271023,-0.00107722049390298,-0.000271479170153073,-0.000189368491048984
3.28027335611301,-0.00107768128012178,-0.000270932839806582,-0.000189829277267779
3.29027418951579,-0.00107812229446684,-0.000270409946583878,-0.00019027029161284
3.30027502291858,-0.00107854442425718,-0.000269909439677851,-0.000190692421403178
3.31027585632136,-0.00107894868146853,-0.000269430120285754,-0.000191096678614532
3.32027668972414,-0.0010793361913858,-0.000268970655076566,-0.000191484188531805
3.33027752312693,-0.00107970818050894,-0.000268529590545798,-0.000191856177654942
3.34027835652971,-0.00108006596390607,-0.000268105368026963,-0.000192213961052074
3.35027918993249,-0.00108041093220413,-0.000267696339133344,-0.000192558929350133
3.36028002333528,-0.00108074453839861,-0.000267300781413829,-0.000192892535544616
3.37028085673806,-0.00108106828465171,-0.000266916914021524,-0.00019321628179771
3.38028169014085,-0.00108138370923217,-0.000266542913212711,-0.000193531706378171
3.39028252354363,-0.0010816923737323,-0.00026617692751528,-0.000193840370878305
3.40028335694641,-0.00108199585067794,-0.000265817092428921,-0.000194143847823947
3.4102841903492,-0.00108229571162744,-0.000265461544543136,-0.000194443708773439
3.42028502375198,-0.00108259351583608,-0.000265108434982367,-0.000194741512982078
3.43028585715476,-0.00108289079954402,-0.000264755942109572,-0.000195038796690025
3.44028669055755,-0.00108318906592882,-0.000264402283439666,-0.00019533706307482
3.45028752396033,-0.00108348977574875,-0.000264045726731934,-0.000195637772894752
3.46028835736311,-0.00108379433869073,-0.000263684600245582,-0.000195942335836729
3.4702891907659,-0.00108410410542592,-0.000263317302154877,-0.000196252102571924
3.48029002416868,-0.00108442036036843,-0.000262942309129926,-0.000196568357514436
3.49029085757146,-0.00108474431512619,-0.000262558184096234,-0.000196892312272195
3.50029169097425,-0.0010850771026293,-0.000262163583191019,-0.000197225099775303
3.51029252437703,-0.00108541977191848,-0.000261757261937172,-0.000197567769064486
3.52029335777981,-0.00108577328357522,-0.000261338080657117,-0.000197921280721226
3.5302941911826,-0.00108613850577496,-0.000260905009148911,-0.000198286502920965
3.54029502458538,-0.00108651621094545,-0.000260457130646189,-0.000198664208091456
3.55029585798817,-0.00108690707301341,-0.000259993645082122,-0.000199055070159415
3.56029669139095,-0.00108731166522411,-0.000259513871675864,-0.00019945966237011
3.57029752479373,-0.00108773045852006,-0.000259017250858006,-0.00019987845566606
3.58029835819652,-0.00108816382046659,-0.0002585033455497,-0.000200311817612592
3.5902991915993,-0.00108861201471345,-0.000257971841808312,-0.000200760011859453
3.60030002500208,-0.00108907520098297,-0.000257422548850882,-0.000201223198128973
3.61030085840487,-0.00108955343557632,-0.00025685539846538,-0.000201701432722322
3.62030169180765,-0.00109004667239023,-0.000256270443818722,-0.000202194669536231
3.63030252521043,-0.00109055476443705,-0.000255667857669832,-0.000202702761583054
3.64030335861322,-0.00109107746586129,-0.00025504792999573,-0.000203225463007296
3.650304192016,-0.00109161443444568,-0.000254411065038635,-0.000203762431591678
3.66030502541878,-0.00109216523459937,-0.000253757777782526,-0.000204313231745374
3.67030585882157,-0.0010927293408204,-0.000253088689868384,-0.000204877337966404
3.68030669222435,-0.00109330614162305,-0.000252404524958569,-0.000205454138769056
3.69030752562714,-0.00109389494391985,-0.000251706103562438,-0.00020604294106585
3.70030835902992,-0.00109449497784577,-0.000250994337337346,-0.000206642974991773
3.7103091924327,-0.0010951054020104,-0.000250270222881686,-0.000207253399156405
3.72031002583549,-0.00109572530916109,-0.000249534835039554,-0.000207873306307097
3.73031085923827,-0.00109635373223752,-0.000248789319739948,-0.000208501729383527
3.74031169264105,-0.00109698965079482,-0.000248034886397185,-0.000209137647940823
3.75031252604384,-0.00109763199776899,-0.000247272799903269,-0.000209779994914998
3.76031335944662,-0.00109827966655475,-0.00024650437224742,-0.000210427663700752
3.7703141928494,-0.00109893151836178,-0.000245730953802575,-0.000211079515507781
3.78031502625219,-0.0010995863898117,-0.000244953924323557,-0.000211734386957701
3.79031585965497,-0.00110024310073358,-0.000244174683706492,-0.000212391097879583
3.80031669305775,-0.00110090046211203,-0.000243394642563975,-0.000213048459258029
3.81031752646054,-0.00110155728413773,-0.000242615212675228,-0.000213705281283737
3.82031835986332,-0.00110221238430678,-0.000241837797374996,-0.000214360381452786
3.83031919326611,-0.00110286459551145,-0.000241063781949039,-0.000215012592657456
3.84032002666889,-0.00110351277406245,-0.000240294524107644,-0.000215660771208451
3.85032086007167,-0.00110415580757997,-0.000239531344611503,-0.000216303804725975
3.86032169347446,-0.00110479262268938,-0.000238775518126441,-0.000216940619835385
3.87032252687724,-0.00110542219245617,-0.00023802826438469,-0.000217570189602173
3.88032336028002,-0.00110604354349487,-0.000237290739730599,-0.000218191540640872
3.89032419368281,-0.00110665576268732,-0.000236564029127795,-0.000218803759833323
3.90032502708559,-0.00110725800344748,-0.000235849138702727,-0.000219406000593488
3.91032586048837,-0.00110784949147277,-0.000235146988896239,-0.000219997488618776
3.92032669389116,-0.00110842952992568,-0.000234458408290334,-0.000220577527071688
3.93032752729394,-0.00110899750399436,-0.000233784128171588,-0.000221145501140367
3.94032836069672,-0.0011095528847864,-0.000233124777885824,-0.000221700881932406
3.95032919409951,-0.00111009523251693,-0.000232480881030756,-0.000222243229662931
3.96033002750229,-0.00111062419895938,-0.000231852852524483,-0.000222772196105385
3.97033086090508,-0.00111113952913553,-0.000231240996578058,-0.000223287526281531
3.98033169430786,-0.00111164106222979,-0.000230645505590159,-0.00022378905937579
3.99033252771064,-0.00111212873172197,-0.000230066459971166,-0.000224276728867974
4.00033336111343,-0.00111260256474156,-0.000229503828893138,-0.00022475056188756
4.01033419451621,-0.00111306268065579,-0.000228957471951308,-0.000225210677801797
4.02033502791899,-0.00111350928891277,-0.000228427141712078,-0.000225657286058773
4.03033586132178,-0.00111394268616913,-0.00022791248711238,-0.000226090683315135
4.04033669472456,-0.00111436325274008,-0.000227413057665703,-0.000226511249886089
4.05033752812734,-0.00111477144841658,-0.000226928308421464,-0.000226919445562588
4.06033836153013,-0.00111516780770104,-0.000226457605616684,-0.000227315804847042
4.07033919493291,-0.00111555293451836,-0.000226000232952395,-0.000227700931664362
4.08034002833569,-0.00111592749646365,-0.000225555398421858,-0.000228075493609654
4.09034086173848,-0.00111629221865124,-0.000225122241613606,-0.000228440215797245
4.10034169514126,-0.00111664787723206,-0.000224699841409555,-0.000228795874378063
4.11034252854405,-0.00111699529264765,-0.000224287223996944,-0.00022914328979365
4.12034336194683,-0.00111733532268924,-0.000223883371112637,-0.00022948331983524
4.13034419534961,-0.00111766885542961,-0.000223487228439215,-0.000229816852575619
4.1403450287524,-0.00111799680209374,-0.000223097714074336,-0.000230144799239749
4.15034586215518,-0.0011183200899317,-0.000222713726997752,-0.0002304680870777
4.16034669555796,-0.00111863965515424,-0.000222334155464187,-0.000230787652300246
4.17034752896075,-0.00111895643598773,-0.000221957885254738,-0.000231104433133733
4.18034836236353,-0.00111927136590062,-0.000221583807724482,-0.000231419363046626
4.19034919576631,-0.0011195853670496,-0.000221210827589375,-0.000231733364195606
4.2003500291691,-0.00111989934398829,-0.000220837870401244,-0.0002320473411343
4.21035086257188,-0.00112021417767687,-0.000220463889665448,-0.000232362174822878
4.22035169597466,-0.00112053071982581,-0.000220087873561673,-0.000232678716971815
4.23035252937745,-0.00112084978760228,-0.000219708851234046,-0.000232997784748289
4.24035336278023,-0.00112117215872301,-0.000219325898622372,-0.000233320155869013
4.25035419618302,-0.00112149856695278,-0.000218938143811621,-0.000233646564098781
4.2603550295858,-0.00112182969802376,-0.000218544771881855,-0.000233977695169768
4.27035586298858,-0.00112216618598669,-0.000218145029245466,-0.0002343141831327
4.28035669639137,-0.00112250861000132,-0.000217738227462931,-0.000234656607147328
4.29035752979415,-0.00112285749157034,-0.000217323746532244,-0.000235005488716342
4.30035836319693,-0.00112321329221788,-0.000216901037650703,-0.000235361289363881
4.31035919659972,-0.00112357641161108,-0.000216469625450915,-0.000235724408757083
4.3203600300025,-0.00112394718612081,-0.000216029109715679,-0.000236095183266811
4.33036086340528,-0.00112432588781556,-0.000215579166578839,-0.000236473884961564
4.34036169680807,-0.00112471272388081,-0.000215119549221359,-0.000236860721026816
4.35036253021085,-0.00112510783645441,-0.000214650088073704,-0.000237255833600419
4.36036336361363,-0.00112551130286735,-0.00021417069053724,-0.000237659300013352
4.37036419701642,-0.0011259231362779,-0.000213681340238757,-0.00023807113342391
4.3803650304192,-0.00112634328668634,-0.000213182095833465,-0.000238491283832348
4.39036586382199,-0.00112677164231607,-0.000212673089372917,-0.000238919639462073
4.40036669722477,-0.00112720803134658,-0.000212154524255349,-0.000239356028492581
4.41036753062755,-0.00112765222398254,-0.000211626672776856,-0.000239800221128541
4.42036836403034,-0.0011281039348426,-0.00021108987330281,-0.000240251931988606
4.43036919743312,-0.00112856282565074,-0.000210544527079815,-0.000240710822796747
4.4403700308359,-0.00112902850821208,-0.000209991094709492,-0.000241176505358089
4.45037086423869,-0.00112950054765438,-0.000209430092306362,-0.000241648544800381
4.46037169764147,-0.00112997846591534,-0.000208862087363158,-0.000242126463061344
4.47037253104425,-0.00113046174545522,-0.000208287694348006,-0.000242609742601227
4.48037336444704,-0.0011309498331729,-0.00020770757005904,-0.000243097830318903
4.49037419784982,-0.00113144214450287,-0.000207122408763271,-0.000243590141648871
4.5003750312526,-0.00113193806766945,-0.000206532937147713,-0.000244086064815454
4.51037586465539,-0.00113243696807346,-0.000205939909112057,-0.000244584965219466
4.52037669805817,-0.00113293819278558,-0.000205344100433412,-0.00024508618993159
4.53037753146095,-0.00113344107511968,-0.000204746303334837,-0.000245589072265685
4.54037836486374,-0.00113394493925832,-0.000204147320990518,-0.00024609293640433
4.55037919826652,-0.00113444910490202,-0.000203547962001518,-0.000246597102048027
4.56038003166931,-0.00113495289191277,-0.000202949034876855,-0.00024710088905877
4.57038086507209,-0.00113545562492209,-0.00020235134255546,-0.0002476036220681
4.58038169847487,-0.00113595663787333,-0.00020175567700501,-0.000248104635019331
4.59038253187766,-0.00113645527846748,-0.000201162813933934,-0.000248603275613482
4.60038336528044,-0.00113695091248243,-0.000200573507652828,-0.00024909890962844
4.61038419868322,-0.00113744292793522,-0.000199988486121199,-0.000249590925081228
4.62038503208601,-0.0011379307390578,-0.000199408446214762,-0.000250078736203802
4.63038586548879,-0.00113841379005771,-0.000198834049247487,-0.00025056178720372
4.64038669889157,-0.00113889155863622,-0.000198265916781153,-0.000251039555782224
4.65038753229436,-0.00113936355923777,-0.000197704626753412,-0.000251511556383775
4.66038836569714,-0.00113982934600695,-0.00019715070995313,-0.000251977343152958
4.67038919909993,-0.00114028851543077,-0.000196604646869298,-0.00025243651257678
4.68039003250271,-0.00114074070864687,-0.000196066864936834,-0.000252888705792871
4.69039086590549,-0.00114118561340077,-0.000195537736199421,-0.000253333610546776
4.70039169930828,-0.0011416229656385,-0.000195017575405977,-0.000253770962784502
4.71039253271106,-0.00114205255072366,-0.000194506638553584,-0.000254200547869669
4.72039336611384,-0.00114247420427192,-0.000194005121885737,-0.000254622201417928
4.73039419951663,-0.00114288781259879,-0.000193513161350602,-0.000255035809744792
4.74039503291941,-0.00114329331278057,-0.000193030832519804,-0.000255441309926579
4.75039586632219,-0.0011436906923317,-0.000192558150963944,-0.000255838689477708
4.76039669972498,-0.00114407998850516,-0.000192095073076872,-0.00025622798565117
4.77039753312776,-0.00114446128722642,-0.000191641497336554,-0.000256609284372426
4.78039836653054,-0.00114483472167435,-0.000191197265986426,-0.000256982718820354
4.79039919993333,-0.00114520047052598,-0.000190762167117346,-0.000257348467671987
4.80040003333611,-0.00114555875588476,-0.000190335937126727,-0.000257706753030762
4.8104008667389,-0.00114590984091462,-0.000189918263528289,-0.000258057838060629
4.82040170014168,-0.00114625402720475,-0.000189508788082994,-0.000258402024350756
4.83040253354446,-0.00114659165189161,-0.000189107110219315,-0.000258739649037613
4.84040336694725,-0.00114692308456689,-0.000188712790708959,-0.000259071081712893
4.85040420035003,-0.00114724872400106,-0.00018832535556257,-0.000259396721147064
4.86040503375281,-0.0011475689947133,-0.00018794430010882,-0.000259716991859303
4.8704058671556,-0.00114788434341912,-0.000187569093219562,-0.000260032340565124
4.88040670055838,-0.00114819523538725,-0.0001871991816435,-0.00026034323253326
4.89040753396116,-0.00114850215073717,-0.000186833994410969,-0.000260650147883178
4.90040836736395,-0.00114880558070818,-0.000186472947272969,-0.000260953577854189
4.91040920076673,-0.00114910602393026,-0.000186115447138559,-0.000261254021076268
4.92041003416951,-0.0011494039827257,-0.000185760896475957,-0.000261551979871701
4.9304108675723,-0.0011496999594693,-0.000185408697644266,-0.000261847956615307
4.94041170097508,-0.00114999445303348,-0.000185058257124584,-0.000262142450179486
4.95041253437786,-0.0011502879553426,-0.000184708989621275,-0.000262435952488609
4.96041336778065,-0.00115058094805941,-0.000184360322006433,-0.000262728945205417
4.97041420118343,-0.0011508738994241,-0.000184011697082884,-0.000263021896570105
4.98041503458622,-0.00115116726126472,-0.000183662577143563,-0.000263315258410728
4.990415867989,-0.00115146146619544,-0.00018331244730757,-0.000263609463341448
5.00041670139178,-0.00115175692501703,-0.000182960818615761,-0.000263904922163034
5.01041753479457,-0.0011520540243319,-0.000182607230871233,-0.000264202021477909
5.02041836819735,-0.00115235312438394,-0.000182251255212548,-0.000264501121529948
5.03041920160013,-0.00115265455713121,-0.000181892496409948,-0.000264802554277212
5.04042003500292,-0.00115295862455784,-0.000181530594877153,-0.000265106621703846
5.0504208684057,-0.00115326559722946,-0.000181165228393575,-0.000265413594375469
5.06042170180848,-0.00115357571309461,-0.000180796113533887,-0.000265723710240616
5.07042253521127,-0.00115388917653309,-0.000180423006803931,-0.000266037173679099
5.08042336861405,-0.00115420615765053,-0.000180045705483804,-0.000266354154796535
5.09042420201683,-0.00115452679181686,-0.000179664048180737,-0.000266674788962867
5.10042503541962,-0.00115485117944525,-0.000179277915096024,-0.000266999176591257
5.1104258688224,-0.00115517938600647,-0.000178887228011782,-0.000267327383152479
5.12042670222519,-0.00115551144227277,-0.000178491950004715,-0.000267659439418779
5.13042753562797,-0.00115584734478401,-0.000178092084895371,-0.000267995341930019
5.14042836903075,-0.00115618705652797,-0.000177687676442553,-0.000268335053673974
5.15042920243354,-0.00115653050782568,-0.000177278807293666,-0.000268678504971689
5.16043003583632,-0.00115687759741195,-0.000176865597702784,-0.000269025594557957
5.1704308692391,-0.0011572281937002,-0.000176448204029144,-0.000269376190846209
5.18043170264189,-0.00115758213622036,-0.000176026817029653,-0.000269730133366367
5.19043253604467,-0.00115793923721755,-0.000175601659959757,-0.000270087234363559
5.20043336944745,-0.00115829928339899,-0.000175172986497761,-0.000270447280544992
5.21043420285024,-0.00115866203781569,-0.00017474107850835,-0.000270810034961701
5.22043503625302,-0.00115902724186542,-0.000174306243661642,-0.000271175239011425
5.23043586965581,-0.00115939461740237,-0.000173868812924677,-0.000271542614548374
5.24043670305859,-0.00115976386893926,-0.000173429137942704,-0.000271911866085267
5.25043753646137,-0.00116013468592667,-0.000172987588328046,-0.000272282683072674
5.26043836986416,-0.00116050674509439,-0.000172544548874687,-0.000272654742240392
5.27043920326694,-0.00116087971283937,-0.000172100416716993,-0.000273027709985377
5.28044003666972,-0.00116125324764456,-0.000171655598451182,-0.000273401244790562
5.29044087007251,-0.00116162700251282,-0.000171210507238278,-0.000273774999658825
5.30044170347529,-0.00116200062740032,-0.00017076555990732,-0.000274148624546323
5.31044253687807,-0.00116237377163349,-0.000170321174077517,-0.000274521768779492
5.32044337028086,-0.00116274608629415,-0.000169877765317879,-0.00027489408344016
5.33044420368364,-0.00116311722655743,-0.000169435744362575,-0.000275265223703441
5.34044503708642,-0.00116348685396743,-0.000168995514399874,-0.000275634851113432
5.35044587048921,-0.00116385463863617,-0.00016855746845201,-0.000276002635782173
5.36044670389199,-0.00116422026135184,-0.000168121986862686,-0.000276368258497846
5.37044753729477,-0.00116458341558284,-0.000167689434908178,-0.000276731412728851
5.38044837069756,-0.00116494380936512,-0.000167260160547097,-0.000277091806511122
5.39044920410034,-0.00116530116706091,-0.000166834492322895,-0.00027744916420692
5.40045003750313,-0.00116565523097824,-0.000166412737432074,-0.000277803228124244
5.41045087090591,-0.00116600576284106,-0.000165995179969789,-0.000278153759987068
5.42045170430869,-0.00116635254510173,-0.000165582079363265,-0.000278500542247733
5.43045253771148,-0.00116669538208801,-0.000165173669001945,-0.000278843379234017
5.44045337111426,-0.00116703410097868,-0.000164770155071822,-0.00027918209812469
5.45045420451704,-0.00116736855260268,-0.000164371715599793,-0.000279516549748683
5.46045503791983,-0.00116769861205839,-0.000163978499712232,-0.000279846609204394
5.47045587132261,-0.00116802417915104,-0.000163590627110316,-0.000280172176297049
5.48045670472539,-0.00116834517864747,-0.0001632081877629,-0.000280493175793478
5.49045753812818,-0.00116866156034909,-0.000162831241816056,-0.000280809557495095
5.50045837153096,-0.00116897329898529,-0.000162459819716679,-0.000281121296131291
5.51045920493374,-0.00116928039393084,-0.000162093922545896,-0.000281428391076846
5.52046003833653,-0.00116958286875232,-0.000161733522556409,-0.000281730865898324
5.53046087173931,-0.00116988077058968,-0.000161378563906354,-0.00028202876773569
5.5404617051421,-0.00117017416938064,-0.000161028963580769,-0.000282322166526643
5.55046253854488,-0.00117046315693626,-0.00016068461249046,-0.000282611154082271
5.56046337194766,-0.0011707478458777,-0.000160345376736724,-0.000282895843023703
5.57046420535045,-0.00117102836844434,-0.000160011099029338,-0.000283176365590349
5.58046503875323,-0.00117130487518517,-0.000159681600244185,-0.000283452872331172
5.59046587215601,-0.00117157753354511,-0.000159356681106069,-0.000283725530691111
5.6004667055588,-0.00117184652635938,-0.000159036123981564,-0.000283994523505389
5.61046753896158,-0.00117211205026885,-0.000158719694766217,-0.000284260047414853
5.62046837236436,-0.00117237431406983,-0.000158407144850016,-0.00028452231121584
5.63046920576715,-0.00117263353701224,-0.000158098213144834,-0.00028478153415825
5.64047003916993,-0.00117288994705954,-0.000157792628157467,-0.000285037944205549
5.65047087257271,-0.0011731437791244,-0.000157490110091937,-0.000285291776270402
5.6604717059755,-0.00117339527329341,-0.000157190372964988,-0.000285543270439417
5.67047253937828,-0.00117364467305423,-0.00015689312671899,-0.000285792670200238
5.68047337278106,-0.00117389222353776,-0.000156598079316984,-0.000286040220683769
5.69047420618385,-0.0011741381697879,-0.000156304938805147,-0.000286286166933908
5.70047503958663,-0.0011743827550705,-0.000156013415328648,-0.000286530752216503
5.71047587298942,-0.00117462621923268,-0.000155723223087661,-0.000286774216378681
5.7204767063922,-0.00117486879712291,-0.000155434082221103,-0.000287016794268916
5.73047753979498,-0.00117511071708148,-0.000155145720606636,-0.000287258714227486
5.74047837319777,-0.00117535219951012,-0.000154857875566397,-0.00028750019665613
5.75047920660055,-0.00117559345552885,-0.000154570295468957,-0.000287741452674857
5.76048004000333,-0.00117583468572703,-0.000154282741219045,-0.000287982682873034
5.77048087340612,-0.00117607607901492,-0.00015399498762762,-0.000288224076160927
5.7804817068089,-0.00117631781158102,-0.000153706824655958,-0.000288465808727023
5.79048254021168,-0.00117656004595954,-0.000153418058528489,-0.000288708043105544
5.80048337361447,-0.00117680293021167,-0.000153128512710164,-0.000288950927357672
5.81048420701725,-0.00117704659722313,-0.000152838028745193,-0.000289194594369137
5.82048504042004,-0.00117729116411995,-0.000152546466955001,-0.000289439161265957
5.83048587382282,-0.00117753673180329,-0.000152253706994254,-0.000289684728949295
5.8404867072256,-0.00117778338460357,-0.000151959648264763,-0.000289931381749578
5.85048754062839,-0.00117803119005326,-0.000151664210187983,-0.000290179187199261
5.86048837403117,-0.00117828019877688,-0.000151367332337727,-0.000290428195922883
5.87048920743395,-0.00117853044449633,-0.000151068974435542,-0.000290678441642336
5.88049004083674,-0.00117878194414862,-0.000150769116211979,-0.000290929941294626
5.89049087423952,-0.00117903469811277,-0.000150467757137762,-0.000291182695258773
5.9004917076423,-0.00117928869054188,-0.000150164916029538,-0.000291436687687883
5.91049254104509,-0.00117954388979592,-0.000149860630535544,-0.000291691886941926
5.92049337444787,-0.00117980024897019,-0.000149554956507149,-0.000291948246116199
5.93049420785065,-0.00118005770651402,-0.000149247967262761,-0.000292205703660022
5.94049504125344,-0.00118031618693377,-0.000148939752751111,-0.000292464184079772
5.95049587465622,-0.00118057560157398,-0.000148630418621371,-0.000292723598719986
5.96049670805901,-0.00118083584946992,-0.000148320085207975,-0.000292983846615927
5.97049754146179,-0.00118109681826469,-0.000148008886438376,-0.000293244815410692
5.98049837486457,-0.0011813583851837,-0.000147696968672261,-0.000293506382329702
5.99049920826736,-0.00118162041805918,-0.000147384489481026,-0.000293768415205188
6.00050004167014,-0.00118188277639711,-0.000147071616376509,-0.000294030773543115
6.01050087507292,-0.00118214531247886,-0.000146758525498122,-0.000294293309624867
6.02050170847571,-0.0011824078724899,-0.000146445400267664,-0.000294555869635906
6.03050254187849,-0.0011826702976676,-0.000146132430021111,-0.000294818294813607
6.04050337528127,-0.00118293242546043,-0.000145819808626704,-0.000295080422606434
6.05050420868406,-0.0011831940906907,-0.000145507733098603,-0.000295342087836709
6.06050504208684,-0.00118345512671326,-0.000145196402215259,-0.000295603123859269
6.07050587548962,-0.00118371536656247,-0.000144886015151507,-0.000295863363708479
6.08050670889241,-0.00118397464408022,-0.000144576770133185,-0.000296122641226223
6.09050754229519,-0.00118423279501772,-0.0001442688631228,-0.000296380792163721
6.10050837569797,-0.00118448965810428,-0.000143962486544467,-0.000296637655250284
6.11050920910076,-0.00118474507607642,-0.000143657828055982,-0.000296893073222428
6.12051004250354,-0.0011849988966611,-0.000143355069375468,-0.000297146893807104
6.13051087590633,-0.00118525097350719,-0.0001430543851696,-0.000297398970653197
6.14051170930911,-0.00118550116705986,-0.00014275594200988,-0.000297649164205866
6.15051254271189,-0.00118574934537273,-0.000142459897402925,-0.000297897342518736
6.16051337611468,-0.00118599538485347,-0.00014216639890012,-0.000298143381999477
6.17051420951746,-0.00118623917093877,-0.000141875583291406,-0.000298387168084775
6.18051504292024,-0.00118648059869527,-0.000141587575887297,-0.00029862859584128
6.19051587632303,-0.00118671957334364,-0.00014130248989257,-0.000298867570489647
6.20051670972581,-0.00118695601070339,-0.000141020425874387,-0.000299104007849392
6.21051754312859,-0.00118718983755684,-0.000140741471326886,-0.000299337834702841
6.22051837653138,-0.00118742099193108,-0.00014046570033359,-0.000299568989077083
6.23051920993416,-0.00118764942329739,-0.000140193173328237,-0.0002997974204434
6.24052004333694,-0.00118787509268828,-0.000139923936953959,-0.000300023089834285
6.25052087673973,-0.0011880979727327,-0.000139658024019995,-0.00030024596987871
6.26052171014251,-0.0011883180476109,-0.00013939545355446,-0.000300466044756909
6.2705225435453,-0.00118853531293049,-0.000139136230951021,-0.000300683310076497
6.28052337694808,-0.00118874977552626,-0.000138880348206653,-0.000300897772672269
6.29052421035086,-0.00118896145318655,-0.000138627784247099,-0.00030110945033256
6.30052504375365,-0.00118917037430951,-0.000138378505336017,-0.000301318371455511
6.31052587715643,-0.00118937657749303,-0.00013813246556329,-0.00030152457463904
6.32052671055921,-0.00118958011106273,-0.000137889607407508,-0.000301728108208731
6.330527543962,-0.00118978103254221,-0.000137649862367126,-0.000301929029688217
6.34052837736478,-0.00118997940807096,-0.000137413151654481,-0.000302127405216962
6.35052921076756,-0.00119017531177463,-0.000137179386946453,-0.000302323308920639
6.36053004417035,-0.00119036882509351,-0.000136948471185318,-0.000302516822239518
6.37053087757313,-0.00119056003607448,-0.000136720299423094,-0.000302708033220487
6.38053171097591,-0.00119074903863244,-0.000136494759702501,-0.000302897035778444
6.3905325443787,-0.00119093593178691,-0.000136271733967585,-0.000303083928932919
6.40053337778148,-0.0011911208188798,-0.000136051098996961,-0.000303268816025808
6.41053421118426,-0.0011913038067801,-0.000135832727352645,-0.000303451803926103
6.42053504458705,-0.00119148500508146,-0.000135616488337521,-0.000303633002227464
6.43053587798983,-0.00119166452529838,-0.000135402248954565,-0.000303812522444385
6.44053671139262,-0.00119184248006655,-0.000135189874861108,-0.000303990477212558
6.4505375447954,-0.0011920189823529,-0.000134979231311662,-0.000304166979498908
6.46053837819818,-0.00119219414468052,-0.000134770184083012,-0.000304342141826527
6.47053921160097,-0.0011923680783735,-0.000134562600375617,-0.000304516075519508
6.48054004500375,-0.00119254089282644,-0.00013435634968566,-0.000304688889972445
6.49054087840653,-0.00119271269480299,-0.000134151304642425,-0.000304860691948999
6.50054171180932,-0.0011928835877677,-0.000133947341806096,-0.000305031584913706
6.5105425452121,-0.00119305367125476,-0.000133744342421431,-0.000305201668400766
6.52054337861488,-0.00119322304027729,-0.000133542193123213,-0.000305371037423295
6.53054421201767,-0.00119339178478006,-0.000133340786589821,-0.000305539781926068
6.54054504542045,-0.00119355998913847,-0.000133140022141691,-0.00030570798628447
6.55054587882324,-0.00119372773170595,-0.000132939806281916,-0.000305875728851959
6.56054671222602,-0.00119389508441194,-0.000132740053176686,-0.000306043081557946
6.5705475456288,-0.00119406211241164,-0.000132540685073733,-0.000306210109557646
6.58054837903159,-0.00119422887378902,-0.000132341632657418,-0.00030637687093503
6.59054921243437,-0.00119439541931364,-0.000132142835339527,-0.000306543416459648
6.60055004583715,-0.0011945617922517,-0.000131944241485332,-0.000306709789397701
6.61055087923994,-0.00119472802823139,-0.000131745808574872,-0.000306876025377399
6.62055171264272,-0.00119489415516224,-0.000131547503299859,-0.000307042152308247
6.6305525460455,-0.00119506019320758,-0.000131349301597021,-0.000307208190353588
6.64055337944829,-0.00119522615480939,-0.000131151188619071,-0.000307374151955396
6.65055421285107,-0.00119539204476397,-0.000130953158644906,-0.000307540041909974
6.66055504625385,-0.00119555786034695,-0.000130755214930944,-0.000307705857492957
6.67055587965664,-0.00119572359148568,-0.000130557369505889,-0.000307871588631688
6.68055671305942,-0.00119588922097681,-0.000130359642911501,-0.000308037218122817
6.69055754646221,-0.00119605472474671,-0.00013016206389223,-0.000308202721892711
6.70055837986499,-0.00119622007215204,-0.000129964669036876,-0.000308368069298045
6.71055921326777,-0.00119638522631773,-0.000129767502375615,-0.000308533223463733
6.72056004667056,-0.0011965501445092,-0.000129570614936007,-0.000308698141655209
6.73056088007334,-0.00119671477853588,-0.000129374064261749,-0.000308862775681884
6.74056171347612,-0.00119687907518247,-0.000129177913898101,-0.000309027072328473
6.75056254687891,-0.0011970429766648,-0.000128982232848062,-0.000309190973810804
6.76056338028169,-0.00119720642110658,-0.000128787095003467,-0.000309354418252583
6.77056421368447,-0.00119736934303358,-0.000128592578555246,-0.000309517340179581
6.78056504708726,-0.00119753167388162,-0.000128398765387164,-0.000309679671027622
6.79056588049004,-0.00119769334251474,-0.000128205740457348,-0.000309841339660744
6.80056671389282,-0.00119785427574993,-0.000128013591171935,-0.000310002272895936
6.81056754729561,-0.00119801439888482,-0.000127822406755125,-0.000310162396030828
6.82056838069839,-0.0011981736362248,-0.000127632277619886,-0.000310321633370802
6.83056921410117,-0.00119833191160605,-0.000127443294743442,-0.000310479908752054
6.84057004750396,-0.00119848914891119,-0.000127255549051613,-0.000310637146057198
6.85057088090674,-0.00119864527257415,-0.000127069130815906,-0.000310793269720153
6.86057171430953,-0.00119880020807115,-0.000126884129067125,-0.000310948205217159
6.87057254771231,-0.00119895388239491,-0.000126700631029079,-0.000311101879540916
6.88057338111509,-0.00119910622450902,-0.000126518721575786,-0.000311254221655025
6.89057421451788,-0.00119925716578005,-0.000126338482715333,-0.000311405162926058
6.90057504792066,-0.00119940664038482,-0.000126159993103334,-0.000311554637530822
6.91057588132344,-0.00119955458569054,-0.000125983327588686,-0.000311702582836541
6.92057671472623,-0.00119970094260596,-0.000125808556794024,-0.000311848939751961
6.93057754812901,-0.00119984565590155,-0.000125635746733047,-0.000311993653047555
6.94057838153179,-0.00119998867449728,-0.000125464958466559,-0.000312136671643285
6.95057921493458,-0.00120012995171662,-0.000125296247798797,-0.000312277948862626
6.96058004833736,-0.00120026944550576,-0.000125129665015308,-0.000312417442651768
6.97058088174014,-0.00120040711861722,-0.000124965254663332,-0.000312555115763228
6.98058171514293,-0.00120054293875731,-0.000124803055375343,-0.000312690935903316
6.99058254854571,-0.00120067687869717,-0.000124643099736089,-0.000312824875843173
7.0005833819485,-0.00120080891634735,-0.000124485414193161,-0.000312956913493355
7.01058421535128,-0.00120093903479618,-0.000124330019010849,-0.000313087031942189
7.02058504875406,-0.00120106722231236,-0.000124176928266704,-0.000313215219458361
7.03058588215685,-0.00120119347231244,-0.000124026149889984,-0.000313341469458447
7.04058671555963,-0.00120131778329432,-0.000123877685740866,-0.00031346578044033
7.05058754896241,-0.00120144015873763,-0.000123731531729052,-0.000313588155883631
7.0605883823652,-0.00120156060697254,-0.000123587677970145,-0.00031370860411854
7.07058921576798,-0.00120167914101857,-0.000123446108977958,-0.000313827138164574
7.08059004917076,-0.00120179577839499,-0.000123306803890684,-0.000313943775540998
7.09059088257355,-0.00120191054090479,-0.000123169736728687,-0.000314058538050798
7.10059171597633,-0.00120202345439422,-0.000123034876681482,-0.000314171451540224
7.11059254937912,-0.00120213454849008,-0.000122902188421322,-0.000314282545636083
7.1205933827819,-0.00120224385631702,-0.000122771632440711,-0.000314391853463024
7.13059421618468,-0.00120235141419719,-0.000122643165410991,-0.00031449941134319
7.14059504958747,-0.00120245726133464,-0.000122516740559141,-0.000314605258480646
7.15059588299025,-0.00120256143948709,-0.000122392308059803,-0.000314709436633091
7.16059671639303,-0.00120266399262732,-0.000122269815439545,-0.000314811989773323
7.17059754979582,-0.00120276496659703,-0.000122149207990337,-0.000314912963743035
7.1805983831986,-0.00120286440875541,-0.000122030429189238,-0.000315012405901411
7.19059921660138,-0.00120296236762507,-0.00012191342112128,-0.000315110364771077
7.20060005000417,-0.00120305889253781,-0.000121798124902642,-0.000315206889683818
7.21060088340695,-0.0012031540332825,-0.00012168448110121,-0.000315302030428509
7.22060171680973,-0.00120324783975756,-0.000121572430151743,-0.000315395836903569
7.23060255021252,-0.0012033403616302,-0.000121461912762955,-0.000315488358776207
7.2406033836153,-0.00120343164800459,-0.000121352870313944,-0.000315579645150592
7.25060421701808,-0.001203521747101,-0.000121245245237522,-0.000315669744247007
7.26060505042087,-0.00120361070594789,-0.000121138981388165,-0.000315758703093893
7.27060588382365,-0.00120369857008856,-0.000121034024392441,-0.000315846567234564
7.28060671722644,-0.00120378538330425,-0.000120930321979956,-0.000315933380450251
7.29060755062922,-0.00120387118735494,-0.000120827824293034,-0.000316019184500949
7.300608384032,-0.00120395602173942,-0.00012072648417353,-0.00031610401888542
7.31060921743479,-0.00120403992347552,-0.000120626257425367,-0.000316187920621528
7.32061005083757,-0.0012041229269019,-0.000120527103051578,-0.000316270924047909
7.33061088424035,-0.00120420506350183,-0.000120428983464864,-0.000316353060647833
7.34061171764314,-0.00120428636174993,-0.000120331864670822,-0.000316434358895932
7.35061255104592,-0.00120436684698231,-0.000120235716423265,-0.000316514844128311
7.3606133844487,-0.00120444654129036,-0.000120140512351198,-0.000316594538436362
7.37061421785149,-0.00120452546343849,-0.000120046230057257,-0.000316673460584497
7.38061505125427,-0.00120460362880577,-0.00011995285118758,-0.000316751625951771
7.39061588465705,-0.00120468104935128,-0.000119860361473281,-0.000316829046497286
7.40061671805984,-0.00120475773360305,-0.000119768750743891,-0.000316905730749057
7.41061755146262,-0.0012048336866699,-0.000119678012913283,-0.000316981683815908
7.42061838486541,-0.0012049089102758,-0.000119588145938793,-0.000317056907421801
7.43061921826819,-0.00120498340281588,-0.00011949915175439,-0.000317131399961884
7.44062005167097,-0.00120505715943341,-0.000119411036178904,-0.000317205156579411
7.45062088507376,-0.00120513017211655,-0.000119323808800475,-0.00031727816926256
7.46062171847654,-0.00120520242981408,-0.000119237482838494,-0.000317350426960088
7.47062255187932,-0.00120527391856864,-0.000119152074984438,-0.000317421915714642
7.48062338528211,-0.00120534462166645,-0.00011906760522312,-0.000317492618812458
7.49062421868489,-0.00120541451980211,-0.000118984096635942,-0.000317562516948118
7.50062505208767,-0.00120548359125693,-0.000118901575187848,-0.000317631588402935
7.51062588549046,-0.00120555181208951,-0.000118820069499726,-0.000317699809235513
7.52062671889324,-0.00120561915633694,-0.000118739610608096,-0.000317767153482949
7.53062755229602,-0.00120568559622512,-0.000118660231713904,-0.00031783359337112
7.54062838569881,-0.00120575110238648,-0.000118581967922359,-0.000317899099532489
7.55062921910159,-0.00120581564408379,-0.000118504855975691,-0.000317963641229799
7.56063005250438,-0.00120587918943808,-0.000118428933980757,-0.000318027186584082
7.57063088590716,-0.00120594170565936,-0.000118354241133422,-0.000318089702805366
7.58063171930994,-0.00120600315927849,-0.000118280817441575,-0.000318151156424495
7.59063255271273,-0.0012060635163785,-0.000118208703448681,-0.000318211513524508
7.60063338611551,-0.00120612274282405,-0.000118137939959662,-0.000318270739970056
7.61063421951829,-0.00120618080448736,-0.00011806856777089,-0.000318328801633366
7.62063505292108,-0.00120623766746933,-0.000118000627405991,-0.000318385664615333
7.63063588632386,-0.00120629329831437,-0.000117934158859106,-0.000318441295460371
7.64063671972664,-0.00120634766421772,-0.000117869201347137,-0.00031849566136373
7.65063755312943,-0.00120640073322404,-0.000117805793072464,-0.000318548730370043
7.66063838653221,-0.00120645247441599,-0.00011774397099747,-0.000318600471561994
7.67063921993499,-0.00120650285809201,-0.000117683770632144,-0.000318650855238019
7.68064005333778,-0.00120655185593212,-0.000117625225835903,-0.000318699853078122
7.69064088674056,-0.00120659944115092,-0.00011756836863465,-0.000318747438296926
7.70064172014335,-0.0012066455886372,-0.000117513229053976,-0.000318793585783202
7.71064255354613,-0.00120669027507925,-0.000117459834969286,-0.000318838272225254
7.72064338694891,-0.00120673347907558,-0.000117408211973483,-0.000318881476221585
7.7306442203517,-0.00120677518123043,-0.000117358383262744,-0.000318923178376438
7.74064505375448,-0.00120681536423387,-0.000117310369540758,-0.000318963361379877
7.75064588715726,-0.0012068540129262,-0.000117264188941686,-0.000319002010072202
7.76064672056005,-0.00120689111434659,-0.000117219856971962,-0.000319039111492599
7.77064755396283,-0.00120692665776602,-0.000117177386470932,-0.00031907465491203
7.78064838736561,-0.00120696063470446,-0.000117136787590188,-0.000319108631850467
7.7906492207684,-0.00120699303893271,-0.000117098067791351,-0.00031914103607871
7.80065005417118,-0.00120702386645907,-0.00011706123186191,-0.000319171863605075
7.81065088757396,-0.00120705311550138,-0.000117026281948646,-0.000319201112647382
7.82065172097675,-0.00120708078644474,-0.000116993217608026,-0.000319228783590747
7.83065255437953,-0.00120710688178574,-0.000116962035872872,-0.000319254878931749
7.84065338778232,-0.00120713140606365,-0.000116932731334509,-0.000319279403209654
7.8506542211851,-0.00120715436577942,-0.000116905296239507,-0.000319302362925428
7.86065505458788,-0.00120717576930334,-0.000116879720600052,-0.00031932376644935
7.87065588799067,-0.00120719562677208,-0.000116855992316907,-0.000319343623918087
7.88065672139345,-0.00120721394997615,-0.000116834097313878,-0.000319361947122158
7.89065755479623,-0.00120723075223873,-0.000116814019682619,-0.000319378749384738
7.90065838819902,-0.00120724604828681,-0.000116795741836578,-0.00031939404543282
7.9106592216018,-0.00120725985411574,-0.000116779244672872,-0.000319407851261751
7.92066005500458,-0.0012072721868482,-0.000116764507740803,-0.000319420183994202
7.93066088840737,-0.00120728306458864,-0.000116751509415761,-0.000319431061734647
7.94066172181015,-0.0012072925062744,-0.000116740227077225,-0.000319440503420408
7.95066255521293,-0.00120730053152435,-0.000116730637289571,-0.000319448528670352
7.96066338861572,-0.0012073071604863,-0.000116722715984425,-0.000319455157632306
7.9706642220185,-0.00120731241368422,-0.000116716438643298,-0.000319460410830228
7.98066505542129,-0.00120731631186617,-0.000116711780479281,-0.000319464309012174
7.99066588882407,-0.00120731887585405,-0.000116708716616597,-0.000319466873000057
8.00066672222685,-0.00120732012639615,-0.00011670722226687,-0.000319468123542156
8.01066755562964,-0.0012073200840233,-0.000116707272900992,-0.000319468081169306
8.02066838903242,-0.00120731876890964,-0.000116708844415551,-0.000319466766055646
8.0306692224352,-0.00120731620073875,-0.000116711913292819,-0.000319464197884751
8.04067005583799,-0.00120731239857592,-0.000116716456753384,-0.000319460395721925
8.05067088924077,-0.00120730738074735,-0.000116722452900575,-0.000319455377893354
8.06067172264355,-0.00120730116472679,-0.00011672988085589,-0.0003194491618728
8.07067255604634,-0.00120729376703038,-0.000116738720884735,-0.000319441764176389
8.08067338944912,-0.00120728520312003,-0.000116748954511854,-0.000319433200266032
8.0906742228519,-0.00120727548731593,-0.000116760564625903,-0.000319423484461931
8.10067505625469,-0.00120726463271852,-0.000116773535572732,-0.000319412629864531
8.11067588965747,-0.00120725265114024,-0.000116787853236988,-0.000319400648286241
8.12067672306025,-0.00120723955304715,-0.000116803505111772,-0.000319387550193157
8.13067755646304,-0.00120722534751094,-0.000116820480356149,-0.000319373344656942
8.14067838986582,-0.00120721004217096,-0.000116838769840406,-0.000319358039316964
8.15067922326861,-0.00120719364320671,-0.000116858366179015,-0.000319341640352716
8.16068005667139,-0.00120717615532045,-0.00011687926375138,-0.000319324152466456
8.17068089007417,-0.00120715758172997,-0.000116901458710483,-0.000319305578875977
8.18068172347696,-0.00120713792417131,-0.000116924948979652,-0.000319285921317313
8.19068255687974,-0.00120711718291114,-0.000116949734237735,-0.000319265180057147
8.20068339028252,-0.00120709535676861,-0.000116975815893028,-0.000319243353914621
8.21068422368531,-0.0012070724431462,-0.000117003197046389,-0.000319220440292204
8.22068505708809,-0.00120704843806919,-0.000117031882444021,-0.000319196435215198
8.23068589049088,-0.00120702333623344,-0.000117061878420457,-0.000319171333379446
8.24068672389366,-0.00120699713106072,-0.000117093192832351,-0.000319145128206726
8.25068755729644,-0.00120696981476131,-0.000117125834983708,-0.000319117811907313
8.26068839069922,-0.00120694137840312,-0.000117159815543244,-0.000319089375549127
8.27068922410201,-0.00120691181198685,-0.000117195146454591,-0.000319059809132859
8.28069005750479,-0.00120688110452646,-0.000117231840840105,-0.000319029101672466
8.29069089090757,-0.00120684924413435,-0.000117269912899039,-0.000318997241280358
8.30069172431036,-0.00120681621811063,-0.000117309377800907,-0.000318964215256631
8.31069255771314,-0.00120678201303565,-0.000117350251574815,-0.000318930010181657
8.32069339111593,-0.00120674661486534,-0.000117392550995615,-0.000318894612011348
8.33069422451871,-0.00120671000902839,-0.000117436293467674,-0.0003188580061744
8.34069505792149,-0.00120667218052483,-0.000117481496907107,-0.000318820177670835
8.35069589132428,-0.00120663311402515,-0.000117528179623268,-0.000318781111171159
8.36069672472706,-0.00120659279396945,-0.000117576360200311,-0.000318740791115458
8.37069755812984,-0.00120655120466579,-0.000117626057379598,-0.000318699201811796
8.38069839153263,-0.00120650833038724,-0.000117677289943727,-0.000318656327533247
8.39069922493541,-0.00120646415546698,-0.000117730076602894,-0.000318612152612983
8.4007000583382,-0.00120641866439079,-0.000117784435884312,-0.000318566661536799
8.41070089174098,-0.00120637184188653,-0.00011784038602534,-0.000318519839032536
8.42070172514376,-0.00120632367300987,-0.000117897944870957,-0.000318471670155871
8.43070255854655,-0.00120627414322597,-0.00011795712977617,-0.00031842214037198
8.44070339194933,-0.00120622323848662,-0.000118017957513887,-0.000318371235632625
8.45070422535211,-0.00120617094530225,-0.000118080444188754,-0.000318318942448253
8.4607050587549,-0.00120611725080873,-0.000118144605157404,-0.000318265247954733
8.47070589215768,-0.0012060621428284,-0.000118210454955499,-0.00031821013997441
8.48070672556046,-0.00120600560992518,-0.0001182780072319,-0.000318153607071189
8.49070755896325,-0.00120594764145341,-0.000118347274690269,-0.000318095638599413
8.50070839236603,-0.00120588822760034,-0.000118418269038297,-0.000318036224746348
8.51070922576881,-0.00120582735942213,-0.000118491000944757,-0.000317975356568133
8.5207100591716,-0.00120576502887308,-0.000118565480004485,-0.000317913026019087
8.53071089257438,-0.00120570122882834,-0.000118641714711346,-0.000317849225974342
8.54071172597716,-0.00120563595309977,-0.000118719712439202,-0.000317783950245779
8.55071255937995,-0.00120556919644531,-0.000118799479430819,-0.000317717193591321
8.56071339278273,-0.00120550095457165,-0.000118881020794631,-0.000317648951717652
8.57071422618552,-0.0012054312241305,-0.000118964340509189,-0.000317579221276507
8.5807150595883,-0.00120536000270868,-0.000119049441435119,-0.000317507999854681
8.59071589299108,-0.00120528740682124,-0.000119136184328293,-0.000317435403967241
8.60071672639387,-0.00120521421292438,-0.000119223641403383,-0.000317362210070391
8.61071755979665,-0.00120514190490239,-0.000119310039608229,-0.000317289902048399
8.62071839319943,-0.00120507196572965,-0.000119393607005087,-0.000317219962875653
8.63071922660222,-0.00120500550309041,-0.000119473020102068,-0.000317153500236413
8.640720060005,-0.00120494323560936,-0.00011954742029647,-0.000317091232755368
8.65072089340778,-0.0012048856173622,-0.000119616265093116,-0.000317033614508204
8.66072172681057,-0.00120483294189746,-0.000119679203806782,-0.000316980939043469
8.67072256021335,-0.00120478540960044,-0.000119735997068313,-0.000316933406746445
8.68072339361613,-0.00120474316706633,-0.000119786469777211,-0.000316891164212336
8.69072422701892,-0.00120470632923586,-0.000119830484651565,-0.000316854326381869
8.7007250604217,-0.00120467499121472,-0.000119867928104736,-0.000316822988360723
8.71072589382448,-0.00120464923382078,-0.000119898703616575,-0.000316797230966783
8.72072672722727,-0.0012046291252234,-0.000119922729774202,-0.00031677712236941
8.73072756063005,-0.00120461472010477,-0.000119939941273558,-0.000316762717250774
8.74072839403284,-0.00120460605725183,-0.000119950291796115,-0.000316754054397841
8.75072922743562,-0.00120460315618809,-0.000119953758032991,-0.000316751153334093
8.7607300608384,-0.00120460601327443,-0.000119950344343365,-0.000316754010420438
8.77073089424119,-0.00120461459759523,-0.000119940087669744,-0.000316762594741236
8.78073172764397,-0.00120462884686949,-0.0001199230624233,-0.000316776844015493
8.79073256104675,-0.00120464866357359,-0.000119899385116648,-0.000316796660719594
8.80073339444954,-0.0012046739114219,-0.000119869218569234,-0.000316821908567903
8.81073422785232,-0.00120470441232031,-0.000119832775547885,-0.00031685240946632
8.8207350612551,-0.00120473994388237,-0.000119790321735459,-0.000316887941028379
8.83073589465789,-0.00120478023757612,-0.000119742177946113,-0.000316928234722123
8.84073672806067,-0.00120482497755141,-0.00011968872152781,-0.000316972974697413
8.85073756146346,-0.00120487380018102,-0.000119630386912208,-0.000317021797327031
8.86073839486624,-0.00120492629433425,-0.00011956766528956,-0.000317074291480257
8.87073922826902,-0.00120498200238832,-0.000119501103402129,-0.000317129999534326
8.88074006167181,-0.00120504042197097,-0.000119431301464137,-0.000317188419116978
8.89074089507459,-0.00120510100841622,-0.000119358910229558,-0.000317249005562226
8.90074172847737,-0.00120516317790517,-0.000119284627241315,-0.000317311175051175
8.91074256188016,-0.00120522631125435,-0.000119209192306647,-0.000317374308400354
8.92074339528294,-0.00120528975830545,-0.000119133382253641,-0.000317437755451456
8.93074422868572,-0.00120535284286259,-0.000119058005033248,-0.0003175008400086
8.94074506208851,-0.00120541486811627,-0.000118983893239374,-0.00031756286526228
8.95074589549129,-0.00120547512248702,-0.000118911897127016,-0.00031762311963303
8.96074672889407,-0.00120553288581655,-0.000118842877214702,-0.000317680882962555
8.97074756229686,-0.00120558743582969,-0.000118777696562796,-0.000317735432975694
8.98074839569964,-0.00120563805478706,-0.000118717212823391,-0.000317786051933064
8.99074922910243,-0.00120568403624577,-0.000118662270160533,-0.000317832033391772
9.00075006250521,-0.001205724691844,-0.0001186136911414,-0.000317872688990002
9.01075089590799,-0.00120575935802482,-0.000118572268699627,-0.000317907355170823
9.02075172931078,-0.00120578740261511,-0.000118538758271365,-0.000317935399761116
9.03075256271356,-0.00120580823117713,-0.000118513870202702,-0.000317956228323139
9.04075339611634,-0.00120582129305298,-0.000118498262523856,-0.000317969290198983
9.05075422951913,-0.00120582608702593,-0.000118492534181043,-0.000317974084171937
9.06075506292191,-0.0012058221665276,-0.000118497218811182,-0.000317970163673603
9.07075589632469,-0.00120580914432543,-0.000118512779137622,-0.000317957141471439
9.08075672972748,-0.00120578669663212,-0.000118539602057044,-0.000317934693778124
9.09075756313026,-0.00120575456658576,-0.000118577994478585,-0.000317902563731768
9.10075839653304,-0.00120571256705829,-0.000118628179966264,-0.000317860564204292
9.11075922993583,-0.00120566058275826,-0.000118690296225115,-0.000317808579904268
9.12076006333861,-0.00120559857160391,-0.000118764393460099,-0.00031774656874992
9.13076089674139,-0.00120552656535172,-0.000118850433625275,-0.000317674562497727
9.14076173014418,-0.00120544466947597,-0.000118948290568778,-0.000317592666621977
9.15076256354696,-0.00120535306230447,-0.000119057751067401,-0.000317501059450472
9.16076339694975,-0.00120525199342531,-0.000119178516732889,-0.00031739999057132
9.17076423035253,-0.00120514178138905,-0.00011931020676094,-0.000317289778535054
9.18076506375531,-0.00120502281073914,-0.000119452361483269,-0.00031717080788515
9.1907658971581,-0.00120489552841218,-0.000119604446673388,-0.000317043525558188
9.20076673056088,-0.00120476043955622,-0.000119765858547904,-0.000316908436702227
9.21076756396366,-0.00120461810282242,-0.000119935929397446,-0.00031676609996843
9.22076839736645,-0.00120446912519041,-0.000120113933774811,-0.000316617122336421
9.23076923076923,-0.0012043141563922,-0.000120299095162684,-0.000316462153538205
9.24077006417201,-0.00120415388300277,-0.000120490593039416,-0.000316301880148776
9.2507708975748,-0.00120398902226764,-0.000120687570258747,-0.000316137019413649
9.26077173097758,-0.00120382031573862,-0.000120889140658193,-0.00031596831288463
9.27077256438037,-0.00120364852278903,-0.000121094396810814,-0.000315796519935038
9.28077339778315,-0.00120347441407859,-0.000121302417836448,-0.000315622411224594
9.29077423118593,-0.00120329876503615,-0.000121512277190812,-0.000315446762182151
9.30077506458872,-0.00120312234942561,-0.000121723050354385,-0.00031527034657162
9.3107758979915,-0.00120294593305683,-0.000121933822347221,-0.000315093930202839
9.32077673139428,-0.00120277026769895,-0.000122143695000963,-0.000314918264844955
9.33077756479707,-0.00120259608524909,-0.000122351793924965,-0.000314744082395093
9.34077839819985,-0.00120242409220404,-0.000122557275109592,-0.000314572089350049
9.35077923160263,-0.00120225496447726,-0.000122759331116232,-0.000314402961623267
9.36078006500542,-0.00120208934259784,-0.000122957196810225,-0.000314237339743841
9.3707808984082,-0.00120192782732264,-0.00012315015459966,-0.000314075824468647
9.38078173181098,-0.00120177097568707,-0.000123337539149674,-0.000313918972833079
9.39078256521377,-0.00120161929751442,-0.000123518741548493,-0.000313767294660425
9.40078339861655,-0.00120147325239854,-0.000123693212907755,-0.000313621249544549
9.41078423201933,-0.00120133324716953,-0.000123860467385746,-0.000313481244315536
9.42078506542212,-0.0012011996338471,-0.000124020084627901,-0.000313347630993107
9.4307858988249,-0.00120107270808219,-0.000124171711624221,-0.000313220705228194
9.44078673222769,-0.00120095270808287,-0.00012431506398825,-0.000313100705228873
9.45078756563047,-0.0012008398140171,-0.000124449926666731,-0.000312987811163105
9.46078839903325,-0.00120073414788126,-0.000124576154093171,-0.000312882145027261
9.47078923243604,-0.00120063577382032,-0.000124693669802253,-0.000312783770966323
9.48079006583882,-0.00120054469888288,-0.000124802465525292,-0.000312692696028883
9.4907908992416,-0.00120046087419158,-0.000124902599789877,-0.00031260887133759
9.50079173264439,-0.00120038419650757,-0.000124994196049386,-0.000312532193653572
9.51079256604717,-0.00120031451016544,-0.000125077440370304,-0.000312462507311442
9.52079339944995,-0.00120025160935388,-0.000125152578707193,-0.000312399606499886
9.53079423285274,-0.00120019524071542,-0.00012521991379685,-0.000312343237861424
9.54079506625552,-0.00120014510623775,-0.000125279801704563,-0.000312293103383754
9.5507958996583,-0.00120010086640808,-0.00012533264805658,-0.000312248863554085
9.56079673306109,-0.00120006214360105,-0.000125378903993873,-0.000312210140747053
9.57079756646387,-0.00120002852567015,-0.000125419061883019,-0.000312176522816159
9.58079839986666,-0.00119999956971217,-0.000125453650820679,-0.000312147566858171
9.59079923326944,-0.00119997480597359,-0.000125483231968489,-0.000312122803119597
9.60080006667222,-0.0011999537418681,-0.000125508393755478,-0.000312101739014104
9.61080090007501,-0.00119993586607374,-0.000125529746985174,-0.000312083863219742
9.62080173347779,-0.00119992065267889,-0.000125547919884452,-0.000312068649824898
9.63080256688057,-0.00119990756534615,-0.000125563553130891,-0.000312055562492151
9.64080340028336,-0.00119989606146361,-0.000125577294894954,-0.000312044058609612
9.65080423368614,-0.00119988559625388,-0.000125589795932616,-0.000312033593399881
9.66080506708892,-0.00119987562681149,-0.000125601704763224,-0.000312023623957497
9.67080590049171,-0.00119986561604064,-0.000125613662966284,-0.000312013613186643
9.68080673389449,-0.00119985503646597,-0.000125626300629589,-0.000312003033611975
9.69080756729728,-0.00119984337389068,-0.000125640231979622,-0.000311991371036685
9.70080840070006,-0.00119983013087737,-0.000125656051223402,-0.000311978128023378
9.71080923410284,-0.00119981483002893,-0.000125674328629063,-0.000311962827174938
9.72081006750563,-0.0011997970170484,-0.000125695606870256,-0.000311945014194405
9.73081090090841,-0.0011997762635588,-0.000125720397657154,-0.000311924260704804
9.74081173431119,-0.00119975216966603,-0.000125749178674288,-0.000311900166812036
9.75081256771398,-0.00119972436625018,-0.000125782390842737,-0.000311872363396188
9.76081340111676,-0.001199692516973,-0.000125820435921336,-0.000311840514119005
9.77081423451954,-0.00119965631999179,-0.000125863674458596,-0.000311804317137793
9.78081506792233,-0.00119961550937255,-0.00012591242410395,-0.000311763506518551
9.79081590132511,-0.0011995698561978,-0.000125966958283782,-0.000311717853343802
9.80081673472789,-0.0011995191693672,-0.000126027505244558,-0.000311667166513205
9.81081756813068,-0.00119946329609171,-0.000126094247462177,-0.000311611293237715
9.82081840153346,-0.00119940212208463,-0.000126167321413558,-0.000311550119230634
9.83081923493624,-0.00119933557145546,-0.000126246817703423,-0.000311483568601469
9.84082006833903,-0.00119926360631495,-0.000126332781536292,-0.000311411603460955
9.85082090174181,-0.00119918622610191,-0.000126425213520949,-0.000311334223247916
9.8608217351446,-0.00119910346664484,-0.000126524070791991,-0.000311251463790847
9.87082256854738,-0.00119901539897305,-0.000126629268430714,-0.000311163396119052
9.88082340195016,-0.00119892212789401,-0.000126740681165402,-0.000311070125040017
9.89082423535295,-0.00119882379035527,-0.000126858145329214,-0.000310971787501278
9.90082506875573,-0.00119872055361036,-0.000126981461052195,-0.000310868550756367
9.91082590215851,-0.00119861261320958,-0.00012711039466266,-0.000310760610355582
9.9208267355613,-0.00119850019083717,-0.00012724468127209,-0.000310648187983169
9.93082756896408,-0.00119838353201711,-0.000127384027517014,-0.000310531529163118
9.94082840236686,-0.00119826290371014,-0.000127528114430856,-0.000310410900856148
9.95082923576965,-0.00119813859182459,-0.000127676600418593,-0.000310286588970598
9.96083006917243,-0.00119801089866379,-0.00012782912430724,-0.00031015889580979
9.97083090257521,-0.00119788014033212,-0.000127985308445506,-0.000310028137478127
9.980831735978,-0.00119774664412164,-0.000128144761826714,-0.000309894641267644
9.99083256938078,-0.00119761074589996,-0.000128307083209859,-0.000309758743045964
