data1,data2,data3,data4,data5,data6,data7
0,3.99341814484919e-05,0.000648221533247372,-0.000328679035528481,0.000578997630024586,-3.02269983533516e-06,-0.000217628916722318
0.0100008334027836,3.99341593486556e-05,0.000648221510947184,-0.000328679057934118,0.000578997607614361,-3.02272214472711e-06,-0.000217628938822154
0.0200016668055671,3.99341548481489e-05,0.000648221506405877,-0.000328679062496899,0.000578997603050645,-3.02272668790901e-06,-0.000217628943322661
0.0300025002083507,3.99341568431319e-05,0.000648221508418951,-0.000328679060474308,0.000578997605073645,-3.02272467401242e-06,-0.000217628941327678
0.0400033336111343,3.99341593033039e-05,0.00064822151090143,-0.000328679057980093,0.000578997607568369,-3.02272219051475e-06,-0.000217628938867506
0.0500041670139178,3.99341614461308e-05,0.000648221513063686,-0.000328679055807614,0.00057899760974129,-3.02272002737066e-06,-0.000217628936724679
0.0600050004167014,3.99341633091768e-05,0.000648221514943624,-0.000328679053918787,0.000578997611630502,-3.02271814666015e-06,-0.000217628934861633
0.070005833819485,3.99341647617329e-05,0.000648221516409351,-0.000328679052446131,0.000578997613103458,-3.02271668033181e-06,-0.000217628933409077
0.0800066672222685,3.99341657198795e-05,0.000648221517376185,-0.000328679051474725,0.000578997614075062,-3.0227157131009e-06,-0.00021762893245093
0.0900075006250521,3.9934166176829e-05,0.000648221517837279,-0.000328679051011452,0.000578997614538428,-3.02271525181944e-06,-0.000217628931993981
0.100008334027836,3.99341662236081e-05,0.000648221517884483,-0.000328679050964025,0.000578997614585864,-3.02271520459744e-06,-0.000217628931947202
0.110009167430619,3.99341660587707e-05,0.000648221517718152,-0.000328679051131143,0.000578997614418711,-3.02271537099839e-06,-0.000217628932112039
0.120010000833403,3.99341659850563e-05,0.00064822151764377,-0.000328679051205877,0.000578997614343961,-3.02271544541192e-06,-0.000217628932185754
0.130010834236186,3.99341663939819e-05,0.000648221518056402,-0.000328679050791294,0.000578997614758631,-3.02271503260838e-06,-0.000217628931776828
0.14001166763897,3.99341677407283e-05,0.000648221519415356,-0.000328679049425913,0.000578997616124293,-3.02271367309059e-06,-0.000217628930430082
0.150012501041753,3.99341705125436e-05,0.000648221522212296,-0.000328679046615745,0.000578997618935039,-3.02271087499001e-06,-0.000217628927658266
0.160013334444537,3.99341751943082e-05,0.000648221526936498,-0.000328679041869201,0.00057899762368256,-3.02270614882819e-06,-0.000217628922976502
0.170014167847321,3.99341822349466e-05,0.000648221534040957,-0.000328679034731144,0.000578997630822086,-3.02269904142342e-06,-0.000217628915935863
0.180015001250104,3.99341920180549e-05,0.000648221543912745,-0.00032867902481267,0.000578997640742601,-3.02268916554177e-06,-0.000217628906152755
0.190015834652888,3.99342048394638e-05,0.000648221556850373,-0.000328679011813856,0.000578997653744091,-3.02267622254725e-06,-0.000217628893331346
0.200016668055671,3.99342208935311e-05,0.000648221573049962,-0.000328678995537655,0.000578997670023642,-3.02266001623861e-06,-0.000217628877277279
0.210017501458455,3.99342402688677e-05,0.000648221592600926,-0.00032867897589423,0.000578997689671112,-3.02264045716447e-06,-0.000217628857901942
0.220018334861238,3.99342629530805e-05,0.000648221615490758,-0.000328678952896145,0.000578997712673932,-3.02261755783517e-06,-0.000217628835217729
0.230019168264022,3.99342888451396e-05,0.000648221641617512,-0.00032867892664583,0.000578997738929654,-3.02259142023856e-06,-0.00021762880932567
0.240020001666806,3.99343177732664e-05,0.000648221670807852,-0.000328678897317438,0.000578997768264087,-3.02256221778181e-06,-0.000217628780397544
0.250020835069589,3.99343495158834e-05,0.000648221702838193,-0.000328678865135614,0.000578997800452541,-3.02253017414357e-06,-0.000217628748654927
0.260021668472373,3.99343838231634e-05,0.000648221737456441,-0.000328678830353643,0.000578997835241681,-3.02249554151983e-06,-0.000217628714347647
0.270022501875156,3.9934420437024e-05,0.000648221774402176,-0.000328678793233177,0.000578997872369799,-3.02245858044037e-06,-0.000217628677733786
0.28002333527794,3.99344591079176e-05,0.000648221813423586,-0.000328678754027216,0.000578997911583843,-3.02241954281897e-06,-0.000217628639062892
0.290024168680723,3.99344996073718e-05,0.000648221854290129,-0.000328678712967396,0.000578997952652131,-3.02237865929456e-06,-0.000217628598563438
0.300025002083507,3.99345417358201e-05,0.000648221896800429,-0.000328678670256043,0.000578997995372294,-3.02233613132615e-06,-0.00021762855643499
0.310025835486291,3.9934585325768e-05,0.000648221940785473,-0.00032867862606297,0.000578998039574485,-3.02229212799637e-06,-0.000217628512845042
0.320026668889074,3.99346302407166e-05,0.000648221986107525,-0.000328678580526565,0.000578998085120288,-3.02224678709854e-06,-0.000217628467930093
0.330027502291858,3.99346763705042e-05,0.000648222032655424,-0.000328678533758513,0.000578998131897994,-3.02220021983889e-06,-0.000217628421800306
0.340028335694641,3.9934723623848e-05,0.00064822208033706,-0.00032867848585136,0.000578998179815038,-3.02215251836593e-06,-0.000217628374546962
0.350029169097425,3.99347719188892e-05,0.000648222129069833,-0.000328678436888099,0.000578998228788413,-3.0221037653145e-06,-0.000217628326251921
0.360030002500208,3.99348211725086e-05,0.000648222178769868,-0.000328678386952997,0.00057899827873383,-3.02205404459212e-06,-0.000217628276998301
0.370030835902992,3.99348712891032e-05,0.000648222229340698,-0.000328678336142982,0.000578998329554344,-3.02200345270829e-06,-0.000217628226881707
0.380031669305775,3.99349221494372e-05,0.000648222280662005,-0.000328678284578938,0.000578998381129046,-3.02195211002946e-06,-0.000217628176021373
0.390032502708559,3.99349736001067e-05,0.000648222332578994,-0.000328678232416392,0.000578998433302376,-3.02190017141453e-06,-0.000217628124570703
0.400033336111343,3.99350254441062e-05,0.000648222384892876,-0.000328678179855076,0.000578998485874561,-3.02184783573717e-06,-0.000217628072726704
0.410034169514126,3.99350774329606e-05,0.000648222437352922,-0.000328678127146902,0.000578998538593637,-3.02179535382901e-06,-0.000217628020737849
0.42003500291691,3.99351292608767e-05,0.000648222489650568,-0.000328678074601895,0.000578998591149516,-3.0217430343833e-06,-0.000217627968909933
0.430035836319693,3.99351805613766e-05,0.000648222541416014,-0.000328678022591602,0.000578998643170572,-3.02169124735361e-06,-0.000217627917609433
0.440036669722477,3.99352309068759e-05,0.000648222592217802,-0.000328677971549526,0.000578998694223214,-3.02164042437973e-06,-0.000217627867263934
0.45003750312526,3.99352798116492e-05,0.000648222641565803,-0.00032867792196811,0.000578998743814895,-3.02159105579357e-06,-0.000217627818359161
0.460038336528044,3.99353267385646e-05,0.000648222688918018,-0.000328677874391919,0.000578998791400939,-3.02154368382142e-06,-0.000217627771432245
0.470039169930828,3.99353711098404e-05,0.000648222733691428,-0.000328677829406729,0.000578998836395448,-3.02149889172492e-06,-0.00021762772706097
0.480040003333611,3.99354123218825e-05,0.000648222775276971,-0.000328677787624484,0.00057899887818635,-3.02145728882291e-06,-0.000217627685848927
0.490040836736395,3.99354497639857e-05,0.000648222813058406,-0.00032867774966434,0.000578998916154361,-3.02141949161282e-06,-0.000217627648406824
0.500041670139178,3.99354828403467e-05,0.000648222846434531,-0.000328677716130342,0.000578998949695311,-3.02138610154919e-06,-0.000217627615330463
0.510042503541962,3.99355109944669e-05,0.000648222874843804,-0.000328677687586689,0.000578998978244882,-3.0213576804087e-06,-0.000217627587176343
0.520043336944745,3.99355337346699e-05,0.000648222897790094,-0.000328677664531859,0.000578999001304493,-3.02133472453138e-06,-0.00021762756443614
0.530044170347529,3.99355506591648e-05,0.000648222914867969,-0.000328677647373202,0.00057899901846671,-3.02131763951932e-06,-0.000217627547511645
0.540045003750313,3.99355614789239e-05,0.000648222925785783,-0.000328677636403744,0.000578999029438443,-3.02130671714198e-06,-0.000217627536691886
0.550045837153096,3.99355660366456e-05,0.000648222930384809,-0.000328677631782964,0.000578999034060183,-3.0213021161931e-06,-0.000217627532134164
0.56004667055588,3.9935564320273e-05,0.000648222928652882,-0.000328677633523083,0.000578999032319702,-3.02130384884448e-06,-0.000217627533850537
0.570047503958663,3.99355564699219e-05,0.000648222920731388,-0.000328677641482048,0.000578999024359084,-3.02131177365191e-06,-0.000217627541700888
0.580048337361447,3.99355427776112e-05,0.000648222906914993,-0.0003286776553638,0.00057899901047445,-3.02132559582717e-06,-0.000217627555393199
0.59004917076423,3.99355236798057e-05,0.000648222887644118,-0.000328677674725833,0.000578998991108395,-3.0213448747663e-06,-0.000217627574491004
0.600050004167014,3.99354997433965e-05,0.000648222863490792,-0.000328677698993414,0.000578998966835772,-3.02136903820169e-06,-0.000217627598427413
0.610050837569797,3.99354716462772e-05,0.000648222835139052,-0.000328677727479271,0.000578998938343996,-3.02139740181072e-06,-0.000217627626524533
0.620051670972581,3.99354401540457e-05,0.000648222803361434,-0.000328677759407211,0.000578998906409419,-3.0214291927343e-06,-0.000217627658016764
0.630052504375365,3.99354060945456e-05,0.000648222768993285,-0.000328677793937939,0.000578998871871513,-3.02146357527713e-06,-0.000217627692076264
0.640053337778148,3.99353703319394e-05,0.000648222732906598,-0.000328677830195334,0.000578998835606577,-3.0214996770807e-06,-0.00021762772783887
0.650054171180932,3.99353337418122e-05,0.000648222695984893,-0.000328677867291699,0.000578998798502497,-3.02153661425528e-06,-0.000217627764428998
0.660055004583715,3.99352971884904e-05,0.000648222659100329,-0.000328677904350749,0.000578998761435738,-3.02157351427651e-06,-0.000217627800982319
0.670055837986499,3.99352615053797e-05,0.000648222623093864,-0.000328677940527546,0.000578998725251413,-3.02160953583415e-06,-0.00021762783666543
0.680056671389282,3.99352274787451e-05,0.000648222588758888,-0.000328677975024949,0.000578998690746831,-3.02164388520563e-06,-0.000217627870692065
0.690057504792066,3.99351958350211e-05,0.000648222556828417,-0.000328678007106472,0.000578998658658629,-3.02167582906596e-06,-0.000217627902335789
0.70005833819485,3.99351672314798e-05,0.00064822252796568,-0.00032867803610575,0.000578998629653313,-3.02170470390893e-06,-0.00021762793093933
0.710059171597633,3.99351422499099e-05,0.000648222502757737,-0.000328678061432945,0.000578998604320844,-3.02172992242735e-06,-0.0002176279559209
0.720060005000417,3.99351213928773e-05,0.000648222481711707,-0.000328678082578539,0.000578998583170846,-3.02175097728823e-06,-0.000217627976777933
0.7300608384032,3.99351050821188e-05,0.000648222465253148,-0.000328678099114959,0.00057899856663098,-3.02176744275435e-06,-0.000217627993088691
0.740061671805984,3.99350936586563e-05,0.000648222453726173,-0.000328678110696466,0.000578998555047059,-3.02177897456884e-06,-0.000217628004512154
0.750062505208767,3.99350873842835e-05,0.000648222447394945,-0.000328678117057646,0.000578998548684554,-3.0217853084545e-06,-0.000217628010786526
0.760063338611551,3.99350864441504e-05,0.000648222446446294,-0.000328678118010786,0.000578998547731215,-3.02178625750488e-06,-0.00021762801172666
0.770064172014335,3.99350909502403e-05,0.000648222450993214,-0.000328678113442354,0.0005789985523006,-3.02178170867397e-06,-0.00021762800722057
0.780065005417118,3.99351009455904e-05,0.000648222461079134,-0.000328678103308718,0.000578998562436349,-3.02177161851607e-06,-0.000217627997225219
0.790065838819902,3.99351164091404e-05,0.000648222476682802,-0.00032867808763123,0.000578998578117108,-3.02175600829065e-06,-0.000217627981761669
0.800066672222685,3.99351372611142e-05,0.000648222497723717,-0.00032867806649077,0.00057899859926198,-3.02173495853021e-06,-0.000217627960909696
0.810067505625469,3.99351633688362e-05,0.000648222524068002,-0.00032867804002185,0.000578998625736426,-3.0217086031683e-06,-0.000217627934801974
0.820068339028252,3.99351945528773e-05,0.000648222555534601,-0.000328678008406381,0.000578998657358496,-3.02167712333555e-06,-0.000217627903617933
0.830069172431036,3.9935230593406e-05,0.000648222591901689,-0.000328677971867237,0.000578998693905271,-3.02164074094822e-06,-0.000217627867577404
0.84007000583382,3.99352712366055e-05,0.00064822263291315,-0.000328677930661746,0.00057899873511937,-3.02159971223021e-06,-0.000217627826934204
0.850070839236603,3.9935316201005e-05,0.000648222678284962,-0.000328677885075273,0.000578998780715369,-3.02155432132173e-06,-0.000217627781969805
0.860071672639387,3.99353651835696e-05,0.000648222727711344,-0.000328677835415046,0.000578998830385975,-3.02150487413196e-06,-0.00021762773298724
0.87007250604217,3.99354178653969e-05,0.000648222780870503,-0.000328677782004379,0.000578998883807808,-3.02145169258771e-06,-0.000217627680305413
0.880073339444954,3.9935473916887e-05,0.000648222837429852,-0.000328677725177434,0.000578998940646637,-3.02139510941505e-06,-0.000217627624253923
0.890074172847737,3.99355330022719e-05,0.000648222897050582,-0.000328677665274622,0.000578999000561979,-3.02133546356656e-06,-0.000217627565168538
0.900075006250521,3.99355947834249e-05,0.0006482229593915,-0.000328677602638749,0.000578999063210957,-3.02127309637622e-06,-0.000217627503387385
0.910075839653304,3.99356589229021e-05,0.000648223024112106,-0.000328677537611927,0.000578999128251388,-3.02120834848841e-06,-0.000217627439247908
0.920076673056088,3.99357250862086e-05,0.000648223090874874,-0.000328677470533279,0.000578999195344077,-3.02114155757084e-06,-0.000217627373084601
0.930077506458872,3.99357929433131e-05,0.000648223159346781,-0.000328677401737403,0.000578999264154359,-3.02107305678511e-06,-0.000217627305227497
0.940078339861655,3.99358621694714e-05,0.000648223229200142,-0.000328677331553534,0.000578999334352928,-3.02100317395589e-06,-0.000217627236001339
0.950079173264439,3.9935932445443e-05,0.000648223300112823,-0.000328677260305331,0.000578999405616058,-3.0209322313517e-06,-0.000217627165725367
0.960080006667222,3.99360034572109e-05,0.000648223371767962,-0.000328677188311155,0.000578999477625321,-3.02086054596832e-06,-0.000217627094713599
0.970080840070006,3.99360748953259e-05,0.000648223443853306,-0.000328677115884736,0.000578999550066922,-3.02078843019022e-06,-0.000217627023275484
0.980081673472789,3.99361464540091e-05,0.000648223516060306,-0.000328677043336082,0.000578999622630787,-3.02071619269695e-06,-0.000217626951716801
0.990082506875573,3.99362178301459e-05,0.000648223588083101,-0.000328676970972503,0.000578999695009543,-3.0206441394784e-06,-0.000217626880340664
1.00008334027836,3.99362887223037e-05,0.000648223659617527,-0.000328676899099601,0.000578999766897524,-3.02057257482668e-06,-0.000217626809448506
1.01008417368114,3.99363588298952e-05,0.000648223730360274,-0.000328676828022122,0.000578999837989919,-3.02050180218052e-06,-0.000217626739340915
1.02008500708392,3.99364278525983e-05,0.0006482238000083,-0.000328676758044541,0.000578999907982187,-3.02043212471101e-06,-0.000217626670318212
1.03008584048671,3.99364954901261e-05,0.000648223868258596,-0.000328676689471302,0.000578999976569825,-3.0203638455539e-06,-0.000217626602680684
1.04008667388949,3.99365614424213e-05,0.000648223934808388,-0.00032867662260661,0.000579000043448559,-3.02029726761291e-06,-0.000217626536728389
1.05008750729227,3.99366254103302e-05,0.000648223999355812,-0.00032867655775376,0.000579000108315033,-3.02023269287984e-06,-0.00021762647276048
1.06008834069506,3.99366870967856e-05,0.00064822406160111,-0.000328676495213927,0.000579000170868008,-3.02017042124021e-06,-0.000217626411074024
1.07008917409784,3.9936746208507e-05,0.000648224121248343,-0.000328676435284449,0.000579000230810082,-3.02011074875693e-06,-0.000217626351962303
1.08009000750063,3.99368024582019e-05,0.000648224178007619,-0.000328676378256593,0.000579000287849928,-3.02005396544814e-06,-0.000217626295712608
1.09009084090341,3.99368555672285e-05,0.000648224231597771,-0.000328676324412855,0.000579000341704989,-3.02000035259924e-06,-0.000217626242603581
1.10009167430619,3.99369052686584e-05,0.000648224281749453,-0.000328676274023856,0.000579000392104587,-3.01995017967116e-06,-0.000217626192902152
1.11009250770898,3.99369513106573e-05,0.000648224328208549,-0.000328676227344914,0.00057900043879335,-3.0199037008876e-06,-0.000217626146860153
1.12009334111176,3.99369934600844e-05,0.000648224370739808,-0.000328676184612395,0.000579000481534863,-3.01986115160154e-06,-0.000217626104710726
1.13009417451454,3.99370315061961e-05,0.000648224409130577,-0.000328676146039958,0.000579000520115421,-3.01982274455604e-06,-0.000217626066664614
1.14009500791733,3.99370652643317e-05,0.000648224443194523,-0.000328676111814817,0.000579000554347769,-3.01978866616413e-06,-0.000217626032906478
1.15009584132011,3.99370945794496e-05,0.000648224472775201,-0.000328676082094159,0.000579000584074687,-3.01975907293852e-06,-0.00021762600359136
1.16009667472289,3.99371193293871e-05,0.000648224497749342,-0.000328676057001836,0.000579000609172296,-3.01973408820139e-06,-0.000217625978841423
1.17009750812568,3.99371394277176e-05,0.000648224518029737,-0.00032867603662547,0.000579000629552957,-3.01971379919965e-06,-0.000217625958743092
1.18009834152846,3.99371548260939e-05,0.000648224533567601,-0.000328676021014077,0.000579000645167641,-3.01969825473952e-06,-0.000217625943344716
1.19009917493124,3.99371655159798e-05,0.000648224544354322,-0.00032867601017631,0.000579000656007692,-3.01968746343861e-06,-0.00021762593265483
1.20010000833403,3.99371715296937e-05,0.000648224550422511,-0.000328676004079404,0.000579000662105884,-3.0196813926723e-06,-0.000217625926641116
1.21010084173681,3.99371729407121e-05,0.000648224551846311,-0.000328676002648867,0.000579000663536724,-3.01967996826743e-06,-0.000217625925230098
1.22010167513959,3.99371698632073e-05,0.000648224548740929,-0.000328676005768944,0.000579000660415988,-3.01968307496894e-06,-0.000217625928307603
1.23010250854238,3.99371624508213e-05,0.000648224541261399,-0.00032867601328387,0.000579000652899476,-3.0196905576776e-06,-0.000217625935719989
1.24010334194516,3.99371508947048e-05,0.000648224529600605,-0.000328676024999849,0.000579000641181024,-3.01970222342949e-06,-0.000217625947276105
1.25010417534795,3.99371354208763e-05,0.000648224513986612,-0.000328676040687735,0.000579000625489825,-3.01971784406223e-06,-0.000217625962749934
1.26010500875073,3.99371162869767e-05,0.000648224494679395,-0.000328676060086323,0.00057900060608714,-3.01973715949087e-06,-0.000217625981883833
1.27010584215351,3.99370937785151e-05,0.000648224471967051,-0.000328676082906154,0.000579000583262487,-3.01975988149791e-06,-0.000217626004392295
1.2801066755563,3.99370682047125e-05,0.000648224446161601,-0.00032867610883373,0.000579000557329432,-3.01978569792884e-06,-0.000217626029966097
1.29010750895908,3.99370398940595e-05,0.000648224417594512,-0.000328676137536015,0.00057900052862108,-3.01981427717702e-06,-0.00021762605827675
1.30010834236186,3.99370091897042e-05,0.000648224386612041,-0.000328676168665115,0.000579000497485399,-3.01984527283863e-06,-0.000217626088981106
1.31010917576465,3.99369764447886e-05,0.000648224353570528,-0.000328676201863002,0.000579000464280491,-3.01987832842172e-06,-0.000217626121726021
1.32011000916743,3.99369420178376e-05,0.000648224318831747,-0.000328676236766192,0.000579000429369919,-3.01991308199979e-06,-0.000217626156152972
1.33011084257021,3.99369062683025e-05,0.000648224282758404,-0.00032867627301026,0.000579000393118182,-3.01994917071147e-06,-0.000217626191902507
1.340111675973,3.99368695523403e-05,0.000648224245709882,-0.000328676310234123,0.000579000355886442,-3.01998623502083e-06,-0.00021762622861847
1.35011250937578,3.99368322188998e-05,0.000648224208038292,-0.000328676348084005,0.000579000318028548,-3.02002392266829e-06,-0.00021762626595191
1.36011334277856,3.99367946061686e-05,0.000648224170084883,-0.00032867638621704,0.000579000279887439,-3.02006189225775e-06,-0.000217626303564641
1.37011417618135,3.99367570384181e-05,0.000648224132176865,-0.000328676424304471,0.000579000241791942,-3.02009981644125e-06,-0.000217626341132392
1.38011500958413,3.99367198232707e-05,0.000648224094624646,-0.000328676462034421,0.000579000204054,-3.02013738467774e-06,-0.000217626378347539
1.39011584298692,3.99366832493988e-05,0.000648224057719513,-0.000328676499114223,0.000579000166966342,-3.02017430555586e-06,-0.000217626414921411
1.4001166763897,3.9936647584654e-05,0.000648224021731743,-0.00032867653527232,0.000579000130800581,-3.02021030868273e-06,-0.000217626450586156
1.41011750979248,3.99366130746137e-05,0.000648223986909139,-0.000328676570259739,0.000579000095805746,-3.02024514615074e-06,-0.000217626485096196
1.42011834319527,3.99365799415266e-05,0.000648223953475961,-0.000328676603851157,0.000579000062207206,-3.02027859360243e-06,-0.000217626518229283
1.43011917659805,3.99365483836302e-05,0.000648223921632242,-0.000328676635845593,0.000579000030205985,-3.02031045091942e-06,-0.00021762654978718
1.44012001000083,3.99365185748101e-05,0.000648223891553443,-0.000328676666066757,0.00057899999997841,-3.02034054256619e-06,-0.000217626579596
1.45012084340362,3.99364906645684e-05,0.00064822386339042,-0.000328676694363079,0.000578999971676084,-3.02036871762177e-06,-0.000217626607506242
1.4601216768064,3.99364647782677e-05,0.000648223837269669,-0.000328676720607462,0.000578999945426131,-3.02039484953426e-06,-0.000217626633392542
1.47012251020918,3.99364410176131e-05,0.000648223813293819,-0.000328676744696794,0.000578999921331685,-3.02041883563321e-06,-0.000217626657153197
1.48012334361197,3.99364194613415e-05,0.000648223791542317,-0.00032867676655125,0.000578999899472588,-3.02044059643461e-06,-0.000217626678709469
1.49012417701475,3.9936400166082e-05,0.000648223772072306,-0.000328676786113417,0.000578999879906267,-3.02046007477172e-06,-0.000217626698004728
1.50012501041753,3.99363831673583e-05,0.000648223754919631,-0.00032867680334728,0.000578999862668742,-3.02047723478371e-06,-0.000217626715003452
1.51012584382032,3.99363684807017e-05,0.000648223740099963,-0.000328676818237093,0.000578999847775765,-3.02049206079179e-06,-0.000217626729690108
1.5201266772231,3.99363561028484e-05,0.00064822372761001,-0.000328676830786166,0.000578999835224025,-3.02050455609042e-06,-0.000217626742067962
1.53012751062589,3.99363460129964e-05,0.000648223717428779,-0.000328676841015588,0.000578999824992429,-3.02051474167876e-06,-0.000217626752157814
1.54012834402867,3.99363381740988e-05,0.00064822370951889,-0.000328676848962918,0.000578999817043409,-3.02052265495518e-06,-0.000217626759996711
1.55012917743145,3.99363325341731e-05,0.000648223703827887,-0.000328676854680858,0.000578999811324252,-3.02052834839514e-06,-0.000217626765636637
1.56013001083424,3.99363290276099e-05,0.000648223700289567,-0.000328676858235927,0.000578999807768427,-3.02053188823044e-06,-0.0002176267691432
1.57013084423702,3.99363275764643e-05,0.00064822369882528,-0.000328676859707145,0.000578999806296896,-3.02053335314525e-06,-0.000217626770594346
1.5801316776398,3.99363280917183e-05,0.0006482236993452,-0.000328676859184764,0.000578999806819388,-3.02053283300225e-06,-0.000217626770079092
1.59013251104259,3.99363304745013e-05,0.000648223701749562,-0.000328676856769021,0.000578999809235645,-3.02053042760981e-06,-0.000217626767696309
1.60013334444537,3.99363346172627e-05,0.00064822370592984,-0.000328676852568955,0.000578999813436606,-3.02052624553906e-06,-0.000217626763553547
1.61013417784815,3.9936340404887e-05,0.000648223711769877,-0.000328676846701274,0.000578999819305537,-3.02052040299761e-06,-0.000217626757765923
1.62013501125094,3.99363477157487e-05,0.000648223719146945,-0.000328676839289285,0.000578999826719105,-3.0205130227648e-06,-0.000217626750455061
1.63013584465372,3.99363564227033e-05,0.000648223727932748,-0.000328676830461893,0.000578999835548378,-3.02050423319155e-06,-0.000217626741748107
1.6401366780565,3.99363663940123e-05,0.000648223737994355,-0.000328676820352658,0.000578999845659769,-3.02049416726623e-06,-0.000217626731776798
1.65013751145929,3.99363774942036e-05,0.000648223749195066,-0.000328676809098925,0.000578999856915901,-3.02048296174639e-06,-0.000217626720676606
1.66013834486207,3.99363895848673e-05,0.000648223761395218,-0.00032867679684102,0.000578999869176421,-3.02047075635508e-06,-0.000217626708585943
1.67013917826486,3.99364025253908e-05,0.000648223774452925,-0.0003286767837215,0.00057899988229874,-3.02045769303912e-06,-0.000217626695645419
1.68014001166764,3.99364161736356e-05,0.000648223788224762,-0.00032867676988447,0.000578999896138723,-3.02044391528575e-06,-0.000217626681997174
1.69014084507042,3.99364303865604e-05,0.000648223802566391,-0.00032867675547495,0.000578999910551319,-3.02042956749346e-06,-0.00021762666778425
1.70014167847321,3.99364450207959e-05,0.000648223817333145,-0.000328676740638291,0.000578999925391146,-3.0204147943919e-06,-0.000217626653150014
1.71014251187599,3.99364599331762e-05,0.000648223832380561,-0.000328676725519641,0.000578999940513024,-3.0203997405056e-06,-0.000217626638237634
1.72014334527877,3.99364749812318e-05,0.00064822384756488,-0.00032867671026344,0.000578999955772485,-3.02038454965586e-06,-0.000217626623189578
1.73014417868156,3.99364900236515e-05,0.000648223862743511,-0.000328676695012953,0.000578999971026231,-3.02036936449492e-06,-0.000217626608147158
1.74014501208434,3.99365049207168e-05,0.000648223877775471,-0.000328676679909831,0.000578999986132581,-3.02035432606697e-06,-0.000217626593250093
1.75014584548712,3.99365195347163e-05,0.000648223892521801,-0.000328676665093691,0.000579000000951889,-3.02033957339023e-06,-0.000217626578636094
1.76014667888991,3.99365337303437e-05,0.000648223906845969,-0.00032867665070171,0.000579000015346947,-3.02032524305509e-06,-0.000217626564440466
1.77014751229269,3.99365473750845e-05,0.000648223920614262,-0.000328676636868237,0.00057900002918338,-3.0203114688335e-06,-0.000217626550795725
1.78014834569547,3.99365603395962e-05,0.000648223933696165,-0.000328676623724401,0.000579000042330027,-3.02029838129542e-06,-0.000217626537831214
1.79014917909826,3.99365724980847e-05,0.000648223945964746,-0.000328676611397739,0.000579000054659328,-3.0202861074287e-06,-0.000217626525672725
1.80015001250104,3.99365837286804e-05,0.000648223957297032,-0.000328676600011803,0.000579000066047701,-3.02027477025953e-06,-0.000217626514442129
1.81015084590383,3.99365939138158e-05,0.00064822396757439,-0.000328676589685789,0.000579000076375926,-3.02026448847125e-06,-0.000217626504256994
1.82015167930661,3.99366029406058e-05,0.000648223976682914,-0.000328676580534143,0.000579000085529532,-3.02025537602016e-06,-0.000217626495230204
1.83015251270939,3.99366107012323e-05,0.000648223984513809,-0.000328676572666174,0.000579000093399187,-3.02024754174768e-06,-0.000217626487469578
1.84015334611218,3.99366170933314e-05,0.000648223990963785,-0.000328676566185661,0.000579000099881089,-3.02024108898919e-06,-0.000217626481077478
1.85015417951496,3.99366220203835e-05,0.000648223995935448,-0.00032867656119046,0.000579000104877361,-3.02023611518047e-06,-0.000217626476150426
1.86015501291774,3.99366253921034e-05,0.000648223999337697,-0.000328676557772103,0.00057900010829645,-3.02023271146354e-06,-0.000217626472778707
1.87015584632053,3.99366271248291e-05,0.000648224001086111,-0.000328676556015411,0.000579000110053519,-3.02023096229444e-06,-0.000217626471045981
1.88015667972331,3.99366271419052e-05,0.000648224001103342,-0.000328676555998099,0.000579000110070835,-3.02023094505628e-06,-0.000217626471028905
1.89015751312609,3.99366253740572e-05,0.000648223999319487,-0.000328676557790399,0.00057900010827815,-3.02023272968114e-06,-0.000217626472796753
1.90015834652888,3.99366217597526e-05,0.000648223995672459,-0.000328676561454695,0.000579000104613068,-3.02023637828547e-06,-0.000217626476411057
1.91015917993166,3.99366162455445e-05,0.000648223990108325,-0.000328676567045172,0.00057900009902139,-3.02024194482366e-06,-0.000217626481925265
1.92016001333444,3.99366087863913e-05,0.000648223982581637,-0.000328676574607496,0.000579000091457442,-3.02024947476499e-06,-0.000217626489384419
1.93016084673723,3.99365993459479e-05,0.000648223973055721,-0.000328676584178514,0.000579000081884369,-3.02025900479943e-06,-0.000217626498824862
1.94016168014001,3.99365878968238e-05,0.000648223961502939,-0.000328676595785995,0.000579000070274394,-3.02027056257776e-06,-0.000217626510273986
1.9501625135428,3.99365744208006e-05,0.000648223947904908,-0.00032867660944841,0.000579000056609043,-3.0202841664915e-06,-0.000217626523750009
1.96016334694558,3.99365589090049e-05,0.000648223932252673,-0.000328676625174754,0.000579000040879318,-3.02029982549825e-06,-0.000217626539261805
1.97016418034836,3.99365413620321e-05,0.000648223914546837,-0.000328676642964424,0.000579000023085824,-3.02031753899722e-06,-0.000217626556808778
1.98016501375115,3.99365217900146e-05,0.000648223894797624,-0.000328676662807147,0.000579000003238834,-3.02033729676006e-06,-0.000217626576380795
1.99016584715393,3.99365002126317e-05,0.00064822387302489,-0.000328676684682971,0.000578999981358304,-3.02035907892083e-06,-0.000217626597958178
2.00016668055671,3.99364766590573e-05,0.000648223849258076,-0.000328676708562319,0.000578999957473817,-3.02038285602903e-06,-0.000217626621511753
2.0101675139595,3.99364511678419e-05,0.00064822382353608,-0.000328676734406107,0.000578999931624467,-3.02040858916827e-06,-0.000217626647002968
2.02016834736228,3.99364237867286e-05,0.000648223795907077,-0.000328676762165932,0.000578999903858666,-3.02043623014272e-06,-0.000217626674384081
2.03016918076506,3.99363945723993e-05,0.000648223766428264,-0.000328676791784327,0.000578999874233893,-3.02046572173251e-06,-0.000217626703598411
2.04017001416785,3.99363635901542e-05,0.000648223735165532,-0.000328676823195089,0.000578999842816366,-3.02049699801801e-06,-0.000217626734580656
2.05017084757063,3.99363309135222e-05,0.000648223702193076,-0.000328676856323672,0.000578999809680645,-3.02052998477248e-06,-0.000217626767257288
2.06017168097341,3.99362966238069e-05,0.000648223667592935,-0.000328676891087649,0.000578999774909178,-3.020564599921e-06,-0.000217626801547003
2.0701725143762,3.99362608095685e-05,0.000648223631454471,-0.000328676927397232,0.000578999738591768,-3.02060075406292e-06,-0.000217626837361241
2.08017334777898,3.99362235660472e-05,0.000648223593873788,-0.000328676965155866,0.000578999700824993,-3.02063835105419e-06,-0.000217626874604763
2.09017418118177,3.99361849945321e-05,0.000648223554953091,-0.00032867700426086,0.000578999661711567,-3.02067728864461e-06,-0.000217626913176278
2.10017501458455,3.99361452016804e-05,0.000648223514800004,-0.000328677044604081,0.000578999621359643,-3.02071745916477e-06,-0.00021762695296913
2.11017584798733,3.99361042987944e-05,0.000648223473526836,-0.000328677086072688,0.000578999579882089,-3.02075875025616e-06,-0.000217626993872016
2.12017668139012,3.99360624010619e-05,0.000648223431249818,-0.0003286771285499,0.00057899953739571,-3.02080104563774e-06,-0.000217627035769748
2.1301775147929,3.99360196267685e-05,0.000648223388088307,-0.000328677171915795,0.000578999494020454,-3.02084422590144e-06,-0.000217627078544041
2.14017834819568,3.99359760964882e-05,0.000648223344163968,-0.000328677216048132,0.000578999449878588,-3.02088816932896e-06,-0.000217627122074322
2.15017918159847,3.99359319322614e-05,0.000648223299599947,-0.000328677260823181,0.000578999405093869,-3.02093275272158e-06,-0.000217627166238549
2.16018001500125,3.99358872567679e-05,0.000648223254520033,-0.000328677306116567,0.000578999359790699,-3.0209778522352e-06,-0.000217627210914042
2.17018084840403,3.99358421925029e-05,0.000648223209047831,-0.0003286773518041,0.000578999314093294,-3.02102334421215e-06,-0.000217627255978307
2.18018168180682,3.99357968609635e-05,0.000648223163305939,-0.000328677397762603,0.000578999268124858,-3.02106910600213e-06,-0.000217627301309846
2.1901825152096,3.99357513818543e-05,0.000648223117415143,-0.000328677443870715,0.000578999222006778,-3.02111501676443e-06,-0.000217627346788956
2.20018334861238,3.99357058723182e-05,0.000648223071493649,-0.000328677490009673,0.000578999175857843,-3.02116095824429e-06,-0.000217627392298492
2.21018418201517,3.99356604461999e-05,0.00064822302565633,-0.000328677536064059,0.000578999129793496,-3.02120681551658e-06,-0.00021762743772461
2.22018501541795,3.99356152133472e-05,0.000648222980014028,-0.000328677581922504,0.00057899908392513,-3.02125247769074e-06,-0.000217627482957463
2.23018584882074,3.99355702789571e-05,0.000648222934672894,-0.000328677627478358,0.000578999038359418,-3.0212978385714e-06,-0.000217627527891853
2.24018668222352,3.99355257429696e-05,0.000648222889733772,-0.000328677672630297,0.000578998993197706,-3.02134279726989e-06,-0.00021762757242784
2.2501875156263,3.99354816995148e-05,0.000648222845291644,-0.000328677717282891,0.000578998948535445,-3.0213872587627e-06,-0.000217627616471295
2.26018834902909,3.99354382364154e-05,0.000648222801435127,-0.000328677761347101,0.000578998904461693,-3.02143113439353e-06,-0.000217627659934395
2.27018918243187,3.99353954347477e-05,0.000648222758246031,-0.00032867780474073,0.000578998861058664,-3.02147434231648e-06,-0.000217627702736062
2.28019001583465,3.99353533684625e-05,0.000648222715798978,-0.000328677847388805,0.000578998818401349,-3.02151680787866e-06,-0.000217627744802347
2.29019084923744,3.99353121040674e-05,0.000648222674161075,-0.000328677889223898,0.00057899877655719,-3.02155846394128e-06,-0.000217627786066743
2.30019168264022,3.99352717003697e-05,0.000648222633391663,-0.000328677930186389,0.00057899873558582,-3.02159925113887e-06,-0.00021762782647044
2.310192516043,3.99352322082802e-05,0.000648222593542113,-0.000328677970224663,0.000578998695538865,-3.02163911807709e-06,-0.00021762786596253
2.32019334944579,3.99351936706778e-05,0.000648222554655693,-0.000328678009295247,0.000578998656459807,-3.02167802147022e-06,-0.000217627904500132
2.33019418284857,3.99351561223307e-05,0.000648222516767484,-0.000328678047362893,0.000578998618383903,-3.02171592621968e-06,-0.000217627942048479
2.34019501625135,3.99351195898759e-05,0.000648222479904364,-0.000328678084400597,0.000578998581338163,-3.02175280543587e-06,-0.000217627978580934
2.35019584965414,3.99350840918503e-05,0.00064822244408504,-0.000328678120389563,0.000578998545341386,-3.02178864040564e-06,-0.00021762801407896
2.36019668305692,3.99350496387747e-05,0.000648222409320125,-0.000328678155319127,0.000578998510404239,-3.02182342050831e-06,-0.000217628048532035
2.3701975164597,3.99350162332845e-05,0.00064822237561228,-0.000328678189186616,0.000578998476529396,-3.02185714308332e-06,-0.000217628081937525
2.38019834986249,3.99349838703059e-05,0.000648222342956384,-0.000328678221997174,0.000578998443711711,-3.02188981325275e-06,-0.000217628114300504
2.39019918326527,3.99349525372721e-05,0.000648222311339758,-0.000328678253763543,0.000578998411938442,-3.02192144370231e-06,-0.000217628145633538
2.40020001666806,3.9934922214379e-05,0.000648222280742416,-0.000328678284505799,0.000578998381189504,-3.02195205442422e-06,-0.000217628175956431
2.41020085007084,3.99348928748731e-05,0.000648222251137364,-0.000328678314251068,0.000578998351437771,-3.02198167242569e-06,-0.000217628205295937
2.42020168347362,3.99348644853717e-05,0.000648222222490917,-0.000328678343033192,0.000578998322649389,-3.02201033140629e-06,-0.000217628233685438
2.43020251687641,3.99348370062092e-05,0.00064822219476305,-0.000328678370892387,0.000578998294784135,-3.02203807140802e-06,-0.000217628261164601
2.44020335027919,3.99348103918081e-05,0.000648222167907772,-0.00032867839787486,0.000578998267795793,-3.02206493844109e-06,-0.000217628287779002
2.45020418368197,3.99347845910698e-05,0.000648222141873523,-0.000328678424032416,0.000578998241632545,-3.02209098408883e-06,-0.00021762831357974
2.46020501708476,3.99347595477846e-05,0.000648222116603585,-0.000328678449422044,0.000578998216237392,-3.0221162650946e-06,-0.000217628338623025
2.47020585048754,3.99347352010552e-05,0.000648222092036507,-0.000328678474105481,0.000578998191548581,-3.02214084293367e-06,-0.000217628362969755
2.48020668389032,3.99347114857335e-05,0.000648222068106554,-0.000328678498148778,0.000578998167500049,-3.02216478337247e-06,-0.000217628386685077
2.49020751729311,3.99346883328671e-05,0.000648222044744147,-0.000328678521621841,0.000578998144021874,-3.02218815601782e-06,-0.000217628409837943
2.50020835069589,3.9934665670154e-05,0.000648222021876332,-0.00032867854459797,0.000578998121040739,-3.02221103385808e-06,-0.000217628432500656
2.51020918409868,3.99346434224028e-05,0.000648221999427235,-0.000328678567153399,0.000578998098480396,-3.0222334927985e-06,-0.000217628454748407
2.52021001750146,3.99346215119969e-05,0.000648221977318538,-0.000328678589366815,0.000578998076262137,-3.0222556111922e-06,-0.000217628476658813
2.53021085090424,3.99345998593622e-05,0.000648221955469947,-0.000328678611318896,0.000578998054305271,-3.02227746936869e-06,-0.000217628498311448
2.54021168430703,3.99345783834349e-05,0.000648221933799663,-0.000328678633091824,0.000578998032527595,-3.02229914916126e-06,-0.000217628519787375
2.55021251770981,3.99345570021296e-05,0.00064822191222486,-0.000328678654768821,0.00057899801084587,-3.02232073343461e-06,-0.00021762854116868
2.56021335111259,3.99345356328054e-05,0.000648221890662147,-0.00032867867643367,0.000578997989176293,-3.02234230561406e-06,-0.000217628562538005
2.57021418451538,3.99345141927298e-05,0.000648221869028044,-0.000328678698170249,0.000578997967434971,-3.02236394921749e-06,-0.00021762858397808
2.58021501791816,3.99344925995383e-05,0.000648221847239441,-0.000328678720062061,0.00057899794553838,-3.02238574739123e-06,-0.000217628605571272
2.59021585132094,3.99344707716891e-05,0.000648221825214057,-0.000328678742191774,0.000578997923403835,-3.0224077824513e-06,-0.000217628627399121
2.60021668472373,3.99344486289108e-05,0.000648221802870897,-0.000328678764640771,0.000578997900949935,-3.02243013543096e-06,-0.000217628649541899
2.61021751812651,3.99344260926433e-05,0.000648221780130687,-0.000328678787488699,0.000578997878097016,-3.02245288563623e-06,-0.000217628672078167
2.62021835152929,3.99344030864685e-05,0.00064822175691632,-0.000328678810813031,0.000578997854767587,-3.02247611021071e-06,-0.000217628695084341
2.63021918493208,3.99343795365306e-05,0.00064822173315327,-0.000328678834688646,0.000578997830886754,-3.02249988371128e-06,-0.000217628718634279
2.64022001833486,3.99343553719442e-05,0.000648221708770011,-0.000328678859187408,0.000578997806382635,-3.02252427769642e-06,-0.000217628742798866
2.65022085173764,3.99343305251872e-05,0.00064822168369841,-0.000328678884377774,0.000578997781186761,-3.02254936032907e-06,-0.000217628767645623
2.66022168514043,3.99343049324787e-05,0.000648221657874109,-0.000328678910324407,0.000578997755234453,-3.0225751959959e-06,-0.000217628793238331
2.67022251854321,3.99342785341369e-05,0.000648221631236885,-0.000328678937087813,0.000578997728465191,-3.02260184494533e-06,-0.000217628819636673
2.680223351946,3.99342512749172e-05,0.000648221603730996,-0.000328678964724001,0.000578997700822955,-3.02262936294637e-06,-0.000217628846895893
2.69022418534878,3.99342231043274e-05,0.000648221575305491,-0.000328678993284162,0.000578997672256542,-3.02265780097074e-06,-0.000217628875066483
2.70022501875156,3.99341939769166e-05,0.000648221545914509,-0.000328679022814375,0.000578997642719863,-3.02268720490076e-06,-0.000217628904193893
2.71022585215435,3.99341638525374e-05,0.000648221515517539,-0.000328679053355342,0.000578997612172207,-3.02271761526528e-06,-0.000217628934318273
2.72022668555713,3.99341326965763e-05,0.000648221484079655,-0.000328679084942156,0.000578997580578474,-3.02274906700631e-06,-0.000217628965474234
2.73022751895991,3.99341004801529e-05,0.000648221451571715,-0.000328679117604096,0.000578997547909377,-3.02278158927859e-06,-0.000217628997690657
2.7402283523627,3.99340671802832e-05,0.000648221417970526,-0.000328679151364465,0.000578997514141609,-3.0228152052844e-06,-0.000217629030990527
2.75022918576548,3.99340327800062e-05,0.000648221383258976,-0.000328679186240456,0.000578997479257971,-3.02284993214579e-06,-0.000217629065390804
2.76023001916826,3.99339972684719e-05,0.000648221347426115,-0.000328679222243072,0.000578997443247461,-3.02288578081601e-06,-0.000217629100902338
2.77023085257105,3.99339606409879e-05,0.000648221310467209,-0.000328679259377068,0.00057899740610532,-3.02292275603189e-06,-0.000217629137529822
2.78023168597383,3.99339228990257e-05,0.000648221272383743,-0.000328679297640953,0.00057899736783304,-3.02296085630826e-06,-0.000217629175271784
2.79023251937661,3.99338840501827e-05,0.000648221233183383,-0.000328679337027024,0.000578997328438326,-3.02300007397566e-06,-0.000217629214120627
2.8002333527794,3.9933844108102e-05,0.000648221192879896,-0.00032867937752145,0.000578997287935011,-3.02304039526142e-06,-0.000217629254062708
2.81023418618218,3.99338030923489e-05,0.000648221151493025,-0.000328679419104394,0.000578997246342937,-3.02308180041468e-06,-0.000217629295078461
2.82023501958497,3.99337610282441e-05,0.000648221109048319,-0.000328679461750186,0.00057899720368778,-3.02312426387448e-06,-0.000217629337142566
2.83023585298775,3.99337179466549e-05,0.000648221065576925,-0.000328679505427531,0.00057899716000084,-3.02316775448042e-06,-0.000217629380224155
2.84023668639053,3.99336738837464e-05,0.000648221021115335,-0.000328679550099764,0.000578997115318792,-3.02321223572426e-06,-0.000217629424287063
2.85023751979332,3.99336288806929e-05,0.000648220975705097,-0.000328679595725142,0.000578997069683386,-3.02325766604078e-06,-0.000217629469290117
2.8602383531961,3.99335829833537e-05,0.000648220929392485,-0.000328679642257171,0.000578997023141129,-3.02330399913541e-06,-0.000217629515187456
2.87023918659888,3.99335362419145e-05,0.000648220882228139,-0.00032867968964497,0.000578996975742909,-3.02335118434606e-06,-0.000217629561928895
2.88024002000167,3.99334887104985e-05,0.000648220834266671,-0.00032867973783367,0.000578996927543612,-3.02339916703574e-06,-0.000217629609460311
2.89024085340445,3.99334404467504e-05,0.000648220785566249,-0.000328679786764826,0.00057899687860169,-3.02344788901254e-06,-0.000217629657724059
2.90024168680723,3.9933391511397e-05,0.000648220736188147,-0.000328679836376874,0.000578996828978726,-3.0234972889731e-06,-0.000217629706659413
2.91024252021002,3.9933341967789e-05,0.000648220686196291,-0.000328679886605586,0.000578996778738959,-3.02354730296539e-06,-0.000217629756203021
2.9202433536128,3.99332918814275e-05,0.000648220635656775,-0.000328679937384555,0.00057899672794881,-3.02359786486641e-06,-0.000217629806289382
2.93024418701558,3.99332413194805e-05,0.000648220584637373,-0.000328679988645684,0.000578996676676392,-3.02364890687044e-06,-0.000217629856851329
2.94024502041837,3.99331903502934e-05,0.00064822053320705,-0.000328680040319684,0.000578996624991011,-3.02370035998326e-06,-0.000217629907820516
2.95024585382115,3.9933139042898e-05,0.000648220481435462,-0.000328680092336566,0.000578996572962668,-3.02375215451771e-06,-0.000217629959127912
2.96024668722394,3.99330874665246e-05,0.000648220429392466,-0.000328680144626145,0.000578996520661566,-3.02380422058624e-06,-0.000217630010704285
2.97024752062672,3.99330356901214e-05,0.000648220377147634,-0.000328680197118518,0.000578996468157623,-3.02385648858597e-06,-0.000217630062480688
2.9802483540295,3.99329837818856e-05,0.00064822032476978,-0.000328680249744545,0.000578996415519993,-3.0239088896722e-06,-0.000217630114388924
2.99024918743229,3.99329318088097e-05,0.000648220272326502,-0.000328680302436307,0.00057899636281661,-3.02396135621635e-06,-0.000217630166362
3.00025002083507,3.9932879836247e-05,0.000648220219883746,-0.000328680355127547,0.000578996310113747,-3.02401382224468e-06,-0.000217630218334563
3.01025085423785,3.99328279274992e-05,0.000648220167505385,-0.000328680407754088,0.000578996257475595,-3.02406622385452e-06,-0.000217630270243311
3.02025168764064,3.99327761434291e-05,0.000648220115252833,-0.000328680460254225,0.00057899620496387,-3.024118499605e-06,-0.000217630322027381
3.03025252104342,3.99327245421019e-05,0.000648220063184681,-0.000328680512569091,0.000578996152637456,-3.02417059087967e-06,-0.000217630373628708
3.0402533544462,3.99326731784558e-05,0.000648220011356364,-0.000328680564642988,0.000578996100552061,-3.02422244221875e-06,-0.000217630424992354
3.05025418784899,3.99326221040044e-05,0.00064821995981986,-0.00032868061642369,0.000578996048759923,-3.0242740016194e-06,-0.000217630476066805
3.06025502125177,3.9932571366573e-05,0.000648219908623429,-0.000328680667862709,0.00057899599730954,-3.02432522080233e-06,-0.000217630526804237
3.07025585465455,3.99325210100681e-05,0.000648219857811374,-0.000328680718915533,0.000578995946245434,-3.02437605544399e-06,-0.000217630577160742
3.08025668805734,3.99324710742826e-05,0.000648219807423847,-0.000328680769541819,0.000578995895607959,-3.02442646537358e-06,-0.000217630627096527
3.09025752146012,3.99324215947357e-05,0.00064821975749669,-0.000328680819705555,0.000578995845433133,-3.02447641473473e-06,-0.000217630676576074
3.10025835486291,3.99323726025475e-05,0.000648219708061303,-0.000328680869375192,0.000578995795752512,-3.02452587211181e-06,-0.000217630725568262
3.11025918826569,3.99323241243483e-05,0.000648219659144558,-0.000328680918523732,0.000578995746593101,-3.02457481062149e-06,-0.000217630774046462
3.12026002166847,3.99322761822223e-05,0.000648219610768739,-0.000328680967128784,0.000578995697977296,-3.02462320797003e-06,-0.000217630821988588
3.13026085507126,3.99322287936829e-05,0.000648219562951517,-0.000328681015172593,0.000578995649922855,-3.02467104647752e-06,-0.000217630869377127
3.14026168847404,3.99321819716809e-05,0.000648219515705961,-0.000328681062642029,0.000578995602442911,-3.02471831307013e-06,-0.000217630916199129
3.15026252187682,3.99321357246425e-05,0.000648219469040573,-0.00032868110952855,0.000578995555546009,-3.02476499924171e-06,-0.000217630962446167
3.16026335527961,3.99320900565356e-05,0.000648219422959356,-0.000328681155828133,0.000578995509236173,-3.02481110098662e-06,-0.000217631008114274
3.17026418868239,3.99320449669637e-05,0.00064821937746191,-0.00032868120154118,0.000578995463513,-3.0248566187051e-06,-0.000217631053203846
3.18026502208517,3.99320004512845e-05,0.000648219332543552,-0.000328681246672397,0.000578995418371783,-3.02490155708335e-06,-0.000217631097719525
3.19026585548796,3.99319565007525e-05,0.000648219288195455,-0.00032868129123065,0.000578995373803654,-3.02494592494998e-06,-0.000217631141670057
3.20026668889074,3.99319131026822e-05,0.000648219244404821,-0.000328681335228802,0.000578995329795749,-3.02498973511086e-06,-0.000217631185068128
3.21026752229352,3.99318702406313e-05,0.000648219201155057,-0.000328681378683521,0.000578995286331394,-3.02503300416441e-06,-0.000217631227930179
3.22026835569631,3.9931827894601e-05,0.000648219158425985,-0.000328681421615083,0.000578995243390311,-3.02507575229917e-06,-0.000217631270276209
3.23026918909909,3.99317860412525e-05,0.000648219116194053,-0.00032868146404715,0.000578995200948831,-3.02511800307567e-06,-0.000217631312129557
3.24027002250188,3.99317446541362e-05,0.000648219074432574,-0.000328681506006536,0.000578995158980134,-3.02515978319463e-06,-0.000217631353516674
3.25027085590466,3.99317037039332e-05,0.000648219033111963,-0.000328681547522966,0.000578995117454489,-3.02520112225315e-06,-0.000217631394466877
3.26027168930744,3.99316631587071e-05,0.000648218992199995,-0.000328681588628818,0.000578995076339511,-3.025242052491e-06,-0.000217631435012103
3.27027252271023,3.99316229841632e-05,0.000648218951662064,-0.000328681629358862,0.000578995035600422,-3.02528260852854e-06,-0.000217631475186647
3.28027335611301,3.99315831439144e-05,0.000648218911461455,-0.000328681669749986,0.000578994995200326,-3.02532282709817e-06,-0.000217631515026895
3.29027418951579,3.99315435997527e-05,0.000648218871559613,-0.000328681709840928,0.000578994955100477,-3.02536274677082e-06,-0.000217631554571057
3.30027502291858,3.99315043119231e-05,0.000648218831916425,-0.000328681749671993,0.000578994915260561,-3.02540240767908e-06,-0.000217631593858887
3.31027585632136,3.99314652393994e-05,0.000648218792490493,-0.000328681789284773,0.000578994875638975,-3.02544185123849e-06,-0.00021763163293141
3.32027668972414,3.99314263401614e-05,0.000648218753239416,-0.00032868182872187,0.000578994836193109,-3.02548111986843e-06,-0.000217631671830648
3.33027752312693,3.99313875714698e-05,0.00064821871412007,-0.000328681868026615,0.000578994796879623,-3.02552025671393e-06,-0.00021763171059934
3.34027835652971,3.99313488901401e-05,0.000648218675088877,-0.000328681907242788,0.000578994757654726,-3.02555930536968e-06,-0.00021763174928067
3.35027918993249,3.9931310252812e-05,0.000648218636102087,-0.00032868194641435,0.000578994718474448,-3.02559830960762e-06,-0.000217631787917998
3.36028002333528,3.99312716162152e-05,0.000648218597116038,-0.00032868198558517,0.00057899467929491,-3.02563731310915e-06,-0.000217631826554595
3.37028085673806,3.99312329374281e-05,0.000648218558087419,-0.000328682024798761,0.000578994640072589,-3.02567635920318e-06,-0.000217631865233382
3.38028169014085,3.99311941741314e-05,0.000648218518973528,-0.00032868206409803,0.000578994600764569,-3.02571549061117e-06,-0.000217631903996678
3.39028252354363,3.99311552848517e-05,0.000648218479732518,-0.000328682103525023,0.000578994561328795,-3.02575474920014e-06,-0.000217631942885958
3.40028335694641,3.99311162291982e-05,0.000648218440323632,-0.000328682143120688,0.000578994521724308,-3.02579417574475e-06,-0.000217631981941612
3.4102841903492,3.99310769680873e-05,0.000648218400707433,-0.00032868218292465,0.000578994481911476,-3.02583380969942e-06,-0.000217632021202722
3.42028502375198,3.99310374639587e-05,0.000648218360846021,-0.000328682222974989,0.00057899444185221,-3.0258736889815e-06,-0.000217632060706851
3.43028585715476,3.99309976809771e-05,0.000648218320703236,-0.000328682263308035,0.000578994401510171,-3.0259138497664e-06,-0.000217632100489833
3.44028669055755,3.99309575852234e-05,0.000648218280244853,-0.000328682303958177,0.000578994360850964,-3.02595432629552e-06,-0.000217632140585586
3.45028752396033,3.99309171448706e-05,0.000648218239438757,-0.000328682344957681,0.000578994319842315,-3.02599515069795e-06,-0.000217632181025939
3.46028835736311,3.99308763303466e-05,0.000648218198255109,-0.000328682386336528,0.000578994278454235,-3.02603635282678e-06,-0.000217632221840463
3.4702891907659,3.9930835114481e-05,0.000648218156666492,-0.000328682428122265,0.000578994236659173,-3.02607796011057e-06,-0.000217632263056329
3.48029002416868,3.99307934726359e-05,0.000648218114648046,-0.00032868247033987,0.000578994194432144,-3.02611999742105e-06,-0.000217632304698174
3.49029085757146,3.99307513828211e-05,0.000648218072177581,-0.000328682513011636,0.000578994151750849,-3.02616248695738e-06,-0.000217632346787989
3.50029169097425,3.99307088257912e-05,0.000648218029235679,-0.000328682556157077,0.000578994108595772,-3.02620544814773e-06,-0.000217632389345019
3.51029252437703,3.99306657851257e-05,0.00064821798580577,-0.000328682599792839,0.000578994064950262,-3.02624889756869e-06,-0.000217632432385684
3.52029335777981,3.99306222472904e-05,0.000648217941874199,-0.000328682643932643,0.000578994020800595,-3.02629284888289e-06,-0.000217632475923519
3.5302941911826,3.99305782016815e-05,0.000648217897430264,-0.00032868268858724,0.000578993976136017,-3.02633731279507e-06,-0.000217632519969128
3.54029502458538,3.99305336406497e-05,0.000648217852466248,-0.000328682733764384,0.000578993930948773,-3.02638229702702e-06,-0.00021763256453016
3.55029585798817,3.9930488559507e-05,0.000648217806977421,-0.00032868277946883,0.000578993885234107,-3.02642780631132e-06,-0.000217632609611303
3.56029669139095,3.99304429565143e-05,0.000648217760962027,-0.000328682825702339,0.000578993838990256,-3.02647384240386e-06,-0.000217632655214296
3.57029752479373,3.99303968328496e-05,0.000648217714421256,-0.000328682872463717,0.000578993792218416,-3.0265204041152e-06,-0.00021763270133796
3.58029835819652,3.99303501925599e-05,0.000648217667359191,-0.000328682919748862,0.000578993744922689,-3.02656748736019e-06,-0.00021763274797825
3.5902991915993,3.99303030424932e-05,0.000648217619782742,-0.000328682967550831,0.00057899369711002,-3.02661508522571e-06,-0.000217632795128317
3.60030002500208,3.99302553922146e-05,0.000648217571701561,-0.000328683015859926,0.000578993648790109,-3.02666318805582e-06,-0.000217632842778595
3.61030085840487,3.99302072539054e-05,0.000648217523127939,-0.000328683064663798,0.000578993599975308,-3.02671178355374e-06,-0.000217632890916904
3.62030169180765,3.99301586422458e-05,0.00064821747407669,-0.000328683113947563,0.000578993550680503,-3.02676085689979e-06,-0.000217632939528564
3.63030252521043,3.99301095742835e-05,0.000648217424565014,-0.000328683163693938,0.000578993500922981,-3.02681039088436e-06,-0.000217632988596526
3.64030335861322,3.99300600692881e-05,0.000648217374612357,-0.000328683213883387,0.000578993450722284,-3.02686036605491e-06,-0.000217633038101522
3.650304192016,3.99300101485927e-05,0.000648217324240244,-0.000328683264494281,0.000578993400100044,-3.02691076087576e-06,-0.000217633088022217
3.66030502541878,3.99299598354242e-05,0.000648217273472113,-0.000328683315503074,0.000578993349079814,-3.02696155189945e-06,-0.000217633138335386
3.67030585882157,3.99299091547234e-05,0.000648217222333129,-0.000328683366884478,0.000578993297686885,-3.02701271394833e-06,-0.000217633189016086
3.68030669222435,3.99298581329566e-05,0.000648217170849998,-0.000328683418611663,0.000578993245948096,-3.02706422030481e-06,-0.000217633240037853
3.69030752562714,3.99298067979196e-05,0.000648217119050767,-0.000328683470656447,0.000578993193891633,-3.02711604290902e-06,-0.00021763329137289
3.70030835902992,3.99297551785367e-05,0.000648217066964623,-0.000328683522989507,0.000578993141546827,-3.02716815256209e-06,-0.000217633342992273
3.7103091924327,3.99297033046548e-05,0.000648217014621682,-0.000328683575580583,0.000578993088943944,-3.02722051913365e-06,-0.000217633394866155
3.72031002583549,3.99296512068354e-05,0.000648216962052782,-0.00032868362839869,0.000578993036113976,-3.02727311177181e-06,-0.000217633446963974
3.73031085923827,3.99295989161459e-05,0.000648216909289272,-0.000328683681412333,0.000578992983088426,-3.02732589911426e-06,-0.000217633499254664
3.74031169264105,3.99295464639508e-05,0.000648216856362799,-0.000328683734589712,0.000578992929899099,-3.02737884949866e-06,-0.000217633551706859
3.75031252604384,3.99294938817052e-05,0.000648216803305103,-0.000328683787898939,0.000578992876577892,-3.02743193117094e-06,-0.000217633604289105
3.76031335944662,3.99294412007526e-05,0.000648216750147811,-0.000328683841308235,0.000578992823156591,-3.02748511249008e-06,-0.000217633656970057
3.7703141928494,3.99293884521266e-05,0.000648216696922237,-0.000328683894786138,0.000578992769666663,-3.02753836212773e-06,-0.000217633709718683
3.78031502625219,3.99293356663595e-05,0.000648216643659189,-0.000328683948301695,0.000578992716139072,-3.02759164926159e-06,-0.00021763376250445
3.79031585965497,3.99292828732983e-05,0.000648216590388786,-0.000328684001824644,0.000578992662604082,-3.02764494376109e-06,-0.000217633815297512
3.80031669305775,3.99292301019297e-05,0.000648216537140274,-0.0003286840553256,0.000578992609091089,-3.02769821636422e-06,-0.00021763386806888
3.81031752646054,3.99291773802145e-05,0.000648216483941868,-0.000328684108776214,0.000578992555628445,-3.02775143884467e-06,-0.000217633920790595
3.82031835986332,3.99291247349328e-05,0.000648216430820591,-0.000328684162149336,0.000578992502243309,-3.02780458416796e-06,-0.000217633973435877
3.83031919326611,3.99290721915408e-05,0.000648216377802127,-0.000328684215419157,0.000578992448961492,-3.02785762663611e-06,-0.000217634025979269
3.84032002666889,3.99290197740397e-05,0.000648216324910696,-0.000328684268561346,0.000578992395807334,-3.02791054201983e-06,-0.00021763407839677
3.85032086007167,3.99289675048578e-05,0.000648216272168929,-0.000328684321553163,0.000578992342803579,-3.02796330767785e-06,-0.000217634130665952
3.86032169347446,3.99289154047454e-05,0.000648216219597764,-0.000328684374373572,0.000578992289971268,-3.0280159026628e-06,-0.000217634182766065
3.87032252687724,3.99288634926834e-05,0.000648216167216352,-0.000328684427003329,0.000578992237329649,-3.02806830781335e-06,-0.000217634234678126
3.88032336028002,3.99288117858063e-05,0.000648216115041984,-0.000328684479425062,0.000578992184896097,-3.02812050583237e-06,-0.000217634286385004
3.89032419368281,3.99287602993384e-05,0.000648216063090022,-0.000328684531623338,0.000578992132686051,-3.02817248135093e-06,-0.000217634337871472
3.90032502708559,3.99287090465444e-05,0.000648216011373849,-0.000328684583584707,0.000578992080712961,-3.02822422097824e-06,-0.000217634389124266
3.91032586048837,3.99286580386939e-05,0.000648215959904838,-0.000328684635297745,0.000578992028988256,-3.0282757133376e-06,-0.000217634440132116
3.92032669389116,3.99286072850397e-05,0.000648215908692324,-0.00032868468675307,0.000578991977521319,-3.02832694908841e-06,-0.00021763449088577
3.93032752729394,3.99285567928088e-05,0.000648215857743601,-0.000328684737943356,0.000578991926319478,-3.02837792093482e-06,-0.000217634541378001
3.94032836069672,3.99285065672078e-05,0.000648215807063921,-0.000328684788863325,0.000578991875388012,-3.02842862362106e-06,-0.000217634591603602
3.95032919409951,3.9928456611439e-05,0.000648215756656517,-0.000328684839509729,0.00057899182473017,-3.02847905391411e-06,-0.000217634641559371
3.96033002750229,3.99284069267306e-05,0.000648215706522627,-0.000328684889881324,0.000578991774347197,-3.02852921057421e-06,-0.000217634691244079
3.97033086090508,3.99283575123769e-05,0.000648215656661539,-0.000328684939978825,0.000578991724238376,-3.0285790943136e-06,-0.000217634740658433
3.98033169430786,3.99283083657906e-05,0.000648215607070642,-0.000328684989804856,0.000578991674401085,-3.02862870774441e-06,-0.000217634789805019
3.99033252771064,3.99282594825639e-05,0.000648215557745489,-0.000328685039363884,0.000578991624830854,-3.02867805531604e-06,-0.000217634838688246
4.00033336111343,3.99282108565408e-05,0.000648215508679868,-0.000328685088662151,0.00057899157552144,-3.028727143243e-06,-0.000217634887314269
4.01033419451621,3.99281624798971e-05,0.000648215459865885,-0.000328685137707589,0.000578991526464909,-3.0287759794238e-06,-0.000217634935690913
4.02033502791899,3.9928114343229e-05,0.000648215411294049,-0.000328685186509733,0.000578991477651725,-3.02882457335168e-06,-0.000217634983827581
4.03033586132178,3.99280664356484e-05,0.000648215362953375,-0.000328685235079621,0.000578991429070847,-3.02887293601796e-06,-0.000217635031735161
4.04033669472456,3.99280187448857e-05,0.000648215314831483,-0.000328685283429691,0.000578991380709832,-3.02892107980881e-06,-0.000217635079425924
4.05033752812734,3.99279712573977e-05,0.000648215266914706,-0.000328685331573675,0.000578991332554949,-3.02896901839616e-06,-0.000217635126913412
4.06033836153013,3.99279239584803e-05,0.000648215219188207,-0.000328685379526481,0.000578991284591285,-3.02901676662367e-06,-0.00021763517421233
4.07033919493291,3.9927876832386e-05,0.000648215171636097,-0.000328685427304072,0.000578991236802871,-3.02906434038842e-06,-0.000217635221338424
4.08034002833569,3.99278298624445e-05,0.000648215124241554,-0.00032868547492335,0.000578991189172804,-3.02911175651916e-06,-0.000217635268308365
4.09034086173848,3.99277830311857e-05,0.000648215076986951,-0.000328685522402027,0.000578991141683368,-3.02915903265193e-06,-0.000217635315139624
4.10034169514126,3.99277363204647e-05,0.000648215029853979,-0.000328685569758498,0.000578991094316163,-3.02920618710375e-06,-0.000217635361850345
4.11034252854405,3.99276897115888e-05,0.000648214982823775,-0.000328685617011714,0.000578991047052232,-3.02925323874515e-06,-0.000217635408459221
4.12034336194683,3.99276431854434e-05,0.000648214935877053,-0.000328685664181055,0.000578990999872194,-3.0293002068723e-06,-0.000217635454985367
4.13034419534961,3.99275967226185e-05,0.000648214888994227,-0.000328685711286198,0.000578990952756366,-3.02934711107939e-06,-0.000217635501448191
4.1403450287524,3.99275503035346e-05,0.00064821484215554,-0.000328685758346994,0.000578990905684891,-3.02939397113201e-06,-0.000217635547867275
4.15034586215518,3.99275039085661e-05,0.00064821479534119,-0.00032868580538334,0.000578990858637871,-3.02944080684221e-06,-0.000217635594262244
4.16034669555796,3.99274575181629e-05,0.000648214748531449,-0.000328685852415056,0.000578990811595478,-3.0294876379458e-06,-0.000217635640652647
4.17034752896075,3.99274111129692e-05,0.000648214701706787,-0.000328685899461765,0.000578990764538086,-3.02953448398257e-06,-0.000217635687057841
4.18034836236353,3.99273646739381e-05,0.000648214654847986,-0.000328685946542778,0.00057899071744638,-3.0295813641801e-06,-0.000217635733496872
4.19034919576631,3.99273181824436e-05,0.000648214607936249,-0.000328685993676978,0.000578990670301472,-3.02962829734156e-06,-0.000217635779988366
4.2003500291691,3.99272716203864e-05,0.000648214560953316,-0.000328686040882715,0.000578990623085008,-3.02967530173819e-06,-0.000217635826550423
4.21035086257188,3.99272249702954e-05,0.000648214513881556,-0.000328686088177701,0.000578990575779272,-3.02972239500694e-06,-0.000217635873200514
4.22035169597466,3.9927178215424e-05,0.000648214466704071,-0.000328686135578915,0.000578990528367283,-3.02976959405363e-06,-0.000217635919955386
4.23035252937745,3.99271313398395e-05,0.000648214419404785,-0.000328686183102508,0.000578990480832882,-3.02981691496229e-06,-0.00021763596683097
4.24035336278023,3.99270843285067e-05,0.000648214371968528,-0.000328686230763725,0.000578990433160824,-3.02986437291091e-06,-0.000217636013842303
4.25035419618302,3.99270371673647e-05,0.00064821432438111,-0.000328686278576821,0.00057899038533685,-3.0299119820941e-06,-0.000217636061003445
4.2603550295858,3.99269898433961e-05,0.000648214276629397,-0.000328686326554992,0.00057899033734776,-3.02995975565284e-06,-0.000217636108327414
4.27035586298858,3.99269423446894e-05,0.000648214228701369,-0.000328686374710316,0.000578990289181475,-3.03000770561189e-06,-0.00021763615582612
4.28035669639137,3.99268946604932e-05,0.000648214180586179,-0.000328686423053692,0.000578990240827092,-3.03005584282481e-06,-0.000217636203510317
4.29035752979415,3.99268467812627e-05,0.000648214132274195,-0.000328686471594796,0.000578990192274932,-3.03010417692702e-06,-0.000217636251389547
4.30035836319693,3.99267986986983e-05,0.000648214083757042,-0.000328686520342044,0.00057899014351658,-3.03015271629701e-06,-0.000217636299472111
4.31035919659972,3.99267504057758e-05,0.000648214035027633,-0.000328686569302556,0.000578990094544912,-3.03020146802577e-06,-0.000217636347765034
4.3203600300025,3.99267018967683e-05,0.00064821398608019,-0.000328686618482139,0.000578990045354121,-3.03025043789462e-06,-0.000217636396274041
4.33036086340528,3.99266531672599e-05,0.000648213936910256,-0.000328686667885269,0.000578989995939728,-3.0302996303614e-06,-0.00021763644500355
4.34036169680807,3.99266042141512e-05,0.000648213887514703,-0.000328686717515089,0.000578989946298592,-3.03034904855498e-06,-0.000217636493956659
4.35036253021085,3.99265550356565e-05,0.000648213837891731,-0.000328686767373409,0.0005789898964289,-3.03039869427811e-06,-0.000217636543135153
4.36036336361363,3.99265056312927e-05,0.000648213788040852,-0.000328686817460718,0.000578989846330164,-3.0304485680184e-06,-0.000217636592539517
4.37036419701642,3.99264560018608e-05,0.000648213737962874,-0.000328686867776206,0.000578989796003195,-3.0304986689673e-06,-0.000217636642168949
4.3803650304192,3.99264061494192e-05,0.000648213687659874,-0.000328686918317784,0.000578989745450081,-3.03054899504687e-06,-0.000217636692021391
4.39036586382199,3.99263560772498e-05,0.000648213637135164,-0.000328686969082126,0.000578989694674149,-3.03059954294403e-06,-0.00021763674209356
4.40036669722477,3.9926305789817e-05,0.000648213586393248,-0.000328687020064705,0.000578989643679928,-3.03065030815205e-06,-0.000217636792380993
4.41036753062755,3.99262552927198e-05,0.000648213535439776,-0.000328687071259845,0.000578989592473094,-3.03070128501879e-06,-0.00021763684287809
4.42036836403034,3.99262045926374e-05,0.000648213484281489,-0.000328687122660775,0.00057898954106042,-3.03075246680145e-06,-0.000217636893578172
4.43036919743312,3.99261536972695e-05,0.000648213432926153,-0.000328687174259688,0.000578989489449715,-3.03080384572728e-06,-0.00021763694447354
4.4403700308359,3.99261026152705e-05,0.000648213381382504,-0.00032868722604781,0.000578989437649755,-3.03085541305975e-06,-0.000217636995555539
4.45037086423869,3.99260513561787e-05,0.000648213329660165,-0.000328687278015472,0.000578989385670212,-3.03090715916982e-06,-0.000217637046814631
4.46037169764147,3.99259999303418e-05,0.000648213277769577,-0.000328687330152181,0.000578989333521578,-3.03095907361149e-06,-0.000217637098240468
4.47037253104425,3.9925948348838e-05,0.000648213225721919,-0.000328687382446708,0.000578989281215089,-3.03101114520146e-06,-0.000217637149821972
4.48037336444704,3.99258966233936e-05,0.000648213173529023,-0.000328687434887163,0.000578989228762635,-3.03106336210186e-06,-0.000217637201547416
4.49037419784982,3.99258447662988e-05,0.00064821312120329,-0.000328687487461087,0.000578989176176678,-3.03111571190585e-06,-0.000217637253404511
4.5003750312526,3.99257927903205e-05,0.000648213068757603,-0.000328687540155536,0.000578989123470166,-3.03116818172523e-06,-0.000217637305380489
4.51037586465539,3.99257407086142e-05,0.000648213016205236,-0.000328687592957173,0.000578989070656439,-3.03122075827949e-06,-0.000217637357462196
4.52037669805817,3.99256885346349e-05,0.000648212963559766,-0.000328687645852357,0.00057898901774914,-3.03127342798574e-06,-0.000217637409636175
4.53037753146095,3.9925636282048e-05,0.000648212910834981,-0.000328687698827233,0.000578988964762128,-3.03132617704889e-06,-0.000217637461888762
4.54037836486374,3.99255839646399e-05,0.000648212858044793,-0.000328687751867825,0.000578988911709382,-3.03137899155141e-06,-0.00021763751420617
4.55037919826652,3.99255315962305e-05,0.000648212805203146,-0.000328687804960121,0.000578988858604917,-3.03143185754213e-06,-0.000217637566574579
4.56038003166931,3.99254791905866e-05,0.000648212752323932,-0.000328687858090164,0.000578988805462693,-3.03148476112351e-06,-0.000217637618980223
4.57038086507209,3.99254267613374e-05,0.000648212699420902,-0.000328687911244138,0.00057898875229653,-3.03153768853679e-06,-0.000217637671409472
4.58038169847487,3.9925374321893e-05,0.000648212646507589,-0.000328687964408446,0.000578988699120028,-3.03159062624456e-06,-0.000217637723848917
4.59038253187766,3.99253218853653e-05,0.000648212593597222,-0.000328688017569795,0.000578988645946482,-3.03164356101018e-06,-0.000217637776285445
4.60038336528044,3.99252694644933e-05,0.000648212540702656,-0.00032868807071527,0.00057898859278881,-3.03169647997363e-06,-0.000217637828706317
4.61038419868322,3.99252170715719e-05,0.000648212487836297,-0.000328688123832407,0.000578988539659481,-3.03174937072335e-06,-0.000217637881099238
4.62038503208601,3.99251647183846e-05,0.000648212435010034,-0.000328688176909258,0.000578988486570443,-3.03180222136371e-06,-0.000217637933452425
4.63038586548879,3.99251124161419e-05,0.00064821238223518,-0.000328688229934459,0.000578988433533064,-3.03185502057773e-06,-0.000217637985754668
4.64038669889157,3.9925060175424e-05,0.00064821232952241,-0.000328688282897283,0.000578988380558074,-3.03190775768474e-06,-0.000217638037995386
4.65038753229436,3.99250080061286e-05,0.000648212276881711,-0.000328688335787696,0.000578988327655509,-3.03196042269278e-06,-0.000217638090164681
4.66038836569714,3.99249559174253e-05,0.000648212224322336,-0.000328688388596401,0.000578988274834668,-3.03201300634544e-06,-0.000217638142253385
4.67038919909993,3.99249039177137e-05,0.000648212171852761,-0.000328688441314882,0.000578988222104067,-3.03206550016299e-06,-0.000217638194253096
4.68039003250271,3.99248520145895e-05,0.000648212119480649,-0.000328688493935439,0.000578988169471411,-3.03211789647775e-06,-0.00021763824615622
4.69039086590549,3.99248002148146e-05,0.000648212067212824,-0.000328688546451216,0.000578988116943555,-3.03217018846346e-06,-0.000217638297955995
4.70039169930828,3.99247485242942e-05,0.000648212015055244,-0.000328688598856227,0.000578988064526488,-3.03222237015876e-06,-0.000217638349646516
4.71039253271106,3.99246969480596e-05,0.000648211963012986,-0.000328688651145371,0.000578988012225312,-3.03227443648467e-06,-0.00021763840122275
4.72039336611384,3.99246454902564e-05,0.000648211911090233,-0.000328688703314445,0.000578987960044231,-3.03232638325613e-06,-0.000217638452680553
4.73039419951663,3.99245941541391e-05,0.000648211859290269,-0.000328688755360149,0.000578987907986545,-3.03237820718772e-06,-0.000217638504016671
4.74039503291941,3.9924542942071e-05,0.000648211807615478,-0.000328688807280088,0.00057898785605465,-3.03242990589362e-06,-0.000217638555228739
4.75039586632219,3.99244918555299e-05,0.000648211756067352,-0.000328688859072762,0.000578987804250046,-3.03248147788197e-06,-0.00021763860631528
4.76039669972498,3.99244408951191e-05,0.000648211704646499,-0.000328688910737562,0.000578987752573343,-3.03253292254379e-06,-0.000217638657275691
4.77039753312776,3.99243900605833e-05,0.000648211653352663,-0.000328688962274744,0.000578987701024284,-3.03258424013666e-06,-0.000217638708110227
4.78039836653054,3.99243393508302e-05,0.000648211602184739,-0.000328689013685418,0.00057898764960176,-3.03263543176351e-06,-0.00021763875881998
4.79039919993333,3.99242887639554e-05,0.000648211551140808,-0.000328689064971513,0.00057898759830384,-3.03268649934653e-06,-0.000217638809406854
4.80040003333611,3.99242382972736e-05,0.000648211500218159,-0.000328689116135753,0.000578987547127801,-3.03273744559671e-06,-0.000217638859873536
4.8104008667389,3.99241879473522e-05,0.000648211449413328,-0.000328689167181616,0.000578987496070163,-3.03278827397922e-06,-0.000217638910223458
4.82040170014168,3.99241377100498e-05,0.000648211398722138,-0.000328689218113302,0.000578987445126726,-3.03283898867486e-06,-0.00021763896046076
4.83040253354446,3.99240875805575e-05,0.000648211348139735,-0.000328689268935686,0.000578987394292612,-3.03288959453811e-06,-0.000217639010590252
4.84040336694725,3.9924037553444e-05,0.000648211297660639,-0.000328689319654274,0.000578987343562316,-3.03294009705188e-06,-0.000217639060617366
4.85040420035003,3.99239876227032e-05,0.00064821124727879,-0.000328689370275156,0.000578987292929745,-3.03299050227947e-06,-0.000217639110548107
4.86040503375281,3.99239377818038e-05,0.000648211196987598,-0.000328689420804953,0.000578987242388278,-3.03304081681407e-06,-0.000217639160389006
4.8704058671556,3.99238880237421e-05,0.000648211146779995,-0.000328689471250766,0.000578987191930811,-3.03309104772609e-06,-0.000217639210147068
4.88040670055838,3.99238383410953e-05,0.000648211096648491,-0.00032868952162012,0.000578987141549818,-3.03314120250875e-06,-0.000217639259829715
4.89040753396116,3.99237887260771e-05,0.000648211046585231,-0.000328689571920909,0.000578987091237403,-3.0331912890223e-06,-0.000217639309444733
4.90040836736395,3.99237391705941e-05,0.000648210996582047,-0.000328689622161338,0.000578987040985359,-3.03324131543715e-06,-0.000217639359000216
4.91040920076673,3.99236896663025e-05,0.00064821094663052,-0.000328689672349867,0.000578986990785225,-3.03329129017638e-06,-0.000217639408504507
4.92041003416951,3.99236402046655e-05,0.000648210896722037,-0.000328689722495149,0.000578986940628344,-3.03334122185789e-06,-0.000217639457966144
4.9304108675723,3.99235907770106e-05,0.000648210846847846,-0.000328689772605979,0.000578986890505921,-3.03339111923657e-06,-0.000217639507393799
4.94041170097508,3.99235413745865e-05,0.000648210796999117,-0.000328689822691227,0.000578986840409082,-3.03344099114691e-06,-0.000217639556796223
4.95041253437786,3.99234919886193e-05,0.000648210747166997,-0.000328689872759789,0.000578986790328931,-3.03349084644621e-06,-0.000217639606182191
4.96041336778065,3.99234426103676e-05,0.000648210697342665,-0.000328689922820527,0.000578986740256602,-3.03354069395886e-06,-0.000217639655560442
4.97041420118343,3.99233932311766e-05,0.000648210647517389,-0.000328689972882216,0.00057898669018332,-3.03359054242194e-06,-0.000217639704939633
4.98041503458622,3.99233438425303e-05,0.000648210597682576,-0.000328690022953489,0.000578986640100448,-3.03364040043246e-06,-0.00021763975432828
4.990415867989,3.99232944361018e-05,0.000648210547829823,-0.000328690073042789,0.000578986589999543,-3.03369027639643e-06,-0.000217639803734708
5.00041670139178,3.99232450038015e-05,0.000648210497950968,-0.000328690123158316,0.000578986539872401,-3.03374017848019e-06,-0.000217639853167008
5.01041753479457,3.99231866159302e-05,0.000648210439035645,-0.000328690182353191,0.000578986480663803,-3.03379912124776e-06,-0.00021763991155488
5.02041836819735,3.9923022770528e-05,0.000648210273710142,-0.000328690348463166,0.000578986314515311,-3.03396452378228e-06,-0.000217640075400282
5.03041920160013,3.9923086594677e-05,0.000648210338110844,-0.00032869028375688,0.000578986379236604,-3.03390009306722e-06,-0.000217640011576133
5.04042003500292,3.99231651675949e-05,0.000648210417393542,-0.00032869020409798,0.000578986458913985,-3.03382077341148e-06,-0.000217639933003215
5.0504208684057,3.99232450980154e-05,0.000648210498045999,-0.000328690123062817,0.000578986539967951,-3.03374008334786e-06,-0.000217639853072795
5.06042170180848,3.99233220355223e-05,0.000648210575678501,-0.000328690045061937,0.000578986617986936,-3.03366241463797e-06,-0.000217639776135288
5.07042253521127,3.99233949554666e-05,0.000648210649257144,-0.000328689971134149,0.000578986691931888,-3.03358880166942e-06,-0.000217639703215343
5.08042336861405,3.99234624472347e-05,0.000648210717358571,-0.000328689902709565,0.000578986760372363,-3.03352066846256e-06,-0.000217639635723575
5.09042420201683,3.99235227234491e-05,0.000648210778179262,-0.000328689841600263,0.000578986821495859,-3.03345981938264e-06,-0.000217639575447361
5.10042503541962,3.99235735155625e-05,0.000648210829430179,-0.000328689790106146,0.000578986873001941,-3.03340854453813e-06,-0.000217639524655247
5.1104258688224,3.99236119970357e-05,0.00064821086825925,-0.000328689751092817,0.000578986912024338,-3.03336969733299e-06,-0.000217639486173774
5.12042670222519,3.99236347542472e-05,0.000648210891222024,-0.000328689728021077,0.000578986935101441,-3.03334672383348e-06,-0.000217639463416563
5.13042753562797,3.99236378073824e-05,0.000648210894302737,-0.000328689724925745,0.000578986938197494,-3.0333436416807e-06,-0.000217639460363428
5.14042836903075,3.99236166857948e-05,0.000648210872990365,-0.000328689746339253,0.000578986916779004,-3.03336496401332e-06,-0.000217639481485015
5.15042920243354,3.99235665621834e-05,0.000648210822414008,-0.00032868979715562,0.000578986865950814,-3.03341556401461e-06,-0.000217639531608627
5.16043003583632,3.9923482448348e-05,0.000648210737540412,-0.000328689882431985,0.000578986780654604,-3.03350047729705e-06,-0.000217639615722462
5.1704308692391,3.99233594518153e-05,0.000648210613432918,-0.000328690007128437,0.000578986655929126,-3.0336246428369e-06,-0.000217639738718995
5.18043170264189,3.9923193086908e-05,0.000648210445565338,-0.000328690175792647,0.000578986487225646,-3.03379258894862e-06,-0.000217639905083902
5.19043253604467,3.99229796258693e-05,0.000648210230176249,-0.00032869039220389,0.000578986270764004,-3.03400807882292e-06,-0.000217640118544941
5.20043336944745,3.99227164661268e-05,0.000648209964639579,-0.000328690659000704,0.000578986003905043,-3.03427373977182e-06,-0.000217640381704683
5.21043420285024,3.99224024801615e-05,0.00064820964781763,-0.00032869097732619,0.000578985685505391,-3.03459071003466e-06,-0.000217640695690648
5.22043503625302,3.9922038307004e-05,0.000648209280355209,-0.000328691346532482,0.00057898531621306,-3.03495834451022e-06,-0.000217641059863806
5.23043586965581,3.99216265418149e-05,0.000648208864870924,-0.000328691763988549,0.000578984898659689,-3.03537402337513e-06,-0.000217641471628995
5.24043670305859,3.99211717846959e-05,0.000648208406006429,-0.000328692225030712,0.000578984437510042,-3.03583310280778e-06,-0.000217641926386114
5.25043753646137,3.99206805230149e-05,0.00064820791030769,-0.000328692723081941,0.000578983939342679,-3.03632903378211e-06,-0.000217642417647795
5.26043836986416,3.99201608421963e-05,0.000648207385933162,-0.000328693249945064,0.00057898341235668,-3.03685365402563e-06,-0.000217642937328614
5.27043920326694,3.99196219848851e-05,0.00064820684220897,-0.000328693796249696,0.000578982865924613,-3.03739763304543e-06,-0.000217643476185925
5.28044003666972,3.991907380251e-05,0.000648206289075521,-0.000328694352008256,0.00057898231003639,-3.03795102577797e-06,-0.0002176440243683
5.29044087007251,3.99185261609185e-05,0.000648205736487769,-0.000328694907218545,0.000578981754696543,-3.03850387260287e-06,-0.000217644572009892
5.30044170347529,3.99179883685453e-05,0.000648205193838221,-0.00032869545244348,0.000578981209344357,-3.03904677661013e-06,-0.000217645109802265
5.31044253687807,3.9917468689829e-05,0.000648204669465954,-0.000328695979304405,0.000578980682360444,-3.03957139480829e-06,-0.000217645629480981
5.32044337028086,3.99169739899625e-05,0.000648204170298165,-0.000328696480841248,0.000578980180706503,-3.04007079675075e-06,-0.000217646124180848
5.33044420368364,3.99165095338954e-05,0.00064820370164735,-0.000328696951716296,0.000578979709721496,-3.04053966744355e-06,-0.000217646588636915
5.34044503708642,3.99160789383823e-05,0.000648203267162926,-0.000328697388262812,0.000578979273073018,-3.04097435575357e-06,-0.000217647019232428
5.35044587048921,3.99156842558227e-05,0.000648202868915825,-0.000328697788400031,0.000578978872842321,-3.04137278977161e-06,-0.000217647413914987
5.36044670389199,3.99153261558654e-05,0.00064820250758174,-0.000328698151449053,0.000578978509708469,-3.04173429348198e-06,-0.000217647772014945
5.37044753729477,3.99150041660929e-05,0.000648202182683983,-0.000328698477888826,0.000578978183192405,-3.04205934379029e-06,-0.000217648094004717
5.38044837069756,3.99147169354142e-05,0.000648201892859257,-0.000328698769089115,0.000578977891924046,-3.04234930462771e-06,-0.000217648381235396
5.39044920410034,3.99144624907519e-05,0.000648201636116662,-0.000328699027050267,0.00057897763390258,-3.04260616782373e-06,-0.000217648635680058
5.40045003750313,3.99142384666484e-05,0.000648201410069373,-0.000328699254170434,0.000578977406729299,-3.04283232131789e-06,-0.000217648859704162
5.41045087090591,3.99140422963843e-05,0.000648201212127487,-0.000328699453051809,0.000578977207801402,-3.04303035622465e-06,-0.000217649055874426
5.42045170430869,3.99138713607253e-05,0.000648201039648112,-0.000328699626349826,0.000578977034462839,-3.04320291667279e-06,-0.000217649226810085
5.43045253771148,3.99137230958701e-05,0.000648200890044291,-0.000328699776663721,0.000578976884113767,-3.04335259083137e-06,-0.00021764937507494
5.44045337111426,3.99135950655424e-05,0.000648200760857741,-0.00032869990646344,0.000578976754283665,-3.04348183813261e-06,-0.000217649503105268
5.45045420451704,3.99134850037814e-05,0.000648200649802038,-0.000328700018046261,0.000578976642674718,-3.04359294607437e-06,-0.000217649613167029
5.46045503791983,3.99133908353092e-05,0.000648200554783158,-0.000328700113516144,0.000578976547182476,-3.04368800965954e-06,-0.000217649707335501
5.47045587132261,3.99133106798479e-05,0.000648200473903842,-0.000328700194779353,0.000578976465900231,-3.04376892703768e-06,-0.000217649787490962
5.48045670472539,3.99132428458146e-05,0.000648200405457229,-0.00032870026355085,0.00057897639711262,-3.04383740586969e-06,-0.000217649855324995
5.49045753812818,3.99131858177096e-05,0.000648200347914132,-0.000328700321367079,0.000578976339282841,-3.04389497605997e-06,-0.0002176499123531
5.50045837153096,3.99131382404115e-05,0.000648200299907191,-0.00032870036960189,0.000578976291036722,-3.0439430056101e-06,-0.000217649959930398
5.51045920493374,3.99130989026138e-05,0.000648200260214159,-0.000328700409483331,0.00057897625114593,-3.04398271734022e-06,-0.000217649999268196
5.52046003833653,3.99130667208164e-05,0.000648200227741751,-0.000328700442109875,0.000578976218511734,-3.04401520504886e-06,-0.000217650031449993
5.53046087173931,3.99130407246529e-05,0.000648200201510836,-0.0003287004684653,0.000578976192150126,-3.04404144832599e-06,-0.000217650057446157
5.5404617051421,3.99130200438631e-05,0.000648200180643296,-0.000328700489431893,0.000578976171178612,-3.04406232570364e-06,-0.000217650078126947
5.55046253854488,3.99130038969133e-05,0.000648200164350538,-0.000328700505801989,0.000578976154804674,-3.04407862614424e-06,-0.000217650094273897
5.56046337194766,3.99129915810772e-05,0.00064820015192349,-0.000328700518288026,0.000578976142315705,-3.04409105905376e-06,-0.000217650106589733
5.57046420535045,3.9912982463708e-05,0.000648200142723792,-0.000328700527531394,0.000578976133070166,-3.04410026309233e-06,-0.000217650115707102
5.58046503875323,3.99129759744201e-05,0.000648200136175907,-0.000328700534110361,0.000578976126489654,-3.0441068140675e-06,-0.00021765012219639
5.59046587215601,3.9912971597932e-05,0.0006482001317599,-0.00032870053854733,0.000578976122051642,-3.04411123215877e-06,-0.000217650126572878
5.6004667055588,3.99129688673896e-05,0.000648200129004701,-0.000328700541315607,0.000578976119282714,-3.04411398865803e-06,-0.00021765012930342
5.61046753896158,3.99129673580591e-05,0.000648200127481742,-0.000328700542845796,0.000578976117752165,-3.04411551233648e-06,-0.000217650130812751
5.62046837236436,3.99129666813522e-05,0.000648200126798925,-0.000328700543531855,0.000578976117065946,-3.04411619547627e-06,-0.000217650131489458
5.63046920576715,3.99129664792076e-05,0.000648200126594955,-0.000328700543736793,0.000578976116860959,-3.04411639954257e-06,-0.000217650131691602
5.64047003916993,3.99129664188991e-05,0.000648200126534102,-0.000328700543797935,0.000578976116799803,-3.04411646042441e-06,-0.000217650131751911
5.65047087257271,3.99129661883744e-05,0.000648200126301496,-0.000328700544031645,0.000578976116566037,-3.04411669314056e-06,-0.000217650131982436
5.6604717059755,3.99129654922416e-05,0.000648200125599078,-0.000328700544737398,0.000578976115860118,-3.0441173958911e-06,-0.000217650132678568
5.67047253937828,3.99129640485237e-05,0.000648200124142324,-0.000328700546201067,0.000578976114396105,-3.0441188533336e-06,-0.000217650134122286
5.68047337278106,3.99129615862906e-05,0.000648200121657859,-0.000328700548697326,0.000578976111899257,-3.044121338974e-06,-0.000217650136584519
5.69047420618385,3.99129578442551e-05,0.000648200117882037,-0.000328700552491074,0.000578976108104616,-3.04412511658337e-06,-0.000217650140326555
5.70047503958663,3.99129525703934e-05,0.000648200112560557,-0.000328700557837816,0.000578976102756614,-3.0441304405817e-06,-0.000217650145600416
5.71047587298942,3.99129455226091e-05,0.000648200105449139,-0.000328700564982994,0.000578976095609751,-3.04413755536694e-06,-0.000217650152648201
5.7204767063922,3.99129364704227e-05,0.000648200096315222,-0.000328700574160274,0.000578976086430308,-3.04414669360991e-06,-0.000217650161700387
5.73047753979498,3.99129251976177e-05,0.000648200084940638,-0.000328700585588859,0.000578976074999028,-3.04415807358279e-06,-0.000217650172973192
5.74047837319777,3.99129115057283e-05,0.000648200071125129,-0.000328700599469956,0.000578976061114656,-3.04417189563837e-06,-0.000217650186665082
5.75047920660055,3.99128952182022e-05,0.000648200054690549,-0.00032870061598256,0.000578976044598156,-3.04418833800774e-06,-0.000217650202952608
5.76048004000333,3.99128761850242e-05,0.000648200035485529,-0.000328700635278756,0.000578976025297405,-3.04420755213251e-06,-0.000217650221985786
5.77048087340612,3.9912854287544e-05,0.000648200013390348,-0.000328700657478836,0.000578976003092084,-3.04422965779113e-06,-0.000217650243883266
5.7804817068089,3.99128294432169e-05,0.000648199988321716,-0.000328700682666484,0.000578975977898488,-3.04425473831347e-06,-0.000217650268727593
5.79048254021168,3.99128016099438e-05,0.000648199960237155,-0.000328700710884381,0.000578975949673926,-3.04428283619906e-06,-0.000217650296560866
5.80048337361447,3.99127707896951e-05,0.000648199929138654,-0.000328700742130529,0.000578975918420396,-3.04431394945902e-06,-0.000217650327381115
5.81048420701725,3.99127370311168e-05,0.000648199895075297,-0.00032870077635561,0.000578975884187227,-3.04434802898524e-06,-0.000217650361139693
5.82048504042004,3.99127004308559e-05,0.000648199858144604,-0.00032870081346164,0.000578975847072425,-3.04438497721201e-06,-0.000217650397739954
5.83048587382282,3.99126611334043e-05,0.000648199818492374,-0.000328700853302132,0.000578975807222513,-3.04442464827414e-06,-0.000217650437037406
5.8404867072256,3.99126193293377e-05,0.000648199776310901,-0.000328700895683875,0.000578975764830747,-3.04446684978418e-06,-0.000217650478841472
5.85048754062839,3.99125752519257e-05,0.000648199731835562,-0.000328700940370377,0.000578975720133674,-3.04451134625498e-06,-0.000217650522918884
5.86048837403117,3.99125291721892e-05,0.000648199685339826,-0.000328700987086871,0.000578975673406125,-3.04455786408926e-06,-0.000217650568998621
5.87048920743395,3.99124813925856e-05,0.000648199637128879,-0.000328701035526721,0.000578975624954811,-3.04460609795418e-06,-0.000217650616778224
5.88049004083674,3.99124322395948e-05,0.00064819958753215,-0.000328701085358934,0.000578975575110801,-3.04465571826584e-06,-0.000217650665931215
5.89049087423952,3.99123820555513e-05,0.000648199536895064,-0.000328701136236446,0.000578975524221242,-3.04470637943518e-06,-0.000217650716115259
5.9004917076423,3.99123311901134e-05,0.000648199485570435,-0.000328701187804766,0.000578975472640707,-3.04475772847962e-06,-0.000217650766980696
5.91049254104509,3.99122799917776e-05,0.000648199433909907,-0.000328701239710583,0.000578975420722594,-3.04480941358936e-06,-0.000217650818179032
5.92049337444787,3.99122287998288e-05,0.000648199382255828,-0.000328701291609922,0.000578975368810956,-3.04486109225355e-06,-0.000217650869370981
5.93049420785065,3.99121779370731e-05,0.000648199330933916,-0.000328701343175518,0.000578975317233137,-3.04491243859724e-06,-0.000217650920233737
5.94049504125344,3.99121277036276e-05,0.000648199280246999,-0.000328701394103106,0.000578975266293475,-3.04496314964962e-06,-0.000217650970467182
5.95049587465622,3.99120783719631e-05,0.000648199230470007,-0.00032870144411645,0.000578975216268271,-3.04501295034928e-06,-0.000217651019798847
5.96049670805901,3.99120301832983e-05,0.000648199181846337,-0.000328701492970999,0.000578975167402134,-3.04506159718392e-06,-0.000217651067987512
5.97049754146179,3.991198334536e-05,0.000648199134585589,-0.000328701540456155,0.000578975119905713,-3.04510888045181e-06,-0.00021765111482545
5.98049837486457,3.99119380314409e-05,0.000648199088862621,-0.00032870158639623,0.000578975073954735,-3.04515462521222e-06,-0.000217651160139369
5.99049920826736,3.99118943806274e-05,0.000648199044817775,-0.000328701630650218,0.000578975029690242,-3.04519869105639e-06,-0.000217651203790183
6.00050004167014,3.99118524990178e-05,0.000648199002558106,-0.000328701673110553,0.000578974987219826,-3.04524097087684e-06,-0.000217651245671792
6.01050087507292,3.99118124617325e-05,0.000648198962159412,-0.000328701713701077,0.000578974946619662,-3.04528138883907e-06,-0.000217651285709077
6.02050170847571,3.99117743155018e-05,0.000648198923668846,-0.000328701752374415,0.000578974907937138,-3.04531989776814e-06,-0.000217651323855308
6.03050254187849,3.99117380816318e-05,0.000648198887107905,-0.000328701789108965,0.000578974871193859,-3.04535647615516e-06,-0.000217651360089178
6.04050337528127,3.99117037591618e-05,0.00064819885247562,-0.000328701823905703,0.000578974836388852,-3.04539112496978e-06,-0.000217651394411648
6.05050420868406,3.9911671328057e-05,0.000648198819751776,-0.000328701856784939,0.0005789748035018,-3.0454238644373e-06,-0.000217651426842753
6.06050504208684,3.99116407523092e-05,0.000648198788900037,-0.00032870188778318,0.000578974772496188,-3.04545473090808e-06,-0.000217651457418501
6.07050587548962,3.99116119828523e-05,0.000648198759870897,-0.000328701916950171,0.000578974743322261,-3.04548377391443e-06,-0.000217651486187958
6.08050670889241,3.99115849602285e-05,0.000648198732604358,-0.000328701944346189,0.000578974715919725,-3.04551105347951e-06,-0.000217651513210581
6.09050754229519,3.99115596169664e-05,0.000648198707032342,-0.00032870197003964,0.000578974690220161,-3.04553663771596e-06,-0.000217651538553843
6.10050837569797,3.9911535879659e-05,0.000648198683080778,-0.000328701994104944,0.000578974666149128,-3.04556060072887e-06,-0.000217651562291151
6.11050920910076,3.99115136707415e-05,0.000648198660671401,-0.000328702016620739,0.000578974643627973,-3.04558302082016e-06,-0.000217651584500068
6.12051004250354,3.99114929099881e-05,0.00064819863972326,-0.000328702037668358,0.000578974622575342,-3.04560397897841e-06,-0.000217651605260822
6.13051087590633,3.99114735157491e-05,0.00064819862015397,-0.000328702057330581,0.000578974602908436,-3.04562355762956e-06,-0.000217651624655061
6.14051170930911,3.99114554059594e-05,0.000648198601880723,-0.000328702075690605,0.000578974584544037,-3.04564183961904e-06,-0.000217651642764851
6.15051254271189,3.9911438498948e-05,0.000648198584821112,-0.000328702092831231,0.000578974567399327,-3.04565890739406e-06,-0.000217651659671862
6.16051337611468,3.9911422714081e-05,0.000648198568893775,-0.000328702108834207,0.000578974551392537,-3.04567484235538e-06,-0.000217651675456729
6.17051420951746,3.99114079722639e-05,0.000648198554018903,-0.00032870212377972,0.000578974536443461,-3.0456897243495e-06,-0.000217651690198546
6.18051504292024,3.99113941963308e-05,0.000648198540118634,-0.000328702137746002,0.000578974522473848,-3.04570363127571e-06,-0.000217651703974479
6.19051587632303,3.9911381311343e-05,0.000648198527117352,-0.000328702150809027,0.000578974509407706,-3.04571663878541e-06,-0.000217651716859467
6.20051670972581,3.99113692448134e-05,0.000648198514941917,-0.000328702163042285,0.000578974497171529,-3.0457288200549e-06,-0.000217651728925996
6.21051754312859,3.99113579268742e-05,0.000648198503521829,-0.000328702174516609,0.000578974485694467,-3.04574024561629e-06,-0.000217651740243936
6.22051837653138,3.99113472903991e-05,0.000648198492789357,-0.000328702185300052,0.000578974474908449,-3.04575098323392e-06,-0.000217651750880411
6.23051920993416,3.99113372710907e-05,0.000648198482679622,-0.000328702195457801,0.000578974464748275,-3.04576109781675e-06,-0.000217651760899719
6.24052004333694,3.99113278075387e-05,0.000648198473130659,-0.000328702205052113,0.000578974455151671,-3.04577065135895e-06,-0.000217651770363271
6.25052087673973,3.99113188412569e-05,0.000648198464083456,-0.000328702214142285,0.000578974446059328,-3.04577970290274e-06,-0.000217651779329553
6.26052171014251,3.99113103167023e-05,0.000648198455481967,-0.000328702222784625,0.000578974437414923,-3.04578830851925e-06,-0.000217651787854108
6.2705225435453,3.99113021812801e-05,0.000648198447273123,-0.000328702231032456,0.00057897442916512,-3.04579652130343e-06,-0.00021765179598953
6.28052337694808,3.99112943853371e-05,0.000648198439406823,-0.000328702238936116,0.00057897442125957,-3.04580439138065e-06,-0.000217651803785473
6.29052421035086,3.99112868821459e-05,0.000648198431835917,-0.00032870224654298,0.000578974413650887,-3.04581196592248e-06,-0.000217651811288664
6.30052504375365,3.99112796278823e-05,0.000648198424516185,-0.000328702253897476,0.000578974406294632,-3.04581928917e-06,-0.000217651818542928
6.31052587715643,3.99112725815956e-05,0.000648198417406308,-0.000328702261041122,0.000578974399149277,-3.04582640246316e-06,-0.000217651825589214
6.32052671055921,3.99112657051753e-05,0.000648198410467831,-0.000328702268012554,0.000578974392176176,-3.04583334427498e-06,-0.000217651832465635
6.330527543962,3.99112589633128e-05,0.000648198403665127,-0.000328702274847568,0.000578974385339525,-3.04584015024973e-06,-0.000217651839207497
6.34052837736478,3.99112523234605e-05,0.000648198396965354,-0.000328702281579163,0.000578974378606319,-3.04584685324446e-06,-0.000217651845847349
6.35052921076756,3.9911245755788e-05,0.000648198390338412,-0.00032870228823758,0.000578974371946307,-3.04585348337339e-06,-0.000217651852415022
6.36053004417035,3.99112392331349e-05,0.000648198383756897,-0.000328702294850356,0.000578974365331947,-3.04586006805512e-06,-0.000217651858937675
6.37053087757313,3.99112327309615e-05,0.000648198377196046,-0.000328702301442368,0.000578974358738354,-3.0458666320627e-06,-0.000217651865439848
6.38053171097591,3.99112262272961e-05,0.000648198370633691,-0.000328702308035894,0.000578974352143249,-3.04587319757683e-06,-0.000217651871943514
6.3905325443787,3.99112197026786e-05,0.000648198364050195,-0.00032870231465066,0.000578974345526896,-3.04587978424268e-06,-0.000217651878468131
6.40053337778148,3.99112131400999e-05,0.000648198357428396,-0.000328702321303912,0.000578974338872048,-3.04588640923098e-06,-0.00021765188503071
6.41053421118426,3.99112065249369e-05,0.000648198350753538,-0.000328702328010474,0.000578974332163877,-3.04589308730402e-06,-0.000217651891645873
6.42053504458705,3.9911199844881e-05,0.000648198344013202,-0.000328702334782826,0.0005789743253899,-3.04589983088742e-06,-0.000217651898325929
6.43053587798983,3.9911193089861e-05,0.000648198337197227,-0.000328702341631178,0.000578974318539905,-3.04590665014812e-06,-0.000217651905080949
6.44053671139262,3.99111862519589e-05,0.000648198330297621,-0.000328702348563556,0.000578974311605862,-3.04591355307955e-06,-0.000217651911918851
6.4505375447954,3.99111793253178e-05,0.000648198323308477,-0.000328702355585899,0.000578974304581832,-3.0459205455942e-06,-0.000217651918845492
6.46053837819818,3.9911172306043e-05,0.000648198316225863,-0.000328702362702156,0.000578974297463866,-3.0459276316239e-06,-0.000217651925864767
6.47053921160097,3.99111651920944e-05,0.000648198309047722,-0.000328702369914394,0.000578974290249896,-3.04593481322808e-06,-0.000217651932978715
6.48054004500375,3.99111579831722e-05,0.000648198301773751,-0.000328702377222917,0.000578974282939615,-3.04594209070945e-06,-0.000217651940187638
6.49054087840653,3.99111506805949e-05,0.000648198294405281,-0.00032870238462639,0.000578974275534363,-3.04594946273699e-06,-0.000217651947490215
6.50054171180932,3.99111432871712e-05,0.000648198286945144,-0.000328702392121964,0.000578974268036987,-3.04595692647526e-06,-0.000217651954883639
6.5105425452121,3.99111358070668e-05,0.000648198279397545,-0.000328702399705415,0.000578974260451711,-3.04596447771908e-06,-0.000217651962363743
6.52054337861488,3.99111282456662e-05,0.000648198271767918,-0.000328702407371286,0.000578974252783996,-3.04597211103253e-06,-0.000217651969925144
6.53054421201767,3.99111206094332e-05,0.000648198264062783,-0.000328702415113023,0.000578974245040396,-3.04597981989051e-06,-0.000217651977561377
6.54054504542045,3.99111129057687e-05,0.000648198256289608,-0.000328702422923123,0.000578974237228416,-3.04598759682168e-06,-0.000217651985265041
6.55054587882324,3.99111051428699e-05,0.000648198248456666,-0.000328702430793275,0.000578974229356369,-3.04599543355085e-06,-0.00021765199302794
6.56054671222602,3.99110973295914e-05,0.00064819824057289,-0.000328702438714503,0.000578974221433233,-3.04600332113934e-06,-0.000217652000841218
6.5705475456288,3.99110894753096e-05,0.000648198232647741,-0.0003287024466773,0.000578974213468518,-3.04601125012145e-06,-0.0002176520086955
6.58054837903159,3.9911081589793e-05,0.000648198224691076,-0.000328702454671763,0.000578974205472128,-3.0460192106358e-06,-0.000217652016581017
6.59054921243437,3.99110736830788e-05,0.000648198216713023,-0.000328702462687717,0.000578974197454242,-3.04602719254976e-06,-0.000217652024487731
6.60055004583715,3.99110657653574e-05,0.000648198208723864,-0.000328702470714829,0.000578974189425195,-3.04603518557598e-06,-0.000217652032405452
6.61055087923994,3.9911057846866e-05,0.000648198200733929,-0.000328702478742722,0.000578974181395366,-3.04604317937991e-06,-0.000217652040323944
6.62055171264272,3.99110499377918e-05,0.000648198192753496,-0.000328702486761067,0.000578974173375087,-3.04605116367751e-06,-0.000217652048233018
6.6305525460455,3.99110420481853e-05,0.000648198184792708,-0.000328702494759675,0.000578974165374549,-3.04605912832258e-06,-0.000217652056122624
6.64055337944829,3.99110341878846e-05,0.00064819817686149,-0.000328702502728572,0.000578974157403728,-3.04606706338357e-06,-0.000217652063982925
6.65055421285107,3.99110263664495e-05,0.000648198168969489,-0.000328702510658067,0.00057897414947232,-3.04607495920968e-06,-0.00021765207180436
6.66055504625385,3.99110185931066e-05,0.000648198161126014,-0.000328702518538804,0.000578974141589679,-3.04608280648654e-06,-0.000217652079577703
6.67055587965664,3.9911010876704e-05,0.000648198153339995,-0.000328702526361814,0.000578974133764779,-3.04609059628185e-06,-0.000217652087294106
6.68055671305942,3.99110032256756e-05,0.000648198145619939,-0.000328702534118547,0.000578974126006173,-3.04609832008167e-06,-0.000217652094945134
6.69055754646221,3.99109956480133e-05,0.000648198137973913,-0.0003287025418009,0.000578974118321964,-3.04610596981789e-06,-0.000217652102522796
6.70055837986499,3.99109881512481e-05,0.000648198130409513,-0.000328702549401237,0.000578974110719789,-3.04611353788797e-06,-0.000217652110019562
6.71055921326777,3.99109807424369e-05,0.000648198122933862,-0.000328702556912405,0.000578974103206805,-3.04612101716773e-06,-0.000217652117428373
6.72056004667056,3.99109734281564e-05,0.000648198115553595,-0.000328702564327736,0.00057897409578968,-3.04612840101817e-06,-0.000217652124742653
6.73056088007334,3.99109662145004e-05,0.000648198108274861,-0.000328702571641053,0.000578974088474595,-3.04613568328728e-06,-0.000217652131956309
6.74056171347612,3.99109591070828e-05,0.000648198101103324,-0.000328702578846662,0.000578974081267242,-3.04614285830786e-06,-0.000217652139063727
6.75056254687891,3.99109521110426e-05,0.00064819809404417,-0.000328702585939356,0.000578974074172832,-3.04614992089204e-06,-0.000217652146059767
6.76056338028169,3.99109452310516e-05,0.000648198087102113,-0.000328702592914397,0.000578974067196102,-3.04615686632348e-06,-0.000217652152939758
6.77056421368447,3.9910938471324e-05,0.000648198080281404,-0.000328702599767512,0.000578974060341327,-3.04616369034798e-06,-0.000217652159699486
6.78056504708726,3.99109318356266e-05,0.000648198073585845,-0.000328702606494884,0.000578974053612326,-3.04617038916282e-06,-0.000217652166335183
6.79056588049004,3.991092532729e-05,0.000648198067018796,-0.000328702613093135,0.000578974047012476,-3.04617695940581e-06,-0.00021765217284352
6.80056671389282,3.99109189492195e-05,0.000648198060583189,-0.00032870261955932,0.000578974040544724,-3.04618339814391e-06,-0.00021765217922159
6.81056754729561,3.99109127039064e-05,0.000648198054281537,-0.000328702625890913,0.000578974034211596,-3.04618970286221e-06,-0.000217652185466903
6.82056838069839,3.99109065934383e-05,0.000648198048115947,-0.000328702632085798,0.000578974028015209,-3.04619587145306e-06,-0.000217652191577372
6.83056921410117,3.991090061951e-05,0.000648198042088129,-0.000328702638142257,0.000578974021957281,-3.04620190220565e-06,-0.0002176521975513
6.84057004750396,3.9910894783433e-05,0.000648198036199407,-0.00032870264405896,0.000578974016039143,-3.04620779379609e-06,-0.000217652203387377
6.85057088090674,3.99108890861448e-05,0.000648198030450725,-0.000328702649834957,0.000578974010261745,-3.04621354527773e-06,-0.000217652209084665
6.86057171430953,3.99108835282187e-05,0.000648198024842664,-0.000328702655469666,0.000578974004625668,-3.04621915607192e-06,-0.000217652214642591
