data1,data2,data3,data4,data5,data6,data7
0,-0.00119712656927423,-0.000815120458498488,0.000520112388625573,-0.000418850589708711,-0.0012270732694922,-0.000650614339789567
0.0100016669444907,-0.00119620222914528,-0.00081419089386209,0.000521044572880013,-0.000417918405454175,-0.00122614370485561,-0.000649689999660612
0.0200033338889815,-0.00119275198051168,-0.000810721143911732,0.000524524100977279,-0.000414438877356534,-0.00122267395490451,-0.000646239751027022
0.0300050008334722,-0.0011777428471239,-0.000795627176677173,0.000539660604714903,-0.000399302373617092,-0.00120757998766633,-0.00063123061763924
0.040006667777963,-0.00116862640817932,-0.000786459210268516,0.000548854407487638,-0.000390108570843038,-0.00119841202125505,-0.000622114178694655
0.0500083347224537,-0.00116786163933532,-0.000785690118837684,0.000549625666304933,-0.000389337312025619,-0.00119764292982397,-0.000621349409850662
0.0600100016669445,-0.00117021307991757,-0.000788054850110867,0.000547254270952258,-0.000391708707378372,-0.00120000766109731,-0.000623700850432904
0.0700116686114352,-0.00117237213681362,-0.000790226110317119,0.000545076891890003,-0.000393886086440308,-0.00120217892130292,-0.000625859907328953
0.080013335555926,-0.00117363942495989,-0.000791500561364472,0.000543798849296081,-0.000395164129033766,-0.00120345337234935,-0.000627127195475232
0.0900150025004167,-0.00117426104374703,-0.000792125693633567,0.000543171955333918,-0.000395791022995578,-0.00120407850461775,-0.000627748814262371
0.100016669444907,-0.00117454457183922,-0.000792410824268801,0.000542886021168495,-0.000396076957160796,-0.00120436363525258,-0.000628032342354561
0.110018336389398,-0.00117467065732441,-0.000792537622407963,0.000542758865697928,-0.000396204112631258,-0.00120449043339153,-0.00062815842783975
0.120020003333889,-0.00117472476276126,-0.000792592033656819,0.00054270430111206,-0.000396258677217077,-0.00120454484464029,-0.000628212533276601
0.13002167027838,-0.00117474543117898,-0.000792612818895519,0.000542683457298224,-0.000396279521030893,-0.00120456562987895,-0.000628233201694317
0.14002333722287,-0.00117475104189922,-0.000792618461328384,0.000542677798964349,-0.000396285179364763,-0.0012045712723118,-0.000628238812414554
0.150025004167361,-0.00117475130374623,-0.000792618724655391,0.000542677534895257,-0.000396285443433855,-0.00120457153563881,-0.000628239074261562
0.160026671111852,-0.00117475190235457,-0.000792619326647163,0.000542676931207004,-0.000396286047122107,-0.00120457213763058,-0.000628239672869911
0.170028338056343,-0.00117475650044816,-0.00079262395072986,0.000542672294093123,-0.000396290684235982,-0.00120457676171326,-0.000628244270963496
0.180030005000833,-0.00117476768265336,-0.000792635196138556,0.000542661016993604,-0.000396301961335488,-0.00120458800712193,-0.000628255453168695
0.190031671945324,-0.00117478741430216,-0.000792655039313586,0.000542641117898281,-0.000396321860430787,-0.00120460785029691,-0.000628275184817495
0.200033338889815,-0.00117481724733052,-0.000792685040962689,0.000542611031701165,-0.000396351946627866,-0.00120463785194594,-0.000628305017845859
0.210035005834306,-0.0011748583909715,-0.000792726417153681,0.000542569538907426,-0.000396393439421554,-0.00120467922813683,-0.000628346161486837
0.220036672778796,-0.0011749117153162,-0.000792780042895558,0.000542515762042193,-0.00039644721628672,-0.00120473285387858,-0.00062839948583154
0.230038339723287,-0.00117497772931032,-0.000792846430010645,0.00054244918784077,-0.000396513790488059,-0.0012047992409935,-0.000628465499825655
0.240040006667778,-0.00117505655841404,-0.000792925704668255,0.000542369689778283,-0.000396593288550444,-0.00120487851565091,-0.000628544328929375
0.250041673612269,-0.00117514793563867,-0.000793017598370638,0.000542277537109141,-0.000396685441219468,-0.00120497040935305,-0.00062863570615401
0.260043340556759,-0.00117525121071214,-0.000793121457170274,0.00054217338562376,-0.000396789592704714,-0.00120507426815242,-0.000628738981227476
0.27004500750125,-0.00117536537513506,-0.000793236266867602,0.000542058252379831,-0.000396904725948493,-0.00120518907784945,-0.000628853145650398
0.280046674445741,-0.00117548909602863,-0.000793360687050177,0.00054193348156723,-0.00039702949676093,-0.0012053134980317,-0.000628976866543964
0.290048341390232,-0.00117562074917213,-0.000793493084316955,0.000541800711190109,-0.000397162267137875,-0.00120544589529813,-0.000629108519687468
0.300050008334722,-0.00117575844143158,-0.00079363155483367,0.000541661850447951,-0.000397301127879847,-0.00120558436581447,-0.000629246211946921
0.310051675279213,-0.00117590001450664,-0.000793773928100943,0.000541519075956849,-0.000397443902370758,-0.00120572673908136,-0.000629387785021979
0.320053342223704,-0.00117604302498711,-0.000793917746898062,0.000541374851862236,-0.000397588126465175,-0.00120587055787809,-0.00062953079550245
0.330055009168195,-0.00117618469952426,-0.000794060222200906,0.000541231975048016,-0.000397731003279198,-0.00120601303318055,-0.000629672470039596
0.340056676112685,-0.00117632186805311,-0.000794198166026825,0.000541093642480932,-0.000397869335846092,-0.00120615097700608,-0.00062980963856845
0.350058343057176,-0.0011764508822398,-0.000794327909421014,0.000540963533455315,-0.000397999444871528,-0.00120628072039991,-0.000629938652755135
0.360060010001667,-0.00117656753064979,-0.000794445217145289,0.000540845895144724,-0.000398117083181953,-0.00120639802812386,-0.000630055301165127
0.370061676946158,-0.00117666696658678,-0.000794545215109087,0.000540745615375456,-0.000398217362951079,-0.00120649802608737,-0.000630154737102115
0.380063343890648,-0.00117674366908153,-0.000794622351137833,0.000540668261968736,-0.000398294716357688,-0.0012065751621159,-0.000630231439596871
0.390065010835139,-0.00117679146175776,-0.000794670413945428,0.000540620063714764,-0.000398342914611591,-0.00120662322492335,-0.0006302792322731
0.40006667777963,-0.00117680361741725,-0.000794682638310527,0.000540607804900034,-0.000398355173426303,-0.00120663544928842,-0.00063029138793259
0.410068344724121,-0.00117677307670137,-0.000794651924973937,0.000540638604790247,-0.000398324373536135,-0.00120660473595192,-0.000630260847216703
0.420070011668611,-0.0011766928050387,-0.000794571199603799,0.000540719557653523,-0.000398243420672982,-0.00120652401058202,-0.000630180575554033
0.430071678613102,-0.00117655630091709,-0.00079443392394044,0.000540857220175079,-0.000398105758151636,-0.00120638673491909,-0.000630044071432431
0.440073345557593,-0.00117635824833413,-0.000794234751934584,0.000541056953469958,-0.000397906024857068,-0.00120618756291385,-0.000629846018849465
0.450075012502084,-0.00117609527656241,-0.000793970293806984,0.00054132215687018,-0.000397640821457264,-0.00120592310478708,-0.000629583047077751
0.460076679446574,-0.00117576675341203,-0.000793639913794485,0.000541653467930553,-0.000397309510397425,-0.00120559272477564,-0.000629254523927367
0.470078346391065,-0.00117537550024573,-0.0007932464492066,0.000542048041345703,-0.000396914936982921,-0.00120519926018905,-0.000628863270761067
0.480080013335556,-0.00117492828852637,-0.00079279670977951,0.000542499048188851,-0.000396463930140526,-0.00120474952076345,-0.000628416059041711
0.490081680280047,-0.00117443597163273,-0.000792301610236901,0.000542995542977393,-0.000395967435352827,-0.00120425442122252,-0.000627923742148064
0.500083347224537,-0.00117391313380518,-0.000791775817251475,0.000543522817706301,-0.000395440160624829,-0.00120372862823891,-0.000627400904320514
0.510085014169028,-0.00117337720543402,-0.000791236859732707,0.000544063294067674,-0.000394899684264407,-0.00120318967072203,-0.000626864975949355
0.520086681113519,-0.00117284709370701,-0.000790703751734625,0.000544597904423748,-0.000394365073909287,-0.00120265656272585,-0.00062633486422235
0.53008834805801,-0.0011723414892427,-0.000790195289517947,0.000545107799543843,-0.000393855178790115,-0.00120214810051101,-0.000625829259758033
0.5400900150025,-0.00117187710175305,-0.000789728277240462,0.000545576127914172,-0.000393386850420644,-0.00120168108823523,-0.00062536487226839
0.550091681946991,-0.00117146711914326,-0.000789315977347373,0.000545989589714483,-0.000392973388621098,-0.00120126878834367,-0.000624954889658597
0.560093348891482,-0.00117112015469687,-0.000788967051805812,0.00054633949856725,-0.000392623479768982,-0.0012009198628034,-0.00062460792521221
0.570095015835973,-0.00117083984815617,-0.000788685160930428,0.000546622183842653,-0.000392340794494108,-0.00120063797192907,-0.000624327618671506
0.580096682780463,-0.00117062514497869,-0.000788469244218334,0.000546838709032192,-0.000392124269304975,-0.00120042205521779,-0.000624112915494029
0.590098349724954,-0.00117047113610669,-0.000788314364865051,0.000546994024852817,-0.000391968953484641,-0.00120026717586508,-0.000623958906622028
0.600100016669445,-0.00117037024012495,-0.000788212898604066,0.000547095777057075,-0.000391867201280573,-0.00120016570960448,-0.00062385801064029
0.610101683613936,-0.00117031347579114,-0.000788155813429712,0.000547153023103836,-0.000391809955233919,-0.00120010862443033,-0.000623801246306478
0.620103350558426,-0.00117029160546533,-0.000788133819489536,0.000547175079025395,-0.0003917878993124,-0.00120008663049024,-0.000623779375980669
0.630105017502917,-0.00117029600695613,-0.000788138245858222,0.000547170640182707,-0.00039179233815508,-0.00120009105685891,-0.000623783777471468
0.640106684447408,-0.00117031922111873,-0.000788161591230756,0.000547147229020302,-0.000391815749317443,-0.00120011440223136,-0.000623806991634068
0.650108351391899,-0.0011703551976832,-0.000788197771140173,0.000547110947151852,-0.000391852031185827,-0.00120015058214064,-0.00062384296819854
0.660110018336389,-0.00117039930745419,-0.000788242130226212,0.000547066463056945,-0.000391896515280654,-0.00120019494122652,-0.000623887077969529
0.67011168528088,-0.00117044820408771,-0.000788291303230844,0.000547017151477284,-0.000391945826860227,-0.00120024411423098,-0.000623935974603047
0.680113352225371,-0.00117049961112453,-0.000788343000827956,0.000546965308190557,-0.000391997670146862,-0.00120029581182791,-0.00062398738163987
0.690115019169862,-0.00117055209081763,-0.000788395777144157,0.000546912383144791,-0.000392050595192535,-0.00120034858814393,-0.000624039861332966
0.700116686114352,-0.00117060482984371,-0.000788448814259135,0.000546859196565287,-0.000392103781771946,-0.00120040162525872,-0.000624092600359052
0.710118353058843,-0.00117065745889361,-0.000788501740776316,0.000546806120895257,-0.000392156857441884,-0.00120045455177572,-0.000624145229408943
0.720120020003334,-0.00117070991054075,-0.000788554488888044,0.000546753224133447,-0.000392209754203602,-0.00120050729988726,-0.000624197681056089
0.730121686947825,-0.0011707623124976,-0.000788607187028616,0.000546700377483616,-0.000392262600853342,-0.00120055999802765,-0.000624250083012936
0.740123353892315,-0.00117081491010825,-0.000788660081928853,0.00054664733351963,-0.000392315644817237,-0.00120061289292771,-0.000624302680623583
0.750125020836806,-0.0011708680112265,-0.000788713483182596,0.000546593781775176,-0.000392369196561598,-0.00120066629418127,-0.000624355781741837
0.760126687781297,-0.00117092194728664,-0.000788767724097447,0.000546539388003356,-0.000392423590333325,-0.00120072053509593,-0.00062440971780198
0.770128354725788,-0.00117097704557534,-0.000788823133809941,0.00054648382214009,-0.000392479156196496,-0.00120077594480824,-0.000624464816090678
0.780130021670278,-0.00117103360898858,-0.000788880016928082,0.000546426778718955,-0.000392536199617533,-0.00120083282792618,-0.000624521379503918
0.790131688614769,-0.0011710919006831,-0.000788938638096006,0.000546367992350017,-0.00039259498598637,-0.00120089144909391,-0.000624579671198437
0.80013335555926,-0.00117115213192983,-0.000788999209778779,0.000546307249969462,-0.000392655728366821,-0.00120095202077647,-0.000624639902445164
0.810135022503751,-0.00117121445214551,-0.000789061882237671,0.000546244400892566,-0.000392718577443609,-0.00120101469323515,-0.000624702222660844
0.820136689448241,-0.00117127894054746,-0.000789126735137748,0.000546179365229758,-0.000392783613106305,-0.001201079546135,-0.000624766711062794
0.830138356392732,-0.00117134559918387,-0.000789193770538776,0.000546112140915467,-0.000392850837420481,-0.0012011465815358,-0.000624833369699204
0.840140023337223,-0.00117141434727537,-0.000789262907204816,0.000546042809414563,-0.000392920168921265,-0.0012012157182016,-0.000624902117790713
0.850141690281714,-0.00117148501689576,-0.000789333976260499,0.000545971540078327,-0.000392991438257379,-0.00120128678725704,-0.000624972787411095
0.860143357226204,-0.00117155735004871,-0.000789406718251286,0.000545898593092468,-0.000393064385243111,-0.00120135952924758,-0.000625045120564044
0.870145024170695,-0.00117163099718815,-0.000789480781655417,0.000545824320969374,-0.000393138657366076,-0.00120143359265145,-0.000625118767703489
0.880146691115186,-0.00117170551720188,-0.000789555722867448,0.000545749168564621,-0.000393213809770699,-0.00120150853386322,-0.000625193287717217
0.890148358059677,-0.00117178037884929,-0.00078963100764413,0.000545673671627012,-0.000393289306708176,-0.00120158381863964,-0.00062526814936463
0.900150025004167,-0.00117185496362657,-0.000789706013985766,0.00054559845390911,-0.000393364524425946,-0.00120165882498102,-0.00062534273414191
0.910151691948658,-0.00117192857003448,-0.000789780036428146,0.000545524222863203,-0.000393438755471723,-0.00120173284742314,-0.000625416340549823
0.920153358893149,-0.00117200041924891,-0.000789852291745114,0.000545451763922666,-0.000393511214412133,-0.00120180510273985,-0.000625488189764244
0.93015502583764,-0.0011720696622402,-0.000789921926108185,0.000545381933322167,-0.000393581045012509,-0.00120187473710268,-0.000625557432755533
0.94015669278213,-0.0011721353884491,-0.000789988023811491,0.000545315649348137,-0.000393647328986422,-0.00120194083480575,-0.000625623158964439
0.950158359726621,-0.0011721966361942,-0.000790049617738038,0.000545253881843012,-0.000393709096491438,-0.00120200242873208,-0.000625684406709535
0.960160026671112,-0.00117225240504682,-0.000790105701804586,0.000545197639725288,-0.000393765338609061,-0.00120205851279843,-0.000625740175562154
0.970161693615603,-0.0011723016704502,-0.000790155245663425,0.00054514795624631,-0.00039381502208795,-0.00120210805665709,-0.000625789440965537
0.980163360560093,-0.00117234340086609,-0.000790197211945889,0.000545105871698167,-0.000393857106636017,-0.0012021500229394,-0.000625831171381423
0.990165027504584,-0.00117237657769106,-0.000790230576291262,0.000545072413328336,-0.000393890565005789,-0.00120218338728466,-0.0006258643482064
1.00016669444907,-0.00117240021808592,-0.000790254350305187,0.00054504857231658,-0.000393914406017502,-0.00120220716129849,-0.000625887988601263
1.01016836139357,-0.0011724134006973,-0.000790267607426665,0.000545035277835049,-0.000393927700499008,-0.00120222041841993,-0.000625901171212642
1.02017002833806,-0.00117241529402043,-0.000790269511451136,0.000545033368444825,-0.000393929609889229,-0.00120222232244439,-0.000625903064535767
1.03017169528255,-0.00117240518686107,-0.000790259347164592,0.000545043561375465,-0.000393919416958607,-0.00120221215815788,-0.000625892957376405
1.04017336222704,-0.00117238252001781,-0.000790236552204935,0.000545066420573868,-0.000393896557760246,-0.00120218936319831,-0.000625870290533151
1.05017502917153,-0.00117234691794704,-0.00079020074890591,0.000545102324770596,-0.000393860653563585,-0.00120215355989942,-0.000625834688462377
1.06017669611602,-0.00117229821882593,-0.000790151774530051,0.000545151437161725,-0.000393811541172546,-0.00120210458552374,-0.000625785989341266
1.07017836306051,-0.00117223650113607,-0.000790089708002534,0.000545213678599659,-0.000393749299734729,-0.00120204251899645,-0.000625724271651404
1.080180030005,-0.0011721621046988,-0.000790014891065428,0.000545288706379263,-0.000393674271955265,-0.00120196770205962,-0.000625649875214138
1.09018169694949,-0.00117207564405151,-0.000789927941729571,0.000545375900748074,-0.000393587077586618,-0.00120188075272409,-0.000625563414566849
1.10018336389398,-0.00117197801220248,-0.000789829758050657,0.000545474361119577,-0.000393488617215299,-0.00120178256904555,-0.000625465782717814
1.11018503083847,-0.00117187037316743,-0.000789721510623608,0.000545582913599983,-0.000393380064735099,-0.00120167432161891,-0.000625358143682765
1.12018669778296,-0.00117175414227761,-0.000789604622779339,0.00054570013084727,-0.000393262847488035,-0.00120155743377508,-0.000625241912792951
1.13018836472745,-0.00117163095403239,-0.000789480738255641,0.000545824364491411,-0.000393138613844131,-0.00120143354925185,-0.000625118724547726
1.14019003167195,-0.00117150261819326,-0.000789351677043069,0.000545953789412913,-0.000393009188922876,-0.00120130448803978,-0.000624990388708603
1.15019169861644,-0.00117137106579593,-0.000789219381091813,0.000546086458188955,-0.000392876520147088,-0.00120117219208903,-0.000624858836311266
1.16019336556093,-0.00117123828768568,-0.000789085852499727,0.000546220363079547,-0.000392742615256755,-0.00120103866349745,-0.000624726058201014
1.17019503250542,-0.00117110626894625,-0.000788953087570545,0.000546353502155146,-0.000392609476181413,-0.00120090589856878,-0.000624594039461589
1.18019669944991,-0.00117097692308737,-0.000788823010629424,0.000546483945667633,-0.000392479032669178,-0.00120077582162816,-0.000624464693602703
1.1901983663944,-0.00117085203000484,-0.000788697411632421,0.000546609898616654,-0.000392353079720402,-0.00120065022263165,-0.000624339800520175
1.20020003333889,-0.00117073318149348,-0.000788577891371417,0.000546729755699118,-0.00039223322263817,-0.00120053070237111,-0.000624220952008821
1.21020170028338,-0.0011706217374918,-0.000788465817471486,0.000546842145435832,-0.000392120832901675,-0.00120041862847161,-0.000624109508007138
1.22020336722787,-0.00117051879533469,-0.000788362293469834,0.000546945961179696,-0.000392017017158013,-0.00120031510447036,-0.000624006565850031
1.23020503417236,-0.00117042517319316,-0.000788268142161887,0.000547040377816556,-0.000391922600521336,-0.00120022095316278,-0.000623912943708501
1.24020670111685,-0.00117034140771977,-0.000788183903233449,0.000547124854139715,-0.000391838124198343,-0.00120013671423467,-0.000623829178235109
1.25020836806134,-0.00117026776483097,-0.000788109844103969,0.000547199121976102,-0.0003917638563621,-0.00120006265510548,-0.000623755535346307
1.26021003500583,-0.00117020426165948,-0.000788045982003008,0.000547263164047605,-0.000391699814290722,-0.00119999879300477,-0.000623692032174816
1.27021170195032,-0.00117015069708466,-0.000787992114673165,0.000547317183181607,-0.000391645795156825,-0.00119994492567513,-0.000623638467600001
1.28021336889482,-0.00117010668793499,-0.000787947856777159,0.000547361565801313,-0.000391601412537205,-0.0011999006677793,-0.000623594458450324
1.29021503583931,-0.00117007170794799,-0.000787912679078015,0.000547396842635147,-0.00039156613570344,-0.00119986549008029,-0.000623559478463324
1.3002167027838,-0.00117004512682551,-0.00078788594771504,0.000547423649330092,-0.000391539329008547,-0.00119983875871742,-0.000623532897340848
1.31021836972829,-0.00117002624716528,-0.000787866961344132,0.000547442689206717,-0.000391520289131959,-0.00119981977234658,-0.000623514017680617
1.32022003667278,-0.00117001433760326,-0.000787854984467481,0.000547454699835546,-0.000391508278503153,-0.00119980779546998,-0.0006235021081186
1.33022170361727,-0.00117000866108633,-0.000787849275866027,0.000547460424524477,-0.000391502553814232,-0.00119980208686855,-0.000623496431601673
1.34022337056176,-0.00117000849774576,-0.000787849111602223,0.000547460589251195,-0.000391502389087515,-0.00119980192260474,-0.000623496268261094
1.35022503750625,-0.00117001316231266,-0.000787853802533957,0.00054745588509989,-0.000391507093238811,-0.00119980661353646,-0.000623500932827996
1.36022670445074,-0.00117002201638096,-0.000787862706646784,0.000547446955894277,-0.000391516022444406,-0.00119981551764925,-0.000623509786896298
1.37022837139523,-0.00117003447607364,-0.000787875236763517,0.000547434390466274,-0.000391528587872385,-0.00119982804776594,-0.000623522246588976
1.38023003833972,-0.00117005001581216,-0.000787890864334972,0.000547418718854575,-0.000391544259484055,-0.00119984367533733,-0.000623537786327494
1.39023170528421,-0.00117006816894277,-0.000787909120069805,0.000547400411673039,-0.000391562566665556,-0.0011998619310721,-0.000623555939458105
1.4002333722287,-0.00117008852595823,-0.000787929592146179,0.000547379881904065,-0.000391583096434491,-0.00119988240314839,-0.000623576296473568
1.4102350391732,-0.00117011073099115,-0.000787951922685286,0.000547357488435001,-0.000391605489903513,-0.00119990473368742,-0.000623598501506493
1.42023670611769,-0.00117013447716513,-0.000787975803076201,0.000547333540746474,-0.000391629437591995,-0.00119992861407824,-0.000623622247680464
1.43023837306218,-0.00117015950128797,-0.000788000968639143,0.00054730830426416,-0.000391654674074261,-0.00119995377964109,-0.000623647271803304
1.44024004000667,-0.00117018557826974,-0.000788027193011932,0.000547282005988156,-0.000391680972350216,-0.00119998000401378,-0.000623673348785074
1.45024170695116,-0.00117021251555413,-0.000788054282549905,0.000547254840108835,-0.000391708138229485,-0.00120000709355165,-0.000623700286069468
1.46024337389565,-0.00117024014777019,-0.000788082070947404,0.000547226973400523,-0.000391736004937745,-0.00120003488194905,-0.000623727918285531
1.47024504084014,-0.00117026833174357,-0.000788110414220831,0.000547198550252581,-0.000391764428085633,-0.00120006322522237,-0.000623756102258906
1.48024670778463,-0.00117029694195279,-0.000788139186139253,0.000547169697251675,-0.000391793281086485,-0.00120009199714068,-0.000623784712468127
1.49024837472912,-0.00117032586647519,-0.000788168274147405,0.000547140527270262,-0.000391822451067844,-0.00120012108514872,-0.000623813636990533
1.50025004167361,-0.0011703550034372,-0.000788197575795899,0.000547111143046445,-0.000391851835291605,-0.00120015038679711,-0.00062384277395254
1.5102517086181,-0.00117038425796285,-0.000788226995672525,0.000547081640261315,-0.00039188133807668,-0.00120017980667362,-0.000623872028478193
1.52025337556259,-0.00117041353960089,-0.000788256442814775,0.000547052110133725,-0.000391910868204215,-0.00120020925381576,-0.000623901310116225
1.53025504250708,-0.00117044276020222,-0.000788285828575341,0.000547022641560799,-0.000391940336777086,-0.00120023863957622,-0.000623930530717562
1.54025670945158,-0.00117047183221544,-0.000788315064907939,0.000546993322836945,-0.000391969655500885,-0.00120026787590871,-0.000623959602730774
1.55025837639607,-0.00117050066736597,-0.000788344063039076,0.000546964242985831,-0.000391998735351944,-0.00120029687403974,-0.000623988437881308
1.56026004334056,-0.00117052917568505,-0.000788372732491461,0.000546935492739723,-0.000392027485597999,-0.00120032554349202,-0.00062401694620039
1.57026171028505,-0.00117055726485537,-0.000788400980425993,0.000546907165199351,-0.000392055813138317,-0.00120035379142644,-0.000624045035370712
1.58026337722954,-0.00117058483984239,-0.000788428711270977,0.000546879356205744,-0.000392083622131872,-0.00120038152227132,-0.000624072610357726
1.59026504417403,-0.00117061180278214,-0.000788455826609312,0.000546852164453353,-0.000392110813884213,-0.00120040863760956,-0.000624099573297475
1.60026671111852,-0.00117063805309851,-0.000788482225296411,0.0005468256913718,-0.000392137286965716,-0.00120043503629656,-0.000624125823613843
1.61026837806301,-0.00117066348782476,-0.000788507803783559,0.000546800040801615,-0.000392162937535853,-0.00120046061478361,-0.000624151258340096
1.6202700450075,-0.0011706880021059,-0.0007885324566231,0.000546775318487614,-0.000392187659849808,-0.00120048526762306,-0.000624175772621238
1.63027171195199,-0.00117071148985982,-0.000788556077133329,0.000546751631412145,-0.000392211346925232,-0.0012005088881332,-0.000624199260375152
1.64027337889648,-0.00117073384457635,-0.000788578558202083,0.000546729086989225,-0.00039223389134811,-0.00120053136920187,-0.00062422161509169
1.65027504584097,-0.00117075496023437,-0.000788599793208974,0.000546707792139708,-0.000392255186197586,-0.00120055260420868,-0.00062424273074971
1.66027671278546,-0.00117077473231738,-0.00078861967704676,0.000546687852267044,-0.000392275126070214,-0.00120057248804639,-0.000624262502832712
1.67027837972995,-0.00117079305890873,-0.000788638107222759,0.000546669370152747,-0.000392293608184475,-0.00120059091822232,-0.000624280829424063
1.68028004667445,-0.0011708098418476,-0.000788654985021323,0.00054665244479066,-0.000392310533546531,-0.00120060779602082,-0.000624297612362935
1.69028171361894,-0.00117082498792668,-0.000788670216708319,0.000546637170179066,-0.000392325808158096,-0.00120062302770776,-0.000624312758442017
1.70028338056343,-0.00117083841011249,-0.000788683714758337,0.000546623634090032,-0.000392339344247104,-0.00120063652575773,-0.000624326180627824
1.71028504750792,-0.00117085002876875,-0.00078869539908499,0.00054661191683564,-0.000392351061501474,-0.00120064821008434,-0.000624337799284087
1.72028671445241,-0.00117085977286293,-0.000788705198254259,0.000546602090051216,-0.00039236088828588,-0.00120065800925357,-0.000624347543378271
1.7302883813969,-0.00117086758113556,-0.000788713050660412,0.000546594215516104,-0.000392368762820976,-0.00120066586165969,-0.000624355351650894
1.74029004834139,-0.00117087340321157,-0.000788718905643674,0.000546588344032845,-0.000392374634304225,-0.00120067171664293,-0.000624361173726907
1.75029171528588,-0.00117087720063291,-0.000788722724528609,0.000546584514385865,-0.000392378463951197,-0.00120067553552785,-0.000624364971148246
1.76029338223037,-0.00117087894779128,-0.000788724481562186,0.00054658275240077,-0.000392380225936289,-0.00120067729256142,-0.000624366718306622
1.77029504917486,-0.00117087863274063,-0.00078872416473082,0.000546583070125003,-0.000392379908212056,-0.00120067697573006,-0.000624366403255969
1.78029671611935,-0.0011708762578693,-0.000788721776436363,0.000546585465149941,-0.000392377513187123,-0.00120067458743561,-0.000624364028384641
1.79029838306384,-0.00117087184041328,-0.000788717334012215,0.000546589920093337,-0.000392373058243736,-0.00120067014501148,-0.000624359610928619
1.80030005000833,-0.0011708654127933,-0.000788710870062355,0.00054659640225933,-0.000392366576077755,-0.00120066368106164,-0.000624353183308633
1.81030171695283,-0.00117085702276103,-0.00078870243260837,0.000546604863491005,-0.000392358114846096,-0.00120065524360769,-0.000624344793276371
1.82030338389732,-0.00117084673334238,-0.000788692085032371,0.00054661524022763,-0.000392347738109491,-0.00120064489603173,-0.000624334503857713
1.83030505084181,-0.00117083462256902,-0.000788679905807105,0.000546627453775315,-0.000392335524561829,-0.00120063271680651,-0.000624322393084358
1.8403067177863,-0.00117082078299377,-0.000788665988008492,0.000546641410795841,-0.00039232156754133,-0.00120061879900795,-0.000624308553509103
1.85030838473079,-0.00117080532098914,-0.000788650438610287,0.000546657004013989,-0.000392305974323212,-0.0012006032496098,-0.000624293091504472
1.86031005167528,-0.00117078835583379,-0.000788633377565338,0.000546674113138871,-0.000392288865198362,-0.00120058618856492,-0.00062427612634913
1.87031171861977,-0.00117077001859624,-0.000788614936682965,0.000546692605989713,-0.000392270372347556,-0.00120056774768262,-0.00062425778911158
1.88031338556426,-0.00117075045083037,-0.000788595258317135,0.000546712339811379,-0.000392250638525927,-0.00120054806931686,-0.000624238221345703
1.89031505250875,-0.0011707298031024,-0.000788574493885107,0.000546733162759899,-0.000392229815577448,-0.00120052730488491,-0.000624217573617736
1.90031671945324,-0.00117070823337365,-0.000788552802241005,0.00054675491553348,-0.000392208062803908,-0.0012005056132409,-0.000624196003888982
1.91031838639773,-0.00117068590526743,-0.000788530347932979,0.000546777433120257,-0.000392185545217175,-0.00120048315893296,-0.000624173675782768
1.92032005334222,-0.00117066298625239,-0.000788507299376218,0.000546800546630428,-0.000392162431707047,-0.00120046011037628,-0.000624150756767725
1.93032172028671,-0.00117063964577679,-0.000788483826976748,0.000546824085177746,-0.000392138893159775,-0.0012004366379769,-0.00062412741629213
1.94032338723121,-0.00117061605339043,-0.000788460101242673,0.000546847877773592,-0.000392115100563975,-0.00120041291224292,-0.000624103823905769
1.9503250541757,-0.00117059237689099,-0.000788436290920095,0.000546871755196323,-0.00039209122314129,-0.00120038910192043,-0.000624080147406323
1.96032672112019,-0.00117056878053141,-0.000788412561190351,0.000546895551799098,-0.00039206742653856,-0.00120036537219078,-0.00062405655104675
1.97032838806468,-0.00117054542332302,-0.000788389071963503,0.000546919107221214,-0.000392043871116489,-0.00120034188296402,-0.000624033193838354
1.98033005500917,-0.00117052245746606,-0.000788365976300074,0.000546942267970806,-0.000392020710366943,-0.00120031878730068,-0.0006240102279814
1.99033172195366,-0.00117050002693592,-0.000788343418989199,0.000546964888850705,-0.000391998089487086,-0.00120029622998989,-0.000623987797451252
2.00033338889815,-0.00117047826624796,-0.000788321535306562,0.000546986834204007,-0.000391976144133826,-0.00120027434630734,-0.000623966036763294
2.01033505584264,-0.00117045729941915,-0.00078830044997009,0.000547007978961316,-0.000391954999376558,-0.00120025326097095,-0.000623945069934489
2.02033672278713,-0.00117043723913829,-0.000788280276305505,0.000547028209477544,-0.00039193476886037,-0.00120023308730644,-0.000623925009653626
2.03033838973162,-0.00117041818615092,-0.00078826111562779,0.000547047424152192,-0.000391915554185759,-0.0012002139266288,-0.000623905956666259
2.04034005667611,-0.00117040022885903,-0.000788243056838584,0.000547065533833085,-0.0003918974445049,-0.00120019586783966,-0.000623887999374365
2.0503417236206,-0.00117038344312974,-0.000788226176233829,0.000547082462009272,-0.000391880516328746,-0.00120017898723497,-0.000623871213645075
2.06034339056509,-0.00117036789230226,-0.000788210537510741,0.000547098144804031,-0.000391864833534017,-0.00120016334851194,-0.000623855662817601
2.07034505750958,-0.00117035362737764,-0.000788196191958617,0.000547112530783525,-0.000391850447554551,-0.00120014900295988,-0.000623841397892975
2.08034672445408,-0.00117034068737216,-0.000788183178814279,0.000547125580600359,-0.000391837397737742,-0.00120013598981559,-0.000623828457887493
2.09034839139857,-0.00117032909981258,-0.000788171525760075,0.000547137266494173,-0.00039182571184395,-0.00120012433676143,-0.000623816870327917
2.10035005834306,-0.0011703188813493,-0.000788161249540506,0.000547147571673278,-0.000391815406664865,-0.0012001140605419,-0.000623806651864638
2.11035172528755,-0.00117031003846268,-0.000788152356672564,0.000547156489602317,-0.000391806488735843,-0.00120010516767399,-0.000623797808978019
2.12035339223204,-0.00117030256823776,-0.000788144844224809,0.00054716402322099,-0.000391798955117185,-0.00120009765522626,-0.000623790338753098
2.13035505917653,-0.00117029645918322,-0.000788138700640971,0.000547170184118134,-0.000391792794220052,-0.00120009151164245,-0.000623784229698555
2.14035672612102,-0.00117029169207194,-0.000788133906585267,0.000547174991684023,-0.000391787986654173,-0.00120008671758676,-0.00062377946258728
2.15035839306551,-0.00117028824078256,-0.000788130435788673,0.00054717847226171,-0.000391784506076493,-0.00120008324679018,-0.000623776011297893
2.16036006001,-0.00117028607312359,-0.000788128255877774,0.000547180658315841,-0.000391782320022365,-0.00120008106687929,-0.000623773843638928
2.17036172695449,-0.00117028515162484,-0.000788127329170573,0.000547181587634608,-0.000391781390703601,-0.0012000801401721,-0.000623772922140176
2.18036339389898,-0.00117028543428311,-0.000788127613426471,0.000547181302577644,-0.000391781675760563,-0.00120008042442799,-0.000623773204798447
2.19036506084347,-0.00117028687525263,-0.00078812906254057,0.00054717984937978,-0.000391783128958425,-0.00120008187354209,-0.00062377464576797
2.20036672778796,-0.00117028942547306,-0.000788131627175226,0.000547177277517697,-0.000391785700820503,-0.00120008443817673,-0.000623777195988396
2.21036839473246,-0.00117029303323073,-0.000788135255324486,0.000547173639143906,-0.000391789339194287,-0.00120008806632598,-0.000623780803746068
2.22037006167695,-0.00117029764465127,-0.000788139892809471,0.00054716898858997,-0.000391793989748214,-0.00120009270381095,-0.000623785415166611
2.23037172862144,-0.00117030320412373,-0.000788145483704896,0.000547163381938776,-0.000391799596399398,-0.00120009829470635,-0.000623790974639063
2.24037339556593,-0.0011703096546583,-0.000788151970698861,0.000547156876663737,-0.000391806101674424,-0.00120010478170029,-0.000623797425173636
2.25037506251042,-0.00117031693818139,-0.000788159295389517,0.000547149531331284,-0.000391813447006863,-0.00120011210639092,-0.000623804708696725
2.26037672945491,-0.0011703249957727,-0.000788167398523547,0.000547141405361716,-0.000391821572976416,-0.00120012020952492,-0.000623812766288038
2.2703783963994,-0.00117033376785036,-0.000788176220182302,0.000547132558842539,-0.000391830419495576,-0.00120012903118364,-0.000623821538365693
2.28038006334389,-0.00117034319431044,-0.000788185699922156,0.000547123052387718,-0.000391839925950379,-0.00120013851092346,-0.000623830964825778
2.29038173028838,-0.00117035321462802,-0.000788195776876075,0.000547112947035816,-0.000391850031302262,-0.00120014858787734,-0.000623840985143357
2.30038339723287,-0.00117036376792675,-0.000788206389823638,0.00054710230417978,-0.000391860674158278,-0.00120015920082486,-0.000623851538442089
2.31038506417736,-0.00117037479302439,-0.000788217477236784,0.000547091185521063,-0.000391871792816973,-0.00120017028823796,-0.000623862563539727
2.32038673112185,-0.00117038622846126,-0.000788228977308465,0.000547079653040894,-0.00039188332529712,-0.0012001817883096,-0.0006238739989766
2.33038839806634,-0.00117039801251866,-0.000788240827971125,0.000547067768981741,-0.000391895209356251,-0.00120019363897222,-0.000623885783033997
2.34039006501084,-0.00117041008323367,-0.000788252966911625,0.000547055595832349,-0.00039190738250562,-0.00120020577791267,-0.000623897853749003
2.35039173195533,-0.00117042237841658,-0.000788265331588762,0.000547043196310169,-0.000391919782027776,-0.00120021814258976,-0.000623910148931918
2.36039339889982,-0.00117043483567659,-0.000788277859259077,0.000547030633335478,-0.000391932345002443,-0.00120023067026003,-0.000623922606191928
2.37039506584431,-0.00117044739246078,-0.000788290487016094,0.00054701796999203,-0.000391945008345868,-0.001200243298017,-0.000623935162976114
2.3803967327888,-0.00117045998611102,-0.000788303151847541,0.00054700526946967,-0.000391957708868203,-0.0012002559628484,-0.000623947756626358
2.39039839973329,-0.00117047255394271,-0.000788315790714503,0.000546992594984968,-0.000391970383352882,-0.00120026860171531,-0.000623960324458047
2.40040006667778,-0.00117048503334853,-0.000788328340655797,0.000546980009676536,-0.00039198296866129,-0.00120028115165656,-0.000623972803863863
2.41040173362227,-0.00117049736192995,-0.000788340738920213,0.000546967576472424,-0.000391995401865379,-0.00120029354992093,-0.000623985132445286
2.42040340056676,-0.00117050947765839,-0.00078835292312857,0.000546955357927605,-0.000392007620410174,-0.00120030573412924,-0.000623997248173724
2.43040506751125,-0.00117052131906721,-0.000788364831466812,0.000546943416030334,-0.000392019562307423,-0.00120031764246743,-0.000624009089582545
2.44040673445574,-0.00117053282547515,-0.000788376402910701,0.000546931811976822,-0.000392031166360913,-0.00120032921391128,-0.000624020595990487
2.45040840140023,-0.00117054393724094,-0.00078838757748186,0.000546920605914471,-0.000392042372423242,-0.0012003403884824,-0.000624031707756276
2.46041006834472,-0.00117055459604815,-0.000788398296534246,0.000546909856654597,-0.000392053121683096,-0.00120035110753474,-0.000624042366563483
2.47041173528921,-0.00117056474521858,-0.000788408503069317,0.000546899621356368,-0.000392063356981305,-0.00120036131406977,-0.000624052515733918
2.48041340223371,-0.00117057433005179,-0.000788418142077445,0.000546889955184438,-0.000392073023153218,-0.00120037095307787,-0.000624062100567128
2.4904150691782,-0.00117058329818745,-0.000788427160902349,0.000546880910943476,-0.000392082067394162,-0.00120037997190274,-0.000624071068702782
2.50041673612269,-0.00117059159998668,-0.000788435509624605,0.000546872538693587,-0.000392090439644035,-0.00120038832062496,-0.000624079370502021
2.51041840306718,-0.00117059918892779,-0.000788443141459544,0.000546864885351283,-0.000392098092986325,-0.00120039595245987,-0.000624086959443125
2.52042007001167,-0.00117060602201084,-0.000788450013164206,0.000546857994281389,-0.000392104984056206,-0.00120040282416451,-0.000624093792526175
2.53042173695616,-0.00117061206016542,-0.000788456085447346,0.000546851904885876,-0.000392111073451707,-0.00120040889644762,-0.000624099830680757
2.54042340390065,-0.00117061726865487,-0.000788461323375961,0.000546846652196192,-0.000392116326141381,-0.00120041413437622,-0.000624105039170208
2.55042507084514,-0.00117062161747007,-0.000788465696771313,0.000546842266476123,-0.000392120711861442,-0.00120041850777155,-0.000624109387985403
2.56042673778963,-0.0011706250817054,-0.000788469180587023,0.00054683877284263,-0.000392124205494928,-0.00120042199158725,-0.000624112852220734
2.57042840473412,-0.00117062764190933,-0.00078847175526161,0.000546836190912323,-0.00039212678742523,-0.00120042456626183,-0.000624115412424663
2.58043007167861,-0.00117062928440178,-0.00078847340703768,0.000546834534481362,-0.000392128443856188,-0.00120042621803789,-0.00062411705491712
2.5904317386231,-0.00117063000155074,-0.000788474128240066,0.000546833811246547,-0.000392129167091001,-0.00120042693924028,-0.000624117772066072
2.60043340556759,-0.00117062979200048,-0.0007884739175054,0.000546834022575087,-0.000392128955762461,-0.00120042672850561,-0.000624117562515815
2.61043507251209,-0.00117062866084459,-0.000788472779956048,0.000546835163330181,-0.000392127815007371,-0.00120042559095626,-0.000624116431359927
2.62043673945658,-0.00117062661973712,-0.000788470727311926,0.000546837221758883,-0.000392125756578672,-0.00120042353831215,-0.000624114390252451
2.63043840640107,-0.00117062368693633,-0.000788467777934515,0.00054684017944797,-0.000392122798889591,-0.00120042058893475,-0.000624111457451671
2.64044007334556,-0.00117061988727648,-0.000788463956798414,0.00054684401135246,-0.000392118966985108,-0.00120041676779866,-0.000624107657791818
2.65044174029005,-0.00117061525206393,-0.000788459295386941,0.000546848685900312,-0.000392114292437265,-0.00120041210638721,-0.000624103022579263
2.66044340723454,-0.00117060981889571,-0.000788453831509645,0.000546854165175425,-0.000392108813162162,-0.00120040664250993,-0.00062409758941105
2.67044507417903,-0.00117060363139981,-0.000788447609041085,0.000546860405179597,-0.000392102573158002,-0.00120040042004139,-0.000624091401915147
2.68044674112352,-0.001170596738898,-0.000788440677581822,0.000546867356172487,-0.000392095622165125,-0.00120039348858216,-0.00062408450941334
2.69044840806801,-0.00117058919599404,-0.000788433092044228,0.000546874963086975,-0.000392088015250652,-0.00120038590304459,-0.000624076966509373
2.7004500750125,-0.00117058106209124,-0.000788424912167395,0.000546883166015615,-0.000392079812322027,-0.00120037772316779,-0.00062406883260658
2.71045174195699,-0.00117057240084557,-0.000788416201967056,0.000546891900762273,-0.000392071077575386,-0.00120036901296749,-0.000624060171360904
2.72045340890148,-0.00117056327956137,-0.000788407029127991,0.000546901099451425,-0.000392061878886252,-0.00120035984012846,-0.000624051050076708
2.73045507584597,-0.0011705537685389,-0.00078839746434779,0.000546910691186247,-0.000392052287151448,-0.00120035027534829,-0.000624041539054234
2.74045674279047,-0.00117054394038338,-0.000788387580642057,0.000546920602745368,-0.000392042375592347,-0.0012003403916426,-0.000624031710898713
2.75045840973496,-0.0011705338692868,-0.000788377452622131,0.000546930759307186,-0.000392032219030547,-0.00120033026362271,-0.000624021639802139
2.76046007667945,-0.00117052363029406,-0.000788367155757059,0.000546941085189976,-0.000392021893147777,-0.00120031996675767,-0.000624011400809392
2.77046174362394,-0.00117051329856546,-0.000788356765631977,0.000546951504595592,-0.000392011473742181,-0.00120030957663263,-0.000624001069080793
2.78046341056843,-0.00117050294864786,-0.000788346357215094,0.000546961942344558,-0.000392001035993235,-0.00120029916821579,-0.0006239907191632
2.79046507751292,-0.00117049265376619,-0.000788336004145201,0.00054697232459056,-0.000391990653747253,-0.00120028881514594,-0.000623980424281525
2.80046674445741,-0.00117048248514658,-0.000788325778051032,0.000546982579503007,-0.000391980398834826,-0.00120027858905181,-0.000623970255661921
2.8104684114019,-0.00117047251138168,-0.000788315747912909,0.00054699263790718,-0.000391970340430671,-0.00120026855891372,-0.000623960281897017
2.82047007834639,-0.00117046279784705,-0.000788305979475924,0.000547002433872713,-0.000391960544465158,-0.00120025879047677,-0.000623950568362389
2.83047174529088,-0.00117045340617677,-0.000788296534722507,0.000547011905242502,-0.000391951073095387,-0.00120024934572339,-0.000623941176692104
2.84047341223537,-0.00117044439380421,-0.000788287471410667,0.000547020994095768,-0.000391941984242138,-0.00120024028241159,-0.000623932164319548
2.85047507917986,-0.00117043581357281,-0.000788278842682509,0.000547029647140647,-0.000391933331197276,-0.00120023165368346,-0.000623923584088147
2.86047674612435,-0.00117042771341944,-0.000788270696745857,0.00054703781603346,-0.000391925162304478,-0.00120022350774684,-0.000623915483934779
2.87047841306884,-0.00117042013613166,-0.000788263076630104,0.000547045457623551,-0.000391917520714402,-0.00120021588763112,-0.000623907906646995
2.88048008001334,-0.00117041311917815,-0.000788256020015721,0.000547052534124263,-0.000391910444213704,-0.00120020883101676,-0.000623900889693488
2.89048174695783,-0.00117040669461035,-0.000788249559135295,0.000547059013212172,-0.000391903965125807,-0.00120020237013636,-0.000623894465125685
2.90048341390232,-0.00117040088903163,-0.000788243720742575,0.000547064868058136,-0.000391898110279854,-0.00120019653174366,-0.000623888659546968
2.91048508084681,-0.00117039572362949,-0.000788238526144808,0.000547070077294861,-0.000391892901043139,-0.00120019133714591,-0.000623883494144829
2.9204867477913,-0.00117039121426496,-0.000788233991292669,0.00054707462492672,-0.000391888353411289,-0.00120018680229379,-0.000623878984780297
2.93048841473579,-0.0011703873716129,-0.000788230126921361,0.000547078500188259,-0.000391884478149757,-0.0012001829379225,-0.000623875142128235
2.94049008168028,-0.00117038420134631,-0.000788226938735949,0.000547081697358334,-0.000391881280979688,-0.0012001797497371,-0.000623871971861647
2.95049174862477,-0.0011703817043575,-0.000788224427633785,0.000547084215537064,-0.000391878762800963,-0.00120017723863495,-0.000623869474872839
2.96049341556926,-0.00117037987700896,-0.000788222589956791,0.000547086058392839,-0.000391876919945192,-0.00120017540095796,-0.000623867647524293
2.97049508251375,-0.00117037871140692,-0.000788221417766594,0.000547087233886398,-0.000391875744451634,-0.00120017422876777,-0.000623866481922254
2.98049674945824,-0.00117037819569107,-0.000788220899135843,0.000547087753978708,-0.000391875224359325,-0.00120017371013702,-0.000623865966206407
2.99049841640273,-0.00117037831433415,-0.000788221018449514,0.000547087634328798,-0.000391875344009235,-0.00120017382945069,-0.000623866084849489
3.00050008334722,-0.00117037904844598,-0.000788221756710655,0.000547086893987155,-0.000391876084350877,-0.00120017456771183,-0.00062386681896132
3.01050175029172,-0.00117038037607705,-0.000788223091845693,0.000547085555089557,-0.000391877423248473,-0.00120017590284686,-0.000623868146592387
3.02050341723621,-0.00117038227251757,-0.000788224999005176,0.000547083642555486,-0.00039187933578254,-0.00120017781000633,-0.000623870043032903
3.0305050841807,-0.00117038471058863,-0.00078822745085658,0.00054708118379449,-0.000391881794543531,-0.00120018026185773,-0.000623872481103964
3.04050675112519,-0.00117038766092289,-0.000788230417866578,0.000547078208423126,-0.00039188476991489,-0.00120018322886772,-0.000623875431438229
3.05050841806968,-0.00117039109223291,-0.000788233868570872,0.000547074747994361,-0.000391888230343648,-0.001200186679572,-0.000623878862748243
3.06051008501417,-0.00117039497156585,-0.000788237769830392,0.000547070835740655,-0.000391892142597346,-0.0012001905808315,-0.000623882742081191
3.07051175195866,-0.00117039926454418,-0.000788242087073277,0.000547066506331297,-0.000391896472006696,-0.00120019489807437,-0.000623887035059517
3.08051341890315,-0.00117040393559201,-0.000788246784522573,0.000547061795644063,-0.000391901182693921,-0.00120019959552365,-0.000623891706107349
3.09051508584764,-0.00117040894814781,-0.000788251825410089,0.000547056740550763,-0.000391906237787211,-0.00120020463641114,-0.000623896718663146
3.10051675279213,-0.00117041426486403,-0.00078825717217719,0.000547051378715875,-0.00039191159962209,-0.00120020998317823,-0.000623902035379368
3.11051841973662,-0.00117041984779492,-0.00078826278666364,0.000547045748407173,-0.00039191722993078,-0.00120021559766466,-0.000623907618310254
3.12052008668111,-0.00117042565857368,-0.000788268630285798,0.000547039888317034,-0.000391923090020908,-0.00120022144128679,-0.000623913429089018
3.1305217536256,-0.00117043165858056,-0.000788274664205618,0.000547033837392953,-0.000391929140944978,-0.00120022747520659,-0.000623919429095897
3.1405234205701,-0.00117043780910325,-0.000788280849491982,0.000547027634675761,-0.000391935343662159,-0.00120023366049293,-0.000623925579618583
3.15052508751459,-0.00117044407149118,-0.000788287147275872,0.000547021319144012,-0.000391941659193896,-0.00120023995827679,-0.000623931842006515
3.16052675445908,-0.00117045040730518,-0.00078829351890085,0.000547014929563081,-0.000391948048774814,-0.00120024632990175,-0.000623938177820521
3.17052842140357,-0.00117045677846379,-0.0007882999260702,0.000547008504337611,-0.000391954474000272,-0.00120025273707107,-0.000623944548979125
3.18053008834806,-0.00117046314738739,-0.000788306330991918,0.000547002081366108,-0.000391960896971763,-0.00120025914199277,-0.00062395091790273
3.19053175529255,-0.00117046947714133,-0.00078831269652258,0.000546995697896668,-0.000391967280441191,-0.00120026550752341,-0.000623957247656672
3.20053342223704,-0.00117047573157861,-0.000788318986310871,0.00054698939038305,-0.000391973587954796,-0.00120027179731167,-0.000623963502093943
3.21053508918153,-0.00117048187548279,-0.000788325164941328,0.000546983194340522,-0.000391979783997313,-0.00120027797594211,-0.00062396964599813
3.22053675612602,-0.00117048787471154,-0.000788331198078616,0.000546977144201178,-0.000391985834136646,-0.00120028400907937,-0.000623975645226877
3.23053842307051,-0.00117049369634057,-0.000788337052612371,0.000546971273168692,-0.00039199170516912,-0.0012002898636131,-0.000623981466855909
3.240540090015,-0.00117049930880808,-0.000788342696802386,0.000546965613072718,-0.000391997365265083,-0.0012002955078031,-0.000623987079323415
3.25054175695949,-0.00117050468205895,-0.000788348100423685,0.00054696019422341,-0.000392002784114381,-0.00120030091142438,-0.000623992452574292
3.26054342390398,-0.00117050978768823,-0.000788353234910741,0.000546955045266795,-0.000392007933070986,-0.00120030604591141,-0.000623997558203564
3.27054509084847,-0.00117051459908266,-0.000788358073499899,0.000546950193041952,-0.00039201278529582,-0.00120031088450055,-0.000624002369597998
3.28054675779297,-0.00117051909155942,-0.000788362591368817,0.000546945662441174,-0.00039201731589659,-0.00120031540236945,-0.000624006862074762
3.29054842473746,-0.00117052324250045,-0.000788366765771585,0.000546941476274472,-0.000392021502063284,-0.00120031957677221,-0.000624011013015788
3.30055009168195,-0.00117052703148096,-0.000788370576167987,0.000546937655139947,-0.000392025323197801,-0.00120032338716859,-0.000624014801996303
3.31055175862644,-0.00117053044039057,-0.000788374004345266,0.000546934217301681,-0.000392028761036061,-0.00120032681534586,-0.000624018210905912
3.32055342557093,-0.00117053345354516,-0.000788377034530651,0.000546931178576894,-0.000392031799760842,-0.00120032984553123,-0.000624021224060495
3.33055509251542,-0.00117053605778778,-0.000788379653492847,0.000546928552234169,-0.000392034426103562,-0.00120033246449342,-0.000624023828303121
3.34055675945991,-0.00117053824257686,-0.000788381850630682,0.000546926348904554,-0.000392036629433173,-0.00120033466163125,-0.0006240260130922
3.3505584264044,-0.00117054000005975,-0.000788383618047132,0.000546924576507327,-0.000392038401830397,-0.00120033642904769,-0.000624027770575093
3.36056009334889,-0.00117054132513014,-0.000788384950607016,0.000546923240192141,-0.00039203973814558,-0.00120033776160757,-0.000624029095645479
3.37056176029338,-0.00117054221546757,-0.000788385845976769,0.000546922342299135,-0.000392040636038584,-0.00120033865697732,-0.000624029985982911
3.38056342723787,-0.00117054267155778,-0.000788386304644868,0.000546921882338458,-0.00039204109599926,-0.00120033911564542,-0.00062403044207312
3.39056509418236,-0.00117054269669252,-0.000788386329921669,0.000546921856990424,-0.000392041121347294,-0.00120033914092222,-0.000624030467207856
3.40056676112685,-0.00117054229694793,-0.000788385927917669,0.000546922260127316,-0.000392040718210403,-0.00120033873891822,-0.000624030067463272
3.41056842807135,-0.0011705414811408,-0.000788385107499472,0.000546923082857544,-0.000392039895480177,-0.00120033791850002,-0.00062402925165614
3.42057009501584,-0.00117054026076213,-0.000788383880223034,0.000546924313592584,-0.000392038664745139,-0.00120033669122359,-0.000624028031277465
3.43057176196033,-0.0011705386498881,-0.000788382260244108,0.000546925938136792,-0.000392037040200934,-0.00120033507124467,-0.000624026420403441
3.44057342890482,-0.00117053666506862,-0.000788380264206124,0.000546927939799834,-0.000392035038537896,-0.00120033307520669,-0.000624024435583955
3.45057509584931,-0.00117053432519394,-0.000788377911106123,0.000546930299531134,-0.0003920326788066,-0.0012003307221067,-0.000624022095709278
3.4605767627938,-0.00117053165134053,-0.000788375222139696,0.000546932996075369,-0.000392029982262371,-0.00120032803314029,-0.000624019421855872
3.47057842973829,-0.0011705286665973,-0.000788372220526242,0.000546936006147706,-0.000392026972190039,-0.00120032503152684,-0.000624016437112635
3.48058009668278,-0.00117052539587385,-0.000788368931316178,0.000546939304627131,-0.00039202367371062,-0.00120032174231679,-0.000624013166389191
3.49058176362727,-0.00117052186569286,-0.000788365381182072,0.000546942864765912,-0.000392020113571846,-0.0012003181921827,-0.000624009636208199
3.50058343057176,-0.00117051810396852,-0.000788361598195904,0.000546946658412959,-0.000392016319924807,-0.00120031440919654,-0.000624005874483862
3.51058509751625,-0.00117051413977379,-0.00078835761159495,0.0005469506562486,-0.000392012322089173,-0.00120031042259561,-0.000624001910289132
3.52058676446074,-0.00117051000309889,-0.000788353451538941,0.000546954828028112,-0.000392008150309669,-0.00120030626253961,-0.000623997773614232
3.53058843140523,-0.00117050572460397,-0.000788349148861317,0.000546959142831163,-0.000392003835506626,-0.00120030195986201,-0.000623993495119304
3.54059009834973,-0.00117050133536873,-0.000788344734817466,0.000546963569314284,-0.000391999409023514,-0.00120029754581817,-0.000623989105884069
3.55059176529422,-0.00117049686664207,-0.000788340240832894,0.000546968075963406,-0.000391994902374399,-0.00120029305183362,-0.000623984637157412
3.56059343223871,-0.00117049234959445,-0.000788335698254236,0.000546972631343559,-0.000391990346994255,-0.00120028850925498,-0.000623980120109786
3.5705950991832,-0.00117048781507592,-0.000788331138105925,0.000546977204342878,-0.000391985773994946,-0.00120028394910668,-0.000623975585591255
3.58059676612769,-0.00117048329338252,-0.000788326590855236,0.000546981764408229,-0.000391981213929603,-0.00120027940185601,-0.000623971063897856
3.59059843307218,-0.00117047881403343,-0.000788322086188189,0.000546986281769931,-0.00039197669656791,-0.00120027489718898,-0.000623966584548763
3.60060010001667,-0.00117047440556121,-0.000788317652798623,0.000546990727653285,-0.000391972250684564,-0.00120027046379943,-0.000623962176076545
3.61060176696116,-0.00117047009531716,-0.000788313318192426,0.000546995074474887,-0.000391967903862971,-0.00120026612919325,-0.000623957865832495
3.62060343390565,-0.00117046590929342,-0.000788309108508653,0.000546999296022019,-0.000391963682315846,-0.00120026191950949,-0.000623953679808757
3.63060510085014,-0.00117046187196329,-0.000788305048358924,0.000547003367613704,-0.000391959610724169,-0.00120025785935978,-0.000623949642478624
3.64060676779463,-0.00117045800614073,-0.000788301160686161,0.000547007266242364,-0.000391955712095516,-0.00120025397168703,-0.000623945776656071
3.65060843473912,-0.0011704543328599,-0.00078829746664339,0.000547010970695361,-0.000391952007642527,-0.00120025027764427,-0.000623942103375236
3.66061010168361,-0.00117045087127491,-0.000788293985493,0.000547014461656022,-0.000391948516681873,-0.0012002467964939,-0.000623938641790245
3.6706117686281,-0.0011704476385801,-0.000788290734526518,0.000547017721784091,-0.000391945256553809,-0.00120024354552743,-0.000623935409095439
3.6806134355726,-0.00117044464995043,-0.000788287729004663,0.000547020735775843,-0.000391942242562064,-0.00120024054000558,-0.000623932420465768
3.69061510251709,-0.0011704419185015,-0.000788284982117177,0.000547023490404365,-0.000391939487933546,-0.00120023779311811,-0.000623929689016841
3.70061676946158,-0.00117043945526853,-0.000788282504961637,0.000547025974540806,-0.00039193700379711,-0.00120023531596258,-0.000623927225783865
3.71061843640607,-0.00117043726920316,-0.000788280306540302,0.000547028179157539,-0.000391934799180381,-0.00120023311754125,-0.000623925039718499
3.72062010335056,-0.00117043536718715,-0.000788278393773807,0.000547030097314423,-0.000391932881023501,-0.00120023120477476,-0.000623923137702485
3.73062177029505,-0.0011704337540614,-0.000788276771530429,0.000547031724129464,-0.000391931254208463,-0.00120022958253139,-0.000623921524576737
3.74062343723954,-0.00117043243266918,-0.000788275442669505,0.000547033056735267,-0.000391929921602662,-0.00120022825367047,-0.00062392020318452
3.75062510418403,-0.00117043140391192,-0.000788274408097553,0.000547034094222759,-0.000391928884115172,-0.00120022721909853,-0.000623919174427258
3.76062677112852,-0.00117043066681614,-0.000788273666835597,0.000547034837573674,-0.000391928140764259,-0.00120022647783657,-0.000623918437331478
3.77062843807301,-0.00117043021861008,-0.000788273216096208,0.000547035289583297,-0.000391927688754637,-0.00120022602709718,-0.000623917989125417
3.7806301050175,-0.0011704300548085,-0.000788273051368801,0.000547035454774924,-0.000391927523563009,-0.00120022586236978,-0.000623917825323841
3.79063177196199,-0.00117043016930435,-0.000788273166511794,0.000547035339307445,-0.000391927639030488,-0.00120022597751277,-0.000623917939819686
3.80063343890648,-0.00117043055446587,-0.00078827355385031,0.000547034950877366,-0.000391928027460567,-0.00120022636485129,-0.000623918324981212
3.81063510585098,-0.0011704312012381,-0.000788274204278192,0.000547034298616505,-0.000391928679721426,-0.00120022701527917,-0.00062391897175344
3.82063677279547,-0.00117043209924745,-0.000788275107363222,0.00054703339298648,-0.00039192958535145,-0.00120022791836419,-0.000623919869762787
3.83063843973996,-0.00117043323690853,-0.000788276251454536,0.00054703224567099,-0.000391930732666938,-0.0012002290624555,-0.000623921007423869
3.84064010668445,-0.00117043460153229,-0.000788277623791351,0.000547030869466775,-0.00039193210887115,-0.00120023043479231,-0.000623922372047626
3.85064177362894,-0.00117043617943465,-0.000788279210612257,0.000547029278174031,-0.000391933700163891,-0.00120023202161321,-0.00062392394994999
3.86064344057343,-0.00117043795604512,-0.000788280997264392,0.00054702748648691,-0.000391935491851009,-0.00120023380826534,-0.000623925726560456
3.87064510751792,-0.00117043991601469,-0.000788282968312004,0.000547025509884666,-0.000391937468453249,-0.00120023577931294,-0.000623927686530025
3.88064677446241,-0.00117044204332274,-0.000788285107643921,0.000547023364523872,-0.000391939613814039,-0.00120023791864485,-0.000623929813838078
3.8906484414069,-0.0011704443213825,-0.000788287398579622,0.000547021067132058,-0.000391941911205848,-0.00120024020958054,-0.000623932091897843
3.90065010835139,-0.00117044673314484,-0.000788289823973602,0.000547018634903046,-0.000391944343434856,-0.00120024263497452,-0.00062393450366018
3.91065177529588,-0.00117044926120017,-0.000788292366317875,0.000547016085394163,-0.000391946892943735,-0.00120024517731878,-0.000623937031715505
3.92065344224037,-0.00117045188787834,-0.000788295007842429,0.000547013436425497,-0.000391949541912395,-0.00120024781884332,-0.000623939658393679
3.93065510918486,-0.00117045459534645,-0.000788297730613559,0.000547010705981293,-0.000391952272356594,-0.00120025054161444,-0.000623942365861793
3.94065677612935,-0.00117045736570441,-0.000788300516629993,0.000547007912113554,-0.000391955066224328,-0.00120025332763087,-0.000623945136219747
3.95065844307385,-0.00117046018107824,-0.000788303347916745,0.000547005072847919,-0.000391957905489958,-0.00120025615891761,-0.000623947951593583
3.96066011001834,-0.00117046302371117,-0.000788306206616664,0.000547002206091864,-0.000391960772246007,-0.00120025901761752,-0.000623950794226513
3.97066177696283,-0.00117046587605225,-0.000788309075079599,0.000546999329545279,-0.000391963648792586,-0.00120026188608044,-0.000623953646567588
3.98066344390732,-0.0011704687208426,-0.000788311935949137,0.000546996460613491,-0.000391966517724369,-0.00120026474694997,-0.000623956491357944
3.99066511085181,-0.00117047154119919,-0.0007883147722468,0.000546993616322824,-0.000391969362015031,-0.00120026758324762,-0.000623959311714527
4.0006667777963,-0.00117047432069587,-0.00078831756745361,0.000546990813238808,-0.000391972165099041,-0.00120027037845442,-0.000623962091211205
4.01066844474079,-0.00117047704344175,-0.000788320305588865,0.000546988067387181,-0.000391974910950662,-0.00120027311658966,-0.000623964813957091
4.02067011168528,-0.0011704796941566,-0.000788322971285948,0.000546985394177866,-0.000391977584159973,-0.00120027578228674,-0.000623967464671935
4.03067177862977,-0.00117048225824301,-0.000788325549864966,0.000546982808332124,-0.000391980170005709,-0.00120027836086574,-0.000623970028758351
4.04067344557426,-0.00117048472185531,-0.000788328027401965,0.000546980323813149,-0.00039198265452468,-0.00120028083840273,-0.000623972492370644
4.05067511251875,-0.00117048707196462,-0.000788330390794453,0.000546977953760357,-0.000391985024577468,-0.00120028320179521,-0.00062397484247996
4.06067677946324,-0.00117048929642012,-0.000788332627822909,0.000546975710427704,-0.000391987267910116,-0.00120028543882366,-0.00062397706693546
4.07067844640773,-0.00117049138400583,-0.000788334727207968,0.000546973605126343,-0.000391989373211473,-0.00120028753820871,-0.000623979154521171
4.08068011335223,-0.00117049332449285,-0.000788336678662906,0.000546971648171987,-0.000391991330165825,-0.00120028948966364,-0.000623981095008184
4.09068178029672,-0.00117049510868649,-0.000788338472941083,0.000546969848837333,-0.000391993129500476,-0.00120029128394181,-0.000623982879201831
4.10068344724121,-0.00117049672846812,-0.000788340101877959,0.000546968215309931,-0.000391994763027875,-0.00120029291287868,-0.000623984498983458
4.1106851141857,-0.00117049817683112,-0.00078834155842732,0.00054696675465585,-0.000391996223681953,-0.00120029436942804,-0.000623985947346454
4.12068678113019,-0.00117049944791082,-0.000788342836691358,0.000546965472789521,-0.000391997505548279,-0.00120029564769207,-0.000623987218426159
4.13068844807468,-0.00117050053700798,-0.000788343931944258,0.000546964374450076,-0.000391998603887723,-0.00120029674294497,-0.000623988307523318
4.14069011501917,-0.00117050144060545,-0.000788344840648994,0.000546963463184508,-0.000391999515153288,-0.0012002976516497,-0.000623989211120785
4.15069178196366,-0.00117050215637784,-0.000788345560467046,0.000546962741337929,-0.000392000236999866,-0.00120029837146775,-0.000623989926893184
4.16069344890815,-0.00117050268319397,-0.000788346090260813,0.000546962210051143,-0.000392000768286651,-0.00120029890126151,-0.000623990453709308
4.17069511585264,-0.00117050302111175,-0.000788346430088556,0.000546961869265728,-0.000392001109072065,-0.00120029924108926,-0.000623990791627088
4.18069678279713,-0.00117050317136566,-0.000788346581191724,0.000546961717736734,-0.000392001260601059,-0.00120029939219242,-0.000623990941880999
4.19069844974162,-0.00117050313634652,-0.000788346545974653,0.000546961753053051,-0.000392001225284742,-0.00120029935697535,-0.00062399090686186
4.20070011668611,-0.00117050291957372,-0.000788346327976614,0.000546961971665433,-0.000392001006672361,-0.00120029913897731,-0.000623990690089055
4.21070178363061,-0.00117050252565991,-0.000788345931836349,0.000546962368922066,-0.000392000609415729,-0.00120029874283705,-0.000623990296175249
4.2207034505751,-0.00117050196026846,-0.000788345363249224,0.000546962939111532,-0.000392000039226263,-0.00120029817424993,-0.000623989730783802
4.23070511751959,-0.00117050123006376,-0.000788344628917297,0.000546963675512889,-0.000391999302824908,-0.001200297439918,-0.000623989000579101
4.24070678446408,-0.00117050034265482,-0.00078834373649259,0.000546964570452549,-0.00039199840788525,-0.0012002965474933,-0.000623988113170163
4.25070845140857,-0.00117049930653256,-0.000788342694514012,0.000546965615367539,-0.000391997362970262,-0.00120029550551473,-0.000623987077047904
4.26071011835306,-0.00117049813100122,-0.000788341512338387,0.000546966800874667,-0.000391996177463136,-0.00120029432333911,-0.000623985901516559
4.27071178529755,-0.00117049682610447,-0.000788340200066161,0.000546968116845023,-0.000391994861492783,-0.00120029301106688,-0.000623984596619805
4.28071345224204,-0.00117049540254686,-0.000788338768462392,0.000546969552483211,-0.000391993425854597,-0.00120029157946312,-0.000623983173062198
4.29071511918653,-0.00117049387161125,-0.000788337228873701,0.000546971096410636,-0.000391991881927175,-0.00120029003987443,-0.000623981642126584
4.30071678613102,-0.00117049224507288,-0.000788335593141897,0.000546972736752115,-0.000391990241585699,-0.00120028840414264,-0.00062398001558822
4.31071845307551,-0.00117049053511099,-0.000788333873515047,0.000546974461225066,-0.000391988517112751,-0.00120028668451579,-0.000623978305626331
4.32072012002,-0.00117048875421857,-0.000788332082556757,0.000546976257230476,-0.000391986721107345,-0.00120028489355751,-0.000623976524733913
4.33072178696449,-0.00117048691511121,-0.00078833023305448,0.000546978111944858,-0.000391984866392966,-0.00120028304405524,-0.000623974685626547
4.34072345390898,-0.00117048503063571,-0.000788328337927643,0.000546980012412374,-0.000391982965925454,-0.00120028114892841,-0.000623972801151049
4.35072512085348,-0.00117048311367941,-0.000788326410136414,0.000546981945636335,-0.000391981032701497,-0.00120027922113719,-0.000623970884194745
4.36072678779797,-0.0011704811770808,-0.000788324462591862,0.000546983898669285,-0.00039197907966855,-0.00120027727359264,-0.000623968947596139
4.37072845474246,-0.00117047923354241,-0.000788322508068297,0.000546985858700917,-0.000391977119636923,-0.00120027531906909,-0.000623967004057745
4.38073012168695,-0.00117047729554643,-0.00078832055911848,0.000546987813143092,-0.000391975165194751,-0.00120027337011928,-0.000623965066061773
4.39073178863144,-0.00117047537527402,-0.000788318627992396,0.000546989749711305,-0.000391973228626542,-0.0012002714389932,-0.000623963145789357
4.40073345557593,-0.00117047348452858,-0.000788316726560186,0.000546991656501964,-0.000391971321835886,-0.001200269537561,-0.000623961255043924
4.41073512252042,-0.00117047163466392,-0.000788314866239805,0.000546993522064936,-0.000391969456272918,-0.00120026767724062,-0.000623959405179256
4.42073678946491,-0.0011704698365174,-0.00078831305792989,0.00054699533547087,-0.000391967642866987,-0.00120026586893072,-0.000623957607032735
4.4307384564094,-0.00117046810034884,-0.000788311311948248,0.000546997086372884,-0.000391965891964976,-0.00120026412294908,-0.000623955870864178
4.44074012335389,-0.00117046643578526,-0.000788309637976306,0.000546998765062266,-0.000391964213275598,-0.00120026244897714,-0.0006239542063006
4.45074179029838,-0.00117046485177184,-0.000788308045009799,0.000547000362517931,-0.000391962615819935,-0.00120026085601064,-0.000623952622287175
4.46074345724287,-0.00117046335652923,-0.000788306541315861,0.000547001870449447,-0.000391961107888423,-0.00120025935231671,-0.000623951127044573
4.47074512418736,-0.00117046195751746,-0.000788305134396664,0.000547003281333499,-0.000391959697004373,-0.00120025794539752,-0.000623949728032801
4.48074679113186,-0.00117046066140624,-0.000788303830959625,0.00054700458844377,-0.000391958389894105,-0.00120025664196049,-0.000623948431921577
4.49074845807635,-0.00117045947405189,-0.000788302636894169,0.000547005785874236,-0.000391957192463641,-0.00120025544789503,-0.000623947244567226
4.50075012502084,-0.00117045840048066,-0.000788301557254955,0.000547006868555993,-0.000391956109781886,-0.00120025436825582,-0.000623946170995999
4.51075179196533,-0.00117045744487834,-0.000788300596251432,0.000547007832267733,-0.000391955146070148,-0.0012002534072523,-0.000623945215393683
4.52075345890982,-0.00117045661058596,-0.000788299757243502,0.000547008673640081,-0.000391954304697802,-0.00120025256824438,-0.000623944381101299
4.53075512585431,-0.00117045590010131,-0.000788299042743084,0.00054700939015404,-0.000391953588183844,-0.00120025185374396,-0.000623943670616647
4.5407567927988,-0.00117045531508609,-0.000788298454421268,0.000547009980133813,-0.000391952998204072,-0.00120025126542215,-0.000623943085601425
4.55075845974329,-0.00117045485637826,-0.000788297993120759,0.000547010442734318,-0.000391952535603568,-0.00120025080412164,-0.000623942626893602
4.56076012668778,-0.00117045452400938,-0.000788297658873277,0.000547010777923748,-0.000391952200414139,-0.00120025046987416,-0.000623942294524718
4.57076179363227,-0.00117045431722642,-0.000788297450921547,0.000547010986461509,-0.000391951991876378,-0.00120025026192243,-0.000623942087741757
4.58076346057676,-0.00117045423451788,-0.000788297367745525,0.00054701106987193,-0.000391951908465957,-0.00120025017874641,-0.000623942005033215
4.59076512752125,-0.00117045427364367,-0.000788297407092462,0.000547011030414109,-0.000391951947923778,-0.00120025021809335,-0.000623942044159008
4.60076679446574,-0.00117045443166848,-0.000788297566010455,0.000547010871048267,-0.00039195210728962,-0.00120025037701134,-0.000623942202183821
4.61076846141023,-0.00117045470499821,-0.000788297840885089,0.000547010595399006,-0.00039195238293888,-0.00120025065188597,-0.000623942475513554
4.62077012835473,-0.00117045508941913,-0.000788298227478809,0.000547010207715822,-0.000391952770622064,-0.00120025103847969,-0.000623942859934469
4.63077179529922,-0.00117045558013937,-0.000788298720972675,0.000547009712831234,-0.00039195326550665,-0.00120025153197356,-0.000623943350654711
4.64077346224371,-0.00117045617183249,-0.000788299316010133,0.000547009116116894,-0.000391953862220989,-0.00120025212701101,-0.00062394394234783
4.6507751291882,-0.00117045685868266,-0.000788300006742485,0.000547008423437982,-0.0003919545548999,-0.00120025281774336,-0.000623944629198002
4.66077679613269,-0.00117045763443127,-0.000788300786875737,0.000547007641106227,-0.000391955337231654,-0.00120025359787661,-0.000623945404946606
4.67077846307718,-0.00117045849242455,-0.000788301649718528,0.000547006775831848,-0.000391956202506031,-0.0012002544607194,-0.00062394626293989
4.68078013002167,-0.00117045942566207,-0.000788302588230851,0.000547005834674692,-0.000391957143663185,-0.00120025539923172,-0.000623947196177415
4.69078179696616,-0.00117046042684568,-0.000788303595073299,0.00054700482499485,-0.000391958153343026,-0.00120025640607416,-0.000623948197361023
4.70078346391065,-0.00117046148842875,-0.000788304662656589,0.000547003754402991,-0.000391959223934882,-0.00120025747365745,-0.000623949258944085
4.71078513085514,-0.00117046260266544,-0.00078830578319112,0.000547002630710668,-0.000391960347627203,-0.00120025859419197,-0.000623950373180783
4.72078679779963,-0.00117046376165986,-0.000788306948736348,0.000547001461880804,-0.000391961516457065,-0.0012002597597372,-0.0006239515321752
4.73078846474412,-0.00117046495741468,-0.000788308151249753,0.000547000255978581,-0.000391962722359286,-0.0012002609622506,-0.00062395272793002
4.74079013168862,-0.00117046618187929,-0.000788309382635217,0.000546999021122935,-0.00039196395721493,-0.00120026219363606,-0.000623953952394626
4.75079179863311,-0.00117046742699707,-0.000788310634790597,0.000546997765438841,-0.000391965212899021,-0.00120026344579143,-0.000623955197512413
4.7607934655776,-0.00117046868475179,-0.00078831189965433,0.00054699649701058,-0.000391966481327279,-0.00120026471065516,-0.000623956455267128
4.77079513252209,-0.00117046994721272,-0.000788313169250882,0.000546995223836163,-0.000391967754501694,-0.00120026598025171,-0.000623957717728061
4.78079679946658,-0.00117047120657858,-0.00078831443573487,0.000546993953783082,-0.000391969024554773,-0.00120026724673569,-0.000623958977093924
4.79079846641107,-0.0011704724552199,-0.000788315691433699,0.000546992694545553,-0.000391970283792299,-0.00120026850243451,-0.000623960225735244
4.80080013335556,-0.00117047368571977,-0.000788316928888539,0.000546991453603427,-0.000391971524734423,-0.00120026973988935,-0.000623961456235114
4.81080180030005,-0.0011704748909128,-0.000788318140893497,0.000546990238182903,-0.000391972740154944,-0.0012002709518943,-0.00062396266142814
4.82080346724454,-0.0011704760639221,-0.000788319320532823,0.000546989055219222,-0.000391973923118623,-0.00120027213153362,-0.000623963834437441
4.83080513418903,-0.0011704771981942,-0.000788320461215994,0.000546987911321478,-0.000391975067016365,-0.00120027327221679,-0.000623964968709536
4.84080680113352,-0.00117047828753165,-0.000788321556710548,0.000546986812739698,-0.000391976165598144,-0.00120027436771134,-0.000623966058046992
4.85080846807801,-0.00117047932612333,-0.000788322601172503,0.000546985765334332,-0.000391977213003507,-0.00120027541217329,-0.000623967096638671
4.8608101350225,-0.00117048030857212,-0.000788323589174244,0.000546984774548292,-0.000391978203789545,-0.00120027640017503,-0.000623968079087463
4.87081180196699,-0.00117048122992002,-0.000788324515729735,0.000546983845381664,-0.000391979132956172,-0.00120027732673052,-0.000623969000435357
4.88081346891149,-0.00117048208567041,-0.000788325376316955,0.000546982982369212,-0.000391979995968621,-0.00120027818731773,-0.000623969856185748
4.89081513585598,-0.00117048287180751,-0.000788326166897419,0.000546982189560805,-0.000391980788777028,-0.00120027897789819,-0.000623970642322846
4.90081680280047,-0.00117048358481278,-0.000788326883932706,0.000546981470504832,-0.000391981507832999,-0.00120027969493348,-0.000623971355328121
4.91081846974496,-0.00117048422167832,-0.000788327524397903,0.000546980828234733,-0.000391982150103097,-0.00120028033539867,-0.000623971992193658
4.92082013668945,-0.00117048477991704,-0.000788328085791878,0.000546980265258686,-0.000391982713079142,-0.00120028089679265,-0.000623972550432383
4.93082180363394,-0.00117048525756974,-0.000788328566144344,0.000546979783552533,-0.000391983194785295,-0.00120028137714511,-0.000623973028085085
4.94082347057843,-0.00117048565320885,-0.000788328964019661,0.00054697938455596,-0.000391983593781867,-0.00120028177502043,-0.00062397342372419
4.95082513752292,-0.00117048596593895,-0.000788329278517355,0.000546979069171975,-0.000391983909165851,-0.00120028208951812,-0.000623973736454287
4.96082680446741,-0.00117048619539405,-0.00078832950926937,0.000546978837769675,-0.000391984140568151,-0.00120028232027013,-0.000623973965909387
4.9708284714119,-0.0011704863417316,-0.000788329656434045,0.000546978690190274,-0.000391984288147552,-0.00120028246743481,-0.00062397411224694
4.98083013835639,-0.00117048640562332,-0.00078832972068689,0.000546978625756357,-0.000391984352581469,-0.00120028253168765,-0.00062397417613866
4.99083180530088,-0.00117048638824287,-0.000788329703208207,0.000546978643284297,-0.000391984335053528,-0.00120028251420897,-0.000623974158758213
5.00083347224537,-0.00117048629125053,-0.000788329605667647,0.000546978741099738,-0.000391984237238088,-0.00120028241666841,-0.000623974061765868
5.01083513918987,-0.00117047770706936,-0.000788320972967397,0.000546987398127902,-0.00039197558020994,-0.00120027378396819,-0.000623965477584701
5.02083680613436,-0.00117033700493093,-0.000788179475559343,0.00054712929429148,-0.00039183368404663,-0.00120013228656067,-0.000623824775446272
5.03083847307885,-0.00117047529705517,-0.000788318549331447,0.00054698982859393,-0.000391973149743917,-0.00120027136033225,-0.000623963067570513
5.04084014002334,-0.00117064383575271,-0.000788488040635027,0.000546819859644896,-0.00039214311869263,-0.00120044085163519,-0.000624131606268054
5.05084180696783,-0.00117081542855019,-0.000788660603300775,0.000546646810678254,-0.000392316167658945,-0.00120061341430029,-0.000624303199065531
5.06084347391232,-0.00117097892581924,-0.000788825024680949,0.000546481925940238,-0.000392481052396649,-0.00120077783567984,-0.000624466696334576
5.07084514085681,-0.00117113223042207,-0.000788979195784432,0.000546327320365339,-0.000392635657971255,-0.00120093200678274,-0.000624620000937412
5.0808468078013,-0.0011712722319091,-0.000789119988580896,0.000546186130799026,-0.000392776847537301,-0.00120107279957868,-0.000624760002424437
5.09084847474579,-0.00117139465560748,-0.000789243104236413,0.00054606266818982,-0.000392900310146272,-0.00120119591523373,-0.000624882426122817
5.10085014169028,-0.00117149389932335,-0.000789342908892682,0.000545962582272866,-0.000393000396063036,-0.00120129571988962,-0.000624981669838693
5.11085180863477,-0.00117156296045249,-0.000789412360365699,0.00054589293507783,-0.00039307004325794,-0.00120136517136237,-0.000625050730967832
5.12085347557926,-0.00117159357339127,-0.000789443146333404,0.000545862062351825,-0.000393100915983886,-0.00120139595732996,-0.000625081343906607
5.13085514252375,-0.00117157664268491,-0.000789426119932155,0.000545879136735377,-0.000393083841600367,-0.00120137893092877,-0.000625064413200255
5.14085680946824,-0.00117150306240431,-0.000789352123764749,0.000545953341432259,-0.000393009636903627,-0.00120130493476165,-0.00062499083291965
5.15085847641274,-0.00117136498449894,-0.000789213265422313,0.000546092591093035,-0.000392870387243117,-0.00120116607641975,-0.000624852755014283
5.16086014335723,-0.00117115751907129,-0.000789004627368892,0.000546301817111826,-0.000392661161224729,-0.00120095743836713,-0.000624645289586636
5.17086181030172,-0.00117088070393479,-0.00078872624763164,0.000546580981354312,-0.00039238199698278,-0.00120067905863094,-0.000624368474450133
5.18086347724621,-0.00117054137907006,-0.000788385004851779,0.000546923185794492,-0.000392039792543262,-0.0012003378158524,-0.000624029149585401
5.1908651441907,-0.00117015439655688,-0.000787995835055273,0.000547313452315009,-0.000391649526023501,-0.0011999486460574,-0.000623642167072216
5.20086681113519,-0.00116974249262021,-0.000787581602975651,0.000547728851746957,-0.000391234126592357,-0.00119953441397938,-0.000623230263135547
5.21086847807968,-0.00116933427729699,-0.000787171080358084,0.000548140531263173,-0.00039082244707694,-0.0011991238913634,-0.000622822047812335
5.22087014502417,-0.00116896024749865,-0.000786794936487112,0.000548517735149641,-0.000390445243191202,-0.00119874774749388,-0.000622448018013994
5.23087181196866,-0.00116864744798483,-0.000786480368983426,0.000548833189139734,-0.000390129789201718,-0.00119843317999141,-0.000622135218500166
5.24087347891315,-0.00116841413642852,-0.000786245738715149,0.00054906848062235,-0.000389894497719552,-0.00119819854972403,-0.000621901906943863
5.25087514585764,-0.00116826615713987,-0.000786096923025324,0.000549217715691436,-0.000389745262650749,-0.00119804973403476,-0.00062175392765521
5.26087681280213,-0.00116819637036313,-0.000786026741803237,0.000549288094692058,-0.000389674883650259,-0.00119797955281294,-0.000621684140878468
5.27087847974662,-0.00116818743385254,-0.000786017754782148,0.000549297107039578,-0.000389665871302756,-0.00119797056579188,-0.00062167520436788
5.28088014669112,-0.00116821694015203,-0.000786047427855672,0.000549267350344013,-0.000389695627998268,-0.0011980002388653,-0.000621704710667368
5.29088181363561,-0.00116826304653103,-0.000786093794834845,0.000549220852697502,-0.000389742125644698,-0.00119804660584431,-0.000621750817046368
5.3008834805801,-0.0011683087519837,-0.000786139758621593,0.000549174759379656,-0.000389788218962465,-0.00119809256963091,-0.00062179652249904
5.31088514752459,-0.00116834380265944,-0.000786175007409009,0.00054913941125721,-0.000389823567084854,-0.00119812781841821,-0.000621831573174779
5.32088681446908,-0.00116836430979416,-0.000786195630453129,0.000549118730095041,-0.000389844248246991,-0.00119814844146226,-0.000621852080309501
5.33088848141357,-0.00116837094793586,-0.000786202306114597,0.000549112035620811,-0.000389850942721212,-0.00119815511712371,-0.000621858718451197
5.34089014835806,-0.00116836678809419,-0.000786198122760879,0.000549116230763688,-0.000389846747578343,-0.00119815093377001,-0.00062185455860953
5.35089181530255,-0.00116835552727977,-0.000786186798298648,0.000549127587139521,-0.000389835391202528,-0.00119813960930782,-0.000621843297795111
5.36089348224704,-0.00116834041682456,-0.00078617160243688,0.00054914282582493,-0.000389820152517143,-0.0011981244134461,-0.000621828187339901
5.37089514919153,-0.00116832383142094,-0.000786154923290072,0.000549159551975442,-0.000389803426366656,-0.00119810773429934,-0.00062181160193628
5.38089681613602,-0.00116830725777012,-0.000786138255962496,0.000549176266273416,-0.000389786712068707,-0.00119809106697181,-0.000621795028285461
5.39089848308051,-0.00116829147869309,-0.000786122387699763,0.000549192179254691,-0.000389770799087455,-0.00119807519870913,-0.000621779249208436
5.400900150025,-0.0011682767998254,-0.000786107625864911,0.000549206982690048,-0.00038975599565212,-0.00119806043687432,-0.000621764570340743
5.41090181696949,-0.00116826324353664,-0.000786093992953975,0.000549220654020055,-0.000389742324322132,-0.00119804680396342,-0.000621751014051982
5.42090348391399,-0.0011682506880579,-0.000786081366509793,0.000549233316046972,-0.000389729662295233,-0.00119803417751927,-0.000621738458573246
5.43090515085848,-0.00116823895635152,-0.000786069568494051,0.000549245147310846,-0.000389717831031377,-0.00119802237950357,-0.000621726726866865
5.44090681780297,-0.00116822786775443,-0.000786058417222542,0.000549256330007888,-0.00038970664833435,-0.00119801122823209,-0.000621715638269767
5.45090848474746,-0.00116821726511583,-0.000786047754656243,0.000549267022622494,-0.000389695955719759,-0.00119800056566582,-0.000621705035631169
5.46091015169195,-0.00116820702696971,-0.000786037458642592,0.000549277347651466,-0.000389685630690802,-0.0011979902696522,-0.000621694797485053
5.47091181863644,-0.00116819707101265,-0.000786027446412969,0.000549287388096674,-0.000389675590245608,-0.0011979802574226,-0.00062168484152799
5.48091348558093,-0.0011681873526901,-0.000786017673161007,0.000549297188890755,-0.00038966578945154,-0.00119797048417067,-0.000621675123205443
5.49091515252542,-0.00116817786108752,-0.000786008127910461,0.000549306761040888,-0.000389656217301421,-0.00119796093892015,-0.000621665631602856
5.50091681946991,-0.00116816861337496,-0.000785998827928453,0.000549316087231287,-0.000389646891111035,-0.00119795163893817,-0.000621656383890305
5.5109184864144,-0.00116815964854164,-0.000785989812424545,0.000549325128141896,-0.000389637850200439,-0.00119794262343428,-0.000621647419056977
5.52092015335889,-0.00116815102090106,-0.000785981136019255,0.000549333828998269,-0.000389629149344078,-0.00119793394702902,-0.000621638791416403
5.53092182030338,-0.00116814279372619,-0.000785972862343162,0.000549342125990508,-0.00038962085235185,-0.00119792567335295,-0.000621630564241535
5.54092348724787,-0.00116813503330646,-0.000785965058060373,0.000549349952266642,-0.000389613026075727,-0.00119791786907018,-0.000621622803821799
5.55092515419236,-0.00116812780366235,-0.000785957787553228,0.000549357243262891,-0.000389605735079489,-0.00119791059856305,-0.000621615574177686
5.56092682113686,-0.00116812116208742,-0.000785951108439126,0.000549363941199485,-0.000389599037142904,-0.00119790391944897,-0.00062160893260276
5.57092848808135,-0.00116811515561048,-0.000785945068012677,0.000549369998648534,-0.000389592979693863,-0.00119789787902254,-0.000621602926125817
5.58093015502584,-0.00116810981838944,-0.000785939700624871,0.00054937538116224,-0.000389587597180164,-0.00119789251163475,-0.000621597588904784
5.59093182197033,-0.00116810516997523,-0.00078593502593712,0.000549380069023785,-0.000389582909318626,-0.00119788783694701,-0.000621592940490566
5.60093348891482,-0.00116810121432919,-0.00078593104793318,0.000549384058238186,-0.000389578920104231,-0.00119788385894308,-0.00062158898484453
5.61093515585931,-0.00116809793944978,-0.000785927754543662,0.000549387360908845,-0.000389575617433577,-0.00119788056555357,-0.000621585709965122
5.6209368228038,-0.00116809531746477,-0.000785925117738804,0.000549390005144514,-0.000389572973197911,-0.00119787792874872,-0.000621583087980115
5.63093848974829,-0.00116809330507372,-0.000785923093973417,0.000549392034613099,-0.000389570943729328,-0.00119787590498334,-0.000621581075589063
5.64094015669278,-0.00116809184427446,-0.000785921624917503,0.000549393507808978,-0.000389569470533452,-0.00119787443592743,-0.000621579614789805
5.65094182363727,-0.00116809086336953,-0.000785920638468349,0.000549394497038055,-0.000389568481304376,-0.00119787344947828,-0.000621578633884874
5.66094349058176,-0.00116809027831272,-0.000785920050104704,0.000549395087059775,-0.000389567891282657,-0.00119787286111463,-0.000621578048828057
5.67094515752625,-0.0011680899945118,-0.000785919764699699,0.000549395373269084,-0.000389567605073348,-0.00119787257570963,-0.000621577765027137
5.68094682447075,-0.00116808990923908,-0.000785919678945013,0.000549395459265436,-0.000389567519076996,-0.00119787248995494,-0.000621577679754425
5.69094849141524,-0.00116808991480554,-0.000785919684542935,0.000549395453651738,-0.000389567524690694,-0.00119787249555287,-0.000621577685320885
5.70095015835973,-0.00116808990261693,-0.000785919672285433,0.000549395465943783,-0.000389567512398649,-0.00119787248329537,-0.000621577673132275
5.71095182530422,-0.00116808976814454,-0.000785919537052977,0.00054939560155734,-0.000389567376785092,-0.00119787234806291,-0.000621577538659876
5.72095349224871,-0.00116808941670712,-0.000785919183629184,0.00054939595597712,-0.000389567022365313,-0.00119787199463912,-0.000621577187222461
5.7309551591932,-0.00116808876978221,-0.000785918533047755,0.000549396608391961,-0.000389566369950474,-0.00119787134405769,-0.000621576540297549
5.74095682613769,-0.00116808777136243,-0.000785917528984758,0.000549397615284521,-0.000389565363057915,-0.0011978703399947,-0.000621575541877769
5.75095849308218,-0.00116808639367933,-0.000785916143514784,0.000549399004658904,-0.000389563973683534,-0.00119786895452473,-0.000621574164194667
5.76096016002667,-0.00116808464147651,-0.000785914381408256,0.000549400771731246,-0.000389562206611194,-0.0011978671924182,-0.000621572411991851
5.77096182697116,-0.00116808255397694,-0.000785912282109822,0.000549402876945738,-0.000389560101396706,-0.00119786509311978,-0.000621570324492278
5.78096349391565,-0.00116808020380071,-0.000785909918650045,0.000549405247066009,-0.000389557731276438,-0.00119786272966001,-0.000621567974316049
5.79096516086014,-0.00116807769237585,-0.000785907393030236,0.000549407779803298,-0.000389555198539153,-0.0011978602040402,-0.00062156546289119
5.80096682780463,-0.00116807514183603,-0.000785904828074383,0.000549410351987484,-0.000389552626354971,-0.00119785763908436,-0.00062156291235137
5.81096849474913,-0.00116807268396189,-0.000785902356307972,0.00054941283071961,-0.000389550147622848,-0.00119785516731796,-0.000621560454477232
5.82097016169362,-0.00116807044729755,-0.000785900107001669,0.00054941508636471,-0.000389547891977751,-0.00119785291801166,-0.000621558217812891
5.83097182863811,-0.00116806854403288,-0.000785898192979463,0.000549417005780845,-0.00038954597256162,-0.00119785100398946,-0.000621556314548222
5.8409734955826,-0.00116806705845816,-0.000785896699008051,0.000549418503962436,-0.000389544474380031,-0.00119784951001805,-0.000621554828973501
5.85097516252709,-0.00116806603868265,-0.000785895673468613,0.000549419532391959,-0.000389543445950509,-0.00119784848447862,-0.000621553809197987
5.86097682947158,-0.00116806549284804,-0.000785895124548869,0.00054942008285862,-0.00038954289548385,-0.00119784793555888,-0.000621553263363383
5.87097849641607,-0.00116806539033637,-0.000785895021457785,0.000549420186240226,-0.000389542792102244,-0.00119784783246779,-0.00062155316085171
5.88098016336056,-0.00116806566762257,-0.000785895300311246,0.000549419906600926,-0.000389543071741544,-0.00119784811132125,-0.000621553438137908
5.89098183030505,-0.00116806623764742,-0.000785895873557964,0.000549419331738734,-0.000389543646603735,-0.00119784868456797,-0.00062155400816276
5.90098349724954,-0.00116806700106249,-0.00078589664128797,0.000549418561845179,-0.000389544416497289,-0.00119784945229797,-0.000621554771577829
5.91098516419403,-0.00116806785753392,-0.000785897502600309,0.000549417698105565,-0.000389545280236902,-0.00119785031361031,-0.000621555628049264
5.92098683113852,-0.00116806871549661,-0.000785898365412335,0.000549416832862038,-0.000389546145480427,-0.00119785117642233,-0.000621556486011956
5.93098849808301,-0.00116806949923946,-0.000785899153585015,0.000549416042468199,-0.000389546935874264,-0.00119785196459501,-0.000621557269754803
5.9409901650275,-0.00116807015282985,-0.000785899810869595,0.000549415383331318,-0.000389547595011145,-0.00119785262187959,-0.000621557923345193
5.950991831972,-0.00116807064099179,-0.000785900301790697,0.000549414891026745,-0.000389548087315718,-0.00119785311280069,-0.000621558411507131
5.96099349891649,-0.00116807094751174,-0.000785900610043143,0.000549414581905609,-0.000389548396436852,-0.00119785342105313,-0.000621558718027079
5.97099516586098,-0.00116807107199475,-0.000785900735229755,0.000549414456366207,-0.000389548521976255,-0.00119785354623974,-0.000621558842510095
5.98099683280547,-0.00116807102583154,-0.000785900688805615,0.000549414502921176,-0.000389548475421286,-0.0011978534998156,-0.000621558796346876
5.99099849974996,-0.00116807082811342,-0.000785900489969967,0.000549414702317165,-0.000389548276025297,-0.00119785330097996,-0.000621558598628761
6.00100016669445,-0.00116807050201879,-0.000785900162032197,0.0005494150311791,-0.000389547947163363,-0.00119785297304219,-0.000621558272534127
6.01100183363894,-0.00116807007196006,-0.000785899729542717,0.000549415464887384,-0.00038954751345508,-0.00119785254055271,-0.000621557842475403
6.02100350058343,-0.00116806956157661,-0.000785899216274504,0.000549415979602045,-0.00038954699874042,-0.0011978520272845,-0.000621557332091954
6.03100516752792,-0.001168068992512,-0.00078589864399345,0.000549416553495851,-0.000389546424846614,-0.00119785145500345,-0.000621556763027338
6.04100683447241,-0.00116806838382983,-0.000785898031870919,0.000549417167343412,-0.000389545810999054,-0.00119785084288092,-0.00062155615434517
6.0510085014169,-0.00116806775189161,-0.000785897396360894,0.000549417804644375,-0.000389545173698092,-0.00119785020737089,-0.000621555522406954
6.06101016836139,-0.00116806711052682,-0.000785896751371015,0.000549418451451908,-0.00038954452689056,-0.00119784956238102,-0.000621554881042165
6.07101183530588,-0.00116806647135385,-0.000785896108585336,0.000549419096049029,-0.00038954388229344,-0.00119784891959534,-0.000621554241869188
6.08101350225038,-0.00116806584414703,-0.000785895477833452,0.000549419728578442,-0.000389543249764027,-0.00119784828884346,-0.00062155361466237
6.09101516919487,-0.00116806523718101,-0.000785894867436773,0.000549420340695288,-0.000389542637647183,-0.00119784767844678,-0.000621553007696354
6.10101683613936,-0.00116806465751391,-0.000785894284493303,0.000549420925281557,-0.000389542053060914,-0.00119784709550331,-0.00062155242802925
6.11101850308385,-0.00116806411119392,-0.000785893735085435,0.000549421476237718,-0.000389541502104754,-0.00119784654609544,-0.000621551881709264
6.12102017002834,-0.00116806360338982,-0.000785893224411149,0.000549421988351141,-0.000389540989991331,-0.00119784603542116,-0.000621551373905163
6.13102183697283,-0.00116806313845533,-0.000785892756848775,0.000549422457231158,-0.000389540521111315,-0.00119784556785879,-0.000621550908970669
6.14102350391732,-0.00116806271994252,-0.000785892335970467,0.000549422879295549,-0.000389540099046925,-0.00119784514698048,-0.000621550490457857
6.15102517086181,-0.001168062350581,-0.000785891964521265,0.000549423251791537,-0.000389539726550938,-0.00119784477553128,-0.000621550121096342
6.1610268378063,-0.00116806203223919,-0.000785891644380134,0.000549423572834861,-0.000389539405507614,-0.00119784445539015,-0.000621549802754527
6.17102850475079,-0.0011680617658821,-0.000785891376517557,0.000549423841452305,-0.00038953913689017,-0.00119784418752757,-0.00062154953639744
6.18103017169528,-0.00116806155153782,-0.000785891160961772,0.00054942405761555,-0.000389538920726926,-0.00119784397197179,-0.000621549322053161
6.19103183863977,-0.00116806138828175,-0.00078589099678295,0.000549424222257046,-0.00038953875608543,-0.00119784380779297,-0.000621549158797087
6.20103350558426,-0.00116806127424513,-0.000785890882101787,0.000549424337261394,-0.000389538641081082,-0.0011978436931118,-0.000621549044760476
6.21103517252875,-0.00116806120665172,-0.000785890814126324,0.000549424405428419,-0.000389538572914057,-0.00119784362513634,-0.000621548977167061
6.22103683947325,-0.00116806118188378,-0.000785890789218391,0.000549424430406545,-0.000389538547935931,-0.00119784360022841,-0.00062154895239912
6.23103850641774,-0.00116806119557693,-0.000785890802988943,0.000549424416597187,-0.00038953856174529,-0.00119784361399896,-0.000621548966092276
6.24104017336223,-0.0011680612427412,-0.000785890850419793,0.000549424369032671,-0.000389538609309805,-0.00119784366142981,-0.000621549013256547
6.25104184030672,-0.00116806131790439,-0.000785890926007808,0.000549424293231641,-0.000389538685110835,-0.00119784373701783,-0.000621549088419728
6.26104350725121,-0.00116806141527277,-0.000785891023926531,0.000549424195036972,-0.000389538783305504,-0.00119784383493655,-0.00062154918578811
6.2710451741957,-0.00116806152890342,-0.000785891138199441,0.000549424080442028,-0.000389538897900448,-0.00119784394920946,-0.000621549299418763
6.28104684114019,-0.0011680616528818,-0.000785891262878562,0.000549423955411547,-0.000389539022930928,-0.00119784407388858,-0.000621549423397139
6.29104850808468,-0.00116806178149823,-0.000785891392221951,0.000549423825703653,-0.000389539152638822,-0.00119784420323197,-0.00062154955201357
6.30105017502917,-0.00116806190941691,-0.000785891520863648,0.00054942369669943,-0.000389539281643045,-0.00119784433187366,-0.000621549679932251
6.31105184197366,-0.00116806203183126,-0.000785891643969906,0.000549423573246245,-0.00038953940509623,-0.00119784445497992,-0.000621549802346605
6.32105350891815,-0.00116806214460001,-0.000785891757376041,0.000549423459520519,-0.000389539518821956,-0.00119784456838606,-0.000621549915115353
6.33105517586264,-0.00116806224435897,-0.000785891857698857,0.000549423358914982,-0.000389539619427492,-0.00119784466870887,-0.000621550014874317
6.34105684280713,-0.00116806232860441,-0.000785891942420464,0.00054942327395462,-0.000389539704387854,-0.00119784475343048,-0.000621550099119756
6.35105850975163,-0.00116806239574475,-0.000785892009940289,0.000549423206244517,-0.000389539772097957,-0.0011978448209503,-0.000621550166260094
6.36106017669612,-0.00116806244511861,-0.00078589205959322,0.000549423156451658,-0.000389539821890816,-0.00119784487060324,-0.000621550215633957
6.37106184364061,-0.00116806247697843,-0.000785892091633111,0.000549423124321475,-0.000389539854020999,-0.00119784490264313,-0.000621550247493771
6.3810635105851,-0.00116806249244013,-0.000785892107182203,0.000549423108728564,-0.00038953986961391,-0.00119784491819222,-0.000621550262955471
6.39106517752959,-0.00116806249340096,-0.000785892108148468,0.000549423107759575,-0.000389539870582899,-0.00119784491915848,-0.000621550263916306
6.40106684447408,-0.00116806248242877,-0.000785892097114256,0.000549423118824883,-0.000389539859517591,-0.00119784490812427,-0.00062155025294411
6.41106851141857,-0.0011680624626274,-0.00078589207720097,0.000549423138794288,-0.000389539839548186,-0.00119784488821098,-0.000621550233142744
6.42107017836306,-0.00116806243748421,-0.000785892051915669,0.000549423164150845,-0.000389539814191629,-0.00119784486292568,-0.000621550207999557
6.43107184530755,-0.00116806241070633,-0.000785892024986434,0.00054942319115597,-0.000389539787186504,-0.00119784483599645,-0.000621550181221674
6.44107351225204,-0.00116806238605317,-0.000785892000193931,0.000549423216018341,-0.000389539762324133,-0.00119784481120395,-0.000621550156568514
6.45107517919653,-0.00116806236717284,-0.000785891981206889,0.000549423235058891,-0.000389539743283583,-0.0011978447922169,-0.000621550137688186
6.46107684614102,-0.00116806235744988,-0.000785891971428968,0.000549423244864366,-0.000389539733478108,-0.00119784478243898,-0.000621550127965222
6.47107851308551,-0.00116806235987113,-0.000785891973863902,0.000549423242422571,-0.000389539735919903,-0.00119784478487392,-0.00062155013038647
6.48108018003,-0.0011680623769156,-0.000785891991004713,0.000549423225233455,-0.000389539753109019,-0.00119784480201473,-0.000621550147430943
6.4910818469745,-0.00116806241047263,-0.000785892024751415,0.000549423191391651,-0.000389539786950823,-0.00119784483576143,-0.000621550180987975
6.50108351391899,-0.00116806246179104,-0.000785892076359884,0.000549423139637744,-0.000389539838704731,-0.0011978448873699,-0.000621550232306385
6.51108518086348,-0.00116806253146015,-0.000785892146422768,0.000549423069377415,-0.000389539908965059,-0.00119784495743278,-0.000621550301975489
6.52108684780797,-0.00116806261942162,-0.000785892234881409,0.000549422980669488,-0.000389539997672986,-0.00119784504589142,-0.000621550389936958
6.53108851475246,-0.00116806272500946,-0.000785892341066048,0.000549422874185609,-0.000389540104156865,-0.00119784515207606,-0.000621550495524799
6.54109018169695,-0.00116806284701389,-0.000785892463760072,0.000549422751145819,-0.000389540227196655,-0.00119784527477009,-0.000621550617529236
6.55109184864144,-0.00116806298376387,-0.00078589260128298,0.000549422613235356,-0.000389540365107118,-0.00119784541229299,-0.000621550754279212
6.56109351558593,-0.00116806313322218,-0.000785892751586046,0.000549422462508719,-0.000389540515833754,-0.00119784556259606,-0.000621550903737517
6.57109518253042,-0.00116806329308703,-0.000785892912354483,0.000549422301287219,-0.000389540677055254,-0.00119784572336449,-0.000621551063602374
6.58109684947491,-0.00116806346089422,-0.000785893081110146,0.000549422132055983,-0.00038954084628649,-0.00119784589212016,-0.000621551231409566
6.5910985164194,-0.00116806363411448,-0.000785893255309472,0.000549421957365744,-0.000389541020976729,-0.00119784606631948,-0.000621551404629825
6.60110018336389,-0.00116806381024182,-0.000785893432432311,0.000549421779743753,-0.000389541198598719,-0.00119784624344232,-0.000621551580757166
6.61110185030839,-0.00116806398686965,-0.000785893610058463,0.000549421601617031,-0.000389541376725441,-0.00119784642106847,-0.000621551757384991
6.62110351725288,-0.00116806416175269,-0.000785893785929964,0.000549421425249904,-0.000389541553092568,-0.00119784659693997,-0.000621551932268027
6.63110518419737,-0.00116806433285399,-0.000785893957998355,0.000549421252696605,-0.000389541725645867,-0.00119784676900836,-0.000621552103369327
6.64110685114186,-0.0011680644983773,-0.00078589412445723,0.00054942108576863,-0.000389541892573841,-0.00119784693546724,-0.00062155226889264
6.65110851808635,-0.00116806465678593,-0.000785894283761208,0.000549420926015716,-0.000389542052326755,-0.00119784709477122,-0.000621552427301269
6.66111018503084,-0.00116806480680984,-0.000785894434633082,0.000549420774718668,-0.000389542203623803,-0.00119784724564309,-0.000621552577325185
6.67111185197533,-0.00116806494744313,-0.000785894576061244,0.000549420632891946,-0.000389542345450525,-0.00119784738707125,-0.000621552717958466
6.68111351891982,-0.00116806507793392,-0.000785894707289595,0.000549420501293778,-0.000389542477048693,-0.0011978475182996,-0.000621552848449265
6.69111518586431,-0.00116806519776907,-0.000785894827802071,0.000549420380441684,-0.000389542597900786,-0.00119784763881208,-0.000621552968284414
6.7011168528088,-0.00116806530665521,-0.000785894937303647,0.000549420270631521,-0.000389542707710949,-0.00119784774831365,-0.000621553077170549
6.71111851975329,-0.00116806540449792,-0.000785895035699385,0.000549420171958493,-0.000389542806383977,-0.00119784784670939,-0.000621553175013265
6.72112018669778,-0.00116806549138016,-0.000785895123072695,0.000549420084338955,-0.000389542894003515,-0.0011978479340827,-0.000621553261895504
6.73112185364227,-0.00116806556754062,-0.000785895199663622,0.000549420007532186,-0.000389542970810284,-0.00119784801067363,-0.000621553338055961
6.74112352058676,-0.00116806563335267,-0.000785895265847648,0.000549419941161647,-0.000389543037180823,-0.00119784807685765,-0.000621553403868006
6.75112518753126,-0.00116806568930402,-0.000785895322115251,0.000549419884735474,-0.000389543093606995,-0.00119784813312526,-0.000621553459819365
6.76112685447575,-0.00116806573597725,-0.000785895369052282,0.00054941983766617,-0.0003895431406763,-0.00119784818006229,-0.000621553506492592
6.77112852142024,-0.00116806577403098,-0.000785895407321094,0.000549419799289512,-0.000389543179052957,-0.0011978482183311,-0.000621553544546318
6.78113018836473,-0.00116806580418183,-0.00078589543764236,0.000549419768882797,-0.000389543209459672,-0.00119784824865236,-0.000621553574697167
6.79113185530922,-0.00116806582718693,-0.00078589546077749,0.00054941974568247,-0.000389543232659999,-0.00119784827178749,-0.000621553597702268
6.80113352225371,-0.00116806584382701,-0.00078589547751162,0.000549419728901181,-0.000389543249441288,-0.00119784828852162,-0.000621553614342346
6.8111351891982,-0.00116806585489008,-0.00078589548863723,0.000549419717744219,-0.000389543260598251,-0.00119784829964723,-0.000621553625405426
6.82113685614269,-0.00116806586115591,-0.000785895494938472,0.000549419711425218,-0.000389543266917251,-0.00119784830594848,-0.000621553631671253
6.83113852308718,-0.00116806586338128,-0.000785895497176413,0.00054941970918097,-0.000389543269161499,-0.00119784830818642,-0.000621553633896616
6.84114019003167,-0.00116806586228643,-0.000785895496075377,0.000549419710285109,-0.00038954326805736,-0.00119784830708538,-0.000621553632801768
6.85114185697616,-0.00116806585854287,-0.000785895492310658,0.000549419714060438,-0.000389543264282031,-0.00119784830332066,-0.000621553629058208
6.86114352392065,-0.00116806585276271,-0.000785895486497827,0.00054941971988965,-0.000389543258452819,-0.00119784829750783,-0.000621553623278047
