data1,data2,data3,data4,data5,data6,data7
0,0.000527538846012407,-0.000214607881371269,8.25490127022644e-05,-0.00054057102960732,-0.000324019196718269,-0.000683858305382618
0.0100008334027836,0.000527577307484826,-0.000214567102374401,8.25909869560971e-05,-0.000540529055353587,-0.000323978417721586,-0.000683819843910199
0.0200016668055671,0.000527560367806085,-0.000214585062761796,8.25725001368197e-05,-0.000540547542177283,-0.000323996378117392,-0.00068383678358894
0.0300025002083507,0.000527794703454693,-0.000214336607206021,8.28282381378419e-05,-0.000540291803954849,-0.00032374792213846,-0.000683602447940332
0.0400033336111343,0.000527682265032327,-0.000214455821531114,8.27055300881061e-05,-0.000540414511403656,-0.000323867135330015,-0.000683714886362698
0.0500041670139178,0.000527669706101335,-0.000214469136976538,8.26918242340267e-05,-0.000540428217480564,-0.000323880451198653,-0.00068372744529369
0.0600050004167014,0.000527667680027878,-0.000214471285015353,8.26896131714131e-05,-0.000540430428652967,-0.000323882599445898,-0.000683729471367147
0.070005833819485,0.00052768082773198,-0.00021445734498314,8.27039617388801e-05,-0.000540416080184169,-0.00032386865960106,-0.000683716323663044
0.0800066672222685,0.000527722578578353,-0.000214413078433327,8.27495257827955e-05,-0.000540370516121701,-0.00032382439301618,-0.000683674572816672
0.0900075006250521,0.000527816393587973,-0.000214313610943185,8.2851908951792e-05,-0.000540268132577193,-0.000323724924813527,-0.000683580757807052
0.100008334027836,0.000527998095654968,-0.00021412096154492,8.30502057107771e-05,-0.000540069834660315,-0.000323532273217945,-0.000683399055740057
0.110009167430619,0.000528316533535151,-0.000213783338798965,8.33977259391805e-05,-0.0005397223118159,-0.000323194645507521,-0.000683080617859873
0.120010000833403,0.000528826704039129,-0.000213242433031288,8.39544889554101e-05,-0.000539165543796535,-0.000322653730245314,-0.000682570447355896
0.130010834236186,0.000529568834987991,-0.00021245559357135,8.47643961521012e-05,-0.000538355628188367,-0.000321866874822842,-0.000681828316407034
0.14001166763897,0.000530532652847018,-0.0002114337136928,8.58162353462788e-05,-0.00053730377652028,-0.000320844971272225,-0.000680864498548007
0.150012501041753,0.000531621826122551,-0.000210278928837551,8.70048771222788e-05,-0.000536115118719343,-0.000319690156005246,-0.000679775325272473
0.160013334444537,0.000532648411334993,-0.000209190504416819,8.81252139761351e-05,-0.000534994764801767,-0.000318601699200168,-0.000678748740060032
0.170014167847321,0.000533376392367884,-0.000208418672870056,8.89196762782978e-05,-0.00053420028903035,-0.000317829842089759,-0.000678020759027141
0.180015001250104,0.000533592859643112,-0.000208189166849209,8.91559117882759e-05,-0.000533964049198911,-0.000317600327866839,-0.000677804291751913
0.190015834652888,0.000533155316985521,-0.000208653063960135,8.86784121381822e-05,-0.00053444155816173,-0.000318064242653691,-0.000678241834409504
0.200016668055671,0.000531980832466608,-0.000209898291022952,8.7396672111455e-05,-0.000535723323229093,-0.000319309517244809,-0.000679416318928417
0.210017501458455,0.000529987289023807,-0.000212011913428442,8.52210745299632e-05,-0.000537898961257395,-0.000321423216419029,-0.000681409862371218
0.220018334861238,0.000527028991987217,-0.000215148407511487,8.19926167012748e-05,-0.00054112747227391,-0.000324559811448434,-0.000684368159407808
0.230019168264022,0.000522884562076003,-0.000219542499111809,7.74696966310706e-05,-0.00054565045127261,-0.000328954014875008,-0.000688512589319022
0.240020001666806,0.000517367500492843,-0.000225391941153122,7.14487738848016e-05,-0.000551671422652403,-0.000334803549161259,-0.000694029650902182
0.250020835069589,0.000510610358642861,-0.000232556223426826,6.40744920619435e-05,-0.00055904571546474,-0.000341967852145133,-0.000700786792752164
0.260021668472373,0.000503431456508714,-0.000240167743383824,5.62398974715053e-05,-0.000566880258401185,-0.000349579273789666,-0.000707965694886311
0.270022501875156,0.00049738966087763,-0.000246573691398788,4.96462383933779e-05,-0.000573473815750469,-0.000355985028368817,-0.000714007490517395
0.28002333527794,0.000494025743752982,-0.00025014038924949,4.59750427168072e-05,-0.00057714492515857,-0.000359551562214022,-0.000717371407642043
0.290024168680723,0.000493636813586586,-0.000250552766500971,4.55505845692508e-05,-0.000577569371413831,-0.000359963916858082,-0.000717760337808439
0.300025002083507,0.000495066966628774,-0.000249036389092082,4.71113822359034e-05,-0.000576008623477994,-0.000358447633986493,-0.00071633018476625
0.310025835486291,0.000496873901652863,-0.000247120515113301,4.90833801022267e-05,-0.000574036686777051,-0.000356531876282949,-0.000714523249742162
0.320026668889074,0.000498259980125916,-0.000245650874094075,5.05960746999848e-05,-0.000572524035905669,-0.000355062318388805,-0.000713137171269108
0.330027502291858,0.000499019653321667,-0.000244845404143571,5.14251420199591e-05,-0.000571694990888292,-0.000354256890836837,-0.000712377498073357
0.340028335694641,0.000499177272190568,-0.000244678283451477,5.15971588517944e-05,-0.000571522978485185,-0.000354089778564078,-0.000712219879204457
0.350029169097425,0.000498782416024203,-0.000245096942715622,5.11662339958437e-05,-0.00057195389247682,-0.000354508417174483,-0.000712614735370822
0.360030002500208,0.000497851520418623,-0.000246083955967013,5.01503041755332e-05,-0.000572969796192909,-0.000355495380800941,-0.000713545630976402
0.370030835902992,0.00049636363249546,-0.000247661540989946,4.85265016368494e-05,-0.000574593555037991,-0.00035707288276302,-0.000715033518899565
0.380031669305775,0.000494268999517578,-0.000249882453094192,4.62405272342414e-05,-0.00057687946350523,-0.000359293669528715,-0.000717128151877447
0.390032502708559,0.00049150146386921,-0.000252816843349851,4.32201774339943e-05,-0.000579899718092241,-0.000362227878795753,-0.000719895687525815
0.400033336111343,0.000487995516753818,-0.000256534177325301,3.93939555603676e-05,-0.000583725806037653,-0.000365944958196568,-0.000723401634641207
0.410034169514126,0.000483710198961895,-0.000261077893684179,3.47171557223249e-05,-0.000588402421868687,-0.000370488324796515,-0.00072768695243313
0.42003500291691,0.000478660115352586,-0.000266432519328106,2.92057107228344e-05,-0.00059391362105789,-0.000375842483212648,-0.000732737036042439
0.430035836319693,0.000472949664862023,-0.00027248737353155,2.29735500508425e-05,-0.000600145465317549,-0.000381896735994487,-0.000738447486533002
0.440036669722477,0.000466800932665927,-0.000279006989894225,1.62630421476895e-05,-0.00060685558553705,-0.000388415615467088,-0.000744596218729098
0.45003750312526,0.000460560903839296,-0.000285623461880494,9.45287001362002e-06,-0.000613665312301412,-0.000395031240913193,-0.000750836247555729
0.460038336528044,0.000454674071430161,-0.000291865480966522,3.02813968285138e-06,-0.000620089571721164,-0.000401272364904852,-0.000756723079964864
0.470039169930828,0.000449616392280139,-0.000297228361686506,-2.4916966104551e-06,-0.000625608960964189,-0.000406634395876944,-0.000761780759114886
0.480040003333611,0.000445805063733764,-0.000301269710607959,-6.65130870811846e-06,-0.000629768207350642,-0.000410675049652924,-0.000765592087661261
0.490040836736395,0.00044351560145768,-0.000303697359960648,-9.14999174539659e-06,-0.00063226665668467,-0.000413102254778336,-0.000767881549937345
0.500041670139178,0.000442838552131204,-0.000304415277279959,-9.88891409216666e-06,-0.000633005507177364,-0.00041382003551555,-0.000768558599263821
0.510042503541962,0.000443688553580365,-0.000303513965818448,-8.96123300320608e-06,-0.000632077918615899,-0.000412918899933057,-0.00076770859781466
0.520043336944745,0.000445852487200886,-0.000301219407624219,-6.59954277440003e-06,-0.000629716463539093,-0.000410624788722004,-0.000765544664194139
0.530044170347529,0.000449050605483287,-0.000297828243463204,-3.10915960120886e-06,-0.000626226421344501,-0.00040723427269934,-0.000762346545911738
0.540045003750313,0.000452989897605446,-0.000293651181175565,1.19012331819647e-06,-0.000621927543844732,-0.000403057981035665,-0.00075840725378958
0.550045837153096,0.000457402077602927,-0.000288972710290669,6.00549765836179e-06,-0.000617112601594571,-0.000398380331463196,-0.000753995073792099
0.56004667055588,0.000462067707302399,-0.000284025520734929,1.10974685442255e-05,-0.000612021060127948,-0.000393433958135896,-0.000749329444092626
0.570047503958663,0.000466829874938803,-0.000278975998314049,1.62947833277106e-05,-0.00060682415287378,-0.000388385210328392,-0.000744567276456222
0.580048337361447,0.000471598942971075,-0.000273919191510647,2.14996126862349e-05,-0.000601619699370353,-0.000383329117926851,-0.00073979820842395
0.59004917076423,0.000476348269594337,-0.000268883350012024,2.66828802419837e-05,-0.000596436773417478,-0.000378293925719992,-0.000735048881800688
0.600050004167014,0.00048110109067505,-0.000263843836154942,3.18699449037726e-05,-0.00059125001779711,-0.000373254999259821,-0.000730296060719975
0.610050837569797,0.000485910216376588,-0.000258744654602328,3.71184416609713e-05,-0.000586001800570379,-0.000368156349008765,-0.000725486935018437
0.620051670972581,0.000490833537849691,-0.000253524423836892,4.24915500593152e-05,-0.000580628944273878,-0.000362936597408553,-0.000720563613545335
0.630052504375365,0.000495908907718206,-0.000248143010658015,4.8030579751213e-05,-0.000575090138972768,-0.000357555610722724,-0.000715488243676819
0.640053337778148,0.000501131919286584,-0.000242605090172648,5.3730720083423e-05,-0.000569390192397149,-0.000352018058503151,-0.000710265232108442
0.650054171180932,0.000506439860694816,-0.000236977157603578,5.95235291958912e-05,-0.000563597541731779,-0.00034639042708731,-0.000704957290700209
0.660055004583715,0.000511704719370401,-0.000231394943479831,6.52693005094706e-05,-0.000557851889014495,-0.000340808438373641,-0.000699692432024624
0.670055837986499,0.000516737180903118,-0.000226059171418065,7.07614280475185e-05,-0.00055235983821969,-0.000335472812174096,-0.000694659970491907
0.680056671389282,0.000521301717442971,-0.000221219558454863,7.57428739746014e-05,-0.000547378429848997,-0.000330633270593452,-0.000690095433952055
0.690057504792066,0.000525140302408868,-0.000217149670459349,7.99320497106071e-05,-0.000543189260767986,-0.000326563395248795,-0.000686256848986157
0.70005833819485,0.00052800002110506,-0.000214117648679546,8.30529478598721e-05,-0.000540068351423045,-0.000323531352192555,-0.000683397130289965
0.710059171597633,0.000529659093398229,-0.000212358621702729,8.48635402515119e-05,-0.000538257745136436,-0.00032177229880842,-0.000681738057996796
0.720060005000417,0.000529947078609902,-0.000212053286877234,8.51778262639971e-05,-0.000537943455978089,-0.00032146695800419,-0.000681450072785123
0.7300608384032,0.00052875762437684,-0.0002133143970939,8.38797441054289e-05,-0.000539241553613792,-0.000322728097635338,-0.000682639527018185
0.740061671805984,0.000526054739808285,-0.00021618011248589,8.09300154496456e-05,-0.000542191315782754,-0.000325593876719391,-0.000685342411586741
0.750062505208767,0.000521875205141852,-0.000220611446719619,7.63687745829497e-05,-0.000546752597985418,-0.000330025289511795,-0.000689521946253174
0.760063338611551,0.000516330137140864,-0.00022649060636341,7.03172772372886e-05,-0.000552804125556799,-0.000335904506597068,-0.000695067014254162
0.770064172014335,0.000509608191488884,-0.00023361759250479,6.29813970177584e-05,-0.000560140000285105,-0.000343031482294845,-0.000701788959906141
0.780065005417118,0.000501981610077751,-0.000241703784035356,5.46582275895545e-05,-0.000568463103315166,-0.000351117547618816,-0.000709415541317274
0.790065838819902,0.000493814070379957,-0.000250363608520791,4.57446524308062e-05,-0.000577376532258094,-0.000359777094189485,-0.000717583081015068
0.800066672222685,0.000485565523684933,-0.000259109404624818,3.67426289546509e-05,-0.000586378324976044,-0.000368522451686898,-0.000725831627710092
0.810067505625469,0.000477783948349705,-0.000267360158681405,2.82501921911187e-05,-0.000594870463097314,-0.000376772638103764,-0.00073361320304532
0.820068339028252,0.000471069399242606,-0.000274479618366156,2.09222223662778e-05,-0.000602198107621631,-0.000383891479472193,-0.000740327752152419
0.830069172431036,0.000465997664806753,-0.000279857240845881,1.53871267568594e-05,-0.00060773291192584,-0.000389268548246545,-0.000745399486588272
0.84007000583382,0.00046300656831171,-0.000283028758286744,1.21227484909445e-05,-0.000610997097023819,-0.000392439698515363,-0.000748390583083315
0.850070839236603,0.000462277349747151,-0.000283801965967411,1.13269032014986e-05,-0.000611792892013698,-0.000393212810586366,-0.000749119801647874
0.860071672639387,0.000463667984387712,-0.000282327439711785,1.2844598166026e-05,-0.00061027529657834,-0.000391738473517691,-0.000747729167007313
0.87007250604217,0.000466744492934661,-0.000279065340715983,1.62022012550793e-05,-0.000606917910355339,-0.000388476786746568,-0.000744652658460365
0.880073339444954,0.000470903709965576,-0.000274655233282166,2.07414304575008e-05,-0.000602378959899648,-0.000384067209163603,-0.00074049344142945
0.890074172847737,0.00047552674937362,-0.000269753349367706,2.57868473787722e-05,-0.000597333828340458,-0.000379165867676993,-0.000735870402021406
0.900075006250521,0.000480094882799522,-0.000264909711993094,3.07723272441304e-05,-0.000592348601456431,-0.000374322711183041,-0.000731302268595504
0.910075839653304,0.000484237910958884,-0.000260516845414908,3.52938500892586e-05,-0.000587827280434916,-0.000369930228246807,-0.000727159240436141
0.920076673056088,0.000487727325415956,-0.000256817029812692,3.91020357371543e-05,-0.000584019242448125,-0.000366230693335578,-0.00072366982597907
0.930077506458872,0.000490443058594421,-0.000253937561584608,4.20658535302028e-05,-0.000581055524037198,-0.000363351414029415,-0.000720954092800605
0.940078339861655,0.000492336786388503,-0.000251929667550098,4.41325704190715e-05,-0.000578988867361957,-0.000361343634462899,-0.000719060365006523
0.950079173264439,0.000493402655335548,-0.000250799545054046,4.5295802821026e-05,-0.000577825664869874,-0.000360213568828758,-0.000717994496059478
0.960080006667222,0.000493657656168312,-0.000250529172678061,4.5574096787716e-05,-0.000577547377441932,-0.000359943208884102,-0.000717739495226714
0.970080840070006,0.000493130061475133,-0.00025108856985332,4.49983093502756e-05,-0.000578123152458486,-0.000360502582443893,-0.000718267089919893
0.980081673472789,0.000491853517601092,-0.000252442060975232,4.36051608073503e-05,-0.000579516271487901,-0.000361856017451382,-0.000719543633793934
0.990082506875573,0.000489864733047939,-0.000254550726057089,4.14347121193445e-05,-0.000581686673126341,-0.000363964593076665,-0.000721532418347087
1.00008334027836,0.000487203293325326,-0.000257372596691244,3.85301630253488e-05,-0.000584591155227883,-0.00036678633633749,-0.0007241938580697
1.01008417368114,0.000483912617760416,-0.000260861641181275,3.49388964482566e-05,-0.00058818233090942,-0.00037027520801069,-0.00072748453363461
1.02008500708392,0.000480041397062619,-0.000264966239895423,3.07140475923868e-05,-0.000592407059920047,-0.000374379578873206,-0.000731355754332407
1.03008584048671,0.000475645043303004,-0.000269627647395365,2.59160866216622e-05,-0.00059720486649345,-0.000379040692839211,-0.000735752108092022
1.04008667388949,0.000470786795422967,-0.000274778819730346,2.06140254373944e-05,-0.000602506733163852,-0.000384191495382648,-0.000740610355972059
1.05008750729227,0.000465538196980452,-0.000280343907276755,1.4885939380566e-05,-0.000608234579701713,-0.000389756127589331,-0.000745858954414573
1.06008834069506,0.000459978731965867,-0.000286238640237727,8.8185701085745e-06,-0.000614301660876425,-0.000395650312871861,-0.000751418419429159
1.07008917409784,0.000454194491409856,-0.000292371741813896,2.5058707109548e-06,-0.0006206140219161,-0.000401782771234216,-0.000757202659985169
1.08009000750063,0.000448275857707658,-0.000298647382986082,-3.95352124532348e-06,-0.000627073025894631,-0.000408057674876228,-0.000763121293687368
1.09009084090341,0.000442314330202604,-0.000304968547999098,-1.0459747953892e-05,-0.000633578818181524,-0.000414378014079974,-0.000769082821192422
1.10009167430619,0.000436398755449346,-0.000311241031308508,-1.69158454389769e-05,-0.000640034440447022,-0.000420649594033289,-0.000774998395945679
1.11009250770898,0.000430611339604158,-0.000317377665815942,-2.32320955449039e-05,-0.000646350182293439,-0.000426785262384349,-0.000780785811790867
1.12009334111176,0.000425023878410056,-0.000323302320653578,-2.93301405881468e-05,-0.000652447695288667,-0.000432708905850513,-0.00078637327298497
1.13009417451454,0.000419694622319094,-0.000328953225737705,-3.51464049538615e-05,-0.000658263413763838,-0.000438358773253451,-0.000791702529075932
1.14009500791733,0.000414666099751268,-0.000334285280520285,-4.06344710809566e-05,-0.000663750929930564,-0.000443689782621168,-0.000796731051643758
1.15009584132011,0.000409964071185733,-0.000339271163721083,-4.5766221307779e-05,-0.000668882134908036,-0.000448674629364173,-0.000801433080209293
1.16009667472289,0.000405597616840594,-0.0003439012410204,-5.05317425204138e-05,-0.000673647122701673,-0.000453303692695295,-0.000805799534554432
1.17009750812568,0.000401560210296485,-0.000348182427192103,-5.49381547017599e-05,-0.000678053018294229,-0.000457583896892195,-0.000809836941098541
1.18009834152846,0.000397831529177478,-0.000352136266541411,-5.90076349898061e-05,-0.000682122001477043,-0.000461536791303562,-0.000813565622217547
1.19009917493124,0.000394379714369386,-0.000355796537571278,-6.27749521261903e-05,-0.000685888841283114,-0.000465196154986044,-0.000817017437025639
1.20010000833403,0.000391163806162008,-0.000359206669901381,-6.628480773849e-05,-0.000689398237420206,-0.000468605413909905,-0.000820233345233017
1.21010084173681,0.000388136142058395,-0.000362417201721953,-6.95892194013266e-05,-0.000692702203593055,-0.000471815098909155,-0.00082326100933663
1.22010167513959,0.000385244575454943,-0.000365483427115016,-7.27450991587324e-05,-0.000695857646343386,-0.000474880493606596,-0.000826152575940083
1.23010250854238,0.000382434447988291,-0.0003684633045386,-7.58121008713024e-05,-0.000698924212728249,-0.000477859543527572,-0.000828962703406735
1.24010334194516,0.000379650308184307,-0.000371415634310542,-7.88507444398638e-05,-0.000701962414859696,-0.000480811034184471,-0.000831746843210718
1.25010417534795,0.000376837409113584,-0.000374398470431181,-8.192078122157e-05,-0.000705031995607065,-0.000483793003443415,-0.000834559742281442
1.26010500875073,0.000373943037735571,-0.000377467710891394,-8.50797431461973e-05,-0.000708190477966601,-0.000486861332313848,-0.000837454113659455
1.27010584215351,0.000370917731908164,-0.000380675807111032,-8.83816144406051e-05,-0.000711491837011754,-0.000490068454816231,-0.000840479419486862
1.2801066755563,0.000367716432848291,-0.000384070541832293,-9.1875573806027e-05,-0.000714985242279582,-0.00049346213627292,-0.000843680718546735
1.29010750895908,0.000364299606608098,-0.000387693839867439,-9.56047704110838e-05,-0.000718713833970047,-0.000497084284447955,-0.000847097544786928
1.30010834236186,0.000360634352554108,-0.000391580592614584,-9.96051140626235e-05,-0.000722713513335679,-0.000500969774478806,-0.000850762798840917
1.31010917576465,0.000356695503171409,-0.000395757491743604,-0.000103904074829666,-0.000727011742552746,-0.000505145283032176,-0.000854701648223617
1.32011000916743,0.000352466709328853,-0.000400241878254485,-0.000108519498512372,-0.000731626360481243,-0.000509628137915528,-0.000858930442066173
1.33011084257021,0.000347941498260822,-0.000405040620406915,-0.000113458451857557,-0.000736564428229168,-0.000514425196669596,-0.000863455653134203
1.340111675973,0.000343124286207951,-0.000410149039656145,-0.000118716117222187,-0.000741821124233469,-0.000519531773297765,-0.000868272865187075
1.35011250937578,0.000338031320986283,-0.000415549910810372,-0.000124274763671362,-0.000747378715849838,-0.000524930639358301,-0.000873365830408743
1.36011334277856,0.000332691518187537,-0.000421212574897061,-0.000130102834124834,-0.000753205647062401,-0.000530591137901221,-0.000878705633207489
1.37011417618135,0.000327147134927053,-0.000427092224216784,-0.000136154209765885,-0.000759255803511079,-0.000536468469697833,-0.000884250016467972
1.38011500958413,0.000321454195023488,-0.000433129450923238,-0.000142367745711041,-0.000765468048800529,-0.000542503243035908,-0.000889942956371538
1.39011584298692,0.00031568253986651,-0.000439250192507386,-0.000148667215198332,-0.00077176616928954,-0.00054862142034661,-0.000895714611528516
1.4001166763897,0.000309915334907359,-0.000445366254583514,-0.000154961847935399,-0.000778059412914678,-0.00055473484189461,-0.000901481816487667
1.41011750979248,0.000304247823270735,-0.000451376632155783,-0.000161147690210154,-0.000784243849534062,-0.000560742547487884,-0.000907149328124291
1.42011834319527,0.000298785102243253,-0.00045716986725737,-0.000167110031558794,-0.000790204797446852,-0.000566533133834629,-0.000912612049151773
1.43011917659805,0.000293638726913119,-0.000462627650620033,-0.000172727111663647,-0.000795820529617702,-0.000571988354932852,-0.000917758424481907
1.44012001000083,0.000288922039554326,-0.000467629775002477,-0.000177875218206107,-0.000800967370216299,-0.000576988072902101,-0.0009224751118407
1.45012084340362,0.000284744296161975,-0.000472060364509283,-0.000182435097767164,-0.000805526103521405,-0.000581416483507182,-0.000926652855233051
1.4601216768064,0.000281203905096952,-0.000475815045889614,-0.000186299336013083,-0.000809389351502543,-0.000585169282506747,-0.000930193246298074
1.47012251020918,0.000278381368777747,-0.000478808435049209,-0.00018938006214331,-0.00081246927528305,-0.000588161146491154,-0.000933015782617279
1.48012334361197,0.00027633275752465,-0.000480981059347071,-0.000191616072584289,-0.000814704695843081,-0.000590332649493628,-0.000935064393870376
1.49012417701475,0.000275084657269622,-0.000482304716763702,-0.000192978345973471,-0.000816066606476163,-0.000591655617353896,-0.000936312494125404
1.50012501041753,0.000274631445951757,-0.000482785365165885,-0.000193473016311846,-0.000816561144338722,-0.000592136013935734,-0.000936765705443269
1.51012584382032,0.000274935444960774,-0.000482462962067583,-0.000193141207859801,-0.000816229424994613,-0.000591813780220149,-0.000936461706434251
1.5201266772231,0.000275930016468203,-0.000481408179692745,-0.000192055654422304,-0.000815144162691274,-0.000590759551252201,-0.000935467134926823
1.53012751062589,0.00027752515794919,-0.000479716471252492,-0.00019031459279216,-0.000813403565954146,-0.000589068726507703,-0.000933871993445835
1.54012834402867,0.0002796147293697,-0.0004775004054497,-0.000188033874037625,-0.000811123451780385,-0.000586853809922376,-0.000931782422025326
1.55012917743145,0.000282084248832206,-0.000474881398040441,-0.000185338454292599,-0.000808428739578043,-0.000584236147439489,-0.00092931290256282
1.56013001083424,0.000284818242304768,-0.000471981916417934,-0.000182354372309885,-0.000805445431628511,-0.000581338137124012,-0.000926578909090258
1.57013084423702,0.000287706381943135,-0.000468918969171378,-0.000179202049354844,-0.000802293915301789,-0.000578276723134586,-0.00092369076945189
1.5801316776398,0.000290647993696023,-0.000465799325356079,-0.00017599136912882,-0.000799084044547169,-0.000575158617972714,-0.000920749157699003
1.59013251104259,0.000293554852588042,-0.000462716549995486,-0.000172818626780643,-0.000795912089718522,-0.000572077339531484,-0.000917842298806984
1.60013334444537,0.000296352439988599,-0.000459749670888382,-0.000169765156719344,-0.000792859365565076,-0.000569111878241008,-0.000915044711406427
1.61013417784815,0.000298979983244191,-0.000456963136869994,-0.000166897289503419,-0.000789992187836643,-0.000566326654789383,-0.000912417168150835
1.62013501125094,0.000301389643546683,-0.000454407679434836,-0.000164267238429178,-0.000787362759304373,-0.000563772380666424,-0.000910007507848342
1.63013584465372,0.000303545192053222,-0.000452121717070468,-0.000161914544672549,-0.000785010614203062,-0.000561487461167633,-0.000907851959341803
1.6401366780565,0.000305420449978376,-0.000450133009859748,-0.000159867780025984,-0.000782964320248098,-0.000559499648627819,-0.00090597670141665
1.65013751145929,0.000306997692316536,-0.000448460352594156,-0.000158146289301701,-0.000781243220369436,-0.000557827734262188,-0.00090439945907849
1.66013834486207,0.000308266144043053,-0.000447115169749332,-0.000156761831765836,-0.000779859073565025,-0.000556483142037992,-0.000903131007351973
1.67013917826486,0.000309220640310894,-0.000446102936483565,-0.000155720043547991,-0.000778817516831994,-0.000555471348763738,-0.000902176511084131
1.68014001166764,0.000309860480350216,-0.000445424394163412,-0.00015502168860624,-0.000778119315754168,-0.000554793098897262,-0.00090153667104481
1.69014084507042,0.000310188477054785,-0.000445076558322836,-0.000154663696087422,-0.000777761401575735,-0.000554445411960065,-0.00090120867434024
1.70014167847321,0.00031021018771827,-0.000445053534482161,-0.000154639999954227,-0.000777737710618875,-0.000554422397958164,-0.000901186963676756
1.71014251187599,0.000309933302977094,-0.000445347166166663,-0.000154942205924982,-0.00077803985107688,-0.000554715905121901,-0.000901463848417932
1.72014334527877,0.000309367168042711,-0.0004459475426167,-0.000155560114017097,-0.000778657625460236,-0.000555316027431041,-0.000902029983352315
1.73014417868156,0.000308522410692515,-0.000446843393269947,-0.000156482124562569,-0.000779579436552382,-0.000556211498983446,-0.000902874740702511
1.74014501208434,0.000307410652759787,-0.000448022393686341,-0.000157695553084385,-0.000780792602254177,-0.000557389999859346,-0.000903986498635239
1.75014584548712,0.000306044285036075,-0.000449471404220363,-0.000159186875958918,-0.000782283601234301,-0.000558838394770819,-0.000905352866358951
1.76014667888991,0.00030443628895817,-0.000451176659076459,-0.000160941925013954,-0.000784038267528954,-0.000560542922120408,-0.000906960862436856
1.77014751229269,0.00030260009183553,-0.000453123919794484,-0.000162946045518509,-0.000786041948542197,-0.000562489347506563,-0.000908797059559496
1.78014834569547,0.000300549445488282,-0.000455298603908992,-0.000165184228621367,-0.000788279637500146,-0.000564663092412715,-0.000910847705906744
1.79014917909826,0.000298298320919607,-0.000457685896605686,-0.000167641226289561,-0.00079073608840753,-0.000567049345898062,-0.000913098830475419
1.80015001250104,0.000295860814008416,-0.000460270850693181,-0.000170301654219862,-0.000793395918977646,-0.000569633164604448,-0.00091553633738661
1.81015084590383,0.000293251059180438,-0.000463038478116554,-0.000173150086043645,-0.000796243704854734,-0.000572399564303198,-0.000918146092214587
1.82015167930661,0.000290483149616296,-0.000465973834541804,-0.000176171140398635,-0.00079926406670143,-0.000575333604509425,-0.00092091400177873
1.83015251270939,0.000287571063809275,-0.000469062097210186,-0.000179349561072131,-0.000802441750355462,-0.00057842046636196,-0.00092382608758575
1.84015334611218,0.000284528599221583,-0.000472288635268566,-0.00018267028939858,-0.000805761699238401,-0.000581645522974982,-0.000926868552173443
1.85015417951496,0.000281369314435115,-0.000475639071095421,-0.00018611852738781,-0.000809209117493056,-0.000584994400781403,-0.00093002783695991
1.86015501291774,0.00027810648158093,-0.000479099330730289,-0.00018967978963656,-0.000812769521902624,-0.000588453029976811,-0.000933290669814096
1.87015584632053,0.000274753050990812,-0.000482655681345511,-0.000193339941902054,-0.000816428780471049,-0.000592007682004111,-0.000936644100404214
1.88015667972331,0.00027132162997518,-0.00048629475374047,-0.000197085224259034,-0.000820173135586861,-0.000595644992060693,-0.000940075521419846
1.89015751312609,0.000267824477424649,-0.000490003548057843,-0.000200902256987466,-0.000823989209918612,-0.00059935196482938,-0.000943572673970377
1.90015834652888,0.000264273515587994,-0.000493769421286697,-0.000204778027714142,-0.00082786399356611,-0.00060311596199983,-0.000947123635807032
1.91015917993166,0.000260680359925427,-0.000497580055598474,-0.000208699858826702,-0.00083178481148688,-0.000606924670628154,-0.000950716791469599
1.92016001333444,0.000257056367398925,-0.000501423407131529,-0.000212655354764913,-0.000835739270803517,-0.000610766051952016,-0.0009543407839961
1.93016084673723,0.000253412702962818,-0.000505287635474634,-0.000216632329447259,-0.000839715188250683,-0.000614628270912905,-0.000957984448432208
1.94016168014001,0.000249760423375521,-0.000509161014781093,-0.000220618714792037,-0.000843700498721383,-0.000618499607318117,-0.000961636728019504
1.9501625135428,0.000246110576779615,-0.000513031828159628,-0.000224602452027473,-0.00084768314660727,-0.000622368350289008,-0.00096528657461541
1.96016334694558,0.000242474315800014,-0.000516888247727997,-0.000228571368246687,-0.00085165096238868,-0.000626222678381257,-0.000968922835595012
1.97016418034836,0.000238863021192306,-0.000520718203476552,-0.000232513041446739,-0.000855591527713159,-0.000630050528523467,-0.000972534130202719
1.98016501375115,0.000235288432336457,-0.000524509244870656,-0.00023641465809538,-0.000859492033005216,-0.000633839457701293,-0.000976108719058569
1.99016584715393,0.00023176278011571,-0.000528248399922154,-0.000240262868093694,-0.000863339132474122,-0.000637576502114729,-0.000979634371279316
2.00016668055671,0.000228298916950376,-0.000531922037277181,-0.000244043642843584,-0.000867118802226843,-0.000641248039352291,-0.00098309823444465
2.0101675139595,0.000224910437981123,-0.000535515737689836,-0.000247742142975148,-0.000870816208038758,-0.000644839659947038,-0.000986486713413903
2.02016834736228,0.000221611786637091,-0.000539014182056853,-0.000251342603117933,-0.00087441559016317,-0.000648336055483952,-0.000989785364757934
2.03016918076506,0.000218418337115918,-0.00054240106393982,-0.000254828241873236,-0.000877900173333282,-0.000651720931178532,-0.000992978814279108
2.04017001416785,0.000215346445699896,-0.000545659035141167,-0.000258181205802787,-0.000881252110767947,-0.000654976951485205,-0.000996050705695129
2.05017084757063,0.000212413462411267,-0.00054876969334716,-0.000261382556709068,-0.00088445247145201,-0.000658085727740342,-0.000998983688983758
2.06017168097341,0.000209637694369636,-0.000551713620999772,-0.000264412311635409,-0.000887481280114699,-0.000661027856992863,-0.00100175945702539
2.0701725143762,0.000207038312477167,-0.00055447048428087,-0.000267249544727388,-0.000890317619042891,-0.000663783020896915,-0.00100435883891786
2.08017334777898,0.000204635193859629,-0.000557019200241041,-0.000269872559221168,-0.000892939799990499,-0.000666330152690644,-0.0010067619575354
2.09017418118177,0.00020244869397502,-0.000559338178531594,-0.000272259136204886,-0.000895325612826481,-0.000668647678712688,-0.00100894845742001
2.10017501458455,0.000200499344593687,-0.000561405641766789,-0.000274386864297037,-0.000897452655063025,-0.000670713838478937,-0.00101089780680134
2.11017584798733,0.000198807477042566,-0.000563200025160703,-0.000276233550904967,-0.000899298742926511,-0.000672507083962984,-0.00101258967435246
2.12017668139012,0.000197392774208967,-0.000564700451730803,-0.000277777711247828,-0.00090084240015749,-0.000674006554375936,-0.00101400437718606
2.1301775147929,0.000196273759729967,-0.000565887274129787,-0.000278999125945992,-0.000902063415346518,-0.000675192617516322,-0.00101512339166506
2.14017834819568,0.000195467238331305,-0.000566742668292543,-0.000279879451933636,-0.000902943452570703,-0.000676047462892462,-0.00101592991306372
2.15017918159847,0.000194987707050732,-0.000567251257963065,-0.000280402865151401,-0.0009034666937994,-0.000676555725704035,-0.00101640944434429
2.16018001500125,0.000194846762559201,-0.000567400743354646,-0.000280556707495716,-0.000903620485560343,-0.00067670511496412,-0.00101655038883582
2.17018084840403,0.000195052534331898,-0.00056718250238228,-0.000280332105546994,-0.000903395957405521,-0.000676487014233103,-0.00101634461706313
2.18018168180682,0.000195609176317399,-0.000566592129834249,-0.00027972452543756,-0.000902788576556026,-0.000675897020366389,-0.00101578797507763
2.1901825152096,0.000196516450346684,-0.000565629879220993,-0.000278734227572593,-0.000901798602457207,-0.000674935385048254,-0.00101488070104834
2.20018334861238,0.000197769432316895,-0.000564300974381283,-0.000277366587326912,-0.000900431407382844,-0.000673607326222109,-0.00101362771907813
2.21018418201517,0.000199358366963148,-0.000562615763465819,-0.000275632253540824,-0.000898697634923412,-0.000671923182059752,-0.00101203878443188
2.22018501541795,0.000201268688958878,-0.000560589696483096,-0.0002735471254513,-0.000896613177000842,-0.000669898388666189,-0.00101012846243615
2.23018584882074,0.000203481217740374,-0.000558243118567022,-0.000271132139987602,-0.000894198961338282,-0.000667553273678231,-0.00100791593365465
2.24018668222352,0.000205972521793079,-0.000555600883493185,-0.000268412874086998,-0.000891480554032632,-0.000664912670268905,-0.00100542462960195
2.2501875156263,0.000208715436386001,-0.000552691804436314,-0.000265418979513905,-0.000888487594698713,-0.000662005368522664,-0.00100268171500903
2.26018834902909,0.000211679708197411,-0.000549547970144961,-0.000262183479174536,-0.000885253093157331,-0.000658863432319724,-0.000999717443197615
2.27018918243187,0.000214832732112535,-0.000546203963366883,-0.000258741962828789,-0.0008818126255458,-0.000655521418519043,-0.000996564419282491
2.28019001583465,0.000218140340543932,-0.000542696023586498,-0.000255131725481796,-0.000878203473109283,-0.00065201554045553,-0.000993256810851094
2.29019084923744,0.000221567604327351,-0.000539061197510525,-0.000251390893153367,-0.000874463748348495,-0.000648382819144508,-0.000989829547067675
2.30019168264022,0.000225079606483951,-0.00053533651836159,-0.000247557578279304,-0.000870631550758549,-0.000644660263216718,-0.000986317544911075
2.310192516043,0.000228642155373103,-0.000531558249486239,-0.000243669101284891,-0.000866744188684926,-0.000640884113063109,-0.000982754996021923
2.32019334944579,0.000232222411128869,-0.000527761219965499,-0.000239761306826172,-0.000862837495783487,-0.000637089176861026,-0.000979174740266157
2.33019418284857,0.00023578940776673,-0.000523978270905564,-0.000235867993922669,-0.000858945261305088,-0.000633308277153489,-0.000975607743628296
2.34019501625135,0.00023931446197147,-0.000520239821937377,-0.000232020469790721,-0.000855098784015871,-0.000629571817513969,-0.000972082689423556
2.35019584965414,0.000242771467492967,-0.00051657355905734,-0.000228247228545825,-0.000851326550927492,-0.000625907470440037,-0.00096862568390206
2.36019668305692,0.000246137080684054,-0.000513004237933213,-0.000224573748730127,-0.000847654034802044,-0.000622339980616318,-0.000965260070710973
2.3701975164597,0.000249390807681623,-0.000509553591531588,-0.00022102239819983,-0.000844103598976522,-0.000618891072422334,-0.000962006343713403
2.38019834986249,0.000252515006975728,-0.000506240327483924,-0.00021761243136721,-0.000840694494512069,-0.000615579447122191,-0.000958882144419298
2.39019918326527,0.000255494822746076,-0.000503080198875498,-0.000214360062008291,-0.00083744293288902,-0.000612420853439474,-0.00095590232864895
2.40020001666806,0.000258318064617395,-0.000500086131854181,-0.000211278594550768,-0.000834362217171295,-0.000609428214931261,-0.000953079086777631
2.41020085007084,0.000260975048707911,-0.000497268394281432,-0.000208378597605752,-0.000831462915411183,-0.000606611798397822,-0.000950422102687115
2.42020168347362,0.000263458413344335,-0.0004946347912407,-0.000205668105145595,-0.000828753061702668,-0.000603979409154442,-0.000947938738050691
2.43020251687641,0.000265762920891534,-0.000492190875261113,-0.000203152832831863,-0.00082623837239172,-0.000601536601031466,-0.000945634230503492
2.44020335027919,0.000267885255045421,-0.000489940161341862,-0.000200836399289636,-0.000823922467242667,-0.000599286891193573,-0.000943511896349605
2.45020418368197,0.000269823820854582,-0.000487884339072356,-0.000198720544398198,-0.000821807087632419,-0.00059723197207664,-0.000941573330540443
2.46020501708476,0.000271578552802737,-0.000486023476194066,-0.000196805338778621,-0.000819892305953846,-0.000595371914789552,-0.000939818598592289
2.47020585048754,0.00027315073458192,-0.000484356209755442,-0.000195089380516824,-0.000818176722266881,-0.000593705360132397,-0.000938246416813105
2.48020668389032,0.000274542832755367,-0.000482879922528957,-0.000193569976722534,-0.000816657645797279,-0.000592229694899104,-0.000936854318639658
2.49020751729311,0.000275758345358563,-0.000481590903579459,-0.000192243308780362,-0.000815331260138365,-0.000590941212352075,-0.000935638806036463
2.50020835069589,0.000276801665604492,-0.000480484492808855,-0.000191104581112302,-0.000814192771974025,-0.000589835256691778,-0.000934595485790534
2.51020918409868,0.000277677960219236,-0.000479555209980651,-0.000190148153969402,-0.000813236543839483,-0.000588906352022592,-0.00093371919117579
2.52021001750146,0.000278393061503985,-0.000478796869183883,-0.000189367661239645,-0.000812456211905733,-0.000588148316772195,-0.000933004089891041
2.53021085090424,0.000278953371964035,-0.000478202679966852,-0.000188756114537955,-0.000811844790052406,-0.000587554364792705,-0.000932443779430991
2.54021168430703,0.000279365780229382,-0.000477765336493906,-0.000188305994970728,-0.000811394761620364,-0.000587117194494802,-0.000932031371165644
2.55021251770981,0.000279637586982457,-0.000477477096088036,-0.000188009333977122,-0.00081109816024533,-0.000586829067375768,-0.000931759564412569
2.56021335111259,0.000279776439676727,-0.000477329848449686,-0.000187857784574897,-0.000810946641099481,-0.000586681877230214,-0.000931620711718298
2.57021418451538,0.000279790274949374,-0.000477315176715345,-0.000187842684208139,-0.000810931543737584,-0.000586667211205662,-0.000931606876445652
2.58021501791816,0.000279687267779834,-0.000477424411361859,-0.00018795511023198,-0.000811043947582173,-0.000586776403707733,-0.000931709883615192
2.59021585132094,0.000279475786605049,-0.000477648677793691,-0.00018818592889582,-0.000811274720908755,-0.000587000583991162,-0.000931921364789977
2.60021668472373,0.000279164353756563,-0.00047797893828664,-0.0001885258385181,-0.000811614564023641,-0.000587330718109338,-0.000932232797638463
2.61021751812651,0.000278761610722347,-0.000478406028815435,-0.000188965407395332,-0.000812054047176774,-0.000587757645749105,-0.000932635540672679
2.62021835152929,0.00027827628784834,-0.000478920691173676,-0.000189495106865691,-0.000812583643629568,-0.000588272112358783,-0.000933120863546686
2.63021918493208,0.000277717178175302,-0.000479513600709092,-0.000190105339859496,-0.000813193758209869,-0.000588864796891922,-0.000933679973219724
2.64022001833486,0.000277093115152068,-0.000480175389948795,-0.000190786465219228,-0.000813874751636488,-0.00058952633544115,-0.000934304036242958
2.65022085173764,0.000276412953975794,-0.000480896668379108,-0.000191528818061345,-0.000814616960885434,-0.000590247341026388,-0.000934984197419232
2.66022168514043,0.00027568555628441,-0.000481668038671439,-0.000192322726479828,-0.000815410715897648,-0.000591018419828667,-0.000935711595110616
2.67022251854321,0.000274919777869457,-0.000482480109706123,-0.000193158524953684,-0.000816246352990321,-0.000591830184221247,-0.000936477373525569
2.680223351946,0.00027412445899355,-0.000483323506835156,-0.000194026564912142,-0.000817114225425453,-0.000592673263038712,-0.000937272692401476
2.69022418534878,0.000273308416792291,-0.000484188879935474,-0.000194917223025344,-0.00081800471170329,-0.000593538309635474,-0.000938088734602735
2.70022501875156,0.000272480439122817,-0.000485066909929127,-0.000195820907916627,-0.000818908222276607,-0.000594416008409756,-0.000938916712272209
2.71022585215435,0.00027164927909882,-0.000485948314576497,-0.000196728066126096,-0.000819815205515383,-0.000595297080598893,-0.000939747872296206
2.72022668555713,0.000270823649433586,-0.000486823854474082,-0.000197629188284239,-0.000820716153880425,-0.000596172290277139,-0.000940573501961441
2.73022751895991,0.000270012215607858,-0.00048768434029948,-0.000198514816568685,-0.000821601611378858,-0.000597032451598236,-0.000941384935787168
2.7402283523627,0.000269223586797485,-0.000488520642432991,-0.000199375554606524,-0.000822462183463676,-0.000597868438411758,-0.000942173564597541
2.75022918576548,0.000268466303446303,-0.000489323704137711,-0.000200202081038625,-0.000823288550593586,-0.000598671197434702,-0.000942930847948724
2.76023001916826,0.000267748820361519,-0.000490084559488727,-0.000200985167971349,-0.000824071486678318,-0.000599431766168521,-0.000943648331033507
2.77023085257105,0.000267079484250195,-0.000490794357198134,-0.000201715705495906,-0.000824801883589473,-0.000600141296707971,-0.000944317667144831
2.78023168597383,0.000266466504713513,-0.000491444391378578,-0.000202384733348565,-0.000825470782809955,-0.000600791086484179,-0.000944930646681513
2.79023251937661,0.000265917917875782,-0.000492026140118032,-0.000202983480609961,-0.000826069415120138,-0.000601372616814457,-0.000945479233519244
2.8002333527794,0.000265441542050968,-0.000492531312499052,-0.000203503414095293,-0.00082658924897255,-0.000601877599892073,-0.000945955609344058
2.81023418618218,0.000265044925141158,-0.00049295190438639,-0.000203936295768857,-0.000827022047888581,-0.00060229803454002,-0.000946352226253869
2.82023501958497,0.000264735283815673,-0.000493280262931149,-0.000204274249129641,-0.000827359936824174,-0.000602626270677338,-0.000946661867579353
2.83023585298775,0.000264519434928768,-0.000493509159305625,-0.000204509834068087,-0.000827595477004902,-0.000602855082012771,-0.000946877716466258
2.84023668639053,0.000264403720085486,-0.000493631868704004,-0.000204636129201104,-0.000827721748238011,-0.000602977746001826,-0.00094699343130954
2.85023751979332,0.000264393924741559,-0.000493642256138938,-0.000204646820172589,-0.000827732437189316,-0.000602988129598466,-0.000947003226653467
2.8602383531961,0.000264495193701111,-0.000493534866057215,-0.000204536291885078,-0.000827621929591321,-0.000602880778826081,-0.000946901957693916
2.87023918659888,0.000264711945327986,-0.00049330501331834,-0.000204299722134771,-0.000827385403855705,-0.00060265100971325,-0.00094668520606704
2.88024002000167,0.000265047787181713,-0.000492948872660756,-0.00020393317369084,-0.00082701892313205,-0.000602294997720875,-0.000946349364213313
2.89024085340445,0.000265505436095113,-0.000492463563455953,-0.000203433681525943,-0.00082651952252076,-0.000601809862462866,-0.000945891715299913
2.90024168680723,0.000266086645896042,-0.000491847226354064,-0.000202799331702473,-0.000825885287945723,-0.000601193744325928,-0.000945310505498985
2.91024252021002,0.000266792146013344,-0.000491099088384776,-0.000202029328378081,-0.000825115423151185,-0.000600445869554055,-0.000944605005381682
2.9202433536128,0.000267621594076624,-0.000490219513215829,-0.000201124045536443,-0.000824210301429643,-0.000599566600501562,-0.000943775557318402
2.93024418701558,0.000268573545310987,-0.000489210033598597,-0.000200085060385995,-0.00082317149902408,-0.000598557468085334,-0.000942823606084039
2.94024502041837,0.000269645441043968,-0.000488073363543599,-0.000198915165897595,-0.00082200180767587,-0.000597421183979806,-0.000941751710351058
2.95024585382115,0.000270833617999021,-0.000486813388450631,-0.000197618360653777,-0.0008207052244911,-0.00059616163077951,-0.000940563533396005
2.96024668722394,0.000272133339278594,-0.000485435132236342,-0.000196199815024241,-0.000819286918139665,-0.000594783829171519,-0.000939263812116432
2.97024752062672,0.000273538847082798,-0.000483944701411019,-0.000194665813617643,-0.000817753171336655,-0.000593293882068453,-0.000937858304312228
2.9802483540295,0.000275043436319046,-0.000482349207000954,-0.000193023674931881,-0.000816111300527324,-0.000591698896596746,-0.00093635371507598
2.99024918743229,0.000276639547390768,-0.000480656666132512,-0.000191281650071705,-0.000814369554643331,-0.000590006885754108,-0.000934757604004258
3.00025002083507,0.000278318875666009,-0.00047887588592893,-0.00018944880326174,-0.000812536995657015,-0.00058822665238469,-0.000933078275729018
3.01025085423785,0.000280072494470439,-0.000477016333066814,-0.000187534877599316,-0.000810623364376633,-0.000586367658816151,-0.000931324656924587
3.02025168764064,0.000281890987964535,-0.000475087992853308,-0.000185550150020552,-0.000808638935454534,-0.000584439886016788,-0.000929506163430492
3.03025252104342,0.000283764589977887,-0.00047310122198891,-0.000183505279766091,-0.000806594365893239,-0.000582453686435004,-0.00092763256141714
3.0402533544462,0.000285683324795001,-0.000471066599264132,-0.000181411154718612,-0.00080450054142028,-0.000580419634766868,-0.000925713826600025
3.05025418784899,0.000287637146010466,-0.000468994778307034,-0.000179278739849331,-0.000802368424967909,-0.000578348380766747,-0.00092376000538456
3.06025502125177,0.000289616069876055,-0.000466896346175385,-0.000177118931678073,-0.00080020891116145,-0.000576250507893179,-0.000921781081518972
3.07025585465455,0.000291610300015493,-0.000464781691106483,-0.00017494242215681,-0.000798032690225608,-0.000574136401101959,-0.000919786851379534
3.08025668805734,0.000293610340943656,-0.000462660882142539,-0.000172759574774126,-0.000795850124105947,-0.000572016126503839,-0.000917786810451371
3.09025752146012,0.000295607098451858,-0.000460543562686766,-0.000170580314996003,-0.000793671136920896,-0.000569899324941934,-0.000915790052943168
3.10025835486291,0.000297591965566288,-0.000458438859360779,-0.000168414036453834,-0.000791505121155452,-0.000567795120859918,-0.000913805185828738
3.11025918826569,0.000299556893413392,-0.000456355306869245,-0.000166269523606504,-0.000789360860323806,-0.000565712047167721,-0.000911840257981635
3.12026002166847,0.000301494446901864,-0.000454300788967005,-0.000164154890974836,-0.000787246468199796,-0.000563657986201058,-0.000909902704493162
3.13026085507126,0.000303397845631886,-0.000452282495092677,-0.000162077538499949,-0.00078516934416739,-0.00056164012634007,-0.00090799930576314
3.14026168847404,0.000305260990853197,-0.000450306891796918,-0.000160044122128514,-0.000783136143794914,-0.000559664933416635,-0.000906136160541829
3.15026252187682,0.000307078479607859,-0.000448379707760409,-0.000158060538384973,-0.000781152763393822,-0.000557738135706805,-0.000904318671787167
3.16026335527961,0.000308845607411593,-0.000446505930965401,-0.000156131921452823,-0.000779224337084826,-0.000555864721073547,-0.000902551543983433
3.17026418868239,0.000310558360955816,-0.000444689816448797,-0.000154262651147158,-0.000777355244754212,-0.000554048944689023,-0.00090083879043921
3.18026502208517,0.000312213402361425,-0.000442934903012919,-0.000152456370107289,-0.000775549129229774,-0.000552294345713642,-0.000899183749033601
3.19026585548796,0.000313808046497997,-0.000441244037288637,-0.000150716008557285,-0.000773808921024686,-0.000550603771327526,-0.000897589104897029
3.20026668889074,0.00031534023281242,-0.000439619403619442,-0.00014904381505834,-0.000772136869073638,-0.000548979406583739,-0.000896056918582606
3.21026752229352,0.000316808493003021,-0.000438062558349598,-0.000147441391794701,-0.000770534576003282,-0.000547422808667042,-0.000894588658392005
3.22026835569631,0.000318211915741878,-0.000436574467241009,-0.000145909733080509,-0.000769003036624598,-0.000545934944283242,-0.000893185235653148
3.23026918909909,0.000319550109500542,-0.000435155544899839,-0.000144449265935892,-0.000767542678495658,-0.000544516229060509,-0.000891847041894485
3.24027002250188,0.000320823164382224,-0.000433805695255324,-0.000143059891746688,-0.000766153403569291,-0.000543166568005269,-0.000890573987012802
3.25027085590466,0.000322031613714089,-0.000432524352291706,-0.000141741028185345,-0.000764834630103223,-0.000541885396213693,-0.000889365537680937
3.26027168930744,0.000323176396012009,-0.000431310520384013,-0.000140491650724683,-0.000763585334164378,-0.000540671719189512,-0.000888220755383017
3.27027252271023,0.000324258817800765,-0.000430162813725674,-0.000139310333217468,-0.00076240409020025,-0.000539524152256047,-0.000887138333594261
3.28027335611301,0.000325280517657333,-0.000429079494458207,-0.000138195287140583,-0.000761289110276082,-0.000538440958672608,-0.000886116633737693
3.29027418951579,0.000326243431744562,-0.000428058509219673,-0.000137144399212147,-0.000760238281686096,-0.000537420086171767,-0.000885153719650464
3.30027502291858,0.000327149761017164,-0.000427097523919086,-0.000136155267183071,-0.000759249202740192,-0.000536459201724535,-0.000884247390377862
3.31027585632136,0.000328001940210786,-0.000426193956619445,-0.000135225233682226,-0.000758319216605173,-0.000535555724415909,-0.00088339521118424
3.32027668972414,0.000328802608666803,-0.000425345008473668,-0.000134351418057823,-0.000757445443143007,-0.000534706856374873,-0.000882594542728223
3.33027752312693,0.000329554582998841,-0.000424547692707159,-0.0001335307462085,-0.000756624808739503,-0.000533909611752393,-0.000881842568396185
3.34027835652971,0.000330260831570333,-0.000423798861679635,-0.00013275997843766,-0.000755854074156864,-0.000533160843779848,-0.000881136319824693
3.35027918993249,0.000330924450724004,-0.000423095232088981,-0.000132035735395616,-0.000755129860474567,-0.000532457269970484,-0.000880472700671022
3.36028002333528,0.000331548642682543,-0.000422433408402814,-0.000131354522197696,-0.00075444867320665,-0.000531795495549415,-0.000879848508712483
3.37028085673806,0.000332136695023515,-0.000421809904620614,-0.000130712750824151,-0.000753806924701153,-0.000531172035214883,-0.000879260456371511
3.38028169014085,0.00033269196161965,-0.000421221164481913,-0.000130106760920701,-0.0007532009549405,-0.000530583333346122,-0.000878705189775376
3.39028252354363,0.000333217844927073,-0.000420663580245114,-0.000129532839127919,-0.000752627050870952,-0.000530025782782306,-0.000878179306467952
3.40028335694641,0.000333717779498066,-0.000420133510167831,-0.000128987237074154,-0.00075208146439576,-0.000529495742303338,-0.000877679371896959
3.4102841903492,0.000334195216591174,-0.000419627294823648,-0.000128466188170824,-0.000751560429170838,-0.000528989552947318,-0.000877201934803852
3.42028502375198,0.000334653609749463,-0.000419141272392297,-0.000127965923351082,-0.000751060176343891,-0.000528503553301612,-0.000876743541645563
3.43028585715476,0.000335096401217477,-0.000418671793060561,-0.000127482685893159,-0.000750576949378293,-0.000528034093904755,-0.000876300750177549
3.44028669055755,0.000335527009068848,-0.00041821523266966,-0.000127012745468123,-0.000750107018101406,-0.000527577550894914,-0.000875870142326177
3.45028752396033,0.000335948814919759,-0.000417768005741468,-0.000126552411548274,-0.000749646692113567,-0.000527130339037224,-0.000875448336475267
3.46028835736311,0.000336365152108655,-0.000417326578010378,-0.000126098046306693,-0.000749192333688237,-0.000526688924256794,-0.000875031999286371
3.4702891907659,0.000336779294230014,-0.000416887478579781,-0.000125646077130401,-0.000748740370285756,-0.000526249835796319,-0.000874617857165011
3.48029002416868,0.000337194443919775,-0.000416447311811713,-0.000125193008858875,-0.00074828730679247,-0.000525809678106882,-0.000874202707475251
3.49029085757146,0.000337613721802343,-0.000416002769045186,-0.000124735435846218,-0.000747829737583506,-0.000525365142567442,-0.000873783429592683
3.50029169097425,0.000338040155524152,-0.000415550640222732,-0.000124270053928867,-0.000747364358491107,-0.000524913019112573,-0.000873356995870873
3.51029252437703,0.000338476668816394,-0.000415087825485999,-0.000123793672361452,-0.00074688797874115,-0.000524450207829294,-0.000872920482578632
3.52029335777981,0.000338926070549799,-0.000414611346779732,-0.000123303225761311,-0.000746397532898352,-0.000523973730562382,-0.000872471080845227
3.5302941911826,0.000339391043766933,-0.000414118359479532,-0.000122795786077506,-0.000745890092836048,-0.000523480742543566,-0.000872006107628092
3.54029502458538,0.00033987413470201,-0.00041360616403278,-0.000122268574573433,-0.000745362879719637,-0.000522968544034056,-0.000871523016693016
3.55029585798817,0.000340377741824204,-0.000413072217574553,-0.000121718973783722,-0.000744813275964433,-0.000522434591942235,-0.000871019409570821
3.56029669139095,0.000340904104967205,-0.000412514145451972,-0.000121144539376967,-0.000744238837099454,-0.000521876511350055,-0.000870493046427821
3.57029752479373,0.000341455294634492,-0.000411929752562125,-0.000120543011826608,-0.000743637303439523,-0.000521292106853254,-0.000869941856760534
3.58029835819652,0.000342033201595629,-0.00041131703438127,-0.000119912327764134,-0.000743006611439853,-0.000520679373593182,-0.000869363949799396
3.5902991915993,0.000342639526912802,-0.000410674187537713,-0.00011925063086266,-0.000742344904581179,-0.000520036507832654,-0.000868757624482224
3.60030002500208,0.000343275772557792,-0.000409999619758484,-0.000118556282076038,-0.000741650543610637,-0.000519361916905964,-0.000868121378837234
3.61030085840487,0.000343943232796649,-0.00040929195900189,-0.000117827869040062,-0.000740922115944927,-0.000518654228355167,-0.000867453918598377
3.62030169180765,0.000344642986531387,-0.000408550061575178,-0.000117064214429127,-0.000740158444029146,-0.000517912298051869,-0.000866754164863638
3.63030252521043,0.000345375890794392,-0.000407773019029855,-0.000116264383054817,-0.000739358592437752,-0.000517135217097067,-0.000866021260600634
3.64030335861322,0.000346142575590999,-0.000406960163627437,-0.000115427687493071,-0.000738521873504298,-0.000516322317291771,-0.000865254575804027
3.650304192016,0.000346943440278569,-0.000406111072175961,-0.000114553692034453,-0.000737647851274453,-0.000515473174978741,-0.000864453711116457
3.66030502541878,0.00034777865165595,-0.000405225568052934,-0.00011364221476774,-0.000736736343592479,-0.000514587613070927,-0.000863618499739075
3.67030585882157,0.000348648143915687,-0.000404303721253199,-0.000112693327630583,-0.000735787422154906,-0.000513665701105064,-0.000862749007479338
3.68030669222435,0.000349551620582936,-0.000403345846330328,-0.000111707354291974,-0.000734801410396083,-0.000512707753188921,-0.00086184553081209
3.69030752562714,0.000350488558530635,-0.000402352498136654,-0.000110684865768812,-0.000733778879107862,-0.00051171432374725,-0.00086090859286439
3.70030835902992,0.000351458214120875,-0.000401324465309025,-0.000109626673722107,-0.00073272063973888,-0.000510686201013404,-0.000859938937274151
3.7103091924327,0.000352459631479025,-0.000400262761493383,-0.000108533821425662,-0.000731627735366258,-0.00050962439825963,-0.000858937519916
3.72031002583549,0.000353491652861445,-0.000399168614349766,-0.000107407572450048,-0.000730501429382435,-0.00050853014280751,-0.00085790549853358
3.73031085923827,0.000354552931031088,-0.000398043452428617,-0.000106249397155388,-0.000729343191990618,-0.000507404862909342,-0.000856844220363937
3.74031169264105,0.000355641943509898,-0.00039688889005748,-0.000105060957136072,-0.000728154684651913,-0.000506250172639413,-0.000855755207885127
3.75031252604384,0.000356757008534064,-0.000395706710422532,-0.000103844087807246,-0.00072693774267391,-0.00050506785497952,-0.000854640142860961
3.76031335944662,0.000357896302499716,-0.000394498847070195,-0.000102600779364901,-0.000725694356172516,-0.000503859843323898,-0.00085350084889531
3.7703141928494,0.000359057878653843,-0.000393267364088897,-0.000101333156387227,-0.000724426649674654,-0.000502628201663532,-0.000852339272741182
3.78031502625219,0.000360239686759206,-0.000392014435258536,-0.000100043456373215,-0.000723136860657789,-0.000501375103737374,-0.000851157464635819
3.79031585965497,0.000361439593443731,-0.000390742322474645,-9.87340075344916e-05,-0.000721827317342221,-0.000500102811457392,-0.000849957557951294
3.80031669305775,0.000362655402934752,-0.000389453353764955,-9.74072061673829e-05,-0.000720500416063165,-0.00049881365292515,-0.000848741748460273
3.81031752646054,0.000363884877876605,-0.000388149901218005,-9.60654939342481e-05,-0.000719158598551633,-0.000497510000359564,-0.00084751227351842
3.82031835986332,0.000365125759936331,-0.000386834359136817,-9.47113353762699e-05,-0.000717804329446323,-0.000496194248248876,-0.000846271391458694
3.83031919326611,0.000366375789916002,-0.000385509122716073,-9.33471959648969e-05,-0.000716440074343747,-0.000494868792025317,-0.000845021361479023
3.84032002666889,0.000367632727110637,-0.000384176567519515,-9.19755209767976e-05,-0.000715068278671466,-0.000493536007539254,-0.000843764424284389
3.85032086007167,0.000368894367676739,-0.000382839030006646,-9.05987154487218e-05,-0.000713691347640889,-0.00049219823158197,-0.000842502783718286
3.86032169347446,0.000370158561807027,-0.00038149878932546,-8.92191254353572e-05,-0.000712311627502758,-0.000490857743673885,-0.000841238589587998
3.87032252687724,0.000371423229540557,-0.000380158050552215,-8.78390207565511e-05,-0.000710931388291742,-0.000489516749299346,-0.000839973921854469
3.88032336028002,0.000372686375072914,-0.000378818929521684,-8.64605793815475e-05,-0.000709552808207859,-0.000488177364731522,-0.000838710776322111
3.89032419368281,0.000373946099467208,-0.000377483439353094,-8.50858735585594e-05,-0.00070817795974308,-0.000486841603552707,-0.000837451051927817
3.90032502708559,0.000375200611702013,-0.000376153478739376,-8.37168577593131e-05,-0.00070680879762283,-0.000485511364937789,-0.000836196539693012
3.91032586048837,0.000376448238026276,-0.000374830822031484,-8.23553584712761e-05,-0.000705447148595138,-0.000484188423732718,-0.000834948913368749
3.92032669389116,0.000377687429622557,-0.00037351711111627,-8.1003065836041e-05,-0.000704094703065966,-0.000482874422326587,-0.000833709721772468
3.93032752729394,0.000378916768608245,-0.000372213849056464,-7.96615271014922e-05,-0.000702753008548395,-0.000481570864285936,-0.000832480382786781
3.94032836069672,0.000380134972429079,-0.000370922395435082,-7.83321418284461e-05,-0.000701423464866396,-0.000480279109693719,-0.000831262178965946
3.95032919409951,0.000381340896720134,-0.000369643963324589,-7.7016158769724e-05,-0.00070010732103118,-0.00047900037211329,-0.000830056254674891
3.96033002750229,0.000382533536726286,-0.000368379617783176,-7.57146743212138e-05,-0.000698805673689726,-0.000477735717079861,-0.000828863614668739
3.97033086090508,0.000383712027387145,-0.000367130275766856,-7.442863243034e-05,-0.000697519467030911,-0.000476486062008168,-0.000827685124007881
3.98033169430786,0.000384875642200636,-0.000365896707336284,-7.31588258373239e-05,-0.000696249494024673,-0.000475252177395283,-0.00082652150919439
3.99033252771064,0.00038602379098514,-0.000364679538031158,-7.19058985183614e-05,-0.000694996398863308,-0.000474034689191465,-0.000825373360409885
4.00033336111343,0.0003871560166627,-0.000363479252282306,-7.06703491970185e-05,-0.000693760680471247,-0.000472834082209152,-0.000824241134732325
4.01033419451621,0.000388271991185655,-0.000362296197731721,-6.94525357903117e-05,-0.000692542696949758,-0.00047165070444039,-0.00082312516020937
4.02033502791899,0.000389371510726564,-0.000361130590333468,-6.82526806586548e-05,-0.000691342670825757,-0.000470484772155575,-0.000822025640668461
4.03033586132178,0.0003904544902469,-0.000359982520113029,-6.70708765336639e-05,-0.000690160694978722,-0.000469336375661109,-0.000820942661148126
4.04033669472456,0.000391520957554041,-0.000358851957468961,-6.59070930042734e-05,-0.000688996739126148,-0.000468205485599796,-0.000819876193840984
4.05033752812734,0.000392571046949068,-0.000357738759908207,-6.47611834493219e-05,-0.00068785065675569,-0.000467091959685317,-0.000818826104445958
4.06033836153013,0.000393604992559976,-0.000356642679114747,-6.36328923133361e-05,-0.000686722192400711,-0.000465995549770425,-0.000817792158835049
4.07033919493291,0.000394623121446632,-0.000355563368260089,-6.2521862631341e-05,-0.000685610989165045,-0.000464915909157358,-0.000816774029948393
4.08034002833569,0.000395625846555175,-0.000354500389473217,-6.14276437178678e-05,-0.000684516596412142,-0.000463852600068032,-0.00081577130483985
4.09034086173848,0.000396613659591071,-0.000353453221396645,-6.03496989446753e-05,-0.000683438477543075,-0.000462805101200648,-0.000814783491803954
4.10034169514126,0.000397587123871591,-0.000352421266764153,-5.92874135408465e-05,-0.000682376017797076,-0.00046177281530826,-0.000813810027523434
4.11034252854405,0.000398546867210463,-0.000351403859944289,-5.82401023577073e-05,-0.00068132853201702,-0.000460755076743346,-0.000812850284184562
4.12034336194683,0.000399493574879827,-0.000350400274401816,-5.72070175493333e-05,-0.00068029527233061,-0.000459751158920548,-0.000811903576515198
4.13034419534961,0.000400427982687506,-0.000349409730036798,-5.61873561271507e-05,-0.000679275435705753,-0.00045876028165723,-0.000810969168707519
4.1403450287524,0.000401350870201101,-0.000348431400367935,-5.51802673542651e-05,-0.000678268171345757,-0.000457781618358459,-0.000810046281193924
4.15034586215518,0.00040226305414449,-0.000347464419533056,-5.41848599516063e-05,-0.000677272587896409,-0.000456814303019273,-0.000809134097250536
4.16034669555796,0.000403165381987007,-0.00034650788908524,-5.32002090937535e-05,-0.000676287760442804,-0.000455857437022708,-0.000808231769408018
4.17034752896075,0.00040405872574095,-0.00034556088456804,-5.22253631773944e-05,-0.000675312737278851,-0.000454910095717015,-0.000807338425654075
4.18034836236353,0.000404943975978979,-0.000344622461857514,-5.12593503497793e-05,-0.000674346546436825,-0.000453971334759766,-0.000806453175416047
4.19034919576631,0.000405822036079563,-0.000343691663262431,-5.03011847882795e-05,-0.000673388201968052,-0.000453040196220215,-0.000805575115315462
4.2003500291691,0.000406693816705792,-0.000342767523377049,-4.93498727252634e-05,-0.000672436709968942,-0.000452115714434259,-0.000804703334689233
4.21035086257188,0.000407560230520554,-0.000341849074683251,-4.84044182150038e-05,-0.000671491074349073,-0.000451196921608822,-0.000803836920874471
4.22035169597466,0.000408422187139336,-0.000340935352900733,-4.7463828641247e-05,-0.000670550302339951,-0.0004502828531743,-0.000802974964255689
4.23035252937745,0.00040928058832065,-0.000340025402085249,-4.65271199654578e-05,-0.000669613409744459,-0.000449372552885089,-0.000802116563074375
4.24035336278023,0.000410136323393251,-0.00033911827947578,-4.5593321716636e-05,-0.00066867942592788,-0.000448465077669059,-0.000801260828001774
4.25035419618302,0.000410990264918946,-0.000338213060091938,-4.46614817240317e-05,-0.000667747398551822,-0.00044755950222724,-0.000800406886476079
4.2603550295858,0.000411843264589743,-0.000337308841082891,-4.37306705941097e-05,-0.000666816398052391,-0.000446654923385056,-0.000799553886805282
4.27035586298858,0.000412696149358418,-0.00033640474582883,-4.27999859327862e-05,-0.000665885521863624,-0.000445750464196065,-0.000798701002036607
4.28035669639137,0.000413549717802139,-0.000335499927795345,-4.18685563133329e-05,-0.000664953898386594,-0.000444845277798605,-0.000797847433592886
4.29035752979415,0.000414404736719563,-0.000334593574140269,-4.09355449894772e-05,-0.000664020690703678,-0.000443938551024872,-0.000796992414675462
4.30035836319693,0.000415261937962821,-0.000333684909071505,-4.00001533521849e-05,-0.000663085100036512,-0.00044302950776096,-0.000796135213432204
4.31035919659972,0.000416122015506821,-0.000332773196953253,-3.90616241274494e-05,-0.00066214636894491,-0.000442117412055252,-0.000795275135888204
4.3203600300025,0.000416985622759442,-0.000331857745156864,-3.81192443112129e-05,-0.000661203784262912,-0.000441201570971395,-0.000794411528635583
4.33036086340528,0.000417853370117239,-0.000330937906651408,-3.71723478363545e-05,-0.000660256679766844,-0.000440281337180926,-0.000793543781277786
4.34036169680807,0.000418725822772334,-0.000330013082327973,-3.62203179655854e-05,-0.000659304438569275,-0.000439356111289567,-0.000792671328622691
4.35036253021085,0.00041960349877698,-0.000329082723050785,-3.52625894031447e-05,-0.000658346495231712,-0.000438425343890266,-0.000791793652618045
4.36036336361363,0.000420486867373003,-0.000328146331427555,-3.4298650117453e-05,-0.00065738233758822,-0.000437488537335361,-0.000790910284022022
4.37036419701642,0.000421376347593731,-0.000327203463290955,-3.33280428664222e-05,-0.000656411508271639,-0.000436545247219795,-0.000790020803801294
4.3803650304192,0.000422272307146149,-0.000326253728883049,-3.23503664169706e-05,-0.00065543360593395,-0.000435595083567154,-0.000789124844248877
4.39036586382199,0.000423175061580831,-0.000325296793734669,-3.13652764505108e-05,-0.000654448286152542,-0.000434637711710532,-0.000788222089814194
4.40036669722477,0.00042408487375665,-0.000324332379232316,-3.03724861467816e-05,-0.000653455262014762,-0.00043367285286079,-0.000787312277638376
4.41036753062755,0.000425001953606306,-0.000323360262866196,-2.9371766439412e-05,-0.000652454304374103,-0.000432700284355779,-0.000786395197788719
4.42036836403034,0.000425926458207451,-0.000322380278154324,-2.83629459380371e-05,-0.00065144524177287,-0.000431719839585497,-0.000785470693187574
4.43036919743312,0.000426858492162448,-0.000321392314239485,-2.73459105136252e-05,-0.000650427960027961,-0.000430731407589901,-0.000784538659232578
4.4403700308359,0.0004277981082878,-0.000320396315157947,-2.63206025459034e-05,-0.000649402401478646,-0.000429734932328309,-0.000783599043107226
4.45037086423869,0.000428745308611906,-0.000319392278781384,-2.5287019834353e-05,-0.000648368563897825,-0.0004287304116218,-0.00078265184278312
4.46037169764147,0.000429700045677142,-0.000318380255436212,-2.42452141771304e-05,-0.000647326499071091,-0.000427717895772842,-0.000781697105717883
4.47037253104425,0.000430662224139418,-0.000317360346207643,-2.31952896254029e-05,-0.00064627631105111,-0.000426697485869416,-0.000780734927255608
4.48037336444704,0.000431631702655304,-0.000316332700938932,-2.21374004239001e-05,-0.000645218154098104,-0.000425669331784137,-0.000779765448739722
4.49037419784982,0.000432608296043722,-0.000315297515939626,-2.10717486518853e-05,-0.000644152230320635,-0.000424633629882158,-0.000778788855351303
4.5003750312526,0.000433591777706042,-0.00031425503141994,-1.99985815821761e-05,-0.000643078787034342,-0.000423590620454988,-0.000777805373688983
4.51037586465539,0.000434581882285356,-0.000313205528671635,-1.89181887791899e-05,-0.000641998113859577,-0.000422540584900611,-0.000776815269109669
4.52037669805817,0.000435578308542797,-0.000312149327018873,-1.78308989601796e-05,-0.000640910539582144,-0.000421483842673382,-0.000775818842852228
4.53037753146095,0.000436580722426057,-0.000311086780565397,-1.67370766467714e-05,-0.000639816428804222,-0.000420420748030052,-0.000774816428968968
4.54037836486374,0.00043758876030284,-0.000310018274766895,-1.56371186365361e-05,-0.000638716178415244,-0.000419351686600808,-0.000773808391092186
4.55037919826652,0.000438602032329984,-0.000308944222859627,-1.45314503265567e-05,-0.000637610213914671,-0.000418277071816397,-0.000772795119065041
4.56038003166931,0.000439620125927318,-0.000307865062178063,-1.34205219227318e-05,-0.000636498985620434,-0.000417197341224126,-0.000771777025467707
4.57038086507209,0.000440642609324164,-0.000306781250395562,-1.23048045698287e-05,-0.000635382964798053,-0.000416112952726764,-0.000770754542070862
4.58038169847487,0.000441669035145717,-0.00030569326172282,-1.11847864380459e-05,-0.000634262639746207,-0.000415024380779106,-0.000769728116249308
4.59038253187766,0.000442698944006362,-0.000304601583099012,-1.00609688020355e-05,-0.000633138511874714,-0.000413932112577139,-0.000768698207388663
4.60038336528044,0.0004437318680773,-0.000303506710410198,-8.933862147973e-06,-0.000632011091810535,-0.000412836644274409,-0.000767665283317725
4.61038419868322,0.000444767334596706,-0.000302409144768678,-7.80398234335765e-06,-0.000630880895566467,-0.000411738477259288,-0.000766629816798319
4.62038503208601,0.000445804869291933,-0.00030130938888561,-6.67184690280437e-06,-0.000629748440805832,-0.000410638114525489,-0.000765592282103092
4.63038586548879,0.000446843999685027,-0.000300207943567354,-5.53797138118743e-06,-0.00062861424323451,-0.000409536057166295,-0.000764553151709998
4.64038669889157,0.000447884258254929,-0.000299105304363738,-4.40286592316931e-06,-0.000627478813149374,-0.000408432801020747,-0.000763512893140096
4.65038753229436,0.000448925185432249,-0.000298001958393828,-3.26703199545074e-06,-0.00062634265216946,-0.000407328833497376,-0.000762471965962777
4.66038836569714,0.000449966332405198,-0.000296898381371875,-2.13095932507822e-06,-0.000625206250173243,-0.000406224630598169,-0.000761430818989827
4.67038919909993,0.000451007263718281,-0.000295795034852963,-9.95123063912552e-07,-0.000624070082462102,-0.000405120654162324,-0.000760389887676744
4.68039003250271,0.000452047559648408,-0.000294692363714588,1.40018804030538e-07,-0.000622934607166722,-0.000404017349346031,-0.000759349591746618
4.69039086590549,0.000453086818346311,-0.000293590793887014,1.27402779913745e-06,-0.000621800262909643,-0.000402915142351152,-0.000758310333048714
4.70039169930828,0.000454124657734352,-0.000292490730341873,2.40648701691919e-06,-0.000620667466733727,-0.000401814438412256,-0.000757272493660673
4.71039253271106,0.00045516071715494,-0.000291392555345096,3.53700292661711e-06,-0.000619536612302798,-0.000400715620048128,-0.000756236434240086
4.72039336611384,0.000456194658766887,-0.000290296626977032,4.66520689475101e-06,-0.000618408068377421,-0.000399619045580613,-0.000755202492628139
4.73039419951663,0.000457226168689902,-0.000289203277919531,5.79075643384778e-06,-0.000617282177565586,-0.000398525047920571,-0.000754170982705123
4.74039503291941,0.000458254957900172,-0.000288112814506865,6.91333617956039e-06,-0.000616159255345068,-0.000397433933617815,-0.000753142193494853
4.75039586632219,0.000459280762882462,-0.000287025516034717,8.03265860211353e-06,-0.000615039589351554,-0.000396345982169291,-0.000752116388512563
4.76039669972498,0.000460303346046428,-0.000285941634319099,9.14846446046536e-06,-0.000613923438924132,-0.000395261445577322,-0.000751093805348597
4.77039753312776,0.000461322495916809,-0.000284861393494933,1.0260523009734e-05,-0.000612811034897597,-0.000394180548147686,-0.000750074655478217
4.78039836653054,0.000462338027108853,-0.000283784990042272,1.13686319742908e-05,-0.000611702579629163,-0.00039310348651547,-0.000749059124286172
4.79039919993333,0.000463349780101778,-0.000282712593026582,1.24726173004673e-05,-0.000610598247245652,-0.000392030429885144,-0.000748047371293248
4.80040003333611,0.000464357620824152,-0.000281644344538369,1.35723327040569e-05,-0.000609498184095943,-0.000390961520470105,-0.000747039530570874
4.8104008667389,0.000465361440065995,-0.000280580360316463,1.46676590287342e-05,-0.000608402509392591,-0.000389896874116029,-0.000746035711329031
4.82040170014168,0.000466361152732956,-0.000279520730538682,1.57585034321639e-05,-0.000607311316025813,-0.000388836581091709,-0.00074503599866207
4.83040253354446,0.0004673566969583,-0.000278465520763198,1.68447984169632e-05,-0.000606224671532682,-0.000387780707030729,-0.000744040454436726
4.84040336694725,0.000468348033088561,-0.000277414773003795,1.79265007238216e-05,-0.000605142619204222,-0.000386729294007124,-0.000743049118306465
4.85040420035003,0.000469335142558651,-0.000276368506922289,1.90035901040056e-05,-0.000604065179313172,-0.000385682361728308,-0.000742062008836374
4.86040503375281,0.000470318026671966,-0.000275326721121627,2.00760679882026e-05,-0.000602992350445455,-0.000384639908828778,-0.000741079124723059
4.8704058671556,0.000471296705300612,-0.00027428939452365,2.11439560682181e-05,-0.00060192411091884,-0.000383601914248541,-0.000740100446094414
4.88040670055838,0.000472271215520358,-0.000273256487816011,2.22072948074544e-05,-0.000600860420272852,-0.000382568338680791,-0.000739125935874667
4.89040753396116,0.000473241610194279,-0.000272227944953494,2.32661418954013e-05,-0.00059980122081471,-0.00038153912607403,-0.000738155541200747
4.90040836736395,0.000474207956518298,-0.000271203694699672,2.43205706605751e-05,-0.000598746439206844,-0.000380514205174594,-0.000737189194876728
4.91040920076673,0.000475170334541099,-0.000270183652195741,2.53706684554837e-05,-0.000597695988082406,-0.000379493491096398,-0.000736226816853926
4.92041003416951,0.00047612883567,-0.000269167720544219,2.64165350262882e-05,-0.000596649767676103,-0.000378476886905567,-0.000735268315725026
4.9304108675723,0.000477083561173549,-0.000268155792396096,2.74582808788968e-05,-0.000595607667458619,-0.00037746428520857,-0.000734313590221477
4.94041170097508,0.000478034620690742,-0.000267147751530965,2.84960256522844e-05,-0.000594569567763816,-0.00037645556973334,-0.000733362530704283
4.95041253437786,0.000478982130755887,-0.000266143474420554,2.95298965088925e-05,-0.000593535341398863,-0.000375450616893815,-0.000732415020639139
4.96041336778065,0.0004799262133473,-0.000265142831766986,3.05600265510469e-05,-0.000592504855228355,-0.000374449297329212,-0.000731470938047725
4.97041420118343,0.000480866994467222,-0.000264145690007939,3.1586553271437e-05,-0.000591477971724369,-0.000373451477410206,-0.000730530156927803
4.98041503458622,0.000481804602759535,-0.00026315191278173,3.26096170448535e-05,-0.000590454550475257,-0.000372457020705027,-0.00072959254863549
4.990415867989,0.000482739168171139,-0.000262161362346116,3.36293596675698e-05,-0.000589434449646795,-0.000371465789399264,-0.000728657983223887
5.00041670139178,0.000483670820662146,-0.000261173900945338,3.4645922949996e-05,-0.000588417527390049,-0.000370477645663896,-0.00072772633073288
5.01041753479457,0.000484599688969407,-0.000260189392120636,3.56594473675266e-05,-0.000587403643191037,-0.000369492452966784,-0.000726797462425619
5.02041836819735,0.000485525899427269,-0.000259207701960091,3.66700707738485e-05,-0.000586392659157918,-0.000368510077323452,-0.000725871251967757
5.03041920160013,0.000486449574848938,-0.000258228700284225,3.76779271803737e-05,-0.000585384441242049,-0.000367530388483616,-0.000724947576546087
5.04042003500292,0.000487370833471286,-0.000257252261764353,3.86831456049088e-05,-0.000584378860389775,-0.000366553261050416,-0.000724026317923739
5.0504208684057,0.000488289787965503,-0.000256278266971134,3.96858489921712e-05,-0.00058337579362237,-0.000365578575529829,-0.000723107363429522
5.06042170180848,0.000489206544515559,-0.000255306603351247,4.06861532082992e-05,-0.000582375125041953,-0.00036460621930816,-0.000722190606879467
5.07042253521127,0.000490121201966059,-0.000254337166130513,4.16841661110847e-05,-0.000581376746761665,-0.000363636087555941,-0.000721275949428967
5.08042336861405,0.000491033851040731,-0.000253369859142151,4.26799866972719e-05,-0.000580380559758757,-0.000362668084056923,-0.000720363300354295
5.09042420201683,0.000491944573632439,-0.000252404595579216,4.36737043279105e-05,-0.000579386474649599,-0.000361702121961202,-0.000719452577762587
5.10042503541962,0.000492853442165335,-0.00025144129867058,4.46653980324173e-05,-0.000578394412385954,-0.000360738124461838,-0.00071854370922969
5.1104258688224,0.000493760519029463,-0.00025047990228012,4.56551358916957e-05,-0.000577404304872171,-0.000359776025394639,-0.000717636632365562
5.12042670222519,0.000494665856087856,-0.000249520351429062,4.66429745003563e-05,-0.000576416095503248,-0.000358815769761039,-0.000716731295307169
5.13042753562797,0.000495569494255911,-0.000248562602741729,4.76289585078039e-05,-0.000575429739623996,-0.000357857314174334,-0.000715827657139115
5.14042836903075,0.000496471463152566,-0.000247606624815181,4.86131202376655e-05,-0.000574445204909845,-0.000356900627229751,-0.000714925688242459
5.15042920243354,0.000497371780822541,-0.000246652398513535,4.95954793847617e-05,-0.00057346247167006,-0.000355945689799141,-0.000714025370572485
5.16043003583632,0.000498270453528653,-0.000245699917188017,5.05760427885371e-05,-0.000572481533074484,-0.000354992495251354,-0.000713126697866372
5.1704308692391,0.000499167475612961,-0.000244749186824074,5.15548042815878e-05,-0.000571502395305145,-0.000354041049599597,-0.000712229675782064
5.18043170264189,0.000500062829425215,-0.000243800226117135,5.25317446116309e-05,-0.000570525077634388,-0.00035309137157741,-0.000711334321969811
5.19043253604467,0.000500956485316837,-0.000242853066478933,5.35068314349737e-05,-0.000569549612431489,-0.000352143492645125,-0.000710440666078188
5.20043336944745,0.000501848401698385,-0.000241907751976551,5.44800193792423e-05,-0.000568576045099962,-0.000351197456928991,-0.00070954874969664
5.21043420285024,0.000502738525158157,-0.000240964339206654,5.54512501728294e-05,-0.000567604433948132,-0.000350253321095446,-0.000708658626236868
5.22043503625302,0.000503626790639348,-0.000240022897107681,5.64204528382233e-05,-0.000566634849995788,-0.000349311154163271,-0.000707770360755678
5.23043586965581,0.000504513121672881,-0.000239083506713027,5.73875439460815e-05,-0.000565667376720066,-0.000348371037256692,-0.000706884029722144
5.24043670305859,0.000505397430662772,-0.00023814626084856,5.83524279266176e-05,-0.000564702109743993,-0.000347433063302762,-0.000705999720732254
5.25043753646137,0.000506279619220609,-0.000237211263778068,5.93149974345893e-05,-0.000563739156471397,-0.000346497336676624,-0.000705117532174416
5.26043836986416,0.000507159578545523,-0.000236278630800527,6.02751337639015e-05,-0.000562778635672184,-0.000345563972798535,-0.000704237572849503
5.27043920326694,0.000508037189845733,-0.000235348487803276,6.12327073075849e-05,-0.00056182067702221,-0.000344633097686776,-0.000703359961549293
5.28044003666972,0.000508912324797592,-0.000234420970775479,6.21875780586796e-05,-0.000560865420602227,-0.000343704847470781,-0.000702484826597433
5.29044087007251,0.000509784846037837,-0.000233496225286392,6.31395961473472e-05,-0.000559913016360586,-0.000342779367869044,-0.000701612305357189
5.30044170347529,0.00051065460768459,-0.00023257440593315,6.40886024093569e-05,-0.000558963623544539,-0.00034185681363652,-0.000700742543710436
5.31044253687807,0.000511521455882548,-0.00023165567576294,6.50344289809537e-05,-0.000558017410105149,-0.000340937347986363,-0.000699875695512478
5.32044337028086,0.000512385229367678,-0.000230740205674494,6.59768999150099e-05,-0.0005570745520809,-0.000340021141990979,-0.000699011922027348
5.33044420368364,0.000513245760046691,-0.000229828173803932,6.69158318133002e-05,-0.000556135232965175,-0.000339108373967385,-0.000698151391348334
5.34044503708642,0.000514102873586549,-0.000228919764899963,6.78510344697199e-05,-0.00055519964306278,-0.00033819922885193,-0.000697294277808476
5.35044587048921,0.000514956390009274,-0.000228015169693477,6.87823115192902e-05,-0.000554267978840675,-0.000337293897569382,-0.000696440761385752
5.36044670389199,0.000515806124287405,-0.000227114584266457,6.97094610878639e-05,-0.000553340442277999,-0.000336392576401329,-0.00069559102710762
5.37044753729477,0.00051665188693554,-0.000226218209425034,7.0632276437559e-05,-0.00055241724022037,-0.000335495466358728,-0.000694745264459485
5.38044837069756,0.000517493484593549,-0.000225326250081377,7.1550546603107e-05,-0.000551498583743268,-0.000334602772563282,-0.000693903666801476
5.39044920410034,0.000518330720597238,-0.000224438914648886,7.24640570145025e-05,-0.000550584687529119,-0.00033371470364213,-0.000693066430797787
5.40045003750313,0.000519163395532448,-0.000223556414454934,7.33725901015811e-05,-0.000549675769262461,-0.000332831471140102,-0.000692233755862577
5.41045087090591,0.000519991307768841,-0.000222678963175152,7.42759258764334e-05,-0.000548772049047278,-0.000331953288953519,-0.000691405843626184
5.42045170430869,0.000520814253969906,-0.000221806776292905,7.51738424898682e-05,-0.000547873748850296,-0.00033108037278922,-0.000690582897425119
5.43045253771148,0.00052163202957602,-0.000220940070587335,7.60661167584816e-05,-0.000546981091973686,-0.000330212939652163,-0.000689765121819005
5.44045337111426,0.000522444429257751,-0.000220079063652936,7.69525246592512e-05,-0.000546094302560252,-0.000329351207364595,-0.000688952722137274
5.45045420451704,0.000523251247336918,-0.000219223973453304,7.78328417889536e-05,-0.000545213605133817,-0.000328495394119419,-0.000688145904058107
5.46045503791983,0.000524052278173303,-0.00021837501791129,7.87068437861048e-05,-0.000544339224177094,-0.000327645718070001,-0.000687344873221722
5.47045587132261,0.000524847316515274,-0.0002175324145374,7.95743067135225e-05,-0.000543471383748965,-0.000326802396958249,-0.000686549834879752
5.48045670472539,0.000525636157812946,-0.000216696380097893,8.04350074000187e-05,-0.000542610307142631,-0.000325965647782435,-0.000685760993582079
5.49045753812818,0.0005264185984929,-0.000215867130323635,8.12887237401388e-05,-0.000541756216585753,-0.000325135686505801,-0.000684978552902125
5.50045837153096,0.000527194436193807,-0.000215044879660361,8.21352349512578e-05,-0.000540909332983245,-0.000324312727806622,-0.000684202715201219
5.51045920493374,0.000527963469962701,-0.000214229841060664,8.29743217877348e-05,-0.000540069875703026,-0.000323496984870016,-0.000683433681432325
5.52046003833653,0.000528725500411966,-0.000213422225817609,8.38057667121997e-05,-0.000539238062404674,-0.000322688669221437,-0.00068267165098306
5.53046087173931,0.000529480329837411,-0.000212622243439583,8.46293540243946e-05,-0.000538414108910529,-0.000321887990601432,-0.000681916821557615
5.5404617051421,0.000530227762298149,-0.000211830101565629,8.54448699483288e-05,-0.000537598229118514,-0.00032109515688092,-0.000681169389096876
5.55046253854488,0.000530967603659233,-0.000211046005920253,8.62521026788074e-05,-0.000536790634955594,-0.000320310374015981,-0.000680429547735793
5.56046337194766,0.000531699661598288,-0.000210270160306376,8.70508423886763e-05,-0.000535991536370546,-0.000319533846040831,-0.000679697489796738
5.57046420535045,0.000532423745577601,-0.000209502766634904,8.78408811983734e-05,-0.000535201141364434,-0.000318765775097445,-0.000678973405817424
5.58046503875323,0.000533139666783323,-0.00020874402498915,8.86220131096017e-05,-0.000534419656056978,-0.000318006361500064,-0.000678257484611703
5.59046587215601,0.000533847238033621,-0.000207994133722153,8.93940339051283e-05,-0.000533647284786826,-0.000317255803832636,-0.000677549913361405
5.6004667055588,0.000534546273657781,-0.0002072532895848,9.01567410168778e-05,-0.000532884230243529,-0.000316514299077082,-0.000676850877737244
5.61046753896158,0.000535236589348353,-0.000206521687882501,9.09099333646219e-05,-0.00053213069362895,-0.000315782042770152,-0.000676160562046672
5.62046837236436,0.000535918001988552,-0.000205799522658093,9.16534111676725e-05,-0.00053138687484567,-0.000315059229186521,-0.000675479149406474
5.63046920576715,0.000536590329457201,-0.000205086986898549,9.23869757320638e-05,-0.000530652972709932,-0.000314346051545727,-0.000674806821937825
5.64047003916993,0.000537253390413531,-0.00020438427276303,9.31104292157634e-05,-0.000529929185186548,-0.000313642702240463,-0.000674143760981494
5.65047087257271,0.000537907004064203,-0.000203691571829778,9.38235743744822e-05,-0.000529215709643231,-0.000312949373083732,-0.000673490147330823
5.6604717059755,0.000538550989914906,-0.000203009075359354,9.45262142906614e-05,-0.000528512743121754,-0.000312266255572362,-0.00067284616148012
5.67047253937828,0.000539185167508896,-0.000202336974571723,9.52181520882036e-05,-0.000527820482623367,-0.000311593541164374,-0.00067221198388613
5.68047337278106,0.000539809356154791,-0.000201675460934714,9.58991906354883e-05,-0.000527139125405942,-0.000310931421567749,-0.000671587795240234
5.69047420618385,0.000540423374645919,-0.000201024726461445,9.65691322391646e-05,-0.000526468869290342,-0.000310280089038157,-0.000670973776749106
5.70047503958663,0.000541027040973446,-0.000200384964014329,9.72277783311618e-05,-0.000525809912973572,-0.000309639736683276,-0.00067037011042158
5.71047587298942,0.000541620172035456,-0.000199756367613379,9.78749291512855e-05,-0.00052516245634635,-0.000309010558771407,-0.000669776979359569
5.7204767063922,0.000542202583344096,-0.00019913913274656,9.85103834276902e-05,-0.000524526700812801,-0.000308392751042154,-0.000669194568050929
5.73047753979498,0.000542774088732782,-0.000198533456680077,9.91339380574341e-05,-0.000523902849610071,-0.000307786511017018,-0.000668623062662244
5.74047837319777,0.000543334500065426,-0.000197939538766527,9.97453877892267e-05,-0.000523291108125735,-0.000307192038307859,-0.0006680626513296
5.75047920660055,0.000543883626949516,-0.000197357580748958,0.000100344524910385,-0.00052269168421101,-0.000306609534921272,-0.000667513524445509
5.76048004000333,0.000544421276454809,-0.000196787787058996,0.000100931138939909,-0.000522104788487833,-0.000306039205556999,-0.000666975874940217
5.77048087340612,0.000544947252839282,-0.000196230365107264,0.000101505016329483,-0.000521530634648005,-0.000305481257898644,-0.000666449898555744
5.7804817068089,0.00054546135728392,-0.00019568552556445,0.000102065940174114,-0.000520969439742713,-0.000304935902895017,-0.000665935794111106
5.79048254021168,0.000545963387637784,-0.00019515348263148,0.000102613689933977,-0.000520421424460806,-0.000304403355030565,-0.000665433763757242
5.80048337361447,0.000546453138174723,-0.000194634454297338,0.000103148041168985,-0.00051988681339437,-0.000303883832583452,-0.000664944013220302
5.81048420701725,0.000546930399363001,-0.00019412866258323,0.000103668765287423,-0.000519365835290208,-0.000303377557869944,-0.000664466752032024
5.82048504042004,0.000547394957648978,-0.000193636333771819,0.000104175629309937,-0.000518858723285966,-0.00030288475747387,-0.000664002193746047
5.83048587382282,0.000547846595255925,-0.000193157698620454,0.000104668395650024,-0.000518365715129749,-0.000302405662460036,-0.0006635505561391
5.8404867072256,0.000548285089998919,-0.000192692992557342,0.000105146821912064,-0.000517887053382178,-0.000301940508570582,-0.000663112061396107
5.85048754062839,0.000548710215116679,-0.000192242455859773,0.00010561066070784,-0.000517422985599951,-0.00030148953640336,-0.000662686936278347
5.86048837403117,0.000549121739121102,-0.000191806333813588,0.000106059659492367,-0.000516973764500088,-0.000301052991571531,-0.000662275412273923
5.87048920743395,0.000549519425665161,-0.000191384876853197,0.00010649356041975,-0.000516539648104129,-0.000300631124843698,-0.000661877725729865
5.88049004083674,0.00054990303342971,-0.000190978340681544,0.000106912100219677,-0.000516120899861681,-0.00030022419226395,-0.000661494117965315
5.89049087423952,0.000550272316029676,-0.000190586986369548,0.000107315010095055,-0.000515717788752824,-0.000299832455251375,-0.000661124835365349
5.9004917076423,0.000550627021939973,-0.000190211080434632,0.00010770201564117,-0.000515330589368961,-0.000299456180678618,-0.000660770129455053
5.91049254104509,0.000550966894441411,-0.000189850894898067,0.000108072836786662,-0.000514959581971856,-0.000299095640929239,-0.000660430256953614
5.92049337444787,0.000551291671586769,-0.000189506707320956,0.000108427187756487,-0.000514605052530665,-0.000298751113933685,-0.000660105479808257
5.93049420785065,0.000551601086187065,-0.000189178800818799,0.000108764777056929,-0.000514267292736897,-0.000298422883183817,-0.000659796065207961
5.94049504125344,0.000551894865818021,-0.000188867464054677,0.000109085307482638,-0.000513946599997349,-0.000298111237726031,-0.000659502285577005
5.95049587465622,0.000552172732846567,-0.00018857299121119,0.000109388476145532,-0.000513643277405159,-0.000297816472133103,-0.000659224418548458
5.96049670805901,0.000552434404477171,-0.000188295681941387,0.000109673974525323,-0.000513357633689212,-0.00029753888645501,-0.000658962746917854
5.97049754146179,0.000552679592817665,-0.000188035841299039,0.000109941488541325,-0.000513089983142267,-0.000297278786149063,-0.000658717558577361
5.98049837486457,0.000552908004964163,-0.000187793779648674,0.000110190698645084,-0.000512840645528237,-0.000297036481989782,-0.000658489146430862
5.99049920826736,0.000553119343104579,-0.00018756981255592,0.000110421279933299,-0.000512609945969176,-0.00029681228995905,-0.000658277808290446
6.00050004167014,0.000553313304640143,-0.000187364260658746,0.000110632902280386,-0.000512398214812603,-0.000296606531117154,-0.000658083846754882
6.01050087507292,0.000553489582324279,-0.000187177449520338,0.000110825230489975,-0.000512205787479881,-0.000296419531455422,-0.000657907569070746
6.02050170847571,0.000553647864418089,-0.000187009709464347,0.000110997924464535,-0.000512033004296469,-0.000296251621731234,-0.000657749286976937
6.03050254187849,0.000553787834861648,-0.000186861375393407,0.000111150639392241,-0.000511880210304908,-0.000296103137286257,-0.000657609316533377
6.04050337528127,0.000553909173460243,-0.000186732786591806,0.000111283025950142,-0.000511747755061501,-0.000295974417848842,-0.000657487977934783
6.05050420868406,0.000554011556084613,-0.000186624286513312,0.000111394730522622,-0.000511635992417698,-0.000295865807321538,-0.000657385595310413
6.06050504208684,0.000554094654884248,-0.000186536222555179,0.000111485395434083,-0.00051154528028724,-0.000295777653554778,-0.000657302496510777
6.07050587548962,0.000554158138512702,-0.00018646894581941,0.000111554659194756,-0.000511475980400171,-0.000295710308107808,-0.000657239012882324
6.08050670889241,0.000554201672363887,-0.00018642281086238,0.000111602156758485,-0.000511428458044873,-0.000295664125997964,-0.000657195479031139
6.09050754229519,0.000554224918818285,-0.000186398175433961,0.000111627519791329,-0.000511403081799276,-0.000295639465439429,-0.000657172232576741
6.10050837569797,0.000554227537497981,-0.000186395400207289,0.000111630376949791,-0.000511400223252428,-0.000295636687572637,-0.000657169613897044
6.11050920910076,0.00055420918552944,-0.000186414848500329,0.000111610354167497,-0.000511420256717621,-0.000295656156185451,-0.000657187965865585
6.12051004250354,0.000554169517812946,-0.00018645688599038,0.000111567074949141,-0.000511463558938243,-0.000295698237427283,-0.00065722763358208
6.13051087590633,0.000554108187297638,-0.000186521880422647,0.000111500160670538,-0.000511530508787508,-0.000295763299517264,-0.000657288964097388
6.14051170930911,0.000554024845261117,-0.000186610201313969,0.000111409230883662,-0.000511621486963217,-0.00029585171244758,-0.000657372306133908
6.15051254271189,0.000553919141592618,-0.000186722219652778,0.000111293903625572,-0.000511736875678611,-0.000295963847683012,-0.000657478009802407
6.16051337611468,0.000553790725078803,-0.000186858307596264,0.000111153795730207,-0.000511877058350365,-0.000296100077857699,-0.000657606426316223
6.17051420951746,0.000553639243691286,-0.000187018838165717,0.000110988523142057,-0.000512042419284696,-0.000296260776470066,-0.000657757907703739
6.18051504292024,0.00055346434487508,-0.000187204184940895,0.000110797701230846,-0.000512233343362462,-0.00029644631757677,-0.000657932806519946
6.19051587632303,0.000553265675837204,-0.000187414721754208,0.000110580945106397,-0.000512450215724084,-0.000296657075486476,-0.000658131475557822
6.20051670972581,0.00055304288383482,-0.000187650822385416,0.000110337869932966,-0.000512693421454984,-0.000296893424454132,-0.000658354267560206
6.21051754312859,0.00055279561646233,-0.000187912860257421,0.000110068091242458,-0.000512963345272155,-0.000297155738376344,-0.000658601534932696
6.22051837653138,0.00055252352193698,-0.000188201208133644,0.000109771225246005,-0.00051326037121236,-0.000297444390488335,-0.000658873629458045
6.23051920993416,0.000552226249382642,-0.000188516237817337,0.000109446889143553,-0.000513584882322326,-0.000297759753062838,-0.000659170902012383
6.24052004333694,0.000551903449111532,-0.000188858319853076,0.000109094701431211,-0.000513937260351179,-0.000298102197111172,-0.000659493702283494
6.25052087673973,0.000551554772903779,-0.000189227823230536,0.000108714282206237,-0.000514317885445231,-0.000298472092086596,-0.000659842378491246
6.26052171014251,0.000551179874284871,-0.000189625115090526,0.000108305253469711,-0.000514727135845093,-0.000298869805589926,-0.000660217277110155
6.2705225435453,0.000550778408801121,-0.000190050560433104,0.00010786723942706,-0.000515165387584923,-0.000299295703077229,-0.000660618742593905
6.28052337694808,0.000550350034293464,-0.000190504521827483,0.000107399866786746,-0.000515633014193523,-0.000299750147569307,-0.000661047117101562
6.29052421035086,0.000549894411169996,-0.000190987359123255,0.000106902765057585,-0.000516130386396791,-0.000300233499362495,-0.000661502740225029
6.30052504375365,0.000549411202677823,-0.000191499429162363,0.000106375566845314,-0.000516657871820929,-0.000300746115740206,-0.000661985948717202
6.31052587715643,0.000548900075174908,-0.000192041085491064,0.000105817908149154,-0.000517215834695657,-0.000301288350684456,-0.000662497076220118
6.32052671055921,0.000548360698402739,-0.000192612678071031,0.00010522942865927,-0.000517804635556518,-0.000301860554586532,-0.000663036452992286
6.330527543962,0.000547792745760779,-0.00019321455298857,0.000104609772056162,-0.000518424630945253,-0.000302463073955763,-0.000663604405634247
6.34052837736478,0.000547195894583748,-0.000193847052160834,0.000103958586313163,-0.000519076173107064,-0.000303096251125268,-0.000664201256811277
6.35052921076756,0.000546569826422952,-0.000194510513037754,0.000103275524003333,-0.000519759609683477,-0.000303760423953436,-0.000664827324972073
6.36053004417035,0.000545914227332929,-0.000195205268298333,0.000102560242612168,-0.000520475283399381,-0.000304455925519735,-0.000665482924062097
6.37053087757313,0.00054522878816482,-0.000195931645539824,0.000101812404857632,-0.000521223531742735,-0.000305183083813394,-0.000666168363230206
6.38053171097591,0.000544513204867949,-0.000196689966958205,0.000101031679019149,-0.000522004686635315,-0.000305942221413384,-0.000666883946527077
6.3905325443787,0.000543767178801156,-0.000197480549018321,0.000100217739277241,-0.000522819074092801,-0.000306733655158026,-0.000667629972593869
6.40053337778148,0.000542990417055526,-0.000198303702111958,9.93702660655816e-05,-0.000523667013872433,-0.000307557695802528,-0.000668406734339499
6.41053421118426,0.00054218263279017,-0.000199159730202078,9.84889464373046e-05,-0.000524548819106412,-0.000308414647662655,-0.000669214518604855
6.42053504458705,0.000541343545582775,-0.000200048930451418,9.75734744474169e-05,-0.00052546479591918,-0.000309304808242744,-0.000670053605812251
6.43053587798983,0.000540472881796645,-0.000200971592833597,9.66235515532043e-05,-0.00052641524302669,-0.000310228467846206,-0.00067092426959838
6.44053671139262,0.000539570374965964,-0.00020192799972494,9.56388870345124e-05,-0.000527400451315795,-0.000311185909166706,-0.000671826776429061
6.4505375447954,0.000538635766200978,-0.000202918425475171,9.46191984357661e-05,-0.000528420703401884,-0.000312177406858204,-0.000672761385194047
6.46053837819818,0.000537668804614774,-0.000203943135955232,9.35642120315476e-05,-0.000529476273162936,-0.000313203227082083,-0.000673728346780252
6.47053921160097,0.000536669247773265,-0.000205002388080512,9.24736633174912e-05,-0.00053056742524825,-0.000314263627029654,-0.00067472790362176
6.48054004500375,0.000535636862169911,-0.000206096429307861,9.13472975281646e-05,-0.000531694414560172,-0.000315358854418429,-0.000675760289225114
6.49054087840653,0.000534571423726595,-0.000207225497104887,9.0184870183491e-05,-0.000532857485707262,-0.00031648914696063,-0.000676825727668431
6.50054171180932,0.000533472718321965,-0.000208389818390146,8.89861476651353e-05,-0.00053405687242748,-0.000317654731802573,-0.00067792443307306
6.5105425452121,0.000532340542348395,-0.000209589608943007,8.77509078241067e-05,-0.000535292796980143,-0.000318855824933689,-0.000679056609046631
6.52054337861488,0.000531174703298522,-0.00021082507278217,8.64789406206472e-05,-0.000536565469505574,-0.000320092630564161,-0.000680222448096503
6.53054421201767,0.000529975020382169,-0.000212096401511982,8.51700487972551e-05,-0.000537875087351605,-0.000321365340470343,-0.000681422131012856
6.54054504542045,0.000528741325174183,-0.000213403773635991,8.38240485854518e-05,-0.000539221834366316,-0.000322674133307374,-0.000682655826220843
6.55054587882324,0.000527473462293514,-0.00021474735383739,8.24407704466312e-05,-0.00054060588015668,-0.000324019173888648,-0.000683923689101511
6.56054671222602,0.000526171290113574,-0.000216127292226306,8.10200598470343e-05,-0.000542027379313065,-0.000325400612432127,-0.000685225861281452
6.5705475456288,0.000524834681503607,-0.000217543723554227,7.95617780665719e-05,-0.000543486470599877,-0.00032681858377373,-0.000686562469891419
6.58054837903159,0.000523463524600522,-0.000218996766396138,7.80658030408718e-05,-0.000544983276112965,-0.000328273206548438,-0.000687933626794504
6.59054921243437,0.000522057723610255,-0.000220486522301356,7.65320302355577e-05,-0.000546517900404781,-0.000329764582340066,-0.000689339427784771
6.60055004583715,0.000520617199637404,-0.000222013074914404,7.49603735513767e-05,-0.00054809042957869,-0.000331292794801051,-0.000690779951757621
6.61055087923994,0.000519141891541491,-0.000223576489067655,7.33507662583767e-05,-0.000549700930354215,-0.000332857908744011,-0.000692255259853534
6.62055171264272,0.000517631756817799,-0.000225176809847921,7.17031619569107e-05,-0.000551349449105458,-0.000334459969207229,-0.000693765394577227
6.6305525460455,0.000516086772500349,-0.000226814061639576,7.00175355627942e-05,-0.000553036010875357,-0.000336099000496675,-0.000695310378894676
6.64055337944829,0.000514506936084139,-0.00022848824714726,6.82938843134866e-05,-0.00055476061836893,-0.000337775005207603,-0.000696890215310887
6.65055421285107,0.000512892266463347,-0.000230199346401641,6.65322287916993e-05,-0.000556523250929089,-0.000339487963229222,-0.000698504884931679
6.66055504625385,0.000511242804881771,-0.00023194731575221,6.47326139623586e-05,-0.000558323863499112,-0.000341237830736409,-0.000700154346513254
6.67055587965664,0.000509558615891337,-0.000233732086851502,6.28951102183807e-05,-0.000560162385576307,-0.000343024539172874,-0.000701838535503689
6.68055671305942,0.000507839788314075,-0.000235553565635641,6.10198144302404e-05,-0.000562038720161907,-0.000344847994230668,-0.000703557363080951
6.69055754646221,0.000506086436202547,-0.000237411631306495,5.91068509938551e-05,-0.000563952742712656,-0.000346708074831349,-0.000705310715192479
6.70055837986499,0.000504298699793283,-0.000239306135321236,5.71563728708565e-05,-0.000565904300100045,-0.000348604632114589,-0.000707098451601743
6.71055921326777,0.000502476746447409,-0.000241236900395456,5.51685626148903e-05,-0.000567893209583536,-0.000350537488440387,-0.000708920404947616
6.72056004667056,0.000500620771572257,-0.000243203719526413,5.31436333771827e-05,-0.000569919257804554,-0.000352506436411488,-0.000710776379822768
6.73056088007334,0.000498730999517419,-0.000245206355043347,5.1081829884236e-05,-0.000571982199808391,-0.000354511237922921,-0.000712666151877606
6.74056171347612,0.000496807684438408,-0.000247244537692105,4.89834293801865e-05,-0.000574081758101486,-0.000356551623245943,-0.000714589466956617
6.75056254687891,0.000494851111120798,-0.000249317965761626,4.6848742526061e-05,-0.000576217621751851,-0.000358627290153919,-0.000716546040274227
6.76056338028169,0.000492861595757525,-0.000251426304260051,4.46781142479381e-05,-0.000578389445540643,-0.000360737903097931,-0.0007185355556375
6.77056421368447,0.000490839486671844,-0.000253569184148393,4.24719245258329e-05,-0.000580596849173075,-0.00036288309244005,-0.000720557664723181
6.78056504708726,0.000488785164978349,-0.000255746201639837,4.02305891150148e-05,-0.000582839416556943,-0.000365062453752344,-0.000722611986416677
6.79056588049004,0.000486699045174408,-0.000257956917572748,3.79545601914171e-05,-0.000585116695157136,-0.000367275547189738,-0.000724698106220618
