data1,data2,data3,data4,data5,data6,data7
0,-0.000955582086375605,-0.000703277731288668,0.000255257608943049,0.00015129439307217,0.000766541375448395,0.000555318460225868
0.0100008334027836,-0.000955582137939316,-0.000703277783319844,0.000255257556665839,0.000151294340784254,0.000766541323395745,0.000555318408662157
0.0200016668055671,-0.00095558217881992,-0.000703277824571061,0.000255257515219561,0.000151294299329487,0.000766541282127501,0.000555318367781553
0.0300025002083507,-0.000955582575084053,-0.000703278224427599,0.000255257113472248,0.000151293897499871,0.000766540882105882,0.00055531797151742
0.0400033336111343,-0.000955582905893823,-0.000703278558236368,0.000255256778085011,0.00015129356204391,0.000766540548159269,0.00055531764070765
0.0500041670139178,-0.000955583183622429,-0.000703278838482742,0.000255256496513438,0.000151293280414626,0.000766540267797143,0.000555317362979044
0.0600050004167014,-0.000955583446895842,-0.000703279104142865,0.000255256229597083,0.000151293013443553,0.000766540002027269,0.000555317099705631
0.070005833819485,-0.00095558368403525,-0.000703279343432051,0.000255255989176359,0.000151292772973531,0.000766539762639207,0.000555316862566223
0.0800066672222685,-0.000955583886610984,-0.000703279547844219,0.000255255783797572,0.000151292567552625,0.000766539558142558,0.000555316659990489
0.0900075006250521,-0.000955584048019306,-0.000703279710715765,0.000255255620155839,0.000151292403877323,0.000766539395203685,0.000555316498582167
0.100008334027836,-0.000955584163235151,-0.000703279826976077,0.000255255503345752,0.00015129228704327,0.000766539278895304,0.000555316383366322
0.110009167430619,-0.000955584228779622,-0.000703279893114725,0.000255255436894344,0.000151292220578225,0.000766539212729305,0.000555316317821851
0.120010000833403,-0.000955584242634071,-0.000703279907094768,0.000255255422848191,0.00015129220652919,0.000766539198743481,0.000555316303967402
0.130010834236186,-0.000955584204132193,-0.000703279868243865,0.000255255461882816,0.000151292245571829,0.000766539237610456,0.00055531634246928
0.14001166763897,-0.000955584113837787,-0.000703279777130932,0.000255255553426617,0.000151292337134428,0.000766539328761093,0.000555316432763686
0.150012501041753,-0.00095558397341045,-0.000703279635430616,0.000255255695797029,0.000151292479534083,0.000766539470520058,0.000555316573191023
0.160013334444537,-0.000955583785459471,-0.000703279445775865,0.000255255886348657,0.000151292670124858,0.000766539660253323,0.000555316761142002
0.170014167847321,-0.000955583553385918,-0.000703279211598583,0.00025525612163337,0.00015129290545792,0.000766539894527572,0.000555316993215555
0.180015001250104,-0.000955583281213983,-0.000703278936959447,0.000255256397571291,0.000151293181452556,0.000766540169280457,0.00055531726538749
0.190015834652888,-0.000955582973414453,-0.000703278626369774,0.00025525670962977,0.000151293493575189,0.000766540479998797,0.00055531757318702
0.200016668055671,-0.000955582634725092,-0.00070327828461028,0.000255257053005485,0.000151293837021514,0.000766540821899904,0.000555317911876381
0.210017501458455,-0.000955582269974317,-0.000703277916553152,0.00025525742280321,0.0001512942068953,0.000766541190109577,0.000555318276627156
0.220018334861238,-0.000955581883915427,-0.000703277526994784,0.00025525781420387,0.000151294598376486,0.000766541579829443,0.000555318662686046
0.230019168264022,-0.000955581481078705,-0.000703277120506521,0.000255258222614501,0.000151295006871162,0.000766541986486261,0.000555319065522768
0.240020001666806,-0.000955581065647825,-0.000703276701309967,0.000255258643793538,0.000151295428136895,0.000766542405856685,0.000555319480953648
0.250020835069589,-0.000955580641365514,-0.000703276273181774,0.000255259073946467,0.000151295858378389,0.000766542834162495,0.000555319905235959
0.260021668472373,-0.000955580211471339,-0.000703275839390876,0.000255259509788895,0.000151296294310577,0.000766543268133406,0.000555320335130134
0.270022501875156,-0.000955579778672341,-0.000703275402668851,0.000255259948576326,0.000151296733188397,0.000766543705036705,0.000555320767929132
0.28002333527794,-0.000955579345145116,-0.000703274965212026,0.000255260388102047,0.000151297172804683,0.000766544142675156,0.000555321201456357
0.290024168680723,-0.000955578912566179,-0.000703274528712112,0.000255260826666345,0.000151297611459372,0.000766544579356344,0.000555321634035294
0.300025002083507,-0.000955578482166103,-0.000703274094410837,0.00025526126302162,0.000151298047904606,0.000766545013838027,0.00055532206443537
0.310025835486291,-0.000955578054802078,-0.000703273663173159,0.000255261696298824,0.000151298481271158,0.000766545445254887,0.000555322491799395
0.320026668889074,-0.000955577631043162,-0.000703273235573294,0.000255262125921023,0.000151298910981975,0.000766545873032468,0.000555322915558311
0.330027502291858,-0.000955577211262536,-0.000703272811987805,0.000255262551509874,0.000151299336658634,0.000766546296794049,0.000555323335338937
0.340028335694641,-0.000955576795731392,-0.000703272392690342,0.000255262972790432,0.000151299758026136,0.000766546716265868,0.000555323750870081
0.350029169097425,-0.000955576384709645,-0.000703271977943175,0.000255263389499187,0.000151300174820913,0.000766547131185542,0.000555324161891828
0.360030002500208,-0.000955575978529344,-0.000703271568081362,0.000255263801299496,0.000151300586706254,0.000766547541217875,0.000555324568072129
0.370030835902992,-0.000955575577667359,-0.000703271163586095,0.00025526420770789,0.000151300993198588,0.000766547945881473,0.000555324968934114
0.380031669305775,-0.000955575182804701,-0.000703270765144556,0.000255264608033937,0.000151301393607341,0.000766548344488866,0.000555325363796772
0.390032502708559,-0.000955574794870485,-0.00070327037369428,0.000255265001335666,0.000151301786990347,0.000766548736102127,0.000555325751730988
0.400033336111343,-0.000955574415069246,-0.00070326999045072,0.000255265386391878,0.000151302172126152,0.000766549119505297,0.000555326131532227
0.410034169514126,-0.000955574044890901,-0.000703269616917295,0.00025526576169204,0.00015130254750391,0.000766549493194327,0.000555326501710572
0.42003500291691,-0.000955573686103206,-0.00070326925487778,0.000255266125443939,0.000151302911331039,0.000766549855384698,0.000555326860498267
0.430035836319693,-0.000955573340727074,-0.000703268906371404,0.000255266475598701,0.000151303261558237,0.000766550204036328,0.000555327205874399
0.440036669722477,-0.000955573010995625,-0.000703268573651524,0.000255266809892311,0.000151303595921018,0.000766550536894917,0.000555327535605848
0.45003750312526,-0.000955572699298293,-0.000703268259129228,0.000255267125902273,0.000151303911996387,0.000766550851548368,0.00055532784730318
0.460038336528044,-0.000955572408111842,-0.000703267965303725,0.000255267421117558,0.000151304207272788,0.000766551145496426,0.000555328138489631
0.470039169930828,-0.000955572139920618,-0.000703267694681873,0.000255267693019448,0.000151304479230984,0.000766551416231182,0.000555328406680855
0.480040003333611,-0.000955571897128881,-0.00070326744968972,0.000255267939170418,0.000151304725432939,0.000766551661325572,0.000555328649472592
0.490040836736395,-0.000955571681968587,-0.000703267232579447,0.000255268157307635,0.00015130494361535,0.000766551878526469,0.000555328864632886
0.500041670139178,-0.000955571496406395,-0.000703267045335531,0.000255268345437229,0.000151305131783931,0.00076655206584856,0.000555329050195078
0.510042503541962,-0.000955571342054071,-0.000703266889584344,0.000255268501925137,0.000151305288304276,0.00076655222166479,0.000555329204547402
0.520043336944745,-0.000955571220086621,-0.000703266766511535,0.000255268625580098,0.000151305411984875,0.000766552344789007,0.000555329326514852
0.530044170347529,-0.000955571131172437,-0.000703266676791551,0.000255268715724473,0.000151305502147945,0.000766552434546477,0.000555329415429036
0.540045003750313,-0.000955571075419433,-0.000703266620533278,0.000255268772248859,0.000151305558684055,0.000766552490828259,0.00055532947118204
0.550045837153096,-0.000955571052340473,-0.000703266597245164,0.000255268795647131,0.000151305582087182,0.000766552514126107,0.000555329494261
0.56004667055588,-0.000955571060840479,-0.000703266605822201,0.000255268787029523,0.000151305573467785,0.000766552505545484,0.000555329485760994
0.570047503958663,-0.000955571099226392,-0.000703266644555984,0.000255268748112517,0.000151305534542701,0.000766552466795503,0.000555329447375081
0.580048337361447,-0.000955571165239823,-0.000703266711167654,0.000255268681185753,0.000151305467602041,0.000766552400155972,0.00055532938136165
0.59004917076423,-0.000955571256110833,-0.000703266802862167,0.000255268589057493,0.000151305375454649,0.000766552308423097,0.00055532929049064
0.600050004167014,-0.000955571368630036,-0.00070326691640105,0.000255268474981527,0.000151305261354988,0.000766552194836703,0.000555329177971437
0.610050837569797,-0.000955571499235146,-0.000703267048189733,0.00025526834256943,0.000151305128915381,0.000766552062992861,0.000555329047366326
0.620051670972581,-0.000955571644107419,-0.000703267194374862,0.000255268195692781,0.00015130498200821,0.000766551916746534,0.000555328902494054
0.630052504375365,-0.000955571799273096,-0.000703267350946667,0.000255268038380319,0.00015130482466305,0.000766551760109169,0.000555328747328377
0.640053337778148,-0.000955571960705065,-0.000703267513841541,0.00025526787471487,0.000151304660963576,0.000766551597146072,0.000555328585896408
0.650054171180932,-0.000955572124420351,-0.000703267679040415,0.00025526770873452,0.000151304494948711,0.000766551431877997,0.000555328422181122
0.660055004583715,-0.000955572286569746,-0.000703267842659199,0.000255267544341729,0.000151304330521729,0.00076655126819066,0.000555328260031727
0.670055837986499,-0.000955572443516757,-0.000703268001028446,0.000255267385223303,0.000151304171370202,0.000766551109755045,0.000555328103084716
0.680056671389282,-0.00095557259190393,-0.000703268150760279,0.000255267234783147,0.000151304020898743,0.000766550959960449,0.000555327954697543
0.690057504792066,-0.000955572728705539,-0.000703268288801554,0.000255267096088849,0.00015130388217558,0.000766550821861301,0.000555327817895934
0.70005833819485,-0.000955572851266356,-0.000703268412472984,0.000255266971832371,0.000151303757893236,0.000766550698138011,0.000555327695335117
0.710059171597633,-0.000955572957326925,-0.000703268519494639,0.000255266864304429,0.000151303650342905,0.000766550591071468,0.000555327589274548
0.720060005000417,-0.000955573045036198,-0.000703268607998699,0.00025526677538168,0.000151303561401638,0.000766550502530278,0.000555327501565275
0.7300608384032,-0.000955573112952766,-0.000703268676530696,0.000255266706525475,0.00015130349253109,0.000766550433969524,0.000555327433648707
0.740061671805984,-0.000955573160036104,-0.00070326872404068,0.000255266658790732,0.000151303444786401,0.0007665503864396,0.000555327386565369
0.750062505208767,-0.000955573185629364,-0.000703268749865852,0.000255266632843386,0.000151303418833647,0.000766550360603587,0.000555327360972109
0.760063338611551,-0.000955573189435245,-0.000703268753706219,0.000255266628984851,0.000151303414974308,0.000766550356761607,0.000555327357166228
0.770064172014335,-0.000955573171486464,-0.000703268735594799,0.000255266647181954,0.000151303433175205,0.000766550374880634,0.000555327375115009
0.780065005417118,-0.00095557313211227,-0.000703268695863825,0.000255266687100892,0.000151303473102468,0.000766550414628299,0.000555327414489203
0.790065838819902,-0.000955573071902336,-0.000703268635108317,0.00025526674814383,0.00015130353415814,0.000766550475409336,0.000555327474699137
0.800066672222685,-0.000955572991669298,-0.000703268554148276,0.000255266829486891,0.000151303615518172,0.000766550556403404,0.000555327554932175
0.810067505625469,-0.000955572892411052,-0.000703268453990643,0.000255266930118368,0.000151303716170652,0.000766550656603141,0.000555327654190421
0.820068339028252,-0.000955572775273838,-0.000703268335792047,0.000255267048876166,0.00015130383495324,0.000766550774851439,0.000555327771327635
0.830069172431036,-0.000955572641516975,-0.000703268200823218,0.00025526718448354,0.00015130397058893,0.000766550909877034,0.000555327905084498
0.84007000583382,-0.000955572492480007,-0.000703268050435842,0.000255267335582413,0.00015130412171936,0.000766551060327677,0.000555328054121466
0.850070839236603,-0.000955572329552852,-0.000703267886032431,0.000255267500763636,0.000151304286935092,0.000766551224800269,0.000555328217048621
0.860071672639387,-0.000955572154149402,-0.000703267709039692,0.000255267678593756,0.000151304464802372,0.000766551401867506,0.000555328392452071
0.87007250604217,-0.00095557196768488,-0.00070326752088567,0.00025526786763797,0.0001513046538861,0.000766551590100742,0.000555328578916593
0.880073339444954,-0.000955571771557102,-0.000703267322980849,0.000255268066479123,0.000151304852768824,0.000766551788088905,0.00055532877504437
0.890074172847737,-0.000955571567131653,-0.000703267116703188,0.000255268273732737,0.00015130506006578,0.000766551994453456,0.00055532897946982
0.900075006250521,-0.000955571355730858,-0.000703266903386993,0.000255268488058192,0.000151305274436068,0.000766552207859528,0.000555329190870615
0.910075839653304,-0.000955571138626308,-0.00070326668431538,0.000255268708166303,0.000151305494590234,0.000766552427023468,0.000555329407975165
0.920076673056088,-0.000955570917034622,-0.000703266460715989,0.000255268932823622,0.000151305719294572,0.000766552650717118,0.000555329629566851
0.930077506458872,-0.000955570692116014,-0.000703266233759548,0.000255269160853882,0.000151305947372571,0.000766552877769259,0.000555329854485459
0.940078339861655,-0.000955570464975224,-0.000703266004560807,0.00025526939113706,0.000151306177703971,0.000766553107064671,0.000555330081626249
0.950079173264439,-0.000955570236664316,-0.000703265774181361,0.000255269622606536,0.000151306409221931,0.000766553337541311,0.000555330309937157
0.960080006667222,-0.000955570008186824,-0.000703265543633837,0.000255269854244892,0.000151306640908821,0.000766553568186125,0.000555330538414649
0.970080840070006,-0.000955569780502765,-0.000703265313886949,0.000255270085078833,0.000151306871791138,0.000766553798029991,0.000555330766098708
0.980081673472789,-0.000955569554534028,-0.000703265085870941,0.000255270314173712,0.000151307100934044,0.000766554026142273,0.000555330992067445
0.990082506875573,-0.000955569331169719,-0.00070326486048297,0.000255270540628126,0.000151307327435943,0.000766554251625433,0.000555331215431754
1.00008334027836,-0.000955569111271052,-0.000703264638592056,0.000255270763568945,0.000151307550423523,0.000766554473610085,0.000555331435330421
1.01008417368114,-0.000955568895675476,-0.000703264421043232,0.000255270982147136,0.000151307769047573,0.000766554691250836,0.000555331650925997
1.02008500708392,-0.00095556868519975,-0.000703264208660657,0.000255271195534641,0.000151307982479859,0.00076655490372318,0.000555331861401723
1.03008584048671,-0.000955568480641779,-0.000703264002249463,0.000255271402922515,0.000151308189911268,0.00076655511022164,0.000555332065959694
1.04008667388949,-0.000955568282781065,-0.000703263802596215,0.000255271603520475,0.000151308390551348,0.000766555309959321,0.000555332263820408
1.05008750729227,-0.000955568092377718,-0.000703263610467906,0.000255271796557896,0.000151308583629313,0.000766555502168902,0.000555332454223755
1.06008834069506,-0.000955567910170013,-0.000703263426609501,0.000255271981286287,0.000151308768396514,0.000766555686105101,0.00055533263643146
1.07008917409784,-0.000955567736870579,-0.000703263251740082,0.000255272156983164,0.000151308944130313,0.000766555861048531,0.000555332809730894
1.08009000750063,-0.000955567573161309,-0.000703263086547718,0.000255272322957201,0.000151309110139238,0.000766556026310827,0.000555332973440164
1.09009084090341,-0.000955567419687192,-0.000703262931683243,0.000255272478554484,0.000151309265769237,0.000766556181240881,0.00055533312691428
1.10009167430619,-0.000955567277049271,-0.000703262787753138,0.00025527262316566,0.000151309410410827,0.000766556325231949,0.000555333269552202
1.11009250770898,-0.000955567145796971,-0.000703262655311809,0.000255272756233701,0.000151309543506862,0.000766556457729391,0.000555333400804502
1.12009334111176,-0.000955567026420105,-0.000703262534853503,0.00025527287726202,0.000151309664560649,0.000766556578238746,0.000555333520181368
1.13009417451454,-0.000955566919340822,-0.000703262426804191,0.000255272985822628,0.000151309773144107,0.000766556686333859,0.000555333627260651
1.14009500791733,-0.000955566824905827,-0.000703262331513717,0.000255273081564026,0.000151309868905662,0.000766556781664736,0.000555333721695646
1.15009584132011,-0.000955566743379154,-0.000703262249248506,0.000255273164218526,0.000151309951577569,0.000766556863964837,0.000555333803222319
1.16009667472289,-0.000955566674935791,-0.00070326218018513,0.000255273233608722,0.000151310020982381,0.000766556933057512,0.000555333871665682
1.17009750812568,-0.000955566619656406,-0.000703262124404984,0.00025527328965283,0.000151310077038298,0.000766556988861327,0.000555333926945067
1.18009834152846,-0.000955566577523395,-0.000703262081890305,0.000255273332368699,0.000151310119763169,0.00076655703139405,0.000555333969078078
1.19009917493124,-0.000955566548418448,-0.000703262052521708,0.000255273361876275,0.000151310149276966,0.000766557060775115,0.000555333998183025
1.20010000833403,-0.000955566532121744,-0.00070326203607738,0.000255273378398423,0.000151310165802598,0.000766557077226426,0.000555334014479729
1.21010084173681,-0.000955566528312861,-0.000703262032233994,0.000255273382259997,0.000151310169664986,0.000766557081071445,0.000555334018288612
1.22010167513959,-0.000955566536573424,-0.000703262040569384,0.00025527337388516,0.000151310161288382,0.000766557072732512,0.000555334010028049
1.23010250854238,-0.00095556655639145,-0.000703262060566928,0.00025527335379298,0.000151310141191963,0.00076655705272647,0.000555333990210023
1.24010334194516,-0.000955566587167292,-0.000703262091621546,0.000255273322591398,0.000151310109983795,0.000766557021658652,0.000555333959434181
1.25010417534795,-0.000955566628221063,-0.000703262133047192,0.000255273280969708,0.000151310068353317,0.000766556980215393,0.00055533391838041
1.26010500875073,-0.000955566678801338,-0.00070326218408563,0.000255273229689731,0.00015131001706251,0.00076655692915525,0.000555333867800135
1.27010584215351,-0.000955566738094926,-0.000703262243916304,0.000255273169575907,0.000151309956935988,0.000766556869299125,0.000555333808506547
1.2801066755563,-0.000955566805237479,-0.000703262311667037,0.000255273101504541,0.000151309888850239,0.000766556801519567,0.000555333741363994
1.29010750895908,-0.000955566879324674,-0.000703262386425311,0.000255273026392467,0.000151309813722292,0.000766556726729477,0.000555333667276799
1.30010834236186,-0.000955566959423709,-0.000703262467249875,0.000255272945185391,0.00015130973249805,0.000766556645870508,0.000555333587177764
1.31010917576465,-0.000955567044584866,-0.000703262553182409,0.00025527285884617,0.000151309646140572,0.000766556559901386,0.000555333502016607
1.32011000916743,-0.00095556713385289,-0.000703262643259003,0.000255272768343272,0.000151309555618535,0.000766556469786431,0.000555333412748583
1.33011084257021,-0.000955567226277966,-0.00070326273652124,0.000255272674639653,0.000151309461895093,0.000766556376484466,0.000555333320323507
1.340111675973,-0.000955567320926102,-0.000703262832026666,0.000255272578682225,0.000151309365917361,0.000766556280938348,0.000555333225675371
1.35011250937578,-0.000955567416888741,-0.000703262928858497,0.000255272481392111,0.000151309268606657,0.00076655618406525,0.000555333129712732
1.36011334277856,-0.000955567513291487,-0.000703263026134414,0.000255272383655807,0.000151309170849662,0.000766556086747866,0.000555333033309986
1.37011417618135,-0.000955567609301816,-0.000703263123014355,0.00025527228631735,0.000151309073490594,0.000766555989826618,0.000555332937299657
1.38011500958413,-0.000955567704135743,-0.000703263218707232,0.000255272190171572,0.000151308977324453,0.000766555894092931,0.00055533284246573
1.39011584298692,-0.000955567797063367,-0.000703263312476535,0.000255272095958469,0.000151308883091391,0.000766555800283628,0.000555332749538106
1.4001166763897,-0.000955567887413324,-0.000703263403644819,0.000255272004358693,0.000151308791472205,0.000766555709076446,0.000555332659188149
1.41011750979248,-0.000955567974576139,-0.000703263491597087,0.00025527191599015,0.000151308703084933,0.000766555621086642,0.000555332572025334
1.42011834319527,-0.00095556805800653,-0.000703263575783122,0.000255271831405664,0.000151308618482515,0.00076655553686467,0.000555332488594943
1.43011917659805,-0.000955568137224724,-0.000703263655718805,0.000255271751091644,0.000151308538151465,0.000766555456894857,0.000555332409376749
1.44012001000083,-0.000955568211816851,-0.000703263730986516,0.000255271675467687,0.000151308462511468,0.000766555381595001,0.000555332334784622
1.45012084340362,-0.0009555682814345,-0.000703263801234692,0.000255271604887021,0.000151308391915828,0.000766555311316817,0.000555332265166973
1.4601216768064,-0.000955568345793537,-0.000703263866176624,0.000255271539637711,0.000151308326652673,0.000766555246347137,0.000555332200807936
1.47012251020918,-0.000955568404672266,-0.000703263925588611,0.00025527147994452,0.000151308266946811,0.00076655518690976,0.000555332141929207
1.48012334361197,-0.000955568457909045,-0.000703263979307544,0.000255271425971325,0.000151308212962158,0.000766555133167863,0.000555332088692428
1.49012417701475,-0.000955568505399435,-0.000703264027228043,0.000255271377824009,0.000151308164804617,0.000766555085226875,0.000555332041202038
1.50012501041753,-0.000955568547092994,-0.000703264069299207,0.000255271335553712,0.000151308122525342,0.000766555043137718,0.000555331999508479
1.51012584382032,-0.000955568582989784,-0.000703264105521101,0.00025527129916037,0.000151308086124268,0.000766555006900329,0.000555331963611689
1.5201266772231,-0.000955568613136691,-0.000703264135941035,0.000255271268596449,0.000151308055553852,0.000766554976467379,0.000555331933464782
1.53012751062589,-0.000955568637623618,-0.000703264160649728,0.000255271243770802,0.000151308030722927,0.00076655495174811,0.000555331908977855
1.54012834402867,-0.000955568656579633,-0.000703264179777417,0.000255271224552575,0.000151308011500614,0.000766554932612233,0.00055533189002184
1.55012917743145,-0.000955568670169116,-0.000703264193489971,0.000255271210775114,0.000151307997720223,0.000766554918893808,0.000555331876432357
1.56013001083424,-0.000955568678587973,-0.000703264201985071,0.000255271202239802,0.000151307989183096,0.000766554910395069,0.0005553318680135
1.57013084423702,-0.00095556868205995,-0.000703264205488492,0.000255271198719798,0.000151307985662342,0.000766554906890147,0.000555331864541523
1.5801316776398,-0.000955568680833091,-0.000703264204250523,0.000255271199963627,0.000151307986906437,0.000766554908128647,0.000555331865768382
1.59013251104259,-0.000955568675176355,-0.000703264198542558,0.00025527120569861,0.000151307992642641,0.000766554913839058,0.000555331871425118
1.60013334444537,-0.000955568665376433,-0.000703264188653887,0.00025527121563409,0.000151308002580236,0.000766554923731968,0.00055533188122504
1.61013417784815,-0.000955568651734763,-0.000703264174888679,0.000255271229464458,0.000151308016413549,0.00076655493750308,0.00055533189486671
1.62013501125094,-0.000955568634564764,-0.00070326415756319,0.000255271246871959,0.000151308033824759,0.000766554954836,0.000555331912036709
1.63013584465372,-0.000955568614189284,-0.000703264137003192,0.000255271267529281,0.000151308054486483,0.000766554975404819,0.000555331932412189
1.6401366780565,-0.000955568590938263,-0.000703264113541614,0.000255271291101918,0.000151308078064146,0.000766554998876466,0.00055533195566321
1.65013751145929,-0.00095556856514661,-0.000703264087516399,0.00025527131725033,0.000151308104218132,0.000766555024912852,0.000555331981454863
1.66013834486207,-0.000955568537152283,-0.000703264059268565,0.000255271345631882,0.000151308132605737,0.000766555053172815,0.00055533200944919
1.67013917826486,-0.000955568507294557,-0.000703264029140459,0.000255271375902608,0.000151308162882921,0.00076655508331386,0.000555332039306916
1.68014001166764,-0.000955568475912468,-0.000703263997474189,0.000255271407718781,0.000151308194705882,0.000766555114993733,0.000555332070689005
1.69014084507042,-0.000955568443343427,-0.00070326396461022,0.000255271440738323,0.000151308227732472,0.000766555147871823,0.000555332103258046
1.70014167847321,-0.000955568409921968,-0.000703263930886117,0.000255271474622073,0.000151308261623455,0.000766555181610422,0.000555332136679505
1.71014251187599,-0.000955568375978635,-0.000703263896635415,0.000255271509034915,0.000151308296043646,0.000766555215875848,0.000555332170622838
1.72014334527877,-0.000955568341838972,-0.000703263862186608,0.0002552715436468,0.000151308330662924,0.000766555250339468,0.000555332204762501
1.73014417868156,-0.000955568307822619,-0.00070326382786223,0.00025527157813367,0.000151308365157162,0.00076655528467861,0.000555332238778854
1.74014501208434,-0.000955568274242473,-0.000703263793978011,0.000255271612178298,0.000151308399209066,0.000766555318577407,0.000555332272359
1.75014584548712,-0.000955568241403925,-0.000703263760842107,0.000255271645471069,0.000151308432508953,0.000766555351727571,0.000555332305197548
1.76014667888991,-0.000955568209604138,-0.000703263728754373,0.000255271677710709,0.000151308464755487,0.000766555383829117,0.000555332336997335
1.77014751229269,-0.00095556817913137,-0.000703263698005676,0.000255271708604974,0.00015130849565636,0.000766555414591053,0.000555332367470103
1.78014834569547,-0.000955568150264313,-0.000703263668877231,0.000255271737871318,0.000151308524928964,0.000766555443732043,0.00055533239633716
1.79014917909826,-0.000955568123271458,-0.000703263641639961,0.000255271765237534,0.000151308552301036,0.000766555470981046,0.000555332423330015
1.80015001250104,-0.000955568098410465,-0.000703263616553858,0.0002552717904424,0.000151308577511297,0.000766555496077958,0.000555332448191008
1.81015084590383,-0.000955568075927535,-0.000703263593867352,0.00025527181323631,0.000151308600310087,0.000766555518774242,0.000555332470673938
1.82015167930661,-0.000955568056056784,-0.000703263573816679,0.000255271833381908,0.00015130862046,0.000766555538833559,0.000555332490544689
1.83015251270939,-0.000955568039019613,-0.000703263556625244,0.000255271850654733,0.000151308637736525,0.000766555556032407,0.00055533250758186
1.84015334611218,-0.000955568025024074,-0.000703263542502983,0.000255271864843854,0.000151308651928686,0.000766555570160759,0.000555332521577399
1.85015417951496,-0.000955568014264239,-0.000703263531645724,0.000255271875752516,0.000151308662839685,0.000766555581022703,0.000555332532337234
1.86015501291774,-0.000955568006919562,-0.000703263524234546,0.000255271883198781,0.000151308670287548,0.000766555588437079,0.000555332539681911
1.87015584632053,-0.000955568003154256,-0.000703263520435147,0.000255271887016168,0.000151308674105753,0.000766555592238118,0.000555332543447217
1.88015667972331,-0.000955568003116673,-0.000703263520397224,0.000255271887054271,0.000151308674143863,0.000766555592276057,0.0005553325434848
1.89015751312609,-0.000955568006938713,-0.00070326352425387,0.000255271883179366,0.000151308670268127,0.000766555588417746,0.00055533253966276
1.90015834652888,-0.000955568014735249,-0.000703263532120996,0.000255271875274992,0.000151308662362057,0.000766555580547221,0.000555332531866224
1.91015917993166,-0.000955568026603595,-0.000703263544096798,0.000255271863242489,0.000151308650326972,0.000766555568566244,0.000555332519997878
1.92016001333444,-0.000955568042623019,-0.000703263560261261,0.000255271847001494,0.000151308634082489,0.000766555552394795,0.000555332503978454
1.93016084673723,-0.000955568062854305,-0.00070326358067572,0.00025527182649038,0.00015130861356697,0.000766555531971511,0.000555332483747168
1.94016168014001,-0.000955568087339393,-0.000703263605382492,0.000255271801666629,0.000151308588737887,0.000766555507254055,0.000555332459262079
1.9501625135428,-0.000955568116101079,-0.000703263634404579,0.00025527177250713,0.000151308559572122,0.000766555478219415,0.000555332430500394
1.96016334694558,-0.000955568149142812,-0.000703263667745462,0.000255271739008386,0.000151308526066179,0.000766555444864108,0.000555332397458661
1.97016418034836,-0.000955568186448582,-0.000703263705388985,0.00025527170118663,0.000151308488236292,0.000766555407204297,0.000555332360152891
1.98016501375115,-0.000955568227982907,-0.000703263747299344,0.000255271659077833,0.00015130844611844,0.000766555365275797,0.000555332318618566
1.99016584715393,-0.00095556827369094,-0.000703263793421195,0.000255271612737602,0.000151308399768242,0.000766555319133978,0.000555332272910533
2.00016668055671,-0.000955568323498683,-0.00070326384367987,0.000255271562240957,0.000151308349260734,0.000766555268853538,0.00055533222310279
2.0101675139595,-0.000955568377313331,-0.000703263897981722,0.00025527150768199,0.000151308294690026,0.000766555214528165,0.000555332169288142
2.02016834736228,-0.000955568435023734,-0.000703263956214596,0.000255271449173387,0.000151308236168829,0.000766555156270061,0.000555332111577739
2.03016918076506,-0.000955568496500995,-0.000703264018248426,0.000255271386845828,0.00015130817382785,0.000766555094209348,0.000555332050100478
2.04017001416785,-0.000955568561599188,-0.000703264083935966,0.000255271320847257,0.000151308107815066,0.000766555028493334,0.000555331985002285
2.05017084757063,-0.000955568630156211,-0.000703264153113644,0.000255271251342019,0.000151308038294856,0.000766554959285662,0.000555331916445262
2.06017168097341,-0.00095556870199475,-0.000703264225602542,0.00025527117850988,0.000151307965447025,0.000766554886765327,0.000555331844606723
2.0701725143762,-0.000955568776923374,-0.000703264301209495,0.00025527110254492,0.000151307889465693,0.000766554811125577,0.000555331769678099
2.08017334777898,-0.000955568854737731,-0.0007032643797283,0.000255271023654317,0.000151307810558083,0.000766554732572703,0.000555331691863742
2.09017418118177,-0.00095556893522185,-0.000703264460941031,0.000255270942057029,0.000151307728943201,0.000766554651324726,0.000555331611379623
2.10017501458455,-0.000955569018149536,-0.000703264544619445,0.00025527085798238,0.00015130764485042,0.000766554567609987,0.000555331528451937
2.11017584798733,-0.000955569103285842,-0.000703264630526468,0.000255270771668566,0.000151307558517985,0.000766554481665661,0.000555331443315631
2.12017668139012,-0.000955569190388615,-0.000703264718417755,0.00025527068336109,0.000151307470191454,0.000766554393736202,0.000555331356212858
2.1301775147929,-0.000955569279210089,-0.000703264808043296,0.000255270593311145,0.000151307380122073,0.000766554304071727,0.000555331267391384
2.14017834819568,-0.00095556936949852,-0.000703264899149067,0.000255270501773957,0.000151307288565123,0.000766554212926368,0.000555331177102953
2.15017918159847,-0.000955569460999847,-0.000703264991478709,0.000255270409007099,0.000151307195778233,0.000766554120556597,0.000555331085601626
2.16018001500125,-0.00095556955345936,-0.000703265084775205,0.000255270315268807,0.000151307102019694,0.000766554027219543,0.000555330993142113
2.17018084840403,-0.00095556964662336,-0.00070326517878256,0.000255270220816286,0.000151307007546767,0.000766553933171311,0.000555330899978113
2.18018168180682,-0.000955569740240799,-0.000703265273247452,0.000255270125904059,0.000151306912614029,0.000766553838665333,0.000555330806360674
2.1901825152096,-0.000955569834064879,-0.00070326536792085,0.000255270030782335,0.000151306817471744,0.000766553743950748,0.000555330712536594
2.20018334861238,-0.000955569927854604,-0.000703265462559576,0.000255269935695444,0.000151306722364295,0.00076655364927084,0.000555330618746869
2.21018418201517,-0.000955570021376261,-0.000703265556927801,0.000255269840880332,0.000151306627528678,0.000766553554861541,0.000555330525225212
2.22018501541795,-0.000955570114404829,-0.000703265650798468,0.000255269746565132,0.000151306533193076,0.000766553460950007,0.000555330432196644
2.23018584882074,-0.000955570206725292,-0.000703265743954614,0.000255269652967832,0.000151306439575526,0.000766553367753296,0.000555330339876181
2.24018668222352,-0.000955570298133858,-0.000703265836190604,0.000255269560295044,0.000151306346882681,0.000766553275477132,0.000555330248467615
2.2501875156263,-0.00095557038843907,-0.000703265927313245,0.000255269468740874,0.000151306255308692,0.000766553184314791,0.000555330158162403
2.26018834902909,-0.000955570477462795,-0.000703266017142795,0.000255269378485916,0.000151306165034191,0.000766553094446096,0.000555330069138678
2.27018918243187,-0.000955570565041104,-0.000703266105513838,0.000255269289696368,0.000151306076225414,0.000766553006036533,0.000555329981560369
2.28019001583465,-0.000955570651025012,-0.000703266192276045,0.000255269202523275,0.000151305989033436,0.000766552919236501,0.000555329895576461
2.29019084923744,-0.000955570735281109,-0.000703266277294794,0.000255269117101891,0.000151305903593543,0.000766552834180676,0.000555329811320364
2.30019168264022,-0.000955570817692045,-0.000703266360451676,0.00025526903355119,0.000151305820024733,0.000766552750987521,0.000555329728909428
2.310192516043,-0.000955570898156902,-0.000703266441644858,0.000255268951973486,0.000151305738429344,0.000766552669758915,0.000555329648444571
2.32019334944579,-0.000955570976591427,-0.000703266520789327,0.000255268872454195,0.000151305658892809,0.000766552590579907,0.000555329570010046
2.33019418284857,-0.000955571052928157,-0.000703266597817007,0.000255268795061716,0.000151305581483543,0.000766552513518604,0.000555329493673316
2.34019501625135,-0.000955571127116409,-0.000703266672676758,0.00025526871984743,0.00015130550625294,0.000766552438626169,0.000555329419485064
2.35019584965414,-0.00095557119912217,-0.000703266745334259,0.000255268646845822,0.00015130543323549,0.000766552365936937,0.000555329347479303
2.36019668305692,-0.000955571268927872,-0.000703266815771783,0.000255268576074702,0.000151305362449008,0.000766552295468644,0.000555329277673601
2.3701975164597,-0.00095557133653207,-0.000703266883987873,0.000255268507535535,0.00015130529389496,0.000766552227222749,0.000555329210069403
2.38019834986249,-0.000955571401949024,-0.000703266949996917,0.000255268441213864,0.000151305227558886,0.000766552161184856,0.000555329144652449
2.39019918326527,-0.000955571465208196,-0.000703267013828646,0.000255268377079818,0.000151305163410909,0.000766552097325223,0.000555329081393277
2.40020001666806,-0.000955571526353672,-0.000703267075527544,0.000255268315088703,0.000151305101406325,0.000766552035599348,0.000555329020247801
2.41020085007084,-0.000955571585443508,-0.000703267135152192,0.00025526825518166,0.000151305041486262,0.000766551975948623,0.000555328961157965
2.42020168347362,-0.000955571642549019,-0.000703267192774551,0.000255268197286387,0.000151304983578403,0.000766551918301055,0.000555328904052454
2.43020251687641,-0.000955571697754014,-0.00070326724847919,0.000255268141317915,0.000151304927597761,0.000766551862572042,0.000555328848847459
2.44020335027919,-0.000955571751153982,-0.000703267302362462,0.000255268087179435,0.000151304873447507,0.000766551808665187,0.000555328795447491
2.45020418368197,-0.00095557180285524,-0.000703267354531646,0.00025526803476316,0.000151304821019828,0.000766551756473164,0.000555328743746233
2.46020501708476,-0.000955571852974051,-0.000703267405104058,0.000255267983951218,0.000151304770196829,0.000766551705878607,0.000555328693627422
2.47020585048754,-0.000955571901635713,-0.000703267454206129,0.000255267934616578,0.000151304720851452,0.000766551656755028,0.00055532864496576
2.48020668389032,-0.000955571948973631,-0.000703267501972474,0.000255267886623991,0.000151304672848416,0.000766551608967757,0.000555328597627842
2.49020751729311,-0.000955571995128374,-0.000703267548544932,0.000255267839830944,0.000151304626045179,0.000766551562374891,0.000555328551473099
2.50020835069589,-0.000955572040246722,-0.000703267594071612,0.000255267794088625,0.000151304580292896,0.000766551516828255,0.000555328506354751
2.51020918409868,-0.000955572084480712,-0.000703267638705927,0.000255267749242898,0.000151304535437398,0.000766551472174371,0.000555328462120761
2.52021001750146,-0.000955572127986674,-0.000703267682605624,0.000255267705135267,0.000151304491320154,0.000766551428255422,0.000555328418614799
2.53021085090424,-0.000955572170924287,-0.000703267725931824,0.000255267661603847,0.000151304447779245,0.000766551384910217,0.000555328375677186
2.54021168430703,-0.000955572213455621,-0.000703267768848066,0.000255267618484326,0.000151304404650323,0.000766551341975145,0.000555328333145852
2.55021251770981,-0.000955572255744202,-0.000703267811519355,0.000255267575610917,0.000151304361767562,0.000766551299285129,0.000555328290857271
2.56021335111259,-0.000955572297954084,-0.000703267854111231,0.000255267532817295,0.000151304318964605,0.000766551256674556,0.000555328248647389
2.57021418451538,-0.000955572340248937,-0.000703267896788844,0.000255267489937529,0.000151304276075483,0.000766551213978205,0.000555328206352536
2.58021501791816,-0.000955572382791145,-0.000703267939716047,0.00025526744680699,0.00015130423293553,0.000766551171032149,0.000555328163810328
2.59021585132094,-0.000955572425740928,-0.000703267983054511,0.000255267403263239,0.000151304189382272,0.000766551127674646,0.000555328120860545
2.60021668472373,-0.000955572469255487,-0.000703268026962859,0.000255267359146904,0.000151304145256303,0.000766551083747004,0.000555328077345986
2.61021751812651,-0.000955572513488163,-0.00070326807159582,0.000255267314302523,0.000151304100402127,0.000766551039094427,0.00055532803311331
2.62021835152929,-0.000955572558587626,-0.000703268117103409,0.000255267268579368,0.000151304054668982,0.000766550993566831,0.000555327988013847
2.63021918493208,-0.000955572604697097,-0.000703268163630142,0.00025526722183224,0.000151304007911638,0.000766550947019638,0.000555327941904376
2.64022001833486,-0.000955572651953586,-0.000703268211314271,0.000255267173922232,0.000151303959991157,0.000766550899314536,0.000555327894647887
2.65022085173764,-0.000955572700487179,-0.000703268260287058,0.000255267124717461,0.000151303910775627,0.000766550850320204,0.000555327846114294
2.66022168514043,-0.00095557275042035,-0.000703268310672085,0.000255267074093758,0.000151303860140853,0.000766550799913005,0.000555327796181123
2.67022251854321,-0.000955572801867317,-0.000703268362584602,0.000255267021935326,0.000151303807971011,0.000766550747977637,0.000555327744734156
2.680223351946,-0.00095557285493344,-0.000703268416130924,0.000255266968135349,0.000151303754159262,0.00076655069440774,0.000555327691668033
2.69022418534878,-0.000955572909714666,-0.000703268471407866,0.000255266912596553,0.000151303698608309,0.000766550639106456,0.000555327636886807
2.70022501875156,-0.000955572966297023,-0.000703268528502233,0.000255266855231719,0.000151303641230917,0.000766550581986939,0.00055532758030445
2.71022585215435,-0.000955573024756171,-0.000703268587490371,0.000255266795964143,0.000151303581950362,0.000766550522972811,0.000555327521845302
2.72022668555713,-0.000955573085157008,-0.000703268648437763,0.000255266734728028,0.000151303520700834,0.000766550461998559,0.000555327461444465
2.73022751895991,-0.000955573147553336,-0.000703268711398699,0.000255266671468828,0.000151303457427774,0.000766550399009868,0.000555327399048137
2.7402283523627,-0.0009555732119876,-0.000703268776416009,0.000255266606143511,0.000151303392088142,0.000766550333963891,0.000555327334613873
2.75022918576548,-0.000955573278490687,-0.000703268843520856,0.000255266538720765,0.000151303324650616,0.000766550266829449,0.000555327268110786
2.76023001916826,-0.000955573347081798,-0.000703268912732617,0.000255266469181121,0.000151303255095726,0.000766550197587156,0.000555327199519675
2.77023085257105,-0.000955573417768398,-0.000703268984058824,0.000255266397517013,0.000151303183415901,0.000766550126229476,0.000555327128833075
2.78023168597383,-0.000955573490546239,-0.000703269057495188,0.000255266323732748,0.00015130310961545,0.0007665500527607,0.000555327056055234
2.79023251937661,-0.000955573565399455,-0.000703269133025703,0.000255266247844408,0.000151303033710459,0.000766549977196841,0.000555326981202018
2.8002333527794,-0.000955573642300749,-0.000703269210622822,0.000255266169879672,0.000151302955728612,0.000766549899565458,0.000555326904300724
2.81023418618218,-0.00095557372121164,-0.000703269290247716,0.000255266089877551,0.000151302875708928,0.000766549819905395,0.000555326825389833
2.82023501958497,-0.000955573802082801,-0.000703269371850612,0.000255266007888056,0.000151302793701429,0.000766549738266449,0.000555326744518672
2.83023585298775,-0.000955573884854463,-0.0007032694553712,0.00025526592397178,0.000151302709766722,0.000766549654708954,0.00055532666174701
2.84023668639053,-0.000955573969456902,-0.000703269540739124,0.000255265838199413,0.000151302623975511,0.000766549569303297,0.000555326577144571
2.85023751979332,-0.000955574055810985,-0.000703269627874535,0.000255265750651182,0.000151302536408042,0.000766549482129363,0.000555326490790488
2.8602383531961,-0.000955574143828788,-0.000703269716688714,0.000255265661416227,0.000151302447153474,0.000766549393275909,0.000555326402772685
2.87023918659888,-0.000955574233414274,-0.000703269807084755,0.000255265570591913,0.000151302356309191,0.000766549302839884,0.000555326313187199
2.88024002000167,-0.000955574324464028,-0.000703269898958306,0.000255265478283086,0.000151302263980064,0.000766549210925686,0.000555326222137445
2.89024085340445,-0.000955574416868036,-0.000703269992198358,0.000255265384601281,0.000151302170277652,0.000766549117644372,0.000555326129733437
2.90024168680723,-0.000955574510510512,-0.000703270086688078,0.000255265289663884,0.000151302075319367,0.000766549023112828,0.000555326036090961
2.91024252021002,-0.000955574605270759,-0.000703270182305674,0.000255265193593263,0.000151301979227604,0.000766548927452897,0.000555325941330714
2.9202433536128,-0.000955574701024053,-0.000703270278925297,0.000255265096515865,0.000151301882128836,0.000766548830790485,0.00055532584557742
2.93024418701558,-0.000955574797642557,-0.000703270376417952,0.000255264998561296,0.0001513017841527,0.000766548733254646,0.000555325748958916
2.94024502041837,-0.000955574894996233,-0.000703270474652424,0.000255264899861392,0.000151301685431058,0.000766548634976649,0.00055532565160524
2.95024585382115,-0.000955574992953771,-0.000703270573496215,0.000255264800549278,0.000151301586097067,0.000766548536089053,0.000555325553647702
2.96024668722394,-0.000955575091383504,-0.000703270672816465,0.000255264700758444,0.000151301486284245,0.000766548436724776,0.000555325455217969
2.97024752062672,-0.000955575190154311,-0.00070327077248087,0.000255264600621823,0.000151301386125553,0.000766548337016182,0.000555325356447162
2.9802483540295,-0.000955575289136507,-0.00070327087235857,0.000255264500270891,0.000151301285752499,0.000766548237094186,0.000555325257464966
2.99024918743229,-0.000955575388202698,-0.000703270972321019,0.000255264399834806,0.000151301185294267,0.000766548137087394,0.000555325158398775
3.00025002083507,-0.000955575487228606,-0.000703271072242813,0.000255264299439566,0.000151301084876883,0.000766548037121264,0.000555325059372867
3.01025085423785,-0.000955575586093846,-0.00070327117200248,0.000255264199207218,0.000151300984622422,0.000766547937317323,0.000555324960507627
3.02025168764064,-0.000955575684682669,-0.000703271271483222,0.000255264099255112,0.00015130088464826,0.000766547837792419,0.000555324861918804
3.03025252104342,-0.000955575782884641,-0.000703271370573608,0.00025526399969521,0.000151300785066382,0.000766547738658035,0.000555324763716832
3.0402533544462,-0.000955575880595273,-0.000703271469168202,0.000255263900633445,0.000151300685982746,0.000766547640019652,0.0005553246660062
3.05025418784899,-0.000955575977716589,-0.000703271567168142,0.000255263802169147,0.000151300587496705,0.000766547541976176,0.000555324568884884
3.06025502125177,-0.000955576074157633,-0.00070327166448165,0.000255263704394532,0.000151300489700492,0.000766547444619427,0.00055532447244384
3.07025585465455,-0.000955576169834909,-0.000703271761024474,0.00025526360739425,0.000151300392678778,0.000766547348033694,0.000555324376766564
3.08025668805734,-0.000955576264672753,-0.000703271856720266,0.000255263511245009,0.000151300296508289,0.000766547252295359,0.00055532428192872
3.09025752146012,-0.000955576358603647,-0.000703271951500898,0.000255263416015263,0.000151300201257492,0.000766547157472582,0.000555324187997826
3.10025835486291,-0.000955576451568454,-0.000703272045306696,0.000255263321764965,0.000151300106986355,0.000766547063625061,0.000555324095033019
3.11025918826569,-0.000955576543516595,-0.000703272138086626,0.000255263228545395,0.000151300013746169,0.000766546970803856,0.000555324003084878
3.12026002166847,-0.000955576634406155,-0.000703272229798392,0.000255263136399046,0.000151299921579435,0.000766546879051278,0.000555323912195318
3.13026085507126,-0.000955576724203933,-0.000703272320408494,0.000255263045359579,0.000151299830519825,0.000766546788400847,0.00055532382239754
3.14026168847404,-0.000955576812885418,-0.000703272409892199,0.000255262955451844,0.00015129974059219,0.000766546698877303,0.000555323733716055
3.15026252187682,-0.000955576900434722,-0.000703272498233475,0.000255262866691947,0.000151299651812644,0.000766546610496687,0.000555323646166751
3.16026335527961,-0.000955576986844442,-0.000703272585424854,0.000255262779087395,0.000151299564188694,0.000766546523266472,0.000555323559757031
3.17026418868239,-0.000955577072115481,-0.000703272671467245,0.000255262692637272,0.000151299477719423,0.000766546437185747,0.000555323474485992
3.18026502208517,-0.000955577156256812,-0.000703272756369703,0.000255262607332481,0.000151299392395733,0.000766546352245453,0.000555323390344661
3.19026585548796,-0.000955577239285201,-0.000703272840149148,0.000255262523156023,0.000151299308200621,0.000766546268428664,0.000555323307316272
3.20026668889074,-0.00095557732122489,-0.000703272922830037,0.000255262440083322,0.000151299225109507,0.000766546185710912,0.000555323225376583
3.21026752229352,-0.000955577402107233,-0.000703273004444012,0.000255262358082589,0.000151299143090594,0.00076654610406054,0.00055532314449424
3.22026835569631,-0.000955577481970314,-0.000703273085029499,0.000255262277115215,0.000151299062105265,0.000766546023439106,0.000555323064631159
3.23026918909909,-0.00095557756085852,-0.000703273164631288,0.0002552621971362,0.000151298982108508,0.000766545943801802,0.000555322985742953
3.24027002250188,-0.000955577638822096,-0.000703273243300077,0.000255262118094601,0.000151298903049372,0.000766545865097903,0.000555322907779377
3.25027085590466,-0.000955577715916679,-0.000703273321092009,0.000255262039934013,0.000151298824871439,0.000766545787271246,0.000555322830684794
3.26027168930744,-0.000955577792202811,-0.000703273398068173,0.000255261962593057,0.000151298747513314,0.000766545710260713,0.000555322754398662
3.27027252271023,-0.000955577867745438,-0.0007032734742941,0.000255261886005891,0.000151298670909142,0.000766545634000743,0.000555322678856035
3.28027335611301,-0.000955577942613394,-0.000703273549839249,0.000255261810102725,0.000151298594989119,0.000766545558421846,0.000555322603988079
3.29027418951579,-0.000955578016878888,-0.000703273624776482,0.000255261734810355,0.000151298519680023,0.000766545483451129,0.000555322529722585
3.30027502291858,-0.000955578090616972,-0.000703273699181529,0.00025526166005269,0.000151298444905746,0.000766545409012828,0.000555322455984501
3.31027585632136,-0.000955578163905019,-0.000703273773132464,0.000255261585751286,0.000151298370587828,0.000766545335028833,0.000555322382696454
3.32027668972414,-0.000955578236822194,-0.000703273846709169,0.000255261511825885,0.000151298296645992,0.000766545261419229,0.000555322309779279
3.33027752312693,-0.000955578309448935,-0.000703273919992807,0.000255261438194936,0.00015129822299867,0.000766545188102814,0.000555322237152538
3.34027835652971,-0.000955578381866434,-0.000703273993065304,0.000255261364776126,0.000151298149563529,0.000766545114997626,0.000555322164735039
3.35027918993249,-0.000955578454156127,-0.000703274066008837,0.000255261291486889,0.000151298076257987,0.000766545042021452,0.000555322092445346
3.36028002333528,-0.000955578526399205,-0.000703274138905327,0.000255261218244916,0.000151298002999715,0.000766544969092335,0.000555322020202268
3.37028085673806,-0.00095557859867612,-0.000703274211835956,0.000255261144968639,0.000151297929707127,0.000766544896129055,0.000555321947925353
3.38028169014085,-0.000955578671066123,-0.000703274284880691,0.000255261071577713,0.000151297856299862,0.00076654482305161,0.00055532187553535
3.39028252354363,-0.000955578743646806,-0.000703274358117825,0.000255260997993474,0.000151297782699235,0.000766544749781672,0.000555321802954667
3.40028335694641,-0.000955578816493669,-0.000703274431623543,0.000255260924139376,0.000151297708828685,0.000766544676243022,0.000555321730107804
3.4102841903492,-0.000955578889679706,-0.000703274505471497,0.000255260849941417,0.000151297634614193,0.000766544602361973,0.000555321656921767
3.42028502375198,-0.000955578963275013,-0.000703274579732418,0.000255260775328531,0.000151297559984678,0.000766544528067765,0.00055532158332646
3.43028585715476,-0.000955579037346417,-0.000703274654473737,0.000255260700232968,0.000151297484872375,0.000766544453292937,0.000555321509255056
3.44028669055755,-0.000955579111957129,-0.000703274729759237,0.000255260624590642,0.000151297409213182,0.000766544377973674,0.000555321434644344
3.45028752396033,-0.000955579187166432,-0.000703274805648736,0.000255260548341452,0.000151297332946986,0.000766544302050133,0.000555321359435041
3.46028835736311,-0.000955579263029382,-0.000703274882197789,0.000255260471429579,0.000151297256017954,0.000766544225466734,0.000555321283572091
3.4702891907659,-0.000955579339596552,-0.000703274959457426,0.000255260393803752,0.000151297178374805,0.000766544148172424,0.000555321207004921
3.48029002416868,-0.000955579416913793,-0.000703275037473912,0.000255260315417485,0.000151297099971042,0.000766544070120916,0.00055532112968768
3.49029085757146,-0.000955579495022037,-0.00070327511628855,0.000255260236229281,0.000151297020765159,0.00076654399127089,0.000555321051579436
3.50029169097425,-0.000955579573957122,-0.000703275195937502,0.000255260156202807,0.000151296940720813,0.000766543911586167,0.000555320972644351
3.51029252437703,-0.000955579653749656,-0.000703275276451651,0.00025526007530703,0.000151296859806967,0.000766543831035848,0.000555320892851817
3.52029335777981,-0.000955579734424911,-0.000703275357856499,0.000255259993516331,0.000151296777997994,0.000766543749594422,0.000555320812176562
3.5302941911826,-0.000955579816002749,-0.000703275440172088,0.000255259910810572,0.000151296695273751,0.000766543667241837,0.000555320730598724
3.54029502458538,-0.000955579898497586,-0.000703275523412963,0.000255259827175138,0.000151296611619621,0.000766543583963541,0.000555320648103887
3.55029585798817,-0.000955579981918383,-0.000703275607588166,0.000255259742600943,0.000151296527026517,0.000766543499750487,0.00055532056468309
3.56029669139095,-0.000955580066268679,-0.000703275692701269,0.000255259657084401,0.000151296441490849,0.000766543414599103,0.000555320480332794
3.57029752479373,-0.000955580151546649,-0.000703275778750429,0.000255259570627362,0.000151296355014469,0.000766543328511231,0.000555320395054824
3.58029835819652,-0.000955580237745198,-0.000703275865728488,0.000255259483237018,0.000151296267604571,0.000766543241494033,0.000555320308856275
3.5902991915993,-0.00095558032485209,-0.000703275953623098,0.000255259394925775,0.000151296179273563,0.000766543153559863,0.000555320221749383
3.60030002500208,-0.0009555804128501,-0.000703276042416879,0.000255259305711096,0.000151296090038911,0.000766543064726106,0.000555320133751373
3.61030085840487,-0.000955580501717207,-0.00070327613208761,0.000255259215615307,0.000151295999922948,0.000766542975014994,0.000555320044884266
3.62030169180765,-0.000955580591426802,-0.000703276222608442,0.000255259124665384,0.000151295908952654,0.00076654288445339,0.000555319955174671
3.63030252521043,-0.000955580681947933,-0.000703276313948143,0.000255259032892708,0.000151295817159418,0.000766542793072537,0.000555319864653539
3.64030335861322,-0.000955580773245572,-0.000703276406071367,0.000255258940332792,0.00015129572457876,0.000766542700907799,0.000555319773355901
3.650304192016,-0.000955580865280899,-0.000703276498938944,0.000255258847024991,0.000151295631250044,0.000766542607998361,0.000555319681320574
3.66030502541878,-0.000955580958011617,-0.000703276592508195,0.000255258753012187,0.000151295537216162,0.000766542514386924,0.000555319588589856
3.67030585882157,-0.000955581051392277,-0.000703276686733258,0.000255258658340459,0.000151295442523204,0.000766542420119369,0.000555319495209196
3.68030669222435,-0.000955581145374619,-0.000703276781565438,0.000255258563058733,0.000151295347220104,0.000766542325244413,0.000555319401226854
3.69030752562714,-0.000955581239907932,-0.000703276876953565,0.00025525846721842,0.000151295251358289,0.000766542229813248,0.000555319306693541
3.70030835902992,-0.00095558133493942,-0.000703276972844365,0.000255258370873049,0.000151295154991295,0.000766542133879173,0.000555319211662053
3.7103091924327,-0.000955581430414574,-0.000703277069182837,0.000255258274077881,0.000151295058174399,0.000766542037497214,0.000555319116186899
3.72031002583549,-0.000955581526277552,-0.000703277165912633,0.000255258176889529,0.000151294960964226,0.000766541940723743,0.000555319020323921
3.73031085923827,-0.000955581622471562,-0.000703277262976449,0.000255258079365572,0.000151294863418366,0.000766541843616092,0.000555318924129911
3.74031169264105,-0.000955581718939241,-0.000703277360316401,0.000255257981564166,0.000151294765594989,0.000766541746232168,0.000555318827662232
3.75031252604384,-0.000955581815623031,-0.000703277457874413,0.000255257883543663,0.000151294667552461,0.000766541648630076,0.000555318730978442
3.76031335944662,-0.000955581912465553,-0.000703277555592585,0.000255257785362238,0.000151294569348969,0.00076654155086774,0.00055531863413592
3.7703141928494,-0.000955582009409965,-0.000703277653413562,0.000255257687077517,0.000151294471042153,0.000766541453002543,0.000555318537191508
3.78031502625219,-0.000955582106400316,-0.000703277751280887,0.000255257588746225,0.000151294372688749,0.000766541355090966,0.000555318440201157
3.79031585965497,-0.000955582203381884,-0.000703277849139342,0.000255257490423841,0.00015129427434425,0.000766541257188251,0.000555318343219589
3.80031669305775,-0.000955582300301495,-0.000703277946935275,0.000255257392164273,0.000151294176062577,0.000766541159348078,0.000555318246299978
3.81031752646054,-0.00095558239710783,-0.000703278044616901,0.00025525729401955,0.000151294077895768,0.000766541061622252,0.000555318149493643
3.82031835986332,-0.000955582493751712,-0.000703278142134599,0.000255257196039529,0.000151293979893693,0.000766540964060418,0.000555318052849761
3.83031919326611,-0.000955582590186366,-0.000703278239441171,0.000255257098271632,0.000151293882103785,0.000766540866709794,0.000555317956415107
3.84032002666889,-0.000955582686367665,-0.000703278336492091,0.000255257000760596,0.00015129378457079,0.000766540769614928,0.000555317860233808
3.85032086007167,-0.000955582782254348,-0.000703278433245724,0.000255256903548253,0.000151293687336549,0.000766540672817473,0.000555317764347125
3.86032169347446,-0.000955582877808213,-0.000703278529663523,0.000255256806673333,0.000151293590439802,0.000766540576355993,0.00055531766879326
3.87032252687724,-0.000955582972994289,-0.000703278625710203,0.000255256710171288,0.000151293493916009,0.000766540480265791,0.000555317573607184
3.88032336028002,-0.000955583067780979,-0.00070327872135388,0.000255256614074154,0.000151293397797213,0.000766540384578763,0.000555317478820494
3.89032419368281,-0.000955583162140182,-0.000703278816566197,0.000255256518410421,0.00015129330211191,0.00076654028932328,0.000555317384461291
3.90032502708559,-0.00095558325604738,-0.000703278911322417,0.000255256423204944,0.000151293206884962,0.00076654019452409,0.000555317290554093
3.91032586048837,-0.00095558334948171,-0.000703279005601488,0.000255256328478877,0.000151293112137525,0.000766540100202257,0.000555317197119763
3.92032669389116,-0.000955583442426003,-0.000703279099386085,0.000255256234249623,0.00015129301788701,0.00076654000637511,0.00055531710417547
3.93032752729394,-0.000955583534866805,-0.000703279192662633,0.000255256140530825,0.00015129292414706,0.000766539913056234,0.000555317011734668
3.94032836069672,-0.000955583626794365,-0.000703279285421292,0.000255256047332368,0.000151292830927563,0.000766539820255471,0.000555316919807108
3.95032919409951,-0.000955583718202607,-0.000703279377655933,0.00025525595466041,0.000151292738234679,0.000766539727978953,0.000555316828398866
3.96033002750229,-0.000955583809089079,-0.000703279469364081,0.00025525586251744,0.000151292646070896,0.000766539636229159,0.000555316737512394
3.97033086090508,-0.000955583899454875,-0.000703279560546839,0.000255255770902346,0.000151292554435105,0.000766539545004982,0.000555316647146598
3.98033169430786,-0.000955583989304542,-0.000703279651208796,0.00025525567981052,0.000151292463322695,0.000766539454301834,0.000555316557296931
3.99033252771064,-0.000955584078645966,-0.000703279741357909,0.000255255589233966,0.000151292372725668,0.000766539364111751,0.000555316467955507
4.00033336111343,-0.000955584167490242,-0.000703279831005374,0.000255255499161437,0.000151292282632774,0.000766539274423536,0.000555316379111231
4.01033419451621,-0.000955584255851524,-0.000703279920165472,0.000255255409578581,0.00015129219302966,0.000766539185222899,0.000555316290749949
4.02033502791899,-0.000955584343746862,-0.000703280008855409,0.000255255320468114,0.000151292103899036,0.000766539096492627,0.000555316202854611
4.03033586132178,-0.00095558443119603,-0.000703280097095136,0.000255255231809987,0.00015129201522085,0.000766539008212761,0.000555316115405443
4.04033669472456,-0.000955584518221333,-0.00070328018490716,0.00025525514358159,0.000151291926972485,0.000766538920360782,0.00055531602838014
4.05033752812734,-0.000955584604847408,-0.000703280272316342,0.00025525505575794,0.000151291839128956,0.000766538832911818,0.000555315941754065
4.06033836153013,-0.000955584691101022,-0.00070328035934969,0.000255254968311905,0.000151291751663121,0.000766538745838851,0.000555315855500451
4.07033919493291,-0.00095558477701085,-0.000703280446036138,0.000255254881214411,0.000151291664545901,0.000766538659112932,0.000555315769590623
4.08034002833569,-0.000955584862607256,-0.000703280532406325,0.000255254794434675,0.000151291577746506,0.000766538572703408,0.000555315683994217
4.09034086173848,-0.000955584947922067,-0.000703280618492367,0.000255254707940429,0.000151291491232662,0.00076653848657815,0.000555315598679406
4.10034169514126,-0.000955585032988345,-0.000703280704327622,0.000255254621698156,0.000151291404970842,0.000766538400703783,0.000555315513613128
4.11034252854405,-0.000955585117840151,-0.000703280789946461,0.000255254535673321,0.000151291318926505,0.000766538315045921,0.000555315428761322
4.12034336194683,-0.000955585202512319,-0.000703280875384032,0.000255254449830612,0.00015129123306433,0.0007665382295694,0.000555315344089154
4.13034419534961,-0.00095558528704022,-0.000703280960676027,0.000255254364134166,0.000151291147348447,0.000766538144238512,0.000555315259561253
4.1403450287524,-0.000955585371459537,-0.000703281045858451,0.000255254278547808,0.000151291061742672,0.000766538059017236,0.000555315175141936
4.15034586215518,-0.000955585455806035,-0.000703281130967392,0.000255254193035278,0.000151290976210737,0.000766537973869467,0.000555315090795438
4.16034669555796,-0.000955585540115346,-0.000703281216038804,0.000255254107560452,0.00015129089071651,0.000766537888759235,0.000555315006486127
4.17034752896075,-0.000955585624422746,-0.000703281301108283,0.000255254022087567,0.000151290805224218,0.000766537803650928,0.000555314922178727
4.18034836236353,-0.000955585708762952,-0.000703281386210857,0.000255253936581425,0.000151290719698659,0.0007665377185095,0.000555314837838521
4.19034919576631,-0.000955585793169916,-0.000703281471380788,0.000255253851007605,0.0001512906341054,0.000766537633300675,0.000555314753431557
4.2003500291691,-0.000955585877676636,-0.000703281556651371,0.000255253765332652,0.000151290548410982,0.000766537547991144,0.000555314668924837
4.21035086257188,-0.00095558596231497,-0.000703281642054752,0.000255253679524269,0.000151290462583097,0.000766537462548744,0.000555314584286503
4.22035169597466,-0.000955586047115465,-0.000703281727621753,0.000255253593551486,0.000151290376590771,0.000766537376942639,0.000555314499486008
4.23035252937745,-0.000955586132107192,-0.000703281813381711,0.00025525350738483,0.000151290290404523,0.000766537291143481,0.000555314414494281
4.24035336278023,-0.000955586217317601,-0.00070328189936232,0.000255253420996472,0.000151290203996517,0.000766537205123561,0.000555314329283872
4.25035419618302,-0.000955586302772377,-0.0007032819855895,0.000255253334360371,0.000151290117340708,0.000766537118856947,0.000555314243829096
4.2603550295858,-0.000955586388495321,-0.000703282072087266,0.000255253247452399,0.00015129003041296,0.000766537032319615,0.000555314158106152
4.27035586298858,-0.000955586474508234,-0.000703282158877616,0.000255253160250451,0.000151289943191165,0.000766536945489555,0.000555314072093239
4.28035669639137,-0.000955586560830823,-0.000703282245980435,0.00025525307273455,0.00015128985565534,0.000766536858346873,0.00055531398577065
4.29035752979415,-0.000955586647480616,-0.000703282333413411,0.000255252984886923,0.000151289767787709,0.000766536770873874,0.000555313899120857
4.30035836319693,-0.000955586734472896,-0.000703282421191962,0.000255252896692079,0.000151289679572777,0.000766536683055131,0.000555313812128577
4.31035919659972,-0.000955586821820642,-0.000703282509329188,0.000255252808136857,0.00015128959099738,0.00076653659487754,0.00055531372478083
4.3203600300025,-0.000955586909534498,-0.000703282597835825,0.000255252719210468,0.000151289502050726,0.000766536506330358,0.000555313637066975
4.33036086340528,-0.000955586997622739,-0.000703282686720226,0.00025525262990452,0.000151289412724422,0.00076653641740523,0.000555313548978734
4.34036169680807,-0.000955587086091272,-0.000703282775988349,0.000255252540213027,0.00015128932301248,0.000766536328096194,0.000555313460510201
4.35036253021085,-0.000955587174943631,-0.000703282865643763,0.000255252450132405,0.000151289232911314,0.00076653623839968,0.000555313371657842
4.36036336361363,-0.000955587264181007,-0.000703282955687667,0.000255252359661446,0.000151289142419719,0.000766536148314488,0.000555313282420466
4.37036419701642,-0.000955587353802273,-0.000703283046118924,0.000255252268801294,0.000151289051538835,0.000766536057841754,0.0005553131927992
4.3803650304192,-0.000955587443804036,-0.000703283136934112,0.000255252177555387,0.000151288960272104,0.000766535966984904,0.000555313102797437
4.39036586382199,-0.0009555875341807,-0.000703283228127582,0.000255252085929401,0.000151288868625202,0.000766535875749588,0.000555313012420773
4.40036669722477,-0.000955587624924532,-0.000703283319691534,0.000255251993931173,0.000151288776605968,0.000766535784143611,0.000555312921676941
4.41036753062755,-0.000955587716025755,-0.0007032834116161,0.000255251901570617,0.000151288684224318,0.000766535692176844,0.000555312830575718
4.42036836403034,-0.000955587807472642,-0.000703283503889447,0.000255251808859623,0.000151288591492144,0.000766535599861124,0.000555312739128831
4.43036919743312,-0.000955587899251621,-0.000703283596497883,0.000255251715811948,0.000151288498423207,0.000766535507210153,0.000555312647349852
4.4403700308359,-0.000955587991347398,-0.000703283689425973,0.000255251622443099,0.000151288405033018,0.00076653541423937,0.000555312555254075
4.45037086423869,-0.000955588083743077,-0.000703283782656668,0.000255251528770206,0.00015128831133871,0.000766535320965832,0.000555312462858396
4.46037169764147,-0.000955588176420296,-0.000703283876171443,0.000255251434811883,0.000151288217358902,0.000766535227408074,0.000555312370181177
4.47037253104425,-0.000955588269359371,-0.000703283969950433,0.000255251340588089,0.000151288123113557,0.000766535133585969,0.000555312277242102
4.48037336444704,-0.000955588362539436,-0.000703284063972585,0.000255251246119976,0.000151288028623831,0.000766535039520579,0.000555312184062037
4.49037419784982,-0.000955588455938601,-0.000703284158215811,0.000255251151429737,0.000151287933911923,0.000766534945234004,0.000555312090662872
4.5003750312526,-0.000955588549534104,-0.000703284252657143,0.00025525105654045,0.000151287839000916,0.000766534850749221,0.000555311997067369
4.51037586465539,-0.00095558864330247,-0.000703284347272893,0.000255250961475913,0.000151287743914614,0.000766534756089929,0.000555311903299003
4.52037669805817,-0.000955588737219668,-0.000703284442038815,0.00025525086626049,0.000151287648677386,0.000766534661280386,0.000555311809381805
4.53037753146095,-0.000955588831261275,-0.000703284536930263,0.000255250770918942,0.000151287553313998,0.000766534566345248,0.000555311715340198
4.54037836486374,-0.000955588925402633,-0.000703284631922358,0.000255250675476266,0.000151287457849455,0.000766534471309407,0.00055531162119884
4.55037919826652,-0.000955589019619006,-0.00070328472699014,0.000255250579957541,0.000151287362308839,0.000766534376197833,0.000555311526982467
4.56038003166931,-0.00095558911388574,-0.00070328482210873,0.000255250484387763,0.000151287266717154,0.000766534281035417,0.000555311432715733
4.57038086507209,-0.000955589208178407,-0.000703284917253482,0.000255250388791697,0.000151287171099167,0.000766534185846816,0.000555311338423066
4.58038169847487,-0.000955589302472959,-0.00070328501240013,0.000255250293193722,0.000151287075479268,0.000766534090656309,0.000555311244128514
4.59038253187766,-0.000955589396745866,-0.000703285107524931,0.000255250197617694,0.000151286979881315,0.000766533995487648,0.000555311149855607
4.60038336528044,-0.000955589490974253,-0.000703285202604803,0.000255250102086806,0.000151286884328506,0.000766533900363926,0.00055531105562722
4.61038419868322,-0.000955589585136027,-0.000703285297617454,0.000255250006623454,0.000151286788843244,0.000766533805307445,0.000555310961465446
4.62038503208601,-0.000955589679209999,-0.000703285392541503,0.00025524991124912,0.000151286693447015,0.000766533710339597,0.000555310867391474
4.63038586548879,-0.000955589773175996,-0.000703285487356596,0.000255249815984258,0.000151286598160277,0.000766533615480745,0.000555310773425477
4.64038669889157,-0.000955589867014965,-0.000703285582043505,0.000255249720848183,0.000151286503002351,0.000766533520750125,0.000555310679586508
4.65038753229436,-0.000955589960709063,-0.000703285676584229,0.000255249625858983,0.000151286407991328,0.000766533426165747,0.00055531058589241
4.66038836569714,-0.00095559005424175,-0.000703285770962077,0.00025524953103343,0.000151286313143984,0.00076653333174431,0.000555310492359723
4.67038919909993,-0.000955590147597855,-0.00070328586516174,0.000255249436386903,0.000151286218475702,0.00076653323750113,0.000555310399003618
4.68039003250271,-0.000955590240763641,-0.000703285959169359,0.000255249341933327,0.000151286124000411,0.000766533143450071,0.000555310305837832
4.69039086590549,-0.000955590333726864,-0.000703286052972578,0.000255249247685118,0.000151286029730528,0.000766533049603497,0.000555310212874609
4.70039169930828,-0.00095559042647681,-0.000703286146560587,0.000255249153653138,0.000151285935676918,0.000766532955972223,0.000555310120124663
4.71039253271106,-0.000955590519004328,-0.000703286239924152,0.000255249059846663,0.00015128584184886,0.000766532862565485,0.000555310027597145
4.72039336611384,-0.000955590611301854,-0.00070328633305564,0.000255248966273362,0.000151285748254024,0.000766532769390921,0.000555309935299619
4.73039419951663,-0.000955590703363419,-0.00070328642594903,0.000255248872939286,0.000151285654898463,0.000766532676454556,0.000555309843238054
4.74039503291941,-0.000955590795184654,-0.000703286518599911,0.000255248779848866,0.000151285561786609,0.000766532583760801,0.000555309751416819
4.75039586632219,-0.000955590886762774,-0.000703286611005475,0.000255248687004923,0.000151285468921284,0.000766532491312466,0.000555309659838699
4.76039669972498,-0.000955590978096567,-0.000703286703164498,0.000255248594408688,0.000151285376303718,0.000766532399110776,0.000555309568504906
4.77039753312776,-0.000955591069186359,-0.00070328679507731,0.00025524850205983,0.000151285283933581,0.000766532307155402,0.000555309477415114
4.78039836653054,-0.000955591160033981,-0.000703286886745757,0.000255248409956492,0.000151285191809015,0.000766532215444494,0.000555309386567492
4.79039919993333,-0.000955591250642722,-0.000703286978173158,0.000255248318095341,0.000151285099926687,0.000766532123974735,0.000555309295958751
4.80040003333611,-0.000955591341017273,-0.000703287069364247,0.000255248226471619,0.000151285008281837,0.000766532032741386,0.0005553092055842
4.8104008667389,-0.00095559143116367,-0.000703287160325115,0.000255248135079207,0.000151284916868346,0.000766531941738355,0.000555309115437803
4.82040170014168,-0.000955591521089224,-0.000703287251063139,0.000255248043910695,0.000151284825678801,0.000766531850958262,0.000555309025512249
4.83040253354446,-0.000955591610802445,-0.000703287341586905,0.000255247952957453,0.000151284734704571,0.000766531760392516,0.000555308935799028
4.84040336694725,-0.000955591700312964,-0.000703287431906132,0.000255247862209717,0.000151284643935888,0.000766531670031393,0.000555308846288509
4.85040420035003,-0.00095559178963145,-0.000703287522031584,0.000255247771656673,0.000151284553361938,0.000766531579864125,0.000555308756970023
4.86040503375281,-0.000955591878769513,-0.000703287611974979,0.000255247681286547,0.000151284462970943,0.000766531489878989,0.00055530866783196
4.8704058671556,-0.00095559196773962,-0.000703287701748893,0.000255247591086702,0.000151284372750263,0.000766531400063402,0.000555308578861853
4.88040670055838,-0.000955592056554992,-0.000703287791366667,0.000255247501043735,0.000151284282686492,0.000766531310404018,0.000555308490046481
4.89040753396116,-0.000955592145229506,-0.000703287880842306,0.000255247411143575,0.000151284192765555,0.000766531220886824,0.000555308401371967
4.90040836736395,-0.000955592233777598,-0.000703287970190375,0.000255247321371587,0.000151284102972816,0.000766531131497251,0.000555308312823875
4.91040920076673,-0.000955592322214156,-0.000703288059425896,0.000255247231712677,0.000151284013293176,0.000766531042220267,0.000555308224387317
4.92041003416951,-0.000955592410554423,-0.000703288148564249,0.000255247142151393,0.000151283923711179,0.000766530953040486,0.00055530813604705
4.9304108675723,-0.000955592498813888,-0.000703288237621065,0.000255247052672031,0.000151283834211117,0.000766530863942271,0.000555308047787585
4.94041170097508,-0.000955592587008189,-0.000703288326612123,0.000255246963258735,0.000151283744777133,0.000766530774909834,0.000555307959593284
4.95041253437786,-0.000955592675153013,-0.00070328841555325,0.000255246873895604,0.000151283655393319,0.000766530685927341,0.00055530787144846
4.96041336778065,-0.000955592763263993,-0.000703288504460222,0.000255246784566788,0.000151283566043823,0.000766530596979009,0.00055530778333748
4.97041420118343,-0.000955592851356617,-0.000703288593348666,0.000255246695256584,0.000151283476712939,0.000766530508049205,0.000555307695244856
4.98041503458622,-0.00095559293944613,-0.000703288682233964,0.000255246605949537,0.000151283387385207,0.000766530419122537,0.000555307607155343
4.990415867989,-0.000955593027547447,-0.000703288771131167,0.000255246516630527,0.000151283298045504,0.000766530330183949,0.000555307519054026
5.00041670139178,-0.000955593115675064,-0.000703288860054903,0.000255246427284854,0.000151283208679128,0.000766530241218805,0.000555307430926408
5.01041753479457,-0.000955593219744434,-0.000703288965064396,0.000255246321777095,0.000151283103146913,0.000766530136160402,0.000555307326857039
5.02041836819735,-0.000955593512019569,-0.000703289259979814,0.000255246025462304,0.000151282806763422,0.000766529841107588,0.000555307034581904
5.03041920160013,-0.000955593397830091,-0.000703289144758806,0.000255246141230039,0.000151282922558004,0.000766529956382287,0.000555307148771382
5.04042003500292,-0.000955593257706777,-0.000703289003369699,0.000255246283290046,0.000151283064650963,0.000766530097837295,0.000555307288894696
5.0504208684057,-0.000955593115493011,-0.000703288859871266,0.000255246427469394,0.000151283208863762,0.00076653024140263,0.000555307431108462
5.06042170180848,-0.000955592978891584,-0.00070328872203588,0.000255246565958828,0.000151283347385336,0.000766530379302293,0.000555307567709889
5.07042253521127,-0.000955592849684472,-0.000703288591661614,0.000255246696951743,0.00015128347840866,0.000766530509737374,0.000555307696917001
5.08042336861405,-0.000955592730326907,-0.000703288471225876,0.000255246817958974,0.000151283599443989,0.000766530630229306,0.000555307816274566
5.09042420201683,-0.000955592623927121,-0.000703288363864974,0.000255246925829329,0.000151283707339399,0.000766530737640313,0.000555307922674352
5.10042503541962,-0.000955592534425535,-0.000703288273554921,0.000255247016567929,0.000151283798099079,0.000766530827992525,0.000555308012175938
5.1104258688224,-0.000955592466725777,-0.000703288205243637,0.000255247085203372,0.000151283866750473,0.000766530896335707,0.000555308079875696
5.12042670222519,-0.000955592426745202,-0.000703288164901923,0.000255247125736521,0.000151283907293044,0.000766530936696263,0.000555308119856271
5.13042753562797,-0.000955592421385479,-0.000703288159493787,0.000255247131170321,0.000151283912728107,0.000766530942106925,0.000555308125215994
5.14042836903075,-0.000955592458421131,-0.000703288196863971,0.0002552470936228,0.000151283875171853,0.000766530904719278,0.000555308088180342
5.15042920243354,-0.000955592546305032,-0.000703288285541694,0.000255247004524259,0.000151283786052585,0.000766530816000104,0.000555308000296441
5.16043003583632,-0.00095559269389236,-0.000703288434462114,0.000255246854897138,0.000151283636390647,0.000766530667010058,0.000555307852709113
5.1704308692391,-0.000955592910088459,-0.000703288652611002,0.000255246635713017,0.000151283417155511,0.000766530448759151,0.000555307636513014
5.18043170264189,-0.00095559320343147,-0.000703288948603611,0.000255246338315754,0.000151283119689014,0.000766530152628088,0.000555307343170003
5.19043253604467,-0.000955593581627283,-0.000703289330215425,0.000255245954892963,0.00015128273617694,0.000766529770837728,0.00055530696497419
5.20043336944745,-0.000955594051061787,-0.000703289803889999,0.000255245478970502,0.000151282260143632,0.000766529296941485,0.000555306495539686
5.21043420285024,-0.000955594616322564,-0.000703290374256342,0.000255244905897391,0.000151281686937016,0.000766528726308166,0.000555305930278909
5.22043503625302,-0.00095559527976784,-0.000703291043693968,0.000255244233282816,0.000151281014165712,0.000766528056557124,0.000555305266833633
5.23043586965581,-0.000955596041182994,-0.000703291811986307,0.000255243461344369,0.000151280242047356,0.000766527287905015,0.000555304505418479
5.24043670305859,-0.000955596897562854,-0.000703292676101034,0.000255242593128762,0.00015127937362936,0.000766526423385567,0.000555303649038619
5.25043753646137,-0.00095559784305042,-0.000703293630128238,0.000255241634573945,0.000151278414851052,0.000766525468911445,0.000555302703551053
5.26043836986416,-0.000955598869049602,-0.000703294665394182,0.000255240594394817,0.000151277374429355,0.000766524433160436,0.000555301677551871
5.27043920326694,-0.000955599964512345,-0.000703295770751017,0.000255239483792127,0.000151276263567626,0.000766523327285602,0.000555300582089128
5.28044003666972,-0.000955601116381536,-0.000703296933023695,0.000255238316003448,0.00015127509550652,0.000766522164468158,0.000555299430219937
5.29044087007251,-0.000955602310153617,-0.00070329813757766,0.000255237105732787,0.000151273884953471,0.000766520959349511,0.000555298236447856
5.30044170347529,-0.000955603530511863,-0.000703299368957845,0.000255235868508555,0.000151272647440511,0.000766519727391967,0.00055529701608961
5.31044253687807,-0.000955604761975336,-0.000703300611543491,0.000255234620025648,0.000151271398666197,0.000766518484223609,0.000555295784626137
5.32044337028086,-0.000955605989510303,-0.000703301850165084,0.000255233375525572,0.000151270153875591,0.00076651724502106,0.00055529455709117
5.33044420368364,-0.000955607199059821,-0.000703303070638726,0.000255232149259542,0.000151268927323237,0.000766516023974874,0.000555293347541652
5.34044503708642,-0.000955608377960933,-0.000703304260187095,0.000255230954065524,0.000151267731850098,0.000766514833868369,0.00055529216864054
5.35044587048921,-0.000955609515234786,-0.000703305407732185,0.0002552298010741,0.000151266578589359,0.000766513685784752,0.000555291031366687
5.36044670389199,-0.000955610601750012,-0.000703306504060163,0.000255228699542837,0.00015126547680075,0.000766512588942187,0.000555289944851461
5.37044753729477,-0.000955611630271747,-0.000703307541870828,0.000255227656806585,0.000151264433820841,0.000766511550644308,0.000555288916329726
5.38044837069756,-0.000955612595416545,-0.00070330851573212,0.000255226678323188,0.000151263455108755,0.000766510576325733,0.000555287951184928
5.39044920410034,-0.000955613493536974,-0.000703309421963675,0.000255225767790482,0.000151262544363198,0.000766509669668566,0.000555287053064499
5.40045003750313,-0.000955614322559526,-0.000703310258473264,0.00025522492731063,0.000151261703686828,0.000766508832766029,0.000555286224041947
5.41045087090591,-0.000955615081796703,-0.000703311024567188,0.000255224157580627,0.000151260933776812,0.000766508066312159,0.00055528546480477
5.42045170430869,-0.000955615771749957,-0.000703311720751436,0.000255223458092087,0.00015126023412465,0.000766507369800742,0.000555284774851516
5.43045253771148,-0.000955616393915555,-0.000703312348535795,0.000255222827328061,0.000151259603213044,0.000766506741721293,0.000555284152685918
5.44045337111426,-0.000955616950601206,-0.000703312910248824,0.000255222262948942,0.000151259038701848,0.000766506179744172,0.000555283596000267
5.45045420451704,-0.000955617444757801,-0.000703313408868071,0.000255221761963055,0.000151258537598692,0.000766505680890445,0.000555283101843672
5.46045503791983,-0.000955617879828084,-0.000703313847867377,0.000255221320880073,0.000151258096412438,0.000766505241684648,0.000555282666773389
5.47045587132261,-0.000955618259612411,-0.000703314231081427,0.000255220935847115,0.00015125771128931,0.000766504858290304,0.000555282286989062
5.48045670472539,-0.000955618588150872,-0.000703314562586802,0.000255220602768253,0.000151257378132426,0.000766504526628927,0.000555281958450601
5.49045753812818,-0.000955618869620673,-0.000703314846598437,0.000255220317408549,0.000151257092705862,0.000766504242483607,0.0005552816769808
5.50045837153096,-0.000955619108247668,-0.000703315087380354,0.000255220075483746,0.000151256850724362,0.000766504001588326,0.000555281438353805
5.51045920493374,-0.000955619308231093,-0.000703315289169717,0.000255219872736571,0.000151256647929659,0.000766503799703934,0.00055528123837038
5.52046003833653,-0.000955619473680768,-0.000703315456113463,0.000255219705000404,0.000151256480154163,0.00076650363268155,0.000555281072920705
5.53046087173931,-0.000955619608566166,-0.000703315592216917,0.000255219568250913,0.000151256343372598,0.00076650349651397,0.000555280938035307
5.5404617051421,-0.000955619716676878,-0.000703315701303893,0.000255219458646134,0.000151256233742107,0.000766503387375584,0.000555280829924595
5.55046253854488,-0.000955619801593935,-0.000703315786987764,0.000255219372555543,0.000151256147631315,0.000766503301651321,0.000555280745007538
5.56046337194766,-0.000955619866671407,-0.000703315852652891,0.000255219306578719,0.000151256081639005,0.000766503235955232,0.000555280679930066
5.57046420535045,-0.000955619915027492,-0.000703315901445633,0.000255219257554368,0.000151256032603144,0.000766503187139478,0.000555280631573981
5.58046503875323,-0.000955619949544168,-0.000703315936273993,0.000255219222560683,0.000151255997601241,0.000766503152294688,0.000555280597057305
5.59046587215601,-0.000955619972874272,-0.000703315959814764,0.000255219198908166,0.000151255973943168,0.000766503128742808,0.000555280573727201
5.6004667055588,-0.000955619987454739,-0.000703315974526889,0.000255219184126204,0.000151255959157733,0.000766503114023739,0.000555280559146734
5.61046753896158,-0.000955619995524604,-0.000703315982669623,0.000255219175944816,0.000151255950974423,0.000766503105877161,0.000555280551076869
5.62046837236436,-0.000955619999146344,-0.000703315986324066,0.000255219172273026,0.000151255947301769,0.000766503102220992,0.000555280547455129
5.63046920576715,-0.000955620000229096,-0.000703315987416595,0.000255219171175311,0.000151255946203796,0.000766503101127947,0.000555280546372377
5.64047003916993,-0.00095562000055239,-0.000703315987742808,0.000255219170847549,0.000151255945875957,0.00076650310080158,0.000555280546049083
5.65047087257271,-0.000955620001789093,-0.000703315988990678,0.000255219169593755,0.000151255944621868,0.00076650309955312,0.00055528054481238
5.6604717059755,-0.000955620005526429,-0.00070331599276176,0.000255219165804771,0.000151255940831993,0.000766503095780255,0.000555280541075044
5.67047253937828,-0.00095562001328409,-0.000703316000589467,0.000255219157939905,0.000151255932965275,0.000766503087948847,0.000555280533317383
5.68047337278106,-0.000955620026528652,-0.000703316013953617,0.000255219144512313,0.000151255919534521,0.000766503074578376,0.000555280520072821
5.69047420618385,-0.000955620046683714,-0.000703316034290662,0.000255219124078723,0.000151255899096118,0.00076650305423171,0.000555280499917759
5.70047503958663,-0.000955620075135377,-0.000703316062999217,0.00025521909523388,0.000151255870244481,0.00076650302550957,0.000555280471466096
5.71047587298942,-0.000955620113232902,-0.000703316101440724,0.000255219056609879,0.000151255831611379,0.000766502987049868,0.000555280433368571
5.7204767063922,-0.00095562016228459,-0.000703316150935296,0.000255219006880338,0.000151255781870116,0.000766502937531862,0.000555280384316883
5.73047753979498,-0.000955620223549145,-0.000703316212753,0.000255218944769162,0.000151255719744297,0.000766502875684883,0.000555280323052328
5.74047837319777,-0.000955620298222937,-0.000703316288101005,0.000255218869063447,0.000151255644020729,0.000766502800301186,0.000555280248378536
5.75047920660055,-0.000955620387423809,-0.000703316378107246,0.000255218778629905,0.000151255553565854,0.000766502710252299,0.000555280159177664
5.76048004000333,-0.000955620492172191,-0.000703316483801363,0.000255218672434005,0.000151255447344898,0.00076650260450809,0.000555280054429282
5.77048087340612,-0.000955620613370431,-0.000703316606093849,0.00025521854956093,0.000151255324442825,0.000766502482157631,0.000555279933231042
5.7804817068089,-0.000955620751781365,-0.000703316745754425,0.000255218409237305,0.000151255184086074,0.000766502342430832,0.000555279794820108
5.79048254021168,-0.000955620908007189,-0.000703316903390721,0.000255218250852613,0.000151255025663984,0.000766502184719771,0.000555279638594284
5.80048337361447,-0.000955621082469735,-0.000703317079428376,0.000255218073979194,0.000151254848748789,0.000766502008598603,0.000555279464131738
5.81048420701725,-0.000955621275393217,-0.000703317274093626,0.000255217878389736,0.000151254653113125,0.000766501813840981,0.000555279271208256
5.82048504042004,-0.000955621486790432,-0.00070331748739938,0.000255217664071267,0.000151254438744011,0.000766501600433984,0.000555279059811041
5.83048587382282,-0.000955621716453273,-0.00070331771913565,0.00025521743123477,0.000151254205852481,0.000766501368587696,0.0005552788301482
5.8404867072256,-0.000955621963948228,-0.000703317968865006,0.000255217180319752,0.000151253954878141,0.000766501118739751,0.000555278582653245
5.85048754062839,-0.000955622228617314,-0.000703318235923525,0.000255216911993286,0.000151253686488222,0.000766500851554384,0.000555278317984159
5.86048837403117,-0.000955622509584671,-0.000703318519427437,0.000255216627143339,0.000151253401570897,0.000766500567915781,0.000555278037016802
5.87048920743395,-0.000955622805768729,-0.000703318818285404,0.000255216326866426,0.00015125310122294,0.000766500268915793,0.000555277740832744
5.88049004083674,-0.000955623115899641,-0.000703319131216114,0.000255216012449943,0.000151252786732051,0.00076649995583634,0.000555277430701832
5.89049087423952,-0.000955623438541412,-0.000703319456770607,0.00025521568534973,0.00015125245955441,0.000766499630127067,0.000555277108060061
5.9004917076423,-0.00095562377211794,-0.000703319793358551,0.000255215347163668,0.000151252121288277,0.00076649929337906,0.000555276774483533
5.91049254104509,-0.000955624114942038,-0.000703320139277525,0.00025521499960226,0.000151251773644559,0.000766498947295547,0.000555276431659435
5.92049337444787,-0.000955624465246391,-0.000703320492744259,0.000255214644457243,0.000151251418415416,0.000766498593660646,0.000555276081355082
5.93049420785065,-0.000955624821215372,-0.000703320851926735,0.000255214283569333,0.000151251057441999,0.000766498234307243,0.000555275725386101
5.94049504125344,-0.000955625181016672,-0.000703321214976102,0.000255213918796159,0.000151250692582378,0.000766497871085069,0.000555275365584801
5.95049587465622,-0.000955625542831754,-0.000703321580057406,0.000255213551981388,0.000151250325680655,0.000766497505829952,0.000555275003769719
5.96049670805901,-0.000955625904884287,-0.00070332194537828,0.000255213184925897,0.000151249958538135,0.00076649714033511,0.000555274641717186
5.97049754146179,-0.000955626265465876,-0.000703322309214908,0.000255212819361687,0.000151249592887229,0.000766496776325182,0.000555274281135596
5.98049837486457,-0.000955626622958558,-0.00070332266993472,0.00025521245692908,0.000151249230368649,0.000766496415433515,0.000555273923642915
5.99049920826736,-0.000955626975853733,-0.0007033230260155,0.000255212099157521,0.000151248872512203,0.000766496059183052,0.00055527357074774
6.00050004167014,-0.00095562732276737,-0.000703323376060723,0.000255211747450165,0.000151248520721379,0.000766495708970984,0.000555273223834103
6.01050087507292,-0.000955627662451471,-0.000703323718811127,0.000255211403072256,0.000151248176261722,0.000766495366057175,0.000555272884150002
6.02050170847571,-0.000955627993801916,-0.000703324053152625,0.000255211067143169,0.000151247840252875,0.000766495031556244,0.000555272552799557
6.03050254187849,-0.000955628315862923,-0.00070332437812081,0.000255210740631893,0.000151247513664057,0.000766494706433062,0.00055527223073855
6.04050337528127,-0.000955628627828411,-0.000703324692902325,0.000255210424355647,0.000151247197312682,0.000766494391501373,0.000555271918773062
6.05050420868406,-0.000955628929040629,-0.000703324996833483,0.00025521011898127,0.000151246891865748,0.000766494087425185,0.000555271617560844
6.06050504208684,-0.000955629218986423,-0.0007033252893965,0.000255209825029006,0.000151246597843625,0.000766493794722531,0.00055527132761505
6.07050587548962,-0.000955629497291525,-0.000703325570213729,0.000255209542878295,0.000151246315625845,0.00076649351377124,0.000555271049309948
6.08050670889241,-0.000955629763713235,-0.000703325839040284,0.000255209272775188,0.000151246045458517,0.000766493244816318,0.000555270782888237
6.09050754229519,-0.000955630018131873,-0.000703326095755404,0.00025520901484102,0.000151245787463007,0.000766492987978586,0.0005552705284696
6.10050837569797,-0.000955630260541296,-0.000703326340352892,0.000255208769082017,0.000151245541645543,0.000766492743264246,0.000555270286060177
6.11050920910076,-0.000955630491038814,-0.00070332657293094,0.000255208535399523,0.000151245307907449,0.000766492510575063,0.000555270055562659
6.12051004250354,-0.000955630709814749,-0.000703326793681588,0.000255208313600587,0.000151245086055726,0.000766492289718908,0.000555269836786724
6.13051087590633,-0.000955630917141877,-0.000703327002880075,0.000255208103408662,0.000151244875813766,0.000766492080420411,0.000555269629459596
6.14051170930911,-0.000955631113364951,-0.000703327200874269,0.00025520790447423,0.000151244676831967,0.000766491882331541,0.000555269433236522
6.15051254271189,-0.00095563129889048,-0.000703327388074348,0.000255207716385166,0.000151244488698108,0.000766491695041927,0.000555269247710993
6.16051337611468,-0.000955631474176887,-0.000703327564942875,0.000255207538676711,0.000151244310947319,0.000766491518088786,0.000555269072424586
6.17051420951746,-0.000955631639725179,-0.000703327731985381,0.000255207370840934,0.000151244143071551,0.000766491350966348,0.000555268906876294
6.18051504292024,-0.000955631796070199,-0.000703327889741536,0.000255207212335602,0.000151243984528442,0.000766491193134687,0.000555268750531274
6.19051587632303,-0.000955631943772525,-0.00070332803877698,0.00025520706259239,0.000151243834749532,0.000766491044027893,0.000555268602828948
6.20051670972581,-0.000955632083411064,-0.000703328179675846,0.000255206921024392,0.000151243693147777,0.000766490903061557,0.000555268463190409
6.21051754312859,-0.000955632215576354,-0.000703328313034003,0.00025520678703291,0.000151243559124337,0.000766490769639526,0.000555268331025119
6.22051837653138,-0.000955632340864578,-0.000703328439453016,0.00025520666001352,0.000151243432074645,0.000766490643159947,0.000555268205736895
6.23051920993416,-0.000955632459872292,-0.000703328559534825,0.000255206539361427,0.000151243311393761,0.000766490523020595,0.000555268086729181
6.24052004333694,-0.000955632573191818,-0.0007033286738771,0.000255206424476122,0.000151243196481034,0.000766490408623513,0.000555267973409655
6.25052087673973,-0.000955632681407293,-0.000703328783069251,0.000255206314765395,0.000151243086744114,0.000766490299379012,0.00055526786519418
6.26052171014251,-0.000955632785091314,-0.000703328887689042,0.000255206209648739,0.000151242981602356,0.00076649019470905,0.000555267761510159
6.2705225435453,-0.000955632884802129,-0.000703328988299762,0.000255206108560192,0.000151242880489662,0.00076649009405007,0.000555267661799344
6.28052337694808,-0.000955632981081335,-0.000703329085447895,0.000255206010950672,0.000151242782856821,0.000766489996855327,0.000555267565520138
6.29052421035086,-0.000955633074452004,-0.000703329179661235,0.000255205916289881,0.000151242688173408,0.000766489902596774,0.000555267472149469
6.30052504375365,-0.000955633165417203,-0.000703329271447388,0.0002552058240678,0.000151242595929281,0.00076648981076656,0.00055526738118427
6.31052587715643,-0.000955633254458837,-0.000703329361292611,0.000255205733795865,0.000151242505635762,0.0007664897208782,0.000555267292142636
6.32052671055921,-0.00095563334203677,-0.000703329449660916,0.000255205645007859,0.00015124241682652,0.000766489632467454,0.000555267204564703
6.330527543962,-0.000955633428588175,-0.000703329536993424,0.000255205557260567,0.000151242329058237,0.000766489545092994,0.000555267118013298
6.34052837736478,-0.000955633514527068,-0.000703329623707884,0.000255205470134253,0.000151242241911076,0.000766489458336867,0.000555267032074405
6.35052921076756,-0.000955633600243984,-0.000703329710198359,0.000255205383232987,0.000151242154989009,0.000766489371804824,0.000555266946357489
6.36053004417035,-0.000955633686105777,-0.000703329796835011,0.000255205296184845,0.000151242067920028,0.000766489285126522,0.000555266860495696
6.37053087757313,-0.000955633772455494,-0.000703329883963985,0.00025520520864204,0.000151241980356259,0.000766489197955652,0.000555266774145979
6.38053171097591,-0.000955633859612326,-0.000703329971907352,0.000255205120280972,0.000151241891974026,0.000766489109969986,0.000555266686989147
6.3905325443787,-0.000955633947871605,-0.000703330060963108,0.000255205030802227,0.000151241802473842,0.000766489020871385,0.000555266598729868
6.40053337778148,-0.000955634037504843,-0.000703330151405215,0.000255204939930543,0.000151241711580381,0.000766488930385756,0.00055526650909663
6.41053421118426,-0.000955634128759802,-0.000703330243483672,0.000255204847414734,0.000151241619042395,0.000766488838262979,0.000555266417841671
6.42053504458705,-0.000955634221860602,-0.000703330337424621,0.000255204753027583,0.000151241524632612,0.000766488744276801,0.00055526632474087
6.43053587798983,-0.000955634317007863,-0.00070333043343049,0.0002552046565657,0.000151241428147595,0.000766488648224698,0.00055526622959361
6.44053671139262,-0.000955634414378875,-0.00070333053168017,0.000255204557849344,0.000151241329407558,0.000766488549927692,0.000555266132222598
6.4505375447954,-0.000955634514127822,-0.000703330632329238,0.000255204456722201,0.000151241228256148,0.00076648844923013,0.000555266032473651
6.46053837819818,-0.000955634616386051,-0.000703330735510222,0.000255204353051111,0.000151241124560176,0.000766488345999419,0.000555265930215422
6.47053921160097,-0.000955634721262388,-0.000703330841332933,0.000255204246725742,0.00015124101820928,0.000766488240125696,0.000555265825339085
6.48054004500375,-0.00095563482884353,-0.000703330949884848,0.000255204137658202,0.000151240909115549,0.00076648813152144,0.000555265717757943
6.49054087840653,-0.000955634939194489,-0.000703331061231566,0.000255204025782579,0.000151240797213054,0.00076648802012102,0.000555265607406984
6.50054171180932,-0.000955635052359118,-0.000703331175417336,0.000255203911054416,0.000151240682457326,0.000766487905880167,0.000555265494242355
6.5105425452121,-0.000955635168360706,-0.000703331292465656,0.0002552037934501,0.000151240564824747,0.000766487788775368,0.000555265378240766
6.52054337861488,-0.000955635287202653,-0.000703331412379955,0.000255203672966186,0.000151240444311871,0.000766487668803192,0.00055526525939882
6.53054421201767,-0.000955635408869215,-0.000703331535144348,0.000255203549618636,0.000151240320934664,0.000766487545979533,0.000555265137732258
6.54054504542045,-0.000955635533326324,-0.00070333166072446,0.000255203423441987,0.000151240194727669,0.00076648742033878,0.000555265013275149
6.55054587882324,-0.000955635660522489,-0.000703331789068333,0.000255203294488444,0.000151240065743105,0.000766487291932917,0.000555264886078984
6.56054671222602,-0.000955635790389741,-0.000703331920107386,0.000255203162826913,0.000151239934049895,0.000766487160830556,0.000555264756211732
6.5705475456288,-0.000955635922844657,-0.000703332053757442,0.000255203028541972,0.000151239799732633,0.000766487027115916,0.000555264623756816
6.58054837903159,-0.000955636057789424,-0.000703332189919805,0.000255202891732784,0.00015123966289051,0.000766486890887738,0.000555264488812049
6.59054921243437,-0.000955636195112945,-0.000703332328482376,0.000255202752511981,0.000151239523636183,0.000766486752258175,0.000555264351488528
6.60055004583715,-0.000955636334691988,-0.00070333246932081,0.000255202611004498,0.000151239382094617,0.000766486611351633,0.000555264211909485
6.61055087923994,-0.000955636476392347,-0.000703332612299691,0.000255202467346397,0.000151239238401905,0.000766486468303593,0.000555264070209126
6.62055171264272,-0.000955636620070028,-0.000703332757273724,0.000255202321683659,0.000151239092704066,0.000766486323259418,0.000555263926531445
6.6305525460455,-0.000955636765572436,-0.000703332904088937,0.000255202174170989,0.000151238945155841,0.000766486176373155,0.000555263781029037
6.64055337944829,-0.00095563691273956,-0.000703333052583877,0.000255202024970609,0.000151238795919489,0.000766486027806336,0.000555263633861913
6.65055421285107,-0.000955637061405149,-0.00070333320259079,0.000255201874251066,0.000151238645163599,0.000766485877726793,0.000555263485196324
6.66055504625385,-0.000955637211397867,-0.000703333353936797,0.000255201722186063,0.000151238493061916,0.000766485726307492,0.000555263335203606
6.67055587965664,-0.000955637362542428,-0.000703333506445027,0.000255201568953309,0.000151238339792191,0.000766485573725386,0.000555263184059045
6.68055671305942,-0.00095563751466069,-0.000703333659935734,0.000255201414733407,0.000151238185535071,0.000766485420160311,0.000555263031940783
6.69055754646221,-0.000955637667572727,-0.000703333814227366,0.000255201259708768,0.000151238030473011,0.000766485265793903,0.000555262879028746
6.70055837986499,-0.000955637821097852,-0.000703333969137607,0.000255201104062577,0.000151237874789239,0.00076648511080857,0.000555262725503621
6.71055921326777,-0.000955637975055597,-0.00070333412448436,0.000255200947977793,0.000151237718666759,0.000766484955386494,0.000555262571545876
6.72056004667056,-0.000955638129266656,-0.000703334280086702,0.000255200791636202,0.000151237562287401,0.000766484799708689,0.000555262417334817
6.73056088007334,-0.000955638283553768,-0.000703334435765772,0.000255200635217512,0.000151237405830917,0.0007664846439541,0.000555262263047705
6.74056171347612,-0.000955638437742563,-0.000703334591345627,0.000255200478898502,0.000151237249474128,0.000766484488298756,0.00055526210885891
6.75056254687891,-0.000955638591662353,-0.00070333474665404,0.000255200322852219,0.000151237093390122,0.000766484332914968,0.00055526195493912
6.76056338028169,-0.000955638745146873,-0.000703334901523245,0.000255200167247225,0.000151236937747503,0.000766484177970583,0.0005552618014546
6.77056421368447,-0.000955638898034976,-0.000703335055790642,0.000255200012246894,0.000151236782709683,0.000766484023628282,0.000555261648566497
6.78056504708726,-0.00095563905017127,-0.000703335209299437,0.000255199858008762,0.000151236628434239,0.000766483870044933,0.000555261496430203
6.79056588049004,-0.00095563920140672,-0.000703335361899249,0.000255199704683927,0.000151236475072303,0.00076648371737099,0.000555261345194753
6.80056671389282,-0.000955639351599181,-0.000703335513446654,0.000255199552416494,0.000151236322768016,0.000766483565749949,0.000555261195002292
6.81056754729561,-0.000955639500613903,-0.000703335663805684,0.000255199401343077,0.000151236171658026,0.000766483415317843,0.00055526104598757
6.82056838069839,-0.00095563964832397,-0.000703335812848279,0.000255199251592344,0.00015123602187103,0.000766483266202794,0.000555260898277503
6.83056921410117,-0.000955639794610702,-0.000703335960454689,0.000255199103284615,0.00015123587352738,0.000766483118524612,0.000555260751990771
6.84057004750396,-0.000955639939364002,-0.000703336106513824,0.000255198956531507,0.000151235726738719,0.000766482972394441,0.000555260607237471
6.85057088090674,-0.000955640082482662,-0.000703336250923562,0.000255198811435628,0.000151235581607679,0.000766482827914452,0.000555260464118811
6.86057171430953,-0.000955640223874615,-0.000703336393591007,0.000255198668090315,0.000151235438227622,0.000766482685177587,0.000555260322726858
6.87057254771231,-0.000955640363457144,-0.000703336534432694,0.000255198526579429,0.000151235296682427,0.000766482544267352,0.000555260183144329
6.88057338111509,-0.000955640501157043,-0.00070333667337476,0.000255198386977186,0.000151235157046331,0.000766482405257647,0.00055526004544443
6.89057421451788,-0.000955640636910731,-0.000703336810353048,0.000255198249348046,0.000151235019383808,0.00076648226821266,0.000555259909690742
6.90057504792066,-0.000955640770664324,-0.00070333694531319,0.000255198113746638,0.0001512348837495,0.000766482133186786,0.000555259775937149
6.91057588132344,-0.000955640902373656,-0.000703337078210621,0.000255197980217736,0.000151234750188195,0.000766482000224613,0.000555259644227817
